~o
<STREAMINFO> 1 25
<VECSIZE> 25<NULLD><MFCC_D_N_Z_0><DIAGC>
~s "silst"
<MEAN> 25
 -6.216308e+000 4.695113e+000 -8.996817e+000 4.401973e+000 -6.839870e+000 5.970639e+000 -1.647735e+000 2.579494e+000 -2.239120e+000 5.961069e+000 -2.794873e-001 3.431918e+000 2.934908e-001 -1.369387e-001 2.387413e-001 -1.104253e-001 1.541029e-001 -1.218306e-001 1.470497e-001 -1.186581e-001 -1.352158e-001 -1.072489e-001 -7.369537e-002 2.993990e-004 1.286210e+000
<VARIANCE> 25
 2.324768e+001 1.070869e+001 1.689909e+001 1.216205e+001 2.081558e+001 1.434308e+001 1.915285e+001 1.403625e+001 2.414302e+001 1.698543e+001 1.278877e+001 1.093171e+001 2.737202e+000 6.337341e-001 1.209437e+000 8.603781e-001 9.749362e-001 1.092807e+000 1.207268e+000 1.128284e+000 1.364427e+000 1.062027e+000 1.012115e+000 7.381901e-001 9.248970e+000
<GCONST> 8.230634e+001
~h "b"
<BEGINHMM>
<NUMSTATES> 5
<STATE> 2
<MEAN> 25
 2.943244e-001 3.998015e+000 8.507498e+000 -2.754623e+000 -4.257491e+000 -3.525152e+000 -1.249060e+000 -5.273899e+000 -1.535971e+000 1.216157e+000 -3.817774e-001 -2.100258e-001 -5.564389e-001 -1.585857e+000 1.846489e+000 -1.696257e+000 -1.117171e+000 -7.240074e-001 5.159274e-001 -8.652123e-001 -7.884521e-001 8.479206e-001 -1.952820e-001 -2.301958e-001 1.921974e+000
<VARIANCE> 25
 5.112090e+001 1.051936e+002 1.160979e+002 1.363933e+002 5.586010e+001 7.434920e+001 6.959608e+001 7.745321e+001 7.688183e+001 5.372132e+001 2.786278e+001 3.668922e+001 4.700809e+000 1.191007e+001 9.124458e+000 1.355444e+001 7.528554e+000 7.180972e+000 6.307736e+000 8.804249e+000 7.992325e+000 5.603347e+000 4.259105e+000 6.303570e+000 2.237942e+000
<GCONST> 1.211343e+002
<STATE> 3
<MEAN> 25
 1.175225e+000 1.572592e+000 1.096286e+001 -7.552718e+000 -1.354731e+001 -5.380072e+000 -1.254314e+000 -6.503736e+000 -3.547672e+000 5.938717e+000 -8.343051e-002 3.274240e-001 1.623981e-001 -3.700463e-001 -1.064991e+000 2.393944e-001 5.077524e-001 -3.762904e-001 2.496958e-001 5.740324e-001 7.638732e-001 -3.280692e-001 1.458321e-001 7.764859e-002 2.202626e-001
<VARIANCE> 25
 2.736255e+001 4.520045e+001 3.963415e+001 5.360785e+001 5.841012e+001 3.427443e+001 5.946461e+001 5.274535e+001 4.961481e+001 3.738728e+001 4.101575e+001 5.920758e+001 9.517211e-001 2.280389e+000 3.873159e+000 4.414438e+000 4.689187e+000 2.525005e+000 3.820894e+000 4.544139e+000 3.131176e+000 5.319658e+000 3.127426e+000 3.078683e+000 8.290156e-001
<GCONST> 1.055316e+002
<STATE> 4
<MEAN> 25
 2.102898e+000 -1.206536e+001 2.313308e+000 2.088341e+000 1.132012e+000 -1.033147e+000 -1.256983e+000 -1.731192e+000 -9.782030e-001 1.598994e+000 -1.793736e+000 -2.838572e+000 1.327130e-001 1.410888e-002 -2.947916e-001 6.668402e-002 1.488101e-001 7.776790e-002 -8.505934e-002 -6.431892e-002 6.992994e-002 -9.237931e-002 -5.293495e-002 1.947204e-002 -2.643851e-002
<VARIANCE> 25
 5.540238e+001 1.925583e+002 1.086832e+002 1.605003e+002 1.530303e+002 1.180287e+002 1.620791e+002 1.043051e+002 9.953255e+001 7.927392e+001 5.215503e+001 6.341092e+001 1.962021e+000 6.089273e+000 4.541790e+000 7.901144e+000 9.077270e+000 6.865993e+000 9.038673e+000 7.785976e+000 6.923404e+000 5.955369e+000 5.149622e+000 4.224998e+000 2.122198e+000
<GCONST> 1.236015e+002
<TRANSP> 5
 0.000000e+000 1.000000e+000 0.000000e+000 0.000000e+000 0.000000e+000
 0.000000e+000 7.343783e-001 2.656217e-001 0.000000e+000 0.000000e+000
 0.000000e+000 0.000000e+000 7.931708e-001 2.068292e-001 0.000000e+000
 0.000000e+000 0.000000e+000 0.000000e+000 9.300909e-001 6.990912e-002
 0.000000e+000 0.000000e+000 0.000000e+000 0.000000e+000 0.000000e+000
<ENDHMM>
~h "c"
<BEGINHMM>
<NUMSTATES> 5
<STATE> 2
<MEAN> 25
 1.292055e-008 1.831648e-008 -6.299361e-008 6.397928e-009 6.513714e-008 4.146926e-008 -2.503356e-008 -3.737221e-008 4.785829e-009 -8.260601e-008 4.838081e-008 -2.966501e-008 7.700191e-003 5.403126e-003 9.986212e-003 -4.435305e-003 5.198286e-003 1.178548e-003 5.735684e-003 -2.200497e-003 -9.225003e-004 -6.409926e-004 -2.520854e-003 -2.406914e-003 2.725629e-002
<VARIANCE> 25
 4.587285e+001 1.030148e+002 6.019880e+001 7.829473e+001 5.465159e+001 4.961901e+001 6.176896e+001 4.825900e+001 4.880714e+001 4.872197e+001 3.755544e+001 3.288158e+001 1.069084e+000 2.243620e+000 1.931021e+000 2.910384e+000 2.554792e+000 2.477852e+000 2.995093e+000 2.747025e+000 2.618064e+000 2.724945e+000 2.375594e+000 2.010036e+000 1.498881e+000
<GCONST> 1.041510e+002
<STATE> 3
<MEAN> 25
 1.292055e-008 1.831648e-008 -6.299361e-008 6.397928e-009 6.513714e-008 4.146926e-008 -2.503356e-008 -3.737221e-008 4.785829e-009 -8.260601e-008 4.838081e-008 -2.966501e-008 7.700191e-003 5.403126e-003 9.986212e-003 -4.435305e-003 5.198286e-003 1.178548e-003 5.735684e-003 -2.200497e-003 -9.225003e-004 -6.409926e-004 -2.520854e-003 -2.406914e-003 2.725629e-002
<VARIANCE> 25
 4.587285e+001 1.030148e+002 6.019880e+001 7.829473e+001 5.465159e+001 4.961901e+001 6.176896e+001 4.825900e+001 4.880714e+001 4.872197e+001 3.755544e+001 3.288158e+001 1.069084e+000 2.243620e+000 1.931021e+000 2.910384e+000 2.554792e+000 2.477852e+000 2.995093e+000 2.747025e+000 2.618064e+000 2.724945e+000 2.375594e+000 2.010036e+000 1.498881e+000
<GCONST> 1.041510e+002
<STATE> 4
<MEAN> 25
 1.292055e-008 1.831648e-008 -6.299361e-008 6.397928e-009 6.513714e-008 4.146926e-008 -2.503356e-008 -3.737221e-008 4.785829e-009 -8.260601e-008 4.838081e-008 -2.966501e-008 7.700191e-003 5.403126e-003 9.986212e-003 -4.435305e-003 5.198286e-003 1.178548e-003 5.735684e-003 -2.200497e-003 -9.225003e-004 -6.409926e-004 -2.520854e-003 -2.406914e-003 2.725629e-002
<VARIANCE> 25
 4.587285e+001 1.030148e+002 6.019880e+001 7.829473e+001 5.465159e+001 4.961901e+001 6.176896e+001 4.825900e+001 4.880714e+001 4.872197e+001 3.755544e+001 3.288158e+001 1.069084e+000 2.243620e+000 1.931021e+000 2.910384e+000 2.554792e+000 2.477852e+000 2.995093e+000 2.747025e+000 2.618064e+000 2.724945e+000 2.375594e+000 2.010036e+000 1.498881e+000
<GCONST> 1.041510e+002
<TRANSP> 5
 0.000000e+000 1.000000e+000 0.000000e+000 0.000000e+000 0.000000e+000
 0.000000e+000 6.000000e-001 4.000000e-001 0.000000e+000 0.000000e+000
 0.000000e+000 0.000000e+000 6.000000e-001 4.000000e-001 0.000000e+000
 0.000000e+000 0.000000e+000 0.000000e+000 7.000000e-001 3.000000e-001
 0.000000e+000 0.000000e+000 0.000000e+000 0.000000e+000 0.000000e+000
<ENDHMM>
~h "d"
<BEGINHMM>
<NUMSTATES> 5
<STATE> 2
<MEAN> 25
 -4.068893e+000 -5.578719e+000 8.095599e+000 -5.124254e+000 3.054523e+000 7.610800e-001 -2.151751e+000 -2.810896e+000 -2.389713e-001 2.736983e+000 7.568349e-001 1.348049e+000 9.143537e-002 -2.145439e+000 7.957208e-001 1.283517e-001 -7.070559e-002 -6.239817e-001 -1.500305e-001 9.285325e-002 -4.235399e-001 6.714652e-002 -4.214015e-002 -6.350552e-001 1.625861e+000
<VARIANCE> 25
 1.138154e+002 2.347403e+002 2.391189e+002 2.080707e+002 1.378573e+002 7.663960e+001 1.102983e+002 5.907528e+001 4.548586e+001 6.127912e+001 4.668847e+001 4.493836e+001 4.249152e+000 1.303212e+001 1.087242e+001 1.496252e+001 8.669834e+000 8.878601e+000 9.802386e+000 6.995237e+000 5.122899e+000 6.376851e+000 5.178366e+000 5.740942e+000 5.220154e+000
<GCONST> 1.267921e+002
<STATE> 3
<MEAN> 25
 -8.369546e-002 -5.958650e-001 9.075172e+000 -5.893027e+000 -6.183432e+000 -4.832714e+000 -1.661371e+000 -3.334385e+000 -1.395790e+000 4.295668e+000 -2.188419e+000 8.554980e-001 1.602126e-001 -1.327074e+000 -2.650264e-001 -6.139994e-001 1.872425e-001 -5.655872e-001 6.943787e-001 1.246620e-002 1.151964e-001 -4.602946e-001 -1.139055e-001 -2.770386e-001 1.251890e+000
<VARIANCE> 25
 1.201578e+001 9.447254e+001 9.939396e+001 1.293062e+002 9.517714e+001 4.057540e+001 1.123608e+002 4.888425e+001 6.982441e+001 6.646853e+001 3.233448e+001 4.862931e+001 1.276717e+000 6.717130e+000 7.245951e+000 9.180468e+000 1.011990e+001 4.212680e+000 1.260439e+001 5.119348e+000 6.892426e+000 8.426131e+000 3.354964e+000 4.353909e+000 4.123613e+000
<GCONST> 1.175420e+002
<STATE> 4
<MEAN> 25
 1.043432e+000 -1.223826e+001 3.503254e+000 5.470934e+000 1.668185e+000 -3.094862e+000 -1.946805e+000 1.536748e+000 -2.811304e+000 8.814421e-001 -4.187704e-001 -3.779580e+000 6.424418e-002 2.460623e-001 -1.945236e-001 -1.031433e-001 -5.814509e-002 1.485085e-001 1.074528e-001 -1.479579e-001 6.640292e-002 -7.580601e-002 2.191012e-002 1.716074e-001 -1.212512e-001
<VARIANCE> 25
 2.431720e+001 1.826071e+002 1.612397e+002 1.652688e+002 1.313608e+002 1.695950e+002 1.570717e+002 1.123586e+002 9.267260e+001 7.724720e+001 8.938923e+001 7.531071e+001 8.193395e-001 5.942843e+000 4.422180e+000 6.006845e+000 4.945994e+000 5.391419e+000 7.269048e+000 4.536759e+000 5.675927e+000 4.685793e+000 4.611161e+000 4.448290e+000 2.210398e+000
<GCONST> 1.207530e+002
<TRANSP> 5
 0.000000e+000 1.000000e+000 0.000000e+000 0.000000e+000 0.000000e+000
 0.000000e+000 7.077884e-001 2.922116e-001 0.000000e+000 0.000000e+000
 0.000000e+000 0.000000e+000 7.057645e-001 2.942356e-001 0.000000e+000
 0.000000e+000 0.000000e+000 0.000000e+000 9.255359e-001 7.446411e-002
 0.000000e+000 0.000000e+000 0.000000e+000 0.000000e+000 0.000000e+000
<ENDHMM>
~h "g"
<BEGINHMM>
<NUMSTATES> 5
<STATE> 2
<MEAN> 25
 1.296633e+000 2.002789e-001 5.799949e+000 5.179967e+000 -1.871871e+000 -2.140279e+000 -3.823287e+000 8.472992e-002 -1.337591e+000 4.453399e-001 -1.755316e+000 -2.978330e+000 -1.193168e-002 -1.146596e+000 -4.430316e-001 -6.151445e-001 3.171047e-001 -4.368595e-001 5.879145e-001 8.421869e-002 -7.524422e-001 5.060886e-001 3.212990e-001 -2.518786e-001 1.084444e+000
<VARIANCE> 25
 3.828345e+001 2.157976e+002 1.094276e+002 1.917141e+002 9.628020e+001 7.636767e+001 8.002399e+001 5.612054e+001 8.051089e+001 6.583732e+001 6.016145e+001 4.915748e+001 4.652292e+000 1.021172e+001 8.592625e+000 1.311418e+001 8.239462e+000 6.257593e+000 8.187370e+000 4.837880e+000 4.980603e+000 7.145221e+000 4.544254e+000 4.042859e+000 7.226637e+000
<GCONST> 1.234657e+002
<STATE> 3
<MEAN> 25
 3.289402e-001 -1.457226e+000 -5.897460e-001 -3.410677e+000 2.217835e+000 -2.098173e+000 1.402036e+000 2.054212e-001 -2.443717e+000 8.300799e-001 1.157769e+000 5.438531e-001 5.663608e-001 6.589803e-001 1.364015e-001 -1.886548e+000 -3.454783e-001 -7.280450e-001 -5.241629e-001 -7.900940e-001 -3.228638e-001 -6.342672e-001 -8.591591e-001 -1.261121e-001 9.861496e-001
<VARIANCE> 25
 2.406928e+001 4.062522e+001 7.897100e+001 1.234299e+002 8.654286e+001 7.724448e+001 6.161972e+001 4.000045e+001 6.453531e+001 1.360577e+002 4.163131e+001 4.048328e+001 1.973739e+000 3.568866e+000 4.292256e+000 9.393514e+000 6.367033e+000 5.024199e+000 5.213914e+000 3.648390e+000 6.021970e+000 8.364628e+000 4.888244e+000 4.285227e+000 2.889268e+000
<GCONST> 1.152270e+002
<STATE> 4
<MEAN> 25
 3.494939e+000 2.472064e+000 3.032745e+000 -7.137550e+000 1.582987e+000 -3.787015e+000 -2.354751e+000 -2.208346e+000 -3.853195e+000 -2.330902e+000 -3.892920e+000 -2.572861e+000 6.313591e-001 9.467385e-001 4.614291e-001 -7.837073e-001 -8.091462e-002 -5.141480e-001 -7.899382e-001 -1.830435e-001 -3.402944e-002 3.000070e-001 -8.683961e-001 -8.085085e-001 4.767739e-001
<VARIANCE> 25
 2.970887e+001 5.185781e+001 7.170656e+001 7.885962e+001 6.500931e+001 3.925735e+001 6.283936e+001 5.082263e+001 5.035635e+001 8.088073e+001 4.567051e+001 4.305425e+001 1.195608e+000 2.404640e+000 3.893946e+000 5.758201e+000 7.265144e+000 3.727644e+000 4.772963e+000 3.446630e+000 5.080942e+000 7.565142e+000 3.573776e+000 2.201969e+000 1.640442e+000
<GCONST> 1.102091e+002
<TRANSP> 5
 0.000000e+000 1.000000e+000 0.000000e+000 0.000000e+000 0.000000e+000
 0.000000e+000 7.978742e-001 2.021258e-001 0.000000e+000 0.000000e+000
 0.000000e+000 0.000000e+000 6.463217e-001 3.536784e-001 0.000000e+000
 0.000000e+000 0.000000e+000 0.000000e+000 3.372758e-001 6.627242e-001
 0.000000e+000 0.000000e+000 0.000000e+000 0.000000e+000 0.000000e+000
<ENDHMM>
~h "h"
<BEGINHMM>
<NUMSTATES> 5
<STATE> 2
<MEAN> 25
 -1.610662e-001 6.143596e-001 1.282214e+000 5.516910e+000 -1.477781e-001 1.442228e+000 1.407542e-001 3.209273e+000 1.289798e-001 5.451967e-001 1.862388e+000 -1.580881e+000 -1.730579e-002 -2.282396e-002 2.742742e-002 3.353856e-002 7.368510e-002 5.265679e-002 5.913079e-002 4.774021e-002 6.029978e-002 1.367678e-002 1.388814e-002 -8.548352e-003 -8.678803e-003
<VARIANCE> 25
 6.100547e+000 8.959511e+000 5.741704e+000 9.400958e+000 9.262742e+000 1.049139e+001 1.465751e+001 1.390315e+001 1.472260e+001 1.062788e+001 1.144299e+001 1.238074e+001 1.194350e-001 2.662941e-001 3.880540e-001 5.407624e-001 9.361452e-001 1.136267e+000 1.122169e+000 1.561283e+000 1.403291e+000 1.070146e+000 1.214886e+000 1.065034e+000 4.506191e-002
<GCONST> 6.701416e+001
<STATE> 3
<MEAN> 25
 -2.113900e+000 -4.687065e+000 -2.773346e+000 4.126466e+000 6.596421e+000 3.674967e+000 1.595936e+000 1.334492e-001 -1.613311e-001 -3.217356e+000 2.424506e+000 1.305811e+000 -2.374628e-001 -9.243933e-001 -8.759736e-001 -1.087784e-001 7.976177e-001 2.863636e-001 4.965744e-001 -1.205443e+000 2.183462e-001 -9.515632e-001 -3.040383e-002 4.809246e-001 8.002011e-001
<VARIANCE> 25
 1.217248e+001 4.394699e+001 1.841494e+001 1.243878e+001 1.072603e+001 1.420924e+001 1.899079e+001 3.343288e+001 1.783733e+001 1.572638e+001 1.977985e+001 1.952000e+001 2.684073e-001 2.250131e+000 1.742682e+000 4.844434e-001 1.772938e+000 1.210082e+000 2.168562e+000 2.620225e+000 1.532157e+000 9.587907e-001 2.743026e+000 2.068156e+000 2.533618e-001
<GCONST> 8.331030e+001
<STATE> 4
<MEAN> 25
 1.413692e+000 -1.487764e+000 -1.014689e+000 7.108706e-001 1.878595e-001 -7.461199e-001 -1.459865e+000 -3.183048e+000 -1.955229e+000 -2.824970e+000 -1.018684e+000 6.133610e-001 3.093539e-002 1.199434e-001 1.518671e-002 -8.906180e-002 -8.689884e-002 -1.094472e-001 -3.112787e-002 -6.438941e-002 1.348311e-001 5.215380e-002 -1.868522e-002 -6.143444e-002 1.062568e-002
<VARIANCE> 25
 5.776770e+001 2.557930e+001 2.323174e+001 1.603644e+001 1.975462e+001 1.893282e+001 3.682239e+001 5.189834e+001 4.665996e+001 4.552161e+001 2.460840e+001 1.849045e+001 7.976432e-001 5.466471e-001 1.132105e+000 1.343668e+000 1.148341e+000 1.518099e+000 1.918848e+000 1.759090e+000 1.659166e+000 1.296815e+000 1.611143e+000 1.109022e+000 2.506478e-001
<GCONST> 8.775130e+001
<TRANSP> 5
 0.000000e+000 1.000000e+000 0.000000e+000 0.000000e+000 0.000000e+000
 0.000000e+000 9.570178e-001 4.298224e-002 0.000000e+000 0.000000e+000
 0.000000e+000 0.000000e+000 7.960210e-001 2.039790e-001 0.000000e+000
 0.000000e+000 0.000000e+000 0.000000e+000 9.507791e-001 4.922090e-002
 0.000000e+000 0.000000e+000 0.000000e+000 0.000000e+000 0.000000e+000
<ENDHMM>
~h "j"
<BEGINHMM>
<NUMSTATES> 5
<STATE> 2
<MEAN> 25
 8.854370e+000 -1.096495e+001 -4.080369e+000 3.945481e+000 -6.341433e+000 2.838015e+000 -3.653934e+000 -4.794645e+000 -2.824458e+000 1.556517e-001 -2.223923e+000 -3.298358e+000 8.696715e-002 7.274829e-001 -3.316149e-001 9.074292e-001 -3.987864e-001 -1.217190e-001 2.836757e-001 -2.979258e-001 6.152712e-002 3.200585e-001 -5.986187e-001 -1.722244e-001 -7.037128e-001
<VARIANCE> 25
 1.358383e+001 1.026441e+002 2.890437e+001 5.377876e+001 3.145068e+001 1.924014e+001 6.968494e+001 2.071914e+001 2.208303e+001 2.806914e+001 1.226452e+002 2.195517e+001 9.561844e-001 6.440079e-001 3.025438e-001 2.180559e+000 2.079034e+000 2.003286e+000 3.755778e+000 1.727322e+000 2.775271e+000 2.200302e+000 4.345255e+000 1.207990e+000 5.336015e-001
<GCONST> 9.377923e+001
<STATE> 3
<MEAN> 25
 1.428598e+000 2.745787e+000 -2.835266e+000 7.746609e+000 -5.352179e+000 4.432139e+000 -3.403131e+000 -3.783548e+000 -2.160265e+000 2.024337e+000 -1.737824e+000 -6.610148e+000 -1.077184e+000 3.960965e-001 1.719558e-001 -1.190396e+000 -2.422741e-001 2.199259e-001 -9.464367e-002 8.147981e-001 3.241913e-001 7.663915e-001 1.467772e+000 -5.186073e-001 -8.707945e-001
<VARIANCE> 25
 3.033401e+001 5.215685e+001 7.690477e+001 3.033143e+001 4.181838e+001 4.946154e+001 6.363580e+001 1.280712e+001 1.782520e+001 4.187659e+001 4.312932e+001 6.940876e+001 1.763655e+000 1.137389e+000 3.128169e+000 3.506184e+000 2.265721e+000 2.403691e+000 3.435320e+000 1.304264e+000 1.330319e+000 2.065091e+000 2.796859e+000 4.080619e+000 1.327688e+000
<GCONST> 1.000400e+002
<STATE> 4
<MEAN> 25
 -2.420889e+000 5.185081e+000 5.946087e+000 -3.420910e+000 -3.875635e+000 -5.789533e+000 -5.403602e+000 2.144480e+000 -1.633510e+000 5.652784e+000 4.695948e+000 -5.465843e+000 5.462418e-002 -4.034440e-001 2.036404e-001 -5.831449e-001 2.492363e-002 -7.880951e-001 -4.148202e-002 3.603945e-001 -3.423628e-001 -2.499114e-001 -1.035235e-001 3.130325e-001 7.701468e-001
<VARIANCE> 25
 5.776322e+001 7.750630e+001 2.473936e+001 6.695617e+001 6.318086e+001 1.162512e+002 5.689684e+001 4.927422e+001 6.886874e+001 4.380149e+001 3.140002e+001 8.885957e+001 3.977397e+000 5.520549e+000 3.686197e+000 5.668035e+000 7.964425e+000 8.625307e+000 3.949858e+000 6.705728e+000 5.323074e+000 5.198918e+000 4.048072e+000 3.572808e+000 6.950018e+000
<GCONST> 1.161179e+002
<TRANSP> 5
 0.000000e+000 1.000000e+000 0.000000e+000 0.000000e+000 0.000000e+000
 0.000000e+000 8.804101e-001 1.195899e-001 0.000000e+000 0.000000e+000
 0.000000e+000 0.000000e+000 7.831706e-001 2.168294e-001 0.000000e+000
 0.000000e+000 0.000000e+000 0.000000e+000 9.253633e-001 7.463668e-002
 0.000000e+000 0.000000e+000 0.000000e+000 0.000000e+000 0.000000e+000
<ENDHMM>
~h "k"
<BEGINHMM>
<NUMSTATES> 5
<STATE> 2
<MEAN> 25
 5.860497e+000 -1.022249e+000 -3.644073e+000 -2.789233e+000 -4.875346e-001 -5.633574e-001 -4.425384e+000 -3.840156e+000 -3.388758e+000 -1.071466e+000 -2.424689e+000 -2.996550e+000 -9.807100e-001 3.168748e-001 -2.567693e-001 4.754156e-001 6.068612e-001 -1.608977e-001 6.823050e-001 7.041069e-001 9.227965e-002 2.231053e-001 2.780903e-001 1.513211e-001 -7.964498e-001
<VARIANCE> 25
 1.505447e+001 9.934058e+001 1.123165e+002 1.186997e+002 7.657400e+001 5.309845e+001 6.059933e+001 4.790210e+001 5.170127e+001 5.165076e+001 2.819761e+001 3.271856e+001 1.877759e+000 3.549370e+000 4.901484e+000 5.560659e+000 4.827319e+000 5.112160e+000 4.514354e+000 5.163030e+000 5.169630e+000 5.024618e+000 3.688226e+000 2.260528e+000 2.776131e+000
<GCONST> 1.117118e+002
<STATE> 3
<MEAN> 25
 5.905492e-001 -7.003014e-001 -3.305559e+000 -7.520851e-001 2.040752e-001 -8.102173e-001 4.451610e-001 -6.623011e-001 9.748029e-002 4.733311e-001 -2.944260e+000 1.279625e-001 -1.160146e+000 -4.654534e-001 8.410713e-002 5.072162e-001 1.114660e-001 1.981545e-001 1.068046e+000 3.650514e-001 4.828751e-001 8.121598e-001 5.700365e-001 1.344869e-001 -4.509942e-002
<VARIANCE> 25
 1.509035e+001 6.407573e+001 7.421658e+001 6.998045e+001 6.292447e+001 4.854665e+001 6.101317e+001 3.380251e+001 4.298378e+001 3.672673e+001 4.441271e+001 4.337963e+001 2.359040e+000 2.963640e+000 2.625277e+000 4.151726e+000 2.346527e+000 4.562500e+000 5.394891e+000 3.633524e+000 5.744134e+000 3.833796e+000 3.028272e+000 3.925038e+000 6.685228e+000
<GCONST> 1.091073e+002
<STATE> 4
<MEAN> 25
 -1.737946e+000 2.007339e+000 -1.662540e+000 3.517042e-001 6.471051e-001 3.314821e+000 1.693734e+000 1.069632e+000 1.911634e+000 1.446262e+000 1.431566e-001 1.296488e+000 -1.638566e-001 -3.032682e-002 1.694395e-001 2.968790e-001 9.190567e-002 -7.929734e-003 5.423282e-002 1.526227e-001 8.965873e-002 1.125880e-001 2.229703e-001 1.487207e-001 -6.490795e-002
<VARIANCE> 25
 9.353021e+000 6.107523e+001 2.686099e+001 3.777826e+001 2.931830e+001 2.109936e+001 2.919257e+001 1.795407e+001 2.341941e+001 3.660893e+001 2.006791e+001 2.129680e+001 3.432402e-001 6.434008e-001 1.082469e+000 1.017483e+000 1.224765e+000 1.384565e+000 1.655446e+000 1.627574e+000 1.944110e+000 2.098438e+000 1.636904e+000 1.387369e+000 3.539129e-001
<GCONST> 8.601093e+001
<TRANSP> 5
 0.000000e+000 1.000000e+000 0.000000e+000 0.000000e+000 0.000000e+000
 0.000000e+000 6.220101e-001 3.779899e-001 0.000000e+000 0.000000e+000
 0.000000e+000 0.000000e+000 4.522797e-001 5.477203e-001 0.000000e+000
 0.000000e+000 0.000000e+000 0.000000e+000 8.961830e-001 1.038171e-001
 0.000000e+000 0.000000e+000 0.000000e+000 0.000000e+000 0.000000e+000
<ENDHMM>
~h "l"
<BEGINHMM>
<NUMSTATES> 5
<STATE> 2
<MEAN> 25
 5.213836e+000 -1.988340e+000 -3.677389e+000 -4.611258e+000 -2.443086e+000 -5.757944e+000 -5.953725e-001 -1.561834e+000 3.164388e+000 -1.507209e-001 -3.458828e-001 -6.549086e-001 5.361209e-003 4.138146e-001 -3.785540e-001 -3.790132e-001 -6.706455e-002 4.445584e-001 1.938168e-001 4.055317e-001 3.734876e-001 -4.393835e-001 -8.703610e-002 2.871028e-001 -3.426094e-001
<VARIANCE> 25
 2.020380e+001 4.134913e+001 4.448169e+001 5.538456e+001 7.433027e+001 5.848998e+001 5.185051e+001 6.667111e+001 6.861324e+001 6.740929e+001 4.140505e+001 2.203194e+001 6.198703e-001 2.451491e+000 2.082338e+000 3.567347e+000 4.024982e+000 3.137730e+000 3.323463e+000 3.495727e+000 3.040037e+000 3.838056e+000 2.879255e+000 2.338319e+000 9.379182e-001
<GCONST> 1.039769e+002
<STATE> 3
<MEAN> 25
 4.698373e+000 -4.322620e-001 -4.433038e+000 -5.018680e+000 -1.073876e+000 -2.288131e+000 1.759067e+000 2.297285e+000 3.225694e+000 -4.863703e+000 -1.655967e+000 9.401193e-001 -5.955986e-001 3.916642e-001 3.195250e-001 -1.673274e-001 4.115311e-001 2.852223e-001 2.668098e-001 7.199316e-002 -3.957429e-001 -3.068960e-001 2.771192e-001 1.754504e-001 -3.318720e-001
<VARIANCE> 25
 2.532681e+001 8.068433e+001 2.973596e+001 5.430701e+001 6.472285e+001 6.289964e+001 8.097997e+001 7.956442e+001 3.963462e+001 3.683348e+001 3.330110e+001 1.950754e+001 6.259528e-001 1.596820e+000 1.325060e+000 3.627639e+000 4.081129e+000 2.733005e+000 2.566786e+000 2.666063e+000 2.602975e+000 2.490891e+000 1.726786e+000 2.255743e+000 1.188365e+000
<GCONST> 1.011075e+002
<STATE> 4
<MEAN> 25
 -1.147193e-001 4.846379e+000 -3.822419e-001 -1.375245e+000 -6.271060e-001 2.249495e+000 1.501842e+000 1.706215e+000 1.872812e+000 -3.213954e+000 1.142647e+000 2.448990e+000 -1.314679e-001 2.973391e-002 2.580642e-001 2.183738e-001 -2.610374e-002 1.400176e-002 -3.074560e-002 1.548111e-001 -9.180869e-003 2.014520e-002 2.493280e-002 3.789518e-002 -9.952443e-002
<VARIANCE> 25
 1.177973e+001 6.868803e+001 2.102111e+001 6.414847e+001 2.130491e+001 4.165052e+001 3.167491e+001 4.170204e+001 3.028095e+001 3.173129e+001 2.901147e+001 2.611698e+001 1.867990e-001 4.887722e-001 7.533119e-001 9.734747e-001 1.036679e+000 2.215001e+000 1.613929e+000 2.424864e+000 1.751761e+000 1.586974e+000 1.396811e+000 1.555362e+000 1.477141e-001
<GCONST> 8.669989e+001
<TRANSP> 5
 0.000000e+000 1.000000e+000 0.000000e+000 0.000000e+000 0.000000e+000
 0.000000e+000 7.252634e-001 2.747366e-001 0.000000e+000 0.000000e+000
 0.000000e+000 0.000000e+000 6.061239e-001 3.938762e-001 0.000000e+000
 0.000000e+000 0.000000e+000 0.000000e+000 8.771353e-001 1.228647e-001
 0.000000e+000 0.000000e+000 0.000000e+000 0.000000e+000 0.000000e+000
<ENDHMM>
~h "m"
<BEGINHMM>
<NUMSTATES> 5
<STATE> 2
<MEAN> 25
 2.360230e+000 3.614340e+000 -2.293648e-001 -2.023816e+000 6.666169e-001 1.051245e+000 -1.874350e+000 -2.564977e+000 -1.917223e+000 -2.355136e+000 -2.027744e+000 -4.238635e-001 -2.122672e-001 8.692579e-001 4.778326e-001 2.586891e-001 -4.412588e-002 1.196333e-001 -7.305407e-002 5.829017e-002 1.835052e-002 -1.973956e-001 -2.877050e-001 -4.444964e-002 -5.575539e-001
<VARIANCE> 25
 2.684268e+001 5.575808e+001 5.418610e+001 9.861548e+001 5.194388e+001 6.373021e+001 6.132985e+001 3.687012e+001 3.667408e+001 3.752891e+001 3.707616e+001 2.922661e+001 1.176821e+000 2.583426e+000 2.339370e+000 5.553744e+000 3.080546e+000 3.243229e+000 3.453957e+000 2.752985e+000 3.012347e+000 3.096700e+000 2.783481e+000 2.405858e+000 1.035040e+000
<GCONST> 1.042846e+002
<STATE> 3
<MEAN> 25
 3.649908e+000 4.648223e+000 1.508197e+000 3.278209e+000 2.302343e+000 -3.565945e-001 -1.798900e+000 -2.882334e+000 -2.930710e+000 -4.442716e+000 -4.730957e+000 -2.912413e+000 -3.541134e-001 7.067602e-002 2.538693e-001 3.041098e-001 -1.627627e-002 1.507472e-001 2.031402e-001 4.002731e-001 3.676423e-001 2.876014e-001 1.631466e-001 8.287688e-002 -3.095368e-001
<VARIANCE> 25
 1.850379e+001 2.598919e+001 1.694427e+001 3.522964e+001 3.212780e+001 2.774451e+001 2.958031e+001 3.446989e+001 3.426326e+001 2.112386e+001 2.738775e+001 2.593553e+001 3.298516e-001 5.414307e-001 7.557448e-001 1.101797e+000 1.202279e+000 1.326409e+000 1.588568e+000 1.630716e+000 1.631471e+000 1.351872e+000 1.447217e+000 1.276096e+000 1.769373e-001
<GCONST> 8.456979e+001
<STATE> 4
<MEAN> 25
 -2.380901e+000 5.486156e+000 1.823275e+000 1.747579e+000 4.838422e-001 1.548754e+000 7.452197e-001 2.522806e+000 2.609895e+000 2.304689e-001 1.140700e+000 6.385211e-001 -4.221166e-002 1.039778e-002 6.030481e-002 4.035230e-002 -1.853579e-002 -1.690402e-002 -2.767448e-003 -2.590805e-003 3.334555e-002 6.739505e-002 5.024792e-002 6.849042e-004 -9.820846e-003
<VARIANCE> 25
 1.179352e+001 5.526395e+001 9.862604e+000 3.103927e+001 1.939863e+001 1.784120e+001 2.379816e+001 1.624285e+001 2.155484e+001 2.388571e+001 1.657962e+001 1.584116e+001 1.324967e-001 3.123697e-001 5.843245e-001 7.707056e-001 1.051633e+000 1.303140e+000 1.313924e+000 1.373830e+000 1.579477e+000 1.647801e+000 1.306687e+000 1.192167e+000 5.754012e-002
<GCONST> 7.723700e+001
<TRANSP> 5
 0.000000e+000 1.000000e+000 0.000000e+000 0.000000e+000 0.000000e+000
 0.000000e+000 7.229969e-001 2.770032e-001 0.000000e+000 0.000000e+000
 0.000000e+000 0.000000e+000 7.326646e-001 2.673354e-001 0.000000e+000
 0.000000e+000 0.000000e+000 0.000000e+000 9.542697e-001 4.573032e-002
 0.000000e+000 0.000000e+000 0.000000e+000 0.000000e+000 0.000000e+000
<ENDHMM>
~h "n"
<BEGINHMM>
<NUMSTATES> 5
<STATE> 2
<MEAN> 25
 4.808663e+000 2.635342e+000 -2.596537e-001 5.482841e-001 -6.597198e-001 -5.525628e+000 -4.943236e+000 -3.836609e+000 -4.720634e+000 -5.409010e+000 7.965066e-001 2.307109e+000 -4.297327e-001 7.928447e-001 1.902988e-001 8.378740e-001 2.025497e-001 5.964301e-001 -4.591874e-002 -1.469370e-001 2.731807e-001 6.446767e-001 -5.223557e-002 1.978675e-001 -9.568698e-001
<VARIANCE> 25
 1.591794e+001 3.847068e+001 1.963816e+001 4.875043e+001 5.555078e+001 7.087656e+001 3.432951e+001 2.593451e+001 3.606481e+001 3.096153e+001 3.863993e+001 3.434570e+001 6.185198e-001 1.432620e+000 1.562172e+000 3.133669e+000 1.487473e+000 2.564940e+000 2.399436e+000 2.739303e+000 2.396149e+000 2.422729e+000 3.142112e+000 1.746551e+000 8.125106e-001
<GCONST> 9.645008e+001
<STATE> 3
<MEAN> 25
 2.716401e+000 4.210545e+000 8.834370e-001 3.098598e+000 1.632954e+000 -8.973604e-001 -2.590086e+000 -2.916014e+000 -2.556296e+000 -3.424971e+000 -1.555856e+000 1.043047e+000 -3.435756e-001 1.570002e-001 2.236541e-001 3.640988e-001 8.763258e-002 5.186114e-001 3.385749e-001 4.383384e-001 3.630814e-001 1.987048e-001 6.787213e-002 -1.587665e-001 -3.546532e-001
<VARIANCE> 25
 1.870377e+001 3.169153e+001 2.150088e+001 3.303515e+001 3.760186e+001 2.584647e+001 2.375982e+001 2.363293e+001 2.468875e+001 2.154654e+001 2.253481e+001 2.459884e+001 2.919209e-001 6.454509e-001 8.363441e-001 1.268106e+000 1.446686e+000 1.783671e+000 1.689255e+000 1.615125e+000 1.622826e+000 1.821185e+000 1.689267e+000 1.286228e+000 1.929757e-001
<GCONST> 8.525741e+001
<STATE> 4
<MEAN> 25
 -3.626784e+000 4.006508e+000 1.545567e+000 2.736488e+000 2.664771e+000 2.516853e+000 2.277880e+000 2.722792e+000 3.049794e+000 1.546376e+000 2.171690e+000 6.733510e-001 -5.338157e-002 8.579604e-003 3.988983e-002 5.270352e-002 3.028329e-002 3.163535e-002 4.157981e-002 5.655557e-002 6.657877e-002 8.004504e-002 4.061155e-002 -2.635096e-002 -1.127180e-002
<VARIANCE> 25
 1.235646e+001 3.464677e+001 7.843851e+000 2.160618e+001 1.451423e+001 1.513960e+001 2.289394e+001 1.752883e+001 1.903057e+001 2.347297e+001 1.557602e+001 1.578098e+001 1.379153e-001 3.153286e-001 5.101411e-001 6.679504e-001 9.207138e-001 1.203758e+000 1.275339e+000 1.287539e+000 1.480153e+000 1.529175e+000 1.337451e+000 1.244163e+000 6.494813e-002
<GCONST> 7.511147e+001
<TRANSP> 5
 0.000000e+000 1.000000e+000 0.000000e+000 0.000000e+000 0.000000e+000
 0.000000e+000 6.701885e-001 3.298115e-001 0.000000e+000 0.000000e+000
 0.000000e+000 0.000000e+000 7.085554e-001 2.914446e-001 0.000000e+000
 0.000000e+000 0.000000e+000 0.000000e+000 9.504432e-001 4.955685e-002
 0.000000e+000 0.000000e+000 0.000000e+000 0.000000e+000 0.000000e+000
<ENDHMM>
~h "o"
<BEGINHMM>
<NUMSTATES> 5
<STATE> 2
<MEAN> 25
 1.292055e-008 1.831648e-008 -6.299361e-008 6.397928e-009 6.513714e-008 4.146926e-008 -2.503356e-008 -3.737221e-008 4.785829e-009 -8.260601e-008 4.838081e-008 -2.966501e-008 7.700191e-003 5.403126e-003 9.986212e-003 -4.435305e-003 5.198286e-003 1.178548e-003 5.735684e-003 -2.200497e-003 -9.225003e-004 -6.409926e-004 -2.520854e-003 -2.406914e-003 2.725629e-002
<VARIANCE> 25
 4.587285e+001 1.030148e+002 6.019880e+001 7.829473e+001 5.465159e+001 4.961901e+001 6.176896e+001 4.825900e+001 4.880714e+001 4.872197e+001 3.755544e+001 3.288158e+001 1.069084e+000 2.243620e+000 1.931021e+000 2.910384e+000 2.554792e+000 2.477852e+000 2.995093e+000 2.747025e+000 2.618064e+000 2.724945e+000 2.375594e+000 2.010036e+000 1.498881e+000
<GCONST> 1.041510e+002
<STATE> 3
<MEAN> 25
 1.292055e-008 1.831648e-008 -6.299361e-008 6.397928e-009 6.513714e-008 4.146926e-008 -2.503356e-008 -3.737221e-008 4.785829e-009 -8.260601e-008 4.838081e-008 -2.966501e-008 7.700191e-003 5.403126e-003 9.986212e-003 -4.435305e-003 5.198286e-003 1.178548e-003 5.735684e-003 -2.200497e-003 -9.225003e-004 -6.409926e-004 -2.520854e-003 -2.406914e-003 2.725629e-002
<VARIANCE> 25
 4.587285e+001 1.030148e+002 6.019880e+001 7.829473e+001 5.465159e+001 4.961901e+001 6.176896e+001 4.825900e+001 4.880714e+001 4.872197e+001 3.755544e+001 3.288158e+001 1.069084e+000 2.243620e+000 1.931021e+000 2.910384e+000 2.554792e+000 2.477852e+000 2.995093e+000 2.747025e+000 2.618064e+000 2.724945e+000 2.375594e+000 2.010036e+000 1.498881e+000
<GCONST> 1.041510e+002
<STATE> 4
<MEAN> 25
 1.292055e-008 1.831648e-008 -6.299361e-008 6.397928e-009 6.513714e-008 4.146926e-008 -2.503356e-008 -3.737221e-008 4.785829e-009 -8.260601e-008 4.838081e-008 -2.966501e-008 7.700191e-003 5.403126e-003 9.986212e-003 -4.435305e-003 5.198286e-003 1.178548e-003 5.735684e-003 -2.200497e-003 -9.225003e-004 -6.409926e-004 -2.520854e-003 -2.406914e-003 2.725629e-002
<VARIANCE> 25
 4.587285e+001 1.030148e+002 6.019880e+001 7.829473e+001 5.465159e+001 4.961901e+001 6.176896e+001 4.825900e+001 4.880714e+001 4.872197e+001 3.755544e+001 3.288158e+001 1.069084e+000 2.243620e+000 1.931021e+000 2.910384e+000 2.554792e+000 2.477852e+000 2.995093e+000 2.747025e+000 2.618064e+000 2.724945e+000 2.375594e+000 2.010036e+000 1.498881e+000
<GCONST> 1.041510e+002
<TRANSP> 5
 0.000000e+000 1.000000e+000 0.000000e+000 0.000000e+000 0.000000e+000
 0.000000e+000 6.000000e-001 4.000000e-001 0.000000e+000 0.000000e+000
 0.000000e+000 0.000000e+000 6.000000e-001 4.000000e-001 0.000000e+000
 0.000000e+000 0.000000e+000 0.000000e+000 7.000000e-001 3.000000e-001
 0.000000e+000 0.000000e+000 0.000000e+000 0.000000e+000 0.000000e+000
<ENDHMM>
~h "p"
<BEGINHMM>
<NUMSTATES> 5
<STATE> 2
<MEAN> 25
 7.175710e-002 2.244707e+000 -2.078860e+000 9.202205e-001 -1.681733e+000 1.327858e+000 2.573144e-001 1.760317e+000 4.261223e-001 1.212886e+000 1.151151e+000 5.034742e-001 3.387753e-001 -7.342062e-001 6.357195e-002 -1.273378e+000 2.232755e-001 -3.458846e-001 9.687574e-001 -4.395246e-002 -1.078080e-001 1.107065e-001 1.232199e-001 -1.551981e-001 1.730789e+000
<VARIANCE> 25
 4.169046e+001 5.740855e+001 3.206524e+001 6.036402e+001 3.333973e+001 3.497889e+001 5.380893e+001 4.066055e+001 4.365043e+001 3.942137e+001 2.847725e+001 1.763195e+001 6.088258e+000 4.990006e+000 2.943453e+000 6.790545e+000 3.836950e+000 4.149063e+000 3.221845e+000 3.696719e+000 4.883904e+000 4.367641e+000 2.986938e+000 2.260270e+000 1.064793e+001
<GCONST> 1.087062e+002
<STATE> 3
<MEAN> 25
 3.140025e-001 1.858960e+000 -2.916281e+000 -3.785298e+000 1.040335e+000 1.229910e+000 1.852672e+000 3.069404e-001 3.741614e-002 -1.445168e+000 -2.414802e-001 1.170631e+000 -1.861772e-001 1.341048e-001 1.312131e-001 3.411580e-001 1.843549e-001 1.276409e-002 4.629837e-002 6.680410e-002 1.236463e-002 5.577174e-002 2.511590e-001 7.617566e-002 -1.269851e-001
<VARIANCE> 25
 1.091415e+001 1.014283e+002 1.992793e+001 4.795388e+001 3.236808e+001 2.219474e+001 3.790149e+001 3.679752e+001 3.164382e+001 2.351474e+001 2.374461e+001 2.544060e+001 5.682411e-001 9.264817e-001 1.219000e+000 2.202384e+000 1.993149e+000 2.117555e+000 2.726152e+000 2.437739e+000 1.977893e+000 2.462622e+000 1.928404e+000 1.911765e+000 1.014028e+000
<GCONST> 9.323387e+001
<STATE> 4
<MEAN> 25
 -4.365793e+000 1.341267e+000 9.603791e-001 2.737302e+000 2.118042e+000 2.546468e+000 4.083852e+000 2.765176e+000 3.438930e+000 3.177898e+000 3.255575e+000 2.044289e-001 -5.679319e-002 -5.071244e-003 1.634939e-004 2.599500e-003 -1.194487e-002 8.422402e-003 3.121732e-002 4.847334e-002 6.338537e-002 6.573325e-002 4.700543e-002 -1.664633e-002 3.187320e-002
<VARIANCE> 25
 8.868410e+000 8.388975e+000 8.467415e+000 1.088694e+001 1.163494e+001 1.318443e+001 1.503037e+001 1.484793e+001 1.601596e+001 1.975191e+001 1.482043e+001 1.334088e+001 2.235852e-001 3.261477e-001 5.690321e-001 7.474611e-001 9.545106e-001 1.059064e+000 1.309861e+000 1.360290e+000 1.421626e+000 1.584147e+000 1.334679e+000 1.186568e+000 1.575436e-001
<GCONST> 7.280353e+001
<TRANSP> 5
 0.000000e+000 1.000000e+000 0.000000e+000 0.000000e+000 0.000000e+000
 0.000000e+000 5.518525e-001 4.481474e-001 0.000000e+000 0.000000e+000
 0.000000e+000 0.000000e+000 6.736388e-001 3.263611e-001 0.000000e+000
 0.000000e+000 0.000000e+000 0.000000e+000 9.575679e-001 4.243215e-002
 0.000000e+000 0.000000e+000 0.000000e+000 0.000000e+000 0.000000e+000
<ENDHMM>
~h "r"
<BEGINHMM>
<NUMSTATES> 5
<STATE> 2
<MEAN> 25
 8.218911e+000 -9.769851e+000 -3.701164e+000 -9.976546e-001 -7.311483e+000 -2.406845e+000 1.575128e+000 2.005814e+000 9.668431e-001 -2.713828e+000 -3.586558e+000 -1.786722e-001 -1.932986e-001 -7.748030e-001 8.280591e-001 2.117475e-001 -8.037227e-001 3.519178e-001 4.353682e-001 5.866618e-001 -4.146373e-001 -9.716936e-002 1.656444e-001 7.999152e-001 1.484095e-001
<VARIANCE> 25
 1.488029e+001 4.881472e+001 3.094633e+001 4.910942e+001 6.249948e+001 3.058216e+001 6.486293e+001 4.064657e+001 4.735337e+001 4.330865e+001 3.255383e+001 3.045769e+001 1.168006e+000 3.448247e+000 3.370567e+000 5.606614e+000 5.954168e+000 3.069979e+000 6.135150e+000 4.940335e+000 4.133368e+000 3.439222e+000 3.145753e+000 2.873266e+000 1.894522e+000
<GCONST> 1.059635e+002
<STATE> 3
<MEAN> 25
 4.875717e+000 -1.087129e+001 2.700311e+000 -7.236331e+000 -1.203610e+001 -2.694093e+000 8.957363e+000 1.884236e+000 -5.238673e+000 2.141052e+000 -3.224789e+000 -1.836826e+000 -5.664374e-001 5.270227e-001 4.609135e-001 -6.846538e-001 4.491878e-001 -1.544773e-001 7.217481e-001 -7.894832e-001 -5.553150e-001 5.849527e-001 -5.048559e-003 -2.424784e-001 -3.385859e-002
<VARIANCE> 25
 1.519991e+001 4.490077e+001 3.110342e+001 4.634983e+001 6.577349e+001 2.499871e+001 8.205453e+001 3.556046e+001 4.579212e+001 4.886608e+001 3.298274e+001 1.978855e+001 7.800330e-001 1.754389e+000 1.415146e+000 2.149422e+000 2.520692e+000 1.842795e+000 3.512186e+000 2.567939e+000 3.858136e+000 2.555536e+000 2.675295e+000 2.055007e+000 5.197729e-001
<GCONST> 9.782386e+001
<STATE> 4
<MEAN> 25
 4.806517e+000 -1.449183e+001 -6.398352e+000 3.934789e+000 3.105036e+000 -9.098318e-001 2.039237e+000 -1.737156e+000 -3.759834e+000 4.835742e+000 2.467996e+000 -3.425076e+000 -1.741032e-001 8.134324e-001 -4.685602e-002 2.366605e-001 2.279465e-001 1.211175e-001 3.755773e-004 -3.054073e-001 1.464487e-001 3.568309e-002 -6.737570e-002 6.454615e-002 -5.842862e-001
<VARIANCE> 25
 1.932734e+001 9.883349e+001 8.174780e+001 1.263272e+002 1.284739e+002 6.091344e+001 1.565168e+002 6.593333e+001 6.500703e+001 5.906731e+001 7.687263e+001 4.171460e+001 5.931566e-001 2.594111e+000 2.012784e+000 5.306047e+000 4.054783e+000 3.973767e+000 5.163281e+000 5.500211e+000 3.133046e+000 3.646230e+000 4.401435e+000 2.958286e+000 8.663085e-001
<GCONST> 1.110616e+002
<TRANSP> 5
 0.000000e+000 1.000000e+000 0.000000e+000 0.000000e+000 0.000000e+000
 0.000000e+000 7.686437e-001 2.313562e-001 0.000000e+000 0.000000e+000
 0.000000e+000 0.000000e+000 7.912521e-001 2.087478e-001 0.000000e+000
 0.000000e+000 0.000000e+000 0.000000e+000 8.323771e-001 1.676229e-001
 0.000000e+000 0.000000e+000 0.000000e+000 0.000000e+000 0.000000e+000
<ENDHMM>
~h "s"
<BEGINHMM>
<NUMSTATES> 5
<STATE> 2
<MEAN> 25
 -7.423331e+000 3.339319e+000 -2.879446e+000 4.033865e+000 -1.986496e-001 4.373920e-001 4.377241e+000 1.268526e+000 -1.145801e+000 1.949389e+000 2.602161e+000 -2.359475e-001 -5.701103e-001 2.760637e-002 -6.365369e-002 -8.265797e-003 -3.998024e-002 1.628795e-001 2.489261e-001 8.383337e-002 1.417378e-001 3.593828e-001 3.034069e-001 6.965442e-002 1.875735e-001
<VARIANCE> 25
 2.297309e+001 4.021555e+001 2.322655e+001 3.709266e+001 2.739742e+001 2.733164e+001 2.586016e+001 2.694898e+001 3.977296e+001 2.997338e+001 2.024990e+001 2.034603e+001 1.559282e+000 1.922393e+000 2.060973e+000 1.677312e+000 1.525842e+000 2.104162e+000 1.881561e+000 2.181238e+000 2.440533e+000 2.045722e+000 1.867291e+000 1.662891e+000 5.044146e-001
<GCONST> 9.277718e+001
<STATE> 3
<MEAN> 25
 -1.158356e+001 -3.562492e+000 7.157302e+000 -6.768435e+000 -2.105827e+000 2.629350e+000 4.827179e+000 -4.216608e+000 3.542042e-001 2.507428e+000 5.408291e+000 9.880552e-002 2.824170e-001 -2.918915e-001 5.966039e-001 -7.577402e-001 -2.458258e-001 -6.213518e-001 -8.205461e-001 -4.268115e-001 5.422144e-002 -1.479819e-001 -4.117491e-001 3.254708e-002 2.772402e-001
<VARIANCE> 25
 4.127301e+001 1.036249e+002 1.344027e+002 1.357052e+002 2.683109e+001 7.137471e+001 6.405696e+001 7.993850e+001 7.681019e+001 3.235727e+001 2.247981e+001 3.271943e+001 6.328458e+000 2.179628e+000 3.740918e+000 3.654894e+000 2.536833e+000 2.864918e+000 3.054433e+000 3.470077e+000 2.602046e+000 2.902342e+000 2.790829e+000 1.800074e+000 1.028931e+000
<GCONST> 1.078849e+002
<STATE> 4
<MEAN> 25
 -2.208872e+000 -1.832290e+000 2.042207e+000 1.299444e+000 -3.124231e-001 -3.089962e+000 -2.553609e-001 -1.738244e-003 -1.171260e+000 7.870239e-001 5.432799e-002 1.136852e-002 1.000677e+000 7.192352e-002 3.651598e-002 -4.560259e-001 -2.481102e-001 -4.460829e-001 -5.508638e-001 4.396323e-002 -2.372566e-001 -5.503517e-001 -7.977000e-001 -4.322873e-002 1.478694e-001
<VARIANCE> 25
 4.222110e+001 2.074038e+002 1.185563e+002 1.722432e+002 9.518147e+001 9.835656e+001 7.412341e+001 6.250134e+001 5.856128e+001 5.930286e+001 4.647972e+001 5.554747e+001 4.726294e+000 4.727663e+000 4.673406e+000 6.875500e+000 5.821525e+000 5.617615e+000 6.157426e+000 5.859302e+000 5.237657e+000 6.073213e+000 5.273960e+000 4.502870e+000 1.545052e+000
<GCONST> 1.192550e+002
<TRANSP> 5
 0.000000e+000 1.000000e+000 0.000000e+000 0.000000e+000 0.000000e+000
 0.000000e+000 8.680941e-001 1.319059e-001 0.000000e+000 0.000000e+000
 0.000000e+000 0.000000e+000 6.922446e-001 3.077554e-001 0.000000e+000
 0.000000e+000 0.000000e+000 0.000000e+000 8.271713e-001 1.728288e-001
 0.000000e+000 0.000000e+000 0.000000e+000 0.000000e+000 0.000000e+000
<ENDHMM>
~h "t"
<BEGINHMM>
<NUMSTATES> 5
<STATE> 2
<MEAN> 25
 1.054869e+000 2.625554e+000 2.315915e+000 4.185447e+000 3.762015e-001 5.305749e-001 -3.343280e+000 -2.301946e+000 -2.752060e+000 -1.729451e+000 -1.455936e+000 -1.983672e+000 -5.679336e-001 -2.651124e+000 4.786229e-001 -8.213419e-001 2.102394e-001 -9.055275e-001 7.231947e-001 1.455136e-003 -5.630493e-001 5.629158e-001 4.423680e-001 -4.734809e-001 2.102358e+000
<VARIANCE> 25
 3.980406e+001 1.516953e+002 4.584098e+001 7.344527e+001 5.977475e+001 8.085281e+001 7.598678e+001 6.394132e+001 7.347820e+001 4.422119e+001 4.764776e+001 4.806409e+001 3.836653e+000 1.465745e+001 5.090916e+000 7.805103e+000 9.176761e+000 9.876225e+000 1.003208e+001 8.635039e+000 6.576130e+000 6.632514e+000 3.758576e+000 3.493953e+000 9.612922e+000
<GCONST> 1.208626e+002
<STATE> 3
<MEAN> 25
 2.770790e-001 -3.832067e+000 2.090182e+000 -2.312248e+000 -2.406173e+000 -3.398268e+000 1.025267e+000 -1.121198e+000 -3.363395e+000 2.188415e+000 1.093389e+000 -2.040106e+000 7.285938e-001 -1.441306e+000 -1.620382e-001 -2.032953e+000 -9.726722e-001 -9.324912e-001 -4.421595e-002 -4.068463e-001 3.675022e-002 5.175696e-001 -2.692143e-001 -2.310670e-001 2.265138e+000
<VARIANCE> 25
 2.783747e+001 9.132595e+001 5.565078e+001 4.430144e+001 1.027564e+002 4.982382e+001 7.344733e+001 5.797743e+001 4.552523e+001 4.246454e+001 3.768333e+001 3.976223e+001 3.145091e+000 4.598001e+000 9.327172e+000 1.054472e+001 7.646086e+000 7.523017e+000 8.108162e+000 5.725941e+000 8.855156e+000 6.947106e+000 4.201434e+000 3.404869e+000 6.433233e+000
<GCONST> 1.171659e+002
<STATE> 4
<MEAN> 25
 2.917351e+000 -1.155434e+001 3.612495e-001 1.042978e+000 -1.840491e+000 -4.361509e-001 2.958405e+000 -2.199491e-002 -4.708695e+000 1.668605e+000 6.869763e-001 -2.808191e+000 1.004069e-001 3.162088e-001 -3.296536e-001 -3.173320e-001 -1.164231e-001 9.691530e-002 2.468305e-003 -5.346460e-002 2.818578e-001 -5.530788e-002 -5.986944e-002 2.188113e-001 -1.514606e-001
<VARIANCE> 25
 2.467500e+001 1.703872e+002 1.136949e+002 1.134779e+002 1.107798e+002 7.418900e+001 1.316190e+002 8.262374e+001 7.792268e+001 6.204551e+001 4.901359e+001 8.255187e+001 1.031867e+000 3.154929e+000 3.944620e+000 5.569313e+000 4.062532e+000 4.056013e+000 6.325210e+000 4.531547e+000 4.129350e+000 3.856643e+000 3.451213e+000 2.737605e+000 1.825380e+000
<GCONST> 1.148965e+002
<TRANSP> 5
 0.000000e+000 1.000000e+000 0.000000e+000 0.000000e+000 0.000000e+000
 0.000000e+000 6.349168e-001 3.650832e-001 0.000000e+000 0.000000e+000
 0.000000e+000 0.000000e+000 2.941842e-001 7.058159e-001 0.000000e+000
 0.000000e+000 0.000000e+000 0.000000e+000 8.592265e-001 1.407735e-001
 0.000000e+000 0.000000e+000 0.000000e+000 0.000000e+000 0.000000e+000
<ENDHMM>
~h "w"
<BEGINHMM>
<NUMSTATES> 5
<STATE> 2
<MEAN> 25
 5.016891e+000 6.809398e+000 8.093016e+000 -6.461876e+000 -2.081755e+000 -3.754743e+000 -6.606829e+000 -3.125858e+000 -8.390712e+000 -4.895829e-001 -5.307618e+000 -1.390277e+000 1.390385e-001 2.806905e-001 -3.165363e-001 6.149415e-002 8.036312e-002 -2.952258e-001 -8.121803e-002 3.888047e-001 2.360682e-002 2.807158e-001 3.398644e-001 1.172162e-001 -1.668974e-001
<VARIANCE> 25
 1.819335e+001 1.521999e+001 5.603877e+001 1.105133e+002 3.089994e+001 3.110119e+001 2.466579e+001 4.189735e+001 3.191794e+001 5.428001e+001 3.690908e+001 3.000101e+001 1.558255e-001 3.182965e-001 8.150277e-001 1.410702e+000 9.365513e-001 1.380386e+000 1.563755e+000 1.415468e+000 1.170986e+000 2.180176e+000 1.403300e+000 1.123362e+000 2.498790e-001
<GCONST> 8.677018e+001
<STATE> 3
<MEAN> 25
 6.136739e+000 4.326127e+000 -4.363303e-001 -1.345115e+001 4.519540e+000 -5.427352e+000 -2.909905e+000 9.572897e-001 -3.498035e+000 3.027454e+000 2.580614e+000 -2.062943e+000 -5.316287e-001 -1.809588e+000 -2.974244e-001 -8.456023e-001 8.668221e-001 4.132900e-001 1.671732e+000 -4.050406e-001 1.588992e+000 -1.266142e+000 -4.976908e-001 -1.119021e+000 1.509532e+000
<VARIANCE> 25
 1.659359e+001 6.082869e+001 4.908606e+001 7.034556e+001 5.446323e+001 7.019824e+001 4.161217e+001 4.857142e+001 5.453060e+001 1.516308e+002 5.806616e+001 4.713864e+001 4.995338e-001 2.482313e+000 3.256962e+000 6.145666e+000 2.289391e+000 1.974645e+000 3.086533e+000 3.004398e+000 4.068906e+000 9.424551e+000 1.022133e+001 4.259366e+000 1.359305e+000
<GCONST> 1.084809e+002
<STATE> 4
<MEAN> 25
 1.039486e+000 2.346524e+000 2.510418e+000 -9.075162e+000 3.797940e+000 -4.986027e+000 3.686048e+000 1.857795e+000 6.710613e-001 -3.989708e+000 1.415098e+000 1.094708e+000 -7.299834e-002 -2.864574e-001 -1.688664e-001 1.689051e-001 -8.681244e-002 -6.512127e-003 1.176810e-001 -1.852279e-001 -2.294004e-001 1.994631e-001 2.254687e-001 2.360097e-001 -2.742842e-002
<VARIANCE> 25
 2.567219e+001 1.889621e+002 2.396625e+001 2.510716e+001 3.595874e+001 3.473997e+001 7.715284e+001 2.743460e+001 3.765569e+001 3.147872e+001 3.038955e+001 3.453219e+001 1.961223e-001 8.493353e-001 7.471645e-001 7.391434e-001 1.199748e+000 1.449974e+000 1.295266e+000 2.186643e+000 1.882634e+000 2.537892e+000 1.888603e+000 2.179887e+000 2.919784e-001
<GCONST> 9.061205e+001
<TRANSP> 5
 0.000000e+000 1.000000e+000 0.000000e+000 0.000000e+000 0.000000e+000
 0.000000e+000 8.960977e-001 1.039023e-001 0.000000e+000 0.000000e+000
 0.000000e+000 0.000000e+000 7.801427e-001 2.198573e-001 0.000000e+000
 0.000000e+000 0.000000e+000 0.000000e+000 9.331143e-001 6.688565e-002
 0.000000e+000 0.000000e+000 0.000000e+000 0.000000e+000 0.000000e+000
<ENDHMM>
~h "y"
<BEGINHMM>
<NUMSTATES> 5
<STATE> 2
<MEAN> 25
 -1.843682e+000 -9.516029e+000 8.813510e+000 -1.010164e+001 1.841966e+000 -2.677660e+000 6.418329e-001 -5.381640e+000 -8.502999e-001 2.147774e+000 -2.074315e+000 6.898188e-001 -3.592467e-001 5.132527e-001 1.331846e+000 -5.470814e-001 -5.631938e-001 -3.715033e-001 -1.194080e+000 -6.411539e-001 4.157225e-001 1.007457e+000 1.523857e-001 -2.508224e-001 5.244442e-002
<VARIANCE> 25
 9.184963e+001 1.818924e+002 9.360213e+001 1.037379e+002 1.800209e+002 5.669014e+001 1.236611e+002 4.714207e+001 7.543477e+001 7.139908e+001 3.754867e+001 4.319290e+001 3.217144e+000 6.536517e+000 5.607990e+000 7.344675e+000 5.980343e+000 4.297067e+000 9.234671e+000 4.728336e+000 5.230149e+000 6.767473e+000 3.763998e+000 4.411381e+000 1.765529e+000
<GCONST> 1.194674e+002
<STATE> 3
<MEAN> 25
 1.590669e+000 -4.036258e-001 8.358875e+000 -1.240407e+001 -9.751298e+000 -4.870770e+000 3.827923e-001 -5.355167e+000 -1.521321e+000 4.176227e+000 -1.851313e+000 1.016157e-001 1.520964e-001 -6.967157e-001 -6.713668e-001 1.085884e-001 2.076349e-001 2.194534e-002 7.953207e-001 6.517496e-001 5.149110e-002 -5.343658e-001 -9.163272e-002 -2.280175e-001 2.688227e-001
<VARIANCE> 25
 1.981050e+001 4.035083e+001 3.183023e+001 5.147599e+001 8.885710e+001 2.215092e+001 8.674477e+001 3.636991e+001 7.316977e+001 3.796325e+001 3.026026e+001 3.764186e+001 3.687372e-001 3.205581e+000 3.800213e+000 2.123296e+000 4.850465e+000 1.552031e+000 6.010707e+000 2.896011e+000 2.185810e+000 3.859327e+000 1.826153e+000 2.608362e+000 5.942656e-001
<GCONST> 1.009450e+002
<STATE> 4
<MEAN> 25
 1.518134e+000 -1.247693e+001 1.006096e+001 7.583870e+000 1.921357e+000 -1.104688e+001 -6.894223e+000 1.263110e+000 -1.005266e+000 -2.386366e+000 -2.035482e+000 -7.425359e+000 2.058938e-001 -1.309400e-001 -8.326876e-001 6.441502e-002 4.179330e-001 -7.444903e-002 2.954312e-001 -1.191339e-001 2.270592e-001 -2.670956e-001 -1.618810e-002 4.418374e-001 -1.603578e-002
<VARIANCE> 25
 2.041536e+001 1.013391e+002 1.179767e+002 1.562032e+002 9.898231e+001 6.579015e+001 1.208911e+002 7.830638e+001 6.855956e+001 7.450343e+001 6.455355e+001 4.425397e+001 3.663698e-001 1.999377e+000 3.222602e+000 4.548153e+000 4.200474e+000 2.405184e+000 4.241347e+000 3.862765e+000 2.816505e+000 5.149375e+000 2.387296e+000 3.329340e+000 7.172126e-001
<GCONST> 1.097339e+002
<TRANSP> 5
 0.000000e+000 1.000000e+000 0.000000e+000 0.000000e+000 0.000000e+000
 0.000000e+000 6.584188e-001 3.415812e-001 0.000000e+000 0.000000e+000
 0.000000e+000 0.000000e+000 8.453383e-001 1.546617e-001 0.000000e+000
 0.000000e+000 0.000000e+000 0.000000e+000 7.938045e-001 2.061955e-001
 0.000000e+000 0.000000e+000 0.000000e+000 0.000000e+000 0.000000e+000
<ENDHMM>
~h "aa"
<BEGINHMM>
<NUMSTATES> 5
<STATE> 2
<MEAN> 25
 3.141255e+000 -5.457534e+000 -2.829397e+000 -9.360247e-001 -6.267590e-003 -1.461493e+000 1.997964e+000 -1.651939e+000 -9.209792e-001 -9.280493e-001 -8.337104e-001 -7.221037e-001 8.524668e-001 -1.526290e+000 -9.666138e-001 -8.088674e-001 3.746165e-001 1.313230e-001 3.703280e-001 -3.325753e-001 -4.474288e-001 -5.361912e-001 -4.300322e-001 -2.629181e-002 1.328533e+000
<VARIANCE> 25
 3.098335e+001 1.471020e+002 5.771289e+001 8.611465e+001 7.028544e+001 5.395540e+001 1.052843e+002 6.014317e+001 5.123556e+001 5.738993e+001 5.461138e+001 3.907582e+001 2.221443e+000 6.440950e+000 3.486753e+000 6.249031e+000 5.741608e+000 5.007919e+000 6.929563e+000 5.794839e+000 4.544002e+000 5.096864e+000 4.722196e+000 3.338676e+000 3.487456e+000
<GCONST> 1.154720e+002
<STATE> 3
<MEAN> 25
 5.284740e+000 -1.008775e+001 -5.931498e+000 -3.795538e+000 3.273884e+000 7.523144e-001 3.763588e+000 -1.664217e+000 -2.351595e+000 -3.609787e+000 -1.980798e+000 1.942969e-001 3.392145e-001 3.291502e-001 -1.107259e-001 5.245734e-001 -6.729251e-002 2.649257e-001 -5.645995e-001 -4.804095e-003 -3.731147e-001 -2.092730e-001 -2.151006e-001 2.210020e-002 -5.553107e-001
<VARIANCE> 25
 2.439282e+001 9.271388e+001 3.812812e+001 5.903630e+001 5.419641e+001 4.356502e+001 6.629040e+001 5.021927e+001 5.154099e+001 3.995965e+001 5.052335e+001 3.830040e+001 9.474666e-001 2.521847e+000 1.800652e+000 2.869156e+000 2.825545e+000 2.463437e+000 3.465341e+000 3.672024e+000 2.789876e+000 3.011704e+000 2.912594e+000 2.349438e+000 1.533849e+000
<GCONST> 1.039418e+002
<STATE> 4
<MEAN> 25
 7.945100e+000 -8.069926e+000 -6.209444e+000 -2.316385e+000 -1.270890e-001 -1.553681e+000 -1.109364e+000 -2.481790e+000 -4.604785e+000 -5.744888e+000 -3.662503e+000 5.532091e-001 -2.189285e-001 6.630225e-001 2.495365e-001 1.598553e-001 -1.991602e-001 -1.467458e-001 -8.261322e-002 -7.474507e-002 -3.965306e-003 4.135908e-002 2.104016e-001 -3.452970e-002 -4.873864e-001
<VARIANCE> 25
 2.229605e+001 6.786295e+001 3.033694e+001 6.363076e+001 4.599855e+001 3.937152e+001 8.128169e+001 3.975159e+001 4.001126e+001 6.561311e+001 4.743279e+001 3.242974e+001 3.235613e-001 1.278361e+000 1.018503e+000 1.451365e+000 1.866070e+000 1.719091e+000 1.923740e+000 2.017506e+000 1.469042e+000 1.961786e+000 1.889637e+000 1.517546e+000 3.816092e-001
<GCONST> 9.480624e+001
<TRANSP> 5
 0.000000e+000 1.000000e+000 0.000000e+000 0.000000e+000 0.000000e+000
 0.000000e+000 7.544526e-001 2.455474e-001 0.000000e+000 0.000000e+000
 0.000000e+000 0.000000e+000 7.596557e-001 2.403443e-001 0.000000e+000
 0.000000e+000 0.000000e+000 0.000000e+000 8.635566e-001 1.364434e-001
 0.000000e+000 0.000000e+000 0.000000e+000 0.000000e+000 0.000000e+000
<ENDHMM>
~h "ao"
<BEGINHMM>
<NUMSTATES> 5
<STATE> 2
<MEAN> 25
 6.610160e+000 1.645380e+000 -4.737485e+000 -1.021437e+001 2.830836e+000 -4.554008e+000 -2.790865e+000 -3.381427e+000 -3.792369e+000 5.414248e+000 -1.633098e+000 -4.084328e+000 7.626614e-001 -8.116350e-001 -3.161483e-001 -2.969710e+000 -1.022927e+000 -8.050985e-001 1.061854e+000 2.156364e-001 2.412836e-001 9.250609e-001 8.034272e-002 -1.097134e+000 1.229372e+000
<VARIANCE> 25
 1.541295e+001 2.913070e+001 4.735859e+001 4.732193e+001 8.630569e+001 4.392404e+001 5.630836e+001 4.377735e+001 5.351773e+001 6.413082e+001 3.464892e+001 3.132312e+001 1.708042e+000 6.965028e-001 2.720899e+000 4.617338e+000 5.688499e+000 3.904961e+000 9.768856e+000 3.208122e+000 7.275805e+000 5.337491e+000 3.472882e+000 2.092486e+000 7.306027e-001
<GCONST> 1.055283e+002
<STATE> 3
<MEAN> 25
 6.583385e+000 -8.475032e-001 -3.795235e+000 -1.618794e+001 7.637141e-001 -5.093697e+000 2.753663e+000 2.429921e-001 -4.604194e-001 5.157973e+000 -5.330015e-001 -6.760550e+000 1.035033e-001 -7.213582e-001 -3.559012e-001 3.078103e-001 -4.468186e-001 2.664546e-001 4.507959e-001 4.934225e-001 8.151439e-001 -1.283846e-001 3.430818e-001 -4.018316e-001 2.051447e-001
<VARIANCE> 25
 5.820263e+000 1.947834e+001 6.067470e+001 2.143676e+001 4.680351e+001 5.024931e+001 4.236161e+001 1.270930e+002 6.059953e+001 5.780376e+001 3.230344e+001 2.972133e+001 1.633877e-001 2.970747e-001 6.291478e-001 1.653569e+000 1.206520e+000 1.566553e+000 2.305839e+000 1.681829e+000 2.192613e+000 2.583948e+000 1.413911e+000 1.616480e+000 1.983573e-001
<GCONST> 8.918013e+001
<STATE> 4
<MEAN> 25
 1.171410e+001 -1.676992e+000 -6.270545e+000 -1.173824e+001 -4.779059e+000 -1.321305e+000 -5.463215e+000 -2.664450e+000 2.740026e+000 3.110475e+000 -1.505615e-001 -3.791985e+000 1.210708e-002 -4.940912e-001 6.293467e-002 7.837112e-001 -5.430992e-001 -6.316188e-002 7.435568e-002 2.090307e-001 3.338701e-001 -4.096030e-001 -3.414728e-001 3.383541e-001 -9.341133e-002
<VARIANCE> 25
 1.661561e+001 2.647584e+001 1.911303e+001 3.928242e+001 4.388272e+001 3.559980e+001 8.848403e+001 4.514499e+001 5.078129e+001 3.994075e+001 3.303601e+001 2.400137e+001 1.713433e-001 7.879908e-001 9.918691e-001 2.830678e+000 2.267289e+000 2.070268e+000 1.686432e+000 1.870594e+000 2.837848e+000 3.106361e+000 2.713032e+000 1.430556e+000 1.670307e-001
<GCONST> 9.206003e+001
<TRANSP> 5
 0.000000e+000 1.000000e+000 0.000000e+000 0.000000e+000 0.000000e+000
 0.000000e+000 5.086316e-001 4.913683e-001 0.000000e+000 0.000000e+000
 0.000000e+000 0.000000e+000 8.053662e-001 1.946338e-001 0.000000e+000
 0.000000e+000 0.000000e+000 0.000000e+000 8.356109e-001 1.643891e-001
 0.000000e+000 0.000000e+000 0.000000e+000 0.000000e+000 0.000000e+000
<ENDHMM>
~h "eh"
<BEGINHMM>
<NUMSTATES> 5
<STATE> 2
<MEAN> 25
 2.623716e+000 -2.935576e+000 -1.588326e+000 -5.668710e+000 -2.040701e+000 -3.946968e+000 4.005009e+000 -1.557760e+000 -1.756584e+000 6.285314e-002 -1.762658e+000 -1.132838e+000 1.305760e+000 -2.148367e-001 -2.515919e-001 -2.850293e-001 -5.145607e-002 -7.172760e-001 -1.025799e+000 -8.789040e-002 -5.350696e-001 -7.881589e-001 -8.202686e-001 1.189587e-001 6.940135e-001
<VARIANCE> 25
 2.516776e+001 3.993404e+001 4.461335e+001 4.626080e+001 6.195815e+001 4.290194e+001 7.918849e+001 3.737978e+001 6.025557e+001 4.039050e+001 4.850877e+001 3.071289e+001 3.397501e+000 3.492836e+000 2.542934e+000 4.082860e+000 4.223522e+000 4.432901e+000 5.040653e+000 3.749186e+000 4.424152e+000 4.311836e+000 4.333754e+000 2.448730e+000 4.355079e+000
<GCONST> 1.089385e+002
<STATE> 3
<MEAN> 25
 6.958535e+000 -2.468408e+000 -1.482004e+000 -3.644989e+000 -4.258911e+000 -2.839744e+000 2.135022e+000 -1.837791e+000 -5.155646e+000 -1.411536e+000 -2.458205e+000 6.279495e-001 2.138558e-001 2.845814e-001 1.239989e-001 8.392980e-001 5.183654e-001 4.215683e-002 -6.124915e-001 -2.819562e-002 -4.467003e-002 -2.730097e-001 2.179315e-001 3.936613e-001 -1.552428e-001
<VARIANCE> 25
 3.023806e+001 5.956668e+001 6.523179e+001 2.984139e+001 6.999669e+001 5.769569e+001 7.058722e+001 6.310331e+001 5.355167e+001 4.360690e+001 4.808677e+001 3.237893e+001 1.951548e+000 4.668280e+000 2.197846e+000 3.406585e+000 3.444564e+000 3.795058e+000 4.023415e+000 7.858034e+000 3.076190e+000 4.148468e+000 3.277857e+000 2.758513e+000 3.334558e+000
<GCONST> 1.090280e+002
<STATE> 4
<MEAN> 25
 7.477207e+000 -1.938706e+000 -1.556978e+000 -2.165110e+000 -3.288960e+000 -5.122478e+000 -3.377498e+000 -2.487207e+000 -4.067626e+000 -5.443869e+000 -3.848736e+000 7.856463e-001 -5.996031e-001 6.627005e-001 2.610340e-002 5.248789e-001 1.761835e-001 2.139968e-001 7.080256e-002 -3.070504e-001 3.593995e-002 2.460072e-001 4.979751e-001 -3.580526e-001 -4.434549e-001
<VARIANCE> 25
 2.222756e+001 6.892558e+001 3.305290e+001 3.620441e+001 4.147544e+001 6.401947e+001 5.118488e+001 5.725306e+001 3.215144e+001 4.054758e+001 3.901871e+001 3.534996e+001 1.628024e+000 2.614666e+000 1.413632e+000 2.178337e+000 2.415006e+000 3.285998e+000 2.902132e+000 2.794061e+000 2.253343e+000 2.257447e+000 2.129869e+000 2.552413e+000 8.132035e-001
<GCONST> 1.004886e+002
<TRANSP> 5
 0.000000e+000 1.000000e+000 0.000000e+000 0.000000e+000 0.000000e+000
 0.000000e+000 6.690999e-001 3.309001e-001 0.000000e+000 0.000000e+000
 0.000000e+000 0.000000e+000 4.660420e-001 5.339580e-001 0.000000e+000
 0.000000e+000 0.000000e+000 0.000000e+000 7.762085e-001 2.237915e-001
 0.000000e+000 0.000000e+000 0.000000e+000 0.000000e+000 0.000000e+000
<ENDHMM>
~h "hh"
<BEGINHMM>
<NUMSTATES> 5
<STATE> 2
<MEAN> 25
 7.609402e+000 -5.156887e+000 -6.083868e+000 -2.458220e-001 7.822109e-001 -3.446264e+000 -6.152339e+000 3.173752e+000 -2.131300e+000 -4.804729e+000 6.862885e-001 -6.694829e+000 -3.981543e-002 -2.114886e-001 1.410316e-001 -1.538165e-002 -2.209733e-001 3.814635e-001 1.679171e-001 1.061956e-001 2.547895e-001 2.063641e-001 -1.472787e-001 -2.670535e-001 6.082791e-002
<VARIANCE> 25
 1.900976e+001 3.264493e+001 6.561663e+001 4.347521e+001 9.155486e+001 1.337972e+002 6.800703e+001 1.312261e+002 6.544482e+001 4.726028e+001 1.108687e+002 7.456242e+001 6.594812e-001 1.812491e+000 3.279510e+000 3.478290e+000 7.873083e+000 1.275221e+001 8.226780e+000 8.740301e+000 7.456883e+000 5.515131e+000 6.434272e+000 3.915601e+000 6.031783e-001
<GCONST> 1.138351e+002
<STATE> 3
<MEAN> 25
 3.993898e+000 -4.880372e+000 -6.087857e+000 2.706604e+000 -1.909939e+000 4.385549e+000 5.161434e+000 -3.641227e+000 1.168514e+000 3.214038e+000 -1.475165e+000 -1.397978e+000 -2.778571e-001 1.216867e+000 -3.057877e-001 -7.481471e-001 3.873279e-001 5.996611e-001 2.838506e-001 3.954520e-001 8.947365e-002 5.631375e-002 5.643329e-001 6.881357e-001 -7.039241e-001
<VARIANCE> 25
 1.369247e+001 1.249340e+002 3.541368e+001 4.622786e+001 5.487440e+001 6.210153e+001 3.952351e+001 4.013861e+001 5.715712e+001 4.519922e+001 4.440750e+001 5.410050e+001 3.411962e-001 2.626152e+000 1.383428e+000 2.183579e+000 2.510962e+000 3.367100e+000 1.969505e+000 2.285414e+000 4.006262e+000 3.551726e+000 2.644026e+000 2.729576e+000 3.528319e-001
<GCONST> 1.001612e+002
<STATE> 4
<MEAN> 25
 -4.855404e+000 2.643244e+000 1.236413e+000 1.101985e+000 2.478874e+000 2.944682e+000 3.337098e+000 1.752088e+000 3.555927e+000 2.443543e+000 2.567281e+000 4.761373e-001 -1.005693e-001 6.515455e-002 1.731484e-001 1.018200e-001 3.133901e-002 7.900332e-002 5.255832e-002 4.412793e-002 7.556836e-002 4.943506e-002 2.092813e-003 -4.822321e-002 -5.856845e-002
<VARIANCE> 25
 7.345733e+000 3.246838e+001 9.832618e+000 1.280412e+001 1.377805e+001 1.655154e+001 1.656694e+001 1.750239e+001 1.946645e+001 1.878063e+001 1.448208e+001 1.728036e+001 1.870328e-001 3.358824e-001 5.847991e-001 6.937436e-001 1.061266e+000 1.079642e+000 1.134921e+000 1.627842e+000 1.724787e+000 1.482307e+000 1.430717e+000 1.277753e+000 7.432466e-002
<GCONST> 7.480306e+001
<TRANSP> 5
 0.000000e+000 1.000000e+000 0.000000e+000 0.000000e+000 0.000000e+000
 0.000000e+000 8.212103e-001 1.787898e-001 0.000000e+000 0.000000e+000
 0.000000e+000 0.000000e+000 8.473623e-001 1.526377e-001 0.000000e+000
 0.000000e+000 0.000000e+000 0.000000e+000 9.660933e-001 3.390670e-002
 0.000000e+000 0.000000e+000 0.000000e+000 0.000000e+000 0.000000e+000
<ENDHMM>
~h "ih"
<BEGINHMM>
<NUMSTATES> 5
<STATE> 2
<MEAN> 25
 1.985726e+000 4.911960e+000 9.115600e+000 -4.912058e+000 -3.993311e+000 -2.753458e+000 -5.649808e+000 -5.678679e+000 -1.165440e+000 -6.860115e-001 -3.799943e+000 -2.139211e+000 -1.044076e-001 1.984386e-002 4.509434e-001 -2.360350e-001 1.499767e-001 -3.421268e-001 -5.255222e-001 5.957998e-002 2.074872e-001 -3.482783e-001 -7.295340e-002 5.007167e-002 1.241661e-001
<VARIANCE> 25
 2.324629e+001 7.879226e+001 7.674524e+001 1.471650e+002 9.509805e+001 4.431635e+001 5.159564e+001 5.809575e+001 5.151678e+001 4.353757e+001 3.196648e+001 4.305634e+001 1.657208e+000 2.815167e+000 3.956655e+000 7.145144e+000 4.614170e+000 3.423982e+000 3.677080e+000 4.094480e+000 3.942651e+000 3.928732e+000 3.159760e+000 2.569899e+000 2.175288e+000
<GCONST> 1.100518e+002
<STATE> 3
<MEAN> 25
 -5.572471e-001 6.344430e+000 5.696659e+000 -5.030942e+000 -1.132038e+000 -2.383921e+000 -3.903016e+000 -1.421551e+000 1.532805e-001 -1.142513e+000 -1.845596e+000 1.627807e+000 -6.165500e-002 -3.641645e-002 3.184427e-002 4.094002e-001 1.645748e-001 -5.012242e-002 -1.335208e-002 2.942703e-001 1.930263e-001 -2.079601e-003 1.555854e-001 -6.693047e-002 -2.288830e-001
<VARIANCE> 25
 1.059840e+001 5.334299e+001 5.191636e+001 9.311006e+001 3.107096e+001 3.335685e+001 4.170752e+001 3.951433e+001 2.868324e+001 3.812742e+001 2.185806e+001 2.569507e+001 3.881864e-001 5.888133e-001 1.226004e+000 2.469743e+000 1.799543e+000 1.644526e+000 1.763506e+000 2.076405e+000 1.862993e+000 1.691036e+000 1.667488e+000 1.546758e+000 2.884821e-001
<GCONST> 9.131355e+001
<STATE> 4
<MEAN> 25
 -1.890260e+000 6.694291e+000 5.457750e+000 1.262290e+000 2.045216e+000 -3.429939e+000 -4.682469e+000 1.519185e+000 3.877714e+000 -3.904784e+000 7.764769e-002 9.211806e-001 4.653731e-003 5.198789e-002 -2.744495e-001 -4.755953e-002 -8.491025e-003 1.225057e-001 9.462039e-002 -1.214308e-001 8.066259e-003 2.154398e-001 1.498507e-001 6.941224e-002 -1.080002e-001
<VARIANCE> 25
 9.434210e+000 1.088708e+002 7.420586e+001 7.164162e+001 3.996472e+001 6.311124e+001 6.106377e+001 4.443797e+001 2.878084e+001 5.267440e+001 2.673074e+001 3.576008e+001 2.424236e-001 7.304878e-001 1.424329e+000 1.290241e+000 1.251550e+000 1.935541e+000 2.670461e+000 2.310982e+000 1.929450e+000 2.233261e+000 1.840140e+000 1.545232e+000 2.218038e-001
<GCONST> 9.396721e+001
<TRANSP> 5
 0.000000e+000 1.000000e+000 0.000000e+000 0.000000e+000 0.000000e+000
 0.000000e+000 8.175603e-001 1.824397e-001 0.000000e+000 0.000000e+000
 0.000000e+000 0.000000e+000 7.927756e-001 2.072245e-001 0.000000e+000
 0.000000e+000 0.000000e+000 0.000000e+000 8.572516e-001 1.427484e-001
 0.000000e+000 0.000000e+000 0.000000e+000 0.000000e+000 0.000000e+000
<ENDHMM>
~h "ng"
<BEGINHMM>
<NUMSTATES> 5
<STATE> 2
<MEAN> 25
 3.220272e+000 -3.667295e+000 -2.735041e+000 -3.571544e+000 7.991047e+000 -2.800441e+000 6.278469e-001 -3.747548e+000 2.577958e+000 -1.035295e+000 5.795747e+000 -3.255756e+000 -2.676163e-002 7.214823e-001 2.833638e-001 6.826761e-001 -8.582755e-004 4.477840e-001 -3.496583e-001 2.130125e-001 -1.096406e-001 -2.384983e-001 -3.960507e-001 -8.728320e-002 -6.649441e-001
<VARIANCE> 25
 6.734525e+000 3.526852e+001 1.932318e+001 4.188374e+001 4.244460e+001 4.333497e+001 3.716702e+001 2.610869e+001 4.137566e+001 4.166059e+001 5.968571e+001 2.857987e+001 2.801920e-001 1.786815e+000 1.111194e+000 3.071467e+000 1.729339e+000 1.551289e+000 2.761941e+000 1.941754e+000 2.619013e+000 2.158490e+000 3.786570e+000 1.525737e+000 1.235958e+000
<GCONST> 9.430235e+001
<STATE> 3
<MEAN> 25
 2.748823e+000 4.871617e+000 1.957438e+000 4.131337e+000 3.150440e+000 7.294459e-001 -2.618160e-001 -2.853149e+000 -3.866522e+000 -3.443133e+000 -4.890742e+000 -4.059842e+000 -4.017939e-001 6.515217e-002 1.190141e-001 3.061287e-001 -2.004859e-001 1.070999e-001 5.095694e-003 5.139558e-001 3.701896e-001 2.769310e-001 3.081170e-001 3.261728e-001 -4.606689e-001
<VARIANCE> 25
 1.216565e+001 3.745976e+001 1.736861e+001 2.812490e+001 3.095185e+001 1.894442e+001 2.621519e+001 3.075352e+001 2.745070e+001 2.603458e+001 2.842642e+001 3.385236e+001 3.831962e-001 7.751675e-001 7.087059e-001 9.405713e-001 1.194313e+000 1.743604e+000 1.987871e+000 1.754990e+000 1.669705e+000 1.543428e+000 2.026459e+000 1.397745e+000 1.985068e-001
<GCONST> 8.550202e+001
<STATE> 4
<MEAN> 25
 -1.723046e+000 1.505041e+000 -8.976455e-001 3.272306e+000 9.416623e-002 2.284364e+000 1.970637e+000 1.143657e+000 1.007915e+000 2.242798e+000 1.208061e+000 1.686580e+000 -6.922802e-002 -8.528898e-003 -1.937144e-002 -2.832253e-002 -3.446068e-002 4.901539e-003 -2.407134e-002 3.930189e-002 6.729063e-002 5.821845e-002 2.432913e-002 4.786674e-002 -4.719123e-002
<VARIANCE> 25
 8.889045e+000 2.278294e+001 2.129395e+001 1.631315e+001 1.994779e+001 1.312992e+001 2.036879e+001 1.806169e+001 1.925790e+001 2.300503e+001 1.362173e+001 1.734266e+001 1.232717e-001 2.855796e-001 4.794165e-001 7.713366e-001 9.490299e-001 9.689602e-001 1.092397e+000 1.090848e+000 1.324188e+000 1.282951e+000 1.238892e+000 1.056526e+000 8.285813e-002
<GCONST> 7.420104e+001
<TRANSP> 5
 0.000000e+000 1.000000e+000 0.000000e+000 0.000000e+000 0.000000e+000
 0.000000e+000 8.371594e-001 1.628406e-001 0.000000e+000 0.000000e+000
 0.000000e+000 0.000000e+000 7.782206e-001 2.217794e-001 0.000000e+000
 0.000000e+000 0.000000e+000 0.000000e+000 9.518740e-001 4.812603e-002
 0.000000e+000 0.000000e+000 0.000000e+000 0.000000e+000 0.000000e+000
<ENDHMM>
~h "oh"
<BEGINHMM>
<NUMSTATES> 5
<STATE> 2
<MEAN> 25
 -5.142133e+000 -9.760269e-001 1.066096e+000 1.861492e+000 2.363101e+000 1.142968e+000 3.625075e+000 2.325472e+000 2.509137e+000 1.701561e+000 1.608246e+000 -5.281978e-001 -1.176215e-002 2.322870e-002 6.304833e-002 -2.486091e-002 4.761792e-002 1.604031e-002 7.116453e-002 7.918151e-002 1.096438e-001 1.274239e-001 3.433828e-002 -1.767965e-002 2.749519e-002
<VARIANCE> 25
 2.648958e+000 5.500167e+000 4.239294e+000 1.304315e+001 8.318301e+000 7.746607e+000 1.267418e+001 1.390283e+001 1.274181e+001 1.434930e+001 1.473184e+001 9.091592e+000 1.333438e-001 3.282725e-001 3.274835e-001 8.353693e-001 1.425339e+000 1.011705e+000 1.470500e+000 1.289712e+000 1.600023e+000 1.344355e+000 1.903347e+000 8.688322e-001 5.363762e-002
<GCONST> 6.700642e+001
<STATE> 3
<MEAN> 25
 4.569459e+000 -3.078976e+000 -7.752013e+000 -1.521839e+001 1.533355e+000 1.527718e+000 4.972494e+000 -8.328061e+000 1.561943e+000 5.923201e+000 2.419239e+000 3.511725e-001 3.249213e-001 4.872746e-001 2.376020e-001 1.125836e+000 -1.246071e-001 2.326799e-001 6.157038e-002 2.378720e-001 -5.850635e-001 -6.475299e-001 -7.398124e-001 1.485804e-001 -3.732485e-001
<VARIANCE> 25
 1.016305e+001 1.706939e+001 2.142269e+001 4.879913e+001 3.531769e+000 5.613779e+000 1.030223e+001 1.690355e+001 1.955379e+001 2.790597e+001 2.161947e+001 9.924437e+000 1.698266e-001 1.110338e-001 5.669800e-001 1.645564e+000 5.076194e-001 5.280424e-001 2.074327e+000 4.716383e-001 1.619337e+000 1.801857e+000 8.249331e-001 1.342253e+000 1.177558e-001
<GCONST> 7.152748e+001
<STATE> 4
<MEAN> 25
 1.264254e+000 -2.482568e+000 -1.526458e+000 2.569337e-001 -5.030968e-001 2.158283e+000 2.739022e+000 -1.518819e+000 -1.797083e+000 -2.594693e+000 1.648110e+000 3.259175e-001 -4.488239e-001 2.858234e-001 2.628994e-001 1.442352e+000 -1.360169e+000 -1.026015e+000 -9.122356e-001 5.476810e-001 3.128360e-002 1.001743e-001 7.290075e-001 3.792451e-002 -7.024135e-001
<VARIANCE> 25
 1.737880e+001 2.686977e+001 1.506284e+001 1.510845e+001 6.018923e+000 9.859553e+000 1.439271e+001 3.764940e+001 2.968581e+001 2.517631e+001 1.111701e+001 7.043840e+000 7.348311e-001 1.038563e+000 8.590835e-001 5.195312e-001 1.107576e+000 2.503745e+000 2.903150e-001 3.104111e+000 1.219374e+000 5.915399e-001 2.177270e+000 6.487127e-001 7.968941e-001
<GCONST> 7.850674e+001
<TRANSP> 5
 0.000000e+000 1.000000e+000 0.000000e+000 0.000000e+000 0.000000e+000
 0.000000e+000 9.587972e-001 4.120277e-002 0.000000e+000 0.000000e+000
 0.000000e+000 0.000000e+000 7.699534e-001 2.300466e-001 0.000000e+000
 0.000000e+000 0.000000e+000 0.000000e+000 7.272010e-001 2.727990e-001
 0.000000e+000 0.000000e+000 0.000000e+000 0.000000e+000 0.000000e+000
<ENDHMM>
~h "sp"
<BEGINHMM>
<NUMSTATES> 3
<STATE> 2
~s "silst"
<TRANSP> 3
 0.000000e+000 4.708077e-002 9.529192e-001
 0.000000e+000 7.585667e-001 2.414333e-001
 0.000000e+000 0.000000e+000 0.000000e+000
<ENDHMM>
~h "uw"
<BEGINHMM>
<NUMSTATES> 5
<STATE> 2
<MEAN> 25
 -2.151821e+000 -7.803813e+000 4.600648e+000 -6.157354e+000 2.056365e+000 1.002340e+000 -2.738787e+000 -3.628393e+000 -1.663367e+000 1.200519e+000 1.417129e+000 1.766728e+000 1.016376e+000 -9.672461e-001 -3.070094e-001 -1.106109e+000 -5.098380e-002 -3.158273e-001 -6.456961e-001 -7.302459e-001 -5.431524e-001 -5.571143e-002 -3.043213e-001 -3.000256e-001 1.220588e+000
<VARIANCE> 25
 8.168291e+001 2.270423e+002 1.475210e+002 9.848865e+001 9.659367e+001 1.015563e+002 6.730669e+001 4.997706e+001 6.653362e+001 5.254758e+001 3.619785e+001 5.370962e+001 6.478712e+000 1.297158e+001 7.873347e+000 1.024733e+001 8.928004e+000 7.409039e+000 6.911405e+000 6.077907e+000 6.927252e+000 5.928818e+000 4.527632e+000 4.761665e+000 5.322195e+000
<GCONST> 1.236123e+002
<STATE> 3
<MEAN> 25
 6.745631e+000 -3.753040e+000 -6.129063e+000 -3.945088e+000 -6.690943e-001 -8.369873e-001 -2.085300e+000 -4.393252e+000 -3.826687e+000 1.880355e+000 -2.767527e-001 -3.572775e+000 3.592493e-001 5.453991e-001 -3.599156e-001 1.171835e-001 -4.289753e-002 1.631177e-001 6.972660e-002 -1.788719e-001 -2.375043e-001 1.220310e-001 -2.578556e-001 -2.934535e-001 -3.794123e-001
<VARIANCE> 25
 1.646958e+001 1.527115e+002 6.563531e+001 9.637154e+001 9.582187e+001 7.733563e+001 8.530357e+001 9.454198e+001 7.464873e+001 6.816962e+001 6.845593e+001 6.634090e+001 1.919766e+000 4.290765e+000 3.437202e+000 6.889017e+000 6.110271e+000 5.231983e+000 4.660470e+000 7.320023e+000 5.659073e+000 4.410972e+000 5.927229e+000 4.574820e+000 3.056624e+000
<GCONST> 1.172935e+002
<STATE> 4
<MEAN> 25
 6.934413e+000 3.258025e+000 -2.150331e+000 -7.427921e+000 -1.866201e+000 -5.260425e+000 -6.102673e+000 -5.424373e+000 -4.324046e+000 -4.202169e-003 -1.753256e+000 -2.307582e+000 -1.796476e-001 2.750179e-001 2.436390e-001 3.630762e-001 -9.183731e-002 9.625615e-002 8.749755e-002 1.576047e-002 2.562039e-002 1.680383e-003 8.820859e-002 1.151490e-001 -4.302523e-001
<VARIANCE> 25
 1.632223e+001 3.137323e+001 6.384320e+001 8.894715e+001 7.246482e+001 4.863514e+001 4.424689e+001 3.417500e+001 4.252373e+001 4.854095e+001 4.266967e+001 4.129258e+001 5.341375e-001 1.273547e+000 1.451027e+000 3.478974e+000 2.376575e+000 2.792670e+000 2.183062e+000 2.552369e+000 3.036147e+000 2.418226e+000 2.312787e+000 2.222717e+000 6.537439e-001
<GCONST> 9.947514e+001
<TRANSP> 5
 0.000000e+000 1.000000e+000 0.000000e+000 0.000000e+000 0.000000e+000
 0.000000e+000 6.776259e-001 3.223741e-001 0.000000e+000 0.000000e+000
 0.000000e+000 0.000000e+000 7.586874e-001 2.413126e-001 0.000000e+000
 0.000000e+000 0.000000e+000 0.000000e+000 8.748622e-001 1.251377e-001
 0.000000e+000 0.000000e+000 0.000000e+000 0.000000e+000 0.000000e+000
<ENDHMM>
~h "sil"
<BEGINHMM>
<NUMSTATES> 5
<STATE> 2
<MEAN> 25
 -1.502436e+001 6.267066e+000 -2.980655e+000 1.092283e+001 -2.236282e+000 7.137230e+000 -4.371279e+000 1.022717e+001 9.682466e+000 4.112756e+000 4.908878e+000 1.941217e+000 -2.822584e-002 3.685313e-002 -3.292095e-003 -6.185216e-002 1.889089e-002 7.068659e-002 -2.633501e-002 -1.638933e-002 8.880810e-002 8.682435e-002 4.451324e-002 -6.672224e-002 -2.147118e-002
<VARIANCE> 25
 3.228419e+001 1.419871e+001 2.397742e+001 2.705617e+001 1.696955e+001 1.924232e+001 2.007664e+001 3.218782e+001 3.345162e+001 1.897962e+001 1.815775e+001 1.370693e+001 1.172620e-001 2.393925e-001 3.231398e-001 4.827791e-001 6.362376e-001 7.769722e-001 1.039778e+000 1.229309e+000 1.142153e+000 1.438414e+000 1.237996e+000 1.298476e+000 1.536428e-001
<GCONST> 7.598791e+001
<STATE> 3
~s "silst"
<STATE> 4
<MEAN> 25
 -2.999676e+000 3.044189e+000 -8.605379e-002 1.852396e+000 7.189066e-001 2.671761e+000 1.468213e+000 1.417823e+000 1.820208e+000 1.841318e+000 1.381475e+000 1.344537e+000 -2.491323e-002 2.413150e-002 1.917163e-004 -1.761412e-003 -2.432321e-003 3.443314e-002 2.549100e-002 5.579988e-003 -1.932841e-002 2.980053e-002 1.998860e-002 2.066288e-003 -1.074281e-002
<VARIANCE> 25
 1.520345e+001 4.324951e+001 1.845090e+001 2.263484e+001 2.088439e+001 1.970470e+001 2.669657e+001 2.138171e+001 2.261206e+001 2.872955e+001 1.760090e+001 1.634316e+001 1.796617e-001 3.978113e-001 6.084267e-001 8.153642e-001 9.837587e-001 1.144664e+000 1.253160e+000 1.350720e+000 1.467722e+000 1.467784e+000 1.323286e+000 1.222065e+000 1.053092e-001
<GCONST> 7.927799e+001
<TRANSP> 5
 0.000000e+000 1.000000e+000 0.000000e+000 0.000000e+000 0.000000e+000
 0.000000e+000 8.531722e-001 4.707287e-002 9.975491e-002 0.000000e+000
 0.000000e+000 0.000000e+000 9.458673e-001 5.413273e-002 0.000000e+000
 0.000000e+000 6.256003e-003 0.000000e+000 9.526890e-001 4.105505e-002
 0.000000e+000 0.000000e+000 0.000000e+000 0.000000e+000 0.000000e+000
<ENDHMM>
