~o
<STREAMINFO> 1 25
<VECSIZE> 25<NULLD><MFCC_D_N_Z_0><DIAGC>
~s "silst"
<MEAN> 25
 -5.733221e+000 4.199260e+000 -8.546971e+000 4.241572e+000 -5.972863e+000 6.633279e+000 -2.852312e+000 1.703455e+000 -1.161194e+000 5.824417e+000 -1.452143e+000 3.665283e+000 1.265226e-001 -1.078254e-001 1.010296e-001 -7.803499e-002 1.208958e-001 -5.775113e-002 7.243182e-002 -6.255126e-002 -7.751922e-002 -7.189057e-002 -3.176835e-002 1.502776e-002 8.381307e-001
<VARIANCE> 25
 2.154293e+001 8.307917e+000 1.586162e+001 1.156802e+001 1.562577e+001 1.088947e+001 1.934268e+001 1.437325e+001 1.935889e+001 1.282704e+001 1.579876e+001 1.261289e+001 1.897099e+000 5.256273e-001 9.230319e-001 7.557415e-001 7.840109e-001 9.299478e-001 1.050478e+000 1.000440e+000 1.173012e+000 9.738507e-001 9.610618e-001 8.274862e-001 5.954913e+000
<GCONST> 7.897904e+001
~h "b"
<BEGINHMM>
<NUMSTATES> 5
<STATE> 2
<MEAN> 25
 3.482356e+000 3.985917e+000 9.972222e+000 -1.811132e-001 -6.886015e+000 -3.379007e+000 -3.129876e+000 -3.894542e+000 -3.475494e+000 1.445953e+000 -1.384857e+000 -3.240093e-001 -6.114077e-001 -9.851288e-001 2.212428e+000 -2.756251e+000 -1.594538e+000 -8.766246e-001 2.425787e-001 -1.028334e+000 -7.413156e-001 1.103207e+000 -2.110357e-001 5.040041e-001 2.179826e+000
<VARIANCE> 25
 4.001183e+001 3.254254e+001 8.957150e+001 1.005202e+002 5.127725e+001 4.480275e+001 4.700478e+001 6.830103e+001 4.636366e+001 5.792905e+001 2.385845e+001 2.599055e+001 6.079939e+000 3.477571e+000 7.318550e+000 1.027502e+001 4.697937e+000 4.107087e+000 6.284500e+000 7.457782e+000 6.569421e+000 7.202268e+000 3.517782e+000 4.161926e+000 3.146957e+000
<GCONST> 1.142290e+002
<STATE> 3
<MEAN> 25
 1.486765e+000 8.002920e-001 1.175383e+001 -8.560785e+000 -1.271917e+001 -5.946423e+000 -1.006711e+000 -5.602572e+000 -4.152499e+000 6.039183e+000 -1.257290e+000 1.857609e-001 1.794947e-001 -5.400874e-001 -1.328573e+000 3.111964e-001 5.376089e-001 -6.185023e-001 3.062410e-001 7.258363e-001 6.814817e-001 -6.570344e-001 1.958893e-001 -3.940842e-002 2.431350e-001
<VARIANCE> 25
 2.093039e+001 2.456379e+001 3.731292e+001 4.765394e+001 4.777843e+001 3.705715e+001 5.486885e+001 4.604180e+001 4.411308e+001 4.492220e+001 3.950937e+001 5.089786e+001 9.316915e-001 1.993695e+000 3.549863e+000 4.095475e+000 4.682630e+000 2.897037e+000 3.379596e+000 4.802426e+000 3.697843e+000 5.469728e+000 3.332931e+000 2.514537e+000 9.088898e-001
<GCONST> 1.039121e+002
<STATE> 4
<MEAN> 25
 1.768360e+000 -1.999143e+000 2.527156e+000 3.766612e+000 -2.513412e+000 -4.771070e+000 -2.886822e+000 2.685176e+000 1.268178e+000 -3.579008e+000 -1.797353e+000 -1.096568e+000 -2.364514e-001 -3.064311e-002 -7.311330e-001 3.149064e-001 1.496280e+000 -4.231775e-001 -5.260924e-001 2.570266e-001 5.193746e-001 -7.072979e-001 -1.651614e-001 -6.056072e-001 -1.843754e-001
<VARIANCE> 25
 4.958397e+001 5.878387e+001 6.896615e+001 1.078951e+002 1.005139e+002 6.943394e+001 8.602647e+001 8.993719e+001 6.889158e+001 7.346326e+001 6.022345e+001 5.519237e+001 2.782865e+000 3.246038e+000 4.276838e+000 3.242968e+000 5.136317e+000 8.070304e+000 6.232539e+000 5.470950e+000 4.792439e+000 4.468565e+000 3.741424e+000 3.491748e+000 3.047713e+000
<GCONST> 1.161146e+002
<TRANSP> 5
 0.000000e+000 1.000000e+000 0.000000e+000 0.000000e+000 0.000000e+000
 0.000000e+000 7.137801e-001 2.862199e-001 0.000000e+000 0.000000e+000
 0.000000e+000 0.000000e+000 8.060423e-001 1.939577e-001 0.000000e+000
 0.000000e+000 0.000000e+000 0.000000e+000 6.438437e-001 3.561563e-001
 0.000000e+000 0.000000e+000 0.000000e+000 0.000000e+000 0.000000e+000
<ENDHMM>
~h "c"
<BEGINHMM>
<NUMSTATES> 5
<STATE> 2
<MEAN> 25
 1.719959e-001 -6.391635e-001 3.872520e+000 -7.749200e+000 5.051517e+000 4.342643e+000 -7.701810e+000 -6.975800e-001 -3.242138e+000 -8.394178e+000 2.166954e+000 1.496613e+000 -2.667135e+000 6.864821e-001 -4.204877e-001 -9.893630e-001 4.331740e-001 -1.239358e+000 -6.816921e-002 8.866170e-001 -3.300652e-001 -1.083271e+000 1.461700e+000 8.875883e-002 2.842844e-001
<VARIANCE> 25
 1.137371e+001 2.267504e+001 8.287174e+000 6.690102e+001 4.212267e+001 3.003676e+001 1.602653e+001 4.558756e+001 3.903624e+001 1.405360e+002 1.380379e+001 8.738142e+000 2.152437e+000 2.321846e+000 1.589354e+000 2.566907e+000 9.295151e-001 2.530000e+000 2.532994e+000 3.571008e+000 7.964697e-001 3.374678e+000 6.306504e-001 1.188663e+000 1.662182e+000
<GCONST> 9.223796e+001
<STATE> 3
<MEAN> 25
 -4.922197e+000 2.512262e+000 2.574939e+000 -7.438589e+000 4.564344e+000 1.448719e+000 -7.158854e+000 1.106030e+000 -2.531909e+000 -8.677970e+000 1.507784e+000 5.693926e-001 -3.258101e+000 1.004222e+000 -8.833740e-001 6.906319e-001 -5.909405e-001 -2.606189e+000 1.577120e+000 6.233118e-001 3.223335e-001 7.106705e-001 1.207512e+000 1.529389e-001 1.282030e+000
<VARIANCE> 25
 3.200407e+001 1.482921e+001 1.428895e+001 6.285973e+001 1.912662e+001 4.644556e+001 5.601424e+001 5.576069e+001 3.765365e+001 1.514056e+002 1.552256e+001 1.847614e+000 2.189399e+000 2.051449e+000 4.294361e+000 1.423103e+000 2.127148e+000 1.191295e+000 3.066544e+000 4.263087e+000 4.428924e-001 1.328746e+000 1.355019e+000 4.124347e+000 2.503517e+000
<GCONST> 9.467131e+001
<STATE> 4
<MEAN> 25
 -1.010308e+001 4.604872e+000 1.464174e+000 -3.936261e+000 3.957472e+000 -1.747698e+000 -2.435573e+000 1.255643e-001 -1.341512e+000 -7.109030e+000 3.596521e+000 -8.252664e-001 -9.435560e-001 -2.491912e-002 -9.031876e-001 1.663926e+000 -1.406455e+000 -2.798401e+000 2.044652e+000 8.410709e-001 5.464005e-001 1.987868e+000 8.495296e-001 7.062040e-002 1.104251e+000
<VARIANCE> 25
 3.630623e+001 2.403808e+001 2.616319e+001 4.240509e+001 1.599659e+001 3.300578e+001 8.067898e+001 2.511730e+001 3.826590e+001 1.168259e+002 1.030709e+001 1.334046e+001 4.603732e+000 3.322576e+000 4.459446e+000 1.357882e+000 2.421999e+000 1.198168e+000 1.494057e+000 7.749871e+000 1.089298e+000 5.426246e+000 1.646647e+000 3.485250e+000 4.072130e+000
<GCONST> 9.991349e+001
<TRANSP> 5
 0.000000e+000 1.000000e+000 0.000000e+000 0.000000e+000 0.000000e+000
 0.000000e+000 1.884132e-001 8.115868e-001 0.000000e+000 0.000000e+000
 0.000000e+000 0.000000e+000 1.884132e-001 8.115868e-001 0.000000e+000
 0.000000e+000 0.000000e+000 0.000000e+000 2.215091e-001 7.784910e-001
 0.000000e+000 0.000000e+000 0.000000e+000 0.000000e+000 0.000000e+000
<ENDHMM>
~h "d"
<BEGINHMM>
<NUMSTATES> 5
<STATE> 2
<MEAN> 25
 3.327481e+000 5.582071e+000 3.795344e+000 1.841841e+000 -4.548463e+000 -6.003162e-001 -1.560646e+000 -8.877466e-001 -2.779521e+000 1.055617e+000 -1.056038e+000 -2.563052e+000 4.305058e-001 -6.992507e-001 1.896824e+000 -1.789468e+000 -1.043759e+000 -1.256419e+000 -1.449039e-001 -4.809579e-001 -8.276160e-001 7.913213e-004 -6.044474e-001 -6.345888e-001 2.594182e+000
<VARIANCE> 25
 6.454152e+001 5.681543e+001 6.696880e+001 1.022512e+002 6.477799e+001 4.418885e+001 4.568890e+001 3.358602e+001 3.749059e+001 4.552346e+001 3.776439e+001 3.656104e+001 7.989694e+000 6.033372e+000 8.147943e+000 8.762784e+000 4.517181e+000 6.772707e+000 6.587688e+000 6.298395e+000 5.521500e+000 5.747967e+000 5.253777e+000 3.934240e+000 5.508062e+000
<GCONST> 1.164362e+002
<STATE> 3
<MEAN> 25
 -2.923263e-001 6.944609e-001 1.169996e+001 -7.884330e+000 -8.047486e+000 -3.652853e+000 -2.355951e+000 -2.715927e+000 -3.195086e+000 5.051562e+000 -3.517631e+000 1.033282e+000 -1.918796e-001 -1.243278e+000 1.834669e-002 -9.947630e-001 1.752208e-001 -7.077663e-001 7.088463e-001 1.205193e-001 2.951633e-001 -4.129453e-001 -2.314840e-001 8.716160e-002 1.302641e+000
<VARIANCE> 25
 1.526565e+001 6.293497e+001 7.914964e+001 1.324194e+002 5.932704e+001 3.162067e+001 8.420577e+001 5.530852e+001 6.434256e+001 8.548839e+001 4.192083e+001 4.157978e+001 1.403188e+000 5.197903e+000 8.056031e+000 8.916968e+000 7.340682e+000 3.556796e+000 1.008146e+001 4.971896e+000 6.292093e+000 9.989635e+000 3.986953e+000 4.041635e+000 3.258962e+000
<GCONST> 1.156711e+002
<STATE> 4
<MEAN> 25
 1.403121e+000 -5.342340e+000 5.079269e+000 -2.744083e+000 1.750336e+000 -6.643045e+000 9.133919e-001 -2.452909e+000 3.510223e-002 -4.592599e+000 -1.624234e+000 -2.972792e+000 3.125358e-001 -1.559337e-001 -5.315034e-001 -4.646183e-001 1.023649e+000 -1.659157e-001 -2.837040e-001 -3.527640e-001 2.289481e-001 -8.562633e-001 -1.223025e-002 2.998804e-001 5.462955e-001
<VARIANCE> 25
 1.382308e+001 6.345135e+001 1.005727e+002 1.737230e+002 9.492123e+001 6.552743e+001 1.506339e+002 7.028687e+001 3.248988e+001 6.779430e+001 5.553174e+001 6.059451e+001 8.806108e-001 3.941665e+000 4.079862e+000 5.031928e+000 5.853723e+000 3.407938e+000 6.726698e+000 3.078704e+000 3.194911e+000 5.402254e+000 3.951514e+000 2.902656e+000 2.159883e+000
<GCONST> 1.126617e+002
<TRANSP> 5
 0.000000e+000 1.000000e+000 0.000000e+000 0.000000e+000 0.000000e+000
 0.000000e+000 5.077904e-001 4.922097e-001 0.000000e+000 0.000000e+000
 0.000000e+000 0.000000e+000 7.799897e-001 2.200103e-001 0.000000e+000
 0.000000e+000 0.000000e+000 0.000000e+000 4.142492e-001 5.857509e-001
 0.000000e+000 0.000000e+000 0.000000e+000 0.000000e+000 0.000000e+000
<ENDHMM>
~h "g"
<BEGINHMM>
<NUMSTATES> 5
<STATE> 2
<MEAN> 25
 -1.306384e+000 5.823890e+000 3.704952e+000 2.372368e+000 2.306200e-001 -3.261840e-001 -3.171237e+000 2.956937e-001 -1.941520e+000 2.205315e+000 -2.170166e+000 -2.153318e+000 5.494661e-002 -7.522300e-001 -7.814851e-001 -1.210526e-001 3.604243e-001 -4.032214e-001 1.846515e-001 1.227384e-001 -1.432588e-001 7.752129e-001 4.272320e-001 -1.069078e-001 5.866984e-001
<VARIANCE> 25
 6.153576e+001 9.097365e+001 1.327880e+002 1.557363e+002 7.289397e+001 8.109153e+001 7.605362e+001 7.089221e+001 5.893476e+001 6.977506e+001 6.906799e+001 4.206695e+001 5.934783e+000 6.880330e+000 7.834139e+000 1.424552e+001 6.983492e+000 7.781221e+000 6.442342e+000 4.529710e+000 5.639616e+000 6.894245e+000 4.816258e+000 4.450630e+000 1.011041e+001
<GCONST> 1.229196e+002
<STATE> 3
<MEAN> 25
 1.416718e+000 -1.896146e+000 -2.258051e+000 -5.160102e+000 4.003745e+000 -2.433160e+000 -8.565779e-002 -8.514631e-001 -1.333513e+000 3.457908e+000 1.471995e+000 -9.687979e-001 7.155983e-001 7.257380e-001 5.994425e-001 -2.030022e+000 -2.480718e-001 -7.581825e-001 -3.797644e-001 -7.711980e-001 -2.825974e-001 -1.364142e+000 -8.191198e-001 -3.248066e-001 1.252763e+000
<VARIANCE> 25
 2.413999e+001 2.929093e+001 1.185464e+002 9.127587e+001 9.740569e+001 6.779971e+001 5.675371e+001 3.355704e+001 4.672240e+001 1.524415e+002 3.846127e+001 5.362206e+001 2.280763e+000 3.378498e+000 5.071681e+000 9.523244e+000 5.570138e+000 4.441287e+000 5.604066e+000 5.073315e+000 5.117024e+000 1.062331e+001 3.924948e+000 4.027442e+000 3.952377e+000
<GCONST> 1.152529e+002
<STATE> 4
<MEAN> 25
 5.363072e+000 2.820647e+000 2.855364e+000 -5.829634e+000 1.854347e+000 -4.409168e+000 -3.434621e+000 -3.190437e+000 -3.265834e+000 -2.683760e+000 -3.049080e+000 -3.844539e+000 6.633502e-001 8.732520e-001 5.164692e-001 -4.273700e-001 4.005551e-001 -4.467012e-001 -6.068931e-001 -2.848529e-001 -4.568427e-002 -2.583317e-001 -8.141146e-001 -6.748723e-001 5.469474e-001
<VARIANCE> 25
 3.880939e+001 3.442332e+001 7.630905e+001 8.802703e+001 5.938561e+001 4.541190e+001 6.074616e+001 7.572452e+001 4.743739e+001 9.059830e+001 4.023506e+001 4.139876e+001 9.762534e-001 2.431012e+000 3.111511e+000 5.329022e+000 5.559031e+000 3.401736e+000 3.747710e+000 4.441708e+000 3.923711e+000 8.045410e+000 2.627540e+000 2.435075e+000 1.808304e+000
<GCONST> 1.093992e+002
<TRANSP> 5
 0.000000e+000 1.000000e+000 0.000000e+000 0.000000e+000 0.000000e+000
 0.000000e+000 8.418370e-001 1.581630e-001 0.000000e+000 0.000000e+000
 0.000000e+000 0.000000e+000 6.467507e-001 3.532493e-001 0.000000e+000
 0.000000e+000 0.000000e+000 0.000000e+000 4.717410e-001 5.282590e-001
 0.000000e+000 0.000000e+000 0.000000e+000 0.000000e+000 0.000000e+000
<ENDHMM>
~h "h"
<BEGINHMM>
<NUMSTATES> 5
<STATE> 2
<MEAN> 25
 -9.050729e-001 1.504540e+000 1.128762e+000 3.856535e+000 6.110456e-002 2.383712e+000 -1.721836e-001 6.050757e-001 1.438916e+000 9.848480e-001 2.602248e+000 -2.781603e-001 -1.080823e-003 2.495473e-002 -1.857698e-002 3.700094e-002 7.062355e-002 -9.799450e-003 -5.120434e-002 5.872849e-002 1.516501e-001 -6.105255e-002 -8.840762e-002 -5.068874e-002 -1.541764e-002
<VARIANCE> 25
 9.701262e+000 5.266111e+000 6.540652e+000 8.593203e+000 9.294629e+000 1.276183e+001 1.500855e+001 1.545197e+001 1.950609e+001 1.445828e+001 1.138726e+001 1.249803e+001 1.211094e-001 2.728787e-001 4.266227e-001 5.439542e-001 8.005278e-001 1.394912e+000 1.316115e+000 1.386294e+000 1.564408e+000 1.466372e+000 1.075678e+000 1.523668e+000 5.109157e-002
<GCONST> 6.892316e+001
<STATE> 3
<MEAN> 25
 -2.157469e+000 -3.954114e+000 -2.233618e+000 5.577976e+000 6.730669e+000 1.371664e+000 2.726902e-001 1.030044e+000 9.191146e-001 -3.809943e+000 2.261195e+000 2.531417e+000 -1.358171e-001 -1.530382e+000 -4.829991e-001 2.183864e-001 1.377407e+000 -6.298759e-002 2.128172e-001 -5.184866e-001 -7.076705e-001 -1.267713e+000 -4.489366e-001 7.747024e-001 9.540485e-001
<VARIANCE> 25
 1.866664e+001 4.205056e+001 2.039934e+001 1.316001e+001 1.577240e+001 2.581451e+001 2.366029e+001 4.040053e+001 2.346185e+001 2.554756e+001 1.905897e+001 2.736493e+001 3.198824e-001 1.725268e+000 2.912575e+000 6.269098e-001 1.950693e+000 1.864369e+000 1.240549e+000 3.563836e+000 2.404042e+000 1.860128e+000 3.353949e+000 2.955436e+000 2.624487e-001
<GCONST> 8.896883e+001
<STATE> 4
<MEAN> 25
 1.407761e+000 -1.679527e+000 -8.364692e-001 8.264802e-001 4.356427e-001 -9.652733e-001 -1.520762e+000 -2.986815e+000 -2.080584e+000 -2.836931e+000 -1.124732e+000 5.679876e-001 -6.025464e-003 9.169970e-002 5.215076e-002 -7.111850e-002 -5.654639e-002 -1.081801e-001 2.446085e-002 -8.351268e-002 9.640797e-002 6.254517e-002 9.521653e-003 -3.572111e-002 -7.781490e-003
<VARIANCE> 25
 5.698888e+001 2.235302e+001 2.375749e+001 1.636527e+001 2.233215e+001 1.793473e+001 3.538421e+001 5.080472e+001 4.590390e+001 4.791302e+001 2.398761e+001 1.779258e+001 7.494819e-001 5.572263e-001 1.155246e+000 1.283972e+000 1.148372e+000 1.491153e+000 1.987172e+000 1.709908e+000 1.725582e+000 1.323390e+000 1.542197e+000 1.139596e+000 2.017319e-001
<GCONST> 8.737007e+001
<TRANSP> 5
 0.000000e+000 1.000000e+000 0.000000e+000 0.000000e+000 0.000000e+000
 0.000000e+000 9.499994e-001 5.000063e-002 0.000000e+000 0.000000e+000
 0.000000e+000 0.000000e+000 7.577393e-001 2.422606e-001 0.000000e+000
 0.000000e+000 0.000000e+000 0.000000e+000 9.651725e-001 3.482750e-002
 0.000000e+000 0.000000e+000 0.000000e+000 0.000000e+000 0.000000e+000
<ENDHMM>
~h "j"
<BEGINHMM>
<NUMSTATES> 5
<STATE> 2
<MEAN> 25
 6.856454e+000 -1.280465e+000 -4.073375e-001 5.553298e+000 -2.018697e+000 3.171143e+000 -5.432564e+000 -4.013701e+000 -4.577902e+000 -1.695555e+000 -9.273159e+000 -1.031207e+000 6.888520e-002 6.073185e-001 -3.724494e-001 9.296799e-001 -6.507825e-001 3.074036e-001 -2.053143e-001 -1.691125e-001 2.658704e-001 1.299789e-001 -8.588099e-002 2.258578e-002 -1.001499e+000
<VARIANCE> 25
 1.744215e+001 4.869079e+001 3.936818e+001 2.068752e+001 4.413865e+001 1.379750e+001 3.694545e+001 2.120895e+001 2.028274e+001 1.647440e+001 3.517487e+001 1.597975e+001 1.220897e+000 6.608589e-001 4.133367e-001 1.253935e+000 3.465142e+000 1.752805e+000 4.006056e+000 1.766188e+000 3.769485e+000 2.984814e+000 3.921340e+000 1.406083e+000 7.123964e-001
<GCONST> 9.129008e+001
<STATE> 3
<MEAN> 25
 -8.931260e-001 5.434690e+000 8.229040e-001 6.880176e+000 -2.425753e+000 7.174714e+000 -4.378486e+000 -2.772092e+000 -1.053222e+000 -1.005564e+000 -3.459694e+000 -2.831702e+000 -1.744081e+000 -1.482756e-001 4.918938e-002 -6.912823e-001 -5.714310e-001 2.775059e-001 1.953993e-001 2.993953e-001 5.083790e-001 7.595145e-001 1.140583e+000 6.944730e-002 -2.817605e-001
<VARIANCE> 25
 2.593055e+001 9.890870e+000 9.746210e+001 2.388270e+001 4.731166e+001 2.712871e+001 4.277087e+001 1.366327e+001 9.337948e+000 3.214243e+001 1.087967e+001 1.670062e+001 3.120460e+000 1.512875e+000 3.169425e+000 2.854896e+000 3.277419e+000 4.385077e+000 2.262619e+000 1.507787e+000 1.751823e+000 2.644467e+000 1.058040e+000 2.716156e+000 2.716463e+000
<GCONST> 9.491620e+001
<STATE> 4
<MEAN> 25
 -4.077043e+000 5.037842e+000 7.024110e+000 -1.905056e+000 -4.123852e+000 -4.806930e+000 -5.552716e+000 6.487741e-001 -6.584852e-001 4.667523e+000 3.509403e+000 -3.039321e+000 1.876900e-001 -5.486957e-001 2.737962e-001 -5.964734e-001 -4.540327e-001 -1.247291e+000 -1.729371e-002 -3.930418e-002 -3.955461e-001 2.536337e-001 -2.900583e-002 2.430107e-001 9.328048e-001
<VARIANCE> 25
 4.973041e+001 8.038000e+001 2.794044e+001 5.046103e+001 7.635963e+001 1.213936e+002 5.458812e+001 3.481795e+001 5.348098e+001 4.320721e+001 3.396711e+001 2.837105e+001 4.973750e+000 5.936596e+000 3.719697e+000 5.279075e+000 8.476317e+000 9.337392e+000 4.426532e+000 6.274076e+000 5.630251e+000 4.132772e+000 3.731938e+000 3.302194e+000 6.734534e+000
<GCONST> 1.144160e+002
<TRANSP> 5
 0.000000e+000 1.000000e+000 0.000000e+000 0.000000e+000 0.000000e+000
 0.000000e+000 7.410156e-001 2.589845e-001 0.000000e+000 0.000000e+000
 0.000000e+000 0.000000e+000 7.473313e-001 2.526687e-001 0.000000e+000
 0.000000e+000 0.000000e+000 0.000000e+000 9.050639e-001 9.493615e-002
 0.000000e+000 0.000000e+000 0.000000e+000 0.000000e+000 0.000000e+000
<ENDHMM>
~h "k"
<BEGINHMM>
<NUMSTATES> 5
<STATE> 2
<MEAN> 25
 6.080047e+000 1.714651e+000 -3.728951e+000 -3.030411e+000 -6.055151e-001 1.117309e+000 -4.329163e+000 -2.672917e+000 -3.616349e+000 -2.578767e-001 -2.007310e+000 -3.051937e+000 -9.735659e-001 2.165902e-001 -1.935599e-001 2.244090e-001 2.370215e-001 6.637216e-003 7.095618e-001 2.786878e-001 1.415058e-001 4.715868e-001 4.716423e-001 8.390123e-002 -9.271579e-001
<VARIANCE> 25
 3.041971e+001 7.107920e+001 8.227951e+001 9.755501e+001 6.061697e+001 7.013789e+001 4.803048e+001 5.965033e+001 6.290978e+001 7.137987e+001 5.236412e+001 3.875583e+001 3.404270e+000 4.881486e+000 5.395689e+000 6.456419e+000 3.735860e+000 5.674353e+000 4.311676e+000 5.386074e+000 5.424568e+000 5.447998e+000 3.508383e+000 3.134794e+000 6.052610e+000
<GCONST> 1.151016e+002
<STATE> 3
<MEAN> 25
 -3.430218e-001 2.122489e+000 -2.570314e+000 -1.672317e+000 -1.020553e+000 -1.885574e-001 -3.932177e-001 2.303802e-001 7.790565e-001 2.870637e+000 -4.782831e-001 -1.298527e+000 -1.083049e+000 -4.850758e-001 -1.795055e-001 5.149291e-001 2.336250e-001 2.920798e-001 7.785116e-001 2.121301e-001 5.723243e-001 6.869654e-001 3.657537e-001 2.192516e-001 -4.184754e-001
<VARIANCE> 25
 3.333974e+001 5.445100e+001 4.979002e+001 7.876256e+001 4.988498e+001 5.090066e+001 4.573139e+001 4.018184e+001 3.893432e+001 4.635965e+001 4.107914e+001 4.304065e+001 4.083182e+000 2.661314e+000 4.291869e+000 5.181292e+000 2.235719e+000 4.876270e+000 4.061072e+000 3.601285e+000 4.916062e+000 4.314579e+000 3.443409e+000 3.449396e+000 7.767296e+000
<GCONST> 1.101952e+002
<STATE> 4
<MEAN> 25
 -8.772330e-001 1.239859e-001 -2.615367e+000 1.614181e+000 -5.460162e-001 2.969704e+000 5.549461e-002 -5.259024e-001 1.342114e+000 2.585038e+000 2.484112e-001 2.203725e+000 -1.013175e-001 4.471589e-003 9.934305e-002 2.831536e-001 9.588135e-002 8.757563e-002 1.016969e-001 9.998936e-002 5.677122e-002 -1.627953e-002 3.500500e-002 -2.146413e-002 -8.643115e-002
<VARIANCE> 25
 1.176504e+001 1.407322e+001 1.585664e+001 2.368883e+001 2.120120e+001 1.456399e+001 2.137031e+001 1.927509e+001 1.437713e+001 2.126207e+001 2.167129e+001 1.838893e+001 4.189388e-001 5.637224e-001 1.019925e+000 1.115752e+000 1.144459e+000 1.301448e+000 1.474805e+000 1.570779e+000 1.659464e+000 1.803785e+000 1.359706e+000 1.054968e+000 4.171974e-001
<GCONST> 8.095615e+001
<TRANSP> 5
 0.000000e+000 1.000000e+000 0.000000e+000 0.000000e+000 0.000000e+000
 0.000000e+000 7.247702e-001 2.752298e-001 0.000000e+000 0.000000e+000
 0.000000e+000 0.000000e+000 6.114395e-001 3.885606e-001 0.000000e+000
 0.000000e+000 0.000000e+000 0.000000e+000 9.302799e-001 6.972010e-002
 0.000000e+000 0.000000e+000 0.000000e+000 0.000000e+000 0.000000e+000
<ENDHMM>
~h "l"
<BEGINHMM>
<NUMSTATES> 5
<STATE> 2
<MEAN> 25
 6.273506e+000 -3.078748e+000 -1.153394e+000 -5.106059e+000 -2.593504e+000 -6.736933e+000 -1.779379e+000 5.953870e-001 3.047829e+000 -2.193863e+000 -9.593156e-001 -6.241543e-001 7.138261e-002 2.729387e-002 -3.888488e-001 -1.399651e-001 -2.055535e-001 2.947811e-001 3.441704e-001 3.655237e-001 3.641333e-001 -3.061770e-001 -3.608928e-001 9.250966e-002 -1.948871e-001
<VARIANCE> 25
 1.914349e+001 2.721012e+001 4.645458e+001 5.637551e+001 7.171946e+001 5.111763e+001 4.338102e+001 7.374124e+001 6.887742e+001 7.542371e+001 5.836349e+001 2.416854e+001 6.683800e-001 1.379868e+000 2.245230e+000 2.681214e+000 4.558558e+000 3.288226e+000 3.376205e+000 3.007237e+000 3.114635e+000 4.080762e+000 3.234098e+000 2.068255e+000 9.066646e-001
<GCONST> 1.032418e+002
<STATE> 3
<MEAN> 25
 5.529531e+000 -2.551556e+000 -2.940076e+000 -5.999832e+000 -1.897290e+000 -4.380743e+000 2.005673e+000 3.412019e+000 2.775632e+000 -5.275838e+000 -2.002994e+000 -3.849910e-001 -4.977445e-001 9.163158e-002 7.602040e-002 7.594673e-002 4.852768e-001 2.654524e-001 2.379260e-001 -2.345633e-002 -2.437693e-001 -1.153408e-001 1.911687e-001 4.411002e-002 -2.646995e-001
<VARIANCE> 25
 1.850100e+001 4.317619e+001 3.603877e+001 5.520374e+001 6.041335e+001 6.961505e+001 8.604951e+001 7.992850e+001 4.358186e+001 4.477150e+001 3.560875e+001 2.044334e+001 5.650993e-001 1.032016e+000 1.147993e+000 2.554738e+000 3.663336e+000 2.210029e+000 2.113528e+000 2.429219e+000 2.420299e+000 2.473993e+000 1.892042e+000 1.703143e+000 1.089228e+000
<GCONST> 9.888174e+001
<STATE> 4
<MEAN> 25
 1.331464e+000 -6.388966e-001 -5.767490e-001 -1.100321e+000 -4.654855e-001 3.207054e-001 3.730865e-001 2.249780e+000 2.174564e+000 -1.381456e+000 9.715220e-001 -3.806295e-002 -1.336424e-001 2.012685e-002 9.256535e-002 2.605933e-001 4.612062e-002 2.468013e-001 -1.354103e-003 2.344956e-002 -4.959216e-002 1.026537e-001 4.698110e-002 6.890097e-002 -1.791085e-001
<VARIANCE> 25
 1.399165e+001 2.288634e+001 2.074513e+001 6.951986e+001 2.622316e+001 3.345627e+001 3.174840e+001 4.789578e+001 2.810449e+001 3.300409e+001 2.581803e+001 1.807878e+001 1.956244e-001 4.090995e-001 7.121863e-001 9.655814e-001 1.030586e+000 1.190888e+000 1.330788e+000 2.130583e+000 1.750217e+000 1.473864e+000 1.237767e+000 1.302934e+000 2.138453e-001
<GCONST> 8.430222e+001
<TRANSP> 5
 0.000000e+000 1.000000e+000 0.000000e+000 0.000000e+000 0.000000e+000
 0.000000e+000 7.311841e-001 2.688159e-001 0.000000e+000 0.000000e+000
 0.000000e+000 0.000000e+000 6.048501e-001 3.951499e-001 0.000000e+000
 0.000000e+000 0.000000e+000 0.000000e+000 8.141994e-001 1.858006e-001
 0.000000e+000 0.000000e+000 0.000000e+000 0.000000e+000 0.000000e+000
<ENDHMM>
~h "m"
<BEGINHMM>
<NUMSTATES> 5
<STATE> 2
<MEAN> 25
 4.120334e+000 1.651410e+000 5.992225e-001 2.021351e-001 1.747775e+000 -2.984836e-001 -2.100212e+000 -2.263264e+000 -2.056275e+000 -2.182991e+000 -3.074974e+000 -1.769511e+000 -2.523201e-001 7.038830e-001 4.954062e-001 1.137275e+000 4.768559e-002 1.604353e-001 -7.041217e-002 -1.220990e-001 -6.834974e-002 1.111659e-001 -2.312469e-001 -1.568950e-001 -8.148599e-001
<VARIANCE> 25
 3.510079e+001 4.720941e+001 3.898087e+001 8.531589e+001 5.522921e+001 5.417734e+001 4.078682e+001 4.403994e+001 3.246639e+001 3.251711e+001 3.325596e+001 2.493542e+001 1.661559e+000 2.242967e+000 2.495528e+000 4.198531e+000 2.598634e+000 3.237426e+000 2.869521e+000 2.883392e+000 2.580018e+000 2.678014e+000 2.759670e+000 1.986004e+000 1.450053e+000
<GCONST> 1.025623e+002
<STATE> 3
<MEAN> 25
 4.191501e+000 3.407600e+000 1.415887e+000 4.290970e+000 2.711797e+000 1.432867e-002 -1.401954e+000 -2.675862e+000 -2.517690e+000 -3.789790e+000 -4.394405e+000 -3.106761e+000 -3.421824e-001 3.823270e-002 9.324994e-002 3.103851e-001 -1.525395e-001 2.112210e-001 1.989364e-001 3.616343e-001 3.272297e-001 2.744610e-001 2.622845e-001 1.256829e-001 -4.071566e-001
<VARIANCE> 25
 1.906082e+001 1.742398e+001 1.638272e+001 2.193872e+001 3.189349e+001 2.347062e+001 2.727203e+001 3.432692e+001 3.032296e+001 2.089464e+001 2.642947e+001 2.543624e+001 3.320490e-001 5.225319e-001 6.547533e-001 1.034455e+000 1.226033e+000 1.262977e+000 1.416909e+000 1.567490e+000 1.734710e+000 1.431469e+000 1.558902e+000 1.390985e+000 1.982588e-001
<GCONST> 8.321828e+001
<STATE> 4
<MEAN> 25
 -1.405392e+000 1.346731e+000 4.856743e-001 4.039789e+000 9.466836e-001 2.259973e+000 1.333592e+000 1.951259e+000 2.138668e+000 1.425409e+000 1.773628e+000 3.267154e-001 -4.769127e-002 1.246054e-002 2.467705e-002 -5.274809e-003 -3.886738e-002 7.243296e-003 1.966892e-002 1.441859e-002 1.861924e-002 6.149167e-002 5.720606e-002 2.115870e-002 -2.062928e-002
<VARIANCE> 25
 1.713303e+001 6.927298e+000 1.116107e+001 1.357357e+001 1.677471e+001 1.297512e+001 1.851455e+001 1.700889e+001 1.712958e+001 1.987147e+001 1.618986e+001 1.477418e+001 1.520230e-001 2.841936e-001 4.705788e-001 7.027431e-001 9.394673e-001 1.084502e+000 1.146860e+000 1.273939e+000 1.387884e+000 1.493804e+000 1.199112e+000 1.102659e+000 7.146358e-002
<GCONST> 7.270580e+001
<TRANSP> 5
 0.000000e+000 1.000000e+000 0.000000e+000 0.000000e+000 0.000000e+000
 0.000000e+000 6.749084e-001 3.250916e-001 0.000000e+000 0.000000e+000
 0.000000e+000 0.000000e+000 7.722693e-001 2.277307e-001 0.000000e+000
 0.000000e+000 0.000000e+000 0.000000e+000 9.435108e-001 5.648922e-002
 0.000000e+000 0.000000e+000 0.000000e+000 0.000000e+000 0.000000e+000
<ENDHMM>
~h "n"
<BEGINHMM>
<NUMSTATES> 5
<STATE> 2
<MEAN> 25
 5.197414e+000 2.563956e+000 6.109029e-001 1.611212e+000 -5.608767e-002 -5.333403e+000 -3.958065e+000 -3.250895e+000 -4.758389e+000 -5.425952e+000 2.670167e-001 1.065680e+000 -5.288612e-001 8.043128e-001 2.042459e-001 1.131435e+000 1.748166e-001 7.695502e-001 -8.415003e-002 -1.610265e-001 3.283302e-001 7.152095e-001 -1.897868e-001 1.107116e-001 -1.225410e+000
<VARIANCE> 25
 2.089210e+001 3.448801e+001 2.151063e+001 4.604969e+001 6.050583e+001 5.970497e+001 3.791769e+001 3.344022e+001 3.568917e+001 3.571420e+001 4.975874e+001 3.874333e+001 1.239390e+000 1.507607e+000 1.475137e+000 2.833105e+000 1.574707e+000 2.872976e+000 2.456231e+000 2.931100e+000 2.580055e+000 2.383000e+000 3.416823e+000 1.832502e+000 9.761324e-001
<GCONST> 9.864215e+001
<STATE> 3
<MEAN> 25
 3.480848e+000 3.471093e+000 2.272719e+000 4.935058e+000 2.393924e+000 -6.350617e-001 -1.899553e+000 -2.222527e+000 -2.450108e+000 -3.349648e+000 -2.906673e+000 -5.666415e-001 -3.328043e-001 1.792627e-002 -7.593485e-002 2.470554e-001 -5.426857e-002 5.502241e-001 2.758858e-001 3.183936e-001 3.648174e-001 4.031054e-001 2.302424e-001 2.559240e-002 -4.381365e-001
<VARIANCE> 25
 1.791731e+001 1.772041e+001 1.991683e+001 2.477110e+001 3.205624e+001 2.274477e+001 2.033581e+001 2.228129e+001 2.256703e+001 2.119402e+001 2.764531e+001 2.376932e+001 3.321629e-001 6.196525e-001 8.170229e-001 1.095979e+000 1.205983e+000 1.413225e+000 1.466810e+000 1.556767e+000 1.682757e+000 1.583932e+000 1.761482e+000 1.214546e+000 2.076844e-001
<GCONST> 8.311151e+001
<STATE> 4
<MEAN> 25
 -2.548443e+000 1.695567e+000 5.258036e-001 4.088340e+000 2.078029e+000 2.881147e+000 2.024858e+000 2.062937e+000 2.506603e+000 2.102329e+000 2.372135e+000 5.767610e-001 -7.305699e-002 -1.122943e-002 -1.266524e-003 2.335063e-002 -5.678596e-003 3.199481e-002 3.748570e-002 5.720978e-002 8.040216e-002 8.943368e-002 5.367658e-002 -8.366493e-003 -3.805919e-002
<VARIANCE> 25
 1.964438e+001 8.735711e+000 9.442061e+000 1.402588e+001 1.573339e+001 1.351074e+001 2.035764e+001 1.933625e+001 1.792745e+001 2.021300e+001 1.657767e+001 1.550118e+001 1.525272e-001 3.215452e-001 4.547066e-001 6.646125e-001 8.718783e-001 1.093839e+000 1.187475e+000 1.284803e+000 1.425482e+000 1.412710e+000 1.293500e+000 1.154871e+000 7.521582e-002
<GCONST> 7.343186e+001
<TRANSP> 5
 0.000000e+000 1.000000e+000 0.000000e+000 0.000000e+000 0.000000e+000
 0.000000e+000 6.756473e-001 3.243527e-001 0.000000e+000 0.000000e+000
 0.000000e+000 0.000000e+000 7.655617e-001 2.344383e-001 0.000000e+000
 0.000000e+000 0.000000e+000 0.000000e+000 9.429199e-001 5.708010e-002
 0.000000e+000 0.000000e+000 0.000000e+000 0.000000e+000 0.000000e+000
<ENDHMM>
~h "o"
<BEGINHMM>
<NUMSTATES> 5
<STATE> 2
<MEAN> 25
 8.913874e+000 -9.085715e+000 -5.998719e+000 -2.371322e+000 1.439060e+000 1.868141e+000 -8.530565e+000 2.465909e+000 6.641355e+000 -7.279630e-001 -1.582882e+001 -6.426312e-001 1.432278e+000 -7.307444e-001 -1.495149e+000 8.091891e-001 1.129667e+000 4.143338e+000 -1.246199e+000 -1.162474e+000 2.242906e-001 1.163873e+000 2.122429e-001 -2.008000e+000 4.117313e-001
<VARIANCE> 25
 3.463012e+001 4.294855e+001 9.178950e+000 9.154718e+000 1.169878e+001 4.954965e+001 3.577328e+001 3.108812e+001 9.059606e+000 2.136806e+001 7.117747e+001 2.274149e+001 1.742061e+000 7.521045e-001 6.666294e-001 2.061028e+000 2.707165e+000 3.078561e+000 1.226798e+000 4.317249e+000 1.680336e+000 1.410821e+000 2.538063e+000 1.955454e+000 1.141273e+000
<GCONST> 9.068701e+001
<STATE> 3
<MEAN> 25
 9.134728e+000 -9.501567e+000 -7.350244e+000 -1.887022e+000 2.401189e+000 6.223544e+000 -1.025304e+001 1.357070e+000 4.863062e+000 8.415557e-001 -1.383860e+001 -4.383566e+000 3.225382e-001 2.114951e-001 -1.092074e+000 5.165716e-001 1.028179e+000 2.884454e+000 -4.305786e-001 -1.166229e+000 -9.399059e-001 8.994609e-001 8.843089e-001 -2.247380e+000 -1.153816e+000
<VARIANCE> 25
 3.728115e+001 2.917632e+001 9.282576e+000 1.324709e+001 1.120971e+001 7.350518e+001 4.511589e+001 2.741161e+001 1.609594e+001 1.695009e+001 3.561531e+001 1.818854e+001 1.318462e-001 9.198430e-001 1.981411e-001 9.086952e-001 3.426287e+000 1.709967e+000 1.474838e+000 2.354150e+000 1.053975e+000 7.950100e-001 3.102654e+000 2.373692e+000 1.450849e+000
<GCONST> 8.504794e+001
<STATE> 4
<MEAN> 25
 8.656869e+000 -8.150927e+000 -7.450593e+000 -1.461834e+000 3.346098e+000 7.399572e+000 -1.030669e+001 -1.574675e-001 3.611920e+000 2.503416e+000 -1.296640e+001 -5.430887e+000 4.553095e-002 8.333686e-001 -1.002931e+000 1.213805e-001 6.702789e-001 1.247256e+000 7.350414e-001 -9.285919e-001 -1.082465e+000 7.561423e-001 1.189350e+000 -7.478190e-001 -1.652828e+000
<VARIANCE> 25
 4.533165e+001 3.221518e+001 7.628197e+000 1.847751e+001 1.392924e+001 4.819514e+001 4.530403e+001 3.616708e+001 2.204343e+001 2.600436e+001 3.360730e+001 1.937057e+001 4.320433e-001 8.440121e-001 2.842669e-001 4.913426e-001 1.454823e+000 9.662709e-001 2.689741e+000 2.202120e+000 2.057260e+000 2.034876e+000 2.252348e+000 3.405345e+000 2.326265e+000
<GCONST> 8.837791e+001
<TRANSP> 5
 0.000000e+000 1.000000e+000 0.000000e+000 0.000000e+000 0.000000e+000
 0.000000e+000 2.082779e-001 7.917221e-001 0.000000e+000 0.000000e+000
 0.000000e+000 0.000000e+000 2.082779e-001 7.917221e-001 0.000000e+000
 0.000000e+000 0.000000e+000 0.000000e+000 2.579258e-001 7.420742e-001
 0.000000e+000 0.000000e+000 0.000000e+000 0.000000e+000 0.000000e+000
<ENDHMM>
~h "p"
<BEGINHMM>
<NUMSTATES> 5
<STATE> 2
<MEAN> 25
 -1.458586e+000 1.229422e+000 -2.653157e+000 2.574007e+000 -1.886559e+000 1.374064e+000 -1.006016e-001 2.774961e+000 1.450632e+000 2.114636e+000 2.416094e+000 1.569608e-001 1.404531e+000 -9.845511e-001 3.170003e-001 -1.330716e+000 3.955958e-001 -1.286417e+000 6.480129e-001 -2.929268e-001 -7.863206e-002 -4.856896e-001 9.635495e-002 -3.397123e-001 3.325610e+000
<VARIANCE> 25
 7.625210e+001 4.958449e+001 2.751978e+001 5.306554e+001 2.960293e+001 4.657917e+001 3.812901e+001 4.094961e+001 4.798366e+001 3.590818e+001 2.772351e+001 2.196589e+001 9.987782e+000 4.625019e+000 3.138770e+000 5.679414e+000 2.997422e+000 5.778403e+000 3.695347e+000 3.924526e+000 4.430797e+000 5.512970e+000 3.578663e+000 2.771023e+000 1.942141e+001
<GCONST> 1.106130e+002
<STATE> 3
<MEAN> 25
 1.152687e+000 -2.562871e+000 -3.182790e+000 -1.229203e+000 1.297304e+000 -4.616092e-001 1.361463e+000 -1.872917e-001 3.118120e-001 -9.971932e-001 8.889753e-001 1.903796e-002 -2.554528e-001 1.492496e-002 1.466729e-001 3.497393e-001 1.571372e-001 -8.988331e-002 2.486680e-001 -2.492377e-003 1.873403e-002 -2.201558e-001 2.424891e-001 8.500714e-002 6.822883e-003
<VARIANCE> 25
 1.695396e+001 5.563557e+001 1.895277e+001 4.460343e+001 3.825859e+001 4.205198e+001 3.996044e+001 3.600865e+001 3.895682e+001 2.875134e+001 2.345060e+001 2.260240e+001 9.059071e-001 1.080789e+000 1.274867e+000 2.234275e+000 2.092792e+000 2.134965e+000 2.557101e+000 2.627767e+000 1.968347e+000 2.707147e+000 1.948475e+000 1.777121e+000 1.385872e+000
<GCONST> 9.515408e+001
<STATE> 4
<MEAN> 25
 -4.019479e+000 1.360588e+000 4.542172e-001 2.937718e+000 1.666131e+000 2.653378e+000 3.353253e+000 2.612811e+000 3.313116e+000 2.989045e+000 3.442144e+000 1.457748e-001 -5.786138e-002 -1.490701e-002 1.165616e-002 8.271331e-003 -1.941638e-002 -1.973686e-002 3.258838e-002 5.947664e-002 7.496063e-002 7.153047e-002 5.934671e-002 -1.724913e-002 3.573983e-002
<VARIANCE> 25
 1.596938e+001 8.508381e+000 9.391870e+000 1.271307e+001 1.367455e+001 1.486657e+001 1.726520e+001 1.823029e+001 1.704833e+001 2.214319e+001 1.569733e+001 1.480610e+001 2.489588e-001 3.426189e-001 5.567456e-001 7.653061e-001 1.011954e+000 1.129253e+000 1.283404e+000 1.428688e+000 1.453085e+000 1.528666e+000 1.311632e+000 1.201128e+000 1.848662e-001
<GCONST> 7.507915e+001
<TRANSP> 5
 0.000000e+000 1.000000e+000 0.000000e+000 0.000000e+000 0.000000e+000
 0.000000e+000 6.456055e-001 3.543945e-001 0.000000e+000 0.000000e+000
 0.000000e+000 0.000000e+000 5.494412e-001 4.505588e-001 0.000000e+000
 0.000000e+000 0.000000e+000 0.000000e+000 9.396322e-001 6.036777e-002
 0.000000e+000 0.000000e+000 0.000000e+000 0.000000e+000 0.000000e+000
<ENDHMM>
~h "r"
<BEGINHMM>
<NUMSTATES> 5
<STATE> 2
<MEAN> 25
 7.551324e+000 -9.539310e+000 -1.626706e+000 1.601045e+000 -6.350196e+000 -1.270337e+000 8.591940e-001 4.708168e+000 1.735352e+000 -5.977749e+000 -5.102146e+000 -9.534648e-002 -2.630823e-001 -6.143445e-001 8.064108e-001 3.250248e-001 -1.044615e+000 2.714662e-001 5.761725e-001 5.573291e-001 -5.739734e-001 3.015568e-002 2.969657e-001 6.314448e-001 -1.537443e-001
<VARIANCE> 25
 2.559798e+001 3.936207e+001 3.462423e+001 6.651251e+001 7.068800e+001 4.305003e+001 5.221487e+001 5.229126e+001 3.974997e+001 5.832165e+001 3.741423e+001 3.535171e+001 1.717091e+000 3.118601e+000 3.106900e+000 5.963050e+000 5.102120e+000 3.980662e+000 5.475204e+000 4.734368e+000 4.033496e+000 3.711159e+000 3.655351e+000 3.020062e+000 2.681590e+000
<GCONST> 1.084303e+002
<STATE> 3
<MEAN> 25
 4.093266e+000 -1.034977e+001 5.400158e+000 -6.898852e+000 -1.013512e+001 -3.641062e+000 9.170513e+000 2.760815e+000 -6.168416e+000 8.776524e-001 -3.364030e+000 -2.333647e+000 -6.175153e-001 7.023098e-001 4.892831e-001 -6.763355e-001 5.026175e-001 2.666266e-002 7.590023e-001 -8.607485e-001 -8.368853e-001 8.980767e-001 1.516100e-001 -3.465907e-001 -1.714187e-001
<VARIANCE> 25
 1.657981e+001 3.215293e+001 3.508035e+001 3.609799e+001 5.852434e+001 3.054846e+001 6.254760e+001 4.670322e+001 4.671807e+001 5.975843e+001 3.704280e+001 2.232233e+001 7.793213e-001 1.503952e+000 1.593793e+000 2.236710e+000 2.250996e+000 2.045627e+000 3.865227e+000 2.707837e+000 4.015610e+000 3.245459e+000 2.423331e+000 2.226532e+000 7.212745e-001
<GCONST> 9.872153e+001
<STATE> 4
<MEAN> 25
 2.472685e+000 -6.194582e+000 2.731311e+000 -4.039717e+000 -4.641624e+000 -1.958157e+000 7.862303e+000 3.659779e-001 -5.259791e+000 1.759416e+000 -1.708135e+000 -2.397063e+000 -1.940991e-001 1.066576e+000 -2.455720e-001 8.315330e-001 7.771239e-001 3.676622e-001 -6.208645e-001 -1.111871e+000 4.952951e-002 3.299395e-001 9.152007e-002 1.216267e-001 -9.497821e-001
<VARIANCE> 25
 2.114654e+001 3.239627e+001 6.493053e+001 8.148056e+001 6.176248e+001 4.075605e+001 8.416787e+001 6.896155e+001 5.787828e+001 8.114481e+001 5.231988e+001 2.955837e+001 7.647608e-001 1.394868e+000 1.586048e+000 2.596179e+000 2.312953e+000 3.139911e+000 3.259831e+000 3.108843e+000 3.674050e+000 3.806862e+000 2.921265e+000 2.368037e+000 6.370856e-001
<GCONST> 1.032456e+002
<TRANSP> 5
 0.000000e+000 1.000000e+000 0.000000e+000 0.000000e+000 0.000000e+000
 0.000000e+000 8.016417e-001 1.983583e-001 0.000000e+000 0.000000e+000
 0.000000e+000 0.000000e+000 7.880209e-001 2.119791e-001 0.000000e+000
 0.000000e+000 0.000000e+000 0.000000e+000 2.880853e-001 7.119147e-001
 0.000000e+000 0.000000e+000 0.000000e+000 0.000000e+000 0.000000e+000
<ENDHMM>
~h "s"
<BEGINHMM>
<NUMSTATES> 5
<STATE> 2
<MEAN> 25
 -9.409836e+000 4.652320e+000 -4.318753e+000 5.832217e+000 -6.599410e-001 -4.392563e-001 5.178092e+000 1.573902e+000 -6.675096e-001 2.460439e+000 2.813234e+000 -6.601751e-001 -8.241534e-001 1.562369e-001 -1.043207e-001 1.406690e-001 -2.998143e-002 2.031343e-001 3.437830e-001 2.314273e-001 1.419964e-001 4.750372e-001 3.901622e-001 4.588026e-002 2.092458e-001
<VARIANCE> 25
 3.233115e+001 4.295623e+001 2.710058e+001 3.815554e+001 2.715223e+001 2.934381e+001 2.816718e+001 2.942708e+001 3.637563e+001 3.079785e+001 2.252423e+001 2.150150e+001 1.989047e+000 2.117136e+000 2.182624e+000 1.696683e+000 1.579839e+000 2.174610e+000 2.100302e+000 2.329817e+000 2.611075e+000 2.380702e+000 1.967140e+000 1.912247e+000 8.117861e-001
<GCONST> 9.524150e+001
<STATE> 3
<MEAN> 25
 -1.392849e+001 -3.705127e+000 7.594316e+000 -4.900440e+000 -2.001603e+000 9.130094e-001 6.709172e+000 -2.303147e+000 1.194549e+000 3.772795e+000 6.268865e+000 -6.240264e-001 2.725512e-001 -4.386557e-001 4.513408e-001 -8.144829e-001 -2.264943e-001 -5.130501e-001 -6.138224e-001 -2.983387e-001 1.364102e-001 -1.518289e-001 -3.804357e-001 3.363443e-002 2.457190e-001
<VARIANCE> 25
 3.441935e+001 7.801669e+001 1.389382e+002 1.334787e+002 3.620071e+001 6.319314e+001 4.864395e+001 1.016194e+002 6.073161e+001 5.023534e+001 2.133850e+001 2.546304e+001 5.271132e+000 1.540672e+000 3.719855e+000 3.435874e+000 2.243224e+000 2.607003e+000 2.590199e+000 3.146496e+000 2.541965e+000 2.672506e+000 2.529248e+000 1.699869e+000 8.837286e-001
<GCONST> 1.059898e+002
<STATE> 4
<MEAN> 25
 -4.342772e+000 -6.114659e-001 2.026897e+000 -1.587062e+000 -2.496720e+000 -5.264744e+000 2.880405e+000 7.780832e-001 -1.013962e+000 2.691517e+000 6.915999e-001 1.105751e-001 2.312968e+000 -2.191266e-001 1.375286e-001 -1.111160e+000 -3.716630e-001 -8.816993e-001 -1.202619e+000 -2.268797e-002 -5.115430e-001 -1.238065e+000 -1.640768e+000 -9.026345e-002 6.151668e-001
<VARIANCE> 25
 8.453412e+001 6.986324e+001 6.008490e+001 6.685228e+001 7.952402e+001 5.025082e+001 5.448004e+001 8.524422e+001 5.865261e+001 8.283773e+001 5.739283e+001 5.916704e+001 6.784486e+000 3.677118e+000 4.864607e+000 8.081315e+000 4.600978e+000 4.787309e+000 6.401543e+000 6.243899e+000 5.616175e+000 8.533262e+000 6.031559e+000 3.800387e+000 2.571483e+000
<GCONST> 1.178990e+002
<TRANSP> 5
 0.000000e+000 1.000000e+000 0.000000e+000 0.000000e+000 0.000000e+000
 0.000000e+000 8.884512e-001 1.115488e-001 0.000000e+000 0.000000e+000
 0.000000e+000 0.000000e+000 7.867290e-001 2.132710e-001 0.000000e+000
 0.000000e+000 0.000000e+000 0.000000e+000 6.856999e-001 3.143001e-001
 0.000000e+000 0.000000e+000 0.000000e+000 0.000000e+000 0.000000e+000
<ENDHMM>
~h "t"
<BEGINHMM>
<NUMSTATES> 5
<STATE> 2
<MEAN> 25
 7.873968e-001 5.592768e+000 1.146142e+000 4.820761e+000 -1.655896e+000 9.747285e-002 -2.665189e+000 -1.256201e+000 -2.439035e+000 8.967150e-001 -1.066863e+000 -2.443905e+000 -6.542684e-001 -1.679036e+000 2.168762e-001 -1.319174e+000 2.624178e-001 -1.140082e+000 7.886123e-001 4.697265e-001 -3.195077e-001 1.721141e-001 4.183609e-001 -2.571242e-001 2.089095e+000
<VARIANCE> 25
 6.297545e+001 7.531316e+001 3.479695e+001 5.089188e+001 3.514227e+001 5.874245e+001 5.791526e+001 6.315018e+001 5.808784e+001 4.389819e+001 4.449343e+001 4.266568e+001 4.982443e+000 7.129337e+000 4.110070e+000 6.451341e+000 4.109200e+000 8.100652e+000 6.317489e+000 5.353301e+000 6.660007e+000 5.161054e+000 3.821644e+000 3.553701e+000 1.370419e+001
<GCONST> 1.157579e+002
<STATE> 3
<MEAN> 25
 -3.448910e-001 -3.093494e+000 1.414510e+000 -2.636024e+000 -1.584679e+000 -4.412228e+000 1.176903e+000 2.680608e-001 -1.985667e+000 1.192391e+000 1.672590e+000 -1.568573e+000 8.429337e-001 -9.483339e-001 1.814464e-001 -2.621351e+000 -4.522307e-001 -1.259528e+000 -1.597155e-001 -6.624079e-002 1.927530e-001 -6.647548e-001 -1.860125e-001 -3.782815e-001 3.065958e+000
<VARIANCE> 25
 3.059772e+001 4.748098e+001 5.121455e+001 4.207651e+001 4.360624e+001 5.618467e+001 5.459466e+001 5.724904e+001 5.223289e+001 4.189649e+001 3.680031e+001 3.150647e+001 3.473736e+000 4.827313e+000 9.089928e+000 6.313434e+000 5.008679e+000 6.659183e+000 6.408780e+000 6.582841e+000 7.727393e+000 7.883136e+000 4.725471e+000 4.065302e+000 6.163295e+000
<GCONST> 1.145037e+002
<STATE> 4
<MEAN> 25
 1.326467e+000 -4.834606e+000 3.071590e-001 -3.284715e+000 -1.568877e+000 -1.266960e+000 3.203320e+000 8.733900e-001 -2.562744e+000 -1.042887e+000 1.265640e+000 -4.945762e-002 2.402919e-001 3.712144e-001 -6.775537e-002 -5.735196e-001 -1.015713e-001 -6.231415e-003 -2.137527e-001 8.045395e-002 2.967747e-001 -2.471379e-002 -8.151538e-002 4.980255e-002 -4.366257e-002
<VARIANCE> 25
 4.664463e+001 6.940171e+001 1.060604e+002 5.866986e+001 8.052170e+001 7.918317e+001 1.005766e+002 7.807687e+001 5.901466e+001 7.083575e+001 5.354936e+001 4.927419e+001 2.376551e+000 3.096810e+000 4.838320e+000 5.402377e+000 3.184709e+000 4.308554e+000 4.988239e+000 4.998073e+000 4.186945e+000 4.570539e+000 3.878608e+000 2.956882e+000 3.846529e+000
<GCONST> 1.145433e+002
<TRANSP> 5
 0.000000e+000 1.000000e+000 0.000000e+000 0.000000e+000 0.000000e+000
 0.000000e+000 6.718934e-001 3.281067e-001 0.000000e+000 0.000000e+000
 0.000000e+000 0.000000e+000 3.046228e-001 6.953772e-001 0.000000e+000
 0.000000e+000 0.000000e+000 0.000000e+000 6.850963e-001 3.149037e-001
 0.000000e+000 0.000000e+000 0.000000e+000 0.000000e+000 0.000000e+000
<ENDHMM>
~h "w"
<BEGINHMM>
<NUMSTATES> 5
<STATE> 2
<MEAN> 25
 7.253620e+000 7.856299e+000 6.512576e+000 -7.737908e+000 -1.270977e+000 -5.244509e+000 -5.632955e+000 -2.470121e+000 -9.005419e+000 -2.078252e+000 -5.779634e+000 -1.336204e+000 1.255246e-001 3.584387e-001 -2.103311e-001 -1.342345e-001 -8.846616e-002 -4.464142e-001 2.011485e-001 3.622960e-001 1.345442e-002 3.044090e-001 2.777652e-001 -4.200473e-003 -1.093110e-001
<VARIANCE> 25
 1.391570e+001 1.430949e+001 5.691075e+001 7.559910e+001 2.665016e+001 3.548849e+001 2.762123e+001 3.493203e+001 2.931715e+001 7.146154e+001 4.936521e+001 3.311313e+001 1.432153e-001 3.792211e-001 8.266716e-001 1.128487e+000 9.303698e-001 1.351054e+000 1.562112e+000 1.437361e+000 1.263023e+000 2.034926e+000 1.292531e+000 1.266735e+000 2.140272e-001
<GCONST> 8.632870e+001
<STATE> 3
<MEAN> 25
 7.635511e+000 3.898209e+000 -4.556140e-001 -1.432922e+001 2.981057e+000 -6.310720e+000 -2.286977e+000 -8.942149e-001 -1.699301e+000 1.037108e+000 1.819836e+000 -2.736109e+000 -5.512357e-001 -1.937004e+000 -3.035648e-001 -8.861565e-001 1.129972e+000 2.677012e-001 1.050233e+000 -2.626188e-001 1.628857e+000 -8.883720e-001 -4.036649e-001 -1.168946e+000 1.543138e+000
<VARIANCE> 25
 7.334069e+000 5.442445e+001 3.655208e+001 5.055587e+001 5.939221e+001 5.766930e+001 4.214375e+001 5.428152e+001 5.688949e+001 1.125091e+002 5.615019e+001 5.418103e+001 5.618421e-001 2.204617e+000 2.021091e+000 5.539695e+000 2.934420e+000 1.886532e+000 3.358943e+000 2.717656e+000 2.691574e+000 7.611861e+000 7.730607e+000 3.552000e+000 8.665009e-001
<GCONST> 1.048582e+002
<STATE> 4
<MEAN> 25
 4.401337e+000 -5.931386e+000 8.912037e-001 -1.071927e+001 4.500948e+000 -7.731349e+000 7.221369e+000 2.713959e+000 -1.245662e+000 -4.871589e+000 2.023156e+000 -4.057894e+000 -1.154453e-001 -4.911743e-001 -2.508689e-001 3.014683e-001 -1.349722e-001 2.250467e-001 2.758017e-001 -6.033507e-002 -1.410080e-001 2.726454e-001 2.813179e-001 4.345291e-001 -5.289526e-002
<VARIANCE> 25
 1.460216e+001 8.013936e+001 2.977691e+001 2.069182e+001 3.542041e+001 4.852903e+001 3.497115e+001 3.825811e+001 4.629533e+001 4.129149e+001 5.269504e+001 3.612384e+001 1.609457e-001 7.315933e-001 5.159119e-001 5.623673e-001 9.444398e-001 1.026012e+000 1.026560e+000 1.679520e+000 1.293125e+000 1.989608e+000 1.474553e+000 1.641425e+000 3.245532e-001
<GCONST> 8.703105e+001
<TRANSP> 5
 0.000000e+000 1.000000e+000 0.000000e+000 0.000000e+000 0.000000e+000
 0.000000e+000 9.095913e-001 9.040876e-002 0.000000e+000 0.000000e+000
 0.000000e+000 0.000000e+000 8.306099e-001 1.693902e-001 0.000000e+000
 0.000000e+000 0.000000e+000 0.000000e+000 9.402134e-001 5.978666e-002
 0.000000e+000 0.000000e+000 0.000000e+000 0.000000e+000 0.000000e+000
<ENDHMM>
~h "y"
<BEGINHMM>
<NUMSTATES> 5
<STATE> 2
<MEAN> 25
 3.316292e+000 -1.272847e+000 9.456810e+000 -1.104865e+001 -5.901226e+000 -3.148854e+000 1.861201e+000 -4.995421e+000 -2.891695e+000 8.255727e-001 -1.341221e+000 -1.150221e+000 -3.284818e-001 1.150935e+000 1.275913e+000 -5.045195e-001 -9.513475e-001 -1.259323e-001 -1.284019e+000 -1.197525e+000 5.253326e-001 1.944969e+000 2.425914e-001 8.307834e-002 -2.726392e-001
<VARIANCE> 25
 3.142567e+001 6.752535e+001 7.105993e+001 6.110287e+001 6.826462e+001 4.573776e+001 1.126434e+002 4.646300e+001 6.418894e+001 5.555577e+001 3.416357e+001 4.294118e+001 5.606217e-001 3.224669e+000 3.026629e+000 3.677260e+000 3.270751e+000 2.876822e+000 6.604073e+000 3.573923e+000 3.550452e+000 3.905879e+000 2.390071e+000 4.081861e+000 8.172676e-001
<GCONST> 1.071730e+002
<STATE> 3
<MEAN> 25
 1.062449e+000 5.469394e-002 1.076155e+001 -1.265911e+001 -9.219943e+000 -4.627143e+000 8.827918e-001 -5.106387e+000 -2.483620e+000 4.480447e+000 -2.392712e+000 4.625243e-001 1.370270e-001 -8.638003e-001 -9.075024e-001 1.091414e-001 3.580896e-001 -1.310183e-002 9.820722e-001 7.639096e-001 3.075364e-002 -7.697093e-001 -9.713960e-002 -2.766985e-001 3.633464e-001
<VARIANCE> 25
 1.876528e+001 3.028725e+001 4.377797e+001 4.072582e+001 7.900893e+001 2.361925e+001 8.301012e+001 4.098760e+001 5.424473e+001 4.014893e+001 3.468712e+001 3.736132e+001 3.369322e-001 3.491494e+000 4.016684e+000 2.205226e+000 5.165325e+000 1.750546e+000 5.823472e+000 3.107104e+000 2.117058e+000 5.228752e+000 2.057419e+000 2.451463e+000 6.881431e-001
<GCONST> 1.013824e+002
<STATE> 4
<MEAN> 25
 3.103749e+000 -4.714711e+000 5.738281e+000 1.182590e+000 5.592618e+000 -1.163759e+001 -3.541039e+000 -1.574556e+000 5.184436e-002 -5.535604e+000 3.029553e+000 -7.573862e+000 3.091004e-001 -4.784839e-001 -8.569580e-001 1.990894e-001 8.286079e-001 2.124366e-001 1.418739e-001 -6.060520e-002 3.250316e-002 -4.673709e-001 1.689538e-002 3.437760e-001 9.255149e-002
<VARIANCE> 25
 1.514273e+001 3.827655e+001 4.125630e+001 1.061620e+002 9.410038e+001 8.372208e+001 1.152356e+002 3.446891e+001 5.663264e+001 3.946050e+001 5.757771e+001 4.294530e+001 3.026873e-001 1.146365e+000 2.673034e+000 3.638999e+000 3.214328e+000 1.671481e+000 2.426829e+000 2.378725e+000 2.425576e+000 3.220578e+000 2.431074e+000 1.862425e+000 4.319840e-001
<GCONST> 1.008553e+002
<TRANSP> 5
 0.000000e+000 1.000000e+000 0.000000e+000 0.000000e+000 0.000000e+000
 0.000000e+000 6.372080e-001 3.627920e-001 0.000000e+000 0.000000e+000
 0.000000e+000 0.000000e+000 8.558734e-001 1.441267e-001 0.000000e+000
 0.000000e+000 0.000000e+000 0.000000e+000 7.426871e-001 2.573129e-001
 0.000000e+000 0.000000e+000 0.000000e+000 0.000000e+000 0.000000e+000
<ENDHMM>
~h "aa"
<BEGINHMM>
<NUMSTATES> 5
<STATE> 2
<MEAN> 25
 2.808087e+000 -4.639466e+000 -1.916135e+000 -2.673335e+000 1.143060e+000 -2.267407e+000 7.796819e-001 -9.854257e-002 -1.176328e-001 -2.462247e+000 -1.146908e+000 -4.222855e-001 8.860067e-001 -1.444623e+000 -7.211745e-001 -1.232449e+000 8.618557e-001 8.371715e-004 3.053441e-001 -2.691238e-001 -4.534222e-001 -9.389402e-001 -6.469314e-001 2.360718e-002 1.654774e+000
<VARIANCE> 25
 4.100011e+001 7.185556e+001 4.800562e+001 7.343309e+001 5.662929e+001 5.778527e+001 7.785278e+001 6.974048e+001 4.628862e+001 5.498811e+001 5.321712e+001 3.200430e+001 3.238799e+000 4.235425e+000 3.398483e+000 5.474447e+000 4.524035e+000 4.987371e+000 5.441591e+000 6.422070e+000 4.134140e+000 4.692071e+000 4.261200e+000 2.830802e+000 5.091773e+000
<GCONST> 1.133731e+002
<STATE> 3
<MEAN> 25
 5.048119e+000 -1.103186e+001 -4.014772e+000 -5.187551e+000 4.829128e+000 -7.903462e-001 3.963968e+000 -1.032797e+000 -2.349356e+000 -5.622985e+000 -3.110544e+000 1.140005e+000 4.128274e-001 3.616695e-001 -1.062981e-001 5.577021e-001 -1.678751e-001 2.977897e-001 -5.660401e-001 -1.030936e-001 -3.478580e-001 -1.497724e-001 -9.149457e-002 4.018824e-002 -6.604284e-001
<VARIANCE> 25
 2.527090e+001 4.601073e+001 3.391260e+001 4.844036e+001 5.185555e+001 4.380019e+001 5.485109e+001 4.348070e+001 4.571120e+001 3.923072e+001 4.540600e+001 4.484009e+001 8.878335e-001 2.335413e+000 1.609358e+000 2.164736e+000 2.941326e+000 2.322598e+000 2.893185e+000 3.440044e+000 2.551796e+000 2.455766e+000 2.422449e+000 2.208528e+000 1.562727e+000
<GCONST> 1.011807e+002
<STATE> 4
<MEAN> 25
 7.618077e+000 -7.299117e+000 -4.258448e+000 -3.681216e+000 8.472078e-001 -2.074041e+000 -7.069498e-001 -1.516386e+000 -4.073956e+000 -7.210217e+000 -3.203274e+000 8.893788e-001 -1.225291e-001 6.300646e-001 2.336328e-001 2.522163e-001 -3.101870e-001 -1.115764e-001 -9.700762e-002 -1.018538e-001 -3.643471e-002 7.558047e-002 1.338411e-001 -3.771956e-002 -4.955950e-001
<VARIANCE> 25
 2.392094e+001 4.459753e+001 2.976161e+001 4.553012e+001 4.647001e+001 3.870758e+001 7.617110e+001 4.715580e+001 4.258298e+001 4.665931e+001 5.951707e+001 3.611344e+001 3.304440e-001 1.166889e+000 9.640126e-001 1.219036e+000 1.746282e+000 1.724296e+000 1.937093e+000 2.010317e+000 1.601868e+000 1.950023e+000 1.789227e+000 1.434338e+000 4.218235e-001
<GCONST> 9.396804e+001
<TRANSP> 5
 0.000000e+000 1.000000e+000 0.000000e+000 0.000000e+000 0.000000e+000
 0.000000e+000 7.203398e-001 2.796602e-001 0.000000e+000 0.000000e+000
 0.000000e+000 0.000000e+000 7.886946e-001 2.113054e-001 0.000000e+000
 0.000000e+000 0.000000e+000 0.000000e+000 8.670078e-001 1.329922e-001
 0.000000e+000 0.000000e+000 0.000000e+000 0.000000e+000 0.000000e+000
<ENDHMM>
~h "ao"
<BEGINHMM>
<NUMSTATES> 5
<STATE> 2
<MEAN> 25
 7.359140e+000 1.639390e+000 -4.591835e+000 -1.152420e+001 5.106767e+000 -5.361384e+000 -4.515418e+000 -4.215733e+000 -2.627790e+000 5.450075e+000 -2.352866e+000 -3.944433e+000 6.751673e-001 -5.767630e-001 -1.677864e-001 -2.949881e+000 -2.564046e-001 -4.727221e-001 8.233286e-001 9.290394e-002 9.635997e-001 4.338904e-001 3.712633e-003 -9.332723e-001 1.408469e+000
<VARIANCE> 25
 1.636076e+001 1.403383e+001 4.660364e+001 4.906857e+001 6.732880e+001 2.823252e+001 3.821519e+001 5.844065e+001 5.984731e+001 8.257027e+001 2.190629e+001 3.100181e+001 1.624295e+000 9.098351e-001 2.113830e+000 4.486293e+000 3.533466e+000 2.915616e+000 4.864493e+000 3.283922e+000 3.937353e+000 6.944861e+000 2.078115e+000 1.638272e+000 6.860688e-001
<GCONST> 1.013061e+002
<STATE> 3
<MEAN> 25
 7.271700e+000 -9.639245e-001 -4.201267e+000 -1.580302e+001 4.823268e+000 -5.311267e+000 1.813563e+000 3.125912e-001 1.367175e+000 5.291458e-001 -9.144880e-001 -8.216156e+000 1.073720e-001 -7.220732e-001 -3.465770e-001 3.521201e-001 -3.709705e-001 2.801392e-001 6.469806e-001 3.413260e-001 6.984133e-001 -7.994520e-002 2.660023e-001 -5.407451e-001 1.998712e-001
<VARIANCE> 25
 6.820796e+000 2.019721e+001 6.951142e+001 2.143505e+001 6.018467e+001 5.800376e+001 2.887460e+001 1.361116e+002 8.595813e+001 7.320923e+001 2.051990e+001 3.356152e+001 1.297179e-001 2.797139e-001 5.366653e-001 1.632750e+000 1.053017e+000 1.385234e+000 1.747557e+000 1.556290e+000 2.033569e+000 2.560116e+000 1.343500e+000 1.374647e+000 2.027666e-001
<GCONST> 8.849246e+001
<STATE> 4
<MEAN> 25
 1.122252e+001 -3.922001e+000 -7.232732e+000 -1.059198e+001 1.080416e+000 -1.683231e+000 -3.563998e+000 -3.076220e+000 6.550332e+000 3.925549e-002 -2.435746e+000 -5.657211e+000 -2.270319e-003 -4.306827e-001 2.384937e-001 9.055915e-001 -7.499642e-001 -1.592288e-001 -3.478881e-002 4.650497e-001 9.644888e-002 -5.297858e-001 -5.345459e-001 4.292143e-001 -1.400796e-001
<VARIANCE> 25
 1.210373e+001 2.620595e+001 1.580755e+001 3.801823e+001 8.895882e+001 3.146633e+001 6.953786e+001 4.188715e+001 5.588627e+001 4.741798e+001 3.960495e+001 2.966159e+001 1.540514e-001 7.102448e-001 8.944523e-001 2.572258e+000 1.904483e+000 1.764947e+000 1.547079e+000 1.770207e+000 2.554262e+000 2.714731e+000 2.071586e+000 1.599423e+000 1.450773e-001
<GCONST> 9.101440e+001
<TRANSP> 5
 0.000000e+000 1.000000e+000 0.000000e+000 0.000000e+000 0.000000e+000
 0.000000e+000 5.095614e-001 4.904386e-001 0.000000e+000 0.000000e+000
 0.000000e+000 0.000000e+000 8.467086e-001 1.532913e-001 0.000000e+000
 0.000000e+000 0.000000e+000 0.000000e+000 8.520836e-001 1.479164e-001
 0.000000e+000 0.000000e+000 0.000000e+000 0.000000e+000 0.000000e+000
<ENDHMM>
~h "eh"
<BEGINHMM>
<NUMSTATES> 5
<STATE> 2
<MEAN> 25
 2.974545e+000 -3.838992e+000 -1.491120e-001 -5.017111e+000 -1.789127e+000 -5.297453e+000 3.709318e+000 -8.728434e-001 -7.701985e-001 -6.490153e-001 -1.836135e+000 -1.616924e+000 1.247646e+000 -4.033888e-001 -2.641772e-001 -4.912672e-001 1.650240e-002 -1.121174e+000 -6.514754e-001 -4.211202e-001 -2.358351e-001 -4.973637e-001 -7.877054e-001 -9.529949e-002 1.058720e+000
<VARIANCE> 25
 2.853558e+001 4.093901e+001 4.778123e+001 4.948308e+001 5.276995e+001 5.109890e+001 7.732278e+001 4.735304e+001 6.842388e+001 5.985462e+001 5.438626e+001 3.095810e+001 3.765847e+000 3.260814e+000 2.300489e+000 5.104351e+000 3.936352e+000 5.441500e+000 5.611952e+000 4.164846e+000 4.491364e+000 4.698816e+000 5.176967e+000 2.751212e+000 6.107571e+000
<GCONST> 1.113324e+002
<STATE> 3
<MEAN> 25
 7.024053e+000 -5.017298e+000 -9.676371e-001 -3.672100e+000 -2.764506e+000 -4.997094e+000 2.157595e+000 -3.922009e+000 -3.982823e+000 -8.188230e-001 -1.924281e+000 1.195088e+000 2.667215e-002 4.678332e-001 -2.118368e-001 1.130843e+000 3.291195e-001 2.609988e-001 -7.157153e-001 -3.611062e-001 1.090077e-001 -1.383348e-002 2.668068e-001 1.894794e-001 -4.729238e-001
<VARIANCE> 25
 2.723500e+001 5.583084e+001 4.959061e+001 3.244550e+001 6.715345e+001 7.868324e+001 7.016934e+001 9.377541e+001 8.348649e+001 6.761469e+001 5.805399e+001 7.205384e+001 2.224858e+000 4.249878e+000 2.554956e+000 3.503436e+000 3.497092e+000 4.640997e+000 4.441909e+000 7.226891e+000 4.556580e+000 4.566795e+000 3.266160e+000 3.239214e+000 2.738499e+000
<GCONST> 1.120945e+002
<STATE> 4
<MEAN> 25
 7.371267e+000 -3.321019e+000 -2.185027e+000 -1.439213e+000 -1.878025e+000 -4.721263e+000 -3.146051e+000 -5.114373e+000 -2.245056e+000 -5.116573e+000 -3.516901e+000 9.235751e-001 -7.496688e-001 6.688779e-001 2.652244e-002 6.685845e-001 3.109415e-002 2.572111e-001 1.547497e-001 -1.510881e-001 -6.570105e-002 2.262522e-001 4.894690e-001 -2.038737e-001 -6.038563e-001
<VARIANCE> 25
 3.247010e+001 6.076551e+001 3.985099e+001 3.218702e+001 4.055224e+001 1.094642e+002 7.010397e+001 9.545298e+001 4.941463e+001 5.422832e+001 4.144111e+001 3.828111e+001 2.037435e+000 2.587434e+000 1.694778e+000 2.105911e+000 2.224410e+000 3.830271e+000 3.232634e+000 3.601146e+000 3.104702e+000 2.784184e+000 2.188367e+000 2.687835e+000 1.099551e+000
<GCONST> 1.047158e+002
<TRANSP> 5
 0.000000e+000 1.000000e+000 0.000000e+000 0.000000e+000 0.000000e+000
 0.000000e+000 6.395822e-001 3.604178e-001 0.000000e+000 0.000000e+000
 0.000000e+000 0.000000e+000 5.470436e-001 4.529565e-001 0.000000e+000
 0.000000e+000 0.000000e+000 0.000000e+000 7.843065e-001 2.156935e-001
 0.000000e+000 0.000000e+000 0.000000e+000 0.000000e+000 0.000000e+000
<ENDHMM>
~h "hh"
<BEGINHMM>
<NUMSTATES> 5
<STATE> 2
<MEAN> 25
 1.903746e+000 -5.390565e-001 -1.546496e+000 1.283032e-001 -1.244629e-001 -2.897712e+000 -1.379333e+000 -2.555512e+000 -3.451516e+000 -1.802591e+000 -1.844661e+000 -1.986496e+000 -7.584129e-001 -3.104450e-001 -1.160007e-001 7.255437e-001 -4.227930e-001 7.779804e-001 1.011617e+000 9.256973e-001 8.320853e-001 8.467176e-001 4.484772e-001 -5.543312e-001 -4.594385e-001
<VARIANCE> 25
 1.641451e+001 6.812775e+000 2.701977e+001 2.209010e+001 3.205853e+001 3.193362e+001 4.961069e+001 4.000038e+001 2.931712e+001 2.750721e+001 5.041882e+001 3.488731e+001 5.342610e-001 1.360889e+000 1.359880e+000 3.456959e+000 1.816331e+000 2.559014e+000 1.749627e+000 2.771705e+000 2.977242e+000 2.472173e+000 1.727009e+000 1.449706e+000 4.162387e-001
<GCONST> 9.212672e+001
<STATE> 3
<MEAN> 25
 3.746431e+000 -3.629142e-001 -3.403488e-001 6.516122e-001 -2.002329e+000 2.608257e+000 7.091484e+000 8.439491e-001 -4.618877e-001 2.822567e+000 -2.316093e+000 -1.505763e+000 -4.279921e-001 6.566696e-002 -3.173822e-001 1.794899e-001 3.303480e-002 6.981100e-001 1.786873e-001 1.889636e-001 7.638280e-001 6.669343e-001 6.297534e-001 3.780465e-001 -5.015845e-001
<VARIANCE> 25
 2.196413e+001 2.301370e+001 1.879052e+001 1.462925e+001 2.917636e+001 3.027542e+001 8.096526e+001 3.275306e+001 1.914904e+001 2.069908e+001 3.151441e+001 2.458485e+001 5.677261e-001 1.362543e+000 1.203580e+000 1.408444e+000 1.382470e+000 1.867339e+000 1.956547e+000 1.947145e+000 1.708702e+000 1.994095e+000 1.216002e+000 1.269255e+000 3.074651e-001
<GCONST> 8.812791e+001
<STATE> 4
<MEAN> 25
 -3.376470e+000 4.924187e-001 5.237764e-001 2.688155e+000 2.417269e+000 2.995557e+000 2.275743e+000 9.707888e-001 2.660340e+000 2.464784e+000 3.063747e+000 4.145009e-001 -5.140387e-002 4.737393e-002 1.142049e-001 9.328086e-002 3.622599e-002 9.079265e-002 3.720746e-002 8.021712e-002 1.326010e-002 5.361138e-003 8.936200e-003 3.423422e-002 -8.498944e-002
<VARIANCE> 25
 1.535675e+001 4.182375e+000 9.134515e+000 1.113191e+001 1.073629e+001 1.460059e+001 1.646655e+001 1.702813e+001 1.885841e+001 1.752131e+001 1.404261e+001 1.559856e+001 1.813075e-001 2.619548e-001 4.516461e-001 6.022884e-001 9.189149e-001 1.057723e+000 1.030888e+000 1.414696e+000 1.620546e+000 1.488598e+000 1.296462e+000 1.319925e+000 8.037698e-002
<GCONST> 7.150844e+001
<TRANSP> 5
 0.000000e+000 1.000000e+000 0.000000e+000 0.000000e+000 0.000000e+000
 0.000000e+000 1.546743e-001 8.453256e-001 0.000000e+000 0.000000e+000
 0.000000e+000 0.000000e+000 6.404150e-001 3.595850e-001 0.000000e+000
 0.000000e+000 0.000000e+000 0.000000e+000 9.706171e-001 2.938289e-002
 0.000000e+000 0.000000e+000 0.000000e+000 0.000000e+000 0.000000e+000
<ENDHMM>
~h "ih"
<BEGINHMM>
<NUMSTATES> 5
<STATE> 2
<MEAN> 25
 2.262912e+000 5.901802e+000 1.051814e+001 -7.872739e+000 -3.003860e+000 -1.862877e+000 -5.757020e+000 -5.098511e+000 -2.372133e+000 -1.147343e+000 -3.985828e+000 -1.043661e+000 -1.157290e-001 2.611084e-002 4.042186e-001 -1.940198e-001 2.431257e-001 -2.875167e-001 -3.430098e-001 2.096273e-002 5.928979e-002 -2.988111e-001 -1.376477e-002 1.059045e-002 1.362365e-001
<VARIANCE> 25
 3.225407e+001 6.353042e+001 7.545003e+001 2.075239e+002 8.560735e+001 5.489949e+001 5.058436e+001 5.922063e+001 5.105888e+001 4.527024e+001 4.334517e+001 4.567300e+001 2.226962e+000 2.441993e+000 4.391724e+000 8.131017e+000 4.072756e+000 3.782556e+000 3.725840e+000 4.036037e+000 3.657155e+000 3.917124e+000 3.171214e+000 2.678881e+000 2.929211e+000
<GCONST> 1.116178e+002
<STATE> 3
<MEAN> 25
 -3.154300e-001 4.980132e+000 9.141870e+000 -7.716891e+000 -1.157253e-001 -3.126584e+000 -5.507618e+000 -2.895396e+000 -1.387753e-001 -1.331377e+000 -2.537953e+000 1.272097e+000 4.122351e-003 -1.103269e-001 -2.005538e-001 4.550335e-001 2.420135e-001 5.966832e-002 6.989458e-002 3.512308e-001 1.534613e-001 -3.916378e-002 2.241836e-001 -6.551334e-002 -3.007109e-001
<VARIANCE> 25
 1.208091e+001 4.116758e+001 6.551353e+001 1.556349e+002 3.339003e+001 3.439644e+001 4.156746e+001 4.047921e+001 3.006995e+001 3.622991e+001 2.916422e+001 2.765396e+001 4.159408e-001 6.443765e-001 1.163337e+000 2.536996e+000 1.720227e+000 1.607991e+000 1.711865e+000 2.147620e+000 1.684295e+000 1.614046e+000 1.617269e+000 1.559612e+000 3.918518e-001
<GCONST> 9.261978e+001
<STATE> 4
<MEAN> 25
 -7.272525e-001 -1.136851e+000 7.195556e+000 4.967254e+000 3.595324e+000 -4.375093e+000 -3.364502e+000 1.951001e+000 1.801971e+000 -4.908712e+000 5.383478e-001 -3.125654e+000 1.126503e-002 -4.212338e-002 -5.244614e-001 -7.109800e-002 -7.960839e-002 2.674039e-001 1.724337e-001 -6.228349e-002 4.418181e-003 3.096800e-001 1.792261e-001 1.700079e-001 -2.049367e-001
<VARIANCE> 25
 1.325584e+001 3.440794e+001 9.104958e+001 6.324939e+001 4.003536e+001 6.585983e+001 5.661654e+001 3.620155e+001 2.557740e+001 6.014646e+001 2.595280e+001 3.307314e+001 2.907434e-001 5.966123e-001 1.196095e+000 1.177552e+000 1.133214e+000 1.556966e+000 1.953902e+000 1.798029e+000 1.442209e+000 1.893199e+000 1.558857e+000 1.313025e+000 2.749881e-001
<GCONST> 9.116904e+001
<TRANSP> 5
 0.000000e+000 1.000000e+000 0.000000e+000 0.000000e+000 0.000000e+000
 0.000000e+000 8.618792e-001 1.381209e-001 0.000000e+000 0.000000e+000
 0.000000e+000 0.000000e+000 7.864071e-001 2.135929e-001 0.000000e+000
 0.000000e+000 0.000000e+000 0.000000e+000 8.068666e-001 1.931334e-001
 0.000000e+000 0.000000e+000 0.000000e+000 0.000000e+000 0.000000e+000
<ENDHMM>
~h "ng"
<BEGINHMM>
<NUMSTATES> 5
<STATE> 2
<MEAN> 25
 3.213958e+000 -3.644098e+000 -1.954659e+000 -2.824658e+000 9.860152e+000 -4.688866e+000 6.789974e-001 -3.063648e+000 2.168024e+000 -1.990947e+000 6.883453e+000 -4.678713e+000 -4.132327e-002 6.026850e-001 2.931550e-001 6.544387e-001 -5.875456e-003 5.400590e-001 -3.653626e-001 1.396668e-001 6.578993e-002 -1.770648e-001 -3.528168e-001 -3.848314e-002 -6.395146e-001
<VARIANCE> 25
 7.981935e+000 2.922769e+001 2.229181e+001 4.009967e+001 4.523735e+001 4.980561e+001 3.424711e+001 3.245170e+001 3.689415e+001 4.646181e+001 7.000823e+001 2.911445e+001 3.298143e-001 1.571770e+000 1.040845e+000 2.523432e+000 1.677364e+000 1.790347e+000 2.739159e+000 1.806410e+000 2.394696e+000 2.189586e+000 3.638963e+000 1.484747e+000 1.245971e+000
<GCONST> 9.456583e+001
<STATE> 3
<MEAN> 25
 2.897480e+000 3.186492e+000 1.458132e+000 4.612020e+000 3.573137e+000 8.031362e-001 -8.378189e-001 -2.700970e+000 -2.517615e+000 -2.210868e+000 -3.940309e+000 -3.300135e+000 -3.752855e-001 -8.070030e-002 -5.747529e-002 2.411391e-001 -2.581574e-001 2.690144e-001 6.860118e-002 1.983989e-001 1.536096e-001 2.687960e-001 2.203278e-001 3.863833e-001 -4.419859e-001
<VARIANCE> 25
 1.415995e+001 3.450990e+001 2.239081e+001 1.997773e+001 2.857096e+001 2.220315e+001 2.285902e+001 3.305396e+001 2.979650e+001 2.773536e+001 2.654694e+001 3.008151e+001 4.764107e-001 8.639423e-001 8.436224e-001 1.043128e+000 1.145780e+000 1.847685e+000 1.996362e+000 1.572033e+000 2.064535e+000 1.824708e+000 2.382961e+000 1.633337e+000 3.880590e-001
<GCONST> 8.733876e+001
<STATE> 4
<MEAN> 25
 -1.283904e+000 3.077739e-001 -1.637868e+000 3.051056e+000 2.027776e-001 3.001805e+000 2.003730e+000 7.821720e-001 1.130718e+000 2.512237e+000 1.185215e+000 1.962870e+000 -7.796837e-002 -1.055952e-002 -3.803599e-002 -3.559342e-002 -4.795215e-002 2.847593e-002 -2.221823e-002 5.248878e-002 5.066465e-002 7.759386e-002 4.296500e-002 6.925610e-002 -6.538091e-002
<VARIANCE> 25
 1.186730e+001 8.887864e+000 2.171940e+001 1.659627e+001 1.777836e+001 1.182356e+001 1.799207e+001 1.926560e+001 1.568855e+001 2.150900e+001 1.608760e+001 1.693499e+001 1.218354e-001 2.643531e-001 4.348524e-001 7.500178e-001 9.079854e-001 9.030020e-001 1.087022e+000 1.091109e+000 1.199232e+000 1.186260e+000 1.256330e+000 1.011149e+000 7.892887e-002
<GCONST> 7.258662e+001
<TRANSP> 5
 0.000000e+000 1.000000e+000 0.000000e+000 0.000000e+000 0.000000e+000
 0.000000e+000 8.453369e-001 1.546631e-001 0.000000e+000 0.000000e+000
 0.000000e+000 0.000000e+000 7.856512e-001 2.143488e-001 0.000000e+000
 0.000000e+000 0.000000e+000 0.000000e+000 9.468341e-001 5.316586e-002
 0.000000e+000 0.000000e+000 0.000000e+000 0.000000e+000 0.000000e+000
<ENDHMM>
~h "oh"
<BEGINHMM>
<NUMSTATES> 5
<STATE> 2
<MEAN> 25
 -4.318285e+000 2.220046e+000 2.687504e+000 2.642706e+000 2.533249e+000 9.572033e-001 4.522782e+000 3.101502e+000 4.379671e+000 3.360173e+000 2.407369e+000 -2.062957e-001 -4.353518e-002 -4.414768e-003 2.744724e-002 -6.891453e-003 1.249234e-001 8.310852e-002 1.439489e-001 1.491244e-001 1.798304e-001 1.344138e-001 5.353992e-002 1.668816e-002 -5.184834e-002
<VARIANCE> 25
 3.043302e+000 6.366276e+000 4.863566e+000 1.184516e+001 6.857862e+000 1.132390e+001 1.431998e+001 1.752916e+001 1.773987e+001 1.852173e+001 1.016551e+001 1.303486e+001 1.498305e-001 3.142231e-001 3.500028e-001 4.154354e-001 6.498678e-001 9.644855e-001 1.323077e+000 1.457493e+000 1.502815e+000 1.344183e+000 1.248566e+000 1.516153e+000 2.973346e-002
<GCONST> 6.655500e+001
<STATE> 3
<MEAN> 25
 4.639178e+000 -2.875953e+000 -7.606742e+000 -1.462760e+001 1.559940e+000 1.763165e+000 5.471668e+000 -7.792149e+000 1.759018e+000 5.775216e+000 3.272009e+000 8.563159e-001 3.330030e-001 4.327720e-001 1.887549e-001 1.095585e+000 -5.885900e-002 1.439389e-001 8.122869e-002 3.351823e-001 -4.797935e-001 -4.601331e-001 -5.745788e-001 8.243340e-002 -4.130345e-001
<VARIANCE> 25
 8.525355e+000 2.002298e+001 2.054205e+001 5.727168e+001 4.628460e+000 7.915734e+000 1.468747e+001 3.916812e+001 2.257334e+001 3.467724e+001 2.083091e+001 8.991446e+000 1.858113e-001 1.756086e-001 6.296902e-001 1.628775e+000 7.465239e-001 8.464947e-001 1.986670e+000 7.358597e-001 1.835461e+000 2.360367e+000 1.239804e+000 1.444609e+000 1.004943e-001
<GCONST> 7.628342e+001
<STATE> 4
<MEAN> 25
 2.102302e+000 -1.430554e+000 -2.324335e+000 -3.392327e-001 6.921839e-001 2.143550e+000 2.746747e+000 -1.920244e+000 -3.284048e+000 -2.193924e+000 2.195319e+000 1.339205e+000 -5.621111e-001 -1.126908e-001 2.709420e-001 1.334336e+000 -7.956444e-001 -5.439076e-001 -9.624825e-001 7.797793e-001 3.495244e-002 1.645702e-001 5.177033e-001 -2.254444e-001 -8.674323e-001
<VARIANCE> 25
 1.140101e+001 2.493896e+001 1.829451e+001 1.556116e+001 1.902772e+001 1.225663e+001 1.667900e+001 3.730375e+001 2.457290e+001 1.599149e+001 1.046707e+001 5.704431e+000 8.394797e-001 6.302409e-001 7.788505e-001 7.813827e-001 1.036961e+000 2.438227e+000 4.505014e-001 3.300408e+000 1.295507e+000 1.114314e+000 2.262032e+000 1.003849e+000 7.400456e-001
<GCONST> 8.027399e+001
<TRANSP> 5
 0.000000e+000 1.000000e+000 0.000000e+000 0.000000e+000 0.000000e+000
 0.000000e+000 9.552867e-001 4.471325e-002 0.000000e+000 0.000000e+000
 0.000000e+000 0.000000e+000 7.791609e-001 2.208391e-001 0.000000e+000
 0.000000e+000 0.000000e+000 0.000000e+000 6.177287e-001 3.822713e-001
 0.000000e+000 0.000000e+000 0.000000e+000 0.000000e+000 0.000000e+000
<ENDHMM>
~h "sp"
<BEGINHMM>
<NUMSTATES> 3
<STATE> 2
~s "silst"
<TRANSP> 3
 0.000000e+000 1.200448e-001 8.799552e-001
 0.000000e+000 8.740069e-001 1.259931e-001
 0.000000e+000 0.000000e+000 0.000000e+000
<ENDHMM>
~h "uw"
<BEGINHMM>
<NUMSTATES> 5
<STATE> 2
<MEAN> 25
 -5.435989e-001 2.412005e+000 6.596049e-001 -3.493128e+000 -8.469682e-001 -2.488072e+000 -2.835852e+000 -4.870592e-001 4.257727e-001 1.341553e+000 2.238930e+000 7.519299e-001 1.270713e+000 1.958950e-001 -1.169554e-001 -1.529720e+000 -9.553172e-002 -7.195942e-001 -7.198287e-001 -7.229739e-001 -3.638832e-001 -1.946112e-001 -3.945634e-001 -3.311027e-001 1.159472e+000
<VARIANCE> 25
 8.252788e+001 6.466841e+001 9.945317e+001 9.767559e+001 5.915036e+001 8.623669e+001 7.375471e+001 6.854517e+001 5.208624e+001 7.208936e+001 4.695212e+001 3.754254e+001 6.588120e+000 4.710157e+000 6.418163e+000 8.615382e+000 4.964746e+000 6.930549e+000 6.558512e+000 6.473298e+000 5.071344e+000 6.065695e+000 4.286990e+000 3.853672e+000 7.673344e+000
<GCONST> 1.194845e+002
<STATE> 3
<MEAN> 25
 8.455366e+000 1.744185e+000 -4.444242e+000 -7.285131e+000 5.978628e-001 -1.826280e+000 -5.764743e+000 -6.399184e+000 -2.604230e+000 5.676001e-001 4.587809e-001 -1.658160e+000 5.117075e-001 5.118436e-001 -2.074334e-001 -3.181210e-001 -4.142551e-002 3.139641e-001 -8.027475e-002 7.069638e-003 -4.068619e-001 1.710653e-001 -3.367251e-001 -2.681296e-001 -3.205618e-001
<VARIANCE> 25
 2.985902e+001 7.663793e+001 7.001004e+001 7.494993e+001 7.236147e+001 6.820474e+001 8.967498e+001 1.053594e+002 6.931045e+001 7.395805e+001 7.349699e+001 3.898280e+001 3.293991e+000 2.985429e+000 3.438123e+000 7.367401e+000 5.391203e+000 4.465862e+000 4.767233e+000 5.843925e+000 6.279106e+000 5.226025e+000 4.742204e+000 3.818802e+000 4.931263e+000
<GCONST> 1.164173e+002
<STATE> 4
<MEAN> 25
 8.062722e+000 4.321873e+000 -5.438799e-001 -7.447778e+000 -1.695897e+000 -6.065951e+000 -6.350013e+000 -4.933572e+000 -2.825389e+000 2.476818e-001 -1.483274e+000 -2.090854e+000 -1.483975e-001 1.299596e-001 1.977753e-001 6.104908e-001 -3.487508e-002 1.879326e-001 5.877275e-002 -7.969159e-002 2.442650e-002 -5.965367e-002 5.186307e-002 1.079562e-001 -4.413620e-001
<VARIANCE> 25
 2.155720e+001 3.078770e+001 5.916650e+001 9.607883e+001 6.688544e+001 4.468652e+001 4.665998e+001 5.376102e+001 5.248510e+001 5.147913e+001 5.625599e+001 3.868629e+001 5.555569e-001 1.175008e+000 1.439415e+000 3.581951e+000 2.523723e+000 2.874803e+000 2.165385e+000 2.749037e+000 3.141933e+000 2.668780e+000 2.372299e+000 2.140936e+000 7.260203e-001
<GCONST> 1.009181e+002
<TRANSP> 5
 0.000000e+000 1.000000e+000 0.000000e+000 0.000000e+000 0.000000e+000
 0.000000e+000 6.672243e-001 3.327757e-001 0.000000e+000 0.000000e+000
 0.000000e+000 0.000000e+000 7.082968e-001 2.917032e-001 0.000000e+000
 0.000000e+000 0.000000e+000 0.000000e+000 8.878114e-001 1.121887e-001
 0.000000e+000 0.000000e+000 0.000000e+000 0.000000e+000 0.000000e+000
<ENDHMM>
~h "sil"
<BEGINHMM>
<NUMSTATES> 5
<STATE> 2
<MEAN> 25
 -1.570809e+001 5.568908e+000 -1.846861e+000 1.110755e+001 -2.117728e+000 7.023359e+000 -1.503204e-001 8.842435e+000 7.113030e+000 5.709433e+000 6.051920e+000 7.946883e-001 -2.662200e-002 2.056442e-002 2.324915e-003 -1.325078e-002 3.506840e-002 4.241811e-002 -2.151603e-002 -1.662963e-002 7.931054e-002 6.905003e-002 2.148931e-002 -5.804059e-002 -2.848735e-002
<VARIANCE> 25
 2.422827e+001 1.155029e+001 1.647300e+001 1.721899e+001 2.069768e+001 1.505662e+001 3.241875e+001 2.616851e+001 2.871540e+001 2.009928e+001 1.643694e+001 1.482732e+001 8.150236e-002 1.876460e-001 3.037265e-001 4.247590e-001 5.809050e-001 6.587856e-001 9.282189e-001 1.224995e+000 1.153074e+000 1.341779e+000 1.089464e+000 1.168500e+000 3.183875e-002
<GCONST> 7.173866e+001
<STATE> 3
~s "silst"
<STATE> 4
<MEAN> 25
 -2.541062e+000 8.444818e-001 -1.279325e+000 2.633590e+000 3.350156e-001 3.542426e+000 1.055363e+000 8.996622e-001 1.761542e+000 2.548146e+000 1.181515e+000 1.712562e+000 -3.193735e-002 1.250507e-002 -2.235296e-002 1.209384e-002 -1.932843e-003 3.016809e-002 1.044654e-002 -1.245553e-002 -1.007996e-002 2.345133e-002 5.892792e-003 5.702391e-003 -2.409866e-002
<VARIANCE> 25
 1.699570e+001 9.341826e+000 1.668760e+001 1.676385e+001 1.874267e+001 1.535290e+001 2.290002e+001 2.114050e+001 1.933102e+001 2.298279e+001 1.893405e+001 1.719769e+001 1.591426e-001 3.194592e-001 4.864214e-001 7.010849e-001 8.496704e-001 9.982643e-001 1.089576e+000 1.249264e+000 1.316987e+000 1.313031e+000 1.171172e+000 1.105845e+000 9.064721e-002
<GCONST> 7.486924e+001
<TRANSP> 5
 0.000000e+000 1.000000e+000 0.000000e+000 0.000000e+000 0.000000e+000
 0.000000e+000 9.053702e-001 3.084334e-002 6.378652e-002 0.000000e+000
 0.000000e+000 0.000000e+000 9.568000e-001 4.320003e-002 0.000000e+000
 0.000000e+000 9.718556e-003 0.000000e+000 9.453998e-001 4.488171e-002
 0.000000e+000 0.000000e+000 0.000000e+000 0.000000e+000 0.000000e+000
<ENDHMM>
