~o
<STREAMINFO> 1 25
<VECSIZE> 25<NULLD><MFCC_D_N_Z_0><DIAGC>
~s "silst"
<MEAN> 25
 -6.500704e+000 4.599868e+000 -8.461746e+000 4.614175e+000 -6.953972e+000 6.169597e+000 -1.773497e+000 2.588243e+000 -1.635464e+000 5.815170e+000 1.755078e-001 3.491001e+000 4.304064e-001 -2.082034e-001 2.013298e-001 -1.271973e-001 2.332482e-001 -1.854983e-001 1.578001e-001 -1.128660e-001 -1.672993e-001 -1.136794e-001 -1.119687e-001 -2.336048e-002 1.452513e+000
<VARIANCE> 25
 3.268469e+001 8.953638e+000 1.944838e+001 1.200564e+001 2.047229e+001 1.432620e+001 1.893526e+001 1.459372e+001 2.878084e+001 1.731806e+001 1.683808e+001 1.093039e+001 3.283538e+000 6.666662e-001 1.326634e+000 8.047090e-001 1.047740e+000 1.110712e+000 1.228910e+000 1.186225e+000 1.360160e+000 1.085250e+000 1.080215e+000 7.883514e-001 9.269376e+000
<GCONST> 8.364130e+001
~h "b"
<BEGINHMM>
<NUMSTATES> 5
<STATE> 2
<MEAN> 25
 2.770741e+000 3.864434e+000 1.054358e+001 -8.574218e-001 -6.487400e+000 -4.095475e+000 -2.422035e+000 -5.757221e+000 -4.340271e+000 2.597994e+000 -1.241405e+000 -2.212439e-001 -1.119687e+000 -4.918826e-001 2.587016e+000 -3.034544e+000 -2.082536e+000 -7.895574e-001 4.415937e-001 -1.347334e+000 -1.039788e+000 1.840621e+000 -2.155921e-001 6.265121e-001 1.665121e+000
<VARIANCE> 25
 2.580169e+001 1.571175e+001 9.287005e+001 1.052556e+002 4.161264e+001 3.738638e+001 3.724519e+001 6.025618e+001 5.027041e+001 5.706506e+001 2.160794e+001 2.929703e+001 3.162833e+000 1.694866e+000 7.796311e+000 9.932276e+000 3.891019e+000 3.951575e+000 4.882266e+000 6.972532e+000 6.689988e+000 5.341102e+000 3.192893e+000 4.838193e+000 6.895392e-001
<GCONST> 1.088480e+002
<STATE> 3
<MEAN> 25
 7.507898e-001 1.575398e+000 1.166106e+001 -8.881968e+000 -1.393645e+001 -6.582213e+000 -1.630192e+000 -6.162705e+000 -4.792653e+000 6.977737e+000 -3.416221e-001 9.957945e-001 1.751554e-001 -5.014793e-001 -1.529266e+000 1.976280e-001 4.677966e-001 -6.130924e-001 3.556970e-001 8.678058e-001 8.930118e-001 -6.625478e-001 2.021721e-001 4.539030e-003 2.231008e-001
<VARIANCE> 25
 1.973022e+001 2.114499e+001 3.830296e+001 4.259067e+001 3.701602e+001 3.115814e+001 5.151358e+001 4.380386e+001 4.447547e+001 3.812405e+001 2.927874e+001 4.935144e+001 9.467410e-001 1.986050e+000 3.602185e+000 4.177449e+000 4.754042e+000 2.727890e+000 3.535356e+000 4.487416e+000 3.491603e+000 5.543139e+000 2.671160e+000 2.733597e+000 6.888853e-001
<GCONST> 1.021089e+002
<STATE> 4
<MEAN> 25
 4.094841e+000 -4.485534e+000 -6.282234e-001 -5.128122e+000 -3.962555e+000 -5.954071e+000 -1.511548e+000 -9.381441e-001 6.849282e-001 -3.167231e+000 -3.363639e+000 -5.981684e-001 3.733342e-001 -3.270923e-001 -1.535541e+000 -1.604718e-003 2.019364e+000 3.724388e-001 -9.603593e-001 -5.403664e-001 9.226924e-001 -1.165129e+000 -8.739905e-001 -3.566463e-001 -9.262668e-002
<VARIANCE> 25
 2.157479e+001 7.510244e+001 5.030808e+001 4.283628e+001 4.850695e+001 5.121783e+001 4.567250e+001 4.688078e+001 3.816182e+001 4.462699e+001 3.520290e+001 4.192946e+001 1.524709e+000 3.357698e+000 3.636329e+000 3.841498e+000 4.834711e+000 2.669368e+000 4.593897e+000 6.145571e+000 5.132289e+000 3.702571e+000 2.794007e+000 3.620489e+000 1.409721e+000
<GCONST> 1.070071e+002
<TRANSP> 5
 0.000000e+000 1.000000e+000 0.000000e+000 0.000000e+000 0.000000e+000
 0.000000e+000 7.089909e-001 2.910091e-001 0.000000e+000 0.000000e+000
 0.000000e+000 0.000000e+000 8.300564e-001 1.699436e-001 0.000000e+000
 0.000000e+000 0.000000e+000 0.000000e+000 3.554627e-001 6.445373e-001
 0.000000e+000 0.000000e+000 0.000000e+000 0.000000e+000 0.000000e+000
<ENDHMM>
~h "c"
<BEGINHMM>
<NUMSTATES> 5
<STATE> 2
<MEAN> 25
 1.292055e-008 1.831648e-008 -6.299361e-008 6.397928e-009 6.513714e-008 4.146926e-008 -2.503356e-008 -3.737221e-008 4.785829e-009 -8.260601e-008 4.838081e-008 -2.966501e-008 7.700191e-003 5.403126e-003 9.986212e-003 -4.435305e-003 5.198286e-003 1.178548e-003 5.735684e-003 -2.200497e-003 -9.225003e-004 -6.409926e-004 -2.520854e-003 -2.406914e-003 2.725629e-002
<VARIANCE> 25
 4.587285e+001 1.030148e+002 6.019880e+001 7.829473e+001 5.465159e+001 4.961901e+001 6.176896e+001 4.825900e+001 4.880714e+001 4.872197e+001 3.755544e+001 3.288158e+001 1.069084e+000 2.243620e+000 1.931021e+000 2.910384e+000 2.554792e+000 2.477852e+000 2.995093e+000 2.747025e+000 2.618064e+000 2.724945e+000 2.375594e+000 2.010036e+000 1.498881e+000
<GCONST> 1.041510e+002
<STATE> 3
<MEAN> 25
 1.292055e-008 1.831648e-008 -6.299361e-008 6.397928e-009 6.513714e-008 4.146926e-008 -2.503356e-008 -3.737221e-008 4.785829e-009 -8.260601e-008 4.838081e-008 -2.966501e-008 7.700191e-003 5.403126e-003 9.986212e-003 -4.435305e-003 5.198286e-003 1.178548e-003 5.735684e-003 -2.200497e-003 -9.225003e-004 -6.409926e-004 -2.520854e-003 -2.406914e-003 2.725629e-002
<VARIANCE> 25
 4.587285e+001 1.030148e+002 6.019880e+001 7.829473e+001 5.465159e+001 4.961901e+001 6.176896e+001 4.825900e+001 4.880714e+001 4.872197e+001 3.755544e+001 3.288158e+001 1.069084e+000 2.243620e+000 1.931021e+000 2.910384e+000 2.554792e+000 2.477852e+000 2.995093e+000 2.747025e+000 2.618064e+000 2.724945e+000 2.375594e+000 2.010036e+000 1.498881e+000
<GCONST> 1.041510e+002
<STATE> 4
<MEAN> 25
 1.292055e-008 1.831648e-008 -6.299361e-008 6.397928e-009 6.513714e-008 4.146926e-008 -2.503356e-008 -3.737221e-008 4.785829e-009 -8.260601e-008 4.838081e-008 -2.966501e-008 7.700191e-003 5.403126e-003 9.986212e-003 -4.435305e-003 5.198286e-003 1.178548e-003 5.735684e-003 -2.200497e-003 -9.225003e-004 -6.409926e-004 -2.520854e-003 -2.406914e-003 2.725629e-002
<VARIANCE> 25
 4.587285e+001 1.030148e+002 6.019880e+001 7.829473e+001 5.465159e+001 4.961901e+001 6.176896e+001 4.825900e+001 4.880714e+001 4.872197e+001 3.755544e+001 3.288158e+001 1.069084e+000 2.243620e+000 1.931021e+000 2.910384e+000 2.554792e+000 2.477852e+000 2.995093e+000 2.747025e+000 2.618064e+000 2.724945e+000 2.375594e+000 2.010036e+000 1.498881e+000
<GCONST> 1.041510e+002
<TRANSP> 5
 0.000000e+000 1.000000e+000 0.000000e+000 0.000000e+000 0.000000e+000
 0.000000e+000 6.000000e-001 4.000000e-001 0.000000e+000 0.000000e+000
 0.000000e+000 0.000000e+000 6.000000e-001 4.000000e-001 0.000000e+000
 0.000000e+000 0.000000e+000 0.000000e+000 7.000000e-001 3.000000e-001
 0.000000e+000 0.000000e+000 0.000000e+000 0.000000e+000 0.000000e+000
<ENDHMM>
~h "d"
<BEGINHMM>
<NUMSTATES> 5
<STATE> 2
<MEAN> 25
 2.285147e+000 2.794462e+000 3.640097e+000 1.256226e+000 -3.120267e+000 -1.216622e+000 -2.617708e+000 -1.377976e+000 -1.218295e+000 1.790341e+000 5.222364e-001 -6.461991e-001 -1.339302e-001 -1.000998e+000 1.548070e+000 -1.266696e+000 -9.945589e-001 -1.083172e+000 9.573185e-002 -3.995425e-001 -1.140750e+000 5.981605e-001 -2.870482e-001 -5.039706e-001 1.999928e+000
<VARIANCE> 25
 2.790846e+001 4.840094e+001 7.229916e+001 9.477871e+001 5.739991e+001 4.548662e+001 4.653957e+001 3.367621e+001 2.848476e+001 4.629965e+001 2.955299e+001 2.550365e+001 3.176026e+000 5.594561e+000 7.585733e+000 7.751443e+000 3.701137e+000 6.077120e+000 5.517989e+000 7.179922e+000 5.136661e+000 6.223644e+000 4.346232e+000 3.575935e+000 4.896005e+000
<GCONST> 1.125626e+002
<STATE> 3
<MEAN> 25
 -7.906631e-001 -1.210980e-001 1.129883e+001 -8.207076e+000 -8.591380e+000 -3.651349e+000 -2.025943e+000 -2.739619e+000 -3.698397e+000 6.682936e+000 -2.614010e+000 1.696692e+000 -1.575968e-001 -1.255203e+000 -1.874841e-001 -1.273357e+000 -9.714426e-003 -5.535693e-001 1.020862e+000 1.408295e-001 2.217349e-001 -2.442841e-001 -2.752955e-001 1.993395e-001 1.324115e+000
<VARIANCE> 25
 1.450571e+001 5.179532e+001 8.061620e+001 1.015224e+002 5.623377e+001 3.073820e+001 8.624851e+001 5.850246e+001 6.596237e+001 7.407174e+001 3.341525e+001 3.451191e+001 1.338181e+000 4.333519e+000 8.178183e+000 7.268552e+000 7.663836e+000 3.224964e+000 9.871794e+000 5.175528e+000 6.390068e+000 1.052441e+001 3.569263e+000 3.877526e+000 3.006219e+000
<GCONST> 1.140250e+002
<STATE> 4
<MEAN> 25
 1.232089e+000 -7.992975e+000 2.552666e-001 -8.283464e+000 -1.004754e+000 -4.267845e+000 5.943602e+000 -2.285374e+000 -2.654564e-001 -9.025038e-001 -1.708995e+000 2.731393e-001 4.562603e-001 -3.205092e-001 -5.663664e-001 3.542091e-002 1.063820e+000 -2.811121e-002 -3.907110e-001 -5.205708e-001 2.107079e-001 -1.362341e+000 -4.863992e-001 1.852364e-001 5.442621e-001
<VARIANCE> 25
 1.370723e+001 4.708276e+001 6.680598e+001 9.101389e+001 8.359093e+001 3.583146e+001 1.263772e+002 7.478455e+001 3.845557e+001 3.911720e+001 4.884681e+001 3.571569e+001 1.016730e+000 3.355707e+000 4.064401e+000 4.707184e+000 7.308797e+000 3.071659e+000 5.449830e+000 3.277444e+000 3.749374e+000 5.954691e+000 2.983271e+000 3.440430e+000 2.436829e+000
<GCONST> 1.095662e+002
<TRANSP> 5
 0.000000e+000 1.000000e+000 0.000000e+000 0.000000e+000 0.000000e+000
 0.000000e+000 3.559405e-001 6.440595e-001 0.000000e+000 0.000000e+000
 0.000000e+000 0.000000e+000 7.998453e-001 2.001546e-001 0.000000e+000
 0.000000e+000 0.000000e+000 0.000000e+000 2.627703e-001 7.372296e-001
 0.000000e+000 0.000000e+000 0.000000e+000 0.000000e+000 0.000000e+000
<ENDHMM>
~h "g"
<BEGINHMM>
<NUMSTATES> 5
<STATE> 2
<MEAN> 25
 2.157766e+000 5.917028e+000 4.187507e+000 2.591443e+000 -1.846241e+000 -2.077813e+000 -4.356529e+000 8.526770e-002 -1.815929e+000 9.795391e-001 -2.518010e+000 -1.888151e+000 -2.011181e-001 -1.017324e+000 -4.858886e-001 -6.337582e-001 4.026221e-001 -5.599774e-001 5.782146e-001 -3.595047e-002 -6.973551e-001 7.606962e-001 4.750843e-001 -1.298588e-001 1.134277e+000
<VARIANCE> 25
 4.431912e+001 9.276991e+001 9.942824e+001 1.116471e+002 9.829509e+001 6.971709e+001 7.568499e+001 5.158739e+001 5.985614e+001 5.839220e+001 5.956885e+001 4.122379e+001 5.944744e+000 6.902850e+000 7.933469e+000 1.333732e+001 8.324697e+000 5.423163e+000 7.376270e+000 4.195649e+000 5.154106e+000 7.432308e+000 4.652920e+000 3.796941e+000 7.926950e+000
<GCONST> 1.208567e+002
<STATE> 3
<MEAN> 25
 5.750351e-001 -2.004079e+000 -4.025262e-001 -4.432136e+000 2.353456e+000 -5.243924e-001 1.112972e+000 -1.470373e+000 -2.528968e+000 1.979066e+000 1.546202e+000 2.545483e-001 6.727100e-001 6.479698e-001 1.655679e-001 -2.101021e+000 -3.918451e-001 -8.119104e-001 -6.069524e-001 -8.612536e-001 -4.390009e-001 -7.061625e-001 -9.627626e-001 -1.023591e-001 1.095532e+000
<VARIANCE> 25
 2.354214e+001 2.376806e+001 8.204129e+001 9.727277e+001 8.327834e+001 5.595616e+001 5.095013e+001 2.574231e+001 4.951994e+001 1.298095e+002 3.897154e+001 3.172081e+001 1.947240e+000 3.403316e+000 4.337290e+000 9.358950e+000 5.801541e+000 3.788984e+000 5.630444e+000 3.804163e+000 5.458133e+000 8.705836e+000 3.737083e+000 3.391978e+000 3.075792e+000
<GCONST> 1.120464e+002
<STATE> 4
<MEAN> 25
 3.742369e+000 2.668141e+000 3.209282e+000 -5.442092e+000 1.144236e+000 -3.765430e+000 -2.635490e+000 -2.464308e+000 -3.319404e+000 -2.207379e+000 -3.801455e+000 -2.138211e+000 6.923417e-001 9.180320e-001 4.805083e-001 -7.412505e-001 1.784066e-001 -6.571993e-001 -7.513684e-001 -5.176605e-002 -2.009852e-001 3.453098e-001 -9.732372e-001 -7.515383e-001 5.229182e-001
<VARIANCE> 25
 2.548490e+001 2.706847e+001 5.940664e+001 8.684849e+001 4.754646e+001 2.894406e+001 4.969840e+001 4.613569e+001 3.064456e+001 6.958705e+001 4.099003e+001 3.394867e+001 1.114684e+000 2.353544e+000 3.081720e+000 5.219966e+000 6.338429e+000 3.051253e+000 4.706247e+000 3.424285e+000 4.134715e+000 7.500937e+000 2.752817e+000 2.136107e+000 1.806532e+000
<GCONST> 1.061817e+002
<TRANSP> 5
 0.000000e+000 1.000000e+000 0.000000e+000 0.000000e+000 0.000000e+000
 0.000000e+000 7.247891e-001 2.752109e-001 0.000000e+000 0.000000e+000
 0.000000e+000 0.000000e+000 6.297417e-001 3.702583e-001 0.000000e+000
 0.000000e+000 0.000000e+000 0.000000e+000 4.284769e-001 5.715231e-001
 0.000000e+000 0.000000e+000 0.000000e+000 0.000000e+000 0.000000e+000
<ENDHMM>
~h "h"
<BEGINHMM>
<NUMSTATES> 5
<STATE> 2
<MEAN> 25
 -9.050729e-001 1.504540e+000 1.128762e+000 3.856535e+000 6.110456e-002 2.383712e+000 -1.721836e-001 6.050757e-001 1.438916e+000 9.848480e-001 2.602248e+000 -2.781603e-001 -1.080823e-003 2.495473e-002 -1.857698e-002 3.700094e-002 7.062355e-002 -9.799450e-003 -5.120434e-002 5.872849e-002 1.516501e-001 -6.105255e-002 -8.840762e-002 -5.068874e-002 -1.541764e-002
<VARIANCE> 25
 9.701262e+000 5.266111e+000 6.540652e+000 8.593203e+000 9.294629e+000 1.276183e+001 1.500855e+001 1.545197e+001 1.950609e+001 1.445828e+001 1.138726e+001 1.249803e+001 1.211094e-001 2.728787e-001 4.266227e-001 5.439542e-001 8.005278e-001 1.394912e+000 1.316115e+000 1.386294e+000 1.564408e+000 1.466372e+000 1.075678e+000 1.523668e+000 5.109157e-002
<GCONST> 6.892316e+001
<STATE> 3
<MEAN> 25
 -2.157469e+000 -3.954114e+000 -2.233618e+000 5.577976e+000 6.730669e+000 1.371664e+000 2.726902e-001 1.030044e+000 9.191146e-001 -3.809943e+000 2.261195e+000 2.531417e+000 -1.358171e-001 -1.530382e+000 -4.829991e-001 2.183864e-001 1.377407e+000 -6.298759e-002 2.128172e-001 -5.184866e-001 -7.076705e-001 -1.267713e+000 -4.489366e-001 7.747024e-001 9.540485e-001
<VARIANCE> 25
 1.866664e+001 4.205056e+001 2.039934e+001 1.316001e+001 1.577240e+001 2.581451e+001 2.366029e+001 4.040053e+001 2.346185e+001 2.554756e+001 1.905897e+001 2.736493e+001 3.198824e-001 1.725268e+000 2.912575e+000 6.269098e-001 1.950693e+000 1.864369e+000 1.240549e+000 3.563836e+000 2.404042e+000 1.860128e+000 3.353949e+000 2.955436e+000 2.624487e-001
<GCONST> 8.896883e+001
<STATE> 4
<MEAN> 25
 1.407761e+000 -1.679527e+000 -8.364692e-001 8.264802e-001 4.356427e-001 -9.652733e-001 -1.520762e+000 -2.986815e+000 -2.080584e+000 -2.836931e+000 -1.124732e+000 5.679876e-001 -6.025464e-003 9.169970e-002 5.215076e-002 -7.111850e-002 -5.654639e-002 -1.081801e-001 2.446085e-002 -8.351268e-002 9.640797e-002 6.254517e-002 9.521653e-003 -3.572111e-002 -7.781490e-003
<VARIANCE> 25
 5.698888e+001 2.235302e+001 2.375749e+001 1.636527e+001 2.233215e+001 1.793473e+001 3.538421e+001 5.080472e+001 4.590390e+001 4.791302e+001 2.398761e+001 1.779258e+001 7.494819e-001 5.572263e-001 1.155246e+000 1.283972e+000 1.148372e+000 1.491153e+000 1.987172e+000 1.709908e+000 1.725582e+000 1.323390e+000 1.542197e+000 1.139596e+000 2.017319e-001
<GCONST> 8.737007e+001
<TRANSP> 5
 0.000000e+000 1.000000e+000 0.000000e+000 0.000000e+000 0.000000e+000
 0.000000e+000 9.499994e-001 5.000063e-002 0.000000e+000 0.000000e+000
 0.000000e+000 0.000000e+000 7.577393e-001 2.422606e-001 0.000000e+000
 0.000000e+000 0.000000e+000 0.000000e+000 9.651725e-001 3.482750e-002
 0.000000e+000 0.000000e+000 0.000000e+000 0.000000e+000 0.000000e+000
<ENDHMM>
~h "j"
<BEGINHMM>
<NUMSTATES> 5
<STATE> 2
<MEAN> 25
 7.030308e+000 -1.932861e+000 -8.663653e-001 5.422983e+000 -2.652103e+000 2.925630e+000 -5.773222e+000 -4.198364e+000 -4.745474e+000 -1.651183e+000 -9.419765e+000 -8.715321e-001 1.052351e-001 6.735882e-001 -3.079174e-001 1.014427e+000 -5.671924e-001 2.882263e-001 -3.886006e-001 -1.018854e-001 2.268956e-001 -1.973003e-002 -1.585354e-001 -4.072229e-002 -1.024682e+000
<VARIANCE> 25
 1.815016e+001 4.565904e+001 3.886503e+001 2.177857e+001 4.111552e+001 1.368544e+001 3.712111e+001 2.156585e+001 2.093575e+001 1.692074e+001 3.698185e+001 1.639896e+001 1.277308e+000 5.698254e-001 3.761528e-001 1.195014e+000 3.521975e+000 1.726532e+000 3.561314e+000 1.767404e+000 4.008177e+000 2.830868e+000 4.103257e+000 1.438056e+000 7.300351e-001
<GCONST> 9.112032e+001
<STATE> 3
<MEAN> 25
 -1.243338e+000 5.757713e+000 6.253794e-001 7.483140e+000 -3.420888e+000 7.639406e+000 -5.238621e+000 -2.712193e+000 -1.081361e+000 -1.573377e+000 -3.465503e+000 -3.259361e+000 -1.848413e+000 1.161156e-001 1.730362e-001 -4.851456e-001 -5.440442e-001 4.509706e-001 3.197366e-001 3.904001e-001 6.240887e-001 9.372069e-001 1.229560e+000 1.171131e-002 -3.572660e-001
<VARIANCE> 25
 2.874920e+001 9.328757e+000 1.118724e+002 2.323492e+001 4.682215e+001 2.989758e+001 4.363835e+001 1.483269e+001 1.072279e+001 3.462838e+001 1.222815e+001 1.697029e+001 3.542854e+000 1.247317e+000 3.069687e+000 2.976939e+000 3.752806e+000 4.883273e+000 2.006661e+000 1.565822e+000 1.898933e+000 2.458142e+000 1.081146e+000 2.790909e+000 3.039017e+000
<GCONST> 9.587903e+001
<STATE> 4
<MEAN> 25
 -4.204916e+000 6.296587e+000 6.987034e+000 -1.640338e+000 -4.690298e+000 -4.878399e+000 -5.525815e+000 5.194049e-001 -6.041622e-001 5.435200e+000 4.205826e+000 -2.826997e+000 2.325037e-001 -3.332515e-001 1.903117e-001 -5.968858e-001 -4.704129e-001 -1.206104e+000 -2.392026e-002 -5.056346e-002 -4.054312e-001 3.119000e-001 1.258277e-003 3.223609e-001 7.988294e-001
<VARIANCE> 25
 5.318794e+001 6.140611e+001 2.761405e+001 5.236858e+001 7.769867e+001 1.293049e+002 5.575350e+001 3.335121e+001 5.679984e+001 3.821987e+001 2.954670e+001 2.925174e+001 5.322567e+000 5.649112e+000 3.738514e+000 5.487481e+000 9.098750e+000 9.966746e+000 4.147395e+000 5.594971e+000 5.876362e+000 4.228668e+000 3.970487e+000 3.286927e+000 6.980397e+000
<GCONST> 1.143039e+002
<TRANSP> 5
 0.000000e+000 1.000000e+000 0.000000e+000 0.000000e+000 0.000000e+000
 0.000000e+000 7.621269e-001 2.378732e-001 0.000000e+000 0.000000e+000
 0.000000e+000 0.000000e+000 7.479783e-001 2.520217e-001 0.000000e+000
 0.000000e+000 0.000000e+000 0.000000e+000 9.119656e-001 8.803443e-002
 0.000000e+000 0.000000e+000 0.000000e+000 0.000000e+000 0.000000e+000
<ENDHMM>
~h "k"
<BEGINHMM>
<NUMSTATES> 5
<STATE> 2
<MEAN> 25
 5.380420e+000 7.299483e-001 -2.437230e+000 -5.727037e+000 -1.145089e+000 -7.723125e-001 -5.144773e+000 -3.687766e+000 -3.381372e+000 -6.623496e-001 -2.567444e+000 -2.177822e+000 -8.226570e-001 -9.489968e-002 -2.450190e-001 1.037876e-001 2.317165e-001 -4.939052e-002 7.567772e-001 4.146850e-001 3.088128e-001 6.500908e-001 2.779953e-001 1.504774e-001 -4.036557e-001
<VARIANCE> 25
 1.956889e+001 4.108880e+001 7.997706e+001 1.053234e+002 5.370454e+001 4.560408e+001 5.060201e+001 4.513300e+001 4.354599e+001 5.437483e+001 2.975814e+001 2.686382e+001 2.690734e+000 3.528206e+000 3.288232e+000 7.095695e+000 3.120451e+000 5.133470e+000 3.655992e+000 4.621242e+000 4.749787e+000 4.798802e+000 3.867782e+000 2.224577e+000 4.063084e+000
<GCONST> 1.093480e+002
<STATE> 3
<MEAN> 25
 7.540501e-001 -6.602153e-001 -2.599129e+000 -3.774365e+000 -5.784681e-001 -1.381173e+000 1.537156e-001 -6.347772e-001 1.118548e-001 2.096331e+000 -2.702885e+000 -9.322071e-002 -9.097844e-001 -5.586604e-001 -1.441568e-001 3.351192e-001 2.623391e-001 2.056086e-001 1.061888e+000 2.262157e-001 5.236440e-001 9.272952e-001 4.331374e-001 1.206942e-001 1.083638e-001
<VARIANCE> 25
 1.752696e+001 3.458528e+001 5.096121e+001 8.409458e+001 4.399561e+001 4.354034e+001 5.151216e+001 2.977011e+001 3.439027e+001 4.222186e+001 4.405021e+001 4.490696e+001 2.957808e+000 2.437710e+000 1.947536e+000 6.673164e+000 1.978090e+000 5.182871e+000 4.492713e+000 3.248357e+000 5.360955e+000 3.613302e+000 4.086047e+000 4.181581e+000 7.079420e+000
<GCONST> 1.077883e+002
<STATE> 4
<MEAN> 25
 -4.885314e-001 -3.491752e-002 -2.083969e+000 2.134212e+000 7.965635e-001 3.171586e+000 1.216668e+000 2.848770e-001 1.631346e+000 2.304574e+000 1.674312e+000 7.802213e-001 -1.230196e-001 -2.317273e-002 1.527561e-001 3.440644e-001 3.320549e-002 -1.000259e-003 9.929410e-002 1.405126e-001 7.152428e-002 -1.622531e-003 1.604535e-001 4.962509e-002 -7.272151e-002
<VARIANCE> 25
 9.932462e+000 1.508748e+001 1.807373e+001 2.914664e+001 2.429764e+001 1.605350e+001 2.507481e+001 1.644547e+001 1.774992e+001 2.669235e+001 2.114327e+001 1.554501e+001 3.572080e-001 5.575905e-001 1.170222e+000 1.298315e+000 1.299469e+000 1.448618e+000 1.706887e+000 1.651924e+000 1.984755e+000 1.994581e+000 1.555144e+000 1.180907e+000 4.325435e-001
<GCONST> 8.278702e+001
<TRANSP> 5
 0.000000e+000 1.000000e+000 0.000000e+000 0.000000e+000 0.000000e+000
 0.000000e+000 6.245829e-001 3.754171e-001 0.000000e+000 0.000000e+000
 0.000000e+000 0.000000e+000 5.356718e-001 4.643282e-001 0.000000e+000
 0.000000e+000 0.000000e+000 0.000000e+000 9.190962e-001 8.090380e-002
 0.000000e+000 0.000000e+000 0.000000e+000 0.000000e+000 0.000000e+000
<ENDHMM>
~h "l"
<BEGINHMM>
<NUMSTATES> 5
<STATE> 2
<MEAN> 25
 5.635911e+000 -2.943815e+000 -2.817625e+000 -6.114075e+000 -3.572960e+000 -6.727096e+000 -1.506849e+000 -1.172300e+000 3.949393e+000 2.569624e-002 -8.745173e-001 -1.228966e+000 1.991106e-002 -2.714871e-002 -3.734191e-001 -6.967860e-002 1.659716e-001 2.763815e-001 2.042016e-001 3.456528e-001 3.747791e-001 -4.576494e-001 -2.574467e-001 8.409116e-002 -8.804046e-002
<VARIANCE> 25
 1.794690e+001 2.704454e+001 3.968565e+001 4.697045e+001 6.264336e+001 5.205507e+001 4.374377e+001 6.390555e+001 5.466892e+001 6.694529e+001 4.492764e+001 1.760555e+001 5.772501e-001 1.634331e+000 2.207089e+000 2.577495e+000 4.255018e+000 3.261089e+000 3.570893e+000 2.912396e+000 3.094536e+000 3.820173e+000 2.977483e+000 1.590168e+000 9.723001e-001
<GCONST> 1.012152e+002
<STATE> 3
<MEAN> 25
 5.072916e+000 -2.790144e+000 -4.581354e+000 -6.198338e+000 -9.144031e-001 -2.671231e+000 5.977913e-001 1.930048e+000 3.585435e+000 -4.394664e+000 -2.194378e+000 2.578994e-001 -5.534965e-001 1.238582e-001 1.922991e-001 1.438507e-001 7.002441e-001 2.820260e-001 2.429878e-001 -7.032023e-002 -3.364776e-001 -2.892063e-001 2.387912e-001 1.044917e-001 -2.133150e-001
<VARIANCE> 25
 1.860103e+001 4.929438e+001 2.957489e+001 5.401302e+001 6.185890e+001 5.763276e+001 8.492942e+001 7.949113e+001 3.748263e+001 3.637480e+001 3.576745e+001 1.817269e+001 5.844353e-001 1.179418e+000 1.280388e+000 2.760465e+000 3.730898e+000 2.316865e+000 2.274769e+000 2.508950e+000 2.438365e+000 2.221126e+000 1.854515e+000 1.697059e+000 1.212454e+000
<GCONST> 9.865282e+001
<STATE> 4
<MEAN> 25
 1.086096e+000 -4.734423e-001 -4.712394e-001 2.339082e-001 5.863269e-001 7.223697e-001 1.151139e-002 1.140622e+000 1.991893e+000 -1.331502e+000 1.309960e+000 2.883388e-001 -1.085178e-001 1.118622e-002 1.876656e-001 2.736885e-001 5.583205e-002 2.012314e-001 4.631262e-002 1.278912e-001 -1.082887e-001 4.293060e-002 5.177525e-002 -8.344970e-003 -9.954376e-002
<VARIANCE> 25
 1.314065e+001 2.511548e+001 2.038114e+001 6.839536e+001 2.033222e+001 3.091351e+001 3.326496e+001 3.711567e+001 2.580382e+001 2.596747e+001 2.621278e+001 1.474446e+001 1.881770e-001 4.349709e-001 7.385411e-001 1.035202e+000 9.758480e-001 1.271584e+000 1.342927e+000 2.150640e+000 1.749007e+000 1.408763e+000 1.160236e+000 1.277264e+000 1.825435e-001
<GCONST> 8.311190e+001
<TRANSP> 5
 0.000000e+000 1.000000e+000 0.000000e+000 0.000000e+000 0.000000e+000
 0.000000e+000 6.999006e-001 3.000994e-001 0.000000e+000 0.000000e+000
 0.000000e+000 0.000000e+000 5.727606e-001 4.272393e-001 0.000000e+000
 0.000000e+000 0.000000e+000 0.000000e+000 8.119216e-001 1.880784e-001
 0.000000e+000 0.000000e+000 0.000000e+000 0.000000e+000 0.000000e+000
<ENDHMM>
~h "m"
<BEGINHMM>
<NUMSTATES> 5
<STATE> 2
<MEAN> 25
 3.432477e+000 1.037418e+000 7.177938e-001 1.453925e-002 2.128172e+000 -4.154558e-001 -2.302067e+000 -2.471417e+000 -2.104080e+000 -2.126906e+000 -3.523353e+000 -1.506129e+000 -1.485709e-001 6.695718e-001 5.224704e-001 9.797915e-001 -1.023599e-001 1.835851e-003 -6.515589e-002 -8.562340e-002 -8.027285e-002 6.178430e-002 -1.910398e-001 -1.288255e-001 -6.318631e-001
<VARIANCE> 25
 2.823113e+001 4.585939e+001 3.859441e+001 8.779347e+001 6.092655e+001 5.423489e+001 3.544049e+001 3.196460e+001 3.189648e+001 3.338383e+001 3.336446e+001 2.553668e+001 1.366201e+000 2.294807e+000 2.358850e+000 4.046587e+000 2.519870e+000 3.308744e+000 2.724828e+000 2.745222e+000 2.514856e+000 2.588701e+000 2.744214e+000 2.009772e+000 1.336990e+000
<GCONST> 1.014978e+002
<STATE> 3
<MEAN> 25
 4.074568e+000 3.384190e+000 1.331617e+000 4.149419e+000 2.693858e+000 -2.899195e-001 -2.114825e+000 -3.323297e+000 -2.983540e+000 -4.004498e+000 -4.188493e+000 -2.937098e+000 -3.495934e-001 8.630653e-002 1.537202e-001 3.901128e-001 -1.588307e-001 2.028984e-001 2.702001e-001 4.955593e-001 4.197490e-001 2.950197e-001 3.277601e-001 9.832875e-002 -4.279359e-001
<VARIANCE> 25
 1.524272e+001 1.613796e+001 1.470542e+001 2.275207e+001 3.098396e+001 2.621642e+001 2.755159e+001 3.084878e+001 3.153726e+001 1.924266e+001 2.714965e+001 2.284482e+001 3.397219e-001 5.350868e-001 6.874164e-001 9.895647e-001 1.239594e+000 1.351575e+000 1.527364e+000 1.598489e+000 1.740378e+000 1.412090e+000 1.502892e+000 1.372625e+000 1.933783e-001
<GCONST> 8.284705e+001
<STATE> 4
<MEAN> 25
 -1.443043e+000 1.378697e+000 8.876740e-001 4.326769e+000 1.259694e+000 2.095414e+000 1.344048e+000 2.221972e+000 2.109430e+000 1.060828e+000 2.123844e+000 -2.866221e-002 -3.873473e-002 1.078326e-002 3.756607e-002 4.640254e-003 -3.106542e-002 -1.682109e-003 2.842061e-002 1.663928e-002 1.736676e-002 5.223390e-002 5.493951e-002 1.288819e-002 -5.505794e-003
<VARIANCE> 25
 1.432486e+001 6.179724e+000 9.251993e+000 1.174628e+001 1.506948e+001 1.295749e+001 1.919975e+001 1.592069e+001 1.799707e+001 1.916208e+001 1.539142e+001 1.269246e+001 1.562256e-001 2.835457e-001 4.806776e-001 7.236535e-001 9.722235e-001 1.128815e+000 1.212365e+000 1.354179e+000 1.459755e+000 1.557814e+000 1.230089e+000 1.124176e+000 6.426829e-002
<GCONST> 7.205032e+001
<TRANSP> 5
 0.000000e+000 1.000000e+000 0.000000e+000 0.000000e+000 0.000000e+000
 0.000000e+000 6.668379e-001 3.331622e-001 0.000000e+000 0.000000e+000
 0.000000e+000 0.000000e+000 7.626544e-001 2.373456e-001 0.000000e+000
 0.000000e+000 0.000000e+000 0.000000e+000 9.469060e-001 5.309396e-002
 0.000000e+000 0.000000e+000 0.000000e+000 0.000000e+000 0.000000e+000
<ENDHMM>
~h "n"
<BEGINHMM>
<NUMSTATES> 5
<STATE> 2
<MEAN> 25
 5.023623e+000 1.489522e+000 3.740701e-001 1.365679e+000 1.734324e-002 -6.562831e+000 -5.178514e+000 -3.808211e+000 -5.034274e+000 -6.126897e+000 -6.350916e-001 1.819134e+000 -3.646705e-001 8.052647e-001 1.567658e-001 9.456185e-001 1.163086e-001 6.247880e-001 -1.553361e-002 -1.779942e-001 2.209945e-001 6.854482e-001 5.393246e-002 1.602152e-001 -9.949381e-001
<VARIANCE> 25
 1.222483e+001 2.623481e+001 1.672292e+001 3.945597e+001 5.358829e+001 5.615036e+001 2.866918e+001 2.395110e+001 3.453086e+001 2.892282e+001 4.291593e+001 3.133640e+001 6.468415e-001 1.349132e+000 1.397411e+000 2.466340e+000 1.361222e+000 2.449324e+000 2.220249e+000 2.440070e+000 2.368294e+000 2.183493e+000 2.885389e+000 1.553006e+000 7.252080e-001
<GCONST> 9.367781e+001
<STATE> 3
<MEAN> 25
 3.169660e+000 3.045861e+000 1.382870e+000 4.114531e+000 1.617838e+000 -1.507695e+000 -2.781846e+000 -2.555473e+000 -2.498114e+000 -3.732101e+000 -2.240751e+000 4.312881e-001 -3.188536e-001 1.080909e-001 1.913455e-002 3.971170e-001 1.382089e-002 6.773565e-001 3.848560e-001 4.534040e-001 3.990023e-001 3.400200e-001 3.470827e-001 -1.216825e-001 -4.530084e-001
<VARIANCE> 25
 1.439177e+001 1.834448e+001 1.771212e+001 2.193568e+001 3.117650e+001 2.183475e+001 1.878931e+001 2.196599e+001 2.352720e+001 2.019063e+001 2.318058e+001 2.095073e+001 3.081459e-001 6.206249e-001 7.966108e-001 1.070639e+000 1.372721e+000 1.538736e+000 1.619694e+000 1.527021e+000 1.807253e+000 1.722815e+000 1.846464e+000 1.285304e+000 2.168403e-001
<GCONST> 8.269150e+001
<STATE> 4
<MEAN> 25
 -2.672783e+000 1.682340e+000 8.873504e-001 4.145894e+000 2.484145e+000 2.613112e+000 2.239283e+000 2.405310e+000 2.629464e+000 1.739820e+000 2.741620e+000 1.598483e-001 -5.256890e-002 -5.278147e-004 1.633816e-002 3.096112e-002 1.459438e-002 4.095890e-002 5.362802e-002 5.926472e-002 6.556485e-002 7.619974e-002 4.947305e-002 -2.487280e-002 -1.484442e-002
<VARIANCE> 25
 1.543903e+001 7.487956e+000 7.733510e+000 1.103658e+001 1.425579e+001 1.345740e+001 2.059974e+001 1.797703e+001 1.822548e+001 2.007825e+001 1.472095e+001 1.351456e+001 1.446435e-001 3.206543e-001 4.612790e-001 6.684089e-001 8.959249e-001 1.140118e+000 1.242043e+000 1.339167e+000 1.463803e+000 1.480517e+000 1.332715e+000 1.211861e+000 6.560830e-002
<GCONST> 7.232177e+001
<TRANSP> 5
 0.000000e+000 1.000000e+000 0.000000e+000 0.000000e+000 0.000000e+000
 0.000000e+000 6.931288e-001 3.068712e-001 0.000000e+000 0.000000e+000
 0.000000e+000 0.000000e+000 7.527616e-001 2.472383e-001 0.000000e+000
 0.000000e+000 0.000000e+000 0.000000e+000 9.521345e-001 4.786550e-002
 0.000000e+000 0.000000e+000 0.000000e+000 0.000000e+000 0.000000e+000
<ENDHMM>
~h "o"
<BEGINHMM>
<NUMSTATES> 5
<STATE> 2
<MEAN> 25
 1.292055e-008 1.831648e-008 -6.299361e-008 6.397928e-009 6.513714e-008 4.146926e-008 -2.503356e-008 -3.737221e-008 4.785829e-009 -8.260601e-008 4.838081e-008 -2.966501e-008 7.700191e-003 5.403126e-003 9.986212e-003 -4.435305e-003 5.198286e-003 1.178548e-003 5.735684e-003 -2.200497e-003 -9.225003e-004 -6.409926e-004 -2.520854e-003 -2.406914e-003 2.725629e-002
<VARIANCE> 25
 4.587285e+001 1.030148e+002 6.019880e+001 7.829473e+001 5.465159e+001 4.961901e+001 6.176896e+001 4.825900e+001 4.880714e+001 4.872197e+001 3.755544e+001 3.288158e+001 1.069084e+000 2.243620e+000 1.931021e+000 2.910384e+000 2.554792e+000 2.477852e+000 2.995093e+000 2.747025e+000 2.618064e+000 2.724945e+000 2.375594e+000 2.010036e+000 1.498881e+000
<GCONST> 1.041510e+002
<STATE> 3
<MEAN> 25
 1.292055e-008 1.831648e-008 -6.299361e-008 6.397928e-009 6.513714e-008 4.146926e-008 -2.503356e-008 -3.737221e-008 4.785829e-009 -8.260601e-008 4.838081e-008 -2.966501e-008 7.700191e-003 5.403126e-003 9.986212e-003 -4.435305e-003 5.198286e-003 1.178548e-003 5.735684e-003 -2.200497e-003 -9.225003e-004 -6.409926e-004 -2.520854e-003 -2.406914e-003 2.725629e-002
<VARIANCE> 25
 4.587285e+001 1.030148e+002 6.019880e+001 7.829473e+001 5.465159e+001 4.961901e+001 6.176896e+001 4.825900e+001 4.880714e+001 4.872197e+001 3.755544e+001 3.288158e+001 1.069084e+000 2.243620e+000 1.931021e+000 2.910384e+000 2.554792e+000 2.477852e+000 2.995093e+000 2.747025e+000 2.618064e+000 2.724945e+000 2.375594e+000 2.010036e+000 1.498881e+000
<GCONST> 1.041510e+002
<STATE> 4
<MEAN> 25
 1.292055e-008 1.831648e-008 -6.299361e-008 6.397928e-009 6.513714e-008 4.146926e-008 -2.503356e-008 -3.737221e-008 4.785829e-009 -8.260601e-008 4.838081e-008 -2.966501e-008 7.700191e-003 5.403126e-003 9.986212e-003 -4.435305e-003 5.198286e-003 1.178548e-003 5.735684e-003 -2.200497e-003 -9.225003e-004 -6.409926e-004 -2.520854e-003 -2.406914e-003 2.725629e-002
<VARIANCE> 25
 4.587285e+001 1.030148e+002 6.019880e+001 7.829473e+001 5.465159e+001 4.961901e+001 6.176896e+001 4.825900e+001 4.880714e+001 4.872197e+001 3.755544e+001 3.288158e+001 1.069084e+000 2.243620e+000 1.931021e+000 2.910384e+000 2.554792e+000 2.477852e+000 2.995093e+000 2.747025e+000 2.618064e+000 2.724945e+000 2.375594e+000 2.010036e+000 1.498881e+000
<GCONST> 1.041510e+002
<TRANSP> 5
 0.000000e+000 1.000000e+000 0.000000e+000 0.000000e+000 0.000000e+000
 0.000000e+000 6.000000e-001 4.000000e-001 0.000000e+000 0.000000e+000
 0.000000e+000 0.000000e+000 6.000000e-001 4.000000e-001 0.000000e+000
 0.000000e+000 0.000000e+000 0.000000e+000 7.000000e-001 3.000000e-001
 0.000000e+000 0.000000e+000 0.000000e+000 0.000000e+000 0.000000e+000
<ENDHMM>
~h "p"
<BEGINHMM>
<NUMSTATES> 5
<STATE> 2
<MEAN> 25
 -1.558481e+000 1.042888e+000 -2.333632e+000 1.843059e+000 -2.058660e+000 1.800493e+000 -8.437626e-001 1.223006e+000 1.518101e+000 1.493714e+000 2.202800e+000 7.515648e-001 1.127378e+000 -1.043354e+000 2.569683e-001 -1.259437e+000 4.070402e-001 -6.961140e-001 1.082995e+000 -1.621335e-001 -3.139507e-001 9.142847e-002 7.479704e-002 -3.177040e-001 2.781077e+000
<VARIANCE> 25
 6.209468e+001 3.749812e+001 2.854599e+001 5.463867e+001 3.311113e+001 3.523855e+001 4.284069e+001 3.869786e+001 4.461854e+001 3.061079e+001 2.955853e+001 1.876961e+001 8.048245e+000 3.522308e+000 2.744292e+000 6.637083e+000 3.580971e+000 4.355065e+000 2.933907e+000 3.845674e+000 4.775786e+000 3.898468e+000 2.768227e+000 2.220974e+000 1.389095e+001
<GCONST> 1.078541e+002
<STATE> 3
<MEAN> 25
 1.039122e+000 -2.348406e+000 -3.051784e+000 -1.281544e+000 1.172028e+000 7.969923e-001 1.360727e+000 -6.132543e-001 -5.087138e-001 -4.390683e-001 9.253985e-001 3.488952e-001 -1.724916e-001 1.115467e-001 1.468619e-001 4.074803e-001 1.650065e-001 3.683782e-002 1.862328e-001 1.555551e-001 2.273702e-002 -9.127997e-002 2.375558e-001 6.558806e-002 -1.033454e-001
<VARIANCE> 25
 9.152380e+000 3.928806e+001 1.747319e+001 4.621054e+001 3.583814e+001 2.384767e+001 4.052293e+001 3.588530e+001 2.818688e+001 2.127256e+001 1.917516e+001 2.089351e+001 6.026683e-001 1.044417e+000 1.147514e+000 2.287356e+000 2.203441e+000 2.200436e+000 2.332933e+000 2.459061e+000 1.855069e+000 2.496815e+000 1.885186e+000 1.456239e+000 1.192586e+000
<GCONST> 9.149455e+001
<STATE> 4
<MEAN> 25
 -3.816137e+000 1.226667e+000 8.154244e-001 2.849038e+000 2.117039e+000 2.684765e+000 3.474880e+000 2.606703e+000 3.437077e+000 2.824429e+000 3.550370e+000 1.730909e-001 -4.379933e-002 -8.140263e-004 9.864904e-003 5.509626e-003 -2.038476e-002 -7.405827e-003 2.183748e-002 6.281760e-002 7.244274e-002 7.753636e-002 4.715603e-002 -2.906271e-002 4.077997e-002
<VARIANCE> 25
 1.185379e+001 6.915970e+000 8.038614e+000 1.005183e+001 1.105251e+001 1.263498e+001 1.659565e+001 1.593554e+001 1.621687e+001 2.030032e+001 1.400062e+001 1.333779e+001 2.308699e-001 3.326295e-001 5.656459e-001 7.762153e-001 9.926376e-001 1.111277e+000 1.288281e+000 1.390035e+000 1.445504e+000 1.550849e+000 1.318878e+000 1.198202e+000 1.728684e-001
<GCONST> 7.308929e+001
<TRANSP> 5
 0.000000e+000 1.000000e+000 0.000000e+000 0.000000e+000 0.000000e+000
 0.000000e+000 5.513526e-001 4.486474e-001 0.000000e+000 0.000000e+000
 0.000000e+000 0.000000e+000 5.958681e-001 4.041319e-001 0.000000e+000
 0.000000e+000 0.000000e+000 0.000000e+000 9.523850e-001 4.761495e-002
 0.000000e+000 0.000000e+000 0.000000e+000 0.000000e+000 0.000000e+000
<ENDHMM>
~h "r"
<BEGINHMM>
<NUMSTATES> 5
<STATE> 2
<MEAN> 25
 7.771244e+000 -9.413581e+000 -2.526738e+000 -3.507335e-001 -8.076789e+000 -2.491112e+000 1.361677e+000 2.498142e+000 1.372470e+000 -2.998762e+000 -3.933331e+000 -2.326728e-001 -1.605376e-001 -7.886819e-001 9.916740e-001 4.245301e-001 -1.207687e+000 2.527779e-001 6.009310e-001 7.172550e-001 -6.457497e-001 -8.889305e-002 1.526720e-001 6.984126e-001 1.046055e-001
<VARIANCE> 25
 1.408919e+001 3.718084e+001 2.667371e+001 4.970096e+001 6.765516e+001 2.936026e+001 4.952555e+001 3.930779e+001 3.942524e+001 3.846155e+001 3.164103e+001 2.863530e+001 1.018926e+000 3.383110e+000 2.839775e+000 6.679395e+000 5.343030e+000 2.676767e+000 4.790468e+000 4.872775e+000 4.245512e+000 3.436362e+000 3.339369e+000 2.475449e+000 1.849853e+000
<GCONST> 1.040975e+002
<STATE> 3
<MEAN> 25
 4.219018e+000 -9.942065e+000 5.882755e+000 -7.428166e+000 -1.170379e+001 -3.311363e+000 7.727144e+000 3.441722e+000 -6.983097e+000 2.620212e+000 -3.540165e+000 -2.382696e+000 -6.267345e-001 7.520669e-001 6.622519e-001 -6.685035e-001 5.888252e-001 -9.905891e-002 8.824179e-001 -8.122770e-001 -8.535364e-001 9.351788e-001 1.562531e-001 -4.745593e-001 -1.526977e-001
<VARIANCE> 25
 1.509407e+001 2.946559e+001 3.573897e+001 3.896780e+001 5.865696e+001 2.180836e+001 5.981667e+001 4.205083e+001 5.046609e+001 5.740007e+001 3.176425e+001 1.803391e+001 7.342196e-001 1.590122e+000 1.477632e+000 2.315532e+000 2.225345e+000 1.671893e+000 3.618900e+000 2.833046e+000 4.534057e+000 3.254279e+000 2.531883e+000 1.756003e+000 6.652546e-001
<GCONST> 9.739188e+001
<STATE> 4
<MEAN> 25
 2.542523e+000 -5.605904e+000 3.741755e+000 -4.304922e+000 -6.122425e+000 -2.510539e+000 7.506231e+000 2.514023e-001 -5.253264e+000 2.994645e+000 -1.474871e+000 -3.017739e+000 -1.783000e-001 1.228827e+000 -1.504872e-001 9.476320e-001 7.631024e-001 6.590329e-002 -6.158129e-001 -1.148803e+000 2.764950e-001 2.078300e-001 -1.664869e-002 4.032552e-002 -9.168618e-001
<VARIANCE> 25
 1.358605e+001 3.108891e+001 6.651806e+001 7.264148e+001 5.885456e+001 2.676813e+001 7.995497e+001 4.603535e+001 5.534112e+001 8.008222e+001 4.862889e+001 2.316321e+001 4.997231e-001 1.259939e+000 1.433639e+000 2.093083e+000 1.850078e+000 2.328112e+000 3.010700e+000 2.489928e+000 3.201481e+000 3.097231e+000 3.119330e+000 2.103300e+000 6.480175e-001
<GCONST> 9.932468e+001
<TRANSP> 5
 0.000000e+000 1.000000e+000 0.000000e+000 0.000000e+000 0.000000e+000
 0.000000e+000 7.750043e-001 2.249957e-001 0.000000e+000 0.000000e+000
 0.000000e+000 0.000000e+000 7.880975e-001 2.119025e-001 0.000000e+000
 0.000000e+000 0.000000e+000 0.000000e+000 2.715800e-001 7.284200e-001
 0.000000e+000 0.000000e+000 0.000000e+000 0.000000e+000 0.000000e+000
<ENDHMM>
~h "s"
<BEGINHMM>
<NUMSTATES> 5
<STATE> 2
<MEAN> 25
 -9.100512e+000 5.525894e+000 -4.191148e+000 6.069561e+000 -1.009681e+000 -2.669998e-001 4.600415e+000 1.586765e+000 -8.963009e-001 2.009555e+000 2.618362e+000 -4.699712e-001 -7.594322e-001 2.501835e-001 -1.716765e-001 1.682525e-001 -7.690579e-002 1.835648e-001 2.944482e-001 1.392268e-001 -1.761400e-002 3.300673e-001 3.327734e-001 8.238813e-002 2.012347e-001
<VARIANCE> 25
 2.861492e+001 4.470516e+001 2.369198e+001 3.948677e+001 2.623191e+001 2.596050e+001 2.359272e+001 2.593038e+001 3.486116e+001 2.862225e+001 2.078221e+001 2.007242e+001 1.955624e+000 2.086191e+000 1.889965e+000 1.666965e+000 1.413101e+000 2.069204e+000 1.963485e+000 2.100180e+000 2.231096e+000 2.022372e+000 1.813566e+000 1.675117e+000 4.980423e-001
<GCONST> 9.278513e+001
<STATE> 3
<MEAN> 25
 -1.241031e+001 -4.430580e-001 4.446663e+000 -3.521389e+000 -2.354314e+000 1.743470e+000 5.536973e+000 -3.139739e+000 -4.505915e-001 2.953634e+000 5.338423e+000 -2.038205e-001 7.085418e-001 -4.154379e-001 6.434759e-001 -9.821977e-001 -3.161373e-001 -7.224949e-001 -9.145074e-001 -4.309982e-001 1.460644e-001 -2.585565e-001 -6.073571e-001 4.040960e-002 2.518864e-001
<VARIANCE> 25
 3.500365e+001 9.879348e+001 1.239721e+002 1.510620e+002 2.644864e+001 6.537616e+001 5.492533e+001 8.606493e+001 7.117104e+001 3.144057e+001 2.144740e+001 3.117994e+001 6.166873e+000 1.887414e+000 3.295459e+000 3.947649e+000 2.190238e+000 2.600651e+000 2.845850e+000 3.389240e+000 2.360796e+000 2.870949e+000 2.871218e+000 1.838780e+000 9.191556e-001
<GCONST> 1.065876e+002
<STATE> 4
<MEAN> 25
 -3.500167e+000 2.292377e+000 -2.249922e-001 3.801316e-001 -3.564284e+000 -4.974293e+000 2.128273e+000 -5.318750e-001 -1.589358e+000 2.537601e+000 7.444299e-001 -7.218236e-001 2.805248e+000 -4.607525e-001 2.106170e-001 -1.762985e+000 -6.570928e-001 -1.216932e+000 -1.655269e+000 -7.825480e-003 -3.881256e-001 -1.178347e+000 -2.259323e+000 -3.514634e-002 6.428646e-001
<VARIANCE> 25
 5.326684e+001 5.171758e+001 5.894199e+001 5.737685e+001 7.740193e+001 4.623512e+001 5.802845e+001 5.436555e+001 4.432860e+001 4.728264e+001 3.976242e+001 3.437857e+001 4.826633e+000 3.563520e+000 4.084395e+000 8.569917e+000 4.882048e+000 4.431595e+000 6.244029e+000 6.158644e+000 4.615769e+000 6.315645e+000 4.986743e+000 4.137597e+000 1.894691e+000
<GCONST> 1.132644e+002
<TRANSP> 5
 0.000000e+000 1.000000e+000 0.000000e+000 0.000000e+000 0.000000e+000
 0.000000e+000 8.920618e-001 1.079382e-001 0.000000e+000 0.000000e+000
 0.000000e+000 0.000000e+000 6.637223e-001 3.362777e-001 0.000000e+000
 0.000000e+000 0.000000e+000 0.000000e+000 5.598826e-001 4.401174e-001
 0.000000e+000 0.000000e+000 0.000000e+000 0.000000e+000 0.000000e+000
<ENDHMM>
~h "t"
<BEGINHMM>
<NUMSTATES> 5
<STATE> 2
<MEAN> 25
 2.121629e+000 4.932866e+000 1.245871e+000 5.437772e+000 -6.887442e-001 8.043521e-001 -2.766863e+000 -1.286331e+000 -4.001978e+000 -1.424961e+000 -1.563611e+000 -2.362976e+000 -1.024402e+000 -1.281021e+000 3.697992e-001 -1.449251e+000 -2.767860e-002 -7.288144e-001 9.232954e-001 1.783013e-001 -4.519806e-001 6.785049e-001 5.741410e-001 -4.185823e-001 1.672373e+000
<VARIANCE> 25
 3.561802e+001 4.818530e+001 3.354527e+001 4.657964e+001 3.173208e+001 6.091317e+001 5.917354e+001 4.894954e+001 4.572320e+001 4.050845e+001 4.547575e+001 4.228817e+001 3.526802e+000 5.559841e+000 3.518376e+000 5.199611e+000 4.894918e+000 7.205803e+000 5.449555e+000 5.436465e+000 4.196339e+000 5.028335e+000 3.304007e+000 3.295390e+000 8.441475e+000
<GCONST> 1.117771e+002
<STATE> 3
<MEAN> 25
 -6.015278e-001 -1.328343e+000 1.571309e+000 -2.030970e+000 -2.359714e+000 -2.382165e+000 9.922676e-001 -3.713072e-002 -2.423553e+000 1.500592e+000 1.726130e+000 -1.760673e+000 2.674193e-001 -1.192321e+000 -1.006383e-001 -2.848536e+000 -7.737647e-001 -1.026030e+000 -1.322462e-001 -3.772920e-001 4.036885e-001 3.705972e-001 -3.216527e-001 -2.291303e-001 2.592147e+000
<VARIANCE> 25
 2.646093e+001 3.041400e+001 4.622506e+001 4.037739e+001 4.652154e+001 3.567742e+001 3.123060e+001 5.399300e+001 3.497027e+001 2.971246e+001 3.162481e+001 3.306129e+001 2.846236e+000 3.320476e+000 8.208667e+000 6.635602e+000 6.092758e+000 5.859247e+000 4.962798e+000 5.352192e+000 6.474853e+000 5.417859e+000 4.497066e+000 3.335265e+000 5.610888e+000
<GCONST> 1.100010e+002
<STATE> 4
<MEAN> 25
 9.879023e-001 -5.784314e+000 2.286929e+000 -4.778107e+000 -3.712538e+000 -1.676991e+000 2.470414e+000 -6.269935e-001 -2.366135e+000 3.793679e-001 6.566634e-001 6.960072e-001 4.071557e-001 -1.263550e-001 -4.987361e-001 -9.055030e-001 -1.450526e-001 -1.818828e-001 -1.734599e-001 -1.654796e-001 3.933271e-001 1.218917e-001 -2.493825e-001 1.397493e-001 4.300499e-001
<VARIANCE> 25
 2.646021e+001 5.762583e+001 1.007015e+002 4.888314e+001 1.034267e+002 5.280128e+001 7.151225e+001 5.047261e+001 5.781326e+001 5.398335e+001 4.930031e+001 6.437908e+001 1.398851e+000 2.286905e+000 4.349233e+000 6.393388e+000 3.794381e+000 4.324215e+000 4.698308e+000 3.862617e+000 3.792739e+000 4.051089e+000 3.921964e+000 2.619379e+000 2.883871e+000
<GCONST> 1.109886e+002
<TRANSP> 5
 0.000000e+000 1.000000e+000 0.000000e+000 0.000000e+000 0.000000e+000
 0.000000e+000 5.457225e-001 4.542775e-001 0.000000e+000 0.000000e+000
 0.000000e+000 0.000000e+000 2.802661e-001 7.197339e-001 0.000000e+000
 0.000000e+000 0.000000e+000 0.000000e+000 6.248203e-001 3.751797e-001
 0.000000e+000 0.000000e+000 0.000000e+000 0.000000e+000 0.000000e+000
<ENDHMM>
~h "w"
<BEGINHMM>
<NUMSTATES> 5
<STATE> 2
<MEAN> 25
 6.550081e+000 6.607267e+000 6.532259e+000 -6.644743e+000 -2.194677e+000 -4.230418e+000 -6.187245e+000 -3.627359e+000 -9.421843e+000 2.181820e-001 -5.135201e+000 -2.999375e-001 1.454507e-001 2.679573e-001 -3.750242e-001 -4.804528e-002 3.733807e-002 -2.944428e-001 1.223943e-001 3.860155e-001 2.652700e-002 7.681771e-002 2.716981e-001 1.668700e-001 -1.479632e-001
<VARIANCE> 25
 1.508859e+001 1.061806e+001 6.560729e+001 9.523401e+001 2.974787e+001 2.685133e+001 2.881883e+001 3.911702e+001 3.071958e+001 5.039181e+001 3.140392e+001 3.737925e+001 1.582208e-001 3.704706e-001 7.552320e-001 1.238389e+000 9.832130e-001 1.302284e+000 1.623972e+000 1.395986e+000 1.252165e+000 1.908043e+000 1.249921e+000 1.203860e+000 2.377315e-001
<GCONST> 8.589184e+001
<STATE> 3
<MEAN> 25
 7.286708e+000 2.829998e+000 -1.429323e+000 -1.412265e+001 2.879755e+000 -4.877071e+000 -9.088739e-001 -1.006718e+000 -2.173327e+000 2.035808e+000 1.085538e+000 -2.121447e+000 -5.210516e-001 -1.856959e+000 -2.211526e-001 -1.192175e+000 1.201795e+000 4.835954e-001 1.127368e+000 -4.534632e-001 1.547854e+000 -9.230025e-001 -4.087676e-001 -1.321800e+000 1.585256e+000
<VARIANCE> 25
 6.434370e+000 4.283306e+001 3.462664e+001 5.877229e+001 6.136251e+001 5.408028e+001 3.782940e+001 5.745900e+001 4.831104e+001 1.281333e+002 4.302593e+001 4.759431e+001 5.881079e-001 2.251775e+000 2.521828e+000 6.075492e+000 3.011081e+000 2.090161e+000 2.964417e+000 2.797032e+000 3.215070e+000 8.698986e+000 7.511200e+000 3.565314e+000 9.675128e-001
<GCONST> 1.048814e+002
<STATE> 4
<MEAN> 25
 3.199318e+000 -7.240260e+000 1.218366e-001 -1.213085e+001 5.869231e+000 -5.219170e+000 6.828114e+000 9.223558e-001 4.179355e-001 -3.989019e+000 -1.002556e-001 -2.692362e+000 -1.802415e-001 -4.896720e-001 -1.684208e-001 3.172497e-001 -9.729493e-002 -1.699653e-002 2.405725e-001 -1.988807e-002 -1.333116e-001 2.074112e-001 1.487326e-001 3.961378e-001 -5.650030e-003
<VARIANCE> 25
 1.716481e+001 8.454505e+001 3.366917e+001 2.241229e+001 3.528588e+001 3.735384e+001 4.799384e+001 4.244880e+001 3.501427e+001 3.585342e+001 4.502290e+001 3.311366e+001 2.154834e-001 9.255494e-001 6.262636e-001 6.815720e-001 1.078813e+000 1.131864e+000 1.064925e+000 1.777255e+000 1.325028e+000 2.574468e+000 1.676569e+000 1.761909e+000 3.864121e-001
<GCONST> 8.883237e+001
<TRANSP> 5
 0.000000e+000 1.000000e+000 0.000000e+000 0.000000e+000 0.000000e+000
 0.000000e+000 9.098938e-001 9.010618e-002 0.000000e+000 0.000000e+000
 0.000000e+000 0.000000e+000 8.365225e-001 1.634775e-001 0.000000e+000
 0.000000e+000 0.000000e+000 0.000000e+000 9.247897e-001 7.521037e-002
 0.000000e+000 0.000000e+000 0.000000e+000 0.000000e+000 0.000000e+000
<ENDHMM>
~h "y"
<BEGINHMM>
<NUMSTATES> 5
<STATE> 2
<MEAN> 25
 1.902756e+000 -4.172680e+000 8.273957e+000 -1.036930e+001 -6.097029e+000 -3.817955e+000 4.039451e+000 -4.009304e+000 -2.628131e+000 2.007650e-001 -2.336339e+000 -8.174444e-001 -3.898959e-001 1.456707e+000 1.524828e+000 -8.029590e-001 -1.285209e+000 7.683179e-002 -1.360924e+000 -1.572515e+000 5.231037e-001 2.298598e+000 1.596424e-001 2.134123e-001 -3.420969e-001
<VARIANCE> 25
 1.972760e+001 4.494002e+001 4.467033e+001 3.841032e+001 6.906097e+001 2.651475e+001 1.032053e+002 5.151506e+001 6.292844e+001 4.382897e+001 3.352642e+001 3.106802e+001 2.473549e-001 2.246203e+000 2.132904e+000 1.856347e+000 2.925095e+000 2.173464e+000 6.679990e+000 3.247011e+000 3.352098e+000 4.042224e+000 2.344451e+000 3.474768e+000 5.290710e-001
<GCONST> 1.009262e+002
<STATE> 3
<MEAN> 25
 9.603912e-001 1.565420e-001 1.054185e+001 -1.270527e+001 -9.791805e+000 -4.155968e+000 9.365084e-001 -5.097240e+000 -2.767931e+000 4.808046e+000 -2.943898e+000 7.991443e-001 1.396023e-001 -7.410873e-001 -8.267571e-001 -2.233456e-002 3.181445e-001 -6.123836e-002 9.288661e-001 7.438151e-001 7.705069e-002 -6.575975e-001 -6.642132e-002 -2.231356e-001 3.167509e-001
<VARIANCE> 25
 1.951219e+001 2.836030e+001 4.084451e+001 3.722762e+001 7.524401e+001 1.841150e+001 8.285680e+001 4.161957e+001 5.257506e+001 3.716248e+001 3.075429e+001 3.547395e+001 3.473581e-001 3.193605e+000 3.811362e+000 1.938915e+000 5.420634e+000 1.573377e+000 5.785506e+000 3.125089e+000 1.964637e+000 4.968414e+000 1.903496e+000 2.384820e+000 6.435649e-001
<GCONST> 1.000342e+002
<STATE> 4
<MEAN> 25
 3.289747e+000 -5.955828e+000 4.896228e+000 -1.107207e+000 1.748060e+000 -9.577506e+000 -1.813393e+000 -9.649634e-001 -3.040844e-001 -5.150964e+000 9.838393e-001 -5.687012e+000 3.756527e-001 -7.886907e-001 -1.205531e+000 3.132572e-001 1.437598e+000 3.024844e-001 9.671199e-003 -1.174950e-001 1.852945e-001 -7.977943e-001 -6.375006e-002 4.547962e-001 1.377988e-001
<VARIANCE> 25
 1.694514e+001 2.248705e+001 4.549763e+001 1.243566e+002 1.079718e+002 5.127105e+001 1.363198e+002 4.291668e+001 5.982681e+001 3.147646e+001 6.306252e+001 4.231614e+001 3.028921e-001 1.310515e+000 2.717907e+000 3.807479e+000 4.139246e+000 1.663202e+000 2.521668e+000 2.326633e+000 2.002408e+000 3.513476e+000 2.290987e+000 2.074084e+000 3.353267e-001
<GCONST> 1.007822e+002
<TRANSP> 5
 0.000000e+000 1.000000e+000 0.000000e+000 0.000000e+000 0.000000e+000
 0.000000e+000 5.967302e-001 4.032697e-001 0.000000e+000 0.000000e+000
 0.000000e+000 0.000000e+000 8.752968e-001 1.247032e-001 0.000000e+000
 0.000000e+000 0.000000e+000 0.000000e+000 6.263544e-001 3.736456e-001
 0.000000e+000 0.000000e+000 0.000000e+000 0.000000e+000 0.000000e+000
<ENDHMM>
~h "aa"
<BEGINHMM>
<NUMSTATES> 5
<STATE> 2
<MEAN> 25
 2.821993e+000 -4.507712e+000 -1.812065e+000 -3.571342e+000 1.271605e+000 -2.508783e+000 1.338577e+000 -4.524315e-001 -5.422367e-001 -2.416778e+000 -2.146969e+000 -1.820784e-001 8.690468e-001 -1.615239e+000 -9.214025e-001 -1.431062e+000 9.815747e-001 7.496233e-002 2.737889e-001 -3.975450e-001 -5.297884e-001 -9.326332e-001 -8.169456e-001 7.426086e-002 1.614123e+000
<VARIANCE> 25
 2.896111e+001 5.518428e+001 4.049406e+001 6.417701e+001 5.704600e+001 3.991673e+001 7.274512e+001 5.231302e+001 3.883550e+001 4.039267e+001 4.807186e+001 2.697971e+001 2.505595e+000 3.374631e+000 2.991941e+000 5.261945e+000 4.659639e+000 4.378734e+000 5.294279e+000 5.917583e+000 3.729819e+000 3.874334e+000 3.966005e+000 2.588174e+000 3.156377e+000
<GCONST> 1.091873e+002
<STATE> 3
<MEAN> 25
 4.165646e+000 -1.027292e+001 -4.869658e+000 -5.766741e+000 5.765718e+000 5.188962e-002 3.568417e+000 -1.229681e+000 -1.903478e+000 -4.720534e+000 -3.681829e+000 3.565720e-001 4.206832e-001 2.915772e-001 -5.770414e-002 6.705011e-001 -4.865821e-002 2.553226e-001 -7.433566e-001 -1.685464e-002 -3.430249e-001 -2.845092e-001 -1.263607e-001 3.600575e-003 -6.667601e-001
<VARIANCE> 25
 2.245378e+001 3.242060e+001 3.139395e+001 4.804737e+001 4.370914e+001 3.722055e+001 5.726795e+001 4.180480e+001 4.152713e+001 3.079977e+001 3.683024e+001 2.889956e+001 8.757911e-001 2.355142e+000 1.562482e+000 2.215388e+000 2.901039e+000 2.189356e+000 2.759224e+000 3.254124e+000 2.378430e+000 2.391680e+000 2.228023e+000 1.986390e+000 1.549849e+000
<GCONST> 9.882841e+001
<STATE> 4
<MEAN> 25
 7.492176e+000 -7.241151e+000 -5.288765e+000 -3.865581e+000 1.107535e+000 -1.943216e+000 -2.224868e+000 -1.506586e+000 -4.413581e+000 -7.239714e+000 -4.471971e+000 9.100466e-001 -1.556719e-001 6.416503e-001 2.806306e-001 2.730050e-001 -3.628614e-001 -1.863303e-001 -8.118442e-002 -1.135346e-001 -2.657630e-002 7.076031e-002 1.999947e-001 -5.788322e-002 -4.914007e-001
<VARIANCE> 25
 2.349699e+001 4.172923e+001 2.852453e+001 4.289543e+001 4.531034e+001 3.817595e+001 6.606207e+001 3.796402e+001 3.717582e+001 4.308385e+001 4.343801e+001 2.720204e+001 3.270378e-001 1.217776e+000 9.544607e-001 1.219717e+000 1.821875e+000 1.691298e+000 1.833477e+000 1.990544e+000 1.440553e+000 1.919968e+000 1.658769e+000 1.404374e+000 3.893675e-001
<GCONST> 9.225205e+001
<TRANSP> 5
 0.000000e+000 1.000000e+000 0.000000e+000 0.000000e+000 0.000000e+000
 0.000000e+000 6.829700e-001 3.170299e-001 0.000000e+000 0.000000e+000
 0.000000e+000 0.000000e+000 7.745938e-001 2.254062e-001 0.000000e+000
 0.000000e+000 0.000000e+000 0.000000e+000 8.588973e-001 1.411027e-001
 0.000000e+000 0.000000e+000 0.000000e+000 0.000000e+000 0.000000e+000
<ENDHMM>
~h "ao"
<BEGINHMM>
<NUMSTATES> 5
<STATE> 2
<MEAN> 25
 6.412158e+000 1.759037e+000 -4.314689e+000 -1.089933e+001 3.125462e+000 -5.329528e+000 -3.917874e+000 -3.511314e+000 -3.882650e+000 6.470103e+000 -1.997763e+000 -3.190327e+000 8.268262e-001 -6.171064e-001 -7.010143e-002 -3.394822e+000 -5.948929e-001 -5.749671e-001 6.771190e-001 1.070424e-001 5.981414e-001 1.095840e+000 -9.510468e-002 -8.666749e-001 1.307831e+000
<VARIANCE> 25
 1.389178e+001 1.341848e+001 3.514038e+001 4.572537e+001 5.832445e+001 2.073667e+001 3.297046e+001 3.756768e+001 3.693124e+001 5.961567e+001 2.245887e+001 2.263861e+001 1.861585e+000 8.777932e-001 2.261198e+000 3.933123e+000 3.604975e+000 2.750953e+000 5.411910e+000 3.039945e+000 3.400235e+000 5.315572e+000 2.136406e+000 1.537289e+000 6.568654e-001
<GCONST> 9.813934e+001
<STATE> 3
<MEAN> 25
 6.187366e+000 -7.957571e-001 -4.205807e+000 -1.741929e+001 2.147296e+000 -4.278590e+000 1.705182e+000 -3.586209e-001 -9.458843e-001 5.263568e+000 -4.652585e-001 -6.573414e+000 1.215805e-001 -7.357577e-001 -3.884633e-001 2.366365e-001 -4.464389e-001 4.038820e-001 4.405125e-001 3.277114e-001 8.915831e-001 -2.084910e-001 3.480676e-001 -5.312780e-001 1.925537e-001
<VARIANCE> 25
 5.513535e+000 1.356538e+001 4.577427e+001 2.283166e+001 3.844158e+001 4.226802e+001 3.760289e+001 1.146118e+002 5.231830e+001 4.881087e+001 2.416313e+001 2.449269e+001 1.383515e-001 3.128573e-001 5.181088e-001 2.151270e+000 1.361428e+000 1.477776e+000 1.914148e+000 1.729729e+000 2.470482e+000 2.838455e+000 1.402132e+000 1.265433e+000 1.957724e-001
<GCONST> 8.695894e+001
<STATE> 4
<MEAN> 25
 1.177945e+001 -1.639782e+000 -6.705917e+000 -1.238488e+001 -4.546350e+000 -5.329274e-001 -6.371854e+000 -3.366892e+000 3.597156e+000 3.045245e+000 -1.107745e-001 -3.903367e+000 3.125389e-002 -5.329728e-001 1.635714e-001 1.024626e+000 -8.014884e-001 -9.413485e-002 1.343184e-001 3.528506e-001 3.626188e-001 -6.190587e-001 -3.748712e-001 3.603213e-001 -1.033448e-001
<VARIANCE> 25
 1.683663e+001 2.262609e+001 1.468981e+001 3.872300e+001 4.201749e+001 3.089014e+001 7.704189e+001 4.319538e+001 4.428178e+001 3.906313e+001 2.967165e+001 2.464419e+001 1.572744e-001 8.821651e-001 8.378893e-001 3.495098e+000 2.455501e+000 1.974460e+000 1.491943e+000 2.028301e+000 2.909088e+000 3.138613e+000 2.398493e+000 1.358615e+000 1.684925e-001
<GCONST> 9.095959e+001
<TRANSP> 5
 0.000000e+000 1.000000e+000 0.000000e+000 0.000000e+000 0.000000e+000
 0.000000e+000 5.431835e-001 4.568165e-001 0.000000e+000 0.000000e+000
 0.000000e+000 0.000000e+000 8.207392e-001 1.792608e-001 0.000000e+000
 0.000000e+000 0.000000e+000 0.000000e+000 8.315345e-001 1.684656e-001
 0.000000e+000 0.000000e+000 0.000000e+000 0.000000e+000 0.000000e+000
<ENDHMM>
~h "eh"
<BEGINHMM>
<NUMSTATES> 5
<STATE> 2
<MEAN> 25
 2.790235e+000 -2.543848e+000 -1.001661e+000 -4.747906e+000 -2.309863e+000 -4.603996e+000 3.192260e+000 -1.022143e+000 -5.543087e-001 1.060496e+000 -2.440007e+000 -1.599216e+000 1.361668e+000 -3.639189e-001 -3.449059e-001 -5.786520e-001 -1.543112e-001 -1.334764e+000 -8.528377e-001 -2.522440e-001 -2.210262e-001 -5.517698e-001 -1.140168e+000 -4.847585e-002 9.751432e-001
<VARIANCE> 25
 2.332344e+001 2.674613e+001 4.315046e+001 4.304755e+001 5.533560e+001 4.575507e+001 6.472635e+001 3.869462e+001 6.666228e+001 4.491301e+001 5.300312e+001 2.885096e+001 3.135680e+000 3.024412e+000 2.214230e+000 5.217434e+000 4.101352e+000 5.580120e+000 4.788933e+000 4.239273e+000 4.926225e+000 4.426867e+000 5.102882e+000 2.665016e+000 4.491098e+000
<GCONST> 1.089413e+002
<STATE> 3
<MEAN> 25
 6.703804e+000 -2.498286e+000 -3.353229e-001 -3.647838e+000 -4.951259e+000 -5.203569e+000 2.177497e+000 -1.552959e+000 -3.439435e+000 -4.758483e-001 -3.392279e+000 -1.639383e-001 5.151127e-002 5.188842e-001 -4.808728e-002 1.349464e+000 4.598494e-001 2.483217e-001 -7.400859e-001 -1.677646e-001 -2.382442e-002 -2.796516e-001 4.324359e-001 2.950645e-001 -1.903276e-001
<VARIANCE> 25
 2.673801e+001 3.948533e+001 5.944360e+001 2.607957e+001 5.902674e+001 6.551379e+001 6.022242e+001 6.090157e+001 7.071067e+001 4.744525e+001 4.604041e+001 2.954891e+001 2.446007e+000 5.206007e+000 1.973093e+000 3.915951e+000 3.246041e+000 4.382883e+000 3.377307e+000 7.199251e+000 3.171735e+000 3.764042e+000 3.067398e+000 2.182285e+000 3.104334e+000
<GCONST> 1.080053e+002
<STATE> 4
<MEAN> 25
 7.262064e+000 -1.971654e+000 -1.242551e+000 -1.738603e+000 -3.548572e+000 -5.691064e+000 -3.347353e+000 -2.372302e+000 -3.629890e+000 -4.927727e+000 -4.126478e+000 4.731150e-001 -7.080221e-001 7.880818e-001 -7.240184e-002 7.367801e-001 1.908763e-001 3.257609e-001 6.227131e-002 -3.158010e-001 5.061312e-002 2.091170e-001 5.495979e-001 -3.595258e-001 -4.582945e-001
<VARIANCE> 25
 2.302584e+001 6.524166e+001 3.241722e+001 3.517980e+001 3.855217e+001 5.958478e+001 4.841093e+001 5.740289e+001 3.435519e+001 4.467009e+001 3.661297e+001 3.340276e+001 2.111794e+000 3.040892e+000 1.415034e+000 2.645755e+000 2.369999e+000 3.642626e+000 2.904241e+000 2.824550e+000 2.305953e+000 2.273685e+000 2.124363e+000 2.489838e+000 8.207515e-001
<GCONST> 1.009801e+002
<TRANSP> 5
 0.000000e+000 1.000000e+000 0.000000e+000 0.000000e+000 0.000000e+000
 0.000000e+000 6.549691e-001 3.450309e-001 0.000000e+000 0.000000e+000
 0.000000e+000 0.000000e+000 4.518652e-001 5.481347e-001 0.000000e+000
 0.000000e+000 0.000000e+000 0.000000e+000 7.570906e-001 2.429095e-001
 0.000000e+000 0.000000e+000 0.000000e+000 0.000000e+000 0.000000e+000
<ENDHMM>
~h "hh"
<BEGINHMM>
<NUMSTATES> 5
<STATE> 2
<MEAN> 25
 1.215726e+000 -1.092120e+000 -2.552482e+000 -3.403521e-001 6.546116e-001 -2.617272e+000 -3.082867e+000 -4.954454e+000 -2.818844e+000 -1.869099e+000 -1.061339e+000 -1.009821e-001 -9.171355e-001 -4.633487e-001 -2.239146e-001 1.048559e+000 -6.078433e-002 1.154762e+000 9.654939e-001 1.052999e+000 1.146405e+000 8.081501e-001 6.126251e-001 -4.734974e-001 -5.052618e-001
<VARIANCE> 25
 5.342290e+000 6.557015e+000 1.710666e+001 1.969627e+001 2.907735e+001 2.847679e+001 3.473713e+001 1.502463e+001 2.786175e+001 2.957483e+001 5.025084e+001 2.323821e+001 4.340631e-001 1.478857e+000 1.011799e+000 3.605977e+000 1.327813e+000 2.085406e+000 1.982785e+000 3.024034e+000 2.446964e+000 2.578174e+000 1.902115e+000 1.661026e+000 4.721352e-001
<GCONST> 8.797903e+001
<STATE> 3
<MEAN> 25
 1.608445e+000 -2.324466e+000 -1.858452e+000 -9.501550e-002 -9.167370e-001 1.648153e+000 3.347589e+000 -1.238924e+000 -3.148154e-001 2.472706e+000 -1.006366e+000 3.689539e-001 -3.835074e-001 1.003380e-001 -3.589266e-001 2.954441e-001 -7.873891e-002 7.111942e-001 5.467969e-001 7.046334e-001 8.136086e-001 8.417519e-001 7.489776e-001 8.471116e-002 -4.770761e-001
<VARIANCE> 25
 8.292493e+000 2.146841e+001 1.909067e+001 1.520472e+001 3.078643e+001 2.820582e+001 7.243487e+001 3.017675e+001 1.896550e+001 2.304947e+001 3.325451e+001 1.351293e+001 4.774362e-001 1.616809e+000 1.397377e+000 1.677982e+000 1.321015e+000 2.055646e+000 1.180380e+000 1.990091e+000 1.492022e+000 1.939853e+000 1.004283e+000 1.121206e+000 4.297413e-001
<GCONST> 8.622731e+001
<STATE> 4
<MEAN> 25
 -3.177066e+000 3.730589e-001 8.235848e-001 2.568340e+000 2.549069e+000 2.726330e+000 2.454303e+000 1.134677e+000 2.704082e+000 2.194695e+000 3.154288e+000 3.036104e-001 -4.295864e-002 4.534841e-002 1.209395e-001 8.813653e-002 4.422125e-002 9.880050e-002 4.544371e-002 8.092508e-002 2.032669e-002 9.368242e-003 1.498141e-002 3.083957e-002 -7.410383e-002
<VARIANCE> 25
 1.376169e+001 3.938289e+000 8.126080e+000 9.726443e+000 1.057147e+001 1.406861e+001 1.668679e+001 1.645003e+001 1.920280e+001 1.714370e+001 1.320450e+001 1.466831e+001 1.840884e-001 2.705933e-001 4.596217e-001 6.197959e-001 9.395773e-001 1.102291e+000 1.061469e+000 1.461199e+000 1.676487e+000 1.533146e+000 1.328751e+000 1.350887e+000 8.050453e-002
<GCONST> 7.121783e+001
<TRANSP> 5
 0.000000e+000 1.000000e+000 0.000000e+000 0.000000e+000 0.000000e+000
 0.000000e+000 7.617479e-002 9.238251e-001 0.000000e+000 0.000000e+000
 0.000000e+000 0.000000e+000 4.977077e-001 5.022923e-001 0.000000e+000
 0.000000e+000 0.000000e+000 0.000000e+000 9.720484e-001 2.795162e-002
 0.000000e+000 0.000000e+000 0.000000e+000 0.000000e+000 0.000000e+000
<ENDHMM>
~h "ih"
<BEGINHMM>
<NUMSTATES> 5
<STATE> 2
<MEAN> 25
 2.011246e+000 4.866595e+000 9.979712e+000 -5.625987e+000 -4.554539e+000 -2.501087e+000 -5.636668e+000 -5.966551e+000 -1.731189e+000 -3.484062e-001 -4.073246e+000 -1.830254e+000 -1.010791e-001 3.005181e-002 4.695605e-001 -3.243857e-001 2.105263e-001 -2.739969e-001 -5.314075e-001 -4.226716e-002 1.380955e-001 -3.130695e-001 -1.330240e-001 6.843493e-002 1.838523e-001
<VARIANCE> 25
 2.332734e+001 6.448746e+001 6.509315e+001 1.280668e+002 8.344158e+001 3.808609e+001 5.002702e+001 5.040110e+001 4.698139e+001 3.986882e+001 3.083008e+001 3.941055e+001 1.796245e+000 2.440857e+000 3.985905e+000 7.301591e+000 4.446310e+000 3.249339e+000 3.736646e+000 3.917429e+000 3.703349e+000 3.861834e+000 3.096798e+000 2.486023e+000 2.184352e+000
<GCONST> 1.085116e+002
<STATE> 3
<MEAN> 25
 -3.995808e-001 4.285663e+000 7.657292e+000 -5.701189e+000 -4.998051e-001 -2.594610e+000 -5.490223e+000 -2.998160e+000 -1.743277e-001 -5.312716e-001 -2.267638e+000 1.418272e+000 1.690513e-002 -1.347521e-001 -2.321337e-001 4.862850e-001 2.730837e-001 7.318367e-002 1.031686e-001 3.604010e-001 1.708178e-001 -6.982308e-002 2.726372e-001 -1.084587e-001 -3.136672e-001
<VARIANCE> 25
 1.127700e+001 3.511784e+001 4.783085e+001 1.046308e+002 3.113593e+001 2.828453e+001 4.112981e+001 3.888112e+001 2.913805e+001 2.988380e+001 2.354626e+001 2.441640e+001 4.313820e-001 5.869639e-001 1.210109e+000 2.709061e+000 1.781348e+000 1.608894e+000 1.709914e+000 2.136185e+000 1.656132e+000 1.594087e+000 1.559513e+000 1.592929e+000 3.901871e-001
<GCONST> 9.082976e+001
<STATE> 4
<MEAN> 25
 -8.662529e-002 -5.983785e-001 6.411508e+000 4.211761e+000 2.692574e+000 -3.468849e+000 -3.954526e+000 1.627472e+000 2.964690e+000 -4.283924e+000 3.992836e-001 -1.969077e+000 2.423884e-002 -2.732818e-002 -4.890428e-001 1.883299e-002 -1.223496e-002 1.897515e-001 2.027852e-001 -1.250827e-001 -5.901305e-003 2.126817e-001 1.993228e-001 9.152110e-002 -1.567067e-001
<VARIANCE> 25
 1.080412e+001 3.707547e+001 7.978400e+001 6.008544e+001 3.408162e+001 6.289746e+001 6.202246e+001 3.482971e+001 2.456627e+001 5.388985e+001 2.556717e+001 2.525708e+001 3.080865e-001 6.614396e-001 1.334462e+000 1.221535e+000 1.102907e+000 1.639328e+000 2.119320e+000 1.840768e+000 1.512851e+000 1.899070e+000 1.654134e+000 1.436226e+000 2.832864e-001
<GCONST> 9.093266e+001
<TRANSP> 5
 0.000000e+000 1.000000e+000 0.000000e+000 0.000000e+000 0.000000e+000
 0.000000e+000 8.354437e-001 1.645563e-001 0.000000e+000 0.000000e+000
 0.000000e+000 0.000000e+000 8.078704e-001 1.921296e-001 0.000000e+000
 0.000000e+000 0.000000e+000 0.000000e+000 7.802376e-001 2.197624e-001
 0.000000e+000 0.000000e+000 0.000000e+000 0.000000e+000 0.000000e+000
<ENDHMM>
~h "ng"
<BEGINHMM>
<NUMSTATES> 5
<STATE> 2
<MEAN> 25
 3.436916e+000 -4.211823e+000 -2.445958e+000 -3.569726e+000 8.528089e+000 -2.965734e+000 1.281417e-001 -3.621446e+000 2.850601e+000 -9.863701e-001 5.125396e+000 -3.538907e+000 3.842726e-003 6.787400e-001 2.707731e-001 7.476445e-001 -1.358615e-002 4.494772e-001 -3.496586e-001 1.547776e-001 -9.474408e-002 -2.461923e-001 -3.023205e-001 -9.462178e-002 -6.646746e-001
<VARIANCE> 25
 6.551742e+000 2.929227e+001 2.049522e+001 3.906654e+001 4.209221e+001 4.037756e+001 3.430232e+001 2.521556e+001 3.626202e+001 4.054564e+001 6.471765e+001 2.343753e+001 2.836994e-001 1.669618e+000 1.078962e+000 2.823628e+000 1.759690e+000 1.634747e+000 2.883956e+000 1.895593e+000 2.434422e+000 2.287234e+000 3.587970e+000 1.571881e+000 1.224719e+000
<GCONST> 9.347955e+001
<STATE> 3
<MEAN> 25
 3.357209e+000 4.366790e+000 2.590865e+000 4.891929e+000 3.441727e+000 2.043957e-001 -1.096632e+000 -2.986843e+000 -3.132610e+000 -3.006947e+000 -4.681178e+000 -4.112305e+000 -4.033586e-001 1.605077e-002 4.675916e-002 3.859893e-001 -1.448705e-001 2.320033e-001 1.309885e-001 3.652215e-001 2.683843e-001 2.743295e-001 4.124086e-001 3.460999e-001 -4.649064e-001
<VARIANCE> 25
 1.160904e+001 3.062307e+001 1.569648e+001 1.850033e+001 3.038742e+001 1.896355e+001 2.144557e+001 2.876090e+001 2.605731e+001 2.228100e+001 2.115526e+001 2.795655e+001 3.952276e-001 8.217696e-001 7.659499e-001 9.390432e-001 1.056047e+000 1.715139e+000 2.008060e+000 1.691780e+000 1.718227e+000 1.728197e+000 1.865532e+000 1.381198e+000 1.959101e-001
<GCONST> 8.378697e+001
<STATE> 4
<MEAN> 25
 -1.325315e+000 4.577132e-001 -1.155315e+000 3.612977e+000 3.381394e-001 2.720960e+000 2.343876e+000 1.005470e+000 8.444765e-001 2.391404e+000 1.555925e+000 1.670793e+000 -6.543832e-002 -9.637709e-003 -4.363883e-002 -2.918913e-002 -3.882438e-002 1.205264e-002 -1.485919e-002 4.015002e-002 4.892109e-002 5.435025e-002 3.452987e-002 6.196747e-002 -4.809603e-002
<VARIANCE> 25
 1.038502e+001 8.209088e+000 2.015582e+001 1.403993e+001 1.886502e+001 1.147127e+001 1.808179e+001 1.672780e+001 1.619226e+001 2.194984e+001 1.460388e+001 1.663157e+001 1.209485e-001 2.814770e-001 4.411422e-001 7.479820e-001 9.281486e-001 9.480516e-001 1.122670e+000 1.065603e+000 1.248061e+000 1.210706e+000 1.284548e+000 1.061518e+000 7.992963e-002
<GCONST> 7.225172e+001
<TRANSP> 5
 0.000000e+000 1.000000e+000 0.000000e+000 0.000000e+000 0.000000e+000
 0.000000e+000 8.454794e-001 1.545206e-001 0.000000e+000 0.000000e+000
 0.000000e+000 0.000000e+000 7.857250e-001 2.142750e-001 0.000000e+000
 0.000000e+000 0.000000e+000 0.000000e+000 9.544075e-001 4.559251e-002
 0.000000e+000 0.000000e+000 0.000000e+000 0.000000e+000 0.000000e+000
<ENDHMM>
~h "oh"
<BEGINHMM>
<NUMSTATES> 5
<STATE> 2
<MEAN> 25
 -4.318285e+000 2.220046e+000 2.687504e+000 2.642706e+000 2.533249e+000 9.572033e-001 4.522782e+000 3.101502e+000 4.379671e+000 3.360173e+000 2.407369e+000 -2.062957e-001 -4.353518e-002 -4.414768e-003 2.744724e-002 -6.891453e-003 1.249234e-001 8.310852e-002 1.439489e-001 1.491244e-001 1.798304e-001 1.344138e-001 5.353992e-002 1.668816e-002 -5.184834e-002
<VARIANCE> 25
 3.043302e+000 6.366276e+000 4.863566e+000 1.184516e+001 6.857862e+000 1.132390e+001 1.431998e+001 1.752916e+001 1.773987e+001 1.852173e+001 1.016551e+001 1.303486e+001 1.498305e-001 3.142231e-001 3.500028e-001 4.154354e-001 6.498678e-001 9.644855e-001 1.323077e+000 1.457493e+000 1.502815e+000 1.344183e+000 1.248566e+000 1.516153e+000 2.973346e-002
<GCONST> 6.655500e+001
<STATE> 3
<MEAN> 25
 4.639178e+000 -2.875953e+000 -7.606742e+000 -1.462760e+001 1.559940e+000 1.763165e+000 5.471668e+000 -7.792149e+000 1.759018e+000 5.775216e+000 3.272009e+000 8.563159e-001 3.330030e-001 4.327720e-001 1.887549e-001 1.095585e+000 -5.885900e-002 1.439389e-001 8.122869e-002 3.351823e-001 -4.797935e-001 -4.601331e-001 -5.745788e-001 8.243340e-002 -4.130345e-001
<VARIANCE> 25
 8.525355e+000 2.002298e+001 2.054205e+001 5.727168e+001 4.628460e+000 7.915734e+000 1.468747e+001 3.916812e+001 2.257334e+001 3.467724e+001 2.083091e+001 8.991446e+000 1.858113e-001 1.756086e-001 6.296902e-001 1.628775e+000 7.465239e-001 8.464947e-001 1.986670e+000 7.358597e-001 1.835461e+000 2.360367e+000 1.239804e+000 1.444609e+000 1.004943e-001
<GCONST> 7.628342e+001
<STATE> 4
<MEAN> 25
 2.102302e+000 -1.430554e+000 -2.324335e+000 -3.392327e-001 6.921839e-001 2.143550e+000 2.746747e+000 -1.920244e+000 -3.284048e+000 -2.193924e+000 2.195319e+000 1.339205e+000 -5.621111e-001 -1.126908e-001 2.709420e-001 1.334336e+000 -7.956444e-001 -5.439076e-001 -9.624825e-001 7.797793e-001 3.495244e-002 1.645702e-001 5.177033e-001 -2.254444e-001 -8.674323e-001
<VARIANCE> 25
 1.140101e+001 2.493896e+001 1.829451e+001 1.556116e+001 1.902772e+001 1.225663e+001 1.667900e+001 3.730375e+001 2.457290e+001 1.599149e+001 1.046707e+001 5.704431e+000 8.394797e-001 6.302409e-001 7.788505e-001 7.813827e-001 1.036961e+000 2.438227e+000 4.505014e-001 3.300408e+000 1.295507e+000 1.114314e+000 2.262032e+000 1.003849e+000 7.400456e-001
<GCONST> 8.027399e+001
<TRANSP> 5
 0.000000e+000 1.000000e+000 0.000000e+000 0.000000e+000 0.000000e+000
 0.000000e+000 9.552867e-001 4.471325e-002 0.000000e+000 0.000000e+000
 0.000000e+000 0.000000e+000 7.791609e-001 2.208391e-001 0.000000e+000
 0.000000e+000 0.000000e+000 0.000000e+000 6.177287e-001 3.822713e-001
 0.000000e+000 0.000000e+000 0.000000e+000 0.000000e+000 0.000000e+000
<ENDHMM>
~h "sp"
<BEGINHMM>
<NUMSTATES> 3
<STATE> 2
~s "silst"
<TRANSP> 3
 0.000000e+000 6.077997e-002 9.392201e-001
 0.000000e+000 7.213552e-001 2.786448e-001
 0.000000e+000 0.000000e+000 0.000000e+000
<ENDHMM>
~h "uw"
<BEGINHMM>
<NUMSTATES> 5
<STATE> 2
<MEAN> 25
 1.965108e+000 2.221977e-001 -1.489732e+000 -4.869117e+000 -1.137503e+000 -4.024399e+000 -3.261079e+000 -2.379905e+000 -1.296525e+000 9.942321e-001 1.050670e+000 2.236758e-001 1.699886e+000 2.756377e-001 -6.749949e-001 -2.655161e+000 -9.450117e-002 -8.464974e-001 -1.091540e+000 -1.294132e+000 -7.247170e-001 2.455880e-001 -8.584896e-001 -1.083617e-001 1.193154e+000
<VARIANCE> 25
 3.461681e+001 3.832498e+001 5.394328e+001 5.948839e+001 5.766111e+001 7.324930e+001 5.178962e+001 3.863560e+001 3.794552e+001 4.400486e+001 3.053491e+001 2.909558e+001 3.871577e+000 3.346995e+000 4.598040e+000 6.984175e+000 5.491728e+000 6.191945e+000 5.178729e+000 5.535275e+000 5.307376e+000 5.693287e+000 4.238385e+000 2.757943e+000 3.214073e+000
<GCONST> 1.113186e+002
<STATE> 3
<MEAN> 25
 6.806659e+000 2.960953e+000 -4.076837e+000 -8.933635e+000 -4.087177e-003 -3.304813e+000 -5.767000e+000 -4.611338e+000 -2.605646e+000 2.302838e+000 -1.097366e+000 -1.589956e+000 7.917054e-001 3.852748e-001 -2.520015e-001 -7.407561e-001 -6.576679e-002 4.067928e-001 -1.674358e-001 -2.679864e-001 -4.727494e-001 1.425458e-001 -5.850791e-001 -2.736213e-001 -9.031074e-002
<VARIANCE> 25
 1.764591e+001 4.767262e+001 5.682284e+001 6.468947e+001 8.689278e+001 4.793528e+001 5.993414e+001 4.639017e+001 5.598199e+001 6.085890e+001 5.863523e+001 3.695021e+001 2.377658e+000 3.673958e+000 3.268198e+000 8.779695e+000 6.020778e+000 4.676072e+000 3.853160e+000 4.850981e+000 4.433949e+000 4.377534e+000 5.250272e+000 4.053459e+000 4.107172e+000
<GCONST> 1.121969e+002
<STATE> 4
<MEAN> 25
 6.795781e+000 3.332833e+000 -1.508254e+000 -8.512356e+000 -2.316882e+000 -5.574971e+000 -5.565940e+000 -4.760435e+000 -4.175371e+000 8.105478e-001 -1.941191e+000 -2.156142e+000 -1.396105e-001 9.301262e-002 2.053804e-001 5.482392e-001 5.658334e-003 1.550173e-001 4.566055e-002 -7.145210e-002 2.354665e-002 -9.126755e-002 1.251062e-001 8.559719e-002 -3.938498e-001
<VARIANCE> 25
 1.355585e+001 1.993892e+001 4.706991e+001 7.870042e+001 5.792311e+001 3.926432e+001 3.837447e+001 3.237777e+001 3.863728e+001 4.747126e+001 4.195336e+001 3.205797e+001 5.338915e-001 1.101342e+000 1.340388e+000 3.774109e+000 2.250658e+000 2.879810e+000 2.073362e+000 2.469317e+000 2.971549e+000 2.548804e+000 2.295784e+000 2.000317e+000 6.751543e-001
<GCONST> 9.708487e+001
<TRANSP> 5
 0.000000e+000 1.000000e+000 0.000000e+000 0.000000e+000 0.000000e+000
 0.000000e+000 4.097158e-001 5.902841e-001 0.000000e+000 0.000000e+000
 0.000000e+000 0.000000e+000 5.388367e-001 4.611633e-001 0.000000e+000
 0.000000e+000 0.000000e+000 0.000000e+000 8.903977e-001 1.096023e-001
 0.000000e+000 0.000000e+000 0.000000e+000 0.000000e+000 0.000000e+000
<ENDHMM>
~h "sil"
<BEGINHMM>
<NUMSTATES> 5
<STATE> 2
<MEAN> 25
 -1.629144e+001 6.458318e+000 -2.735124e+000 1.064911e+001 -3.679584e+000 7.766931e+000 -3.729975e+000 8.945310e+000 9.322875e+000 3.778256e+000 5.819087e+000 2.297237e+000 -2.144574e-002 3.383268e-002 -7.492397e-003 -4.042868e-002 4.201403e-002 6.126393e-002 -4.135745e-002 -3.993935e-002 9.963425e-002 8.771264e-002 2.739569e-002 -7.999814e-002 -3.127194e-002
<VARIANCE> 25
 3.510719e+001 1.541490e+001 2.304194e+001 2.253205e+001 2.449858e+001 1.939271e+001 2.164009e+001 3.713078e+001 3.059863e+001 1.898009e+001 1.986170e+001 1.330657e+001 8.317650e-002 1.938131e-001 2.919829e-001 4.199410e-001 5.462950e-001 6.815042e-001 9.356849e-001 1.149756e+000 1.067515e+000 1.414119e+000 1.131868e+000 1.250767e+000 3.366440e-002
<GCONST> 7.351365e+001
<STATE> 3
~s "silst"
<STATE> 4
<MEAN> 25
 -2.603937e+000 1.040342e+000 -4.396879e-001 3.008001e+000 8.066137e-001 3.080459e+000 1.796282e+000 1.431538e+000 1.695446e+000 2.179548e+000 1.995663e+000 8.587725e-001 -3.037177e-002 1.175920e-002 -1.297956e-002 1.540170e-002 6.105701e-003 2.437547e-002 2.077565e-002 -3.380661e-003 -1.355372e-002 3.275687e-002 2.780670e-002 9.745351e-003 -1.057619e-002
<VARIANCE> 25
 1.912525e+001 1.068658e+001 1.566194e+001 1.683689e+001 2.037957e+001 1.630354e+001 2.232246e+001 2.110373e+001 2.088978e+001 2.620842e+001 1.781366e+001 1.541257e+001 1.825262e-001 3.583772e-001 5.365285e-001 7.685174e-001 9.218345e-001 1.080458e+000 1.181085e+000 1.353678e+000 1.432052e+000 1.455263e+000 1.276165e+000 1.237686e+000 1.003169e-001
<GCONST> 7.646745e+001
<TRANSP> 5
 0.000000e+000 1.000000e+000 0.000000e+000 0.000000e+000 0.000000e+000
 0.000000e+000 8.717859e-001 4.289577e-002 8.531844e-002 0.000000e+000
 0.000000e+000 0.000000e+000 9.367455e-001 6.325459e-002 0.000000e+000
 0.000000e+000 8.165303e-003 0.000000e+000 9.481235e-001 4.371116e-002
 0.000000e+000 0.000000e+000 0.000000e+000 0.000000e+000 0.000000e+000
<ENDHMM>
