~o
<STREAMINFO> 1 25
<VECSIZE> 25<NULLD><MFCC_D_N_Z_0><DIAGC>
~s "silst"
<MEAN> 25
 -6.008002e+000 4.449289e+000 -8.471912e+000 4.282135e+000 -6.522773e+000 5.185021e+000 -2.323416e+000 2.184140e+000 -1.822706e+000 4.775967e+000 2.136231e-002 3.164401e+000 4.782922e-001 -2.031332e-001 2.753183e-001 -1.697996e-001 8.175073e-002 -1.997066e-001 2.053680e-001 -1.754508e-001 -2.738304e-001 -1.269901e-001 -1.796764e-001 -5.886137e-002 1.708186e+000
<VARIANCE> 25
 3.278548e+001 2.479345e+001 2.832039e+001 2.039375e+001 3.662020e+001 2.483364e+001 2.459071e+001 2.136411e+001 3.538879e+001 2.482878e+001 1.649180e+001 1.347512e+001 3.921719e+000 2.265045e+000 1.925212e+000 2.349320e+000 1.786551e+000 1.776118e+000 1.953963e+000 1.648509e+000 2.343324e+000 1.485866e+000 1.394740e+000 1.136318e+000 1.200403e+001
<GCONST> 9.447633e+001
~h "b"
<BEGINHMM>
<NUMSTATES> 5
<STATE> 2
<MEAN> 25
 -1.668802e+000 6.643469e-001 1.101474e+001 -4.943472e+000 -2.474027e+000 -3.311396e+000 -5.305101e-001 -5.504286e+000 -1.474551e+000 1.265963e+000 2.020620e-002 -3.362581e-001 -3.063678e-001 -1.690106e+000 1.231974e+000 -1.291266e+000 -6.658292e-001 -7.898419e-001 8.794304e-001 -4.712227e-001 -8.566706e-001 7.858476e-001 -1.621457e-001 -5.431768e-001 1.837374e+000
<VARIANCE> 25
 8.535516e+001 1.799902e+002 1.353167e+002 1.631698e+002 9.402196e+001 9.248577e+001 8.053255e+001 8.133797e+001 9.234563e+001 5.911703e+001 3.867373e+001 5.473649e+001 5.867739e+000 1.286119e+001 1.203635e+001 1.561652e+001 9.690422e+000 9.874269e+000 8.599377e+000 9.756649e+000 9.714177e+000 6.428622e+000 5.916483e+000 8.189519e+000 2.641253e+000
<GCONST> 1.272465e+002
<STATE> 3
<MEAN> 25
 1.223714e+000 1.916838e+000 1.132017e+001 -7.377548e+000 -1.237836e+001 -6.175074e+000 -1.994220e+000 -6.341873e+000 -2.731536e+000 5.256291e+000 1.065383e-002 5.365167e-001 1.366602e-001 -3.000939e-001 -8.885454e-001 -5.052049e-002 1.747682e-001 -2.726337e-001 1.932049e-001 3.939050e-001 5.791320e-001 -1.561256e-001 1.964938e-001 2.369611e-001 3.696541e-001
<VARIANCE> 25
 1.890599e+001 3.206096e+001 3.900288e+001 5.864668e+001 5.096752e+001 3.338503e+001 6.746712e+001 4.244993e+001 3.819802e+001 4.201267e+001 3.322248e+001 6.679842e+001 1.056460e+000 1.889049e+000 4.120791e+000 4.943529e+000 5.594566e+000 2.462132e+000 4.519848e+000 4.832337e+000 3.218012e+000 4.879759e+000 3.119090e+000 3.446946e+000 9.848197e-001
<GCONST> 1.050995e+002
<STATE> 4
<MEAN> 25
 2.295478e+000 -1.138923e+001 2.041078e+000 1.350371e+000 1.159955e+000 -3.052871e-001 -1.691423e-001 -2.120054e+000 -2.333382e+000 3.049969e+000 -1.250790e+000 -2.489075e+000 -3.812381e-002 1.180764e-001 -2.190305e-001 8.657272e-002 2.855160e-001 1.029027e-001 -1.465129e-001 -1.915380e-002 2.596332e-001 -1.147928e-001 -1.020506e-002 7.127158e-002 -1.464255e-001
<VARIANCE> 25
 4.545892e+001 1.969653e+002 9.837163e+001 1.634616e+002 1.646220e+002 1.189016e+002 1.965835e+002 9.760721e+001 9.828996e+001 7.495503e+001 4.580511e+001 5.944877e+001 1.649977e+000 4.512517e+000 4.114709e+000 7.896870e+000 9.141917e+000 6.573505e+000 9.228706e+000 7.869772e+000 6.374834e+000 5.643674e+000 4.676532e+000 3.942717e+000 1.676062e+000
<GCONST> 1.221741e+002
<TRANSP> 5
 0.000000e+000 1.000000e+000 0.000000e+000 0.000000e+000 0.000000e+000
 0.000000e+000 7.594163e-001 2.405837e-001 0.000000e+000 0.000000e+000
 0.000000e+000 0.000000e+000 7.829693e-001 2.170307e-001 0.000000e+000
 0.000000e+000 0.000000e+000 0.000000e+000 9.234362e-001 7.656386e-002
 0.000000e+000 0.000000e+000 0.000000e+000 0.000000e+000 0.000000e+000
<ENDHMM>
~h "c"
<BEGINHMM>
<NUMSTATES> 5
<STATE> 2
<MEAN> 25
 3.351895e-008 6.868748e-009 -8.012638e-008 -5.171843e-009 5.659957e-008 3.127444e-008 -1.897019e-008 -3.787276e-008 -2.190428e-009 -1.042481e-007 5.105589e-008 -4.266601e-008 9.338440e-003 5.151767e-003 1.071485e-002 -4.624357e-003 4.757588e-003 -1.562855e-004 6.065580e-003 -2.663599e-003 -1.184148e-003 -7.597569e-004 -2.750245e-003 -3.096818e-003 3.171694e-002
<VARIANCE> 25
 4.493839e+001 1.140073e+002 6.386908e+001 8.517533e+001 5.555016e+001 4.948111e+001 6.410268e+001 5.053800e+001 4.916899e+001 4.841446e+001 3.746964e+001 3.443018e+001 1.058399e+000 2.394540e+000 2.004006e+000 3.105449e+000 2.635025e+000 2.534516e+000 3.119964e+000 2.812881e+000 2.677968e+000 2.755787e+000 2.419358e+000 2.075167e+000 1.645589e+000
<GCONST> 1.049692e+002
<STATE> 3
<MEAN> 25
 3.351895e-008 6.868748e-009 -8.012638e-008 -5.171843e-009 5.659957e-008 3.127444e-008 -1.897019e-008 -3.787276e-008 -2.190428e-009 -1.042481e-007 5.105589e-008 -4.266601e-008 9.338440e-003 5.151767e-003 1.071485e-002 -4.624357e-003 4.757588e-003 -1.562855e-004 6.065580e-003 -2.663599e-003 -1.184148e-003 -7.597569e-004 -2.750245e-003 -3.096818e-003 3.171694e-002
<VARIANCE> 25
 4.493839e+001 1.140073e+002 6.386908e+001 8.517533e+001 5.555016e+001 4.948111e+001 6.410268e+001 5.053800e+001 4.916899e+001 4.841446e+001 3.746964e+001 3.443018e+001 1.058399e+000 2.394540e+000 2.004006e+000 3.105449e+000 2.635025e+000 2.534516e+000 3.119964e+000 2.812881e+000 2.677968e+000 2.755787e+000 2.419358e+000 2.075167e+000 1.645589e+000
<GCONST> 1.049692e+002
<STATE> 4
<MEAN> 25
 3.351895e-008 6.868748e-009 -8.012638e-008 -5.171843e-009 5.659957e-008 3.127444e-008 -1.897019e-008 -3.787276e-008 -2.190428e-009 -1.042481e-007 5.105589e-008 -4.266601e-008 9.338440e-003 5.151767e-003 1.071485e-002 -4.624357e-003 4.757588e-003 -1.562855e-004 6.065580e-003 -2.663599e-003 -1.184148e-003 -7.597569e-004 -2.750245e-003 -3.096818e-003 3.171694e-002
<VARIANCE> 25
 4.493839e+001 1.140073e+002 6.386908e+001 8.517533e+001 5.555016e+001 4.948111e+001 6.410268e+001 5.053800e+001 4.916899e+001 4.841446e+001 3.746964e+001 3.443018e+001 1.058399e+000 2.394540e+000 2.004006e+000 3.105449e+000 2.635025e+000 2.534516e+000 3.119964e+000 2.812881e+000 2.677968e+000 2.755787e+000 2.419358e+000 2.075167e+000 1.645589e+000
<GCONST> 1.049692e+002
<TRANSP> 5
 0.000000e+000 1.000000e+000 0.000000e+000 0.000000e+000 0.000000e+000
 0.000000e+000 6.000000e-001 4.000000e-001 0.000000e+000 0.000000e+000
 0.000000e+000 0.000000e+000 6.000000e-001 4.000000e-001 0.000000e+000
 0.000000e+000 0.000000e+000 0.000000e+000 7.000000e-001 3.000000e-001
 0.000000e+000 0.000000e+000 0.000000e+000 0.000000e+000 0.000000e+000
<ENDHMM>
~h "d"
<BEGINHMM>
<NUMSTATES> 5
<STATE> 2
<MEAN> 25
 -3.064493e+000 -5.234571e+000 6.515566e+000 -3.569794e+000 3.878920e+000 1.052447e+000 -3.256180e+000 -2.175617e+000 5.384771e-001 1.814755e+000 -7.639333e-001 1.611973e+000 2.070754e-002 -2.592821e+000 1.143287e+000 1.938310e-001 1.285724e-001 -7.113491e-001 -3.470316e-001 -1.177687e-001 -6.169153e-001 1.499607e-001 -5.408978e-002 -5.576967e-001 1.901738e+000
<VARIANCE> 25
 1.101699e+002 2.491641e+002 2.312680e+002 1.736497e+002 1.294136e+002 5.891942e+001 1.013655e+002 6.150694e+001 4.641220e+001 6.268011e+001 4.149392e+001 4.342512e+001 3.880137e+000 1.673374e+001 1.018393e+001 1.643144e+001 8.520023e+000 7.725800e+000 8.858303e+000 7.393804e+000 4.861206e+000 6.319544e+000 5.405599e+000 5.027818e+000 6.183668e+000
<GCONST> 1.261285e+002
<STATE> 3
<MEAN> 25
 4.611231e-001 -1.296409e+000 8.294251e+000 -4.429758e+000 -3.609091e+000 -5.621732e+000 -1.922494e+000 -3.652590e+000 -2.733498e+000 3.567398e+000 -1.216425e+000 4.068569e-001 8.174537e-002 -1.474741e+000 6.608449e-002 -4.646977e-001 3.309375e-001 -8.746158e-001 2.164816e-001 1.236257e-001 7.117070e-002 -3.884048e-001 -6.981496e-003 -5.119981e-001 1.491907e+000
<VARIANCE> 25
 1.414686e+001 1.093273e+002 1.092485e+002 1.399089e+002 1.079402e+002 5.450579e+001 9.063305e+001 5.659285e+001 6.062764e+001 6.758598e+001 4.023915e+001 4.947926e+001 1.201600e+000 7.483895e+000 8.928726e+000 1.088385e+001 8.521694e+000 5.269502e+000 1.147533e+001 5.150685e+000 6.313929e+000 8.957026e+000 4.493878e+000 3.593690e+000 4.803483e+000
<GCONST> 1.191058e+002
<STATE> 4
<MEAN> 25
 1.140023e+000 -1.372478e+001 4.193500e+000 6.149052e+000 2.411742e+000 -3.376517e+000 -3.526140e+000 1.959514e+000 -2.890021e+000 7.785047e-001 -1.166720e-001 -4.074395e+000 6.280313e-002 3.056475e-001 -2.016821e-001 -1.295170e-001 -1.054399e-001 1.485477e-001 1.604328e-001 -9.686737e-002 7.350738e-003 -3.678868e-002 8.839606e-002 1.715278e-001 -1.536342e-001
<VARIANCE> 25
 2.686826e+001 1.844995e+002 1.857538e+002 1.576351e+002 1.323893e+002 1.778145e+002 1.500234e+002 1.175123e+002 8.906607e+001 8.105636e+001 9.984585e+001 7.861751e+001 7.344098e-001 4.717497e+000 4.181500e+000 5.430091e+000 4.805694e+000 5.433315e+000 7.076741e+000 4.704812e+000 5.276360e+000 4.623940e+000 4.788377e+000 4.476470e+000 1.583939e+000
<GCONST> 1.202892e+002
<TRANSP> 5
 0.000000e+000 1.000000e+000 0.000000e+000 0.000000e+000 0.000000e+000
 0.000000e+000 7.079033e-001 2.920967e-001 0.000000e+000 0.000000e+000
 0.000000e+000 0.000000e+000 6.588123e-001 3.411876e-001 0.000000e+000
 0.000000e+000 0.000000e+000 0.000000e+000 9.289929e-001 7.100707e-002
 0.000000e+000 0.000000e+000 0.000000e+000 0.000000e+000 0.000000e+000
<ENDHMM>
~h "g"
<BEGINHMM>
<NUMSTATES> 5
<STATE> 2
<MEAN> 25
 2.329078e+000 7.200933e+000 5.230549e+000 3.390742e+000 -3.002997e+000 -1.660431e+000 -4.737640e+000 2.385350e-001 -1.382107e+000 -2.269245e-001 -3.253608e+000 -2.184560e+000 -3.243849e-001 -1.340887e+000 -5.143807e-001 -5.298651e-001 4.383961e-001 -3.580135e-001 6.533095e-001 6.285334e-002 -5.697087e-001 2.812939e-001 4.576896e-001 -2.388333e-001 1.079593e+000
<VARIANCE> 25
 4.856855e+001 1.319990e+002 7.989037e+001 1.057401e+002 8.198788e+001 6.729807e+001 7.127995e+001 5.472840e+001 5.643500e+001 4.401313e+001 5.481726e+001 4.094976e+001 5.550901e+000 1.006125e+001 6.674161e+000 1.420193e+001 8.858301e+000 5.453577e+000 7.001445e+000 3.984155e+000 5.777534e+000 6.952514e+000 5.432189e+000 3.978344e+000 8.102340e+000
<GCONST> 1.208117e+002
<STATE> 3
<MEAN> 25
 1.057791e+000 -5.331000e+000 -2.166832e+000 -3.215281e+000 5.157262e+000 -5.966647e-001 -3.543559e-002 -6.471549e-001 -5.487093e+000 3.856985e+000 3.302745e+000 -1.813024e+000 7.238537e-001 -1.580121e-001 -4.027039e-001 -2.099716e+000 -3.765635e-001 -4.565064e-001 -3.441312e-002 -6.294330e-001 -3.980652e-001 -4.613928e-001 -5.766256e-001 6.575599e-002 1.529515e+000
<VARIANCE> 25
 2.943858e+001 1.104572e+002 8.471111e+001 1.388945e+002 8.908859e+001 6.818848e+001 8.510969e+001 2.861418e+001 1.192858e+002 1.539101e+002 3.813047e+001 5.499516e+001 2.526558e+000 5.036737e+000 6.191205e+000 1.035305e+001 7.306250e+000 4.140120e+000 7.375196e+000 3.924381e+000 6.534733e+000 1.134454e+001 4.058368e+000 3.353202e+000 3.378100e+000
<GCONST> 1.189954e+002
<STATE> 4
<MEAN> 25
 2.593683e+000 5.618942e-001 2.787990e-001 -5.395653e+000 2.523035e+000 -1.217651e+000 -6.342183e-001 -1.618275e+000 -2.745977e+000 -2.383330e+000 -9.067646e-001 2.832425e-001 4.044147e-001 1.075195e+000 4.753826e-001 -9.109687e-001 -8.717170e-003 -4.143024e-001 -6.320887e-001 -4.473082e-001 2.928461e-001 7.932070e-002 -1.143850e+000 -6.363178e-001 4.432536e-001
<VARIANCE> 25
 3.614154e+001 7.036140e+001 8.480286e+001 9.825281e+001 8.491963e+001 5.553902e+001 6.794048e+001 4.113101e+001 5.388945e+001 8.911589e+001 4.121234e+001 5.374994e+001 1.442064e+000 2.689354e+000 4.221418e+000 6.573188e+000 7.002448e+000 3.401656e+000 4.871154e+000 3.591850e+000 4.997794e+000 8.452714e+000 3.706880e+000 2.650589e+000 1.532387e+000
<GCONST> 1.125564e+002
<TRANSP> 5
 0.000000e+000 1.000000e+000 0.000000e+000 0.000000e+000 0.000000e+000
 0.000000e+000 7.252064e-001 2.747936e-001 0.000000e+000 0.000000e+000
 0.000000e+000 0.000000e+000 5.609085e-001 4.390916e-001 0.000000e+000
 0.000000e+000 0.000000e+000 0.000000e+000 2.988408e-001 7.011592e-001
 0.000000e+000 0.000000e+000 0.000000e+000 0.000000e+000 0.000000e+000
<ENDHMM>
~h "h"
<BEGINHMM>
<NUMSTATES> 5
<STATE> 2
<MEAN> 25
 -1.490819e-001 6.320502e-001 1.247662e+000 5.506712e+000 -1.607195e-001 1.454837e+000 1.071105e-001 3.157989e+000 8.117189e-002 4.763210e-001 1.800707e+000 -1.616898e+000 -1.383507e-002 -7.824613e-003 3.568779e-002 4.244015e-002 3.826681e-002 3.085848e-002 6.424908e-002 8.268365e-002 9.189961e-002 3.100815e-002 8.025152e-003 -2.744847e-002 -1.992870e-002
<VARIANCE> 25
 6.085585e+000 8.927465e+000 5.764429e+000 9.425028e+000 9.084608e+000 1.020478e+001 1.473165e+001 1.418212e+001 1.471148e+001 1.087403e+001 1.129115e+001 1.202416e+001 1.181646e-001 2.574702e-001 4.021462e-001 5.434680e-001 9.011821e-001 1.125017e+000 1.098575e+000 1.533520e+000 1.415781e+000 1.084481e+000 1.220609e+000 1.059166e+000 4.253162e-002
<GCONST> 6.684460e+001
<STATE> 3
<MEAN> 25
 -1.942801e+000 -2.846055e+000 -1.216536e+000 4.361846e+000 5.382257e+000 3.252959e+000 7.748473e-001 1.490669e+000 7.747169e-002 -1.538903e+000 2.691593e+000 8.407350e-001 -2.429026e-001 -1.326277e+000 -1.254347e+000 -2.426487e-001 1.240735e+000 4.486586e-001 3.082054e-001 -1.010228e+000 -1.125946e-002 -1.086970e+000 3.192690e-001 5.357277e-001 8.500829e-001
<VARIANCE> 25
 1.458034e+001 3.576865e+001 1.467812e+001 1.337524e+001 1.615690e+001 1.690001e+001 1.603250e+001 2.257253e+001 2.001125e+001 1.494228e+001 1.687641e+001 1.483481e+001 2.732150e-001 1.501779e+000 1.262391e+000 5.393945e-001 1.583844e+000 1.400244e+000 2.027934e+000 3.097385e+000 1.189007e+000 9.378184e-001 2.380136e+000 1.986919e+000 2.076952e-001
<GCONST> 8.165774e+001
<STATE> 4
<MEAN> 25
 7.372114e-001 -3.770244e+000 -2.919319e+000 -4.136333e-001 2.571568e+000 7.111385e-001 -4.676403e-001 -1.927412e+000 -4.838097e-001 -2.715710e+000 -1.831752e+000 2.279505e-002 9.509856e-003 3.395966e-002 2.241340e-003 -1.133648e-001 -9.726001e-002 -2.579592e-002 5.007133e-002 -5.775780e-002 6.794893e-002 1.780943e-002 -5.886584e-002 -1.234142e-002 8.551451e-002
<VARIANCE> 25
 5.597481e+001 3.072521e+001 3.303629e+001 2.498616e+001 2.202732e+001 2.020119e+001 4.092569e+001 4.732963e+001 3.355012e+001 3.929385e+001 3.208414e+001 1.803125e+001 1.272973e+000 8.444566e-001 1.329683e+000 1.442975e+000 1.287585e+000 1.759127e+000 2.035154e+000 2.427066e+000 1.716462e+000 1.424631e+000 2.133202e+000 1.342141e+000 6.496732e-001
<GCONST> 9.197790e+001
<TRANSP> 5
 0.000000e+000 1.000000e+000 0.000000e+000 0.000000e+000 0.000000e+000
 0.000000e+000 9.567400e-001 4.326003e-002 0.000000e+000 0.000000e+000
 0.000000e+000 0.000000e+000 7.497982e-001 2.502018e-001 0.000000e+000
 0.000000e+000 0.000000e+000 0.000000e+000 9.791287e-001 2.087129e-002
 0.000000e+000 0.000000e+000 0.000000e+000 0.000000e+000 0.000000e+000
<ENDHMM>
~h "j"
<BEGINHMM>
<NUMSTATES> 5
<STATE> 2
<MEAN> 25
 8.386599e+000 -1.301183e+001 -3.640676e+000 7.823588e-001 -5.742616e+000 3.764566e+000 -6.364304e+000 -3.547144e+000 -2.031991e+000 -1.749781e+000 -7.011945e-001 -2.036306e+000 3.398281e-001 6.726715e-001 -4.240762e-001 6.713282e-001 -5.780771e-001 7.240267e-002 -8.924206e-003 -3.845032e-001 -3.666450e-002 1.238638e-001 -7.220060e-001 -1.959978e-001 -6.778131e-001
<VARIANCE> 25
 1.379092e+001 9.763348e+001 1.813032e+001 3.535722e+001 5.014323e+001 1.149287e+001 2.810569e+001 1.427781e+001 2.273268e+001 1.194494e+001 1.449825e+002 1.681294e+001 6.915682e-001 4.749309e-001 2.263108e-001 1.660999e+000 2.159417e+000 1.355418e+000 3.253241e+000 1.286566e+000 2.373491e+000 1.637619e+000 4.104697e+000 1.306827e+000 5.416306e-001
<GCONST> 8.820735e+001
<STATE> 3
<MEAN> 25
 3.276178e+000 3.840083e-001 -5.152570e+000 1.048124e+001 -5.152070e+000 4.582498e+000 -8.318804e-001 -5.939306e+000 -2.144140e+000 2.485276e+000 -5.186644e+000 -3.970621e+000 -1.077114e+000 5.261521e-001 5.881814e-002 -1.082669e-001 8.995093e-002 2.709574e-002 4.958519e-001 6.219419e-001 1.625371e-001 6.334473e-001 6.209015e-001 -3.048645e-001 -1.023316e+000
<VARIANCE> 25
 4.512742e+001 9.354508e+001 7.336928e+001 3.488549e+001 3.412954e+001 4.772599e+001 1.112395e+002 1.906754e+001 1.211114e+001 4.429834e+001 1.671598e+001 3.354014e+001 1.876659e+000 1.374976e+000 2.425064e+000 4.806688e+000 1.492139e+000 3.537783e+000 3.023925e+000 2.066598e+000 1.558657e+000 2.287318e+000 2.926895e+000 3.429332e+000 1.003040e+000
<GCONST> 1.002924e+002
<STATE> 4
<MEAN> 25
 8.987229e-001 6.651706e+000 4.230757e+000 -3.608224e+000 -5.864593e+000 -8.472512e+000 -7.411668e+000 1.969948e+000 -1.198706e+000 6.052594e+000 5.558851e+000 -7.786357e+000 -2.013010e-001 -2.108551e-001 1.891988e-001 -6.494110e-001 2.352942e-001 -1.277188e-001 -4.682657e-001 6.211271e-001 2.168732e-001 -9.169260e-002 1.008764e-001 -2.307632e-001 1.719912e-001
<VARIANCE> 25
 4.119693e+001 1.030766e+002 1.244219e+001 7.772027e+001 5.407346e+001 1.067789e+002 6.180091e+001 4.433702e+001 6.736707e+001 3.575716e+001 4.368652e+001 1.303960e+002 2.141875e+000 5.147899e+000 2.420020e+000 5.085021e+000 4.812138e+000 8.552654e+000 4.200933e+000 6.385864e+000 3.561408e+000 5.749835e+000 4.300289e+000 3.237824e+000 6.803624e+000
<GCONST> 1.136738e+002
<TRANSP> 5
 0.000000e+000 1.000000e+000 0.000000e+000 0.000000e+000 0.000000e+000
 0.000000e+000 8.885556e-001 1.114444e-001 0.000000e+000 0.000000e+000
 0.000000e+000 0.000000e+000 8.434033e-001 1.565967e-001 0.000000e+000
 0.000000e+000 0.000000e+000 0.000000e+000 9.051288e-001 9.487124e-002
 0.000000e+000 0.000000e+000 0.000000e+000 0.000000e+000 0.000000e+000
<ENDHMM>
~h "k"
<BEGINHMM>
<NUMSTATES> 5
<STATE> 2
<MEAN> 25
 5.238212e+000 -2.205334e+000 -2.845333e+000 4.376735e-001 1.637553e+000 7.097641e-001 -4.640096e+000 -3.047282e+000 -1.142858e+000 -3.491566e+000 -2.718407e+000 -3.021309e+000 -8.204885e-001 2.973861e-001 -2.930401e-001 9.546832e-001 2.183061e-001 -1.282463e-001 5.444984e-001 3.678334e-001 2.882476e-001 3.478223e-001 4.320045e-001 2.336490e-001 -9.803657e-001
<VARIANCE> 25
 1.772812e+001 8.051196e+001 3.644005e+001 6.340680e+001 6.917245e+001 3.955425e+001 4.751398e+001 3.497460e+001 6.097446e+001 3.864539e+001 3.417041e+001 3.209566e+001 1.873961e+000 4.331961e+000 2.917037e+000 4.085283e+000 4.171886e+000 3.870277e+000 4.556761e+000 2.553935e+000 4.945354e+000 4.707780e+000 3.010015e+000 2.602269e+000 3.767437e+000
<GCONST> 1.073910e+002
<STATE> 3
<MEAN> 25
 1.412894e+000 -4.313655e+000 -4.554934e+000 -5.529580e-001 -1.803113e+000 -6.666327e-001 3.562331e+000 -1.682660e+000 1.169571e+000 4.746608e-001 -2.076164e+000 1.650923e+000 1.309463e-001 -2.514061e+000 -6.354969e-001 -7.191127e-001 -7.318826e-001 -8.832755e-001 2.161972e+000 -5.759295e-001 6.090207e-001 5.870473e-001 1.857887e-001 1.264586e-001 2.287943e+000
<VARIANCE> 25
 2.019740e+001 1.087005e+002 4.928637e+001 6.030983e+001 8.779912e+001 5.272019e+001 6.716365e+001 4.250941e+001 4.409561e+001 4.191745e+001 4.172424e+001 4.106656e+001 3.492117e+000 9.652447e+000 5.245777e+000 7.750388e+000 6.210872e+000 6.617664e+000 4.257460e+000 4.683460e+000 4.964411e+000 6.779827e+000 4.885338e+000 4.739539e+000 5.839367e+000
<GCONST> 1.153582e+002
<STATE> 4
<MEAN> 25
 4.171192e+000 -1.081944e+001 -8.832793e+000 9.491999e-001 -1.534551e+000 8.170950e-001 7.188580e+000 -3.770920e+000 -7.794483e-001 3.171880e+000 -1.959152e-001 -1.040616e+000 -1.141396e-001 1.306227e-001 1.647566e-001 -4.348081e-002 3.953038e-001 6.101938e-002 -1.064413e-001 2.369629e-001 1.947611e-003 -1.652118e-001 2.336910e-001 4.111600e-002 -6.436644e-002
<VARIANCE> 25
 3.049404e+001 1.349258e+002 7.159467e+001 5.476343e+001 9.160970e+001 2.806273e+001 6.550460e+001 4.959123e+001 2.562967e+001 5.530367e+001 2.421464e+001 3.005475e+001 8.200976e-001 2.046550e+000 1.753846e+000 1.899307e+000 2.935301e+000 1.912475e+000 2.750329e+000 1.940847e+000 2.399721e+000 2.565439e+000 2.278469e+000 2.185649e+000 9.127705e-001
<GCONST> 1.007805e+002
<TRANSP> 5
 0.000000e+000 1.000000e+000 0.000000e+000 0.000000e+000 0.000000e+000
 0.000000e+000 6.517167e-001 3.482834e-001 0.000000e+000 0.000000e+000
 0.000000e+000 0.000000e+000 5.614762e-001 4.385238e-001 0.000000e+000
 0.000000e+000 0.000000e+000 0.000000e+000 8.417457e-001 1.582543e-001
 0.000000e+000 0.000000e+000 0.000000e+000 0.000000e+000 0.000000e+000
<ENDHMM>
~h "l"
<BEGINHMM>
<NUMSTATES> 5
<STATE> 2
<MEAN> 25
 3.943639e+000 -3.675533e+000 -3.827689e+000 -3.310384e+000 -9.933169e-001 -1.913460e+000 1.539890e+000 -3.229009e+000 3.579128e+000 1.146162e+000 -3.287226e-002 -7.819607e-001 4.598027e-002 5.915409e-001 -3.352053e-001 -2.139702e-001 7.932016e-002 4.019718e-001 1.205180e-001 2.605861e-001 3.248120e-001 -1.392256e-001 -7.927825e-002 3.712922e-001 -4.295770e-001
<VARIANCE> 25
 1.572055e+001 4.757244e+001 4.397041e+001 9.109889e+001 7.067632e+001 7.678565e+001 4.987381e+001 6.508370e+001 6.462034e+001 5.111603e+001 3.461982e+001 3.125119e+001 5.731447e-001 2.062193e+000 2.023422e+000 5.339458e+000 4.011190e+000 3.928492e+000 3.629379e+000 3.478144e+000 3.604157e+000 3.283511e+000 2.321320e+000 2.181918e+000 1.338279e+000
<GCONST> 1.048577e+002
<STATE> 3
<MEAN> 25
 3.983002e+000 1.645453e+000 -4.304588e+000 -3.914401e+000 -6.740991e-001 -1.550034e+000 1.866327e+000 2.720459e+000 2.453999e+000 -4.045881e+000 -1.194653e+000 1.040319e+000 -5.075741e-001 6.850122e-001 5.022276e-001 -2.744994e-001 8.618132e-002 5.633665e-001 -1.392613e-002 5.466713e-001 -8.110362e-002 -5.091978e-001 -5.026175e-003 2.898645e-001 -6.157746e-001
<VARIANCE> 25
 2.529815e+001 6.900085e+001 3.066769e+001 5.723878e+001 5.324892e+001 5.904351e+001 6.897867e+001 7.309696e+001 4.106110e+001 3.525468e+001 4.013445e+001 2.402554e+001 8.754019e-001 1.908580e+000 1.399502e+000 5.447552e+000 3.474053e+000 2.736747e+000 3.437249e+000 2.862280e+000 3.589159e+000 2.736009e+000 2.305876e+000 3.345515e+000 1.367500e+000
<GCONST> 1.033335e+002
<STATE> 4
<MEAN> 25
 -4.511679e-001 6.883505e+000 -6.954098e-001 -2.275116e+000 -8.836845e-001 2.515326e+000 1.915212e+000 1.933872e+000 1.537237e+000 -3.889824e+000 1.048154e+000 3.316711e+000 -1.480373e-001 2.849533e-002 2.639588e-001 2.455047e-001 -7.555502e-003 -6.381078e-003 -8.933657e-002 1.610934e-001 -4.339448e-002 -2.033558e-002 3.445983e-003 7.238636e-003 -8.463617e-002
<VARIANCE> 25
 1.097771e+001 7.140462e+001 2.158463e+001 6.477154e+001 2.337094e+001 4.657957e+001 3.032893e+001 4.724383e+001 3.082060e+001 2.782059e+001 3.414733e+001 3.197924e+001 2.141527e-001 5.404381e-001 9.690859e-001 9.687176e-001 1.387418e+000 2.601226e+000 1.930685e+000 2.802559e+000 1.886636e+000 1.652032e+000 1.808109e+000 1.849753e+000 1.542466e-001
<GCONST> 8.909096e+001
<TRANSP> 5
 0.000000e+000 1.000000e+000 0.000000e+000 0.000000e+000 0.000000e+000
 0.000000e+000 7.568772e-001 2.431227e-001 0.000000e+000 0.000000e+000
 0.000000e+000 0.000000e+000 5.872430e-001 4.127570e-001 0.000000e+000
 0.000000e+000 0.000000e+000 0.000000e+000 8.716272e-001 1.283728e-001
 0.000000e+000 0.000000e+000 0.000000e+000 0.000000e+000 0.000000e+000
<ENDHMM>
~h "m"
<BEGINHMM>
<NUMSTATES> 5
<STATE> 2
<MEAN> 25
 2.888916e+000 3.066312e+000 -1.992427e+000 -2.733841e+000 1.906282e+000 2.923920e+000 -1.554350e+000 -2.581561e+000 -7.304248e-001 -2.415677e+000 -1.661759e+000 -7.522563e-001 -1.898970e-001 1.106155e+000 5.503689e-001 4.783851e-001 2.486817e-002 1.579464e-001 -2.138325e-001 5.862179e-002 -1.258069e-001 -1.621200e-001 -1.388719e-001 -7.630502e-004 -7.370401e-001
<VARIANCE> 25
 2.126539e+001 7.203407e+001 6.029672e+001 9.305003e+001 6.374540e+001 4.521744e+001 5.315084e+001 3.906818e+001 3.636391e+001 3.450392e+001 3.133920e+001 2.671257e+001 9.331650e-001 2.871140e+000 2.630121e+000 6.514144e+000 3.652860e+000 2.737346e+000 3.268938e+000 3.026777e+000 2.787392e+000 3.301298e+000 2.408721e+000 2.436715e+000 1.072469e+000
<GCONST> 1.038632e+002
<STATE> 3
<MEAN> 25
 4.663219e+000 4.768164e+000 2.454163e+000 2.131011e+000 1.196391e+000 -1.401258e+000 -2.663348e+000 -2.782997e+000 -3.307128e+000 -4.991510e+000 -4.321338e+000 -3.127716e+000 -2.203841e-001 1.506375e-001 2.626471e-001 3.930652e-001 -8.039861e-002 2.312204e-002 1.561317e-001 3.086398e-001 2.416707e-001 1.704966e-001 1.200678e-001 5.461849e-002 -3.174962e-001
<VARIANCE> 25
 1.690355e+001 3.220957e+001 2.194552e+001 4.696653e+001 4.500918e+001 2.734907e+001 5.187213e+001 4.835262e+001 2.993925e+001 2.328303e+001 2.618178e+001 2.780507e+001 2.596498e-001 5.572088e-001 7.622036e-001 1.443785e+000 1.269252e+000 1.138251e+000 1.581426e+000 1.550678e+000 1.496057e+000 1.455747e+000 1.436462e+000 1.192279e+000 2.225800e-001
<GCONST> 8.650610e+001
<STATE> 4
<MEAN> 25
 -1.713568e+000 5.432292e+000 1.542835e+000 2.010222e+000 1.320997e-001 1.180274e+000 2.860149e-001 2.555876e+000 2.147990e+000 1.729098e-002 9.389436e-001 6.291217e-001 -4.585815e-002 1.200039e-002 5.612287e-002 4.797393e-002 -2.442634e-002 -2.057245e-002 -5.103320e-003 2.193567e-003 3.953499e-002 6.715529e-002 3.936815e-002 -7.329006e-004 -3.038899e-002
<VARIANCE> 25
 1.134015e+001 5.519635e+001 1.298513e+001 3.367430e+001 1.846323e+001 1.761239e+001 2.463939e+001 1.635019e+001 2.118975e+001 2.425675e+001 1.611908e+001 1.751891e+001 1.354736e-001 3.081895e-001 6.260946e-001 8.145568e-001 1.059886e+000 1.296950e+000 1.340075e+000 1.426915e+000 1.579184e+000 1.667534e+000 1.339511e+000 1.224199e+000 7.170351e-002
<GCONST> 7.807984e+001
<TRANSP> 5
 0.000000e+000 1.000000e+000 0.000000e+000 0.000000e+000 0.000000e+000
 0.000000e+000 7.125155e-001 2.874845e-001 0.000000e+000 0.000000e+000
 0.000000e+000 0.000000e+000 7.805927e-001 2.194073e-001 0.000000e+000
 0.000000e+000 0.000000e+000 0.000000e+000 9.568619e-001 4.313800e-002
 0.000000e+000 0.000000e+000 0.000000e+000 0.000000e+000 0.000000e+000
<ENDHMM>
~h "n"
<BEGINHMM>
<NUMSTATES> 5
<STATE> 2
<MEAN> 25
 5.119094e+000 2.438854e+000 3.320136e-001 -2.211922e+000 -1.543184e+000 -2.642201e+000 -3.297509e+000 -2.484068e+000 -4.423176e+000 -3.926055e+000 -8.772148e-001 1.199316e+000 -1.958981e-001 9.995773e-001 1.821292e-001 6.458910e-001 1.410157e-001 4.577899e-001 -2.161202e-001 -2.575492e-001 1.519353e-001 3.901322e-001 -2.427515e-001 1.481091e-001 -9.268721e-001
<VARIANCE> 25
 2.414843e+001 4.767511e+001 3.851991e+001 7.446699e+001 7.173310e+001 6.558070e+001 4.148314e+001 3.127626e+001 4.188007e+001 4.799757e+001 4.482367e+001 3.136314e+001 8.228973e-001 2.450787e+000 1.976492e+000 4.915478e+000 2.189556e+000 3.714608e+000 2.742416e+000 3.099473e+000 3.274183e+000 3.079633e+000 3.452760e+000 2.137960e+000 1.418405e+000
<GCONST> 1.033065e+002
<STATE> 3
<MEAN> 25
 3.358265e+000 4.969409e+000 4.859957e-001 2.134174e+000 1.641783e+000 -4.583803e-001 -2.741841e+000 -3.394071e+000 -3.127659e+000 -3.491164e+000 -1.576075e+000 9.617197e-001 -4.321978e-001 2.237429e-001 2.874867e-001 5.271180e-001 4.392911e-003 4.051521e-001 1.413761e-001 3.781150e-001 4.064542e-001 1.580604e-001 4.122922e-002 -1.693914e-001 -5.082878e-001
<VARIANCE> 25
 1.954302e+001 3.633266e+001 2.301966e+001 4.644272e+001 3.836598e+001 3.140462e+001 2.677556e+001 2.561555e+001 2.751102e+001 2.699632e+001 3.159973e+001 3.005255e+001 3.745396e-001 9.208898e-001 1.200041e+000 1.838534e+000 1.660484e+000 1.963087e+000 1.826969e+000 1.907792e+000 1.860095e+000 2.207730e+000 2.117489e+000 1.579273e+000 3.272874e-001
<GCONST> 9.023798e+001
<STATE> 4
<MEAN> 25
 -3.099307e+000 5.448489e+000 1.693391e+000 2.575364e+000 2.138121e+000 1.617687e+000 1.411423e+000 2.819908e+000 2.729694e+000 9.854111e-001 1.704906e+000 4.952421e-001 -5.471638e-002 6.576957e-003 4.503428e-002 7.864297e-002 1.777613e-002 1.131600e-002 3.204756e-002 5.809510e-002 6.820755e-002 7.929946e-002 3.817138e-002 -2.046608e-002 -3.488927e-002
<VARIANCE> 25
 1.347444e+001 4.479485e+001 9.034873e+000 2.940743e+001 1.587971e+001 1.625150e+001 2.869255e+001 1.828802e+001 2.083090e+001 2.471710e+001 1.702999e+001 1.625723e+001 1.422976e-001 3.059434e-001 5.654727e-001 7.131168e-001 9.229086e-001 1.253601e+000 1.329733e+000 1.318063e+000 1.509005e+000 1.532882e+000 1.319321e+000 1.232084e+000 7.126345e-002
<GCONST> 7.696331e+001
<TRANSP> 5
 0.000000e+000 1.000000e+000 0.000000e+000 0.000000e+000 0.000000e+000
 0.000000e+000 6.943603e-001 3.056396e-001 0.000000e+000 0.000000e+000
 0.000000e+000 0.000000e+000 6.729814e-001 3.270186e-001 0.000000e+000
 0.000000e+000 0.000000e+000 0.000000e+000 9.517691e-001 4.823098e-002
 0.000000e+000 0.000000e+000 0.000000e+000 0.000000e+000 0.000000e+000
<ENDHMM>
~h "p"
<BEGINHMM>
<NUMSTATES> 5
<STATE> 2
<MEAN> 25
 1.388966e+000 1.578400e+000 -3.159104e+000 2.928681e-001 -1.937846e+000 8.698840e-001 -3.956271e-001 1.696483e+000 3.288804e-001 1.997140e+000 1.455175e+000 4.551261e-001 4.100962e-001 -1.317632e+000 -8.530761e-002 -1.826674e+000 3.564763e-001 -5.598547e-001 1.227203e+000 -3.080392e-001 9.561280e-002 -2.570397e-002 -2.217461e-001 -3.517482e-001 2.480217e+000
<VARIANCE> 25
 3.961325e+001 7.085275e+001 3.895886e+001 6.459978e+001 3.977786e+001 4.667626e+001 5.424155e+001 4.871840e+001 4.730529e+001 4.094496e+001 2.877644e+001 1.771881e+001 5.888273e+000 5.438164e+000 4.676461e+000 8.395029e+000 4.917492e+000 5.948993e+000 4.765797e+000 5.807996e+000 5.211558e+000 5.163494e+000 3.288091e+000 2.543405e+000 1.117199e+001
<GCONST> 1.125895e+002
<STATE> 3
<MEAN> 25
 2.524864e+000 -2.775140e+000 -3.707034e+000 -7.893273e+000 1.893109e+000 5.416053e-001 2.856535e+000 -3.618772e+000 -2.001956e-001 -2.209270e+000 -2.503586e-001 8.987281e-001 -3.860784e-001 3.973183e-002 1.941874e-001 5.085344e-001 3.297509e-001 -2.018479e-002 2.125357e-001 1.931994e-002 8.177261e-002 -7.916315e-002 1.611135e-001 3.626980e-002 -3.356290e-002
<VARIANCE> 25
 1.550044e+001 9.013857e+001 2.916489e+001 5.094393e+001 3.842760e+001 2.810138e+001 3.572454e+001 4.218250e+001 4.138606e+001 2.687398e+001 2.771678e+001 2.152609e+001 8.682175e-001 1.672233e+000 1.670996e+000 3.365024e+000 2.377569e+000 2.158449e+000 2.421661e+000 2.899454e+000 2.240607e+000 2.703731e+000 1.854641e+000 1.553839e+000 1.940943e+000
<GCONST> 9.740780e+001
<STATE> 4
<MEAN> 25
 -4.026483e+000 1.643292e+000 7.090492e-001 2.946025e+000 1.901191e+000 1.760689e+000 3.986057e+000 2.890307e+000 3.088548e+000 2.960098e+000 2.895848e+000 -2.501475e-001 -7.431594e-002 1.855977e-003 1.468016e-002 3.722167e-002 -1.756560e-002 7.364457e-003 3.133640e-002 6.343232e-002 5.010398e-002 6.897099e-002 3.701522e-002 1.252544e-004 6.515002e-003
<VARIANCE> 25
 1.042818e+001 1.358410e+001 9.045476e+000 1.301104e+001 1.308668e+001 1.256246e+001 1.513448e+001 1.557036e+001 1.639997e+001 1.896903e+001 1.441283e+001 1.341153e+001 2.333922e-001 3.398244e-001 5.713801e-001 7.506073e-001 9.837332e-001 1.021127e+000 1.233482e+000 1.335620e+000 1.336015e+000 1.546870e+000 1.314970e+000 1.158409e+000 1.457279e-001
<GCONST> 7.358096e+001
<TRANSP> 5
 0.000000e+000 1.000000e+000 0.000000e+000 0.000000e+000 0.000000e+000
 0.000000e+000 6.367123e-001 3.632877e-001 0.000000e+000 0.000000e+000
 0.000000e+000 0.000000e+000 7.138365e-001 2.861635e-001 0.000000e+000
 0.000000e+000 0.000000e+000 0.000000e+000 9.572299e-001 4.277012e-002
 0.000000e+000 0.000000e+000 0.000000e+000 0.000000e+000 0.000000e+000
<ENDHMM>
~h "r"
<BEGINHMM>
<NUMSTATES> 5
<STATE> 2
<MEAN> 25
 8.008406e+000 -1.015854e+001 -3.571687e+000 -1.626059e+000 -7.507873e+000 -1.679009e+000 3.081676e+000 2.103944e+000 1.461815e-001 -3.125993e+000 -3.265485e+000 2.085578e-002 -1.947480e-001 -8.792975e-001 6.884351e-001 1.285569e-001 -5.607948e-001 4.151839e-001 4.543485e-001 5.239693e-001 -5.016246e-001 7.051022e-002 7.517860e-002 7.207030e-001 1.810461e-001
<VARIANCE> 25
 1.543121e+001 4.793977e+001 2.964793e+001 4.896320e+001 6.472778e+001 2.461356e+001 5.680355e+001 3.963175e+001 4.265703e+001 4.289005e+001 3.574562e+001 3.660713e+001 1.120089e+000 3.757264e+000 3.116752e+000 5.180117e+000 6.022503e+000 2.656688e+000 5.992941e+000 5.085907e+000 4.177564e+000 3.676054e+000 3.540916e+000 3.239198e+000 1.715769e+000
<GCONST> 1.057344e+002
<STATE> 3
<MEAN> 25
 3.949300e+000 -1.085909e+001 2.896888e+000 -7.803868e+000 -1.057644e+001 -2.456911e+000 9.799152e+000 1.664638e+000 -4.986300e+000 3.069025e+000 -3.066534e+000 -1.352246e+000 -5.492738e-001 6.255955e-001 3.398600e-001 -4.903019e-001 5.348445e-001 -2.791138e-001 6.955253e-001 -8.763631e-001 -3.797377e-001 5.305730e-001 -3.124662e-002 -1.180466e-001 -8.842582e-002
<VARIANCE> 25
 1.305839e+001 4.440684e+001 3.258261e+001 4.709338e+001 5.914316e+001 2.468377e+001 7.274765e+001 3.836665e+001 4.564739e+001 5.473214e+001 3.253814e+001 1.760088e+001 8.754241e-001 1.789293e+000 1.420472e+000 2.499836e+000 2.241790e+000 1.839464e+000 3.771054e+000 2.540446e+000 3.703278e+000 2.861395e+000 2.785967e+000 1.945310e+000 5.876538e-001
<GCONST> 9.795107e+001
<STATE> 4
<MEAN> 25
 4.702014e+000 -1.373802e+001 -6.484709e+000 4.850574e+000 1.352134e+000 -1.927033e+000 3.939235e+000 -2.021572e+000 -3.511037e+000 4.918455e+000 1.540099e+000 -3.379069e+000 -1.791014e-001 7.569424e-001 -2.384338e-003 2.946040e-001 2.714010e-001 3.440381e-002 -1.069163e-001 -3.333547e-001 7.070651e-002 4.492910e-002 -9.665415e-002 5.584370e-002 -5.541703e-001
<VARIANCE> 25
 2.149665e+001 8.936397e+001 7.852908e+001 1.215293e+002 1.155177e+002 4.750319e+001 1.585053e+002 5.952461e+001 6.247748e+001 5.644352e+001 8.294700e+001 4.279897e+001 5.247402e-001 2.464777e+000 2.065189e+000 4.466033e+000 3.867835e+000 3.091812e+000 5.416030e+000 4.622742e+000 2.232401e+000 3.280300e+000 4.342523e+000 2.700421e+000 7.663590e-001
<GCONST> 1.091439e+002
<TRANSP> 5
 0.000000e+000 1.000000e+000 0.000000e+000 0.000000e+000 0.000000e+000
 0.000000e+000 7.602524e-001 2.397477e-001 0.000000e+000 0.000000e+000
 0.000000e+000 0.000000e+000 7.745466e-001 2.254534e-001 0.000000e+000
 0.000000e+000 0.000000e+000 0.000000e+000 8.107033e-001 1.892966e-001
 0.000000e+000 0.000000e+000 0.000000e+000 0.000000e+000 0.000000e+000
<ENDHMM>
~h "s"
<BEGINHMM>
<NUMSTATES> 5
<STATE> 2
<MEAN> 25
 -6.627842e+000 4.138815e+000 -2.426977e+000 3.614452e+000 -1.251052e+000 -3.713072e-001 4.068187e+000 2.291886e-001 -3.149121e+000 4.819778e-001 2.289482e+000 -6.484851e-001 -1.022474e+000 1.146465e-001 1.670708e-001 -1.562371e-001 -3.208018e-002 1.886412e-001 3.333482e-001 -1.053479e-001 -2.986531e-002 4.738004e-001 4.632866e-001 -1.149032e-001 4.282703e-001
<VARIANCE> 25
 3.258767e+001 5.484517e+001 3.337217e+001 4.947158e+001 3.276349e+001 4.461899e+001 4.042895e+001 3.152979e+001 5.135824e+001 3.509355e+001 2.321319e+001 2.367269e+001 2.230421e+000 3.443189e+000 3.559527e+000 2.582047e+000 2.069414e+000 3.431285e+000 2.490987e+000 3.076840e+000 3.313137e+000 2.614364e+000 2.487650e+000 2.113711e+000 1.461181e+000
<GCONST> 1.015399e+002
<STATE> 3
<MEAN> 25
 -1.273352e+001 -2.070910e+000 6.389254e+000 -6.863656e+000 -1.187020e+000 1.583099e+000 5.184522e+000 -4.472496e+000 -4.744510e-001 2.999959e+000 5.523071e+000 -1.241398e-001 1.143219e-001 -4.302803e-001 4.987658e-001 -6.697891e-001 -2.816688e-002 -4.517492e-001 -5.931645e-001 -2.029015e-001 1.911086e-001 -5.068994e-002 -2.649325e-001 8.509912e-002 2.493032e-001
<VARIANCE> 25
 3.421774e+001 1.099257e+002 1.477460e+002 1.553325e+002 3.694719e+001 7.145560e+001 5.938675e+001 8.930724e+001 7.987774e+001 3.206535e+001 2.285773e+001 3.352181e+001 4.490390e+000 1.822206e+000 3.065872e+000 3.337634e+000 2.631660e+000 2.891913e+000 2.985463e+000 3.699828e+000 2.597979e+000 2.246895e+000 2.046197e+000 2.169062e+000 8.651479e-001
<GCONST> 1.071339e+002
<STATE> 4
<MEAN> 25
 -5.563220e+000 -6.635014e+000 6.395414e+000 -2.630653e+000 1.580622e+000 -3.949302e-001 -1.647497e+000 -4.787115e-001 -1.166441e+000 3.337260e+000 7.680405e-001 -1.120562e+000 2.078969e+000 -2.653422e-002 -7.461979e-002 -5.525157e-001 -6.397550e-001 -6.305188e-001 -1.104324e+000 6.381025e-002 -2.247480e-001 -1.061393e+000 -1.469712e+000 -1.041341e-001 1.918658e-001
<VARIANCE> 25
 5.787041e+001 2.073387e+002 1.248089e+002 1.686176e+002 1.126774e+002 7.501092e+001 7.791824e+001 6.815152e+001 4.825803e+001 5.994442e+001 3.321658e+001 4.609581e+001 6.371062e+000 3.897725e+000 7.003612e+000 1.034013e+001 7.574655e+000 5.620065e+000 6.562391e+000 6.912819e+000 5.304219e+000 5.801094e+000 4.647391e+000 5.109764e+000 1.632856e+000
<GCONST> 1.203621e+002
<TRANSP> 5
 0.000000e+000 1.000000e+000 0.000000e+000 0.000000e+000 0.000000e+000
 0.000000e+000 8.250746e-001 1.749254e-001 0.000000e+000 0.000000e+000
 0.000000e+000 0.000000e+000 7.366005e-001 2.633995e-001 0.000000e+000
 0.000000e+000 0.000000e+000 0.000000e+000 6.740739e-001 3.259260e-001
 0.000000e+000 0.000000e+000 0.000000e+000 0.000000e+000 0.000000e+000
<ENDHMM>
~h "t"
<BEGINHMM>
<NUMSTATES> 5
<STATE> 2
<MEAN> 25
 2.458697e+000 5.335962e+000 2.338980e+000 6.296023e+000 -4.911131e-001 1.593178e-001 -5.502275e+000 -1.798093e+000 -2.884028e+000 -2.648183e+000 -2.773891e+000 -2.914101e+000 -8.001764e-001 -1.533563e+000 5.588843e-001 -6.276044e-001 1.750906e-001 -4.947636e-001 6.383740e-001 1.698275e-001 -7.423313e-001 6.349319e-001 3.865892e-001 -3.820076e-001 1.122327e+000
<VARIANCE> 25
 4.399265e+001 1.312339e+002 5.529330e+001 5.628627e+001 4.198544e+001 7.723976e+001 6.354355e+001 4.951473e+001 5.869959e+001 3.971521e+001 4.289791e+001 4.684043e+001 3.140964e+000 1.192779e+001 3.384112e+000 6.143000e+000 6.657919e+000 9.303927e+000 7.091336e+000 6.108253e+000 4.806065e+000 6.146435e+000 3.136868e+000 2.779170e+000 7.481804e+000
<GCONST> 1.162652e+002
<STATE> 3
<MEAN> 25
 -1.463940e-001 -4.703472e-001 1.060015e+000 -5.393052e-001 -3.487232e+000 -1.998717e+000 1.518392e+000 4.587317e-001 -4.276801e+000 1.546162e+000 4.382934e-001 -7.079545e-001 -1.884056e-001 -2.041729e+000 8.338248e-001 -2.471797e+000 -5.900630e-001 -1.040940e+000 7.006748e-001 -8.658311e-001 4.464149e-002 8.669458e-001 6.357535e-002 -2.632123e-001 3.140821e+000
<VARIANCE> 25
 2.607170e+001 6.992179e+001 6.539834e+001 3.603237e+001 7.955122e+001 5.508149e+001 6.874020e+001 4.943566e+001 6.451103e+001 5.867650e+001 3.706685e+001 4.776109e+001 2.885733e+000 1.127806e+001 8.457496e+000 8.282065e+000 7.630058e+000 8.849505e+000 1.065196e+001 5.960640e+000 6.979790e+000 8.951462e+000 4.599053e+000 4.892250e+000 9.661323e+000
<GCONST> 1.190657e+002
<STATE> 4
<MEAN> 25
 5.272688e-001 -6.742040e+000 6.099869e-001 -1.267117e+000 -2.070634e+000 -1.925728e+000 7.109659e+000 -1.510582e+000 -3.227416e+000 4.839048e-001 8.636282e-001 1.504354e+000 4.279381e-002 -1.249462e-001 -3.518857e-002 -7.596147e-001 1.317370e-001 1.726483e-001 -2.292110e-001 -3.323301e-001 4.064423e-001 1.204489e-001 -1.216306e-001 2.804321e-001 4.491152e-001
<VARIANCE> 25
 2.740294e+001 1.308080e+002 6.822530e+001 7.133891e+001 1.083524e+002 6.970599e+001 1.209528e+002 5.102408e+001 6.753027e+001 8.188393e+001 4.057434e+001 5.599657e+001 1.029015e+000 4.286498e+000 3.895640e+000 7.513865e+000 4.712753e+000 5.461493e+000 6.094810e+000 4.117898e+000 5.122819e+000 3.697548e+000 3.310083e+000 3.313821e+000 3.344708e+000
<GCONST> 1.145005e+002
<TRANSP> 5
 0.000000e+000 1.000000e+000 0.000000e+000 0.000000e+000 0.000000e+000
 0.000000e+000 5.756202e-001 4.243798e-001 0.000000e+000 0.000000e+000
 0.000000e+000 0.000000e+000 4.415739e-001 5.584260e-001 0.000000e+000
 0.000000e+000 0.000000e+000 0.000000e+000 6.871134e-001 3.128866e-001
 0.000000e+000 0.000000e+000 0.000000e+000 0.000000e+000 0.000000e+000
<ENDHMM>
~h "w"
<BEGINHMM>
<NUMSTATES> 5
<STATE> 2
<MEAN> 25
 5.512337e+000 7.553836e+000 8.269700e+000 -6.705707e+000 -7.489314e-001 -4.432943e+000 -5.808945e+000 -1.357257e+000 -7.000142e+000 -2.142725e+000 -5.598819e+000 -2.398120e+000 1.299377e-001 2.052073e-001 -2.295730e-001 -2.346362e-001 -5.908416e-002 -4.151692e-001 9.490294e-002 5.049965e-001 -2.221593e-002 1.115467e-001 2.326335e-001 6.671102e-002 -2.296615e-002
<VARIANCE> 25
 1.531671e+001 1.667312e+001 5.095313e+001 9.747894e+001 3.562291e+001 3.447085e+001 2.396121e+001 4.868911e+001 3.723426e+001 7.345847e+001 3.005723e+001 2.964563e+001 1.557750e-001 6.554518e-001 1.365558e+000 1.931324e+000 1.211843e+000 1.384871e+000 1.689026e+000 1.546646e+000 1.306526e+000 4.329449e+000 1.331364e+000 1.224433e+000 5.542803e-001
<GCONST> 9.067897e+001
<STATE> 3
<MEAN> 25
 6.536689e+000 1.631293e+000 -1.059761e-002 -1.631170e+001 3.103971e+000 -7.862294e+000 3.258829e-001 2.688909e+000 -4.724597e+000 -7.986891e-002 3.132706e+000 -1.775762e+000 -4.245478e-001 -1.768526e+000 -5.151162e-001 -1.870973e-001 8.229175e-001 6.742778e-001 1.267282e+000 -1.015833e+000 9.082978e-001 -2.715024e-001 5.466728e-002 -5.155391e-001 1.132941e+000
<VARIANCE> 25
 1.317729e+001 5.377873e+001 3.331948e+001 2.300336e+001 4.606550e+001 5.705844e+001 3.293507e+001 4.452566e+001 4.882790e+001 1.227154e+002 4.274931e+001 3.836809e+001 3.999544e-001 1.630778e+000 1.394671e+000 3.653814e+000 1.186038e+000 1.221086e+000 2.853170e+000 1.759228e+000 3.967682e+000 5.588680e+000 8.491966e+000 5.082256e+000 1.101966e+000
<GCONST> 1.005632e+002
<STATE> 4
<MEAN> 25
 1.217260e-001 1.098321e+000 1.895293e+000 -5.903212e+000 5.795938e+000 -1.684074e+000 5.066489e-001 3.331294e+000 -2.408816e+000 -2.332371e+000 5.525618e+000 -2.420667e+000 8.495323e-002 -4.323601e-001 -9.395164e-002 1.535113e-001 -7.514372e-002 2.147661e-002 5.635976e-002 -5.199708e-002 -2.565283e-001 -6.346546e-003 1.554445e-001 -4.603694e-002 1.863128e-001
<VARIANCE> 25
 2.211887e+001 2.396268e+002 1.650921e+001 1.730123e+001 8.466011e+001 3.260313e+001 1.341237e+002 6.703000e+001 1.217255e+002 4.945270e+001 5.614558e+001 1.377119e+002 3.432587e-001 4.625046e+000 1.338365e+000 8.742357e-001 2.710505e+000 2.462570e+000 3.103264e+000 3.130342e+000 4.793856e+000 3.451886e+000 3.749301e+000 2.924323e+000 1.116158e+000
<GCONST> 1.049620e+002
<TRANSP> 5
 0.000000e+000 1.000000e+000 0.000000e+000 0.000000e+000 0.000000e+000
 0.000000e+000 9.166458e-001 8.335420e-002 0.000000e+000 0.000000e+000
 0.000000e+000 0.000000e+000 8.314083e-001 1.685917e-001 0.000000e+000
 0.000000e+000 0.000000e+000 0.000000e+000 9.286895e-001 7.131053e-002
 0.000000e+000 0.000000e+000 0.000000e+000 0.000000e+000 0.000000e+000
<ENDHMM>
~h "y"
<BEGINHMM>
<NUMSTATES> 5
<STATE> 2
<MEAN> 25
 -2.710435e+000 -9.321399e+000 8.695014e+000 -1.170092e+001 2.315099e+000 -2.193202e+000 2.277959e+000 -6.215113e+000 8.396818e-001 2.547030e+000 -1.345677e+000 1.577669e+000 -3.904301e-001 5.282549e-001 1.312173e+000 -5.790838e-001 -3.634690e-001 -3.398796e-001 -1.525665e+000 -6.275759e-001 5.162791e-001 9.068303e-001 8.130293e-002 3.126726e-002 -3.822058e-002
<VARIANCE> 25
 8.462791e+001 1.821761e+002 8.931103e+001 9.234068e+001 1.558622e+002 5.074425e+001 1.188163e+002 4.317958e+001 5.725973e+001 6.480231e+001 3.893873e+001 4.204504e+001 3.241315e+000 6.439166e+000 5.332048e+000 7.082308e+000 6.050066e+000 3.975686e+000 9.219746e+000 4.621174e+000 4.793080e+000 6.361064e+000 3.979682e+000 4.784681e+000 1.852802e+000
<GCONST> 1.183288e+002
<STATE> 3
<MEAN> 25
 -8.933790e-001 -2.529077e+000 6.924269e+000 -1.457016e+001 -4.147418e+000 -5.286750e+000 4.000493e+000 -5.636552e+000 3.185766e+000 3.095339e+000 9.425929e-003 1.594994e+000 1.666366e-001 -9.777206e-001 -1.027390e+000 3.126797e-001 6.798992e-001 1.350588e-001 1.061938e+000 5.940398e-001 8.064088e-002 -7.590711e-001 7.409719e-002 -4.782735e-001 4.260813e-001
<VARIANCE> 25
 9.162819e+000 5.146372e+001 4.552900e+001 5.020146e+001 4.512043e+001 2.662057e+001 9.121755e+001 3.737982e+001 4.373606e+001 4.757534e+001 2.504530e+001 3.996112e+001 3.751959e-001 2.719088e+000 4.159399e+000 2.698839e+000 5.786634e+000 2.310753e+000 6.959751e+000 3.298463e+000 2.842333e+000 3.848958e+000 2.171828e+000 3.018256e+000 6.450438e-001
<GCONST> 1.016110e+002
<STATE> 4
<MEAN> 25
 2.403228e+000 -9.495800e+000 1.024502e+001 4.169940e+000 -3.011532e+000 -7.726538e+000 -8.277106e+000 -1.633880e+000 -2.476461e+000 -2.154559e-001 -1.856505e+000 -7.201332e+000 1.414865e-001 -7.671171e-002 -4.709693e-001 4.038577e-002 7.228288e-002 -7.647817e-002 2.252953e-001 1.367159e-001 7.687023e-002 -1.721069e-001 -4.531910e-002 1.866379e-001 -3.569728e-002
<VARIANCE> 25
 1.564590e+001 1.530323e+002 8.336002e+001 1.697988e+002 1.651560e+002 8.402759e+001 9.328907e+001 6.739134e+001 6.309950e+001 6.895197e+001 6.010124e+001 3.735935e+001 3.835063e-001 2.113957e+000 2.987826e+000 4.124571e+000 3.008055e+000 2.374459e+000 4.778172e+000 3.515451e+000 2.395499e+000 3.886875e+000 2.190169e+000 2.711933e+000 6.739155e-001
<GCONST> 1.083717e+002
<TRANSP> 5
 0.000000e+000 1.000000e+000 0.000000e+000 0.000000e+000 0.000000e+000
 0.000000e+000 6.875491e-001 3.124509e-001 0.000000e+000 0.000000e+000
 0.000000e+000 0.000000e+000 7.918189e-001 2.081811e-001 0.000000e+000
 0.000000e+000 0.000000e+000 0.000000e+000 8.619027e-001 1.380974e-001
 0.000000e+000 0.000000e+000 0.000000e+000 0.000000e+000 0.000000e+000
<ENDHMM>
~h "aa"
<BEGINHMM>
<NUMSTATES> 5
<STATE> 2
<MEAN> 25
 2.397985e+000 -5.443049e+000 -1.123901e+000 -2.271946e+000 2.232320e-002 -2.167316e+000 1.428094e+000 -1.001425e+000 -3.702119e-001 -1.153187e+000 -7.002465e-001 -5.772650e-001 7.484117e-001 -1.608789e+000 -1.070333e+000 -7.505466e-001 5.597898e-001 1.641087e-001 4.619772e-001 -3.939440e-001 -4.224637e-001 -5.023810e-001 -4.050767e-001 5.817429e-002 1.275341e+000
<VARIANCE> 25
 2.892002e+001 1.186260e+002 5.944143e+001 9.356701e+001 7.527509e+001 4.601979e+001 9.062193e+001 5.243306e+001 5.203215e+001 5.446426e+001 5.555312e+001 3.806352e+001 2.259495e+000 6.161968e+000 3.595466e+000 6.192843e+000 5.798883e+000 4.632840e+000 7.065019e+000 5.538011e+000 4.585011e+000 5.053979e+000 4.842666e+000 3.199389e+000 2.811457e+000
<GCONST> 1.145449e+002
<STATE> 3
<MEAN> 25
 4.881231e+000 -9.743840e+000 -6.174259e+000 -2.309854e+000 2.946132e+000 1.957222e+000 5.242105e+000 -2.799888e+000 -2.680911e+000 -2.129493e+000 -1.056484e+000 1.525489e-001 3.316259e-001 4.059534e-001 -1.545938e-001 4.724309e-001 -1.402973e-001 2.274568e-001 -4.830080e-001 -4.140210e-002 -3.679740e-001 -1.335644e-001 -1.859864e-001 5.911040e-002 -5.834227e-001
<VARIANCE> 25
 2.372114e+001 1.322801e+002 3.873255e+001 7.539815e+001 5.558739e+001 4.827159e+001 6.826172e+001 5.406243e+001 5.016050e+001 4.799254e+001 4.761464e+001 4.453519e+001 8.864554e-001 2.594923e+000 1.925623e+000 3.137570e+000 3.002087e+000 2.681282e+000 3.885579e+000 3.944890e+000 2.912381e+000 3.204534e+000 3.158697e+000 2.613566e+000 1.568319e+000
<GCONST> 1.057731e+002
<STATE> 4
<MEAN> 25
 7.067500e+000 -7.232864e+000 -5.692333e+000 -2.904392e+000 -2.757604e-002 -9.796486e-001 -5.351776e-001 -3.179143e+000 -4.137121e+000 -4.015641e+000 -2.666316e+000 1.110262e+000 -1.611993e-001 6.342171e-001 1.996512e-001 1.398623e-001 -2.048919e-001 -9.054889e-002 -1.137095e-001 2.826208e-002 1.354416e-002 3.248746e-002 1.528341e-001 -2.470899e-002 -4.712056e-001
<VARIANCE> 25
 2.556680e+001 9.825895e+001 3.171233e+001 6.792324e+001 4.552305e+001 4.300239e+001 7.605305e+001 3.791444e+001 4.260809e+001 6.482358e+001 5.002411e+001 3.638651e+001 3.164222e-001 1.172520e+000 9.990795e-001 1.407419e+000 1.768761e+000 1.775556e+000 2.029780e+000 1.994482e+000 1.530749e+000 2.025486e+000 1.984649e+000 1.563901e+000 3.753489e-001
<GCONST> 9.560387e+001
<TRANSP> 5
 0.000000e+000 1.000000e+000 0.000000e+000 0.000000e+000 0.000000e+000
 0.000000e+000 7.063220e-001 2.936780e-001 0.000000e+000 0.000000e+000
 0.000000e+000 0.000000e+000 7.773936e-001 2.226064e-001 0.000000e+000
 0.000000e+000 0.000000e+000 0.000000e+000 8.593266e-001 1.406734e-001
 0.000000e+000 0.000000e+000 0.000000e+000 0.000000e+000 0.000000e+000
<ENDHMM>
~h "ao"
<BEGINHMM>
<NUMSTATES> 5
<STATE> 2
<MEAN> 25
 5.775755e+000 1.505780e+000 -4.509124e+000 -9.182290e+000 3.360091e+000 -2.665003e+000 -1.034543e+000 -3.127999e+000 -4.449945e+000 4.696604e+000 -1.471223e+000 -3.815892e+000 6.780171e-001 -2.845218e-001 3.974654e-001 -2.829144e+000 -1.140246e+000 -1.319619e+000 9.783185e-001 -8.193709e-002 1.304614e-001 4.879001e-001 -3.977605e-001 -1.158278e+000 1.405616e+000
<VARIANCE> 25
 1.499848e+001 4.101305e+001 5.711301e+001 5.954791e+001 1.095783e+002 4.973116e+001 7.775154e+001 3.538868e+001 6.628154e+001 9.937231e+001 4.628156e+001 3.342462e+001 1.390383e+000 1.760314e+000 2.966581e+000 6.569667e+000 7.317327e+000 4.309826e+000 1.036904e+001 2.357350e+000 7.625446e+000 5.995259e+000 3.592681e+000 2.571759e+000 1.209029e+000
<GCONST> 1.099088e+002
<STATE> 3
<MEAN> 25
 6.528315e+000 -1.842748e-001 -2.610747e+000 -1.612580e+001 1.973183e-001 -5.569810e+000 2.763119e+000 9.351302e-001 -9.985654e-001 4.262810e+000 -1.224678e+000 -6.700135e+000 1.262326e-001 -6.615505e-001 -3.650080e-001 1.344494e-001 -4.993468e-001 1.056205e-001 5.299933e-001 5.450867e-001 7.534663e-001 -3.092710e-003 3.275628e-001 -4.234361e-001 2.250949e-001
<VARIANCE> 25
 5.140582e+000 2.066631e+001 6.701003e+001 2.240744e+001 5.289231e+001 4.774325e+001 3.580769e+001 1.267776e+002 5.384638e+001 6.620444e+001 3.656870e+001 3.056969e+001 1.589608e-001 3.319127e-001 6.216953e-001 1.894485e+000 1.067648e+000 1.807317e+000 2.231594e+000 1.925763e+000 1.976649e+000 2.453592e+000 1.516422e+000 1.566011e+000 2.208248e-001
<GCONST> 8.965007e+001
<STATE> 4
<MEAN> 25
 1.098101e+001 -1.756041e+000 -5.548520e+000 -1.168513e+001 -6.158159e+000 -1.669809e+000 -3.949003e+000 -2.951901e+000 3.900099e+000 2.081176e+000 -3.339411e-002 -3.522329e+000 -2.067435e-002 -4.761097e-001 1.332406e-002 7.385933e-001 -4.314362e-001 -1.210973e-001 1.107120e-001 1.880772e-001 2.005955e-001 -2.850077e-001 -1.898916e-001 3.433925e-001 -7.320210e-002
<VARIANCE> 25
 1.930106e+001 3.622397e+001 1.744888e+001 4.838116e+001 5.664257e+001 4.448339e+001 9.499234e+001 4.578202e+001 5.418430e+001 3.412282e+001 3.263541e+001 2.719419e+001 1.651172e-001 9.368064e-001 1.069567e+000 2.928454e+000 2.418402e+000 2.307260e+000 1.787014e+000 1.873316e+000 2.851858e+000 2.863577e+000 2.527457e+000 1.575770e+000 1.975260e-001
<GCONST> 9.381841e+001
<TRANSP> 5
 0.000000e+000 1.000000e+000 0.000000e+000 0.000000e+000 0.000000e+000
 0.000000e+000 5.893227e-001 4.106773e-001 0.000000e+000 0.000000e+000
 0.000000e+000 0.000000e+000 8.308312e-001 1.691688e-001 0.000000e+000
 0.000000e+000 0.000000e+000 0.000000e+000 8.468943e-001 1.531057e-001
 0.000000e+000 0.000000e+000 0.000000e+000 0.000000e+000 0.000000e+000
<ENDHMM>
~h "eh"
<BEGINHMM>
<NUMSTATES> 5
<STATE> 2
<MEAN> 25
 2.992941e+000 -2.455762e+000 -1.735391e+000 -6.170980e+000 -1.538650e+000 -3.110970e+000 3.733921e+000 -1.283595e+000 -1.019027e+000 3.498003e-001 -2.081071e+000 -1.373353e+000 1.163396e+000 -4.896789e-001 -2.868114e-001 -7.360623e-001 -1.440929e-001 -3.295793e-001 -5.013824e-001 -3.888803e-002 -4.273143e-001 -7.059126e-001 -7.814018e-001 5.709090e-002 9.166579e-001
<VARIANCE> 25
 2.764325e+001 4.191678e+001 4.049243e+001 5.393590e+001 5.909005e+001 4.366253e+001 8.379590e+001 3.497298e+001 7.287521e+001 4.925864e+001 5.707268e+001 3.384023e+001 3.929845e+000 4.342089e+000 2.853064e+000 4.863885e+000 4.787203e+000 3.676011e+000 6.084499e+000 3.355182e+000 5.504313e+000 4.741988e+000 5.141911e+000 2.887679e+000 4.474586e+000
<GCONST> 1.110907e+002
<STATE> 3
<MEAN> 25
 6.071639e+000 -3.619568e+000 -1.145958e+000 -5.912206e+000 -4.985258e+000 -1.797755e+000 4.899247e+000 -2.198837e+000 -5.456505e+000 -4.400722e-001 -1.536487e+000 3.645475e-002 2.295857e-001 2.383398e-001 -1.581201e-001 8.829876e-001 5.819499e-001 2.444677e-001 -8.298753e-001 -1.700554e-001 8.755177e-002 -1.239975e-001 3.281650e-001 3.054608e-001 -3.461181e-001
<VARIANCE> 25
 2.840856e+001 5.889442e+001 5.217434e+001 5.358585e+001 6.765404e+001 5.838876e+001 7.254606e+001 5.249894e+001 5.758043e+001 4.383295e+001 5.734676e+001 3.551736e+001 1.517519e+000 3.687127e+000 1.746246e+000 3.332793e+000 3.366690e+000 3.376112e+000 3.501545e+000 6.267878e+000 3.465092e+000 4.162981e+000 2.664818e+000 2.444827e+000 1.923717e+000
<GCONST> 1.074843e+002
<STATE> 4
<MEAN> 25
 7.940889e+000 -1.690868e+000 -3.719420e+000 -3.526944e+000 -2.719116e+000 -2.614952e+000 -4.337188e+000 -2.456302e+000 -2.829586e+000 -6.013201e+000 -3.225559e+000 1.466025e+000 -3.981367e-001 6.232301e-001 1.633118e-001 5.051372e-001 6.440872e-002 -1.772154e-001 -2.286338e-001 -2.511454e-001 4.407434e-002 1.503554e-001 5.077910e-001 -2.236401e-001 -5.016856e-001
<VARIANCE> 25
 2.211614e+001 8.643754e+001 4.211685e+001 4.142387e+001 4.459998e+001 6.588623e+001 4.752685e+001 4.702514e+001 2.573460e+001 4.235045e+001 3.823064e+001 3.058878e+001 9.289501e-001 2.026879e+000 1.219942e+000 1.821704e+000 2.223138e+000 2.838948e+000 2.227692e+000 2.715986e+000 2.055833e+000 2.129274e+000 1.876109e+000 2.222543e+000 6.790864e-001
<GCONST> 9.831384e+001
<TRANSP> 5
 0.000000e+000 1.000000e+000 0.000000e+000 0.000000e+000 0.000000e+000
 0.000000e+000 6.309755e-001 3.690246e-001 0.000000e+000 0.000000e+000
 0.000000e+000 0.000000e+000 5.908406e-001 4.091594e-001 0.000000e+000
 0.000000e+000 0.000000e+000 0.000000e+000 7.730525e-001 2.269475e-001
 0.000000e+000 0.000000e+000 0.000000e+000 0.000000e+000 0.000000e+000
<ENDHMM>
~h "hh"
<BEGINHMM>
<NUMSTATES> 5
<STATE> 2
<MEAN> 25
 8.192971e+000 -4.025556e+000 -6.116444e+000 -5.117424e-001 9.265943e-001 -4.705250e+000 -6.511611e+000 3.684534e+000 -1.968186e+000 -5.517672e+000 1.109150e-001 -6.278353e+000 -1.291544e-003 -1.194065e-001 2.304876e-001 1.350978e-001 -1.907422e-001 -5.225143e-002 7.250071e-002 3.801884e-001 9.189577e-002 2.796292e-001 -1.197805e-001 -4.677524e-001 1.877605e-002
<VARIANCE> 25
 2.007220e+001 3.440148e+001 7.266270e+001 4.547580e+001 9.644299e+001 1.349186e+002 6.698921e+001 1.288760e+002 7.359953e+001 4.392986e+001 1.146379e+002 7.206625e+001 7.329887e-001 1.814813e+000 3.427543e+000 3.692800e+000 8.669899e+000 1.293719e+001 8.816708e+000 9.028191e+000 7.809716e+000 5.172790e+000 6.988361e+000 3.514274e+000 6.721796e-001
<GCONST> 1.146482e+002
<STATE> 3
<MEAN> 25
 5.174304e+000 -3.663458e+000 -3.191150e+000 4.462515e+000 -2.991082e+000 9.776110e-001 3.081170e+000 -2.736240e+000 -7.827280e-001 2.921386e+000 -2.427626e+000 -5.077255e+000 -3.084832e-001 7.878336e-001 -4.313334e-001 -2.615820e-001 -5.544718e-002 9.543349e-001 3.431326e-001 -5.989372e-002 4.544434e-001 1.978498e-001 4.316623e-001 8.592009e-001 -8.130077e-001
<VARIANCE> 25
 1.742762e+001 1.104677e+002 1.952964e+001 3.234090e+001 5.027688e+001 7.288116e+001 4.410203e+001 5.038068e+001 5.241328e+001 4.675442e+001 7.315189e+001 7.064545e+001 5.683738e-001 2.589228e+000 1.158444e+000 2.347123e+000 1.816657e+000 4.227810e+000 2.488100e+000 2.993503e+000 5.263429e+000 3.849260e+000 3.379319e+000 3.659309e+000 6.276421e-001
<GCONST> 1.027159e+002
<STATE> 4
<MEAN> 25
 -3.204251e+000 8.166943e+000 1.703125e+000 8.019476e-002 -1.565751e+000 1.337028e+000 1.201069e+000 1.268482e+000 4.660527e+000 1.187868e+000 3.098587e-001 2.178720e+000 -1.301509e-001 7.636152e-002 1.369527e-001 6.176404e-002 3.968849e-002 7.964374e-002 5.522861e-002 -3.388882e-002 4.144824e-002 7.682282e-002 -1.309218e-002 7.094641e-003 -9.012059e-002
<VARIANCE> 25
 1.625539e+001 1.280717e+002 1.896256e+001 1.517728e+001 2.240689e+001 3.054442e+001 3.198606e+001 3.313337e+001 2.849324e+001 2.326903e+001 2.217273e+001 2.174269e+001 1.694588e-001 5.571427e-001 7.092669e-001 8.877518e-001 1.507845e+000 1.442719e+000 1.293716e+000 1.828037e+000 1.874973e+000 1.483255e+000 1.690194e+000 1.259278e+000 1.509698e-001
<GCONST> 8.412238e+001
<TRANSP> 5
 0.000000e+000 1.000000e+000 0.000000e+000 0.000000e+000 0.000000e+000
 0.000000e+000 8.257164e-001 1.742836e-001 0.000000e+000 0.000000e+000
 0.000000e+000 0.000000e+000 8.194321e-001 1.805678e-001 0.000000e+000
 0.000000e+000 0.000000e+000 0.000000e+000 9.558392e-001 4.416086e-002
 0.000000e+000 0.000000e+000 0.000000e+000 0.000000e+000 0.000000e+000
<ENDHMM>
~h "ih"
<BEGINHMM>
<NUMSTATES> 5
<STATE> 2
<MEAN> 25
 1.719319e+000 5.585673e+000 9.586201e+000 -4.785562e+000 -2.863364e+000 -2.845164e+000 -5.982389e+000 -5.144145e+000 2.562160e-002 -1.429090e+000 -3.628676e+000 -1.506757e+000 -7.394803e-002 -4.250483e-002 5.528290e-001 -2.184860e-001 1.858829e-001 -4.592314e-001 -6.078485e-001 1.139110e-001 2.920357e-001 -5.005671e-001 -1.486932e-001 -1.363378e-003 1.951407e-001
<VARIANCE> 25
 2.513441e+001 8.643016e+001 7.893923e+001 1.590408e+002 8.674708e+001 4.524557e+001 5.227787e+001 5.480448e+001 4.679256e+001 4.318046e+001 3.270418e+001 4.336590e+001 1.859740e+000 3.329486e+000 4.420767e+000 8.388946e+000 4.840056e+000 3.870839e+000 4.282507e+000 4.608784e+000 4.353938e+000 4.201886e+000 3.347780e+000 2.664827e+000 2.467398e+000
<GCONST> 1.115197e+002
<STATE> 3
<MEAN> 25
 -6.217389e-001 7.226730e+000 5.960295e+000 -4.375323e+000 -1.254867e+000 -2.492647e+000 -3.923594e+000 -1.455943e+000 9.316275e-001 -1.532493e+000 -1.970332e+000 1.305183e+000 -2.692941e-002 -3.944916e-002 9.733050e-003 3.707304e-001 9.326131e-002 -3.749395e-002 -3.266469e-002 2.352324e-001 1.135349e-001 4.189050e-003 1.246189e-001 -3.836269e-002 -2.106394e-001
<VARIANCE> 25
 1.050015e+001 6.447334e+001 5.209666e+001 1.021715e+002 2.867033e+001 3.315261e+001 4.115866e+001 4.288712e+001 3.156430e+001 3.362074e+001 2.097795e+001 2.578169e+001 3.198356e-001 5.068867e-001 1.034915e+000 2.161847e+000 1.526055e+000 1.475118e+000 1.736334e+000 1.932308e+000 1.737667e+000 1.590835e+000 1.381798e+000 1.435208e+000 2.524384e-001
<GCONST> 8.997031e+001
<STATE> 4
<MEAN> 25
 -1.101565e+000 1.262874e+000 7.316541e+000 5.038168e+000 3.190999e+000 -6.169519e+000 -6.081567e+000 2.275023e+000 3.779020e+000 -5.945559e+000 -9.803967e-001 -8.075652e-001 1.309127e-002 2.055276e-001 -5.120664e-001 -2.066671e-001 -1.485510e-003 2.601590e-001 2.167293e-001 -1.472687e-001 -1.130294e-002 3.540398e-001 2.621727e-001 1.444276e-001 -2.256284e-001
<VARIANCE> 25
 9.080570e+000 1.064094e+002 1.042483e+002 1.060860e+002 5.509944e+001 8.267699e+001 6.740254e+001 6.574955e+001 3.502701e+001 6.029095e+001 3.347093e+001 4.456371e+001 3.397220e-001 1.417336e+000 2.088344e+000 2.265313e+000 1.707816e+000 2.810289e+000 3.177708e+000 2.862527e+000 2.274485e+000 2.955961e+000 2.378652e+000 2.155337e+000 3.989729e-001
<GCONST> 1.011357e+002
<TRANSP> 5
 0.000000e+000 1.000000e+000 0.000000e+000 0.000000e+000 0.000000e+000
 0.000000e+000 7.913328e-001 2.086672e-001 0.000000e+000 0.000000e+000
 0.000000e+000 0.000000e+000 8.358605e-001 1.641394e-001 0.000000e+000
 0.000000e+000 0.000000e+000 0.000000e+000 8.030033e-001 1.969967e-001
 0.000000e+000 0.000000e+000 0.000000e+000 0.000000e+000 0.000000e+000
<ENDHMM>
~h "ng"
<BEGINHMM>
<NUMSTATES> 5
<STATE> 2
<MEAN> 25
 3.189651e+000 -3.870362e+000 -2.795739e+000 -3.461883e+000 8.274163e+000 -2.981494e+000 6.306367e-001 -3.638459e+000 2.753173e+000 -1.273507e+000 5.467344e+000 -3.196149e+000 -1.736171e-002 6.766187e-001 2.965353e-001 7.446157e-001 -8.133996e-002 3.886144e-001 -4.232908e-001 2.341505e-001 -1.597002e-001 -2.203024e-001 -3.957656e-001 -1.528019e-001 -6.766416e-001
<VARIANCE> 25
 6.635176e+000 3.034211e+001 1.776608e+001 3.931256e+001 3.813823e+001 3.929079e+001 3.978404e+001 2.577964e+001 3.897404e+001 4.338988e+001 6.133754e+001 2.673119e+001 2.753183e-001 1.720017e+000 1.069666e+000 2.850622e+000 1.664827e+000 1.635390e+000 2.595780e+000 1.886711e+000 2.543482e+000 2.179160e+000 3.646636e+000 1.379894e+000 1.225306e+000
<GCONST> 9.337048e+001
<STATE> 3
<MEAN> 25
 3.106332e+000 3.890896e+000 1.652585e+000 4.246207e+000 3.900977e+000 1.077394e-001 -6.207693e-001 -3.442366e+000 -3.917048e+000 -3.248203e+000 -5.386855e+000 -4.067996e+000 -2.930782e-001 1.325298e-001 1.748712e-001 3.547418e-001 -2.667874e-001 1.932277e-001 6.110946e-002 4.778300e-001 2.449858e-001 3.081890e-001 2.494090e-001 2.637487e-001 -4.573754e-001
<VARIANCE> 25
 1.083718e+001 2.464190e+001 1.483067e+001 1.899377e+001 3.464953e+001 1.687342e+001 2.686500e+001 2.257767e+001 2.933814e+001 2.906032e+001 2.893623e+001 3.088314e+001 2.691649e-001 7.586062e-001 6.523257e-001 8.452930e-001 1.048582e+000 1.679529e+000 1.951366e+000 1.594445e+000 1.626324e+000 1.541703e+000 2.101035e+000 1.393085e+000 1.933476e-001
<GCONST> 8.336446e+001
<STATE> 4
<MEAN> 25
 -1.482724e+000 1.265568e+000 1.602032e-001 4.428509e+000 1.151652e+000 1.665397e+000 1.698358e+000 1.820166e+000 1.308729e+000 1.709835e+000 1.470099e+000 7.803196e-001 -8.206612e-002 -1.609924e-002 -1.181169e-002 -1.573067e-002 -2.307946e-002 3.659903e-002 2.591709e-003 4.675864e-002 8.845066e-002 6.890486e-002 3.553146e-002 5.643737e-002 -5.344512e-002
<VARIANCE> 25
 1.129732e+001 1.792942e+001 1.734146e+001 1.152371e+001 1.471284e+001 1.158879e+001 2.225881e+001 1.804261e+001 1.929749e+001 2.471346e+001 1.339307e+001 1.554985e+001 1.381292e-001 3.153232e-001 4.810871e-001 7.020119e-001 9.426692e-001 9.578923e-001 1.142565e+000 1.183940e+000 1.427074e+000 1.322493e+000 1.290118e+000 1.090458e+000 7.379364e-002
<GCONST> 7.354661e+001
<TRANSP> 5
 0.000000e+000 1.000000e+000 0.000000e+000 0.000000e+000 0.000000e+000
 0.000000e+000 8.400282e-001 1.599718e-001 0.000000e+000 0.000000e+000
 0.000000e+000 0.000000e+000 7.578402e-001 2.421599e-001 0.000000e+000
 0.000000e+000 0.000000e+000 0.000000e+000 9.444593e-001 5.554071e-002
 0.000000e+000 0.000000e+000 0.000000e+000 0.000000e+000 0.000000e+000
<ENDHMM>
~h "oh"
<BEGINHMM>
<NUMSTATES> 5
<STATE> 2
<MEAN> 25
 1.718763e+000 -1.222110e+001 -1.623647e+000 -1.823422e+000 2.539830e+000 3.761292e+000 8.597431e+000 -3.997123e+000 -2.551497e+000 -8.662621e+000 -1.054556e+000 -6.936984e-001 6.874006e-001 7.974437e-001 3.351055e-001 -1.640373e-001 -1.453669e+000 -1.289909e+000 -3.659405e-001 6.982553e-004 1.683807e-001 1.662577e-001 -3.822082e-001 1.340168e-001 -1.805686e-002
<VARIANCE> 25
 5.055409e+000 9.687223e+000 1.077335e+001 2.747022e+001 1.196161e+001 2.321714e+001 3.321930e+001 7.306204e+000 3.246917e+001 2.046158e+001 6.050931e+000 2.059077e+001 2.045703e-001 8.149934e-001 8.257906e-001 1.320198e+000 1.873287e+000 2.525393e+000 3.432187e+000 1.376053e+000 3.347467e+000 3.620527e+000 7.267610e-001 1.597034e+000 7.218587e-001
<GCONST> 8.169006e+001
<STATE> 3
<MEAN> 25
 5.113584e+000 -4.300353e+000 -7.226272e+000 -1.391162e+001 -1.876417e+000 1.434350e+000 -9.677401e-001 -8.479971e+000 4.859350e+000 6.683611e+000 3.215696e+000 1.403968e+000 2.608866e-002 5.513111e-001 2.081200e-001 4.827748e-001 -4.125782e-002 -2.172315e-001 3.322006e-001 -1.586301e-001 -6.428579e-001 -1.616245e-001 1.307732e-001 5.913428e-002 -3.726074e-001
<VARIANCE> 25
 2.764506e+000 1.070719e+001 7.339603e+000 3.922873e+001 1.998388e+001 8.131466e+000 4.249710e+001 1.401826e+001 3.541086e+001 3.263768e+001 1.671381e+001 9.245392e+000 2.693742e-001 4.114720e-001 9.194329e-001 2.437907e+000 2.220372e+000 1.569127e+000 2.047146e+000 1.325480e+000 9.087125e-001 2.088443e+000 1.420832e+000 2.093534e+000 2.141782e-001
<GCONST> 7.961444e+001
<STATE> 4
<MEAN> 25
 -5.285941e+000 2.717234e-001 1.588048e+000 1.545448e+000 2.626193e+000 1.325215e+000 4.143633e+000 3.276927e+000 2.897762e+000 2.238120e+000 2.102816e+000 -3.926157e-001 -7.633128e-002 3.184446e-002 5.944420e-002 8.178800e-003 -3.648410e-002 2.039831e-002 9.344836e-002 1.128412e-001 1.297701e-001 1.729511e-001 9.542441e-002 -6.942505e-002 -3.467467e-002
<VARIANCE> 25
 4.140217e+000 3.032185e+000 4.778352e+000 4.925900e+000 9.475862e+000 1.086392e+001 1.466425e+001 1.387543e+001 2.039085e+001 2.305358e+001 1.052971e+001 1.018699e+001 1.285662e-001 2.188835e-001 2.678661e-001 5.931753e-001 8.837901e-001 1.370968e+000 1.620392e+000 1.803837e+000 1.600305e+000 1.351717e+000 1.016081e+000 1.062293e+000 6.436738e-002
<GCONST> 6.637282e+001
<TRANSP> 5
 0.000000e+000 1.000000e+000 0.000000e+000 0.000000e+000 0.000000e+000
 0.000000e+000 7.313477e-001 2.686523e-001 0.000000e+000 0.000000e+000
 0.000000e+000 0.000000e+000 8.887472e-001 1.112527e-001 0.000000e+000
 0.000000e+000 0.000000e+000 0.000000e+000 9.662899e-001 3.371011e-002
 0.000000e+000 0.000000e+000 0.000000e+000 0.000000e+000 0.000000e+000
<ENDHMM>
~h "sp"
<BEGINHMM>
<NUMSTATES> 3
<STATE> 2
~s "silst"
<TRANSP> 3
 0.000000e+000 5.892919e-002 9.410708e-001
 0.000000e+000 7.356380e-001 2.643620e-001
 0.000000e+000 0.000000e+000 0.000000e+000
<ENDHMM>
~h "uw"
<BEGINHMM>
<NUMSTATES> 5
<STATE> 2
<MEAN> 25
 -4.950887e+000 -1.013229e+001 8.651358e+000 -5.668189e+000 2.234393e+000 1.411505e+000 -3.281301e+000 -3.373622e+000 -7.129166e-001 2.407609e+000 1.688909e+000 1.976808e+000 7.621220e-001 -1.707900e+000 1.555552e-001 -1.177897e+000 1.446450e-001 -3.447115e-001 -4.907296e-001 -6.775613e-001 -5.730538e-001 -4.144806e-002 -5.709960e-002 -2.699409e-001 1.758330e+000
<VARIANCE> 25
 6.724663e+001 2.383536e+002 1.439021e+002 1.056562e+002 1.023917e+002 1.150821e+002 6.665906e+001 5.836258e+001 7.516605e+001 5.129875e+001 4.872894e+001 5.378212e+001 6.041214e+000 1.651119e+001 8.596196e+000 1.058365e+001 9.233068e+000 7.609579e+000 8.080561e+000 7.036892e+000 6.715635e+000 6.730936e+000 5.026830e+000 5.078434e+000 5.379097e+000
<GCONST> 1.251672e+002
<STATE> 3
<MEAN> 25
 4.715567e+000 -6.992928e+000 -8.651495e-001 -1.834496e+000 -5.006877e-001 -2.616251e+000 -2.744423e+000 -4.955585e-001 -3.587466e+000 1.674298e+000 -5.846534e-002 -3.896840e+000 5.316825e-001 9.897733e-002 -5.955043e-001 -5.831658e-002 -1.836361e-001 2.124295e-001 3.320180e-001 -1.955218e-001 -1.664200e-001 3.599867e-004 -1.539485e-001 -3.101115e-001 4.359392e-002
<VARIANCE> 25
 2.512936e+001 1.675244e+002 9.602195e+001 1.202116e+002 1.394874e+002 8.605074e+001 1.523210e+002 1.024908e+002 9.174681e+001 6.183788e+001 6.926131e+001 6.452422e+001 2.645714e+000 7.458671e+000 5.179743e+000 8.690248e+000 9.255501e+000 7.003295e+000 7.789395e+000 9.009077e+000 7.743720e+000 5.879792e+000 5.947337e+000 6.022757e+000 4.720887e+000
<GCONST> 1.239038e+002
<STATE> 4
<MEAN> 25
 4.892615e+000 -3.107339e+000 -5.813679e+000 -7.023969e+000 1.698495e+000 -2.165813e+000 3.774165e-001 -4.014832e+000 -4.521873e+000 3.058938e+000 6.241223e-001 -2.337564e+000 3.235276e-002 6.895313e-001 2.369579e-002 1.616525e-001 -1.558311e-001 2.450341e-001 1.275780e-001 1.692576e-001 -7.930297e-002 -1.934835e-001 -1.153798e-002 1.030119e-001 -6.281840e-001
<VARIANCE> 25
 1.696662e+001 1.300898e+002 6.058763e+001 1.381230e+002 9.286555e+001 6.602579e+001 8.461315e+001 7.515034e+001 7.055555e+001 4.757691e+001 5.186329e+001 5.079947e+001 6.641544e-001 2.087639e+000 1.846951e+000 5.103412e+000 3.964628e+000 3.298904e+000 3.912838e+000 4.223472e+000 4.325756e+000 2.879363e+000 3.311412e+000 2.851990e+000 1.100420e+000
<GCONST> 1.089621e+002
<TRANSP> 5
 0.000000e+000 1.000000e+000 0.000000e+000 0.000000e+000 0.000000e+000
 0.000000e+000 6.558389e-001 3.441611e-001 0.000000e+000 0.000000e+000
 0.000000e+000 0.000000e+000 7.875326e-001 2.124674e-001 0.000000e+000
 0.000000e+000 0.000000e+000 0.000000e+000 8.456553e-001 1.543447e-001
 0.000000e+000 0.000000e+000 0.000000e+000 0.000000e+000 0.000000e+000
<ENDHMM>
~h "sil"
<BEGINHMM>
<NUMSTATES> 5
<STATE> 2
<MEAN> 25
 -1.491161e+001 6.327979e+000 -3.268143e+000 1.088258e+001 -2.331304e+000 7.157210e+000 -4.339423e+000 1.011976e+001 9.411963e+000 4.258361e+000 4.759764e+000 2.120105e+000 -1.960698e-002 3.703542e-002 -3.973503e-003 -4.638132e-002 2.238882e-002 6.102611e-002 -3.029197e-002 -2.650135e-002 7.459625e-002 6.380296e-002 3.480921e-002 -6.186786e-002 -2.012198e-002
<VARIANCE> 25
 3.297043e+001 1.427423e+001 2.471754e+001 2.716678e+001 1.679340e+001 1.902936e+001 1.941994e+001 3.289271e+001 3.659658e+001 1.970295e+001 1.851368e+001 1.366301e+001 1.161611e-001 2.413580e-001 3.152586e-001 4.725395e-001 6.239004e-001 7.623846e-001 1.016961e+000 1.201936e+000 1.113483e+000 1.393477e+000 1.204956e+000 1.278294e+000 1.487826e-001
<GCONST> 7.589638e+001
<STATE> 3
~s "silst"
<STATE> 4
<MEAN> 25
 -2.440728e+000 3.534981e+000 -1.453211e+000 1.806201e+000 -7.501162e-001 2.091413e+000 8.362654e-001 1.136045e+000 6.988981e-001 1.492396e+000 4.612958e-001 1.835517e+000 -2.961528e-002 3.151782e-002 4.332438e-003 -1.264789e-002 6.914478e-003 2.709461e-002 1.733503e-002 3.998452e-003 4.957689e-004 2.467456e-002 3.084579e-002 1.802889e-002 -1.561212e-002
<VARIANCE> 25
 1.473625e+001 6.641551e+001 2.787988e+001 3.944803e+001 2.476785e+001 2.800686e+001 2.803773e+001 2.357136e+001 2.397521e+001 3.304364e+001 1.848216e+001 2.175297e+001 1.770981e-001 5.112682e-001 6.947221e-001 9.639823e-001 1.098586e+000 1.305374e+000 1.416952e+000 1.519992e+000 1.651742e+000 1.568901e+000 1.419477e+000 1.306440e+000 1.487021e-001
<GCONST> 8.353192e+001
<TRANSP> 5
 0.000000e+000 1.000000e+000 0.000000e+000 0.000000e+000 0.000000e+000
 0.000000e+000 8.596628e-001 5.860403e-002 8.173324e-002 0.000000e+000
 0.000000e+000 0.000000e+000 9.129547e-001 8.704533e-002 0.000000e+000
 0.000000e+000 1.083257e-002 0.000000e+000 9.565083e-001 3.265919e-002
 0.000000e+000 0.000000e+000 0.000000e+000 0.000000e+000 0.000000e+000
<ENDHMM>
