~o
<STREAMINFO> 1 25
<VECSIZE> 25<NULLD><MFCC_D_N_Z_0><DIAGC>
~s "silst"
<MEAN> 25
 -6.154943e+000 4.498626e+000 -8.575434e+000 4.244689e+000 -7.251475e+000 6.030879e+000 -1.752032e+000 2.413563e+000 -1.877268e+000 5.800814e+000 -6.488559e-002 3.593722e+000 2.541609e-001 -1.859956e-001 1.003677e-001 -9.008915e-002 1.656312e-001 -1.135639e-001 9.428943e-002 -6.044887e-002 -6.774855e-002 -8.585281e-002 -6.289784e-002 2.269957e-002 1.145701e+000
<VARIANCE> 25
 3.176372e+001 1.010179e+001 1.949985e+001 1.364461e+001 1.869506e+001 1.764286e+001 2.058259e+001 1.477774e+001 2.598579e+001 1.725776e+001 1.673500e+001 1.272008e+001 2.399579e+000 6.802323e-001 1.293123e+000 7.769895e-001 9.258863e-001 1.147436e+000 1.324006e+000 1.181353e+000 1.260010e+000 1.036070e+000 1.122677e+000 7.640339e-001 7.834138e+000
<GCONST> 8.345854e+001
~h "b"
<BEGINHMM>
<NUMSTATES> 5
<STATE> 2
<MEAN> 25
 2.858319e+000 3.673456e+000 1.036544e+001 -8.704395e-001 -7.473242e+000 -3.696963e+000 -3.150385e+000 -5.481155e+000 -5.459120e+000 2.422449e+000 -1.739441e+000 7.588041e-002 -1.054890e+000 -3.537339e-001 2.806692e+000 -3.086396e+000 -2.078663e+000 -6.420016e-001 1.100426e-001 -1.517768e+000 -8.160899e-001 2.007626e+000 -3.776441e-001 6.897010e-001 1.549659e+000
<VARIANCE> 25
 2.393569e+001 1.436861e+001 7.709968e+001 8.585615e+001 4.533033e+001 3.388435e+001 3.321378e+001 4.709372e+001 4.504991e+001 5.357449e+001 2.141762e+001 2.956857e+001 3.007485e+000 1.555752e+000 5.246370e+000 7.990635e+000 3.461608e+000 3.911473e+000 3.763674e+000 5.506705e+000 6.112773e+000 4.788521e+000 2.848236e+000 4.314044e+000 7.161208e-001
<GCONST> 1.059841e+002
<STATE> 3
<MEAN> 25
 1.121735e-001 2.608221e+000 1.318170e+001 -9.637847e+000 -1.429629e+001 -5.778727e+000 -1.650832e+000 -8.371262e+000 -4.893980e+000 8.767962e+000 -1.767953e-001 9.625451e-001 2.850333e-002 -5.149148e-001 -1.718324e+000 5.550122e-001 2.802302e-002 -8.304852e-001 9.301465e-001 1.109704e+000 6.610137e-001 -5.503611e-001 7.369978e-001 -2.652854e-001 3.675792e-001
<VARIANCE> 25
 2.093801e+001 1.595747e+001 3.240585e+001 4.795223e+001 3.087307e+001 2.424105e+001 4.771761e+001 3.560109e+001 4.254460e+001 3.093565e+001 2.840242e+001 5.169448e+001 7.846007e-001 1.922995e+000 2.560339e+000 3.061021e+000 2.891828e+000 2.471851e+000 3.415807e+000 4.438955e+000 2.997754e+000 4.898276e+000 1.770472e+000 2.106079e+000 4.966626e-001
<GCONST> 9.809572e+001
<STATE> 4
<MEAN> 25
 3.815793e+000 -5.192754e+000 -2.210604e+000 -6.729035e+000 -4.537549e+000 -6.888738e+000 5.526229e-002 -7.616405e-001 1.428906e+000 -2.144973e+000 -2.617255e+000 -4.794206e-001 6.782869e-001 -2.057028e-001 -1.816828e+000 1.713683e-001 2.209726e+000 5.906752e-001 -1.104443e+000 -1.740116e-001 1.245135e+000 -1.232314e+000 -7.713409e-001 -1.303641e-001 -3.172179e-001
<VARIANCE> 25
 2.426281e+001 4.959438e+001 5.739931e+001 2.578545e+001 5.722793e+001 5.342286e+001 3.986889e+001 4.055347e+001 3.638367e+001 4.297369e+001 3.178365e+001 3.036701e+001 8.971707e-001 2.775869e+000 3.130274e+000 2.206745e+000 4.552520e+000 2.637050e+000 2.918388e+000 5.273408e+000 4.603586e+000 4.034447e+000 2.553947e+000 3.267228e+000 9.050038e-001
<GCONST> 1.029877e+002
<TRANSP> 5
 0.000000e+000 1.000000e+000 0.000000e+000 0.000000e+000 0.000000e+000
 0.000000e+000 7.455930e-001 2.544069e-001 0.000000e+000 0.000000e+000
 0.000000e+000 0.000000e+000 7.929187e-001 2.070814e-001 0.000000e+000
 0.000000e+000 0.000000e+000 0.000000e+000 7.125329e-001 2.874671e-001
 0.000000e+000 0.000000e+000 0.000000e+000 0.000000e+000 0.000000e+000
<ENDHMM>
~h "c"
<BEGINHMM>
<NUMSTATES> 5
<STATE> 2
<MEAN> 25
 1.292055e-008 1.831648e-008 -6.299361e-008 6.397928e-009 6.513714e-008 4.146926e-008 -2.503356e-008 -3.737221e-008 4.785829e-009 -8.260601e-008 4.838081e-008 -2.966501e-008 7.700191e-003 5.403126e-003 9.986212e-003 -4.435305e-003 5.198286e-003 1.178548e-003 5.735684e-003 -2.200497e-003 -9.225003e-004 -6.409926e-004 -2.520854e-003 -2.406914e-003 2.725629e-002
<VARIANCE> 25
 4.587285e+001 1.030148e+002 6.019880e+001 7.829473e+001 5.465159e+001 4.961901e+001 6.176896e+001 4.825900e+001 4.880714e+001 4.872197e+001 3.755544e+001 3.288158e+001 1.069084e+000 2.243620e+000 1.931021e+000 2.910384e+000 2.554792e+000 2.477852e+000 2.995093e+000 2.747025e+000 2.618064e+000 2.724945e+000 2.375594e+000 2.010036e+000 1.498881e+000
<GCONST> 1.041510e+002
<STATE> 3
<MEAN> 25
 1.292055e-008 1.831648e-008 -6.299361e-008 6.397928e-009 6.513714e-008 4.146926e-008 -2.503356e-008 -3.737221e-008 4.785829e-009 -8.260601e-008 4.838081e-008 -2.966501e-008 7.700191e-003 5.403126e-003 9.986212e-003 -4.435305e-003 5.198286e-003 1.178548e-003 5.735684e-003 -2.200497e-003 -9.225003e-004 -6.409926e-004 -2.520854e-003 -2.406914e-003 2.725629e-002
<VARIANCE> 25
 4.587285e+001 1.030148e+002 6.019880e+001 7.829473e+001 5.465159e+001 4.961901e+001 6.176896e+001 4.825900e+001 4.880714e+001 4.872197e+001 3.755544e+001 3.288158e+001 1.069084e+000 2.243620e+000 1.931021e+000 2.910384e+000 2.554792e+000 2.477852e+000 2.995093e+000 2.747025e+000 2.618064e+000 2.724945e+000 2.375594e+000 2.010036e+000 1.498881e+000
<GCONST> 1.041510e+002
<STATE> 4
<MEAN> 25
 1.292055e-008 1.831648e-008 -6.299361e-008 6.397928e-009 6.513714e-008 4.146926e-008 -2.503356e-008 -3.737221e-008 4.785829e-009 -8.260601e-008 4.838081e-008 -2.966501e-008 7.700191e-003 5.403126e-003 9.986212e-003 -4.435305e-003 5.198286e-003 1.178548e-003 5.735684e-003 -2.200497e-003 -9.225003e-004 -6.409926e-004 -2.520854e-003 -2.406914e-003 2.725629e-002
<VARIANCE> 25
 4.587285e+001 1.030148e+002 6.019880e+001 7.829473e+001 5.465159e+001 4.961901e+001 6.176896e+001 4.825900e+001 4.880714e+001 4.872197e+001 3.755544e+001 3.288158e+001 1.069084e+000 2.243620e+000 1.931021e+000 2.910384e+000 2.554792e+000 2.477852e+000 2.995093e+000 2.747025e+000 2.618064e+000 2.724945e+000 2.375594e+000 2.010036e+000 1.498881e+000
<GCONST> 1.041510e+002
<TRANSP> 5
 0.000000e+000 1.000000e+000 0.000000e+000 0.000000e+000 0.000000e+000
 0.000000e+000 6.000000e-001 4.000000e-001 0.000000e+000 0.000000e+000
 0.000000e+000 0.000000e+000 6.000000e-001 4.000000e-001 0.000000e+000
 0.000000e+000 0.000000e+000 0.000000e+000 7.000000e-001 3.000000e-001
 0.000000e+000 0.000000e+000 0.000000e+000 0.000000e+000 0.000000e+000
<ENDHMM>
~h "d"
<BEGINHMM>
<NUMSTATES> 5
<STATE> 2
<MEAN> 25
 2.659727e+000 3.804148e+000 3.128050e+000 3.600100e+000 -2.407650e+000 -8.718429e-001 -2.630377e+000 -1.584388e+000 -2.597811e+000 -2.563688e-001 -1.257031e-001 -2.360541e+000 5.989616e-002 -4.022117e-001 2.048690e+000 -1.374554e+000 -1.522837e+000 -6.130267e-001 -4.201105e-001 -8.265190e-001 -1.641898e+000 6.995785e-001 -7.369601e-001 -3.554403e-001 1.736161e+000
<VARIANCE> 25
 2.298135e+001 3.080857e+001 3.540808e+001 3.870946e+001 3.165043e+001 2.678791e+001 3.086578e+001 3.006286e+001 2.909161e+001 3.401963e+001 2.729591e+001 1.993837e+001 2.760174e+000 4.092912e+000 3.377225e+000 4.103894e+000 2.983846e+000 3.998602e+000 3.869809e+000 4.483241e+000 3.656615e+000 5.835996e+000 3.787688e+000 3.069590e+000 2.047801e+000
<GCONST> 1.031217e+002
<STATE> 3
<MEAN> 25
 -8.238567e-001 2.315156e-001 1.431498e+001 -1.101428e+001 -1.209386e+001 -2.341933e+000 -4.347822e+000 -4.852967e+000 -6.526016e+000 9.123750e+000 -3.698943e+000 1.419151e+000 -3.070564e-001 -1.050512e+000 -1.286049e-001 -1.597179e+000 -5.768192e-001 -7.294222e-001 1.129946e+000 4.794437e-001 9.364865e-001 3.908567e-001 1.590732e-002 3.453129e-001 1.116951e+000
<VARIANCE> 25
 1.183890e+001 3.056904e+001 5.348805e+001 5.719776e+001 4.202085e+001 3.236939e+001 5.414999e+001 4.618322e+001 5.469486e+001 5.527935e+001 3.733818e+001 4.444993e+001 1.120131e+000 3.262168e+000 6.179599e+000 5.979761e+000 4.329934e+000 3.169181e+000 8.410976e+000 5.333972e+000 4.006881e+000 6.239869e+000 3.670884e+000 3.628090e+000 2.572859e+000
<GCONST> 1.084138e+002
<STATE> 4
<MEAN> 25
 6.732129e-001 -7.973830e+000 1.712427e+000 -1.144436e+001 -4.450314e+000 -5.540624e+000 8.501766e+000 1.681402e+000 4.298460e-001 -8.021125e-001 -3.599347e+000 1.281693e+000 3.694308e-001 -8.447071e-001 -1.426548e+000 2.703207e-001 2.370297e+000 -1.560350e-001 4.609607e-001 -6.720314e-002 2.261296e-001 -2.463853e+000 -6.535070e-001 2.308896e-001 4.100398e-001
<VARIANCE> 25
 1.904857e+001 2.562280e+001 5.089009e+001 4.956642e+001 7.450452e+001 2.392115e+001 5.648870e+001 7.305411e+001 3.159684e+001 4.202871e+001 4.431059e+001 2.340805e+001 5.225915e-001 2.760940e+000 3.765424e+000 4.013025e+000 5.396172e+000 2.329730e+000 5.993297e+000 3.027106e+000 3.155967e+000 5.545358e+000 2.116767e+000 2.487252e+000 2.111410e+000
<GCONST> 1.036994e+002
<TRANSP> 5
 0.000000e+000 1.000000e+000 0.000000e+000 0.000000e+000 0.000000e+000
 0.000000e+000 7.130507e-001 2.869493e-001 0.000000e+000 0.000000e+000
 0.000000e+000 0.000000e+000 7.814555e-001 2.185445e-001 0.000000e+000
 0.000000e+000 0.000000e+000 0.000000e+000 6.393085e-001 3.606915e-001
 0.000000e+000 0.000000e+000 0.000000e+000 0.000000e+000 0.000000e+000
<ENDHMM>
~h "g"
<BEGINHMM>
<NUMSTATES> 5
<STATE> 2
<MEAN> 25
 3.352898e+000 5.966000e+000 3.110708e+000 5.125963e+000 4.121343e-001 -1.123994e+000 -4.461555e+000 9.205201e-001 -2.421862e+000 6.528469e-001 -3.244165e+000 -2.674365e+000 -2.868207e-001 -9.955554e-001 -5.636137e-001 -5.108300e-001 6.125435e-001 -4.534003e-001 6.970159e-001 -6.143813e-003 -5.357065e-001 8.833065e-001 4.348296e-001 6.794532e-002 1.017114e+000
<VARIANCE> 25
 4.672938e+001 9.249826e+001 8.501855e+001 7.569215e+001 9.035522e+001 6.791068e+001 7.749107e+001 4.106272e+001 6.036843e+001 6.103494e+001 5.039075e+001 3.893206e+001 4.633439e+000 7.298493e+000 6.784256e+000 1.250178e+001 8.112406e+000 6.186659e+000 7.192381e+000 3.365625e+000 5.624293e+000 7.416751e+000 4.364017e+000 3.993453e+000 7.057259e+000
<GCONST> 1.192756e+002
<STATE> 3
<MEAN> 25
 5.326365e-001 -2.110011e+000 -2.686481e+000 -3.117733e+000 4.536057e+000 1.503732e+000 5.955195e-001 -1.907564e+000 -2.026145e+000 4.107097e+000 2.822648e+000 6.374696e-001 5.554326e-001 2.361724e-001 8.982329e-003 -2.793195e+000 -7.050182e-001 -1.156073e+000 -5.564979e-001 -1.184981e+000 -4.816658e-001 -6.098953e-001 -3.663139e-001 3.876645e-002 1.631678e+000
<VARIANCE> 25
 2.496494e+001 2.144001e+001 8.077628e+001 7.106200e+001 7.822916e+001 5.001205e+001 4.341510e+001 2.199136e+001 5.048977e+001 1.168303e+002 3.611956e+001 2.577219e+001 2.926701e+000 3.239246e+000 4.891547e+000 6.883393e+000 4.762512e+000 2.651800e+000 5.794659e+000 3.358188e+000 5.490854e+000 8.674053e+000 3.312664e+000 3.230906e+000 2.557549e+000
<GCONST> 1.099801e+002
<STATE> 4
<MEAN> 25
 3.433966e+000 2.181451e+000 3.600729e+000 -7.268880e+000 -6.862053e-001 -3.561260e+000 -1.357988e+000 -2.475559e+000 -3.840076e+000 -3.737510e+000 -3.520536e+000 -1.876451e+000 8.109421e-001 1.115750e+000 1.106669e+000 -5.000192e-001 1.228875e-001 -9.442414e-001 -1.152891e+000 -9.539110e-002 -5.683215e-001 -5.139957e-003 -1.533991e+000 -9.677134e-001 5.198401e-001
<VARIANCE> 25
 2.490341e+001 2.830819e+001 5.040299e+001 9.625921e+001 3.940606e+001 3.031726e+001 4.996686e+001 4.810287e+001 3.533798e+001 7.048822e+001 4.468422e+001 2.518832e+001 1.152006e+000 2.152229e+000 2.513066e+000 6.068503e+000 6.373647e+000 2.319275e+000 4.205440e+000 3.372420e+000 3.992790e+000 7.421578e+000 3.085232e+000 1.976062e+000 1.643622e+000
<GCONST> 1.053805e+002
<TRANSP> 5
 0.000000e+000 1.000000e+000 0.000000e+000 0.000000e+000 0.000000e+000
 0.000000e+000 7.086595e-001 2.913405e-001 0.000000e+000 0.000000e+000
 0.000000e+000 0.000000e+000 5.856777e-001 4.143223e-001 0.000000e+000
 0.000000e+000 0.000000e+000 0.000000e+000 4.966222e-001 5.033779e-001
 0.000000e+000 0.000000e+000 0.000000e+000 0.000000e+000 0.000000e+000
<ENDHMM>
~h "h"
<BEGINHMM>
<NUMSTATES> 5
<STATE> 2
<MEAN> 25
 -4.338219e-001 1.899333e+000 1.226970e+000 4.055070e+000 -2.635222e-001 2.628525e+000 -7.946427e-001 6.199652e-001 1.192249e+000 4.316626e-001 2.796432e+000 -3.158783e-001 8.449122e-003 4.785035e-002 -5.722298e-004 7.957592e-003 6.595460e-002 -3.301155e-002 -4.407640e-002 9.635513e-002 1.603084e-001 -5.747707e-002 -1.171103e-001 -1.053666e-001 -1.691543e-002
<VARIANCE> 25
 9.891072e+000 4.937921e+000 6.693564e+000 9.366483e+000 9.494405e+000 1.376013e+001 1.328018e+001 1.624693e+001 2.178730e+001 1.388803e+001 1.195193e+001 1.285579e+001 1.137535e-001 2.513215e-001 3.786387e-001 5.269114e-001 8.507792e-001 1.511858e+000 1.356267e+000 1.359220e+000 1.542209e+000 1.335970e+000 1.153658e+000 1.553432e+000 5.357137e-002
<GCONST> 6.904376e+001
<STATE> 3
<MEAN> 25
 -2.045653e+000 -4.201517e+000 -2.105156e+000 5.275440e+000 6.653447e+000 1.564274e+000 5.578385e-001 1.562650e+000 1.645349e-001 -3.353133e+000 1.896345e+000 2.852289e+000 -4.954232e-002 -1.458838e+000 -4.350761e-001 2.633928e-001 1.378440e+000 -3.545009e-002 1.280098e-001 -6.277627e-001 -9.518662e-001 -1.094339e+000 -4.068190e-001 7.800456e-001 9.489125e-001
<VARIANCE> 25
 1.779808e+001 4.878047e+001 2.176193e+001 1.260834e+001 1.514614e+001 2.597601e+001 2.450620e+001 3.343074e+001 2.276795e+001 2.080872e+001 1.971301e+001 2.824634e+001 4.716709e-001 1.958228e+000 2.780028e+000 6.618444e-001 1.979309e+000 1.721143e+000 1.360952e+000 3.408530e+000 2.119837e+000 2.607348e+000 3.300077e+000 2.962265e+000 2.412680e-001
<GCONST> 8.935239e+001
<STATE> 4
<MEAN> 25
 1.492440e+000 -1.590255e+000 -8.844789e-001 7.944932e-001 2.685735e-001 -1.020764e+000 -1.613731e+000 -3.162759e+000 -2.055973e+000 -2.937835e+000 -1.129478e+000 4.819951e-001 -3.391134e-002 1.129559e-001 7.401683e-002 -6.565402e-002 -6.019807e-002 -8.124308e-002 3.377523e-002 -5.744060e-002 1.375929e-001 5.049585e-002 2.977340e-002 -3.577696e-002 -3.994764e-002
<VARIANCE> 25
 5.793610e+001 2.116282e+001 2.380660e+001 1.679852e+001 2.128111e+001 1.780617e+001 3.541327e+001 5.097326e+001 4.665028e+001 4.870568e+001 2.443206e+001 1.754634e+001 7.248570e-001 5.057794e-001 1.136378e+000 1.289512e+000 1.121532e+000 1.473516e+000 1.911189e+000 1.719533e+000 1.698624e+000 1.290672e+000 1.539970e+000 1.126649e+000 1.586022e-001
<GCONST> 8.684017e+001
<TRANSP> 5
 0.000000e+000 1.000000e+000 0.000000e+000 0.000000e+000 0.000000e+000
 0.000000e+000 9.409312e-001 5.906883e-002 0.000000e+000 0.000000e+000
 0.000000e+000 0.000000e+000 7.699311e-001 2.300689e-001 0.000000e+000
 0.000000e+000 0.000000e+000 0.000000e+000 9.643770e-001 3.562300e-002
 0.000000e+000 0.000000e+000 0.000000e+000 0.000000e+000 0.000000e+000
<ENDHMM>
~h "j"
<BEGINHMM>
<NUMSTATES> 5
<STATE> 2
<MEAN> 25
 6.248955e+000 -5.673496e-001 2.079408e+000 3.395832e+000 -3.149110e+000 2.122480e+000 -5.893480e+000 -2.949774e+000 -4.970094e+000 -1.930075e+000 -7.619846e+000 -1.948942e+000 2.313596e-001 7.947042e-001 -5.626801e-001 1.080115e+000 3.917903e-001 6.422693e-001 -1.167371e-001 2.737203e-002 6.429387e-001 -6.350804e-001 1.075713e-002 -1.667064e-001 -1.061704e+000
<VARIANCE> 25
 1.288762e+001 3.657384e+001 4.772431e+001 2.144802e+001 4.779969e+001 1.212998e+001 3.452306e+001 2.612495e+001 1.891483e+001 2.006540e+001 4.170141e+001 1.516162e+001 8.391127e-001 5.117602e-001 7.211687e-001 9.397224e-001 4.702625e+000 2.101310e+000 3.314667e+000 2.569761e+000 3.588959e+000 3.963167e+000 3.334827e+000 1.232723e+000 5.302778e-001
<GCONST> 9.122175e+001
<STATE> 3
<MEAN> 25
 -2.666526e-001 5.851945e+000 1.129165e+000 7.520687e+000 -1.544939e+000 6.845975e+000 -4.720446e+000 -2.196364e+000 -3.405778e-001 -2.089746e+000 -3.868694e+000 -3.519176e+000 -1.964216e+000 -5.654870e-002 2.110084e-001 -3.122302e-001 -1.762614e-001 8.603503e-001 6.136690e-001 6.105987e-001 7.159104e-001 1.093449e+000 9.844233e-001 1.709183e-001 -2.643598e-001
<VARIANCE> 25
 1.916276e+001 8.901783e+000 9.283412e+001 2.007082e+001 3.530520e+001 3.275254e+001 3.956730e+001 2.215454e+001 1.228682e+001 3.002404e+001 1.306668e+001 1.664782e+001 2.577167e+000 1.198960e+000 2.768148e+000 2.872858e+000 2.785843e+000 2.596878e+000 1.855232e+000 1.596628e+000 1.786547e+000 2.051586e+000 1.466968e+000 2.508700e+000 2.838372e+000
<GCONST> 9.364964e+001
<STATE> 4
<MEAN> 25
 -5.138234e+000 4.761655e+000 6.946617e+000 -2.302238e+000 -4.371553e+000 -4.514905e+000 -5.253552e+000 -5.551259e-001 -3.073532e-001 5.398750e+000 4.015194e+000 -2.149144e+000 2.555607e-001 -5.929328e-001 3.268328e-001 -7.367795e-001 -6.250311e-001 -1.418055e+000 2.310706e-002 -5.035003e-001 -5.469023e-001 2.609769e-001 7.735746e-002 3.736653e-001 1.056272e+000
<VARIANCE> 25
 4.842311e+001 1.020881e+002 3.415022e+001 5.359467e+001 7.947334e+001 1.308363e+002 5.762965e+001 4.387317e+001 5.944623e+001 3.836617e+001 3.077442e+001 3.217574e+001 5.294096e+000 7.391175e+000 4.143076e+000 6.251337e+000 9.108351e+000 1.025258e+001 4.379682e+000 6.228822e+000 6.111226e+000 4.251502e+000 3.282930e+000 3.455217e+000 7.543808e+000
<GCONST> 1.161506e+002
<TRANSP> 5
 0.000000e+000 1.000000e+000 0.000000e+000 0.000000e+000 0.000000e+000
 0.000000e+000 8.408576e-001 1.591423e-001 0.000000e+000 0.000000e+000
 0.000000e+000 0.000000e+000 7.860577e-001 2.139423e-001 0.000000e+000
 0.000000e+000 0.000000e+000 0.000000e+000 9.143087e-001 8.569130e-002
 0.000000e+000 0.000000e+000 0.000000e+000 0.000000e+000 0.000000e+000
<ENDHMM>
~h "k"
<BEGINHMM>
<NUMSTATES> 5
<STATE> 2
<MEAN> 25
 6.816397e+000 1.598393e+000 -3.781902e+000 -8.166190e+000 -1.376059e+000 -9.627550e-001 -5.856271e+000 -3.963968e+000 -3.309455e+000 -1.144261e+000 -2.524875e+000 -2.148165e+000 -4.341582e-001 1.530349e-001 -3.636402e-001 4.930061e-001 -6.931788e-002 5.525662e-001 4.287842e-001 3.079570e-001 2.218519e-001 1.307665e-001 3.432849e-001 1.147865e-001 -7.979754e-001
<VARIANCE> 25
 1.349791e+001 4.102310e+001 7.687366e+001 9.132147e+001 5.798352e+001 4.047011e+001 4.881432e+001 4.091620e+001 4.059153e+001 4.541652e+001 2.981703e+001 1.847348e+001 2.360296e+000 3.758928e+000 3.400273e+000 6.593656e+000 2.631927e+000 3.634380e+000 4.290873e+000 3.847629e+000 4.583826e+000 4.644302e+000 3.624516e+000 2.074245e+000 2.611944e+000
<GCONST> 1.067018e+002
<STATE> 3
<MEAN> 25
 8.291603e-001 -3.257409e-001 -4.700799e+000 -1.613193e+000 3.597281e-001 4.887149e-001 4.407025e-001 -6.209334e-002 -1.341267e-001 7.364715e-001 -2.375769e+000 7.638636e-001 -1.215045e+000 -4.093724e-001 1.360543e-001 1.267807e+000 3.790725e-001 1.118672e-001 9.673482e-001 4.274596e-001 8.086207e-001 1.128700e+000 8.274304e-001 1.647911e-001 -2.902410e-001
<VARIANCE> 25
 1.603702e+001 2.487237e+001 3.774546e+001 5.368681e+001 3.870023e+001 4.174286e+001 5.203104e+001 2.608438e+001 3.764477e+001 3.009068e+001 4.573319e+001 3.895054e+001 2.197042e+000 2.228104e+000 2.292655e+000 5.078574e+000 1.650708e+000 4.872715e+000 4.791750e+000 3.424640e+000 6.213855e+000 3.737440e+000 3.271647e+000 4.016390e+000 6.341044e+000
<GCONST> 1.051613e+002
<STATE> 4
<MEAN> 25
 -1.662932e+000 5.017862e-001 -1.120842e+000 3.579524e+000 2.164902e+000 3.333337e+000 1.687887e+000 1.696574e+000 2.414509e+000 2.389240e+000 2.254314e+000 4.921575e-001 -8.908136e-002 1.932149e-002 1.235004e-001 2.465907e-001 2.719260e-003 9.062685e-003 5.070481e-002 6.259004e-002 5.731276e-002 -1.225468e-002 7.452010e-002 2.564305e-002 -7.272517e-002
<VARIANCE> 25
 1.378586e+001 5.657404e+000 1.391479e+001 1.992810e+001 1.921345e+001 1.319642e+001 2.334888e+001 1.804196e+001 1.771841e+001 2.392363e+001 1.760931e+001 1.337193e+001 2.135673e-001 3.629412e-001 9.389660e-001 9.141974e-001 1.119843e+000 1.230537e+000 1.549295e+000 1.580436e+000 1.616696e+000 1.890560e+000 1.383821e+000 1.129362e+000 2.021643e-001
<GCONST> 7.748970e+001
<TRANSP> 5
 0.000000e+000 1.000000e+000 0.000000e+000 0.000000e+000 0.000000e+000
 0.000000e+000 7.701694e-001 2.298306e-001 0.000000e+000 0.000000e+000
 0.000000e+000 0.000000e+000 5.591874e-001 4.408126e-001 0.000000e+000
 0.000000e+000 0.000000e+000 0.000000e+000 9.532928e-001 4.670718e-002
 0.000000e+000 0.000000e+000 0.000000e+000 0.000000e+000 0.000000e+000
<ENDHMM>
~h "l"
<BEGINHMM>
<NUMSTATES> 5
<STATE> 2
<MEAN> 25
 5.597520e+000 -2.641081e+000 -2.722348e+000 -6.295569e+000 -5.296242e+000 -5.840818e+000 -1.844322e+000 -3.329835e+000 2.385075e+000 1.554016e+000 2.235334e+000 -8.793818e-001 7.696092e-002 -1.148879e-001 -4.391032e-001 3.858881e-001 1.451884e-001 -5.231441e-001 8.104719e-005 2.866654e-001 5.726261e-001 -1.109786e-001 -1.485644e-001 1.538481e-001 -1.238095e-001
<VARIANCE> 25
 1.386730e+001 1.657957e+001 3.845808e+001 5.082985e+001 6.854488e+001 6.852628e+001 4.459485e+001 6.786755e+001 4.936496e+001 6.847177e+001 5.239476e+001 1.726416e+001 3.804949e-001 1.231120e+000 1.850143e+000 3.439327e+000 4.164377e+000 4.697966e+000 2.910398e+000 3.649301e+000 3.009527e+000 4.941612e+000 3.072917e+000 1.633649e+000 6.795824e-001
<GCONST> 1.007210e+002
<STATE> 3
<MEAN> 25
 4.897514e+000 -7.047953e-001 -3.496392e+000 -5.587786e+000 -2.075723e+000 -4.388073e+000 -1.044483e+000 1.206245e+000 2.732212e+000 -3.353092e+000 -8.867967e-001 -1.120905e-001 -4.031066e-001 3.138758e-001 2.949240e-001 7.903600e-001 2.639394e-001 4.545471e-001 7.668553e-002 1.011809e-001 -1.806443e-001 1.300350e-001 2.547112e-001 5.190647e-002 -6.648055e-001
<VARIANCE> 25
 1.749101e+001 2.653536e+001 2.562059e+001 5.361193e+001 3.656495e+001 4.796407e+001 9.169904e+001 9.468417e+001 3.934690e+001 3.944788e+001 3.346076e+001 1.757693e+001 7.144656e-001 1.079548e+000 1.273832e+000 3.100469e+000 2.424231e+000 1.939075e+000 2.069093e+000 2.353682e+000 2.024539e+000 2.013701e+000 1.692217e+000 1.764230e+000 9.564752e-001
<GCONST> 9.627451e+001
<STATE> 4
<MEAN> 25
 3.052746e-001 7.949100e-001 -1.123323e-001 3.727159e+000 4.645293e-001 1.154146e+000 -5.491787e-001 9.483657e-001 1.172548e+000 -6.902108e-001 2.206912e+000 -2.025585e-001 -7.931926e-002 -3.226764e-002 8.349926e-002 1.248412e-001 1.900850e-002 1.114251e-001 6.847907e-002 1.761634e-001 2.594103e-002 2.218021e-002 -1.487291e-002 1.184288e-002 -4.593410e-002
<VARIANCE> 25
 1.039062e+001 7.604629e+000 1.156243e+001 2.605952e+001 1.283520e+001 1.990028e+001 1.835346e+001 2.296029e+001 2.003636e+001 2.081304e+001 1.850212e+001 1.463215e+001 1.722465e-001 3.086809e-001 6.713797e-001 9.506153e-001 9.595746e-001 1.202637e+000 1.341209e+000 1.839401e+000 1.645294e+000 1.350885e+000 1.149518e+000 1.231891e+000 1.214409e-001
<GCONST> 7.594664e+001
<TRANSP> 5
 0.000000e+000 1.000000e+000 0.000000e+000 0.000000e+000 0.000000e+000
 0.000000e+000 6.304040e-001 3.695960e-001 0.000000e+000 0.000000e+000
 0.000000e+000 0.000000e+000 6.958184e-001 3.041815e-001 0.000000e+000
 0.000000e+000 0.000000e+000 0.000000e+000 8.985571e-001 1.014429e-001
 0.000000e+000 0.000000e+000 0.000000e+000 0.000000e+000 0.000000e+000
<ENDHMM>
~h "m"
<BEGINHMM>
<NUMSTATES> 5
<STATE> 2
<MEAN> 25
 4.411003e+000 1.400035e+000 9.649053e-001 -2.129283e-001 9.347014e-001 -3.474269e-001 -4.147744e+000 -2.913465e+000 -2.837245e+000 -2.578087e+000 -4.304246e+000 -2.586913e+000 -1.789966e-001 6.910142e-001 5.458309e-001 7.808518e-001 -2.109830e-002 -9.453923e-002 -1.503307e-001 -2.889542e-001 -9.291487e-002 9.103005e-002 -1.166902e-001 -1.082757e-001 -5.309553e-001
<VARIANCE> 25
 3.738212e+001 4.802542e+001 5.064022e+001 1.073495e+002 6.828978e+001 5.851157e+001 3.849195e+001 3.564688e+001 3.890484e+001 3.745749e+001 3.699648e+001 2.843849e+001 1.441575e+000 2.406910e+000 2.460512e+000 4.032544e+000 2.388874e+000 3.375039e+000 2.496747e+000 2.949073e+000 2.517667e+000 2.843939e+000 2.784612e+000 2.032172e+000 1.378284e+000
<GCONST> 1.034458e+002
<STATE> 3
<MEAN> 25
 4.584340e+000 3.893899e+000 1.667927e+000 4.319273e+000 2.599731e+000 -5.864357e-001 -2.985635e+000 -4.087073e+000 -3.263682e+000 -3.912286e+000 -4.545587e+000 -3.378786e+000 -3.317117e-001 1.071033e-001 1.388195e-001 3.664012e-001 -2.225833e-001 1.792919e-001 2.328921e-001 4.654776e-001 3.476749e-001 2.355853e-001 3.682854e-001 1.337326e-001 -4.396655e-001
<VARIANCE> 25
 1.581089e+001 1.170032e+001 1.433888e+001 2.117689e+001 2.884535e+001 2.759290e+001 3.339128e+001 3.452863e+001 3.058551e+001 1.865648e+001 2.421514e+001 2.149590e+001 3.192983e-001 5.234282e-001 6.495026e-001 8.853694e-001 1.269937e+000 1.327946e+000 1.535931e+000 1.614773e+000 1.831980e+000 1.461665e+000 1.457636e+000 1.332415e+000 1.690628e-001
<GCONST> 8.217422e+001
<STATE> 4
<MEAN> 25
 -1.817656e+000 1.426077e+000 1.057611e+000 4.271666e+000 1.375344e+000 2.480197e+000 1.652019e+000 2.296740e+000 2.450214e+000 1.293517e+000 2.358479e+000 6.015153e-002 -3.287433e-002 1.117381e-002 3.139298e-002 -3.935530e-003 -3.855328e-002 -4.770828e-003 3.303949e-002 2.221978e-002 2.667159e-002 5.593787e-002 5.282979e-002 1.405788e-002 1.458110e-003
<VARIANCE> 25
 1.430013e+001 5.132845e+000 9.171925e+000 1.093380e+001 1.433007e+001 1.304567e+001 1.941815e+001 1.555252e+001 1.756621e+001 1.843427e+001 1.534003e+001 1.223899e+001 1.617635e-001 2.880245e-001 4.696603e-001 7.054659e-001 9.485407e-001 1.130751e+000 1.235836e+000 1.358551e+000 1.515244e+000 1.571386e+000 1.286299e+000 1.140598e+000 6.031080e-002
<GCONST> 7.166725e+001
<TRANSP> 5
 0.000000e+000 1.000000e+000 0.000000e+000 0.000000e+000 0.000000e+000
 0.000000e+000 7.493389e-001 2.506611e-001 0.000000e+000 0.000000e+000
 0.000000e+000 0.000000e+000 7.932195e-001 2.067804e-001 0.000000e+000
 0.000000e+000 0.000000e+000 0.000000e+000 9.467741e-001 5.322588e-002
 0.000000e+000 0.000000e+000 0.000000e+000 0.000000e+000 0.000000e+000
<ENDHMM>
~h "n"
<BEGINHMM>
<NUMSTATES> 5
<STATE> 2
<MEAN> 25
 5.891019e+000 9.990851e-001 8.097048e-002 1.210096e+000 -1.077375e+000 -7.350808e+000 -5.425775e+000 -3.898174e+000 -5.896272e+000 -7.136643e+000 -1.346293e+000 2.072971e+000 -3.130705e-001 1.074998e+000 2.810115e-001 9.087119e-001 9.621838e-002 2.345916e-001 -2.404073e-001 -5.457616e-001 1.380964e-001 6.782721e-001 1.378108e-001 1.555200e-001 -9.885689e-001
<VARIANCE> 25
 1.406699e+001 2.608916e+001 1.592617e+001 3.721592e+001 5.966285e+001 5.278426e+001 2.431269e+001 2.690975e+001 3.793836e+001 3.732556e+001 4.467848e+001 3.230828e+001 5.558965e-001 1.621316e+000 1.376034e+000 2.245577e+000 1.373669e+000 2.904460e+000 1.899790e+000 2.919832e+000 2.307570e+000 2.292631e+000 2.885835e+000 1.550700e+000 7.252889e-001
<GCONST> 9.427031e+001
<STATE> 3
<MEAN> 25
 2.850308e+000 3.145676e+000 1.777450e+000 4.485009e+000 1.440636e+000 -1.918244e+000 -2.708738e+000 -2.503445e+000 -2.298339e+000 -3.744715e+000 -2.198271e+000 3.984925e-001 -3.017069e-001 8.837578e-002 -2.275581e-002 3.379879e-001 5.303293e-003 6.618331e-001 3.463664e-001 4.026502e-001 3.134148e-001 3.217724e-001 3.651587e-001 -9.565299e-002 -4.204576e-001
<VARIANCE> 25
 1.230767e+001 1.241508e+001 1.125869e+001 1.832803e+001 2.797560e+001 2.042227e+001 1.714779e+001 2.181536e+001 2.380082e+001 2.046991e+001 2.294825e+001 1.982986e+001 2.846945e-001 4.881865e-001 6.759114e-001 9.282526e-001 1.238957e+000 1.413873e+000 1.479165e+000 1.395142e+000 1.796928e+000 1.711643e+000 1.728518e+000 1.288262e+000 1.834408e-001
<GCONST> 7.996095e+001
<STATE> 4
<MEAN> 25
 -3.106627e+000 1.796524e+000 1.028117e+000 3.941896e+000 2.548333e+000 2.672074e+000 2.561150e+000 2.526906e+000 2.744776e+000 2.038678e+000 2.939527e+000 3.589957e-001 -4.719098e-002 1.159161e-003 6.548423e-003 1.669803e-002 2.076205e-002 5.307809e-002 4.958124e-002 6.956821e-002 6.803691e-002 6.981639e-002 4.103851e-002 -2.843460e-002 -7.560940e-003
<VARIANCE> 25
 1.522581e+001 7.055701e+000 6.839280e+000 9.528249e+000 1.354006e+001 1.315709e+001 1.950445e+001 1.804465e+001 1.860249e+001 1.889590e+001 1.404997e+001 1.366873e+001 1.375258e-001 3.169632e-001 4.452555e-001 6.430714e-001 8.985215e-001 1.130579e+000 1.191201e+000 1.359085e+000 1.427695e+000 1.382397e+000 1.341739e+000 1.222505e+000 6.023912e-002
<GCONST> 7.144607e+001
<TRANSP> 5
 0.000000e+000 1.000000e+000 0.000000e+000 0.000000e+000 0.000000e+000
 0.000000e+000 7.205323e-001 2.794677e-001 0.000000e+000 0.000000e+000
 0.000000e+000 0.000000e+000 8.140469e-001 1.859531e-001 0.000000e+000
 0.000000e+000 0.000000e+000 0.000000e+000 9.425361e-001 5.746394e-002
 0.000000e+000 0.000000e+000 0.000000e+000 0.000000e+000 0.000000e+000
<ENDHMM>
~h "o"
<BEGINHMM>
<NUMSTATES> 5
<STATE> 2
<MEAN> 25
 1.292055e-008 1.831648e-008 -6.299361e-008 6.397928e-009 6.513714e-008 4.146926e-008 -2.503356e-008 -3.737221e-008 4.785829e-009 -8.260601e-008 4.838081e-008 -2.966501e-008 7.700191e-003 5.403126e-003 9.986212e-003 -4.435305e-003 5.198286e-003 1.178548e-003 5.735684e-003 -2.200497e-003 -9.225003e-004 -6.409926e-004 -2.520854e-003 -2.406914e-003 2.725629e-002
<VARIANCE> 25
 4.587285e+001 1.030148e+002 6.019880e+001 7.829473e+001 5.465159e+001 4.961901e+001 6.176896e+001 4.825900e+001 4.880714e+001 4.872197e+001 3.755544e+001 3.288158e+001 1.069084e+000 2.243620e+000 1.931021e+000 2.910384e+000 2.554792e+000 2.477852e+000 2.995093e+000 2.747025e+000 2.618064e+000 2.724945e+000 2.375594e+000 2.010036e+000 1.498881e+000
<GCONST> 1.041510e+002
<STATE> 3
<MEAN> 25
 1.292055e-008 1.831648e-008 -6.299361e-008 6.397928e-009 6.513714e-008 4.146926e-008 -2.503356e-008 -3.737221e-008 4.785829e-009 -8.260601e-008 4.838081e-008 -2.966501e-008 7.700191e-003 5.403126e-003 9.986212e-003 -4.435305e-003 5.198286e-003 1.178548e-003 5.735684e-003 -2.200497e-003 -9.225003e-004 -6.409926e-004 -2.520854e-003 -2.406914e-003 2.725629e-002
<VARIANCE> 25
 4.587285e+001 1.030148e+002 6.019880e+001 7.829473e+001 5.465159e+001 4.961901e+001 6.176896e+001 4.825900e+001 4.880714e+001 4.872197e+001 3.755544e+001 3.288158e+001 1.069084e+000 2.243620e+000 1.931021e+000 2.910384e+000 2.554792e+000 2.477852e+000 2.995093e+000 2.747025e+000 2.618064e+000 2.724945e+000 2.375594e+000 2.010036e+000 1.498881e+000
<GCONST> 1.041510e+002
<STATE> 4
<MEAN> 25
 1.292055e-008 1.831648e-008 -6.299361e-008 6.397928e-009 6.513714e-008 4.146926e-008 -2.503356e-008 -3.737221e-008 4.785829e-009 -8.260601e-008 4.838081e-008 -2.966501e-008 7.700191e-003 5.403126e-003 9.986212e-003 -4.435305e-003 5.198286e-003 1.178548e-003 5.735684e-003 -2.200497e-003 -9.225003e-004 -6.409926e-004 -2.520854e-003 -2.406914e-003 2.725629e-002
<VARIANCE> 25
 4.587285e+001 1.030148e+002 6.019880e+001 7.829473e+001 5.465159e+001 4.961901e+001 6.176896e+001 4.825900e+001 4.880714e+001 4.872197e+001 3.755544e+001 3.288158e+001 1.069084e+000 2.243620e+000 1.931021e+000 2.910384e+000 2.554792e+000 2.477852e+000 2.995093e+000 2.747025e+000 2.618064e+000 2.724945e+000 2.375594e+000 2.010036e+000 1.498881e+000
<GCONST> 1.041510e+002
<TRANSP> 5
 0.000000e+000 1.000000e+000 0.000000e+000 0.000000e+000 0.000000e+000
 0.000000e+000 6.000000e-001 4.000000e-001 0.000000e+000 0.000000e+000
 0.000000e+000 0.000000e+000 6.000000e-001 4.000000e-001 0.000000e+000
 0.000000e+000 0.000000e+000 0.000000e+000 7.000000e-001 3.000000e-001
 0.000000e+000 0.000000e+000 0.000000e+000 0.000000e+000 0.000000e+000
<ENDHMM>
~h "p"
<BEGINHMM>
<NUMSTATES> 5
<STATE> 2
<MEAN> 25
 -2.093480e+000 1.009955e+000 -3.105941e+000 2.591165e+000 -2.157993e+000 2.131172e+000 -1.731297e+000 1.420581e+000 1.806840e+000 1.592913e+000 1.504631e+000 4.676077e-001 1.439868e+000 -1.149701e+000 4.049966e-001 -1.028077e+000 8.137565e-001 -6.392829e-001 1.253811e+000 -1.525455e-002 -5.632153e-001 -3.332057e-001 -1.506198e-001 -2.580465e-001 3.259143e+000
<VARIANCE> 25
 8.286909e+001 5.184438e+001 3.208998e+001 6.542345e+001 3.476487e+001 4.074471e+001 4.431145e+001 4.571239e+001 4.869743e+001 3.482582e+001 4.215654e+001 2.820745e+001 9.881007e+000 4.443918e+000 2.907854e+000 6.108454e+000 4.174096e+000 4.892190e+000 3.716454e+000 4.427432e+000 4.426646e+000 4.099605e+000 3.040554e+000 2.692516e+000 1.646256e+001
<GCONST> 1.116269e+002
<STATE> 3
<MEAN> 25
 1.006047e+000 -2.125004e+000 -2.986274e+000 -7.853121e-002 9.433688e-001 4.258773e-001 2.751125e-001 3.597386e-003 -9.652227e-001 -1.833799e+000 6.740456e-001 1.066814e+000 -2.959008e-001 2.182061e-001 1.986367e-001 4.965408e-001 9.398046e-002 3.080578e-001 2.058218e-001 2.222237e-001 1.104112e-001 -4.239844e-003 2.723179e-001 2.861549e-002 -3.387288e-001
<VARIANCE> 25
 9.599943e+000 3.604734e+001 1.519065e+001 3.617633e+001 2.902345e+001 2.138951e+001 3.089944e+001 3.435864e+001 2.724818e+001 2.744410e+001 2.254100e+001 2.282815e+001 4.845117e-001 9.563282e-001 9.849495e-001 1.882504e+000 1.944433e+000 1.572982e+000 1.911898e+000 2.231493e+000 1.930329e+000 1.801803e+000 1.808448e+000 1.550575e+000 6.591354e-001
<GCONST> 8.863930e+001
<STATE> 4
<MEAN> 25
 -3.586509e+000 1.306036e+000 9.258499e-001 3.177442e+000 2.133603e+000 2.894032e+000 3.391124e+000 2.609617e+000 3.523695e+000 2.726721e+000 3.587400e+000 1.595503e-001 -4.209496e-002 1.986499e-003 2.945924e-003 2.032783e-002 1.053544e-003 1.306567e-002 3.607358e-002 5.198100e-002 7.755506e-002 8.871341e-002 5.216701e-002 -3.287823e-002 1.711965e-002
<VARIANCE> 25
 1.265967e+001 6.541417e+000 7.863608e+000 9.313943e+000 1.117473e+001 1.211592e+001 1.717011e+001 1.555840e+001 1.559530e+001 1.916180e+001 1.353597e+001 1.294888e+001 1.560963e-001 3.084306e-001 5.059553e-001 7.198146e-001 9.230765e-001 1.044402e+000 1.250240e+000 1.344227e+000 1.423034e+000 1.526178e+000 1.310029e+000 1.179767e+000 9.141301e-002
<GCONST> 7.127695e+001
<TRANSP> 5
 0.000000e+000 1.000000e+000 0.000000e+000 0.000000e+000 0.000000e+000
 0.000000e+000 6.417492e-001 3.582509e-001 0.000000e+000 0.000000e+000
 0.000000e+000 0.000000e+000 7.749150e-001 2.250849e-001 0.000000e+000
 0.000000e+000 0.000000e+000 0.000000e+000 9.485353e-001 5.146467e-002
 0.000000e+000 0.000000e+000 0.000000e+000 0.000000e+000 0.000000e+000
<ENDHMM>
~h "r"
<BEGINHMM>
<NUMSTATES> 5
<STATE> 2
<MEAN> 25
 7.788056e+000 -9.313950e+000 -1.798055e+000 -1.158341e+000 -8.719213e+000 -2.812995e+000 1.673355e+000 2.502750e+000 2.072523e+000 -2.345291e+000 -3.729450e+000 -5.959468e-001 -2.100677e-001 -7.835685e-001 1.093065e+000 5.182207e-001 -1.236908e+000 7.561211e-002 6.670924e-001 7.236525e-001 -9.131553e-001 -1.168253e-001 1.331645e-001 6.766473e-001 2.795405e-002
<VARIANCE> 25
 1.438858e+001 3.589685e+001 2.315145e+001 4.874940e+001 7.232267e+001 3.273418e+001 6.161258e+001 3.574427e+001 3.732370e+001 3.412671e+001 3.138535e+001 2.809060e+001 9.618124e-001 2.762894e+000 2.455645e+000 6.854523e+000 4.815981e+000 2.582040e+000 4.636258e+000 4.614391e+000 3.876837e+000 3.053725e+000 3.583889e+000 2.413529e+000 1.420737e+000
<GCONST> 1.029854e+002
<STATE> 3
<MEAN> 25
 4.483145e+000 -1.036631e+001 5.857812e+000 -7.690287e+000 -1.256490e+001 -4.077992e+000 6.903486e+000 3.829617e+000 -7.725295e+000 2.409791e+000 -2.766793e+000 -2.634887e+000 -7.685030e-001 8.185174e-001 8.022888e-001 -8.452628e-001 5.643768e-001 -1.925775e-001 1.158505e+000 -8.533798e-001 -1.209596e+000 1.181287e+000 1.754904e-001 -6.734401e-001 -1.030427e-001
<VARIANCE> 25
 1.682058e+001 2.774032e+001 3.429474e+001 3.507019e+001 5.440169e+001 2.180161e+001 6.496468e+001 4.294081e+001 4.501514e+001 5.524643e+001 2.780436e+001 1.675403e+001 5.923249e-001 1.076707e+000 1.122260e+000 1.945732e+000 2.063628e+000 1.410613e+000 3.213535e+000 2.534155e+000 3.880375e+000 3.369810e+000 2.189631e+000 1.529623e+000 3.531094e-001
<GCONST> 9.439492e+001
<STATE> 4
<MEAN> 25
 2.381094e+000 -4.969748e+000 5.032113e+000 -3.103775e+000 -7.296436e+000 -2.107772e+000 7.184806e+000 4.350496e-001 -6.043538e+000 2.967470e+000 -2.422700e+000 -3.099578e+000 -4.923887e-002 1.257799e+000 -2.963021e-001 9.763242e-001 6.696388e-001 2.642888e-001 -6.794428e-001 -1.082237e+000 7.221791e-001 1.661756e-001 -1.583728e-001 2.435442e-001 -1.081010e+000
<VARIANCE> 25
 9.980183e+000 2.214288e+001 5.084960e+001 7.421222e+001 4.198430e+001 1.840485e+001 6.993185e+001 4.465011e+001 4.786048e+001 7.185021e+001 4.062752e+001 1.643523e+001 6.433761e-001 1.069544e+000 1.387298e+000 1.929773e+000 1.569096e+000 2.004820e+000 2.730032e+000 1.991542e+000 2.832575e+000 2.824194e+000 2.651127e+000 1.788248e+000 4.673760e-001
<GCONST> 9.524913e+001
<TRANSP> 5
 0.000000e+000 1.000000e+000 0.000000e+000 0.000000e+000 0.000000e+000
 0.000000e+000 7.948021e-001 2.051979e-001 0.000000e+000 0.000000e+000
 0.000000e+000 0.000000e+000 7.267324e-001 2.732676e-001 0.000000e+000
 0.000000e+000 0.000000e+000 0.000000e+000 6.922208e-001 3.077792e-001
 0.000000e+000 0.000000e+000 0.000000e+000 0.000000e+000 0.000000e+000
<ENDHMM>
~h "s"
<BEGINHMM>
<NUMSTATES> 5
<STATE> 2
<MEAN> 25
 -9.825482e+000 6.381954e+000 -4.603732e+000 6.447470e+000 -9.691783e-001 -8.241981e-001 4.911199e+000 1.898600e+000 -1.432739e+000 1.852033e+000 2.797968e+000 -7.496571e-001 -7.552368e-001 2.684097e-001 -2.477010e-001 1.989921e-001 -4.410535e-002 1.549072e-001 2.870277e-001 1.487390e-001 -4.571532e-002 3.412289e-001 3.423797e-001 6.295254e-002 1.739767e-001
<VARIANCE> 25
 2.848545e+001 4.314581e+001 2.084089e+001 4.008055e+001 2.668541e+001 2.310535e+001 2.471574e+001 2.754441e+001 3.628049e+001 3.019086e+001 2.151526e+001 2.023876e+001 1.766245e+000 1.942635e+000 1.475741e+000 1.420717e+000 1.385465e+000 1.896372e+000 1.996915e+000 1.995802e+000 2.182351e+000 2.181725e+000 1.869597e+000 1.707716e+000 3.937619e-001
<GCONST> 9.192255e+001
<STATE> 3
<MEAN> 25
 -1.126672e+001 -2.179349e+000 5.176168e+000 -4.723705e+000 -2.218974e+000 2.415568e+000 4.860725e+000 -4.394193e+000 -1.073456e-001 3.290645e+000 5.153934e+000 4.500059e-002 2.959271e-001 -4.972674e-001 7.489634e-001 -8.547603e-001 -2.679724e-001 -5.047631e-001 -6.114230e-001 -3.417366e-001 2.953371e-001 -6.071502e-002 -3.359828e-001 2.778153e-002 3.226502e-001
<VARIANCE> 25
 4.198458e+001 8.616766e+001 1.251809e+002 1.444474e+002 3.420457e+001 7.934167e+001 5.444131e+001 8.109921e+001 7.312408e+001 2.825297e+001 2.180021e+001 3.254219e+001 6.378877e+000 2.226637e+000 4.507773e+000 4.119305e+000 2.211218e+000 3.175406e+000 2.537728e+000 3.582927e+000 2.638505e+000 2.150711e+000 2.682129e+000 1.871800e+000 1.330832e+000
<GCONST> 1.078067e+002
<STATE> 4
<MEAN> 25
 -4.539930e+000 3.394214e+000 -6.341292e-001 2.218418e+000 -4.203551e+000 -3.831611e+000 2.579421e+000 7.740727e-001 -6.593965e-001 2.672113e+000 1.771718e+000 -4.352834e-001 3.344009e+000 -7.755435e-001 3.774408e-001 -2.488721e+000 -9.533989e-001 -1.539093e+000 -1.978767e+000 -3.067577e-001 -5.153159e-001 -1.464196e+000 -2.683015e+000 2.467627e-001 1.182280e+000
<VARIANCE> 25
 4.749643e+001 3.537875e+001 3.709463e+001 4.940804e+001 5.556547e+001 3.955845e+001 5.548709e+001 5.511771e+001 3.675858e+001 4.576117e+001 3.553384e+001 2.943334e+001 2.932810e+000 3.592610e+000 3.756596e+000 7.326834e+000 4.276427e+000 3.713359e+000 6.418782e+000 6.284522e+000 4.512868e+000 6.103019e+000 4.023113e+000 3.385950e+000 3.196134e+000
<GCONST> 1.102103e+002
<TRANSP> 5
 0.000000e+000 1.000000e+000 0.000000e+000 0.000000e+000 0.000000e+000
 0.000000e+000 8.874805e-001 1.125195e-001 0.000000e+000 0.000000e+000
 0.000000e+000 0.000000e+000 6.585607e-001 3.414394e-001 0.000000e+000
 0.000000e+000 0.000000e+000 0.000000e+000 5.639021e-001 4.360979e-001
 0.000000e+000 0.000000e+000 0.000000e+000 0.000000e+000 0.000000e+000
<ENDHMM>
~h "t"
<BEGINHMM>
<NUMSTATES> 5
<STATE> 2
<MEAN> 25
 5.255808e+000 4.192624e+000 -3.264030e+000 4.745844e+000 -1.689127e+000 2.810006e+000 -3.709959e+000 -7.838582e-001 -2.762731e+000 -2.960731e+000 -9.199585e-001 1.116121e-001 -1.262621e+000 -4.926004e-001 1.407513e-001 -7.646697e-001 1.797906e-001 -5.391147e-002 7.125761e-001 5.869781e-001 -4.913132e-001 5.064114e-001 5.054688e-001 -5.280769e-001 5.002046e-001
<VARIANCE> 25
 4.092884e+001 3.824805e+001 7.056693e+001 2.040625e+001 3.183756e+001 8.250652e+001 4.229473e+001 3.032712e+001 3.047023e+001 3.617410e+001 3.933155e+001 5.289823e+001 2.254684e+000 4.746792e+000 3.508458e+000 3.358785e+000 3.998128e+000 5.917879e+000 5.006325e+000 3.851221e+000 2.724016e+000 4.645358e+000 3.526667e+000 3.445005e+000 5.683514e+000
<GCONST> 1.079839e+002
<STATE> 3
<MEAN> 25
 -1.911473e+000 -7.489428e-001 9.394366e-001 3.918925e-001 -1.395930e+000 -1.027306e+000 1.764766e+000 1.053823e+000 -2.850585e+000 1.813925e+000 2.720865e+000 -1.498009e+000 -4.037392e-001 -1.514697e+000 -2.334951e-002 -3.673638e+000 -6.733209e-001 -1.953949e+000 5.323158e-001 -5.889578e-001 3.539070e-001 1.142056e+000 -1.363972e-001 -4.174307e-001 3.508733e+000
<VARIANCE> 25
 2.541999e+001 1.583494e+001 2.831650e+001 3.378251e+001 4.092521e+001 3.847518e+001 3.357298e+001 4.256586e+001 3.417383e+001 3.222402e+001 3.514202e+001 3.148774e+001 2.907300e+000 4.199855e+000 8.643487e+000 4.925257e+000 4.599623e+000 7.612475e+000 5.017285e+000 5.826937e+000 5.589016e+000 6.249314e+000 4.640194e+000 3.828967e+000 5.516688e+000
<GCONST> 1.087708e+002
<STATE> 4
<MEAN> 25
 -9.461542e-001 -3.235943e+000 2.848186e+000 -5.044552e+000 -4.412328e+000 -3.167943e+000 1.489494e+000 -3.024918e-001 -7.658279e-001 2.189570e+000 6.066002e-001 -1.014396e+000 5.420054e-001 -5.372315e-001 -5.573967e-001 -1.970650e+000 3.475913e-002 -7.949976e-001 -1.450822e-001 -3.356271e-001 7.020222e-001 8.015794e-002 -5.071828e-001 6.349644e-002 1.435756e+000
<VARIANCE> 25
 2.583291e+001 4.901907e+001 8.522219e+001 4.943261e+001 9.331898e+001 4.730460e+001 4.865788e+001 5.288059e+001 5.449316e+001 5.068781e+001 3.884512e+001 3.842307e+001 1.874627e+000 3.359393e+000 6.037079e+000 8.401463e+000 4.280244e+000 5.394595e+000 4.045072e+000 4.019082e+000 5.438973e+000 4.974519e+000 4.406906e+000 2.828073e+000 3.873333e+000
<GCONST> 1.117834e+002
<TRANSP> 5
 0.000000e+000 1.000000e+000 0.000000e+000 0.000000e+000 0.000000e+000
 0.000000e+000 6.049554e-001 3.950446e-001 0.000000e+000 0.000000e+000
 0.000000e+000 0.000000e+000 2.482268e-001 7.517733e-001 0.000000e+000
 0.000000e+000 0.000000e+000 0.000000e+000 4.625114e-001 5.374886e-001
 0.000000e+000 0.000000e+000 0.000000e+000 0.000000e+000 0.000000e+000
<ENDHMM>
~h "w"
<BEGINHMM>
<NUMSTATES> 5
<STATE> 2
<MEAN> 25
 6.618917e+000 6.647394e+000 6.256772e+000 -6.402265e+000 -2.054603e+000 -4.150875e+000 -6.215874e+000 -3.881253e+000 -9.632681e+000 4.460074e-001 -5.289320e+000 8.046188e-002 1.386580e-001 2.797125e-001 -3.655448e-001 8.899733e-002 8.079173e-002 -2.873715e-001 1.235492e-001 4.251059e-001 9.309339e-002 3.742572e-002 3.193491e-001 1.815177e-001 -1.999768e-001
<VARIANCE> 25
 1.557441e+001 9.646397e+000 6.403043e+001 9.422675e+001 2.583320e+001 2.288758e+001 2.902735e+001 3.586251e+001 3.181110e+001 5.405335e+001 3.180013e+001 3.785772e+001 1.337165e-001 2.672756e-001 7.881106e-001 9.080230e-001 7.854171e-001 1.175692e+000 1.622764e+000 1.116916e+000 1.249109e+000 1.952827e+000 1.204114e+000 1.243387e+000 1.455080e-001
<GCONST> 8.375416e+001
<STATE> 3
<MEAN> 25
 7.165528e+000 3.330550e+000 -3.722085e-001 -1.344549e+001 2.562859e+000 -5.190152e+000 -1.097969e+000 -6.064870e-002 -2.228660e+000 5.909142e-001 8.709849e-001 -2.320216e+000 -4.231560e-001 -1.684171e+000 -2.398444e-001 -1.314437e+000 9.702199e-001 3.757154e-001 1.001534e+000 -4.112884e-001 1.422658e+000 -6.117575e-001 -3.164490e-001 -1.195610e+000 1.504780e+000
<VARIANCE> 25
 6.337364e+000 4.088860e+001 4.402855e+001 6.395882e+001 5.970153e+001 5.640769e+001 3.630890e+001 5.809633e+001 4.324655e+001 1.315993e+002 4.066850e+001 4.399990e+001 6.632771e-001 2.454062e+000 2.350711e+000 5.605534e+000 3.508447e+000 2.336541e+000 2.922316e+000 3.041258e+000 3.095692e+000 8.782073e+000 6.831403e+000 3.535321e+000 9.683051e-001
<GCONST> 1.051688e+002
<STATE> 4
<MEAN> 25
 2.929379e+000 -6.415683e+000 -3.007321e+000 -1.100621e+001 3.822028e+000 -3.014287e+000 6.048490e+000 5.421026e-001 -1.241399e-001 -7.370160e-001 2.066921e+000 -9.807204e-001 -1.896133e-001 -4.143938e-001 -1.758010e-001 2.879526e-001 -4.004884e-002 1.049220e-001 1.710303e-001 -2.220782e-003 -5.767690e-002 1.885390e-001 2.088769e-001 4.174101e-001 -2.517159e-002
<VARIANCE> 25
 1.274049e+001 6.433260e+001 4.650635e+001 2.367754e+001 4.089323e+001 4.474199e+001 3.819937e+001 3.747596e+001 2.740051e+001 4.419847e+001 4.890469e+001 3.815084e+001 1.754653e-001 7.218273e-001 5.384253e-001 5.729930e-001 7.934304e-001 1.065264e+000 9.774842e-001 1.597480e+000 1.028553e+000 2.209592e+000 1.428497e+000 1.469553e+000 3.334610e-001
<GCONST> 8.656849e+001
<TRANSP> 5
 0.000000e+000 1.000000e+000 0.000000e+000 0.000000e+000 0.000000e+000
 0.000000e+000 9.022898e-001 9.771017e-002 0.000000e+000 0.000000e+000
 0.000000e+000 0.000000e+000 8.544644e-001 1.455356e-001 0.000000e+000
 0.000000e+000 0.000000e+000 0.000000e+000 9.376523e-001 6.234768e-002
 0.000000e+000 0.000000e+000 0.000000e+000 0.000000e+000 0.000000e+000
<ENDHMM>
~h "y"
<BEGINHMM>
<NUMSTATES> 5
<STATE> 2
<MEAN> 25
 2.879815e+000 -4.026745e+000 7.028242e+000 -9.535237e+000 -7.964921e+000 -3.747404e+000 4.479493e+000 -3.655322e+000 -4.273550e+000 -4.639793e-001 -2.794538e+000 -2.468420e-001 -3.950787e-001 1.610877e+000 1.519346e+000 -6.963871e-001 -9.306722e-001 7.534835e-002 -1.371657e+000 -1.159971e+000 3.563856e-001 1.732025e+000 4.150474e-002 2.943988e-001 -4.710938e-001
<VARIANCE> 25
 2.215623e+001 4.477656e+001 3.467950e+001 3.390607e+001 7.830182e+001 1.785423e+001 9.159894e+001 4.615687e+001 6.011404e+001 4.941034e+001 3.040970e+001 2.528269e+001 1.552850e-001 1.047674e+000 1.173343e+000 1.365903e+000 3.210368e+000 1.499371e+000 4.024896e+000 2.834346e+000 2.199772e+000 3.432179e+000 1.697186e+000 2.711792e+000 2.153235e-001
<GCONST> 9.482404e+001
<STATE> 3
<MEAN> 25
 9.978849e-001 2.125361e+000 1.237667e+001 -1.238831e+001 -1.110814e+001 -3.325353e+000 -2.186794e+000 -6.059654e+000 -3.630866e+000 5.960138e+000 -3.153604e+000 6.943877e-001 1.545055e-001 -1.025839e+000 -8.724751e-001 -6.342872e-002 -2.730639e-001 -2.354034e-001 1.477315e+000 9.171940e-001 4.474945e-002 -3.540608e-001 1.659166e-001 -5.168815e-001 4.843610e-001
<VARIANCE> 25
 2.130285e+001 2.258159e+001 3.615869e+001 4.035562e+001 7.371481e+001 2.514380e+001 7.590720e+001 3.860643e+001 5.048968e+001 2.851234e+001 2.949244e+001 4.098260e+001 3.185789e-001 2.369567e+000 3.000758e+000 1.623506e+000 3.900971e+000 1.593928e+000 4.771770e+000 3.077986e+000 1.866304e+000 4.429001e+000 1.830511e+000 2.021453e+000 5.806731e-001
<GCONST> 9.797935e+001
<STATE> 4
<MEAN> 25
 2.874577e+000 -5.927673e+000 5.081501e+000 -3.202462e+000 2.110588e+000 -1.026301e+001 -7.425685e-001 -1.490892e+000 1.406632e+000 -3.593628e+000 3.455375e+000 -5.692023e+000 3.732829e-001 -8.541689e-001 -1.397011e+000 -1.047124e-002 1.301316e+000 5.630360e-001 5.347924e-001 3.551034e-001 1.045088e-001 -1.180020e+000 -6.811882e-002 4.797871e-001 2.864784e-001
<VARIANCE> 25
 1.396458e+001 9.509995e+000 3.505915e+001 1.235114e+002 7.945141e+001 4.513159e+001 1.325856e+002 3.398716e+001 4.750580e+001 3.275497e+001 5.459069e+001 3.477782e+001 3.160611e-001 1.526177e+000 3.421451e+000 5.010973e+000 5.667028e+000 1.990032e+000 3.203535e+000 1.828853e+000 2.484119e+000 4.849496e+000 2.858933e+000 1.806045e+000 3.617613e-001
<GCONST> 1.001229e+002
<TRANSP> 5
 0.000000e+000 1.000000e+000 0.000000e+000 0.000000e+000 0.000000e+000
 0.000000e+000 7.894425e-001 2.105575e-001 0.000000e+000 0.000000e+000
 0.000000e+000 0.000000e+000 8.468425e-001 1.531575e-001 0.000000e+000
 0.000000e+000 0.000000e+000 0.000000e+000 7.171170e-001 2.828830e-001
 0.000000e+000 0.000000e+000 0.000000e+000 0.000000e+000 0.000000e+000
<ENDHMM>
~h "aa"
<BEGINHMM>
<NUMSTATES> 5
<STATE> 2
<MEAN> 25
 3.319373e+000 -4.367238e+000 -1.947327e+000 -3.392774e+000 1.287276e+000 -2.274886e+000 1.106047e+000 -2.745678e-001 -7.564892e-001 -2.303282e+000 -2.277391e+000 -2.894692e-001 7.438437e-001 -1.854091e+000 -9.362267e-001 -1.539163e+000 1.208520e+000 7.657242e-002 4.413221e-001 -3.324848e-001 -4.752861e-001 -9.649979e-001 -7.727326e-001 6.219007e-002 1.806904e+000
<VARIANCE> 25
 2.876664e+001 4.859231e+001 3.743999e+001 6.383693e+001 4.768013e+001 4.066435e+001 6.735210e+001 5.313888e+001 4.182039e+001 4.278112e+001 4.818087e+001 2.895794e+001 2.699916e+000 3.165462e+000 3.164910e+000 4.626402e+000 4.831326e+000 4.424314e+000 5.339052e+000 6.275812e+000 3.855346e+000 3.900595e+000 4.221252e+000 2.684926e+000 2.616924e+000
<GCONST> 1.089555e+002
<STATE> 3
<MEAN> 25
 2.869940e+000 -1.146711e+001 -4.503302e+000 -7.208473e+000 7.200621e+000 -2.395262e-001 5.280138e+000 -1.434692e+000 -4.467991e-001 -3.999855e+000 -3.010748e+000 -9.550266e-002 3.674485e-001 2.715074e-001 1.390995e-002 6.688295e-001 -1.128792e-001 1.906109e-001 -5.453087e-001 -4.342053e-003 -2.648837e-001 -2.538288e-001 -1.098801e-001 5.374163e-002 -5.822713e-001
<VARIANCE> 25
 1.531316e+001 2.143896e+001 2.701100e+001 3.808810e+001 3.662536e+001 3.566045e+001 5.214958e+001 4.206449e+001 3.893280e+001 3.094919e+001 3.892327e+001 2.682600e+001 6.317813e-001 1.696623e+000 1.282559e+000 1.850064e+000 2.696188e+000 2.033459e+000 2.726006e+000 2.604335e+000 2.127905e+000 2.061637e+000 1.800707e+000 1.777354e+000 1.207192e+000
<GCONST> 9.501558e+001
<STATE> 4
<MEAN> 25
 8.880343e+000 -7.660893e+000 -6.181293e+000 -2.967076e+000 3.891501e-001 -1.908933e+000 -4.030559e+000 -1.162810e+000 -5.309092e+000 -8.588223e+000 -5.403331e+000 1.725868e+000 -1.318030e-001 6.528808e-001 1.895519e-001 2.799224e-001 -3.710610e-001 -1.920013e-001 -1.809554e-001 -1.187825e-001 -7.317290e-002 -5.466012e-002 2.178548e-001 -1.024903e-001 -5.293396e-001
<VARIANCE> 25
 2.009893e+001 3.856933e+001 2.744914e+001 3.573057e+001 3.438365e+001 3.308507e+001 5.086112e+001 3.228675e+001 3.035391e+001 3.551021e+001 3.849766e+001 2.796195e+001 3.404101e-001 1.311832e+000 1.005089e+000 1.231203e+000 1.910826e+000 1.697209e+000 1.915049e+000 1.908372e+000 1.545760e+000 1.851845e+000 1.757333e+000 1.497669e+000 3.889171e-001
<GCONST> 9.084742e+001
<TRANSP> 5
 0.000000e+000 1.000000e+000 0.000000e+000 0.000000e+000 0.000000e+000
 0.000000e+000 6.861777e-001 3.138222e-001 0.000000e+000 0.000000e+000
 0.000000e+000 0.000000e+000 8.327969e-001 1.672032e-001 0.000000e+000
 0.000000e+000 0.000000e+000 0.000000e+000 8.033351e-001 1.966649e-001
 0.000000e+000 0.000000e+000 0.000000e+000 0.000000e+000 0.000000e+000
<ENDHMM>
~h "ao"
<BEGINHMM>
<NUMSTATES> 5
<STATE> 2
<MEAN> 25
 6.195664e+000 1.929799e+000 -3.739886e+000 -1.095810e+001 2.698183e+000 -5.050282e+000 -3.234962e+000 -3.203724e+000 -3.996569e+000 6.844439e+000 -2.222082e+000 -3.234876e+000 7.579620e-001 -7.008739e-001 -2.262346e-001 -3.293578e+000 -3.736842e-001 -4.037529e-001 6.206537e-001 1.750410e-001 6.924642e-001 1.245604e+000 1.251687e-002 -7.780554e-001 1.288353e+000
<VARIANCE> 25
 1.267038e+001 1.161537e+001 3.131405e+001 4.778075e+001 5.219633e+001 1.747688e+001 3.174934e+001 3.068970e+001 3.572019e+001 6.022561e+001 2.050762e+001 2.154135e+001 1.706835e+000 7.830271e-001 1.850562e+000 3.742077e+000 3.120002e+000 2.565050e+000 4.509327e+000 3.007669e+000 3.054358e+000 4.950689e+000 1.785084e+000 1.546198e+000 4.892306e-001
<GCONST> 9.564024e+001
<STATE> 3
<MEAN> 25
 6.225854e+000 -6.458336e-001 -4.014965e+000 -1.768304e+001 1.979915e+000 -4.423680e+000 1.663725e+000 -1.347038e-002 -1.218746e+000 5.118182e+000 -6.296443e-001 -6.751896e+000 1.203655e-001 -7.133002e-001 -4.507663e-001 2.361011e-001 -3.902400e-001 3.313862e-001 3.850575e-001 3.552200e-001 8.681720e-001 -1.225345e-001 4.018023e-001 -5.192162e-001 1.702742e-001
<VARIANCE> 25
 5.588550e+000 1.287438e+001 4.966776e+001 2.248067e+001 3.878049e+001 4.345295e+001 3.664599e+001 1.198771e+002 5.103281e+001 4.857022e+001 2.521918e+001 2.425473e+001 1.378064e-001 2.935072e-001 4.524292e-001 1.915721e+000 1.176924e+000 1.473096e+000 1.757530e+000 1.824105e+000 2.378674e+000 2.638350e+000 1.413752e+000 1.255420e+000 1.808694e-001
<GCONST> 8.635487e+001
<STATE> 4
<MEAN> 25
 1.198054e+001 -9.311581e-001 -7.118415e+000 -1.371245e+001 -4.020002e+000 2.415136e-001 -6.913051e+000 -3.925286e+000 3.514956e+000 3.574415e+000 5.486576e-001 -4.211288e+000 4.949714e-002 -5.310782e-001 -3.194339e-003 9.532386e-001 -7.003999e-001 7.838658e-003 2.303284e-002 2.249352e-001 5.858923e-001 -6.370711e-001 -3.896179e-001 2.067684e-001 -7.146535e-002
<VARIANCE> 25
 1.643500e+001 1.845932e+001 1.382160e+001 2.741798e+001 3.722589e+001 2.521700e+001 7.115262e+001 4.369435e+001 4.406775e+001 3.988481e+001 2.735629e+001 2.471481e+001 1.352221e-001 9.299811e-001 6.071141e-001 3.215963e+000 2.577119e+000 1.886522e+000 1.266348e+000 1.809128e+000 2.824617e+000 3.442234e+000 2.427263e+000 1.299258e+000 1.062967e-001
<GCONST> 8.866156e+001
<TRANSP> 5
 0.000000e+000 1.000000e+000 0.000000e+000 0.000000e+000 0.000000e+000
 0.000000e+000 5.434228e-001 4.565772e-001 0.000000e+000 0.000000e+000
 0.000000e+000 0.000000e+000 8.104017e-001 1.895983e-001 0.000000e+000
 0.000000e+000 0.000000e+000 0.000000e+000 8.098890e-001 1.901110e-001
 0.000000e+000 0.000000e+000 0.000000e+000 0.000000e+000 0.000000e+000
<ENDHMM>
~h "eh"
<BEGINHMM>
<NUMSTATES> 5
<STATE> 2
<MEAN> 25
 1.584924e+000 -1.311620e+000 -1.631864e+000 -2.764063e+000 -1.414646e+000 -2.930735e+000 2.198549e+000 -1.761379e-002 6.311641e-001 1.776190e+000 -1.116117e+000 -1.247040e+000 1.307756e+000 -4.921993e-001 -2.610977e-001 -1.079549e+000 -3.034097e-001 -1.506285e+000 -6.495327e-001 -3.964730e-001 7.944760e-002 -4.745511e-001 -1.135535e+000 -1.981937e-001 1.487179e+000
<VARIANCE> 25
 2.874624e+001 2.188121e+001 3.631905e+001 4.878630e+001 4.771116e+001 5.252536e+001 4.470626e+001 3.991726e+001 4.946561e+001 4.075008e+001 5.278840e+001 2.619256e+001 3.514714e+000 2.537853e+000 2.242673e+000 4.656023e+000 3.802110e+000 5.319124e+000 4.101005e+000 4.427576e+000 4.212523e+000 4.715648e+000 4.623281e+000 2.506897e+000 3.926946e+000
<GCONST> 1.072718e+002
<STATE> 3
<MEAN> 25
 6.143078e+000 -2.648235e+000 -1.220805e+000 -4.240990e+000 -4.709168e+000 -4.420144e+000 2.450684e+000 -2.684776e+000 -1.592990e+000 -1.128130e+000 -3.557992e+000 -8.529689e-001 1.698685e-001 4.860637e-001 -1.017447e-001 1.236894e+000 2.038447e-001 2.167264e-001 -7.552574e-001 1.809213e-001 -2.806407e-001 -4.586163e-001 3.754104e-001 3.353606e-001 -2.738529e-001
<VARIANCE> 25
 2.489264e+001 3.427059e+001 6.472434e+001 3.040211e+001 4.298026e+001 7.503250e+001 6.193970e+001 6.534212e+001 7.856603e+001 4.891345e+001 4.378719e+001 2.768072e+001 2.438499e+000 4.525476e+000 1.771386e+000 3.812916e+000 2.568105e+000 4.232593e+000 3.437443e+000 7.084744e+000 3.025317e+000 3.820133e+000 3.109086e+000 2.447290e+000 2.845956e+000
<GCONST> 1.074314e+002
<STATE> 4
<MEAN> 25
 7.045321e+000 -2.003412e+000 -1.153473e+000 -1.484545e+000 -4.073949e+000 -6.129628e+000 -2.405550e+000 -3.222411e-001 -3.609266e+000 -5.350227e+000 -4.232379e+000 1.575799e+000 -8.048167e-001 9.695281e-001 -1.409915e-001 8.602893e-001 1.943623e-001 4.929982e-001 1.207667e-001 -4.269031e-001 -9.325407e-002 1.889866e-001 5.771254e-001 -4.571285e-001 -4.358014e-001
<VARIANCE> 25
 2.469897e+001 5.867949e+001 2.676054e+001 3.453106e+001 3.787269e+001 6.201223e+001 3.732679e+001 3.902529e+001 3.872857e+001 4.507660e+001 3.407554e+001 2.789240e+001 2.682679e+000 2.960765e+000 1.189719e+000 2.423277e+000 2.505412e+000 4.134042e+000 2.902447e+000 2.573269e+000 2.044684e+000 2.235532e+000 1.860767e+000 2.421948e+000 6.436413e-001
<GCONST> 9.948614e+001
<TRANSP> 5
 0.000000e+000 1.000000e+000 0.000000e+000 0.000000e+000 0.000000e+000
 0.000000e+000 6.562292e-001 3.437708e-001 0.000000e+000 0.000000e+000
 0.000000e+000 0.000000e+000 4.805133e-001 5.194867e-001 0.000000e+000
 0.000000e+000 0.000000e+000 0.000000e+000 6.955878e-001 3.044121e-001
 0.000000e+000 0.000000e+000 0.000000e+000 0.000000e+000 0.000000e+000
<ENDHMM>
~h "hh"
<BEGINHMM>
<NUMSTATES> 5
<STATE> 2
<MEAN> 25
 1.062044e+000 -3.022162e-001 -3.556421e+000 -1.552996e+000 1.457155e+000 -4.735242e+000 -3.680745e+000 -5.808336e+000 -2.641868e+000 -1.518355e+000 1.201327e+000 7.493027e-001 -9.902267e-001 -5.074012e-001 6.215921e-002 1.556387e+000 2.593782e-001 9.151943e-001 7.562737e-001 6.445171e-001 9.995137e-001 4.382047e-001 4.150003e-001 -4.616286e-001 -5.152833e-001
<VARIANCE> 25
 4.689748e+000 9.143664e+000 8.918441e+000 2.287213e+001 1.606992e+001 2.429501e+001 3.202631e+001 1.545103e+001 2.690781e+001 3.657482e+001 2.457720e+001 2.545106e+001 3.609615e-001 1.067327e+000 6.845291e-001 3.615322e+000 1.293495e+000 1.516492e+000 1.389616e+000 1.969121e+000 2.419046e+000 2.545326e+000 1.966925e+000 1.274807e+000 2.314283e-001
<GCONST> 8.343132e+001
<STATE> 3
<MEAN> 25
 2.065371e-001 -1.559779e+000 -2.378527e+000 1.866567e-001 5.588902e-001 2.128607e+000 3.003008e+000 -6.871784e-001 1.497357e+000 3.537546e+000 1.407375e+000 -3.107776e-001 -2.391229e-001 1.461947e-001 7.149930e-002 3.208322e-001 1.850581e-001 6.486515e-001 3.351184e-001 5.446895e-001 5.029687e-001 4.126635e-001 3.687017e-001 2.241460e-001 -5.241218e-001
<VARIANCE> 25
 7.396153e+000 1.182945e+001 1.151972e+001 1.845915e+001 2.892170e+001 1.754346e+001 4.543046e+001 2.783417e+001 2.273051e+001 1.596658e+001 2.569449e+001 1.472291e+001 3.801327e-001 7.921063e-001 9.861462e-001 1.209952e+000 1.635261e+000 1.357277e+000 1.242102e+000 1.955094e+000 1.350847e+000 1.807207e+000 9.530651e-001 9.824144e-001 2.811415e-001
<GCONST> 8.119837e+001
<STATE> 4
<MEAN> 25
 -3.532519e+000 5.787136e-001 1.124281e+000 2.720686e+000 2.433743e+000 2.739080e+000 2.644192e+000 1.478355e+000 2.717245e+000 2.450597e+000 3.175495e+000 1.848334e-001 -2.648268e-002 3.406476e-002 9.207778e-002 5.117194e-002 5.001562e-003 3.558946e-002 2.029156e-002 5.047435e-002 1.108452e-003 1.777524e-002 1.102362e-002 1.980705e-002 -3.367293e-002
<VARIANCE> 25
 1.302212e+001 3.598463e+000 6.358033e+000 8.028995e+000 9.330946e+000 1.296754e+001 1.494216e+001 1.476390e+001 1.830892e+001 1.673453e+001 1.229558e+001 1.451369e+001 1.563690e-001 2.579737e-001 4.709102e-001 5.573196e-001 8.697448e-001 1.043181e+000 1.002352e+000 1.355057e+000 1.661013e+000 1.513344e+000 1.270630e+000 1.345217e+000 5.259576e-002
<GCONST> 6.900169e+001
<TRANSP> 5
 0.000000e+000 1.000000e+000 0.000000e+000 0.000000e+000 0.000000e+000
 0.000000e+000 7.324924e-001 2.675076e-001 0.000000e+000 0.000000e+000
 0.000000e+000 0.000000e+000 7.777539e-001 2.222461e-001 0.000000e+000
 0.000000e+000 0.000000e+000 0.000000e+000 9.730864e-001 2.691356e-002
 0.000000e+000 0.000000e+000 0.000000e+000 0.000000e+000 0.000000e+000
<ENDHMM>
~h "ih"
<BEGINHMM>
<NUMSTATES> 5
<STATE> 2
<MEAN> 25
 1.763634e+000 5.561427e+000 1.048412e+001 -5.381127e+000 -3.692647e+000 -3.056502e+000 -5.900854e+000 -5.187048e+000 -7.057295e-001 -1.184888e+000 -3.766829e+000 -1.651205e+000 -7.130532e-002 1.343594e-001 6.571449e-001 -2.971287e-001 1.551071e-001 -3.504386e-001 -6.779070e-001 -4.305622e-002 8.267712e-002 -3.366674e-001 -2.677259e-001 3.720047e-003 1.646511e-001
<VARIANCE> 25
 2.611436e+001 7.122466e+001 6.755851e+001 1.470835e+002 7.964388e+001 4.084932e+001 4.904998e+001 5.206635e+001 4.915832e+001 4.166782e+001 3.015805e+001 3.905622e+001 2.121890e+000 2.615117e+000 4.206072e+000 8.346406e+000 4.792881e+000 3.565095e+000 4.030441e+000 4.339860e+000 4.403116e+000 4.292762e+000 3.216204e+000 2.742615e+000 2.501247e+000
<GCONST> 1.103135e+002
<STATE> 3
<MEAN> 25
 -4.728737e-001 5.639791e+000 9.716726e+000 -8.020570e+000 -1.177914e+000 -3.284330e+000 -7.007154e+000 -4.936728e+000 -7.430495e-001 -5.969099e-001 -3.956440e+000 1.554153e+000 8.975825e-002 -1.858506e-001 -4.143012e-001 6.800308e-001 3.908470e-001 7.529321e-002 1.803747e-001 4.237968e-001 1.732948e-001 -1.012829e-001 3.653656e-001 -1.120861e-001 -4.524657e-001
<VARIANCE> 25
 1.557930e+001 3.471925e+001 4.387607e+001 9.947846e+001 3.965235e+001 2.914285e+001 4.148436e+001 4.273946e+001 3.400748e+001 3.126639e+001 2.285586e+001 2.882989e+001 5.185132e-001 7.040488e-001 1.260471e+000 3.126432e+000 1.939762e+000 1.571579e+000 1.748375e+000 2.305351e+000 1.767747e+000 1.605370e+000 1.511379e+000 1.696777e+000 4.510848e-001
<GCONST> 9.267498e+001
<STATE> 4
<MEAN> 25
 5.996610e-001 1.083317e-001 5.714434e+000 4.643192e+000 1.409429e+000 -2.826793e+000 -3.940406e+000 1.357058e+000 2.017722e+000 -3.397025e+000 1.711520e-001 -1.514907e+000 2.146030e-002 -3.721642e-002 -4.282664e-001 5.383045e-002 -3.580599e-002 1.570983e-001 1.977630e-001 -6.146550e-002 -5.083144e-002 1.439801e-001 1.801382e-001 4.450329e-002 -1.523847e-001
<VARIANCE> 25
 8.299926e+000 2.158281e+001 7.142056e+001 3.992178e+001 3.029140e+001 5.246091e+001 4.727488e+001 3.090089e+001 2.471439e+001 4.770604e+001 2.165127e+001 2.412823e+001 2.973084e-001 5.554768e-001 1.140681e+000 1.340643e+000 1.067353e+000 1.527351e+000 2.018539e+000 1.667927e+000 1.453792e+000 1.736319e+000 1.479603e+000 1.411369e+000 2.667821e-001
<GCONST> 8.774665e+001
<TRANSP> 5
 0.000000e+000 1.000000e+000 0.000000e+000 0.000000e+000 0.000000e+000
 0.000000e+000 8.078914e-001 1.921086e-001 0.000000e+000 0.000000e+000
 0.000000e+000 0.000000e+000 7.618380e-001 2.381620e-001 0.000000e+000
 0.000000e+000 0.000000e+000 0.000000e+000 8.116811e-001 1.883189e-001
 0.000000e+000 0.000000e+000 0.000000e+000 0.000000e+000 0.000000e+000
<ENDHMM>
~h "ng"
<BEGINHMM>
<NUMSTATES> 5
<STATE> 2
<MEAN> 25
 3.597215e+000 -3.562895e+000 -1.870685e+000 -2.647418e+000 7.541768e+000 -4.113205e+000 -7.616401e-002 -3.800036e+000 3.116114e+000 -2.733955e-001 6.638003e+000 -3.451091e+000 -4.781715e-002 5.420783e-001 2.565711e-001 6.363300e-001 5.338302e-002 4.520617e-001 -4.314159e-001 1.785184e-001 1.056578e-001 -1.175299e-001 -2.331162e-001 -1.531160e-001 -5.712693e-001
<VARIANCE> 25
 7.332234e+000 2.730691e+001 1.863652e+001 3.628012e+001 3.829122e+001 3.895180e+001 3.442815e+001 2.482281e+001 3.856889e+001 4.341782e+001 5.337598e+001 2.508024e+001 3.024138e-001 1.631204e+000 1.133061e+000 2.780549e+000 1.524310e+000 1.484204e+000 2.911077e+000 1.842123e+000 2.516404e+000 2.229272e+000 3.789046e+000 1.444784e+000 1.282016e+000
<GCONST> 9.305349e+001
<STATE> 3
<MEAN> 25
 3.394333e+000 4.823204e+000 2.780024e+000 5.435567e+000 3.142810e+000 6.024657e-001 -6.866302e-001 -2.720463e+000 -2.762891e+000 -2.395097e+000 -4.628443e+000 -4.242820e+000 -4.234485e-001 -8.392393e-002 -5.962877e-002 2.995816e-001 -1.437790e-001 2.398853e-001 1.395967e-001 4.112175e-001 3.956186e-001 3.717548e-001 4.715311e-001 4.646756e-001 -4.575375e-001
<VARIANCE> 25
 1.310036e+001 2.797240e+001 1.467620e+001 1.590366e+001 2.980303e+001 1.856686e+001 2.083505e+001 3.430493e+001 2.726586e+001 2.226432e+001 2.074317e+001 3.146879e+001 4.118838e-001 7.541580e-001 7.157111e-001 9.101233e-001 1.118182e+000 1.610394e+000 1.839064e+000 1.532726e+000 1.772243e+000 1.705830e+000 1.961875e+000 1.478023e+000 2.036971e-001
<GCONST> 8.368776e+001
<STATE> 4
<MEAN> 25
 -5.383409e-001 -2.422369e-002 -2.108255e+000 3.314542e+000 -6.694956e-001 2.580471e+000 1.901964e+000 4.309693e-001 4.631629e-001 2.457082e+000 1.197205e+000 1.877400e+000 -6.828859e-002 -9.921366e-003 -5.101552e-002 -3.591810e-002 -5.210268e-002 -2.112932e-002 -2.936142e-002 2.321973e-002 5.423629e-003 5.330819e-002 1.826334e-002 5.846291e-002 -5.503082e-002
<VARIANCE> 25
 8.316474e+000 7.359385e+000 2.079440e+001 1.496798e+001 1.671327e+001 1.151345e+001 1.822546e+001 1.558686e+001 1.494515e+001 2.403927e+001 1.435572e+001 1.766012e+001 1.216535e-001 2.729525e-001 4.492715e-001 8.232653e-001 8.901456e-001 9.022755e-001 1.083063e+000 9.685904e-001 1.264692e+000 1.165024e+000 1.264038e+000 1.031937e+000 9.023805e-002
<GCONST> 7.180729e+001
<TRANSP> 5
 0.000000e+000 1.000000e+000 0.000000e+000 0.000000e+000 0.000000e+000
 0.000000e+000 8.156369e-001 1.843631e-001 0.000000e+000 0.000000e+000
 0.000000e+000 0.000000e+000 7.657393e-001 2.342608e-001 0.000000e+000
 0.000000e+000 0.000000e+000 0.000000e+000 9.404777e-001 5.952236e-002
 0.000000e+000 0.000000e+000 0.000000e+000 0.000000e+000 0.000000e+000
<ENDHMM>
~h "oh"
<BEGINHMM>
<NUMSTATES> 5
<STATE> 2
<MEAN> 25
 -4.318285e+000 2.220046e+000 2.687504e+000 2.642706e+000 2.533249e+000 9.572033e-001 4.522782e+000 3.101502e+000 4.379671e+000 3.360173e+000 2.407369e+000 -2.062957e-001 -4.353518e-002 -4.414768e-003 2.744724e-002 -6.891453e-003 1.249234e-001 8.310852e-002 1.439489e-001 1.491244e-001 1.798304e-001 1.344138e-001 5.353992e-002 1.668816e-002 -5.184834e-002
<VARIANCE> 25
 3.043302e+000 6.366276e+000 4.863566e+000 1.184516e+001 6.857862e+000 1.132390e+001 1.431998e+001 1.752916e+001 1.773987e+001 1.852173e+001 1.016551e+001 1.303486e+001 1.498305e-001 3.142231e-001 3.500028e-001 4.154354e-001 6.498678e-001 9.644855e-001 1.323077e+000 1.457493e+000 1.502815e+000 1.344183e+000 1.248566e+000 1.516153e+000 2.973346e-002
<GCONST> 6.655500e+001
<STATE> 3
<MEAN> 25
 4.639178e+000 -2.875953e+000 -7.606742e+000 -1.462760e+001 1.559940e+000 1.763165e+000 5.471668e+000 -7.792149e+000 1.759018e+000 5.775216e+000 3.272009e+000 8.563159e-001 3.330030e-001 4.327720e-001 1.887549e-001 1.095585e+000 -5.885900e-002 1.439389e-001 8.122869e-002 3.351823e-001 -4.797935e-001 -4.601331e-001 -5.745788e-001 8.243340e-002 -4.130345e-001
<VARIANCE> 25
 8.525355e+000 2.002298e+001 2.054205e+001 5.727168e+001 4.628460e+000 7.915734e+000 1.468747e+001 3.916812e+001 2.257334e+001 3.467724e+001 2.083091e+001 8.991446e+000 1.858113e-001 1.756086e-001 6.296902e-001 1.628775e+000 7.465239e-001 8.464947e-001 1.986670e+000 7.358597e-001 1.835461e+000 2.360367e+000 1.239804e+000 1.444609e+000 1.004943e-001
<GCONST> 7.628342e+001
<STATE> 4
<MEAN> 25
 2.102302e+000 -1.430554e+000 -2.324335e+000 -3.392327e-001 6.921839e-001 2.143550e+000 2.746747e+000 -1.920244e+000 -3.284048e+000 -2.193924e+000 2.195319e+000 1.339205e+000 -5.621111e-001 -1.126908e-001 2.709420e-001 1.334336e+000 -7.956444e-001 -5.439076e-001 -9.624825e-001 7.797793e-001 3.495244e-002 1.645702e-001 5.177033e-001 -2.254444e-001 -8.674323e-001
<VARIANCE> 25
 1.140101e+001 2.493896e+001 1.829451e+001 1.556116e+001 1.902772e+001 1.225663e+001 1.667900e+001 3.730375e+001 2.457290e+001 1.599149e+001 1.046707e+001 5.704431e+000 8.394797e-001 6.302409e-001 7.788505e-001 7.813827e-001 1.036961e+000 2.438227e+000 4.505014e-001 3.300408e+000 1.295507e+000 1.114314e+000 2.262032e+000 1.003849e+000 7.400456e-001
<GCONST> 8.027399e+001
<TRANSP> 5
 0.000000e+000 1.000000e+000 0.000000e+000 0.000000e+000 0.000000e+000
 0.000000e+000 9.552867e-001 4.471326e-002 0.000000e+000 0.000000e+000
 0.000000e+000 0.000000e+000 7.791609e-001 2.208391e-001 0.000000e+000
 0.000000e+000 0.000000e+000 0.000000e+000 6.177287e-001 3.822713e-001
 0.000000e+000 0.000000e+000 0.000000e+000 0.000000e+000 0.000000e+000
<ENDHMM>
~h "sp"
<BEGINHMM>
<NUMSTATES> 3
<STATE> 2
~s "silst"
<TRANSP> 3
 0.000000e+000 2.773075e-002 9.722692e-001
 0.000000e+000 8.844607e-001 1.155393e-001
 0.000000e+000 0.000000e+000 0.000000e+000
<ENDHMM>
~h "uw"
<BEGINHMM>
<NUMSTATES> 5
<STATE> 2
<MEAN> 25
 2.009591e+000 3.658831e-001 -1.866045e+000 -5.142003e+000 -1.762389e+000 -4.837451e+000 -3.297031e+000 -1.569874e+000 -1.141442e+000 1.309932e+000 8.095240e-001 5.150264e-002 1.796868e+000 3.883091e-001 -8.765522e-001 -2.972311e+000 -2.135500e-001 -6.207999e-001 -8.786867e-001 -1.160806e+000 -7.142749e-001 3.586551e-001 -8.012418e-001 -2.725585e-002 1.062924e+000
<VARIANCE> 25
 2.498487e+001 2.318103e+001 2.889086e+001 5.936513e+001 4.396160e+001 5.784410e+001 4.156768e+001 3.110969e+001 3.512887e+001 4.155598e+001 2.875517e+001 2.332294e+001 2.825583e+000 2.350507e+000 3.308878e+000 5.255834e+000 4.880692e+000 4.339391e+000 4.179929e+000 4.514165e+000 4.309417e+000 4.446742e+000 4.043512e+000 2.432388e+000 1.545522e+000
<GCONST> 1.049701e+002
<STATE> 3
<MEAN> 25
 6.738498e+000 2.800871e+000 -4.562467e+000 -1.079086e+001 1.755823e+000 -4.523623e+000 -5.169086e+000 -5.243712e+000 -2.944716e+000 2.741839e+000 2.774556e-001 -1.057863e+000 5.976712e-001 6.197033e-001 -1.795718e-001 -7.736917e-001 -8.421756e-002 5.945405e-001 -6.024709e-002 -1.053493e-001 -5.536547e-001 2.295410e-001 -4.476993e-001 -2.661846e-001 -3.251948e-001
<VARIANCE> 25
 1.652591e+001 3.599089e+001 5.070057e+001 6.352260e+001 9.703120e+001 4.504251e+001 5.761531e+001 4.061883e+001 5.368669e+001 5.090693e+001 6.082815e+001 4.470289e+001 1.698918e+000 2.750227e+000 2.718230e+000 7.738826e+000 5.671324e+000 4.321466e+000 3.312863e+000 4.087067e+000 4.357061e+000 3.824393e+000 4.589011e+000 3.712543e+000 3.125340e+000
<GCONST> 1.095551e+002
<STATE> 4
<MEAN> 25
 6.941868e+000 3.989529e+000 -9.876878e-001 -9.089133e+000 -3.119793e+000 -5.823942e+000 -5.561897e+000 -4.244616e+000 -4.504027e+000 5.789790e-001 -2.651839e+000 -2.198758e+000 -1.498683e-001 1.022819e-001 2.973536e-001 5.820407e-001 5.105317e-002 8.759803e-002 -5.508744e-002 -1.402644e-001 3.705312e-002 -1.055635e-001 1.066967e-001 7.670996e-002 -3.552256e-001
<VARIANCE> 25
 1.301090e+001 1.623179e+001 4.653804e+001 7.273707e+001 4.896341e+001 3.581306e+001 4.196535e+001 3.697369e+001 3.731722e+001 4.892212e+001 3.335791e+001 2.749521e+001 3.699097e-001 7.064390e-001 1.093581e+000 2.553590e+000 1.846022e+000 2.403110e+000 2.006782e+000 2.259832e+000 2.260534e+000 2.098769e+000 2.170097e+000 1.674821e+000 4.502651e-001
<GCONST> 9.331031e+001
<TRANSP> 5
 0.000000e+000 1.000000e+000 0.000000e+000 0.000000e+000 0.000000e+000
 0.000000e+000 4.700126e-001 5.299874e-001 0.000000e+000 0.000000e+000
 0.000000e+000 0.000000e+000 6.357837e-001 3.642162e-001 0.000000e+000
 0.000000e+000 0.000000e+000 0.000000e+000 8.635601e-001 1.364399e-001
 0.000000e+000 0.000000e+000 0.000000e+000 0.000000e+000 0.000000e+000
<ENDHMM>
~h "sil"
<BEGINHMM>
<NUMSTATES> 5
<STATE> 2
<MEAN> 25
 -1.624966e+001 6.537365e+000 -2.716902e+000 1.064697e+001 -3.775605e+000 7.700681e+000 -3.814432e+000 8.919275e+000 9.331895e+000 3.725431e+000 5.780303e+000 2.328228e+000 -1.453457e-002 3.479996e-002 -1.126567e-002 -4.168241e-002 3.707422e-002 6.031433e-002 -3.131504e-002 -2.520283e-002 1.088866e-001 9.132069e-002 3.261485e-002 -8.146194e-002 -2.659666e-002
<VARIANCE> 25
 3.499488e+001 1.566885e+001 2.272735e+001 2.260659e+001 2.459312e+001 1.980902e+001 2.191265e+001 3.696444e+001 3.041348e+001 1.981081e+001 2.026465e+001 1.321763e+001 8.047520e-002 1.876415e-001 2.885915e-001 4.332138e-001 5.526326e-001 6.999354e-001 9.305788e-001 1.152017e+000 1.074607e+000 1.488612e+000 1.163663e+000 1.250253e+000 2.726753e-002
<GCONST> 7.346288e+001
<STATE> 3
~s "silst"
<STATE> 4
<MEAN> 25
 -2.875349e+000 9.848102e-001 -5.400500e-001 2.920334e+000 9.545895e-001 3.184823e+000 1.976083e+000 1.531758e+000 1.692754e+000 2.426321e+000 2.015580e+000 9.696110e-001 -3.634736e-002 1.425753e-002 -2.441104e-003 2.035225e-002 1.778078e-002 2.042296e-002 2.449573e-002 4.190601e-003 -6.177579e-003 3.867469e-002 2.591784e-002 2.374773e-003 -1.043225e-002
<VARIANCE> 25
 1.962239e+001 1.054103e+001 1.663961e+001 1.670434e+001 2.040505e+001 1.589716e+001 2.137196e+001 2.130326e+001 2.135814e+001 2.625039e+001 1.780785e+001 1.487707e+001 1.650841e-001 3.420597e-001 5.079140e-001 7.114686e-001 8.998824e-001 1.043756e+000 1.135507e+000 1.282888e+000 1.386801e+000 1.420127e+000 1.239063e+000 1.207060e+000 8.479050e-002
<GCONST> 7.575208e+001
<TRANSP> 5
 0.000000e+000 1.000000e+000 0.000000e+000 0.000000e+000 0.000000e+000
 0.000000e+000 8.758884e-001 3.668361e-002 8.742806e-002 0.000000e+000
 0.000000e+000 0.000000e+000 9.444442e-001 5.555575e-002 0.000000e+000
 0.000000e+000 6.609549e-003 0.000000e+000 9.457324e-001 4.765802e-002
 0.000000e+000 0.000000e+000 0.000000e+000 0.000000e+000 0.000000e+000
<ENDHMM>
