~o
<STREAMINFO> 1 25
<VECSIZE> 25<NULLD><MFCC_D_N_Z_0><DIAGC>
~t "T_b"
<TRANSP> 5
 0.000000e+000 1.000000e+000 0.000000e+000 0.000000e+000 0.000000e+000
 0.000000e+000 7.694229e-001 2.305772e-001 0.000000e+000 0.000000e+000
 0.000000e+000 0.000000e+000 7.635893e-001 2.364107e-001 0.000000e+000
 0.000000e+000 0.000000e+000 0.000000e+000 9.241129e-001 7.588710e-002
 0.000000e+000 0.000000e+000 0.000000e+000 0.000000e+000 0.000000e+000
~t "T_c"
<TRANSP> 5
 0.000000e+000 1.000000e+000 0.000000e+000 0.000000e+000 0.000000e+000
 0.000000e+000 6.000000e-001 4.000000e-001 0.000000e+000 0.000000e+000
 0.000000e+000 0.000000e+000 6.000000e-001 4.000000e-001 0.000000e+000
 0.000000e+000 0.000000e+000 0.000000e+000 7.000000e-001 3.000000e-001
 0.000000e+000 0.000000e+000 0.000000e+000 0.000000e+000 0.000000e+000
~t "T_d"
<TRANSP> 5
 0.000000e+000 1.000000e+000 0.000000e+000 0.000000e+000 0.000000e+000
 0.000000e+000 6.360071e-001 3.639930e-001 0.000000e+000 0.000000e+000
 0.000000e+000 0.000000e+000 5.707906e-001 4.292095e-001 0.000000e+000
 0.000000e+000 0.000000e+000 0.000000e+000 8.873174e-001 1.126827e-001
 0.000000e+000 0.000000e+000 0.000000e+000 0.000000e+000 0.000000e+000
~t "T_g"
<TRANSP> 5
 0.000000e+000 1.000000e+000 0.000000e+000 0.000000e+000 0.000000e+000
 0.000000e+000 7.500183e-001 2.499817e-001 0.000000e+000 0.000000e+000
 0.000000e+000 0.000000e+000 5.871267e-001 4.128733e-001 0.000000e+000
 0.000000e+000 0.000000e+000 0.000000e+000 5.245034e-001 4.754967e-001
 0.000000e+000 0.000000e+000 0.000000e+000 0.000000e+000 0.000000e+000
~t "T_h"
<TRANSP> 5
 0.000000e+000 1.000000e+000 0.000000e+000 0.000000e+000 0.000000e+000
 0.000000e+000 9.488009e-001 5.119919e-002 0.000000e+000 0.000000e+000
 0.000000e+000 0.000000e+000 7.446951e-001 2.553048e-001 0.000000e+000
 0.000000e+000 0.000000e+000 0.000000e+000 7.141426e-001 2.858574e-001
 0.000000e+000 0.000000e+000 0.000000e+000 0.000000e+000 0.000000e+000
~t "T_j"
<TRANSP> 5
 0.000000e+000 1.000000e+000 0.000000e+000 0.000000e+000 0.000000e+000
 0.000000e+000 8.771122e-001 1.228878e-001 0.000000e+000 0.000000e+000
 0.000000e+000 0.000000e+000 8.590757e-001 1.409242e-001 0.000000e+000
 0.000000e+000 0.000000e+000 0.000000e+000 9.220831e-001 7.791680e-002
 0.000000e+000 0.000000e+000 0.000000e+000 0.000000e+000 0.000000e+000
~t "T_k"
<TRANSP> 5
 0.000000e+000 1.000000e+000 0.000000e+000 0.000000e+000 0.000000e+000
 0.000000e+000 6.796418e-001 3.203582e-001 0.000000e+000 0.000000e+000
 0.000000e+000 0.000000e+000 6.211836e-001 3.788164e-001 0.000000e+000
 0.000000e+000 0.000000e+000 0.000000e+000 8.351730e-001 1.648270e-001
 0.000000e+000 0.000000e+000 0.000000e+000 0.000000e+000 0.000000e+000
~t "T_l"
<TRANSP> 5
 0.000000e+000 1.000000e+000 0.000000e+000 0.000000e+000 0.000000e+000
 0.000000e+000 7.728295e-001 2.271705e-001 0.000000e+000 0.000000e+000
 0.000000e+000 0.000000e+000 7.761403e-001 2.238597e-001 0.000000e+000
 0.000000e+000 0.000000e+000 0.000000e+000 9.011842e-001 9.881581e-002
 0.000000e+000 0.000000e+000 0.000000e+000 0.000000e+000 0.000000e+000
~t "T_m"
<TRANSP> 5
 0.000000e+000 1.000000e+000 0.000000e+000 0.000000e+000 0.000000e+000
 0.000000e+000 8.078753e-001 1.921247e-001 0.000000e+000 0.000000e+000
 0.000000e+000 0.000000e+000 8.140772e-001 1.859228e-001 0.000000e+000
 0.000000e+000 0.000000e+000 0.000000e+000 9.481648e-001 5.183524e-002
 0.000000e+000 0.000000e+000 0.000000e+000 0.000000e+000 0.000000e+000
~t "T_n"
<TRANSP> 5
 0.000000e+000 1.000000e+000 0.000000e+000 0.000000e+000 0.000000e+000
 0.000000e+000 7.468281e-001 2.531718e-001 0.000000e+000 0.000000e+000
 0.000000e+000 0.000000e+000 8.239830e-001 1.760170e-001 0.000000e+000
 0.000000e+000 0.000000e+000 0.000000e+000 9.388400e-001 6.116004e-002
 0.000000e+000 0.000000e+000 0.000000e+000 0.000000e+000 0.000000e+000
~t "T_p"
<TRANSP> 5
 0.000000e+000 1.000000e+000 0.000000e+000 0.000000e+000 0.000000e+000
 0.000000e+000 7.113959e-001 2.886042e-001 0.000000e+000 0.000000e+000
 0.000000e+000 0.000000e+000 8.472371e-001 1.527629e-001 0.000000e+000
 0.000000e+000 0.000000e+000 0.000000e+000 9.519393e-001 4.806063e-002
 0.000000e+000 0.000000e+000 0.000000e+000 0.000000e+000 0.000000e+000
~t "T_r"
<TRANSP> 5
 0.000000e+000 1.000000e+000 0.000000e+000 0.000000e+000 0.000000e+000
 0.000000e+000 8.003550e-001 1.996450e-001 0.000000e+000 0.000000e+000
 0.000000e+000 0.000000e+000 7.416200e-001 2.583800e-001 0.000000e+000
 0.000000e+000 0.000000e+000 0.000000e+000 7.741175e-001 2.258825e-001
 0.000000e+000 0.000000e+000 0.000000e+000 0.000000e+000 0.000000e+000
~t "T_s"
<TRANSP> 5
 0.000000e+000 1.000000e+000 0.000000e+000 0.000000e+000 0.000000e+000
 0.000000e+000 8.666255e-001 1.333744e-001 0.000000e+000 0.000000e+000
 0.000000e+000 0.000000e+000 6.825863e-001 3.174137e-001 0.000000e+000
 0.000000e+000 0.000000e+000 0.000000e+000 6.429939e-001 3.570061e-001
 0.000000e+000 0.000000e+000 0.000000e+000 0.000000e+000 0.000000e+000
~t "T_t"
<TRANSP> 5
 0.000000e+000 1.000000e+000 0.000000e+000 0.000000e+000 0.000000e+000
 0.000000e+000 7.039052e-001 2.960948e-001 0.000000e+000 0.000000e+000
 0.000000e+000 0.000000e+000 5.403786e-001 4.596213e-001 0.000000e+000
 0.000000e+000 0.000000e+000 0.000000e+000 7.076746e-001 2.923253e-001
 0.000000e+000 0.000000e+000 0.000000e+000 0.000000e+000 0.000000e+000
~t "T_w"
<TRANSP> 5
 0.000000e+000 1.000000e+000 0.000000e+000 0.000000e+000 0.000000e+000
 0.000000e+000 8.871070e-001 1.128930e-001 0.000000e+000 0.000000e+000
 0.000000e+000 0.000000e+000 8.601015e-001 1.398984e-001 0.000000e+000
 0.000000e+000 0.000000e+000 0.000000e+000 8.480563e-001 1.519436e-001
 0.000000e+000 0.000000e+000 0.000000e+000 0.000000e+000 0.000000e+000
~t "T_y"
<TRANSP> 5
 0.000000e+000 1.000000e+000 0.000000e+000 0.000000e+000 0.000000e+000
 0.000000e+000 5.495086e-001 4.504914e-001 0.000000e+000 0.000000e+000
 0.000000e+000 0.000000e+000 7.675814e-001 2.324186e-001 0.000000e+000
 0.000000e+000 0.000000e+000 0.000000e+000 8.225790e-001 1.774210e-001
 0.000000e+000 0.000000e+000 0.000000e+000 0.000000e+000 0.000000e+000
~t "T_aa"
<TRANSP> 5
 0.000000e+000 1.000000e+000 0.000000e+000 0.000000e+000 0.000000e+000
 0.000000e+000 7.448263e-001 2.551737e-001 0.000000e+000 0.000000e+000
 0.000000e+000 0.000000e+000 7.889688e-001 2.110312e-001 0.000000e+000
 0.000000e+000 0.000000e+000 0.000000e+000 8.260841e-001 1.739159e-001
 0.000000e+000 0.000000e+000 0.000000e+000 0.000000e+000 0.000000e+000
~t "T_ao"
<TRANSP> 5
 0.000000e+000 1.000000e+000 0.000000e+000 0.000000e+000 0.000000e+000
 0.000000e+000 4.715936e-001 5.284064e-001 0.000000e+000 0.000000e+000
 0.000000e+000 0.000000e+000 8.368735e-001 1.631266e-001 0.000000e+000
 0.000000e+000 0.000000e+000 0.000000e+000 7.710640e-001 2.289360e-001
 0.000000e+000 0.000000e+000 0.000000e+000 0.000000e+000 0.000000e+000
~t "T_eh"
<TRANSP> 5
 0.000000e+000 1.000000e+000 0.000000e+000 0.000000e+000 0.000000e+000
 0.000000e+000 6.380485e-001 3.619514e-001 0.000000e+000 0.000000e+000
 0.000000e+000 0.000000e+000 5.599628e-001 4.400373e-001 0.000000e+000
 0.000000e+000 0.000000e+000 0.000000e+000 7.346316e-001 2.653684e-001
 0.000000e+000 0.000000e+000 0.000000e+000 0.000000e+000 0.000000e+000
~t "T_hh"
<TRANSP> 5
 0.000000e+000 1.000000e+000 0.000000e+000 0.000000e+000 0.000000e+000
 0.000000e+000 8.481802e-001 1.518198e-001 0.000000e+000 0.000000e+000
 0.000000e+000 0.000000e+000 8.530575e-001 1.469425e-001 0.000000e+000
 0.000000e+000 0.000000e+000 0.000000e+000 9.458550e-001 5.414495e-002
 0.000000e+000 0.000000e+000 0.000000e+000 0.000000e+000 0.000000e+000
~t "T_ih"
<TRANSP> 5
 0.000000e+000 1.000000e+000 0.000000e+000 0.000000e+000 0.000000e+000
 0.000000e+000 8.124297e-001 1.875703e-001 0.000000e+000 0.000000e+000
 0.000000e+000 0.000000e+000 8.871744e-001 1.128256e-001 0.000000e+000
 0.000000e+000 0.000000e+000 0.000000e+000 7.840949e-001 2.159052e-001
 0.000000e+000 0.000000e+000 0.000000e+000 0.000000e+000 0.000000e+000
~t "T_ng"
<TRANSP> 5
 0.000000e+000 1.000000e+000 0.000000e+000 0.000000e+000 0.000000e+000
 0.000000e+000 8.080316e-001 1.919684e-001 0.000000e+000 0.000000e+000
 0.000000e+000 0.000000e+000 7.298568e-001 2.701432e-001 0.000000e+000
 0.000000e+000 0.000000e+000 0.000000e+000 9.348255e-001 6.517455e-002
 0.000000e+000 0.000000e+000 0.000000e+000 0.000000e+000 0.000000e+000
~t "T_oh"
<TRANSP> 5
 0.000000e+000 1.000000e+000 0.000000e+000 0.000000e+000 0.000000e+000
 0.000000e+000 7.220160e-001 2.779841e-001 0.000000e+000 0.000000e+000
 0.000000e+000 0.000000e+000 8.963881e-001 1.036119e-001 0.000000e+000
 0.000000e+000 0.000000e+000 0.000000e+000 9.662631e-001 3.373692e-002
 0.000000e+000 0.000000e+000 0.000000e+000 0.000000e+000 0.000000e+000
~t "T_uw"
<TRANSP> 5
 0.000000e+000 1.000000e+000 0.000000e+000 0.000000e+000 0.000000e+000
 0.000000e+000 6.482019e-001 3.517980e-001 0.000000e+000 0.000000e+000
 0.000000e+000 0.000000e+000 7.968474e-001 2.031526e-001 0.000000e+000
 0.000000e+000 0.000000e+000 0.000000e+000 8.134711e-001 1.865288e-001
 0.000000e+000 0.000000e+000 0.000000e+000 0.000000e+000 0.000000e+000
~s "ST_aa_2_1"
<MEAN> 25
 2.674589e+000 -4.840597e+000 -1.375245e+000 -2.013977e+000 -5.856790e-001 -2.167795e+000 1.216681e+000 -1.213443e+000 -1.057574e-001 -6.311560e-001 -8.715408e-001 -1.993252e-001 8.135733e-001 -2.125575e+000 -1.105720e+000 -8.426776e-001 5.085018e-001 4.106989e-002 7.805405e-001 -3.800627e-001 -2.786354e-001 -6.156613e-001 -4.321992e-001 -3.038385e-002 1.715035e+000
<VARIANCE> 25
 2.680251e+001 1.214713e+002 5.196866e+001 9.585324e+001 7.779771e+001 4.876316e+001 1.023865e+002 5.589917e+001 5.597081e+001 6.374561e+001 5.088400e+001 4.298044e+001 2.392423e+000 6.874567e+000 4.316379e+000 6.821909e+000 7.066268e+000 5.032543e+000 7.626940e+000 6.285377e+000 5.289671e+000 6.097808e+000 5.025326e+000 3.787980e+000 2.643726e+000
<GCONST> 1.163280e+002
~s "ST_aa_2_2"
<MEAN> 25
 3.129249e+000 -8.641741e+000 3.041995e+000 -1.055078e+001 -4.622835e+000 -4.484397e+000 3.311716e+000 -2.788569e+000 -4.713526e-001 1.512227e+000 4.771802e-001 -1.461719e+000 7.107789e-001 -1.824343e+000 -2.445449e+000 2.414724e-001 1.305204e+000 8.094535e-001 1.653797e+000 7.680996e-001 -2.221689e-001 -1.399508e+000 -4.558692e-001 3.685712e-001 4.874029e-001
<VARIANCE> 25
 2.339462e+001 9.855573e+001 4.290569e+001 6.520467e+001 1.135248e+002 3.920553e+001 1.272322e+002 3.223141e+001 5.968399e+001 5.844547e+001 5.633999e+001 2.327134e+001 3.812608e-001 2.011140e+000 1.327621e+000 5.492589e+000 7.866111e+000 2.328824e+000 6.743855e+000 4.289251e+000 2.711628e+000 4.207613e+000 2.608461e+000 2.763817e+000 4.028260e-001
<GCONST> 1.051766e+002
~s "ST_aa_3_1"
<MEAN> 25
 6.404920e+000 -1.600927e+001 -6.229777e+000 1.478015e+000 -8.055841e-001 9.874117e-001 7.128788e+000 -3.064291e+000 -4.039710e+000 1.017369e+000 -7.182167e-001 -1.918108e+000 1.412898e-001 4.246985e-001 -1.994573e-001 3.266336e-001 1.663930e-001 2.668265e-001 -1.897267e-001 -1.926881e-001 -2.149331e-001 -2.120735e-001 -1.953553e-001 8.361580e-002 -5.144624e-001
<VARIANCE> 25
 1.674408e+001 8.114458e+001 3.797430e+001 8.897688e+001 6.935093e+001 4.654904e+001 7.197556e+001 5.329671e+001 5.017558e+001 6.180439e+001 5.723611e+001 5.068464e+001 7.279024e-001 2.132281e+000 1.753933e+000 3.063468e+000 2.881711e+000 2.400634e+000 3.759011e+000 3.076663e+000 2.772840e+000 2.863243e+000 3.308665e+000 2.427008e+000 1.236956e+000
<GCONST> 1.045015e+002
~s "ST_aa_4_1"
<MEAN> 25
 5.738287e+000 -6.549371e+000 -5.586973e+000 -4.158823e+000 9.555196e-001 -1.340502e+000 -1.786902e-001 -2.215155e+000 -2.661630e+000 -6.182991e+000 -2.893811e+000 1.930786e+000 -2.490330e-001 3.428876e-001 1.377983e-001 2.828833e-001 -1.156948e-001 -2.762819e-002 -2.342491e-002 5.422929e-002 5.828671e-002 1.119623e-001 1.416310e-001 -2.409021e-002 -4.331005e-001
<VARIANCE> 25
 2.509303e+001 4.570329e+001 3.081313e+001 5.574242e+001 2.574430e+001 4.463968e+001 7.497289e+001 3.085737e+001 3.363095e+001 4.525687e+001 4.808953e+001 2.897191e+001 3.731379e-001 1.063235e+000 7.843925e-001 1.292499e+000 1.388110e+000 1.639246e+000 1.687106e+000 1.568045e+000 1.315723e+000 1.804207e+000 1.831374e+000 1.249588e+000 4.227445e-001
<GCONST> 9.151656e+001
~s "ST_aa_4_2"
<MEAN> 25
 3.753573e+000 -9.689659e+000 -6.042425e+000 -8.687635e+000 5.773417e+000 -1.249788e+000 3.865577e+000 -3.056150e+000 6.601139e-001 -4.638004e+000 -1.096157e+000 3.508615e-001 1.218318e-001 4.934796e-001 2.538729e-002 1.413520e-001 -8.238444e-002 2.166638e-001 -3.190153e-001 2.938576e-001 -2.516246e-001 -3.011307e-001 1.345929e-001 -2.105268e-001 -3.568700e-001
<VARIANCE> 25
 1.794010e+001 3.263830e+001 2.385881e+001 4.687922e+001 4.254838e+001 2.791696e+001 7.355262e+001 3.833861e+001 5.437512e+001 3.254617e+001 4.863032e+001 2.624149e+001 2.725436e-001 8.976554e-001 9.151102e-001 1.383968e+000 2.445005e+000 1.637460e+000 2.189367e+000 1.954195e+000 1.415080e+000 2.166951e+000 1.477746e+000 1.443562e+000 3.340378e-001
<GCONST> 9.144441e+001
~s "ST_aa_4_3"
<MEAN> 25
 1.035229e+001 -6.192310e+000 -6.107723e+000 -5.623453e+000 -1.218237e+000 -1.237330e+000 -4.523462e+000 -4.287387e+000 -5.941641e+000 -7.275545e+000 -5.573120e+000 1.650398e+000 -6.463108e-002 3.259559e-001 1.328928e-001 -5.538908e-002 -2.520807e-001 -8.834062e-002 -9.681930e-002 -1.658150e-001 -1.421559e-002 -6.010843e-002 2.660652e-001 -7.353715e-002 -1.772262e-001
<VARIANCE> 25
 1.480889e+001 6.928242e+001 3.716929e+001 2.565932e+001 5.734346e+001 2.074695e+001 4.720650e+001 2.559224e+001 3.199728e+001 3.069144e+001 4.066601e+001 3.013347e+001 1.768177e-001 9.819888e-001 9.406073e-001 6.776729e-001 1.763155e+000 1.127136e+000 1.743287e+000 1.496450e+000 1.479380e+000 1.930731e+000 1.393439e+000 1.250897e+000 1.545706e-001
<GCONST> 8.710225e+001
~s "ST_s_2_1"
<MEAN> 25
 -1.028182e+001 9.134504e+000 -1.843367e+000 3.832139e-002 5.053213e+000 -3.438604e+000 4.575351e+000 4.510432e+000 -2.764838e+000 2.699955e+000 2.179283e+000 -4.608332e-001 -4.741176e-001 2.632868e-001 -1.459188e-002 -1.594186e-001 1.110446e-001 -4.630399e-002 -7.277066e-002 2.584678e-001 -1.008720e-001 1.298641e-001 1.953198e-001 -2.743427e-002 2.475276e-001
<VARIANCE> 25
 2.664448e+001 3.172989e+001 1.397276e+001 3.850722e+001 2.441541e+001 2.745411e+001 3.044919e+001 4.462351e+001 5.861324e+001 2.664551e+001 3.014637e+001 1.398716e+001 1.184008e+000 1.108224e+000 9.592284e-001 1.287575e+000 1.902501e+000 2.113320e+000 1.428591e+000 1.771775e+000 2.032602e+000 2.074193e+000 2.131166e+000 1.240735e+000 2.659412e-001
<GCONST> 8.998424e+001
~s "ST_s_2_2"
<MEAN> 25
 -7.342280e+000 3.783991e+000 -4.043907e+000 5.228855e+000 -2.586721e+000 6.875125e-002 4.884915e+000 -2.197170e-001 -3.500656e+000 8.279340e-001 2.668893e+000 -1.035299e+000 -5.868441e-001 1.467593e-001 -1.197940e-001 8.342326e-002 -1.147429e-001 2.411070e-001 2.741387e-001 4.534274e-003 1.825807e-001 4.957165e-001 2.658753e-001 2.678672e-002 4.264622e-002
<VARIANCE> 25
 2.481582e+001 4.290247e+001 2.080486e+001 4.369934e+001 1.931477e+001 2.556360e+001 4.417881e+001 3.060394e+001 4.750927e+001 3.730351e+001 2.205934e+001 2.824120e+001 1.607633e+000 2.025358e+000 1.566347e+000 1.430989e+000 1.421817e+000 1.942164e+000 2.316685e+000 2.155610e+000 2.356956e+000 2.360188e+000 1.771612e+000 1.902108e+000 4.268387e-001
<GCONST> 9.374699e+001
~s "ST_s_3_1"
<MEAN> 25
 -1.082436e+001 -6.128795e+000 9.662331e+000 -9.242656e+000 -2.916056e+000 4.791350e+000 2.735052e+000 -5.635828e+000 3.125340e+000 2.745570e+000 5.004035e+000 1.220049e+000 3.438385e-002 -6.541792e-001 8.095700e-001 -9.079040e-001 -3.240796e-001 -4.050618e-001 -5.640036e-001 -4.240087e-001 2.002949e-001 -1.475348e-001 -2.539284e-001 9.303429e-002 5.004733e-001
<VARIANCE> 25
 5.416816e+001 7.580769e+001 9.984594e+001 1.215523e+002 2.522411e+001 5.817429e+001 4.698953e+001 5.306108e+001 3.546542e+001 2.472102e+001 1.992874e+001 2.202801e+001 7.144432e+000 1.765704e+000 5.042513e+000 4.192513e+000 2.428630e+000 2.983113e+000 3.131831e+000 3.713654e+000 3.107286e+000 1.813327e+000 2.564010e+000 1.918433e+000 1.137794e+000
<GCONST> 1.051156e+002
~s "ST_s_4_1"
<MEAN> 25
 -6.196210e+000 -6.231823e+000 7.732611e+000 -3.744516e+000 1.888681e+000 -3.684447e-001 -2.022202e-001 -3.349827e-001 -2.997408e+000 3.093004e+000 2.144125e+000 -1.169686e+000 1.670166e+000 -2.519099e-001 5.225672e-001 -8.418823e-001 -4.234875e-001 -6.859388e-001 -1.248101e+000 -6.678224e-002 -1.898121e-001 -8.690405e-001 -1.249035e+000 -1.969241e-001 4.570257e-001
<VARIANCE> 25
 5.419762e+001 2.312811e+002 1.194202e+002 1.896098e+002 1.156090e+002 8.988086e+001 9.670628e+001 8.094642e+001 6.425053e+001 5.273994e+001 4.517099e+001 4.774008e+001 7.157944e+000 5.124597e+000 6.764076e+000 1.066518e+001 7.390455e+000 7.973985e+000 8.114135e+000 7.943162e+000 6.539797e+000 5.797244e+000 5.389833e+000 5.664221e+000 1.699659e+000
<GCONST> 1.231369e+002
~s "ST_oh_2_1"
<MEAN> 25
 2.617988e+000 -1.112330e+001 -6.124341e+000 -8.810097e+000 7.350994e-001 3.174528e+000 3.127218e+000 -5.140642e+000 5.092498e+000 -3.620137e+000 -2.432761e+000 -1.566909e+000 6.895773e-001 7.062358e-001 4.043883e-001 2.107601e-001 -1.336957e+000 -8.639002e-001 -2.079384e+000 9.296325e-001 4.376968e-001 1.278781e+000 3.141127e-001 3.927370e-001 -5.843015e-001
<VARIANCE> 25
 3.776069e+000 7.479678e+000 2.749850e+001 5.588259e+001 9.692800e+000 1.602017e+001 5.021024e+001 1.813602e+001 4.858213e+001 3.876778e+001 2.898831e+000 2.640649e+001 1.675254e-001 7.375474e-001 8.905803e-001 9.095098e-001 1.212101e+000 3.017389e+000 3.524065e+000 3.147791e+000 2.608412e+000 1.817769e+000 6.664113e-001 2.165797e+000 1.304198e-001
<GCONST> 8.165088e+001
~s "ST_oh_3_1"
<MEAN> 25
 4.717207e+000 -3.392113e+000 -6.731268e+000 -1.176143e+001 -1.751850e+000 1.186744e+000 -3.943244e-001 -7.856665e+000 2.955748e+000 5.406403e+000 3.707818e+000 1.709070e+000 -1.869110e-001 3.498138e-001 1.148220e-001 5.668439e-001 3.663785e-002 -1.030419e-001 3.046082e-001 -2.764958e-003 -7.174906e-001 -2.842617e-001 6.299054e-002 -1.660237e-001 -4.742149e-001
<VARIANCE> 25
 4.459561e+000 9.016925e+000 8.648858e+000 6.149952e+001 1.870650e+001 8.464097e+000 3.659746e+001 2.070283e+001 4.593896e+001 4.136398e+001 1.283051e+001 8.283691e+000 4.090000e-001 5.248502e-001 8.784899e-001 2.353587e+000 1.931995e+000 1.707824e+000 1.807338e+000 1.755388e+000 8.266968e-001 1.369062e+000 1.592992e+000 1.605083e+000 3.150014e-001
<GCONST> 8.127177e+001
~s "ST_oh_4_1"
<MEAN> 25
 -5.340167e+000 2.462834e-001 1.588509e+000 1.575072e+000 2.616760e+000 1.413833e+000 4.087756e+000 3.253372e+000 2.933331e+000 2.207995e+000 2.049194e+000 -4.174889e-001 -5.977522e-002 4.139734e-002 7.105559e-002 -1.714776e-003 -4.919983e-002 9.751315e-003 9.813536e-002 8.371719e-002 1.404086e-001 1.599592e-001 6.037825e-002 -9.501566e-002 -2.075561e-002
<VARIANCE> 25
 3.334394e+000 3.003255e+000 4.748104e+000 4.926637e+000 9.550149e+000 1.052135e+001 1.489276e+001 1.402452e+001 1.987658e+001 2.353740e+001 1.067909e+001 1.012207e+001 1.077225e-001 2.168067e-001 2.973375e-001 5.625867e-001 9.064460e-001 1.406250e+000 1.624562e+000 1.668224e+000 1.649461e+000 1.334789e+000 9.963826e-001 1.059491e+000 3.586460e-002
<GCONST> 6.539614e+001
~s "ST_l_2_1"
<MEAN> 25
 3.254074e+000 -4.212233e+000 -5.185412e+000 -2.805322e+000 7.361004e-001 -7.962742e-002 2.041855e+000 -5.234334e+000 1.446569e+000 2.473425e+000 8.105327e-001 -9.862625e-001 -6.893950e-002 6.944687e-001 -3.373236e-001 -5.438598e-001 -3.124012e-002 4.921243e-002 -4.810685e-002 1.704455e-001 2.152626e-001 3.934772e-002 4.841887e-001 4.113961e-001 -4.241811e-001
<VARIANCE> 25
 1.131309e+001 3.879106e+001 3.860357e+001 9.538097e+001 6.771729e+001 6.565909e+001 4.253914e+001 4.550868e+001 5.929129e+001 3.782981e+001 3.004642e+001 3.172674e+001 3.328591e-001 1.502288e+000 1.438907e+000 2.802920e+000 2.922540e+000 2.781796e+000 2.458153e+000 2.316732e+000 3.384535e+000 2.107728e+000 2.317424e+000 2.054163e+000 6.824929e-001
<GCONST> 9.846568e+001
~s "ST_l_3_1"
<MEAN> 25
 4.442905e+000 2.497204e-001 -4.217127e+000 -3.425321e+000 -1.700832e+000 -3.843579e+000 -7.454604e-001 1.821632e+000 1.929667e+000 -4.236872e+000 6.264967e-002 2.339780e+000 -1.735309e-001 6.663994e-001 3.642668e-001 3.248064e-001 -5.396510e-001 2.828087e-001 -3.279882e-003 4.787945e-001 -5.325445e-002 3.839111e-002 1.828459e-002 1.685531e-001 -8.267698e-001
<VARIANCE> 25
 2.416473e+001 4.442233e+001 2.291848e+001 4.475821e+001 4.105878e+001 5.781352e+001 8.929292e+001 8.294872e+001 5.783626e+001 4.077000e+001 3.549454e+001 3.020523e+001 1.074601e+000 1.788566e+000 1.195079e+000 4.315262e+000 2.032134e+000 2.866949e+000 3.218824e+000 4.000837e+000 2.625531e+000 2.390393e+000 2.248482e+000 2.315840e+000 9.019221e-001
<GCONST> 1.012792e+002
~s "ST_l_4_1"
<MEAN> 25
 -1.161872e-001 1.626935e+000 1.437001e+000 6.186810e+000 2.275895e-001 2.025622e+000 -4.941714e-001 3.532627e+000 6.492174e-001 -1.699230e+000 2.329905e+000 -5.494313e-002 -1.274877e-001 -3.243228e-002 1.169869e-001 6.662079e-002 -1.868806e-002 6.368178e-002 3.887592e-002 1.443241e-001 2.451687e-002 9.328172e-002 3.918525e-002 8.490356e-003 -8.811659e-002
<VARIANCE> 25
 6.789047e+000 8.140401e+000 7.212058e+000 1.227802e+001 1.494324e+001 1.444492e+001 1.949459e+001 2.197639e+001 1.856370e+001 1.722666e+001 1.446143e+001 1.511737e+001 2.296602e-001 3.097106e-001 5.758939e-001 8.034778e-001 8.479648e-001 1.158579e+000 1.608797e+000 1.885743e+000 1.713237e+000 1.418171e+000 1.301054e+000 1.599895e+000 9.244665e-002
<GCONST> 7.395026e+001
~s "ST_l_4_2"
<MEAN> 25
 -1.180007e+000 1.301031e+001 -1.825524e+000 -7.751973e+000 -2.434617e+000 5.182601e+000 3.775025e+000 1.202410e+000 1.602086e+000 -4.949474e+000 9.523345e-001 6.569156e+000 -1.010355e-001 4.650846e-002 2.688212e-001 2.150460e-001 -2.153284e-002 -1.663914e-001 -3.222704e-002 -2.866199e-002 3.716123e-002 -7.962324e-002 -8.165297e-002 7.078523e-005 -2.114101e-002
<VARIANCE> 25
 9.267498e+000 4.607396e+001 2.518884e+001 2.180108e+001 3.052772e+001 6.545227e+001 2.917755e+001 5.987628e+001 4.235637e+001 3.726822e+001 4.526259e+001 3.011576e+001 1.738367e-001 7.279414e-001 1.297641e+000 8.476660e-001 1.796410e+000 3.994189e+000 2.298326e+000 3.493508e+000 2.163610e+000 1.902452e+000 2.572832e+000 2.207922e+000 1.415003e-001
<GCONST> 9.123782e+001
~s "ST_y_2_1"
<MEAN> 25
 -3.825404e+000 -1.306446e+001 8.205834e+000 -8.523460e+000 6.661537e+000 -2.125735e+000 -2.336291e-001 -4.572301e+000 -2.311932e-001 2.658487e+000 -7.889568e-001 1.779657e+000 -2.620400e-001 -6.289445e-001 1.124946e+000 -2.821189e-001 -1.413690e-001 -4.911316e-001 -1.130393e+000 5.552549e-002 2.363514e-001 4.640279e-001 4.621658e-001 -5.175146e-001 5.609164e-001
<VARIANCE> 25
 1.140321e+002 2.298672e+002 1.340439e+002 1.448464e+002 1.843954e+002 6.699303e+001 1.336368e+002 4.424136e+001 6.086029e+001 7.586242e+001 5.907352e+001 4.763901e+001 4.851391e+000 9.558094e+000 7.352113e+000 1.072516e+001 9.795248e+000 6.116367e+000 1.118094e+001 4.434754e+000 5.712453e+000 6.520758e+000 5.828450e+000 4.263804e+000 3.327512e+000
<GCONST> 1.247147e+002
~s "ST_y_3_1"
<MEAN> 25
 5.146546e-001 -1.517116e+000 8.489319e+000 -1.314348e+001 -4.962875e+000 -4.292251e+000 5.596055e-001 -7.636622e+000 1.405708e+000 2.846331e+000 -2.040897e-001 1.989207e+000 -1.845676e-001 6.268278e-001 6.648925e-001 -2.853937e-001 -5.747344e-001 -2.202812e-001 -4.672178e-001 -2.513393e-001 2.865067e-001 6.398671e-001 4.810405e-002 -1.075009e-001 -1.774518e-001
<VARIANCE> 25
 1.366852e+001 5.525513e+001 2.515112e+001 5.019670e+001 5.642994e+001 2.698542e+001 8.097838e+001 3.414709e+001 5.279130e+001 4.658304e+001 2.859293e+001 4.226152e+001 2.437232e-001 2.254612e+000 2.225866e+000 2.036155e+000 2.971725e+000 1.981079e+000 7.566031e+000 3.451741e+000 2.580953e+000 3.528226e+000 1.815663e+000 3.828824e+000 5.903728e-001
<GCONST> 9.944137e+001
~s "ST_y_4_1"
<MEAN> 25
 7.061406e-001 -8.616355e+000 1.168485e+001 6.913948e+000 6.494644e-002 -9.493762e+000 -1.013180e+001 -2.158652e-001 -7.125791e-001 -8.886548e-001 -1.025916e+000 -8.027307e+000 5.261234e-003 1.041102e-001 -2.091192e-001 -1.201213e-001 -3.462218e-002 -1.784822e-001 1.806370e-001 1.308607e-001 1.248153e-001 -4.817257e-002 1.053434e-001 -1.051183e-002 4.159307e-003
<VARIANCE> 25
 1.117448e+001 1.446936e+002 8.385022e+001 1.641973e+002 1.366726e+002 8.914381e+001 7.895308e+001 7.000102e+001 6.758369e+001 6.982290e+001 5.853606e+001 3.979974e+001 2.423052e-001 1.750752e+000 2.911983e+000 4.269541e+000 2.104198e+000 2.562892e+000 4.726627e+000 3.353439e+000 2.917808e+000 4.188112e+000 2.071188e+000 2.969761e+000 7.926261e-001
<GCONST> 1.073017e+002
~s "ST_b_2_1"
<MEAN> 25
 -1.352228e+000 8.293457e-001 7.920090e+000 -3.231499e+000 -8.869264e-001 6.691845e-001 -6.369354e-001 -5.542245e+000 -2.786173e+000 -9.837007e-001 1.957431e+000 9.411004e-001 -2.512423e-001 -1.834184e+000 1.262422e+000 -8.622261e-001 -6.640652e-001 -1.005966e+000 5.850823e-001 -3.112454e-001 -5.142356e-001 7.103370e-001 -2.970648e-001 -4.663461e-001 1.693292e+000
<VARIANCE> 25
 8.255837e+001 1.822577e+002 1.562570e+002 1.465856e+002 9.433507e+001 1.196129e+002 9.592945e+001 1.103830e+002 8.951197e+001 7.022413e+001 7.845216e+001 6.059577e+001 5.048165e+000 1.500916e+001 1.390508e+001 1.520724e+001 8.887497e+000 1.053457e+001 1.027272e+001 1.088644e+001 1.152059e+001 6.140639e+000 8.888414e+000 7.963938e+000 3.393000e+000
<GCONST> 1.300949e+002
~s "ST_b_3_1"
<MEAN> 25
 9.487961e-001 2.335676e+000 1.312020e+001 -8.152576e+000 -1.212586e+001 -5.454672e+000 -2.901728e+000 -8.994551e+000 -3.805554e+000 6.148516e+000 -1.074490e+000 1.307512e+000 -2.138126e-001 -1.912465e-001 -5.776194e-001 -4.487179e-001 -3.409724e-001 -2.643925e-001 4.683785e-001 2.213019e-002 4.345344e-001 3.446377e-001 4.228233e-001 4.101658e-002 6.563880e-001
<VARIANCE> 25
 1.891586e+001 3.841525e+001 5.303011e+001 8.260465e+001 4.719003e+001 2.040006e+001 5.335030e+001 3.532331e+001 3.310171e+001 4.000308e+001 2.834251e+001 6.889212e+001 8.389520e-001 1.737402e+000 5.389105e+000 6.848089e+000 3.123122e+000 2.179501e+000 3.548509e+000 5.782629e+000 2.962476e+000 3.446210e+000 2.866217e+000 3.211710e+000 6.189591e-001
<GCONST> 1.030847e+002
~s "ST_b_4_1"
<MEAN> 25
 2.843127e+000 -1.361485e+001 2.166702e+000 9.630245e-001 4.642300e-001 1.139416e-001 2.827156e-001 -1.799491e+000 -3.471292e+000 2.495358e+000 -1.202721e+000 -2.871307e+000 2.491376e-003 1.719744e-001 -3.333395e-001 -3.850826e-002 4.241173e-001 1.482239e-001 -4.317574e-002 -2.680847e-002 1.245239e-001 -1.105242e-001 5.473348e-002 1.256308e-001 -1.470487e-001
<VARIANCE> 25
 3.874436e+001 1.835683e+002 1.045295e+002 1.563791e+002 1.683125e+002 1.084492e+002 1.947203e+002 8.420336e+001 6.036340e+001 6.821384e+001 5.276503e+001 6.515344e+001 1.573158e+000 4.024590e+000 4.207750e+000 7.328176e+000 8.905312e+000 6.653897e+000 1.001394e+001 6.722190e+000 5.565218e+000 5.799201e+000 4.983254e+000 4.697948e+000 1.587109e+000
<GCONST> 1.211556e+002
~s "ST_r_2_1"
<MEAN> 25
 7.431763e+000 -9.701846e+000 -2.744365e+000 -1.772701e+000 -7.539347e+000 -1.646151e+000 2.893033e+000 2.237639e+000 1.269038e+000 -2.420305e+000 -3.531708e+000 -5.098742e-001 -1.868918e-001 -6.514915e-001 9.146126e-001 2.185892e-001 -9.461520e-001 2.491197e-001 5.543854e-001 5.419207e-001 -7.046154e-001 -2.675936e-002 1.004997e-001 6.192814e-001 8.189116e-002
<VARIANCE> 25
 1.538638e+001 4.107647e+001 2.850905e+001 4.987196e+001 6.947126e+001 2.724747e+001 5.802084e+001 4.398639e+001 4.910222e+001 3.472538e+001 3.311072e+001 2.865825e+001 1.104101e+000 3.137479e+000 2.589908e+000 5.686414e+000 4.835002e+000 2.937119e+000 5.576391e+000 5.140193e+000 3.782998e+000 3.461884e+000 3.297199e+000 2.991164e+000 1.764874e+000
<GCONST> 1.047130e+002
~s "ST_r_3_1"
<MEAN> 25
 4.000005e+000 -1.072219e+001 3.814478e+000 -9.548626e+000 -1.048039e+001 -3.151795e+000 8.439768e+000 1.339952e+000 -5.966716e+000 2.822362e+000 -2.353558e+000 -1.977151e+000 -5.623502e-001 8.355644e-001 3.963192e-001 -6.143481e-001 6.053592e-001 -2.424878e-001 6.969537e-001 -8.971066e-001 -4.739341e-001 7.456304e-001 -1.679762e-001 -1.337367e-001 -1.703886e-001
<VARIANCE> 25
 1.268900e+001 4.141100e+001 3.026133e+001 4.356828e+001 5.772079e+001 2.448048e+001 6.845274e+001 3.934505e+001 3.416917e+001 5.435656e+001 3.009220e+001 1.305784e+001 4.623067e-001 9.898549e-001 8.888485e-001 1.796363e+000 1.521380e+000 1.702031e+000 2.441060e+000 2.022110e+000 3.520246e+000 2.269126e+000 2.339473e+000 2.090806e+000 3.752697e-001
<GCONST> 9.296748e+001
~s "ST_r_4_1"
<MEAN> 25
 5.016409e+000 -1.310046e+001 -7.240706e+000 4.707441e+000 3.874829e+000 -2.480456e+000 2.526197e-001 -1.612137e+000 -2.661837e+000 4.493124e+000 2.619657e+000 -2.864924e+000 -1.772085e-001 7.496586e-001 -1.737912e-001 5.123420e-001 4.990526e-001 7.621539e-002 -3.616704e-001 -3.372814e-001 3.797191e-001 2.276621e-002 -1.404009e-001 1.920141e-001 -6.584412e-001
<VARIANCE> 25
 2.252311e+001 8.663615e+001 9.533641e+001 1.324204e+002 1.156380e+002 4.934795e+001 1.280138e+002 6.885846e+001 5.947437e+001 5.956589e+001 8.919363e+001 4.200987e+001 7.593627e-001 2.802050e+000 2.443173e+000 5.553314e+000 4.946059e+000 3.850083e+000 6.996592e+000 6.192258e+000 2.800529e+000 3.760341e+000 4.506154e+000 2.979161e+000 8.638775e-001
<GCONST> 1.119847e+002
~s "ST_h_2_1"
<MEAN> 25
 4.895801e-001 8.088859e-001 1.465258e+000 5.995223e+000 -5.957574e-001 1.585057e+000 4.276105e-002 3.615228e+000 -4.628059e-004 6.259879e-001 1.960769e+000 -1.762525e+000 -2.054334e-002 -3.384129e-003 3.726643e-002 2.593233e-002 4.592048e-002 7.586241e-002 6.131807e-002 5.325469e-002 2.007190e-002 9.003702e-003 -2.715692e-002 -4.641171e-003 -4.987557e-004
<VARIANCE> 25
 2.517200e+000 1.192658e+001 6.452245e+000 9.854758e+000 9.467250e+000 1.008890e+001 1.624208e+001 1.239378e+001 1.216176e+001 9.908601e+000 1.225232e+001 1.090015e+001 1.257789e-001 2.568882e-001 4.128179e-001 5.963714e-001 9.575787e-001 1.074610e+000 1.147589e+000 1.557946e+000 1.385028e+000 1.061340e+000 1.165673e+000 9.211264e-001 5.132087e-002
<GCONST> 6.631389e+001
~s "ST_h_3_1"
<MEAN> 25
 -1.734488e+000 -3.751005e+000 -1.715954e+000 3.452140e+000 5.912975e+000 3.644135e+000 7.399994e-001 4.132855e-001 -4.449546e-001 -1.905765e+000 3.032064e+000 6.741567e-001 -3.654612e-001 -7.483054e-001 -8.697171e-001 -1.749088e-002 1.088090e+000 4.384293e-001 4.730124e-001 -1.505871e+000 3.491817e-001 -1.188004e+000 -2.878822e-003 1.168388e-001 7.455248e-001
<VARIANCE> 25
 3.829911e+000 3.825832e+001 1.165402e+001 1.836366e+001 2.244366e+001 1.796098e+001 1.713687e+001 1.751910e+001 1.230458e+001 1.764115e+001 2.422700e+001 1.207500e+001 1.912249e-001 1.111754e+000 1.079630e+000 8.371410e-001 1.473223e+000 1.074416e+000 2.305332e+000 1.646069e+000 9.096816e-001 8.614042e-001 2.189710e+000 1.687541e+000 9.922506e-002
<GCONST> 7.795885e+001
~s "ST_h_4_1"
<MEAN> 25
 -5.617139e+000 -2.166867e+000 -1.204150e+000 2.582582e+000 2.424160e+000 4.041438e+000 4.397885e+000 -3.591266e+000 3.675857e+000 -1.441693e+000 5.623013e-001 6.227399e-001 3.262022e-001 2.885721e-001 -1.301909e-001 -5.883736e-001 -5.403574e-001 -8.569460e-002 3.901493e-001 -6.798510e-001 2.413756e-001 -1.310961e-001 -6.884767e-001 -6.089069e-003 6.978019e-001
<VARIANCE> 25
 1.197869e+001 3.231249e+001 1.501249e+001 2.246701e+001 3.190047e+001 1.934000e+001 2.133069e+001 6.991858e+001 6.996197e+000 4.672767e+001 1.553654e+001 1.646153e+001 1.274992e+000 9.214519e-001 7.702859e-001 1.427553e+000 1.139580e+000 1.502124e+000 1.579825e+000 1.602657e+000 1.627547e+000 1.671187e+000 2.320172e+000 1.747274e+000 6.351291e-001
<GCONST> 8.646164e+001
~s "ST_hh_2_1"
<MEAN> 25
 7.775465e+000 -5.527562e+000 -5.565266e+000 1.227682e-001 6.399476e-001 -2.640810e+000 -5.988751e+000 3.083560e+000 -2.079170e+000 -5.099604e+000 2.490455e-001 -7.105643e+000 -1.975042e-003 -1.775061e-001 9.523635e-002 1.114215e-001 -2.179541e-001 3.511328e-001 2.664577e-001 3.908775e-002 2.849868e-001 2.529266e-001 -2.647363e-001 -2.369192e-001 3.383444e-002
<VARIANCE> 25
 1.868580e+001 3.579611e+001 6.697270e+001 4.770278e+001 9.130759e+001 1.436580e+002 6.662165e+001 1.310980e+002 6.736407e+001 4.572087e+001 1.142539e+002 6.854307e+001 7.430725e-001 1.787206e+000 3.224694e+000 3.543077e+000 7.772974e+000 1.242775e+001 8.180704e+000 9.235620e+000 7.330588e+000 5.663598e+000 6.690593e+000 4.054344e+000 6.657182e-001
<GCONST> 1.143117e+002
~s "ST_hh_3_1"
<MEAN> 25
 3.873186e+000 -3.494679e+000 -3.726595e+000 3.083768e+000 -3.131535e+000 3.946895e+000 6.278202e+000 -2.775567e+000 1.126636e+000 3.947079e+000 -2.066941e+000 -2.533509e+000 -4.032131e-001 6.956581e-001 -1.579663e-001 -3.707270e-001 4.158731e-001 7.136577e-001 2.638579e-001 3.893093e-001 2.430127e-001 1.595033e-001 5.884202e-001 6.035070e-001 -6.249517e-001
<VARIANCE> 25
 1.477341e+001 1.351299e+002 2.242423e+001 4.313404e+001 4.620628e+001 5.835690e+001 3.991391e+001 4.672929e+001 5.935690e+001 3.324058e+001 4.779307e+001 4.769831e+001 3.438917e-001 1.733302e+000 1.167568e+000 1.900860e+000 1.710853e+000 3.093138e+000 2.185667e+000 1.431921e+000 3.925254e+000 2.762911e+000 2.664765e+000 2.367113e+000 3.762913e-001
<GCONST> 9.750541e+001
~s "ST_k_2_1"
<MEAN> 25
 5.619278e+000 1.579299e+000 -1.240861e+000 -3.216274e+000 -3.753717e+000 -1.704970e+000 -1.890597e+000 -2.194727e+000 -2.555932e+000 -2.890719e+000 -3.408618e+000 -1.714365e+000 -9.771187e-001 9.106728e-001 2.230278e-001 1.440248e+000 1.595963e-002 2.600762e-001 -2.943054e-001 -5.241615e-002 -1.561039e-001 4.203161e-001 6.253296e-001 1.793147e-001 -1.615647e+000
<VARIANCE> 25
 1.828542e+001 7.028150e+001 3.779794e+001 5.516878e+001 7.048864e+001 4.040268e+001 7.627624e+001 4.671284e+001 5.357018e+001 4.301538e+001 2.428168e+001 2.246604e+001 1.575307e+000 2.440484e+000 2.079536e+000 2.174482e+000 3.074534e+000 2.421873e+000 4.408602e+000 3.000642e+000 2.966053e+000 4.955391e+000 2.379719e+000 2.979013e+000 1.432505e+000
<GCONST> 1.033766e+002
~s "ST_hh_4_1"
<MEAN> 25
 -4.639860e+000 3.329270e+000 5.795887e-001 1.786298e+000 1.793705e+000 1.879664e+000 2.394153e+000 1.691494e+000 2.318655e+000 1.371770e+000 1.787677e+000 1.511451e-001 -1.115190e-001 2.733926e-002 1.048699e-001 6.515491e-002 -1.966928e-002 -1.080785e-002 8.963052e-002 1.486614e-001 1.659433e-001 1.305463e-001 3.587174e-002 -3.597756e-002 -6.602120e-002
<VARIANCE> 25
 1.064209e+001 5.215044e+001 7.875670e+000 1.290742e+001 1.284278e+001 1.306167e+001 1.534208e+001 1.567947e+001 2.223298e+001 1.960686e+001 1.284229e+001 2.195743e+001 1.680296e-001 3.348263e-001 5.027017e-001 6.412821e-001 9.165372e-001 9.669750e-001 9.220771e-001 1.304635e+000 1.611280e+000 1.255139e+000 1.231641e+000 1.196421e+000 7.059015e-002
<GCONST> 7.370753e+001
~s "ST_k_3_1"
<MEAN> 25
 8.813505e-001 -2.421021e+000 -5.169703e+000 -2.928511e-001 -8.035652e-002 -1.130221e+000 2.722181e+000 -3.837223e+000 3.235258e-001 -8.534605e-001 -1.563712e+000 3.181939e-001 -1.765072e-001 -1.856601e+000 -4.173775e-001 3.723762e-001 9.541558e-002 1.391881e-001 1.415769e+000 -5.030566e-001 8.369708e-002 9.626678e-001 1.633731e-001 -6.380195e-002 1.428779e+000
<VARIANCE> 25
 4.388250e+001 1.647870e+002 5.245688e+001 7.355318e+001 6.977444e+001 6.618181e+001 7.132538e+001 5.578804e+001 8.371137e+001 4.146061e+001 3.985954e+001 5.448834e+001 5.515255e+000 1.088458e+001 3.258781e+000 7.257081e+000 8.476510e+000 7.087946e+000 3.460434e+000 5.619732e+000 9.149380e+000 6.153532e+000 4.079023e+000 6.142351e+000 7.243718e+000
<GCONST> 1.192065e+002
~s "ST_k_4_1"
<MEAN> 25
 1.349099e+000 -2.689181e+000 -4.514899e+000 7.637284e-001 -4.227292e-001 2.958701e+000 3.883571e+000 -3.041610e+000 5.387239e-001 3.392581e+000 -5.919219e-001 -2.618413e-001 -2.429019e-001 1.950769e-001 1.473511e-001 1.643216e-001 2.219454e-001 1.176604e-001 1.465661e-001 3.241476e-001 3.012919e-002 1.470282e-003 2.603872e-001 3.122684e-001 -2.608107e-001
<VARIANCE> 25
 3.539451e+001 1.655390e+002 4.764355e+001 4.673408e+001 6.947188e+001 2.197808e+001 5.276258e+001 7.052299e+001 2.706068e+001 7.583784e+001 2.275874e+001 3.968069e+001 2.914151e-001 9.846551e-001 8.153422e-001 1.101086e+000 1.498115e+000 1.027914e+000 1.893174e+000 1.792989e+000 1.855551e+000 1.984125e+000 1.929429e+000 1.627875e+000 3.666509e-001
<GCONST> 9.405818e+001
~s "ST_uw_2_1"
<MEAN> 25
 -4.307506e+000 -1.038502e+001 8.068009e+000 -5.726017e+000 3.137867e+000 1.610277e+000 -3.847041e+000 -3.251073e+000 -8.011382e-001 1.736782e+000 2.329949e+000 1.341217e+000 9.858373e-001 -1.664073e+000 -3.110741e-001 -1.168473e+000 -9.235591e-002 -1.675096e-001 -4.326344e-001 -5.096503e-001 -6.004562e-001 -2.382083e-001 1.873027e-001 -3.761775e-001 1.726089e+000
<VARIANCE> 25
 7.063489e+001 2.448514e+002 1.504522e+002 9.959402e+001 1.005527e+002 1.141564e+002 6.529397e+001 5.917823e+001 7.582756e+001 5.775013e+001 4.403596e+001 5.410400e+001 6.383304e+000 1.756093e+001 9.019423e+000 1.143807e+001 1.111470e+001 7.341391e+000 8.184722e+000 7.366789e+000 7.043050e+000 6.879701e+000 4.904343e+000 5.563009e+000 6.289368e+000
<GCONST> 1.259705e+002
~s "ST_n_2_1"
<MEAN> 25
 4.887495e+000 2.902766e-001 -2.054554e+000 -2.973752e+000 9.372283e-001 -9.501973e-001 -8.796440e-001 -9.961165e-001 -4.188681e+000 -5.729236e+000 -1.539179e+000 1.772634e+000 3.792150e-002 1.455567e+000 3.811762e-001 1.187205e+000 -1.682251e-001 1.202481e-003 -6.167549e-001 -3.640904e-001 1.514486e-001 2.853731e-001 -3.386070e-001 1.326992e-001 -1.213773e+000
<VARIANCE> 25
 2.293533e+001 7.519171e+001 4.223720e+001 7.166048e+001 6.194262e+001 4.915438e+001 4.512894e+001 3.099710e+001 4.205325e+001 4.525264e+001 4.378576e+001 3.675622e+001 6.602029e-001 2.649092e+000 2.133749e+000 4.802729e+000 2.314375e+000 3.510507e+000 3.035684e+000 3.524963e+000 2.944824e+000 2.988967e+000 3.685726e+000 2.050355e+000 1.075927e+000
<GCONST> 1.032362e+002
~s "ST_uw_3_1"
<MEAN> 25
 5.048215e+000 -9.670639e+000 -2.797007e+000 -1.777266e+000 -3.130917e+000 -1.951186e+000 2.196280e+000 -2.930416e-001 -5.698339e+000 1.721208e+000 4.258727e-001 -5.077149e+000 2.407889e-001 4.759049e-001 -5.024394e-001 -9.321300e-002 -1.583303e-002 -3.092490e-002 3.460838e-001 -1.981129e-001 -2.017397e-001 1.977691e-001 -1.224186e-001 -2.013965e-001 -2.378473e-001
<VARIANCE> 25
 1.775119e+001 1.459245e+002 8.460793e+001 1.071587e+002 1.266434e+002 8.601008e+001 1.401318e+002 1.163441e+002 9.903268e+001 5.480469e+001 6.558559e+001 6.604321e+001 1.564072e+000 5.794456e+000 4.167523e+000 8.824205e+000 7.593884e+000 6.170137e+000 6.822163e+000 8.817011e+000 8.037486e+000 4.508774e+000 5.251430e+000 4.994046e+000 2.967367e+000
<GCONST> 1.205842e+002
~s "ST_n_3_1"
<MEAN> 25
 3.361906e+000 3.873425e+000 1.043990e+000 3.628704e+000 1.511294e+000 -1.883201e+000 -3.207285e+000 -3.240608e+000 -3.281368e+000 -3.900283e+000 -1.420100e+000 9.468700e-001 -2.872157e-001 1.853834e-001 2.070497e-001 3.023547e-001 -2.349097e-002 3.299124e-001 1.153596e-001 2.583920e-001 1.933355e-001 2.555938e-001 1.970781e-001 -4.337056e-002 -3.542427e-001
<VARIANCE> 25
 1.339086e+001 1.992514e+001 1.571070e+001 2.764927e+001 3.839435e+001 3.178215e+001 2.432438e+001 2.523982e+001 2.711444e+001 2.199661e+001 2.997952e+001 2.732403e+001 2.413797e-001 4.490935e-001 6.924547e-001 1.021563e+000 1.153426e+000 1.534599e+000 1.464014e+000 1.569255e+000 1.615845e+000 1.698009e+000 1.651155e+000 1.271468e+000 1.316639e-001
<GCONST> 8.279153e+001
~s "ST_uw_4_1"
<MEAN> 25
 5.980008e+000 2.186965e+000 -5.957636e+000 -1.133830e+001 3.366957e+000 -3.418293e+000 -3.466384e+000 -5.726071e+000 -3.407612e+000 4.045330e+000 1.104022e+000 -5.051849e-001 1.285743e-001 4.776726e-001 1.343207e-001 4.405554e-001 -5.382165e-001 3.902753e-001 7.698195e-002 1.763913e-001 -7.447823e-002 -2.596159e-001 -1.250071e-001 1.977546e-001 -6.835073e-001
<VARIANCE> 25
 1.605184e+001 3.528933e+001 5.654622e+001 7.730540e+001 7.960150e+001 5.813098e+001 5.767471e+001 3.415509e+001 5.646835e+001 4.162301e+001 4.061969e+001 4.104422e+001 7.038669e-001 1.408284e+000 1.662337e+000 4.435618e+000 3.335511e+000 3.491608e+000 2.739715e+000 2.850571e+000 3.618819e+000 3.034364e+000 2.781557e+000 2.464898e+000 9.494247e-001
<GCONST> 1.026447e+002
~s "ST_n_4_1"
<MEAN> 25
 -3.580812e+000 4.834923e+000 1.548818e+000 3.056245e+000 2.467130e+000 1.997989e+000 2.294278e+000 3.227880e+000 3.322505e+000 1.852870e+000 2.184545e+000 2.780718e-001 -4.382643e-002 9.552709e-003 3.392365e-002 6.243705e-002 2.782537e-002 2.433019e-003 9.598477e-003 4.896655e-002 7.617821e-002 6.464447e-002 1.773093e-002 -2.535059e-002 -2.115870e-002
<VARIANCE> 25
 1.310826e+001 4.138727e+001 7.613513e+000 2.189999e+001 1.575329e+001 1.463932e+001 2.666522e+001 1.693160e+001 2.029085e+001 2.176050e+001 1.605475e+001 1.490384e+001 1.233323e-001 3.017723e-001 5.038252e-001 6.530395e-001 8.962542e-001 1.201365e+000 1.281009e+000 1.355832e+000 1.551464e+000 1.495476e+000 1.300107e+000 1.235541e+000 5.666355e-002
<GCONST> 7.514911e+001
~s "ST_d_2_1"
<MEAN> 25
 -3.586357e+000 -6.937709e+000 6.368993e+000 -5.150161e+000 4.590949e+000 1.661657e+000 -4.501819e-001 -3.274758e+000 -7.767153e-001 3.906137e+000 -7.289023e-001 2.170369e+000 -1.463968e-001 -1.275046e+000 5.194300e-001 -2.447440e-002 2.085887e-001 -3.229312e-001 -2.355406e-001 7.499549e-002 -1.256407e-001 1.902961e-001 -1.056046e-002 -3.384432e-001 9.493730e-001
<VARIANCE> 25
 1.185632e+002 2.038050e+002 2.565791e+002 1.675602e+002 1.246361e+002 4.862764e+001 1.136561e+002 5.366569e+001 4.991709e+001 6.540736e+001 4.868705e+001 3.884745e+001 3.013429e+000 6.065636e+000 7.985368e+000 1.037508e+001 8.687900e+000 4.320162e+000 9.400577e+000 5.983989e+000 4.275825e+000 6.621212e+000 4.788869e+000 4.579919e+000 2.817349e+000
<GCONST> 1.222148e+002
~s "ST_d_3_1"
<MEAN> 25
 1.662157e+000 -4.274481e+000 3.588207e+000 2.100938e+000 1.331730e+000 -4.585363e+000 -2.594455e+000 2.004887e-001 -2.966293e+000 1.084213e+000 1.654582e+000 -2.561821e+000 2.482184e-002 -2.362014e+000 1.280533e+000 -1.706501e-001 3.672427e-001 -1.303296e+000 -9.797671e-001 4.450958e-001 -4.326955e-001 -5.753091e-001 -1.164921e-001 -9.336032e-001 2.108237e+000
<VARIANCE> 25
 1.640729e+001 1.442558e+002 8.204900e+001 1.260283e+002 1.252387e+002 8.807433e+001 1.289694e+002 5.166388e+001 6.662128e+001 5.564575e+001 4.761745e+001 5.365012e+001 1.247297e+000 1.842906e+001 9.219748e+000 1.250204e+001 8.175331e+000 1.052570e+001 1.362745e+001 6.135427e+000 6.980172e+000 6.870158e+000 5.062899e+000 3.708910e+000 8.487123e+000
<GCONST> 1.228413e+002
~s "ST_d_4_1"
<MEAN> 25
 -1.444458e+000 -1.289675e+001 1.318509e+001 1.354932e+001 3.131046e+000 -1.376086e+001 -7.848098e+000 9.901477e+000 -9.952487e-001 -2.072477e+000 -7.085310e+000 -5.533935e+000 2.588941e-002 5.648692e-001 -4.732930e-002 -1.898113e-001 -3.360653e-002 -2.330830e-001 -4.803384e-002 -1.178346e-001 -3.806647e-002 -1.244572e-002 -1.086821e-001 1.689592e-001 -1.939145e-001
<VARIANCE> 25
 9.035907e+000 1.556310e+002 1.347668e+002 9.993462e+001 1.259215e+002 8.318841e+001 1.140588e+002 7.910761e+001 1.109023e+002 8.349037e+001 5.546684e+001 7.516881e+001 5.397831e-001 3.972705e+000 4.007358e+000 5.626584e+000 3.717367e+000 3.769375e+000 4.800447e+000 4.804419e+000 4.774649e+000 3.854218e+000 3.313590e+000 4.774606e+000 1.585749e+000
<GCONST> 1.143284e+002
~s "ST_d_4_2"
<MEAN> 25
 6.980710e-001 -1.169632e+001 3.835119e+000 9.791492e-001 6.742480e+000 3.794136e+000 -6.915922e+000 -1.873137e-001 -4.520974e+000 1.747557e+000 5.321512e+000 -2.529464e+000 4.660445e-002 1.684998e-001 -2.234298e-001 -3.026282e-001 -1.970312e-002 3.047940e-001 1.204995e-001 -2.025029e-001 1.693310e-001 -7.897121e-003 -2.912463e-002 2.571140e-001 -4.737722e-002
<VARIANCE> 25
 2.913645e+001 1.420195e+002 1.959204e+002 1.610528e+002 1.296188e+002 1.883900e+002 9.806593e+001 9.549898e+001 5.436140e+001 6.749470e+001 6.860812e+001 8.517395e+001 6.272089e-001 1.543261e+000 2.988440e+000 4.166669e+000 4.143329e+000 3.812083e+000 6.553462e+000 3.741691e+000 3.019326e+000 4.156815e+000 4.944942e+000 2.724447e+000 6.443465e-001
<GCONST> 1.139024e+002
~s "ST_g_2_1"
<MEAN> 25
 2.819039e+000 1.926834e+000 6.122863e+000 9.569710e+000 -3.203885e+000 -2.767777e+000 -3.597986e+000 1.385583e+000 -2.956662e-001 -2.379183e+000 -4.148529e+000 -2.763740e+000 -1.227410e-001 -7.311461e-001 -4.209419e-001 -1.853655e-001 5.827675e-001 -3.847892e-001 2.661102e-001 1.015713e-001 -5.666038e-001 3.728662e-001 2.238425e-001 -2.129479e-001 6.464301e-001
<VARIANCE> 25
 3.909789e+001 2.193793e+002 7.625457e+001 1.301672e+002 6.746340e+001 7.831471e+001 6.687648e+001 5.490599e+001 5.102206e+001 4.087404e+001 4.298677e+001 3.763548e+001 3.973508e+000 1.015129e+001 6.448727e+000 9.337185e+000 6.969903e+000 4.833169e+000 5.389682e+000 4.184691e+000 4.881306e+000 5.595320e+000 4.834950e+000 3.489959e+000 5.326191e+000
<GCONST> 1.182530e+002
~s "ST_g_3_1"
<MEAN> 25
 2.146919e+000 -4.326542e+000 -5.019628e+000 4.691293e-001 9.160752e+000 5.409962e-002 -3.130178e+000 -7.678348e-001 -5.200956e+000 7.303061e+000 2.567252e+000 -2.016372e+000 3.539269e-001 -8.921106e-001 -8.465115e-001 -3.079696e+000 -1.248201e-002 -7.114748e-001 5.447520e-001 -8.682705e-001 -2.794970e-001 7.489724e-001 7.138184e-001 1.077242e-001 2.120361e+000
<VARIANCE> 25
 3.146635e+001 1.101675e+002 8.656729e+001 7.437911e+001 6.338603e+001 6.755382e+001 8.066286e+001 4.368146e+001 1.091128e+002 1.233896e+002 4.049910e+001 6.738754e+001 3.601092e+000 7.174890e+000 6.465907e+000 1.000526e+001 7.544171e+000 6.548555e+000 1.044545e+001 4.459285e+000 6.533736e+000 1.056148e+001 2.535073e+000 4.039547e+000 4.732744e+000
<GCONST> 1.200945e+002
~s "ST_g_4_1"
<MEAN> 25
 1.390447e+000 -3.947117e-001 1.750569e+000 -1.113234e+001 -4.527905e-001 -2.671124e+000 1.710805e+000 -1.333054e+000 -3.450293e+000 -2.959039e+000 9.070569e-001 -8.113277e-001 5.591580e-001 9.601386e-001 1.179350e+000 -1.426896e+000 -7.671475e-001 -1.344996e+000 -6.579925e-001 -5.799973e-002 -3.134674e-001 -8.090608e-001 -1.747380e+000 -7.903222e-001 8.810079e-001
<VARIANCE> 25
 3.303419e+001 5.205346e+001 5.252351e+001 7.407661e+001 6.047390e+001 4.310443e+001 5.980608e+001 3.856302e+001 4.940953e+001 9.993923e+001 5.011545e+001 3.745367e+001 1.995128e+000 3.256514e+000 2.347812e+000 1.099681e+001 7.383537e+000 2.601747e+000 5.539096e+000 3.202353e+000 5.798082e+000 8.430925e+000 3.581645e+000 3.079071e+000 2.102371e+000
<GCONST> 1.113010e+002
~s "ST_t_2_1"
<MEAN> 25
 7.112327e+000 5.481555e+000 -2.448350e+000 5.912039e+000 -3.532325e+000 2.401366e+000 -4.821710e+000 -2.505256e+000 -5.420173e+000 -3.887156e+000 -3.692825e+000 -9.188144e-001 -5.570918e-001 4.798799e-001 4.784684e-001 1.821389e-002 1.326302e-001 -1.009561e-001 -2.060730e-001 4.359010e-002 -3.844399e-001 -1.213904e-001 -1.199279e-001 -6.966116e-001 -4.086354e-001
<VARIANCE> 25
 4.370091e+001 6.041248e+001 7.309245e+001 4.638990e+001 5.412344e+001 8.410242e+001 4.716257e+001 3.951938e+001 3.946400e+001 3.957513e+001 5.075544e+001 5.365641e+001 1.777194e+000 2.283087e+000 2.124021e+000 2.446892e+000 2.484502e+000 3.872644e+000 3.320791e+000 3.032248e+000 2.543635e+000 4.187002e+000 3.005724e+000 2.859796e+000 2.708668e+000
<GCONST> 1.063067e+002
~s "ST_t_3_1"
<MEAN> 25
 -4.919885e-001 4.700921e-001 2.095730e+000 1.406356e+000 -1.223701e+000 -1.314875e+000 -5.023213e-002 -7.523384e-002 -2.727551e+000 7.743177e-001 4.742701e-001 -2.026232e+000 -7.486210e-001 -3.161714e+000 1.422614e+000 -2.429085e+000 3.327734e-002 -1.783387e+000 6.336215e-001 -1.006618e-001 -6.033446e-002 9.204138e-001 3.702703e-001 -4.192074e-001 3.789388e+000
<VARIANCE> 25
 2.915983e+001 1.093846e+002 3.853252e+001 5.750601e+001 8.101491e+001 7.241493e+001 6.388882e+001 5.847740e+001 7.049501e+001 5.407215e+001 3.298329e+001 4.476027e+001 3.870312e+000 1.421467e+001 7.251064e+000 8.681031e+000 1.290566e+001 9.868505e+000 1.145639e+001 1.138406e+001 6.491393e+000 8.216463e+000 4.483631e+000 4.355388e+000 8.192183e+000
<GCONST> 1.210833e+002
~s "ST_t_4_1"
<MEAN> 25
 7.984123e-002 -7.695952e+000 8.671109e+000 -2.510727e+000 -2.264369e+000 -3.618651e+000 -2.719036e-001 -1.527306e-001 -4.372685e+000 1.440775e-001 -1.389243e+000 -3.284834e+000 1.204069e-001 -2.211442e-001 -5.044343e-001 -1.044405e+000 2.012058e-001 -3.185619e-001 1.064341e-001 -1.368825e-001 4.886892e-001 3.415586e-001 -2.704975e-002 3.136429e-001 5.642722e-001
<VARIANCE> 25
 2.060666e+001 1.305968e+002 9.850180e+001 1.086303e+002 1.919642e+002 6.558015e+001 1.540089e+002 6.198331e+001 6.867125e+001 4.991288e+001 5.392559e+001 3.093229e+001 8.794301e-001 2.714166e+000 5.154345e+000 6.241545e+000 4.259534e+000 5.566233e+000 5.539977e+000 3.698992e+000 5.576120e+000 3.901455e+000 3.627361e+000 2.319976e+000 2.838377e+000
<GCONST> 1.140663e+002
~s "ST_ao_2_1"
<MEAN> 25
 6.803030e+000 6.948187e-001 -3.501612e+000 -9.951392e+000 6.038130e-001 -2.757166e+000 7.603751e-001 -2.240023e+000 -5.980662e+000 3.559597e+000 -7.282608e-001 -5.368694e+000 7.761425e-001 -6.929305e-001 2.403329e-001 -2.101592e+000 -1.478712e+000 -7.459419e-001 1.112537e+000 1.201329e-001 1.966021e-001 4.218802e-001 -3.515019e-001 -1.347949e+000 1.185003e+000
<VARIANCE> 25
 1.392892e+001 6.106525e+001 4.695898e+001 5.480634e+001 1.214521e+002 4.994375e+001 1.223299e+002 4.406892e+001 9.775909e+001 7.644326e+001 6.169505e+001 2.883220e+001 1.520648e+000 8.254606e-001 2.482831e+000 6.599936e+000 6.523127e+000 4.240255e+000 1.119332e+001 3.078059e+000 8.807536e+000 4.137888e+000 3.498637e+000 2.480421e+000 7.223850e-001
<GCONST> 1.095663e+002
~s "ST_ao_3_1"
<MEAN> 25
 6.557256e+000 -9.217013e-001 -3.150726e+000 -1.594226e+001 7.302706e-001 -4.911472e+000 3.201801e+000 1.350062e-001 -1.857603e-001 4.635553e+000 -1.161015e+000 -6.821731e+000 8.631372e-002 -6.618794e-001 -3.684393e-001 2.218829e-001 -4.324827e-001 7.868028e-003 3.987436e-001 5.265353e-001 7.294230e-001 -5.323361e-002 2.865216e-001 -3.203604e-001 1.990817e-001
<VARIANCE> 25
 4.935953e+000 2.372123e+001 6.373471e+001 2.261182e+001 5.120510e+001 4.756314e+001 4.081041e+001 1.295331e+002 6.143731e+001 5.927559e+001 3.454405e+001 2.912539e+001 1.465290e-001 2.824233e-001 5.431885e-001 1.669864e+000 9.418946e-001 1.619438e+000 1.785058e+000 1.800200e+000 2.007940e+000 2.440823e+000 1.439988e+000 1.638850e+000 2.192999e-001
<GCONST> 8.870576e+001
~s "ST_ao_4_1"
<MEAN> 25
 1.252048e+001 -5.553893e-002 -6.132690e+000 -1.364664e+001 -6.877800e+000 -8.087640e-001 -6.777333e+000 -2.171722e+000 2.606863e+000 2.453456e+000 6.909229e-001 -3.643063e+000 2.616883e-002 -4.243921e-001 -1.299917e-001 6.882351e-001 -4.114795e-001 5.440529e-002 1.974086e-001 8.417901e-002 4.781926e-001 -3.974239e-001 -3.317666e-001 3.516986e-001 -7.699493e-002
<VARIANCE> 25
 1.686472e+001 2.678524e+001 1.762258e+001 3.955534e+001 3.138944e+001 3.966356e+001 6.998168e+001 5.262655e+001 4.927190e+001 3.422245e+001 2.981108e+001 2.697331e+001 1.507617e-001 9.089828e-001 7.277504e-001 2.415276e+000 2.050016e+000 1.979062e+000 1.537754e+000 1.568718e+000 2.139535e+000 2.447343e+000 2.399058e+000 1.278594e+000 9.325773e-002
<GCONST> 8.932683e+001
~s "ST_sil_2_1"
<MEAN> 25
 -1.473452e+001 6.471518e+000 -3.172853e+000 1.083753e+001 -2.413797e+000 7.146364e+000 -4.421612e+000 1.004776e+001 9.415133e+000 4.218103e+000 4.730853e+000 2.071032e+000 -2.125248e-002 2.864025e-002 2.594058e-004 -4.055255e-002 3.526626e-002 6.471729e-002 -4.256712e-002 -3.448859e-002 9.028945e-002 6.607891e-002 3.335893e-002 -7.576983e-002 -1.275779e-002
<VARIANCE> 25
 3.858149e+001 1.457504e+001 2.503246e+001 2.762814e+001 1.873448e+001 1.865616e+001 1.963675e+001 3.349374e+001 3.808681e+001 1.919143e+001 1.927065e+001 1.367488e+001 1.157988e-001 2.450273e-001 3.190285e-001 4.719314e-001 6.072300e-001 7.694225e-001 9.914826e-001 1.232794e+000 1.127516e+000 1.381112e+000 1.158649e+000 1.254928e+000 1.565481e-001
<GCONST> 7.627872e+001
~s "silst"
<MEAN> 25
 -3.462994e-003 -4.095534e-001 -3.665870e+000 2.436258e+000 -1.395384e+000 1.537362e+000 -1.255297e+000 -1.506832e+000 -9.972531e-001 1.231641e-001 -5.267994e-001 9.512833e-001 2.291573e-001 2.926408e-002 1.618275e-001 -4.062855e-001 7.069548e-003 -1.218926e-001 1.208602e-001 -2.217626e-001 -2.600485e-001 -1.272328e-001 -5.645486e-002 2.585473e-002 1.162984e+000
<VARIANCE> 25
 6.922878e+001 1.594567e+002 8.595506e+001 1.104652e+002 6.816581e+001 7.475011e+001 7.350805e+001 6.275793e+001 4.941221e+001 5.343339e+001 3.861165e+001 3.911509e+001 4.196970e+000 4.652866e+000 4.272005e+000 5.223376e+000 4.445391e+000 4.351839e+000 4.307453e+000 4.083782e+000 4.031194e+000 3.880308e+000 3.347508e+000 2.598779e+000 1.064078e+001
<GCONST> 1.157710e+002
~s "ST_sil_3_1"
<MEAN> 25
 8.181988e-001 -1.335348e+000 -3.706023e+000 2.203468e+000 -8.243023e-001 1.275556e+000 -1.397954e+000 -1.919905e+000 -1.275009e+000 -2.992435e-001 -1.105126e+000 7.562176e-001 1.646995e-001 9.740657e-002 1.224620e-001 -3.029312e-001 4.916930e-002 -1.286278e-001 1.342643e-001 -1.430101e-001 -2.348765e-001 -1.349513e-001 -5.667835e-002 2.623448e-002 9.249308e-001
<VARIANCE> 25
 7.061629e+001 1.554849e+002 8.407948e+001 1.051271e+002 6.722255e+001 7.203684e+001 7.414286e+001 6.275325e+001 4.958983e+001 6.118337e+001 4.201213e+001 3.902664e+001 3.938696e+000 4.564207e+000 4.052074e+000 4.896801e+000 4.132907e+000 4.366781e+000 4.171010e+000 4.128870e+000 3.990629e+000 3.962002e+000 3.417165e+000 2.681063e+000 9.514539e+000
<GCONST> 1.155325e+002
~s "ST_sil_4_1"
<MEAN> 25
 -3.647610e+000 4.944257e+000 -2.506984e+000 1.634688e+000 -1.557595e+000 3.071678e+000 8.270850e-001 1.543057e+000 6.874485e-001 2.449171e+000 5.117432e-001 2.387484e+000 -1.022403e-002 -2.892843e-003 2.007216e-002 1.514712e-002 5.224720e-003 -8.334359e-003 1.456074e-002 1.510612e-002 1.433131e-002 3.341495e-002 1.939283e-002 -1.074164e-002 1.194777e-002
<VARIANCE> 25
 7.885771e+000 4.947373e+001 2.884253e+001 2.246631e+001 2.498237e+001 1.886304e+001 2.259238e+001 1.661842e+001 2.285272e+001 2.846293e+001 1.407805e+001 1.739827e+001 1.274553e-001 2.657925e-001 5.047572e-001 6.814135e-001 8.369003e-001 1.031158e+000 1.117559e+000 1.197380e+000 1.344427e+000 1.224690e+000 1.205819e+000 1.058865e+000 8.217947e-002
<GCONST> 7.638524e+001
~s "ST_j_2_1"
<MEAN> 25
 8.686240e+000 -1.301158e+001 -3.451650e+000 6.331574e-001 -6.065976e+000 4.104366e+000 -6.394510e+000 -3.298348e+000 -2.444693e+000 -1.604856e+000 1.736393e-002 -2.160953e+000 4.224601e-001 6.803800e-001 -4.203555e-001 5.906602e-001 -7.886123e-001 1.675656e-001 -8.996702e-002 -3.248163e-001 3.114855e-001 1.526627e-001 -3.931899e-001 -1.801189e-001 -7.007144e-001
<VARIANCE> 25
 7.793766e+000 9.365765e+001 1.435643e+001 3.325090e+001 4.446801e+001 1.004658e+001 1.824332e+001 1.468501e+001 2.384044e+001 1.189697e+001 1.492113e+002 1.390619e+001 5.558510e-001 4.451333e-001 2.224057e-001 1.214740e+000 2.116700e+000 1.407428e+000 3.214196e+000 1.157777e+000 2.959662e+000 1.827405e+000 3.638538e+000 1.374735e+000 5.688556e-001
<GCONST> 8.612020e+001
~s "ST_j_3_1"
<MEAN> 25
 4.388476e+000 -9.578358e-001 -5.341969e+000 1.047502e+001 -5.578610e+000 4.077412e+000 -9.288628e-001 -5.858808e+000 -2.420721e+000 2.216403e+000 -4.387472e+000 -4.757071e+000 -9.937495e-001 6.306301e-001 9.235222e-002 8.118059e-002 1.524934e-001 -4.841870e-002 3.718267e-001 5.142491e-001 3.386143e-002 5.138592e-001 6.067142e-001 -4.630266e-001 -1.025728e+000
<VARIANCE> 25
 4.427341e+001 1.080718e+002 7.129826e+001 2.485762e+001 3.318742e+001 4.590289e+001 1.175684e+002 1.798803e+001 1.322825e+001 4.465062e+001 2.128739e+001 3.638464e+001 1.840689e+000 1.125633e+000 2.434447e+000 5.711288e+000 1.507000e+000 3.381976e+000 4.466819e+000 2.188240e+000 1.893380e+000 2.594376e+000 5.787806e+000 3.504168e+000 9.477152e-001
<GCONST> 1.017358e+002
~s "ST_j_4_1"
<MEAN> 25
 -4.865760e-001 7.292451e+000 5.239806e+000 -2.161226e+000 -5.029427e+000 -6.419510e+000 -6.260060e+000 1.802557e+000 -1.303336e+000 6.079425e+000 4.764921e+000 -5.434698e+000 -2.562892e-001 -6.271303e-002 1.708303e-001 -5.012071e-001 7.211687e-002 -2.224234e-001 -1.462084e-001 3.703238e-001 1.771042e-002 1.587149e-001 -6.596940e-003 6.992825e-003 1.971946e-001
<VARIANCE> 25
 4.653187e+001 7.331133e+001 1.323361e+001 5.978355e+001 5.616220e+001 1.094901e+002 5.789431e+001 3.424529e+001 5.692124e+001 3.128880e+001 3.700626e+001 1.089359e+002 3.196939e+000 4.065409e+000 1.990283e+000 4.090377e+000 5.237894e+000 8.048540e+000 3.437530e+000 6.031365e+000 3.705243e+000 4.867651e+000 2.578259e+000 2.826944e+000 5.679644e+000
<GCONST> 1.109086e+002
~s "ST_w_2_1"
<MEAN> 25
 5.170426e+000 7.497837e+000 9.057774e+000 -1.041087e+001 -2.231631e+000 -4.005090e+000 -5.550237e+000 -2.108191e-001 -8.209002e+000 -1.222713e+000 -5.814948e+000 -1.219070e+000 1.327644e-001 2.666687e-001 -3.550694e-001 -2.554855e-002 -8.250497e-002 -5.517739e-001 3.652964e-002 4.075552e-001 -1.798020e-002 5.036836e-001 3.794820e-001 4.332455e-002 -1.656665e-001
<VARIANCE> 25
 1.822255e+001 1.881586e+001 5.913832e+001 4.089491e+001 3.195551e+001 3.630623e+001 2.686503e+001 4.738507e+001 4.244622e+001 7.676005e+001 4.047946e+001 3.090595e+001 1.679485e-001 3.165396e-001 8.357350e-001 1.237059e+000 9.984608e-001 1.384078e+000 1.521466e+000 1.076409e+000 1.275166e+000 3.000620e+000 1.392159e+000 1.354554e+000 2.591619e-001
<GCONST> 8.754292e+001
~s "ST_w_3_1"
<MEAN> 25
 6.814241e+000 1.217294e+000 6.482052e-001 -1.611054e+001 3.146713e+000 -8.277573e+000 1.282323e-001 3.301705e+000 -5.966886e+000 -1.567429e+000 3.210682e+000 -2.323932e+000 -3.465623e-001 -1.463320e+000 -4.634075e-001 -1.903746e-001 6.407371e-001 6.093703e-001 1.170713e+000 -8.281307e-001 7.311517e-001 -1.781572e-001 1.573469e-001 -4.930168e-001 9.489540e-001
<VARIANCE> 25
 9.727953e+000 4.695175e+001 3.501972e+001 1.864065e+001 4.892869e+001 5.499146e+001 3.686084e+001 5.617035e+001 4.723419e+001 1.124156e+002 3.880064e+001 4.524506e+001 3.753155e-001 2.110746e+000 1.378679e+000 3.371717e+000 1.267038e+000 1.182813e+000 2.632140e+000 1.907456e+000 3.527133e+000 5.258251e+000 7.221989e+000 4.435335e+000 1.233741e+000
<GCONST> 1.000521e+002
~s "ST_w_4_1"
<MEAN> 25
 4.309754e-001 -9.245003e+000 1.495301e+000 -7.472628e+000 8.392658e+000 -4.636218e+000 9.535231e+000 3.946023e+000 -3.091307e+000 -1.028684e+000 6.125766e+000 -4.183913e+000 5.948718e-002 1.053633e-001 1.080544e-002 3.560913e-001 -8.403230e-001 -3.624499e-001 4.623036e-001 -4.948097e-001 -2.682883e-001 5.380104e-001 -1.737884e-001 5.380633e-001 -2.998294e-001
<VARIANCE> 25
 1.513605e+001 8.545826e+001 1.496364e+001 1.248897e+001 5.928642e+001 2.863397e+001 1.064475e+002 5.963734e+001 1.390674e+002 5.133372e+001 6.514475e+001 1.398707e+002 3.316242e-001 1.535948e+000 6.844918e-001 8.310381e-001 2.366731e+000 1.824034e+000 2.065204e+000 2.225084e+000 3.422574e+000 3.403209e+000 3.775222e+000 2.412394e+000 8.818250e-001
<GCONST> 9.881329e+001
~s "ST_ng_2_1"
<MEAN> 25
 3.104921e+000 -4.400729e+000 -3.128968e+000 -3.018131e+000 8.324942e+000 -3.351969e+000 9.227299e-001 -4.337265e+000 2.795949e+000 -3.954139e-001 5.729605e+000 -3.228496e+000 -4.442347e-002 7.644807e-001 3.941214e-001 9.299179e-001 -9.375548e-002 4.853071e-001 -3.743224e-001 2.935883e-001 -2.422646e-002 -1.271322e-001 -4.478630e-001 -2.168688e-001 -7.859846e-001
<VARIANCE> 25
 6.402071e+000 2.930228e+001 1.790111e+001 4.214471e+001 4.113649e+001 4.585141e+001 3.957013e+001 2.544077e+001 3.790699e+001 4.709161e+001 5.621581e+001 2.822570e+001 3.641314e-001 1.602763e+000 1.009167e+000 2.533271e+000 2.000970e+000 1.463208e+000 2.976447e+000 1.954631e+000 2.785234e+000 2.326595e+000 3.772154e+000 1.840162e+000 1.192980e+000
<GCONST> 9.433858e+001
~s "ST_ng_3_1"
<MEAN> 25
 3.050174e+000 3.262728e+000 1.357075e+000 4.074875e+000 3.306092e+000 9.523340e-001 9.489326e-001 -3.342233e+000 -4.253614e+000 -3.168092e+000 -5.484753e+000 -4.521984e+000 -2.907872e-001 9.230426e-002 1.054503e-001 3.195575e-001 -4.163499e-001 1.172755e-001 6.522902e-002 5.317703e-001 2.743861e-001 3.640969e-001 4.027573e-001 3.990128e-001 -4.775025e-001
<VARIANCE> 25
 9.944515e+000 2.954161e+001 1.588242e+001 1.915923e+001 2.803290e+001 1.834009e+001 2.138204e+001 2.492576e+001 3.131766e+001 3.651756e+001 2.855049e+001 3.482824e+001 2.872497e-001 7.368839e-001 7.007582e-001 9.260305e-001 1.218751e+000 1.694280e+000 2.019987e+000 1.687439e+000 1.945964e+000 1.829499e+000 2.013679e+000 1.470341e+000 1.799491e-001
<GCONST> 8.441914e+001
~s "ST_m_2_1"
<MEAN> 25
 5.850913e+000 3.249681e+000 -4.122052e+000 -6.732641e-001 1.982828e+000 3.884738e+000 1.943797e-001 -2.084829e+000 -1.395969e+000 -2.774360e+000 -1.889638e+000 -1.540265e+000 -2.214089e-001 1.724780e+000 9.227644e-001 8.607143e-001 -2.651201e-001 -5.040243e-002 -5.038683e-001 5.045563e-002 -1.690907e-001 -3.769743e-002 -2.046689e-001 1.792417e-001 -1.199966e+000
<VARIANCE> 25
 3.323952e+001 7.014726e+001 3.209079e+001 1.022375e+002 3.447228e+001 5.177624e+001 6.059415e+001 4.026613e+001 4.620485e+001 3.350483e+001 2.926937e+001 2.643054e+001 9.307702e-001 2.080659e+000 2.342447e+000 6.128776e+000 3.256847e+000 3.308958e+000 3.361283e+000 3.372449e+000 3.035844e+000 3.464511e+000 2.435809e+000 2.859462e+000 4.647591e-001
<GCONST> 1.027380e+002
~s "ST_m_2_2"
<MEAN> 25
 1.584957e+000 9.448314e-001 -3.784839e+000 -3.292972e+000 2.511114e+000 3.044008e+000 1.209155e-001 -2.850982e+000 2.415769e-001 3.820240e-001 1.727739e-001 1.190825e+000 -1.199999e-001 3.106635e-001 2.924120e-001 -2.809197e-001 1.111494e-001 1.905093e-001 -1.263747e-001 1.380656e-002 -2.143573e-002 -2.631322e-001 -2.637593e-001 -1.001594e-001 -3.457316e-002
<VARIANCE> 25
 7.634073e+000 6.645842e+001 5.104024e+001 4.871499e+001 6.532738e+001 3.165963e+001 3.199773e+001 2.858308e+001 2.362380e+001 3.422435e+001 2.579339e+001 3.000322e+001 4.744675e-001 1.643482e+000 1.813939e+000 4.144096e+000 2.766390e+000 1.798296e+000 3.141991e+000 2.174457e+000 2.112276e+000 2.102685e+000 1.636552e+000 2.082167e+000 9.475764e-001
<GCONST> 9.575187e+001
~s "ST_ng_4_1"
<MEAN> 25
 -2.468062e+000 9.137231e-001 -1.675412e+000 3.944303e+000 1.227834e+000 1.991063e+000 3.653558e+000 1.318886e+000 1.531224e+000 4.155262e+000 1.527139e+000 1.592733e+000 -7.915642e-002 -4.143881e-002 -1.111900e-001 -9.105221e-002 -3.236040e-002 2.832019e-002 1.469797e-002 4.734787e-002 3.339570e-002 7.550845e-002 3.774034e-002 1.140312e-001 -8.270577e-002
<VARIANCE> 25
 1.049602e+001 1.715651e+001 2.319755e+001 1.066543e+001 2.045104e+001 1.162960e+001 1.916142e+001 2.122644e+001 1.787282e+001 2.185550e+001 1.153535e+001 1.868117e+001 1.287203e-001 3.295383e-001 5.068431e-001 7.120661e-001 9.475051e-001 1.044478e+000 1.234565e+000 1.087825e+000 1.257484e+000 1.208416e+000 1.247755e+000 9.754965e-001 8.611380e-002
<GCONST> 7.373981e+001
~s "ST_ng_4_2"
<MEAN> 25
 -1.170089e-002 4.066959e-001 1.628495e+000 5.496549e+000 8.998154e-001 1.526547e+000 1.190500e-001 2.147379e+000 2.097014e-001 -1.054652e+000 1.410910e+000 -1.389618e-001 -6.206721e-002 3.602182e-002 7.232755e-002 2.173002e-002 -4.387736e-002 1.233730e-002 -2.372642e-002 5.857925e-002 1.317285e-001 9.446272e-002 2.448346e-002 -1.172977e-002 -2.697749e-002
<VARIANCE> 25
 7.092122e+000 3.994123e+000 7.309555e+000 1.042879e+001 9.579165e+000 1.107737e+001 1.810870e+001 1.754665e+001 1.487030e+001 1.631907e+001 1.478848e+001 1.215165e+001 1.550966e-001 2.874752e-001 4.275860e-001 7.334499e-001 9.683230e-001 1.038183e+000 1.225446e+000 1.224191e+000 1.468268e+000 1.455341e+000 1.340692e+000 1.100804e+000 7.184420e-002
<GCONST> 6.938950e+001
~s "ST_m_3_1"
<MEAN> 25
 4.891398e+000 4.385128e+000 1.565639e+000 3.413758e+000 2.174582e+000 -8.493006e-001 -1.342541e+000 -2.075685e+000 -2.956736e+000 -3.915809e+000 -4.471988e+000 -3.860754e+000 -2.288779e-001 1.431338e-001 3.261693e-001 2.705612e-001 -1.998298e-001 6.557638e-003 -2.302323e-002 2.373066e-001 8.287936e-002 1.238554e-001 1.876449e-001 9.941556e-002 -2.971430e-001
<VARIANCE> 25
 1.496891e+001 2.394107e+001 1.530530e+001 3.418369e+001 2.956555e+001 2.377860e+001 4.578709e+001 4.901402e+001 3.407240e+001 2.541435e+001 2.382627e+001 2.210376e+001 1.902100e-001 6.026725e-001 6.695027e-001 1.198800e+000 1.089815e+000 1.023355e+000 1.293124e+000 1.531525e+000 1.516433e+000 1.465090e+000 1.437767e+000 1.235772e+000 1.727522e-001
<GCONST> 8.341397e+001
~s "ST_m_3_2"
<MEAN> 25
 1.250520e+000 5.993283e+000 8.336432e+000 -7.664024e+000 -2.950292e+000 -3.333285e+000 -8.852114e+000 -5.185627e+000 -3.366651e+000 -4.882134e+000 -3.774640e+000 2.292877e-001 -3.415943e-002 -1.564647e-002 -2.329394e-001 6.876656e-001 2.252627e-001 -9.789879e-002 1.488857e-001 2.062997e-001 1.740282e-001 1.458207e-001 3.569979e-001 -9.788277e-002 -3.048165e-001
<VARIANCE> 25
 1.428611e+001 7.197514e+000 1.886029e+001 1.056464e+002 6.100323e+001 2.216366e+001 4.248444e+001 3.030502e+001 1.677303e+001 2.770887e+001 3.064957e+001 2.344876e+001 1.840004e-001 6.157565e-001 6.124272e-001 2.042140e+000 1.348560e+000 1.570418e+000 2.031370e+000 1.858134e+000 1.588573e+000 2.221515e+000 1.414428e+000 1.272292e+000 2.165722e-001
<GCONST> 8.570925e+001
~s "ST_m_4_1"
<MEAN> 25
 -4.065590e+000 3.958494e+000 7.541862e-001 9.534577e-001 1.381334e+000 1.700534e+000 2.316899e+000 2.692359e+000 3.250718e+000 1.927736e+000 2.362963e+000 6.004253e-001 -1.687255e-002 1.713423e-002 4.244308e-002 8.054808e-003 -4.539608e-003 2.854963e-003 -2.678285e-002 -2.780632e-002 2.437231e-002 4.811539e-002 8.496914e-003 -3.612322e-002 1.511192e-002
<VARIANCE> 25
 5.504113e+000 5.439062e+001 1.281097e+001 2.261903e+001 1.919558e+001 1.459220e+001 2.579800e+001 1.570045e+001 1.781944e+001 2.361764e+001 1.421443e+001 1.569862e+001 1.158710e-001 2.877553e-001 5.087135e-001 7.104280e-001 1.057374e+000 1.228985e+000 1.295328e+000 1.421979e+000 1.627943e+000 1.831866e+000 1.425225e+000 1.111874e+000 4.742266e-002
<GCONST> 7.536546e+001
~s "ST_m_4_2"
<MEAN> 25
 -6.601781e-001 6.495645e+000 1.756457e+000 2.460068e+000 -4.825534e-001 1.526343e+000 -6.687036e-001 2.632727e+000 1.677220e+000 -1.342015e+000 5.232884e-001 8.456455e-001 -5.950932e-002 2.429882e-002 1.013729e-001 4.066484e-002 -6.149457e-002 -2.922287e-002 -1.234836e-002 3.312760e-002 5.991976e-002 6.672100e-002 3.425562e-002 8.339552e-003 -4.159179e-002
<VARIANCE> 25
 9.451925e+000 5.797107e+001 1.173536e+001 3.882982e+001 1.621435e+001 1.754561e+001 2.257748e+001 1.629466e+001 1.986988e+001 2.162750e+001 1.659696e+001 1.798011e+001 1.363122e-001 3.170865e-001 6.429277e-001 8.059945e-001 1.048430e+000 1.272590e+000 1.418218e+000 1.421166e+000 1.534204e+000 1.586431e+000 1.323212e+000 1.203413e+000 6.123341e-002
<GCONST> 7.744713e+001
~s "ST_m_4_3"
<MEAN> 25
 -1.034120e+000 1.362621e+000 2.001689e+000 5.352987e+000 6.307468e-001 8.123528e-001 9.496136e-001 2.508154e+000 2.359147e-001 2.382737e-001 8.750640e-001 -9.439214e-001 -3.865509e-003 1.423328e-002 -2.287713e-002 5.729318e-002 3.598614e-002 3.376781e-002 1.099275e-001 4.783311e-002 7.416835e-002 4.327929e-002 3.644612e-002 -5.768370e-003 -3.367074e-002
<VARIANCE> 25
 1.144637e+001 6.020450e+000 4.890140e+000 8.998904e+000 1.503433e+001 1.284064e+001 1.871039e+001 1.716497e+001 2.087373e+001 2.015184e+001 1.433493e+001 1.141797e+001 1.308273e-001 2.617750e-001 4.267685e-001 7.345920e-001 8.603352e-001 1.251662e+000 1.063765e+000 1.293208e+000 1.391443e+000 1.390335e+000 1.210936e+000 1.117134e+000 4.858979e-002
<GCONST> 6.993524e+001
~s "ST_c_2_1"
<MEAN> 25
 3.351895e-008 6.868748e-009 -8.012638e-008 -5.171843e-009 5.659957e-008 3.127444e-008 -1.897019e-008 -3.787276e-008 -2.190428e-009 -1.042481e-007 5.105589e-008 -4.266601e-008 9.338440e-003 5.151767e-003 1.071485e-002 -4.624357e-003 4.757588e-003 -1.562855e-004 6.065580e-003 -2.663599e-003 -1.184148e-003 -7.597569e-004 -2.750245e-003 -3.096818e-003 3.171694e-002
<VARIANCE> 25
 4.493839e+001 1.140073e+002 6.386908e+001 8.517533e+001 5.555016e+001 4.948111e+001 6.410268e+001 5.053800e+001 4.916899e+001 4.841446e+001 3.746964e+001 3.443018e+001 1.058399e+000 2.394540e+000 2.004006e+000 3.105449e+000 2.635025e+000 2.534516e+000 3.119964e+000 2.812881e+000 2.677968e+000 2.755787e+000 2.419358e+000 2.075167e+000 1.645589e+000
<GCONST> 1.049692e+002
~s "ST_c_3_1"
<MEAN> 25
 3.351895e-008 6.868748e-009 -8.012638e-008 -5.171843e-009 5.659957e-008 3.127444e-008 -1.897019e-008 -3.787276e-008 -2.190428e-009 -1.042481e-007 5.105589e-008 -4.266601e-008 9.338440e-003 5.151767e-003 1.071485e-002 -4.624357e-003 4.757588e-003 -1.562855e-004 6.065580e-003 -2.663599e-003 -1.184148e-003 -7.597569e-004 -2.750245e-003 -3.096818e-003 3.171694e-002
<VARIANCE> 25
 4.493839e+001 1.140073e+002 6.386908e+001 8.517533e+001 5.555016e+001 4.948111e+001 6.410268e+001 5.053800e+001 4.916899e+001 4.841446e+001 3.746964e+001 3.443018e+001 1.058399e+000 2.394540e+000 2.004006e+000 3.105449e+000 2.635025e+000 2.534516e+000 3.119964e+000 2.812881e+000 2.677968e+000 2.755787e+000 2.419358e+000 2.075167e+000 1.645589e+000
<GCONST> 1.049692e+002
~s "ST_eh_2_1"
<MEAN> 25
 1.852146e+000 -2.006335e+000 -1.846469e+000 -3.379620e+000 -1.468511e+000 -2.497537e+000 3.058028e+000 -6.720147e-001 -4.549583e-001 1.809200e+000 -5.892052e-001 -8.964974e-001 1.208338e+000 -4.807046e-001 -1.812146e-001 -8.132852e-001 -1.811090e-001 -5.862134e-001 -4.915721e-001 -1.931089e-001 -2.793370e-001 -7.359659e-001 -6.608369e-001 -6.507372e-002 1.202504e+000
<VARIANCE> 25
 3.620308e+001 4.380567e+001 3.481334e+001 4.239161e+001 4.794250e+001 4.079441e+001 6.330651e+001 3.497384e+001 7.201800e+001 5.134504e+001 5.546037e+001 3.047919e+001 4.177295e+000 4.507188e+000 3.422633e+000 5.360055e+000 4.693716e+000 3.784552e+000 6.196581e+000 3.417023e+000 5.681183e+000 4.487096e+000 5.324420e+000 3.183631e+000 5.323112e+000
<GCONST> 1.110575e+002
~s "ST_c_4_1"
<MEAN> 25
 3.351895e-008 6.868748e-009 -8.012638e-008 -5.171843e-009 5.659957e-008 3.127444e-008 -1.897019e-008 -3.787276e-008 -2.190428e-009 -1.042481e-007 5.105589e-008 -4.266601e-008 9.338440e-003 5.151767e-003 1.071485e-002 -4.624357e-003 4.757588e-003 -1.562855e-004 6.065580e-003 -2.663599e-003 -1.184148e-003 -7.597569e-004 -2.750245e-003 -3.096818e-003 3.171694e-002
<VARIANCE> 25
 4.493839e+001 1.140073e+002 6.386908e+001 8.517533e+001 5.555016e+001 4.948111e+001 6.410268e+001 5.053800e+001 4.916899e+001 4.841446e+001 3.746964e+001 3.443018e+001 1.058399e+000 2.394540e+000 2.004006e+000 3.105449e+000 2.635025e+000 2.534516e+000 3.119964e+000 2.812881e+000 2.677968e+000 2.755787e+000 2.419358e+000 2.075167e+000 1.645589e+000
<GCONST> 1.049692e+002
~s "ST_eh_3_1"
<MEAN> 25
 5.101358e+000 -3.365521e+000 -1.745901e+000 -6.773443e+000 -3.024591e+000 -3.325582e+000 4.846064e+000 -1.726134e+000 -3.983693e+000 -1.172493e+000 -2.585992e+000 -1.951807e+000 3.808897e-001 3.363712e-003 -1.221075e-001 7.006089e-001 2.536865e-001 1.524838e-001 -7.145241e-001 3.399613e-002 -3.155049e-001 -3.617240e-001 2.164090e-001 3.541438e-001 -1.730827e-001
<VARIANCE> 25
 2.851833e+001 5.199096e+001 7.127065e+001 4.994633e+001 6.974184e+001 5.045424e+001 8.420558e+001 5.437845e+001 5.664285e+001 4.265921e+001 4.470559e+001 3.517163e+001 1.329080e+000 3.867787e+000 1.864779e+000 3.513797e+000 2.921272e+000 3.446336e+000 3.332742e+000 6.544904e+000 3.686190e+000 3.785225e+000 3.071595e+000 2.553045e+000 3.174410e+000
<GCONST> 1.079305e+002
~s "ST_eh_4_1"
<MEAN> 25
 7.645730e+000 -3.128424e+000 -1.411312e+000 -3.540038e+000 -4.550570e+000 -4.235178e+000 -2.591183e+000 -1.530291e+000 -3.501724e+000 -6.427319e+000 -3.772823e+000 2.302112e+000 -3.551407e-001 6.159127e-001 -4.688707e-002 5.533540e-001 2.057631e-001 1.696266e-001 -1.553156e-001 -2.933207e-001 5.646786e-003 1.510025e-001 6.139879e-001 -2.880915e-001 -4.685809e-001
<VARIANCE> 25
 1.735242e+001 6.605753e+001 3.103296e+001 3.509169e+001 5.087650e+001 6.618148e+001 4.313101e+001 4.785421e+001 3.667765e+001 4.461761e+001 3.630116e+001 2.825066e+001 1.132955e+000 2.360565e+000 1.106117e+000 1.815475e+000 2.506816e+000 3.270811e+000 2.724954e+000 2.731185e+000 2.043795e+000 2.634396e+000 1.800752e+000 2.550159e+000 7.687421e-001
<GCONST> 9.880866e+001
~s "ST_p_2_1"
<MEAN> 25
 1.714691e+000 9.498698e-001 -2.996540e+000 -1.907040e+000 -2.356514e-001 3.573093e-001 -7.380556e-002 1.706465e+000 8.841284e-001 1.079315e+000 1.018666e-001 -3.301482e-001 2.422818e-001 -1.356425e+000 -2.385851e-001 -1.160599e+000 5.886146e-001 1.469980e-002 8.324106e-001 -1.730613e-001 -7.181304e-002 -2.321250e-001 -2.691555e-001 -7.293433e-002 1.755624e+000
<VARIANCE> 25
 4.010191e+001 9.333338e+001 3.728504e+001 7.600613e+001 3.932592e+001 3.962712e+001 6.273785e+001 4.757676e+001 4.531318e+001 4.491557e+001 4.099445e+001 2.483536e+001 4.709552e+000 5.587056e+000 2.919395e+000 6.902918e+000 3.832520e+000 4.563366e+000 4.859264e+000 6.027590e+000 4.718056e+000 5.589158e+000 3.724027e+000 3.725655e+000 9.149228e+000
<GCONST> 1.126489e+002
~s "ST_p_3_1"
<MEAN> 25
 1.155193e+000 5.114701e-001 -3.280584e+000 -3.323168e+000 1.038804e+000 -2.854903e-001 2.197328e-001 -6.239688e-001 -2.505337e-001 -3.699166e+000 -8.894050e-001 2.889995e+000 -3.316194e-001 2.965657e-001 2.508071e-001 4.531822e-001 -1.088663e-002 4.373901e-002 1.050401e-001 2.048321e-001 1.211048e-001 1.720554e-001 1.793966e-001 3.737833e-002 -3.503391e-001
<VARIANCE> 25
 2.082853e+001 1.361008e+002 2.044212e+001 3.124351e+001 2.518387e+001 2.610608e+001 3.920467e+001 2.705845e+001 3.058943e+001 2.923353e+001 2.529903e+001 2.144982e+001 3.673420e-001 7.852096e-001 9.395158e-001 1.428439e+000 1.184334e+000 1.728580e+000 1.837843e+000 1.817183e+000 1.473694e+000 1.632013e+000 1.684932e+000 1.457163e+000 3.819115e-001
<GCONST> 8.869020e+001
~s "ST_p_4_1"
<MEAN> 25
 -1.405105e+000 1.593362e+000 1.438363e+000 4.673506e+000 -1.217821e-001 1.248474e+000 3.069063e+000 2.510631e+000 2.168224e+000 1.974791e+000 2.318944e+000 8.779965e-002 -5.104617e-002 -3.987346e-002 2.188745e-002 1.065174e-001 9.636480e-003 3.314706e-002 3.533502e-002 6.390730e-002 6.058685e-002 -3.036627e-002 -6.219784e-002 1.806860e-002 -4.625174e-002
<VARIANCE> 25
 1.148090e+001 9.370597e+000 7.239488e+000 1.295543e+001 1.208712e+001 1.460184e+001 1.699036e+001 1.478525e+001 1.591224e+001 1.538334e+001 1.312807e+001 1.004688e+001 1.589376e-001 3.034284e-001 5.704778e-001 8.616416e-001 1.058010e+000 1.000742e+000 1.306981e+000 1.578998e+000 1.413709e+000 1.583439e+000 1.186154e+000 9.435875e-001 5.595390e-002
<GCONST> 7.132304e+001
~s "ST_p_4_2"
<MEAN> 25
 -5.074090e+000 1.351970e+000 9.000149e-001 2.901623e+000 2.666073e+000 2.136602e+000 4.377213e+000 3.197278e+000 3.740184e+000 3.678845e+000 3.198076e+000 -3.878947e-001 -4.508375e-002 1.314096e-002 1.545769e-002 1.467211e-002 -2.568091e-003 4.278472e-003 1.296671e-002 3.968488e-002 5.820271e-002 9.582276e-002 4.700436e-002 -2.664499e-002 -1.031100e-002
<VARIANCE> 25
 3.850604e+000 9.584551e+000 7.285252e+000 7.586296e+000 9.854315e+000 1.107985e+001 1.293895e+001 1.344032e+001 1.371437e+001 1.661755e+001 1.166489e+001 1.219940e+001 1.363600e-001 2.999198e-001 5.462208e-001 6.589385e-001 8.915152e-001 9.931284e-001 1.138372e+000 1.209321e+000 1.350335e+000 1.509929e+000 1.286161e+000 1.113245e+000 5.565373e-002
<GCONST> 6.796804e+001
~s "ST_ih_2_1"
<MEAN> 25
 1.089369e+000 6.838575e+000 1.117539e+001 -6.213520e+000 -4.086448e+000 -3.939000e+000 -5.992188e+000 -5.869583e+000 8.335775e-001 -1.024235e+000 -4.338269e+000 -1.034516e+000 -5.066970e-002 1.772804e-001 3.543991e-001 -6.140479e-002 1.093135e-001 -2.902434e-001 -4.540471e-001 1.865541e-001 1.968359e-001 -3.268784e-001 -1.724463e-001 8.388036e-002 -9.843733e-002
<VARIANCE> 25
 2.296726e+001 7.038378e+001 6.584648e+001 1.691956e+002 7.271407e+001 4.858921e+001 5.095478e+001 6.462705e+001 5.561166e+001 4.119044e+001 2.941789e+001 4.265524e+001 1.476742e+000 2.475004e+000 3.630499e+000 7.936639e+000 4.421890e+000 3.693876e+000 3.832406e+000 4.631873e+000 4.647704e+000 4.182196e+000 3.222901e+000 2.926419e+000 1.966452e+000
<GCONST> 1.100083e+002
~s "ST_ih_3_1"
<MEAN> 25
 -1.664585e+000 9.984840e+000 3.644197e+000 -2.772965e+000 -5.820415e-001 -1.004370e+000 -3.122042e+000 1.385216e+000 2.041892e+000 -1.643082e+000 -4.842554e-001 1.688256e+000 -2.353543e-002 1.704157e-003 6.094348e-002 2.006116e-001 3.749768e-002 -5.290341e-002 -1.110487e-001 7.337452e-002 8.445800e-002 -2.068401e-002 5.199618e-002 -6.350072e-002 -9.919415e-002
<VARIANCE> 25
 8.398966e+000 6.421706e+001 2.464696e+001 5.712988e+001 1.838422e+001 2.792372e+001 2.925231e+001 2.557807e+001 2.847854e+001 2.523085e+001 1.774952e+001 2.096969e+001 2.421656e-001 4.612795e-001 1.016369e+000 1.582749e+000 1.402538e+000 1.732867e+000 1.752578e+000 1.954635e+000 1.905064e+000 1.770716e+000 1.481658e+000 1.371425e+000 1.587265e-001
<GCONST> 8.532981e+001
~s "ST_ih_3_2"
<MEAN> 25
 -3.806087e+000 1.423132e+001 7.056914e+000 -6.074938e+000 -2.104776e+000 -4.120337e+000 -5.191926e+000 -5.394831e-002 3.394714e+000 1.325543e+000 -2.134864e+000 4.630074e+000 -3.857379e-002 -3.112291e-002 7.473715e-002 -2.200546e-001 2.446672e-001 -2.724281e-002 -3.678023e-002 1.171824e-001 8.924601e-002 1.794458e-001 1.902636e-001 1.150541e-001 1.671033e-002
<VARIANCE> 25
 4.448886e+000 5.152422e+001 2.674195e+001 3.776447e+001 1.763656e+001 1.719474e+001 1.522083e+001 2.107019e+001 4.225254e+001 2.991366e+001 2.669894e+001 2.283547e+001 1.276623e-001 2.757666e-001 6.402096e-001 1.259937e+000 1.398079e+000 1.252799e+000 1.239089e+000 1.605574e+000 1.505067e+000 1.711798e+000 1.623709e+000 1.398852e+000 8.717355e-002
<GCONST> 8.035302e+001
~s "ST_ih_4_1"
<MEAN> 25
 2.125446e-001 2.958349e+000 5.974673e+000 3.540857e-001 3.519120e+000 -4.433353e+000 -7.932606e+000 -2.645549e+000 9.830421e-001 -3.850424e+000 -3.473648e-001 -9.721401e-001 6.442352e-002 -1.863204e-001 -8.093271e-001 -2.207566e-001 9.854218e-002 3.346512e-001 3.468513e-001 -2.350576e-001 1.230313e-002 4.513747e-001 6.900592e-001 1.593858e-001 -6.479222e-002
<VARIANCE> 25
 1.203331e+001 7.046727e+001 1.241742e+002 1.059554e+002 6.017375e+001 1.045023e+002 5.275733e+001 5.906377e+001 4.835784e+001 6.660838e+001 4.451602e+001 5.763672e+001 6.682764e-001 1.184473e+000 2.164823e+000 3.318931e+000 2.118683e+000 2.812312e+000 2.981462e+000 2.646595e+000 2.417036e+000 3.185867e+000 3.203458e+000 2.178910e+000 5.659916e-001
<GCONST> 1.038966e+002
~s "ST_ih_4_2"
<MEAN> 25
 -8.576347e-001 -4.336716e+000 1.378618e+001 9.515160e+000 3.786839e+000 -1.125124e+001 -8.886646e+000 4.143520e+000 3.960669e+000 -1.086297e+001 -1.675775e+000 -4.097580e+000 1.937763e-001 1.745102e-001 7.790332e-002 2.526535e-001 7.339930e-002 -8.160806e-002 -1.155303e-001 -4.883438e-002 1.017495e-001 -5.529801e-002 -3.295679e-002 6.052495e-003 3.510155e-002
<VARIANCE> 25
 1.169203e+001 6.047824e+001 6.560632e+001 5.574817e+001 6.756409e+001 3.760462e+001 6.779965e+001 6.719090e+001 3.284837e+001 4.179104e+001 2.610212e+001 2.480556e+001 9.383833e-001 3.858594e+000 4.715751e+000 3.130841e+000 1.860772e+000 4.623314e+000 5.774487e+000 3.192837e+000 2.489798e+000 3.429332e+000 2.235445e+000 2.048976e+000 1.302297e+000
<GCONST> 1.036505e+002
~s "ST_ih_4_3"
<MEAN> 25
 -8.798736e-001 -1.310143e+000 9.954147e+000 8.875062e+000 5.240028e+000 -7.160844e+000 -7.055498e+000 7.237376e+000 5.560932e+000 -6.879057e+000 -2.024244e+000 -5.582184e-001 -2.898621e-002 1.361910e-001 -1.001026e+000 -1.751473e-001 -3.528588e-001 4.970552e-001 5.148869e-001 -1.736413e-001 -2.319004e-001 6.683492e-001 3.902497e-002 2.669033e-001 -5.617319e-001
<VARIANCE> 25
 5.355955e+000 1.993566e+001 5.535575e+001 1.816629e+001 1.752543e+001 4.162464e+001 3.691314e+001 3.726309e+001 1.909858e+001 5.505588e+001 1.938540e+001 1.683647e+001 1.767075e-001 5.802226e-001 9.123495e-001 8.516965e-001 7.744656e-001 1.171850e+000 1.952656e+000 2.569361e+000 1.394818e+000 2.085421e+000 1.050452e+000 9.920744e-001 1.479994e-001
<GCONST> 8.228038e+001
~h "t+aa"
<BEGINHMM>
<NUMSTATES> 5
<STATE> 2
~s "ST_t_2_1"
<STATE> 3
~s "ST_t_3_1"
<STATE> 4
~s "ST_t_4_1"
~t "T_t"
<ENDHMM>
~h "b"
<BEGINHMM>
<NUMSTATES> 5
<STATE> 2
~s "ST_b_2_1"
<STATE> 3
~s "ST_b_3_1"
<STATE> 4
~s "ST_b_4_1"
~t "T_b"
<ENDHMM>
~h "c"
<BEGINHMM>
<NUMSTATES> 5
<STATE> 2
~s "ST_c_2_1"
<STATE> 3
~s "ST_c_3_1"
<STATE> 4
~s "ST_c_4_1"
~t "T_c"
<ENDHMM>
~h "d"
<BEGINHMM>
<NUMSTATES> 5
<STATE> 2
~s "ST_d_2_1"
<STATE> 3
~s "ST_d_3_1"
<STATE> 4
~s "ST_d_4_1"
~t "T_d"
<ENDHMM>
~h "g"
<BEGINHMM>
<NUMSTATES> 5
<STATE> 2
~s "ST_g_2_1"
<STATE> 3
~s "ST_g_3_1"
<STATE> 4
~s "ST_g_4_1"
~t "T_g"
<ENDHMM>
~h "h"
<BEGINHMM>
<NUMSTATES> 5
<STATE> 2
~s "ST_h_2_1"
<STATE> 3
~s "ST_h_3_1"
<STATE> 4
~s "ST_h_4_1"
~t "T_h"
<ENDHMM>
~h "j"
<BEGINHMM>
<NUMSTATES> 5
<STATE> 2
~s "ST_j_2_1"
<STATE> 3
~s "ST_j_3_1"
<STATE> 4
~s "ST_j_4_1"
~t "T_j"
<ENDHMM>
~h "k"
<BEGINHMM>
<NUMSTATES> 5
<STATE> 2
~s "ST_k_2_1"
<STATE> 3
~s "ST_k_3_1"
<STATE> 4
~s "ST_k_4_1"
~t "T_k"
<ENDHMM>
~h "l"
<BEGINHMM>
<NUMSTATES> 5
<STATE> 2
~s "ST_l_2_1"
<STATE> 3
~s "ST_l_3_1"
<STATE> 4
~s "ST_l_4_1"
~t "T_l"
<ENDHMM>
~h "m"
<BEGINHMM>
<NUMSTATES> 5
<STATE> 2
~s "ST_m_2_1"
<STATE> 3
~s "ST_m_3_1"
<STATE> 4
~s "ST_m_4_1"
~t "T_m"
<ENDHMM>
~h "n"
<BEGINHMM>
<NUMSTATES> 5
<STATE> 2
~s "ST_n_2_1"
<STATE> 3
~s "ST_n_3_1"
<STATE> 4
~s "ST_n_4_1"
~t "T_n"
<ENDHMM>
~h "p"
<BEGINHMM>
<NUMSTATES> 5
<STATE> 2
~s "ST_p_2_1"
<STATE> 3
~s "ST_p_3_1"
<STATE> 4
~s "ST_p_4_1"
~t "T_p"
<ENDHMM>
~h "r"
<BEGINHMM>
<NUMSTATES> 5
<STATE> 2
~s "ST_r_2_1"
<STATE> 3
~s "ST_r_3_1"
<STATE> 4
~s "ST_r_4_1"
~t "T_r"
<ENDHMM>
~h "s"
<BEGINHMM>
<NUMSTATES> 5
<STATE> 2
~s "ST_s_2_1"
<STATE> 3
~s "ST_s_3_1"
<STATE> 4
~s "ST_s_4_1"
~t "T_s"
<ENDHMM>
~h "w"
<BEGINHMM>
<NUMSTATES> 5
<STATE> 2
~s "ST_w_2_1"
<STATE> 3
~s "ST_w_3_1"
<STATE> 4
~s "ST_w_4_1"
~t "T_w"
<ENDHMM>
~h "y"
<BEGINHMM>
<NUMSTATES> 5
<STATE> 2
~s "ST_y_2_1"
<STATE> 3
~s "ST_y_3_1"
<STATE> 4
~s "ST_y_4_1"
~t "T_y"
<ENDHMM>
~h "t-ih"
<BEGINHMM>
<NUMSTATES> 5
<STATE> 2
~s "ST_ih_2_1"
<STATE> 3
~s "ST_ih_3_1"
<STATE> 4
~s "ST_ih_4_1"
~t "T_ih"
<ENDHMM>
~h "d-eh+l"
<BEGINHMM>
<NUMSTATES> 5
<STATE> 2
~s "ST_eh_2_1"
<STATE> 3
~s "ST_eh_3_1"
<STATE> 4
~s "ST_eh_4_1"
~t "T_eh"
<ENDHMM>
~h "t-uw"
<BEGINHMM>
<NUMSTATES> 5
<STATE> 2
~s "ST_uw_2_1"
<STATE> 3
~s "ST_uw_3_1"
<STATE> 4
~s "ST_uw_4_1"
~t "T_uw"
<ENDHMM>
~h "aa"
<BEGINHMM>
<NUMSTATES> 5
<STATE> 2
~s "ST_aa_2_1"
<STATE> 3
~s "ST_aa_3_1"
<STATE> 4
~s "ST_aa_4_1"
~t "T_aa"
<ENDHMM>
~h "ao"
<BEGINHMM>
<NUMSTATES> 5
<STATE> 2
~s "ST_ao_2_1"
<STATE> 3
~s "ST_ao_3_1"
<STATE> 4
~s "ST_ao_4_1"
~t "T_ao"
<ENDHMM>
~h "hh"
<BEGINHMM>
<NUMSTATES> 5
<STATE> 2
~s "ST_hh_2_1"
<STATE> 3
~s "ST_hh_3_1"
<STATE> 4
~s "ST_hh_4_1"
~t "T_hh"
<ENDHMM>
~h "ng"
<BEGINHMM>
<NUMSTATES> 5
<STATE> 2
~s "ST_ng_2_1"
<STATE> 3
~s "ST_ng_3_1"
<STATE> 4
~s "ST_ng_4_1"
~t "T_ng"
<ENDHMM>
~h "oh"
<BEGINHMM>
<NUMSTATES> 5
<STATE> 2
~s "ST_oh_2_1"
<STATE> 3
~s "ST_oh_3_1"
<STATE> 4
~s "ST_oh_4_1"
~t "T_oh"
<ENDHMM>
~h "sp"
<BEGINHMM>
<NUMSTATES> 3
<STATE> 2
~s "ST_sil_3_1"
<TRANSP> 3
 0.000000e+000 1.679797e-001 8.320203e-001
 0.000000e+000 8.502917e-001 1.497083e-001
 0.000000e+000 0.000000e+000 0.000000e+000
<ENDHMM>
~h "aa-ng"
<BEGINHMM>
<NUMSTATES> 5
<STATE> 2
~s "ST_ng_2_1"
<STATE> 3
~s "ST_ng_3_1"
<STATE> 4
~s "ST_ng_4_2"
~t "T_ng"
<ENDHMM>
~h "ih-s+aa"
<BEGINHMM>
<NUMSTATES> 5
<STATE> 2
~s "ST_s_2_2"
<STATE> 3
~s "ST_s_3_1"
<STATE> 4
~s "ST_s_4_1"
~t "T_s"
<ENDHMM>
~h "d+aa"
<BEGINHMM>
<NUMSTATES> 5
<STATE> 2
~s "ST_d_2_1"
<STATE> 3
~s "ST_d_3_1"
<STATE> 4
~s "ST_d_4_2"
~t "T_d"
<ENDHMM>
~h "aa-l+aa"
<BEGINHMM>
<NUMSTATES> 5
<STATE> 2
~s "ST_l_2_1"
<STATE> 3
~s "ST_l_3_1"
<STATE> 4
~s "ST_l_4_2"
~t "T_l"
<ENDHMM>
~h "k-aa+l"
<BEGINHMM>
<NUMSTATES> 5
<STATE> 2
~s "ST_aa_2_1"
<STATE> 3
~s "ST_aa_3_1"
<STATE> 4
~s "ST_aa_4_3"
~t "T_aa"
<ENDHMM>
~h "k-aa+n"
<BEGINHMM>
<NUMSTATES> 5
<STATE> 2
~s "ST_aa_2_1"
<STATE> 3
~s "ST_aa_3_1"
<STATE> 4
~s "ST_aa_4_2"
~t "T_aa"
<ENDHMM>
~h "m+aa"
<BEGINHMM>
<NUMSTATES> 5
<STATE> 2
~s "ST_m_2_2"
<STATE> 3
~s "ST_m_3_1"
<STATE> 4
~s "ST_m_4_1"
~t "T_m"
<ENDHMM>
~h "m+ih"
<BEGINHMM>
<NUMSTATES> 5
<STATE> 2
~s "ST_m_2_2"
<STATE> 3
~s "ST_m_3_2"
<STATE> 4
~s "ST_m_4_3"
~t "T_m"
<ENDHMM>
~h "s-ih+y"
<BEGINHMM>
<NUMSTATES> 5
<STATE> 2
~s "ST_ih_2_1"
<STATE> 3
~s "ST_ih_3_2"
<STATE> 4
~s "ST_ih_4_1"
~t "T_ih"
<ENDHMM>
~h "y-aa+ng"
<BEGINHMM>
<NUMSTATES> 5
<STATE> 2
~s "ST_aa_2_2"
<STATE> 3
~s "ST_aa_3_1"
<STATE> 4
~s "ST_aa_4_2"
~t "T_aa"
<ENDHMM>
~h "n-ih"
<BEGINHMM>
<NUMSTATES> 5
<STATE> 2
~s "ST_ih_2_1"
<STATE> 3
~s "ST_ih_3_1"
<STATE> 4
~s "ST_ih_4_3"
~t "T_ih"
<ENDHMM>
~h "ih-m+aa"
<BEGINHMM>
<NUMSTATES> 5
<STATE> 2
~s "ST_m_2_2"
<STATE> 3
~s "ST_m_3_1"
<STATE> 4
~s "ST_m_4_2"
~t "T_m"
<ENDHMM>
~h "eh-p+uw"
<BEGINHMM>
<NUMSTATES> 5
<STATE> 2
~s "ST_p_2_1"
<STATE> 3
~s "ST_p_3_1"
<STATE> 4
~s "ST_p_4_2"
~t "T_p"
<ENDHMM>
~h "sil"
<BEGINHMM>
<NUMSTATES> 5
<STATE> 2
~s "ST_sil_2_1"
<STATE> 3
~s "ST_sil_3_1"
<STATE> 4
~s "ST_sil_4_1"
<TRANSP> 5
 0.000000e+000 1.000000e+000 0.000000e+000 0.000000e+000 0.000000e+000
 0.000000e+000 8.630181e-001 7.832571e-002 5.865617e-002 0.000000e+000
 0.000000e+000 0.000000e+000 9.188538e-001 8.114613e-002 0.000000e+000
 0.000000e+000 9.183800e-003 0.000000e+000 9.600603e-001 3.075594e-002
 0.000000e+000 0.000000e+000 0.000000e+000 0.000000e+000 0.000000e+000
<ENDHMM>
~h "y-aa"
<BEGINHMM>
<NUMSTATES> 5
<STATE> 2
~s "ST_aa_2_2"
<STATE> 3
~s "ST_aa_3_1"
<STATE> 4
~s "ST_aa_4_1"
~t "T_aa"
<ENDHMM>
~h "ng-ih+n"
<BEGINHMM>
<NUMSTATES> 5
<STATE> 2
~s "ST_ih_2_1"
<STATE> 3
~s "ST_ih_3_1"
<STATE> 4
~s "ST_ih_4_2"
~t "T_ih"
<ENDHMM>
~h "eh-m+b"
<BEGINHMM>
<NUMSTATES> 5
<STATE> 2
~s "ST_m_2_1"
<STATE> 3
~s "ST_m_3_1"
<STATE> 4
~s "ST_m_4_2"
~t "T_m"
<ENDHMM>
