~o
<STREAMINFO> 1 25
<VECSIZE> 25<NULLD><MFCC_D_N_Z_0><DIAGC>
~t "T_b"
<TRANSP> 5
 0.000000e+000 1.000000e+000 0.000000e+000 0.000000e+000 0.000000e+000
 0.000000e+000 7.096182e-001 2.903818e-001 0.000000e+000 0.000000e+000
 0.000000e+000 0.000000e+000 7.820557e-001 2.179442e-001 0.000000e+000
 0.000000e+000 0.000000e+000 0.000000e+000 9.185897e-001 8.141030e-002
 0.000000e+000 0.000000e+000 0.000000e+000 0.000000e+000 0.000000e+000
~t "T_c"
<TRANSP> 5
 0.000000e+000 1.000000e+000 0.000000e+000 0.000000e+000 0.000000e+000
 0.000000e+000 6.000000e-001 4.000000e-001 0.000000e+000 0.000000e+000
 0.000000e+000 0.000000e+000 6.000000e-001 4.000000e-001 0.000000e+000
 0.000000e+000 0.000000e+000 0.000000e+000 7.000000e-001 3.000000e-001
 0.000000e+000 0.000000e+000 0.000000e+000 0.000000e+000 0.000000e+000
~t "T_d"
<TRANSP> 5
 0.000000e+000 1.000000e+000 0.000000e+000 0.000000e+000 0.000000e+000
 0.000000e+000 7.443532e-001 2.556468e-001 0.000000e+000 0.000000e+000
 0.000000e+000 0.000000e+000 6.786513e-001 3.213487e-001 0.000000e+000
 0.000000e+000 0.000000e+000 0.000000e+000 8.863240e-001 1.136760e-001
 0.000000e+000 0.000000e+000 0.000000e+000 0.000000e+000 0.000000e+000
~t "T_g"
<TRANSP> 5
 0.000000e+000 1.000000e+000 0.000000e+000 0.000000e+000 0.000000e+000
 0.000000e+000 7.735319e-001 2.264681e-001 0.000000e+000 0.000000e+000
 0.000000e+000 0.000000e+000 5.667816e-001 4.332184e-001 0.000000e+000
 0.000000e+000 0.000000e+000 0.000000e+000 5.228565e-001 4.771435e-001
 0.000000e+000 0.000000e+000 0.000000e+000 0.000000e+000 0.000000e+000
~t "T_h"
<TRANSP> 5
 0.000000e+000 1.000000e+000 0.000000e+000 0.000000e+000 0.000000e+000
 0.000000e+000 9.559106e-001 4.408937e-002 0.000000e+000 0.000000e+000
 0.000000e+000 0.000000e+000 7.932963e-001 2.067038e-001 0.000000e+000
 0.000000e+000 0.000000e+000 0.000000e+000 9.501717e-001 4.982828e-002
 0.000000e+000 0.000000e+000 0.000000e+000 0.000000e+000 0.000000e+000
~t "T_j"
<TRANSP> 5
 0.000000e+000 1.000000e+000 0.000000e+000 0.000000e+000 0.000000e+000
 0.000000e+000 8.609875e-001 1.390125e-001 0.000000e+000 0.000000e+000
 0.000000e+000 0.000000e+000 8.451237e-001 1.548762e-001 0.000000e+000
 0.000000e+000 0.000000e+000 0.000000e+000 9.143522e-001 8.564779e-002
 0.000000e+000 0.000000e+000 0.000000e+000 0.000000e+000 0.000000e+000
~t "T_k"
<TRANSP> 5
 0.000000e+000 1.000000e+000 0.000000e+000 0.000000e+000 0.000000e+000
 0.000000e+000 7.811559e-001 2.188440e-001 0.000000e+000 0.000000e+000
 0.000000e+000 0.000000e+000 7.196835e-001 2.803165e-001 0.000000e+000
 0.000000e+000 0.000000e+000 0.000000e+000 9.386451e-001 6.135488e-002
 0.000000e+000 0.000000e+000 0.000000e+000 0.000000e+000 0.000000e+000
~t "T_l"
<TRANSP> 5
 0.000000e+000 1.000000e+000 0.000000e+000 0.000000e+000 0.000000e+000
 0.000000e+000 7.864398e-001 2.135602e-001 0.000000e+000 0.000000e+000
 0.000000e+000 0.000000e+000 7.484625e-001 2.515376e-001 0.000000e+000
 0.000000e+000 0.000000e+000 0.000000e+000 9.101954e-001 8.980456e-002
 0.000000e+000 0.000000e+000 0.000000e+000 0.000000e+000 0.000000e+000
~t "T_m"
<TRANSP> 5
 0.000000e+000 1.000000e+000 0.000000e+000 0.000000e+000 0.000000e+000
 0.000000e+000 7.599800e-001 2.400201e-001 0.000000e+000 0.000000e+000
 0.000000e+000 0.000000e+000 7.881077e-001 2.118923e-001 0.000000e+000
 0.000000e+000 0.000000e+000 0.000000e+000 9.457635e-001 5.423639e-002
 0.000000e+000 0.000000e+000 0.000000e+000 0.000000e+000 0.000000e+000
~t "T_n"
<TRANSP> 5
 0.000000e+000 1.000000e+000 0.000000e+000 0.000000e+000 0.000000e+000
 0.000000e+000 7.352599e-001 2.647401e-001 0.000000e+000 0.000000e+000
 0.000000e+000 0.000000e+000 8.310758e-001 1.689242e-001 0.000000e+000
 0.000000e+000 0.000000e+000 0.000000e+000 9.323298e-001 6.767020e-002
 0.000000e+000 0.000000e+000 0.000000e+000 0.000000e+000 0.000000e+000
~t "T_o"
<TRANSP> 5
 0.000000e+000 1.000000e+000 0.000000e+000 0.000000e+000 0.000000e+000
 0.000000e+000 6.000000e-001 4.000000e-001 0.000000e+000 0.000000e+000
 0.000000e+000 0.000000e+000 6.000000e-001 4.000000e-001 0.000000e+000
 0.000000e+000 0.000000e+000 0.000000e+000 7.000000e-001 3.000000e-001
 0.000000e+000 0.000000e+000 0.000000e+000 0.000000e+000 0.000000e+000
~t "T_p"
<TRANSP> 5
 0.000000e+000 1.000000e+000 0.000000e+000 0.000000e+000 0.000000e+000
 0.000000e+000 7.654555e-001 2.345445e-001 0.000000e+000 0.000000e+000
 0.000000e+000 0.000000e+000 8.609093e-001 1.390907e-001 0.000000e+000
 0.000000e+000 0.000000e+000 0.000000e+000 9.528890e-001 4.711105e-002
 0.000000e+000 0.000000e+000 0.000000e+000 0.000000e+000 0.000000e+000
~t "T_r"
<TRANSP> 5
 0.000000e+000 1.000000e+000 0.000000e+000 0.000000e+000 0.000000e+000
 0.000000e+000 7.957909e-001 2.042091e-001 0.000000e+000 0.000000e+000
 0.000000e+000 0.000000e+000 8.259459e-001 1.740541e-001 0.000000e+000
 0.000000e+000 0.000000e+000 0.000000e+000 7.886952e-001 2.113048e-001
 0.000000e+000 0.000000e+000 0.000000e+000 0.000000e+000 0.000000e+000
~t "T_s"
<TRANSP> 5
 0.000000e+000 1.000000e+000 0.000000e+000 0.000000e+000 0.000000e+000
 0.000000e+000 8.808197e-001 1.191802e-001 0.000000e+000 0.000000e+000
 0.000000e+000 0.000000e+000 6.699749e-001 3.300250e-001 0.000000e+000
 0.000000e+000 0.000000e+000 0.000000e+000 8.658319e-001 1.341680e-001
 0.000000e+000 0.000000e+000 0.000000e+000 0.000000e+000 0.000000e+000
~t "T_t"
<TRANSP> 5
 0.000000e+000 1.000000e+000 0.000000e+000 0.000000e+000 0.000000e+000
 0.000000e+000 6.463561e-001 3.536439e-001 0.000000e+000 0.000000e+000
 0.000000e+000 0.000000e+000 5.176431e-001 4.823569e-001 0.000000e+000
 0.000000e+000 0.000000e+000 0.000000e+000 7.829028e-001 2.170972e-001
 0.000000e+000 0.000000e+000 0.000000e+000 0.000000e+000 0.000000e+000
~t "T_w"
<TRANSP> 5
 0.000000e+000 1.000000e+000 0.000000e+000 0.000000e+000 0.000000e+000
 0.000000e+000 8.848293e-001 1.151707e-001 0.000000e+000 0.000000e+000
 0.000000e+000 0.000000e+000 8.265505e-001 1.734495e-001 0.000000e+000
 0.000000e+000 0.000000e+000 0.000000e+000 9.253544e-001 7.464562e-002
 0.000000e+000 0.000000e+000 0.000000e+000 0.000000e+000 0.000000e+000
~t "T_y"
<TRANSP> 5
 0.000000e+000 1.000000e+000 0.000000e+000 0.000000e+000 0.000000e+000
 0.000000e+000 5.941976e-001 4.058024e-001 0.000000e+000 0.000000e+000
 0.000000e+000 0.000000e+000 8.018782e-001 1.981217e-001 0.000000e+000
 0.000000e+000 0.000000e+000 0.000000e+000 8.210413e-001 1.789586e-001
 0.000000e+000 0.000000e+000 0.000000e+000 0.000000e+000 0.000000e+000
~t "T_aa"
<TRANSP> 5
 0.000000e+000 1.000000e+000 0.000000e+000 0.000000e+000 0.000000e+000
 0.000000e+000 7.727546e-001 2.272454e-001 0.000000e+000 0.000000e+000
 0.000000e+000 0.000000e+000 8.349130e-001 1.650869e-001 0.000000e+000
 0.000000e+000 0.000000e+000 0.000000e+000 8.191635e-001 1.808365e-001
 0.000000e+000 0.000000e+000 0.000000e+000 0.000000e+000 0.000000e+000
~t "T_ao"
<TRANSP> 5
 0.000000e+000 1.000000e+000 0.000000e+000 0.000000e+000 0.000000e+000
 0.000000e+000 4.931549e-001 5.068451e-001 0.000000e+000 0.000000e+000
 0.000000e+000 0.000000e+000 8.120019e-001 1.879981e-001 0.000000e+000
 0.000000e+000 0.000000e+000 0.000000e+000 7.802290e-001 2.197710e-001
 0.000000e+000 0.000000e+000 0.000000e+000 0.000000e+000 0.000000e+000
~t "T_eh"
<TRANSP> 5
 0.000000e+000 1.000000e+000 0.000000e+000 0.000000e+000 0.000000e+000
 0.000000e+000 6.692424e-001 3.307575e-001 0.000000e+000 0.000000e+000
 0.000000e+000 0.000000e+000 6.213440e-001 3.786559e-001 0.000000e+000
 0.000000e+000 0.000000e+000 0.000000e+000 7.561476e-001 2.438525e-001
 0.000000e+000 0.000000e+000 0.000000e+000 0.000000e+000 0.000000e+000
~t "T_hh"
<TRANSP> 5
 0.000000e+000 1.000000e+000 0.000000e+000 0.000000e+000 0.000000e+000
 0.000000e+000 8.599160e-001 1.400840e-001 0.000000e+000 0.000000e+000
 0.000000e+000 0.000000e+000 8.828090e-001 1.171910e-001 0.000000e+000
 0.000000e+000 0.000000e+000 0.000000e+000 9.616638e-001 3.833621e-002
 0.000000e+000 0.000000e+000 0.000000e+000 0.000000e+000 0.000000e+000
~t "T_ih"
<TRANSP> 5
 0.000000e+000 1.000000e+000 0.000000e+000 0.000000e+000 0.000000e+000
 0.000000e+000 8.063387e-001 1.936613e-001 0.000000e+000 0.000000e+000
 0.000000e+000 0.000000e+000 8.784885e-001 1.215115e-001 0.000000e+000
 0.000000e+000 0.000000e+000 0.000000e+000 7.813450e-001 2.186550e-001
 0.000000e+000 0.000000e+000 0.000000e+000 0.000000e+000 0.000000e+000
~t "T_ng"
<TRANSP> 5
 0.000000e+000 1.000000e+000 0.000000e+000 0.000000e+000 0.000000e+000
 0.000000e+000 8.165031e-001 1.834969e-001 0.000000e+000 0.000000e+000
 0.000000e+000 0.000000e+000 8.199330e-001 1.800670e-001 0.000000e+000
 0.000000e+000 0.000000e+000 0.000000e+000 9.334882e-001 6.651178e-002
 0.000000e+000 0.000000e+000 0.000000e+000 0.000000e+000 0.000000e+000
~t "T_oh"
<TRANSP> 5
 0.000000e+000 1.000000e+000 0.000000e+000 0.000000e+000 0.000000e+000
 0.000000e+000 9.590814e-001 4.091867e-002 0.000000e+000 0.000000e+000
 0.000000e+000 0.000000e+000 7.707270e-001 2.292730e-001 0.000000e+000
 0.000000e+000 0.000000e+000 0.000000e+000 8.006923e-001 1.993077e-001
 0.000000e+000 0.000000e+000 0.000000e+000 0.000000e+000 0.000000e+000
~t "T_uw"
<TRANSP> 5
 0.000000e+000 1.000000e+000 0.000000e+000 0.000000e+000 0.000000e+000
 0.000000e+000 6.727366e-001 3.272634e-001 0.000000e+000 0.000000e+000
 0.000000e+000 0.000000e+000 8.048068e-001 1.951933e-001 0.000000e+000
 0.000000e+000 0.000000e+000 0.000000e+000 8.531767e-001 1.468234e-001
 0.000000e+000 0.000000e+000 0.000000e+000 0.000000e+000 0.000000e+000
~s "ST_aa_2_1"
<MEAN> 25
 1.931843e+000 -4.565283e+000 -3.604076e-002 -8.432319e-001 2.431848e-001 -2.362880e+000 -3.199983e-001 -1.217564e+000 -4.840575e-001 -5.163766e-002 -9.376513e-001 -7.298520e-001 8.679661e-001 -1.959587e+000 -1.022845e+000 -9.097849e-001 2.892497e-001 -1.534586e-002 6.121292e-001 -3.746435e-001 -4.419665e-001 -3.678267e-001 -2.993793e-001 -1.778542e-001 1.702128e+000
<VARIANCE> 25
 3.468825e+001 1.423576e+002 6.588387e+001 9.200074e+001 8.004118e+001 5.771845e+001 9.952708e+001 5.936882e+001 6.232176e+001 6.088541e+001 4.927688e+001 4.063598e+001 2.573595e+000 7.060777e+000 4.480570e+000 6.772615e+000 6.899545e+000 5.657339e+000 7.736377e+000 6.752092e+000 5.502374e+000 6.006779e+000 4.821154e+000 3.837236e+000 3.364322e+000
<GCONST> 1.176888e+002
~s "ST_aa_2_2"
<MEAN> 25
 4.199274e+000 -2.616839e+000 -4.602098e+000 -2.179086e+000 -3.127313e+000 -4.586812e+000 2.397020e+000 3.024213e+000 -3.795007e+000 -3.897396e+000 -1.808187e+000 2.765156e+000 2.762176e+000 -2.398245e+000 -8.466701e-001 -1.613254e+000 1.049417e+000 -2.989371e-001 -3.739973e-001 -1.504534e-001 -1.666741e+000 -2.745192e+000 -2.434557e+000 1.078453e+000 2.185843e+000
<VARIANCE> 25
 5.417235e+001 4.379401e+001 2.721593e+001 4.407885e+001 2.479760e+001 2.283236e+001 5.160114e+001 2.737962e+001 4.841656e+001 5.201366e+001 6.089620e+001 2.763387e+001 3.679024e+000 3.890547e+000 2.745530e+000 3.437541e+000 3.648863e+000 4.253966e+000 4.858417e+000 4.700398e+000 3.193143e+000 4.847018e+000 4.674524e+000 2.615082e+000 4.062738e+000
<GCONST> 1.070814e+002
~s "ST_aa_2_3"
<MEAN> 25
 3.312933e+000 -7.089560e+000 2.306855e+000 -1.131911e+001 -5.970623e+000 -5.114959e+000 5.390474e+000 -1.662188e+000 -5.995993e-001 8.048155e-001 -1.340668e-001 -1.330122e+000 6.767814e-001 -1.855363e+000 -2.579665e+000 5.305285e-001 1.562951e+000 8.415488e-001 1.640685e+000 7.933447e-001 -1.130762e-001 -1.745226e+000 -5.098662e-001 2.571528e-001 4.508626e-001
<VARIANCE> 25
 2.729208e+001 5.635294e+001 3.876245e+001 5.255602e+001 1.066114e+002 2.674595e+001 8.547933e+001 2.624028e+001 6.919435e+001 5.230946e+001 5.889556e+001 2.338712e+001 3.542890e-001 1.811567e+000 1.118697e+000 3.869266e+000 6.931326e+000 1.858431e+000 5.625439e+000 3.656406e+000 2.740227e+000 3.854265e+000 2.460494e+000 2.675425e+000 3.693276e-001
<GCONST> 1.018446e+002
~s "ST_aa_3_1"
<MEAN> 25
 4.683929e+000 -1.340569e+001 -6.487415e+000 -3.188598e+000 2.475805e+000 5.160681e-001 6.897982e+000 -3.740759e+000 -1.438625e+000 -6.775119e-001 -1.186234e+000 -7.724457e-001 2.448252e-001 3.619807e-001 -1.237455e-001 4.620882e-001 1.733973e-001 2.845941e-001 -3.841957e-001 -6.190247e-002 -3.137600e-001 -2.160699e-001 -1.499350e-001 9.539906e-002 -5.023354e-001
<VARIANCE> 25
 2.105439e+001 6.076080e+001 3.240783e+001 8.884660e+001 6.637803e+001 4.067721e+001 5.688404e+001 4.495297e+001 5.113538e+001 5.524557e+001 4.562994e+001 4.162450e+001 8.339167e-001 1.876571e+000 1.567793e+000 2.529476e+000 2.791874e+000 2.291702e+000 3.546288e+000 2.970798e+000 2.356301e+000 2.526895e+000 2.516319e+000 2.241792e+000 1.228944e+000
<GCONST> 1.020660e+002
~s "ST_aa_3_2"
<MEAN> 25
 6.087710e+000 -1.615326e+001 -5.513120e+000 1.481158e+000 -3.723324e-001 -3.507430e-001 6.966456e+000 -3.739230e-001 -2.992849e+000 7.460338e-001 -1.213534e+000 -2.967048e+000 3.511505e-002 5.174909e-002 -2.341872e-001 1.137835e-001 9.047454e-002 2.437391e-001 -1.200758e-001 -1.126921e-001 1.038040e-001 -1.923230e-001 -1.975904e-001 1.234075e-001 -1.624553e-001
<VARIANCE> 25
 1.712429e+001 7.461401e+001 3.613887e+001 8.299109e+001 9.653767e+001 3.643090e+001 9.125540e+001 6.359318e+001 5.121913e+001 6.052596e+001 6.170837e+001 3.403414e+001 5.874881e-001 2.194495e+000 1.527797e+000 3.015459e+000 2.099541e+000 1.954434e+000 2.773393e+000 3.349182e+000 2.522891e+000 2.790148e+000 3.242603e+000 1.681023e+000 1.185495e+000
<GCONST> 1.028660e+002
~s "ST_aa_4_1"
<MEAN> 25
 1.004212e+001 -9.008641e+000 -6.741008e+000 -3.211848e+000 -6.637301e-001 -4.617897e+000 -4.401269e+000 -8.784207e-001 -6.836925e+000 -1.083550e+001 -6.834389e+000 3.223474e+000 -1.047445e-001 2.870290e-001 3.008386e-001 1.189084e-001 -5.346141e-001 -1.061922e-001 -3.842021e-001 -1.113397e-001 -3.165350e-002 -3.496287e-001 3.879165e-001 -1.508808e-001 -3.496370e-001
<VARIANCE> 25
 7.927448e+000 4.084183e+001 1.651946e+001 3.087021e+001 2.497820e+001 2.504375e+001 2.207526e+001 3.118972e+001 1.995432e+001 2.628843e+001 3.466624e+001 3.234972e+001 1.907774e-001 8.983639e-001 5.690182e-001 5.385308e-001 1.373176e+000 1.211924e+000 1.412425e+000 1.909708e+000 1.390608e+000 1.685619e+000 1.353136e+000 1.561026e+000 1.995030e-001
<GCONST> 8.276215e+001
~s "ST_aa_4_2"
<MEAN> 25
 7.130670e+000 -1.072503e+001 -4.357286e+000 -5.660104e+000 9.996840e-001 -2.621410e+000 2.998261e+000 -2.731206e+000 -4.988677e+000 -6.070851e+000 -3.440807e+000 1.707384e+000 -1.569673e-001 5.470695e-001 8.163553e-001 -3.415850e-001 -1.329085e+000 -4.754567e-001 4.483448e-001 7.582175e-002 -1.024131e-001 5.545450e-001 3.138434e-001 -5.116392e-001 -1.606389e-001
<VARIANCE> 25
 2.578585e+001 4.606122e+001 2.689325e+001 3.161593e+001 5.321844e+001 1.758998e+001 1.011924e+002 5.552364e+001 6.322907e+001 4.159277e+001 5.061316e+001 2.290884e+001 1.443519e-001 8.359243e-001 1.330260e+000 1.205639e+000 2.930693e+000 1.452508e+000 1.784670e+000 1.832748e+000 1.528806e+000 2.593395e+000 1.302997e+000 1.139340e+000 8.985342e-002
<GCONST> 9.053249e+001
~s "ST_aa_4_3"
<MEAN> 25
 7.742745e+000 -7.502899e+000 -5.875885e+000 -2.936238e+000 7.448477e-001 -1.130043e+000 -2.423263e+000 -1.562469e+000 -4.600864e+000 -7.832492e+000 -4.193751e+000 2.199819e+000 -1.649793e-001 6.568387e-001 9.122803e-002 3.340686e-001 -1.052069e-001 1.002426e-002 -2.424455e-001 1.008905e-001 1.981020e-002 -1.113723e-001 1.444293e-001 -1.118015e-001 -6.071168e-001
<VARIANCE> 25
 2.161983e+001 4.568018e+001 2.653889e+001 5.248310e+001 4.027208e+001 4.053202e+001 5.365784e+001 2.990424e+001 3.511159e+001 3.669124e+001 4.756427e+001 2.783748e+001 4.465430e-001 1.403462e+000 1.134291e+000 1.373462e+000 2.109185e+000 1.752633e+000 2.154570e+000 2.033237e+000 1.524400e+000 2.110772e+000 2.104773e+000 1.638883e+000 4.311451e-001
<GCONST> 9.353549e+001
~s "ST_aa_4_4"
<MEAN> 25
 1.230361e+001 -6.271671e+000 -9.832763e+000 -5.692859e+000 1.537997e+000 -5.887783e-001 -8.803711e+000 -4.688348e-001 -4.087412e+000 -9.035442e+000 -6.886505e+000 -1.416751e+000 -3.673036e-002 3.451633e-001 5.601070e-002 -1.148744e-001 -2.390188e-001 -1.646996e-001 2.399025e-002 -1.538123e-001 -1.444103e-002 -7.658245e-002 -2.904553e-002 -1.910203e-002 -1.988250e-001
<VARIANCE> 25
 1.034677e+001 2.785015e+001 2.154686e+001 2.202982e+001 2.942330e+001 2.057963e+001 5.396142e+001 3.046946e+001 2.338410e+001 1.943062e+001 2.168996e+001 1.687366e+001 1.585732e-001 1.332915e+000 5.672155e-001 8.745163e-001 1.299395e+000 1.391439e+000 1.278412e+000 1.171844e+000 1.591602e+000 1.301716e+000 1.200742e+000 1.277271e+000 1.874376e-001
<GCONST> 8.182861e+001
~s "ST_s_2_1"
<MEAN> 25
 -8.904210e+000 6.556174e+000 -1.779414e+000 8.462822e-001 4.703879e+000 -1.361800e+000 4.150318e+000 3.650771e+000 -1.466877e-001 3.104624e+000 2.189617e+000 7.011086e-001 -3.905755e-001 1.956997e-001 -1.653407e-001 -7.401571e-002 9.631760e-002 -2.570477e-001 2.612502e-002 9.125312e-002 -6.166904e-002 2.540143e-001 7.685742e-002 -1.946057e-002 2.907583e-001
<VARIANCE> 25
 2.988501e+001 4.256818e+001 1.393447e+001 3.661833e+001 1.910033e+001 3.158223e+001 2.175685e+001 4.051871e+001 4.962714e+001 2.565250e+001 2.443101e+001 1.688044e+001 9.420390e-001 1.012027e+000 1.087023e+000 1.372507e+000 1.430648e+000 1.897566e+000 1.610828e+000 1.972583e+000 2.368502e+000 2.046613e+000 1.840930e+000 1.192087e+000 2.877806e-001
<GCONST> 8.931147e+001
~s "ST_s_2_2"
<MEAN> 25
 -6.868674e+000 2.402065e+000 -3.485839e+000 4.269238e+000 -1.075792e+000 1.184151e+000 4.401320e+000 1.008364e+000 -1.121792e+000 1.549600e+000 3.278934e+000 -3.760467e-001 -5.144523e-001 7.925903e-003 -2.128887e-001 1.061031e-001 -2.075526e-002 2.213129e-001 2.641595e-001 9.931971e-002 1.410351e-001 3.372825e-001 3.261875e-001 1.276256e-001 6.841392e-002
<VARIANCE> 25
 2.071995e+001 3.415846e+001 2.368146e+001 3.947823e+001 1.666062e+001 2.097546e+001 2.813819e+001 2.351572e+001 3.816185e+001 3.075238e+001 2.064072e+001 2.010592e+001 1.151710e+000 1.450351e+000 1.256651e+000 1.201967e+000 1.298954e+000 1.698861e+000 1.723177e+000 1.821439e+000 2.146160e+000 2.080432e+000 1.660912e+000 1.544410e+000 3.696432e-001
<GCONST> 8.910058e+001
~s "ST_s_3_1"
<MEAN> 25
 -1.069419e+001 -5.516203e+000 8.447751e+000 -7.506279e+000 -2.695681e+000 4.808424e+000 2.959835e+000 -4.840902e+000 3.230445e+000 2.751189e+000 4.835540e+000 1.161166e+000 2.378461e-002 -5.050662e-001 7.440909e-001 -7.302765e-001 -3.890145e-001 -4.986894e-001 -5.134096e-001 -5.412081e-001 7.109682e-002 -4.870575e-002 -2.165369e-001 1.259403e-002 5.646829e-001
<VARIANCE> 25
 5.298605e+001 7.199763e+001 1.100496e+002 1.396544e+002 2.548550e+001 5.349876e+001 5.018090e+001 5.482022e+001 3.883643e+001 2.687620e+001 1.965908e+001 2.040897e+001 6.557852e+000 2.131114e+000 5.589798e+000 4.076265e+000 2.452554e+000 3.114023e+000 3.032210e+000 3.513724e+000 3.229389e+000 2.148682e+000 2.403120e+000 1.638973e+000 2.084952e+000
<GCONST> 1.061214e+002
~s "ST_s_4_1"
<MEAN> 25
 -1.310039e+000 -1.066670e+000 -1.799346e+000 1.236628e+000 2.295193e-001 -9.170950e-001 2.327582e+000 -1.776937e+000 -2.478881e+000 1.610030e+000 7.231339e-001 -8.301129e-002 4.978558e-001 5.856133e-002 8.322223e-002 -2.805859e-001 -1.417544e-001 -2.304956e-001 -3.523889e-001 -2.407560e-003 -9.713225e-002 -1.371790e-001 -3.679256e-001 -7.761806e-002 4.044802e-002
<VARIANCE> 25
 5.128805e+001 2.422952e+002 1.153452e+002 1.472273e+002 8.211512e+001 9.394611e+001 8.924466e+001 7.205842e+001 6.056523e+001 5.618623e+001 4.685691e+001 6.182551e+001 3.253660e+000 4.464855e+000 3.746163e+000 5.406303e+000 5.041164e+000 4.976608e+000 5.405092e+000 5.435296e+000 4.563895e+000 4.577385e+000 4.418583e+000 3.978609e+000 1.424664e+000
<GCONST> 1.174849e+002
~s "ST_oh_2_1"
<MEAN> 25
 -5.143909e+000 -9.942811e-001 1.047213e+000 1.854815e+000 2.375516e+000 1.144531e+000 3.614664e+000 2.299122e+000 2.460029e+000 1.659668e+000 1.579183e+000 -5.388791e-001 -1.448190e-002 2.540223e-002 6.896633e-002 -1.826799e-002 4.758710e-002 1.673454e-002 7.187920e-002 8.021175e-002 1.150008e-001 1.355541e-001 2.777382e-002 -1.333955e-002 2.523461e-002
<VARIANCE> 25
 2.643318e+000 5.517330e+000 4.295088e+000 1.295802e+001 8.291964e+000 7.714725e+000 1.269179e+001 1.402209e+001 1.311160e+001 1.451415e+001 1.475220e+001 9.079463e+000 1.346840e-001 3.265369e-001 3.322554e-001 8.348095e-001 1.413805e+000 1.004341e+000 1.463239e+000 1.282562e+000 1.594745e+000 1.354155e+000 1.897701e+000 8.683684e-001 5.488962e-002
<GCONST> 6.707273e+001
~s "ST_oh_3_1"
<MEAN> 25
 4.604362e+000 -3.027284e+000 -7.721631e+000 -1.518859e+001 1.498423e+000 1.546818e+000 4.975089e+000 -8.367360e+000 1.527447e+000 5.890842e+000 2.400733e+000 3.498244e-001 3.224438e-001 4.935092e-001 2.494850e-001 1.140548e+000 -1.402256e-001 2.163147e-001 4.137645e-002 2.470086e-001 -5.869033e-001 -6.335411e-001 -7.102007e-001 1.423764e-001 -3.733803e-001
<VARIANCE> 25
 9.614296e+000 1.702831e+001 2.190968e+001 4.857714e+001 3.348360e+000 5.651635e+000 1.017694e+001 1.656862e+001 1.973377e+001 2.810451e+001 2.150262e+001 9.906845e+000 1.713353e-001 1.123898e-001 5.746986e-001 1.653432e+000 5.041010e-001 5.468442e-001 2.053271e+000 4.876668e-001 1.611881e+000 1.817425e+000 8.736392e-001 1.344714e+000 1.235007e-001
<GCONST> 7.161903e+001
~s "ST_oh_4_1"
<MEAN> 25
 -1.758119e+000 -2.197798e+000 -4.897619e-001 1.396492e+000 -1.314299e+000 2.959671e+000 2.177368e+000 -6.503317e-001 -4.455664e-002 -3.348573e-001 1.997568e+000 6.329035e-001 -6.605045e-001 2.163572e-001 6.793679e-002 7.003630e-001 -9.453729e-001 -4.203245e-001 -9.067515e-001 3.980640e-001 1.472859e-001 2.305459e-001 7.618376e-002 3.229271e-001 -2.881155e-001
<VARIANCE> 25
 3.720634e+001 2.054284e+001 1.425358e+001 1.497412e+001 8.237531e+000 1.087961e+001 1.254967e+001 2.911575e+001 3.215759e+001 3.655395e+001 1.238520e+001 7.551941e+000 7.567675e-001 9.879585e-001 7.740046e-001 1.977723e+000 1.833984e+000 2.753338e+000 2.156636e-001 2.655720e+000 1.135628e+000 5.950580e-001 2.889826e+000 9.935549e-001 1.060669e+000
<GCONST> 8.187222e+001
~s "ST_l_2_1"
<MEAN> 25
 3.663732e+000 -8.823235e-001 -5.281063e+000 -4.112817e+000 8.007309e-001 -1.606439e+000 -1.007543e+000 -5.808232e+000 4.686065e-002 1.575779e+000 2.330530e+000 4.533122e-001 -1.437960e-001 5.724726e-001 1.277012e-001 -7.768071e-002 -2.747788e-001 1.017993e-001 9.735627e-002 1.814620e-001 1.114469e-001 -1.449815e-001 2.136852e-001 3.311830e-001 -4.644147e-001
<VARIANCE> 25
 1.657540e+001 4.610508e+001 2.960815e+001 6.361908e+001 5.680130e+001 5.584082e+001 5.521944e+001 4.771264e+001 5.640607e+001 4.277444e+001 3.945134e+001 3.013615e+001 3.414495e-001 1.750348e+000 1.356676e+000 3.159663e+000 1.980103e+000 2.929354e+000 2.083152e+000 2.604133e+000 2.246771e+000 2.901734e+000 2.186392e+000 2.162402e+000 3.379065e-001
<GCONST> 9.766758e+001
~s "ST_l_3_1"
<MEAN> 25
 5.138562e+000 -5.032511e-001 -2.561477e+000 -3.627273e+000 -3.085311e+000 -5.694967e+000 -3.932504e-001 3.252355e+000 1.996202e+000 -5.869168e+000 -2.469924e+000 8.025867e-001 -3.994142e-001 2.165156e-001 2.619694e-001 1.999955e-001 9.744465e-002 3.099199e-001 1.661496e-001 3.168517e-001 6.457206e-002 1.910852e-001 1.412499e-002 -9.101895e-002 -4.800774e-001
<VARIANCE> 25
 2.717938e+001 4.283519e+001 2.527453e+001 5.011337e+001 4.605928e+001 5.115475e+001 9.005280e+001 6.581857e+001 4.759069e+001 3.808321e+001 3.179310e+001 1.753979e+001 1.195665e+000 1.182517e+000 1.480658e+000 2.851280e+000 3.150010e+000 2.572411e+000 2.919592e+000 3.415119e+000 2.502325e+000 2.272899e+000 1.821225e+000 1.438612e+000 9.771368e-001
<GCONST> 9.928589e+001
~s "ST_l_4_1"
<MEAN> 25
 3.624537e-001 1.605509e+000 1.688974e+000 6.279912e+000 2.495856e-001 2.119465e+000 -1.000891e+000 3.050440e+000 3.183575e-001 -2.081472e+000 2.046905e+000 -6.224225e-001 -8.633205e-002 -2.184006e-002 1.303311e-001 9.598143e-002 2.014590e-002 4.643446e-002 4.758757e-002 1.694913e-001 2.356359e-003 5.163575e-002 -6.858824e-003 3.585523e-003 -6.565913e-002
<VARIANCE> 25
 4.336169e+000 7.820872e+000 6.698967e+000 1.343082e+001 1.485046e+001 1.323509e+001 1.680051e+001 1.959487e+001 1.709465e+001 1.735916e+001 1.657651e+001 1.456911e+001 1.939187e-001 2.853939e-001 5.475652e-001 7.544647e-001 9.161101e-001 1.266918e+000 1.468297e+000 1.806361e+000 1.619704e+000 1.332186e+000 1.334920e+000 1.377132e+000 8.334714e-002
<GCONST> 7.246693e+001
~s "ST_l_4_2"
<MEAN> 25
 -3.328256e+000 4.603995e+000 2.449298e-001 -1.568344e+000 3.530292e-001 2.701246e+000 3.328132e+000 2.102402e+000 3.197822e+000 -2.482495e-001 2.182460e+000 2.141245e+000 -7.381145e-002 1.865691e-002 1.146141e-001 7.667263e-002 -3.697562e-003 2.508537e-002 4.136693e-002 5.962641e-002 6.184140e-002 6.425203e-002 2.473522e-002 -2.287058e-002 3.428051e-002
<VARIANCE> 25
 1.303926e+001 6.028317e+001 1.632862e+001 3.149427e+001 2.350753e+001 3.405511e+001 1.536391e+001 2.574120e+001 2.108805e+001 4.738113e+001 1.884507e+001 1.715590e+001 1.407061e-001 4.361956e-001 7.906572e-001 7.364547e-001 1.068158e+000 1.744415e+000 1.058343e+000 1.837818e+000 1.543945e+000 1.585388e+000 1.272603e+000 1.180969e+000 7.516602e-002
<GCONST> 8.087822e+001
~s "ST_y_2_1"
<MEAN> 25
 -2.729095e+000 -1.126378e+001 9.189246e+000 -8.483486e+000 3.579542e+000 -2.093938e+000 5.254881e-001 -4.523489e+000 -5.127948e-001 2.544465e+000 -1.645151e+000 3.886683e-001 -3.830148e-001 1.535449e-001 1.583288e+000 -3.436212e-001 -1.530750e-001 -5.565504e-001 -1.719547e+000 -4.060722e-001 2.907415e-001 8.220343e-001 -2.070054e-001 -3.282351e-001 1.743460e-001
<VARIANCE> 25
 1.019863e+002 2.139782e+002 1.058238e+002 1.331136e+002 1.790828e+002 6.324711e+001 1.241656e+002 4.429871e+001 6.328822e+001 6.656831e+001 4.614625e+001 5.528274e+001 4.092393e+000 7.943477e+000 6.371305e+000 8.584743e+000 6.753453e+000 4.866164e+000 8.918642e+000 5.948790e+000 5.388060e+000 7.423110e+000 4.526461e+000 4.343363e+000 2.086349e+000
<GCONST> 1.219780e+002
~s "ST_y_3_1"
<MEAN> 25
 2.547038e+000 1.871488e+000 9.975282e+000 -1.021965e+001 -1.051817e+001 -3.515396e+000 -4.312925e+000 -7.272443e+000 -3.695121e+000 3.965286e+000 -2.557085e+000 4.046044e-002 -1.460832e-001 4.421802e-001 5.090675e-001 -1.655405e-001 -2.924998e-001 -2.046276e-001 -4.492763e-001 -2.297013e-001 1.714711e-001 4.540670e-001 1.436345e-001 4.261489e-002 -1.011653e-001
<VARIANCE> 25
 1.878032e+001 4.222988e+001 2.461873e+001 5.620524e+001 9.316924e+001 2.952847e+001 5.458362e+001 3.468056e+001 7.444588e+001 3.385220e+001 2.666936e+001 4.263307e+001 1.907100e-001 1.755516e+000 1.257434e+000 1.394186e+000 2.319773e+000 1.383221e+000 4.300336e+000 1.987518e+000 1.377314e+000 2.051270e+000 1.294903e+000 2.187805e+000 4.131960e-001
<GCONST> 9.416399e+001
~s "ST_y_4_1"
<MEAN> 25
 8.135095e-001 -1.089806e+001 1.154382e+001 8.277947e+000 1.563595e+000 -1.233526e+001 -8.411369e+000 1.499991e+000 1.107180e-001 -1.465472e+000 -1.459954e+000 -7.435448e+000 1.084755e-001 -1.481451e-003 -5.425712e-001 -3.758963e-001 -2.004451e-001 -1.366150e-001 3.644498e-001 1.273813e-001 1.903335e-001 -2.658178e-003 3.430436e-001 1.633725e-001 7.147545e-002
<VARIANCE> 25
 1.197712e+001 1.334462e+002 7.590598e+001 1.526679e+002 9.275500e+001 6.543224e+001 8.302589e+001 1.058689e+002 6.815937e+001 7.926928e+001 6.595381e+001 4.862000e+001 3.023939e-001 2.202147e+000 3.097064e+000 5.497360e+000 2.600455e+000 2.985386e+000 6.116725e+000 4.238787e+000 3.683262e+000 4.133874e+000 3.466851e+000 3.470467e+000 9.685529e-001
<GCONST> 1.100528e+002
~s "ST_b_2_1"
<MEAN> 25
 7.302988e-001 3.574199e+000 7.953629e+000 -1.224917e+000 -3.984274e+000 -3.940457e+000 -1.805884e+000 -4.420986e+000 -1.837109e+000 -2.469927e-001 -5.014764e-001 -2.100971e-001 -7.770658e-001 -1.918287e+000 2.413563e+000 -1.608448e+000 -1.281441e+000 -9.078905e-001 6.853061e-001 -8.649504e-001 -3.803779e-001 1.184894e+000 -1.825090e-001 -1.434550e-001 1.992329e+000
<VARIANCE> 25
 5.552942e+001 1.236762e+002 1.035330e+002 1.345472e+002 5.587798e+001 7.819990e+001 7.099105e+001 6.778996e+001 7.996947e+001 4.867904e+001 2.944995e+001 3.720809e+001 4.735471e+000 1.323588e+001 7.719022e+000 1.662501e+001 7.611073e+000 8.041950e+000 6.868429e+000 9.556460e+000 8.052156e+000 5.939685e+000 4.994123e+000 6.058609e+000 2.234898e+000
<GCONST> 1.218234e+002
~s "ST_b_3_1"
<MEAN> 25
 3.933012e-001 3.026742e+000 1.252599e+001 -7.710467e+000 -1.305250e+001 -5.103522e+000 -1.426223e+000 -9.378922e+000 -3.134537e+000 7.007555e+000 -1.051197e+000 9.217472e-001 -1.885465e-001 -1.669040e-001 -8.428152e-001 1.685513e-001 -1.020915e-001 -2.273666e-001 4.815031e-001 1.873282e-001 6.156960e-001 3.620556e-002 4.409697e-001 -1.754092e-001 4.276666e-001
<VARIANCE> 25
 2.795951e+001 4.247810e+001 4.101617e+001 7.427542e+001 4.477216e+001 3.044091e+001 5.070802e+001 3.791365e+001 3.213145e+001 3.761063e+001 3.712912e+001 6.001480e+001 8.477794e-001 1.591933e+000 4.301424e+000 4.097194e+000 2.994353e+000 2.228250e+000 3.030978e+000 4.450202e+000 2.692836e+000 4.181760e+000 2.292511e+000 2.428948e+000 5.395660e-001
<GCONST> 1.018236e+002
~s "ST_b_4_1"
<MEAN> 25
 1.336095e+000 -1.128857e+001 3.265981e+000 1.864768e+000 6.569061e-002 -4.166172e-001 3.545488e-001 -2.811967e+000 -1.594123e+000 2.349993e+000 -2.384167e+000 -2.543389e+000 1.000609e-001 1.567446e-001 -3.923845e-001 6.572766e-002 3.069967e-001 4.134428e-002 -3.364642e-002 1.191683e-001 1.073120e-001 -9.712563e-002 -4.603937e-002 6.338923e-002 -1.255612e-001
<VARIANCE> 25
 5.463342e+001 1.945338e+002 1.119883e+002 1.713460e+002 1.684678e+002 1.180518e+002 1.708246e+002 9.991897e+001 8.973215e+001 7.062429e+001 5.344313e+001 6.253194e+001 1.971361e+000 5.546828e+000 4.412317e+000 7.889010e+000 9.523574e+000 6.738678e+000 9.303646e+000 7.784581e+000 6.862719e+000 5.855828e+000 5.127799e+000 4.600211e+000 1.974398e+000
<GCONST> 1.235122e+002
~s "ST_o_2_1"
<MEAN> 25
 1.292055e-008 1.831648e-008 -6.299361e-008 6.397928e-009 6.513714e-008 4.146926e-008 -2.503356e-008 -3.737221e-008 4.785829e-009 -8.260601e-008 4.838081e-008 -2.966501e-008 7.700191e-003 5.403126e-003 9.986212e-003 -4.435305e-003 5.198286e-003 1.178548e-003 5.735684e-003 -2.200497e-003 -9.225003e-004 -6.409926e-004 -2.520854e-003 -2.406914e-003 2.725629e-002
<VARIANCE> 25
 4.587285e+001 1.030148e+002 6.019880e+001 7.829473e+001 5.465159e+001 4.961901e+001 6.176896e+001 4.825900e+001 4.880714e+001 4.872197e+001 3.755544e+001 3.288158e+001 1.069084e+000 2.243620e+000 1.931021e+000 2.910384e+000 2.554792e+000 2.477852e+000 2.995093e+000 2.747025e+000 2.618064e+000 2.724945e+000 2.375594e+000 2.010036e+000 1.498881e+000
<GCONST> 1.041510e+002
~s "ST_o_3_1"
<MEAN> 25
 1.292055e-008 1.831648e-008 -6.299361e-008 6.397928e-009 6.513714e-008 4.146926e-008 -2.503356e-008 -3.737221e-008 4.785829e-009 -8.260601e-008 4.838081e-008 -2.966501e-008 7.700191e-003 5.403126e-003 9.986212e-003 -4.435305e-003 5.198286e-003 1.178548e-003 5.735684e-003 -2.200497e-003 -9.225002e-004 -6.409926e-004 -2.520854e-003 -2.406914e-003 2.725629e-002
<VARIANCE> 25
 4.587285e+001 1.030148e+002 6.019880e+001 7.829473e+001 5.465159e+001 4.961901e+001 6.176896e+001 4.825900e+001 4.880714e+001 4.872197e+001 3.755544e+001 3.288158e+001 1.069084e+000 2.243620e+000 1.931021e+000 2.910384e+000 2.554792e+000 2.477852e+000 2.995093e+000 2.747025e+000 2.618064e+000 2.724945e+000 2.375594e+000 2.010036e+000 1.498881e+000
<GCONST> 1.041510e+002
~s "ST_o_4_1"
<MEAN> 25
 1.292055e-008 1.831648e-008 -6.299361e-008 6.397928e-009 6.513714e-008 4.146926e-008 -2.503356e-008 -3.737221e-008 4.785829e-009 -8.260601e-008 4.838081e-008 -2.966501e-008 7.700191e-003 5.403126e-003 9.986212e-003 -4.435305e-003 5.198286e-003 1.178548e-003 5.735684e-003 -2.200497e-003 -9.225003e-004 -6.409926e-004 -2.520854e-003 -2.406914e-003 2.725629e-002
<VARIANCE> 25
 4.587285e+001 1.030148e+002 6.019880e+001 7.829473e+001 5.465159e+001 4.961901e+001 6.176896e+001 4.825900e+001 4.880714e+001 4.872197e+001 3.755544e+001 3.288158e+001 1.069084e+000 2.243620e+000 1.931021e+000 2.910384e+000 2.554792e+000 2.477852e+000 2.995093e+000 2.747025e+000 2.618064e+000 2.724945e+000 2.375594e+000 2.010036e+000 1.498881e+000
<GCONST> 1.041510e+002
~s "ST_r_2_1"
<MEAN> 25
 7.916550e+000 -9.582384e+000 -2.778970e+000 -2.087535e+000 -8.233640e+000 -2.758398e+000 1.798440e+000 2.405377e+000 1.943096e+000 -1.636246e+000 -3.539941e+000 -1.149570e+000 -2.997813e-001 -8.014985e-001 1.009693e+000 2.218822e-001 -9.091704e-001 1.067270e-001 8.371559e-001 6.017298e-001 -7.249194e-001 -1.507803e-001 2.436130e-001 7.038264e-001 1.628140e-001
<VARIANCE> 25
 1.483025e+001 4.290050e+001 2.989075e+001 4.754457e+001 6.508150e+001 3.328931e+001 7.698426e+001 3.845393e+001 5.273275e+001 3.328379e+001 3.508168e+001 2.685183e+001 1.205289e+000 2.625183e+000 2.659042e+000 6.584500e+000 5.476002e+000 3.076593e+000 5.178622e+000 4.997488e+000 4.058899e+000 3.123421e+000 3.484910e+000 2.846065e+000 1.745374e+000
<GCONST> 1.051374e+002
~s "ST_r_3_1"
<MEAN> 25
 4.820143e+000 -9.640252e+000 5.088161e+000 -9.736347e+000 -1.348134e+001 -4.789723e+000 7.382852e+000 1.848016e+000 -6.958430e+000 3.692629e+000 -3.031888e+000 -2.854930e+000 -5.648415e-001 8.196200e-001 5.012724e-001 -7.006425e-001 5.136510e-001 -5.939545e-002 7.670794e-001 -1.051906e+000 -5.812100e-001 6.389142e-001 -2.001879e-001 -3.553520e-001 -1.707577e-001
<VARIANCE> 25
 1.525127e+001 3.290427e+001 2.010246e+001 2.760098e+001 4.668110e+001 2.396454e+001 6.685785e+001 3.183003e+001 2.862816e+001 5.182814e+001 2.580813e+001 1.480587e+001 3.111339e-001 8.947236e-001 8.283491e-001 1.522178e+000 1.341573e+000 1.582004e+000 1.932075e+000 1.774130e+000 3.232473e+000 2.494765e+000 1.861805e+000 1.839123e+000 2.541934e-001
<GCONST> 8.930093e+001
~s "ST_r_3_2"
<MEAN> 25
 2.931117e+000 -3.997272e+000 1.065626e-002 9.258642e-001 -2.433465e+000 -2.036192e-001 1.387320e+000 1.557351e+000 -1.858609e+000 -2.960124e+000 -1.324687e+000 -9.014183e-002 -1.369832e-001 3.689094e-001 2.174360e-001 8.037212e-002 -1.270138e-001 -7.930826e-002 -1.978643e-002 -1.247785e-001 -4.707800e-002 8.052147e-002 2.593248e-002 1.214591e-001 -3.203554e-001
<VARIANCE> 25
 1.048868e+001 4.332028e+001 1.930583e+001 4.845124e+001 3.692928e+001 1.456301e+001 3.334104e+001 2.575339e+001 2.125158e+001 2.616176e+001 2.104059e+001 2.126360e+001 4.882462e-001 6.278890e-001 1.150497e+000 1.206410e+000 1.789263e+000 1.495907e+000 2.236766e+000 2.266209e+000 2.119079e+000 2.305660e+000 1.624345e+000 1.267218e+000 2.779707e-001
<GCONST> 8.715506e+001
~s "ST_r_4_1"
<MEAN> 25
 5.127655e+000 -1.436283e+001 -7.143551e+000 3.534011e+000 4.858339e+000 -2.267085e+000 -3.823593e-001 -1.387439e+000 -3.616686e+000 4.805400e+000 3.572856e+000 -3.024174e+000 -2.505655e-001 7.896798e-001 -1.063436e-001 3.520338e-001 4.914408e-001 1.925682e-001 -2.618182e-001 -3.137037e-001 4.138699e-001 3.086349e-002 2.064006e-002 2.277700e-001 -5.875039e-001
<VARIANCE> 25
 2.284655e+001 1.042223e+002 9.216944e+001 1.183956e+002 1.328664e+002 5.839666e+001 1.386427e+002 7.458848e+001 6.411366e+001 6.037653e+001 7.884776e+001 4.439560e+001 9.175779e-001 2.845992e+000 2.382774e+000 5.613206e+000 5.279721e+000 4.380864e+000 7.093413e+000 6.267238e+000 3.732357e+000 4.121101e+000 4.630758e+000 3.345467e+000 9.394441e-001
<GCONST> 1.135422e+002
~s "ST_h_2_1"
<MEAN> 25
 -1.733366e-001 6.577104e-001 1.359311e+000 5.566144e+000 -1.926025e-001 1.489532e+000 2.123428e-001 3.268093e+000 2.551261e-001 6.598408e-001 1.938928e+000 -1.520477e+000 -1.840644e-002 -2.655569e-002 2.416021e-002 3.084886e-002 6.980605e-002 4.820392e-002 2.537937e-002 -4.609572e-003 2.758841e-002 -2.487360e-002 -2.793282e-002 -3.697819e-003 -2.371725e-003
<VARIANCE> 25
 6.219278e+000 8.923928e+000 5.592752e+000 9.271557e+000 8.958143e+000 1.055865e+001 1.471717e+001 1.389981e+001 1.430152e+001 9.765084e+000 1.138899e+001 1.251312e+001 1.211675e-001 2.733444e-001 3.828310e-001 5.444260e-001 9.411515e-001 1.111776e+000 1.111488e+000 1.530395e+000 1.347525e+000 9.968033e-001 1.168743e+000 1.068253e+000 4.521933e-002
<GCONST> 6.670228e+001
~s "ST_h_3_1"
<MEAN> 25
 -1.971597e+000 -5.513175e+000 -3.133828e+000 3.863592e+000 6.781189e+000 4.012672e+000 1.411622e+000 8.568603e-001 -7.401881e-001 -3.196719e+000 2.118034e+000 1.741276e+000 -9.448193e-002 -8.644590e-001 -8.640682e-001 -7.111284e-002 7.619397e-001 3.228727e-001 3.387129e-001 -1.180480e+000 6.373677e-002 -9.191572e-001 -4.614571e-002 3.847308e-001 8.244402e-001
<VARIANCE> 25
 1.219761e+001 5.271741e+001 1.796038e+001 1.202985e+001 9.127024e+000 1.359939e+001 1.745331e+001 2.618401e+001 1.896236e+001 1.355800e+001 2.150162e+001 2.244527e+001 6.681434e-001 2.507832e+000 1.803180e+000 4.394629e-001 1.858755e+000 1.189258e+000 2.627229e+000 2.615005e+000 1.746424e+000 1.041552e+000 2.690834e+000 2.185504e+000 2.333799e-001
<GCONST> 8.438210e+001
~s "ST_h_4_1"
<MEAN> 25
 1.444966e+000 -1.298290e+000 -9.537640e-001 7.203969e-001 1.128156e-001 -8.296291e-001 -1.519571e+000 -3.294785e+000 -1.943743e+000 -2.837565e+000 -9.982985e-001 4.551482e-001 -2.373700e-002 1.155934e-001 2.837781e-002 -7.410175e-002 -7.914396e-002 -1.046314e-001 1.928812e-002 -6.131371e-002 1.698859e-001 5.139076e-002 5.475694e-003 -3.755270e-002 -2.099999e-002
<VARIANCE> 25
 5.833997e+001 2.238975e+001 2.320095e+001 1.629851e+001 1.944872e+001 1.806037e+001 3.709892e+001 5.154460e+001 4.620026e+001 4.637004e+001 2.460997e+001 1.753357e+001 6.912809e-001 5.092096e-001 1.115324e+000 1.303688e+000 1.132870e+000 1.536292e+000 1.843837e+000 1.770734e+000 1.622298e+000 1.292352e+000 1.626227e+000 1.115222e+000 1.956110e-001
<GCONST> 8.698313e+001
~s "ST_hh_2_1"
<MEAN> 25
 7.326933e+000 -6.745881e+000 -4.821604e+000 -2.147650e-002 -1.374675e+000 -4.348667e+000 -4.508307e+000 2.673872e+000 -2.805298e+000 -3.150014e+000 -1.083570e+000 -9.990388e+000 -1.905473e-001 -3.105707e-001 -1.947161e-001 1.823482e-001 1.597344e-001 5.938916e-001 1.613038e-001 -1.270555e-001 5.800664e-001 1.195280e-001 -3.813067e-001 1.204663e-001 -1.055142e-001
<VARIANCE> 25
 1.421503e+001 3.532813e+001 6.027190e+001 6.715148e+001 9.586241e+001 1.018546e+002 7.113908e+001 1.360798e+002 6.618543e+001 6.353022e+001 9.830299e+001 8.603542e+001 3.611610e-001 1.593484e+000 3.007767e+000 4.525030e+000 6.630437e+000 8.168399e+000 7.392941e+000 9.831753e+000 7.295675e+000 5.704739e+000 6.278551e+000 4.229076e+000 5.992118e-001
<GCONST> 1.130548e+002
~s "ST_hh_3_1"
<MEAN> 25
 1.341258e+000 3.226983e+000 -5.454171e+000 -2.371851e+000 -9.787829e-002 6.086795e+000 5.167205e+000 -6.990370e-001 1.870090e+000 1.100395e+000 2.454813e-002 2.128051e+000 -3.603372e-001 1.009080e+000 2.000359e-001 -3.540873e-001 1.786494e-001 1.916592e-001 2.139925e-002 3.917217e-001 2.091249e-001 -4.049710e-002 2.674244e-001 2.549503e-001 -5.812864e-001
<VARIANCE> 25
 1.018203e+001 1.657419e+002 3.204110e+001 5.028867e+001 3.865644e+001 3.800957e+001 3.401572e+001 3.996315e+001 4.461632e+001 4.545320e+001 3.183416e+001 3.598623e+001 2.418740e-001 1.737855e+000 1.452159e+000 2.396544e+000 2.539701e+000 2.568527e+000 1.790492e+000 1.614622e+000 2.341706e+000 2.111025e+000 2.252963e+000 1.766575e+000 3.047970e-001
<GCONST> 9.503717e+001
~s "ST_k_2_1"
<MEAN> 25
 6.875029e+000 -1.974485e-001 -4.951230e+000 -6.975479e+000 -9.258013e-001 -1.109102e+000 -4.410876e+000 -3.767074e+000 -3.379482e+000 -1.860826e+000 -2.359057e+000 -2.973658e+000 -3.405257e-001 3.312904e-001 -6.056665e-001 5.750797e-002 1.234117e-001 3.080176e-001 3.292842e-001 2.888352e-001 2.992240e-002 2.722508e-001 4.211672e-001 2.259073e-001 -7.208511e-001
<VARIANCE> 25
 1.656837e+001 5.631823e+001 8.327496e+001 1.028856e+002 5.280241e+001 4.641541e+001 6.660091e+001 3.935280e+001 4.609093e+001 3.846070e+001 2.630596e+001 2.494154e+001 1.810632e+000 4.557288e+000 4.694150e+000 6.656947e+000 3.715865e+000 3.741672e+000 4.793424e+000 3.792781e+000 5.344745e+000 4.889209e+000 3.161260e+000 2.301980e+000 2.910363e+000
<GCONST> 1.088843e+002
~s "ST_hh_4_1"
<MEAN> 25
 -5.193440e+000 2.959123e+000 1.786704e+000 1.380241e+000 2.360132e+000 2.423638e+000 3.162305e+000 1.975569e+000 3.472738e+000 2.113377e+000 2.581126e+000 4.375516e-001 -7.573026e-002 1.821061e-002 8.628157e-002 6.255177e-002 2.814295e-002 4.833178e-002 7.497424e-002 1.125902e-001 1.050232e-001 9.272464e-002 3.388526e-002 -4.900358e-002 -2.064602e-002
<VARIANCE> 25
 4.705192e+000 3.750784e+001 8.484064e+000 1.105376e+001 1.142116e+001 1.469331e+001 1.525266e+001 1.596139e+001 1.639660e+001 2.052491e+001 1.604170e+001 1.838141e+001 1.622821e-001 3.157267e-001 5.634673e-001 6.536294e-001 9.099944e-001 9.606691e-001 1.042439e+000 1.300770e+000 1.509935e+000 1.437670e+000 1.451442e+000 1.422207e+000 4.545724e-002
<GCONST> 7.239293e+001
~s "ST_k_3_1"
<MEAN> 25
 7.258493e-001 2.182621e-001 -4.831935e+000 -1.102055e+000 1.121187e+000 1.366755e+000 2.659387e-001 -7.383397e-001 -3.018555e-001 1.441687e+000 -6.349031e-001 -5.450838e-001 -1.148599e+000 -2.305672e-001 5.485829e-001 8.111905e-001 1.235783e-001 1.514853e-001 7.959888e-001 7.436473e-001 7.421862e-001 4.854369e-001 4.700323e-001 2.563726e-001 -2.406222e-001
<VARIANCE> 25
 1.247638e+001 4.398151e+001 3.572310e+001 4.957701e+001 3.911224e+001 4.343147e+001 5.066888e+001 2.814400e+001 3.807112e+001 3.510899e+001 3.654470e+001 3.050358e+001 1.885098e+000 2.002445e+000 1.730669e+000 3.342280e+000 1.951797e+000 3.770724e+000 4.454415e+000 3.055938e+000 4.256295e+000 3.542454e+000 2.770300e+000 3.285895e+000 3.971836e+000
<GCONST> 1.026400e+002
~s "ST_k_4_1"
<MEAN> 25
 -3.064837e+000 1.278397e+000 -3.051723e-001 3.217885e+000 2.630244e+000 3.663160e+000 2.527173e+000 2.584572e+000 2.719632e+000 2.271800e+000 1.715571e+000 6.548977e-001 -1.062397e-001 -2.588875e-003 9.980749e-002 1.780184e-001 4.858761e-002 2.348611e-002 2.991660e-002 7.397617e-002 5.152128e-002 4.741136e-002 1.071515e-001 7.688951e-002 -5.442454e-002
<VARIANCE> 25
 1.233075e+001 2.251513e+001 1.401285e+001 2.129245e+001 1.956044e+001 1.494226e+001 2.347735e+001 1.670136e+001 1.896270e+001 2.577851e+001 1.708785e+001 1.444535e+001 1.659998e-001 3.561194e-001 5.620423e-001 6.958410e-001 9.071045e-001 1.208145e+000 1.472833e+000 1.324207e+000 1.441312e+000 1.706467e+000 1.443310e+000 1.139153e+000 9.532357e-002
<GCONST> 7.666077e+001
~s "ST_uw_2_1"
<MEAN> 25
 -2.428782e+000 -7.766672e+000 5.845241e+000 -5.761106e+000 1.226710e+000 1.181688e+000 -2.522166e+000 -3.272824e+000 -1.623090e+000 3.672858e-001 2.142294e+000 1.918354e+000 9.123204e-001 -1.225517e+000 -1.058642e-001 -1.042073e+000 -2.014463e-002 -3.430759e-002 -5.929450e-001 -6.017642e-001 -6.452420e-001 2.106603e-002 8.328535e-002 -4.217556e-001 1.303232e+000
<VARIANCE> 25
 6.853368e+001 2.476482e+002 1.455091e+002 8.651294e+001 1.080253e+002 1.011385e+002 8.435177e+001 5.344233e+001 7.053936e+001 5.466350e+001 4.224051e+001 5.613363e+001 5.596492e+000 1.565820e+001 7.844946e+000 1.012027e+001 9.593214e+000 6.546331e+000 7.333974e+000 6.412983e+000 5.949451e+000 5.668013e+000 4.723297e+000 5.601758e+000 5.559837e+000
<GCONST> 1.242154e+002
~s "ST_n_2_1"
<MEAN> 25
 1.226179e+000 7.947010e+000 2.050088e+000 -9.277250e-001 -5.941815e-002 -3.964334e-001 -3.167205e+000 -1.096382e+000 6.257189e-001 -1.887838e+000 5.063797e-001 1.157491e+000 -2.050887e-002 6.329497e-001 -9.318607e-002 6.532217e-001 -1.463882e-002 5.653119e-001 7.048823e-002 1.757262e-001 -2.274324e-001 1.669742e-001 6.534961e-002 1.133140e-001 -7.359244e-001
<VARIANCE> 25
 2.751729e+001 6.826260e+001 3.017157e+001 6.784384e+001 3.934876e+001 3.613829e+001 3.933065e+001 3.699372e+001 3.096304e+001 3.347998e+001 2.540399e+001 2.419180e+001 9.371064e-001 1.318434e+000 2.104101e+000 3.028525e+000 2.974389e+000 3.269843e+000 3.121392e+000 3.489138e+000 3.158793e+000 3.864958e+000 2.385087e+000 2.108668e+000 1.132364e+000
<GCONST> 9.998434e+001
~s "ST_n_2_2"
<MEAN> 25
 6.486290e+000 3.820274e-001 -1.458656e+000 -3.048550e-001 -1.405431e+000 -4.667047e+000 -3.146391e+000 -2.172913e+000 -6.634791e+000 -8.387047e+000 -1.832378e+000 2.560194e+000 -3.867391e-001 1.527263e+000 6.644622e-001 1.190990e+000 -3.176264e-002 -3.351611e-001 -3.991524e-001 -8.114977e-001 2.197980e-001 7.433422e-001 1.235143e-001 8.320142e-002 -1.151011e+000
<VARIANCE> 25
 1.693856e+001 4.832062e+001 1.764714e+001 4.815437e+001 6.254194e+001 6.874665e+001 2.281741e+001 3.458438e+001 4.298307e+001 4.696537e+001 4.429413e+001 2.849534e+001 6.306365e-001 2.066552e+000 1.382766e+000 3.086229e+000 1.526824e+000 3.186370e+000 1.511890e+000 3.612125e+000 2.326798e+000 2.775395e+000 4.102312e+000 1.816502e+000 7.607319e-001
<GCONST> 9.778326e+001
~s "ST_uw_3_1"
<MEAN> 25
 6.425387e+000 -4.648103e+000 -5.821705e+000 -4.916178e+000 3.270774e-001 -1.939955e+000 -2.110106e+000 -4.004864e+000 -3.273585e+000 2.182778e+000 7.691256e-001 -4.166589e+000 2.952603e-001 7.286988e-001 -2.242731e-001 1.126900e-001 -4.198125e-001 2.782107e-001 1.300270e-001 1.576158e-002 -2.359662e-001 8.067600e-002 -2.250364e-001 -1.238833e-001 -5.246313e-001
<VARIANCE> 25
 1.618161e+001 1.371115e+002 7.502597e+001 1.003431e+002 1.103242e+002 8.635027e+001 7.662785e+001 8.871093e+001 6.753665e+001 5.895782e+001 6.570913e+001 5.911938e+001 1.384910e+000 3.058707e+000 3.003241e+000 6.468976e+000 5.195903e+000 6.185146e+000 4.037041e+000 5.912053e+000 5.943494e+000 4.230477e+000 4.969353e+000 3.874676e+000 2.048963e+000
<GCONST> 1.150711e+002
~s "ST_n_3_1"
<MEAN> 25
 2.302752e+000 3.473030e+000 1.343792e+000 4.045498e+000 1.052507e+000 -1.951889e+000 -3.052020e+000 -2.604549e+000 -2.454232e+000 -3.384635e+000 -8.727962e-001 1.141760e+000 -3.112002e-001 7.492924e-002 1.333930e-001 2.250808e-001 1.544728e-001 4.752107e-001 2.846920e-001 3.024215e-001 2.355127e-001 2.516833e-001 1.262989e-001 -1.488012e-001 -2.530572e-001
<VARIANCE> 25
 1.524636e+001 1.810372e+001 1.138251e+001 2.229598e+001 3.344268e+001 3.267098e+001 2.294292e+001 2.486971e+001 2.399327e+001 2.042832e+001 2.428190e+001 2.414432e+001 2.454618e-001 3.877888e-001 5.465181e-001 8.557938e-001 1.120149e+000 1.429338e+000 1.402972e+000 1.369966e+000 1.557065e+000 1.530781e+000 1.426044e+000 1.196385e+000 1.139961e-001
<GCONST> 8.025875e+001
~s "ST_uw_4_1"
<MEAN> 25
 5.865794e+000 4.403747e+000 6.390419e-001 -9.572096e+000 -4.211472e+000 -4.396743e+000 -5.715834e+000 -6.010103e+000 -5.112912e+000 7.466992e-001 -2.046990e+000 -1.126916e+000 -1.734446e-001 1.298257e-001 9.584117e-002 3.810636e-001 4.326867e-002 3.088988e-002 3.400200e-002 7.854511e-003 1.391971e-001 -5.780173e-003 1.612267e-001 1.929739e-001 -3.525571e-001
<VARIANCE> 25
 1.577252e+001 2.109459e+001 7.805045e+001 6.842657e+001 7.648215e+001 4.267107e+001 4.618993e+001 4.485271e+001 4.840761e+001 4.168531e+001 4.073179e+001 4.002475e+001 3.637024e-001 6.258513e-001 1.174425e+000 1.940370e+000 2.118019e+000 2.163342e+000 1.864119e+000 2.092265e+000 1.971519e+000 1.874698e+000 2.135001e+000 1.899641e+000 3.628192e-001
<GCONST> 9.499067e+001
~s "ST_uw_4_2"
<MEAN> 25
 9.212020e+000 5.265258e+000 -2.023860e-001 -9.634578e-001 -3.216601e+000 -8.937524e+000 -9.362618e+000 -4.926674e+000 -4.295702e+000 -4.410496e+000 -4.399278e+000 -5.060922e+000 -3.284889e-001 4.052634e-001 7.501237e-001 6.188063e-001 -9.014847e-002 -3.148198e-001 -1.726025e-001 -2.683423e-001 -7.459934e-002 -2.627254e-004 -1.729104e-001 -1.457019e-001 -3.887466e-001
<VARIANCE> 25
 8.414151e+000 2.992786e+001 3.456987e+001 3.903624e+001 2.166616e+001 3.455855e+001 2.616844e+001 2.867760e+001 1.941006e+001 1.454387e+001 1.751380e+001 1.207874e+001 2.497018e-001 7.437872e-001 8.532606e-001 1.571027e+000 1.289816e+000 2.382110e+000 1.763180e+000 2.059735e+000 1.865020e+000 1.243799e+000 1.990360e+000 1.485796e+000 2.306202e-001
<GCONST> 8.440004e+001
~s "ST_n_4_1"
<MEAN> 25
 -4.396901e+000 2.670022e+000 1.730081e+000 3.158000e+000 3.108924e+000 2.913951e+000 3.263499e+000 3.059622e+000 3.512560e+000 2.730973e+000 2.760315e+000 2.291261e-001 -4.541982e-002 1.273051e-003 6.430669e-003 2.209945e-002 3.725222e-002 5.145228e-002 3.666295e-002 4.990559e-002 7.160201e-002 5.693009e-002 2.082629e-002 -1.635186e-002 -1.551321e-004
<VARIANCE> 25
 1.048245e+001 1.859661e+001 6.834289e+000 1.283801e+001 1.220135e+001 1.372252e+001 1.995019e+001 1.694769e+001 1.813518e+001 1.771350e+001 1.416915e+001 1.356026e+001 1.258089e-001 3.197732e-001 4.605190e-001 6.414062e-001 9.203107e-001 1.140563e+000 1.198094e+000 1.336295e+000 1.454587e+000 1.451745e+000 1.375703e+000 1.227174e+000 5.920957e-002
<GCONST> 7.219930e+001
~s "ST_n_4_2"
<MEAN> 25
 -4.456472e+000 9.041139e+000 1.421006e+000 6.231084e-001 2.847901e+000 1.751068e+000 1.691981e+000 2.308911e+000 3.536175e+000 6.019217e-001 2.076030e+000 2.314299e+000 -2.405915e-002 5.103777e-002 8.683806e-002 9.083658e-002 9.343447e-003 -1.011757e-001 -1.247873e-002 8.712237e-002 6.508942e-002 4.369896e-002 5.936095e-003 -5.924695e-002 7.043725e-003
<VARIANCE> 25
 1.188915e+001 6.269102e+001 1.056860e+001 3.442736e+001 1.775212e+001 1.810473e+001 2.845237e+001 1.958372e+001 2.064377e+001 2.774839e+001 1.752531e+001 2.279103e+001 1.309099e-001 2.980533e-001 7.287073e-001 6.679504e-001 1.134676e+000 1.226517e+000 1.201120e+000 1.197739e+000 1.435590e+000 1.301355e+000 1.318605e+000 1.258677e+000 6.152626e-002
<GCONST> 7.796751e+001
~s "ST_d_2_1"
<MEAN> 25
 -5.130605e+000 -4.538435e+000 6.563436e+000 -5.014645e+000 2.325255e+000 3.030975e+000 -7.234587e-001 -3.028171e+000 -6.151140e-001 1.413188e+000 2.753362e+000 1.995987e+000 3.827925e-001 -2.074115e+000 5.618897e-001 -1.750046e-003 -4.833494e-002 -1.836298e-001 2.596250e-002 -1.298482e-001 -6.138045e-001 2.366537e-002 -1.643852e-002 -6.737658e-001 1.812404e+000
<VARIANCE> 25
 9.797642e+001 2.453750e+002 2.224579e+002 1.836358e+002 1.176572e+002 8.662453e+001 1.223664e+002 9.267551e+001 7.170728e+001 6.914208e+001 6.587807e+001 5.218579e+001 4.814862e+000 1.574911e+001 1.141150e+001 1.321608e+001 8.677442e+000 1.054056e+001 1.064583e+001 8.454609e+000 6.800448e+000 5.716536e+000 6.338196e+000 5.148146e+000 8.702321e+000
<GCONST> 1.295385e+002
~s "ST_d_3_1"
<MEAN> 25
 1.805985e+000 -1.019284e+000 6.339204e+000 -2.725441e+000 -4.880894e+000 -1.789273e+000 -1.774754e+000 -3.514890e+000 -5.628032e+000 3.116800e+000 -1.579883e+000 -2.765473e+000 3.847471e-001 -7.007692e-001 1.068951e+000 -1.427707e+000 -1.066475e+000 -9.825689e-001 -3.305906e-001 -3.545778e-001 -6.438099e-001 5.963302e-002 -5.871851e-001 -4.321922e-001 1.572539e+000
<VARIANCE> 25
 1.616712e+001 7.862586e+001 5.992724e+001 8.707099e+001 9.121490e+001 3.998553e+001 5.943998e+001 3.680582e+001 4.784037e+001 5.580714e+001 3.226895e+001 3.035518e+001 2.016058e+000 4.546879e+000 5.062140e+000 4.942544e+000 6.590551e+000 3.827411e+000 7.398048e+000 4.030791e+000 5.680130e+000 5.735813e+000 4.296590e+000 3.172613e+000 2.115675e+000
<GCONST> 1.112274e+002
~s "ST_d_4_1"
<MEAN> 25
 1.048305e+000 -1.416920e+001 5.476430e+000 5.195358e+000 2.450201e+000 -2.386798e+000 -3.577074e+000 2.025374e+000 -4.400796e+000 1.645502e+000 5.817114e-001 -5.126912e+000 -3.360789e-004 5.382077e-001 -1.739328e-001 -1.553967e-001 -4.247585e-002 9.353037e-002 1.421521e-001 6.200817e-002 2.774776e-001 -1.916517e-001 -3.963303e-002 2.930440e-001 -2.693606e-001
<VARIANCE> 25
 2.857946e+001 1.455697e+002 2.033161e+002 1.715374e+002 1.468488e+002 1.906765e+002 1.472515e+002 9.623847e+001 6.227193e+001 7.400375e+001 9.051665e+001 7.500629e+001 7.332544e-001 2.518342e+000 3.764387e+000 5.324683e+000 4.937006e+000 4.991978e+000 7.355033e+000 4.218796e+000 4.421746e+000 4.565151e+000 4.268032e+000 3.905766e+000 1.192717e+000
<GCONST> 1.180431e+002
~s "ST_g_2_1"
<MEAN> 25
 1.592698e+000 -1.254405e+000 5.517507e+000 8.299774e+000 -7.923506e-001 -2.666404e+000 -3.555271e+000 1.281606e+000 -1.777014e+000 -3.951018e-001 -2.417427e+000 -3.467285e+000 8.231409e-002 -9.960752e-001 -5.757371e-001 -5.122845e-001 4.539903e-001 -1.306817e-001 6.166389e-001 1.184777e-001 -7.875108e-001 5.126161e-001 3.222806e-001 -5.638048e-002 7.998332e-001
<VARIANCE> 25
 3.580466e+001 2.102904e+002 9.611342e+001 1.616300e+002 9.016560e+001 8.318057e+001 8.389343e+001 5.762983e+001 7.836370e+001 6.636665e+001 5.307135e+001 4.902646e+001 3.194862e+000 1.143993e+001 7.954949e+000 1.082786e+001 8.105735e+000 6.970935e+000 8.415144e+000 4.627753e+000 4.890721e+000 7.002996e+000 4.036941e+000 4.470134e+000 6.615444e+000
<GCONST> 1.224181e+002
~s "ST_g_3_1"
<MEAN> 25
 1.212392e+000 -9.927996e-001 -3.611536e+000 -1.807138e+000 6.935437e+000 2.467358e+000 -3.387986e-001 -1.417289e+000 -1.868672e+000 5.420383e+000 2.859293e+000 7.355608e-001 1.708177e-001 -1.243926e-001 -4.905590e-001 -2.941322e+000 -3.790095e-001 -8.656816e-001 -1.144641e-001 -1.254067e+000 -4.949850e-001 2.685874e-001 5.018571e-001 1.202294e-001 1.679993e+000
<VARIANCE> 25
 2.486154e+001 3.665379e+001 1.010000e+002 4.581153e+001 5.586005e+001 4.509137e+001 4.598919e+001 2.987353e+001 6.108960e+001 1.078849e+002 3.492075e+001 3.667551e+001 5.126431e+000 3.594767e+000 5.775356e+000 8.132376e+000 5.452031e+000 3.844512e+000 5.485119e+000 3.021471e+000 5.309686e+000 9.349609e+000 3.668293e+000 3.196714e+000 2.970638e+000
<GCONST> 1.122762e+002
~s "ST_g_4_1"
<MEAN> 25
 2.124790e+000 1.322466e+000 3.087878e+000 -1.050452e+001 -1.414563e+000 -2.995040e+000 3.375214e-001 -2.121895e+000 -4.218363e+000 -3.444963e+000 -1.107088e+000 -1.803402e+000 7.184054e-001 1.072381e+000 1.173152e+000 -1.061683e+000 -5.990046e-001 -1.271574e+000 -1.036678e+000 -1.003935e-001 -4.217386e-001 -4.784869e-001 -1.718600e+000 -1.152511e+000 6.983637e-001
<VARIANCE> 25
 3.047621e+001 4.596589e+001 5.160668e+001 7.041740e+001 5.314859e+001 3.265857e+001 7.080439e+001 4.485360e+001 5.519593e+001 8.592716e+001 5.162767e+001 3.212231e+001 1.711806e+000 2.805209e+000 2.215866e+000 9.101529e+000 8.195023e+000 2.682766e+000 4.631609e+000 2.841054e+000 4.907299e+000 7.969604e+000 3.101375e+000 2.158042e+000 1.760341e+000
<GCONST> 1.091639e+002
~s "ST_t_2_1"
<MEAN> 25
 3.927236e+000 4.631402e+000 -4.193706e+000 3.205300e+000 -4.185537e-001 3.450946e+000 -2.560353e+000 -8.381545e-001 -2.101050e+000 -2.515203e+000 -5.233353e-001 1.600261e+000 -8.763080e-001 7.483993e-002 1.007229e-001 -5.972667e-001 2.178039e-001 -1.170275e-001 2.161286e-001 3.587954e-001 -2.569289e-001 1.085339e-001 2.151676e-001 -2.236699e-001 -4.972723e-002
<VARIANCE> 25
 4.460836e+001 6.461266e+001 6.749673e+001 3.128351e+001 2.994229e+001 7.172729e+001 4.859577e+001 2.950759e+001 3.600275e+001 3.647103e+001 3.567077e+001 4.878284e+001 2.029882e+000 4.888163e+000 3.126493e+000 3.778890e+000 3.722680e+000 5.514472e+000 5.119988e+000 3.904546e+000 2.455976e+000 4.756565e+000 3.273117e+000 3.388758e+000 4.119719e+000
<GCONST> 1.082119e+002
~s "ST_t_3_1"
<MEAN> 25
 -2.093637e+000 -1.232269e+000 1.542873e+000 -7.952201e-001 -1.207785e+000 -2.315887e+000 1.918674e+000 -1.405052e+000 -1.802310e+000 2.650037e+000 1.772347e+000 -1.234274e+000 3.900422e-001 -2.308750e+000 3.689949e-001 -2.572866e+000 -6.196159e-001 -2.212183e+000 1.734758e-001 -9.511506e-001 -3.442196e-002 8.263530e-001 6.283585e-002 -6.218842e-001 3.580224e+000
<VARIANCE> 25
 2.145546e+001 9.292821e+001 3.312503e+001 4.946678e+001 1.124596e+002 7.543394e+001 6.018585e+001 4.974295e+001 5.979000e+001 3.597140e+001 3.572050e+001 4.213286e+001 4.161103e+000 1.280840e+001 9.651370e+000 1.127960e+001 1.138030e+001 9.149570e+000 1.420396e+001 7.363832e+000 9.005810e+000 7.998690e+000 5.212169e+000 4.242281e+000 5.551281e+000
<GCONST> 1.200355e+002
~s "ST_t_4_1"
<MEAN> 25
 3.136705e+000 -9.607734e+000 2.315175e+000 1.084378e+000 -2.858251e+000 -2.524420e+000 3.851863e+000 1.057106e+000 -6.920922e+000 2.418165e+000 -7.754499e-002 -5.007974e+000 3.171439e-001 1.882891e-001 -5.217819e-001 -6.975931e-001 5.803293e-002 1.045805e-001 8.027064e-002 -3.931912e-002 2.421414e-001 -2.701265e-001 -2.637911e-001 2.404892e-001 1.001912e-001
<VARIANCE> 25
 1.955710e+001 1.535872e+002 1.136172e+002 1.509155e+002 1.465981e+002 7.946099e+001 1.814253e+002 9.479506e+001 1.014831e+002 5.909218e+001 5.829596e+001 6.031204e+001 1.624953e+000 4.106931e+000 4.388516e+000 6.719257e+000 5.045767e+000 4.342443e+000 5.992832e+000 5.451858e+000 7.104935e+000 4.150262e+000 3.242459e+000 2.744484e+000 2.398280e+000
<GCONST> 1.179839e+002
~s "ST_ao_2_1"
<MEAN> 25
 6.654638e+000 1.529150e+000 -4.125513e+000 -1.030953e+001 2.455460e+000 -5.206852e+000 -2.258708e+000 -2.772943e+000 -3.158995e+000 4.744517e+000 -2.455697e+000 -4.207606e+000 9.605112e-001 -9.802040e-001 -2.876593e-001 -2.798905e+000 -9.299815e-001 -6.258633e-001 7.422768e-001 3.749494e-002 4.746942e-001 6.573850e-001 -2.331525e-001 -1.221800e+000 1.376456e+000
<VARIANCE> 25
 1.489344e+001 3.418611e+001 5.287865e+001 5.396955e+001 9.025930e+001 4.123560e+001 5.836155e+001 3.745982e+001 5.588238e+001 6.585481e+001 3.529343e+001 3.108012e+001 2.693274e+000 5.294557e-001 2.587949e+000 4.664530e+000 5.473136e+000 3.871899e+000 1.253818e+001 3.657734e+000 7.535260e+000 4.826501e+000 3.955677e+000 2.307477e+000 8.017008e-001
<GCONST> 1.065679e+002
~s "ST_ao_3_1"
<MEAN> 25
 6.718581e+000 -9.617642e-001 -3.460649e+000 -1.598419e+001 8.910369e-001 -4.986820e+000 3.238167e+000 -3.647166e-002 -1.565053e-001 4.810799e+000 -1.053395e+000 -6.652859e+000 9.681676e-002 -6.784542e-001 -3.638574e-001 2.925177e-001 -4.060291e-001 8.605877e-002 3.660751e-001 5.456688e-001 6.933883e-001 -5.381022e-002 3.213771e-001 -3.288508e-001 1.851469e-001
<VARIANCE> 25
 5.458763e+000 2.015890e+001 6.196318e+001 2.221592e+001 4.655276e+001 5.137657e+001 4.358081e+001 1.289338e+002 6.484531e+001 5.701239e+001 3.445834e+001 3.029776e+001 1.612645e-001 2.833160e-001 5.993675e-001 1.488139e+000 1.070022e+000 1.579707e+000 2.040204e+000 1.678473e+000 2.105355e+000 2.431057e+000 1.389205e+000 1.612806e+000 2.051879e-001
<GCONST> 8.886621e+001
~s "ST_ao_4_1"
<MEAN> 25
 1.249048e+001 -1.986261e-001 -7.124569e+000 -1.389842e+001 -5.075989e+000 -2.312942e-001 -7.946973e+000 -3.300735e+000 2.029404e+000 3.937088e+000 9.075158e-001 -3.965798e+000 6.596967e-002 -4.284150e-001 -1.522601e-001 6.468011e-001 -3.821539e-001 9.699190e-002 -5.174587e-002 6.688140e-002 5.753234e-001 -4.331096e-001 -4.002820e-001 1.423185e-001 -5.543133e-002
<VARIANCE> 25
 1.592809e+001 2.073588e+001 1.770531e+001 2.794215e+001 3.174420e+001 2.907052e+001 6.342685e+001 4.466467e+001 4.559698e+001 4.314398e+001 2.597228e+001 2.542794e+001 1.306252e-001 8.860982e-001 7.347502e-001 2.407142e+000 1.862968e+000 1.839720e+000 1.516546e+000 1.675295e+000 2.504863e+000 3.257452e+000 2.567024e+000 1.362742e+000 8.995385e-002
<GCONST> 8.832568e+001
~s "ST_sil_2_1"
<MEAN> 25
 -1.501509e+001 6.360060e+000 -2.901275e+000 1.093133e+001 -2.273737e+000 7.131829e+000 -4.436016e+000 1.020306e+001 9.613326e+000 4.031582e+000 4.823202e+000 1.950203e+000 -2.794026e-002 2.970398e-002 -8.476294e-004 -5.708045e-002 6.610021e-003 5.471557e-002 -3.963292e-002 -2.056449e-002 1.085276e-001 9.887428e-002 5.168508e-002 -6.265293e-002 -2.122462e-002
<VARIANCE> 25
 3.170683e+001 1.457498e+001 2.373960e+001 2.737574e+001 1.714924e+001 1.944407e+001 1.958960e+001 3.181324e+001 3.335102e+001 1.918020e+001 1.888522e+001 1.417876e+001 1.297424e-001 2.545616e-001 3.278264e-001 5.048754e-001 6.717864e-001 8.291404e-001 1.036706e+000 1.226485e+000 1.172139e+000 1.499935e+000 1.309494e+000 1.326313e+000 1.561407e-001
<GCONST> 7.656022e+001
~s "silst"
<MEAN> 25
 -5.492511e+000 4.111393e+000 -9.124302e+000 3.923307e+000 -6.455676e+000 5.982052e+000 -7.740474e-001 2.224983e+000 -2.575888e+000 6.094985e+000 -6.803182e-001 3.584272e+000 1.805200e-001 -1.219063e-001 1.591516e-001 -4.949729e-002 1.367837e-001 -8.094608e-002 1.093739e-001 -3.239448e-002 -6.701683e-002 -7.763934e-002 -2.844151e-002 3.140542e-002 9.530882e-001
<VARIANCE> 25
 1.893191e+001 1.053646e+001 1.217254e+001 1.024262e+001 1.839971e+001 1.181843e+001 1.870652e+001 1.185413e+001 1.755229e+001 1.378792e+001 1.046445e+001 1.005601e+001 2.040117e+000 4.531861e-001 9.229217e-001 6.339200e-001 8.495508e-001 8.630779e-001 1.012443e+000 9.344994e-001 1.105494e+000 8.855412e-001 9.287797e-001 6.787778e-001 7.318065e+000
<GCONST> 7.752460e+001
~s "ST_sil_3_1"
<MEAN> 25
 -5.429312e+000 4.076776e+000 -9.079612e+000 3.864896e+000 -6.415777e+000 5.952471e+000 -7.264853e-001 2.104301e+000 -2.586027e+000 6.082532e+000 -6.825460e-001 3.605535e+000 1.560287e-001 -1.346541e-001 1.573382e-001 -4.260309e-002 1.188374e-001 -7.405666e-002 1.034515e-001 -3.828426e-002 -5.948457e-002 -7.099178e-002 -1.827341e-002 2.395072e-002 9.153027e-001
<VARIANCE> 25
 1.812540e+001 1.064865e+001 1.232421e+001 1.022260e+001 1.847960e+001 1.184055e+001 1.869405e+001 1.215931e+001 1.722230e+001 1.392770e+001 1.045915e+001 1.013645e+001 1.901444e+000 5.261705e-001 9.464055e-001 6.688761e-001 8.630701e-001 8.628174e-001 1.009724e+000 9.434886e-001 1.146558e+000 8.976789e-001 9.237689e-001 6.937945e-001 7.025010e+000
<GCONST> 7.773740e+001
~s "ST_sil_4_1"
<MEAN> 25
 -3.117123e+000 3.576667e+000 5.366135e-001 1.807378e+000 1.137201e+000 2.546913e+000 1.536780e+000 1.484537e+000 2.409142e+000 1.585205e+000 1.408900e+000 1.321494e+000 -2.229940e-002 4.316847e-002 1.665639e-002 -1.539415e-002 3.700155e-003 3.604528e-002 2.896621e-002 5.064145e-003 -8.129476e-003 2.805806e-002 1.852085e-002 -5.406735e-003 -1.479074e-002
<VARIANCE> 25
 1.635503e+001 4.701287e+001 1.611039e+001 2.279894e+001 2.089614e+001 2.056630e+001 2.792539e+001 2.197546e+001 2.250734e+001 2.981224e+001 1.782717e+001 1.705203e+001 1.751122e-001 4.611561e-001 6.475929e-001 8.849044e-001 1.009471e+000 1.187426e+000 1.346232e+000 1.331767e+000 1.520793e+000 1.526752e+000 1.335471e+000 1.263523e+000 9.576399e-002
<GCONST> 7.991811e+001
~s "ST_j_2_1"
<MEAN> 25
 9.875779e+000 -1.222911e+001 -4.821499e+000 3.726458e+000 -7.969754e+000 2.307394e+000 -4.808811e+000 -5.013008e+000 -3.374643e+000 2.327505e-001 -6.716272e-001 -3.925380e+000 5.954871e-003 7.251188e-001 -3.017885e-001 9.865198e-001 1.829425e-001 -2.119156e-001 2.291313e-001 -4.083149e-001 3.494395e-001 1.900557e-002 -2.924274e-001 -1.640856e-001 -5.429144e-001
<VARIANCE> 25
 6.153962e+000 1.004338e+002 2.113275e+001 5.844541e+001 1.605484e+001 2.056180e+001 7.804171e+001 2.291704e+001 2.545545e+001 3.421794e+001 1.354249e+002 1.946391e+001 7.148017e-001 6.671610e-001 2.474077e-001 2.454071e+000 1.184023e+000 2.083935e+000 2.984705e+000 1.725404e+000 2.194195e+000 2.165454e+000 4.301804e+000 9.058231e-001 2.550239e-001
<GCONST> 9.028253e+001
~s "ST_j_3_1"
<MEAN> 25
 1.119450e+000 5.889110e+000 1.528913e+000 6.692101e+000 -2.429498e+000 4.021717e+000 -4.500891e+000 -3.506945e+000 -9.279521e-001 -1.395501e+000 -3.734895e+000 -4.005250e+000 -1.125572e+000 2.566402e-001 -2.124599e-001 -9.807539e-002 4.202710e-001 7.428953e-001 7.117442e-001 9.468049e-001 1.072191e+000 7.113911e-001 5.032563e-001 -1.170563e-001 -9.704102e-001
<VARIANCE> 25
 1.645892e+001 1.998433e+001 8.762032e+001 2.553289e+001 4.419000e+001 4.579630e+001 5.087712e+001 2.065992e+001 1.318552e+001 2.938213e+001 1.967030e+001 1.774846e+001 1.311967e+000 1.296545e+000 2.188224e+000 2.602653e+000 2.936613e+000 1.872923e+000 3.262083e+000 1.548866e+000 1.854707e+000 3.728690e+000 1.876764e+000 2.654177e+000 1.001714e+000
<GCONST> 9.497762e+001
~s "ST_j_4_1"
<MEAN> 25
 -4.205883e+000 6.266548e+000 6.024518e+000 -2.899279e+000 -2.571036e+000 -6.232201e+000 -5.342793e+000 8.583487e-001 5.809968e-001 6.858373e+000 4.110830e+000 -2.055510e+000 6.018937e-002 -3.875290e-001 1.554346e-001 -7.408290e-001 -4.771285e-002 -7.733146e-001 1.673586e-001 -2.080558e-001 -2.812890e-001 2.995324e-001 3.598841e-001 2.397542e-001 8.811860e-001
<VARIANCE> 25
 5.294047e+001 7.716637e+001 3.196042e+001 6.913737e+001 6.883778e+001 1.322340e+002 6.450114e+001 3.466495e+001 5.469854e+001 3.007460e+001 2.983362e+001 3.663770e+001 4.331275e+000 6.627034e+000 4.616852e+000 5.850953e+000 9.047982e+000 9.378064e+000 3.861674e+000 5.941621e+000 6.529468e+000 4.105118e+000 3.580860e+000 4.063106e+000 7.971778e+000
<GCONST> 1.154630e+002
~s "ST_w_2_1"
<MEAN> 25
 4.760478e+000 6.555435e+000 8.133421e+000 -5.841643e+000 -2.155879e+000 -3.485896e+000 -6.768960e+000 -3.749505e+000 -8.445842e+000 -2.949860e-001 -5.494329e+000 -1.379885e+000 1.284441e-001 3.296911e-001 -3.029598e-001 1.946251e-001 2.025263e-001 -2.566147e-001 -1.299643e-001 2.783307e-001 2.723165e-002 2.046825e-001 2.772092e-001 1.677156e-001 -2.429628e-001
<VARIANCE> 25
 1.901972e+001 1.472963e+001 5.246135e+001 1.178846e+002 3.014374e+001 2.418489e+001 2.463226e+001 3.871363e+001 3.250095e+001 5.437589e+001 3.161899e+001 3.066839e+001 1.561279e-001 2.503405e-001 8.279917e-001 1.161441e+000 7.997256e-001 1.262068e+000 1.583497e+000 1.242899e+000 1.177226e+000 2.020810e+000 1.213662e+000 1.005014e+000 1.294015e-001
<GCONST> 8.454389e+001
~s "ST_w_3_1"
<MEAN> 25
 6.228018e+000 4.645345e+000 1.084287e+000 -1.305525e+001 4.179044e+000 -6.245876e+000 -2.600519e+000 1.997521e+000 -3.689294e+000 6.003494e-001 1.502964e+000 -2.467657e+000 -4.337679e-001 -1.629188e+000 -3.303009e-001 -9.403152e-001 5.672153e-001 2.649950e-001 1.452484e+000 -2.521809e-001 1.263423e+000 -8.173258e-001 -1.203893e-001 -7.943470e-001 1.368653e+000
<VARIANCE> 25
 1.371780e+001 5.774271e+001 5.850895e+001 5.866774e+001 5.343874e+001 6.802151e+001 4.172425e+001 4.301416e+001 5.200349e+001 1.545221e+002 5.742852e+001 4.083451e+001 4.976639e-001 2.355903e+000 2.764468e+000 5.041512e+000 2.541133e+000 2.096743e+000 2.915535e+000 3.262460e+000 3.706048e+000 9.927889e+000 8.715328e+000 4.185366e+000 1.228430e+000
<GCONST> 1.073323e+002
~s "ST_w_4_1"
<MEAN> 25
 7.303654e-001 3.498583e+000 3.009992e+000 -8.749020e+000 3.168056e+000 -5.176900e+000 3.260372e+000 1.630597e+000 4.839359e-001 -4.356081e+000 1.427294e+000 1.661703e+000 -2.041919e-002 -2.096890e-001 -1.596169e-001 1.618501e-001 -1.045658e-001 -4.357592e-002 7.418259e-002 -1.994306e-001 -3.538387e-001 6.083075e-002 1.852081e-001 1.695300e-001 -4.146164e-002
<VARIANCE> 25
 2.734061e+001 1.896212e+002 1.891463e+001 2.612450e+001 2.785604e+001 3.300394e+001 8.173895e+001 2.840094e+001 4.019011e+001 2.065814e+001 2.867346e+001 3.448059e+001 1.723817e-001 7.666090e-001 7.491243e-001 7.445889e-001 1.186153e+000 1.391820e+000 1.253202e+000 2.207721e+000 2.125791e+000 1.948982e+000 2.032295e+000 2.189153e+000 2.537220e-001
<GCONST> 8.934888e+001
~s "ST_ng_2_1"
<MEAN> 25
 3.048604e+000 -3.939064e+000 -2.970583e+000 -2.596827e+000 8.014135e+000 -2.752437e+000 8.224574e-001 -4.219897e+000 2.990021e+000 -4.720400e-001 5.523495e+000 -3.344738e+000 -5.462569e-002 7.258465e-001 3.277108e-001 7.843205e-001 -9.508451e-002 4.106135e-001 -3.016011e-001 3.008151e-001 -4.069590e-002 -1.543711e-001 -3.505132e-001 -1.620672e-001 -7.373651e-001
<VARIANCE> 25
 6.623159e+000 3.197523e+001 1.676632e+001 4.742344e+001 4.127547e+001 4.339804e+001 3.901736e+001 2.517118e+001 3.804813e+001 4.742110e+001 5.736536e+001 2.610323e+001 3.562407e-001 1.555808e+000 1.030763e+000 2.515229e+000 1.930982e+000 1.414655e+000 3.126534e+000 1.773365e+000 2.740226e+000 2.426581e+000 3.880312e+000 1.817723e+000 1.226225e+000
<GCONST> 9.430295e+001
~s "ST_ng_3_1"
<MEAN> 25
 1.628629e+000 6.000199e+000 2.131370e+000 4.320811e+000 1.444424e+000 5.419688e-001 -5.274702e-001 -1.240281e+000 -1.430755e+000 -2.015735e+000 -3.354123e+000 -3.016780e+000 -3.166452e-001 -3.361889e-002 3.107158e-002 1.608052e-001 -2.069587e-001 1.876128e-002 6.132774e-004 3.803594e-001 2.550781e-001 3.164351e-001 3.529385e-001 3.090312e-001 -3.283900e-001
<VARIANCE> 25
 1.257146e+001 3.908244e+001 1.514490e+001 2.152868e+001 2.397539e+001 1.677564e+001 2.234030e+001 3.267452e+001 4.634372e+001 2.876141e+001 2.933164e+001 3.339508e+001 3.949063e-001 5.923793e-001 7.018551e-001 8.686157e-001 1.157000e+000 1.540527e+000 1.755329e+000 1.632826e+000 1.994782e+000 1.803792e+000 1.778975e+000 1.590458e+000 2.227345e-001
<GCONST> 8.510526e+001
~s "ST_m_2_1"
<MEAN> 25
 2.584622e+000 4.336036e+000 -5.004218e-001 -2.700022e+000 5.238374e-002 1.862728e+000 -1.897869e+000 -2.452677e+000 -1.840812e+000 -2.000121e+000 -1.721709e+000 -2.974496e-001 -2.029871e-001 1.090216e+000 5.716118e-001 4.295995e-001 -1.050733e-001 -7.702360e-002 -2.226532e-001 -9.389910e-002 -6.833284e-002 3.246611e-002 -1.793104e-001 1.387187e-002 -6.917551e-001
<VARIANCE> 25
 3.099906e+001 5.399742e+001 5.347468e+001 9.508495e+001 4.960836e+001 5.891578e+001 6.260877e+001 3.724939e+001 4.488566e+001 3.918794e+001 3.836511e+001 3.202182e+001 9.011810e-001 2.452065e+000 2.599803e+000 6.084898e+000 3.228940e+000 3.228784e+000 3.392095e+000 3.278703e+000 2.805571e+000 3.180354e+000 2.809976e+000 2.572673e+000 9.490488e-001
<GCONST> 1.046464e+002
~s "ST_ng_4_1"
<MEAN> 25
 -1.603109e+000 -3.251083e-001 -5.111315e+000 1.431454e+000 -2.392858e+000 2.941053e+000 3.462517e+000 -7.324860e-001 -5.152266e-002 5.047512e+000 2.909386e-001 3.460434e+000 -7.669296e-002 -3.414061e-002 -8.650582e-002 -1.190920e-001 -6.814117e-002 -2.550803e-002 -2.413921e-002 -1.355980e-002 -8.252740e-002 7.497838e-003 1.381958e-002 8.705752e-002 -7.397889e-002
<VARIANCE> 25
 6.572058e+000 1.235023e+001 1.312663e+001 1.390761e+001 1.861829e+001 1.085676e+001 1.380891e+001 1.294262e+001 1.547803e+001 1.700051e+001 1.072503e+001 1.782864e+001 1.394363e-001 3.246945e-001 5.217186e-001 9.662557e-001 7.518414e-001 6.646512e-001 8.006703e-001 8.114167e-001 1.122871e+000 1.082911e+000 1.101096e+000 8.098953e-001 1.285120e-001
<GCONST> 6.999562e+001
~s "ST_ng_4_2"
<MEAN> 25
 -6.178507e-002 4.132146e-001 1.674099e+000 5.423184e+000 9.494822e-001 1.495333e+000 7.068590e-002 2.184318e+000 3.467487e-001 -1.103120e+000 1.302641e+000 -1.103622e-001 -7.331242e-002 2.627108e-002 8.702048e-002 3.839308e-002 -4.343307e-002 1.483507e-002 -6.431454e-002 2.733421e-002 1.540997e-001 7.568983e-002 3.504114e-003 -1.317734e-002 -3.058701e-002
<VARIANCE> 25
 6.917046e+000 4.324386e+000 6.992023e+000 1.107873e+001 1.000900e+001 1.139593e+001 1.781413e+001 1.756792e+001 1.492090e+001 1.637445e+001 1.535938e+001 1.218401e+001 1.456317e-001 3.028954e-001 4.439967e-001 7.134199e-001 1.002638e+000 1.073099e+000 1.197159e+000 1.307068e+000 1.367385e+000 1.414028e+000 1.330980e+000 1.088068e+000 6.998164e-002
<GCONST> 6.952852e+001
~s "ST_m_3_1"
<MEAN> 25
 3.622357e+000 4.560524e+000 2.163237e+000 4.010114e+000 3.021663e+000 7.003767e-002 -1.481817e+000 -2.587068e+000 -3.398382e+000 -4.666506e+000 -4.965344e+000 -3.426266e+000 -3.711047e-001 3.197863e-004 1.662780e-001 2.884493e-001 5.385936e-002 1.584512e-001 1.901393e-001 3.342139e-001 2.618274e-001 2.699671e-001 2.755621e-001 1.595963e-001 -2.886901e-001
<VARIANCE> 25
 1.770846e+001 1.929170e+001 1.468125e+001 3.084370e+001 2.878756e+001 1.864511e+001 2.469393e+001 3.314656e+001 3.445122e+001 2.300650e+001 2.351665e+001 2.039776e+001 3.085755e-001 4.854849e-001 7.175998e-001 1.064020e+000 1.167334e+000 1.133912e+000 1.439370e+000 1.451717e+000 1.724436e+000 1.366188e+000 1.420555e+000 1.217304e+000 1.672682e-001
<GCONST> 8.220325e+001
~s "ST_m_3_2"
<MEAN> 25
 6.780060e+000 3.788813e+000 1.669796e+000 4.555122e+000 -6.215215e-001 -3.287287e+000 -5.309618e+000 -6.602606e+000 -1.846595e+000 -5.288183e-001 -4.585892e+000 -3.599433e+000 -6.826628e-002 4.757858e-001 6.608610e-001 3.851461e-001 -5.183120e-001 -1.843876e-001 -1.532332e-001 3.050799e-001 6.586268e-002 -1.378032e-001 9.342932e-002 -9.052511e-002 -3.248381e-001
<VARIANCE> 25
 1.261997e+001 1.684664e+001 1.274477e+001 2.399989e+001 1.797976e+001 3.476197e+001 5.513773e+001 4.746710e+001 2.163553e+001 2.240000e+001 2.878088e+001 2.741272e+001 1.155333e-001 3.435611e-001 4.727725e-001 8.106498e-001 8.067008e-001 9.278973e-001 9.004009e-001 1.748084e+000 1.050353e+000 1.617428e+000 1.414783e+000 1.053326e+000 6.452050e-002
<GCONST> 7.835773e+001
~s "ST_m_4_1"
<MEAN> 25
 -4.411514e+000 3.353497e+000 1.180822e+000 1.079134e+000 1.833713e+000 2.158921e+000 2.782625e+000 2.559604e+000 3.644751e+000 2.223389e+000 2.790749e+000 5.162070e-001 -1.225031e-002 2.042602e-002 3.071004e-002 2.730674e-003 -4.925960e-003 1.057769e-002 -1.300316e-003 -2.667875e-002 1.235708e-002 1.602213e-002 -4.646024e-003 -2.463271e-002 3.687882e-002
<VARIANCE> 25
 5.281086e+000 4.483456e+001 9.947095e+000 1.889125e+001 1.988560e+001 1.497435e+001 2.414855e+001 1.534100e+001 1.650031e+001 2.245315e+001 1.396052e+001 1.372715e+001 1.157782e-001 2.995324e-001 4.817533e-001 7.554940e-001 1.055704e+000 1.187199e+000 1.287493e+000 1.370432e+000 1.595554e+000 1.765914e+000 1.378586e+000 1.172524e+000 4.039878e-002
<GCONST> 7.415998e+001
~s "ST_m_4_2"
<MEAN> 25
 -1.513837e+000 9.666537e+000 1.973581e+000 1.696047e-001 -1.105083e+000 1.078049e+000 -1.052183e+000 2.529372e+000 2.669309e+000 -1.550990e+000 4.074467e-001 1.907090e+000 -5.603595e-002 2.053323e-002 9.689941e-002 4.306580e-002 -3.695523e-002 -4.717559e-002 -3.632948e-002 -8.702579e-003 4.486550e-002 7.150745e-002 6.403556e-002 2.578209e-002 -2.423635e-002
<VARIANCE> 25
 1.019851e+001 6.759036e+001 1.338865e+001 4.350655e+001 1.760559e+001 2.183525e+001 2.373911e+001 1.810327e+001 2.556881e+001 2.251600e+001 1.668283e+001 1.904813e+001 1.439615e-001 3.379212e-001 6.949044e-001 7.933408e-001 1.107665e+000 1.363510e+000 1.459802e+000 1.562855e+000 1.671729e+000 1.624392e+000 1.408603e+000 1.273633e+000 6.790311e-002
<GCONST> 7.949415e+001
~s "ST_m_4_3"
<MEAN> 25
 -1.304719e+000 1.279492e+000 2.002630e+000 5.020698e+000 7.926018e-001 1.267597e+000 1.178404e+000 2.408744e+000 5.230721e-001 5.322338e-001 1.115277e+000 -6.974728e-001 -4.597976e-003 4.336959e-003 -9.880725e-003 4.243965e-002 1.208317e-002 3.298762e-002 8.215608e-002 5.224375e-002 5.352921e-002 2.571970e-002 1.267405e-002 -3.162317e-003 -2.257814e-002
<VARIANCE> 25
 1.130911e+001 5.748235e+000 4.676385e+000 9.752502e+000 1.520645e+001 1.426643e+001 1.796692e+001 1.677588e+001 2.087579e+001 1.921870e+001 1.352750e+001 1.131100e+001 1.210676e-001 2.621139e-001 3.984989e-001 6.971045e-001 9.001746e-001 1.232785e+000 1.005276e+000 1.272190e+000 1.395781e+000 1.358764e+000 1.200468e+000 1.113647e+000 4.251434e-002
<GCONST> 6.944588e+001
~s "ST_c_2_1"
<MEAN> 25
 1.292055e-008 1.831648e-008 -6.299361e-008 6.397928e-009 6.513714e-008 4.146926e-008 -2.503356e-008 -3.737221e-008 4.785829e-009 -8.260601e-008 4.838081e-008 -2.966501e-008 7.700191e-003 5.403126e-003 9.986212e-003 -4.435305e-003 5.198286e-003 1.178548e-003 5.735684e-003 -2.200497e-003 -9.225003e-004 -6.409926e-004 -2.520854e-003 -2.406914e-003 2.725629e-002
<VARIANCE> 25
 4.587285e+001 1.030148e+002 6.019880e+001 7.829473e+001 5.465159e+001 4.961901e+001 6.176896e+001 4.825900e+001 4.880714e+001 4.872197e+001 3.755544e+001 3.288158e+001 1.069084e+000 2.243620e+000 1.931021e+000 2.910384e+000 2.554792e+000 2.477852e+000 2.995093e+000 2.747025e+000 2.618064e+000 2.724945e+000 2.375594e+000 2.010036e+000 1.498881e+000
<GCONST> 1.041510e+002
~s "ST_c_3_1"
<MEAN> 25
 1.292055e-008 1.831648e-008 -6.299361e-008 6.397928e-009 6.513714e-008 4.146926e-008 -2.503356e-008 -3.737221e-008 4.785829e-009 -8.260601e-008 4.838081e-008 -2.966501e-008 7.700191e-003 5.403126e-003 9.986212e-003 -4.435305e-003 5.198286e-003 1.178548e-003 5.735684e-003 -2.200497e-003 -9.225003e-004 -6.409926e-004 -2.520854e-003 -2.406914e-003 2.725629e-002
<VARIANCE> 25
 4.587285e+001 1.030148e+002 6.019880e+001 7.829473e+001 5.465159e+001 4.961901e+001 6.176896e+001 4.825900e+001 4.880714e+001 4.872197e+001 3.755544e+001 3.288158e+001 1.069084e+000 2.243620e+000 1.931021e+000 2.910384e+000 2.554792e+000 2.477852e+000 2.995093e+000 2.747025e+000 2.618064e+000 2.724945e+000 2.375594e+000 2.010036e+000 1.498881e+000
<GCONST> 1.041510e+002
~s "ST_eh_2_1"
<MEAN> 25
 1.460917e+000 -5.221964e+000 1.057324e+000 -7.881913e+000 -3.641691e+000 -4.113219e+000 1.016231e+001 -3.106871e+000 -4.153658e+000 2.548085e-001 -3.895228e+000 -1.474190e+000 4.919738e-001 5.687849e-001 -3.582168e-001 7.564272e-001 2.791681e-001 3.376089e-002 -1.097993e+000 -6.173550e-001 -1.114789e-002 -8.702736e-002 2.189881e-002 1.119035e-001 -4.949995e-001
<VARIANCE> 25
 1.405674e+001 3.409987e+001 5.391441e+001 4.230628e+001 6.402769e+001 4.117042e+001 6.455260e+001 3.293122e+001 6.262938e+001 3.751881e+001 5.260003e+001 2.779306e+001 1.299442e+000 2.869505e+000 1.882387e+000 3.697996e+000 3.592087e+000 3.394317e+000 4.748816e+000 3.217877e+000 3.243291e+000 3.313947e+000 3.046328e+000 2.107237e+000 3.150554e+000
<GCONST> 1.043057e+002
~s "ST_eh_2_2"
<MEAN> 25
 -6.627765e-001 2.278926e-001 -3.044940e+000 -1.039053e+000 1.599872e-001 -4.969708e-001 1.801618e+000 9.517779e-001 2.066711e+000 2.216244e+000 2.351834e+000 -4.224788e-001 1.876029e+000 -4.147035e-001 -3.490850e-001 -1.289179e+000 -7.115753e-001 -1.183527e+000 -1.201028e+000 -1.991984e-001 -3.996200e-001 -1.116754e+000 -1.148656e+000 -6.244910e-002 1.478918e+000
<VARIANCE> 25
 3.212806e+001 1.782779e+001 2.597585e+001 4.414637e+001 3.921843e+001 3.905298e+001 2.836525e+001 3.073298e+001 2.815677e+001 3.334979e+001 2.227302e+001 3.107266e+001 4.329744e+000 1.683730e+000 2.273385e+000 2.796851e+000 2.539145e+000 3.229011e+000 3.923603e+000 3.354162e+000 3.425020e+000 4.229484e+000 4.071736e+000 2.060527e+000 2.810771e+000
<GCONST> 1.011824e+002
~s "ST_c_4_1"
<MEAN> 25
 1.292055e-008 1.831648e-008 -6.299361e-008 6.397928e-009 6.513714e-008 4.146926e-008 -2.503356e-008 -3.737221e-008 4.785829e-009 -8.260601e-008 4.838081e-008 -2.966501e-008 7.700191e-003 5.403126e-003 9.986212e-003 -4.435305e-003 5.198286e-003 1.178548e-003 5.735684e-003 -2.200497e-003 -9.225003e-004 -6.409926e-004 -2.520854e-003 -2.406914e-003 2.725629e-002
<VARIANCE> 25
 4.587285e+001 1.030148e+002 6.019880e+001 7.829473e+001 5.465159e+001 4.961901e+001 6.176896e+001 4.825900e+001 4.880714e+001 4.872197e+001 3.755544e+001 3.288158e+001 1.069084e+000 2.243620e+000 1.931021e+000 2.910384e+000 2.554792e+000 2.477852e+000 2.995093e+000 2.747025e+000 2.618064e+000 2.724945e+000 2.375594e+000 2.010036e+000 1.498881e+000
<GCONST> 1.041510e+002
~s "ST_eh_3_1"
<MEAN> 25
 7.060269e+000 -1.641536e+000 -3.496607e+000 -3.120813e+000 -3.172756e+000 -1.011184e+000 -1.141771e+000 -2.418206e+000 -3.140025e+000 -2.794521e+000 -1.800209e+000 6.566200e-001 5.478022e-001 -4.364127e-002 -1.127270e-002 3.296868e-002 2.614332e-001 -3.296189e-001 -4.721318e-001 4.898483e-001 -3.823490e-001 -3.219615e-001 -2.011809e-001 9.271761e-002 1.991587e-001
<VARIANCE> 25
 2.991830e+001 4.435174e+001 5.997406e+001 3.719698e+001 5.097083e+001 5.747366e+001 5.154776e+001 6.750613e+001 5.057845e+001 4.939732e+001 4.791094e+001 3.847729e+001 3.320752e+000 5.215328e+000 2.627283e+000 4.261191e+000 3.939309e+000 4.474053e+000 3.952559e+000 7.123972e+000 3.468305e+000 4.787583e+000 4.482645e+000 3.729467e+000 4.691748e+000
<GCONST> 1.109742e+002
~s "ST_eh_4_1"
<MEAN> 25
 7.944714e+000 2.684287e-002 -1.918820e+000 -1.385049e+000 -4.159932e+000 -3.255259e+000 -3.508110e+000 -3.472854e+000 -4.102928e+000 -2.988734e+000 -3.283798e+000 -1.009196e+000 -3.402975e-002 5.066315e-001 -6.923703e-002 5.581493e-001 3.480759e-001 3.954597e-003 -4.637335e-001 -8.898012e-002 2.535826e-001 -8.541024e-002 2.967380e-001 -2.015639e-001 -4.273640e-001
<VARIANCE> 25
 2.107874e+001 8.090672e+001 3.537614e+001 6.210833e+001 7.494585e+001 5.326913e+001 4.980783e+001 3.201030e+001 2.733557e+001 4.180831e+001 3.101967e+001 2.890636e+001 4.915697e-001 1.996469e+000 1.130361e+000 2.998148e+000 2.378814e+000 2.142220e+000 2.028251e+000 2.431216e+000 1.664617e+000 2.362844e+000 1.865291e+000 1.703071e+000 8.182669e-001
<GCONST> 9.734024e+001
~s "ST_eh_4_2"
<MEAN> 25
 7.956172e+000 -2.702543e+000 -1.024730e+000 -1.990467e+000 -5.411189e+000 -9.470963e+000 -2.924277e+000 2.229575e+000 -4.805163e+000 -7.423545e+000 -5.133012e+000 2.720289e+000 -1.100413e+000 9.378030e-001 4.791153e-002 7.163139e-001 3.048848e-002 3.862160e-001 6.024208e-001 -6.944730e-001 -2.918211e-001 5.708049e-001 5.455251e-001 -7.402569e-001 -3.427393e-001
<VARIANCE> 25
 2.274951e+001 4.201643e+001 1.764021e+001 3.025579e+001 2.384332e+001 4.504247e+001 3.307683e+001 2.920141e+001 3.396765e+001 3.125483e+001 3.273474e+001 3.059347e+001 2.462208e+000 2.095724e+000 1.025699e+000 1.066104e+000 2.467050e+000 4.833246e+000 3.229113e+000 1.860716e+000 1.889491e+000 2.164306e+000 1.799733e+000 2.726413e+000 3.544044e-001
<GCONST> 9.478214e+001
~s "ST_p_2_1"
<MEAN> 25
 2.226231e+000 2.935927e-001 -3.544786e+000 -9.699996e-001 -4.449641e-002 1.328542e+000 -8.587904e-002 -9.432923e-001 -9.910170e-001 8.118814e-001 4.661279e-001 -1.644826e-001 -5.310242e-002 -4.073658e-001 1.482660e-001 -4.978396e-001 2.962278e-001 -5.005169e-003 8.468266e-001 7.247161e-002 -6.285881e-002 -2.885606e-001 1.213023e-001 7.269575e-002 8.818166e-001
<VARIANCE> 25
 4.483191e+001 8.490034e+001 4.071088e+001 9.617818e+001 3.999081e+001 4.682817e+001 7.291908e+001 5.699211e+001 6.310145e+001 5.247230e+001 5.249025e+001 3.722302e+001 4.709644e+000 5.993450e+000 2.682717e+000 7.425327e+000 4.182641e+000 4.308523e+000 4.491231e+000 4.365372e+000 5.050126e+000 4.925286e+000 3.366988e+000 3.145101e+000 9.954803e+000
<GCONST> 1.140851e+002
~s "ST_p_3_1"
<MEAN> 25
 -1.033267e+000 4.399239e+000 -2.255856e+000 -1.807873e+000 3.869279e-001 1.184002e+000 8.160554e-001 8.127946e-001 2.959045e-001 -2.786850e+000 -4.414611e-003 2.671685e+000 -2.887200e-001 2.235510e-001 2.627414e-001 3.080133e-001 3.590574e-002 1.430949e-001 1.119013e-001 1.311278e-001 1.843069e-001 2.365146e-001 1.096690e-001 -1.755871e-002 -2.439909e-001
<VARIANCE> 25
 8.380388e+000 8.625364e+001 2.094045e+001 3.254152e+001 2.011801e+001 2.641437e+001 3.343854e+001 2.903824e+001 3.033929e+001 2.917821e+001 2.169450e+001 2.492942e+001 2.743363e-001 5.379579e-001 8.519176e-001 1.269819e+000 1.226703e+000 1.649048e+000 2.078320e+000 1.637876e+000 1.598596e+000 1.670389e+000 1.690603e+000 1.685633e+000 2.350840e-001
<GCONST> 8.596345e+001
~s "ST_p_4_1"
<MEAN> 25
 -1.388304e+000 1.556185e+000 1.514544e+000 4.827046e+000 -8.072648e-002 1.227743e+000 3.099488e+000 2.643191e+000 2.238496e+000 1.965504e+000 2.298273e+000 8.189427e-002 -4.734101e-002 -4.543863e-002 5.879564e-003 7.910464e-002 -4.276013e-003 3.364220e-002 3.369132e-002 6.693990e-002 5.685203e-002 -4.046566e-002 -6.080955e-002 2.273757e-002 -4.304609e-002
<VARIANCE> 25
 1.162564e+001 9.985314e+000 6.886748e+000 1.163211e+001 1.223404e+001 1.473111e+001 1.701555e+001 1.366002e+001 1.615046e+001 1.547169e+001 1.292748e+001 1.008556e+001 1.585828e-001 3.045060e-001 5.471752e-001 8.540886e-001 1.064382e+000 9.945311e-001 1.319695e+000 1.582543e+000 1.431873e+000 1.596056e+000 1.171296e+000 9.575679e-001 5.740916e-002
<GCONST> 7.120464e+001
~s "ST_p_4_2"
<MEAN> 25
 -5.374898e+000 1.333416e+000 1.328596e+000 2.544194e+000 2.816015e+000 3.099740e+000 4.458824e+000 2.963934e+000 4.155554e+000 3.864367e+000 3.595161e+000 8.721551e-002 -3.648265e-002 1.876568e-002 2.134436e-002 2.493948e-002 8.350747e-003 7.666396e-003 1.556727e-002 3.129865e-002 5.398210e-002 9.716206e-002 4.998262e-002 -4.603650e-002 1.322234e-002
<VARIANCE> 25
 3.213795e+000 7.410251e+000 6.638388e+000 7.412755e+000 9.350914e+000 1.247587e+001 1.323678e+001 1.416057e+001 1.394307e+001 1.614224e+001 1.252155e+001 1.242306e+001 1.185575e-001 2.558505e-001 4.692397e-001 6.604242e-001 8.720959e-001 1.017702e+000 1.180183e+000 1.341856e+000 1.450777e+000 1.490499e+000 1.290228e+000 1.127121e+000 4.678745e-002
<GCONST> 6.722641e+001
~s "ST_ih_2_1"
<MEAN> 25
 1.291144e+000 5.675374e+000 9.983644e+000 -3.905570e+000 -3.980100e+000 -3.732140e+000 -6.027231e+000 -4.250095e+000 6.086125e-001 -1.228489e+000 -3.875381e+000 -1.452428e+000 -5.315397e-002 3.280725e-002 3.695153e-001 -2.160358e-001 1.954944e-001 -3.212693e-001 -4.894356e-001 2.051774e-001 2.579251e-001 -4.912925e-001 -1.618636e-001 9.468649e-002 1.199533e-002
<VARIANCE> 25
 2.633348e+001 8.579996e+001 7.081146e+001 1.742126e+002 7.583340e+001 5.153178e+001 5.004205e+001 6.700796e+001 4.960155e+001 4.956506e+001 3.328006e+001 4.600628e+001 1.903890e+000 3.341958e+000 4.287240e+000 8.522299e+000 4.541105e+000 4.193250e+000 4.535068e+000 4.580228e+000 4.710763e+000 4.602670e+000 3.654114e+000 3.143715e+000 2.441760e+000
<GCONST> 1.124590e+002
~s "ST_ih_3_1"
<MEAN> 25
 -1.926135e+000 1.024957e+001 4.417625e+000 -3.405158e+000 -1.061887e+000 -1.633494e+000 -3.732153e+000 5.802281e-001 1.880370e+000 -1.343765e+000 -7.646865e-001 1.862270e+000 -1.625294e-002 -2.410923e-002 1.071262e-002 1.248830e-001 7.302132e-002 -9.059914e-002 -3.690604e-002 9.253369e-002 1.102636e-001 3.910912e-002 6.950987e-002 -3.514319e-002 -8.522338e-002
<VARIANCE> 25
 8.068603e+000 6.261178e+001 2.854762e+001 6.210426e+001 2.018394e+001 2.804397e+001 2.956233e+001 2.667532e+001 2.646972e+001 2.740350e+001 2.205505e+001 2.037192e+001 2.480139e-001 4.417002e-001 9.834778e-001 1.682873e+000 1.382984e+000 1.504132e+000 1.762564e+000 1.995100e+000 1.736860e+000 1.674213e+000 1.590313e+000 1.337089e+000 1.686208e-001
<GCONST> 8.567963e+001
~s "ST_ih_3_2"
<MEAN> 25
 -1.511067e+000 1.136651e+001 2.142592e+000 -4.088272e+000 -6.808347e-001 1.158304e+000 -1.136343e+000 2.714326e+000 1.923354e+000 -3.344784e+000 -1.471135e+000 2.487404e+000 -4.360626e-002 4.245047e-002 1.151600e-001 1.646978e-001 7.128497e-002 -1.807622e-001 -1.175802e-001 6.128912e-003 1.325517e-001 -3.028614e-002 -4.158315e-002 3.104293e-002 -4.661558e-002
<VARIANCE> 25
 5.462521e+000 6.214793e+001 2.464148e+001 5.295912e+001 2.199290e+001 2.872863e+001 2.705694e+001 1.703106e+001 3.114796e+001 2.458343e+001 1.305552e+001 3.035654e+001 1.283942e-001 3.790657e-001 9.598017e-001 9.452361e-001 1.326636e+000 1.553571e+000 1.519105e+000 1.192497e+000 1.843207e+000 1.918427e+000 1.023001e+000 1.328089e+000 7.174159e-002
<GCONST> 8.128509e+001
~s "ST_ih_4_1"
<MEAN> 25
 -8.888013e-001 2.963831e+000 3.616744e+000 -6.776629e-001 3.493879e+000 -3.885628e+000 -5.486333e+000 -2.127072e+000 3.216929e+000 -3.387661e+000 -1.140772e+000 6.344687e-001 -4.248151e-003 -1.900793e-001 -4.036696e-001 3.821053e-002 2.397472e-001 8.621658e-002 3.820706e-003 -1.780454e-001 -6.932935e-003 1.337219e-001 2.902296e-001 1.595311e-001 -8.611572e-003
<VARIANCE> 25
 1.053923e+001 8.815688e+001 1.323979e+002 1.482956e+002 8.476847e+001 9.257175e+001 9.967667e+001 8.168719e+001 5.806527e+001 6.230275e+001 4.380266e+001 4.978484e+001 4.038509e-001 1.538669e+000 1.967794e+000 2.865038e+000 2.904475e+000 2.973158e+000 3.517200e+000 2.754411e+000 2.976981e+000 3.245816e+000 2.840592e+000 2.362191e+000 4.289450e-001
<GCONST> 1.055258e+002
~s "ST_ih_4_2"
<MEAN> 25
 -5.947778e-001 -3.180421e+000 1.600078e+001 9.202765e+000 4.131509e+000 -1.074323e+001 -9.341816e+000 2.704302e+000 2.847074e+000 -1.195018e+001 -1.288739e+000 -3.945393e+000 3.223180e-001 6.195346e-001 -2.304342e-001 9.919795e-002 7.681914e-002 2.353242e-001 2.403391e-001 -3.980098e-001 1.035308e-001 3.248399e-001 -1.252944e-002 9.537182e-002 -1.466189e-001
<VARIANCE> 25
 1.293996e+001 4.582843e+001 4.693449e+001 3.508675e+001 6.685384e+001 3.268435e+001 7.201846e+001 5.763867e+001 3.256527e+001 3.619133e+001 1.696881e+001 2.267761e+001 6.081799e-001 1.412571e+000 3.799704e+000 1.596838e+000 1.090773e+000 2.554650e+000 4.221921e+000 1.965631e+000 1.866795e+000 2.378351e+000 1.594853e+000 1.090959e+000 8.087837e-001
<GCONST> 9.540829e+001
~s "ST_ih_4_3"
<MEAN> 25
 -1.041757e+000 -1.255004e+000 1.007573e+001 8.912825e+000 5.296028e+000 -7.188756e+000 -7.005652e+000 7.468365e+000 5.742173e+000 -6.924571e+000 -1.828432e+000 -5.749878e-001 -2.460293e-002 1.373970e-001 -9.516596e-001 -1.990906e-001 -4.092727e-001 4.676984e-001 4.587619e-001 -2.182519e-001 -3.025326e-001 6.673967e-001 2.889296e-003 2.314516e-001 -5.445727e-001
<VARIANCE> 25
 6.858403e+000 1.719734e+001 5.496706e+001 1.470802e+001 1.686940e+001 4.380936e+001 3.716105e+001 3.271186e+001 1.733066e+001 5.538684e+001 2.098720e+001 1.659746e+001 1.954163e-001 6.142792e-001 1.039705e+000 8.446144e-001 7.400141e-001 1.224396e+000 2.127177e+000 2.715918e+000 1.351906e+000 2.098299e+000 1.075158e+000 9.983625e-001 1.618596e-001
<GCONST> 8.253848e+001
~h "t+aa"
<BEGINHMM>
<NUMSTATES> 5
<STATE> 2
~s "ST_t_2_1"
<STATE> 3
~s "ST_t_3_1"
<STATE> 4
~s "ST_t_4_1"
~t "T_t"
<ENDHMM>
~h "b"
<BEGINHMM>
<NUMSTATES> 5
<STATE> 2
~s "ST_b_2_1"
<STATE> 3
~s "ST_b_3_1"
<STATE> 4
~s "ST_b_4_1"
~t "T_b"
<ENDHMM>
~h "c"
<BEGINHMM>
<NUMSTATES> 5
<STATE> 2
~s "ST_c_2_1"
<STATE> 3
~s "ST_c_3_1"
<STATE> 4
~s "ST_c_4_1"
~t "T_c"
<ENDHMM>
~h "d"
<BEGINHMM>
<NUMSTATES> 5
<STATE> 2
~s "ST_d_2_1"
<STATE> 3
~s "ST_d_3_1"
<STATE> 4
~s "ST_d_4_1"
~t "T_d"
<ENDHMM>
~h "g"
<BEGINHMM>
<NUMSTATES> 5
<STATE> 2
~s "ST_g_2_1"
<STATE> 3
~s "ST_g_3_1"
<STATE> 4
~s "ST_g_4_1"
~t "T_g"
<ENDHMM>
~h "h"
<BEGINHMM>
<NUMSTATES> 5
<STATE> 2
~s "ST_h_2_1"
<STATE> 3
~s "ST_h_3_1"
<STATE> 4
~s "ST_h_4_1"
~t "T_h"
<ENDHMM>
~h "j"
<BEGINHMM>
<NUMSTATES> 5
<STATE> 2
~s "ST_j_2_1"
<STATE> 3
~s "ST_j_3_1"
<STATE> 4
~s "ST_j_4_1"
~t "T_j"
<ENDHMM>
~h "k"
<BEGINHMM>
<NUMSTATES> 5
<STATE> 2
~s "ST_k_2_1"
<STATE> 3
~s "ST_k_3_1"
<STATE> 4
~s "ST_k_4_1"
~t "T_k"
<ENDHMM>
~h "l"
<BEGINHMM>
<NUMSTATES> 5
<STATE> 2
~s "ST_l_2_1"
<STATE> 3
~s "ST_l_3_1"
<STATE> 4
~s "ST_l_4_1"
~t "T_l"
<ENDHMM>
~h "m"
<BEGINHMM>
<NUMSTATES> 5
<STATE> 2
~s "ST_m_2_1"
<STATE> 3
~s "ST_m_3_1"
<STATE> 4
~s "ST_m_4_1"
~t "T_m"
<ENDHMM>
~h "n"
<BEGINHMM>
<NUMSTATES> 5
<STATE> 2
~s "ST_n_2_1"
<STATE> 3
~s "ST_n_3_1"
<STATE> 4
~s "ST_n_4_1"
~t "T_n"
<ENDHMM>
~h "o"
<BEGINHMM>
<NUMSTATES> 5
<STATE> 2
~s "ST_o_2_1"
<STATE> 3
~s "ST_o_3_1"
<STATE> 4
~s "ST_o_4_1"
~t "T_o"
<ENDHMM>
~h "p"
<BEGINHMM>
<NUMSTATES> 5
<STATE> 2
~s "ST_p_2_1"
<STATE> 3
~s "ST_p_3_1"
<STATE> 4
~s "ST_p_4_1"
~t "T_p"
<ENDHMM>
~h "r"
<BEGINHMM>
<NUMSTATES> 5
<STATE> 2
~s "ST_r_2_1"
<STATE> 3
~s "ST_r_3_1"
<STATE> 4
~s "ST_r_4_1"
~t "T_r"
<ENDHMM>
~h "s"
<BEGINHMM>
<NUMSTATES> 5
<STATE> 2
~s "ST_s_2_1"
<STATE> 3
~s "ST_s_3_1"
<STATE> 4
~s "ST_s_4_1"
~t "T_s"
<ENDHMM>
~h "w"
<BEGINHMM>
<NUMSTATES> 5
<STATE> 2
~s "ST_w_2_1"
<STATE> 3
~s "ST_w_3_1"
<STATE> 4
~s "ST_w_4_1"
~t "T_w"
<ENDHMM>
~h "y"
<BEGINHMM>
<NUMSTATES> 5
<STATE> 2
~s "ST_y_2_1"
<STATE> 3
~s "ST_y_3_1"
<STATE> 4
~s "ST_y_4_1"
~t "T_y"
<ENDHMM>
~h "t-ih"
<BEGINHMM>
<NUMSTATES> 5
<STATE> 2
~s "ST_ih_2_1"
<STATE> 3
~s "ST_ih_3_1"
<STATE> 4
~s "ST_ih_4_1"
~t "T_ih"
<ENDHMM>
~h "d-eh+l"
<BEGINHMM>
<NUMSTATES> 5
<STATE> 2
~s "ST_eh_2_2"
<STATE> 3
~s "ST_eh_3_1"
<STATE> 4
~s "ST_eh_4_2"
~t "T_eh"
<ENDHMM>
~h "t-uw"
<BEGINHMM>
<NUMSTATES> 5
<STATE> 2
~s "ST_uw_2_1"
<STATE> 3
~s "ST_uw_3_1"
<STATE> 4
~s "ST_uw_4_1"
~t "T_uw"
<ENDHMM>
~h "aa"
<BEGINHMM>
<NUMSTATES> 5
<STATE> 2
~s "ST_aa_2_1"
<STATE> 3
~s "ST_aa_3_1"
<STATE> 4
~s "ST_aa_4_3"
~t "T_aa"
<ENDHMM>
~h "ao"
<BEGINHMM>
<NUMSTATES> 5
<STATE> 2
~s "ST_ao_2_1"
<STATE> 3
~s "ST_ao_3_1"
<STATE> 4
~s "ST_ao_4_1"
~t "T_ao"
<ENDHMM>
~h "eh"
<BEGINHMM>
<NUMSTATES> 5
<STATE> 2
~s "ST_eh_2_1"
<STATE> 3
~s "ST_eh_3_1"
<STATE> 4
~s "ST_eh_4_1"
~t "T_eh"
<ENDHMM>
~h "hh"
<BEGINHMM>
<NUMSTATES> 5
<STATE> 2
~s "ST_hh_2_1"
<STATE> 3
~s "ST_hh_3_1"
<STATE> 4
~s "ST_hh_4_1"
~t "T_hh"
<ENDHMM>
~h "ng"
<BEGINHMM>
<NUMSTATES> 5
<STATE> 2
~s "ST_ng_2_1"
<STATE> 3
~s "ST_ng_3_1"
<STATE> 4
~s "ST_ng_4_1"
~t "T_ng"
<ENDHMM>
~h "oh"
<BEGINHMM>
<NUMSTATES> 5
<STATE> 2
~s "ST_oh_2_1"
<STATE> 3
~s "ST_oh_3_1"
<STATE> 4
~s "ST_oh_4_1"
~t "T_oh"
<ENDHMM>
~h "sp"
<BEGINHMM>
<NUMSTATES> 3
<STATE> 2
~s "ST_sil_3_1"
<TRANSP> 3
 0.000000e+000 1.403336e-002 9.859666e-001
 0.000000e+000 9.365597e-001 6.344033e-002
 0.000000e+000 0.000000e+000 0.000000e+000
<ENDHMM>
~h "aa-ng"
<BEGINHMM>
<NUMSTATES> 5
<STATE> 2
~s "ST_ng_2_1"
<STATE> 3
~s "ST_ng_3_1"
<STATE> 4
~s "ST_ng_4_2"
~t "T_ng"
<ENDHMM>
~h "ih-s+aa"
<BEGINHMM>
<NUMSTATES> 5
<STATE> 2
~s "ST_s_2_2"
<STATE> 3
~s "ST_s_3_1"
<STATE> 4
~s "ST_s_4_1"
~t "T_s"
<ENDHMM>
~h "l-eh+hh"
<BEGINHMM>
<NUMSTATES> 5
<STATE> 2
~s "ST_eh_2_2"
<STATE> 3
~s "ST_eh_3_1"
<STATE> 4
~s "ST_eh_4_1"
~t "T_eh"
<ENDHMM>
~h "aa-l+aa"
<BEGINHMM>
<NUMSTATES> 5
<STATE> 2
~s "ST_l_2_1"
<STATE> 3
~s "ST_l_3_1"
<STATE> 4
~s "ST_l_4_2"
~t "T_l"
<ENDHMM>
~h "m-aa+k"
<BEGINHMM>
<NUMSTATES> 5
<STATE> 2
~s "ST_aa_2_1"
<STATE> 3
~s "ST_aa_3_2"
<STATE> 4
~s "ST_aa_4_3"
~t "T_aa"
<ENDHMM>
~h "m-aa+l"
<BEGINHMM>
<NUMSTATES> 5
<STATE> 2
~s "ST_aa_2_1"
<STATE> 3
~s "ST_aa_3_2"
<STATE> 4
~s "ST_aa_4_4"
~t "T_aa"
<ENDHMM>
~h "m+ih"
<BEGINHMM>
<NUMSTATES> 5
<STATE> 2
~s "ST_m_2_1"
<STATE> 3
~s "ST_m_3_1"
<STATE> 4
~s "ST_m_4_3"
~t "T_m"
<ENDHMM>
~h "t-uw+k"
<BEGINHMM>
<NUMSTATES> 5
<STATE> 2
~s "ST_uw_2_1"
<STATE> 3
~s "ST_uw_3_1"
<STATE> 4
~s "ST_uw_4_2"
~t "T_uw"
<ENDHMM>
~h "eh-n+aa"
<BEGINHMM>
<NUMSTATES> 5
<STATE> 2
~s "ST_n_2_2"
<STATE> 3
~s "ST_n_3_1"
<STATE> 4
~s "ST_n_4_2"
~t "T_n"
<ENDHMM>
~h "s-aa+m"
<BEGINHMM>
<NUMSTATES> 5
<STATE> 2
~s "ST_aa_2_2"
<STATE> 3
~s "ST_aa_3_1"
<STATE> 4
~s "ST_aa_4_1"
~t "T_aa"
<ENDHMM>
~h "s-aa+y"
<BEGINHMM>
<NUMSTATES> 5
<STATE> 2
~s "ST_aa_2_2"
<STATE> 3
~s "ST_aa_3_1"
<STATE> 4
~s "ST_aa_4_2"
~t "T_aa"
<ENDHMM>
~h "y-aa+ng"
<BEGINHMM>
<NUMSTATES> 5
<STATE> 2
~s "ST_aa_2_3"
<STATE> 3
~s "ST_aa_3_1"
<STATE> 4
~s "ST_aa_4_3"
~t "T_aa"
<ENDHMM>
~h "n+aa"
<BEGINHMM>
<NUMSTATES> 5
<STATE> 2
~s "ST_n_2_1"
<STATE> 3
~s "ST_n_3_1"
<STATE> 4
~s "ST_n_4_2"
~t "T_n"
<ENDHMM>
~h "n-ih"
<BEGINHMM>
<NUMSTATES> 5
<STATE> 2
~s "ST_ih_2_1"
<STATE> 3
~s "ST_ih_3_1"
<STATE> 4
~s "ST_ih_4_3"
~t "T_ih"
<ENDHMM>
~h "d-ih+aa"
<BEGINHMM>
<NUMSTATES> 5
<STATE> 2
~s "ST_ih_2_1"
<STATE> 3
~s "ST_ih_3_2"
<STATE> 4
~s "ST_ih_4_1"
~t "T_ih"
<ENDHMM>
~h "ih-m+aa"
<BEGINHMM>
<NUMSTATES> 5
<STATE> 2
~s "ST_m_2_1"
<STATE> 3
~s "ST_m_3_1"
<STATE> 4
~s "ST_m_4_2"
~t "T_m"
<ENDHMM>
~h "eh-p+uw"
<BEGINHMM>
<NUMSTATES> 5
<STATE> 2
~s "ST_p_2_1"
<STATE> 3
~s "ST_p_3_1"
<STATE> 4
~s "ST_p_4_2"
~t "T_p"
<ENDHMM>
~h "sil"
<BEGINHMM>
<NUMSTATES> 5
<STATE> 2
~s "ST_sil_2_1"
<STATE> 3
~s "ST_sil_3_1"
<STATE> 4
~s "ST_sil_4_1"
<TRANSP> 5
 0.000000e+000 1.000000e+000 0.000000e+000 0.000000e+000 0.000000e+000
 0.000000e+000 8.625614e-001 3.708429e-002 1.003543e-001 0.000000e+000
 0.000000e+000 0.000000e+000 9.628999e-001 3.710014e-002 0.000000e+000
 0.000000e+000 3.262228e-003 0.000000e+000 9.518951e-001 4.484273e-002
 0.000000e+000 0.000000e+000 0.000000e+000 0.000000e+000 0.000000e+000
<ENDHMM>
~h "l-aa+m"
<BEGINHMM>
<NUMSTATES> 5
<STATE> 2
~s "ST_aa_2_1"
<STATE> 3
~s "ST_aa_3_1"
<STATE> 4
~s "ST_aa_4_4"
~t "T_aa"
<ENDHMM>
~h "ng-ih+n"
<BEGINHMM>
<NUMSTATES> 5
<STATE> 2
~s "ST_ih_2_1"
<STATE> 3
~s "ST_ih_3_1"
<STATE> 4
~s "ST_ih_4_2"
~t "T_ih"
<ENDHMM>
~h "eh-m+b"
<BEGINHMM>
<NUMSTATES> 5
<STATE> 2
~s "ST_m_2_1"
<STATE> 3
~s "ST_m_3_2"
<STATE> 4
~s "ST_m_4_2"
~t "T_m"
<ENDHMM>
~h "aa-r+ih"
<BEGINHMM>
<NUMSTATES> 5
<STATE> 2
~s "ST_r_2_1"
<STATE> 3
~s "ST_r_3_2"
<STATE> 4
~s "ST_r_4_1"
~t "T_r"
<ENDHMM>
~h "aa-n+t"
<BEGINHMM>
<NUMSTATES> 5
<STATE> 2
~s "ST_n_2_2"
<STATE> 3
~s "ST_n_3_1"
<STATE> 4
~s "ST_n_4_1"
~t "T_n"
<ENDHMM>
~h "aa+y"
<BEGINHMM>
<NUMSTATES> 5
<STATE> 2
~s "ST_aa_2_1"
<STATE> 3
~s "ST_aa_3_1"
<STATE> 4
~s "ST_aa_4_2"
~t "T_aa"
<ENDHMM>
