~o
<STREAMINFO> 1 25
<VECSIZE> 25<NULLD><MFCC_D_N_Z_0><DIAGC>
~t "T_b"
<TRANSP> 5
 0.000000e+000 1.000000e+000 0.000000e+000 0.000000e+000 0.000000e+000
 0.000000e+000 7.738046e-001 2.261954e-001 0.000000e+000 0.000000e+000
 0.000000e+000 0.000000e+000 7.383985e-001 2.616015e-001 0.000000e+000
 0.000000e+000 0.000000e+000 0.000000e+000 7.732873e-001 2.267127e-001
 0.000000e+000 0.000000e+000 0.000000e+000 0.000000e+000 0.000000e+000
~t "T_c"
<TRANSP> 5
 0.000000e+000 1.000000e+000 0.000000e+000 0.000000e+000 0.000000e+000
 0.000000e+000 6.000000e-001 4.000000e-001 0.000000e+000 0.000000e+000
 0.000000e+000 0.000000e+000 6.000000e-001 4.000000e-001 0.000000e+000
 0.000000e+000 0.000000e+000 0.000000e+000 7.000000e-001 3.000000e-001
 0.000000e+000 0.000000e+000 0.000000e+000 0.000000e+000 0.000000e+000
~t "T_d"
<TRANSP> 5
 0.000000e+000 1.000000e+000 0.000000e+000 0.000000e+000 0.000000e+000
 0.000000e+000 9.092699e-001 9.073010e-002 0.000000e+000 0.000000e+000
 0.000000e+000 0.000000e+000 6.470498e-001 3.529502e-001 0.000000e+000
 0.000000e+000 0.000000e+000 0.000000e+000 8.607377e-001 1.392623e-001
 0.000000e+000 0.000000e+000 0.000000e+000 0.000000e+000 0.000000e+000
~t "T_g"
<TRANSP> 5
 0.000000e+000 1.000000e+000 0.000000e+000 0.000000e+000 0.000000e+000
 0.000000e+000 7.114329e-001 2.885671e-001 0.000000e+000 0.000000e+000
 0.000000e+000 0.000000e+000 5.887548e-001 4.112453e-001 0.000000e+000
 0.000000e+000 0.000000e+000 0.000000e+000 3.364392e-001 6.635609e-001
 0.000000e+000 0.000000e+000 0.000000e+000 0.000000e+000 0.000000e+000
~t "T_h"
<TRANSP> 5
 0.000000e+000 1.000000e+000 0.000000e+000 0.000000e+000 0.000000e+000
 0.000000e+000 9.090917e-001 9.090831e-002 0.000000e+000 0.000000e+000
 0.000000e+000 0.000000e+000 4.999954e-001 5.000046e-001 0.000000e+000
 0.000000e+000 0.000000e+000 0.000000e+000 6.193221e-001 3.806779e-001
 0.000000e+000 0.000000e+000 0.000000e+000 0.000000e+000 0.000000e+000
~t "T_j"
<TRANSP> 5
 0.000000e+000 1.000000e+000 0.000000e+000 0.000000e+000 0.000000e+000
 0.000000e+000 8.935295e-001 1.064705e-001 0.000000e+000 0.000000e+000
 0.000000e+000 0.000000e+000 8.514820e-001 1.485180e-001 0.000000e+000
 0.000000e+000 0.000000e+000 0.000000e+000 9.211600e-001 7.884004e-002
 0.000000e+000 0.000000e+000 0.000000e+000 0.000000e+000 0.000000e+000
~t "T_k"
<TRANSP> 5
 0.000000e+000 1.000000e+000 0.000000e+000 0.000000e+000 0.000000e+000
 0.000000e+000 6.970055e-001 3.029944e-001 0.000000e+000 0.000000e+000
 0.000000e+000 0.000000e+000 6.388872e-001 3.611128e-001 0.000000e+000
 0.000000e+000 0.000000e+000 0.000000e+000 8.337713e-001 1.662287e-001
 0.000000e+000 0.000000e+000 0.000000e+000 0.000000e+000 0.000000e+000
~t "T_l"
<TRANSP> 5
 0.000000e+000 1.000000e+000 0.000000e+000 0.000000e+000 0.000000e+000
 0.000000e+000 6.454453e-001 3.545546e-001 0.000000e+000 0.000000e+000
 0.000000e+000 0.000000e+000 8.192887e-001 1.807113e-001 0.000000e+000
 0.000000e+000 0.000000e+000 0.000000e+000 8.501083e-001 1.498917e-001
 0.000000e+000 0.000000e+000 0.000000e+000 0.000000e+000 0.000000e+000
~t "T_m"
<TRANSP> 5
 0.000000e+000 1.000000e+000 0.000000e+000 0.000000e+000 0.000000e+000
 0.000000e+000 7.235047e-001 2.764953e-001 0.000000e+000 0.000000e+000
 0.000000e+000 0.000000e+000 8.172172e-001 1.827828e-001 0.000000e+000
 0.000000e+000 0.000000e+000 0.000000e+000 9.483674e-001 5.163267e-002
 0.000000e+000 0.000000e+000 0.000000e+000 0.000000e+000 0.000000e+000
~t "T_n"
<TRANSP> 5
 0.000000e+000 1.000000e+000 0.000000e+000 0.000000e+000 0.000000e+000
 0.000000e+000 7.492296e-001 2.507704e-001 0.000000e+000 0.000000e+000
 0.000000e+000 0.000000e+000 7.908857e-001 2.091143e-001 0.000000e+000
 0.000000e+000 0.000000e+000 0.000000e+000 9.411898e-001 5.881023e-002
 0.000000e+000 0.000000e+000 0.000000e+000 0.000000e+000 0.000000e+000
~t "T_p"
<TRANSP> 5
 0.000000e+000 1.000000e+000 0.000000e+000 0.000000e+000 0.000000e+000
 0.000000e+000 6.752144e-001 3.247857e-001 0.000000e+000 0.000000e+000
 0.000000e+000 0.000000e+000 8.414830e-001 1.585170e-001 0.000000e+000
 0.000000e+000 0.000000e+000 0.000000e+000 9.549083e-001 4.509173e-002
 0.000000e+000 0.000000e+000 0.000000e+000 0.000000e+000 0.000000e+000
~t "T_r"
<TRANSP> 5
 0.000000e+000 1.000000e+000 0.000000e+000 0.000000e+000 0.000000e+000
 0.000000e+000 7.622408e-001 2.377592e-001 0.000000e+000 0.000000e+000
 0.000000e+000 0.000000e+000 7.581303e-001 2.418697e-001 0.000000e+000
 0.000000e+000 0.000000e+000 0.000000e+000 8.091682e-001 1.908319e-001
 0.000000e+000 0.000000e+000 0.000000e+000 0.000000e+000 0.000000e+000
~t "T_s"
<TRANSP> 5
 0.000000e+000 1.000000e+000 0.000000e+000 0.000000e+000 0.000000e+000
 0.000000e+000 7.701803e-001 2.298197e-001 0.000000e+000 0.000000e+000
 0.000000e+000 0.000000e+000 7.652157e-001 2.347843e-001 0.000000e+000
 0.000000e+000 0.000000e+000 0.000000e+000 7.390898e-001 2.609102e-001
 0.000000e+000 0.000000e+000 0.000000e+000 0.000000e+000 0.000000e+000
~t "T_t"
<TRANSP> 5
 0.000000e+000 1.000000e+000 0.000000e+000 0.000000e+000 0.000000e+000
 0.000000e+000 7.170335e-001 2.829665e-001 0.000000e+000 0.000000e+000
 0.000000e+000 0.000000e+000 6.716117e-001 3.283883e-001 0.000000e+000
 0.000000e+000 0.000000e+000 0.000000e+000 8.405614e-001 1.594386e-001
 0.000000e+000 0.000000e+000 0.000000e+000 0.000000e+000 0.000000e+000
~t "T_w"
<TRANSP> 5
 0.000000e+000 1.000000e+000 0.000000e+000 0.000000e+000 0.000000e+000
 0.000000e+000 8.395900e-001 1.604100e-001 0.000000e+000 0.000000e+000
 0.000000e+000 0.000000e+000 8.429203e-001 1.570798e-001 0.000000e+000
 0.000000e+000 0.000000e+000 0.000000e+000 9.329132e-001 6.708676e-002
 0.000000e+000 0.000000e+000 0.000000e+000 0.000000e+000 0.000000e+000
~t "T_y"
<TRANSP> 5
 0.000000e+000 1.000000e+000 0.000000e+000 0.000000e+000 0.000000e+000
 0.000000e+000 6.469424e-001 3.530576e-001 0.000000e+000 0.000000e+000
 0.000000e+000 0.000000e+000 7.315270e-001 2.684730e-001 0.000000e+000
 0.000000e+000 0.000000e+000 0.000000e+000 8.428326e-001 1.571674e-001
 0.000000e+000 0.000000e+000 0.000000e+000 0.000000e+000 0.000000e+000
~t "T_aa"
<TRANSP> 5
 0.000000e+000 1.000000e+000 0.000000e+000 0.000000e+000 0.000000e+000
 0.000000e+000 7.523890e-001 2.476110e-001 0.000000e+000 0.000000e+000
 0.000000e+000 0.000000e+000 8.359415e-001 1.640585e-001 0.000000e+000
 0.000000e+000 0.000000e+000 0.000000e+000 8.334069e-001 1.665931e-001
 0.000000e+000 0.000000e+000 0.000000e+000 0.000000e+000 0.000000e+000
~t "T_ao"
<TRANSP> 5
 0.000000e+000 1.000000e+000 0.000000e+000 0.000000e+000 0.000000e+000
 0.000000e+000 5.861285e-001 4.138715e-001 0.000000e+000 0.000000e+000
 0.000000e+000 0.000000e+000 7.769901e-001 2.230100e-001 0.000000e+000
 0.000000e+000 0.000000e+000 0.000000e+000 8.267411e-001 1.732589e-001
 0.000000e+000 0.000000e+000 0.000000e+000 0.000000e+000 0.000000e+000
~t "T_eh"
<TRANSP> 5
 0.000000e+000 1.000000e+000 0.000000e+000 0.000000e+000 0.000000e+000
 0.000000e+000 5.928737e-001 4.071263e-001 0.000000e+000 0.000000e+000
 0.000000e+000 0.000000e+000 7.304119e-001 2.695881e-001 0.000000e+000
 0.000000e+000 0.000000e+000 0.000000e+000 6.538443e-001 3.461558e-001
 0.000000e+000 0.000000e+000 0.000000e+000 0.000000e+000 0.000000e+000
~t "T_hh"
<TRANSP> 5
 0.000000e+000 1.000000e+000 0.000000e+000 0.000000e+000 0.000000e+000
 0.000000e+000 8.027878e-001 1.972122e-001 0.000000e+000 0.000000e+000
 0.000000e+000 0.000000e+000 8.334862e-001 1.665138e-001 0.000000e+000
 0.000000e+000 0.000000e+000 0.000000e+000 9.658022e-001 3.419780e-002
 0.000000e+000 0.000000e+000 0.000000e+000 0.000000e+000 0.000000e+000
~t "T_ih"
<TRANSP> 5
 0.000000e+000 1.000000e+000 0.000000e+000 0.000000e+000 0.000000e+000
 0.000000e+000 7.781082e-001 2.218918e-001 0.000000e+000 0.000000e+000
 0.000000e+000 0.000000e+000 7.774692e-001 2.225308e-001 0.000000e+000
 0.000000e+000 0.000000e+000 0.000000e+000 8.603219e-001 1.396782e-001
 0.000000e+000 0.000000e+000 0.000000e+000 0.000000e+000 0.000000e+000
~t "T_ng"
<TRANSP> 5
 0.000000e+000 1.000000e+000 0.000000e+000 0.000000e+000 0.000000e+000
 0.000000e+000 7.155893e-001 2.844107e-001 0.000000e+000 0.000000e+000
 0.000000e+000 0.000000e+000 8.339348e-001 1.660652e-001 0.000000e+000
 0.000000e+000 0.000000e+000 0.000000e+000 9.432091e-001 5.679098e-002
 0.000000e+000 0.000000e+000 0.000000e+000 0.000000e+000 0.000000e+000
~t "T_oh"
<TRANSP> 5
 0.000000e+000 1.000000e+000 0.000000e+000 0.000000e+000 0.000000e+000
 0.000000e+000 6.000000e-001 4.000000e-001 0.000000e+000 0.000000e+000
 0.000000e+000 0.000000e+000 6.000000e-001 4.000000e-001 0.000000e+000
 0.000000e+000 0.000000e+000 0.000000e+000 7.000000e-001 3.000000e-001
 0.000000e+000 0.000000e+000 0.000000e+000 0.000000e+000 0.000000e+000
~t "T_uw"
<TRANSP> 5
 0.000000e+000 1.000000e+000 0.000000e+000 0.000000e+000 0.000000e+000
 0.000000e+000 7.820528e-001 2.179472e-001 0.000000e+000 0.000000e+000
 0.000000e+000 0.000000e+000 8.542030e-001 1.457970e-001 0.000000e+000
 0.000000e+000 0.000000e+000 0.000000e+000 8.496843e-001 1.503157e-001
 0.000000e+000 0.000000e+000 0.000000e+000 0.000000e+000 0.000000e+000
~s "ST_aa_2_1"
<MEAN> 25
 2.382741e+000 -3.671558e+000 -2.098996e+000 -1.641901e+000 7.395416e-002 -9.288415e-001 1.042511e+000 -7.171727e-001 -2.391850e-001 -1.284522e+000 8.014368e-001 -2.051355e-001 1.165941e+000 -2.091249e+000 -7.383305e-001 -7.088025e-001 1.120812e-001 5.397329e-002 5.094054e-001 -3.417257e-001 -6.779583e-001 -7.267708e-001 -3.869869e-001 -2.129974e-001 1.921565e+000
<VARIANCE> 25
 3.781932e+001 1.404093e+002 4.820124e+001 8.041530e+001 8.216642e+001 5.798492e+001 9.277285e+001 7.151402e+001 6.445097e+001 5.816207e+001 6.475418e+001 4.191405e+001 3.674157e+000 8.914245e+000 5.019072e+000 7.567135e+000 8.451854e+000 6.033365e+000 8.654293e+000 7.179074e+000 6.388708e+000 6.313125e+000 6.716314e+000 4.495865e+000 4.729478e+000
<GCONST> 1.200369e+002
~s "ST_aa_2_2"
<MEAN> 25
 3.509361e+000 -1.077882e+001 6.514987e+000 -7.453675e+000 -4.698998e+000 -4.638196e+000 7.275143e-001 -5.011019e+000 -1.970808e+000 2.799049e+000 2.197997e+000 -2.941021e+000 7.260064e-001 -1.587132e+000 -2.093922e+000 7.326597e-002 -2.276710e-001 1.109181e+000 1.885484e+000 8.590620e-001 -5.976471e-001 -7.619992e-001 2.340226e-001 4.343750e-001 5.406851e-001
<VARIANCE> 25
 1.797561e+001 1.332923e+002 4.112859e+001 1.092886e+002 1.120647e+002 5.407888e+001 1.663387e+002 3.215250e+001 4.686737e+001 5.923188e+001 6.023814e+001 2.635755e+001 5.771669e-001 2.443946e+000 2.398624e+000 7.706314e+000 7.048918e+000 3.273779e+000 1.018088e+001 4.161479e+000 2.369005e+000 4.661942e+000 3.460830e+000 3.832663e+000 5.112939e-001
<GCONST> 1.091943e+002
~s "ST_aa_3_1"
<MEAN> 25
 7.073098e+000 -1.505227e+001 -7.421268e+000 3.222622e+000 -1.653381e+000 2.203268e+000 6.967072e+000 -3.285293e+000 -5.365751e+000 1.603306e+000 8.342750e-002 -3.296458e+000 5.616291e-003 7.076523e-001 -1.907677e-001 1.243060e-001 2.502307e-001 3.314040e-001 -6.579694e-002 -1.712808e-001 -1.129224e-001 -7.643465e-002 -1.302491e-001 1.993678e-001 -5.944422e-001
<VARIANCE> 25
 1.676033e+001 1.071484e+002 4.089953e+001 8.375956e+001 6.798676e+001 5.051667e+001 7.051469e+001 6.995200e+001 4.370467e+001 6.420129e+001 7.045769e+001 5.352882e+001 7.580712e-001 2.462703e+000 1.822148e+000 4.081951e+000 2.929545e+000 2.812355e+000 4.309440e+000 3.775717e+000 2.642152e+000 3.325660e+000 3.905851e+000 2.878180e+000 1.160839e+000
<GCONST> 1.066704e+002
~s "ST_aa_3_2"
<MEAN> 25
 6.111095e+000 -5.190895e+000 -4.709143e+000 -3.507706e+000 3.661835e+000 2.854587e+000 3.983793e-001 -2.253073e+000 5.420760e-001 -7.244299e+000 -6.245608e+000 -1.052975e+000 -2.853040e-001 2.294725e-001 -2.512374e-001 9.974309e-001 -2.952791e-001 2.083321e-001 -7.411741e-002 -4.469663e-002 -5.200900e-001 7.730638e-001 -6.093772e-002 3.115073e-001 -1.234361e+000
<VARIANCE> 25
 2.021497e+001 2.859852e+001 2.814355e+001 8.372349e+001 4.581972e+001 2.606351e+001 1.044735e+002 4.236610e+001 4.851604e+001 3.307001e+001 3.201653e+001 2.747517e+001 1.120926e+000 2.083161e+000 1.431645e+000 1.751792e+000 1.939209e+000 1.881225e+000 4.291549e+000 2.398279e+000 2.651726e+000 4.023808e+000 2.423137e+000 1.772562e+000 1.628154e+000
<GCONST> 9.941761e+001
~s "ST_aa_4_1"
<MEAN> 25
 7.715461e+000 -6.923716e+000 -4.852288e+000 -6.075228e+000 -1.445649e-001 -6.068620e-001 -7.830071e-001 -2.260108e+000 -3.903496e+000 -7.444398e+000 -3.143601e+000 2.598942e+000 -1.058565e-001 4.499970e-001 2.964903e-001 7.539937e-002 -1.884234e-001 -2.333006e-001 -1.791060e-001 6.047010e-002 2.312472e-002 -2.563237e-002 2.514125e-001 -2.465696e-001 -2.603941e-001
<VARIANCE> 25
 2.435489e+001 8.777323e+001 2.853475e+001 5.193388e+001 3.660488e+001 3.057495e+001 6.012619e+001 2.343497e+001 3.475121e+001 3.239325e+001 4.774083e+001 2.785048e+001 2.959578e-001 1.046688e+000 1.050127e+000 1.246294e+000 2.152067e+000 1.716113e+000 1.860209e+000 1.855213e+000 1.483717e+000 2.003745e+000 1.498089e+000 1.361712e+000 2.771264e-001
<GCONST> 9.156693e+001
~s "ST_aa_4_2"
<MEAN> 25
 2.731000e+000 -1.758059e+000 -3.489036e+000 -5.598450e+000 1.470459e+000 1.189920e+000 3.758627e+000 -1.380955e+000 -1.580663e+000 -2.435608e+000 1.779896e+000 1.775079e+000 -1.300537e-001 4.116099e-001 1.220054e-002 -6.278371e-002 -1.844825e-001 1.350247e-002 7.838132e-002 2.175699e-001 -2.205973e-002 -4.338986e-002 -1.108001e-001 1.193773e-001 -3.670726e-001
<VARIANCE> 25
 1.702637e+001 1.176190e+002 3.017762e+001 6.207541e+001 4.174100e+001 4.920042e+001 5.781292e+001 3.208792e+001 2.921227e+001 5.878992e+001 5.427230e+001 3.239408e+001 2.478354e-001 9.534037e-001 8.180894e-001 1.213069e+000 1.190819e+000 1.475856e+000 1.611513e+000 1.666613e+000 1.435097e+000 1.940850e+000 1.670541e+000 1.235676e+000 2.932386e-001
<GCONST> 9.178208e+001
~s "ST_s_2_1"
<MEAN> 25
 -4.193664e+000 5.487250e+000 -4.420226e+000 2.403023e-001 -1.935523e-001 -3.465587e+000 7.337430e+000 -2.422333e+000 -7.615372e+000 3.444915e-001 3.927374e+000 -9.793568e-001 -1.000729e+000 4.011139e-001 -5.421499e-002 -1.305489e-001 1.637103e-001 4.243465e-001 3.504964e-001 -1.414854e-001 1.191267e-001 7.654669e-001 7.340948e-001 -1.901441e-001 -1.775263e-001
<VARIANCE> 25
 4.370404e+001 4.811641e+001 3.970431e+001 4.453782e+001 5.457278e+001 5.834479e+001 6.541787e+001 5.650998e+001 7.551566e+001 6.985446e+001 3.777367e+001 6.703396e+001 1.918795e+000 3.159333e+000 2.172120e+000 2.573990e+000 2.634005e+000 3.864776e+000 4.467117e+000 3.734574e+000 4.773145e+000 4.313370e+000 3.669153e+000 3.434551e+000 6.934352e-001
<GCONST> 1.076150e+002
~s "ST_s_3_1"
<MEAN> 25
 -1.211014e+001 -1.127378e+001 1.347143e+001 -1.338537e+001 1.054946e+000 5.893665e+000 1.265589e+000 -5.688061e+000 1.914946e+000 4.478064e+000 3.810934e+000 1.960716e+000 -4.105462e-001 -8.008926e-001 6.558378e-001 -6.868370e-001 -9.083701e-003 -2.557502e-001 -6.290911e-001 -9.407540e-002 7.128801e-002 -2.007637e-001 -1.577987e-001 1.031154e-001 5.319639e-001
<VARIANCE> 25
 5.712138e+001 1.339890e+002 1.175935e+002 1.135398e+002 1.053842e+002 5.709000e+001 6.777464e+001 5.336235e+001 5.099319e+001 4.227564e+001 3.279699e+001 2.682516e+001 7.349563e+000 3.329384e+000 8.894071e+000 6.723900e+000 5.164428e+000 3.907164e+000 4.605640e+000 4.043215e+000 3.548503e+000 2.884233e+000 2.458561e+000 3.013568e+000 1.690395e+000
<GCONST> 1.138112e+002
~s "ST_s_4_1"
<MEAN> 25
 -6.110052e+000 4.647930e+000 -2.357853e-001 -2.218526e+000 -4.626954e-001 5.918199e-001 1.195160e+000 2.589651e+000 1.886475e+000 3.110984e+000 2.402408e+000 3.188998e-001 8.162607e-001 3.838199e-002 3.617637e-002 8.775682e-003 -2.855898e-001 -3.329442e-001 -2.225992e-001 2.183936e-001 -1.612016e-001 -3.696437e-001 -2.744771e-001 1.589048e-001 7.996675e-002
<VARIANCE> 25
 2.606898e+001 1.078301e+002 3.632720e+001 3.199308e+001 3.841714e+001 3.274718e+001 4.444000e+001 4.481517e+001 3.311444e+001 2.965926e+001 2.275009e+001 1.862053e+001 2.870204e+000 1.207214e+000 2.090970e+000 2.798907e+000 2.403738e+000 2.200128e+000 3.116013e+000 2.976048e+000 2.240363e+000 3.057232e+000 2.363952e+000 2.213880e+000 4.605093e-001
<GCONST> 9.832495e+001
~s "ST_oh_2_1"
<MEAN> 25
 4.492237e-008 5.845701e-009 -1.328185e-007 -1.974899e-008 8.013701e-008 5.326083e-008 -2.952693e-008 -7.096470e-008 9.339078e-009 -1.337489e-007 6.334598e-008 -5.331350e-008 -9.746574e-004 8.824667e-003 5.857049e-003 -6.106692e-003 1.834674e-003 2.140600e-003 6.438790e-003 2.552634e-004 2.233275e-003 1.652292e-004 -2.947775e-004 1.625022e-004 1.768339e-002
<VARIANCE> 25
 5.093745e+001 1.386368e+002 7.180528e+001 8.644808e+001 6.100111e+001 5.655713e+001 7.255057e+001 5.467440e+001 5.467830e+001 5.295312e+001 4.155158e+001 3.905978e+001 1.136743e+000 2.774379e+000 2.153254e+000 3.157753e+000 2.791123e+000 2.802559e+000 3.391059e+000 2.977390e+000 2.833076e+000 2.917275e+000 2.609103e+000 2.223614e+000 1.691524e+000
<GCONST> 1.071680e+002
~s "ST_oh_3_1"
<MEAN> 25
 4.492237e-008 5.845701e-009 -1.328185e-007 -1.974899e-008 8.013701e-008 5.326083e-008 -2.952693e-008 -7.096470e-008 9.339078e-009 -1.337489e-007 6.334598e-008 -5.331350e-008 -9.746575e-004 8.824667e-003 5.857049e-003 -6.106692e-003 1.834674e-003 2.140600e-003 6.438790e-003 2.552634e-004 2.233275e-003 1.652292e-004 -2.947775e-004 1.625022e-004 1.768339e-002
<VARIANCE> 25
 5.093745e+001 1.386368e+002 7.180528e+001 8.644808e+001 6.100111e+001 5.655713e+001 7.255057e+001 5.467440e+001 5.467830e+001 5.295312e+001 4.155158e+001 3.905978e+001 1.136743e+000 2.774379e+000 2.153254e+000 3.157753e+000 2.791123e+000 2.802559e+000 3.391059e+000 2.977390e+000 2.833076e+000 2.917275e+000 2.609103e+000 2.223614e+000 1.691524e+000
<GCONST> 1.071680e+002
~s "ST_oh_4_1"
<MEAN> 25
 4.492237e-008 5.845701e-009 -1.328185e-007 -1.974899e-008 8.013701e-008 5.326083e-008 -2.952693e-008 -7.096470e-008 9.339078e-009 -1.337489e-007 6.334598e-008 -5.331350e-008 -9.746575e-004 8.824667e-003 5.857049e-003 -6.106692e-003 1.834674e-003 2.140600e-003 6.438790e-003 2.552634e-004 2.233275e-003 1.652292e-004 -2.947775e-004 1.625022e-004 1.768339e-002
<VARIANCE> 25
 5.093745e+001 1.386368e+002 7.180528e+001 8.644808e+001 6.100111e+001 5.655713e+001 7.255057e+001 5.467440e+001 5.467830e+001 5.295312e+001 4.155158e+001 3.905978e+001 1.136743e+000 2.774379e+000 2.153254e+000 3.157753e+000 2.791123e+000 2.802559e+000 3.391059e+000 2.977390e+000 2.833076e+000 2.917275e+000 2.609103e+000 2.223614e+000 1.691524e+000
<GCONST> 1.071680e+002
~s "ST_l_2_1"
<MEAN> 25
 1.367878e-001 4.575579e-001 1.144037e+000 2.123278e-001 2.247241e-001 -6.020090e+000 -3.524959e+000 -5.488037e-002 5.516369e+000 -2.401042e+000 -2.100362e+000 1.459046e+000 1.487827e-001 -1.535107e+000 4.556516e-001 5.507784e-001 -4.121830e-002 -1.366637e+000 -3.042017e-002 3.914072e-001 -5.032854e-002 -7.702115e-003 -3.506473e-001 -1.788401e-001 9.712179e-001
<VARIANCE> 25
 4.939468e+001 1.640314e+002 7.169376e+001 1.348907e+002 9.306200e+001 1.154592e+002 8.844830e+001 9.554723e+001 7.535789e+001 7.263886e+001 5.201168e+001 5.972746e+001 2.062373e+000 1.148265e+001 3.984459e+000 1.232073e+001 9.911800e+000 1.284335e+001 9.231799e+000 9.657994e+000 5.667331e+000 6.568028e+000 9.297924e+000 5.641447e+000 2.817309e+000
<GCONST> 1.241049e+002
~s "ST_l_3_1"
<MEAN> 25
 2.094172e+000 -1.596448e+001 7.939555e+000 6.802418e+000 3.747591e-001 -8.002446e+000 -6.243412e+000 4.906395e+000 -9.261746e-001 -1.394400e+000 -2.887615e+000 -4.310187e+000 2.023094e-001 2.948810e-001 -3.526756e-001 -2.736497e-001 -4.466708e-001 1.475487e-001 3.721721e-001 3.884021e-002 -1.417463e-001 1.545734e-001 1.347706e-002 1.908206e-002 -1.683595e-001
<VARIANCE> 25
 2.423276e+001 1.195557e+002 1.014400e+002 1.710521e+002 1.468276e+002 1.111086e+002 1.341967e+002 1.033295e+002 8.880453e+001 9.323763e+001 4.787621e+001 5.274740e+001 9.759094e-001 2.944795e+000 4.309921e+000 7.721479e+000 6.760467e+000 5.343185e+000 7.290340e+000 6.678061e+000 3.671748e+000 5.138341e+000 3.554131e+000 4.433991e+000 1.250017e+000
<GCONST> 1.177234e+002
~s "ST_l_4_1"
<MEAN> 25
 6.118118e+000 -9.387888e+000 -2.233679e+000 -1.697649e-001 -5.851106e+000 -3.525379e+000 9.774331e-001 1.935499e+000 3.042500e+000 3.594941e-001 -1.687185e+000 -2.055550e+000 -1.329494e-001 3.397394e-001 -3.590774e-001 -9.968920e-002 2.033351e-001 2.702399e-001 3.288563e-001 1.762385e-001 1.659244e-001 1.887846e-001 -2.026378e-002 2.544234e-001 -3.377411e-001
<VARIANCE> 25
 1.580468e+001 1.222835e+002 3.077046e+001 6.645661e+001 6.340984e+001 1.036068e+002 7.065897e+001 8.477028e+001 7.052959e+001 5.123223e+001 4.083286e+001 5.019994e+001 5.537191e-001 1.953562e+000 1.467765e+000 2.660543e+000 2.774051e+000 3.393612e+000 2.923446e+000 2.957721e+000 3.859212e+000 2.171812e+000 2.416426e+000 2.203788e+000 8.066260e-001
<GCONST> 1.038664e+002
~s "ST_y_2_1"
<MEAN> 25
 2.823136e-001 -6.830077e+000 6.919833e+000 -7.481702e+000 -2.912485e+000 -1.423644e+000 1.913798e+000 -7.285128e+000 -1.592177e+000 2.948099e+000 -1.014762e+000 -1.023860e-001 -1.035941e+000 1.955364e-001 2.075127e+000 -1.070971e+000 1.046214e+000 -4.906294e-001 -1.479154e+000 -4.730224e-001 7.666396e-001 7.771614e-001 -1.167107e-001 3.579446e-001 3.656579e-001
<VARIANCE> 25
 5.485807e+001 1.287810e+002 7.471441e+001 1.059733e+002 1.147855e+002 7.490050e+001 1.002610e+002 4.310758e+001 7.442672e+001 7.879963e+001 4.189008e+001 3.637039e+001 3.683910e+000 7.826830e+000 6.323522e+000 6.660563e+000 8.986255e+000 7.160061e+000 9.371378e+000 6.497247e+000 5.239440e+000 6.997741e+000 4.254279e+000 4.019517e+000 2.743112e+000
<GCONST> 1.200481e+002
~s "ST_y_3_1"
<MEAN> 25
 -7.353784e+000 -1.120736e+001 1.625096e+001 -1.322037e+001 3.453338e+000 -1.564220e+000 -5.156456e+000 -7.542483e+000 1.464018e+000 3.659741e+000 -1.655704e+000 1.256516e+000 3.445177e-001 3.348341e-001 2.937641e-001 7.998210e-001 -7.929844e-002 -6.463689e-001 -7.626009e-001 5.725966e-002 -1.469638e-001 -2.796688e-001 -2.239112e-001 -8.802072e-001 -1.846993e-001
<VARIANCE> 25
 1.355883e+002 1.737735e+002 9.566373e+001 1.102291e+002 1.850732e+002 6.462655e+001 5.171806e+001 4.393166e+001 6.101043e+001 2.478658e+001 4.030082e+001 5.794112e+001 3.394830e+000 2.101747e+000 2.940171e+000 5.461287e+000 4.165452e+000 2.979414e+000 4.010036e+000 3.311462e+000 2.756709e+000 3.496019e+000 2.963570e+000 3.930720e+000 8.134921e-001
<GCONST> 1.118330e+002
~s "ST_y_4_1"
<MEAN> 25
 1.366155e+000 -1.036469e+001 1.336128e+001 8.750835e+000 5.725355e+000 -1.210275e+001 -1.098015e+001 -1.185718e+000 -2.000913e-001 -3.315420e+000 6.000558e-001 -1.037263e+001 1.037460e-001 1.876158e-002 -9.566471e-002 -1.365986e-001 -4.654761e-002 -2.607784e-001 -3.411693e-002 -6.584435e-002 1.482017e-001 8.125761e-003 4.895958e-001 2.196208e-001 1.722836e-001
<VARIANCE> 25
 9.702697e+000 1.022226e+002 8.216476e+001 1.087006e+002 4.706909e+001 4.833288e+001 5.781815e+001 6.288369e+001 5.472529e+001 5.594002e+001 4.568428e+001 3.561140e+001 3.750638e-001 3.997624e-001 2.711028e+000 4.326062e+000 1.469392e+000 2.071039e+000 3.381372e+000 2.789329e+000 2.429203e+000 3.607012e+000 2.926397e+000 2.432220e+000 5.585692e-001
<GCONST> 1.007652e+002
~s "ST_b_2_1"
<MEAN> 25
 -1.124066e+000 7.439881e+000 1.096941e+001 -6.103610e+000 -7.879289e+000 1.828444e+000 5.652877e+000 -1.169214e+001 -1.507257e+000 3.466946e+000 -2.873319e+000 3.198424e+000 -1.083635e+000 -1.376940e+000 1.571294e+000 -1.453383e+000 -3.680430e-001 -6.525926e-002 7.418594e-001 -5.803441e-001 1.568103e-001 8.373702e-001 4.971073e-001 -6.612201e-001 1.290560e+000
<VARIANCE> 25
 5.172969e+001 4.758438e+001 1.381845e+002 1.630947e+002 5.184209e+001 1.239466e+002 2.542671e+002 1.213362e+002 7.144952e+001 7.570524e+001 6.088894e+001 6.413218e+001 2.584764e+000 8.136558e+000 1.158952e+001 1.324614e+001 6.515178e+000 1.004526e+001 1.570121e+001 1.020805e+001 8.448874e+000 4.840246e+000 6.457761e+000 4.591884e+000 1.837175e+000
<GCONST> 1.247960e+002
~s "ST_b_3_1"
<MEAN> 25
 -7.102563e+000 -1.220567e+001 1.312547e+001 -1.113240e+001 3.267388e+000 1.296476e+000 2.087849e+000 -5.008606e+000 -1.120900e+000 2.526415e+000 3.086105e+000 4.755268e-001 8.428314e-001 -9.416234e-001 -9.022155e-001 9.919845e-001 5.234811e-001 -1.072844e+000 3.288241e-001 9.722319e-001 -1.193312e-001 -7.986107e-001 -4.600129e-001 -2.051854e-001 6.309335e-001
<VARIANCE> 25
 1.051403e+002 1.682120e+002 8.550571e+001 1.721483e+002 1.610094e+002 1.611254e+002 8.428364e+001 4.491567e+001 4.180712e+001 4.849741e+001 3.986898e+001 4.157897e+001 5.928735e+000 1.076734e+001 4.797125e+000 6.621340e+000 1.612461e+001 5.871212e+000 6.960084e+000 1.084781e+001 7.968655e+000 5.395642e+000 5.127803e+000 6.809306e+000 3.315837e+000
<GCONST> 1.237568e+002
~s "ST_b_4_1"
<MEAN> 25
 2.882110e+000 -4.359931e+000 5.317751e+000 3.717114e+000 -4.131956e+000 -3.379443e-001 9.240267e+000 -2.490646e+000 -8.079265e+000 2.534522e+000 -2.450795e+000 -5.899455e+000 3.365044e-001 4.574110e-003 -3.044953e-001 4.639029e-001 3.142705e-001 2.100397e-001 -2.891985e-001 2.940084e-001 1.985964e-001 4.627003e-002 -6.949190e-002 2.769161e-003 -2.938959e-002
<VARIANCE> 25
 1.018907e+001 1.057896e+002 2.138575e+001 7.906586e+001 1.466942e+002 5.107902e+001 1.602967e+002 4.433755e+001 1.080497e+002 4.626967e+001 3.775871e+001 3.536692e+001 1.354448e+000 5.824440e+000 2.459724e+000 5.935603e+000 9.354329e+000 3.878007e+000 1.070051e+001 6.253080e+000 1.179391e+001 4.045790e+000 4.700920e+000 3.245349e+000 3.356971e+000
<GCONST> 1.142096e+002
~s "ST_r_2_1"
<MEAN> 25
 7.826184e+000 -1.529993e+001 -3.642024e+000 -6.304911e-001 1.748588e+000 -3.396148e-001 -4.471133e+000 3.644196e+000 -2.751537e+000 3.736062e-001 3.932280e+000 -5.340163e+000 5.053769e-002 -2.938547e-001 -1.645332e-001 6.024667e-001 4.833228e-002 6.013927e-001 -2.286089e-001 -3.012111e-002 3.772399e-001 -1.350884e-001 2.398480e-002 5.439827e-001 -2.805164e-001
<VARIANCE> 25
 1.331264e+001 9.900526e+001 4.546227e+001 7.351656e+001 1.391978e+002 6.936431e+001 1.234826e+002 6.443106e+001 5.754521e+001 6.931342e+001 9.102630e+001 4.705945e+001 1.496167e+000 3.229870e+000 4.670640e+000 5.417219e+000 7.693799e+000 5.201832e+000 9.239812e+000 6.973440e+000 5.747139e+000 4.822902e+000 6.002335e+000 4.007444e+000 1.747301e+000
<GCONST> 1.157777e+002
~s "ST_r_3_1"
<MEAN> 25
 7.106939e+000 -9.841431e+000 1.307692e+000 -3.827349e+000 -6.860976e+000 -9.386504e-001 9.183230e+000 1.478005e+000 -2.277524e+000 -1.492554e+000 -6.473615e+000 -5.092463e-001 -6.711113e-001 -4.913456e-001 2.983797e-001 -2.281502e-001 5.115181e-001 -7.825892e-002 1.168720e+000 -6.356267e-001 -6.887265e-001 2.840563e-001 2.372843e-001 1.741455e-001 3.112358e-001
<VARIANCE> 25
 1.542117e+001 7.620847e+001 5.970880e+001 5.350626e+001 5.644620e+001 3.220533e+001 9.172978e+001 7.543474e+001 6.003481e+001 2.815541e+001 3.878178e+001 2.594873e+001 1.696160e+000 5.080368e+000 2.900404e+000 4.761177e+000 4.792104e+000 3.186330e+000 6.788865e+000 7.205751e+000 5.206255e+000 3.091491e+000 5.371246e+000 3.305742e+000 1.827745e+000
<GCONST> 1.094331e+002
~s "ST_r_4_1"
<MEAN> 25
 5.974104e+000 -1.537620e+001 -8.752995e+000 3.730925e+000 -8.463940e-001 -9.857552e-001 6.423858e+000 -3.016434e+000 -2.499144e+000 6.246904e+000 8.903372e-001 -3.830662e+000 -2.455216e-001 3.328888e-001 1.910844e-001 7.232293e-002 4.268013e-001 -1.519509e-001 -1.618546e-001 -1.813445e-001 -8.553347e-002 -4.989871e-002 -2.144058e-002 -5.637583e-003 -2.047091e-001
<VARIANCE> 25
 1.710562e+001 1.010837e+002 7.081800e+001 1.273683e+002 1.351275e+002 5.014612e+001 1.694404e+002 4.166891e+001 5.694660e+001 4.713710e+001 4.189256e+001 2.877921e+001 5.614703e-001 3.129055e+000 1.714577e+000 3.943594e+000 2.963201e+000 2.563358e+000 4.629871e+000 2.933265e+000 2.813464e+000 3.261774e+000 2.121177e+000 2.574067e+000 9.714835e-001
<GCONST> 1.061791e+002
~s "ST_h_2_1"
<MEAN> 25
 -1.801304e+001 3.198542e+000 -2.583280e-001 1.104138e+001 3.449388e-001 6.163168e+000 -1.416503e-002 1.514530e+001 1.654984e+001 5.822357e+000 9.393847e+000 4.156827e+000 -1.751375e-002 -1.159055e-002 -1.148682e-002 6.689293e-002 2.448788e-002 1.496834e-001 3.134962e-002 -3.105440e-002 1.654726e-001 -5.318788e-002 -1.453016e-001 2.060631e-003 -1.583037e-003
<VARIANCE> 25
 1.935721e+001 1.438787e+001 2.433152e+000 1.266359e+001 4.736285e+000 4.740386e+000 1.103385e+001 9.149984e+000 2.042536e+001 9.360894e+000 8.038937e+000 2.112175e+001 2.497790e-002 1.622496e-001 3.103153e-001 5.000219e-001 4.172160e-001 4.472041e-001 6.532918e-001 1.062684e+000 1.418627e+000 9.503607e-001 1.044809e+000 1.059752e+000 1.963484e-002
<GCONST> 6.017302e+001
~s "ST_h_3_1"
<MEAN> 25
 -1.409249e+000 -1.162901e+001 6.122426e-001 3.036014e+000 -5.392085e-001 1.096047e+001 -3.027281e-001 7.019050e+000 6.428356e+000 -3.740988e-001 4.255721e+000 -6.704802e+000 8.551100e-001 -2.778043e-001 -9.962755e-002 1.182936e+000 -1.675165e+000 1.166235e-001 -6.241157e-001 -3.348966e+000 1.520054e+000 -1.468259e+000 -1.650718e+000 2.846169e+000 3.788658e-001
<VARIANCE> 25
 8.653386e+001 8.649819e+001 3.820634e+000 3.242536e+001 1.119534e+001 1.513872e+001 3.363915e+001 7.744469e+001 7.565172e+001 2.670569e+001 9.429223e+000 5.198242e+001 6.782627e-001 1.156484e+000 6.780660e-001 3.454157e+000 1.288198e-001 3.311963e+000 2.164894e+000 3.415128e+000 2.715943e+000 2.421652e+000 2.879837e+000 2.565072e+000 1.247462e-001
<GCONST> 9.004954e+001
~s "ST_h_4_1"
<MEAN> 25
 2.921315e+000 -7.540998e+000 -3.177301e+000 1.010493e+001 -2.884106e+000 7.781398e+000 4.225425e+000 -4.448400e+000 7.859770e+000 6.157972e+000 -1.592758e+000 -1.499237e+000 8.326853e-001 1.130757e+000 -1.631900e+000 -1.423250e-001 -2.458413e-001 -2.629740e+000 3.511577e-001 -9.083267e-001 -2.228215e+000 1.712304e+000 8.159137e-001 -1.503993e-001 -8.571726e-003
<VARIANCE> 25
 9.266337e+001 4.569488e+001 1.458643e+001 1.483317e+001 5.169726e+000 3.650216e+001 2.269565e+001 7.498486e+001 3.021878e+001 3.095893e+001 4.584697e+001 1.028722e+001 2.430441e+000 3.091702e+000 1.549656e+000 3.439819e+000 3.597527e+000 7.304205e-001 5.807109e+000 3.943800e+000 2.500753e+000 5.594504e+000 6.910820e+000 2.905757e+000 2.614377e+000
<GCONST> 9.973860e+001
~s "ST_hh_2_1"
<MEAN> 25
 5.557073e+000 -1.910483e+000 -2.106772e+000 -1.866667e+000 -4.606332e+000 -7.008724e+000 -3.438709e+000 4.348912e-001 -7.847656e+000 -8.740013e+000 -8.216729e-001 -3.944606e+000 -4.903284e-001 9.334208e-001 4.620573e-001 1.232885e-001 -1.496770e-001 3.514066e-002 3.087393e-001 -2.040403e-002 -1.827398e-001 5.164245e-001 1.208535e+000 5.383770e-001 -8.137823e-001
<VARIANCE> 25
 1.039141e+001 5.900849e+001 2.085898e+001 5.403904e+001 2.377340e+001 3.775247e+001 5.593161e+001 1.018208e+002 2.787032e+001 5.119585e+001 8.659977e+001 1.346208e+002 2.799027e-001 1.267228e+000 6.915148e-001 1.550627e+000 1.868653e+000 2.873632e+000 2.493500e+000 2.604076e+000 1.275491e+000 2.447764e+000 2.954949e+000 3.123957e+000 2.824363e-001
<GCONST> 9.614867e+001
~s "ST_hh_3_1"
<MEAN> 25
 6.297730e-001 2.863431e+000 -1.129067e+000 -9.159059e-001 -1.849113e+000 -3.913497e+000 -1.827428e+000 -3.059469e+000 -3.299142e+000 -1.117741e+000 3.936008e+000 4.409973e+000 -5.382895e-001 4.785551e-002 2.390325e-001 4.677115e-001 7.303590e-001 8.698888e-001 4.074506e-001 7.426426e-002 4.403676e-001 5.640385e-001 -9.266682e-002 -2.862342e-001 -3.505075e-001
<VARIANCE> 25
 1.023761e+001 2.379987e+001 1.161904e+001 2.038859e+001 1.910915e+001 4.733626e+001 5.426390e+001 4.008677e+001 2.643658e+001 2.909596e+001 1.393930e+001 3.031335e+001 3.260150e-001 3.382455e-001 6.092190e-001 1.507213e+000 1.557649e+000 1.123538e+000 1.746375e+000 1.547147e+000 1.873902e+000 1.547868e+000 1.405355e+000 8.078031e-001 1.407251e-001
<GCONST> 8.258861e+001
~s "ST_k_2_1"
<MEAN> 25
 1.627578e+000 6.634684e+000 -1.030663e+000 4.889969e-001 -2.799252e+000 -2.813887e+000 -3.240879e+000 -3.416126e+000 -5.698478e-001 -2.545049e-001 -1.015649e+000 -5.007095e-001 -9.684631e-001 -1.277321e+000 1.939192e-001 -3.274526e-001 2.912549e-001 -8.943438e-002 1.244682e+000 -7.898718e-002 2.935614e-001 9.361459e-002 2.945015e-001 4.110215e-001 1.416677e+000
<VARIANCE> 25
 4.636646e+001 7.890079e+001 5.390329e+001 3.135132e+001 7.363199e+001 9.078330e+001 6.569412e+001 6.102600e+001 8.029650e+001 4.311392e+001 4.774207e+001 5.023886e+001 5.054364e+000 3.785093e+000 2.013839e+000 3.369289e+000 5.598603e+000 1.025141e+001 3.585704e+000 6.262616e+000 6.246686e+000 4.722613e+000 4.028474e+000 5.291555e+000 6.038651e+000
<GCONST> 1.148898e+002
~s "ST_hh_4_1"
<MEAN> 25
 -5.186071e+000 4.601470e+000 7.778311e-001 1.263921e+000 3.169612e+000 2.499169e+000 3.611297e+000 2.149269e+000 2.610087e+000 1.769101e+000 2.555891e+000 1.605477e+000 -9.398265e-002 1.756964e-002 7.076821e-002 -6.288271e-003 -3.057204e-002 -2.561712e-002 -4.400460e-002 1.869512e-002 1.328167e-001 3.951116e-002 -1.869496e-001 -4.314508e-002 -5.972460e-002
<VARIANCE> 25
 1.023244e+001 7.951379e+001 4.718188e+000 1.589693e+001 1.201465e+001 1.804168e+001 1.274157e+001 1.256291e+001 1.619584e+001 2.152418e+001 1.409704e+001 2.487100e+001 1.394038e-001 3.610188e-001 4.866251e-001 6.276140e-001 6.890285e-001 8.161787e-001 1.075151e+000 1.261337e+000 1.932733e+000 1.772791e+000 1.559224e+000 1.153771e+000 4.297632e-002
<GCONST> 7.335935e+001
~s "ST_hh_4_2"
<MEAN> 25
 -5.279280e+000 2.043575e+000 1.980620e+000 2.534555e+000 1.581668e+000 1.584869e+000 4.030884e+000 3.078947e+000 4.508673e+000 3.553104e+000 2.733948e+000 -8.137956e-001 -2.846315e-002 9.633292e-003 4.279986e-002 2.945592e-002 2.723584e-002 5.064646e-002 9.146709e-002 1.114312e-001 1.189560e-001 8.232467e-002 4.175032e-002 -6.794465e-002 5.329194e-003
<VARIANCE> 25
 1.395970e+000 3.381562e+000 4.800015e+000 5.464158e+000 7.231884e+000 9.223601e+000 9.351630e+000 1.165764e+001 1.245238e+001 1.353144e+001 1.062387e+001 1.248104e+001 1.145536e-001 2.794833e-001 4.224709e-001 5.524575e-001 8.525295e-001 9.504566e-001 8.260230e-001 1.230551e+000 1.281624e+000 1.115434e+000 1.275982e+000 1.263896e+000 3.430759e-002
<GCONST> 6.204403e+001
~s "ST_k_3_1"
<MEAN> 25
 6.668332e-001 -7.578001e+000 -2.493229e+000 -5.858025e+000 -5.170525e+000 4.494989e+000 8.583019e+000 -3.816479e+000 -3.010634e+000 1.074051e+000 9.184133e-001 1.324373e+000 1.118724e+000 -2.960525e+000 -7.067813e-001 -3.366517e-001 -1.369664e+000 3.378192e-001 1.878383e+000 -4.238228e-001 -6.692005e-001 1.962583e-001 -9.903179e-002 -5.277773e-001 2.122102e+000
<VARIANCE> 25
 2.673026e+001 1.295826e+002 3.965128e+001 1.027934e+002 1.003415e+002 8.007957e+001 1.194892e+002 6.054530e+001 7.702730e+001 4.591837e+001 3.734068e+001 5.460369e+001 2.529814e+000 1.768226e+001 4.346576e+000 1.556522e+001 7.548238e+000 8.480158e+000 6.681638e+000 6.697139e+000 8.429150e+000 7.786488e+000 2.932812e+000 5.827695e+000 7.830102e+000
<GCONST> 1.211352e+002
~s "ST_k_4_1"
<MEAN> 25
 5.090938e+000 -1.429101e+001 -1.061416e+001 1.875552e+000 -4.865673e+000 1.946147e+000 8.817664e+000 -5.170940e+000 -2.234154e+000 5.159003e+000 -1.566885e+000 -2.483840e+000 -8.335384e-002 2.241203e-001 -9.428675e-002 6.177983e-002 8.276506e-001 2.257712e-002 -4.200493e-001 1.116457e-001 1.696882e-001 -2.615187e-002 5.070341e-002 -4.424218e-002 -2.320876e-001
<VARIANCE> 25
 5.786133e+001 9.895223e+001 6.264423e+001 3.312316e+001 1.039553e+002 1.692460e+001 7.047998e+001 6.408205e+001 2.633049e+001 6.136666e+001 1.993542e+001 3.292748e+001 9.681684e-001 2.191375e+000 1.889823e+000 1.488268e+000 2.849941e+000 1.331036e+000 2.764356e+000 1.808556e+000 2.539350e+000 3.045554e+000 1.871588e+000 2.583217e+000 1.067546e+000
<GCONST> 1.004156e+002
~s "ST_uw_2_1"
<MEAN> 25
 -5.226106e+000 -1.111400e+001 8.012583e+000 -5.189134e+000 4.506963e+000 1.079610e+000 -2.881618e+000 -2.860186e+000 -1.127913e+000 1.684822e+000 2.447376e+000 1.858687e+000 8.656936e-001 -1.382003e+000 2.566893e-001 -9.170228e-001 -3.699208e-002 -1.651222e-001 -6.924288e-001 -2.109889e-001 -4.906874e-001 -3.260404e-001 -1.757769e-001 -4.546431e-001 1.539682e+000
<VARIANCE> 25
 8.302309e+001 2.489023e+002 1.631268e+002 1.184387e+002 8.711099e+001 1.185512e+002 8.318463e+001 6.203730e+001 7.966492e+001 5.607877e+001 4.502370e+001 5.822307e+001 7.494007e+000 1.485997e+001 9.875194e+000 1.063337e+001 1.088288e+001 7.628954e+000 9.072455e+000 6.720942e+000 8.226085e+000 6.655648e+000 5.270859e+000 5.270656e+000 5.954180e+000
<GCONST> 1.268270e+002
~s "ST_n_2_1"
<MEAN> 25
 5.109350e+000 2.359935e-001 -1.213779e+000 -3.362450e+000 4.875636e-002 -4.765512e-001 -6.526783e-001 -1.867902e+000 -4.024877e+000 -4.269405e+000 -7.202410e-001 2.681782e+000 1.822879e-001 1.294329e+000 -4.612402e-002 1.384423e+000 -3.831652e-001 3.757509e-001 -6.368520e-001 -2.735835e-001 2.068590e-001 3.689175e-001 -4.405655e-001 1.706899e-001 -1.395717e+000
<VARIANCE> 25
 3.157855e+001 1.153231e+002 5.141244e+001 6.866330e+001 6.798608e+001 5.146938e+001 5.812738e+001 4.734998e+001 7.540026e+001 4.142505e+001 5.206453e+001 3.328075e+001 1.244552e+000 2.363188e+000 3.281710e+000 4.894065e+000 3.716448e+000 4.683749e+000 3.631364e+000 5.525901e+000 4.359477e+000 3.830398e+000 5.574443e+000 2.629700e+000 1.234773e+000
<GCONST> 1.093233e+002
~s "ST_uw_3_1"
<MEAN> 25
 6.501463e+000 -1.066176e+001 -2.526710e+000 -1.205015e+000 -1.468245e+000 -1.507069e+000 -3.166335e+000 -1.040734e+000 -4.108570e+000 5.617971e-002 2.082819e-001 -6.178320e+000 1.940051e-001 6.503460e-001 -4.788208e-001 2.967851e-001 -1.919423e-001 1.401284e-001 1.824275e-001 2.885282e-002 3.684753e-002 -3.309501e-003 -2.446569e-001 -8.446257e-002 -5.435569e-001
<VARIANCE> 25
 1.708080e+001 1.575262e+002 9.539722e+001 9.197827e+001 9.949136e+001 1.029452e+002 1.053411e+002 1.189935e+002 7.462812e+001 5.689121e+001 7.598506e+001 6.466313e+001 1.338091e+000 3.647494e+000 4.512427e+000 6.957746e+000 6.360366e+000 7.954996e+000 7.388553e+000 8.690867e+000 6.414337e+000 5.077429e+000 6.408827e+000 4.904133e+000 2.053593e+000
<GCONST> 1.192168e+002
~s "ST_n_3_1"
<MEAN> 25
 3.790585e+000 5.597452e+000 1.336822e+000 3.258198e+000 2.038700e+000 -1.379877e+000 -3.953224e+000 -5.047266e+000 -3.192149e+000 -3.232682e+000 -1.586198e+000 1.652934e+000 -3.023960e-001 2.692828e-001 1.929454e-001 2.405502e-001 9.230594e-002 2.045846e-001 1.943939e-001 2.295659e-001 1.415439e-001 1.878417e-001 1.545101e-002 -1.888018e-002 -3.475286e-001
<VARIANCE> 25
 1.827353e+001 2.729569e+001 2.644841e+001 5.070832e+001 5.175265e+001 4.647161e+001 3.111411e+001 2.227840e+001 2.733859e+001 2.115433e+001 3.164340e+001 3.666698e+001 2.869244e-001 5.702625e-001 8.154228e-001 1.218836e+000 1.025793e+000 1.470471e+000 1.634787e+000 1.584705e+000 1.564990e+000 1.610384e+000 1.682164e+000 1.275381e+000 1.927850e-001
<GCONST> 8.669165e+001
~s "ST_uw_4_1"
<MEAN> 25
 4.638956e+000 3.993563e+000 -6.517241e+000 -7.480662e+000 1.085753e+000 -8.946053e-001 -1.067024e+000 -2.914969e+000 -1.600668e+000 2.617116e-001 -9.536163e-002 -1.240822e+000 -1.347083e-001 9.038131e-001 1.617868e-001 -3.517770e-001 -3.660420e-001 1.893566e-001 -1.442674e-001 1.144965e-001 1.090889e-001 -9.854792e-002 2.015863e-002 2.829672e-001 -6.268799e-001
<VARIANCE> 25
 3.010942e+001 6.281433e+001 9.981920e+001 1.213255e+002 9.204294e+001 6.356678e+001 9.879247e+001 4.386813e+001 5.892142e+001 3.828937e+001 4.525444e+001 4.763674e+001 3.329055e-001 1.968925e+000 1.688448e+000 3.257149e+000 2.903939e+000 3.218967e+000 3.143045e+000 2.927973e+000 3.660861e+000 2.968092e+000 2.785537e+000 3.182564e+000 5.006961e-001
<GCONST> 1.049525e+002
~s "ST_n_4_1"
<MEAN> 25
 -4.491768e+000 5.961075e+000 1.558789e+000 2.066811e+000 2.490527e+000 1.689045e+000 3.084397e+000 2.945575e+000 3.805378e+000 2.209005e+000 2.040726e+000 3.956788e-001 -5.354291e-002 -1.755480e-003 2.999557e-002 5.366132e-002 2.314601e-002 1.793949e-002 3.290512e-002 6.393610e-002 1.068644e-001 7.571755e-002 3.129678e-003 -4.409910e-002 -2.343873e-002
<VARIANCE> 25
 8.847943e+000 4.759277e+001 8.406085e+000 2.178566e+001 1.736149e+001 1.559042e+001 2.546660e+001 1.612960e+001 1.848713e+001 2.127081e+001 1.729995e+001 1.618208e+001 1.112373e-001 2.558928e-001 5.205903e-001 7.445759e-001 9.998317e-001 1.278692e+000 1.198793e+000 1.427744e+000 1.694876e+000 1.473306e+000 1.388889e+000 1.331032e+000 4.596814e-002
<GCONST> 7.515398e+001
~s "ST_n_4_2"
<MEAN> 25
 -3.928253e+000 1.011568e+001 1.075176e+000 -9.051102e-001 2.048773e+000 1.841137e+000 1.202366e+000 2.756797e+000 3.226372e+000 2.116363e-001 1.078215e+000 1.984020e+000 -7.547791e-002 1.776251e-002 1.108496e-001 1.291066e-001 3.212164e-002 -4.421279e-002 -3.626822e-002 3.378025e-002 4.075788e-002 5.683731e-002 1.010178e-002 -3.433682e-002 -5.359172e-002
<VARIANCE> 25
 1.093319e+001 5.616753e+001 1.680576e+001 4.327989e+001 2.022351e+001 2.075487e+001 3.581251e+001 2.002657e+001 2.117473e+001 3.046511e+001 1.932598e+001 1.954816e+001 1.693751e-001 3.749881e-001 8.375906e-001 7.685159e-001 9.871516e-001 1.500372e+000 1.661242e+000 1.601230e+000 1.763281e+000 1.617611e+000 1.401018e+000 1.414686e+000 7.265427e-002
<GCONST> 8.125948e+001
~s "ST_d_2_1"
<MEAN> 25
 -2.348945e+000 1.524359e+001 4.864141e-001 -3.912023e+000 1.404182e+000 1.247527e-001 -4.187013e+000 -1.735005e+000 3.123103e+000 -5.281068e-001 9.012703e-001 3.551648e+000 -1.548583e-002 -2.531867e-002 5.962200e-002 8.127195e-002 -3.863037e-002 -1.079932e-001 -5.715693e-002 1.530236e-002 9.663188e-002 3.708191e-002 -5.317481e-002 1.643029e-004 -1.463954e-003
<VARIANCE> 25
 7.837852e+000 2.914718e+001 4.387677e+001 2.455310e+001 6.724406e+001 6.009614e+001 3.078548e+001 4.186078e+001 2.937896e+001 2.615981e+001 3.163271e+001 1.988723e+001 1.358316e-001 4.931145e-001 8.735003e-001 9.612330e-001 1.125168e+000 1.759911e+000 2.005926e+000 2.150928e+000 2.066059e+000 1.942352e+000 2.231869e+000 1.346136e+000 9.252660e-002
<GCONST> 8.629134e+001
~s "ST_d_3_1"
<MEAN> 25
 1.167565e+000 -2.227793e+000 1.607782e+000 2.952746e+000 2.159770e+000 -2.718094e+000 -5.009805e+000 -3.363155e-001 3.845333e-001 -9.646929e-001 2.443666e-001 1.908990e-001 3.757359e-001 -5.317585e+000 1.284657e+000 5.632776e-001 5.962602e-001 -1.809174e+000 -1.412372e+000 7.910497e-002 -6.173304e-001 -1.259299e-001 1.486749e-001 -1.207578e+000 3.549515e+000
<VARIANCE> 25
 2.153349e+001 2.626674e+002 5.915974e+001 7.566296e+001 8.532921e+001 6.984361e+001 7.230766e+001 5.665082e+001 5.324182e+001 3.752358e+001 3.630947e+001 3.353870e+001 9.723669e-001 2.292898e+001 7.165700e+000 1.554822e+001 7.987699e+000 7.812949e+000 6.945384e+000 6.759643e+000 7.318607e+000 6.426169e+000 6.055182e+000 4.603351e+000 4.934690e+000
<GCONST> 1.192843e+002
~s "ST_d_4_1"
<MEAN> 25
 5.951561e-001 -1.629397e+001 1.118918e+001 1.315552e+001 7.213220e+000 -1.286404e+001 -9.168973e+000 6.362356e+000 -4.177458e+000 1.275044e+000 -3.978169e+000 -7.351411e+000 9.126849e-002 -5.597357e-003 1.515125e-001 -4.655723e-002 -1.303229e-001 -2.893329e-001 1.256827e-001 -1.855630e-001 -2.047414e-001 1.635225e-001 -6.532110e-002 -9.478166e-002 1.585579e-001
<VARIANCE> 25
 1.778905e+001 1.216547e+002 1.376275e+002 1.423583e+002 9.933774e+001 8.409644e+001 9.771641e+001 6.749860e+001 1.343352e+002 1.131730e+002 8.161514e+001 5.449617e+001 6.583821e-001 3.948130e+000 4.489425e+000 5.790442e+000 4.737024e+000 5.024202e+000 6.675547e+000 4.361092e+000 4.929494e+000 3.892490e+000 3.802222e+000 3.824698e+000 2.192553e+000
<GCONST> 1.165341e+002
~s "ST_g_2_1"
<MEAN> 25
 1.015889e+000 4.669487e+000 2.777214e+000 5.846574e+000 -7.623354e-002 -4.948242e-001 -3.557752e+000 1.586047e+000 -1.453287e+000 2.417133e+000 -2.086058e+000 -3.328734e+000 -1.718844e-001 -2.841522e+000 -8.412121e-001 -1.684277e+000 8.587067e-001 -8.624061e-002 6.053259e-001 1.356783e-001 -7.781731e-001 3.165713e-001 7.254014e-001 -6.107821e-001 2.097528e+000
<VARIANCE> 25
 4.898100e+001 1.374132e+002 1.033421e+002 8.656002e+001 1.168797e+002 8.969912e+001 8.126005e+001 4.050098e+001 6.744680e+001 6.533680e+001 4.892256e+001 5.044758e+001 6.465419e+000 1.016144e+001 1.132433e+001 1.655534e+001 1.163341e+001 8.316666e+000 1.023218e+001 4.995852e+000 7.902751e+000 9.283236e+000 3.413662e+000 5.665063e+000 6.836620e+000
<GCONST> 1.245237e+002
~s "ST_g_3_1"
<MEAN> 25
 2.490630e+000 -8.044765e+000 -3.733942e+000 -6.152009e+000 6.063805e+000 2.677116e-001 5.667724e-001 -4.870865e-001 -7.405783e+000 4.997163e+000 3.653692e+000 -2.544963e+000 4.955645e-001 -2.702579e-001 4.239368e-001 -2.377813e+000 -1.107191e+000 -9.569009e-001 1.073259e+000 -6.439577e-001 -5.601161e-001 -5.561036e-001 1.191830e-001 -2.801303e-001 1.768618e+000
<VARIANCE> 25
 2.853835e+001 1.039439e+002 1.117192e+002 9.642823e+001 1.178153e+002 8.786513e+001 1.335016e+002 3.440984e+001 1.497177e+002 1.421503e+002 4.805663e+001 6.519956e+001 2.882332e+000 3.156626e+000 4.444401e+000 9.148500e+000 7.796939e+000 7.740200e+000 1.341780e+001 3.639716e+000 9.630005e+000 9.943201e+000 4.308173e+000 4.119642e+000 3.059969e+000
<GCONST> 1.213781e+002
~s "ST_g_4_1"
<MEAN> 25
 1.763814e+000 -4.520934e+000 1.947693e+000 -1.059702e+001 -5.400048e-001 -2.097645e+000 3.792142e+000 -1.573998e+000 -3.035229e+000 -2.640901e+000 7.519577e-001 -2.359896e+000 4.880009e-001 1.425173e+000 1.544485e+000 -2.883424e-001 -1.535896e-002 -9.681556e-001 -1.297788e+000 -3.458525e-001 5.969024e-002 -1.316666e+000 -1.972111e+000 -1.056802e+000 6.486027e-001
<VARIANCE> 25
 2.738763e+001 7.684663e+001 6.325646e+001 1.132352e+002 7.886768e+001 7.805032e+001 6.916481e+001 3.271570e+001 8.291210e+001 1.378668e+002 4.260243e+001 3.097354e+001 1.462858e+000 3.418113e+000 3.073022e+000 5.882082e+000 5.031791e+000 3.103853e+000 4.479856e+000 3.501160e+000 4.875339e+000 5.127449e+000 3.027981e+000 2.107214e+000 1.701140e+000
<GCONST> 1.110626e+002
~s "ST_t_2_1"
<MEAN> 25
 1.288031e+000 4.512900e+000 6.338123e-001 3.370096e+000 8.644718e-001 -4.673720e-001 -3.816134e+000 -1.695046e+000 -1.735444e+000 1.342776e-002 -3.670101e+000 -2.664141e+000 -7.498360e-001 -2.904155e+000 4.576965e-001 -1.318066e+000 9.229359e-001 -1.574175e+000 8.092799e-001 -3.308353e-001 2.873334e-001 5.375527e-001 8.109503e-001 -1.555029e-001 2.703899e+000
<VARIANCE> 25
 4.534125e+001 1.054788e+002 4.440105e+001 8.757797e+001 5.151856e+001 9.163936e+001 9.604095e+001 5.793258e+001 1.022982e+002 5.638471e+001 5.846520e+001 5.073720e+001 3.209702e+000 1.519858e+001 5.007334e+000 9.607140e+000 8.055275e+000 1.064199e+001 1.190914e+001 9.907839e+000 8.275901e+000 7.672124e+000 3.776550e+000 3.522427e+000 1.301695e+001
<GCONST> 1.227122e+002
~s "ST_t_3_1"
<MEAN> 25
 1.226042e+000 -1.533193e+001 6.119025e+000 3.147836e+000 1.223809e+000 -8.292828e+000 -1.250795e+000 6.699113e-001 -2.931878e+000 1.965721e+000 -5.836588e-001 -3.461955e+000 6.494345e-001 -1.359591e+000 -3.095066e-001 1.124070e-001 -1.412144e-003 6.704662e-001 5.301243e-001 -3.194440e-001 -2.269689e-001 -7.118561e-002 -1.769644e-002 3.498846e-002 1.129604e+000
<VARIANCE> 25
 2.809689e+001 1.558284e+002 1.107026e+002 1.434040e+002 2.417364e+002 1.062807e+002 3.085843e+002 1.233410e+002 1.206798e+002 8.688968e+001 3.235561e+001 4.546196e+001 1.959887e+000 7.314391e+000 7.440113e+000 1.081619e+001 1.056062e+001 1.069798e+001 1.502075e+001 8.448262e+000 8.620450e+000 6.609724e+000 3.038165e+000 4.464806e+000 4.828879e+000
<GCONST> 1.261022e+002
~s "ST_t_4_1"
<MEAN> 25
 2.896305e+000 -1.142151e+001 -2.562658e+000 2.385926e+000 1.090642e+000 5.467315e-001 7.781293e+000 -1.536358e+000 -2.055385e+000 -1.046614e+000 1.059080e+000 2.719085e+000 5.237110e-002 5.182869e-001 -3.042462e-001 1.637899e-001 -5.688200e-002 4.578799e-001 -3.715089e-001 -1.628693e-001 -1.177992e-001 -2.016871e-001 -5.111289e-002 1.309760e-001 -7.206507e-001
<VARIANCE> 25
 2.068538e+001 9.006426e+001 3.400404e+001 8.399650e+001 7.422685e+001 4.479359e+001 8.545706e+001 4.683601e+001 5.066122e+001 6.800560e+001 3.707184e+001 4.627634e+001 1.077958e+000 1.727052e+000 1.368950e+000 3.248437e+000 3.210819e+000 2.150689e+000 4.035388e+000 2.475718e+000 3.494162e+000 2.811972e+000 2.462332e+000 2.143250e+000 1.158753e+000
<GCONST> 1.038736e+002
~s "ST_ao_2_1"
<MEAN> 25
 7.691138e+000 8.617257e-001 -8.189491e-001 -1.068644e+001 2.332398e+000 -3.554349e+000 -2.322533e+000 -2.905864e+000 -6.464664e+000 1.694155e+000 -3.279219e+000 -6.346415e+000 6.319367e-001 2.157997e-001 1.109801e+000 -1.458374e+000 -6.469806e-001 -6.323763e-001 -2.559902e-001 3.329953e-001 3.724052e-001 -4.077608e-001 -9.974229e-001 -1.315761e+000 1.117339e+000
<VARIANCE> 25
 1.321399e+001 3.662823e+001 7.832196e+001 5.953524e+001 1.250992e+002 3.398898e+001 7.282053e+001 5.460789e+001 6.299518e+001 1.130463e+002 4.735053e+001 3.586594e+001 1.207268e+000 2.704698e+000 2.884497e+000 7.646736e+000 7.553549e+000 6.110261e+000 7.575712e+000 2.930057e+000 6.446782e+000 5.922166e+000 2.769752e+000 1.839422e+000 1.267362e+000
<GCONST> 1.102443e+002
~s "ST_ao_3_1"
<MEAN> 25
 7.279366e+000 1.894046e+000 6.827545e+000 -1.357724e+001 -5.841280e+000 -9.024484e+000 -1.303998e+000 7.913177e+000 -5.260046e+000 -2.128065e+000 -5.618426e+000 -8.430270e+000 2.215303e-001 -3.194076e-001 -5.397624e-001 2.359404e-001 -6.880895e-001 -4.043812e-001 4.847069e-001 9.028842e-001 7.148325e-001 5.485567e-001 4.776288e-001 -3.141941e-001 5.244775e-002
<VARIANCE> 25
 6.077499e+000 1.607397e+001 4.600983e+001 2.627111e+001 5.734190e+001 4.178129e+001 4.505274e+001 1.072441e+002 2.823978e+001 2.707800e+001 3.355726e+001 1.983044e+001 9.841342e-002 4.151806e-001 6.958820e-001 1.285651e+000 7.493044e-001 1.625929e+000 2.012587e+000 2.220652e+000 1.396147e+000 2.361158e+000 1.856946e+000 1.170465e+000 2.295012e-001
<GCONST> 8.591351e+001
~s "ST_ao_4_1"
<MEAN> 25
 1.114363e+001 -2.334873e+000 -5.379032e+000 -1.231864e+001 -3.492591e+000 -5.317907e-001 -1.549318e+000 -4.200921e+000 4.233121e+000 3.646507e+000 -7.538119e-001 -5.791816e+000 3.153696e-002 -3.201119e-001 -1.656997e-001 6.285960e-001 -2.500735e-001 -1.231025e-001 3.555589e-001 2.208246e-001 1.884338e-001 -3.894515e-001 -2.451723e-001 3.522261e-001 -1.087356e-001
<VARIANCE> 25
 1.565151e+001 2.821264e+001 2.212669e+001 1.946539e+001 1.050371e+002 2.894073e+001 1.403200e+002 6.797482e+001 6.489388e+001 2.811128e+001 2.986204e+001 2.681547e+001 1.314820e-001 5.778347e-001 7.108217e-001 1.119515e+000 1.242087e+000 1.627337e+000 1.705905e+000 1.750463e+000 1.877076e+000 2.678711e+000 1.685026e+000 1.305018e+000 9.144322e-002
<GCONST> 8.848274e+001
~s "ST_sil_2_1"
<MEAN> 25
 -3.617774e+000 5.345633e+000 -3.340517e+000 3.041864e+000 -1.417787e+000 2.660069e+000 -2.045587e+000 1.610920e+000 1.267080e+000 1.049881e+000 4.818823e-001 2.042322e+000 8.518954e-002 9.209608e-002 -1.698969e-001 -5.684999e-001 -2.173607e-001 4.453268e-002 -3.858424e-002 -7.621596e-002 -1.199601e-001 -2.581513e-001 -1.560849e-001 1.986771e-001 8.407547e-001
<VARIANCE> 25
 3.272646e+001 8.300672e+001 3.753621e+001 5.895744e+001 5.114673e+001 4.757034e+001 5.163665e+001 3.837302e+001 3.793779e+001 4.267324e+001 2.197908e+001 2.764721e+001 2.790149e+000 3.237971e+000 2.266206e+000 3.003993e+000 2.816453e+000 3.400887e+000 3.851903e+000 3.304071e+000 3.258473e+000 3.314879e+000 2.998410e+000 2.329264e+000 6.651820e+000
<GCONST> 1.058843e+002
~s "silst"
<MEAN> 25
 9.884364e+000 -3.338007e+000 -4.978201e+000 -2.938859e+000 -2.668947e+000 -2.830952e+000 -6.772927e+000 -4.838212e+000 -5.774967e+000 -7.792819e+000 -5.073216e+000 1.631402e+000 -2.379320e-001 2.209313e-001 7.927430e-002 9.699127e-002 4.231882e-002 -8.527937e-003 4.979644e-002 -7.868048e-003 -1.444092e-003 4.011175e-002 1.574424e-001 -4.111792e-002 -2.827060e-001
<VARIANCE> 25
 1.843159e+001 6.498744e+001 4.335663e+001 2.983467e+001 5.386248e+001 3.056142e+001 2.953932e+001 3.321740e+001 2.586625e+001 3.476093e+001 3.252558e+001 2.559338e+001 7.210257e-001 1.476208e+000 1.273889e+000 1.256702e+000 1.769606e+000 1.540468e+000 1.915574e+000 1.763664e+000 1.701628e+000 2.142431e+000 1.914020e+000 1.398655e+000 4.789889e-001
<GCONST> 9.231646e+001
~s "ST_sil_3_1"
<MEAN> 25
 9.975690e+000 -3.320230e+000 -4.824340e+000 -3.608252e+000 -2.517427e+000 -2.815952e+000 -6.936019e+000 -4.760740e+000 -5.439190e+000 -7.511370e+000 -5.109724e+000 1.363113e+000 -2.731886e-001 2.253909e-001 6.658935e-002 1.133520e-001 5.803962e-002 -3.108997e-002 4.964345e-002 -1.829623e-003 -7.524246e-003 2.469105e-002 1.778564e-001 -4.041645e-003 -2.999749e-001
<VARIANCE> 25
 1.709380e+001 7.096644e+001 4.270420e+001 3.223300e+001 5.176924e+001 3.319526e+001 2.915087e+001 3.473218e+001 2.556101e+001 3.570066e+001 3.453651e+001 2.731715e+001 7.231067e-001 1.469878e+000 1.244563e+000 1.215511e+000 1.706644e+000 1.575940e+000 1.929709e+000 1.771916e+000 1.735469e+000 2.154596e+000 2.021952e+000 1.486917e+000 4.506352e-001
<GCONST> 9.262656e+001
~s "ST_sil_4_1"
<MEAN> 25
 -6.362935e+000 4.338532e+000 -2.815729e+000 3.808549e+000 -1.302439e+000 4.234267e+000 5.263482e-001 3.458013e+000 2.388708e+000 3.807194e+000 1.507193e+000 2.060474e+000 -2.599048e-002 -7.390849e-003 6.435898e-003 1.083105e-002 1.619091e-002 1.263172e-002 3.849889e-002 3.269184e-002 5.355197e-002 6.133286e-002 3.681529e-002 -1.339716e-003 -1.352933e-003
<VARIANCE> 25
 2.438642e+001 3.278680e+001 2.475928e+001 3.472258e+001 2.472236e+001 1.864122e+001 2.708527e+001 3.310431e+001 3.994765e+001 2.208130e+001 1.712533e+001 1.606465e+001 1.070643e-001 2.358995e-001 4.020638e-001 5.684993e-001 7.216906e-001 8.734338e-001 1.024002e+000 1.136623e+000 1.243625e+000 1.155154e+000 1.091532e+000 1.015107e+000 6.034156e-002
<GCONST> 7.691161e+001
~s "ST_j_2_1"
<MEAN> 25
 9.537852e+000 -1.478399e+001 -4.967689e+000 1.305290e+000 -9.008325e+000 3.955746e+000 -5.129321e+000 -3.783365e+000 -2.108696e+000 -3.230560e-001 3.726054e-001 -3.851366e+000 1.743737e-001 6.756786e-001 -3.380482e-001 9.116514e-001 -5.487828e-002 -3.029557e-001 4.009245e-001 -5.613670e-001 2.779049e-001 2.859334e-001 -4.126782e-001 -7.591139e-002 -4.513415e-001
<VARIANCE> 25
 4.014032e+000 7.888094e+001 6.829949e+000 4.428173e+001 4.509272e+000 1.113333e+001 5.398014e+001 1.834409e+001 2.206437e+001 1.399055e+001 1.601636e+002 1.520665e+001 3.678109e-001 7.043522e-001 2.045788e-001 2.658677e+000 4.208750e-001 1.818934e+000 3.329785e+000 1.612950e+000 1.376071e+000 1.330010e+000 4.404727e+000 9.301783e-001 2.891377e-001
<GCONST> 8.198886e+001
~s "ST_j_3_1"
<MEAN> 25
 4.895442e+000 -7.598310e-001 -8.829578e+000 1.052724e+001 -7.278763e+000 2.627566e+000 -3.213138e+000 -6.077538e+000 -3.114562e+000 1.149015e+000 -4.800633e+000 -5.005208e+000 -1.154701e+000 8.386237e-001 5.260847e-001 -3.840208e-001 2.766775e-001 3.474269e-001 -3.992996e-002 1.034721e+000 5.222509e-002 3.281831e-001 1.332759e+000 -5.370835e-001 -1.047178e+000
<VARIANCE> 25
 5.090754e+001 8.590504e+001 2.175929e+001 4.032406e+001 1.028809e+001 4.480322e+001 1.447974e+002 2.222900e+001 1.360133e+001 5.637861e+001 2.210385e+001 4.188206e+001 2.369095e+000 5.414556e-001 2.892385e+000 5.045303e+000 1.916091e+000 2.973330e+000 3.569195e+000 1.480983e+000 1.575189e+000 2.580000e+000 3.326619e+000 4.694791e+000 1.259430e+000
<GCONST> 9.950584e+001
~s "ST_j_4_1"
<MEAN> 25
 1.016686e+000 7.575994e+000 4.322444e+000 -3.537449e+000 -6.097831e+000 -9.137291e+000 -7.482160e+000 1.546015e+000 -7.988254e-001 6.737735e+000 6.050406e+000 -7.371299e+000 -1.443844e-001 5.316249e-002 3.516664e-001 -4.685018e-001 1.284635e-001 -9.970226e-004 -2.654108e-001 5.421423e-001 2.052641e-001 4.026059e-002 8.086273e-002 -2.438190e-001 6.643451e-002
<VARIANCE> 25
 4.129414e+001 1.003237e+002 1.189914e+001 7.019765e+001 5.600558e+001 1.076077e+002 7.430085e+001 3.440584e+001 6.447136e+001 2.991402e+001 3.969788e+001 1.251384e+002 2.376351e+000 4.713656e+000 1.952708e+000 5.201186e+000 4.523669e+000 9.048797e+000 3.783273e+000 6.405972e+000 3.714676e+000 5.401768e+000 3.062642e+000 2.896696e+000 7.180809e+000
<GCONST> 1.124166e+002
~s "ST_w_2_1"
<MEAN> 25
 7.574621e+000 1.077517e+001 8.929329e+000 -9.583991e+000 6.383318e-001 -7.696193e+000 -3.115314e+000 3.850816e+000 -4.692685e+000 -1.248266e+000 -7.087313e+000 -2.667437e+000 1.135893e-001 2.385108e-001 -2.241528e-001 -6.145621e-003 -4.097935e-001 -1.053773e+000 2.591844e-001 8.598509e-001 -8.167199e-002 8.612100e-001 3.863342e-001 -2.822542e-001 -7.215333e-002
<VARIANCE> 25
 1.147515e+001 7.328690e+000 3.695000e+001 8.483462e+000 1.117047e+001 4.074446e+001 1.687059e+001 2.581216e+001 3.546899e+001 1.250401e+002 3.167137e+001 2.366288e+001 1.769032e-001 7.859165e-001 1.370070e+000 1.367140e+000 1.128695e+000 1.286317e+000 1.684904e+000 1.045274e+000 1.205825e+000 4.047784e+000 1.568672e+000 1.509853e+000 4.700166e-001
<GCONST> 8.462616e+001
~s "ST_w_3_1"
<MEAN> 25
 6.371541e+000 1.054999e+000 1.178709e+000 -1.516232e+001 5.554783e+000 -8.628569e+000 1.788917e+000 3.206192e+000 -3.664234e+000 -1.694751e+000 1.525886e+000 -1.530255e+000 -4.833367e-001 -1.708621e+000 -4.023498e-001 -2.954752e-002 6.510859e-001 6.149676e-001 1.210289e+000 -8.702992e-001 7.739574e-001 -2.695871e-001 5.323629e-001 -1.666279e-002 1.098872e+000
<VARIANCE> 25
 1.545004e+001 7.317045e+001 2.396347e+001 2.883385e+001 4.584344e+001 4.253534e+001 5.587509e+001 3.767962e+001 6.341220e+001 1.120770e+002 4.323549e+001 3.752970e+001 3.779719e-001 1.832866e+000 1.525319e+000 3.490296e+000 1.445128e+000 1.493616e+000 3.062338e+000 1.884004e+000 3.970816e+000 5.916651e+000 8.286695e+000 5.369586e+000 1.222144e+000
<GCONST> 1.019837e+002
~s "ST_w_4_1"
<MEAN> 25
 -3.501499e+000 9.492224e+000 2.679973e+000 -5.792485e+000 3.333969e+000 -1.179950e+000 1.159932e+000 1.248468e+000 3.964355e+000 -2.291112e+000 1.840407e+000 5.503929e+000 -3.969952e-003 4.602257e-003 1.887763e-002 1.026267e-001 -3.811901e-002 -5.066121e-002 -5.043526e-002 -8.091582e-002 -1.227113e-001 -2.940143e-002 3.568305e-002 2.989876e-002 -4.726218e-002
<VARIANCE> 25
 5.454609e+000 2.087847e+002 1.138243e+001 1.130527e+001 2.731674e+001 2.258460e+001 9.077049e+001 2.185113e+001 2.642872e+001 2.056377e+001 2.195203e+001 1.765762e+001 2.154311e-001 3.457033e-001 8.362385e-001 9.039871e-001 1.117715e+000 1.585230e+000 1.514090e+000 2.363480e+000 2.507309e+000 2.093147e+000 1.922565e+000 1.766430e+000 9.790810e-002
<GCONST> 8.364407e+001
~s "ST_ng_2_1"
<MEAN> 25
 1.089255e+000 -2.669376e+000 2.721061e+000 -5.767996e+000 9.056081e-001 6.895077e+000 3.884723e+000 -1.635570e+000 -5.181544e+000 -1.694502e+000 1.467124e+000 3.552672e+000 -8.672438e-002 9.664698e-001 -1.908519e-001 2.827363e-001 4.337636e-001 2.263723e-001 -3.186778e-001 4.100562e-001 6.856081e-001 4.469903e-001 -1.697466e-002 4.015842e-002 -8.508641e-001
<VARIANCE> 25
 4.768529e+001 1.169511e+002 1.248550e+002 4.884620e+001 4.828612e+001 1.081445e+002 7.597137e+001 4.467682e+001 8.297124e+001 7.324692e+001 5.800658e+001 4.774501e+001 7.524671e-001 2.182079e+000 1.819065e+000 4.084662e+000 4.508833e+000 3.459138e+000 5.645630e+000 3.715213e+000 4.955791e+000 6.898476e+000 4.918682e+000 5.286315e+000 1.418273e+000
<GCONST> 1.120496e+002
~s "ST_ng_3_1"
<MEAN> 25
 2.924096e+000 -3.375928e-001 -3.670753e-001 1.261412e+000 7.424942e+000 -3.662774e+000 -1.631560e+000 -3.555023e+000 3.136870e+000 6.032786e-001 4.126657e+000 -5.042269e+000 -2.551951e-001 3.659631e-001 2.340385e-001 3.718156e-001 2.065404e-002 5.532842e-001 -5.643752e-002 5.179957e-001 2.912633e-001 -2.739012e-002 -2.462866e-001 -8.579288e-002 -5.437130e-001
<VARIANCE> 25
 1.098536e+001 5.308122e+001 1.877668e+001 3.030059e+001 3.458321e+001 3.658353e+001 2.752593e+001 2.299932e+001 3.953971e+001 3.455156e+001 7.502738e+001 3.128299e+001 4.137558e-001 1.625460e+000 8.944761e-001 1.639626e+000 1.643583e+000 1.723340e+000 3.410852e+000 1.652525e+000 2.050554e+000 2.098121e+000 3.057797e+000 1.728926e+000 9.613591e-001
<GCONST> 9.307495e+001
~s "ST_m_2_1"
<MEAN> 25
 6.597801e+000 3.591630e+000 -3.636620e+000 6.978070e-001 1.562377e+000 2.612242e+000 -1.214272e+000 -4.616739e-001 -3.359638e+000 -3.964064e+000 -2.395783e+000 -1.453750e-001 -2.039354e-001 1.355925e+000 3.898346e-001 5.452027e-001 5.061158e-002 1.672046e-001 -3.772666e-001 -1.827219e-001 8.043995e-002 2.074686e-001 -4.230805e-001 -2.164212e-001 -9.817164e-001
<VARIANCE> 25
 3.911402e+001 7.176744e+001 4.769213e+001 1.008095e+002 3.642944e+001 5.432599e+001 5.905625e+001 3.821136e+001 4.406106e+001 3.278167e+001 3.137609e+001 3.572710e+001 1.085891e+000 3.101902e+000 2.868717e+000 5.256781e+000 2.668391e+000 3.132910e+000 2.912909e+000 3.024776e+000 2.563250e+000 3.028935e+000 2.633109e+000 2.518763e+000 9.018226e-001
<GCONST> 1.040396e+002
~s "ST_ng_4_1"
<MEAN> 25
 -2.961593e+000 5.468156e-001 -2.696522e+000 4.077313e+000 1.753089e+000 2.361763e+000 4.551120e+000 1.711588e+000 1.966380e+000 4.958481e+000 1.817342e+000 1.854981e+000 -1.060245e-001 -8.402995e-003 -7.819761e-002 -1.915795e-002 -1.776984e-003 4.710952e-002 1.470521e-002 4.103106e-002 1.132119e-002 4.564217e-002 4.246702e-002 9.789533e-002 -1.064124e-001
<VARIANCE> 25
 9.346870e+000 1.696925e+001 2.485873e+001 8.411748e+000 1.645237e+001 1.059373e+001 1.393433e+001 2.165432e+001 1.698513e+001 1.781396e+001 1.169015e+001 1.828638e+001 1.344582e-001 2.899642e-001 4.287040e-001 6.276292e-001 8.613924e-001 9.557987e-001 1.121668e+000 1.177832e+000 1.132252e+000 1.083139e+000 1.299402e+000 9.406678e-001 8.469579e-002
<GCONST> 7.176663e+001
~s "ST_ng_4_2"
<MEAN> 25
 -2.688174e+000 1.087444e+001 1.389338e+000 -2.003978e+000 1.710023e+000 4.914692e-001 2.327107e-003 1.774812e+000 3.961731e+000 -9.662908e-001 2.502733e-001 2.499303e+000 -1.272847e-001 2.464993e-002 1.776019e-001 1.217926e-001 -6.161613e-002 -2.074957e-001 -2.104206e-001 -4.487971e-003 1.605196e-001 1.444791e-001 1.516134e-002 -4.484227e-002 -6.705523e-002
<VARIANCE> 25
 1.135719e+001 6.490201e+001 1.400222e+001 3.369072e+001 1.259733e+001 2.195498e+001 2.295952e+001 1.572762e+001 2.859326e+001 2.860806e+001 1.612734e+001 2.558674e+001 1.275917e-001 3.693975e-001 7.300358e-001 8.830372e-001 1.120737e+000 1.659560e+000 1.452668e+000 1.193759e+000 1.463820e+000 1.250566e+000 1.198100e+000 1.448762e+000 8.793836e-002
<GCONST> 7.934934e+001
~s "ST_m_3_1"
<MEAN> 25
 5.401772e+000 5.568147e+000 3.076268e+000 3.473701e+000 1.038198e+000 -1.034341e+000 -1.653958e+000 -1.609069e+000 -2.354719e+000 -3.683471e+000 -5.475834e+000 -3.733329e+000 -1.838527e-001 1.271757e-001 1.461251e-001 1.261998e-001 1.325103e-002 2.561405e-002 5.283822e-002 3.991470e-002 1.683910e-001 1.571343e-001 6.420722e-002 3.993485e-002 -1.733548e-001
<VARIANCE> 25
 2.397011e+001 2.599758e+001 2.339353e+001 5.841552e+001 5.350817e+001 2.872089e+001 5.343708e+001 5.765907e+001 3.235457e+001 2.921277e+001 2.265105e+001 2.589549e+001 1.718110e-001 4.874528e-001 7.273842e-001 1.313639e+000 9.944904e-001 1.043643e+000 1.293426e+000 1.427190e+000 1.262787e+000 1.244811e+000 1.125106e+000 1.164710e+000 1.665044e-001
<GCONST> 8.525262e+001
~s "ST_m_4_1"
<MEAN> 25
 -4.267122e+000 4.533226e+000 9.318825e-002 1.452326e-001 1.239467e+000 1.715962e+000 2.300209e+000 2.361043e+000 3.261949e+000 1.854834e+000 1.885276e+000 9.097784e-001 -3.720621e-002 1.341739e-002 3.723473e-002 2.544594e-002 2.932243e-002 3.558408e-002 1.011465e-002 -4.557239e-002 2.320153e-002 7.888267e-002 3.138474e-002 -4.488179e-002 8.391791e-003
<VARIANCE> 25
 6.059711e+000 5.412390e+001 1.437805e+001 2.877528e+001 2.340558e+001 1.692420e+001 2.272865e+001 1.869903e+001 2.073047e+001 2.520184e+001 1.609439e+001 1.574295e+001 1.201207e-001 2.987511e-001 5.884467e-001 7.659432e-001 1.224358e+000 1.335064e+000 1.351022e+000 1.529194e+000 1.694690e+000 1.770042e+000 1.300964e+000 1.076308e+000 4.788153e-002
<GCONST> 7.708109e+001
~s "ST_m_4_2"
<MEAN> 25
 -2.741297e+000 1.683547e+001 1.855402e+000 -4.009477e+000 -1.808628e+000 2.700232e-001 -1.279319e+000 1.551793e+000 3.849790e+000 -3.093434e+000 -3.795185e-001 4.228919e+000 -5.912717e-002 1.064339e-002 1.187506e-001 1.073689e-001 4.807120e-004 -1.071813e-001 -1.040039e-001 -2.461772e-002 4.688924e-002 5.492609e-002 3.443632e-002 3.035003e-002 -3.094736e-002
<VARIANCE> 25
 9.754277e+000 1.837756e+001 2.084774e+001 2.684444e+001 2.169794e+001 3.042343e+001 3.251471e+001 2.286172e+001 2.242681e+001 2.707960e+001 1.830868e+001 1.795920e+001 1.235205e-001 3.895224e-001 8.612199e-001 9.747384e-001 1.244283e+000 1.662637e+000 1.634905e+000 1.885484e+000 1.761024e+000 1.633118e+000 1.601611e+000 1.324279e+000 6.889495e-002
<GCONST> 8.054782e+001
~s "ST_c_2_1"
<MEAN> 25
 4.492237e-008 5.845701e-009 -1.328185e-007 -1.974899e-008 8.013701e-008 5.326083e-008 -2.952693e-008 -7.096470e-008 9.339078e-009 -1.337489e-007 6.334598e-008 -5.331350e-008 -9.746574e-004 8.824667e-003 5.857049e-003 -6.106692e-003 1.834674e-003 2.140600e-003 6.438790e-003 2.552634e-004 2.233275e-003 1.652292e-004 -2.947775e-004 1.625022e-004 1.768339e-002
<VARIANCE> 25
 5.093745e+001 1.386368e+002 7.180528e+001 8.644808e+001 6.100111e+001 5.655713e+001 7.255057e+001 5.467440e+001 5.467830e+001 5.295312e+001 4.155158e+001 3.905978e+001 1.136743e+000 2.774379e+000 2.153254e+000 3.157753e+000 2.791123e+000 2.802559e+000 3.391059e+000 2.977390e+000 2.833076e+000 2.917275e+000 2.609103e+000 2.223614e+000 1.691524e+000
<GCONST> 1.071680e+002
~s "ST_c_3_1"
<MEAN> 25
 4.492237e-008 5.845701e-009 -1.328185e-007 -1.974899e-008 8.013701e-008 5.326083e-008 -2.952693e-008 -7.096470e-008 9.339078e-009 -1.337489e-007 6.334598e-008 -5.331350e-008 -9.746574e-004 8.824667e-003 5.857049e-003 -6.106692e-003 1.834674e-003 2.140600e-003 6.438790e-003 2.552634e-004 2.233275e-003 1.652292e-004 -2.947775e-004 1.625022e-004 1.768339e-002
<VARIANCE> 25
 5.093745e+001 1.386368e+002 7.180528e+001 8.644808e+001 6.100111e+001 5.655713e+001 7.255057e+001 5.467440e+001 5.467830e+001 5.295312e+001 4.155158e+001 3.905978e+001 1.136743e+000 2.774379e+000 2.153254e+000 3.157753e+000 2.791123e+000 2.802559e+000 3.391059e+000 2.977390e+000 2.833076e+000 2.917275e+000 2.609103e+000 2.223614e+000 1.691524e+000
<GCONST> 1.071680e+002
~s "ST_eh_2_1"
<MEAN> 25
 2.344019e+000 -1.991431e+000 -1.815240e+000 -2.775464e+000 -1.162367e+000 -2.601274e+000 9.752089e-001 1.298667e-001 -9.711178e-003 -6.019074e-001 7.683992e-001 -4.150318e-001 1.374841e+000 -4.114858e-001 3.821880e-001 -9.273059e-001 -2.993256e-001 -9.810070e-001 -7.176514e-001 -3.754788e-001 -5.887222e-001 -1.404520e+000 -6.029930e-001 2.523329e-002 1.638076e+000
<VARIANCE> 25
 3.112505e+001 7.445010e+001 5.011602e+001 4.667467e+001 5.058192e+001 5.812088e+001 7.698694e+001 3.679716e+001 5.093528e+001 4.080961e+001 4.340314e+001 2.520200e+001 3.482968e+000 4.917853e+000 4.070281e+000 4.039816e+000 6.085850e+000 4.543004e+000 4.969561e+000 4.356700e+000 3.260304e+000 3.195141e+000 4.553721e+000 3.510980e+000 4.246204e+000
<GCONST> 1.106213e+002
~s "ST_c_4_1"
<MEAN> 25
 4.492237e-008 5.845701e-009 -1.328185e-007 -1.974899e-008 8.013701e-008 5.326083e-008 -2.952693e-008 -7.096470e-008 9.339078e-009 -1.337489e-007 6.334598e-008 -5.331350e-008 -9.746575e-004 8.824667e-003 5.857049e-003 -6.106692e-003 1.834674e-003 2.140600e-003 6.438790e-003 2.552634e-004 2.233275e-003 1.652292e-004 -2.947775e-004 1.625022e-004 1.768339e-002
<VARIANCE> 25
 5.093745e+001 1.386368e+002 7.180528e+001 8.644808e+001 6.100111e+001 5.655713e+001 7.255057e+001 5.467440e+001 5.467830e+001 5.295312e+001 4.155158e+001 3.905978e+001 1.136743e+000 2.774379e+000 2.153254e+000 3.157753e+000 2.791123e+000 2.802559e+000 3.391059e+000 2.977390e+000 2.833076e+000 2.917275e+000 2.609103e+000 2.223614e+000 1.691524e+000
<GCONST> 1.071680e+002
~s "ST_eh_3_1"
<MEAN> 25
 6.532541e+000 -2.789354e+000 3.116557e+000 -7.178538e+000 -9.373103e+000 -3.485497e+000 2.332467e+000 -3.292966e+000 -6.799652e+000 -2.072865e+000 -4.662212e+000 -8.585578e-001 1.843414e-001 4.931912e-001 -2.398600e-002 4.298837e-001 5.372040e-002 2.341288e-001 -5.586317e-001 -5.045850e-001 -2.976103e-001 7.685957e-003 1.398391e-001 1.461367e-001 -3.791586e-001
<VARIANCE> 25
 2.166804e+001 5.169514e+001 5.160350e+001 3.469290e+001 7.336634e+001 4.533642e+001 9.191370e+001 4.676627e+001 5.150486e+001 4.027945e+001 4.012649e+001 3.648708e+001 1.180900e+000 2.304704e+000 2.140928e+000 3.172757e+000 2.936064e+000 3.029505e+000 3.400000e+000 2.606408e+000 2.760930e+000 2.712803e+000 1.996952e+000 2.008325e+000 1.758386e+000
<GCONST> 1.031115e+002
~s "ST_eh_4_1"
<MEAN> 25
 5.039426e+000 -5.793931e+000 -4.627135e-001 -2.943376e+000 -1.779640e-001 -5.497141e+000 -5.076203e-001 -2.167836e+000 -2.880390e+000 -6.011100e+000 -5.320751e-001 1.484940e+000 -1.574357e-001 5.951485e-001 2.559184e-002 3.574794e-001 1.561867e-001 -1.498550e-001 -2.624237e-001 -4.181205e-001 3.107030e-004 4.208912e-001 4.907998e-001 -6.262979e-002 -2.859345e-001
<VARIANCE> 25
 3.234596e+001 1.049523e+002 2.636129e+001 2.808889e+001 7.661507e+001 5.013391e+001 7.187929e+001 4.617857e+001 4.362929e+001 4.147528e+001 5.648402e+001 3.256923e+001 4.722126e-001 1.409962e+000 8.236212e-001 1.277216e+000 2.314354e+000 1.452556e+000 1.960029e+000 1.785461e+000 1.608149e+000 2.461207e+000 1.924293e+000 1.759207e+000 3.185069e-001
<GCONST> 9.562335e+001
~s "ST_p_2_1"
<MEAN> 25
 2.963758e+000 6.361253e-001 -5.252372e+000 4.939918e-001 8.256267e-001 1.952506e+000 -1.402297e+000 1.863368e+000 9.047101e-001 2.270798e+000 2.561877e-001 5.774685e-001 -3.741190e-001 -9.259814e-001 2.773868e-002 -5.248243e-001 5.146297e-001 1.456497e-001 8.596442e-001 3.796551e-001 -5.486184e-002 -1.474705e-001 -1.294738e-001 7.086002e-002 1.092730e+000
<VARIANCE> 25
 3.944308e+001 9.651289e+001 4.631764e+001 5.761031e+001 3.860212e+001 5.162999e+001 6.282031e+001 5.250691e+001 4.202964e+001 5.213955e+001 3.710462e+001 3.801727e+001 3.580209e+000 7.454686e+000 3.369277e+000 5.568594e+000 4.398387e+000 6.529672e+000 5.804949e+000 5.834216e+000 3.400594e+000 6.144572e+000 3.410479e+000 4.795941e+000 1.182164e+001
<GCONST> 1.141236e+002
~s "ST_p_3_1"
<MEAN> 25
 -1.178483e+000 5.387116e+000 -2.443077e+000 -3.501353e+000 6.340360e-002 3.593106e-001 3.269987e-001 1.109392e+000 7.179525e-001 -2.688043e+000 -1.573614e-002 3.071390e+000 -3.575709e-001 1.767185e-001 1.463480e-001 3.268974e-001 -1.370710e-003 1.214456e-001 1.813657e-001 1.268750e-001 2.346184e-001 2.054341e-001 1.080054e-001 -3.782540e-003 -2.823184e-001
<VARIANCE> 25
 1.146754e+001 1.205380e+002 1.812678e+001 3.130531e+001 2.096436e+001 2.522550e+001 2.238233e+001 3.018054e+001 3.016649e+001 2.790183e+001 2.290701e+001 1.448506e+001 3.418974e-001 7.148272e-001 8.559263e-001 1.346785e+000 1.240801e+000 1.615753e+000 1.600528e+000 1.877803e+000 1.370303e+000 1.817335e+000 1.754002e+000 1.590687e+000 4.271007e-001
<GCONST> 8.646264e+001
~s "ST_p_4_1"
<MEAN> 25
 -5.222637e+000 1.804268e+000 1.153062e+000 3.101374e+000 2.779047e+000 2.346964e+000 4.617089e+000 3.538872e+000 3.966198e+000 3.866700e+000 3.379550e+000 -2.917881e-001 -3.630886e-002 -3.737101e-003 1.424025e-002 2.760113e-002 3.032866e-003 1.251689e-002 3.579279e-002 5.246336e-002 5.217199e-002 4.508602e-002 8.305237e-003 -1.367749e-002 -2.653929e-003
<VARIANCE> 25
 3.380679e+000 9.392365e+000 7.689644e+000 7.448067e+000 1.027813e+001 1.136827e+001 1.239245e+001 1.332057e+001 1.438209e+001 1.683430e+001 1.178384e+001 1.152086e+001 1.480071e-001 3.436121e-001 5.352441e-001 6.772832e-001 8.942887e-001 1.081229e+000 1.256463e+000 1.227769e+000 1.469823e+000 1.560937e+000 1.311493e+000 1.091404e+000 7.495967e-002
<GCONST> 6.872495e+001
~s "ST_ih_2_1"
<MEAN> 25
 7.688442e-001 3.602713e+000 6.680552e+000 -1.991774e+000 1.583676e+000 -2.871472e+000 -6.137576e+000 -4.010315e+000 7.086806e-001 -5.084311e-001 -1.834615e+000 -4.428158e-001 -2.125617e-001 -2.545778e-001 1.275435e+000 -2.804456e-001 -9.612848e-003 -8.112249e-001 -7.905415e-001 1.643496e-001 3.551086e-001 -6.574042e-001 -1.398845e-001 -3.072100e-001 5.473778e-001
<VARIANCE> 25
 2.420321e+001 1.156619e+002 1.095615e+002 1.681431e+002 1.204420e+002 6.370644e+001 5.321280e+001 6.247657e+001 4.767385e+001 5.103318e+001 4.208596e+001 3.881750e+001 2.678464e+000 4.925435e+000 5.805171e+000 9.763866e+000 6.269638e+000 5.082169e+000 5.585523e+000 6.319704e+000 5.435348e+000 5.526124e+000 4.347208e+000 3.373399e+000 3.696216e+000
<GCONST> 1.169930e+002
~s "ST_ih_3_1"
<MEAN> 25
 2.032639e+000 6.283918e+000 1.484809e+001 -7.292038e+000 -5.992458e+000 -3.329803e+000 -8.734763e+000 -6.882490e+000 -8.000765e-001 -1.774223e+000 -4.648775e+000 -3.707137e+000 1.285238e-001 7.112710e-002 -8.131986e-002 6.005923e-001 -1.693596e-001 3.452804e-002 -8.132381e-002 2.996414e-001 -7.058763e-002 -1.051990e-001 2.859237e-002 8.945411e-002 -3.857599e-001
<VARIANCE> 25
 2.163176e+001 9.250825e+001 4.907724e+001 1.757915e+002 1.131251e+002 4.796054e+001 4.462878e+001 5.239790e+001 6.693822e+001 4.119702e+001 2.578146e+001 3.951009e+001 7.593948e-001 1.021218e+000 2.195143e+000 3.533786e+000 2.908173e+000 2.092861e+000 2.553823e+000 2.447561e+000 2.551676e+000 2.816993e+000 1.833008e+000 2.008474e+000 8.157588e-001
<GCONST> 1.023208e+002
~s "ST_ih_4_1"
<MEAN> 25
 -1.201621e+000 -4.551452e+000 7.435794e+000 1.200729e+001 -1.508822e+000 -8.884669e+000 -4.135128e+000 4.038146e+000 2.896137e+000 -4.170671e+000 -4.003322e+000 -1.705197e+000 -6.757527e-002 7.854300e-001 -6.995115e-001 -5.739704e-001 2.636989e-002 2.199936e-001 2.749014e-001 -8.155742e-002 8.797304e-002 2.075807e-001 3.990339e-001 3.930268e-001 -5.107344e-001
<VARIANCE> 25
 8.736564e+000 1.887641e+002 1.044659e+002 1.381851e+002 6.610081e+001 9.707358e+001 8.387106e+001 8.515117e+001 5.421762e+001 6.886197e+001 5.478708e+001 6.119858e+001 3.152587e-001 2.495432e+000 3.103211e+000 4.690344e+000 3.096703e+000 4.745345e+000 4.311522e+000 4.369400e+000 4.428972e+000 5.376646e+000 3.812620e+000 3.487527e+000 5.583946e-001
<GCONST> 1.101520e+002
~s "ST_ih_4_2"
<MEAN> 25
 -3.163514e-001 -2.152480e+000 1.625540e+001 7.680416e+000 7.042148e+000 -1.025838e+001 -1.146760e+001 8.968419e-001 2.828492e+000 -1.193273e+001 -1.008655e+000 -4.964056e+000 3.849775e-001 5.939404e-001 -2.161824e-001 2.732900e-001 -4.474108e-002 3.028800e-001 3.700104e-001 -2.519509e-001 2.415765e-001 3.368067e-001 -1.218490e-002 1.405535e-001 -1.388717e-001
<VARIANCE> 25
 1.258271e+001 4.209066e+001 4.485974e+001 3.016662e+001 2.111323e+001 3.140365e+001 4.077627e+001 3.681303e+001 2.922489e+001 3.680415e+001 1.730601e+001 1.496035e+001 6.656380e-001 1.508691e+000 4.084809e+000 1.625697e+000 1.126040e+000 2.494847e+000 3.950017e+000 2.280927e+000 1.543357e+000 2.394702e+000 1.693529e+000 1.096434e+000 9.665853e-001
<GCONST> 9.279801e+001
~s "ST_ih_4_3"
<MEAN> 25
 -7.015333e-001 -1.460162e+000 1.051064e+001 9.115051e+000 5.396439e+000 -7.574572e+000 -7.351327e+000 7.476877e+000 5.724472e+000 -7.091007e+000 -2.083213e+000 -7.723768e-001 -4.461884e-002 1.126257e-001 -9.232624e-001 -2.170026e-001 -3.362489e-001 4.656403e-001 4.282620e-001 -5.991986e-003 -2.355202e-001 6.201594e-001 -2.570393e-002 2.272393e-001 -5.624965e-001
<VARIANCE> 25
 5.676597e+000 2.048873e+001 5.216323e+001 1.659150e+001 1.902287e+001 3.786950e+001 3.514351e+001 3.282431e+001 1.755951e+001 5.307659e+001 1.975306e+001 1.703259e+001 1.851592e-001 5.264343e-001 1.130105e+000 8.116435e-001 7.896139e-001 1.112700e+000 2.081223e+000 3.075591e+000 1.339685e+000 2.220052e+000 9.463059e-001 9.852672e-001 1.456127e-001
<GCONST> 8.215820e+001
~h "t+aa"
<BEGINHMM>
<NUMSTATES> 5
<STATE> 2
~s "ST_t_2_1"
<STATE> 3
~s "ST_t_3_1"
<STATE> 4
~s "ST_t_4_1"
~t "T_t"
<ENDHMM>
~h "b"
<BEGINHMM>
<NUMSTATES> 5
<STATE> 2
~s "ST_b_2_1"
<STATE> 3
~s "ST_b_3_1"
<STATE> 4
~s "ST_b_4_1"
~t "T_b"
<ENDHMM>
~h "c"
<BEGINHMM>
<NUMSTATES> 5
<STATE> 2
~s "ST_c_2_1"
<STATE> 3
~s "ST_c_3_1"
<STATE> 4
~s "ST_c_4_1"
~t "T_c"
<ENDHMM>
~h "d"
<BEGINHMM>
<NUMSTATES> 5
<STATE> 2
~s "ST_d_2_1"
<STATE> 3
~s "ST_d_3_1"
<STATE> 4
~s "ST_d_4_1"
~t "T_d"
<ENDHMM>
~h "g"
<BEGINHMM>
<NUMSTATES> 5
<STATE> 2
~s "ST_g_2_1"
<STATE> 3
~s "ST_g_3_1"
<STATE> 4
~s "ST_g_4_1"
~t "T_g"
<ENDHMM>
~h "h"
<BEGINHMM>
<NUMSTATES> 5
<STATE> 2
~s "ST_h_2_1"
<STATE> 3
~s "ST_h_3_1"
<STATE> 4
~s "ST_h_4_1"
~t "T_h"
<ENDHMM>
~h "j"
<BEGINHMM>
<NUMSTATES> 5
<STATE> 2
~s "ST_j_2_1"
<STATE> 3
~s "ST_j_3_1"
<STATE> 4
~s "ST_j_4_1"
~t "T_j"
<ENDHMM>
~h "k"
<BEGINHMM>
<NUMSTATES> 5
<STATE> 2
~s "ST_k_2_1"
<STATE> 3
~s "ST_k_3_1"
<STATE> 4
~s "ST_k_4_1"
~t "T_k"
<ENDHMM>
~h "l"
<BEGINHMM>
<NUMSTATES> 5
<STATE> 2
~s "ST_l_2_1"
<STATE> 3
~s "ST_l_3_1"
<STATE> 4
~s "ST_l_4_1"
~t "T_l"
<ENDHMM>
~h "m"
<BEGINHMM>
<NUMSTATES> 5
<STATE> 2
~s "ST_m_2_1"
<STATE> 3
~s "ST_m_3_1"
<STATE> 4
~s "ST_m_4_1"
~t "T_m"
<ENDHMM>
~h "n"
<BEGINHMM>
<NUMSTATES> 5
<STATE> 2
~s "ST_n_2_1"
<STATE> 3
~s "ST_n_3_1"
<STATE> 4
~s "ST_n_4_1"
~t "T_n"
<ENDHMM>
~h "p"
<BEGINHMM>
<NUMSTATES> 5
<STATE> 2
~s "ST_p_2_1"
<STATE> 3
~s "ST_p_3_1"
<STATE> 4
~s "ST_p_4_1"
~t "T_p"
<ENDHMM>
~h "r"
<BEGINHMM>
<NUMSTATES> 5
<STATE> 2
~s "ST_r_2_1"
<STATE> 3
~s "ST_r_3_1"
<STATE> 4
~s "ST_r_4_1"
~t "T_r"
<ENDHMM>
~h "s"
<BEGINHMM>
<NUMSTATES> 5
<STATE> 2
~s "ST_s_2_1"
<STATE> 3
~s "ST_s_3_1"
<STATE> 4
~s "ST_s_4_1"
~t "T_s"
<ENDHMM>
~h "w"
<BEGINHMM>
<NUMSTATES> 5
<STATE> 2
~s "ST_w_2_1"
<STATE> 3
~s "ST_w_3_1"
<STATE> 4
~s "ST_w_4_1"
~t "T_w"
<ENDHMM>
~h "y"
<BEGINHMM>
<NUMSTATES> 5
<STATE> 2
~s "ST_y_2_1"
<STATE> 3
~s "ST_y_3_1"
<STATE> 4
~s "ST_y_4_1"
~t "T_y"
<ENDHMM>
~h "t-ih"
<BEGINHMM>
<NUMSTATES> 5
<STATE> 2
~s "ST_ih_2_1"
<STATE> 3
~s "ST_ih_3_1"
<STATE> 4
~s "ST_ih_4_1"
~t "T_ih"
<ENDHMM>
~h "d-eh+l"
<BEGINHMM>
<NUMSTATES> 5
<STATE> 2
~s "ST_eh_2_1"
<STATE> 3
~s "ST_eh_3_1"
<STATE> 4
~s "ST_eh_4_1"
~t "T_eh"
<ENDHMM>
~h "t-uw"
<BEGINHMM>
<NUMSTATES> 5
<STATE> 2
~s "ST_uw_2_1"
<STATE> 3
~s "ST_uw_3_1"
<STATE> 4
~s "ST_uw_4_1"
~t "T_uw"
<ENDHMM>
~h "aa"
<BEGINHMM>
<NUMSTATES> 5
<STATE> 2
~s "ST_aa_2_1"
<STATE> 3
~s "ST_aa_3_1"
<STATE> 4
~s "ST_aa_4_1"
~t "T_aa"
<ENDHMM>
~h "ao"
<BEGINHMM>
<NUMSTATES> 5
<STATE> 2
~s "ST_ao_2_1"
<STATE> 3
~s "ST_ao_3_1"
<STATE> 4
~s "ST_ao_4_1"
~t "T_ao"
<ENDHMM>
~h "hh"
<BEGINHMM>
<NUMSTATES> 5
<STATE> 2
~s "ST_hh_2_1"
<STATE> 3
~s "ST_hh_3_1"
<STATE> 4
~s "ST_hh_4_1"
~t "T_hh"
<ENDHMM>
~h "ng"
<BEGINHMM>
<NUMSTATES> 5
<STATE> 2
~s "ST_ng_2_1"
<STATE> 3
~s "ST_ng_3_1"
<STATE> 4
~s "ST_ng_4_2"
~t "T_ng"
<ENDHMM>
~h "oh"
<BEGINHMM>
<NUMSTATES> 5
<STATE> 2
~s "ST_oh_2_1"
<STATE> 3
~s "ST_oh_3_1"
<STATE> 4
~s "ST_oh_4_1"
~t "T_oh"
<ENDHMM>
~h "sp"
<BEGINHMM>
<NUMSTATES> 3
<STATE> 2
~s "ST_sil_3_1"
<TRANSP> 3
 0.000000e+000 9.160993e-002 9.083901e-001
 0.000000e+000 9.409912e-001 5.900874e-002
 0.000000e+000 0.000000e+000 0.000000e+000
<ENDHMM>
~h "g-aa+s"
<BEGINHMM>
<NUMSTATES> 5
<STATE> 2
~s "ST_aa_2_1"
<STATE> 3
~s "ST_aa_3_1"
<STATE> 4
~s "ST_aa_4_2"
~t "T_aa"
<ENDHMM>
~h "aa-hh"
<BEGINHMM>
<NUMSTATES> 5
<STATE> 2
~s "ST_hh_2_1"
<STATE> 3
~s "ST_hh_3_1"
<STATE> 4
~s "ST_hh_4_2"
~t "T_hh"
<ENDHMM>
~h "ih-ng+ih"
<BEGINHMM>
<NUMSTATES> 5
<STATE> 2
~s "ST_ng_2_1"
<STATE> 3
~s "ST_ng_3_1"
<STATE> 4
~s "ST_ng_4_1"
~t "T_ng"
<ENDHMM>
~h "m-aa+k"
<BEGINHMM>
<NUMSTATES> 5
<STATE> 2
~s "ST_aa_2_1"
<STATE> 3
~s "ST_aa_3_2"
<STATE> 4
~s "ST_aa_4_2"
~t "T_aa"
<ENDHMM>
~h "eh-n+aa"
<BEGINHMM>
<NUMSTATES> 5
<STATE> 2
~s "ST_n_2_1"
<STATE> 3
~s "ST_n_3_1"
<STATE> 4
~s "ST_n_4_2"
~t "T_n"
<ENDHMM>
~h "y-aa+ng"
<BEGINHMM>
<NUMSTATES> 5
<STATE> 2
~s "ST_aa_2_2"
<STATE> 3
~s "ST_aa_3_1"
<STATE> 4
~s "ST_aa_4_2"
~t "T_aa"
<ENDHMM>
~h "n-ih"
<BEGINHMM>
<NUMSTATES> 5
<STATE> 2
~s "ST_ih_2_1"
<STATE> 3
~s "ST_ih_3_1"
<STATE> 4
~s "ST_ih_4_3"
~t "T_ih"
<ENDHMM>
~h "ih-m+aa"
<BEGINHMM>
<NUMSTATES> 5
<STATE> 2
~s "ST_m_2_1"
<STATE> 3
~s "ST_m_3_1"
<STATE> 4
~s "ST_m_4_2"
~t "T_m"
<ENDHMM>
~h "sil"
<BEGINHMM>
<NUMSTATES> 5
<STATE> 2
~s "ST_sil_2_1"
<STATE> 3
~s "ST_sil_3_1"
<STATE> 4
~s "ST_sil_4_1"
<TRANSP> 5
 0.000000e+000 1.000000e+000 0.000000e+000 0.000000e+000 0.000000e+000
 0.000000e+000 7.379128e-001 2.157318e-002 2.405141e-001 0.000000e+000
 0.000000e+000 0.000000e+000 9.721627e-001 2.783724e-002 0.000000e+000
 0.000000e+000 2.739140e-002 0.000000e+000 9.521351e-001 2.047354e-002
 0.000000e+000 0.000000e+000 0.000000e+000 0.000000e+000 0.000000e+000
<ENDHMM>
~h "p-aa+k"
<BEGINHMM>
<NUMSTATES> 5
<STATE> 2
~s "ST_aa_2_1"
<STATE> 3
~s "ST_aa_3_2"
<STATE> 4
~s "ST_aa_4_1"
~t "T_aa"
<ENDHMM>
~h "ng-ih+n"
<BEGINHMM>
<NUMSTATES> 5
<STATE> 2
~s "ST_ih_2_1"
<STATE> 3
~s "ST_ih_3_1"
<STATE> 4
~s "ST_ih_4_2"
~t "T_ih"
<ENDHMM>
