~o
<STREAMINFO> 1 25
<VECSIZE> 25<NULLD><MFCC_D_N_Z_0><DIAGC>
~s "silst"
<MEAN> 25
 -5.598970e+000 4.174661e+000 -9.128410e+000 4.019292e+000 -6.537170e+000 5.958121e+000 -8.433857e-001 2.359219e+000 -2.543534e+000 6.088646e+000 -6.497781e-001 3.529820e+000 1.991822e-001 -1.308330e-001 1.687604e-001 -5.608302e-002 1.419250e-001 -8.913393e-002 1.213592e-001 -4.894125e-002 -8.321889e-002 -8.584671e-002 -4.378605e-002 2.250493e-002 1.025260e+000
<VARIANCE> 25
 2.003385e+001 1.061539e+001 1.286551e+001 1.018670e+001 1.837879e+001 1.225204e+001 1.919577e+001 1.150957e+001 1.815416e+001 1.407648e+001 1.079934e+001 1.036507e+001 2.173480e+000 4.690090e-001 9.763878e-001 6.463729e-001 8.753223e-001 9.021896e-001 1.093134e+000 9.962617e-001 1.161812e+000 8.894128e-001 9.424720e-001 6.828277e-001 7.788808e+000
<GCONST> 7.831122e+001
~h "b"
<BEGINHMM>
<NUMSTATES> 5
<STATE> 2
<MEAN> 25
 6.250298e-001 3.778149e+000 7.891083e+000 -1.640101e+000 -3.944246e+000 -3.855016e+000 -1.981287e+000 -4.624129e+000 -1.721865e+000 -2.189666e-002 -3.770884e-001 -2.277856e-001 -6.762641e-001 -1.787678e+000 2.306303e+000 -1.394401e+000 -1.233567e+000 -8.469232e-001 5.448204e-001 -8.017114e-001 -4.801035e-001 1.071390e+000 -2.557052e-001 -2.439091e-001 1.948147e+000
<VARIANCE> 25
 5.411939e+001 1.183956e+002 1.080019e+002 1.360929e+002 5.432929e+001 7.402454e+001 6.916077e+001 6.671365e+001 7.683128e+001 5.291154e+001 2.832255e+001 3.849628e+001 4.763987e+000 1.315718e+001 8.090412e+000 1.595052e+001 7.590942e+000 7.608105e+000 6.876943e+000 9.292860e+000 8.241276e+000 5.749314e+000 4.740417e+000 6.341342e+000 2.187366e+000
<GCONST> 1.216044e+002
<STATE> 3
<MEAN> 25
 6.251168e-001 2.846776e+000 1.228808e+001 -7.060957e+000 -1.351070e+001 -5.030690e+000 -1.495953e+000 -8.361688e+000 -3.344070e+000 6.913021e+000 -6.877687e-001 2.513143e-001 -6.589562e-002 -3.130905e-001 -8.406277e-001 1.483623e-001 -1.687957e-002 -3.440683e-001 4.243090e-001 4.342206e-001 6.493235e-001 -7.134407e-002 3.710699e-001 -1.375250e-001 3.789671e-001
<VARIANCE> 25
 2.993410e+001 4.206991e+001 3.749208e+001 7.075350e+001 4.819854e+001 3.383371e+001 5.671777e+001 4.611628e+001 4.226190e+001 3.429036e+001 4.057980e+001 6.218194e+001 1.004135e+000 1.756487e+000 4.307310e+000 4.277150e+000 3.853885e+000 2.464235e+000 3.381722e+000 4.503696e+000 2.658645e+000 4.602229e+000 2.409121e+000 2.869674e+000 5.344707e-001
<GCONST> 1.036133e+002
<STATE> 4
<MEAN> 25
 1.457599e+000 -1.139589e+001 3.237565e+000 1.758827e+000 2.788779e-001 -3.459443e-001 2.436384e-001 -2.620747e+000 -1.730677e+000 2.375134e+000 -2.345075e+000 -2.708075e+000 9.290157e-002 1.312445e-001 -3.928948e-001 3.804667e-002 3.367989e-001 6.443439e-002 -2.165402e-002 9.867056e-002 7.213515e-002 -1.436379e-001 -8.375763e-002 7.248563e-002 -1.141672e-001
<VARIANCE> 25
 5.388359e+001 1.894271e+002 1.108224e+002 1.717256e+002 1.682459e+002 1.155953e+002 1.687156e+002 1.002267e+002 8.903231e+001 6.957359e+001 5.244267e+001 6.374135e+001 1.944590e+000 5.642616e+000 4.481639e+000 8.008396e+000 9.659043e+000 6.569834e+000 9.224424e+000 7.789583e+000 6.816707e+000 5.804429e+000 5.136674e+000 4.515231e+000 2.065601e+000
<GCONST> 1.234369e+002
<TRANSP> 5
 0.000000e+000 1.000000e+000 0.000000e+000 0.000000e+000 0.000000e+000
 0.000000e+000 7.191409e-001 2.808591e-001 0.000000e+000 0.000000e+000
 0.000000e+000 0.000000e+000 7.905741e-001 2.094259e-001 0.000000e+000
 0.000000e+000 0.000000e+000 0.000000e+000 9.197798e-001 8.022015e-002
 0.000000e+000 0.000000e+000 0.000000e+000 0.000000e+000 0.000000e+000
<ENDHMM>
~h "c"
<BEGINHMM>
<NUMSTATES> 5
<STATE> 2
<MEAN> 25
 1.292055e-008 1.831648e-008 -6.299361e-008 6.397928e-009 6.513714e-008 4.146926e-008 -2.503356e-008 -3.737221e-008 4.785829e-009 -8.260601e-008 4.838081e-008 -2.966501e-008 7.700191e-003 5.403126e-003 9.986212e-003 -4.435305e-003 5.198286e-003 1.178548e-003 5.735684e-003 -2.200497e-003 -9.225003e-004 -6.409926e-004 -2.520854e-003 -2.406914e-003 2.725629e-002
<VARIANCE> 25
 4.587285e+001 1.030148e+002 6.019880e+001 7.829473e+001 5.465159e+001 4.961901e+001 6.176896e+001 4.825900e+001 4.880714e+001 4.872197e+001 3.755544e+001 3.288158e+001 1.069084e+000 2.243620e+000 1.931021e+000 2.910384e+000 2.554792e+000 2.477852e+000 2.995093e+000 2.747025e+000 2.618064e+000 2.724945e+000 2.375594e+000 2.010036e+000 1.498881e+000
<GCONST> 1.041510e+002
<STATE> 3
<MEAN> 25
 1.292055e-008 1.831648e-008 -6.299361e-008 6.397928e-009 6.513714e-008 4.146926e-008 -2.503356e-008 -3.737221e-008 4.785829e-009 -8.260601e-008 4.838081e-008 -2.966501e-008 7.700191e-003 5.403126e-003 9.986212e-003 -4.435305e-003 5.198286e-003 1.178548e-003 5.735684e-003 -2.200497e-003 -9.225003e-004 -6.409926e-004 -2.520854e-003 -2.406914e-003 2.725629e-002
<VARIANCE> 25
 4.587285e+001 1.030148e+002 6.019880e+001 7.829473e+001 5.465159e+001 4.961901e+001 6.176896e+001 4.825900e+001 4.880714e+001 4.872197e+001 3.755544e+001 3.288158e+001 1.069084e+000 2.243620e+000 1.931021e+000 2.910384e+000 2.554792e+000 2.477852e+000 2.995093e+000 2.747025e+000 2.618064e+000 2.724945e+000 2.375594e+000 2.010036e+000 1.498881e+000
<GCONST> 1.041510e+002
<STATE> 4
<MEAN> 25
 1.292055e-008 1.831648e-008 -6.299361e-008 6.397928e-009 6.513714e-008 4.146926e-008 -2.503356e-008 -3.737221e-008 4.785829e-009 -8.260601e-008 4.838081e-008 -2.966501e-008 7.700191e-003 5.403126e-003 9.986212e-003 -4.435305e-003 5.198286e-003 1.178548e-003 5.735684e-003 -2.200497e-003 -9.225003e-004 -6.409926e-004 -2.520854e-003 -2.406914e-003 2.725629e-002
<VARIANCE> 25
 4.587285e+001 1.030148e+002 6.019880e+001 7.829473e+001 5.465159e+001 4.961901e+001 6.176896e+001 4.825900e+001 4.880714e+001 4.872197e+001 3.755544e+001 3.288158e+001 1.069084e+000 2.243620e+000 1.931021e+000 2.910384e+000 2.554792e+000 2.477852e+000 2.995093e+000 2.747025e+000 2.618064e+000 2.724945e+000 2.375594e+000 2.010036e+000 1.498881e+000
<GCONST> 1.041510e+002
<TRANSP> 5
 0.000000e+000 1.000000e+000 0.000000e+000 0.000000e+000 0.000000e+000
 0.000000e+000 6.000000e-001 4.000000e-001 0.000000e+000 0.000000e+000
 0.000000e+000 0.000000e+000 6.000000e-001 4.000000e-001 0.000000e+000
 0.000000e+000 0.000000e+000 0.000000e+000 7.000000e-001 3.000000e-001
 0.000000e+000 0.000000e+000 0.000000e+000 0.000000e+000 0.000000e+000
<ENDHMM>
~h "d"
<BEGINHMM>
<NUMSTATES> 5
<STATE> 2
<MEAN> 25
 -3.532260e+000 -3.404495e+000 4.865371e+000 -3.399517e+000 3.267693e+000 2.295633e+000 -1.394690e+000 -2.891508e+000 -3.459051e-002 1.507433e+000 1.751260e+000 2.058138e+000 2.350218e-001 -1.730893e+000 5.109262e-001 1.581833e-001 -1.656429e-001 -5.061503e-001 -1.625079e-001 -1.327415e-001 -5.195056e-001 -2.861239e-002 -2.332528e-002 -5.841755e-001 1.441934e+000
<VARIANCE> 25
 9.962589e+001 2.418031e+002 2.337400e+002 1.624982e+002 1.267380e+002 8.137345e+001 1.227152e+002 9.301402e+001 6.479684e+001 7.338367e+001 6.854434e+001 4.773774e+001 3.597546e+000 1.378862e+001 1.062376e+001 1.245935e+001 7.982305e+000 8.909861e+000 9.945631e+000 7.953745e+000 5.900057e+000 5.715263e+000 6.783297e+000 4.814526e+000 6.477459e+000
<GCONST> 1.280226e+002
<STATE> 3
<MEAN> 25
 8.789790e-001 -2.360608e+000 7.023503e+000 -5.828773e+000 -8.012052e+000 -3.236814e+000 -9.165288e-002 -2.549523e+000 -4.980403e+000 5.034852e+000 -1.809374e+000 -1.281726e+000 1.700021e-001 -9.149281e-001 6.475456e-001 -1.492042e+000 -6.171526e-001 -8.835595e-001 1.885655e-001 -7.941502e-002 -3.289089e-001 -1.231910e-001 -3.742356e-001 -2.336076e-001 1.382052e+000
<VARIANCE> 25
 1.358912e+001 6.163766e+001 6.106036e+001 9.957385e+001 1.030570e+002 3.654092e+001 9.144159e+001 3.717812e+001 5.270475e+001 5.994897e+001 3.412737e+001 4.696331e+001 1.294229e+000 4.445977e+000 5.514928e+000 5.776114e+000 8.882120e+000 3.231382e+000 1.018939e+001 5.276294e+000 6.702752e+000 6.585129e+000 3.911165e+000 4.195455e+000 2.269102e+000
<GCONST> 1.131502e+002
<STATE> 4
<MEAN> 25
 7.867792e-001 -1.234125e+001 5.151989e+000 5.919418e+000 3.047501e+000 -3.648698e+000 -3.968206e+000 2.940970e+000 -3.582455e+000 1.058171e+000 3.232985e-002 -4.308155e+000 3.414660e-002 3.383695e-001 -1.526500e-001 -9.502929e-002 -2.860475e-002 6.985036e-002 7.546304e-002 -1.167984e-001 1.535891e-001 -1.149896e-001 5.034243e-003 1.897408e-001 -1.598001e-001
<VARIANCE> 25
 2.433446e+001 1.596195e+002 1.659124e+002 1.720266e+002 1.330592e+002 1.836488e+002 1.444921e+002 8.707131e+001 9.342819e+001 7.628055e+001 8.661520e+001 8.025243e+001 7.694025e-001 5.254290e+000 4.100021e+000 6.276922e+000 5.097214e+000 5.144681e+000 7.109074e+000 4.006931e+000 5.348147e+000 4.473997e+000 3.977872e+000 4.426182e+000 2.218666e+000
<GCONST> 1.198338e+002
<TRANSP> 5
 0.000000e+000 1.000000e+000 0.000000e+000 0.000000e+000 0.000000e+000
 0.000000e+000 7.122434e-001 2.877565e-001 0.000000e+000 0.000000e+000
 0.000000e+000 0.000000e+000 6.752402e-001 3.247598e-001 0.000000e+000
 0.000000e+000 0.000000e+000 0.000000e+000 8.988756e-001 1.011244e-001
 0.000000e+000 0.000000e+000 0.000000e+000 0.000000e+000 0.000000e+000
<ENDHMM>
~h "g"
<BEGINHMM>
<NUMSTATES> 5
<STATE> 2
<MEAN> 25
 1.327286e+000 -1.175018e+000 6.116744e+000 7.149624e+000 -9.794995e-001 -2.083803e+000 -3.528352e+000 7.098160e-001 -1.809410e+000 6.011458e-003 -2.302155e+000 -3.562479e+000 -6.714767e-002 -1.260906e+000 -5.563287e-001 -5.145646e-001 3.783415e-001 -2.895724e-001 7.847122e-001 1.905794e-001 -8.649619e-001 5.694477e-001 4.419210e-001 -1.414237e-001 9.429898e-001
<VARIANCE> 25
 3.629571e+001 2.215080e+002 1.015457e+002 1.828330e+002 8.814226e+001 7.918037e+001 8.097024e+001 5.340311e+001 8.968233e+001 6.543552e+001 5.579599e+001 4.745960e+001 4.202889e+000 1.138131e+001 8.409124e+000 1.251447e+001 8.492163e+000 6.745777e+000 8.512699e+000 4.611460e+000 4.905938e+000 7.106390e+000 4.341639e+000 4.269353e+000 6.906467e+000
<GCONST> 1.231954e+002
<STATE> 3
<MEAN> 25
 4.665612e-001 -1.493621e+000 -2.987974e+000 -1.221532e+000 4.911626e+000 2.949496e-001 5.485913e-001 2.344299e-001 -1.571700e+000 3.623366e+000 2.665056e+000 1.193888e+000 4.266258e-001 1.067576e-001 -3.006710e-001 -2.599115e+000 -5.105889e-001 -7.477691e-001 -2.972581e-001 -1.091956e+000 -3.261715e-001 -3.078065e-001 -4.953204e-003 1.503472e-001 1.442384e+000
<VARIANCE> 25
 2.407061e+001 3.736140e+001 8.509550e+001 8.421549e+001 7.504562e+001 7.147426e+001 5.926904e+001 4.188150e+001 5.873526e+001 1.238404e+002 3.328204e+001 3.915261e+001 3.246781e+000 3.514282e+000 4.723315e+000 7.878294e+000 5.771962e+000 4.819383e+000 5.412696e+000 3.141965e+000 6.033936e+000 9.012916e+000 3.734800e+000 3.745167e+000 3.100887e+000
<GCONST> 1.140709e+002
<STATE> 4
<MEAN> 25
 2.433446e+000 1.858995e+000 3.375753e+000 -9.226014e+000 -8.239805e-001 -3.161861e+000 -6.878232e-001 -2.119595e+000 -4.053656e+000 -3.974282e+000 -2.069936e+000 -2.297778e+000 7.315823e-001 1.256272e+000 1.069506e+000 -6.270048e-001 -2.218421e-001 -1.029696e+000 -1.305855e+000 -1.946462e-001 -3.898094e-001 -2.677525e-001 -1.783903e+000 -1.169584e+000 5.032272e-001
<VARIANCE> 25
 3.221395e+001 4.870420e+001 5.404230e+001 8.375410e+001 5.254179e+001 3.569862e+001 6.752522e+001 4.433038e+001 5.458912e+001 8.064873e+001 4.744310e+001 3.124984e+001 1.585927e+000 2.318127e+000 2.852501e+000 7.033416e+000 7.957257e+000 2.726278e+000 4.157825e+000 3.166547e+000 5.452473e+000 7.116597e+000 3.249894e+000 2.160395e+000 1.468648e+000
<GCONST> 1.089023e+002
<TRANSP> 5
 0.000000e+000 1.000000e+000 0.000000e+000 0.000000e+000 0.000000e+000
 0.000000e+000 7.638975e-001 2.361025e-001 0.000000e+000 0.000000e+000
 0.000000e+000 0.000000e+000 6.204938e-001 3.795062e-001 0.000000e+000
 0.000000e+000 0.000000e+000 0.000000e+000 4.792967e-001 5.207033e-001
 0.000000e+000 0.000000e+000 0.000000e+000 0.000000e+000 0.000000e+000
<ENDHMM>
~h "h"
<BEGINHMM>
<NUMSTATES> 5
<STATE> 2
<MEAN> 25
 -1.726222e-001 6.650922e-001 1.364434e+000 5.570445e+000 -1.962598e-001 1.481833e+000 2.095390e-001 3.269624e+000 2.670316e-001 6.653929e-001 1.943256e+000 -1.515682e+000 -1.798759e-002 -2.445840e-002 2.383978e-002 3.123266e-002 6.541366e-002 4.474464e-002 2.499554e-002 -3.772741e-003 2.740846e-002 -2.209749e-002 -2.756586e-002 -6.478417e-003 -3.210032e-003
<VARIANCE> 25
 6.234992e+000 8.900731e+000 5.576069e+000 9.276434e+000 8.958804e+000 1.055485e+001 1.470839e+001 1.392677e+001 1.427913e+001 9.772505e+000 1.140005e+001 1.251204e+001 1.213746e-001 2.721199e-001 3.822667e-001 5.422297e-001 9.337141e-001 1.103124e+000 1.110105e+000 1.530309e+000 1.350409e+000 9.987846e-001 1.168521e+000 1.065852e+000 4.476969e-002
<GCONST> 6.666721e+001
<STATE> 3
<MEAN> 25
 -2.020838e+000 -5.093000e+000 -2.971100e+000 3.957910e+000 6.744945e+000 3.864494e+000 1.483686e+000 6.250026e-001 -4.986528e-001 -3.114187e+000 2.315150e+000 1.408851e+000 -1.960748e-001 -9.064134e-001 -8.545567e-001 -8.494229e-002 8.213273e-001 3.641018e-001 4.616501e-001 -1.159857e+000 1.301933e-001 -9.145712e-001 -1.019116e-002 4.571057e-001 8.114907e-001
<VARIANCE> 25
 1.224898e+001 4.766100e+001 1.762621e+001 1.201946e+001 9.506176e+000 1.342885e+001 1.834923e+001 2.723467e+001 1.786757e+001 1.353966e+001 1.963037e+001 2.215771e+001 3.322938e-001 2.368022e+000 1.829364e+000 4.586584e-001 1.711199e+000 1.208439e+000 2.315036e+000 2.629213e+000 1.662284e+000 1.061287e+000 2.723856e+000 2.113436e+000 2.412196e-001
<GCONST> 8.331316e+001
<STATE> 4
<MEAN> 25
 1.425494e+000 -1.407962e+000 -9.829234e-001 7.314280e-001 1.535905e-001 -7.737866e-001 -1.498837e+000 -3.251893e+000 -1.977475e+000 -2.852998e+000 -1.018838e+000 5.448615e-001 5.874476e-003 1.221000e-001 2.213473e-002 -8.036964e-002 -8.942880e-002 -1.100273e-001 -1.343830e-002 -7.198482e-002 1.554852e-001 4.790450e-002 -6.999000e-003 -5.158614e-002 -9.538345e-003
<VARIANCE> 25
 5.805133e+001 2.428081e+001 2.332827e+001 1.626765e+001 1.956606e+001 1.865471e+001 3.692659e+001 5.181489e+001 4.623843e+001 4.611961e+001 2.473316e+001 1.789648e+001 7.681327e-001 5.240090e-001 1.109769e+000 1.313413e+000 1.149728e+000 1.526274e+000 1.893646e+000 1.779284e+000 1.636822e+000 1.286554e+000 1.618271e+000 1.115549e+000 2.109398e-001
<GCONST> 8.737415e+001
<TRANSP> 5
 0.000000e+000 1.000000e+000 0.000000e+000 0.000000e+000 0.000000e+000
 0.000000e+000 9.558089e-001 4.419116e-002 0.000000e+000 0.000000e+000
 0.000000e+000 0.000000e+000 7.935880e-001 2.064121e-001 0.000000e+000
 0.000000e+000 0.000000e+000 0.000000e+000 9.505010e-001 4.949895e-002
 0.000000e+000 0.000000e+000 0.000000e+000 0.000000e+000 0.000000e+000
<ENDHMM>
~h "j"
<BEGINHMM>
<NUMSTATES> 5
<STATE> 2
<MEAN> 25
 9.590164e+000 -1.199767e+001 -4.590451e+000 3.221178e+000 -7.071485e+000 2.627311e+000 -4.786275e+000 -4.858348e+000 -3.310323e+000 -1.406952e-001 -1.469599e+000 -3.324259e+000 1.599933e-001 8.065931e-001 -3.749550e-001 9.670412e-001 -2.936673e-001 -1.933223e-001 1.605794e-001 -4.432127e-001 8.139823e-002 1.532029e-001 -6.291724e-001 -2.278210e-001 -7.157585e-001
<VARIANCE> 25
 6.883894e+000 9.800618e+001 1.912771e+001 5.462819e+001 2.491674e+001 1.992017e+001 6.406396e+001 2.161667e+001 2.286520e+001 2.922908e+001 1.340556e+002 2.100497e+001 7.907993e-001 6.425600e-001 2.314773e-001 2.193322e+000 2.653671e+000 2.022701e+000 3.523710e+000 1.467741e+000 2.879298e+000 2.242699e+000 4.606081e+000 1.161667e+000 5.029501e-001
<GCONST> 9.212519e+001
<STATE> 3
<MEAN> 25
 2.028503e+000 3.608128e+000 3.742254e-001 6.685814e+000 -4.007304e+000 2.726822e+000 -3.036117e+000 -4.060148e+000 -1.762613e+000 5.725389e-001 -2.494371e+000 -6.498782e+000 -1.051793e+000 2.584766e-001 -4.794770e-002 -6.900600e-001 2.264723e-001 5.141937e-001 1.735718e-001 9.301115e-001 6.711889e-001 5.293388e-001 8.580887e-001 -4.407248e-001 -7.789720e-001
<VARIANCE> 25
 2.222419e+001 4.888707e+001 8.191061e+001 2.779388e+001 3.820275e+001 5.003152e+001 5.573227e+001 1.596154e+001 1.496111e+001 3.840550e+001 3.850826e+001 4.857247e+001 1.253740e+000 1.175231e+000 2.591167e+000 3.176497e+000 2.710867e+000 1.780894e+000 3.574359e+000 1.421957e+000 1.585421e+000 2.739376e+000 3.368896e+000 2.992231e+000 1.076336e+000
<GCONST> 9.845039e+001
<STATE> 4
<MEAN> 25
 -3.312965e+000 5.478559e+000 6.091789e+000 -3.784749e+000 -3.491548e+000 -6.098898e+000 -5.051327e+000 1.496199e+000 -6.975358e-001 6.702475e+000 4.690168e+000 -4.103340e+000 3.749717e-002 -3.819845e-001 1.697160e-001 -7.949894e-001 6.065355e-002 -7.092881e-001 1.637473e-001 9.344228e-002 -3.017650e-001 6.410492e-002 1.729369e-001 2.871984e-001 8.255432e-001
<VARIANCE> 25
 5.481783e+001 7.550059e+001 2.705161e+001 6.512175e+001 6.853937e+001 1.218540e+002 5.914836e+001 3.418987e+001 6.568177e+001 3.244828e+001 3.037572e+001 8.868147e+001 4.014971e+000 5.960435e+000 4.129853e+000 5.477811e+000 8.392426e+000 8.784543e+000 3.368522e+000 6.230693e+000 6.060400e+000 4.758236e+000 2.967839e+000 3.744201e+000 7.194669e+000
<GCONST> 1.153359e+002
<TRANSP> 5
 0.000000e+000 1.000000e+000 0.000000e+000 0.000000e+000 0.000000e+000
 0.000000e+000 8.723632e-001 1.276368e-001 0.000000e+000 0.000000e+000
 0.000000e+000 0.000000e+000 8.574263e-001 1.425737e-001 0.000000e+000
 0.000000e+000 0.000000e+000 0.000000e+000 9.228180e-001 7.718203e-002
 0.000000e+000 0.000000e+000 0.000000e+000 0.000000e+000 0.000000e+000
<ENDHMM>
~h "k"
<BEGINHMM>
<NUMSTATES> 5
<STATE> 2
<MEAN> 25
 6.745386e+000 -7.360240e-001 -5.299622e+000 -6.682027e+000 -8.032098e-002 -7.760994e-001 -4.802228e+000 -3.846758e+000 -3.298401e+000 -1.192485e+000 -1.834183e+000 -2.828572e+000 -4.580827e-001 3.082322e-001 -3.027453e-001 4.425481e-001 1.736696e-001 3.217199e-001 4.127360e-001 5.603051e-001 7.964865e-002 3.941391e-002 2.251820e-001 1.401489e-001 -7.890144e-001
<VARIANCE> 25
 1.525242e+001 7.705881e+001 8.257900e+001 1.170305e+002 5.108169e+001 4.640366e+001 5.810811e+001 3.993565e+001 4.794677e+001 4.288465e+001 2.850862e+001 2.707206e+001 1.891446e+000 3.734993e+000 4.475681e+000 6.818236e+000 3.619352e+000 3.492662e+000 4.832182e+000 4.052593e+000 5.132386e+000 4.898913e+000 3.264958e+000 2.236604e+000 2.600686e+000
<GCONST> 1.090436e+002
<STATE> 3
<MEAN> 25
 6.814975e-001 -2.022800e-001 -4.035740e+000 6.219400e-001 7.989722e-001 1.089278e-001 7.023971e-001 -4.223220e-002 -9.515831e-001 -1.075898e-002 -2.395368e+000 -3.099961e-001 -1.301897e+000 -3.078013e-001 3.009053e-001 7.610456e-001 1.747096e-001 2.199601e-002 8.978872e-001 6.314971e-001 6.129245e-001 9.208761e-001 6.872706e-001 2.876021e-001 -2.241096e-001
<VARIANCE> 25
 1.444646e+001 4.932376e+001 4.568363e+001 4.556644e+001 4.499775e+001 4.242013e+001 6.142780e+001 2.897568e+001 4.433659e+001 3.028308e+001 3.927192e+001 3.707141e+001 2.233738e+000 2.550148e+000 2.269910e+000 4.202840e+000 2.148362e+000 4.949332e+000 5.025873e+000 3.552173e+000 5.737349e+000 3.754527e+000 3.258858e+000 3.967072e+000 5.826110e+000
<GCONST> 1.063142e+002
<STATE> 4
<MEAN> 25
 -2.893561e+000 1.693564e+000 -6.690452e-001 2.457188e+000 2.492761e+000 3.762209e+000 2.571748e+000 2.327921e+000 2.834737e+000 2.229755e+000 1.597142e+000 8.205895e-001 -1.177254e-001 7.356219e-003 1.560917e-001 2.264661e-001 3.735896e-002 1.781895e-003 4.358750e-002 7.402426e-002 5.884948e-002 3.064296e-002 1.099356e-001 9.162544e-002 -6.223850e-002
<VARIANCE> 25
 1.225490e+001 2.894906e+001 1.563911e+001 2.787067e+001 2.069581e+001 1.572353e+001 2.353526e+001 1.752310e+001 1.942160e+001 2.869072e+001 1.817753e+001 1.562512e+001 1.992821e-001 4.032794e-001 6.219854e-001 7.326832e-001 9.277041e-001 1.210553e+000 1.503109e+000 1.398003e+000 1.488293e+000 1.834730e+000 1.441801e+000 1.235763e+000 1.244110e-001
<GCONST> 7.872440e+001
<TRANSP> 5
 0.000000e+000 1.000000e+000 0.000000e+000 0.000000e+000 0.000000e+000
 0.000000e+000 7.916881e-001 2.083119e-001 0.000000e+000 0.000000e+000
 0.000000e+000 0.000000e+000 5.990675e-001 4.009325e-001 0.000000e+000
 0.000000e+000 0.000000e+000 0.000000e+000 9.437292e-001 5.627077e-002
 0.000000e+000 0.000000e+000 0.000000e+000 0.000000e+000 0.000000e+000
<ENDHMM>
~h "l"
<BEGINHMM>
<NUMSTATES> 5
<STATE> 2
<MEAN> 25
 4.864513e+000 -2.155396e+000 -4.292705e+000 -3.933836e+000 -1.318353e+000 -3.812558e+000 -9.281395e-001 -3.886699e+000 1.473749e+000 1.548649e+000 1.524172e+000 -1.425957e-002 -5.888795e-003 4.053946e-001 -1.805314e-001 -3.041584e-001 -2.275713e-001 2.151484e-001 1.320906e-001 1.863375e-001 3.042921e-001 -1.294937e-001 1.073351e-001 2.475479e-001 -3.425927e-001
<VARIANCE> 25
 1.811366e+001 3.527476e+001 3.868245e+001 6.410248e+001 5.660316e+001 5.735493e+001 5.448825e+001 5.730970e+001 6.469701e+001 5.605786e+001 4.458310e+001 2.352323e+001 5.153757e-001 1.943868e+000 1.625088e+000 3.046527e+000 2.795350e+000 3.263639e+000 2.476199e+000 3.256798e+000 3.007535e+000 3.630580e+000 2.942630e+000 2.092609e+000 6.410493e-001
<GCONST> 1.011691e+002
<STATE> 3
<MEAN> 25
 4.885783e+000 -2.825620e-001 -3.581844e+000 -4.906391e+000 -2.696729e+000 -3.149920e+000 1.246476e+000 3.165975e+000 3.074935e+000 -4.883669e+000 -1.825757e+000 8.260531e-001 -5.058918e-001 2.931812e-001 3.830113e-001 1.712740e-001 1.309121e-001 3.682518e-001 1.602712e-001 9.479876e-002 -3.017690e-001 -6.034550e-002 2.033594e-001 6.649950e-002 -4.558938e-001
<VARIANCE> 25
 2.316276e+001 5.743282e+001 2.800353e+001 5.135607e+001 5.340745e+001 4.971477e+001 8.894706e+001 7.532556e+001 3.696663e+001 3.666610e+001 3.561922e+001 1.851855e+001 7.387811e-001 1.432972e+000 1.565039e+000 3.380684e+000 3.357069e+000 2.121546e+000 2.346399e+000 2.478955e+000 2.389525e+000 2.621640e+000 1.448563e+000 2.044424e+000 1.020468e+000
<GCONST> 9.919660e+001
<STATE> 4
<MEAN> 25
 -7.812949e-001 5.026022e+000 5.558946e-001 1.209300e+000 -6.819957e-001 1.615120e+000 4.517710e-001 2.005730e+000 1.194077e+000 -2.395123e+000 1.814222e+000 1.197526e+000 -9.150033e-002 -1.148679e-003 1.657771e-001 1.496175e-001 -2.292755e-002 4.463553e-003 3.061821e-002 2.014727e-001 7.012288e-002 2.464740e-002 -2.676987e-002 1.316043e-002 -5.762525e-002
<VARIANCE> 25
 1.048486e+001 6.017537e+001 1.336477e+001 4.286365e+001 1.821803e+001 2.564552e+001 2.424715e+001 2.793447e+001 2.172056e+001 2.994647e+001 1.865454e+001 2.058905e+001 1.636002e-001 3.485369e-001 7.027711e-001 9.303021e-001 1.077265e+000 1.512654e+000 1.421908e+000 2.007881e+000 1.529745e+000 1.458500e+000 1.291184e+000 1.376474e+000 9.765873e-002
<GCONST> 8.113760e+001
<TRANSP> 5
 0.000000e+000 1.000000e+000 0.000000e+000 0.000000e+000 0.000000e+000
 0.000000e+000 7.925512e-001 2.074488e-001 0.000000e+000 0.000000e+000
 0.000000e+000 0.000000e+000 6.707878e-001 3.292122e-001 0.000000e+000
 0.000000e+000 0.000000e+000 0.000000e+000 8.979221e-001 1.020779e-001
 0.000000e+000 0.000000e+000 0.000000e+000 0.000000e+000 0.000000e+000
<ENDHMM>
~h "m"
<BEGINHMM>
<NUMSTATES> 5
<STATE> 2
<MEAN> 25
 2.631921e+000 3.306136e+000 -8.791040e-001 -2.606145e+000 5.460882e-001 1.651493e+000 -1.683162e+000 -2.669649e+000 -1.841970e+000 -2.445452e+000 -1.784834e+000 -1.832272e-001 -1.833925e-001 1.028566e+000 5.051926e-001 4.153921e-001 -8.594598e-002 2.485281e-003 -2.279571e-001 -6.165156e-002 -5.771676e-002 -2.390930e-003 -2.176079e-001 -1.351916e-001 -6.429803e-001
<VARIANCE> 25
 3.018308e+001 5.724492e+001 5.329396e+001 9.252190e+001 4.900061e+001 6.343117e+001 6.197568e+001 3.797155e+001 4.108486e+001 3.967561e+001 3.990553e+001 3.356428e+001 1.064625e+000 2.665653e+000 2.565698e+000 5.663014e+000 2.890971e+000 3.503566e+000 3.490560e+000 3.314977e+000 2.971287e+000 3.174907e+000 3.056476e+000 2.364095e+000 1.079743e+000
<GCONST> 1.050883e+002
<STATE> 3
<MEAN> 25
 4.374993e+000 4.387412e+000 1.979337e+000 4.178912e+000 2.261389e+000 -8.482543e-001 -2.526482e+000 -3.475709e+000 -3.078634e+000 -3.939085e+000 -5.124887e+000 -3.646393e+000 -3.167778e-001 9.351375e-002 2.728618e-001 3.238475e-001 -3.040175e-002 1.341752e-001 1.420762e-001 3.345423e-001 2.439921e-001 2.130456e-001 2.009626e-001 1.046592e-001 -3.003715e-001
<VARIANCE> 25
 1.833971e+001 1.865663e+001 1.470454e+001 3.007865e+001 2.812642e+001 2.634074e+001 3.557977e+001 3.912099e+001 3.211771e+001 2.470775e+001 2.466812e+001 2.269449e+001 2.941344e-001 4.883133e-001 7.137061e-001 1.022633e+000 1.131606e+000 1.188763e+000 1.424718e+000 1.586306e+000 1.651570e+000 1.386303e+000 1.461818e+000 1.197983e+000 1.413890e-001
<GCONST> 8.301355e+001
<STATE> 4
<MEAN> 25
 -2.701808e+000 5.811500e+000 1.846683e+000 1.498294e+000 4.807521e-001 1.546835e+000 7.975327e-001 2.608067e+000 2.814085e+000 3.510480e-001 1.370089e+000 9.314286e-001 -3.760587e-002 1.899966e-002 6.019402e-002 2.745955e-002 -2.020189e-002 -1.522496e-002 1.122167e-003 3.734959e-003 4.183130e-002 6.482638e-002 4.079364e-002 -1.617451e-003 -4.425413e-003
<VARIANCE> 25
 1.058802e+001 5.875299e+001 1.050728e+001 3.063593e+001 1.971387e+001 1.831255e+001 2.544155e+001 1.587560e+001 2.134692e+001 2.438700e+001 1.609452e+001 1.608063e+001 1.320545e-001 3.090831e-001 5.789809e-001 7.665645e-001 1.051899e+000 1.294606e+000 1.350267e+000 1.377520e+000 1.563006e+000 1.691470e+000 1.323895e+000 1.195072e+000 5.395886e-002
<GCONST> 7.728520e+001
<TRANSP> 5
 0.000000e+000 1.000000e+000 0.000000e+000 0.000000e+000 0.000000e+000
 0.000000e+000 7.731314e-001 2.268687e-001 0.000000e+000 0.000000e+000
 0.000000e+000 0.000000e+000 7.849396e-001 2.150604e-001 0.000000e+000
 0.000000e+000 0.000000e+000 0.000000e+000 9.504288e-001 4.957125e-002
 0.000000e+000 0.000000e+000 0.000000e+000 0.000000e+000 0.000000e+000
<ENDHMM>
~h "n"
<BEGINHMM>
<NUMSTATES> 5
<STATE> 2
<MEAN> 25
 5.587220e+000 2.147674e+000 -5.762938e-001 5.053380e-001 -1.287240e+000 -5.404940e+000 -4.435929e+000 -2.942171e+000 -4.932526e+000 -6.466882e+000 -6.606728e-001 2.015061e+000 -3.850760e-001 1.157756e+000 3.018783e-001 8.639663e-001 7.851185e-002 1.916159e-001 -2.359654e-001 -4.759631e-001 1.557897e-001 7.644408e-001 2.066786e-001 1.831523e-001 -1.060413e+000
<VARIANCE> 25
 2.107664e+001 4.652987e+001 2.410961e+001 5.158859e+001 5.984047e+001 7.087466e+001 3.028726e+001 3.445372e+001 4.732056e+001 4.674379e+001 4.242990e+001 3.170883e+001 7.656623e-001 1.902935e+000 1.812115e+000 3.213147e+000 1.739740e+000 3.222663e+000 2.094740e+000 3.581342e+000 2.389626e+000 2.717919e+000 3.366893e+000 1.967519e+000 8.283680e-001
<GCONST> 9.962082e+001
<STATE> 3
<MEAN> 25
 2.195505e+000 3.752748e+000 1.271914e+000 3.834990e+000 1.336570e+000 -1.460921e+000 -2.794183e+000 -2.649430e+000 -2.343703e+000 -3.307832e+000 -9.497612e-001 1.271776e+000 -3.243418e-001 9.092850e-002 1.701535e-001 2.559492e-001 1.369064e-001 5.015513e-001 3.161899e-001 3.444542e-001 2.639566e-001 2.309555e-001 1.084478e-001 -1.634858e-001 -2.708875e-001
<VARIANCE> 25
 1.530034e+001 2.170012e+001 1.411044e+001 2.438399e+001 3.092172e+001 2.617782e+001 2.114609e+001 2.337404e+001 2.382085e+001 1.978102e+001 2.183080e+001 2.407636e+001 2.472502e-001 4.479287e-001 5.791998e-001 9.098970e-001 1.129485e+000 1.498645e+000 1.443035e+000 1.458920e+000 1.598899e+000 1.545110e+000 1.479028e+000 1.251126e+000 1.342230e-001
<GCONST> 8.085360e+001
<STATE> 4
<MEAN> 25
 -4.205666e+000 4.152025e+000 1.716345e+000 2.594181e+000 2.808435e+000 2.670750e+000 2.656985e+000 2.955906e+000 3.413373e+000 2.059349e+000 2.508244e+000 6.385570e-001 -4.170186e-002 6.963951e-003 2.697813e-002 4.146010e-002 3.584469e-002 3.009763e-002 3.247834e-002 4.957779e-002 6.049000e-002 5.922143e-002 2.605589e-002 -2.799613e-002 2.386022e-004
<VARIANCE> 25
 1.063673e+001 3.484973e+001 7.287070e+000 1.889396e+001 1.337001e+001 1.443619e+001 2.210623e+001 1.711052e+001 1.844070e+001 2.131436e+001 1.514504e+001 1.548574e+001 1.206258e-001 3.130807e-001 5.024906e-001 6.491899e-001 9.404962e-001 1.170831e+000 1.216889e+000 1.299545e+000 1.490662e+000 1.465173e+000 1.353904e+000 1.250093e+000 5.423696e-002
<GCONST> 7.396819e+001
<TRANSP> 5
 0.000000e+000 1.000000e+000 0.000000e+000 0.000000e+000 0.000000e+000
 0.000000e+000 7.029314e-001 2.970687e-001 0.000000e+000 0.000000e+000
 0.000000e+000 0.000000e+000 8.162643e-001 1.837358e-001 0.000000e+000
 0.000000e+000 0.000000e+000 0.000000e+000 9.373170e-001 6.268302e-002
 0.000000e+000 0.000000e+000 0.000000e+000 0.000000e+000 0.000000e+000
<ENDHMM>
~h "o"
<BEGINHMM>
<NUMSTATES> 5
<STATE> 2
<MEAN> 25
 1.292055e-008 1.831648e-008 -6.299361e-008 6.397928e-009 6.513714e-008 4.146926e-008 -2.503356e-008 -3.737221e-008 4.785829e-009 -8.260601e-008 4.838081e-008 -2.966501e-008 7.700191e-003 5.403126e-003 9.986212e-003 -4.435305e-003 5.198286e-003 1.178548e-003 5.735684e-003 -2.200497e-003 -9.225003e-004 -6.409926e-004 -2.520854e-003 -2.406914e-003 2.725629e-002
<VARIANCE> 25
 4.587285e+001 1.030148e+002 6.019880e+001 7.829473e+001 5.465159e+001 4.961901e+001 6.176896e+001 4.825900e+001 4.880714e+001 4.872197e+001 3.755544e+001 3.288158e+001 1.069084e+000 2.243620e+000 1.931021e+000 2.910384e+000 2.554792e+000 2.477852e+000 2.995093e+000 2.747025e+000 2.618064e+000 2.724945e+000 2.375594e+000 2.010036e+000 1.498881e+000
<GCONST> 1.041510e+002
<STATE> 3
<MEAN> 25
 1.292055e-008 1.831648e-008 -6.299361e-008 6.397928e-009 6.513714e-008 4.146926e-008 -2.503356e-008 -3.737221e-008 4.785829e-009 -8.260601e-008 4.838081e-008 -2.966501e-008 7.700191e-003 5.403126e-003 9.986212e-003 -4.435305e-003 5.198286e-003 1.178548e-003 5.735684e-003 -2.200497e-003 -9.225003e-004 -6.409926e-004 -2.520854e-003 -2.406914e-003 2.725629e-002
<VARIANCE> 25
 4.587285e+001 1.030148e+002 6.019880e+001 7.829473e+001 5.465159e+001 4.961901e+001 6.176896e+001 4.825900e+001 4.880714e+001 4.872197e+001 3.755544e+001 3.288158e+001 1.069084e+000 2.243620e+000 1.931021e+000 2.910384e+000 2.554792e+000 2.477852e+000 2.995093e+000 2.747025e+000 2.618064e+000 2.724945e+000 2.375594e+000 2.010036e+000 1.498881e+000
<GCONST> 1.041510e+002
<STATE> 4
<MEAN> 25
 1.292055e-008 1.831648e-008 -6.299361e-008 6.397928e-009 6.513714e-008 4.146926e-008 -2.503356e-008 -3.737221e-008 4.785829e-009 -8.260601e-008 4.838081e-008 -2.966501e-008 7.700191e-003 5.403126e-003 9.986212e-003 -4.435305e-003 5.198286e-003 1.178548e-003 5.735684e-003 -2.200497e-003 -9.225003e-004 -6.409926e-004 -2.520854e-003 -2.406914e-003 2.725629e-002
<VARIANCE> 25
 4.587285e+001 1.030148e+002 6.019880e+001 7.829473e+001 5.465159e+001 4.961901e+001 6.176896e+001 4.825900e+001 4.880714e+001 4.872197e+001 3.755544e+001 3.288158e+001 1.069084e+000 2.243620e+000 1.931021e+000 2.910384e+000 2.554792e+000 2.477852e+000 2.995093e+000 2.747025e+000 2.618064e+000 2.724945e+000 2.375594e+000 2.010036e+000 1.498881e+000
<GCONST> 1.041510e+002
<TRANSP> 5
 0.000000e+000 1.000000e+000 0.000000e+000 0.000000e+000 0.000000e+000
 0.000000e+000 6.000000e-001 4.000000e-001 0.000000e+000 0.000000e+000
 0.000000e+000 0.000000e+000 6.000000e-001 4.000000e-001 0.000000e+000
 0.000000e+000 0.000000e+000 0.000000e+000 7.000000e-001 3.000000e-001
 0.000000e+000 0.000000e+000 0.000000e+000 0.000000e+000 0.000000e+000
<ENDHMM>
~h "p"
<BEGINHMM>
<NUMSTATES> 5
<STATE> 2
<MEAN> 25
 1.752714e+000 1.025634e+000 -2.684051e+000 3.301956e-001 -6.461059e-001 1.218253e+000 -9.118158e-001 1.539325e-001 -3.765469e-001 1.069818e+000 -3.499896e-001 -6.366725e-001 -4.893916e-002 -7.501140e-001 7.133847e-002 -8.359881e-001 3.970430e-001 -1.256983e-001 1.123381e+000 1.636797e-001 -4.631462e-003 -3.432535e-001 3.700841e-002 -2.452696e-003 1.293439e+000
<VARIANCE> 25
 4.980128e+001 8.208654e+001 4.005661e+001 8.911000e+001 3.864334e+001 4.680502e+001 6.743111e+001 5.781441e+001 5.291687e+001 5.137067e+001 5.017408e+001 3.593330e+001 5.642932e+000 5.985912e+000 2.865712e+000 7.032631e+000 4.406696e+000 4.694761e+000 3.897622e+000 4.679851e+000 4.506557e+000 5.201542e+000 3.198903e+000 3.186334e+000 1.139221e+001
<GCONST> 1.139821e+002
<STATE> 3
<MEAN> 25
 -4.636577e-001 3.355551e+000 -2.832418e+000 -2.267402e+000 4.361556e-001 1.051547e+000 1.142942e+000 4.574071e-001 -6.266301e-002 -3.525900e+000 -4.911389e-001 2.731489e+000 -2.976886e-001 2.609598e-001 2.629662e-001 3.590920e-001 1.461445e-002 1.607818e-001 8.398041e-002 1.161290e-001 1.125415e-001 1.465299e-001 4.233370e-002 -4.317290e-002 -2.937531e-001
<VARIANCE> 25
 8.844240e+000 1.002218e+002 1.817381e+001 3.417778e+001 2.275045e+001 2.257094e+001 3.146485e+001 3.061435e+001 2.634857e+001 2.775797e+001 2.372289e+001 2.482196e+001 3.146176e-001 6.462566e-001 8.812963e-001 1.305231e+000 1.293738e+000 1.751993e+000 2.013701e+000 1.746402e+000 1.677207e+000 1.560521e+000 1.598612e+000 1.682077e+000 3.078440e-001
<GCONST> 8.664637e+001
<STATE> 4
<MEAN> 25
 -4.534711e+000 1.397122e+000 1.314758e+000 2.978707e+000 2.239780e+000 2.746037e+000 4.152240e+000 2.916863e+000 3.734972e+000 3.392595e+000 3.284951e+000 1.149572e-001 -4.019167e-002 4.406380e-003 1.407013e-002 3.161884e-002 8.719960e-003 1.504031e-002 3.175386e-002 3.912773e-002 6.414792e-002 9.775558e-002 4.421503e-002 -2.207188e-002 2.789308e-003
<VARIANCE> 25
 7.362875e+000 7.893231e+000 6.983545e+000 9.721642e+000 1.136714e+001 1.320105e+001 1.444783e+001 1.416896e+001 1.517273e+001 1.726418e+001 1.303908e+001 1.202001e+001 1.345511e-001 2.794260e-001 4.848245e-001 6.917361e-001 9.225752e-001 1.011546e+000 1.239415e+000 1.361656e+000 1.460605e+000 1.530956e+000 1.295004e+000 1.109200e+000 5.659958e-002
<GCONST> 6.955860e+001
<TRANSP> 5
 0.000000e+000 1.000000e+000 0.000000e+000 0.000000e+000 0.000000e+000
 0.000000e+000 7.090667e-001 2.909333e-001 0.000000e+000 0.000000e+000
 0.000000e+000 0.000000e+000 8.601015e-001 1.398985e-001 0.000000e+000
 0.000000e+000 0.000000e+000 0.000000e+000 9.533952e-001 4.660483e-002
 0.000000e+000 0.000000e+000 0.000000e+000 0.000000e+000 0.000000e+000
<ENDHMM>
~h "r"
<BEGINHMM>
<NUMSTATES> 5
<STATE> 2
<MEAN> 25
 7.748020e+000 -9.294874e+000 -2.713913e+000 -2.015539e+000 -7.823741e+000 -2.464818e+000 2.101618e+000 2.176750e+000 1.964491e+000 -1.980317e+000 -3.658175e+000 -6.927208e-001 -2.036148e-001 -6.944463e-001 9.672190e-001 2.534792e-001 -1.042034e+000 8.877915e-002 6.692952e-001 6.328611e-001 -6.662915e-001 -1.581192e-001 2.143164e-001 6.812996e-001 1.011917e-001
<VARIANCE> 25
 1.534348e+001 4.076003e+001 2.537166e+001 4.964496e+001 6.619566e+001 3.262749e+001 6.987177e+001 3.935157e+001 4.825409e+001 3.520456e+001 3.227318e+001 2.756632e+001 1.062775e+000 2.630337e+000 2.564808e+000 6.018500e+000 5.124058e+000 2.878564e+000 5.177487e+000 4.808133e+000 3.840980e+000 3.213845e+000 3.291490e+000 2.592711e+000 1.698022e+000
<GCONST> 1.042066e+002
<STATE> 3
<MEAN> 25
 4.716189e+000 -1.006927e+001 3.752062e+000 -8.859970e+000 -1.180240e+001 -3.834832e+000 7.261645e+000 1.375929e+000 -6.124700e+000 2.477789e+000 -2.670689e+000 -2.430018e+000 -5.336477e-001 7.589650e-001 4.489102e-001 -6.127201e-001 5.204666e-001 -1.843181e-001 6.998375e-001 -8.923240e-001 -5.543855e-001 6.827284e-001 -1.096733e-001 -2.650845e-001 -1.657955e-001
<VARIANCE> 25
 1.401724e+001 4.181252e+001 2.901863e+001 3.837708e+001 6.163651e+001 2.504365e+001 6.636714e+001 3.388360e+001 3.270493e+001 5.287767e+001 2.837808e+001 1.645712e+001 4.824054e-001 1.002120e+000 1.011456e+000 1.734893e+000 1.677463e+000 1.769227e+000 2.137915e+000 2.229648e+000 3.194145e+000 2.287579e+000 2.299847e+000 1.953949e+000 3.593174e-001
<GCONST> 9.295065e+001
<STATE> 4
<MEAN> 25
 4.923517e+000 -1.402995e+001 -6.941502e+000 4.141261e+000 3.603089e+000 -1.335753e+000 1.601881e+000 -2.185395e+000 -4.090485e+000 4.836919e+000 2.866637e+000 -3.011219e+000 -2.124473e-001 7.223577e-001 -9.889912e-002 2.238546e-001 4.704698e-001 2.655050e-001 -2.246505e-001 -2.850759e-001 3.234150e-001 1.204944e-002 1.359903e-002 2.467737e-001 -5.576886e-001
<VARIANCE> 25
 2.287992e+001 1.025116e+002 8.440604e+001 1.167264e+002 1.244909e+002 5.783418e+001 1.449129e+002 6.793460e+001 6.818002e+001 5.519434e+001 7.650100e+001 4.590462e+001 8.952171e-001 2.934676e+000 2.490052e+000 5.126136e+000 4.977310e+000 3.936677e+000 6.605382e+000 5.414888e+000 3.471066e+000 3.885103e+000 4.275336e+000 3.506259e+000 9.093000e-001
<GCONST> 1.126548e+002
<TRANSP> 5
 0.000000e+000 1.000000e+000 0.000000e+000 0.000000e+000 0.000000e+000
 0.000000e+000 7.990200e-001 2.009800e-001 0.000000e+000 0.000000e+000
 0.000000e+000 0.000000e+000 7.652303e-001 2.347697e-001 0.000000e+000
 0.000000e+000 0.000000e+000 0.000000e+000 8.280234e-001 1.719766e-001
 0.000000e+000 0.000000e+000 0.000000e+000 0.000000e+000 0.000000e+000
<ENDHMM>
~h "s"
<BEGINHMM>
<NUMSTATES> 5
<STATE> 2
<MEAN> 25
 -7.019454e+000 3.340779e+000 -2.769873e+000 3.457144e+000 3.619854e-001 4.586400e-001 4.207739e+000 1.703382e+000 -8.545102e-001 1.816579e+000 2.976920e+000 -1.918843e-001 -4.293371e-001 7.340086e-002 -1.731438e-001 3.935881e-002 -3.701740e-003 8.059638e-002 1.889788e-001 9.275745e-002 8.464252e-002 3.063665e-001 2.479145e-001 8.786815e-002 1.187688e-001
<VARIANCE> 25
 2.609040e+001 3.879099e+001 2.233573e+001 3.878448e+001 2.280253e+001 2.418326e+001 2.874084e+001 2.728767e+001 4.015983e+001 3.009751e+001 2.177579e+001 1.938973e+001 1.148947e+000 1.364838e+000 1.194141e+000 1.277796e+000 1.359558e+000 1.789268e+000 1.742191e+000 1.898516e+000 2.158029e+000 2.036373e+000 1.719342e+000 1.492417e+000 3.364171e-001
<GCONST> 9.004195e+001
<STATE> 3
<MEAN> 25
 -1.073083e+001 -5.736773e+000 8.640009e+000 -8.153470e+000 -2.630858e+000 4.508373e+000 2.890654e+000 -4.858247e+000 2.916106e+000 2.532981e+000 4.964972e+000 1.217268e+000 2.270368e-001 -4.759855e-001 7.405109e-001 -7.960536e-001 -4.118315e-001 -5.342402e-001 -7.188035e-001 -5.796036e-001 1.607821e-001 -1.878114e-001 -3.880664e-001 1.066313e-001 4.428727e-001
<VARIANCE> 25
 5.113748e+001 7.153135e+001 1.055189e+002 1.299485e+002 2.395429e+001 5.642165e+001 5.165912e+001 5.956711e+001 4.076847e+001 2.530972e+001 1.970045e+001 2.170911e+001 7.300175e+000 1.888115e+000 5.132612e+000 4.051137e+000 2.505512e+000 3.211090e+000 3.015031e+000 3.604840e+000 3.053032e+000 2.173457e+000 2.611935e+000 1.675778e+000 1.402326e+000
<GCONST> 1.057519e+002
<STATE> 4
<MEAN> 25
 -1.387929e+000 -1.541398e+000 -1.073123e+000 7.563792e-001 5.939497e-002 -9.230391e-001 2.036944e+000 -2.024132e+000 -2.182243e+000 1.631070e+000 5.690910e-001 1.587989e-001 5.254892e-001 5.755264e-002 1.124490e-001 -2.878093e-001 -1.808978e-001 -2.451056e-001 -3.432350e-001 6.478078e-003 -1.309775e-001 -2.107843e-001 -4.083972e-001 -4.525099e-002 6.683163e-002
<VARIANCE> 25
 5.268336e+001 2.448044e+002 1.275634e+002 1.608406e+002 8.358412e+001 9.766947e+001 8.558852e+001 7.227084e+001 6.108341e+001 5.737754e+001 4.559586e+001 5.979794e+001 3.743942e+000 4.567848e+000 4.062431e+000 5.837094e+000 5.377238e+000 5.304313e+000 5.618362e+000 5.335607e+000 4.784944e+000 5.115961e+000 4.535259e+000 4.170763e+000 1.613712e+000
<GCONST> 1.185235e+002
<TRANSP> 5
 0.000000e+000 1.000000e+000 0.000000e+000 0.000000e+000 0.000000e+000
 0.000000e+000 8.904593e-001 1.095407e-001 0.000000e+000 0.000000e+000
 0.000000e+000 0.000000e+000 6.616986e-001 3.383014e-001 0.000000e+000
 0.000000e+000 0.000000e+000 0.000000e+000 8.703749e-001 1.296251e-001
 0.000000e+000 0.000000e+000 0.000000e+000 0.000000e+000 0.000000e+000
<ENDHMM>
~h "t"
<BEGINHMM>
<NUMSTATES> 5
<STATE> 2
<MEAN> 25
 2.045804e+000 2.509403e+000 -1.397954e+000 3.462112e+000 6.138790e-002 1.975536e+000 -3.816206e+000 -1.057013e+000 -1.902695e+000 -3.005403e+000 -6.120284e-002 1.395353e-001 -9.422362e-001 -1.764797e+000 4.351109e-001 -5.099266e-001 2.499709e-001 -4.061452e-001 6.021127e-001 2.514497e-001 -3.012196e-001 3.898571e-001 2.833078e-001 -4.638257e-001 1.149659e+000
<VARIANCE> 25
 3.767478e+001 1.237794e+002 7.503836e+001 5.114510e+001 5.234476e+001 7.032047e+001 5.414751e+001 3.457395e+001 5.009996e+001 3.986316e+001 4.168805e+001 5.007112e+001 2.909536e+000 1.549159e+001 5.146457e+000 5.642582e+000 7.469629e+000 8.407352e+000 9.195989e+000 6.523646e+000 4.384920e+000 6.392572e+000 4.007666e+000 4.191886e+000 8.451981e+000
<GCONST> 1.173361e+002
<STATE> 3
<MEAN> 25
 -1.269816e+000 -2.553568e+000 1.535900e+000 -1.165844e+000 -2.235793e+000 -3.364521e+000 2.176679e+000 -1.304667e+000 -3.049999e+000 3.334278e+000 1.516852e+000 -2.074877e+000 6.106806e-001 -1.264982e+000 5.940087e-002 -2.947583e+000 -6.658973e-001 -2.203962e+000 1.059622e-001 -9.838858e-001 -1.480021e-001 9.740255e-001 -4.945707e-002 -3.754644e-001 3.198147e+000
<VARIANCE> 25
 2.535802e+001 8.663569e+001 4.003009e+001 4.783821e+001 1.068670e+002 6.916119e+001 7.312474e+001 5.331571e+001 4.921786e+001 4.083265e+001 3.882909e+001 4.215971e+001 3.391851e+000 5.549405e+000 9.532896e+000 9.888445e+000 7.059149e+000 9.671204e+000 9.364834e+000 5.699296e+000 9.662343e+000 8.478879e+000 4.590050e+000 3.880164e+000 5.073977e+000
<GCONST> 1.179737e+002
<STATE> 4
<MEAN> 25
 3.289737e+000 -1.153366e+001 1.465262e+000 1.107119e+000 -1.918750e+000 -1.171131e+000 2.577128e+000 4.539643e-001 -6.254058e+000 2.691790e+000 6.481963e-001 -5.291665e+000 2.226382e-001 3.626892e-001 -4.125094e-001 -6.140994e-001 -2.259427e-002 1.617153e-001 6.996118e-002 -5.262476e-002 3.164735e-001 -2.268041e-001 -2.089958e-001 2.416314e-001 -4.487121e-002
<VARIANCE> 25
 2.062447e+001 1.931824e+002 1.161013e+002 1.422653e+002 1.184394e+002 8.473523e+001 1.661389e+002 8.816573e+001 8.866371e+001 5.892117e+001 4.889242e+001 6.607513e+001 1.473406e+000 3.555933e+000 4.472106e+000 6.558477e+000 4.339016e+000 3.831632e+000 7.175707e+000 5.176498e+000 5.511018e+000 3.910908e+000 3.743622e+000 2.707069e+000 1.919333e+000
<GCONST> 1.168956e+002
<TRANSP> 5
 0.000000e+000 1.000000e+000 0.000000e+000 0.000000e+000 0.000000e+000
 0.000000e+000 6.111156e-001 3.888845e-001 0.000000e+000 0.000000e+000
 0.000000e+000 0.000000e+000 4.287623e-001 5.712377e-001 0.000000e+000
 0.000000e+000 0.000000e+000 0.000000e+000 8.137363e-001 1.862638e-001
 0.000000e+000 0.000000e+000 0.000000e+000 0.000000e+000 0.000000e+000
<ENDHMM>
~h "w"
<BEGINHMM>
<NUMSTATES> 5
<STATE> 2
<MEAN> 25
 4.855489e+000 6.626890e+000 8.235312e+000 -6.318786e+000 -2.273137e+000 -3.452504e+000 -6.599634e+000 -3.466295e+000 -8.472787e+000 -4.751726e-001 -5.689765e+000 -1.388747e+000 1.356694e-001 3.369316e-001 -3.191027e-001 1.211043e-001 1.850150e-001 -2.502654e-001 -1.228582e-001 3.452437e-001 2.266392e-002 2.369751e-001 3.343793e-001 1.493368e-001 -2.174815e-001
<VARIANCE> 25
 1.779510e+001 1.490773e+001 5.498869e+001 1.138873e+002 3.083834e+001 2.660460e+001 2.529135e+001 3.890030e+001 3.002198e+001 5.463322e+001 3.503812e+001 2.916921e+001 1.639218e-001 2.530048e-001 8.183755e-001 1.212333e+000 8.935589e-001 1.355578e+000 1.509282e+000 1.340078e+000 1.206849e+000 2.076616e+000 1.197176e+000 1.081533e+000 1.594884e-001
<GCONST> 8.525025e+001
<STATE> 3
<MEAN> 25
 6.218776e+000 4.233665e+000 6.367847e-001 -1.335532e+001 4.457449e+000 -5.699068e+000 -2.255809e+000 2.009307e+000 -3.507719e+000 7.157968e-001 1.496354e+000 -2.589685e+000 -4.514686e-001 -1.690586e+000 -3.352588e-001 -8.726262e-001 6.125589e-001 2.875291e-001 1.480368e+000 -2.723103e-001 1.385093e+000 -8.070140e-001 -1.514215e-001 -7.626089e-001 1.380423e+000
<VARIANCE> 25
 1.175077e+001 6.156293e+001 5.517522e+001 5.749134e+001 5.238348e+001 6.919897e+001 4.336722e+001 4.485870e+001 5.094184e+001 1.562536e+002 5.734037e+001 4.270144e+001 4.925815e-001 2.302377e+000 2.818355e+000 5.263600e+000 2.561974e+000 1.866661e+000 2.814251e+000 3.268342e+000 3.573410e+000 9.926734e+000 8.687809e+000 4.201630e+000 1.248985e+000
<GCONST> 1.071425e+002
<STATE> 4
<MEAN> 25
 -4.123053e-001 6.464950e+000 2.813956e+000 -8.253320e+000 2.862537e+000 -3.788808e+000 2.247060e+000 1.824165e+000 1.558376e+000 -3.911954e+000 1.084336e+000 2.920674e+000 -4.683983e-002 -1.653053e-001 -8.153602e-002 1.561717e-001 -9.048654e-002 -8.026870e-002 2.379568e-002 -2.183705e-001 -2.565876e-001 1.008194e-001 1.712098e-001 1.485877e-001 -4.427393e-002
<VARIANCE> 25
 2.651260e+001 1.841821e+002 1.781617e+001 2.325091e+001 2.479167e+001 3.724483e+001 7.285101e+001 2.688352e+001 3.934851e+001 2.213193e+001 2.468873e+001 3.472237e+001 1.819174e-001 6.333395e-001 7.877225e-001 7.534338e-001 1.029520e+000 1.454851e+000 1.389302e+000 2.159573e+000 2.229989e+000 1.983690e+000 1.825132e+000 1.944414e+000 2.070380e-001
<GCONST> 8.839684e+001
<TRANSP> 5
 0.000000e+000 1.000000e+000 0.000000e+000 0.000000e+000 0.000000e+000
 0.000000e+000 8.894216e-001 1.105784e-001 0.000000e+000 0.000000e+000
 0.000000e+000 0.000000e+000 8.223156e-001 1.776844e-001 0.000000e+000
 0.000000e+000 0.000000e+000 0.000000e+000 9.417771e-001 5.822297e-002
 0.000000e+000 0.000000e+000 0.000000e+000 0.000000e+000 0.000000e+000
<ENDHMM>
~h "y"
<BEGINHMM>
<NUMSTATES> 5
<STATE> 2
<MEAN> 25
 -2.636478e+000 -1.071666e+001 8.786850e+000 -9.807146e+000 3.348341e+000 -2.538113e+000 1.970028e+000 -4.632504e+000 -5.194003e-001 1.708551e+000 -2.007772e+000 1.001595e+000 -4.109806e-001 3.030953e-001 1.521246e+000 -4.573460e-001 -5.063609e-001 -4.227374e-001 -1.440756e+000 -6.176118e-001 4.048645e-001 1.122648e+000 -2.114648e-001 -2.682441e-001 1.111610e-001
<VARIANCE> 25
 9.706873e+001 1.833601e+002 1.033780e+002 1.159479e+002 1.744566e+002 6.054572e+001 1.233524e+002 5.003019e+001 6.746114e+001 7.072165e+001 4.150815e+001 4.655132e+001 3.646529e+000 7.971632e+000 6.093970e+000 7.962311e+000 6.528313e+000 4.721727e+000 8.210632e+000 5.623567e+000 5.163331e+000 7.300520e+000 3.775796e+000 4.606156e+000 2.047489e+000
<GCONST> 1.208694e+002
<STATE> 3
<MEAN> 25
 2.467930e+000 1.078020e+000 9.439837e+000 -1.096299e+001 -1.182026e+001 -3.892845e+000 -2.439621e+000 -6.262853e+000 -3.676061e+000 4.467167e+000 -2.593495e+000 -1.635484e-001 2.588542e-002 -2.189593e-001 -1.664448e-001 -6.072358e-002 -2.064920e-001 -1.716092e-001 4.220345e-001 3.437084e-001 1.856010e-001 -4.738278e-003 7.444559e-002 -2.219898e-001 1.373075e-001
<VARIANCE> 25
 2.135602e+001 3.609164e+001 2.552082e+001 5.364075e+001 8.808360e+001 2.639025e+001 6.645055e+001 3.631220e+001 7.217894e+001 3.580385e+001 2.652687e+001 3.784465e+001 3.098985e-001 3.043551e+000 2.842499e+000 1.554360e+000 3.115422e+000 1.342768e+000 5.657992e+000 2.829381e+000 1.693425e+000 3.100221e+000 1.478385e+000 2.332634e+000 5.428135e-001
<GCONST> 9.804154e+001
<STATE> 4
<MEAN> 25
 8.585715e-001 -1.123606e+001 1.099142e+001 8.190978e+000 2.287222e+000 -1.313876e+001 -7.162124e+000 2.484377e+000 6.721354e-001 -2.237655e+000 -1.719330e+000 -7.557513e+000 1.408083e-001 1.673667e-002 -6.908882e-001 -1.561030e-001 2.098950e-001 -1.404317e-001 2.543788e-001 7.195438e-002 2.602133e-001 -2.740770e-001 2.065678e-001 3.452962e-001 -4.822453e-003
<VARIANCE> 25
 1.423217e+001 1.058265e+002 9.724242e+001 1.459142e+002 9.341490e+001 5.306553e+001 1.060663e+002 1.059693e+002 7.021741e+001 7.218723e+001 7.436821e+001 4.394838e+001 3.247079e-001 2.275938e+000 3.707897e+000 5.093104e+000 3.423913e+000 2.629632e+000 5.291546e+000 4.160898e+000 3.549394e+000 5.123418e+000 3.196433e+000 3.473057e+000 8.492833e-001
<GCONST> 1.103528e+002
<TRANSP> 5
 0.000000e+000 1.000000e+000 0.000000e+000 0.000000e+000 0.000000e+000
 0.000000e+000 6.115942e-001 3.884058e-001 0.000000e+000 0.000000e+000
 0.000000e+000 0.000000e+000 8.457600e-001 1.542400e-001 0.000000e+000
 0.000000e+000 0.000000e+000 0.000000e+000 8.232871e-001 1.767129e-001
 0.000000e+000 0.000000e+000 0.000000e+000 0.000000e+000 0.000000e+000
<ENDHMM>
~h "aa"
<BEGINHMM>
<NUMSTATES> 5
<STATE> 2
<MEAN> 25
 2.669950e+000 -4.130230e+000 -1.204667e+000 -1.490676e+000 -2.659786e-001 -2.555459e+000 6.432210e-001 -8.715981e-001 -5.487263e-001 -1.189078e+000 -6.982538e-001 -4.026850e-001 1.019678e+000 -2.073371e+000 -1.208506e+000 -9.461034e-001 5.684891e-001 9.382424e-002 6.012135e-001 -3.391216e-001 -5.622914e-001 -6.874096e-001 -4.659221e-001 2.467246e-002 1.742873e+000
<VARIANCE> 25
 3.237095e+001 1.245012e+002 4.953255e+001 8.609629e+001 6.961261e+001 5.171191e+001 1.029361e+002 5.688969e+001 5.536154e+001 5.783371e+001 5.552483e+001 3.705738e+001 2.549118e+000 6.173568e+000 4.032185e+000 6.791133e+000 6.642323e+000 5.426934e+000 7.704502e+000 6.662359e+000 5.018681e+000 6.167455e+000 5.365517e+000 3.551269e+000 3.291512e+000
<GCONST> 1.163314e+002
<STATE> 3
<MEAN> 25
 4.946227e+000 -1.332600e+001 -6.465842e+000 -2.843381e+000 2.460495e+000 4.984269e-001 6.488130e+000 -2.769939e+000 -1.409678e+000 -1.203957e+000 -1.372536e+000 -3.904536e-001 2.559565e-001 3.422377e-001 -1.295018e-001 4.639933e-001 7.897498e-002 2.796150e-001 -3.807725e-001 -5.206689e-002 -2.495605e-001 -2.240928e-001 -2.143724e-001 8.148235e-002 -4.939393e-001
<VARIANCE> 25
 2.218435e+001 6.645959e+001 3.400937e+001 7.812543e+001 7.074733e+001 4.315324e+001 6.687411e+001 5.112541e+001 4.859811e+001 5.255895e+001 4.888094e+001 3.876204e+001 8.031864e-001 2.126249e+000 1.603926e+000 2.764339e+000 2.786173e+000 2.349252e+000 3.532930e+000 3.034531e+000 2.490896e+000 2.648123e+000 2.711189e+000 2.198708e+000 1.280425e+000
<GCONST> 1.028755e+002
<STATE> 4
<MEAN> 25
 8.607873e+000 -7.646717e+000 -6.210855e+000 -3.139845e+000 3.977024e-001 -1.561610e+000 -2.692623e+000 -1.743652e+000 -5.058359e+000 -7.575591e+000 -4.864946e+000 1.197635e+000 -1.595509e-001 5.538335e-001 1.729826e-001 1.106356e-001 -2.853825e-001 -1.541727e-001 -1.541493e-001 -5.209995e-002 -1.946642e-002 -3.936188e-002 2.092876e-001 -1.151679e-001 -4.267491e-001
<VARIANCE> 25
 2.140793e+001 5.259465e+001 2.840857e+001 5.133776e+001 3.731524e+001 3.176286e+001 6.919945e+001 3.333759e+001 3.520818e+001 4.572818e+001 4.435297e+001 3.085868e+001 2.912434e-001 1.173200e+000 9.482734e-001 1.107526e+000 1.964274e+000 1.542916e+000 1.696733e+000 1.755382e+000 1.414041e+000 1.850160e+000 1.671190e+000 1.409689e+000 3.077189e-001
<GCONST> 9.150079e+001
<TRANSP> 5
 0.000000e+000 1.000000e+000 0.000000e+000 0.000000e+000 0.000000e+000
 0.000000e+000 7.310849e-001 2.689151e-001 0.000000e+000 0.000000e+000
 0.000000e+000 0.000000e+000 8.304606e-001 1.695394e-001 0.000000e+000
 0.000000e+000 0.000000e+000 0.000000e+000 8.198419e-001 1.801582e-001
 0.000000e+000 0.000000e+000 0.000000e+000 0.000000e+000 0.000000e+000
<ENDHMM>
~h "ao"
<BEGINHMM>
<NUMSTATES> 5
<STATE> 2
<MEAN> 25
 6.535236e+000 1.647387e+000 -4.181438e+000 -9.628700e+000 2.590481e+000 -4.140400e+000 -2.469101e+000 -3.347186e+000 -3.411968e+000 4.805195e+000 -2.203584e+000 -3.858229e+000 8.457274e-001 -9.277990e-001 -4.412284e-001 -2.917624e+000 -8.550498e-001 -6.852675e-001 9.571993e-001 -8.098198e-002 3.972706e-001 1.054288e+000 -5.468874e-002 -1.070922e+000 1.395228e+000
<VARIANCE> 25
 1.437131e+001 3.529946e+001 4.943264e+001 5.675507e+001 9.447887e+001 4.701293e+001 5.551854e+001 3.664906e+001 5.324435e+001 6.645510e+001 3.334905e+001 3.050689e+001 2.263280e+000 5.761911e-001 3.025213e+000 4.884247e+000 5.591702e+000 3.969433e+000 1.117113e+001 3.514421e+000 7.099507e+000 5.368448e+000 3.755451e+000 2.661963e+000 8.016229e-001
<GCONST> 1.066790e+002
<STATE> 3
<MEAN> 25
 6.763905e+000 -9.192130e-001 -3.351799e+000 -1.586738e+001 6.113752e-001 -5.057203e+000 3.138243e+000 7.738551e-002 -2.027588e-001 4.742306e+000 -1.122919e+000 -6.587346e+000 1.055405e-001 -6.725327e-001 -3.816663e-001 2.994041e-001 -4.351874e-001 8.979255e-002 4.076918e-001 5.001197e-001 7.143571e-001 -2.787515e-002 3.067593e-001 -3.290051e-001 1.763918e-001
<VARIANCE> 25
 5.786310e+000 2.039099e+001 6.143134e+001 2.374078e+001 4.998463e+001 5.250247e+001 4.308512e+001 1.288565e+002 6.337705e+001 5.763234e+001 3.428313e+001 2.998757e+001 1.658538e-001 3.009915e-001 5.968136e-001 1.532717e+000 9.673367e-001 1.557441e+000 1.956304e+000 1.703034e+000 2.081612e+000 2.373747e+000 1.391288e+000 1.581665e+000 2.088305e-001
<GCONST> 8.898267e+001
<STATE> 4
<MEAN> 25
 1.250032e+001 -3.458970e-001 -7.058586e+000 -1.356558e+001 -5.174978e+000 -2.844834e-001 -7.805794e+000 -3.308584e+000 2.220075e+000 3.833707e+000 6.971748e-001 -3.930608e+000 5.340145e-002 -4.366620e-001 -1.040644e-001 6.988378e-001 -4.384960e-001 5.127242e-002 -3.753434e-004 9.656956e-002 5.177266e-001 -4.425558e-001 -4.031767e-001 1.576378e-001 -6.483062e-002
<VARIANCE> 25
 1.555837e+001 2.161596e+001 1.687247e+001 3.075870e+001 3.368032e+001 3.000872e+001 6.527433e+001 4.307884e+001 4.617125e+001 4.245044e+001 2.690790e+001 2.502173e+001 1.383901e-001 9.167091e-001 7.607825e-001 2.572378e+000 1.880369e+000 1.967637e+000 1.465250e+000 1.721076e+000 2.455162e+000 3.170413e+000 2.599949e+000 1.295236e+000 9.316810e-002
<GCONST> 8.870265e+001
<TRANSP> 5
 0.000000e+000 1.000000e+000 0.000000e+000 0.000000e+000 0.000000e+000
 0.000000e+000 5.299833e-001 4.700167e-001 0.000000e+000 0.000000e+000
 0.000000e+000 0.000000e+000 8.161198e-001 1.838802e-001 0.000000e+000
 0.000000e+000 0.000000e+000 0.000000e+000 7.865013e-001 2.134987e-001
 0.000000e+000 0.000000e+000 0.000000e+000 0.000000e+000 0.000000e+000
<ENDHMM>
~h "eh"
<BEGINHMM>
<NUMSTATES> 5
<STATE> 2
<MEAN> 25
 9.492377e-001 -1.721192e+000 -1.843743e+000 -4.438622e+000 -1.494869e+000 -2.410594e+000 3.592710e+000 -9.499584e-001 -8.240155e-002 7.517089e-001 -3.268715e-001 -9.493492e-001 1.295015e+000 -9.100614e-002 -2.316682e-001 -5.034417e-001 -3.327756e-001 -7.162704e-001 -9.457461e-001 -2.328314e-001 -3.246147e-001 -7.134985e-001 -6.924899e-001 -6.833268e-002 8.181620e-001
<VARIANCE> 25
 2.731218e+001 3.836003e+001 4.085926e+001 5.388957e+001 5.335031e+001 4.840968e+001 6.758892e+001 3.434760e+001 4.645124e+001 3.953741e+001 3.940324e+001 3.119137e+001 3.801592e+000 2.917772e+000 2.570858e+000 4.251991e+000 3.485032e+000 3.770085e+000 4.352629e+000 3.693627e+000 3.554942e+000 4.244100e+000 3.863150e+000 2.242180e+000 4.060511e+000
<GCONST> 1.072595e+002
<STATE> 3
<MEAN> 25
 7.755634e+000 -1.637956e+000 -2.774631e+000 -4.105558e+000 -4.862825e+000 -1.201760e+000 1.300097e-001 -3.013569e+000 -3.975027e+000 -2.333716e+000 -2.142153e+000 9.903255e-003 3.657799e-001 -6.824340e-002 -7.580777e-003 6.269293e-001 3.365544e-001 -1.854323e-001 -5.523980e-001 4.893499e-001 -3.193995e-001 -3.064799e-001 -1.461039e-002 2.640398e-001 -1.015455e-001
<VARIANCE> 25
 2.794156e+001 4.778859e+001 6.722289e+001 3.437149e+001 5.196621e+001 5.585902e+001 6.498183e+001 7.204163e+001 5.288856e+001 4.960230e+001 4.712725e+001 3.550179e+001 2.358146e+000 4.738268e+000 2.471177e+000 3.708897e+000 3.622994e+000 4.359637e+000 4.433315e+000 7.722867e+000 3.450341e+000 4.548177e+000 3.762496e+000 3.299345e+000 4.092549e+000
<GCONST> 1.102117e+002
<STATE> 4
<MEAN> 25
 7.900783e+000 -1.719473e+000 -1.330502e+000 -1.949164e+000 -4.955839e+000 -6.283483e+000 -3.422603e+000 -3.998378e-001 -4.826976e+000 -5.899919e+000 -4.320446e+000 1.397643e+000 -5.400600e-001 6.699603e-001 -1.041968e-002 5.195256e-001 1.898406e-001 2.155519e-001 1.093027e-001 -3.399013e-001 -6.422754e-002 1.234956e-001 3.939810e-001 -4.021953e-001 -3.606218e-001
<VARIANCE> 25
 2.139714e+001 6.455906e+001 2.399194e+001 4.289580e+001 4.525946e+001 6.104896e+001 3.962352e+001 3.687161e+001 3.330107e+001 4.093142e+001 3.180528e+001 3.058681e+001 1.680045e+000 2.243646e+000 1.085428e+000 1.932202e+000 2.425312e+000 3.470201e+000 2.930607e+000 2.218538e+000 1.906608e+000 2.384399e+000 1.729210e+000 2.159225e+000 6.055511e-001
<GCONST> 9.782275e+001
<TRANSP> 5
 0.000000e+000 1.000000e+000 0.000000e+000 0.000000e+000 0.000000e+000
 0.000000e+000 6.831982e-001 3.168018e-001 0.000000e+000 0.000000e+000
 0.000000e+000 0.000000e+000 5.445643e-001 4.554357e-001 0.000000e+000
 0.000000e+000 0.000000e+000 0.000000e+000 7.613729e-001 2.386271e-001
 0.000000e+000 0.000000e+000 0.000000e+000 0.000000e+000 0.000000e+000
<ENDHMM>
~h "hh"
<BEGINHMM>
<NUMSTATES> 5
<STATE> 2
<MEAN> 25
 7.842853e+000 -5.997093e+000 -5.728776e+000 3.313776e-001 3.280461e-001 -3.810786e+000 -6.127147e+000 3.431589e+000 -1.346366e+000 -4.557987e+000 -6.946971e-001 -7.219049e+000 -1.272453e-001 -2.867095e-001 -2.653620e-002 2.155040e-001 3.909925e-002 5.152214e-001 2.538794e-001 5.288657e-002 5.067164e-001 3.985842e-001 -3.076257e-001 -1.598964e-001 -3.915666e-002
<VARIANCE> 25
 1.711658e+001 3.800224e+001 6.906577e+001 4.624515e+001 9.606883e+001 1.268281e+002 7.059026e+001 1.405351e+002 6.500104e+001 4.869077e+001 9.831122e+001 7.589216e+001 4.133230e-001 1.327209e+000 3.391696e+000 3.430426e+000 7.740315e+000 9.047095e+000 8.467231e+000 9.582207e+000 7.022727e+000 5.262837e+000 6.969150e+000 4.178827e+000 4.914362e-001
<GCONST> 1.128507e+002
<STATE> 3
<MEAN> 25
 2.379124e+000 -5.942143e-001 -5.731486e+000 1.833714e-001 -1.356066e+000 4.861874e+000 5.597730e+000 -1.818271e+000 1.343352e+000 2.385348e+000 -3.769748e-001 4.687850e-001 -3.686582e-001 1.066933e+000 1.423418e-002 -5.326976e-001 4.317988e-001 4.875461e-001 7.514894e-002 4.602265e-001 1.916143e-001 -6.892027e-002 4.324449e-001 4.253879e-001 -6.488296e-001
<VARIANCE> 25
 1.246700e+001 1.608045e+002 3.608880e+001 5.815376e+001 5.129775e+001 5.329694e+001 3.856921e+001 4.419691e+001 5.003083e+001 4.086253e+001 3.609443e+001 4.679758e+001 2.786944e-001 2.180476e+000 1.546307e+000 2.440916e+000 2.763486e+000 3.178444e+000 1.976305e+000 1.827800e+000 3.554726e+000 2.888946e+000 2.397697e+000 2.450452e+000 3.190531e-001
<GCONST> 9.885366e+001
<STATE> 4
<MEAN> 25
 -5.006737e+000 2.328058e+000 1.556179e+000 1.570072e+000 2.645417e+000 2.573965e+000 3.113665e+000 1.736722e+000 3.239273e+000 2.374299e+000 2.777646e+000 2.692096e-001 -8.432420e-002 1.625994e-002 9.771536e-002 6.570859e-002 1.716832e-002 4.441869e-002 9.988353e-002 1.321606e-001 1.036324e-001 8.635918e-002 3.645141e-002 -5.185649e-002 -3.071914e-002
<VARIANCE> 25
 6.325250e+000 2.623794e+001 8.857924e+000 1.043288e+001 1.086018e+001 1.562538e+001 1.519700e+001 1.604147e+001 1.770052e+001 1.819932e+001 1.449602e+001 1.808990e+001 1.722097e-001 3.086400e-001 5.476577e-001 6.104009e-001 9.246268e-001 9.463823e-001 1.014670e+000 1.326837e+000 1.527630e+000 1.409850e+000 1.476227e+000 1.378338e+000 4.844094e-002
<GCONST> 7.214312e+001
<TRANSP> 5
 0.000000e+000 1.000000e+000 0.000000e+000 0.000000e+000 0.000000e+000
 0.000000e+000 8.128867e-001 1.871133e-001 0.000000e+000 0.000000e+000
 0.000000e+000 0.000000e+000 8.743625e-001 1.256375e-001 0.000000e+000
 0.000000e+000 0.000000e+000 0.000000e+000 9.605928e-001 3.940722e-002
 0.000000e+000 0.000000e+000 0.000000e+000 0.000000e+000 0.000000e+000
<ENDHMM>
~h "ih"
<BEGINHMM>
<NUMSTATES> 5
<STATE> 2
<MEAN> 25
 1.390029e+000 5.002621e+000 9.991714e+000 -3.698692e+000 -3.540384e+000 -3.989072e+000 -5.850607e+000 -4.562391e+000 -4.748332e-002 -1.277101e+000 -3.646964e+000 -2.036468e+000 -1.925422e-002 -2.079626e-002 4.554130e-001 -1.974376e-001 1.248730e-001 -3.639972e-001 -5.094828e-001 1.318844e-001 2.044401e-001 -4.547162e-001 -2.317758e-001 3.855970e-002 1.386250e-001
<VARIANCE> 25
 2.600542e+001 9.465728e+001 7.602542e+001 1.739807e+002 8.438556e+001 5.024122e+001 5.128953e+001 7.005894e+001 5.550326e+001 5.106019e+001 3.187079e+001 4.488206e+001 1.889855e+000 3.364890e+000 4.556404e+000 8.157940e+000 4.944740e+000 3.976220e+000 4.585304e+000 4.529454e+000 4.629055e+000 4.644887e+000 3.529561e+000 2.947087e+000 2.478132e+000
<GCONST> 1.127949e+002
<STATE> 3
<MEAN> 25
 -1.304273e+000 8.580680e+000 5.067855e+000 -3.544355e+000 -1.278898e+000 -1.836062e+000 -3.766102e+000 2.891920e-001 1.198286e+000 -1.397239e+000 -1.373937e+000 1.408013e+000 -1.814260e-002 -3.330550e-002 1.102587e-003 2.081877e-001 1.461578e-001 -5.143564e-002 -2.840892e-002 1.438623e-001 1.387258e-001 7.677706e-003 9.287305e-002 -4.749087e-002 -1.290126e-001
<VARIANCE> 25
 9.249316e+000 6.294219e+001 3.312481e+001 7.052789e+001 2.425067e+001 2.897694e+001 3.254301e+001 3.090404e+001 2.806721e+001 3.029080e+001 2.056510e+001 2.254542e+001 2.932220e-001 4.845798e-001 1.008600e+000 1.974338e+000 1.531724e+000 1.526788e+000 1.670767e+000 1.841640e+000 1.747947e+000 1.683579e+000 1.505922e+000 1.387449e+000 2.020039e-001
<GCONST> 8.735072e+001
<STATE> 4
<MEAN> 25
 -1.260485e+000 3.045041e+000 6.710733e+000 2.292471e+000 3.444912e+000 -4.935429e+000 -6.278535e+000 1.145803e+000 3.710825e+000 -5.383653e+000 -4.496843e-001 4.455281e-002 7.643347e-003 3.618904e-002 -4.295443e-001 -1.085475e-001 -1.880421e-003 2.345274e-001 1.200867e-001 -2.188351e-001 -5.163965e-002 2.891064e-001 2.251308e-001 1.582257e-001 -1.531261e-001
<VARIANCE> 25
 1.043666e+001 9.931831e+001 1.196741e+002 1.067077e+002 5.545217e+001 7.694680e+001 7.516332e+001 6.410161e+001 4.098050e+001 6.902271e+001 3.364639e+001 4.153354e+001 3.020035e-001 1.063840e+000 1.686615e+000 1.549139e+000 1.664891e+000 2.383075e+000 3.088539e+000 2.754047e+000 2.348529e+000 2.709445e+000 2.132889e+000 1.762577e+000 2.891704e-001
<GCONST> 9.965211e+001
<TRANSP> 5
 0.000000e+000 1.000000e+000 0.000000e+000 0.000000e+000 0.000000e+000
 0.000000e+000 8.164784e-001 1.835216e-001 0.000000e+000 0.000000e+000
 0.000000e+000 0.000000e+000 8.536862e-001 1.463139e-001 0.000000e+000
 0.000000e+000 0.000000e+000 0.000000e+000 7.648378e-001 2.351622e-001
 0.000000e+000 0.000000e+000 0.000000e+000 0.000000e+000 0.000000e+000
<ENDHMM>
~h "ng"
<BEGINHMM>
<NUMSTATES> 5
<STATE> 2
<MEAN> 25
 3.084633e+000 -3.934310e+000 -2.987860e+000 -3.217030e+000 7.771287e+000 -2.990161e+000 1.148052e+000 -3.968163e+000 3.009558e+000 -1.086889e+000 5.842029e+000 -3.185536e+000 -3.759749e-002 7.330583e-001 2.959316e-001 8.235973e-001 7.727063e-002 4.418673e-001 -3.210035e-001 3.091737e-001 -4.109397e-002 -1.386124e-001 -3.317620e-001 -1.220650e-001 -7.227309e-001
<VARIANCE> 25
 6.856359e+000 3.077628e+001 1.719625e+001 4.768737e+001 4.172132e+001 4.057759e+001 3.825125e+001 2.582151e+001 3.846479e+001 4.747288e+001 5.396330e+001 2.763481e+001 3.111767e-001 1.496223e+000 1.074057e+000 2.630623e+000 1.755182e+000 1.399778e+000 3.170658e+000 1.911600e+000 2.720893e+000 2.241392e+000 4.092521e+000 1.719177e+000 1.150816e+000
<GCONST> 9.402962e+001
<STATE> 3
<MEAN> 25
 2.625901e+000 5.127756e+000 2.007734e+000 4.520358e+000 2.720349e+000 1.059951e+000 3.159347e-001 -2.320331e+000 -3.591185e+000 -3.021513e+000 -4.855682e+000 -4.269646e+000 -4.052987e-001 -1.037075e-002 5.135259e-002 2.814350e-001 -1.929434e-001 7.466234e-002 -2.097750e-002 5.667561e-001 5.031383e-001 3.728726e-001 4.065626e-001 3.916145e-001 -4.482454e-001
<VARIANCE> 25
 1.272759e+001 3.364119e+001 1.835297e+001 2.234795e+001 2.878494e+001 1.811859e+001 2.506042e+001 3.379335e+001 3.075296e+001 2.893648e+001 2.759550e+001 3.398259e+001 3.857865e-001 7.417380e-001 7.163845e-001 9.065707e-001 1.209057e+000 1.723211e+000 1.921070e+000 1.727550e+000 1.830957e+000 1.660952e+000 2.022207e+000 1.536093e+000 1.886552e-001
<GCONST> 8.548450e+001
<STATE> 4
<MEAN> 25
 -1.150102e+000 8.108311e-001 -1.484018e+000 3.361026e+000 -6.911700e-001 2.054249e+000 1.736539e+000 7.697779e-001 5.636658e-001 2.207891e+000 8.607272e-001 1.673380e+000 -6.619798e-002 -3.290245e-003 -2.477655e-002 -4.799325e-002 -2.759177e-002 -6.726911e-003 -4.458697e-002 1.176208e-002 3.332084e-002 5.108821e-002 2.429448e-002 5.519251e-002 -5.002916e-002
<VARIANCE> 25
 7.357234e+000 1.687323e+001 2.218503e+001 1.571382e+001 1.792252e+001 1.231721e+001 1.977909e+001 1.691637e+001 1.822549e+001 2.426644e+001 1.270920e+001 1.762660e+001 1.327224e-001 2.906610e-001 4.825441e-001 8.256633e-001 8.763523e-001 9.187732e-001 1.049685e+000 9.948288e-001 1.309865e+000 1.269478e+000 1.206806e+000 9.862058e-001 9.213471e-002
<GCONST> 7.328528e+001
<TRANSP> 5
 0.000000e+000 1.000000e+000 0.000000e+000 0.000000e+000 0.000000e+000
 0.000000e+000 8.239410e-001 1.760590e-001 0.000000e+000 0.000000e+000
 0.000000e+000 0.000000e+000 7.699997e-001 2.300003e-001 0.000000e+000
 0.000000e+000 0.000000e+000 0.000000e+000 9.412271e-001 5.877290e-002
 0.000000e+000 0.000000e+000 0.000000e+000 0.000000e+000 0.000000e+000
<ENDHMM>
~h "oh"
<BEGINHMM>
<NUMSTATES> 5
<STATE> 2
<MEAN> 25
 -5.145528e+000 -9.869123e-001 1.060745e+000 1.858978e+000 2.371425e+000 1.147574e+000 3.626664e+000 2.318642e+000 2.491032e+000 1.682702e+000 1.592397e+000 -5.327833e-001 -1.276691e-002 2.455133e-002 6.501900e-002 -2.204474e-002 4.940290e-002 1.599246e-002 7.301819e-002 8.015449e-002 1.117031e-001 1.294927e-001 3.089552e-002 -1.592780e-002 2.711949e-002
<VARIANCE> 25
 2.648876e+000 5.517701e+000 4.235857e+000 1.300931e+001 8.313807e+000 7.735487e+000 1.268890e+001 1.396631e+001 1.286066e+001 1.442213e+001 1.476517e+001 9.084847e+000 1.336368e-001 3.278669e-001 3.287152e-001 8.361467e-001 1.424482e+000 1.009987e+000 1.468670e+000 1.286072e+000 1.597147e+000 1.348387e+000 1.900726e+000 8.687772e-001 5.407117e-002
<GCONST> 6.703284e+001
<STATE> 3
<MEAN> 25
 4.579625e+000 -3.070137e+000 -7.732153e+000 -1.527428e+001 1.510656e+000 1.483036e+000 4.950044e+000 -8.313184e+000 1.620882e+000 6.013864e+000 2.461765e+000 3.448468e-001 3.298475e-001 4.923126e-001 2.341896e-001 1.115578e+000 -1.303975e-001 2.318181e-001 5.093405e-002 2.285850e-001 -5.909358e-001 -6.257879e-001 -7.382811e-001 1.434913e-001 -3.673850e-001
<VARIANCE> 25
 9.659143e+000 1.705339e+001 2.207422e+001 4.855366e+001 3.371978e+000 5.461939e+000 1.034830e+001 1.636677e+001 1.935293e+001 2.707003e+001 2.158162e+001 9.991012e+000 1.676629e-001 1.135076e-001 5.603681e-001 1.636670e+000 5.067351e-001 5.228519e-001 2.082754e+000 4.524552e-001 1.622657e+000 1.834439e+000 7.999063e-001 1.354545e+000 1.209055e-001
<GCONST> 7.133092e+001
<STATE> 4
<MEAN> 25
 3.586591e-001 -2.194512e+000 -1.012332e+000 8.976550e-001 -9.452952e-001 2.357739e+000 2.697664e+000 -1.255794e+000 -1.326880e+000 -1.861656e+000 1.951548e+000 1.205901e-001 -5.661391e-001 1.371619e-001 1.907658e-001 1.247999e+000 -1.373230e+000 -7.942242e-001 -9.296283e-001 3.859824e-001 2.020666e-001 6.874967e-002 5.416605e-001 2.250225e-001 -4.993031e-001
<VARIANCE> 25
 2.166093e+001 2.391673e+001 1.612857e+001 1.740818e+001 7.053082e+000 8.481793e+000 1.333064e+001 3.492179e+001 2.963519e+001 2.867354e+001 1.250958e+001 7.359451e+000 7.499444e-001 1.070222e+000 9.003686e-001 8.491492e-001 1.046144e+000 2.576533e+000 2.248478e-001 3.157004e+000 1.125632e+000 5.424242e-001 2.262160e+000 7.563351e-001 1.028383e+000
<GCONST> 7.956869e+001
<TRANSP> 5
 0.000000e+000 1.000000e+000 0.000000e+000 0.000000e+000 0.000000e+000
 0.000000e+000 9.589443e-001 4.105572e-002 0.000000e+000 0.000000e+000
 0.000000e+000 0.000000e+000 7.691078e-001 2.308922e-001 0.000000e+000
 0.000000e+000 0.000000e+000 0.000000e+000 7.612082e-001 2.387917e-001
 0.000000e+000 0.000000e+000 0.000000e+000 0.000000e+000 0.000000e+000
<ENDHMM>
~h "sp"
<BEGINHMM>
<NUMSTATES> 3
<STATE> 2
~s "silst"
<TRANSP> 3
 0.000000e+000 1.304075e-002 9.869593e-001
 0.000000e+000 9.365588e-001 6.344122e-002
 0.000000e+000 0.000000e+000 0.000000e+000
<ENDHMM>
~h "uw"
<BEGINHMM>
<NUMSTATES> 5
<STATE> 2
<MEAN> 25
 -2.601089e+000 -8.427161e+000 5.973804e+000 -6.342749e+000 1.295069e+000 1.827691e+000 -2.621631e+000 -3.167937e+000 -1.791940e+000 9.411181e-001 1.472436e+000 1.751798e+000 7.699397e-001 -1.116547e+000 -1.630416e-001 -8.831640e-001 -1.756647e-002 1.674835e-003 -4.754655e-001 -4.929965e-001 -5.486952e-001 -1.175555e-001 8.976397e-002 -3.465129e-001 1.100914e+000
<VARIANCE> 25
 7.942711e+001 2.545507e+002 1.480132e+002 9.556780e+001 1.181042e+002 9.368553e+001 7.827957e+001 5.279152e+001 7.481799e+001 5.557354e+001 4.572511e+001 5.576902e+001 6.182626e+000 1.407053e+001 7.806611e+000 9.806563e+000 9.949469e+000 6.550501e+000 6.691886e+000 6.605204e+000 6.470740e+000 5.569350e+000 4.707026e+000 5.603935e+000 5.374141e+000
<GCONST> 1.245415e+002
<STATE> 3
<MEAN> 25
 6.421578e+000 -4.857405e+000 -5.596447e+000 -3.926668e+000 -2.665736e-001 -1.363166e+000 -1.652454e+000 -3.788944e+000 -3.664917e+000 1.080598e+000 7.465417e-001 -4.021229e+000 3.115473e-001 6.760766e-001 -3.427244e-001 7.633027e-002 -2.559735e-001 2.018429e-001 1.132847e-001 -8.237732e-002 -1.646095e-001 1.098444e-001 -3.138495e-001 -1.338857e-001 -4.424184e-001
<VARIANCE> 25
 1.582984e+001 1.512747e+002 6.660970e+001 9.699129e+001 1.000229e+002 8.562310e+001 8.007587e+001 9.603553e+001 7.048029e+001 6.246278e+001 6.745522e+001 6.370198e+001 1.458629e+000 3.561522e+000 3.268354e+000 6.636048e+000 5.009008e+000 6.457386e+000 4.330777e+000 6.464314e+000 5.703188e+000 3.955249e+000 5.326857e+000 3.710815e+000 2.083156e+000
<GCONST> 1.156270e+002
<STATE> 4
<MEAN> 25
 6.712768e+000 4.517318e+000 -3.990560e-001 -7.608337e+000 -3.102121e+000 -5.116441e+000 -6.380202e+000 -5.833333e+000 -4.686602e+000 -3.096956e-001 -2.562259e+000 -2.159162e+000 -1.800898e-001 2.652526e-001 2.688195e-001 4.293779e-001 -7.075565e-002 -4.008920e-002 -1.723031e-002 -5.400646e-002 5.627102e-002 5.008966e-003 1.468463e-001 1.243204e-001 -4.077244e-001
<VARIANCE> 25
 1.604899e+001 2.303637e+001 7.603646e+001 7.748947e+001 7.232002e+001 4.924431e+001 4.618597e+001 4.038548e+001 4.320245e+001 4.244176e+001 3.633836e+001 3.763314e+001 3.597129e-001 7.729927e-001 1.195173e+000 2.043163e+000 2.063030e+000 2.267368e+000 1.948995e+000 2.077936e+000 2.175068e+000 1.835368e+000 2.086442e+000 1.854594e+000 4.011356e-001
<GCONST> 9.536314e+001
<TRANSP> 5
 0.000000e+000 1.000000e+000 0.000000e+000 0.000000e+000 0.000000e+000
 0.000000e+000 7.052935e-001 2.947066e-001 0.000000e+000 0.000000e+000
 0.000000e+000 0.000000e+000 8.040861e-001 1.959139e-001 0.000000e+000
 0.000000e+000 0.000000e+000 0.000000e+000 8.634251e-001 1.365749e-001
 0.000000e+000 0.000000e+000 0.000000e+000 0.000000e+000 0.000000e+000
<ENDHMM>
~h "sil"
<BEGINHMM>
<NUMSTATES> 5
<STATE> 2
<MEAN> 25
 -1.503745e+001 6.313298e+000 -2.923085e+000 1.093885e+001 -2.278889e+000 7.146449e+000 -4.412695e+000 1.020949e+001 9.672961e+000 4.069198e+000 4.853542e+000 1.947737e+000 -2.703719e-002 3.428457e-002 -8.862423e-003 -6.087861e-002 6.743402e-003 5.924903e-002 -2.877560e-002 -2.067430e-002 9.478860e-002 9.239735e-002 4.303536e-002 -6.679422e-002 -1.852645e-002
<VARIANCE> 25
 3.167971e+001 1.440907e+001 2.388647e+001 2.734721e+001 1.708563e+001 1.931174e+001 1.990446e+001 3.203952e+001 3.280294e+001 1.927113e+001 1.862008e+001 1.414206e+001 1.260907e-001 2.497301e-001 3.252953e-001 5.022900e-001 6.694483e-001 8.173086e-001 1.045982e+000 1.232272e+000 1.162616e+000 1.476513e+000 1.303236e+000 1.322206e+000 1.642489e-001
<GCONST> 7.649096e+001
<STATE> 3
~s "silst"
<STATE> 4
<MEAN> 25
 -2.983175e+000 3.259906e+000 3.865907e-001 1.833411e+000 1.076250e+000 2.564074e+000 1.387611e+000 1.423109e+000 2.169209e+000 1.648352e+000 1.454863e+000 1.302726e+000 -2.204027e-002 3.998679e-002 1.296024e-002 -7.158780e-003 1.672212e-004 3.435139e-002 2.262979e-002 4.213028e-004 -1.697603e-002 2.518599e-002 1.804476e-002 -6.810260e-003 -1.389463e-002
<VARIANCE> 25
 1.615580e+001 4.657428e+001 1.597382e+001 2.320729e+001 2.079496e+001 2.049866e+001 2.759914e+001 2.207996e+001 2.296179e+001 2.871448e+001 1.759313e+001 1.646059e+001 1.742915e-001 4.265807e-001 6.209109e-001 8.304449e-001 9.882678e-001 1.172291e+000 1.269973e+000 1.355084e+000 1.493020e+000 1.506288e+000 1.331847e+000 1.214863e+000 9.530682e-002
<GCONST> 7.948257e+001
<TRANSP> 5
 0.000000e+000 1.000000e+000 0.000000e+000 0.000000e+000 0.000000e+000
 0.000000e+000 8.630751e-001 3.908416e-002 9.784070e-002 0.000000e+000
 0.000000e+000 0.000000e+000 9.595394e-001 4.046055e-002 0.000000e+000
 0.000000e+000 3.194542e-003 0.000000e+000 9.532013e-001 4.360415e-002
 0.000000e+000 0.000000e+000 0.000000e+000 0.000000e+000 0.000000e+000
<ENDHMM>
