~o
<STREAMINFO> 1 25
<VECSIZE> 25<NULLD><MFCC_D_N_Z_0><DIAGC>
~s "silst"
<MEAN> 25
 -6.762987e+000 5.046891e+000 -8.609550e+000 4.778070e+000 -6.367204e+000 5.864295e+000 -2.340419e+000 3.114488e+000 -1.177375e+000 5.147753e+000 2.100876e-001 3.072629e+000 4.155513e-001 -1.191707e-001 3.275326e-001 -2.595842e-001 1.605330e-001 -1.751748e-001 2.662069e-001 -1.814586e-001 -2.452099e-001 -1.470260e-001 -1.219683e-001 6.762041e-003 1.811324e+000
<VARIANCE> 25
 3.070389e+001 1.614834e+001 2.794848e+001 1.797662e+001 3.718283e+001 2.050583e+001 2.031057e+001 1.960388e+001 3.695222e+001 2.161825e+001 1.553688e+001 1.150409e+001 3.779841e+000 1.220214e+000 1.619929e+000 1.377353e+000 1.362327e+000 1.255600e+000 1.436550e+000 1.451471e+000 1.781557e+000 1.247050e+000 1.182448e+000 8.145983e-001 1.303213e+001
<GCONST> 8.979617e+001
~h "b"
<BEGINHMM>
<NUMSTATES> 5
<STATE> 2
<MEAN> 25
 -1.873265e+000 7.301931e-001 1.118266e+001 -5.394053e+000 -2.705940e+000 -3.162231e+000 -4.422411e-001 -5.737001e+000 -1.301109e+000 1.765858e+000 4.635093e-002 -1.393360e-001 -3.241400e-001 -1.692531e+000 1.085666e+000 -1.342126e+000 -6.706814e-001 -7.806524e-001 7.788803e-001 -4.234704e-001 -8.144042e-001 7.529213e-001 -1.909503e-001 -4.559120e-001 1.832440e+000
<VARIANCE> 25
 8.202657e+001 1.737487e+002 1.348467e+002 1.614743e+002 9.713449e+001 8.962122e+001 8.056557e+001 7.934969e+001 8.872754e+001 5.730796e+001 3.867992e+001 5.500434e+001 5.682439e+000 1.259481e+001 1.227447e+001 1.548245e+001 9.608257e+000 9.696705e+000 8.686749e+000 1.003647e+001 9.505887e+000 6.554101e+000 5.824758e+000 8.082875e+000 2.684151e+000
<GCONST> 1.270230e+002
<STATE> 3
<MEAN> 25
 1.732625e+000 1.259565e+000 1.094734e+001 -7.621704e+000 -1.259727e+001 -6.625906e+000 -2.210596e+000 -4.398740e+000 -2.728694e+000 4.757452e+000 -1.007576e+000 2.377371e-001 2.942613e-001 -3.672571e-001 -1.006078e+000 1.099683e-002 5.426181e-002 -1.432407e-001 2.008935e-001 4.090793e-001 5.697914e-001 -3.434546e-001 1.501805e-001 1.157903e-001 2.869582e-001
<VARIANCE> 25
 2.052173e+001 3.751222e+001 4.907199e+001 5.908276e+001 6.756264e+001 4.378546e+001 6.746072e+001 4.339620e+001 4.686783e+001 4.464152e+001 4.109359e+001 6.713036e+001 1.065713e+000 1.973481e+000 4.331021e+000 4.588869e+000 6.238187e+000 2.881253e+000 4.842177e+000 4.679562e+000 3.806777e+000 4.435274e+000 3.490752e+000 3.475927e+000 1.145139e+000
<GCONST> 1.073083e+002
<STATE> 4
<MEAN> 25
 2.575177e+000 -8.604264e+000 1.674982e+000 1.108142e+000 8.776820e-001 -1.449652e+000 -1.440915e+000 -2.123096e+000 -1.653545e+000 3.173567e+000 -1.523753e+000 -2.311757e+000 -3.262783e-002 2.032240e-002 -1.429341e-001 9.054998e-002 2.286914e-001 5.850990e-002 -2.149467e-002 7.879411e-003 1.737484e-001 -1.032383e-001 5.185994e-003 7.029199e-002 -4.524419e-002
<VARIANCE> 25
 4.234991e+001 2.599500e+002 1.021075e+002 1.433389e+002 1.563012e+002 1.179513e+002 1.939261e+002 8.606925e+001 9.487576e+001 7.975621e+001 4.894834e+001 5.850793e+001 1.544616e+000 5.072639e+000 3.926859e+000 7.675493e+000 8.792868e+000 5.978621e+000 9.508797e+000 6.769294e+000 5.554993e+000 5.519842e+000 4.772664e+000 3.942977e+000 1.866806e+000
<GCONST> 1.218541e+002
<TRANSP> 5
 0.000000e+000 1.000000e+000 0.000000e+000 0.000000e+000 0.000000e+000
 0.000000e+000 7.655656e-001 2.344344e-001 0.000000e+000 0.000000e+000
 0.000000e+000 0.000000e+000 7.892642e-001 2.107358e-001 0.000000e+000
 0.000000e+000 0.000000e+000 0.000000e+000 9.413337e-001 5.866630e-002
 0.000000e+000 0.000000e+000 0.000000e+000 0.000000e+000 0.000000e+000
<ENDHMM>
~h "c"
<BEGINHMM>
<NUMSTATES> 5
<STATE> 2
<MEAN> 25
 3.351895e-008 6.868748e-009 -8.012638e-008 -5.171843e-009 5.659957e-008 3.127444e-008 -1.897019e-008 -3.787276e-008 -2.190428e-009 -1.042481e-007 5.105589e-008 -4.266601e-008 9.338440e-003 5.151767e-003 1.071485e-002 -4.624357e-003 4.757588e-003 -1.562855e-004 6.065580e-003 -2.663599e-003 -1.184148e-003 -7.597569e-004 -2.750245e-003 -3.096818e-003 3.171694e-002
<VARIANCE> 25
 4.493839e+001 1.140073e+002 6.386908e+001 8.517533e+001 5.555016e+001 4.948111e+001 6.410268e+001 5.053800e+001 4.916899e+001 4.841446e+001 3.746964e+001 3.443018e+001 1.058399e+000 2.394540e+000 2.004006e+000 3.105449e+000 2.635025e+000 2.534516e+000 3.119964e+000 2.812881e+000 2.677968e+000 2.755787e+000 2.419358e+000 2.075167e+000 1.645589e+000
<GCONST> 1.049692e+002
<STATE> 3
<MEAN> 25
 3.351895e-008 6.868748e-009 -8.012638e-008 -5.171843e-009 5.659957e-008 3.127444e-008 -1.897019e-008 -3.787276e-008 -2.190428e-009 -1.042481e-007 5.105589e-008 -4.266601e-008 9.338440e-003 5.151767e-003 1.071485e-002 -4.624357e-003 4.757588e-003 -1.562855e-004 6.065580e-003 -2.663599e-003 -1.184148e-003 -7.597569e-004 -2.750245e-003 -3.096818e-003 3.171694e-002
<VARIANCE> 25
 4.493839e+001 1.140073e+002 6.386908e+001 8.517533e+001 5.555016e+001 4.948111e+001 6.410268e+001 5.053800e+001 4.916899e+001 4.841446e+001 3.746964e+001 3.443018e+001 1.058399e+000 2.394540e+000 2.004006e+000 3.105449e+000 2.635025e+000 2.534516e+000 3.119964e+000 2.812881e+000 2.677968e+000 2.755787e+000 2.419358e+000 2.075167e+000 1.645589e+000
<GCONST> 1.049692e+002
<STATE> 4
<MEAN> 25
 3.351895e-008 6.868748e-009 -8.012638e-008 -5.171843e-009 5.659957e-008 3.127444e-008 -1.897019e-008 -3.787276e-008 -2.190428e-009 -1.042481e-007 5.105589e-008 -4.266601e-008 9.338440e-003 5.151767e-003 1.071485e-002 -4.624357e-003 4.757588e-003 -1.562855e-004 6.065580e-003 -2.663599e-003 -1.184148e-003 -7.597569e-004 -2.750245e-003 -3.096818e-003 3.171694e-002
<VARIANCE> 25
 4.493839e+001 1.140073e+002 6.386908e+001 8.517533e+001 5.555016e+001 4.948111e+001 6.410268e+001 5.053800e+001 4.916899e+001 4.841446e+001 3.746964e+001 3.443018e+001 1.058399e+000 2.394540e+000 2.004006e+000 3.105449e+000 2.635025e+000 2.534516e+000 3.119964e+000 2.812881e+000 2.677968e+000 2.755787e+000 2.419358e+000 2.075167e+000 1.645589e+000
<GCONST> 1.049692e+002
<TRANSP> 5
 0.000000e+000 1.000000e+000 0.000000e+000 0.000000e+000 0.000000e+000
 0.000000e+000 6.000000e-001 4.000000e-001 0.000000e+000 0.000000e+000
 0.000000e+000 0.000000e+000 6.000000e-001 4.000000e-001 0.000000e+000
 0.000000e+000 0.000000e+000 0.000000e+000 7.000000e-001 3.000000e-001
 0.000000e+000 0.000000e+000 0.000000e+000 0.000000e+000 0.000000e+000
<ENDHMM>
~h "d"
<BEGINHMM>
<NUMSTATES> 5
<STATE> 2
<MEAN> 25
 -3.261554e+000 -6.121657e+000 7.757176e+000 -4.740459e+000 3.054956e+000 5.679138e-001 -3.389637e+000 -2.610518e+000 -6.151809e-001 3.379620e+000 -6.453821e-001 1.347013e+000 4.992481e-002 -2.113728e+000 7.959207e-001 1.114289e-002 3.650786e-002 -5.114785e-001 -2.029345e-001 -1.716078e-001 -5.695409e-001 4.394264e-002 -3.001102e-003 -4.796379e-001 1.631781e+000
<VARIANCE> 25
 1.149864e+002 2.666611e+002 2.206842e+002 1.763244e+002 1.417716e+002 6.370111e+001 9.339087e+001 5.990060e+001 5.619979e+001 6.012881e+001 3.977452e+001 4.244247e+001 4.873788e+000 1.365303e+001 1.010515e+001 1.515701e+001 9.422176e+000 7.358737e+000 8.955087e+000 7.340212e+000 5.967506e+000 5.999001e+000 5.351103e+000 4.973481e+000 6.234959e+000
<GCONST> 1.264849e+002
<STATE> 3
<MEAN> 25
 5.820863e-001 -6.650295e-001 9.032063e+000 -4.285980e+000 -3.016602e+000 -5.617102e+000 -3.307006e+000 -4.252154e+000 -1.978653e+000 2.190645e+000 -1.887446e+000 -3.378316e-001 1.342930e-001 -1.569181e+000 3.903485e-002 -3.979895e-001 3.009390e-001 -8.903828e-001 1.990404e-001 1.031271e-001 1.012318e-002 -3.541911e-001 5.638659e-002 -3.529100e-001 1.421458e+000
<VARIANCE> 25
 1.496814e+001 1.083324e+002 9.796401e+001 1.416880e+002 1.004887e+002 4.985075e+001 9.953378e+001 5.497154e+001 6.867425e+001 7.041554e+001 3.835419e+001 4.848470e+001 1.253260e+000 7.861909e+000 8.253602e+000 1.009243e+001 8.625402e+000 4.841615e+000 1.230798e+001 5.017079e+000 6.573961e+000 7.931016e+000 4.185661e+000 3.749285e+000 3.817317e+000
<GCONST> 1.186265e+002
<STATE> 4
<MEAN> 25
 1.531536e+000 -1.294848e+001 3.701840e+000 5.893487e+000 1.508041e+000 -3.145999e+000 -3.400996e+000 1.000938e+000 -2.749630e+000 5.525718e-001 -7.673534e-003 -3.873464e+000 6.521608e-002 2.009619e-001 -2.747023e-001 -1.309355e-001 -6.393579e-002 1.317864e-001 2.188220e-001 -1.121471e-001 4.869245e-002 -1.955545e-002 6.793073e-002 1.701076e-001 -1.083152e-001
<VARIANCE> 25
 2.691354e+001 1.859444e+002 1.637377e+002 1.604422e+002 1.364646e+002 1.714947e+002 1.519127e+002 1.125834e+002 8.907101e+001 8.557052e+001 9.329736e+001 7.638504e+001 7.533634e-001 5.106966e+000 4.309986e+000 5.435061e+000 4.904424e+000 5.491483e+000 7.119895e+000 4.442871e+000 5.187830e+000 4.609847e+000 4.721355e+000 4.291181e+000 1.658733e+000
<GCONST> 1.201971e+002
<TRANSP> 5
 0.000000e+000 1.000000e+000 0.000000e+000 0.000000e+000 0.000000e+000
 0.000000e+000 7.678707e-001 2.321293e-001 0.000000e+000 0.000000e+000
 0.000000e+000 0.000000e+000 6.906222e-001 3.093778e-001 0.000000e+000
 0.000000e+000 0.000000e+000 0.000000e+000 9.334698e-001 6.653024e-002
 0.000000e+000 0.000000e+000 0.000000e+000 0.000000e+000 0.000000e+000
<ENDHMM>
~h "g"
<BEGINHMM>
<NUMSTATES> 5
<STATE> 2
<MEAN> 25
 6.101305e-001 7.113352e+000 6.427411e+000 -1.247962e+000 -3.118434e+000 -2.195148e+000 -4.896677e+000 -1.590495e+000 -8.254185e-001 -1.046132e+000 -2.020934e+000 -1.303016e+000 -1.818521e-001 -7.869996e-001 -2.679057e-001 -5.876050e-001 3.088024e-001 -1.818554e-001 3.587025e-001 -2.510737e-001 -3.814976e-001 2.377109e-001 2.868212e-001 -1.951023e-001 7.291507e-001
<VARIANCE> 25
 4.066687e+001 1.030685e+002 1.065478e+002 1.556766e+002 9.414428e+001 6.936521e+001 6.724099e+001 5.922766e+001 6.241185e+001 5.557747e+001 5.468109e+001 3.778901e+001 5.008268e+000 8.520681e+000 7.683034e+000 1.522397e+001 7.962471e+000 5.799688e+000 7.211752e+000 4.541313e+000 6.416452e+000 7.072646e+000 5.520812e+000 3.671600e+000 8.671637e+000
<GCONST> 1.216843e+002
<STATE> 3
<MEAN> 25
 1.522975e+000 -3.022672e+000 4.117008e-001 -4.286171e+000 3.323126e+000 -9.399192e-001 2.834689e-001 -1.687386e+000 -5.722236e+000 2.040245e+000 1.076304e+000 -2.517626e+000 6.109858e-001 1.934437e-001 -2.851535e-001 -1.540360e+000 -1.282082e-001 -3.102757e-001 8.797680e-003 -3.968824e-001 -4.148934e-001 -1.580886e-001 -8.058612e-001 2.390344e-002 8.998079e-001
<VARIANCE> 25
 2.886481e+001 9.720327e+001 1.019803e+002 1.359544e+002 8.740804e+001 5.733385e+001 8.910422e+001 4.118150e+001 1.113526e+002 1.609759e+002 5.359835e+001 5.843648e+001 2.034456e+000 4.242370e+000 5.377198e+000 1.104893e+001 6.923189e+000 4.027321e+000 6.675142e+000 5.039465e+000 6.311552e+000 1.049944e+001 5.032116e+000 3.461190e+000 3.676709e+000
<GCONST> 1.194308e+002
<STATE> 4
<MEAN> 25
 2.781193e+000 -1.534180e-001 1.114806e+000 -4.731675e+000 3.221800e+000 -1.805933e+000 -6.103617e-001 -1.815032e+000 -2.422743e+000 -7.892642e-001 -1.946245e+000 -9.466299e-001 3.632033e-001 6.096959e-001 5.939666e-002 -8.027927e-001 -2.867980e-001 -1.989375e-001 -9.043969e-002 -2.964806e-001 3.333102e-001 4.007164e-001 -6.600152e-001 -2.217529e-001 3.052309e-001
<VARIANCE> 25
 3.338978e+001 9.021755e+001 9.835918e+001 1.164476e+002 7.389880e+001 5.418633e+001 7.751071e+001 5.149714e+001 6.162221e+001 1.017581e+002 4.860585e+001 5.728454e+001 1.156596e+000 2.508916e+000 3.827668e+000 6.702809e+000 6.298527e+000 3.615085e+000 4.463641e+000 3.685828e+000 5.404003e+000 8.023096e+000 3.242068e+000 2.586150e+000 1.626482e+000
<GCONST> 1.131842e+002
<TRANSP> 5
 0.000000e+000 1.000000e+000 0.000000e+000 0.000000e+000 0.000000e+000
 0.000000e+000 7.984931e-001 2.015069e-001 0.000000e+000 0.000000e+000
 0.000000e+000 0.000000e+000 6.000697e-001 3.999303e-001 0.000000e+000
 0.000000e+000 0.000000e+000 0.000000e+000 2.967361e-001 7.032639e-001
 0.000000e+000 0.000000e+000 0.000000e+000 0.000000e+000 0.000000e+000
<ENDHMM>
~h "h"
<BEGINHMM>
<NUMSTATES> 5
<STATE> 2
<MEAN> 25
 -5.470723e-002 6.932307e-001 1.290700e+000 5.599243e+000 -2.005238e-001 1.488899e+000 7.008744e-002 3.260413e+000 1.966207e-002 5.098289e-001 1.881859e+000 -1.586226e+000 -1.883596e-002 -1.001613e-002 3.003290e-002 4.247050e-002 5.615922e-002 4.346088e-002 4.501602e-002 7.614291e-002 8.940006e-002 3.709112e-002 2.769207e-002 -2.955826e-002 -2.539135e-002
<VARIANCE> 25
 5.799119e+000 8.868844e+000 5.764341e+000 9.185767e+000 9.477064e+000 1.030683e+001 1.495646e+001 1.363989e+001 1.466338e+001 1.092125e+001 1.118162e+001 1.216280e+001 1.164703e-001 2.572914e-001 4.082671e-001 5.480426e-001 9.187214e-001 1.130940e+000 1.103472e+000 1.567412e+000 1.446417e+000 1.097311e+000 1.237712e+000 1.061920e+000 4.634477e-002
<GCONST> 6.698997e+001
<STATE> 3
<MEAN> 25
 -2.337010e+000 -1.382627e+000 -1.195526e-001 4.086771e+000 4.182124e+000 2.467201e+000 7.606579e-001 1.440922e+000 6.811097e-001 -1.048864e+000 1.441476e+000 -1.301872e-001 -1.114575e-001 -1.110008e+000 -9.864121e-001 -2.480188e-001 1.179191e+000 4.530695e-001 1.609258e-001 -6.464186e-001 -4.480647e-002 -8.319364e-001 4.061947e-001 6.369829e-001 6.824525e-001
<VARIANCE> 25
 1.683409e+001 3.452685e+001 9.728836e+000 1.461154e+001 1.456027e+001 1.786464e+001 1.402741e+001 2.030924e+001 2.245843e+001 1.440438e+001 1.655062e+001 1.262801e+001 2.339065e-001 1.334118e+000 1.330972e+000 5.388814e-001 1.932112e+000 1.409072e+000 1.667052e+000 3.150786e+000 1.067513e+000 1.017082e+000 2.242775e+000 1.660980e+000 2.429298e-001
<GCONST> 8.074947e+001
<STATE> 4
<MEAN> 25
 7.045015e-001 -3.939051e+000 -3.094028e+000 -5.199304e-001 2.716047e+000 8.146226e-001 -3.871346e-001 -1.949501e+000 -4.512677e-001 -2.760112e+000 -1.723762e+000 3.097322e-002 3.368012e-003 2.522276e-003 -2.511968e-002 -1.211097e-001 -1.000291e-001 -2.438680e-002 7.191221e-002 -7.577335e-002 6.443125e-002 -1.440941e-002 -7.067670e-002 -9.284598e-003 1.061332e-001
<VARIANCE> 25
 5.424733e+001 3.076293e+001 3.317250e+001 2.675763e+001 2.216500e+001 2.009586e+001 4.036712e+001 4.629653e+001 3.281217e+001 3.821470e+001 3.216827e+001 1.812285e+001 1.249246e+000 9.044721e-001 1.360788e+000 1.430080e+000 1.301597e+000 1.740693e+000 2.037925e+000 2.441872e+000 1.708701e+000 1.444715e+000 2.140480e+000 1.371502e+000 6.582829e-001
<GCONST> 9.206258e+001
<TRANSP> 5
 0.000000e+000 1.000000e+000 0.000000e+000 0.000000e+000 0.000000e+000
 0.000000e+000 9.561698e-001 4.383015e-002 0.000000e+000 0.000000e+000
 0.000000e+000 0.000000e+000 7.186871e-001 2.813129e-001 0.000000e+000
 0.000000e+000 0.000000e+000 0.000000e+000 9.798175e-001 2.018255e-002
 0.000000e+000 0.000000e+000 0.000000e+000 0.000000e+000 0.000000e+000
<ENDHMM>
~h "j"
<BEGINHMM>
<NUMSTATES> 5
<STATE> 2
<MEAN> 25
 8.413976e+000 -1.214248e+001 -3.609604e+000 1.564600e+000 -6.096469e+000 4.097900e+000 -6.290544e+000 -3.622128e+000 -2.339138e+000 -1.410698e+000 -6.718631e-001 -2.236645e+000 2.540429e-001 5.874413e-001 -4.125222e-001 7.611077e-001 -5.476099e-001 -4.857567e-002 8.823182e-002 -3.838725e-001 -1.032072e-002 2.025019e-001 -6.648042e-001 -1.865083e-001 -6.472989e-001
<VARIANCE> 25
 1.913940e+001 1.071481e+002 2.089590e+001 3.981333e+001 4.089816e+001 1.337586e+001 3.356908e+001 1.564067e+001 2.375536e+001 1.484430e+001 1.434087e+002 1.600030e+001 8.220796e-001 5.664291e-001 2.742186e-001 1.736256e+000 2.367282e+000 1.468488e+000 3.018001e+000 1.378084e+000 2.132500e+000 1.509265e+000 4.112634e+000 1.305749e+000 5.485298e-001
<GCONST> 8.988248e+001
<STATE> 3
<MEAN> 25
 2.914994e+000 1.782632e-001 -5.952563e+000 1.044903e+001 -5.774880e+000 4.124957e+000 -8.377393e-001 -5.926596e+000 -2.333443e+000 2.769430e+000 -4.456422e+000 -4.420108e+000 -9.402716e-001 5.162197e-001 5.739064e-002 -1.972826e-001 1.113192e-002 -1.319082e-001 4.333485e-001 6.597868e-001 8.509371e-002 5.702343e-001 7.123523e-001 -1.560137e-001 -1.056675e+000
<VARIANCE> 25
 5.189001e+001 9.589841e+001 6.632932e+001 3.139794e+001 3.142603e+001 4.885218e+001 1.117086e+002 2.124631e+001 1.334630e+001 4.815351e+001 1.599565e+001 3.072553e+001 2.594813e+000 1.568680e+000 2.573404e+000 4.752079e+000 2.103624e+000 4.293030e+000 2.815600e+000 2.278750e+000 1.575771e+000 2.337599e+000 2.792698e+000 3.721927e+000 1.099150e+000
<GCONST> 1.015789e+002
<STATE> 4
<MEAN> 25
 4.114306e-001 5.230502e+000 3.956520e+000 -3.517791e+000 -4.920264e+000 -7.589476e+000 -7.374099e+000 3.079742e+000 -1.265389e+000 5.560717e+000 5.481756e+000 -8.422092e+000 -1.944113e-001 -3.272523e-001 1.876355e-001 -5.939828e-001 2.959302e-001 -1.765214e-001 -3.861046e-001 4.017126e-001 5.632346e-002 -2.154338e-001 -1.742397e-002 -1.344039e-001 3.897522e-001
<VARIANCE> 25
 5.094398e+001 1.123608e+002 1.766159e+001 8.384135e+001 5.819533e+001 1.165466e+002 6.185801e+001 6.123301e+001 7.372802e+001 5.416874e+001 3.575686e+001 1.202343e+002 2.283930e+000 5.999187e+000 2.886243e+000 6.235242e+000 5.598750e+000 8.862004e+000 4.580972e+000 7.661246e+000 3.854336e+000 5.441127e+000 4.745522e+000 3.404616e+000 7.873915e+000
<GCONST> 1.164792e+002
<TRANSP> 5
 0.000000e+000 1.000000e+000 0.000000e+000 0.000000e+000 0.000000e+000
 0.000000e+000 8.866542e-001 1.133458e-001 0.000000e+000 0.000000e+000
 0.000000e+000 0.000000e+000 8.280686e-001 1.719314e-001 0.000000e+000
 0.000000e+000 0.000000e+000 0.000000e+000 9.158912e-001 8.410881e-002
 0.000000e+000 0.000000e+000 0.000000e+000 0.000000e+000 0.000000e+000
<ENDHMM>
~h "k"
<BEGINHMM>
<NUMSTATES> 5
<STATE> 2
<MEAN> 25
 4.817822e+000 -2.779495e+000 -3.579612e+000 -9.880655e-003 3.542454e+000 8.028820e-001 -5.126232e+000 -4.200530e+000 -1.095781e+000 -3.235242e+000 -3.459836e+000 -2.603434e+000 -3.996403e-001 -1.224828e-001 -3.926414e-001 4.861359e-001 8.744231e-002 -1.981249e-001 6.554583e-001 2.391325e-001 2.280041e-001 2.736694e-002 1.658208e-001 1.916610e-001 -2.996920e-001
<VARIANCE> 25
 2.283150e+001 7.456591e+001 3.752285e+001 6.587315e+001 6.359804e+001 3.790512e+001 4.981804e+001 3.802655e+001 5.911864e+001 4.366462e+001 4.075941e+001 3.558120e+001 2.762428e+000 4.356367e+000 3.140595e+000 5.162024e+000 3.760484e+000 5.002701e+000 5.118412e+000 3.054352e+000 4.725029e+000 4.566381e+000 3.268315e+000 2.856743e+000 4.383536e+000
<GCONST> 1.094102e+002
<STATE> 3
<MEAN> 25
 1.453008e+000 -3.380907e+000 -4.208677e+000 -7.538745e-001 4.065301e-001 -1.337945e+000 2.779254e+000 4.773598e-001 9.897382e-001 2.914611e-001 -1.879002e+000 1.724674e+000 3.195540e-001 -1.663952e+000 -2.964431e-001 -8.124229e-001 -3.958643e-001 -6.699402e-001 1.545971e+000 -1.503279e-001 4.707790e-001 1.004034e-001 1.779182e-001 2.396608e-001 1.902370e+000
<VARIANCE> 25
 1.965256e+001 7.300741e+001 4.020745e+001 6.091726e+001 8.010189e+001 4.551550e+001 7.026342e+001 4.782608e+001 3.872525e+001 4.283328e+001 4.931502e+001 3.774523e+001 3.079175e+000 6.850188e+000 3.438785e+000 6.835785e+000 3.643306e+000 5.251254e+000 4.772270e+000 4.343467e+000 3.860489e+000 6.084445e+000 5.882431e+000 3.669666e+000 6.327121e+000
<GCONST> 1.125459e+002
<STATE> 4
<MEAN> 25
 3.996068e+000 -1.004236e+001 -7.987416e+000 5.036892e-001 -3.496238e-001 2.422460e-001 7.614321e+000 -2.594624e+000 -2.424512e-001 1.870100e+000 -1.090931e+000 -2.833957e-002 5.999401e-003 -9.640983e-002 1.559330e-001 -3.994133e-002 1.479622e-001 1.109737e-001 -7.587242e-002 1.392866e-001 -6.848222e-002 -2.114218e-001 1.063330e-001 6.142385e-002 3.786139e-002
<VARIANCE> 25
 3.312970e+001 1.374087e+002 7.173392e+001 6.248487e+001 7.773245e+001 2.455623e+001 7.555289e+001 3.879927e+001 2.725312e+001 4.331811e+001 2.952051e+001 2.228123e+001 8.019782e-001 2.584701e+000 1.999464e+000 2.277274e+000 3.326504e+000 1.940454e+000 3.094851e+000 2.401373e+000 2.393517e+000 2.947087e+000 2.944861e+000 2.144509e+000 1.194924e+000
<GCONST> 1.019683e+002
<TRANSP> 5
 0.000000e+000 1.000000e+000 0.000000e+000 0.000000e+000 0.000000e+000
 0.000000e+000 6.980608e-001 3.019393e-001 0.000000e+000 0.000000e+000
 0.000000e+000 0.000000e+000 6.047636e-001 3.952364e-001 0.000000e+000
 0.000000e+000 0.000000e+000 0.000000e+000 7.913789e-001 2.086211e-001
 0.000000e+000 0.000000e+000 0.000000e+000 0.000000e+000 0.000000e+000
<ENDHMM>
~h "l"
<BEGINHMM>
<NUMSTATES> 5
<STATE> 2
<MEAN> 25
 4.214242e+000 -2.762194e+000 -3.948134e+000 -2.817841e+000 -1.476096e+000 -1.916454e+000 6.204280e-001 -2.519878e+000 3.569209e+000 1.712784e-001 -1.221117e-001 1.749645e-001 -3.764288e-003 6.038022e-001 -2.903639e-002 -1.613501e-001 1.181251e-001 4.075188e-001 5.015089e-002 3.029875e-001 1.928170e-001 -1.064539e-001 -1.522723e-001 3.433354e-001 -3.698049e-001
<VARIANCE> 25
 1.908194e+001 5.067947e+001 4.623711e+001 6.550181e+001 7.068749e+001 8.777901e+001 5.337553e+001 7.945180e+001 6.574985e+001 5.417545e+001 3.055587e+001 2.893502e+001 7.758786e-001 2.295086e+000 2.763054e+000 4.570440e+000 4.362969e+000 4.199614e+000 4.060817e+000 3.581181e+000 3.546254e+000 3.354621e+000 2.215827e+000 2.227797e+000 1.441450e+000
<GCONST> 1.060220e+002
<STATE> 3
<MEAN> 25
 3.520362e+000 8.536460e-001 -3.134460e+000 -3.420673e+000 -7.131991e-001 -1.739703e+000 1.572355e+000 1.168206e+000 1.854998e+000 -3.152215e+000 -7.865947e-001 9.322899e-001 -4.569908e-001 5.368040e-001 4.660747e-001 -3.458869e-001 2.301620e-001 5.129120e-001 9.428371e-002 5.065498e-001 -9.930483e-002 -4.332719e-001 1.023026e-003 6.121904e-002 -4.088697e-001
<VARIANCE> 25
 2.100018e+001 7.301137e+001 4.079252e+001 7.117779e+001 4.852114e+001 5.929677e+001 6.232162e+001 7.208298e+001 4.388745e+001 4.302470e+001 3.680415e+001 2.765228e+001 8.898429e-001 1.750488e+000 1.761367e+000 4.438970e+000 3.945328e+000 2.911365e+000 3.594417e+000 3.082894e+000 3.102610e+000 2.669451e+000 2.215637e+000 2.781168e+000 1.506549e+000
<GCONST> 1.037876e+002
<STATE> 4
<MEAN> 25
 -3.680447e-001 6.589133e+000 -5.038273e-001 -3.107462e+000 -9.751619e-001 2.070183e+000 1.855831e+000 1.720721e+000 1.959475e+000 -3.690650e+000 3.298818e-001 3.016430e+000 -1.900459e-001 -1.132500e-003 3.002305e-001 2.225729e-001 6.363685e-002 1.311801e-001 -8.021957e-002 1.776815e-002 -7.141066e-002 1.221523e-002 3.461201e-003 -1.585863e-002 -9.691835e-002
<VARIANCE> 25
 1.400881e+001 8.013008e+001 2.683131e+001 6.846294e+001 2.698844e+001 5.810379e+001 3.595246e+001 5.557314e+001 3.711734e+001 3.412018e+001 3.875261e+001 3.940376e+001 3.052692e-001 7.319966e-001 1.058371e+000 1.391714e+000 1.791236e+000 3.472454e+000 2.335289e+000 3.213308e+000 2.036165e+000 1.898311e+000 1.927405e+000 2.167304e+000 3.048280e-001
<GCONST> 9.424431e+001
<TRANSP> 5
 0.000000e+000 1.000000e+000 0.000000e+000 0.000000e+000 0.000000e+000
 0.000000e+000 7.220491e-001 2.779509e-001 0.000000e+000 0.000000e+000
 0.000000e+000 0.000000e+000 5.247226e-001 4.752774e-001 0.000000e+000
 0.000000e+000 0.000000e+000 0.000000e+000 8.116700e-001 1.883300e-001
 0.000000e+000 0.000000e+000 0.000000e+000 0.000000e+000 0.000000e+000
<ENDHMM>
~h "m"
<BEGINHMM>
<NUMSTATES> 5
<STATE> 2
<MEAN> 25
 2.998667e+000 3.372916e+000 -6.400135e-001 -2.278064e+000 8.919716e-001 1.560601e+000 -2.320240e+000 -2.040884e+000 -1.273779e+000 -2.769799e+000 -1.797717e+000 -1.081760e+000 -1.729507e-001 7.621907e-001 3.884912e-001 5.151468e-001 9.510154e-002 2.233689e-001 -1.502307e-002 2.175481e-002 -7.226241e-002 -1.543335e-001 -3.036789e-001 -9.826467e-002 -5.807966e-001
<VARIANCE> 25
 2.136208e+001 7.014071e+001 5.036637e+001 8.601072e+001 5.652739e+001 3.824158e+001 4.362862e+001 3.599247e+001 3.532334e+001 3.376233e+001 3.357014e+001 2.694328e+001 9.992710e-001 2.321372e+000 2.051654e+000 5.572537e+000 3.165466e+000 2.209761e+000 2.906855e+000 2.344936e+000 2.513712e+000 3.084481e+000 2.444808e+000 2.146833e+000 1.060686e+000
<GCONST> 1.014692e+002
<STATE> 3
<MEAN> 25
 3.308770e+000 4.903100e+000 7.294670e-001 1.479526e+000 6.388747e-001 -1.224799e-001 -1.640243e+000 -2.272259e+000 -2.980630e+000 -4.078327e+000 -3.677064e+000 -1.901796e+000 -2.104071e-001 1.380969e-001 2.548923e-001 3.692693e-001 -7.514271e-002 -6.102214e-002 1.110998e-001 3.098684e-001 1.813221e-001 1.268846e-001 7.629059e-002 3.023365e-002 -3.259831e-001
<VARIANCE> 25
 2.033044e+001 4.617155e+001 2.309450e+001 4.899463e+001 3.808724e+001 3.050051e+001 3.601433e+001 3.300775e+001 3.813715e+001 2.563022e+001 2.927862e+001 2.916573e+001 3.326671e-001 6.753902e-001 1.085204e+000 1.729663e+000 1.571797e+000 1.265236e+000 1.698430e+000 1.736500e+000 1.781866e+000 1.905590e+000 1.747105e+000 1.363092e+000 3.020681e-001
<GCONST> 8.939455e+001
<STATE> 4
<MEAN> 25
 -9.361129e-001 5.086387e+000 1.646174e+000 1.659307e+000 3.048004e-001 8.752363e-001 -1.867453e-002 1.945154e+000 1.322435e+000 -6.705086e-001 3.849472e-001 2.400266e-001 -4.777320e-002 8.697619e-003 5.255645e-002 5.962735e-002 -2.715952e-002 -1.177622e-002 1.003296e-002 2.550950e-002 5.203866e-002 8.482967e-002 6.051547e-002 1.055357e-002 -4.063464e-002
<VARIANCE> 25
 1.455838e+001 5.225390e+001 1.481866e+001 3.726723e+001 2.376107e+001 1.789832e+001 2.739785e+001 2.188483e+001 2.265188e+001 2.583510e+001 2.026827e+001 1.983062e+001 1.525707e-001 3.568112e-001 6.794227e-001 9.825658e-001 1.148120e+000 1.350827e+000 1.394411e+000 1.488584e+000 1.549138e+000 1.626916e+000 1.372087e+000 1.255028e+000 1.315756e-001
<GCONST> 8.100655e+001
<TRANSP> 5
 0.000000e+000 1.000000e+000 0.000000e+000 0.000000e+000 0.000000e+000
 0.000000e+000 6.240701e-001 3.759299e-001 0.000000e+000 0.000000e+000
 0.000000e+000 0.000000e+000 5.733424e-001 4.266576e-001 0.000000e+000
 0.000000e+000 0.000000e+000 0.000000e+000 9.597077e-001 4.029230e-002
 0.000000e+000 0.000000e+000 0.000000e+000 0.000000e+000 0.000000e+000
<ENDHMM>
~h "n"
<BEGINHMM>
<NUMSTATES> 5
<STATE> 2
<MEAN> 25
 4.762762e+000 2.744240e+000 3.677600e-001 -1.279347e+000 5.118498e-001 -1.664727e+000 -2.641263e+000 -2.656737e+000 -3.800528e+000 -3.588782e+000 -1.327925e+000 5.252129e-001 -1.975174e-001 7.772588e-001 1.659149e-001 7.553787e-001 6.527119e-002 6.309927e-001 -5.710744e-002 -8.928875e-002 1.611232e-001 3.323277e-001 -3.683493e-001 8.180084e-002 -8.492134e-001
<VARIANCE> 25
 2.245960e+001 4.809815e+001 3.455664e+001 8.208693e+001 5.640710e+001 5.780194e+001 4.545755e+001 3.007445e+001 3.920115e+001 3.750991e+001 4.731546e+001 2.981738e+001 7.734123e-001 2.537260e+000 1.754315e+000 4.608209e+000 1.980493e+000 3.338613e+000 2.628226e+000 2.941783e+000 3.280573e+000 2.822922e+000 3.498229e+000 1.919834e+000 1.580991e+000
<GCONST> 1.020242e+002
<STATE> 3
<MEAN> 25
 3.412466e+000 4.414150e+000 8.379836e-001 1.394742e+000 1.859097e+000 3.302088e-001 -1.785244e+000 -2.482490e+000 -2.399108e+000 -3.020980e+000 -1.355088e+000 6.181255e-001 -4.077146e-001 3.877741e-001 2.626014e-001 5.751523e-001 3.496998e-002 4.135751e-001 1.512841e-001 3.761638e-001 4.449819e-001 1.681446e-001 9.351914e-002 -9.854033e-002 -6.061521e-001
<VARIANCE> 25
 2.206755e+001 4.654811e+001 2.606511e+001 6.092509e+001 4.286561e+001 3.256740e+001 3.440601e+001 2.695179e+001 3.202937e+001 2.921383e+001 3.188192e+001 2.797805e+001 5.249600e-001 1.395875e+000 1.425128e+000 3.203539e+000 1.792996e+000 1.997605e+000 2.138396e+000 2.273002e+000 2.464657e+000 2.480193e+000 2.541083e+000 1.709104e+000 6.780812e-001
<GCONST> 9.491525e+001
<STATE> 4
<MEAN> 25
 -2.938564e+000 5.473564e+000 1.477135e+000 2.395594e+000 2.146637e+000 1.676763e+000 1.577324e+000 2.538145e+000 2.666008e+000 1.070691e+000 1.675320e+000 6.202623e-001 -7.636197e-002 1.576066e-002 6.441271e-002 8.158545e-002 6.799254e-004 -1.629553e-003 2.328218e-002 5.934946e-002 8.039705e-002 7.566322e-002 1.692851e-002 -4.233295e-002 -3.344838e-002
<VARIANCE> 25
 1.514189e+001 4.591158e+001 1.082812e+001 3.075385e+001 1.670812e+001 1.749236e+001 2.831969e+001 1.964710e+001 2.151987e+001 2.593567e+001 1.782978e+001 1.723042e+001 1.760108e-001 3.532086e-001 6.439463e-001 8.138744e-001 1.017324e+000 1.320853e+000 1.379159e+000 1.379368e+000 1.561403e+000 1.567448e+000 1.395690e+000 1.275702e+000 1.016481e-001
<GCONST> 7.905080e+001
<TRANSP> 5
 0.000000e+000 1.000000e+000 0.000000e+000 0.000000e+000 0.000000e+000
 0.000000e+000 6.296545e-001 3.703455e-001 0.000000e+000 0.000000e+000
 0.000000e+000 0.000000e+000 5.257936e-001 4.742064e-001 0.000000e+000
 0.000000e+000 0.000000e+000 0.000000e+000 9.547287e-001 4.527137e-002
 0.000000e+000 0.000000e+000 0.000000e+000 0.000000e+000 0.000000e+000
<ENDHMM>
~h "p"
<BEGINHMM>
<NUMSTATES> 5
<STATE> 2
<MEAN> 25
 8.655759e-001 9.602460e-001 -3.379852e+000 2.238293e-001 -1.417514e+000 1.515717e+000 -1.306967e-001 1.257746e+000 4.503074e-001 1.688739e+000 9.873900e-001 8.477180e-001 5.855490e-001 -1.109323e+000 -6.748913e-002 -1.771418e+000 2.105187e-001 -5.269809e-001 1.109784e+000 -5.480081e-001 -2.018825e-002 1.776073e-001 -2.046454e-001 -5.331580e-001 2.455367e+000
<VARIANCE> 25
 3.809649e+001 6.619287e+001 4.429662e+001 7.453383e+001 3.541250e+001 4.112402e+001 4.872788e+001 4.489530e+001 3.840556e+001 3.358535e+001 2.843095e+001 1.776870e+001 6.087351e+000 5.149281e+000 4.753814e+000 8.632759e+000 4.211048e+000 5.056114e+000 4.388648e+000 4.981015e+000 4.807071e+000 4.997282e+000 3.436961e+000 2.388021e+000 1.056646e+001
<GCONST> 1.111875e+002
<STATE> 3
<MEAN> 25
 2.206101e+000 -3.095834e+000 -3.090113e+000 -8.078229e+000 1.303046e+000 2.821210e-001 3.774326e+000 -3.073039e+000 8.580750e-001 -1.000261e+000 6.864998e-002 -5.253754e-001 -6.418535e-002 -2.379565e-001 9.021503e-003 7.722206e-002 3.030806e-001 4.373411e-002 3.425420e-001 -2.913110e-001 1.040446e-001 -1.451188e-001 7.491732e-002 2.163538e-002 3.886553e-001
<VARIANCE> 25
 1.886629e+001 8.060075e+001 4.827599e+001 6.449135e+001 3.572279e+001 3.147672e+001 3.584299e+001 4.743697e+001 3.503337e+001 3.305177e+001 2.460594e+001 1.744639e+001 2.165106e+000 2.301382e+000 2.383879e+000 4.304240e+000 2.822603e+000 2.570098e+000 3.261122e+000 3.700245e+000 2.174097e+000 3.779489e+000 2.127370e+000 1.573687e+000 3.267386e+000
<GCONST> 1.018022e+002
<STATE> 4
<MEAN> 25
 -4.081284e+000 2.035443e+000 5.685115e-001 2.654389e+000 1.871681e+000 1.553861e+000 4.026532e+000 2.775283e+000 2.796745e+000 2.813736e+000 2.730487e+000 -8.771622e-002 -5.291066e-002 -5.222557e-003 2.001083e-002 3.646040e-002 -2.525287e-002 -2.527712e-002 2.705942e-002 7.632086e-002 4.627416e-002 3.665325e-002 1.795166e-002 9.825513e-003 3.885511e-002
<VARIANCE> 25
 1.261250e+001 1.874641e+001 1.126263e+001 1.781870e+001 1.504253e+001 1.348513e+001 1.643146e+001 1.883645e+001 1.718847e+001 2.031478e+001 1.511597e+001 1.418215e+001 4.624026e-001 4.209685e-001 6.440666e-001 8.154874e-001 1.021332e+000 1.134747e+000 1.359008e+000 1.417464e+000 1.324558e+000 1.678444e+000 1.403001e+000 1.188825e+000 2.683410e-001
<GCONST> 7.750287e+001
<TRANSP> 5
 0.000000e+000 1.000000e+000 0.000000e+000 0.000000e+000 0.000000e+000
 0.000000e+000 6.317336e-001 3.682664e-001 0.000000e+000 0.000000e+000
 0.000000e+000 0.000000e+000 4.336630e-001 5.663370e-001 0.000000e+000
 0.000000e+000 0.000000e+000 0.000000e+000 9.529044e-001 4.709554e-002
 0.000000e+000 0.000000e+000 0.000000e+000 0.000000e+000 0.000000e+000
<ENDHMM>
~h "r"
<BEGINHMM>
<NUMSTATES> 5
<STATE> 2
<MEAN> 25
 7.466434e+000 -1.027126e+001 -3.271133e+000 -1.978134e+000 -8.314366e+000 -1.023981e+000 4.111375e+000 2.436323e+000 -7.448341e-001 -1.796422e+000 -3.166137e+000 -8.394644e-001 -1.733717e-001 -9.712837e-001 4.772451e-001 1.717956e-002 -4.332169e-001 3.723308e-001 5.716863e-001 2.011202e-001 -6.274683e-001 4.525169e-001 7.009618e-002 4.251324e-001 2.840408e-001
<VARIANCE> 25
 1.766995e+001 5.237800e+001 3.816930e+001 5.690073e+001 6.455472e+001 3.022146e+001 8.090720e+001 4.613440e+001 4.753152e+001 5.644347e+001 4.078464e+001 3.375315e+001 1.229380e+000 4.485079e+000 2.953540e+000 4.891824e+000 5.920028e+000 2.700806e+000 6.857809e+000 5.402884e+000 4.655903e+000 4.162807e+000 3.645364e+000 3.553525e+000 1.683128e+000
<GCONST> 1.081920e+002
<STATE> 3
<MEAN> 25
 4.610954e+000 -1.063888e+001 1.876293e+000 -6.307026e+000 -8.841417e+000 -2.260696e+000 9.502813e+000 1.629908e-001 -4.388408e+000 3.035758e+000 -3.856490e+000 -8.857583e-001 -4.773320e-001 3.666596e-001 2.094899e-001 -3.946851e-001 6.900496e-001 -1.883594e-001 5.025979e-001 -8.556916e-001 -3.192964e-001 3.225718e-001 1.424036e-001 -8.859208e-002 2.255498e-002
<VARIANCE> 25
 1.560823e+001 5.313969e+001 4.851360e+001 5.377798e+001 7.412158e+001 2.814040e+001 7.717284e+001 4.466072e+001 5.282172e+001 5.794527e+001 3.966676e+001 2.359632e+001 1.258786e+000 2.697075e+000 2.049954e+000 3.293897e+000 2.958875e+000 1.958393e+000 6.186923e+000 3.242182e+000 4.663612e+000 3.458854e+000 3.684422e+000 2.184056e+000 1.215399e+000
<GCONST> 1.041394e+002
<STATE> 4
<MEAN> 25
 4.719746e+000 -1.400881e+001 -5.732763e+000 3.288955e+000 5.638540e-001 -2.049460e+000 4.777934e+000 -1.603950e+000 -4.007326e+000 4.663743e+000 1.432383e+000 -3.710184e+000 -1.961388e-001 7.268752e-001 7.129598e-002 2.120002e-001 3.067775e-001 -1.160413e-002 -3.521663e-002 -2.881784e-001 -2.891660e-002 2.973012e-002 -7.379243e-002 2.872287e-002 -4.825445e-001
<VARIANCE> 25
 1.968062e+001 8.842302e+001 7.844347e+001 1.261794e+002 1.260422e+002 4.713588e+001 1.546850e+002 5.646466e+001 5.415270e+001 5.609139e+001 7.738672e+001 3.689750e+001 4.943516e-001 2.299774e+000 1.773412e+000 4.161223e+000 3.647723e+000 3.091067e+000 4.967394e+000 4.419337e+000 2.225107e+000 3.286889e+000 4.046786e+000 2.628240e+000 7.395386e-001
<GCONST> 1.080400e+002
<TRANSP> 5
 0.000000e+000 1.000000e+000 0.000000e+000 0.000000e+000 0.000000e+000
 0.000000e+000 7.368802e-001 2.631198e-001 0.000000e+000 0.000000e+000
 0.000000e+000 0.000000e+000 7.504292e-001 2.495708e-001 0.000000e+000
 0.000000e+000 0.000000e+000 0.000000e+000 8.341115e-001 1.658885e-001
 0.000000e+000 0.000000e+000 0.000000e+000 0.000000e+000 0.000000e+000
<ENDHMM>
~h "s"
<BEGINHMM>
<NUMSTATES> 5
<STATE> 2
<MEAN> 25
 -6.072763e+000 2.900269e+000 -1.695014e+000 2.771970e+000 -2.175281e+000 9.129748e-001 3.514586e+000 -5.284307e-001 -2.280944e+000 9.772587e-001 2.539687e+000 1.179391e-002 -1.175312e+000 2.938874e-002 3.616606e-001 -2.395999e-001 -4.684046e-002 1.006470e-001 3.245298e-001 -2.685739e-001 -5.690361e-002 3.899183e-001 4.671399e-001 -9.169645e-002 6.001897e-001
<VARIANCE> 25
 3.160528e+001 6.386177e+001 5.392276e+001 6.676370e+001 2.983134e+001 5.349255e+001 3.922668e+001 3.632710e+001 5.475096e+001 3.625938e+001 2.601572e+001 2.584396e+001 2.934964e+000 5.070982e+000 5.324624e+000 3.469471e+000 2.350639e+000 4.217542e+000 2.849044e+000 3.674327e+000 3.722738e+000 2.669891e+000 2.778821e+000 2.316052e+000 1.967929e+000
<GCONST> 1.055812e+002
<STATE> 3
<MEAN> 25
 -1.165828e+001 -7.079541e-001 4.534527e+000 -4.483425e+000 -1.431034e+000 1.196159e+000 4.864811e+000 -4.061666e+000 -1.457175e+000 2.268715e+000 4.765116e+000 -3.334423e-001 1.525514e-001 -3.964123e-001 4.746050e-001 -7.800420e-001 3.736977e-002 -4.111477e-001 -5.490568e-001 -1.589997e-001 2.252518e-002 -1.847982e-001 -3.202792e-001 1.369747e-001 3.342745e-001
<VARIANCE> 25
 3.896653e+001 1.129798e+002 1.564574e+002 1.749951e+002 3.512373e+001 7.068262e+001 5.451616e+001 8.354094e+001 8.019355e+001 3.280741e+001 2.522823e+001 3.275097e+001 4.513249e+000 2.464682e+000 3.013019e+000 3.692220e+000 2.916261e+000 3.192829e+000 3.373291e+000 3.898728e+000 3.035476e+000 2.819362e+000 2.707475e+000 2.321289e+000 9.213601e-001
<GCONST> 1.089164e+002
<STATE> 4
<MEAN> 25
 -4.005715e+000 -1.657567e+000 2.298643e+000 -1.171695e+000 1.834604e-001 -2.280041e+000 3.677753e-004 -1.091392e+000 -9.415856e-001 7.118794e-001 2.200171e-001 6.945924e-001 1.221288e+000 -5.670438e-002 -8.367560e-002 -1.628392e-001 -2.570021e-001 -4.253383e-001 -6.148772e-001 3.977365e-002 -1.287811e-001 -4.787754e-001 -7.783577e-001 -1.135121e-001 1.449772e-001
<VARIANCE> 25
 6.020149e+001 2.227574e+002 1.122654e+002 1.790642e+002 8.699773e+001 8.409469e+001 6.895254e+001 6.145565e+001 4.664184e+001 4.545745e+001 3.971584e+001 4.971468e+001 4.225607e+000 3.394554e+000 3.925078e+000 6.867593e+000 5.171354e+000 4.430466e+000 5.525643e+000 4.894665e+000 4.523339e+000 4.700073e+000 4.581772e+000 4.240717e+000 1.084517e+000
<GCONST> 1.163477e+002
<TRANSP> 5
 0.000000e+000 1.000000e+000 0.000000e+000 0.000000e+000 0.000000e+000
 0.000000e+000 7.636863e-001 2.363137e-001 0.000000e+000 0.000000e+000
 0.000000e+000 0.000000e+000 7.204319e-001 2.795681e-001 0.000000e+000
 0.000000e+000 0.000000e+000 0.000000e+000 8.269878e-001 1.730122e-001
 0.000000e+000 0.000000e+000 0.000000e+000 0.000000e+000 0.000000e+000
<ENDHMM>
~h "t"
<BEGINHMM>
<NUMSTATES> 5
<STATE> 2
<MEAN> 25
 2.844816e+000 9.065098e-001 6.221824e-001 4.266670e+000 1.072869e-001 -1.647077e+000 -2.484953e+000 6.131468e-001 -2.553502e+000 -1.803281e+000 -2.433620e+000 -1.361218e+000 -3.778335e-001 -1.665608e+000 1.543254e-001 -5.911288e-001 2.221565e-001 -7.705367e-001 4.548742e-001 2.004621e-001 -5.782902e-001 3.332429e-001 2.114536e-001 -2.153221e-001 1.370768e+000
<VARIANCE> 25
 4.979939e+001 1.697715e+002 6.204858e+001 5.657229e+001 5.663272e+001 6.761896e+001 7.832468e+001 5.016513e+001 5.310695e+001 4.375055e+001 3.552279e+001 4.770432e+001 4.044526e+000 1.199355e+001 3.736006e+000 6.939850e+000 7.539684e+000 7.691628e+000 7.500097e+000 6.114199e+000 4.681571e+000 5.801571e+000 3.576990e+000 3.038873e+000 9.140799e+000
<GCONST> 1.177889e+002
<STATE> 3
<MEAN> 25
 1.814166e+000 -2.175142e+000 -1.214845e+000 -1.046478e-001 -2.336775e+000 -2.375556e+000 1.552608e+000 1.721526e+000 -4.168501e+000 -9.823246e-001 -1.131872e+000 -1.601229e-001 1.107689e-001 -1.908605e+000 1.580248e-001 -1.653313e+000 -7.512154e-002 -2.196157e-001 2.525139e-001 -5.464162e-001 5.384896e-002 2.263842e-001 7.249695e-003 -1.597495e-001 2.212313e+000
<VARIANCE> 25
 3.238320e+001 8.841403e+001 5.878913e+001 4.018550e+001 6.832008e+001 5.769292e+001 6.902728e+001 4.516877e+001 7.687118e+001 5.237762e+001 4.112345e+001 4.753708e+001 2.795045e+000 1.300768e+001 6.108141e+000 8.278417e+000 6.589393e+000 6.772289e+000 8.227485e+000 6.073898e+000 6.704864e+000 7.055871e+000 4.602912e+000 3.970026e+000 9.733897e+000
<GCONST> 1.181412e+002
<STATE> 4
<MEAN> 25
 1.872883e+000 -1.039952e+001 -9.677842e-001 -2.140405e-001 -5.893375e-001 -1.816336e+000 6.756067e+000 -7.453780e-001 -5.248200e+000 2.547273e-001 1.948024e+000 1.097755e+000 1.801925e-002 -2.310383e-001 9.182373e-002 -2.194316e-001 5.611001e-002 3.012927e-001 -3.629235e-001 -4.860356e-001 2.170238e-001 -3.116696e-002 -1.006928e-001 2.386753e-001 1.635524e-001
<VARIANCE> 25
 3.270186e+001 1.413243e+002 5.156950e+001 8.024202e+001 8.813723e+001 6.850132e+001 1.002092e+002 5.664511e+001 7.489917e+001 6.739072e+001 5.131976e+001 5.775501e+001 1.401646e+000 6.235626e+000 3.209155e+000 8.271493e+000 4.395537e+000 4.903452e+000 5.618727e+000 4.495746e+000 4.720262e+000 4.050855e+000 3.344854e+000 3.015830e+000 3.645425e+000
<GCONST> 1.148862e+002
<TRANSP> 5
 0.000000e+000 1.000000e+000 0.000000e+000 0.000000e+000 0.000000e+000
 0.000000e+000 6.104795e-001 3.895205e-001 0.000000e+000 0.000000e+000
 0.000000e+000 0.000000e+000 4.902672e-001 5.097328e-001 0.000000e+000
 0.000000e+000 0.000000e+000 0.000000e+000 7.776240e-001 2.223760e-001
 0.000000e+000 0.000000e+000 0.000000e+000 0.000000e+000 0.000000e+000
<ENDHMM>
~h "w"
<BEGINHMM>
<NUMSTATES> 5
<STATE> 2
<MEAN> 25
 5.521916e+000 7.781503e+000 7.838825e+000 -6.481562e+000 -4.353003e-001 -4.591846e+000 -5.685892e+000 -9.798331e-001 -6.658790e+000 -2.226855e+000 -5.122402e+000 -2.273013e+000 1.452239e-001 1.868346e-001 -2.519330e-001 -2.817660e-001 -8.489614e-002 -3.953173e-001 1.602254e-001 5.279148e-001 -4.144390e-002 1.440426e-001 2.132895e-001 3.418765e-002 -1.341152e-002
<VARIANCE> 25
 1.616589e+001 1.838011e+001 4.743096e+001 9.341676e+001 3.173336e+001 3.464423e+001 2.373347e+001 4.854462e+001 4.080792e+001 7.260153e+001 3.222829e+001 2.890582e+001 1.453281e-001 7.825628e-001 1.383290e+000 1.974095e+000 1.133348e+000 1.411904e+000 1.840367e+000 1.528615e+000 1.391138e+000 4.332047e+000 1.397268e+000 1.295098e+000 5.698825e-001
<GCONST> 9.108208e+001
<STATE> 3
<MEAN> 25
 6.413368e+000 2.466337e+000 -1.622824e-001 -1.618981e+001 3.488876e+000 -7.950615e+000 -3.495635e-001 2.672739e+000 -4.454766e+000 1.059834e+000 3.089170e+000 -1.465949e+000 -4.827351e-001 -1.870828e+000 -5.216450e-001 -2.709308e-001 8.906047e-001 6.597469e-001 1.389293e+000 -1.012574e+000 1.118514e+000 -3.632066e-001 1.554630e-002 -6.182709e-001 1.240681e+000
<VARIANCE> 25
 1.534204e+001 5.567091e+001 3.537327e+001 2.808940e+001 4.500513e+001 5.786039e+001 3.686626e+001 4.499105e+001 5.182516e+001 1.323629e+002 4.938871e+001 4.180994e+001 4.429527e-001 1.684882e+000 1.533595e+000 3.953364e+000 1.327386e+000 1.415467e+000 2.980510e+000 2.026268e+000 4.066619e+000 6.174291e+000 9.398650e+000 5.456976e+000 1.106787e+000
<GCONST> 1.025439e+002
<STATE> 4
<MEAN> 25
 7.634376e-001 1.550164e+000 1.750831e+000 -6.513156e+000 5.272558e+000 -1.600570e+000 -2.976533e-001 3.457941e+000 -2.914882e+000 -2.249921e+000 5.812656e+000 -2.864373e+000 4.607173e-002 -5.227867e-001 -1.351294e-001 1.933035e-001 -1.213283e-002 1.473025e-001 9.857905e-002 -4.899085e-002 -1.643029e-001 9.829186e-003 2.676213e-001 -3.869008e-002 2.501014e-001
<VARIANCE> 25
 2.556894e+001 2.332542e+002 1.782071e+001 2.229095e+001 8.693485e+001 3.266054e+001 1.224781e+002 6.774009e+001 1.224840e+002 4.965979e+001 5.590371e+001 1.412480e+002 3.233638e-001 4.605175e+000 1.340967e+000 8.758983e-001 2.681005e+000 2.347404e+000 3.163134e+000 3.116146e+000 4.492078e+000 3.434072e+000 3.687787e+000 2.838627e+000 1.056510e+000
<GCONST> 1.051134e+002
<TRANSP> 5
 0.000000e+000 1.000000e+000 0.000000e+000 0.000000e+000 0.000000e+000
 0.000000e+000 9.179343e-001 8.206569e-002 0.000000e+000 0.000000e+000
 0.000000e+000 0.000000e+000 8.068763e-001 1.931237e-001 0.000000e+000
 0.000000e+000 0.000000e+000 0.000000e+000 9.275615e-001 7.243852e-002
 0.000000e+000 0.000000e+000 0.000000e+000 0.000000e+000 0.000000e+000
<ENDHMM>
~h "y"
<BEGINHMM>
<NUMSTATES> 5
<STATE> 2
<MEAN> 25
 -2.562011e+000 -7.760660e+000 7.974116e+000 -1.229487e+001 1.582574e+000 -2.950825e+000 2.880381e+000 -6.295555e+000 1.693288e+000 2.014491e+000 -1.052618e+000 2.481361e+000 -3.231602e-001 4.429390e-001 1.142944e+000 -5.617473e-001 -6.499949e-001 -3.060153e-001 -1.008154e+000 -4.254927e-001 3.874443e-001 7.028053e-001 -2.616821e-002 2.982873e-002 -4.029480e-002
<VARIANCE> 25
 6.973911e+001 1.591469e+002 8.543601e+001 7.991808e+001 1.307071e+002 4.672532e+001 1.131536e+002 4.001657e+001 5.507325e+001 6.865458e+001 3.699478e+001 4.226673e+001 2.639215e+000 5.621952e+000 4.950954e+000 5.951530e+000 5.621944e+000 3.365844e+000 8.791156e+000 4.164893e+000 4.210134e+000 5.770301e+000 2.999355e+000 4.229761e+000 1.637132e+000
<GCONST> 1.156630e+002
<STATE> 3
<MEAN> 25
 -5.678354e-001 -2.855984e+000 6.497825e+000 -1.403469e+001 -4.068130e+000 -5.329622e+000 3.870620e+000 -5.382966e+000 3.161630e+000 2.186248e+000 -1.873120e-001 7.030143e-001 1.807767e-001 -1.000118e+000 -1.072808e+000 4.063588e-001 6.918099e-001 2.687138e-001 1.121789e+000 5.979689e-001 7.060526e-003 -8.238258e-001 5.141915e-002 -5.824648e-001 4.411241e-001
<VARIANCE> 25
 1.197787e+001 5.209163e+001 5.158966e+001 6.362169e+001 5.417993e+001 2.984714e+001 9.388033e+001 3.928798e+001 4.842649e+001 4.861232e+001 2.755564e+001 3.919104e+001 4.135674e-001 2.733682e+000 4.332512e+000 2.916717e+000 5.868230e+000 2.202574e+000 6.996835e+000 3.729726e+000 3.087887e+000 4.273200e+000 2.350104e+000 3.003412e+000 6.205917e-001
<GCONST> 1.033665e+002
<STATE> 4
<MEAN> 25
 3.312526e+000 -9.222015e+000 8.135812e+000 2.712540e+000 -4.898041e+000 -5.457653e+000 -5.987101e+000 -2.460067e+000 -2.805631e+000 -6.002768e-001 -2.391539e+000 -6.016125e+000 1.601746e-001 -1.139462e-001 -5.522379e-001 1.486145e-001 3.401295e-001 -4.599968e-002 1.105428e-001 5.696438e-002 4.795556e-002 -1.457129e-001 -2.377686e-002 1.978533e-001 -5.265051e-002
<VARIANCE> 25
 2.122382e+001 1.557319e+002 1.002080e+002 1.747792e+002 1.625735e+002 7.253321e+001 1.156934e+002 6.534868e+001 5.870087e+001 6.195679e+001 5.368835e+001 4.103793e+001 4.226743e-001 2.340849e+000 2.826062e+000 3.434873e+000 3.806813e+000 2.101863e+000 5.206354e+000 3.569735e+000 2.172439e+000 3.653456e+000 2.507931e+000 2.657328e+000 5.942236e-001
<GCONST> 1.087354e+002
<TRANSP> 5
 0.000000e+000 1.000000e+000 0.000000e+000 0.000000e+000 0.000000e+000
 0.000000e+000 7.439649e-001 2.560351e-001 0.000000e+000 0.000000e+000
 0.000000e+000 0.000000e+000 7.674387e-001 2.325613e-001 0.000000e+000
 0.000000e+000 0.000000e+000 0.000000e+000 8.731983e-001 1.268017e-001
 0.000000e+000 0.000000e+000 0.000000e+000 0.000000e+000 0.000000e+000
<ENDHMM>
~h "aa"
<BEGINHMM>
<NUMSTATES> 5
<STATE> 2
<MEAN> 25
 2.669239e+000 -6.514127e+000 -1.917721e+000 -2.965829e+000 1.333899e+000 -1.345610e+000 2.498061e+000 -1.503376e+000 -3.743035e-001 -1.848257e+000 -6.856219e-001 -7.408137e-001 5.980393e-001 -1.059623e+000 -8.201422e-001 -4.639305e-001 4.427023e-001 2.478467e-001 1.357132e-001 -2.849716e-001 -4.357733e-001 -3.896822e-001 -2.552476e-001 1.096758e-001 7.265946e-001
<VARIANCE> 25
 2.785553e+001 1.075491e+002 5.469975e+001 8.029615e+001 6.902201e+001 4.175894e+001 8.250626e+001 4.966994e+001 5.195641e+001 4.848697e+001 5.316830e+001 4.136268e+001 1.852445e+000 5.629490e+000 3.163567e+000 5.110022e+000 4.829634e+000 3.833831e+000 5.620764e+000 4.893470e+000 3.980278e+000 4.300732e+000 4.098264e+000 2.924976e+000 2.948971e+000
<GCONST> 1.119175e+002
<STATE> 3
<MEAN> 25
 4.630772e+000 -7.596771e+000 -5.674607e+000 -3.132588e+000 2.948937e+000 1.252850e+000 3.943010e+000 -2.791763e+000 -2.384793e+000 -2.525350e+000 -1.303873e+000 2.001531e-001 3.037485e-001 3.357394e-001 -1.004350e-001 3.334965e-001 -1.038991e-001 1.831606e-001 -4.978854e-001 4.403353e-003 -3.943047e-001 -1.515398e-001 -1.308040e-001 7.966176e-003 -4.540867e-001
<VARIANCE> 25
 2.633826e+001 1.368707e+002 4.222549e+001 7.446643e+001 5.334007e+001 4.545509e+001 7.069691e+001 5.055787e+001 4.944088e+001 4.967912e+001 4.882436e+001 3.954681e+001 9.061682e-001 2.821629e+000 1.955469e+000 3.190693e+000 2.949311e+000 2.617064e+000 3.565094e+000 3.897528e+000 2.836718e+000 3.149784e+000 2.891650e+000 2.485090e+000 1.701405e+000
<GCONST> 1.056758e+002
<STATE> 4
<MEAN> 25
 6.706786e+000 -6.643881e+000 -5.520255e+000 -2.622260e+000 -6.272952e-003 -5.555477e-001 -1.660861e-001 -3.135264e+000 -3.988861e+000 -3.797225e+000 -2.321460e+000 8.377633e-001 -1.617272e-001 6.800832e-001 2.344126e-001 2.245871e-001 -1.849761e-001 -7.634213e-002 -1.209728e-001 -7.567290e-003 -3.506503e-003 2.146175e-002 1.229660e-001 3.447086e-002 -5.105559e-001
<VARIANCE> 25
 2.597849e+001 1.082101e+002 3.533509e+001 6.802578e+001 5.023346e+001 4.961771e+001 7.520245e+001 4.222099e+001 4.333690e+001 6.445751e+001 4.994127e+001 3.769908e+001 3.601328e-001 1.334996e+000 1.142709e+000 1.881531e+000 1.844582e+000 1.917081e+000 2.157024e+000 2.234468e+000 1.758338e+000 2.254699e+000 2.132432e+000 1.709380e+000 4.754490e-001
<GCONST> 9.782887e+001
<TRANSP> 5
 0.000000e+000 1.000000e+000 0.000000e+000 0.000000e+000 0.000000e+000
 0.000000e+000 7.110758e-001 2.889242e-001 0.000000e+000 0.000000e+000
 0.000000e+000 0.000000e+000 6.915783e-001 3.084217e-001 0.000000e+000
 0.000000e+000 0.000000e+000 0.000000e+000 8.756002e-001 1.243998e-001
 0.000000e+000 0.000000e+000 0.000000e+000 0.000000e+000 0.000000e+000
<ENDHMM>
~h "ao"
<BEGINHMM>
<NUMSTATES> 5
<STATE> 2
<MEAN> 25
 5.689384e+000 8.866910e-001 -4.282527e+000 -9.957099e+000 3.098038e+000 -3.131220e+000 -1.439658e+000 -2.786781e+000 -4.419017e+000 4.342651e+000 -1.327191e+000 -3.709720e+000 6.673907e-001 -2.261704e-001 2.002042e-001 -2.716356e+000 -1.149127e+000 -1.151531e+000 9.612285e-001 3.373395e-002 6.387219e-002 4.459564e-001 -2.193323e-001 -1.070750e+000 1.210624e+000
<VARIANCE> 25
 1.534940e+001 3.657578e+001 6.137836e+001 7.172016e+001 9.622359e+001 4.217870e+001 5.849179e+001 4.177618e+001 5.202576e+001 1.105756e+002 3.993568e+001 3.276332e+001 1.329165e+000 1.802867e+000 2.657694e+000 6.056218e+000 7.058522e+000 4.010649e+000 8.972653e+000 2.554009e+000 7.523097e+000 5.754427e+000 4.143314e+000 2.434253e+000 1.121358e+000
<GCONST> 1.089322e+002
<STATE> 3
<MEAN> 25
 6.612469e+000 -3.870195e-001 -2.126738e+000 -1.518402e+001 -4.262269e-001 -5.063414e+000 3.112775e+000 1.386205e+000 -1.630705e+000 3.485531e+000 -1.243986e+000 -7.298594e+000 1.641191e-001 -6.811820e-001 -2.507286e-001 2.368984e-001 -6.923068e-001 1.873937e-001 6.123894e-001 6.197395e-001 8.583788e-001 -6.053977e-002 3.472655e-001 -4.715937e-001 2.716370e-001
<VARIANCE> 25
 5.722975e+000 2.452823e+001 5.955593e+001 3.388831e+001 6.709058e+001 5.389592e+001 5.934411e+001 1.248113e+002 8.200100e+001 6.228957e+001 3.766939e+001 2.907791e+001 2.215503e-001 4.345900e-001 1.095857e+000 2.394560e+000 1.609087e+000 2.224635e+000 3.024349e+000 2.005539e+000 2.526756e+000 2.689553e+000 1.838832e+000 1.770405e+000 3.016715e-001
<GCONST> 9.474221e+001
<STATE> 4
<MEAN> 25
 9.968215e+000 -2.738966e+000 -5.425170e+000 -1.118474e+001 -5.795029e+000 -2.571960e+000 -2.016905e+000 -2.464200e+000 2.922457e+000 3.213876e+000 2.538098e-001 -3.646456e+000 -1.861555e-002 -4.707589e-001 3.418700e-002 6.903477e-001 -4.239067e-001 -9.598556e-002 1.406580e-001 2.106952e-001 1.192974e-001 -2.909894e-001 -1.514580e-001 2.839701e-001 -4.356813e-002
<VARIANCE> 25
 1.949280e+001 3.570267e+001 2.516216e+001 6.385151e+001 6.640949e+001 4.372414e+001 8.797352e+001 5.676579e+001 5.412623e+001 3.949825e+001 3.172441e+001 2.620713e+001 2.004466e-001 8.421364e-001 1.276951e+000 2.964692e+000 2.420550e+000 2.048929e+000 1.958924e+000 1.879399e+000 2.900336e+000 2.579738e+000 2.166321e+000 1.743607e+000 2.504855e-001
<GCONST> 9.516853e+001
<TRANSP> 5
 0.000000e+000 1.000000e+000 0.000000e+000 0.000000e+000 0.000000e+000
 0.000000e+000 6.130838e-001 3.869162e-001 0.000000e+000 0.000000e+000
 0.000000e+000 0.000000e+000 7.724427e-001 2.275573e-001 0.000000e+000
 0.000000e+000 0.000000e+000 0.000000e+000 8.888713e-001 1.111287e-001
 0.000000e+000 0.000000e+000 0.000000e+000 0.000000e+000 0.000000e+000
<ENDHMM>
~h "eh"
<BEGINHMM>
<NUMSTATES> 5
<STATE> 2
<MEAN> 25
 3.309130e+000 -3.241796e+000 -1.397165e+000 -6.659561e+000 -1.889121e+000 -3.185033e+000 4.238577e+000 -1.541801e+000 -1.823092e+000 -6.309196e-001 -1.701042e+000 -1.472579e+000 9.052113e-001 -1.278777e-001 -1.913283e-001 -4.900461e-001 -1.763298e-001 -2.536519e-001 -5.640147e-001 -9.367549e-002 -2.893137e-001 -5.247737e-001 -4.397556e-001 1.701633e-001 5.313156e-001
<VARIANCE> 25
 2.291056e+001 4.361019e+001 4.277456e+001 5.840038e+001 6.884263e+001 5.124570e+001 8.526250e+001 3.952744e+001 6.374166e+001 5.060748e+001 5.042906e+001 2.963937e+001 3.009156e+000 2.818600e+000 2.377638e+000 5.182714e+000 4.143237e+000 3.354425e+000 4.852445e+000 3.749786e+000 3.525110e+000 5.080124e+000 4.306245e+000 2.407389e+000 3.661860e+000
<GCONST> 1.090610e+002
<STATE> 3
<MEAN> 25
 5.828453e+000 -3.515294e+000 -1.210594e+000 -5.691258e+000 -4.236849e+000 -2.192199e+000 3.783026e+000 -2.008198e+000 -5.121475e+000 -5.258510e-001 -5.034490e-001 -3.474908e-002 1.118147e-001 4.324021e-001 -6.713593e-002 8.474345e-001 3.989005e-001 1.058513e-001 -7.465041e-001 -1.260833e-001 1.599296e-001 8.980553e-002 2.119014e-001 2.684099e-001 -4.385757e-001
<VARIANCE> 25
 2.667861e+001 5.614966e+001 4.525385e+001 5.555820e+001 7.685594e+001 6.245738e+001 7.683447e+001 4.800779e+001 5.725923e+001 4.921606e+001 5.547964e+001 3.710761e+001 1.876146e+000 3.616643e+000 1.630521e+000 3.526427e+000 3.436502e+000 2.905815e+000 3.645193e+000 5.504259e+000 3.228172e+000 3.888250e+000 2.557575e+000 2.520405e+000 1.896574e+000
<GCONST> 1.073491e+002
<STATE> 4
<MEAN> 25
 7.533803e+000 -1.577048e+000 -3.551749e+000 -2.986499e+000 -2.025080e+000 -2.344293e+000 -3.971530e+000 -3.765130e+000 -3.308388e+000 -4.662237e+000 -2.500237e+000 8.165834e-001 -3.944752e-001 4.901492e-001 3.485168e-002 3.328270e-001 1.308839e-001 2.755035e-002 -9.478316e-002 -6.525399e-002 1.185959e-001 5.977931e-002 3.532376e-001 -8.023613e-002 -4.676453e-001
<VARIANCE> 25
 2.754059e+001 7.832105e+001 4.199720e+001 4.499065e+001 4.307487e+001 5.693588e+001 5.643408e+001 5.104137e+001 2.715817e+001 4.571597e+001 4.367063e+001 3.424365e+001 9.941484e-001 2.508023e+000 1.493659e+000 2.468299e+000 2.261973e+000 2.775424e+000 2.247098e+000 2.605843e+000 2.093516e+000 2.197734e+000 2.075681e+000 2.164371e+000 8.313539e-001
<GCONST> 1.000392e+002
<TRANSP> 5
 0.000000e+000 1.000000e+000 0.000000e+000 0.000000e+000 0.000000e+000
 0.000000e+000 6.336510e-001 3.663490e-001 0.000000e+000 0.000000e+000
 0.000000e+000 0.000000e+000 5.428138e-001 4.571862e-001 0.000000e+000
 0.000000e+000 0.000000e+000 0.000000e+000 8.235435e-001 1.764565e-001
 0.000000e+000 0.000000e+000 0.000000e+000 0.000000e+000 0.000000e+000
<ENDHMM>
~h "hh"
<BEGINHMM>
<NUMSTATES> 5
<STATE> 2
<MEAN> 25
 8.721236e+000 -3.735524e+000 -6.150096e+000 -2.934101e-001 6.273816e-001 -5.880722e+000 -6.344555e+000 3.704148e+000 -2.171121e+000 -5.303105e+000 -6.040131e-001 -6.411318e+000 -1.036601e-001 -1.150365e-001 1.287866e-001 8.042714e-002 -9.006739e-002 -1.148330e-001 1.341412e-001 4.238524e-001 4.966455e-002 2.069650e-001 -2.482900e-001 -5.244225e-001 -6.035144e-003
<VARIANCE> 25
 1.523304e+001 3.529836e+001 7.187846e+001 4.821952e+001 1.006870e+002 1.161413e+002 7.085136e+001 1.311735e+002 7.328872e+001 4.768889e+001 1.139599e+002 7.065781e+001 7.294987e-001 1.684370e+000 3.334795e+000 3.358087e+000 8.851280e+000 1.152383e+001 8.891183e+000 9.343857e+000 7.747498e+000 5.025460e+000 7.033474e+000 3.598892e+000 5.114764e-001
<GCONST> 1.139310e+002
<STATE> 3
<MEAN> 25
 5.111602e+000 -4.208952e+000 -2.998918e+000 4.109327e+000 -3.321453e+000 2.712485e-001 2.977248e+000 -2.586169e+000 -2.112529e+000 1.830114e+000 -2.572676e+000 -6.068440e+000 -4.616875e-001 5.626950e-001 -5.652604e-001 -1.702465e-001 -1.391697e-001 1.052109e+000 5.229720e-001 -9.878333e-002 5.671906e-001 2.385346e-001 3.160378e-001 8.697678e-001 -7.047443e-001
<VARIANCE> 25
 1.302998e+001 9.572546e+001 2.019250e+001 3.488992e+001 4.861224e+001 7.923023e+001 4.133054e+001 5.700887e+001 5.099376e+001 4.744995e+001 7.643610e+001 7.611027e+001 9.464005e-001 2.812675e+000 1.114680e+000 2.522623e+000 2.129014e+000 4.711103e+000 2.842199e+000 3.299276e+000 5.939833e+000 4.220123e+000 3.498016e+000 4.172344e+000 7.635604e-001
<GCONST> 1.043035e+002
<STATE> 4
<MEAN> 25
 -2.916256e+000 5.119057e+000 6.495166e-001 2.216675e-001 -1.534634e+000 2.630969e+000 2.511726e+000 1.094026e+000 3.830591e+000 1.257899e+000 -1.143447e-001 1.671048e+000 -1.858326e-001 2.051741e-001 1.694214e-001 8.899684e-002 6.632598e-002 1.167057e-001 -1.459922e-002 -4.801601e-002 9.839738e-002 1.524798e-001 3.187436e-002 6.776661e-003 -1.742400e-001
<VARIANCE> 25
 1.923873e+001 1.279469e+002 2.167765e+001 1.677498e+001 2.642361e+001 3.000191e+001 2.916586e+001 3.994156e+001 2.783700e+001 2.644761e+001 2.436142e+001 2.280503e+001 2.178278e-001 8.517324e-001 7.823928e-001 9.873394e-001 1.691373e+000 1.648911e+000 1.348481e+000 1.947953e+000 1.970442e+000 1.382788e+000 1.878126e+000 1.335160e+000 2.127296e-001
<GCONST> 8.673178e+001
<TRANSP> 5
 0.000000e+000 1.000000e+000 0.000000e+000 0.000000e+000 0.000000e+000
 0.000000e+000 8.220522e-001 1.779478e-001 0.000000e+000 0.000000e+000
 0.000000e+000 0.000000e+000 7.848451e-001 2.151549e-001 0.000000e+000
 0.000000e+000 0.000000e+000 0.000000e+000 9.475193e-001 5.248074e-002
 0.000000e+000 0.000000e+000 0.000000e+000 0.000000e+000 0.000000e+000
<ENDHMM>
~h "ih"
<BEGINHMM>
<NUMSTATES> 5
<STATE> 2
<MEAN> 25
 1.494588e+000 4.826662e+000 9.050022e+000 -5.165768e+000 -2.465217e+000 -2.863257e+000 -5.604009e+000 -5.053187e+000 -1.186513e-001 -1.087034e+000 -3.453357e+000 -8.299253e-001 -1.491511e-001 1.715578e-002 5.700223e-001 -1.960572e-001 2.657191e-001 -4.550543e-001 -6.201581e-001 1.902484e-001 3.188101e-001 -5.101625e-001 -8.693557e-002 3.123706e-004 1.402572e-001
<VARIANCE> 25
 2.202977e+001 9.304071e+001 7.918604e+001 1.592655e+002 8.167162e+001 4.179488e+001 5.246692e+001 5.293513e+001 4.158052e+001 4.115744e+001 3.293839e+001 4.093988e+001 1.478938e+000 2.668333e+000 3.797311e+000 7.478354e+000 4.345847e+000 3.512435e+000 3.539659e+000 3.965885e+000 3.758110e+000 3.740495e+000 2.841968e+000 2.411427e+000 1.714848e+000
<GCONST> 1.089248e+002
<STATE> 3
<MEAN> 25
 -2.727155e-001 5.331724e+000 7.306335e+000 -4.494370e+000 -9.354041e-001 -3.705628e+000 -5.026458e+000 -2.624054e+000 6.882108e-001 -1.809212e+000 -2.053560e+000 9.924091e-001 -2.151805e-002 -7.524874e-002 -1.876462e-002 5.340067e-001 8.943471e-002 -4.283790e-002 9.112568e-003 3.506663e-001 1.208561e-001 -4.683249e-002 1.596707e-001 -8.468763e-002 -2.713025e-001
<VARIANCE> 25
 1.343729e+001 8.061108e+001 6.028971e+001 1.326833e+002 3.461716e+001 3.468353e+001 4.723307e+001 4.608980e+001 3.466106e+001 3.779887e+001 2.213345e+001 2.912647e+001 4.470913e-001 6.651715e-001 1.329702e+000 2.582047e+000 1.671325e+000 1.640958e+000 1.976743e+000 2.190762e+000 1.950757e+000 1.729174e+000 1.415287e+000 1.548189e+000 3.507919e-001
<GCONST> 9.379281e+001
<STATE> 4
<MEAN> 25
 -1.372478e+000 3.931126e+000 6.455284e+000 3.925427e+000 1.675852e+000 -4.928171e+000 -5.030014e+000 2.205872e+000 3.597753e+000 -4.484799e+000 -9.624032e-001 -6.387563e-002 1.364612e-002 2.124812e-001 -4.067264e-001 -1.614739e-001 -3.176912e-003 2.029978e-001 2.112371e-001 -5.291967e-002 2.821553e-002 2.611070e-001 1.741183e-001 9.748836e-002 -2.062910e-001
<VARIANCE> 25
 9.408989e+000 1.225572e+002 8.529457e+001 1.080471e+002 4.719411e+001 7.396389e+001 6.213448e+001 5.552530e+001 3.340901e+001 5.701456e+001 2.865573e+001 4.248249e+001 3.096187e-001 1.377488e+000 1.967161e+000 2.290985e+000 1.616859e+000 2.738019e+000 3.068044e+000 2.766736e+000 2.371394e+000 2.911670e+000 2.182796e+000 2.010195e+000 3.664544e-001
<GCONST> 9.977342e+001
<TRANSP> 5
 0.000000e+000 1.000000e+000 0.000000e+000 0.000000e+000 0.000000e+000
 0.000000e+000 7.592296e-001 2.407704e-001 0.000000e+000 0.000000e+000
 0.000000e+000 0.000000e+000 7.367695e-001 2.632305e-001 0.000000e+000
 0.000000e+000 0.000000e+000 0.000000e+000 8.607587e-001 1.392413e-001
 0.000000e+000 0.000000e+000 0.000000e+000 0.000000e+000 0.000000e+000
<ENDHMM>
~h "ng"
<BEGINHMM>
<NUMSTATES> 5
<STATE> 2
<MEAN> 25
 3.414286e+000 -2.543382e+000 -2.005238e+000 -2.519332e+000 7.064372e+000 -3.407286e+000 1.593514e-001 -4.476379e+000 1.503039e+000 -2.025388e+000 3.405771e+000 -3.926799e+000 -9.574772e-002 7.753449e-001 3.884340e-001 7.557709e-001 -8.691429e-002 2.862873e-001 -5.246872e-001 3.139633e-001 -1.094087e-001 -2.345352e-001 -3.975140e-001 -1.909323e-001 -7.941691e-001
<VARIANCE> 25
 6.790859e+000 3.617142e+001 2.153643e+001 4.213757e+001 4.682321e+001 4.302956e+001 4.423193e+001 2.971163e+001 5.380265e+001 4.398827e+001 7.942768e+001 3.122651e+001 2.986963e-001 1.307135e+000 8.859581e-001 2.440811e+000 1.682544e+000 1.727748e+000 2.337666e+000 1.952366e+000 2.441044e+000 2.107070e+000 2.940423e+000 1.234872e+000 7.883632e-001
<GCONST> 9.374159e+001
<STATE> 3
<MEAN> 25
 2.832968e+000 2.880973e+000 8.326483e-001 2.654134e+000 4.067115e+000 -7.914747e-002 -4.828832e-001 -2.999734e+000 -2.828331e+000 -2.756139e+000 -3.016105e+000 -3.501771e+000 -2.777565e-001 1.525517e-001 1.201853e-001 2.968559e-001 -2.510944e-001 2.982287e-001 7.804109e-002 4.078923e-001 1.562829e-001 2.617468e-001 1.087355e-001 1.891362e-001 -4.966568e-001
<VARIANCE> 25
 9.395576e+000 3.510733e+001 1.880922e+001 3.365567e+001 2.974253e+001 1.924897e+001 3.018300e+001 2.653021e+001 3.628605e+001 3.458093e+001 5.851197e+001 3.623900e+001 3.624201e-001 1.012376e+000 7.378381e-001 1.118593e+000 1.271308e+000 1.655868e+000 2.192428e+000 1.847434e+000 1.445819e+000 1.712312e+000 3.291790e+000 1.493436e+000 4.271297e-001
<GCONST> 8.862274e+001
<STATE> 4
<MEAN> 25
 -1.322793e+000 1.423274e+000 1.566129e-002 4.152506e+000 1.081908e+000 1.723160e+000 1.461233e+000 1.655203e+000 1.227160e+000 1.412962e+000 1.185406e+000 9.118466e-001 -7.882098e-002 -1.811984e-002 4.128868e-003 -3.711948e-005 -4.007671e-002 4.278798e-002 2.429708e-002 6.209048e-002 8.385199e-002 7.975832e-002 5.037305e-002 5.985164e-002 -5.218356e-002
<VARIANCE> 25
 1.057235e+001 1.845110e+001 1.766469e+001 1.545824e+001 1.487570e+001 1.213372e+001 2.255228e+001 1.908172e+001 2.009659e+001 2.496071e+001 1.455611e+001 1.673595e+001 1.543834e-001 3.511536e-001 5.407011e-001 8.358079e-001 9.347643e-001 1.004271e+000 1.152501e+000 1.268695e+000 1.507310e+000 1.385309e+000 1.336889e+000 1.097993e+000 1.023674e-001
<GCONST> 7.525224e+001
<TRANSP> 5
 0.000000e+000 1.000000e+000 0.000000e+000 0.000000e+000 0.000000e+000
 0.000000e+000 7.990768e-001 2.009232e-001 0.000000e+000 0.000000e+000
 0.000000e+000 0.000000e+000 7.366186e-001 2.633814e-001 0.000000e+000
 0.000000e+000 0.000000e+000 0.000000e+000 9.514497e-001 4.855034e-002
 0.000000e+000 0.000000e+000 0.000000e+000 0.000000e+000 0.000000e+000
<ENDHMM>
~h "oh"
<BEGINHMM>
<NUMSTATES> 5
<STATE> 2
<MEAN> 25
 1.522950e+000 -1.119160e+001 -1.717052e+000 -2.074034e+000 2.271593e+000 3.304313e+000 8.294125e+000 -3.706044e+000 -2.203084e+000 -8.064067e+000 -8.979657e-001 -8.624098e-001 5.437831e-001 6.291039e-001 1.933324e-001 -1.699133e-001 -1.239240e+000 -1.122926e+000 -2.034923e-001 -1.345394e-001 3.922459e-001 3.228700e-001 -2.624887e-001 1.394053e-001 -9.602997e-002
<VARIANCE> 25
 5.902454e+000 1.643523e+001 1.111621e+001 2.371111e+001 1.129461e+001 2.183976e+001 3.763391e+001 9.244142e+000 3.126382e+001 2.288203e+001 6.705295e+000 1.135176e+001 3.036301e-001 7.974026e-001 5.819902e-001 1.316490e+000 1.742605e+000 2.281794e+000 3.062504e+000 9.744037e-001 3.120190e+000 2.947250e+000 8.089084e-001 1.687350e+000 6.742204e-001
<GCONST> 8.128574e+001
<STATE> 3
<MEAN> 25
 4.981689e+000 -4.669939e+000 -7.450782e+000 -1.394644e+001 -1.837401e+000 1.234439e+000 -7.950655e-001 -8.824057e+000 5.073291e+000 6.277410e+000 3.064495e+000 1.244536e+000 5.510033e-002 5.075557e-001 1.304512e-001 4.558421e-001 9.363233e-003 -1.303452e-001 2.460739e-001 -1.017257e-001 -5.786905e-001 -1.264554e-001 1.171082e-001 1.263503e-001 -3.554744e-001
<VARIANCE> 25
 3.117078e+000 1.172248e+001 7.804771e+000 3.836513e+001 1.972017e+001 1.051966e+001 4.681350e+001 1.093433e+001 3.487733e+001 3.933104e+001 1.811524e+001 1.058826e+001 2.632625e-001 4.144208e-001 8.018513e-001 2.452604e+000 2.119168e+000 1.542178e+000 2.302413e+000 1.350304e+000 8.711787e-001 2.049332e+000 1.335150e+000 1.977338e+000 2.029290e-001
<GCONST> 8.003539e+001
<STATE> 4
<MEAN> 25
 -4.899109e+000 6.348662e-002 1.143619e+000 1.472118e+000 2.480703e+000 1.199983e+000 3.831952e+000 2.999655e+000 2.356029e+000 1.844254e+000 2.127740e+000 -6.913361e-002 -1.247123e-001 3.524783e-002 9.781688e-002 7.114305e-002 -3.575424e-002 3.828883e-002 7.651196e-002 1.295106e-001 8.901136e-002 1.773787e-001 5.651185e-002 -8.373698e-002 -8.639319e-002
<VARIANCE> 25
 6.431264e+000 3.858457e+000 7.666989e+000 4.903890e+000 9.701953e+000 1.131298e+001 1.569383e+001 1.555279e+001 2.397568e+001 2.532032e+001 1.017234e+001 1.215105e+001 1.721262e-001 2.586841e-001 3.394458e-001 6.106604e-001 8.827042e-001 1.423221e+000 1.596588e+000 1.798600e+000 1.567290e+000 1.289800e+000 1.039806e+000 1.063032e+000 1.168190e-001
<GCONST> 6.946141e+001
<TRANSP> 5
 0.000000e+000 1.000000e+000 0.000000e+000 0.000000e+000 0.000000e+000
 0.000000e+000 7.327324e-001 2.672677e-001 0.000000e+000 0.000000e+000
 0.000000e+000 0.000000e+000 8.901198e-001 1.098802e-001 0.000000e+000
 0.000000e+000 0.000000e+000 0.000000e+000 9.682192e-001 3.178076e-002
 0.000000e+000 0.000000e+000 0.000000e+000 0.000000e+000 0.000000e+000
<ENDHMM>
~h "sp"
<BEGINHMM>
<NUMSTATES> 3
<STATE> 2
~s "silst"
<TRANSP> 3
 0.000000e+000 7.000000e-001 3.000000e-001
 0.000000e+000 9.000000e-001 9.999999e-002
 0.000000e+000 0.000000e+000 0.000000e+000
<ENDHMM>
~h "uw"
<BEGINHMM>
<NUMSTATES> 5
<STATE> 2
<MEAN> 25
 -3.436806e+000 -8.705981e+000 6.914058e+000 -5.194133e+000 1.794536e+000 1.726509e+000 -2.951064e+000 -3.083910e+000 -1.471299e+000 1.748986e+000 1.656337e+000 2.030476e+000 5.580488e-001 -1.472475e+000 7.071454e-002 -1.190647e+000 1.425558e-001 -3.874485e-001 -4.912693e-001 -6.902280e-001 -4.230817e-001 1.495580e-001 -1.087459e-001 -2.160237e-001 1.515299e+000
<VARIANCE> 25
 7.884663e+001 2.335535e+002 1.658887e+002 9.649140e+001 1.020618e+002 1.199505e+002 7.409995e+001 5.606688e+001 6.927289e+001 5.158444e+001 4.959296e+001 5.575206e+001 5.592387e+000 1.572753e+001 7.998492e+000 1.029178e+001 8.174024e+000 8.570287e+000 8.095834e+000 7.136151e+000 6.491635e+000 6.412097e+000 5.009461e+000 5.186492e+000 5.781875e+000
<GCONST> 1.252333e+002
<STATE> 3
<MEAN> 25
 4.399751e+000 -5.007126e+000 -1.586727e+000 -3.254595e+000 6.860443e-002 -2.864470e+000 -3.113026e+000 -1.308631e+000 -3.780370e+000 2.811706e+000 5.609794e-001 -3.372513e+000 5.713982e-001 -2.446408e-003 -5.323802e-001 -3.314529e-002 -2.143527e-001 1.610766e-001 2.910238e-001 -1.239201e-001 -1.784203e-001 1.869419e-002 -1.839990e-001 -4.738183e-001 1.315175e-001
<VARIANCE> 25
 3.014815e+001 1.583403e+002 9.511550e+001 1.109819e+002 1.234151e+002 7.957648e+001 1.197196e+002 1.035971e+002 8.407119e+001 5.758604e+001 6.356491e+001 6.577096e+001 3.233293e+000 7.251489e+000 5.573018e+000 8.624004e+000 9.592031e+000 6.832664e+000 7.381926e+000 8.913428e+000 7.518638e+000 5.833820e+000 5.241708e+000 5.725066e+000 5.876951e+000
<GCONST> 1.234734e+002
<STATE> 4
<MEAN> 25
 4.672100e+000 -3.376587e+000 -5.920580e+000 -6.513250e+000 9.994346e-001 -1.777173e+000 1.164377e+000 -3.766488e+000 -4.231288e+000 2.726511e+000 4.228941e-001 -2.575141e+000 4.273275e-003 6.054215e-001 1.873131e-002 1.030828e-001 -7.201058e-002 2.234055e-001 1.300140e-001 1.997540e-001 2.623010e-002 -1.951532e-001 4.126610e-003 1.474836e-001 -5.475993e-001
<VARIANCE> 25
 2.079516e+001 1.273772e+002 6.078816e+001 1.363362e+002 1.021932e+002 7.625303e+001 8.440459e+001 7.733230e+001 7.605374e+001 4.862695e+001 5.390059e+001 5.391510e+001 7.460677e-001 2.823248e+000 1.864667e+000 5.220883e+000 4.269328e+000 4.196115e+000 4.136825e+000 4.580978e+000 5.178120e+000 3.381329e+000 3.698318e+000 3.152689e+000 1.192329e+000
<GCONST> 1.111291e+002
<TRANSP> 5
 0.000000e+000 1.000000e+000 0.000000e+000 0.000000e+000 0.000000e+000
 0.000000e+000 6.975136e-001 3.024864e-001 0.000000e+000 0.000000e+000
 0.000000e+000 0.000000e+000 7.833785e-001 2.166215e-001 0.000000e+000
 0.000000e+000 0.000000e+000 0.000000e+000 8.407799e-001 1.592201e-001
 0.000000e+000 0.000000e+000 0.000000e+000 0.000000e+000 0.000000e+000
<ENDHMM>
~h "sil"
<BEGINHMM>
<NUMSTATES> 5
<STATE> 2
<MEAN> 25
 -1.514692e+001 6.459276e+000 -3.096642e+000 1.115099e+001 -2.344389e+000 7.233739e+000 -4.627239e+000 1.032701e+001 9.681513e+000 4.085844e+000 4.920907e+000 1.984333e+000 -3.302033e-002 2.937248e-002 -1.262549e-002 -5.825373e-002 1.141540e-002 5.024861e-002 -3.661314e-002 -2.645664e-002 8.891609e-002 7.832231e-002 3.134978e-002 -7.088561e-002 -2.876558e-002
<VARIANCE> 25
 3.407546e+001 1.304090e+001 2.408097e+001 2.545948e+001 1.784175e+001 1.844772e+001 1.803552e+001 3.112947e+001 3.518532e+001 1.943980e+001 1.788620e+001 1.400890e+001 1.156373e-001 2.473946e-001 3.268077e-001 4.933903e-001 6.354233e-001 7.690979e-001 1.009985e+000 1.213866e+000 1.134912e+000 1.427468e+000 1.212306e+000 1.307539e+000 1.589601e-001
<GCONST> 7.585362e+001
<STATE> 3
~s "silst"
<STATE> 4
<MEAN> 25
 -2.542551e+000 3.258065e+000 -1.127991e+000 1.904629e+000 -6.447552e-001 2.323846e+000 8.591475e-001 1.428691e+000 8.988894e-001 1.586519e+000 6.502506e-001 1.590647e+000 -8.854444e-003 7.063244e-003 2.173782e-003 -4.339166e-003 -1.270328e-002 1.256575e-002 5.080202e-003 6.399348e-003 4.781489e-004 2.398054e-002 1.520247e-002 2.808654e-003 6.350699e-003
<VARIANCE> 25
 1.384286e+001 6.039611e+001 2.848478e+001 2.579089e+001 2.324049e+001 2.011946e+001 2.950297e+001 2.276909e+001 2.379406e+001 3.178635e+001 1.698054e+001 1.926083e+001 2.082407e-001 5.943071e-001 6.970298e-001 8.753923e-001 9.968368e-001 1.187223e+000 1.368289e+000 1.403422e+000 1.564630e+000 1.479510e+000 1.294014e+000 1.234836e+000 2.016323e-001
<GCONST> 8.229533e+001
<TRANSP> 5
 0.000000e+000 1.000000e+000 0.000000e+000 0.000000e+000 0.000000e+000
 0.000000e+000 7.112889e-001 8.871113e-002 2.000000e-001 0.000000e+000
 0.000000e+000 0.000000e+000 8.445700e-001 1.554300e-001 0.000000e+000
 0.000000e+000 2.000000e-001 0.000000e+000 7.762778e-001 2.372224e-002
 0.000000e+000 0.000000e+000 0.000000e+000 0.000000e+000 0.000000e+000
<ENDHMM>
