~o
<STREAMINFO> 1 25
<VECSIZE> 25<NULLD><MFCC_D_N_Z_0><DIAGC>
~s "silst"
<MEAN> 25
 -6.451848e+000 4.641966e+000 -8.659369e+000 4.412210e+000 -7.213553e+000 6.142248e+000 -1.837882e+000 2.539490e+000 -1.785765e+000 5.818417e+000 1.423150e-002 3.649123e+000 3.237013e-001 -1.941040e-001 1.422140e-001 -9.166881e-002 1.844172e-001 -1.549235e-001 1.133056e-001 -9.652907e-002 -1.070475e-001 -8.959928e-002 -9.423797e-002 5.552050e-003 1.295201e+000
<VARIANCE> 25
 3.158680e+001 9.485819e+000 1.857486e+001 1.370672e+001 1.908488e+001 1.590314e+001 1.952637e+001 1.485865e+001 2.774747e+001 1.753205e+001 1.663881e+001 1.177702e+001 2.734477e+000 6.724602e-001 1.277738e+000 7.499853e-001 9.863544e-001 1.114597e+000 1.336650e+000 1.197052e+000 1.307279e+000 1.087460e+000 1.151599e+000 7.781017e-001 8.637210e+000
<GCONST> 8.356941e+001
~h "b"
<BEGINHMM>
<NUMSTATES> 5
<STATE> 2
<MEAN> 25
 2.786348e+000 3.779620e+000 1.053772e+001 -1.003423e+000 -7.215942e+000 -3.887517e+000 -2.973516e+000 -5.816898e+000 -5.053612e+000 2.569778e+000 -1.623957e+000 1.477761e-002 -1.092497e+000 -3.763563e-001 2.763552e+000 -3.043104e+000 -2.106693e+000 -7.060556e-001 2.071719e-001 -1.515837e+000 -8.660406e-001 1.991438e+000 -3.338753e-001 6.630945e-001 1.589599e+000
<VARIANCE> 25
 2.447383e+001 1.440841e+001 8.163760e+001 9.276970e+001 4.333830e+001 3.412772e+001 3.320476e+001 5.287201e+001 4.547461e+001 5.577606e+001 2.157083e+001 2.905568e+001 3.007789e+000 1.554371e+000 5.729941e+000 8.384489e+000 3.443700e+000 3.860974e+000 4.167010e+000 5.754066e+000 6.206825e+000 4.844283e+000 2.979557e+000 4.414808e+000 6.788793e-001
<GCONST> 1.065653e+002
<STATE> 3
<MEAN> 25
 2.030097e-001 2.278903e+000 1.261145e+001 -9.334297e+000 -1.440486e+001 -5.997802e+000 -1.495668e+000 -7.570469e+000 -5.009802e+000 8.281659e+000 -1.460461e-001 9.303223e-001 9.479795e-002 -5.113798e-001 -1.701888e+000 4.862128e-001 2.031886e-001 -7.617070e-001 7.178146e-001 1.117682e+000 7.690307e-001 -6.638275e-001 5.821500e-001 -1.752142e-001 3.003097e-001
<VARIANCE> 25
 2.073472e+001 1.722752e+001 3.225907e+001 4.502420e+001 3.000895e+001 2.690491e+001 5.024705e+001 3.705925e+001 4.338797e+001 3.174656e+001 2.856614e+001 5.079495e+001 8.148237e-001 1.973196e+000 2.813225e+000 3.197406e+000 3.386575e+000 2.552559e+000 3.424834e+000 4.339593e+000 3.003313e+000 5.223961e+000 1.927371e+000 2.366805e+000 5.266591e-001
<GCONST> 9.899426e+001
<STATE> 4
<MEAN> 25
 4.325686e+000 -5.440810e+000 -2.545459e+000 -6.234725e+000 -4.093573e+000 -6.788638e+000 -4.454790e-001 -5.632206e-001 1.507116e+000 -3.011609e+000 -3.215109e+000 -5.026281e-001 6.083021e-001 -1.844629e-001 -1.773142e+000 1.813792e-001 2.182439e+000 6.365694e-001 -1.138629e+000 -3.782645e-001 1.202776e+000 -1.194663e+000 -8.311271e-001 -2.307019e-001 -2.945859e-001
<VARIANCE> 25
 2.510513e+001 5.507502e+001 5.545862e+001 2.524656e+001 4.830787e+001 5.017165e+001 3.838887e+001 3.983753e+001 3.391138e+001 4.064619e+001 3.058811e+001 3.229686e+001 1.042634e+000 2.904073e+000 3.211329e+000 2.327762e+000 4.598089e+000 2.607173e+000 3.013634e+000 5.220343e+000 4.906626e+000 3.744046e+000 2.623892e+000 3.127514e+000 9.901018e-001
<GCONST> 1.030377e+002
<TRANSP> 5
 0.000000e+000 1.000000e+000 0.000000e+000 0.000000e+000 0.000000e+000
 0.000000e+000 7.404865e-001 2.595136e-001 0.000000e+000 0.000000e+000
 0.000000e+000 0.000000e+000 8.084781e-001 1.915219e-001 0.000000e+000
 0.000000e+000 0.000000e+000 0.000000e+000 6.638168e-001 3.361832e-001
 0.000000e+000 0.000000e+000 0.000000e+000 0.000000e+000 0.000000e+000
<ENDHMM>
~h "c"
<BEGINHMM>
<NUMSTATES> 5
<STATE> 2
<MEAN> 25
 1.292055e-008 1.831648e-008 -6.299361e-008 6.397928e-009 6.513714e-008 4.146926e-008 -2.503356e-008 -3.737221e-008 4.785829e-009 -8.260601e-008 4.838081e-008 -2.966501e-008 7.700191e-003 5.403126e-003 9.986212e-003 -4.435305e-003 5.198286e-003 1.178548e-003 5.735684e-003 -2.200497e-003 -9.225003e-004 -6.409926e-004 -2.520854e-003 -2.406914e-003 2.725629e-002
<VARIANCE> 25
 4.587285e+001 1.030148e+002 6.019880e+001 7.829473e+001 5.465159e+001 4.961901e+001 6.176896e+001 4.825900e+001 4.880714e+001 4.872197e+001 3.755544e+001 3.288158e+001 1.069084e+000 2.243620e+000 1.931021e+000 2.910384e+000 2.554792e+000 2.477852e+000 2.995093e+000 2.747025e+000 2.618064e+000 2.724945e+000 2.375594e+000 2.010036e+000 1.498881e+000
<GCONST> 1.041510e+002
<STATE> 3
<MEAN> 25
 1.292055e-008 1.831648e-008 -6.299361e-008 6.397928e-009 6.513714e-008 4.146926e-008 -2.503356e-008 -3.737221e-008 4.785829e-009 -8.260601e-008 4.838081e-008 -2.966501e-008 7.700191e-003 5.403126e-003 9.986212e-003 -4.435305e-003 5.198286e-003 1.178548e-003 5.735684e-003 -2.200497e-003 -9.225003e-004 -6.409926e-004 -2.520854e-003 -2.406914e-003 2.725629e-002
<VARIANCE> 25
 4.587285e+001 1.030148e+002 6.019880e+001 7.829473e+001 5.465159e+001 4.961901e+001 6.176896e+001 4.825900e+001 4.880714e+001 4.872197e+001 3.755544e+001 3.288158e+001 1.069084e+000 2.243620e+000 1.931021e+000 2.910384e+000 2.554792e+000 2.477852e+000 2.995093e+000 2.747025e+000 2.618064e+000 2.724945e+000 2.375594e+000 2.010036e+000 1.498881e+000
<GCONST> 1.041510e+002
<STATE> 4
<MEAN> 25
 1.292055e-008 1.831648e-008 -6.299361e-008 6.397928e-009 6.513714e-008 4.146926e-008 -2.503356e-008 -3.737221e-008 4.785829e-009 -8.260601e-008 4.838081e-008 -2.966501e-008 7.700191e-003 5.403126e-003 9.986212e-003 -4.435305e-003 5.198286e-003 1.178548e-003 5.735684e-003 -2.200497e-003 -9.225003e-004 -6.409926e-004 -2.520854e-003 -2.406914e-003 2.725629e-002
<VARIANCE> 25
 4.587285e+001 1.030148e+002 6.019880e+001 7.829473e+001 5.465159e+001 4.961901e+001 6.176896e+001 4.825900e+001 4.880714e+001 4.872197e+001 3.755544e+001 3.288158e+001 1.069084e+000 2.243620e+000 1.931021e+000 2.910384e+000 2.554792e+000 2.477852e+000 2.995093e+000 2.747025e+000 2.618064e+000 2.724945e+000 2.375594e+000 2.010036e+000 1.498881e+000
<GCONST> 1.041510e+002
<TRANSP> 5
 0.000000e+000 1.000000e+000 0.000000e+000 0.000000e+000 0.000000e+000
 0.000000e+000 6.000000e-001 4.000000e-001 0.000000e+000 0.000000e+000
 0.000000e+000 0.000000e+000 6.000000e-001 4.000000e-001 0.000000e+000
 0.000000e+000 0.000000e+000 0.000000e+000 7.000000e-001 3.000000e-001
 0.000000e+000 0.000000e+000 0.000000e+000 0.000000e+000 0.000000e+000
<ENDHMM>
~h "d"
<BEGINHMM>
<NUMSTATES> 5
<STATE> 2
<MEAN> 25
 2.916793e+000 3.489138e+000 2.929758e+000 3.596250e+000 -2.532822e+000 -7.539940e-001 -2.762904e+000 -1.334691e+000 -2.088706e+000 -1.228698e-001 8.515401e-002 -2.244677e+000 -1.079507e-002 -5.347636e-001 2.095057e+000 -1.573740e+000 -1.407577e+000 -7.775657e-001 -3.550242e-001 -7.662247e-001 -1.576924e+000 7.860417e-001 -5.462889e-001 -4.105312e-001 1.904523e+000
<VARIANCE> 25
 2.340067e+001 3.203826e+001 4.174615e+001 4.728860e+001 3.664065e+001 2.956188e+001 3.173364e+001 2.970457e+001 2.380667e+001 3.423965e+001 2.717380e+001 2.010048e+001 2.848849e+000 4.385364e+000 3.921090e+000 4.898756e+000 2.849071e+000 4.788289e+000 3.975916e+000 5.191952e+000 4.111356e+000 5.918444e+000 3.912462e+000 3.176622e+000 2.607054e+000
<GCONST> 1.047883e+002
<STATE> 3
<MEAN> 25
 -1.230243e+000 -1.457720e-001 1.335998e+001 -1.026276e+001 -1.095482e+001 -3.188059e+000 -3.016951e+000 -3.516235e+000 -5.160032e+000 9.371870e+000 -2.667037e+000 2.450017e+000 -2.565958e-001 -1.228019e+000 -3.514865e-001 -1.481847e+000 -3.238645e-001 -7.195278e-001 1.271750e+000 4.957326e-001 8.041317e-001 9.185465e-002 -1.467480e-001 3.015995e-001 1.231552e+000
<VARIANCE> 25
 1.264959e+001 3.747829e+001 6.250832e+001 7.332978e+001 4.472251e+001 3.247771e+001 6.754530e+001 5.498439e+001 5.715818e+001 5.323967e+001 3.375546e+001 3.346552e+001 1.229432e+000 3.616901e+000 7.122259e+000 7.223555e+000 5.832194e+000 3.034943e+000 9.422902e+000 5.398860e+000 4.766671e+000 8.515174e+000 3.768203e+000 3.925879e+000 2.636633e+000
<GCONST> 1.106926e+002
<STATE> 4
<MEAN> 25
 8.024709e-001 -8.006796e+000 7.913696e-001 -1.064776e+001 -2.769406e+000 -5.107167e+000 7.891947e+000 1.571026e-001 5.734493e-001 -1.224776e+000 -3.085183e+000 7.985275e-001 3.856935e-001 -6.506946e-001 -1.099136e+000 1.459640e-001 2.064671e+000 -4.360909e-002 5.353196e-002 -3.091720e-001 1.828972e-001 -2.104351e+000 -5.849336e-001 1.962399e-001 4.709333e-001
<VARIANCE> 25
 1.687351e+001 2.963446e+001 5.159365e+001 6.009575e+001 7.533420e+001 2.683507e+001 7.872936e+001 7.951301e+001 3.224098e+001 3.677676e+001 4.428975e+001 2.881034e+001 6.487841e-001 3.009327e+000 3.939009e+000 4.236677e+000 6.942527e+000 2.412500e+000 6.265884e+000 2.781590e+000 3.213565e+000 5.631031e+000 2.366505e+000 2.705213e+000 2.421498e+000
<GCONST> 1.055810e+002
<TRANSP> 5
 0.000000e+000 1.000000e+000 0.000000e+000 0.000000e+000 0.000000e+000
 0.000000e+000 6.489127e-001 3.510873e-001 0.000000e+000 0.000000e+000
 0.000000e+000 0.000000e+000 7.779356e-001 2.220644e-001 0.000000e+000
 0.000000e+000 0.000000e+000 0.000000e+000 5.406755e-001 4.593244e-001
 0.000000e+000 0.000000e+000 0.000000e+000 0.000000e+000 0.000000e+000
<ENDHMM>
~h "g"
<BEGINHMM>
<NUMSTATES> 5
<STATE> 2
<MEAN> 25
 2.647803e+000 6.012266e+000 3.362812e+000 4.152294e+000 -4.127452e-001 -1.553632e+000 -4.593891e+000 8.391466e-001 -1.994892e+000 1.145535e+000 -3.284145e+000 -2.267245e+000 -2.698731e-001 -1.169514e+000 -6.272950e-001 -5.709326e-001 5.497270e-001 -5.443223e-001 7.221200e-001 -1.376167e-003 -8.124402e-001 9.022648e-001 5.453967e-001 3.242449e-002 1.169046e+000
<VARIANCE> 25
 4.695505e+001 9.708958e+001 9.388557e+001 9.521453e+001 9.047503e+001 7.080454e+001 7.668433e+001 4.573529e+001 6.270670e+001 6.008049e+001 5.445119e+001 4.049793e+001 5.329132e+000 7.260284e+000 7.205422e+000 1.296481e+001 8.721677e+000 5.915200e+000 7.323632e+000 3.582657e+000 5.400869e+000 7.436476e+000 4.385178e+000 3.947219e+000 7.232612e+000
<GCONST> 1.202563e+002
<STATE> 3
<MEAN> 25
 4.799427e-001 -2.229005e+000 -1.874426e+000 -3.888723e+000 3.459749e+000 8.627416e-001 8.906077e-001 -1.764512e+000 -2.360134e+000 3.091044e+000 2.466173e+000 6.531961e-001 6.045871e-001 4.102181e-001 1.310688e-001 -2.559387e+000 -6.774759e-001 -1.085482e+000 -5.928110e-001 -1.077433e+000 -4.576291e-001 -7.286569e-001 -6.407423e-001 4.418213e-003 1.433324e+000
<VARIANCE> 25
 2.488598e+001 2.170832e+001 8.022446e+001 8.627314e+001 8.434196e+001 5.283978e+001 4.694880e+001 2.120539e+001 5.274002e+001 1.253976e+002 3.650762e+001 2.747380e+001 2.430864e+000 3.280349e+000 4.560952e+000 7.480850e+000 4.985698e+000 2.970366e+000 5.489499e+000 3.559363e+000 5.687836e+000 8.592503e+000 3.506880e+000 3.269813e+000 2.703590e+000
<GCONST> 1.106914e+002
<STATE> 4
<MEAN> 25
 3.873792e+000 2.544040e+000 3.575321e+000 -6.011372e+000 1.964079e-001 -3.393113e+000 -2.112668e+000 -2.508586e+000 -3.799260e+000 -3.230041e+000 -3.865016e+000 -2.079140e+000 7.762992e-001 1.078486e+000 8.642659e-001 -5.213093e-001 2.684089e-001 -8.189109e-001 -1.054640e+000 -5.817086e-002 -4.365749e-001 1.629461e-001 -1.330261e+000 -8.926128e-001 5.071999e-001
<VARIANCE> 25
 2.649785e+001 2.696923e+001 5.431745e+001 9.199400e+001 4.018579e+001 2.916737e+001 4.791557e+001 4.821200e+001 3.145049e+001 6.804106e+001 4.402651e+001 2.726468e+001 1.131651e+000 2.205740e+000 2.931644e+000 5.933979e+000 6.426676e+000 2.647138e+000 4.519805e+000 3.372467e+000 4.173000e+000 7.503966e+000 3.111269e+000 2.122416e+000 1.744365e+000
<GCONST> 1.058229e+002
<TRANSP> 5
 0.000000e+000 1.000000e+000 0.000000e+000 0.000000e+000 0.000000e+000
 0.000000e+000 6.940584e-001 3.059416e-001 0.000000e+000 0.000000e+000
 0.000000e+000 0.000000e+000 5.997716e-001 4.002285e-001 0.000000e+000
 0.000000e+000 0.000000e+000 0.000000e+000 4.695205e-001 5.304795e-001
 0.000000e+000 0.000000e+000 0.000000e+000 0.000000e+000 0.000000e+000
<ENDHMM>
~h "h"
<BEGINHMM>
<NUMSTATES> 5
<STATE> 2
<MEAN> 25
 -7.009018e-001 1.665518e+000 1.169421e+000 3.927012e+000 -7.239802e-002 2.494322e+000 -4.774030e-001 6.917827e-001 1.219073e+000 5.878645e-001 2.765790e+000 -2.110140e-001 7.835125e-003 4.308556e-002 1.696033e-003 2.390625e-002 7.240982e-002 -1.914242e-002 -5.247615e-002 6.190458e-002 1.313466e-001 -6.823908e-002 -9.026571e-002 -8.461513e-002 -1.699767e-002
<VARIANCE> 25
 1.000543e+001 5.343164e+000 6.582080e+000 9.060857e+000 9.582443e+000 1.331351e+001 1.388473e+001 1.615539e+001 2.071751e+001 1.385540e+001 1.177416e+001 1.273868e+001 1.153853e-001 2.587305e-001 3.875231e-001 5.250952e-001 8.238115e-001 1.439585e+000 1.314102e+000 1.380919e+000 1.525390e+000 1.320618e+000 1.124717e+000 1.520658e+000 5.245051e-002
<GCONST> 6.889812e+001
<STATE> 3
<MEAN> 25
 -2.083607e+000 -4.148896e+000 -2.136559e+000 5.391835e+000 6.731838e+000 1.468101e+000 4.300513e-001 1.376264e+000 3.916382e-001 -3.533666e+000 2.069421e+000 2.767978e+000 -8.214122e-002 -1.478177e+000 -4.295891e-001 2.667424e-001 1.376900e+000 -3.435108e-002 1.660182e-001 -5.728174e-001 -8.652804e-001 -1.160893e+000 -4.292264e-001 7.671301e-001 9.488260e-001
<VARIANCE> 25
 1.803669e+001 4.643376e+001 2.084700e+001 1.275140e+001 1.548625e+001 2.611576e+001 2.472666e+001 3.442656e+001 2.224816e+001 2.252956e+001 1.868014e+001 2.815159e+001 3.750849e-001 1.888450e+000 2.856628e+000 6.476923e-001 1.950153e+000 1.739455e+000 1.269618e+000 3.456872e+000 2.340305e+000 2.380965e+000 3.352042e+000 2.993313e+000 2.474135e-001
<GCONST> 8.908962e+001
<STATE> 4
<MEAN> 25
 1.485550e+000 -1.608308e+000 -8.795089e-001 7.872540e-001 2.768052e-001 -9.986060e-001 -1.590994e+000 -3.115631e+000 -2.079773e+000 -2.910372e+000 -1.148088e+000 5.016184e-001 -2.756666e-002 1.112459e-001 7.003731e-002 -6.625941e-002 -5.714948e-002 -8.428825e-002 2.686342e-002 -6.714686e-002 1.227256e-001 5.742972e-002 2.907791e-002 -3.174032e-002 -3.607548e-002
<VARIANCE> 25
 5.776678e+001 2.161207e+001 2.391400e+001 1.663467e+001 2.118162e+001 1.787670e+001 3.541730e+001 5.109084e+001 4.653080e+001 4.832623e+001 2.440877e+001 1.763151e+001 7.392929e-001 5.163219e-001 1.131334e+000 1.287759e+000 1.131489e+000 1.475547e+000 1.927589e+000 1.723260e+000 1.694102e+000 1.303902e+000 1.534455e+000 1.129242e+000 1.623838e-001
<GCONST> 8.693341e+001
<TRANSP> 5
 0.000000e+000 1.000000e+000 0.000000e+000 0.000000e+000 0.000000e+000
 0.000000e+000 9.456085e-001 5.439154e-002 0.000000e+000 0.000000e+000
 0.000000e+000 0.000000e+000 7.670470e-001 2.329530e-001 0.000000e+000
 0.000000e+000 0.000000e+000 0.000000e+000 9.644845e-001 3.551546e-002
 0.000000e+000 0.000000e+000 0.000000e+000 0.000000e+000 0.000000e+000
<ENDHMM>
~h "j"
<BEGINHMM>
<NUMSTATES> 5
<STATE> 2
<MEAN> 25
 6.735652e+000 -1.341730e+000 2.844687e-001 4.098237e+000 -2.288560e+000 2.471982e+000 -6.635965e+000 -3.680489e+000 -5.105760e+000 -2.824537e+000 -8.748636e+000 -1.691286e+000 2.384874e-001 7.844339e-001 -4.070358e-001 1.159852e+000 6.046953e-002 5.710345e-001 1.964620e-002 2.036072e-001 4.490653e-001 -2.020934e-001 -1.068599e-001 -9.255416e-002 -1.119633e+000
<VARIANCE> 25
 1.410032e+001 3.941166e+001 3.843939e+001 2.343819e+001 4.839063e+001 9.826177e+000 3.347720e+001 2.168808e+001 2.062164e+001 1.439697e+001 3.618467e+001 1.656023e+001 9.085743e-001 6.350761e-001 4.455011e-001 1.019851e+000 4.626230e+000 1.998436e+000 3.542467e+000 2.295219e+000 3.750955e+000 3.870038e+000 3.461718e+000 1.320415e+000 5.458348e-001
<GCONST> 9.048213e+001
<STATE> 3
<MEAN> 25
 -5.771752e-001 5.778527e+000 8.334239e-001 7.704855e+000 -1.929499e+000 7.617410e+000 -4.810078e+000 -2.077526e+000 -4.845525e-001 -1.938592e+000 -3.701187e+000 -3.322722e+000 -1.973426e+000 3.849417e-002 2.633012e-001 -3.362685e-001 -3.402168e-001 7.555761e-001 5.561200e-001 5.063865e-001 7.038884e-001 1.078174e+000 1.094160e+000 1.368889e-001 -2.710052e-001
<VARIANCE> 25
 2.388075e+001 8.715627e+000 9.842294e+001 2.046589e+001 3.836878e+001 2.711383e+001 4.104185e+001 1.915440e+001 1.154628e+001 3.110724e+001 1.243960e+001 1.608974e+001 2.762278e+000 1.201162e+000 2.792631e+000 2.996604e+000 3.280635e+000 3.367756e+000 1.961028e+000 1.594063e+000 1.809782e+000 2.200936e+000 1.245215e+000 2.556372e+000 2.956443e+000
<GCONST> 9.418025e+001
<STATE> 4
<MEAN> 25
 -4.954755e+000 6.147042e+000 7.109245e+000 -1.999236e+000 -4.632019e+000 -4.794487e+000 -5.221362e+000 2.102949e-001 -6.476514e-001 5.877923e+000 4.378301e+000 -2.553646e+000 2.724832e-001 -5.091277e-001 2.279492e-001 -7.478995e-001 -6.760791e-001 -1.398270e+000 -7.627456e-003 -2.518544e-001 -5.170495e-001 3.304295e-001 9.148991e-002 4.001513e-001 9.473236e-001
<VARIANCE> 25
 5.056659e+001 6.803188e+001 3.177408e+001 5.437577e+001 8.053128e+001 1.339915e+002 5.894679e+001 3.381317e+001 5.857350e+001 3.505862e+001 2.900696e+001 3.020517e+001 5.486852e+000 6.645119e+000 4.012507e+000 5.984074e+000 9.180449e+000 1.032231e+001 4.197584e+000 5.483599e+000 6.015620e+000 4.275406e+000 3.496235e+000 3.561611e+000 7.344338e+000
<GCONST> 1.150570e+002
<TRANSP> 5
 0.000000e+000 1.000000e+000 0.000000e+000 0.000000e+000 0.000000e+000
 0.000000e+000 8.052222e-001 1.947779e-001 0.000000e+000 0.000000e+000
 0.000000e+000 0.000000e+000 7.723264e-001 2.276737e-001 0.000000e+000
 0.000000e+000 0.000000e+000 0.000000e+000 9.097545e-001 9.024549e-002
 0.000000e+000 0.000000e+000 0.000000e+000 0.000000e+000 0.000000e+000
<ENDHMM>
~h "k"
<BEGINHMM>
<NUMSTATES> 5
<STATE> 2
<MEAN> 25
 6.506407e+000 1.723134e+000 -3.454711e+000 -6.703004e+000 -1.714445e+000 -7.694071e-001 -5.190027e+000 -4.218712e+000 -3.712192e+000 -1.219877e+000 -2.359624e+000 -2.215144e+000 -6.881257e-001 7.377040e-002 -2.486646e-001 6.704020e-001 9.542380e-002 2.969607e-001 4.938881e-001 4.619023e-001 2.634484e-001 2.632770e-001 3.065583e-001 1.383308e-001 -7.972506e-001
<VARIANCE> 25
 1.419348e+001 4.186841e+001 8.772810e+001 9.320895e+001 6.142229e+001 4.465388e+001 5.184509e+001 4.402888e+001 4.375227e+001 4.516938e+001 3.063704e+001 2.399280e+001 2.371634e+000 3.741296e+000 3.569677e+000 6.109481e+000 3.386106e+000 4.363239e+000 3.770865e+000 4.131546e+000 4.646190e+000 4.474089e+000 3.927737e+000 1.990791e+000 2.856003e+000
<GCONST> 1.080266e+002
<STATE> 3
<MEAN> 25
 6.891032e-001 -7.390724e-001 -3.599466e+000 -2.849924e+000 1.593334e-001 -2.496507e-001 4.892760e-001 1.075930e-002 -2.157701e-001 1.290591e+000 -2.282295e+000 2.030934e-001 -9.837739e-001 -4.548245e-001 7.914370e-002 8.907516e-001 3.762590e-001 2.045073e-001 9.058945e-001 2.574903e-001 6.854630e-001 1.026494e+000 6.724503e-001 1.939426e-001 -1.038672e-001
<VARIANCE> 25
 1.545016e+001 2.716123e+001 4.528475e+001 7.138306e+001 4.297023e+001 4.242067e+001 4.938877e+001 2.859025e+001 3.471480e+001 2.955096e+001 4.460080e+001 4.497675e+001 2.527841e+000 2.337027e+000 2.199389e+000 6.293324e+000 1.695156e+000 4.919637e+000 4.735800e+000 3.406063e+000 5.808503e+000 3.383076e+000 3.361290e+000 4.449458e+000 6.735150e+000
<GCONST> 1.062617e+002
<STATE> 4
<MEAN> 25
 -8.252115e-001 3.786293e-001 -1.375913e+000 2.929134e+000 1.307135e+000 3.222667e+000 7.195566e-001 9.130995e-001 1.912431e+000 2.044977e+000 1.914186e+000 6.153274e-001 -9.749809e-002 1.859343e-003 1.533964e-001 2.822059e-001 -1.878709e-002 -1.032076e-002 5.091049e-002 8.914103e-002 7.252158e-002 -2.555267e-002 9.592180e-002 6.811085e-003 -5.724953e-002
<VARIANCE> 25
 1.169825e+001 7.129105e+000 1.618291e+001 2.342803e+001 1.998970e+001 1.373341e+001 2.012040e+001 1.597402e+001 1.808715e+001 2.482210e+001 1.870337e+001 1.440551e+001 2.596172e-001 4.541368e-001 1.049059e+000 1.070728e+000 1.277535e+000 1.288246e+000 1.527243e+000 1.566850e+000 1.774336e+000 1.994944e+000 1.415855e+000 1.122486e+000 2.869458e-001
<GCONST> 7.922737e+001
<TRANSP> 5
 0.000000e+000 1.000000e+000 0.000000e+000 0.000000e+000 0.000000e+000
 0.000000e+000 7.114790e-001 2.885210e-001 0.000000e+000 0.000000e+000
 0.000000e+000 0.000000e+000 5.431742e-001 4.568258e-001 0.000000e+000
 0.000000e+000 0.000000e+000 0.000000e+000 9.418278e-001 5.817226e-002
 0.000000e+000 0.000000e+000 0.000000e+000 0.000000e+000 0.000000e+000
<ENDHMM>
~h "l"
<BEGINHMM>
<NUMSTATES> 5
<STATE> 2
<MEAN> 25
 5.244197e+000 -2.942418e+000 -2.725514e+000 -6.402337e+000 -4.503779e+000 -6.179393e+000 -1.768205e+000 -2.001415e+000 3.749538e+000 1.327118e+000 8.169138e-001 -1.155491e+000 3.008473e-002 -2.530388e-002 -4.089772e-001 1.339408e-001 1.665086e-001 -1.424503e-001 1.035907e-001 3.766389e-001 4.296377e-001 -3.441792e-001 -2.814046e-001 1.088366e-001 -1.408023e-001
<VARIANCE> 25
 1.545252e+001 2.116259e+001 3.762324e+001 4.593789e+001 6.609551e+001 6.110199e+001 4.281310e+001 6.955815e+001 5.592487e+001 6.636693e+001 5.081041e+001 1.734579e+001 5.178545e-001 1.431883e+000 1.997381e+000 2.813991e+000 4.262905e+000 4.475647e+000 3.513032e+000 3.263272e+000 3.204678e+000 4.477438e+000 3.120396e+000 1.585667e+000 9.031122e-001
<GCONST> 1.014711e+002
<STATE> 3
<MEAN> 25
 4.978694e+000 -1.684206e+000 -4.245029e+000 -5.765048e+000 -1.280891e+000 -3.296879e+000 -3.244115e-002 1.767688e+000 3.416798e+000 -4.240677e+000 -1.884657e+000 -1.463892e-001 -4.855925e-001 2.124028e-001 3.032492e-001 4.866451e-001 4.081132e-001 3.510694e-001 1.811702e-001 8.235832e-002 -2.541210e-001 -5.868519e-002 2.931294e-001 1.395920e-001 -4.760776e-001
<VARIANCE> 25
 1.770488e+001 3.956200e+001 2.832635e+001 5.493695e+001 4.686133e+001 5.072047e+001 9.046478e+001 8.574255e+001 3.539626e+001 3.582119e+001 3.279202e+001 1.644845e+001 6.346480e-001 1.049460e+000 1.387004e+000 3.220092e+000 3.193705e+000 2.128822e+000 2.133314e+000 2.212121e+000 2.181434e+000 2.335619e+000 1.767520e+000 1.756795e+000 1.146380e+000
<GCONST> 9.747047e+001
<STATE> 4
<MEAN> 25
 9.279346e-001 3.534207e-001 -5.504022e-001 2.737253e+000 5.992032e-001 1.337592e+000 -9.897388e-001 1.012043e+000 1.487323e+000 -1.118004e+000 1.975752e+000 -2.179177e-001 -9.522644e-002 -1.533785e-002 1.294425e-001 1.760026e-001 -1.687370e-003 1.163386e-001 7.151520e-002 1.893762e-001 -3.102539e-002 7.405053e-002 4.433174e-002 6.001772e-002 -7.579545e-002
<VARIANCE> 25
 1.019393e+001 1.212888e+001 1.491225e+001 4.205136e+001 1.264101e+001 2.345778e+001 2.107753e+001 2.619931e+001 2.029718e+001 2.151865e+001 2.145357e+001 1.555209e+001 1.668539e-001 3.333813e-001 6.678089e-001 9.872987e-001 9.030507e-001 1.163810e+000 1.219476e+000 1.880711e+000 1.559317e+000 1.332633e+000 1.178589e+000 1.255764e+000 1.496365e-001
<GCONST> 7.789903e+001
<TRANSP> 5
 0.000000e+000 1.000000e+000 0.000000e+000 0.000000e+000 0.000000e+000
 0.000000e+000 6.716768e-001 3.283232e-001 0.000000e+000 0.000000e+000
 0.000000e+000 0.000000e+000 6.033769e-001 3.966231e-001 0.000000e+000
 0.000000e+000 0.000000e+000 0.000000e+000 8.700481e-001 1.299520e-001
 0.000000e+000 0.000000e+000 0.000000e+000 0.000000e+000 0.000000e+000
<ENDHMM>
~h "m"
<BEGINHMM>
<NUMSTATES> 5
<STATE> 2
<MEAN> 25
 4.805850e+000 8.074799e-001 4.940594e-001 -9.398025e-001 9.095503e-001 -1.023504e+000 -3.986318e+000 -3.061891e+000 -2.747386e+000 -3.104814e+000 -4.442105e+000 -1.845108e+000 -1.378530e-001 6.076179e-001 4.826411e-001 8.100216e-001 5.582986e-003 -1.018712e-001 -1.574708e-001 -2.488027e-001 -1.234755e-001 7.379638e-002 -9.387625e-002 -9.378178e-002 -4.955348e-001
<VARIANCE> 25
 3.812964e+001 4.954720e+001 4.719029e+001 9.418889e+001 7.051454e+001 5.484903e+001 3.771828e+001 3.438008e+001 3.483427e+001 3.780751e+001 3.418626e+001 2.636715e+001 1.268278e+000 2.485406e+000 2.410784e+000 4.029963e+000 2.385766e+000 3.333439e+000 2.561627e+000 2.839198e+000 2.552225e+000 2.599708e+000 2.676684e+000 2.050274e+000 1.272450e+000
<GCONST> 1.026208e+002
<STATE> 3
<MEAN> 25
 4.515443e+000 3.714506e+000 1.591701e+000 4.259525e+000 2.585380e+000 -8.685346e-001 -3.027650e+000 -4.148931e+000 -3.240772e+000 -3.876808e+000 -4.275873e+000 -3.112845e+000 -3.429562e-001 9.799840e-002 1.449271e-001 3.657400e-001 -1.907308e-001 1.934558e-001 2.482672e-001 4.713586e-001 3.623770e-001 2.638345e-001 3.404891e-001 1.112346e-001 -4.302601e-001
<VARIANCE> 25
 1.577630e+001 1.335234e+001 1.397539e+001 2.152646e+001 2.962645e+001 2.907509e+001 3.557356e+001 3.702307e+001 3.049024e+001 1.874626e+001 2.600713e+001 2.319424e+001 3.099093e-001 5.111739e-001 6.515393e-001 9.014054e-001 1.261076e+000 1.331870e+000 1.538024e+000 1.644252e+000 1.803096e+000 1.414664e+000 1.466909e+000 1.344536e+000 1.662446e-001
<GCONST> 8.258898e+001
<STATE> 4
<MEAN> 25
 -1.760756e+000 1.355743e+000 1.016343e+000 4.266813e+000 1.347934e+000 2.356670e+000 1.604800e+000 2.285259e+000 2.381986e+000 1.275150e+000 2.354979e+000 9.322084e-002 -3.508445e-002 8.776954e-003 3.059392e-002 -2.937073e-003 -3.993706e-002 -2.540211e-003 3.406741e-002 2.227748e-002 2.241017e-002 5.058134e-002 5.050424e-002 1.377434e-002 4.052772e-004
<VARIANCE> 25
 1.409005e+001 5.365309e+000 9.118029e+000 1.085336e+001 1.448032e+001 1.308617e+001 1.910405e+001 1.545425e+001 1.757105e+001 1.841270e+001 1.500893e+001 1.217808e+001 1.569526e-001 2.865184e-001 4.793463e-001 7.140974e-001 9.599418e-001 1.132988e+000 1.233594e+000 1.356852e+000 1.484135e+000 1.574732e+000 1.251593e+000 1.140428e+000 5.879055e-002
<GCONST> 7.158299e+001
<TRANSP> 5
 0.000000e+000 1.000000e+000 0.000000e+000 0.000000e+000 0.000000e+000
 0.000000e+000 7.454922e-001 2.545078e-001 0.000000e+000 0.000000e+000
 0.000000e+000 0.000000e+000 7.965106e-001 2.034894e-001 0.000000e+000
 0.000000e+000 0.000000e+000 0.000000e+000 9.477142e-001 5.228576e-002
 0.000000e+000 0.000000e+000 0.000000e+000 0.000000e+000 0.000000e+000
<ENDHMM>
~h "n"
<BEGINHMM>
<NUMSTATES> 5
<STATE> 2
<MEAN> 25
 5.611001e+000 1.155081e+000 1.838624e-001 1.314782e+000 -8.914768e-001 -7.304208e+000 -5.439751e+000 -3.986354e+000 -5.776754e+000 -6.826847e+000 -8.833689e-001 2.213314e+000 -3.426256e-001 9.772983e-001 2.175492e-001 8.915877e-001 1.305842e-001 4.046237e-001 -1.636355e-001 -4.322891e-001 1.628204e-001 6.948901e-001 1.632903e-001 1.539219e-001 -9.823633e-001
<VARIANCE> 25
 1.328873e+001 2.490293e+001 1.621960e+001 3.661781e+001 5.835152e+001 5.317263e+001 2.440966e+001 2.557025e+001 3.710688e+001 3.533649e+001 4.298130e+001 3.204540e+001 5.791928e-001 1.563500e+000 1.379873e+000 2.292528e+000 1.378431e+000 2.803642e+000 1.991879e+000 2.747102e+000 2.355196e+000 2.217831e+000 2.892361e+000 1.571397e+000 7.252540e-001
<GCONST> 9.396856e+001
<STATE> 3
<MEAN> 25
 2.901117e+000 3.155032e+000 1.679193e+000 4.281445e+000 1.509856e+000 -1.812905e+000 -2.757803e+000 -2.551705e+000 -2.374697e+000 -3.786726e+000 -2.281054e+000 3.676633e-001 -3.119521e-001 9.512883e-002 -1.407739e-002 3.475192e-001 1.042899e-002 6.875741e-001 3.566179e-001 4.248362e-001 3.334414e-001 3.137845e-001 3.776209e-001 -1.039793e-001 -4.334805e-001
<VARIANCE> 25
 1.294040e+001 1.393063e+001 1.311657e+001 1.908050e+001 2.827315e+001 2.066159e+001 1.730918e+001 2.177437e+001 2.368396e+001 2.031251e+001 2.318846e+001 1.980835e+001 2.958660e-001 5.279134e-001 7.113918e-001 9.893886e-001 1.269586e+000 1.439622e+000 1.548469e+000 1.465561e+000 1.806159e+000 1.712577e+000 1.766069e+000 1.308803e+000 1.920260e-001
<GCONST> 8.080352e+001
<STATE> 4
<MEAN> 25
 -3.037950e+000 1.734743e+000 9.749187e-001 4.072659e+000 2.642266e+000 2.732215e+000 2.582538e+000 2.551323e+000 2.755655e+000 2.021595e+000 2.902078e+000 2.778100e-001 -4.879655e-002 -1.993678e-004 7.507460e-003 2.356539e-002 1.847317e-002 4.499066e-002 5.100803e-002 6.214258e-002 6.639381e-002 7.239305e-002 4.218101e-002 -2.532852e-002 -1.120123e-002
<VARIANCE> 25
 1.518597e+001 7.145169e+000 7.107768e+000 9.785010e+000 1.401705e+001 1.326162e+001 1.997510e+001 1.796617e+001 1.849298e+001 1.947293e+001 1.422654e+001 1.347669e+001 1.412880e-001 3.194171e-001 4.552806e-001 6.493583e-001 8.858189e-001 1.140515e+000 1.230467e+000 1.358456e+000 1.445047e+000 1.439060e+000 1.345951e+000 1.213396e+000 6.244625e-002
<GCONST> 7.178275e+001
<TRANSP> 5
 0.000000e+000 1.000000e+000 0.000000e+000 0.000000e+000 0.000000e+000
 0.000000e+000 7.068939e-001 2.931061e-001 0.000000e+000 0.000000e+000
 0.000000e+000 0.000000e+000 8.007486e-001 1.992513e-001 0.000000e+000
 0.000000e+000 0.000000e+000 0.000000e+000 9.467442e-001 5.325584e-002
 0.000000e+000 0.000000e+000 0.000000e+000 0.000000e+000 0.000000e+000
<ENDHMM>
~h "o"
<BEGINHMM>
<NUMSTATES> 5
<STATE> 2
<MEAN> 25
 1.292055e-008 1.831648e-008 -6.299361e-008 6.397928e-009 6.513714e-008 4.146926e-008 -2.503356e-008 -3.737221e-008 4.785829e-009 -8.260601e-008 4.838081e-008 -2.966501e-008 7.700191e-003 5.403126e-003 9.986212e-003 -4.435305e-003 5.198286e-003 1.178548e-003 5.735684e-003 -2.200497e-003 -9.225003e-004 -6.409926e-004 -2.520854e-003 -2.406914e-003 2.725629e-002
<VARIANCE> 25
 4.587285e+001 1.030148e+002 6.019880e+001 7.829473e+001 5.465159e+001 4.961901e+001 6.176896e+001 4.825900e+001 4.880714e+001 4.872197e+001 3.755544e+001 3.288158e+001 1.069084e+000 2.243620e+000 1.931021e+000 2.910384e+000 2.554792e+000 2.477852e+000 2.995093e+000 2.747025e+000 2.618064e+000 2.724945e+000 2.375594e+000 2.010036e+000 1.498881e+000
<GCONST> 1.041510e+002
<STATE> 3
<MEAN> 25
 1.292055e-008 1.831648e-008 -6.299361e-008 6.397928e-009 6.513714e-008 4.146926e-008 -2.503356e-008 -3.737221e-008 4.785829e-009 -8.260601e-008 4.838081e-008 -2.966501e-008 7.700191e-003 5.403126e-003 9.986212e-003 -4.435305e-003 5.198286e-003 1.178548e-003 5.735684e-003 -2.200497e-003 -9.225003e-004 -6.409926e-004 -2.520854e-003 -2.406914e-003 2.725629e-002
<VARIANCE> 25
 4.587285e+001 1.030148e+002 6.019880e+001 7.829473e+001 5.465159e+001 4.961901e+001 6.176896e+001 4.825900e+001 4.880714e+001 4.872197e+001 3.755544e+001 3.288158e+001 1.069084e+000 2.243620e+000 1.931021e+000 2.910384e+000 2.554792e+000 2.477852e+000 2.995093e+000 2.747025e+000 2.618064e+000 2.724945e+000 2.375594e+000 2.010036e+000 1.498881e+000
<GCONST> 1.041510e+002
<STATE> 4
<MEAN> 25
 1.292055e-008 1.831648e-008 -6.299361e-008 6.397928e-009 6.513714e-008 4.146926e-008 -2.503356e-008 -3.737221e-008 4.785829e-009 -8.260601e-008 4.838081e-008 -2.966501e-008 7.700191e-003 5.403126e-003 9.986212e-003 -4.435305e-003 5.198286e-003 1.178548e-003 5.735684e-003 -2.200497e-003 -9.225003e-004 -6.409926e-004 -2.520854e-003 -2.406914e-003 2.725629e-002
<VARIANCE> 25
 4.587285e+001 1.030148e+002 6.019880e+001 7.829473e+001 5.465159e+001 4.961901e+001 6.176896e+001 4.825900e+001 4.880714e+001 4.872197e+001 3.755544e+001 3.288158e+001 1.069084e+000 2.243620e+000 1.931021e+000 2.910384e+000 2.554792e+000 2.477852e+000 2.995093e+000 2.747025e+000 2.618064e+000 2.724945e+000 2.375594e+000 2.010036e+000 1.498881e+000
<GCONST> 1.041510e+002
<TRANSP> 5
 0.000000e+000 1.000000e+000 0.000000e+000 0.000000e+000 0.000000e+000
 0.000000e+000 6.000000e-001 4.000000e-001 0.000000e+000 0.000000e+000
 0.000000e+000 0.000000e+000 6.000000e-001 4.000000e-001 0.000000e+000
 0.000000e+000 0.000000e+000 0.000000e+000 7.000000e-001 3.000000e-001
 0.000000e+000 0.000000e+000 0.000000e+000 0.000000e+000 0.000000e+000
<ENDHMM>
~h "p"
<BEGINHMM>
<NUMSTATES> 5
<STATE> 2
<MEAN> 25
 -1.994883e+000 1.130825e+000 -2.957445e+000 2.050443e+000 -2.447534e+000 1.997379e+000 -1.242006e+000 1.165311e+000 1.492606e+000 1.745435e+000 1.975667e+000 8.627098e-001 1.493615e+000 -1.096874e+000 4.296780e-001 -1.099335e+000 6.029704e-001 -7.436004e-001 1.142787e+000 -2.317692e-001 -5.694059e-001 -2.121871e-001 -9.705576e-002 -2.721840e-001 3.238365e+000
<VARIANCE> 25
 8.027463e+001 4.149658e+001 3.050876e+001 5.705620e+001 3.293124e+001 3.782775e+001 4.035466e+001 3.932647e+001 4.779544e+001 3.088864e+001 3.835607e+001 2.190300e+001 9.376933e+000 3.761497e+000 3.070505e+000 5.942274e+000 3.984997e+000 4.336447e+000 3.288519e+000 3.652958e+000 4.576405e+000 3.813128e+000 2.938853e+000 2.635281e+000 1.487980e+001
<GCONST> 1.094569e+002
<STATE> 3
<MEAN> 25
 1.256273e+000 -1.987046e+000 -2.915090e+000 -6.818999e-001 6.825516e-001 6.579013e-001 5.760803e-001 -6.765441e-001 -1.031222e+000 -1.184765e+000 5.724445e-001 7.264901e-001 -2.294903e-001 1.486377e-001 1.670718e-001 4.993681e-001 1.226672e-001 2.063975e-001 1.604716e-001 2.006765e-001 9.123814e-002 -8.211327e-002 3.173258e-001 5.897168e-002 -2.512800e-001
<VARIANCE> 25
 1.051534e+001 3.629755e+001 1.604588e+001 4.159850e+001 3.201928e+001 2.289000e+001 3.443658e+001 3.173041e+001 2.905382e+001 2.344578e+001 2.157382e+001 2.397072e+001 5.039477e-001 1.081615e+000 1.075112e+000 2.222937e+000 2.166771e+000 1.726781e+000 1.985846e+000 2.271810e+000 1.905618e+000 1.984382e+000 1.914637e+000 1.469433e+000 8.760823e-001
<GCONST> 9.008338e+001
<STATE> 4
<MEAN> 25
 -3.647821e+000 1.276369e+000 8.821716e-001 3.082082e+000 2.104273e+000 2.838050e+000 3.414827e+000 2.627362e+000 3.508451e+000 2.743151e+000 3.621298e+000 2.193255e-001 -5.085008e-002 -1.924338e-004 5.315000e-003 1.757668e-002 -2.176528e-003 4.661756e-003 3.359644e-002 5.945338e-002 7.673673e-002 8.486550e-002 4.433238e-002 -3.540338e-002 2.678764e-002
<VARIANCE> 25
 1.251958e+001 6.521999e+000 7.888671e+000 9.540511e+000 1.127127e+001 1.219520e+001 1.706286e+001 1.576426e+001 1.599523e+001 1.970090e+001 1.370404e+001 1.302874e+001 1.833150e-001 3.264305e-001 5.340034e-001 7.413375e-001 9.459014e-001 1.059875e+000 1.257144e+000 1.341991e+000 1.411667e+000 1.540821e+000 1.310152e+000 1.195149e+000 1.244119e-001
<GCONST> 7.205026e+001
<TRANSP> 5
 0.000000e+000 1.000000e+000 0.000000e+000 0.000000e+000 0.000000e+000
 0.000000e+000 6.007547e-001 3.992453e-001 0.000000e+000 0.000000e+000
 0.000000e+000 0.000000e+000 7.212803e-001 2.787196e-001 0.000000e+000
 0.000000e+000 0.000000e+000 0.000000e+000 9.494765e-001 5.052349e-002
 0.000000e+000 0.000000e+000 0.000000e+000 0.000000e+000 0.000000e+000
<ENDHMM>
~h "r"
<BEGINHMM>
<NUMSTATES> 5
<STATE> 2
<MEAN> 25
 7.852834e+000 -9.444776e+000 -2.317787e+000 -7.787246e-001 -8.226209e+000 -2.679733e+000 1.560575e+000 2.332171e+000 1.532628e+000 -2.628103e+000 -4.031415e+000 -2.864020e-001 -1.734275e-001 -7.888172e-001 1.009737e+000 3.997007e-001 -1.146969e+000 2.122439e-001 6.491917e-001 6.985849e-001 -6.620120e-001 -1.644102e-001 1.719122e-001 6.574890e-001 1.200463e-001
<VARIANCE> 25
 1.386666e+001 3.613385e+001 2.522996e+001 4.746838e+001 7.140837e+001 3.028188e+001 5.369051e+001 3.841559e+001 3.909375e+001 3.709372e+001 3.190489e+001 2.928594e+001 9.607564e-001 3.122778e+000 2.610068e+000 6.657565e+000 5.055595e+000 2.701998e+000 4.728998e+000 4.649611e+000 4.059588e+000 3.301979e+000 3.374685e+000 2.455113e+000 1.726638e+000
<GCONST> 1.035967e+002
<STATE> 3
<MEAN> 25
 4.356092e+000 -1.031407e+001 6.007379e+000 -7.817329e+000 -1.243248e+001 -3.829162e+000 7.254287e+000 3.769581e+000 -7.571159e+000 2.463222e+000 -2.975058e+000 -2.663345e+000 -7.385345e-001 8.117558e-001 7.912176e-001 -8.092488e-001 5.977601e-001 -1.381786e-001 1.090538e+000 -8.509502e-001 -1.092294e+000 1.111706e+000 1.729501e-001 -6.070901e-001 -1.194872e-001
<VARIANCE> 25
 1.557956e+001 2.706740e+001 3.422115e+001 3.484943e+001 5.543791e+001 2.268831e+001 6.234272e+001 4.177490e+001 4.650072e+001 5.620353e+001 2.759137e+001 1.639685e+001 6.207601e-001 1.216087e+000 1.180713e+000 1.990693e+000 2.071756e+000 1.446709e+000 3.214986e+000 2.524860e+000 3.964427e+000 3.226888e+000 2.234497e+000 1.595891e+000 4.262617e-001
<GCONST> 9.479295e+001
<STATE> 4
<MEAN> 25
 2.379931e+000 -4.976575e+000 5.008470e+000 -3.425055e+000 -6.977577e+000 -2.286952e+000 7.596053e+000 4.710819e-001 -5.655488e+000 3.185899e+000 -2.190690e+000 -3.156237e+000 -7.080236e-002 1.252965e+000 -3.346418e-001 1.066198e+000 7.501823e-001 1.749194e-001 -7.604797e-001 -1.146507e+000 7.040011e-001 1.863392e-001 -1.028387e-001 2.571369e-001 -1.064065e+000
<VARIANCE> 25
 1.005164e+001 2.290845e+001 5.295104e+001 7.396435e+001 4.597723e+001 1.950608e+001 6.945799e+001 4.359532e+001 4.978576e+001 7.365469e+001 4.143535e+001 1.801260e+001 6.250088e-001 1.197906e+000 1.452469e+000 1.932509e+000 1.461012e+000 2.078865e+000 2.647689e+000 2.090075e+000 3.040739e+000 2.708307e+000 2.833053e+000 1.919490e+000 5.500473e-001
<GCONST> 9.606458e+001
<TRANSP> 5
 0.000000e+000 1.000000e+000 0.000000e+000 0.000000e+000 0.000000e+000
 0.000000e+000 8.031288e-001 1.968713e-001 0.000000e+000 0.000000e+000
 0.000000e+000 0.000000e+000 7.470319e-001 2.529682e-001 0.000000e+000
 0.000000e+000 0.000000e+000 0.000000e+000 6.230860e-001 3.769141e-001
 0.000000e+000 0.000000e+000 0.000000e+000 0.000000e+000 0.000000e+000
<ENDHMM>
~h "s"
<BEGINHMM>
<NUMSTATES> 5
<STATE> 2
<MEAN> 25
 -9.636159e+000 6.182112e+000 -4.576106e+000 6.406314e+000 -1.078099e+000 -7.373925e-001 4.840977e+000 1.802629e+000 -1.373339e+000 1.958176e+000 2.669846e+000 -6.499107e-001 -7.480242e-001 2.737592e-001 -2.290593e-001 1.844272e-001 -7.033856e-002 1.663553e-001 2.844949e-001 1.545316e-001 -5.154773e-002 3.165698e-001 3.378499e-001 7.164416e-002 1.682663e-001
<VARIANCE> 25
 2.920162e+001 4.330980e+001 2.149615e+001 3.992170e+001 2.646391e+001 2.354506e+001 2.346419e+001 2.699631e+001 3.544628e+001 3.005064e+001 2.115179e+001 2.008582e+001 1.832366e+000 1.979239e+000 1.540936e+000 1.522086e+000 1.375954e+000 1.934170e+000 1.965200e+000 2.002696e+000 2.161594e+000 2.126433e+000 1.833688e+000 1.687384e+000 4.097587e-001
<GCONST> 9.200516e+001
<STATE> 3
<MEAN> 25
 -1.175159e+001 -1.910235e+000 5.495042e+000 -4.711080e+000 -2.443390e+000 2.775210e+000 4.970097e+000 -4.102556e+000 -8.806809e-003 3.117799e+000 5.235678e+000 5.710610e-002 4.229631e-001 -5.111100e-001 7.786160e-001 -9.489575e-001 -2.792141e-001 -5.709769e-001 -7.283249e-001 -4.244558e-001 2.752200e-001 -1.066018e-001 -4.150312e-001 9.969727e-003 3.365586e-001
<VARIANCE> 25
 3.804797e+001 9.164214e+001 1.227154e+002 1.469457e+002 2.906324e+001 7.187724e+001 5.678895e+001 7.957135e+001 7.173247e+001 2.929448e+001 2.206815e+001 3.215555e+001 6.477989e+000 2.127067e+000 4.404682e+000 4.150884e+000 2.212221e+000 2.993441e+000 2.647138e+000 3.487703e+000 2.535537e+000 2.337575e+000 2.751700e+000 1.847275e+000 1.262520e+000
<GCONST> 1.074599e+002
<STATE> 4
<MEAN> 25
 -4.041458e+000 3.183837e+000 -4.810074e-001 1.492950e+000 -3.995183e+000 -4.687903e+000 2.656102e+000 3.616636e-001 -1.174014e+000 2.372968e+000 1.683214e+000 -8.534930e-001 3.055602e+000 -6.668649e-001 3.145552e-001 -2.222017e+000 -7.969981e-001 -1.407155e+000 -1.874929e+000 -1.883785e-001 -4.095255e-001 -1.351998e+000 -2.522705e+000 1.618357e-001 9.603299e-001
<VARIANCE> 25
 4.866000e+001 3.865702e+001 4.297121e+001 5.002410e+001 6.658054e+001 4.233828e+001 5.742455e+001 5.473402e+001 3.939714e+001 4.379590e+001 3.792514e+001 3.087483e+001 4.225780e+000 3.664463e+000 3.898048e+000 7.897220e+000 4.671455e+000 4.086596e+000 6.348134e+000 6.077250e+000 4.534589e+000 6.183981e+000 4.559496e+000 3.636404e+000 2.480849e+000
<GCONST> 1.114947e+002
<TRANSP> 5
 0.000000e+000 1.000000e+000 0.000000e+000 0.000000e+000 0.000000e+000
 0.000000e+000 8.891292e-001 1.108707e-001 0.000000e+000 0.000000e+000
 0.000000e+000 0.000000e+000 6.469482e-001 3.530518e-001 0.000000e+000
 0.000000e+000 0.000000e+000 0.000000e+000 5.808706e-001 4.191294e-001
 0.000000e+000 0.000000e+000 0.000000e+000 0.000000e+000 0.000000e+000
<ENDHMM>
~h "t"
<BEGINHMM>
<NUMSTATES> 5
<STATE> 2
<MEAN> 25
 3.501951e+000 5.176974e+000 -1.003891e+000 5.812283e+000 -1.402463e+000 2.208718e+000 -3.910202e+000 -1.450643e+000 -3.892785e+000 -2.636111e+000 -1.668362e+000 -1.758964e+000 -1.265121e+000 -7.266825e-001 3.306073e-001 -1.048990e+000 4.616334e-002 -3.824568e-001 7.724059e-001 4.481304e-001 -4.076250e-001 6.666960e-001 5.693774e-001 -4.316663e-001 8.893775e-001
<VARIANCE> 25
 3.649913e+001 3.883190e+001 5.689221e+001 3.366632e+001 3.161168e+001 6.831760e+001 4.868130e+001 4.345681e+001 3.965254e+001 3.678217e+001 4.904476e+001 5.096310e+001 2.735517e+000 5.562336e+000 3.467699e+000 4.053671e+000 4.163917e+000 6.435550e+000 5.213933e+000 4.878431e+000 3.423660e+000 4.854582e+000 3.417454e+000 3.252360e+000 7.394043e+000
<GCONST> 1.103144e+002
<STATE> 3
<MEAN> 25
 -1.682919e+000 -1.052487e+000 1.335379e+000 -6.787883e-001 -1.799146e+000 -1.921921e+000 1.375686e+000 9.003643e-001 -2.394195e+000 2.323070e+000 2.830564e+000 -1.490453e+000 -1.540411e-001 -1.463930e+000 -1.931274e-002 -3.622167e+000 -6.174058e-001 -1.724609e+000 1.687305e-001 -6.073068e-001 5.131109e-001 7.554027e-001 -2.408453e-001 -4.353677e-001 3.442148e+000
<VARIANCE> 25
 2.507876e+001 1.908870e+001 3.250061e+001 3.640487e+001 4.191749e+001 3.636858e+001 3.273427e+001 5.452495e+001 3.722746e+001 3.637794e+001 3.203082e+001 3.121025e+001 2.955291e+000 3.814840e+000 8.928216e+000 5.326018e+000 5.059975e+000 6.704407e+000 4.368322e+000 5.248885e+000 5.895473e+000 6.667696e+000 4.375910e+000 3.388321e+000 6.374948e+000
<GCONST> 1.092901e+002
<STATE> 4
<MEAN> 25
 -3.518385e-001 -4.897189e+000 3.030540e+000 -5.648166e+000 -3.796669e+000 -1.710980e+000 2.299919e+000 -4.432917e-001 -1.568533e+000 1.338613e-001 4.213917e-001 -4.031289e-001 3.778096e-001 -3.075685e-001 -5.010533e-001 -1.277334e+000 -5.862207e-002 -4.804222e-001 -6.082808e-002 -2.223957e-001 5.677788e-001 1.840878e-001 -3.377989e-001 1.233562e-001 8.137702e-001
<VARIANCE> 25
 2.203303e+001 5.171049e+001 9.892399e+001 4.511133e+001 1.028773e+002 4.872456e+001 7.161295e+001 4.763117e+001 5.733383e+001 5.541711e+001 4.978440e+001 5.350742e+001 1.478716e+000 2.403041e+000 4.818259e+000 6.945776e+000 4.057276e+000 4.457046e+000 4.413918e+000 3.728014e+000 4.217189e+000 4.557768e+000 4.188263e+000 2.663639e+000 3.481831e+000
<GCONST> 1.110840e+002
<TRANSP> 5
 0.000000e+000 1.000000e+000 0.000000e+000 0.000000e+000 0.000000e+000
 0.000000e+000 6.174059e-001 3.825941e-001 0.000000e+000 0.000000e+000
 0.000000e+000 0.000000e+000 2.466889e-001 7.533111e-001 0.000000e+000
 0.000000e+000 0.000000e+000 0.000000e+000 6.094864e-001 3.905136e-001
 0.000000e+000 0.000000e+000 0.000000e+000 0.000000e+000 0.000000e+000
<ENDHMM>
~h "w"
<BEGINHMM>
<NUMSTATES> 5
<STATE> 2
<MEAN> 25
 6.578662e+000 6.620520e+000 6.381955e+000 -6.513301e+000 -2.157565e+000 -4.199953e+000 -6.137129e+000 -3.795877e+000 -9.545714e+000 3.935680e-001 -5.248828e+000 -1.110564e-001 1.308250e-001 2.708657e-001 -3.575534e-001 5.380649e-002 7.126828e-002 -2.945220e-001 1.168189e-001 4.171642e-001 6.763806e-002 4.013851e-002 3.119300e-001 1.741292e-001 -1.789739e-001
<VARIANCE> 25
 1.554298e+001 1.011035e+001 6.545222e+001 9.457442e+001 2.737556e+001 2.444265e+001 2.871750e+001 3.718285e+001 3.123075e+001 5.319131e+001 3.138628e+001 3.789549e+001 1.384963e-001 2.838352e-001 7.742881e-001 9.998139e-001 8.446875e-001 1.220591e+000 1.603456e+000 1.232993e+000 1.244993e+000 1.927570e+000 1.201840e+000 1.231792e+000 1.699135e-001
<GCONST> 8.442577e+001
<STATE> 3
<MEAN> 25
 7.169270e+000 3.129650e+000 -7.790067e-001 -1.360923e+001 2.640481e+000 -4.999177e+000 -1.077404e+000 -4.125576e-001 -2.130851e+000 1.135042e+000 1.069786e+000 -2.185719e+000 -4.392532e-001 -1.739620e+000 -2.495746e-001 -1.305829e+000 1.049220e+000 4.059762e-001 1.042376e+000 -4.464759e-001 1.471368e+000 -7.302446e-001 -3.655255e-001 -1.269189e+000 1.548332e+000
<VARIANCE> 25
 6.475934e+000 4.076349e+001 4.016965e+001 6.543053e+001 6.006113e+001 5.617011e+001 3.718688e+001 5.829339e+001 4.461341e+001 1.293281e+002 4.066718e+001 4.523104e+001 6.798372e-001 2.469945e+000 2.427733e+000 5.826792e+000 3.416108e+000 2.308300e+000 2.992208e+000 2.930499e+000 3.146165e+000 8.683450e+000 7.092313e+000 3.485393e+000 9.617990e-001
<GCONST> 1.052598e+002
<STATE> 4
<MEAN> 25
 3.226487e+000 -6.965021e+000 -1.782954e+000 -1.189650e+001 4.547816e+000 -4.241841e+000 6.393278e+000 9.030541e-001 1.668429e-001 -2.044628e+000 1.202128e+000 -1.897112e+000 -1.971314e-001 -4.323420e-001 -1.646020e-001 3.367581e-001 -6.763476e-002 1.134853e-001 2.295045e-001 7.522640e-004 -3.290863e-002 2.079155e-001 1.662439e-001 4.317932e-001 -4.765030e-002
<VARIANCE> 25
 1.463066e+001 7.227349e+001 4.545182e+001 2.032391e+001 4.176542e+001 3.872443e+001 4.142756e+001 4.041430e+001 3.176205e+001 4.481171e+001 4.959691e+001 3.468614e+001 1.886898e-001 8.394344e-001 6.111233e-001 6.106309e-001 8.915250e-001 1.132125e+000 1.039733e+000 1.723483e+000 1.033185e+000 2.511516e+000 1.582829e+000 1.598452e+000 3.701749e-001
<GCONST> 8.791383e+001
<TRANSP> 5
 0.000000e+000 1.000000e+000 0.000000e+000 0.000000e+000 0.000000e+000
 0.000000e+000 9.058867e-001 9.411330e-002 0.000000e+000 0.000000e+000
 0.000000e+000 0.000000e+000 8.468876e-001 1.531124e-001 0.000000e+000
 0.000000e+000 0.000000e+000 0.000000e+000 9.330640e-001 6.693601e-002
 0.000000e+000 0.000000e+000 0.000000e+000 0.000000e+000 0.000000e+000
<ENDHMM>
~h "y"
<BEGINHMM>
<NUMSTATES> 5
<STATE> 2
<MEAN> 25
 2.733713e+000 -4.413132e+000 7.034439e+000 -9.630336e+000 -7.641150e+000 -3.696193e+000 4.998106e+000 -3.649853e+000 -3.892176e+000 -4.411740e-001 -2.557903e+000 -4.539009e-001 -4.115142e-001 1.660610e+000 1.612767e+000 -7.413138e-001 -1.112168e+000 4.268458e-002 -1.385988e+000 -1.322388e+000 4.075111e-001 1.997994e+000 5.689206e-002 2.726054e-001 -4.645929e-001
<VARIANCE> 25
 2.172282e+001 4.127672e+001 3.557388e+001 3.254792e+001 7.679496e+001 1.921308e+001 9.105287e+001 4.697589e+001 6.145126e+001 4.789333e+001 3.180802e+001 2.548596e+001 1.685937e-001 1.173673e+000 1.235678e+000 1.418996e+000 3.009193e+000 1.662733e+000 4.454079e+000 2.821068e+000 2.383511e+000 3.259289e+000 1.811847e+000 2.855930e+000 2.601783e-001
<GCONST> 9.557274e+001
<STATE> 3
<MEAN> 25
 1.038451e+000 1.554333e+000 1.173542e+001 -1.264650e+001 -1.056333e+001 -3.956240e+000 -8.953034e-001 -5.671082e+000 -3.380267e+000 5.677646e+000 -3.032606e+000 1.016050e+000 1.725592e-001 -9.997622e-001 -9.413862e-001 -4.049846e-002 -3.237273e-002 -1.778277e-001 1.406956e+000 9.787933e-001 3.598396e-002 -5.686035e-001 5.262356e-002 -4.404422e-001 4.537729e-001
<VARIANCE> 25
 2.187927e+001 2.398148e+001 3.746921e+001 3.995968e+001 6.905878e+001 1.906744e+001 7.479575e+001 4.118992e+001 5.084354e+001 3.089476e+001 2.896402e+001 3.786961e+001 3.404792e-001 2.661646e+000 3.267022e+000 1.776527e+000 4.630113e+000 1.654604e+000 5.134306e+000 2.954005e+000 1.923934e+000 4.737684e+000 1.967753e+000 2.161637e+000 6.162755e-001
<GCONST> 9.868552e+001
<STATE> 4
<MEAN> 25
 2.997793e+000 -6.212321e+000 4.820506e+000 -2.569092e+000 2.430458e+000 -1.017454e+001 -8.726442e-001 -1.290227e+000 1.140632e+000 -4.366519e+000 2.973632e+000 -5.591621e+000 3.604082e-001 -8.359649e-001 -1.309394e+000 7.915812e-002 1.353387e+000 4.871182e-001 3.106152e-001 1.948153e-001 1.359912e-001 -1.036989e+000 -3.275172e-002 5.277507e-001 2.362584e-001
<VARIANCE> 25
 1.439086e+001 1.131500e+001 3.461074e+001 1.242039e+002 7.962382e+001 4.641010e+001 1.334124e+002 3.659066e+001 5.189856e+001 3.068163e+001 6.220477e+001 3.778656e+001 3.088769e-001 1.420258e+000 3.254270e+000 4.881750e+000 5.534923e+000 1.849650e+000 2.942688e+000 1.895056e+000 2.299585e+000 4.284350e+000 2.535345e+000 1.908023e+000 3.476943e-001
<GCONST> 1.000430e+002
<TRANSP> 5
 0.000000e+000 1.000000e+000 0.000000e+000 0.000000e+000 0.000000e+000
 0.000000e+000 7.571056e-001 2.428944e-001 0.000000e+000 0.000000e+000
 0.000000e+000 0.000000e+000 8.528786e-001 1.471213e-001 0.000000e+000
 0.000000e+000 0.000000e+000 0.000000e+000 6.944473e-001 3.055526e-001
 0.000000e+000 0.000000e+000 0.000000e+000 0.000000e+000 0.000000e+000
<ENDHMM>
~h "aa"
<BEGINHMM>
<NUMSTATES> 5
<STATE> 2
<MEAN> 25
 3.160958e+000 -4.428678e+000 -1.986230e+000 -3.516396e+000 1.310805e+000 -2.399656e+000 1.367100e+000 -1.440454e-001 -6.076436e-001 -2.336018e+000 -2.305989e+000 -1.342739e-001 7.866165e-001 -1.808313e+000 -9.422474e-001 -1.523972e+000 1.168766e+000 7.331828e-002 3.951772e-001 -3.685352e-001 -5.126637e-001 -9.831669e-001 -8.327073e-001 6.611653e-002 1.773632e+000
<VARIANCE> 25
 2.776414e+001 4.942248e+001 3.700383e+001 6.274081e+001 4.902356e+001 3.947468e+001 6.750703e+001 5.225250e+001 4.035241e+001 4.162468e+001 4.736314e+001 2.662340e+001 2.633410e+000 3.205862e+000 3.061279e+000 4.816155e+000 4.761832e+000 4.331430e+000 5.319663e+000 6.280588e+000 3.841231e+000 3.825692e+000 4.072673e+000 2.555817e+000 2.687246e+000
<GCONST> 1.086016e+002
<STATE> 3
<MEAN> 25
 3.330539e+000 -1.128904e+001 -4.798578e+000 -6.649158e+000 6.992185e+000 -7.235438e-002 4.732549e+000 -1.493405e+000 -9.434037e-001 -4.132502e+000 -3.337192e+000 8.830820e-002 3.968529e-001 3.117441e-001 -7.427325e-003 6.911225e-001 -7.624660e-002 2.600265e-001 -6.400040e-001 -2.645887e-002 -2.838373e-001 -2.639963e-001 -1.069142e-001 3.702723e-002 -6.407081e-001
<VARIANCE> 25
 1.798956e+001 2.268953e+001 2.861891e+001 4.218239e+001 3.836932e+001 3.702756e+001 5.433065e+001 4.235145e+001 3.918717e+001 3.063737e+001 3.617678e+001 2.765420e+001 6.986844e-001 1.899601e+000 1.370411e+000 1.982721e+000 2.721963e+000 2.108517e+000 2.755991e+000 2.770036e+000 2.235489e+000 2.116499e+000 1.889907e+000 1.873200e+000 1.298356e+000
<GCONST> 9.619561e+001
<STATE> 4
<MEAN> 25
 8.164252e+000 -7.425797e+000 -5.746282e+000 -3.308730e+000 6.417055e-001 -1.937452e+000 -3.194551e+000 -1.025464e+000 -4.905674e+000 -8.127509e+000 -4.921986e+000 1.476239e+000 -1.555826e-001 6.397673e-001 2.245675e-001 2.619246e-001 -3.696555e-001 -2.087361e-001 -1.067158e-001 -9.703738e-002 -5.204545e-002 -3.202419e-003 1.896338e-001 -9.568562e-002 -5.062278e-001
<VARIANCE> 25
 2.228998e+001 3.944631e+001 2.839669e+001 3.934610e+001 3.598265e+001 3.526724e+001 5.783406e+001 3.418574e+001 3.364401e+001 3.913315e+001 4.284313e+001 2.804758e+001 3.231690e-001 1.225800e+000 9.425490e-001 1.148877e+000 1.857319e+000 1.670171e+000 1.877900e+000 1.919271e+000 1.441432e+000 1.897613e+000 1.696358e+000 1.432415e+000 3.696614e-001
<GCONST> 9.122101e+001
<TRANSP> 5
 0.000000e+000 1.000000e+000 0.000000e+000 0.000000e+000 0.000000e+000
 0.000000e+000 6.755157e-001 3.244843e-001 0.000000e+000 0.000000e+000
 0.000000e+000 0.000000e+000 8.189923e-001 1.810078e-001 0.000000e+000
 0.000000e+000 0.000000e+000 0.000000e+000 8.195810e-001 1.804190e-001
 0.000000e+000 0.000000e+000 0.000000e+000 0.000000e+000 0.000000e+000
<ENDHMM>
~h "ao"
<BEGINHMM>
<NUMSTATES> 5
<STATE> 2
<MEAN> 25
 6.280974e+000 1.831035e+000 -4.026816e+000 -1.094284e+001 2.902076e+000 -5.227068e+000 -3.558690e+000 -3.377000e+000 -3.990439e+000 6.808447e+000 -2.144920e+000 -3.154156e+000 7.886575e-001 -6.684560e-001 -1.400964e-001 -3.400040e+000 -5.035707e-001 -5.259880e-001 6.627343e-001 1.456886e-001 6.549872e-001 1.202502e+000 -3.725348e-002 -8.173325e-001 1.318473e+000
<VARIANCE> 25
 1.305478e+001 1.224145e+001 3.248701e+001 4.530072e+001 5.560638e+001 1.895522e+001 3.171352e+001 3.268689e+001 3.586634e+001 5.897818e+001 2.102747e+001 2.202020e+001 1.763116e+000 8.169839e-001 2.028834e+000 3.704576e+000 3.235138e+000 2.627825e+000 4.853759e+000 3.024328e+000 3.130361e+000 5.139830e+000 1.895641e+000 1.543771e+000 5.773618e-001
<GCONST> 9.652524e+001
<STATE> 3
<MEAN> 25
 6.196715e+000 -6.634821e-001 -4.102361e+000 -1.766039e+001 2.024812e+000 -4.390150e+000 1.648316e+000 -1.070284e-001 -1.142961e+000 5.248743e+000 -5.706047e-001 -6.658308e+000 1.170966e-001 -7.293444e-001 -4.348538e-001 2.385326e-001 -3.972592e-001 3.656095e-001 4.049367e-001 3.370284e-001 9.033639e-001 -1.659103e-001 3.772554e-001 -5.388744e-001 1.865199e-001
<VARIANCE> 25
 5.584374e+000 1.303051e+001 4.827356e+001 2.203596e+001 3.872458e+001 4.305371e+001 3.699371e+001 1.183252e+002 5.136513e+001 4.838987e+001 2.511499e+001 2.408486e+001 1.365353e-001 2.990312e-001 4.624769e-001 2.045485e+000 1.250189e+000 1.469162e+000 1.782387e+000 1.802620e+000 2.401192e+000 2.744268e+000 1.422499e+000 1.239872e+000 1.803814e-001
<GCONST> 8.649166e+001
<STATE> 4
<MEAN> 25
 1.196976e+001 -1.101570e+000 -7.037363e+000 -1.323566e+001 -4.096336e+000 -5.103811e-002 -6.741611e+000 -3.761081e+000 3.589407e+000 3.355498e+000 3.196217e-001 -4.151637e+000 4.322993e-002 -5.250084e-001 5.159185e-002 1.003231e+000 -7.396465e-001 -7.069845e-002 7.567978e-002 2.805814e-001 4.899789e-001 -6.394354e-001 -3.773143e-001 2.721092e-001 -9.162796e-002
<VARIANCE> 25
 1.624383e+001 1.938657e+001 1.369268e+001 3.140626e+001 3.795119e+001 2.824892e+001 7.366572e+001 4.361919e+001 4.452431e+001 3.909404e+001 2.805423e+001 2.497884e+001 1.417421e-001 9.190341e-001 6.861684e-001 3.346437e+000 2.573186e+000 1.955395e+000 1.335640e+000 1.919745e+000 2.821300e+000 3.315790e+000 2.438929e+000 1.344251e+000 1.169285e-001
<GCONST> 8.945718e+001
<TRANSP> 5
 0.000000e+000 1.000000e+000 0.000000e+000 0.000000e+000 0.000000e+000
 0.000000e+000 5.441684e-001 4.558317e-001 0.000000e+000 0.000000e+000
 0.000000e+000 0.000000e+000 8.145662e-001 1.854338e-001 0.000000e+000
 0.000000e+000 0.000000e+000 0.000000e+000 8.171812e-001 1.828187e-001
 0.000000e+000 0.000000e+000 0.000000e+000 0.000000e+000 0.000000e+000
<ENDHMM>
~h "eh"
<BEGINHMM>
<NUMSTATES> 5
<STATE> 2
<MEAN> 25
 2.086818e+000 -1.882494e+000 -1.297614e+000 -3.684139e+000 -1.649077e+000 -3.858414e+000 2.665520e+000 -5.313470e-001 2.727820e-001 1.360500e+000 -1.827773e+000 -1.583710e+000 1.413285e+000 -4.331439e-001 -3.309638e-001 -8.352870e-001 -2.621548e-001 -1.524423e+000 -7.988862e-001 -3.169632e-001 -8.187594e-002 -5.050969e-001 -1.263947e+000 -1.729026e-001 1.217483e+000
<VARIANCE> 25
 2.417497e+001 2.399277e+001 3.900721e+001 4.845880e+001 5.114681e+001 4.952509e+001 5.417418e+001 3.808623e+001 5.502400e+001 4.176305e+001 5.325457e+001 2.676424e+001 3.196241e+000 2.703916e+000 2.005520e+000 4.980610e+000 3.878798e+000 5.585054e+000 4.228564e+000 4.371651e+000 4.427863e+000 4.580899e+000 4.641523e+000 2.520378e+000 4.077915e+000
<GCONST> 1.076512e+002
<STATE> 3
<MEAN> 25
 6.177963e+000 -2.343620e+000 -7.073407e-001 -3.766341e+000 -4.564337e+000 -5.184075e+000 2.280330e+000 -1.843831e+000 -2.460923e+000 -3.034456e-001 -3.827972e+000 -7.648687e-001 1.860504e-001 5.974404e-001 -6.461424e-002 1.394721e+000 2.287438e-001 2.230718e-001 -8.239191e-001 -4.968406e-002 -2.963834e-001 -3.944807e-001 3.823879e-001 3.329079e-001 -2.578374e-001
<VARIANCE> 25
 2.539411e+001 3.506942e+001 6.166907e+001 2.954423e+001 4.755176e+001 7.164602e+001 5.823139e+001 6.236119e+001 7.648283e+001 4.530025e+001 4.447744e+001 2.641366e+001 2.515379e+000 4.773437e+000 1.801126e+000 3.920759e+000 2.770006e+000 4.596910e+000 3.363678e+000 7.396399e+000 2.979117e+000 3.818314e+000 2.946369e+000 2.230645e+000 2.952285e+000
<GCONST> 1.073919e+002
<STATE> 4
<MEAN> 25
 7.231550e+000 -2.131491e+000 -1.497615e+000 -1.689810e+000 -4.056568e+000 -5.591331e+000 -2.735708e+000 -1.030216e+000 -3.502995e+000 -5.413168e+000 -4.213618e+000 1.284907e+000 -7.633865e-001 9.414035e-001 -1.352011e-001 8.111270e-001 1.755429e-001 4.106917e-001 7.726467e-002 -3.515618e-001 -3.421237e-002 2.074635e-001 5.772837e-001 -4.644435e-001 -4.829559e-001
<VARIANCE> 25
 2.397584e+001 5.742139e+001 3.051234e+001 3.417398e+001 3.644570e+001 6.733953e+001 4.008524e+001 4.636163e+001 3.813783e+001 4.526685e+001 3.494930e+001 2.906687e+001 2.534615e+000 2.846398e+000 1.235122e+000 2.475267e+000 2.513364e+000 4.198823e+000 2.978343e+000 2.877369e+000 2.161221e+000 2.269861e+000 1.967304e+000 2.522384e+000 6.850246e-001
<GCONST> 1.002466e+002
<TRANSP> 5
 0.000000e+000 1.000000e+000 0.000000e+000 0.000000e+000 0.000000e+000
 0.000000e+000 6.393068e-001 3.606932e-001 0.000000e+000 0.000000e+000
 0.000000e+000 0.000000e+000 4.156205e-001 5.843795e-001 0.000000e+000
 0.000000e+000 0.000000e+000 0.000000e+000 7.169942e-001 2.830058e-001
 0.000000e+000 0.000000e+000 0.000000e+000 0.000000e+000 0.000000e+000
<ENDHMM>
~h "hh"
<BEGINHMM>
<NUMSTATES> 5
<STATE> 2
<MEAN> 25
 1.037288e+000 -4.103436e-001 -3.097168e+000 -7.386485e-001 1.245229e+000 -4.578171e+000 -3.449954e+000 -5.374781e+000 -2.613849e+000 -2.209809e+000 8.333245e-001 7.081735e-002 -1.057120e+000 -6.400820e-001 -6.777446e-002 1.453663e+000 1.380558e-001 8.881272e-001 7.656379e-001 8.847274e-001 1.303634e+000 7.575556e-001 4.976610e-001 -5.323202e-001 -4.741936e-001
<VARIANCE> 25
 4.545032e+000 6.723476e+000 1.065263e+001 2.031075e+001 1.789059e+001 2.795367e+001 3.274676e+001 1.471862e+001 2.533073e+001 3.519239e+001 3.475022e+001 2.453075e+001 4.026022e-001 1.195735e+000 7.235115e-001 4.275777e+000 1.310089e+000 1.746462e+000 1.534981e+000 2.183320e+000 2.416017e+000 2.463759e+000 2.145304e+000 1.459944e+000 2.879427e-001
<GCONST> 8.479305e+001
<STATE> 3
<MEAN> 25
 8.867199e-001 -1.857932e+000 -2.045658e+000 2.967054e-001 -6.422469e-001 1.746686e+000 3.423073e+000 -8.038176e-001 3.479585e-001 3.330054e+000 6.276519e-001 -1.015485e-002 -3.479829e-001 8.602399e-002 -5.680817e-002 5.444006e-001 2.496362e-001 7.988445e-001 4.618810e-001 5.936143e-001 6.780005e-001 6.819164e-001 6.185217e-001 9.794817e-002 -5.308874e-001
<VARIANCE> 25
 7.450737e+000 1.563858e+001 1.513365e+001 1.815040e+001 2.983391e+001 2.476780e+001 6.132544e+001 3.554165e+001 2.204206e+001 2.009427e+001 2.864854e+001 1.550191e+001 4.443119e-001 1.163687e+000 1.166248e+000 1.447865e+000 1.779489e+000 1.673773e+000 1.365713e+000 1.963198e+000 1.447539e+000 1.863697e+000 8.322054e-001 8.356745e-001 3.165409e-001
<GCONST> 8.422297e+001
<STATE> 4
<MEAN> 25
 -3.446534e+000 5.170341e-001 9.250898e-001 2.569009e+000 2.467093e+000 2.668521e+000 2.544549e+000 1.338984e+000 2.734452e+000 2.449392e+000 3.151734e+000 1.421634e-001 -3.339761e-002 3.482142e-002 1.032873e-001 5.815079e-002 1.695712e-002 6.163772e-002 3.255753e-002 7.615547e-002 1.453393e-002 1.679618e-002 7.692198e-003 3.013569e-002 -4.874873e-002
<VARIANCE> 25
 1.279379e+001 3.643421e+000 7.207442e+000 8.812261e+000 9.607524e+000 1.302233e+001 1.509302e+001 1.522960e+001 1.852014e+001 1.663008e+001 1.241588e+001 1.444078e+001 1.632483e-001 2.550429e-001 4.768623e-001 5.713075e-001 8.755528e-001 1.043226e+000 1.014119e+000 1.393691e+000 1.640839e+000 1.522645e+000 1.245284e+000 1.337833e+000 6.378547e-002
<GCONST> 6.957593e+001
<TRANSP> 5
 0.000000e+000 1.000000e+000 0.000000e+000 0.000000e+000 0.000000e+000
 0.000000e+000 5.610580e-001 4.389420e-001 0.000000e+000 0.000000e+000
 0.000000e+000 0.000000e+000 6.909762e-001 3.090237e-001 0.000000e+000
 0.000000e+000 0.000000e+000 0.000000e+000 9.741697e-001 2.583035e-002
 0.000000e+000 0.000000e+000 0.000000e+000 0.000000e+000 0.000000e+000
<ENDHMM>
~h "ih"
<BEGINHMM>
<NUMSTATES> 5
<STATE> 2
<MEAN> 25
 2.025874e+000 5.325256e+000 1.023122e+001 -5.684866e+000 -4.363030e+000 -2.773859e+000 -6.069212e+000 -5.718733e+000 -1.366140e+000 -8.118031e-001 -3.970315e+000 -1.878306e+000 -7.662456e-002 9.423041e-002 5.400197e-001 -2.375298e-001 1.667185e-001 -3.437581e-001 -5.444452e-001 -2.995065e-002 1.176883e-001 -3.008090e-001 -1.812483e-001 9.109241e-003 1.383159e-001
<VARIANCE> 25
 2.625243e+001 6.794875e+001 6.795370e+001 1.401947e+002 8.324194e+001 4.060717e+001 5.042713e+001 5.313958e+001 4.937856e+001 4.175670e+001 3.051680e+001 3.992292e+001 1.977229e+000 2.537076e+000 4.027838e+000 7.617002e+000 4.485481e+000 3.322568e+000 3.919692e+000 4.118687e+000 3.976260e+000 4.134602e+000 3.192157e+000 2.572992e+000 2.352903e+000
<GCONST> 1.096317e+002
<STATE> 3
<MEAN> 25
 -4.112529e-001 5.018676e+000 8.652040e+000 -6.617303e+000 -9.155744e-001 -2.835670e+000 -6.259531e+000 -3.628251e+000 -4.410725e-001 -4.809086e-001 -3.110810e+000 1.458570e+000 4.471311e-002 -1.612036e-001 -3.324700e-001 5.290058e-001 3.268378e-001 7.189367e-002 1.749759e-001 3.840162e-001 1.709053e-001 -8.888056e-002 3.282389e-001 -9.612031e-002 -3.635429e-001
<VARIANCE> 25
 1.349714e+001 3.344478e+001 4.434199e+001 1.023088e+002 3.448391e+001 2.905836e+001 4.107834e+001 4.105922e+001 3.175834e+001 2.933439e+001 2.372394e+001 2.558939e+001 4.848303e-001 6.414366e-001 1.243902e+000 2.883025e+000 1.838988e+000 1.572914e+000 1.719526e+000 2.243932e+000 1.677228e+000 1.590187e+000 1.558703e+000 1.628582e+000 4.195470e-001
<GCONST> 9.163060e+001
<STATE> 4
<MEAN> 25
 4.283176e-001 -5.987343e-001 6.048693e+000 4.742857e+000 2.034015e+000 -3.308973e+000 -3.987150e+000 1.437728e+000 2.369787e+000 -4.113583e+000 2.893977e-001 -1.984054e+000 2.171527e-002 -3.805127e-002 -4.530624e-001 3.284078e-002 -1.534532e-002 1.815623e-001 1.901082e-001 -9.291004e-002 -3.169214e-002 1.785244e-001 1.845971e-001 7.442535e-002 -1.590468e-001
<VARIANCE> 25
 8.906258e+000 2.961065e+001 7.709284e+001 4.468670e+001 3.141306e+001 5.713230e+001 5.502222e+001 3.193302e+001 2.482986e+001 5.052601e+001 2.350328e+001 2.440129e+001 3.102520e-001 5.916614e-001 1.218911e+000 1.244671e+000 1.059985e+000 1.559631e+000 2.031305e+000 1.691848e+000 1.479251e+000 1.779516e+000 1.519731e+000 1.426809e+000 2.687279e-001
<GCONST> 8.900342e+001
<TRANSP> 5
 0.000000e+000 1.000000e+000 0.000000e+000 0.000000e+000 0.000000e+000
 0.000000e+000 8.275058e-001 1.724942e-001 0.000000e+000 0.000000e+000
 0.000000e+000 0.000000e+000 7.859463e-001 2.140537e-001 0.000000e+000
 0.000000e+000 0.000000e+000 0.000000e+000 7.933645e-001 2.066355e-001
 0.000000e+000 0.000000e+000 0.000000e+000 0.000000e+000 0.000000e+000
<ENDHMM>
~h "ng"
<BEGINHMM>
<NUMSTATES> 5
<STATE> 2
<MEAN> 25
 3.512769e+000 -3.764460e+000 -2.242434e+000 -3.158968e+000 7.948321e+000 -3.447482e+000 1.762538e-001 -3.823330e+000 3.067142e+000 -4.424078e-001 6.169241e+000 -3.466831e+000 -1.873142e-002 6.018021e-001 2.584812e-001 7.022597e-001 -8.240399e-003 4.190699e-001 -3.895936e-001 1.698619e-001 -9.535718e-003 -1.925660e-001 -2.770149e-001 -9.897934e-002 -6.168411e-001
<VARIANCE> 25
 7.057756e+000 2.664292e+001 2.010982e+001 3.807819e+001 3.852988e+001 3.965900e+001 3.371803e+001 2.380057e+001 3.655056e+001 4.188897e+001 5.762333e+001 2.464143e+001 2.924852e-001 1.633192e+000 1.148160e+000 2.826161e+000 1.673243e+000 1.507452e+000 2.909219e+000 1.806722e+000 2.626337e+000 2.272455e+000 3.867177e+000 1.495174e+000 1.277113e+000
<GCONST> 9.324467e+001
<STATE> 3
<MEAN> 25
 3.515458e+000 4.790675e+000 2.757612e+000 5.286718e+000 3.125236e+000 4.249105e-001 -9.308069e-001 -2.924752e+000 -2.958504e+000 -2.657927e+000 -4.622614e+000 -4.239986e+000 -4.147821e-001 -5.440363e-002 -1.724493e-002 3.558302e-001 -1.051930e-001 2.140741e-001 1.240775e-001 3.912242e-001 3.466344e-001 3.497647e-001 4.437888e-001 4.222908e-001 -4.599421e-001
<VARIANCE> 25
 1.270783e+001 2.760001e+001 1.491401e+001 1.685905e+001 3.098553e+001 1.906921e+001 2.092963e+001 3.258632e+001 2.639905e+001 2.269038e+001 2.039019e+001 3.016552e+001 4.054141e-001 7.612227e-001 7.491455e-001 9.378977e-001 1.073438e+000 1.666526e+000 1.943253e+000 1.648810e+000 1.799859e+000 1.714794e+000 1.935110e+000 1.498829e+000 1.997834e-001
<GCONST> 8.385657e+001
<STATE> 4
<MEAN> 25
 -9.701254e-001 1.829053e-001 -1.857175e+000 3.485527e+000 -2.234767e-001 2.562300e+000 2.237705e+000 8.016000e-001 6.614878e-001 2.493391e+000 1.346589e+000 1.810532e+000 -6.758646e-002 -1.228945e-002 -4.967900e-002 -3.259775e-002 -4.112013e-002 -1.087359e-002 -1.888890e-002 3.044067e-002 2.096318e-002 5.845239e-002 2.749313e-002 6.356974e-002 -5.447747e-002
<VARIANCE> 25
 9.973718e+000 7.447111e+000 2.000174e+001 1.454475e+001 1.797976e+001 1.140103e+001 1.847495e+001 1.714057e+001 1.536729e+001 2.257304e+001 1.429036e+001 1.726776e+001 1.206035e-001 2.709704e-001 4.462255e-001 8.151398e-001 9.062197e-001 9.434218e-001 1.088118e+000 1.052043e+000 1.292691e+000 1.134845e+000 1.274074e+000 1.052451e+000 8.539460e-002
<GCONST> 7.212823e+001
<TRANSP> 5
 0.000000e+000 1.000000e+000 0.000000e+000 0.000000e+000 0.000000e+000
 0.000000e+000 8.317963e-001 1.682037e-001 0.000000e+000 0.000000e+000
 0.000000e+000 0.000000e+000 7.739749e-001 2.260251e-001 0.000000e+000
 0.000000e+000 0.000000e+000 0.000000e+000 9.459852e-001 5.401475e-002
 0.000000e+000 0.000000e+000 0.000000e+000 0.000000e+000 0.000000e+000
<ENDHMM>
~h "oh"
<BEGINHMM>
<NUMSTATES> 5
<STATE> 2
<MEAN> 25
 -4.318285e+000 2.220046e+000 2.687504e+000 2.642706e+000 2.533249e+000 9.572033e-001 4.522782e+000 3.101502e+000 4.379671e+000 3.360173e+000 2.407369e+000 -2.062957e-001 -4.353518e-002 -4.414768e-003 2.744724e-002 -6.891453e-003 1.249234e-001 8.310852e-002 1.439489e-001 1.491244e-001 1.798304e-001 1.344138e-001 5.353992e-002 1.668816e-002 -5.184834e-002
<VARIANCE> 25
 3.043302e+000 6.366276e+000 4.863566e+000 1.184516e+001 6.857862e+000 1.132390e+001 1.431998e+001 1.752916e+001 1.773987e+001 1.852173e+001 1.016551e+001 1.303486e+001 1.498305e-001 3.142231e-001 3.500028e-001 4.154354e-001 6.498678e-001 9.644855e-001 1.323077e+000 1.457493e+000 1.502815e+000 1.344183e+000 1.248566e+000 1.516153e+000 2.973346e-002
<GCONST> 6.655500e+001
<STATE> 3
<MEAN> 25
 4.639178e+000 -2.875953e+000 -7.606742e+000 -1.462760e+001 1.559940e+000 1.763165e+000 5.471668e+000 -7.792149e+000 1.759018e+000 5.775216e+000 3.272009e+000 8.563159e-001 3.330030e-001 4.327720e-001 1.887549e-001 1.095585e+000 -5.885900e-002 1.439389e-001 8.122869e-002 3.351823e-001 -4.797935e-001 -4.601331e-001 -5.745788e-001 8.243340e-002 -4.130345e-001
<VARIANCE> 25
 8.525355e+000 2.002298e+001 2.054205e+001 5.727168e+001 4.628460e+000 7.915734e+000 1.468747e+001 3.916812e+001 2.257334e+001 3.467724e+001 2.083091e+001 8.991446e+000 1.858113e-001 1.756086e-001 6.296902e-001 1.628775e+000 7.465239e-001 8.464947e-001 1.986670e+000 7.358597e-001 1.835461e+000 2.360367e+000 1.239804e+000 1.444609e+000 1.004943e-001
<GCONST> 7.628342e+001
<STATE> 4
<MEAN> 25
 2.102302e+000 -1.430554e+000 -2.324335e+000 -3.392327e-001 6.921839e-001 2.143550e+000 2.746747e+000 -1.920244e+000 -3.284048e+000 -2.193924e+000 2.195319e+000 1.339205e+000 -5.621111e-001 -1.126908e-001 2.709420e-001 1.334336e+000 -7.956444e-001 -5.439076e-001 -9.624825e-001 7.797793e-001 3.495244e-002 1.645702e-001 5.177033e-001 -2.254444e-001 -8.674323e-001
<VARIANCE> 25
 1.140101e+001 2.493896e+001 1.829451e+001 1.556116e+001 1.902772e+001 1.225663e+001 1.667900e+001 3.730375e+001 2.457290e+001 1.599149e+001 1.046707e+001 5.704431e+000 8.394797e-001 6.302409e-001 7.788505e-001 7.813827e-001 1.036961e+000 2.438227e+000 4.505014e-001 3.300408e+000 1.295507e+000 1.114314e+000 2.262032e+000 1.003849e+000 7.400456e-001
<GCONST> 8.027399e+001
<TRANSP> 5
 0.000000e+000 1.000000e+000 0.000000e+000 0.000000e+000 0.000000e+000
 0.000000e+000 9.552867e-001 4.471326e-002 0.000000e+000 0.000000e+000
 0.000000e+000 0.000000e+000 7.791609e-001 2.208391e-001 0.000000e+000
 0.000000e+000 0.000000e+000 0.000000e+000 6.177287e-001 3.822713e-001
 0.000000e+000 0.000000e+000 0.000000e+000 0.000000e+000 0.000000e+000
<ENDHMM>
~h "sp"
<BEGINHMM>
<NUMSTATES> 3
<STATE> 2
~s "silst"
<TRANSP> 3
 0.000000e+000 2.983069e-002 9.701693e-001
 0.000000e+000 8.504130e-001 1.495870e-001
 0.000000e+000 0.000000e+000 0.000000e+000
<ENDHMM>
~h "uw"
<BEGINHMM>
<NUMSTATES> 5
<STATE> 2
<MEAN> 25
 1.942297e+000 2.752451e-001 -1.431987e+000 -4.891347e+000 -1.477651e+000 -5.269184e+000 -3.357608e+000 -1.929513e+000 -1.086465e+000 1.008844e+000 8.975088e-001 -9.735798e-003 1.877017e+000 4.009902e-001 -8.157507e-001 -3.003890e+000 -2.646576e-001 -6.657014e-001 -9.352101e-001 -1.326876e+000 -8.561262e-001 3.085177e-001 -8.694617e-001 -4.837781e-003 1.165437e+000
<VARIANCE> 25
 2.631501e+001 3.078197e+001 3.264063e+001 5.980283e+001 4.931427e+001 5.448180e+001 4.471915e+001 3.406319e+001 3.782547e+001 4.061965e+001 2.950846e+001 2.412063e+001 2.994216e+000 2.683367e+000 4.040849e+000 5.648767e+000 5.292098e+000 4.751280e+000 4.676561e+000 5.030444e+000 4.705179e+000 4.763071e+000 4.255718e+000 2.567072e+000 1.990160e+000
<GCONST> 1.071334e+002
<STATE> 3
<MEAN> 25
 6.899414e+000 3.140998e+000 -4.497737e+000 -9.971110e+000 9.544804e-001 -3.893435e+000 -5.568180e+000 -4.918370e+000 -2.598727e+000 2.611003e+000 -1.331363e-001 -1.484478e+000 7.015105e-001 5.840477e-001 -2.107859e-001 -7.709249e-001 -1.369112e-001 6.403160e-001 -1.156493e-001 -1.950814e-001 -5.929589e-001 1.779588e-001 -5.314354e-001 -2.654276e-001 -2.751545e-001
<VARIANCE> 25
 1.748048e+001 4.005204e+001 5.345094e+001 6.386177e+001 9.467678e+001 4.550874e+001 5.995841e+001 4.284146e+001 5.536495e+001 5.528309e+001 5.994650e+001 4.197160e+001 2.138699e+000 2.975176e+000 2.990592e+000 8.189152e+000 5.781057e+000 4.330122e+000 3.467642e+000 4.308994e+000 4.429381e+000 4.159417e+000 4.755775e+000 3.752179e+000 3.630401e+000
<GCONST> 1.107679e+002
<STATE> 4
<MEAN> 25
 6.952355e+000 3.827156e+000 -1.369378e+000 -9.335781e+000 -2.727092e+000 -5.613724e+000 -5.440016e+000 -4.485207e+000 -4.450834e+000 8.141629e-001 -2.345359e+000 -2.074916e+000 -1.504965e-001 9.284413e-002 2.467795e-001 6.057349e-001 5.438282e-002 1.272572e-001 3.134325e-003 -1.356875e-001 4.454735e-002 -1.248446e-001 1.372533e-001 6.139416e-002 -3.763820e-001
<VARIANCE> 25
 1.301526e+001 1.740201e+001 4.527292e+001 7.114329e+001 5.292308e+001 3.791271e+001 4.072121e+001 3.455517e+001 3.819934e+001 4.855763e+001 3.662102e+001 2.944944e+001 4.317518e-001 9.197693e-001 1.175197e+000 3.118400e+000 1.948024e+000 2.537009e+000 2.048244e+000 2.387060e+000 2.645970e+000 2.313681e+000 2.184620e+000 1.877173e+000 5.582711e-001
<GCONST> 9.500958e+001
<TRANSP> 5
 0.000000e+000 1.000000e+000 0.000000e+000 0.000000e+000 0.000000e+000
 0.000000e+000 4.251538e-001 5.748463e-001 0.000000e+000 0.000000e+000
 0.000000e+000 0.000000e+000 6.136670e-001 3.863331e-001 0.000000e+000
 0.000000e+000 0.000000e+000 0.000000e+000 8.744515e-001 1.255484e-001
 0.000000e+000 0.000000e+000 0.000000e+000 0.000000e+000 0.000000e+000
<ENDHMM>
~h "sil"
<BEGINHMM>
<NUMSTATES> 5
<STATE> 2
<MEAN> 25
 -1.623428e+001 6.541339e+000 -2.712356e+000 1.065179e+001 -3.749944e+000 7.704360e+000 -3.824678e+000 8.906918e+000 9.319188e+000 3.732562e+000 5.770618e+000 2.304016e+000 -1.650467e-002 3.428598e-002 -1.179715e-002 -4.213269e-002 3.654367e-002 6.097782e-002 -3.207887e-002 -2.753857e-002 1.069915e-001 8.420686e-002 3.204960e-002 -8.152850e-002 -2.809945e-002
<VARIANCE> 25
 3.507372e+001 1.573201e+001 2.272900e+001 2.277029e+001 2.474063e+001 1.986011e+001 2.197467e+001 3.738730e+001 3.034147e+001 1.958745e+001 2.036254e+001 1.337951e+001 8.131086e-002 1.906207e-001 2.898370e-001 4.302600e-001 5.539038e-001 7.038455e-001 9.262266e-001 1.146832e+000 1.075348e+000 1.484317e+000 1.162210e+000 1.247851e+000 2.835000e-002
<GCONST> 7.355826e+001
<STATE> 3
~s "silst"
<STATE> 4
<MEAN> 25
 -2.729007e+000 1.000706e+000 -4.918199e-001 2.972721e+000 8.575117e-001 3.122509e+000 1.910694e+000 1.448081e+000 1.673178e+000 2.328805e+000 1.996032e+000 8.923331e-001 -3.181227e-002 1.274752e-002 -7.796015e-003 1.461494e-002 1.426652e-002 2.650780e-002 2.568069e-002 7.106189e-003 -8.711155e-003 3.739381e-002 2.986384e-002 8.660890e-003 -8.960494e-003
<VARIANCE> 25
 1.951637e+001 1.032935e+001 1.623085e+001 1.670525e+001 2.039128e+001 1.618229e+001 2.160588e+001 2.126337e+001 2.113617e+001 2.631272e+001 1.776229e+001 1.519763e+001 1.712283e-001 3.490344e-001 5.156671e-001 7.373884e-001 9.105040e-001 1.064648e+000 1.149780e+000 1.337047e+000 1.406414e+000 1.416379e+000 1.254586e+000 1.223734e+000 9.176148e-002
<GCONST> 7.604797e+001
<TRANSP> 5
 0.000000e+000 1.000000e+000 0.000000e+000 0.000000e+000 0.000000e+000
 0.000000e+000 8.762007e-001 3.957674e-002 8.422265e-002 0.000000e+000
 0.000000e+000 0.000000e+000 9.401624e-001 5.983755e-002 0.000000e+000
 0.000000e+000 6.541792e-003 0.000000e+000 9.480563e-001 4.540185e-002
 0.000000e+000 0.000000e+000 0.000000e+000 0.000000e+000 0.000000e+000
<ENDHMM>
