~o
<STREAMINFO> 1 25
<VECSIZE> 25<NULLD><MFCC_D_N_Z_0><DIAGC>
~h "b"
<BEGINHMM>
<NUMSTATES> 5
<STATE> 2
<MEAN> 25
 8.162078e-001 1.947609e-001 1.462145e+000 -4.854902e-001 -1.505422e+000 -1.246904e+000 -3.835620e-001 1.224366e-001 7.960687e-002 -6.975420e-002 -1.969415e-001 -5.636006e-001 6.145312e-004 -2.470709e-003 -1.446110e-002 1.196368e-002 2.549035e-002 9.854575e-003 1.107398e-002 1.043078e-002 -1.438113e-002 -7.266530e-003 -1.692360e-003 3.450768e-003 -9.254899e-004
<VARIANCE> 25
 5.051377e+001 4.067920e+001 5.538923e+001 7.225361e+001 6.034341e+001 4.723027e+001 5.004106e+001 5.598785e+001 4.148790e+001 5.191036e+001 4.123947e+001 2.895738e+001 1.361117e+000 1.631792e+000 2.382143e+000 2.896813e+000 2.683897e+000 2.522754e+000 2.815202e+000 2.889109e+000 2.600503e+000 3.162874e+000 2.526091e+000 2.032341e+000 1.816258e+000
<GCONST> 1.036007e+002
<STATE> 3
<MEAN> 25
 7.858932e-001 1.927632e-001 1.383808e+000 -4.315332e-001 -1.412492e+000 -1.208257e+000 -3.385432e-001 1.633716e-001 2.937235e-002 -7.757056e-002 -2.071336e-001 -5.492910e-001 -9.560742e-003 1.448791e-003 -2.057530e-002 2.208042e-002 2.889806e-002 1.609180e-002 9.326733e-003 1.184650e-002 -1.183480e-002 -4.278251e-003 -2.142980e-003 5.952779e-003 -1.891678e-002
<VARIANCE> 25
 4.984016e+001 3.985593e+001 5.385482e+001 7.212206e+001 5.869352e+001 4.688064e+001 4.969379e+001 5.620828e+001 4.106690e+001 5.175091e+001 4.150391e+001 2.909797e+001 1.307003e+000 1.600020e+000 2.284590e+000 2.849020e+000 2.652782e+000 2.513810e+000 2.762788e+000 2.882125e+000 2.584076e+000 3.142493e+000 2.557819e+000 2.028078e+000 1.666702e+000
<GCONST> 1.032532e+002
<STATE> 4
<MEAN> 25
 6.542105e-001 9.501982e-002 1.243449e+000 -4.647340e-002 -1.217045e+000 -1.070100e+000 -2.302749e-001 3.538536e-001 -7.343405e-002 -1.196652e-001 -3.584495e-001 -6.169267e-001 -2.473837e-002 5.604208e-003 -3.018809e-002 2.719351e-002 2.266164e-002 2.000224e-002 9.839886e-003 1.293429e-002 1.408406e-003 7.939673e-003 -6.372490e-003 1.247291e-002 -3.896816e-002
<VARIANCE> 25
 5.288799e+001 3.813480e+001 5.138832e+001 6.698551e+001 5.755482e+001 4.640715e+001 5.133794e+001 5.654689e+001 4.052511e+001 5.217913e+001 4.234296e+001 2.964582e+001 1.281760e+000 1.562775e+000 2.062609e+000 2.646579e+000 2.557368e+000 2.541772e+000 2.675081e+000 2.792536e+000 2.487592e+000 3.027263e+000 2.542239e+000 1.972081e+000 1.444412e+000
<GCONST> 1.026291e+002
<TRANSP> 5
 0.000000e+000 1.000000e+000 0.000000e+000 0.000000e+000 0.000000e+000
 0.000000e+000 7.656422e-001 2.343578e-001 0.000000e+000 0.000000e+000
 0.000000e+000 0.000000e+000 7.656413e-001 2.343587e-001 0.000000e+000
 0.000000e+000 0.000000e+000 0.000000e+000 9.020941e-001 9.790593e-002
 0.000000e+000 0.000000e+000 0.000000e+000 0.000000e+000 0.000000e+000
<ENDHMM>
~h "c"
<BEGINHMM>
<NUMSTATES> 5
<STATE> 2
<MEAN> 25
 6.494075e-002 2.331135e-001 -1.787050e+000 -5.389986e-002 -4.903410e-001 5.158715e-001 9.716077e-001 8.201289e-001 -1.072239e+000 -2.741943e-001 3.899078e-001 -5.631116e-001 1.189300e-002 -3.206402e-002 -8.733854e-002 -1.434552e-002 2.211834e-002 8.160610e-002 5.162657e-002 -1.968366e-002 -1.674858e-002 3.000046e-002 -2.745616e-003 -1.994481e-002 -6.680761e-003
<VARIANCE> 25
 4.894967e+001 4.427999e+001 3.543086e+001 6.667970e+001 4.175459e+001 5.255357e+001 3.847260e+001 3.893685e+001 3.415377e+001 3.659366e+001 3.228087e+001 1.938858e+001 3.559523e+000 3.164920e+000 1.971861e+000 4.192894e+000 3.072000e+000 3.100119e+000 3.294556e+000 3.075458e+000 2.859740e+000 3.566200e+000 2.517087e+000 2.075243e+000 5.263176e+000
<GCONST> 1.047109e+002
<STATE> 3
<MEAN> 25
 1.068703e-001 1.123080e-001 -2.126660e+000 -9.512307e-002 -3.847514e-001 8.464940e-001 1.170148e+000 7.573721e-001 -1.131887e+000 -1.517389e-001 3.709874e-001 -6.408711e-001 -3.669547e-003 -2.575987e-002 -7.574589e-002 -7.767233e-003 3.363157e-002 7.889932e-002 4.458927e-002 -1.686689e-002 -1.317930e-002 3.656209e-002 5.701288e-003 -1.447560e-002 -3.230955e-002
<VARIANCE> 25
 5.067712e+001 4.368184e+001 3.645595e+001 6.919765e+001 4.079592e+001 5.344619e+001 3.860771e+001 3.912783e+001 3.368705e+001 3.438834e+001 3.321730e+001 1.962785e+001 3.558707e+000 3.120312e+000 1.982596e+000 4.288218e+000 3.037576e+000 2.921273e+000 3.282330e+000 3.082870e+000 2.815293e+000 3.318358e+000 2.577952e+000 2.058614e+000 5.117195e+000
<GCONST> 1.046061e+002
<STATE> 4
<MEAN> 25
 1.603230e-001 -1.337623e-002 -2.443604e+000 -1.979621e-001 -2.306111e-001 1.159002e+000 1.309322e+000 6.794119e-001 -1.097802e+000 2.578005e-002 2.530805e-001 -7.630682e-001 -2.576429e-002 -1.207616e-002 -5.179220e-002 6.820794e-003 4.079617e-002 6.741299e-002 3.401343e-002 -6.057227e-003 -1.617117e-003 4.535389e-002 1.453227e-002 -8.223508e-003 -6.944157e-002
<VARIANCE> 25
 5.296102e+001 4.149817e+001 3.612087e+001 7.241509e+001 3.906783e+001 5.397245e+001 3.817409e+001 3.868077e+001 3.268863e+001 3.249476e+001 3.541339e+001 1.999920e+001 3.421696e+000 2.940619e+000 1.941054e+000 4.330815e+000 2.935030e+000 2.724088e+000 3.184846e+000 3.051485e+000 2.714918e+000 3.033848e+000 2.685300e+000 2.007703e+000 4.745491e+000
<GCONST> 1.041348e+002
<TRANSP> 5
 0.000000e+000 1.000000e+000 0.000000e+000 0.000000e+000 0.000000e+000
 0.000000e+000 7.536734e-001 2.463266e-001 0.000000e+000 0.000000e+000
 0.000000e+000 0.000000e+000 7.536734e-001 2.463266e-001 0.000000e+000
 0.000000e+000 0.000000e+000 0.000000e+000 8.794293e-001 1.205707e-001
 0.000000e+000 0.000000e+000 0.000000e+000 0.000000e+000 0.000000e+000
<ENDHMM>
~h "d"
<BEGINHMM>
<NUMSTATES> 5
<STATE> 2
<MEAN> 25
 1.175519e+000 6.917773e-002 1.059053e+000 -9.760182e-001 -1.361802e-001 -4.732593e-001 -5.512382e-001 -6.251446e-001 -6.045922e-001 3.568465e-002 -6.524712e-001 1.137258e-001 5.144751e-002 -3.449109e-002 3.551749e-002 -4.232055e-002 7.035673e-004 -1.998388e-002 1.859009e-002 -1.677617e-002 -1.112303e-002 -9.182861e-003 -1.736843e-002 3.294402e-003 1.197606e-001
<VARIANCE> 25
 3.621089e+001 4.888958e+001 6.026994e+001 8.650007e+001 4.825695e+001 4.108307e+001 5.015152e+001 3.938663e+001 3.778524e+001 4.522609e+001 3.979320e+001 2.734117e+001 1.287870e+000 2.035606e+000 2.350610e+000 3.326528e+000 2.468870e+000 2.315278e+000 2.928268e+000 2.661691e+000 2.625109e+000 3.018547e+000 2.303202e+000 1.869939e+000 2.495498e+000
<GCONST> 1.028628e+002
<STATE> 3
<MEAN> 25
 1.340066e+000 -8.653591e-002 1.159961e+000 -1.150873e+000 -1.433246e-001 -5.579872e-001 -4.662246e-001 -6.773337e-001 -6.266906e-001 -7.200709e-004 -7.116613e-001 1.280122e-001 3.932136e-002 -3.894792e-002 1.854616e-002 -4.493886e-002 -6.747472e-004 -2.043577e-002 2.125128e-002 -1.064044e-002 -3.871353e-003 -1.133343e-002 -1.425683e-002 3.075662e-003 1.013044e-001
<VARIANCE> 25
 3.360844e+001 4.966805e+001 6.011876e+001 8.665002e+001 4.924888e+001 4.102864e+001 5.152480e+001 3.898296e+001 3.789378e+001 4.614860e+001 4.019024e+001 2.742735e+001 1.196240e+000 2.073274e+000 2.385532e+000 3.341842e+000 2.520453e+000 2.317732e+000 3.002280e+000 2.674451e+000 2.648849e+000 3.071250e+000 2.320061e+000 1.883926e+000 2.278410e+000
<GCONST> 1.028405e+002
<STATE> 4
<MEAN> 25
 1.345559e+000 -1.463801e-001 1.033301e+000 -1.242043e+000 -1.257727e-001 -5.470744e-001 -3.469784e-001 -5.570433e-001 -5.685112e-001 -7.675251e-002 -7.530707e-001 6.150152e-002 2.353470e-002 -3.879904e-002 -4.916350e-003 -2.440700e-002 2.598696e-003 -1.248505e-002 1.995104e-002 6.159924e-003 3.922559e-003 -2.042154e-002 -5.691872e-003 -2.123894e-003 5.741502e-002
<VARIANCE> 25
 3.395371e+001 4.948288e+001 5.957055e+001 8.324962e+001 4.965073e+001 4.239216e+001 5.297741e+001 3.834345e+001 3.727890e+001 4.651845e+001 4.133160e+001 2.810136e+001 1.071097e+000 2.041058e+000 2.334074e+000 3.135237e+000 2.431008e+000 2.282640e+000 2.972274e+000 2.611987e+000 2.551170e+000 2.967386e+000 2.269754e+000 1.851461e+000 1.881743e+000
<GCONST> 1.022943e+002
<TRANSP> 5
 0.000000e+000 1.000000e+000 0.000000e+000 0.000000e+000 0.000000e+000
 0.000000e+000 7.625700e-001 2.374301e-001 0.000000e+000 0.000000e+000
 0.000000e+000 0.000000e+000 7.625703e-001 2.374297e-001 0.000000e+000
 0.000000e+000 0.000000e+000 0.000000e+000 8.965902e-001 1.034098e-001
 0.000000e+000 0.000000e+000 0.000000e+000 0.000000e+000 0.000000e+000
<ENDHMM>
~h "g"
<BEGINHMM>
<NUMSTATES> 5
<STATE> 2
<MEAN> 25
 1.169030e+000 -3.915522e-002 1.793836e+000 -1.355969e+000 1.131344e+000 -8.560020e-001 -3.642303e-001 -8.010166e-001 -9.523585e-002 -8.018559e-001 -1.020718e+000 -1.024142e+000 2.775944e-002 -1.704528e-002 -1.593335e-002 1.172756e-002 -5.575863e-004 2.324391e-002 7.666105e-003 4.277495e-003 1.024718e-002 1.902131e-002 -1.035357e-002 -1.172875e-002 -1.174877e-002
<VARIANCE> 25
 4.131303e+001 6.452901e+001 8.529110e+001 1.022937e+002 5.497775e+001 4.846568e+001 6.793538e+001 5.722169e+001 4.947638e+001 6.406914e+001 4.413293e+001 3.709653e+001 1.405962e+000 2.070565e+000 2.331522e+000 3.963090e+000 2.585678e+000 2.883628e+000 2.977802e+000 2.873474e+000 2.828336e+000 3.564700e+000 2.485065e+000 2.121599e+000 2.374652e+000
<GCONST> 1.068105e+002
<STATE> 3
<MEAN> 25
 1.269611e+000 -1.138425e-001 1.725572e+000 -1.308694e+000 1.124868e+000 -7.714072e-001 -3.101801e-001 -7.770862e-001 -5.574344e-002 -7.256520e-001 -1.057033e+000 -1.070272e+000 2.361345e-002 -2.279795e-002 -2.189481e-002 8.215330e-003 -6.405540e-003 2.221379e-002 1.667014e-002 7.793228e-003 1.139356e-002 1.944269e-002 -6.288279e-003 -7.721278e-003 -9.333334e-003
<VARIANCE> 25
 4.084962e+001 6.435335e+001 8.367323e+001 1.013543e+002 5.583178e+001 4.874403e+001 6.790305e+001 5.822616e+001 4.970623e+001 6.331229e+001 4.365342e+001 3.712776e+001 1.367801e+000 2.035660e+000 2.294600e+000 3.919669e+000 2.590009e+000 2.871750e+000 2.981257e+000 2.878625e+000 2.810073e+000 3.546665e+000 2.465914e+000 2.117293e+000 2.324413e+000
<GCONST> 1.066752e+002
<STATE> 4
<MEAN> 25
 1.163111e+000 -1.506236e-001 1.729485e+000 -1.112414e+000 1.134416e+000 -6.713194e-001 -1.500544e-001 -6.656048e-001 1.335585e-001 -6.222386e-001 -1.070562e+000 -1.183322e+000 1.486106e-002 -2.353193e-002 -2.317911e-002 6.399845e-003 -1.074051e-002 1.619063e-002 2.699781e-002 1.153123e-002 8.773772e-003 1.878634e-002 6.632028e-004 -4.356019e-003 -5.209487e-003
<VARIANCE> 25
 4.196690e+001 6.139817e+001 8.060876e+001 9.847369e+001 5.673389e+001 4.941860e+001 6.585753e+001 5.954301e+001 4.875928e+001 6.109820e+001 4.348710e+001 3.675169e+001 1.317516e+000 1.876556e+000 2.189263e+000 3.657521e+000 2.485089e+000 2.802502e+000 2.852002e+000 2.791587e+000 2.675609e+000 3.357394e+000 2.373918e+000 2.046709e+000 2.162923e+000
<GCONST> 1.059181e+002
<TRANSP> 5
 0.000000e+000 1.000000e+000 0.000000e+000 0.000000e+000 0.000000e+000
 0.000000e+000 7.669877e-001 2.330123e-001 0.000000e+000 0.000000e+000
 0.000000e+000 0.000000e+000 7.669882e-001 2.330118e-001 0.000000e+000
 0.000000e+000 0.000000e+000 0.000000e+000 9.012954e-001 9.870464e-002
 0.000000e+000 0.000000e+000 0.000000e+000 0.000000e+000 0.000000e+000
<ENDHMM>
~h "h"
<BEGINHMM>
<NUMSTATES> 5
<STATE> 2
<MEAN> 25
 -2.342165e+000 -2.428729e+000 -5.825503e-001 2.114660e+000 4.547087e-001 1.926222e-001 5.777638e-001 1.717847e+000 1.490666e+000 -5.827067e-001 5.862364e-001 1.572704e+000 6.875280e-002 -3.154228e-002 6.344092e-003 -1.921942e-002 -2.963708e-002 3.578886e-002 -5.170566e-002 -2.682081e-002 -6.816819e-002 -1.449954e-001 -4.980741e-002 5.202379e-002 5.870318e-002
<VARIANCE> 25
 7.009814e+001 4.852211e+001 2.245316e+001 4.474761e+001 3.864793e+001 3.100860e+001 2.819597e+001 6.028887e+001 7.265836e+001 4.093361e+001 3.949327e+001 1.854003e+001 5.219908e-001 1.269172e+000 1.229049e+000 1.289707e+000 1.805085e+000 1.355126e+000 1.542205e+000 1.748579e+000 1.889748e+000 1.569430e+000 1.603133e+000 1.559616e+000 5.683163e-001
<GCONST> 9.348609e+001
<STATE> 3
<MEAN> 25
 -1.903621e+000 -2.629842e+000 -6.423290e-001 2.015856e+000 2.734359e-001 2.689254e-001 3.289551e-001 1.547959e+000 1.173959e+000 -1.184324e+000 3.481193e-001 1.848469e+000 9.003139e-002 -2.835988e-002 -8.942664e-003 -2.339679e-002 -4.264820e-002 3.123233e-002 -5.129680e-002 -2.902271e-002 -6.186057e-002 -1.183278e-001 -3.115965e-002 5.753940e-002 6.877397e-002
<VARIANCE> 25
 7.358293e+001 5.180484e+001 2.487008e+001 4.299619e+001 3.994300e+001 3.153349e+001 2.958931e+001 6.296350e+001 7.354379e+001 4.307930e+001 4.064838e+001 1.895784e+001 6.219431e-001 1.380157e+000 1.345940e+000 1.335546e+000 1.935163e+000 1.412445e+000 1.621276e+000 1.809967e+000 1.914729e+000 1.587665e+000 1.651252e+000 1.562574e+000 6.495758e-001
<GCONST> 9.468820e+001
<STATE> 4
<MEAN> 25
 8.307774e-001 -2.898020e+000 -1.028062e+000 1.459370e+000 -2.553669e-001 -2.951250e-001 -7.970377e-001 -6.213353e-001 -9.783013e-001 -2.975208e+000 -8.058355e-001 2.120560e+000 8.804329e-002 2.181202e-002 6.019551e-003 -2.251066e-002 -4.191756e-002 -6.084539e-004 -4.804158e-002 -6.208442e-002 -5.223807e-002 -5.846211e-002 -5.306607e-003 2.214484e-002 5.961143e-002
<VARIANCE> 25
 7.215617e+001 5.195396e+001 3.091108e+001 3.624493e+001 3.961438e+001 3.025666e+001 3.661201e+001 6.542266e+001 6.789016e+001 5.046435e+001 3.933731e+001 2.010931e+001 8.576341e-001 1.448088e+000 1.559300e+000 1.425721e+000 1.956052e+000 1.479896e+000 1.846124e+000 2.024571e+000 1.915543e+000 1.651522e+000 1.774043e+000 1.526286e+000 7.536476e-001
<GCONST> 9.614210e+001
<TRANSP> 5
 0.000000e+000 1.000000e+000 0.000000e+000 0.000000e+000 0.000000e+000
 0.000000e+000 7.641172e-001 2.358829e-001 0.000000e+000 0.000000e+000
 0.000000e+000 0.000000e+000 7.641174e-001 2.358827e-001 0.000000e+000
 0.000000e+000 0.000000e+000 0.000000e+000 9.046585e-001 9.534149e-002
 0.000000e+000 0.000000e+000 0.000000e+000 0.000000e+000 0.000000e+000
<ENDHMM>
~h "j"
<BEGINHMM>
<NUMSTATES> 5
<STATE> 2
<MEAN> 25
 -6.299156e-001 1.364383e+000 -4.967246e-002 7.427055e-001 -1.805874e+000 -4.082740e-001 -2.265742e+000 -6.724724e-001 -1.111030e+000 2.187373e+000 6.441175e-001 4.028742e-005 3.460194e-003 2.594700e-002 -2.772724e-003 -1.153421e-002 3.873879e-003 4.722042e-005 -2.808568e-002 -2.889667e-003 1.114781e-002 1.713108e-002 -1.804334e-002 2.937092e-003 -2.042875e-002
<VARIANCE> 25
 3.599932e+001 3.096115e+001 4.859764e+001 4.208192e+001 3.704480e+001 6.615022e+001 4.090750e+001 2.576470e+001 3.197309e+001 4.669403e+001 3.809459e+001 2.960411e+001 1.571601e+000 1.286487e+000 1.425333e+000 2.049210e+000 2.820743e+000 3.422889e+000 2.282602e+000 2.249280e+000 2.559341e+000 2.722653e+000 2.318975e+000 1.644718e+000 1.541491e+000
<GCONST> 9.907931e+001
<STATE> 3
<MEAN> 25
 -6.009488e-001 1.473317e+000 -6.779527e-002 6.993511e-001 -1.796782e+000 -4.180013e-001 -2.405648e+000 -7.008295e-001 -1.082216e+000 2.225986e+000 5.487901e-001 2.026003e-002 8.928476e-003 2.093489e-002 2.572132e-003 -1.667367e-002 5.126793e-003 -4.872178e-003 -2.707148e-002 -8.144545e-003 5.892327e-003 3.354516e-003 -2.247818e-002 4.502959e-003 -1.090758e-002
<VARIANCE> 25
 3.476485e+001 2.996586e+001 4.789972e+001 4.201655e+001 3.683406e+001 6.738975e+001 4.021273e+001 2.585820e+001 3.290566e+001 4.705267e+001 3.798606e+001 3.067998e+001 1.528953e+000 1.362919e+000 1.459478e+000 2.071121e+000 2.867338e+000 3.434223e+000 2.297069e+000 2.251000e+000 2.602178e+000 2.772068e+000 2.323745e+000 1.709588e+000 1.601626e+000
<GCONST> 9.926920e+001
<STATE> 4
<MEAN> 25
 -4.140939e-001 1.485760e+000 6.153880e-002 5.364892e-001 -1.606656e+000 -3.527364e-001 -2.542429e+000 -7.660912e-001 -9.334663e-001 2.018638e+000 2.541216e-001 -4.217489e-002 1.315128e-002 9.638655e-003 1.238195e-002 -2.082189e-002 1.270402e-002 -2.414648e-003 -1.868607e-002 -8.963325e-003 1.461434e-003 -1.404167e-002 -2.765528e-002 4.817961e-003 2.522404e-003
<VARIANCE> 25
 3.211615e+001 2.849225e+001 4.462951e+001 4.007270e+001 3.665339e+001 6.716844e+001 3.952655e+001 2.621588e+001 3.535429e+001 4.734751e+001 3.806414e+001 3.198077e+001 1.409149e+000 1.471795e+000 1.499687e+000 2.063627e+000 2.846502e+000 3.310620e+000 2.336250e+000 2.242324e+000 2.684766e+000 2.802520e+000 2.336071e+000 1.807775e+000 1.624660e+000
<GCONST> 9.923685e+001
<TRANSP> 5
 0.000000e+000 1.000000e+000 0.000000e+000 0.000000e+000 0.000000e+000
 0.000000e+000 7.641402e-001 2.358598e-001 0.000000e+000 0.000000e+000
 0.000000e+000 0.000000e+000 7.641405e-001 2.358594e-001 0.000000e+000
 0.000000e+000 0.000000e+000 0.000000e+000 8.927719e-001 1.072281e-001
 0.000000e+000 0.000000e+000 0.000000e+000 0.000000e+000 0.000000e+000
<ENDHMM>
~h "k"
<BEGINHMM>
<NUMSTATES> 5
<STATE> 2
<MEAN> 25
 4.451095e-001 6.320021e-001 -1.393197e-001 4.087514e-001 6.595468e-001 1.082613e-002 -3.835936e-001 9.217075e-002 9.024785e-002 2.786577e-001 -3.252637e-001 -3.837073e-001 -1.011477e-002 -9.853942e-003 2.260605e-002 -4.174449e-003 -4.957713e-003 2.758272e-003 2.745227e-002 3.255087e-003 -6.215075e-003 -1.332615e-002 -3.044567e-003 6.565311e-003 2.739996e-002
<VARIANCE> 25
 5.913396e+001 5.062996e+001 5.694056e+001 7.555469e+001 4.084251e+001 4.706874e+001 5.016111e+001 4.583433e+001 3.968767e+001 5.574933e+001 4.149326e+001 2.699434e+001 1.705414e+000 1.849697e+000 2.302430e+000 3.548058e+000 2.331709e+000 2.725267e+000 2.694793e+000 2.990595e+000 2.787510e+000 3.212616e+000 2.381601e+000 1.923599e+000 2.618851e+000
<GCONST> 1.042049e+002
<STATE> 3
<MEAN> 25
 3.793937e-001 5.926836e-001 -2.819024e-002 3.920109e-001 6.392494e-001 2.360185e-002 -2.599860e-001 1.185737e-001 7.967134e-002 2.290128e-001 -3.292703e-001 -3.582236e-001 -8.677835e-003 -1.010241e-002 2.546381e-002 -1.045916e-002 -6.476375e-003 2.611115e-003 2.421081e-002 3.002118e-003 -2.882974e-003 -1.100837e-002 -4.115307e-003 4.479733e-003 2.903022e-002
<VARIANCE> 25
 5.886434e+001 5.137320e+001 5.797903e+001 7.652307e+001 4.104753e+001 4.682502e+001 5.006421e+001 4.584094e+001 3.947421e+001 5.636655e+001 4.163883e+001 2.694941e+001 1.671603e+000 1.845034e+000 2.317889e+000 3.550950e+000 2.337649e+000 2.714195e+000 2.718194e+000 2.984075e+000 2.784396e+000 3.222910e+000 2.375774e+000 1.914877e+000 2.537844e+000
<GCONST> 1.042048e+002
<STATE> 4
<MEAN> 25
 7.530852e-002 5.158107e-001 1.094295e-001 3.891033e-001 6.316838e-001 4.939093e-002 -3.873365e-002 2.889998e-001 1.637732e-001 1.408849e-001 -3.509706e-001 -3.766007e-001 -1.301679e-002 -9.644912e-003 3.118232e-002 -1.101318e-002 -6.179535e-003 2.366265e-003 2.139568e-002 4.395801e-003 2.990043e-003 -7.608837e-003 -1.531623e-003 2.343549e-003 2.323671e-002
<VARIANCE> 25
 5.941224e+001 5.053289e+001 5.658239e+001 7.394312e+001 4.023975e+001 4.635755e+001 4.849501e+001 4.533193e+001 3.836168e+001 5.762637e+001 4.149883e+001 2.726137e+001 1.581246e+000 1.762361e+000 2.222881e+000 3.281989e+000 2.212747e+000 2.624344e+000 2.667733e+000 2.921953e+000 2.685566e+000 3.123523e+000 2.291523e+000 1.852669e+000 2.269190e+000
<GCONST> 1.034687e+002
<TRANSP> 5
 0.000000e+000 1.000000e+000 0.000000e+000 0.000000e+000 0.000000e+000
 0.000000e+000 7.714926e-001 2.285074e-001 0.000000e+000 0.000000e+000
 0.000000e+000 0.000000e+000 7.714920e-001 2.285080e-001 0.000000e+000
 0.000000e+000 0.000000e+000 0.000000e+000 9.067478e-001 9.325217e-002
 0.000000e+000 0.000000e+000 0.000000e+000 0.000000e+000 0.000000e+000
<ENDHMM>
~h "l"
<BEGINHMM>
<NUMSTATES> 5
<STATE> 2
<MEAN> 25
 1.490371e+000 -3.661136e-001 -5.684771e-001 -4.739274e-001 5.657564e-001 -4.951179e-002 -8.599668e-001 -2.682172e-001 3.452503e-001 -7.558872e-001 -2.957738e-001 1.647837e-001 -2.802171e-002 2.279156e-002 2.037445e-002 3.091882e-002 1.617668e-002 1.748307e-002 2.962263e-003 3.072512e-003 2.326509e-003 6.136033e-003 9.652717e-004 -5.090951e-003 -3.194893e-002
<VARIANCE> 25
 4.458025e+001 4.754004e+001 4.605354e+001 8.371175e+001 4.652299e+001 4.647043e+001 4.903832e+001 4.910994e+001 3.883306e+001 4.579827e+001 4.139399e+001 2.977332e+001 9.975854e-001 1.445882e+000 1.557290e+000 2.980356e+000 2.269365e+000 2.286036e+000 2.376652e+000 2.553189e+000 2.449517e+000 2.465824e+000 2.160700e+000 1.798443e+000 1.387499e+000
<GCONST> 1.007626e+002
<STATE> 3
<MEAN> 25
 1.325434e+000 -2.542273e-001 -4.695339e-001 -3.265237e-001 6.287329e-001 4.000361e-002 -8.426858e-001 -2.428980e-001 3.767234e-001 -6.997407e-001 -2.745854e-001 1.484389e-001 -3.365602e-002 2.476489e-002 2.605099e-002 3.278021e-002 1.237861e-002 1.398599e-002 3.125252e-003 4.393922e-003 2.854812e-003 1.184544e-002 4.871885e-003 -6.582656e-003 -3.218947e-002
<VARIANCE> 25
 4.387877e+001 4.723141e+001 4.661009e+001 8.415449e+001 4.521325e+001 4.539899e+001 4.918810e+001 4.836795e+001 3.783928e+001 4.491099e+001 4.072603e+001 2.935186e+001 9.820516e-001 1.437184e+000 1.529256e+000 2.961911e+000 2.212567e+000 2.256049e+000 2.375698e+000 2.533154e+000 2.445068e+000 2.439756e+000 2.126544e+000 1.798481e+000 1.376942e+000
<GCONST> 1.004885e+002
<STATE> 4
<MEAN> 25
 9.674096e-001 -1.010186e-001 -3.792414e-001 -6.076517e-002 6.576065e-001 1.479691e-001 -8.112934e-001 -1.914606e-001 5.019116e-001 -4.855598e-001 -2.053553e-001 2.020582e-001 -4.433004e-002 2.537564e-002 2.801741e-002 3.451892e-002 8.937974e-003 1.688516e-002 4.524824e-003 1.001932e-002 7.835849e-003 2.582216e-002 1.088193e-002 -6.871959e-003 -4.030028e-002
<VARIANCE> 25
 4.554532e+001 4.342146e+001 4.646605e+001 7.961233e+001 4.279757e+001 4.436581e+001 5.008368e+001 4.869293e+001 3.669296e+001 4.397894e+001 3.919292e+001 2.916887e+001 9.194635e-001 1.344295e+000 1.437668e+000 2.691045e+000 2.040773e+000 2.172830e+000 2.292669e+000 2.479910e+000 2.365912e+000 2.312513e+000 2.022191e+000 1.769155e+000 1.209714e+000
<GCONST> 9.948528e+001
<TRANSP> 5
 0.000000e+000 1.000000e+000 0.000000e+000 0.000000e+000 0.000000e+000
 0.000000e+000 7.633886e-001 2.366113e-001 0.000000e+000 0.000000e+000
 0.000000e+000 0.000000e+000 7.633890e-001 2.366110e-001 0.000000e+000
 0.000000e+000 0.000000e+000 0.000000e+000 8.976995e-001 1.023005e-001
 0.000000e+000 0.000000e+000 0.000000e+000 0.000000e+000 0.000000e+000
<ENDHMM>
~h "m"
<BEGINHMM>
<NUMSTATES> 5
<STATE> 2
<MEAN> 25
 1.200576e+000 -1.836967e-001 5.761322e-001 -3.797821e-001 7.183825e-001 -1.776247e-001 -7.113639e-001 -6.147209e-001 -8.036427e-003 -7.661880e-001 -4.225426e-001 -5.146942e-001 2.487686e-004 3.568716e-003 6.682042e-003 1.094607e-003 1.469452e-002 -2.579996e-003 -1.455655e-002 8.300524e-004 1.137001e-002 3.046555e-003 2.441664e-003 -9.159319e-003 6.819642e-003
<VARIANCE> 25
 4.567955e+001 5.096469e+001 5.571254e+001 8.462535e+001 5.389561e+001 4.533059e+001 5.354864e+001 4.795483e+001 4.131418e+001 4.855204e+001 3.899989e+001 2.870880e+001 1.144774e+000 1.567471e+000 1.927001e+000 2.831466e+000 2.288568e+000 2.207733e+000 2.548930e+000 2.631492e+000 2.355996e+000 2.576791e+000 2.088310e+000 1.788091e+000 1.518453e+000
<GCONST> 1.017779e+002
<STATE> 3
<MEAN> 25
 1.208626e+000 -1.630708e-001 5.969010e-001 -3.693657e-001 7.826783e-001 -1.878153e-001 -7.717704e-001 -6.077883e-001 3.412130e-002 -7.582569e-001 -4.187181e-001 -5.540291e-001 4.739005e-004 4.716788e-003 3.291167e-003 -4.570859e-004 1.109227e-002 -1.986030e-003 -1.356991e-002 2.253180e-003 9.976392e-003 1.762482e-003 2.449549e-003 -7.095534e-003 4.239811e-004
<VARIANCE> 25
 4.521882e+001 4.993267e+001 5.558859e+001 8.465157e+001 5.304242e+001 4.517231e+001 5.350290e+001 4.848583e+001 4.128841e+001 4.861820e+001 3.870943e+001 2.853626e+001 1.127180e+000 1.540312e+000 1.912309e+000 2.829483e+000 2.266900e+000 2.223159e+000 2.540775e+000 2.639572e+000 2.349458e+000 2.574029e+000 2.090050e+000 1.779096e+000 1.449249e+000
<GCONST> 1.016246e+002
<STATE> 4
<MEAN> 25
 1.375668e+000 -1.213690e-001 6.140670e-001 -3.874488e-001 9.048032e-001 -2.809074e-001 -8.718702e-001 -6.238993e-001 -4.975499e-003 -8.973389e-001 -4.877774e-001 -6.653902e-001 -2.359317e-003 8.559487e-003 1.673744e-003 4.231837e-004 6.039525e-003 1.364763e-003 -5.603799e-003 3.788107e-003 6.822364e-003 -1.989594e-004 4.230978e-004 -3.795108e-003 -5.894278e-003
<VARIANCE> 25
 4.626512e+001 4.770443e+001 5.543565e+001 8.112225e+001 5.170902e+001 4.503030e+001 5.458228e+001 4.917327e+001 4.052591e+001 4.932359e+001 3.963655e+001 2.894363e+001 1.112070e+000 1.481689e+000 1.841959e+000 2.699820e+000 2.162383e+000 2.240201e+000 2.481506e+000 2.610743e+000 2.287902e+000 2.513457e+000 2.063004e+000 1.751919e+000 1.374072e+000
<GCONST> 1.012526e+002
<TRANSP> 5
 0.000000e+000 1.000000e+000 0.000000e+000 0.000000e+000 0.000000e+000
 0.000000e+000 7.695192e-001 2.304809e-001 0.000000e+000 0.000000e+000
 0.000000e+000 0.000000e+000 7.695194e-001 2.304806e-001 0.000000e+000
 0.000000e+000 0.000000e+000 0.000000e+000 9.042933e-001 9.570668e-002
 0.000000e+000 0.000000e+000 0.000000e+000 0.000000e+000 0.000000e+000
<ENDHMM>
~h "n"
<BEGINHMM>
<NUMSTATES> 5
<STATE> 2
<MEAN> 25
 9.384071e-001 -1.657469e-001 4.346428e-001 -3.429438e-001 2.509805e-001 -5.477853e-001 -4.704375e-002 -4.119174e-001 -6.371871e-001 -6.839744e-001 2.759516e-002 3.759995e-001 -4.732229e-003 1.028191e-002 6.651449e-003 -1.097776e-003 -8.421061e-003 2.333344e-002 -5.428108e-003 1.304374e-003 1.347242e-002 1.998464e-002 4.284920e-003 -1.269216e-003 -3.408251e-002
<VARIANCE> 25
 4.994351e+001 5.971931e+001 4.945306e+001 7.696172e+001 4.750281e+001 4.666304e+001 5.379902e+001 4.655723e+001 4.455809e+001 5.204176e+001 4.314428e+001 3.496645e+001 1.453496e+000 1.855411e+000 1.826211e+000 2.977622e+000 2.254707e+000 2.412522e+000 2.631705e+000 2.677051e+000 2.532186e+000 2.714631e+000 2.390189e+000 1.875169e+000 2.011040e+000
<GCONST> 1.032472e+002
<STATE> 3
<MEAN> 25
 9.041778e-001 -1.080437e-001 4.522807e-001 -3.453004e-001 2.128775e-001 -4.493167e-001 -6.526866e-002 -4.048586e-001 -5.742474e-001 -5.894472e-001 3.695651e-002 3.627740e-001 -9.174517e-003 9.611857e-003 3.685972e-003 -4.941447e-004 -8.940057e-003 2.149161e-002 -3.187888e-003 1.746469e-003 1.492577e-002 2.135888e-002 1.815234e-003 -4.470470e-003 -3.174762e-002
<VARIANCE> 25
 4.989684e+001 5.870854e+001 4.942835e+001 7.731664e+001 4.702715e+001 4.620686e+001 5.313229e+001 4.624009e+001 4.451798e+001 5.180727e+001 4.282027e+001 3.458916e+001 1.434549e+000 1.841846e+000 1.828384e+000 2.988137e+000 2.256495e+000 2.407463e+000 2.617913e+000 2.651955e+000 2.525903e+000 2.709792e+000 2.368434e+000 1.871718e+000 1.995412e+000
<GCONST> 1.031155e+002
<STATE> 4
<MEAN> 25
 7.611519e-001 1.408554e-001 5.337327e-001 -3.748373e-001 1.223475e-001 -2.637044e-001 -7.512783e-002 -4.272445e-001 -4.017840e-001 -3.223554e-001 8.187523e-002 3.068033e-001 -1.393250e-002 8.789105e-003 -3.412787e-003 -9.850147e-005 -6.413314e-003 1.685113e-002 4.647156e-004 2.599452e-003 1.476298e-002 2.019183e-002 -4.000756e-003 -7.266096e-003 -2.507439e-002
<VARIANCE> 25
 4.980005e+001 5.375285e+001 5.004542e+001 7.622714e+001 4.661333e+001 4.592986e+001 5.171214e+001 4.590660e+001 4.364948e+001 5.126707e+001 4.194403e+001 3.405358e+001 1.383983e+000 1.736243e+000 1.800725e+000 2.855118e+000 2.159831e+000 2.378593e+000 2.506715e+000 2.560975e+000 2.442989e+000 2.624952e+000 2.276573e+000 1.816329e+000 1.874872e+000
<GCONST> 1.024210e+002
<TRANSP> 5
 0.000000e+000 1.000000e+000 0.000000e+000 0.000000e+000 0.000000e+000
 0.000000e+000 7.675897e-001 2.324103e-001 0.000000e+000 0.000000e+000
 0.000000e+000 0.000000e+000 7.675894e-001 2.324106e-001 0.000000e+000
 0.000000e+000 0.000000e+000 0.000000e+000 9.020718e-001 9.792822e-002
 0.000000e+000 0.000000e+000 0.000000e+000 0.000000e+000 0.000000e+000
<ENDHMM>
~h "o"
<BEGINHMM>
<NUMSTATES> 5
<STATE> 2
<MEAN> 25
 -7.385900e+000 2.715757e+000 5.774455e-001 3.802678e+000 4.890939e-002 3.016008e+000 2.771571e+000 4.989690e+000 1.591045e+000 5.566604e+000 3.315382e-001 -3.017373e+000 -4.453031e-002 8.712380e-002 -2.223954e-002 5.940986e-002 -7.261682e-002 -1.436099e-002 -1.997283e-002 -1.714918e-002 4.951639e-003 2.603657e-002 1.023325e-001 -8.120471e-003 -1.691734e-001
<VARIANCE> 25
 1.116839e+002 4.155348e+001 5.642297e+001 5.924738e+001 4.320759e+001 6.884610e+001 4.527511e+001 7.053016e+001 4.015372e+001 5.634613e+001 7.503256e+001 2.709862e+001 3.872737e+000 2.253158e+000 2.444607e+000 1.860131e+000 2.413540e+000 3.318622e+000 3.133073e+000 3.494008e+000 3.091726e+000 3.825689e+000 3.642782e+000 2.356876e+000 2.553724e+000
<GCONST> 1.076251e+002
<STATE> 3
<MEAN> 25
 -7.619825e+000 3.139808e+000 4.886725e-001 4.068324e+000 -2.884095e-001 2.973301e+000 2.698183e+000 4.909223e+000 1.623973e+000 5.693096e+000 8.192177e-001 -3.051294e+000 -3.650565e-002 8.592431e-002 -1.459345e-002 3.766600e-002 -7.866286e-002 -2.897748e-002 -3.396991e-003 -2.050835e-002 -6.817358e-003 1.288765e-002 8.833779e-002 -9.424260e-003 -1.420063e-001
<VARIANCE> 25
 1.093793e+002 4.108892e+001 5.691724e+001 6.305046e+001 4.221426e+001 6.830093e+001 4.302074e+001 6.800203e+001 3.821142e+001 5.603261e+001 7.176187e+001 2.520531e+001 3.705026e+000 2.205956e+000 2.488051e+000 1.853088e+000 2.401840e+000 3.138892e+000 2.965906e+000 3.396710e+000 3.020600e+000 3.747840e+000 3.462971e+000 2.285925e+000 2.378841e+000
<GCONST> 1.069818e+002
<STATE> 4
<MEAN> 25
 -8.048856e+000 3.659056e+000 2.716002e-001 4.223046e+000 -5.815857e-001 3.085977e+000 2.702803e+000 4.896743e+000 1.647075e+000 5.948559e+000 1.167120e+000 -3.280769e+000 -4.122854e-002 8.783390e-002 5.132285e-004 9.082899e-003 -6.411494e-002 -1.510497e-002 1.451299e-002 -1.737412e-002 -3.964545e-003 6.402843e-004 6.950024e-002 -5.087777e-003 -1.311853e-001
<VARIANCE> 25
 1.087035e+002 4.280697e+001 6.175710e+001 7.450977e+001 3.995739e+001 6.570850e+001 4.181452e+001 6.839406e+001 3.747244e+001 5.938499e+001 7.147918e+001 2.354301e+001 3.584507e+000 2.161098e+000 2.633551e+000 1.913813e+000 2.342421e+000 2.938696e+000 2.852463e+000 3.284335e+000 3.062208e+000 3.793156e+000 3.337024e+000 2.240587e+000 2.285366e+000
<GCONST> 1.069157e+002
<TRANSP> 5
 0.000000e+000 1.000000e+000 0.000000e+000 0.000000e+000 0.000000e+000
 0.000000e+000 7.868980e-001 2.131020e-001 0.000000e+000 0.000000e+000
 0.000000e+000 0.000000e+000 7.868980e-001 2.131020e-001 0.000000e+000
 0.000000e+000 0.000000e+000 0.000000e+000 9.183879e-001 8.161218e-002
 0.000000e+000 0.000000e+000 0.000000e+000 0.000000e+000 0.000000e+000
<ENDHMM>
~h "p"
<BEGINHMM>
<NUMSTATES> 5
<STATE> 2
<MEAN> 25
 -3.641484e+000 9.311312e-001 -1.867586e+000 1.975292e+000 -9.872541e-001 1.726695e+000 3.919133e-002 1.134989e+000 1.004165e+000 1.389863e+000 1.307262e+000 5.347887e-001 1.321970e-001 -3.880294e-002 2.979232e-002 -4.302157e-002 4.985772e-002 -8.123505e-002 1.550282e-002 -3.734265e-002 -4.007212e-002 -3.201203e-002 -5.225993e-002 -1.346177e-002 2.767575e-001
<VARIANCE> 25
 8.378465e+001 4.626922e+001 4.959855e+001 7.229836e+001 3.979109e+001 5.244693e+001 4.543508e+001 4.633343e+001 3.940697e+001 4.292119e+001 3.790818e+001 2.519829e+001 1.991820e+000 1.562052e+000 1.364982e+000 2.575556e+000 1.711523e+000 2.231110e+000 2.100384e+000 2.278685e+000 2.144915e+000 2.218994e+000 1.961831e+000 1.634080e+000 3.312411e+000
<GCONST> 1.012059e+002
<STATE> 3
<MEAN> 25
 -3.096331e+000 7.540942e-001 -1.780722e+000 1.789727e+000 -7.960503e-001 1.333279e+000 1.133092e-001 1.022310e+000 8.953373e-001 1.246705e+000 1.103283e+000 4.873206e-001 1.246764e-001 -3.516594e-002 1.749870e-002 -3.911590e-002 4.234461e-002 -9.112223e-002 1.705323e-002 -2.332611e-002 -2.769395e-002 -3.087485e-002 -4.824736e-002 -1.272709e-002 2.566412e-001
<VARIANCE> 25
 7.857089e+001 4.619886e+001 4.900673e+001 7.180382e+001 3.790258e+001 5.394504e+001 4.559595e+001 4.650489e+001 3.904274e+001 4.419242e+001 3.765018e+001 2.571344e+001 2.011431e+000 1.647146e+000 1.389842e+000 2.689689e+000 1.748345e+000 2.372554e+000 2.151103e+000 2.367145e+000 2.197121e+000 2.311987e+000 2.059600e+000 1.672019e+000 3.156849e+000
<GCONST> 1.014989e+002
<STATE> 4
<MEAN> 25
 -2.018165e+000 2.335105e-001 -1.791782e+000 1.234674e+000 -4.916835e-001 4.473789e-001 2.321762e-001 7.720560e-001 6.222594e-001 6.801394e-001 6.182279e-001 5.240875e-001 8.581749e-002 -2.822771e-002 1.127969e-002 -3.807114e-002 2.196860e-002 -8.137762e-002 1.040528e-002 -2.395882e-002 -2.741754e-002 -4.794406e-002 -3.704745e-002 -3.249541e-003 2.095466e-001
<VARIANCE> 25
 6.941427e+001 4.858388e+001 4.772931e+001 6.494235e+001 3.556850e+001 5.679438e+001 4.634017e+001 4.476964e+001 3.850881e+001 4.871708e+001 3.763963e+001 2.719906e+001 2.068991e+000 1.749124e+000 1.426709e+000 2.652079e+000 1.772374e+000 2.492953e+000 2.174953e+000 2.458052e+000 2.205621e+000 2.463044e+000 2.185725e+000 1.710134e+000 2.828139e+000
<GCONST> 1.016555e+002
<TRANSP> 5
 0.000000e+000 1.000000e+000 0.000000e+000 0.000000e+000 0.000000e+000
 0.000000e+000 7.718990e-001 2.281010e-001 0.000000e+000 0.000000e+000
 0.000000e+000 0.000000e+000 7.718996e-001 2.281004e-001 0.000000e+000
 0.000000e+000 0.000000e+000 0.000000e+000 9.074364e-001 9.256362e-002
 0.000000e+000 0.000000e+000 0.000000e+000 0.000000e+000 0.000000e+000
<ENDHMM>
~h "r"
<BEGINHMM>
<NUMSTATES> 5
<STATE> 2
<MEAN> 25
 1.631078e+000 -1.672915e+000 -2.104980e-002 -1.035844e+000 1.795931e-002 -3.544910e-001 1.198465e+000 8.292679e-002 -2.980645e-001 6.081462e-002 -6.492545e-001 -1.014325e+000 -4.361913e-003 1.409661e-002 3.214969e-002 3.846950e-003 -3.818130e-002 7.414216e-003 2.403198e-002 7.252493e-003 -8.084081e-003 3.059070e-002 8.145295e-003 -3.586574e-003 -3.656465e-002
<VARIANCE> 25
 4.745474e+001 5.507067e+001 5.301081e+001 8.491228e+001 5.775965e+001 4.374278e+001 5.986689e+001 6.019867e+001 4.780061e+001 5.556965e+001 4.257838e+001 3.258410e+001 1.217987e+000 1.737116e+000 1.772387e+000 3.327433e+000 2.516840e+000 2.313001e+000 3.055105e+000 2.877612e+000 2.797600e+000 3.099165e+000 2.364715e+000 1.937263e+000 1.735517e+000
<GCONST> 1.040641e+002
<STATE> 3
<MEAN> 25
 1.613770e+000 -1.608567e+000 9.068754e-002 -1.002548e+000 -1.309809e-001 -3.145996e-001 1.279378e+000 1.103722e-001 -3.354591e-001 1.876871e-001 -6.079379e-001 -1.027927e+000 -8.746750e-003 2.042742e-002 2.972044e-002 8.747292e-003 -3.046291e-002 8.801134e-003 1.718100e-002 3.793123e-003 -6.038294e-003 2.803615e-002 5.859697e-003 7.982565e-004 -4.404350e-002
<VARIANCE> 25
 4.776070e+001 5.513729e+001 5.254337e+001 8.415868e+001 5.816772e+001 4.415234e+001 6.002092e+001 6.161228e+001 4.771471e+001 5.454405e+001 4.285090e+001 3.236451e+001 1.209718e+000 1.730720e+000 1.755242e+000 3.270984e+000 2.515007e+000 2.276768e+000 3.063702e+000 2.904859e+000 2.812388e+000 3.060373e+000 2.366294e+000 1.935807e+000 1.722045e+000
<GCONST> 1.040185e+002
<STATE> 4
<MEAN> 25
 1.467967e+000 -1.312166e+000 1.734950e-001 -8.010402e-001 -2.476653e-001 -1.549388e-001 1.201993e+000 1.151844e-001 -2.129474e-001 3.659324e-001 -4.923045e-001 -9.701825e-001 -1.137947e-002 2.526627e-002 1.745103e-002 1.391759e-002 -1.917575e-002 1.189565e-002 3.579035e-003 -3.352416e-003 -5.130324e-003 2.391887e-002 7.480021e-003 3.118286e-003 -4.876141e-002
<VARIANCE> 25
 5.024575e+001 5.248668e+001 5.127421e+001 8.104414e+001 5.874339e+001 4.545663e+001 5.982097e+001 6.295818e+001 4.640556e+001 5.252734e+001 4.304342e+001 3.226622e+001 1.209276e+000 1.638809e+000 1.696714e+000 3.031671e+000 2.432935e+000 2.212855e+000 2.920640e+000 2.819468e+000 2.728200e+000 2.894673e+000 2.295499e+000 1.884442e+000 1.666095e+000
<GCONST> 1.034705e+002
<TRANSP> 5
 0.000000e+000 1.000000e+000 0.000000e+000 0.000000e+000 0.000000e+000
 0.000000e+000 7.649053e-001 2.350946e-001 0.000000e+000 0.000000e+000
 0.000000e+000 0.000000e+000 7.649063e-001 2.350937e-001 0.000000e+000
 0.000000e+000 0.000000e+000 0.000000e+000 8.991986e-001 1.008014e-001
 0.000000e+000 0.000000e+000 0.000000e+000 0.000000e+000 0.000000e+000
<ENDHMM>
~h "s"
<BEGINHMM>
<NUMSTATES> 5
<STATE> 2
<MEAN> 25
 -1.963595e+000 -2.879062e-004 -9.800499e-001 2.948448e-001 -4.551171e-001 -5.725327e-001 1.011253e+000 3.933736e-001 -2.074477e-001 8.763599e-002 4.070680e-001 6.186947e-001 4.649184e-002 -3.344872e-002 1.387792e-002 -4.310650e-002 2.004598e-002 -3.870585e-002 1.679363e-002 -2.955090e-002 -4.433388e-002 -3.171004e-002 -1.526804e-002 2.084766e-003 1.336629e-001
<VARIANCE> 25
 6.989783e+001 5.805383e+001 5.631927e+001 7.797321e+001 4.099715e+001 5.246838e+001 4.880561e+001 4.683288e+001 4.682969e+001 5.580041e+001 4.038059e+001 3.118824e+001 2.121523e+000 1.935799e+000 1.748328e+000 2.833269e+000 2.081961e+000 2.527937e+000 2.545509e+000 2.637594e+000 2.500393e+000 2.893399e+000 2.452035e+000 1.881916e+000 2.228727e+000
<GCONST> 1.039447e+002
<STATE> 3
<MEAN> 25
 -1.761546e+000 -1.438769e-001 -9.015193e-001 1.081981e-001 -3.974676e-001 -7.107835e-001 1.058302e+000 2.754809e-001 -3.832521e-001 -2.880924e-002 3.619834e-001 6.319115e-001 5.276266e-002 -3.538167e-002 1.865767e-002 -4.452984e-002 1.460543e-002 -3.185280e-002 9.872667e-003 -2.897683e-002 -4.138855e-002 -2.678479e-002 -1.219829e-002 1.850233e-003 1.056154e-001
<VARIANCE> 25
 6.948776e+001 5.984670e+001 5.733998e+001 7.912728e+001 4.186363e+001 5.152320e+001 4.896486e+001 4.698864e+001 4.710897e+001 5.661470e+001 4.058813e+001 3.188092e+001 2.097768e+000 1.962290e+000 1.776256e+000 2.876106e+000 2.118061e+000 2.503612e+000 2.578264e+000 2.633481e+000 2.528723e+000 2.929505e+000 2.467509e+000 1.888258e+000 2.057144e+000
<GCONST> 1.040639e+002
<STATE> 4
<MEAN> 25
 -1.121344e+000 -5.415902e-001 -5.595035e-001 -3.825481e-001 -5.119166e-001 -8.264900e-001 9.536436e-001 -1.923727e-002 -7.335561e-001 -2.621990e-001 3.152415e-001 7.459757e-001 5.380771e-002 -2.445086e-002 2.769837e-002 -3.802230e-002 2.303740e-003 -1.436098e-002 -7.227188e-003 -2.870986e-002 -2.997255e-002 -1.700837e-002 -5.335994e-003 -4.484689e-004 4.747524e-002
<VARIANCE> 25
 6.861005e+001 5.993741e+001 5.775629e+001 7.500056e+001 4.464955e+001 4.826946e+001 4.794741e+001 4.655146e+001 4.701605e+001 5.862628e+001 4.151935e+001 3.403801e+001 1.958768e+000 1.858627e+000 1.759357e+000 2.650745e+000 2.093927e+000 2.379303e+000 2.486256e+000 2.536415e+000 2.449191e+000 2.889422e+000 2.424000e+000 1.854062e+000 1.688061e+000
<GCONST> 1.034665e+002
<TRANSP> 5
 0.000000e+000 1.000000e+000 0.000000e+000 0.000000e+000 0.000000e+000
 0.000000e+000 7.720567e-001 2.279433e-001 0.000000e+000 0.000000e+000
 0.000000e+000 0.000000e+000 7.720570e-001 2.279430e-001 0.000000e+000
 0.000000e+000 0.000000e+000 0.000000e+000 9.080262e-001 9.197374e-002
 0.000000e+000 0.000000e+000 0.000000e+000 0.000000e+000 0.000000e+000
<ENDHMM>
~h "t"
<BEGINHMM>
<NUMSTATES> 5
<STATE> 2
<MEAN> 25
 1.138368e+000 1.093125e-001 -2.495986e-001 -3.251074e-001 -4.030984e-002 -2.747155e-001 -3.419621e-001 -1.979897e-001 -1.110405e-001 -4.521444e-002 1.531114e-002 -5.774792e-002 -1.906205e-002 6.772173e-003 1.215925e-002 1.588794e-002 2.863034e-004 1.487088e-003 1.121215e-002 1.096333e-002 -4.910371e-004 2.281840e-003 -1.814684e-003 -8.518154e-003 -7.907503e-003
<VARIANCE> 25
 4.923306e+001 5.733187e+001 4.939327e+001 7.121086e+001 4.461200e+001 4.638782e+001 5.540105e+001 4.574495e+001 4.019210e+001 5.081323e+001 4.320098e+001 3.148736e+001 1.543592e+000 1.936839e+000 2.063075e+000 3.369956e+000 2.368241e+000 2.790879e+000 2.737930e+000 2.796260e+000 2.744774e+000 2.905192e+000 2.384377e+000 1.952137e+000 2.945070e+000
<GCONST> 1.040203e+002
<STATE> 3
<MEAN> 25
 1.056890e+000 1.437010e-001 -2.044677e-001 -2.632702e-001 -3.150838e-002 -2.604398e-001 -3.005687e-001 -1.427085e-001 -9.976839e-002 -3.467580e-002 -1.803392e-003 -8.346014e-002 -2.006962e-002 8.081537e-003 1.268951e-002 1.364624e-002 2.479122e-003 3.616232e-003 1.382049e-002 1.055158e-002 -8.271842e-004 3.475428e-003 -1.767113e-003 -6.839140e-003 -1.344407e-002
<VARIANCE> 25
 4.882656e+001 5.683663e+001 4.967942e+001 7.156989e+001 4.361100e+001 4.667521e+001 5.534825e+001 4.486618e+001 3.954169e+001 5.082911e+001 4.315880e+001 3.110356e+001 1.531455e+000 1.922940e+000 2.069485e+000 3.386472e+000 2.348571e+000 2.815900e+000 2.732177e+000 2.785858e+000 2.737340e+000 2.921411e+000 2.381944e+000 1.946597e+000 2.872234e+000
<GCONST> 1.039096e+002
<STATE> 4
<MEAN> 25
 9.199473e-001 3.329454e-001 -1.128646e-001 -2.707068e-001 -2.305303e-003 -2.841208e-001 -2.091497e-001 -6.559933e-002 1.779789e-002 5.096139e-003 -3.339249e-002 -7.331096e-002 -2.069930e-002 8.282816e-003 7.911465e-003 1.055389e-002 6.193716e-003 6.811506e-003 1.355972e-002 1.137936e-002 4.102175e-003 4.047638e-003 -4.007623e-003 -1.687674e-003 -1.629980e-002
<VARIANCE> 25
 4.893779e+001 5.349780e+001 4.971124e+001 7.092241e+001 4.234369e+001 4.780645e+001 5.549222e+001 4.404046e+001 3.830113e+001 5.164400e+001 4.307046e+001 3.069903e+001 1.493352e+000 1.858089e+000 2.071588e+000 3.223662e+000 2.222302e+000 2.823666e+000 2.675392e+000 2.740170e+000 2.651314e+000 2.883404e+000 2.295974e+000 1.896528e+000 2.674455e+000
<GCONST> 1.034132e+002
<TRANSP> 5
 0.000000e+000 1.000000e+000 0.000000e+000 0.000000e+000 0.000000e+000
 0.000000e+000 7.668451e-001 2.331549e-001 0.000000e+000 0.000000e+000
 0.000000e+000 0.000000e+000 7.668442e-001 2.331558e-001 0.000000e+000
 0.000000e+000 0.000000e+000 0.000000e+000 9.011787e-001 9.882136e-002
 0.000000e+000 0.000000e+000 0.000000e+000 0.000000e+000 0.000000e+000
<ENDHMM>
~h "w"
<BEGINHMM>
<NUMSTATES> 5
<STATE> 2
<MEAN> 25
 2.552368e+000 -3.958482e-001 -9.290203e-001 -3.779758e+000 5.279613e-001 -6.681806e-001 -1.333806e-001 -1.368958e+000 -9.590102e-001 4.885190e-001 -1.626935e-002 -7.178154e-002 -9.404408e-003 -4.183178e-002 5.425607e-003 -4.178691e-003 3.496945e-002 5.853479e-003 3.868737e-002 2.037332e-002 1.446935e-002 -2.075046e-002 8.676205e-003 -1.125401e-002 3.379694e-002
<VARIANCE> 25
 3.670307e+001 5.787002e+001 5.446835e+001 8.017771e+001 4.644846e+001 4.651747e+001 6.110744e+001 3.269550e+001 4.240011e+001 5.480739e+001 4.786983e+001 2.780009e+001 8.125298e-001 1.919783e+000 1.641904e+000 2.320798e+000 2.143930e+000 2.066148e+000 2.575654e+000 1.988356e+000 2.372895e+000 2.756728e+000 2.864881e+000 1.879390e+000 1.485190e+000
<GCONST> 1.010737e+002
<STATE> 3
<MEAN> 25
 2.514693e+000 -5.801550e-001 -8.790733e-001 -3.775417e+000 6.645526e-001 -6.576481e-001 4.779411e-002 -1.287926e+000 -9.118545e-001 3.734933e-001 2.170609e-002 -1.242353e-001 -1.236949e-002 -4.369439e-002 1.324937e-002 4.152330e-003 3.675659e-002 5.187828e-003 4.417594e-002 2.066351e-002 1.376183e-002 -2.526034e-002 6.110912e-003 -1.226528e-002 3.437139e-002
<VARIANCE> 25
 3.579239e+001 5.902821e+001 5.414835e+001 7.907391e+001 4.625256e+001 4.668080e+001 6.148519e+001 3.302905e+001 4.239439e+001 5.665914e+001 4.812418e+001 2.818958e+001 8.201345e-001 1.896149e+000 1.639900e+000 2.391933e+000 2.108055e+000 2.090261e+000 2.566962e+000 2.016344e+000 2.386985e+000 2.790103e+000 2.888087e+000 1.901155e+000 1.521016e+000
<GCONST> 1.012091e+002
<STATE> 4
<MEAN> 25
 2.137832e+000 -6.902317e-001 -6.025535e-001 -3.345553e+000 5.818006e-001 -5.566922e-001 4.058200e-001 -1.004115e+000 -8.195000e-001 7.727319e-002 1.096555e-001 -2.219315e-001 -6.413887e-003 -3.131135e-002 2.743169e-002 1.052145e-002 2.532078e-002 -4.356761e-003 3.332870e-002 1.333921e-002 5.606596e-003 -3.458568e-002 3.571777e-003 -1.346729e-002 3.249946e-002
<VARIANCE> 25
 3.670407e+001 5.523473e+001 5.412827e+001 7.283131e+001 4.181149e+001 4.731386e+001 5.830641e+001 3.403892e+001 4.030199e+001 5.824612e+001 4.824018e+001 2.843588e+001 7.915220e-001 1.603762e+000 1.554672e+000 2.259388e+000 1.838417e+000 1.967170e+000 2.356771e+000 1.974308e+000 2.218153e+000 2.709615e+000 2.670195e+000 1.772836e+000 1.351741e+000
<GCONST> 9.997655e+001
<TRANSP> 5
 0.000000e+000 1.000000e+000 0.000000e+000 0.000000e+000 0.000000e+000
 0.000000e+000 7.717834e-001 2.282166e-001 0.000000e+000 0.000000e+000
 0.000000e+000 0.000000e+000 7.717832e-001 2.282168e-001 0.000000e+000
 0.000000e+000 0.000000e+000 0.000000e+000 9.073691e-001 9.263086e-002
 0.000000e+000 0.000000e+000 0.000000e+000 0.000000e+000 0.000000e+000
<ENDHMM>
~h "y"
<BEGINHMM>
<NUMSTATES> 5
<STATE> 2
<MEAN> 25
 5.824969e-001 -1.029504e+000 1.126261e+000 -1.504287e+000 -9.957881e-002 -5.381961e-001 4.458556e-001 -1.156274e+000 -9.001676e-001 -8.789295e-001 -7.131715e-001 1.684643e-001 2.943912e-002 -1.036419e-002 2.438972e-003 -1.501777e-002 6.022074e-003 -6.077416e-003 -1.301593e-002 -5.821547e-003 5.900695e-003 -2.553861e-002 -1.498367e-002 -1.413606e-002 2.121763e-003
<VARIANCE> 25
 4.899984e+001 6.091089e+001 7.284458e+001 9.616929e+001 6.425745e+001 5.097226e+001 5.670910e+001 4.982274e+001 4.825701e+001 5.447704e+001 3.949492e+001 3.031230e+001 1.149074e+000 1.928165e+000 2.281450e+000 2.677229e+000 2.629909e+000 2.104321e+000 3.018469e+000 2.673081e+000 2.270161e+000 2.988439e+000 2.095130e+000 1.841249e+000 1.569429e+000
<GCONST> 1.039246e+002
<STATE> 3
<MEAN> 25
 6.940625e-001 -1.067457e+000 1.121545e+000 -1.523160e+000 -3.263689e-002 -5.482269e-001 3.737627e-001 -1.160081e+000 -8.617586e-001 -9.862216e-001 -7.582805e-001 9.968424e-002 2.239185e-002 -3.358767e-003 -8.331845e-005 7.546856e-004 1.140854e-002 3.403955e-004 -1.774500e-002 2.963574e-003 1.135777e-002 -2.387802e-002 -7.201640e-003 -1.423473e-002 -1.530301e-002
<VARIANCE> 25
 4.795821e+001 6.045544e+001 7.155644e+001 9.607783e+001 6.494095e+001 5.055476e+001 5.738366e+001 4.968128e+001 4.810830e+001 5.416868e+001 3.914270e+001 3.046762e+001 1.115088e+000 1.898273e+000 2.275431e+000 2.664571e+000 2.628814e+000 2.095739e+000 3.018142e+000 2.671907e+000 2.271776e+000 2.974916e+000 2.082794e+000 1.842708e+000 1.533845e+000
<GCONST> 1.037856e+002
<STATE> 4
<MEAN> 25
 7.792023e-001 -1.210757e+000 1.080408e+000 -1.215535e+000 1.574757e-001 -6.134119e-001 1.363071e-001 -9.194069e-001 -7.643030e-001 -1.273675e+000 -6.683107e-001 -6.913529e-002 8.209998e-003 8.511934e-003 -3.849793e-003 2.305951e-002 2.574216e-002 8.140600e-003 -1.773621e-002 1.425645e-002 1.811928e-002 -1.300009e-002 6.155074e-003 -1.395398e-002 -3.290219e-002
<VARIANCE> 25
 4.674970e+001 5.584555e+001 6.663867e+001 8.635941e+001 6.492805e+001 4.964069e+001 5.532151e+001 4.604368e+001 4.614924e+001 5.381406e+001 3.934570e+001 3.078937e+001 1.034987e+000 1.743675e+000 2.134710e+000 2.438112e+000 2.459418e+000 2.011779e+000 2.845359e+000 2.502430e+000 2.147030e+000 2.799208e+000 2.011001e+000 1.751229e+000 1.333423e+000
<GCONST> 1.024519e+002
<TRANSP> 5
 0.000000e+000 1.000000e+000 0.000000e+000 0.000000e+000 0.000000e+000
 0.000000e+000 7.718339e-001 2.281661e-001 0.000000e+000 0.000000e+000
 0.000000e+000 0.000000e+000 7.718334e-001 2.281666e-001 0.000000e+000
 0.000000e+000 0.000000e+000 0.000000e+000 9.083226e-001 9.167736e-002
 0.000000e+000 0.000000e+000 0.000000e+000 0.000000e+000 0.000000e+000
<ENDHMM>
~h "aa"
<BEGINHMM>
<NUMSTATES> 5
<STATE> 2
<MEAN> 25
 8.043183e-001 -1.220835e+000 -6.052502e-004 -3.961445e-001 6.003165e-001 -3.787062e-001 3.114694e-001 -2.516411e-001 -5.939532e-001 -1.155175e+000 -4.792781e-001 1.235832e-001 1.318128e-002 7.293150e-003 1.672915e-002 8.474020e-003 6.350576e-003 5.523935e-004 -9.798654e-003 -4.639381e-003 -4.604321e-003 -1.147681e-002 3.238961e-003 -3.171002e-003 -5.191572e-003
<VARIANCE> 25
 5.137643e+001 6.087987e+001 5.521373e+001 7.563575e+001 4.995304e+001 4.622829e+001 5.483607e+001 4.717557e+001 4.445650e+001 5.351440e+001 4.174106e+001 3.108792e+001 1.377987e+000 1.934261e+000 1.889193e+000 2.755541e+000 2.319961e+000 2.307403e+000 2.706154e+000 2.704884e+000 2.429228e+000 2.799684e+000 2.285275e+000 1.841141e+000 1.911549e+000
<GCONST> 1.031781e+002
<STATE> 3
<MEAN> 25
 8.502072e-001 -1.175656e+000 7.620144e-002 -3.606252e-001 6.183354e-001 -3.689682e-001 2.681791e-001 -2.706209e-001 -6.041189e-001 -1.188499e+000 -4.589178e-001 1.065529e-001 9.132775e-003 1.210224e-002 1.742680e-002 9.645628e-003 2.755094e-003 2.736463e-003 -1.053701e-002 -3.788375e-003 -1.017199e-003 -5.510420e-003 5.981782e-003 -3.972298e-003 -1.447491e-002
<VARIANCE> 25
 5.045130e+001 6.068621e+001 5.479776e+001 7.569479e+001 4.990440e+001 4.586892e+001 5.485711e+001 4.704709e+001 4.422783e+001 5.314785e+001 4.165194e+001 3.123869e+001 1.352237e+000 1.910582e+000 1.880685e+000 2.734274e+000 2.313239e+000 2.295820e+000 2.695941e+000 2.690785e+000 2.421018e+000 2.791279e+000 2.281398e+000 1.838966e+000 1.869557e+000
<GCONST> 1.030376e+002
<STATE> 4
<MEAN> 25
 8.628672e-001 -1.041116e+000 1.950170e-001 -3.003443e-001 5.740294e-001 -3.625329e-001 1.382698e-001 -2.951402e-001 -5.759202e-001 -1.197775e+000 -3.761301e-001 6.341221e-002 -1.768834e-003 2.007673e-002 1.725142e-002 9.518036e-003 3.009835e-004 5.620665e-003 -9.229388e-003 3.520107e-004 6.869439e-003 6.269927e-003 9.004206e-003 -5.988001e-003 -2.569311e-002
<VARIANCE> 25
 4.990195e+001 5.670964e+001 5.289199e+001 7.093467e+001 4.926033e+001 4.472217e+001 5.353672e+001 4.566670e+001 4.290071e+001 5.254100e+001 4.162159e+001 3.154774e+001 1.279275e+000 1.770756e+000 1.797852e+000 2.515262e+000 2.188110e+000 2.229228e+000 2.567242e+000 2.572488e+000 2.316225e+000 2.680515e+000 2.219155e+000 1.784032e+000 1.656735e+000
<GCONST> 1.020307e+002
<TRANSP> 5
 0.000000e+000 1.000000e+000 0.000000e+000 0.000000e+000 0.000000e+000
 0.000000e+000 7.695085e-001 2.304915e-001 0.000000e+000 0.000000e+000
 0.000000e+000 0.000000e+000 7.695095e-001 2.304906e-001 0.000000e+000
 0.000000e+000 0.000000e+000 0.000000e+000 9.053025e-001 9.469754e-002
 0.000000e+000 0.000000e+000 0.000000e+000 0.000000e+000 0.000000e+000
<ENDHMM>
~h "ao"
<BEGINHMM>
<NUMSTATES> 5
<STATE> 2
<MEAN> 25
 2.052128e+000 -1.398453e+000 -2.417613e-004 -2.147681e+000 1.192242e+000 -1.071951e+000 7.445679e-001 -6.520018e-001 2.584420e-002 2.380857e-001 -8.538660e-001 -1.560248e+000 4.214533e-002 -5.825549e-002 -1.010403e-002 -3.717930e-002 -6.871481e-002 -9.861131e-003 4.978085e-002 1.615706e-002 -9.597775e-003 2.595586e-002 -2.709586e-003 -1.383010e-002 3.809143e-002
<VARIANCE> 25
 4.660480e+001 5.480129e+001 6.741215e+001 9.836697e+001 6.387663e+001 4.579866e+001 6.188166e+001 6.136287e+001 5.340998e+001 6.297036e+001 4.415198e+001 3.535509e+001 1.321929e+000 1.782511e+000 2.012574e+000 3.965916e+000 2.690053e+000 2.610398e+000 3.089159e+000 2.892150e+000 2.971611e+000 3.472620e+000 2.439220e+000 2.090815e+000 1.686740e+000
<GCONST> 1.058481e+002
<STATE> 3
<MEAN> 25
 2.223733e+000 -1.626535e+000 -4.787738e-002 -2.283580e+000 9.048295e-001 -1.114219e+000 9.494631e-001 -5.849921e-001 -3.234163e-002 3.411378e-001 -8.587540e-001 -1.610735e+000 4.130206e-002 -5.516740e-002 -1.701034e-003 -3.140865e-002 -7.513407e-002 -1.082912e-002 4.846750e-002 1.797336e-002 -1.550702e-002 2.191702e-002 -3.755720e-003 -1.102802e-002 3.074982e-002
<VARIANCE> 25
 4.637886e+001 5.521456e+001 6.603898e+001 9.670921e+001 6.611334e+001 4.621148e+001 6.307925e+001 6.341974e+001 5.366740e+001 6.239976e+001 4.421361e+001 3.533721e+001 1.305996e+000 1.766987e+000 1.993047e+000 3.954787e+000 2.719432e+000 2.592661e+000 3.156516e+000 2.961895e+000 3.012428e+000 3.450465e+000 2.447775e+000 2.085160e+000 1.667542e+000
<GCONST> 1.059179e+002
<STATE> 4
<MEAN> 25
 2.138238e+000 -1.561524e+000 7.191319e-002 -2.201894e+000 4.989155e-001 -1.031122e+000 1.105989e+000 -3.933392e-001 4.809660e-002 4.626548e-001 -7.171821e-001 -1.619962e+000 3.639437e-002 -3.735770e-002 -3.533954e-004 -1.500126e-002 -6.928310e-002 -7.737390e-003 3.400938e-002 1.377738e-002 -2.310468e-002 1.735561e-002 4.503088e-005 -6.460708e-003 1.051604e-002
<VARIANCE> 25
 4.925707e+001 5.306498e+001 6.387993e+001 9.390409e+001 6.793656e+001 4.745412e+001 6.349755e+001 6.706066e+001 5.273433e+001 5.988821e+001 4.437201e+001 3.523432e+001 1.282795e+000 1.651403e+000 1.910127e+000 3.686520e+000 2.618594e+000 2.508803e+000 3.073992e+000 2.950766e+000 2.924020e+000 3.251584e+000 2.382856e+000 2.025482e+000 1.603517e+000
<GCONST> 1.054505e+002
<TRANSP> 5
 0.000000e+000 1.000000e+000 0.000000e+000 0.000000e+000 0.000000e+000
 0.000000e+000 7.674238e-001 2.325762e-001 0.000000e+000 0.000000e+000
 0.000000e+000 0.000000e+000 7.674230e-001 2.325770e-001 0.000000e+000
 0.000000e+000 0.000000e+000 0.000000e+000 9.019930e-001 9.800702e-002
 0.000000e+000 0.000000e+000 0.000000e+000 0.000000e+000 0.000000e+000
<ENDHMM>
~h "eh"
<BEGINHMM>
<NUMSTATES> 5
<STATE> 2
<MEAN> 25
 -3.653396e-001 -5.821458e-001 -1.412380e+000 2.440552e-001 -1.190886e+000 -5.798375e-001 1.126398e+000 5.238507e-001 2.287650e-002 5.559057e-001 -5.195086e-002 -1.045026e-001 4.777320e-002 -1.381133e-002 -5.554072e-003 -2.441858e-002 1.623477e-002 -6.043855e-002 1.536666e-002 -2.124970e-002 -2.555313e-002 -3.335267e-002 -2.615525e-002 1.384485e-003 1.465476e-001
<VARIANCE> 25
 7.145229e+001 5.520185e+001 4.749550e+001 7.127356e+001 5.080886e+001 5.761765e+001 5.396432e+001 5.477765e+001 4.711119e+001 5.501903e+001 4.374018e+001 3.412450e+001 2.086658e+000 1.910415e+000 1.585630e+000 2.956094e+000 2.228091e+000 2.731334e+000 2.724744e+000 2.859707e+000 2.665278e+000 2.874420e+000 2.487375e+000 1.914985e+000 2.760998e+000
<GCONST> 1.048955e+002
<STATE> 3
<MEAN> 25
 -1.881558e-001 -6.523342e-001 -1.425188e+000 1.268324e-001 -1.119574e+000 -8.104010e-001 1.181036e+000 4.209377e-001 -1.011817e-001 3.919578e-001 -1.362467e-001 -9.188201e-002 3.540079e-002 -1.335702e-002 -6.240686e-003 -2.610091e-002 2.150185e-002 -5.137220e-002 1.012752e-002 -2.444895e-002 -2.829973e-002 -3.789142e-002 -1.867294e-002 6.303309e-003 1.286607e-001
<VARIANCE> 25
 6.976862e+001 5.686599e+001 4.778565e+001 7.009473e+001 5.073632e+001 5.791661e+001 5.442413e+001 5.503025e+001 4.696609e+001 5.552943e+001 4.396000e+001 3.452299e+001 2.137790e+000 1.981730e+000 1.607435e+000 3.000061e+000 2.260864e+000 2.757967e+000 2.749283e+000 2.905495e+000 2.690129e+000 2.889289e+000 2.531411e+000 1.935187e+000 2.696361e+000
<GCONST> 1.050876e+002
<STATE> 4
<MEAN> 25
 1.471988e-001 -8.500618e-001 -1.333544e+000 -2.306464e-001 -1.001532e+000 -1.065859e+000 1.112422e+000 1.285702e-001 -3.528502e-001 4.203472e-002 -1.244059e-001 3.792312e-002 2.081314e-002 -1.474968e-002 6.082895e-003 -2.357424e-002 2.595439e-002 -2.622169e-002 5.264882e-003 -2.446499e-002 -2.600647e-002 -3.526263e-002 -1.081326e-003 9.910291e-003 7.604516e-002
<VARIANCE> 25
 6.901456e+001 5.816536e+001 4.882971e+001 6.647141e+001 5.088238e+001 5.687994e+001 5.553918e+001 5.588929e+001 4.613504e+001 5.700771e+001 4.512656e+001 3.651685e+001 2.114815e+000 1.979125e+000 1.633693e+000 2.864330e+000 2.247677e+000 2.650753e+000 2.673367e+000 2.844408e+000 2.641813e+000 2.848837e+000 2.541790e+000 1.930847e+000 2.343102e+000
<GCONST> 1.048715e+002
<TRANSP> 5
 0.000000e+000 1.000000e+000 0.000000e+000 0.000000e+000 0.000000e+000
 0.000000e+000 7.697865e-001 2.302135e-001 0.000000e+000 0.000000e+000
 0.000000e+000 0.000000e+000 7.697874e-001 2.302126e-001 0.000000e+000
 0.000000e+000 0.000000e+000 0.000000e+000 9.044995e-001 9.550045e-002
 0.000000e+000 0.000000e+000 0.000000e+000 0.000000e+000 0.000000e+000
<ENDHMM>
~h "hh"
<BEGINHMM>
<NUMSTATES> 5
<STATE> 2
<MEAN> 25
 3.803942e-001 4.195575e-001 -8.155666e-002 -5.408868e-001 -8.213911e-002 -2.567421e-001 -1.089006e+000 -5.903319e-001 6.872439e-002 1.008220e+000 3.545510e-001 -1.954727e-002 4.481393e-003 -1.590852e-002 3.893156e-002 -2.667203e-002 1.245537e-002 9.946615e-003 1.766252e-002 3.316821e-003 -4.882839e-003 -1.817593e-002 -3.794217e-002 -7.893684e-003 3.806978e-002
<VARIANCE> 25
 4.112329e+001 3.063299e+001 3.479958e+001 5.573188e+001 4.555399e+001 4.750539e+001 3.938405e+001 3.639759e+001 4.078411e+001 4.120877e+001 3.814305e+001 2.846970e+001 1.150837e+000 1.480435e+000 1.294086e+000 2.505716e+000 2.360254e+000 2.465827e+000 2.100526e+000 2.454976e+000 2.547131e+000 2.465472e+000 2.070826e+000 1.780134e+000 1.162109e+000
<GCONST> 9.842350e+001
<STATE> 3
<MEAN> 25
 4.052119e-001 3.496110e-001 7.149334e-002 -6.587775e-001 -5.441836e-002 -2.154829e-001 -1.004233e+000 -5.725515e-001 3.604193e-002 9.310611e-001 1.893857e-001 -5.917628e-002 7.195923e-003 -2.028478e-002 3.423864e-002 -2.945676e-002 1.085187e-002 9.016812e-003 1.935910e-002 5.353718e-003 -4.873882e-003 -1.969198e-002 -3.695966e-002 -8.695883e-003 4.321813e-002
<VARIANCE> 25
 4.105495e+001 3.108559e+001 3.466646e+001 5.611301e+001 4.664331e+001 4.699326e+001 3.910181e+001 3.738980e+001 4.129737e+001 4.146955e+001 3.833266e+001 2.861634e+001 1.156815e+000 1.519189e+000 1.304283e+000 2.481469e+000 2.352380e+000 2.442039e+000 2.118494e+000 2.490018e+000 2.548919e+000 2.454752e+000 2.068814e+000 1.795539e+000 1.173561e+000
<GCONST> 9.855349e+001
<STATE> 4
<MEAN> 25
 4.602521e-001 6.219660e-002 1.523564e-001 -8.296513e-001 -2.692757e-001 -1.608317e-001 -7.659602e-001 -4.284838e-001 2.602963e-002 6.077058e-001 -1.407008e-001 -1.745673e-001 1.286590e-002 -2.125901e-002 2.084608e-002 -2.611104e-002 -6.424038e-004 4.696061e-003 1.777066e-002 6.897367e-003 -1.165019e-002 -2.226534e-002 -3.152554e-002 -7.702713e-003 4.139857e-002
<VARIANCE> 25
 4.554544e+001 3.202284e+001 3.358112e+001 5.287264e+001 5.058215e+001 4.439638e+001 4.000713e+001 3.962038e+001 4.316792e+001 4.385463e+001 3.901481e+001 2.844411e+001 1.166483e+000 1.496978e+000 1.270851e+000 2.290705e+000 2.266988e+000 2.303523e+000 2.123392e+000 2.456869e+000 2.450799e+000 2.421447e+000 2.081910e+000 1.781873e+000 1.081112e+000
<GCONST> 9.845746e+001
<TRANSP> 5
 0.000000e+000 1.000000e+000 0.000000e+000 0.000000e+000 0.000000e+000
 0.000000e+000 7.772225e-001 2.227775e-001 0.000000e+000 0.000000e+000
 0.000000e+000 0.000000e+000 7.772222e-001 2.227779e-001 0.000000e+000
 0.000000e+000 0.000000e+000 0.000000e+000 9.129142e-001 8.708587e-002
 0.000000e+000 0.000000e+000 0.000000e+000 0.000000e+000 0.000000e+000
<ENDHMM>
~h "ih"
<BEGINHMM>
<NUMSTATES> 5
<STATE> 2
<MEAN> 25
 -2.675593e-001 1.124139e+000 2.088657e+000 -4.825546e-001 -4.671858e-001 1.241936e-001 -7.895480e-001 -3.966344e-001 1.144643e-001 1.509490e-001 -3.848298e-001 1.533760e-001 8.130393e-003 -1.602400e-002 -2.732077e-002 3.363634e-003 1.616626e-002 1.408565e-002 1.194765e-002 2.050636e-003 9.690278e-003 4.103495e-004 -5.975982e-003 1.609770e-003 -2.685996e-004
<VARIANCE> 25
 4.431424e+001 4.998252e+001 7.160373e+001 1.058561e+002 4.919624e+001 4.771285e+001 5.487674e+001 5.036115e+001 4.281230e+001 4.946267e+001 3.664182e+001 3.063065e+001 1.134531e+000 1.617597e+000 2.237070e+000 3.316776e+000 2.246387e+000 2.300903e+000 2.677647e+000 2.556611e+000 2.411231e+000 2.798442e+000 2.168950e+000 1.839678e+000 1.626395e+000
<GCONST> 1.029067e+002
<STATE> 3
<MEAN> 25
 -2.356604e-001 1.053357e+000 1.963964e+000 -4.581125e-001 -3.939718e-001 1.847838e-001 -7.374102e-001 -3.830518e-001 1.566518e-001 1.553906e-001 -4.047965e-001 1.576190e-001 8.886905e-003 -1.772928e-002 -3.252895e-002 4.679947e-003 1.731513e-002 1.375076e-002 1.314401e-002 3.608036e-003 9.162723e-003 -1.886863e-003 -4.446294e-003 -4.656363e-005 4.836821e-004
<VARIANCE> 25
 4.390239e+001 4.951772e+001 7.153372e+001 1.047707e+002 4.937126e+001 4.764223e+001 5.474926e+001 5.035336e+001 4.278684e+001 4.934113e+001 3.651226e+001 3.065407e+001 1.118030e+000 1.612275e+000 2.222051e+000 3.281957e+000 2.243967e+000 2.289466e+000 2.666253e+000 2.544356e+000 2.390940e+000 2.781679e+000 2.150560e+000 1.840700e+000 1.612565e+000
<GCONST> 1.027891e+002
<STATE> 4
<MEAN> 25
 -1.446045e-001 9.445330e-001 1.857383e+000 -3.862962e-001 -2.149687e-001 2.395142e-001 -6.565685e-001 -3.620215e-001 1.560875e-001 1.473525e-001 -4.737742e-001 6.434323e-002 5.806543e-003 -1.892681e-002 -3.679210e-002 9.937515e-003 1.776094e-002 1.307390e-002 1.485324e-002 6.620803e-003 8.421077e-003 -1.932611e-003 -1.622868e-003 -9.117172e-004 -3.642858e-003
<VARIANCE> 25
 4.246438e+001 4.753157e+001 7.175274e+001 9.948727e+001 5.112962e+001 4.807597e+001 5.472773e+001 4.972209e+001 4.142217e+001 4.958961e+001 3.682139e+001 3.125310e+001 1.087544e+000 1.551808e+000 2.135190e+000 3.074583e+000 2.179030e+000 2.283861e+000 2.578482e+000 2.468437e+000 2.284365e+000 2.672068e+000 2.096194e+000 1.799324e+000 1.516910e+000
<GCONST> 1.022358e+002
<TRANSP> 5
 0.000000e+000 1.000000e+000 0.000000e+000 0.000000e+000 0.000000e+000
 0.000000e+000 7.665989e-001 2.334012e-001 0.000000e+000 0.000000e+000
 0.000000e+000 0.000000e+000 7.666000e-001 2.334000e-001 0.000000e+000
 0.000000e+000 0.000000e+000 0.000000e+000 9.011676e-001 9.883234e-002
 0.000000e+000 0.000000e+000 0.000000e+000 0.000000e+000 0.000000e+000
<ENDHMM>
~h "ng"
<BEGINHMM>
<NUMSTATES> 5
<STATE> 2
<MEAN> 25
 1.876295e+000 -5.977120e-001 5.617999e-001 -8.048707e-001 -9.123368e-002 -5.396627e-001 4.875053e-001 -3.882680e-001 -5.326753e-001 -2.220638e-001 -6.019345e-001 -9.983042e-001 -2.249045e-002 4.254733e-002 -1.616884e-002 5.873861e-002 1.391684e-002 7.575869e-003 -2.552982e-002 3.682132e-003 -3.977656e-003 4.905296e-003 2.125458e-002 2.421560e-002 -7.951491e-002
<VARIANCE> 25
 5.119311e+001 5.860859e+001 5.940417e+001 9.208543e+001 5.938049e+001 5.300372e+001 6.541267e+001 6.846828e+001 5.102008e+001 5.299799e+001 4.616967e+001 3.696117e+001 1.262257e+000 1.705164e+000 1.957428e+000 3.288023e+000 2.475583e+000 2.367205e+000 3.143340e+000 3.036457e+000 2.894245e+000 2.936852e+000 2.451239e+000 1.893645e+000 1.844978e+000
<GCONST> 1.053068e+002
<STATE> 3
<MEAN> 25
 1.768548e+000 -4.107526e-001 4.977947e-001 -5.752264e-001 -2.063688e-002 -5.021544e-001 3.867424e-001 -3.672030e-001 -5.390892e-001 -1.810176e-001 -5.031267e-001 -8.904772e-001 -2.456482e-002 4.453145e-002 -1.673235e-002 5.542228e-002 1.757085e-002 1.083598e-002 -3.049040e-002 3.227437e-003 -1.162331e-003 1.020424e-002 2.616356e-002 2.559338e-002 -7.835826e-002
<VARIANCE> 25
 5.102969e+001 5.812618e+001 5.857570e+001 9.045710e+001 5.759882e+001 5.251686e+001 6.476091e+001 6.659904e+001 4.960735e+001 5.253741e+001 4.640344e+001 3.695635e+001 1.282946e+000 1.699167e+000 1.940001e+000 3.226275e+000 2.427920e+000 2.360293e+000 3.095445e+000 2.971718e+000 2.872078e+000 2.884750e+000 2.459269e+000 1.892113e+000 1.885993e+000
<GCONST> 1.050786e+002
<STATE> 4
<MEAN> 25
 1.560186e+000 -2.083660e-002 4.825667e-001 -3.363511e-001 7.188318e-002 -4.803578e-001 1.669368e-001 -3.417227e-001 -4.712870e-001 6.981039e-004 -2.443107e-001 -8.684293e-001 -2.998541e-002 4.374284e-002 -1.146418e-002 4.508672e-002 2.147521e-002 1.554956e-002 -2.694899e-002 7.934432e-003 6.486435e-003 1.726403e-002 2.679287e-002 2.569255e-002 -6.966691e-002
<VARIANCE> 25
 5.236481e+001 5.425072e+001 5.757673e+001 8.749307e+001 5.720039e+001 5.300975e+001 6.276313e+001 6.399632e+001 4.656524e+001 5.195707e+001 4.655815e+001 3.706575e+001 1.289728e+000 1.616307e+000 1.893853e+000 3.091414e+000 2.326637e+000 2.335962e+000 2.955116e+000 2.809923e+000 2.752164e+000 2.765771e+000 2.388819e+000 1.848323e+000 1.872592e+000
<GCONST> 1.044368e+002
<TRANSP> 5
 0.000000e+000 1.000000e+000 0.000000e+000 0.000000e+000 0.000000e+000
 0.000000e+000 7.651811e-001 2.348189e-001 0.000000e+000 0.000000e+000
 0.000000e+000 0.000000e+000 7.651812e-001 2.348188e-001 0.000000e+000
 0.000000e+000 0.000000e+000 0.000000e+000 8.990932e-001 1.009068e-001
 0.000000e+000 0.000000e+000 0.000000e+000 0.000000e+000 0.000000e+000
<ENDHMM>
~h "oh"
<BEGINHMM>
<NUMSTATES> 5
<STATE> 2
<MEAN> 25
 1.292055e-008 1.831648e-008 -6.299361e-008 6.397928e-009 6.513714e-008 4.146926e-008 -2.503356e-008 -3.737221e-008 4.785829e-009 -8.260601e-008 4.838081e-008 -2.966501e-008 7.700191e-003 5.403126e-003 9.986212e-003 -4.435305e-003 5.198286e-003 1.178548e-003 5.735684e-003 -2.200497e-003 -9.225003e-004 -6.409926e-004 -2.520854e-003 -2.406914e-003 2.725629e-002
<VARIANCE> 25
 4.587285e+001 1.030148e+002 6.019880e+001 7.829473e+001 5.465159e+001 4.961901e+001 6.176896e+001 4.825900e+001 4.880714e+001 4.872197e+001 3.755544e+001 3.288158e+001 1.069084e+000 2.243620e+000 1.931021e+000 2.910384e+000 2.554792e+000 2.477852e+000 2.995093e+000 2.747025e+000 2.618064e+000 2.724945e+000 2.375594e+000 2.010036e+000 1.498881e+000
<GCONST> 1.041510e+002
<STATE> 3
<MEAN> 25
 1.292055e-008 1.831648e-008 -6.299361e-008 6.397928e-009 6.513714e-008 4.146926e-008 -2.503356e-008 -3.737221e-008 4.785829e-009 -8.260601e-008 4.838081e-008 -2.966501e-008 7.700191e-003 5.403126e-003 9.986212e-003 -4.435305e-003 5.198286e-003 1.178548e-003 5.735684e-003 -2.200497e-003 -9.225003e-004 -6.409926e-004 -2.520854e-003 -2.406914e-003 2.725629e-002
<VARIANCE> 25
 4.587285e+001 1.030148e+002 6.019880e+001 7.829473e+001 5.465159e+001 4.961901e+001 6.176896e+001 4.825900e+001 4.880714e+001 4.872197e+001 3.755544e+001 3.288158e+001 1.069084e+000 2.243620e+000 1.931021e+000 2.910384e+000 2.554792e+000 2.477852e+000 2.995093e+000 2.747025e+000 2.618064e+000 2.724945e+000 2.375594e+000 2.010036e+000 1.498881e+000
<GCONST> 1.041510e+002
<STATE> 4
<MEAN> 25
 1.292055e-008 1.831648e-008 -6.299361e-008 6.397928e-009 6.513714e-008 4.146926e-008 -2.503356e-008 -3.737221e-008 4.785829e-009 -8.260601e-008 4.838081e-008 -2.966501e-008 7.700191e-003 5.403126e-003 9.986212e-003 -4.435305e-003 5.198286e-003 1.178548e-003 5.735684e-003 -2.200497e-003 -9.225003e-004 -6.409926e-004 -2.520854e-003 -2.406914e-003 2.725629e-002
<VARIANCE> 25
 4.587285e+001 1.030148e+002 6.019880e+001 7.829473e+001 5.465159e+001 4.961901e+001 6.176896e+001 4.825900e+001 4.880714e+001 4.872197e+001 3.755544e+001 3.288158e+001 1.069084e+000 2.243620e+000 1.931021e+000 2.910384e+000 2.554792e+000 2.477852e+000 2.995093e+000 2.747025e+000 2.618064e+000 2.724945e+000 2.375594e+000 2.010036e+000 1.498881e+000
<GCONST> 1.041510e+002
<TRANSP> 5
 0.000000e+000 1.000000e+000 0.000000e+000 0.000000e+000 0.000000e+000
 0.000000e+000 6.000000e-001 4.000000e-001 0.000000e+000 0.000000e+000
 0.000000e+000 0.000000e+000 6.000000e-001 4.000000e-001 0.000000e+000
 0.000000e+000 0.000000e+000 0.000000e+000 7.000000e-001 3.000000e-001
 0.000000e+000 0.000000e+000 0.000000e+000 0.000000e+000 0.000000e+000
<ENDHMM>
~h "uw"
<BEGINHMM>
<NUMSTATES> 5
<STATE> 2
<MEAN> 25
 1.530029e+000 9.184372e-001 -6.213308e-001 -1.049158e+000 3.213334e-001 -8.566328e-001 -1.128897e+000 -1.044672e+000 -1.636806e-001 6.347014e-001 5.751942e-001 -4.816873e-001 2.341689e-003 3.290098e-003 7.664184e-003 -5.039240e-003 1.070839e-002 8.456170e-004 1.484000e-003 2.403389e-003 4.392106e-003 1.224033e-002 -1.727348e-003 -1.086026e-003 8.812057e-003
<VARIANCE> 25
 5.020699e+001 4.313132e+001 4.887440e+001 7.574981e+001 4.523625e+001 5.222769e+001 5.297299e+001 4.557235e+001 4.004092e+001 4.479755e+001 4.095954e+001 3.148584e+001 1.547544e+000 1.647822e+000 1.858949e+000 3.392015e+000 2.348103e+000 2.800750e+000 2.594457e+000 2.724216e+000 2.810034e+000 2.735898e+000 2.330462e+000 1.960237e+000 2.270769e+000
<GCONST> 1.030503e+002
<STATE> 3
<MEAN> 25
 1.522337e+000 9.320846e-001 -5.877245e-001 -1.060352e+000 3.564342e-001 -8.431771e-001 -1.113897e+000 -1.024804e+000 -1.367996e-001 6.838923e-001 5.629309e-001 -4.777254e-001 -6.898460e-005 4.634384e-004 9.545933e-003 -2.886651e-003 1.082589e-002 3.011090e-003 4.260750e-003 4.858711e-003 5.913942e-003 1.094387e-002 -3.602353e-003 9.367720e-004 7.979030e-003
<VARIANCE> 25
 4.951384e+001 4.302992e+001 4.898172e+001 7.599413e+001 4.489172e+001 5.223571e+001 5.244695e+001 4.496357e+001 3.977608e+001 4.504407e+001 4.081059e+001 3.126643e+001 1.533796e+000 1.657996e+000 1.874147e+000 3.409055e+000 2.342474e+000 2.801922e+000 2.587642e+000 2.720692e+000 2.811401e+000 2.750946e+000 2.321944e+000 1.962738e+000 2.257061e+000
<GCONST> 1.029988e+002
<STATE> 4
<MEAN> 25
 1.379491e+000 9.594652e-001 -4.966178e-001 -1.043193e+000 3.672147e-001 -8.151165e-001 -1.016526e+000 -8.867701e-001 1.609057e-002 7.093491e-001 5.415701e-001 -4.597680e-001 -6.456283e-003 -1.629851e-003 1.132166e-002 2.568046e-003 5.719718e-003 7.814968e-003 7.641686e-003 8.468751e-003 6.640648e-003 4.134173e-003 -7.306344e-003 3.715753e-003 1.227137e-003
<VARIANCE> 25
 5.015781e+001 4.097242e+001 4.814304e+001 7.226839e+001 4.412792e+001 5.200669e+001 5.189418e+001 4.456576e+001 3.887475e+001 4.507427e+001 4.037375e+001 3.076257e+001 1.458091e+000 1.574616e+000 1.842941e+000 3.193047e+000 2.207253e+000 2.687798e+000 2.499956e+000 2.658436e+000 2.684173e+000 2.674698e+000 2.223683e+000 1.891731e+000 2.047151e+000
<GCONST> 1.022096e+002
<TRANSP> 5
 0.000000e+000 1.000000e+000 0.000000e+000 0.000000e+000 0.000000e+000
 0.000000e+000 7.701271e-001 2.298730e-001 0.000000e+000 0.000000e+000
 0.000000e+000 0.000000e+000 7.701302e-001 2.298698e-001 0.000000e+000
 0.000000e+000 0.000000e+000 0.000000e+000 9.049540e-001 9.504605e-002
 0.000000e+000 0.000000e+000 0.000000e+000 0.000000e+000 0.000000e+000
<ENDHMM>
~h "sil"
<BEGINHMM>
<NUMSTATES> 5
<STATE> 2
<MEAN> 25
 -7.671192e+000 3.498326e+000 -2.658563e+000 6.223988e+000 -2.229412e+000 5.085727e+000 -1.196641e-001 4.195874e+000 3.390425e+000 4.040543e+000 3.198800e+000 1.058406e+000 -1.282775e-001 4.778078e-003 -4.448561e-002 -4.351758e-002 7.024895e-002 1.184250e-001 -4.306453e-002 -9.166294e-002 5.058115e-002 1.462910e-001 8.370459e-002 -1.487162e-001 3.235330e-001
<VARIANCE> 25
 8.222140e+001 1.941338e+001 3.237280e+001 2.748280e+001 3.483440e+001 2.042565e+001 2.931780e+001 3.211644e+001 3.246819e+001 2.317555e+001 2.842849e+001 1.686145e+001 6.836481e-001 3.180762e-001 4.793138e-001 5.331613e-001 6.777220e-001 8.739802e-001 9.791964e-001 1.243084e+000 1.167726e+000 1.378510e+000 1.076509e+000 1.306221e+000 3.031502e+000
<GCONST> 8.503265e+001
<STATE> 3
<MEAN> 25
 -8.161069e+000 3.448202e+000 -2.794648e+000 6.087875e+000 -1.950148e+000 5.282770e+000 -7.798768e-002 4.063618e+000 3.507320e+000 4.010851e+000 3.172384e+000 1.091184e+000 -8.032138e-002 -4.773993e-003 -1.029707e-002 -2.825086e-002 6.676580e-002 3.185517e-002 3.136541e-002 -1.053781e-002 1.663079e-002 -4.163462e-002 -3.176489e-002 2.773976e-002 4.995613e-001
<VARIANCE> 25
 6.951197e+001 1.805270e+001 3.384892e+001 2.684648e+001 3.363332e+001 1.950776e+001 3.072012e+001 3.271546e+001 3.444437e+001 2.340983e+001 2.832644e+001 1.543317e+001 1.062419e+000 3.701152e-001 5.657209e-001 5.973886e-001 7.508476e-001 8.909877e-001 1.015061e+000 1.256337e+000 1.257214e+000 1.337739e+000 1.126080e+000 1.114994e+000 4.351997e+000
<GCONST> 8.610671e+001
<STATE> 4
<MEAN> 25
 -6.819745e+000 2.558958e+000 -2.476675e+000 5.211619e+000 -1.113028e+000 4.582408e+000 5.110475e-001 3.317585e+000 2.807381e+000 3.500238e+000 2.342376e+000 1.291465e+000 9.404296e-002 -4.470655e-002 4.896093e-002 -3.238389e-002 7.244920e-002 -3.503478e-002 3.992534e-002 -2.581911e-002 -2.722762e-002 -3.855406e-002 -4.293664e-002 2.865714e-002 3.615178e-001
<VARIANCE> 25
 5.698314e+001 1.864804e+001 3.205848e+001 2.842611e+001 3.168097e+001 2.267312e+001 3.263766e+001 3.298039e+001 3.228114e+001 2.532708e+001 2.746372e+001 1.710234e+001 1.099928e+000 5.297373e-001 7.115195e-001 8.606824e-001 9.708337e-001 1.142481e+000 1.245856e+000 1.397156e+000 1.436087e+000 1.453429e+000 1.293708e+000 1.187271e+000 2.828919e+000
<GCONST> 8.797927e+001
<TRANSP> 5
 0.000000e+000 1.000000e+000 0.000000e+000 0.000000e+000 0.000000e+000
 0.000000e+000 7.700818e-001 2.299182e-001 0.000000e+000 0.000000e+000
 0.000000e+000 0.000000e+000 7.700810e-001 2.299189e-001 0.000000e+000
 0.000000e+000 0.000000e+000 0.000000e+000 9.050082e-001 9.499177e-002
 0.000000e+000 0.000000e+000 0.000000e+000 0.000000e+000 0.000000e+000
<ENDHMM>
