~o
<STREAMINFO> 1 25
<VECSIZE> 25<NULLD><MFCC_D_N_Z_0><DIAGC>
~h "b"
<BEGINHMM>
<NUMSTATES> 5
<STATE> 2
<MEAN> 25
 6.753902e-001 2.966340e-001 8.274904e-001 -1.169907e+000 -1.773134e+000 -1.315474e+000 -8.765370e-001 -5.196595e-001 2.291752e-001 5.048643e-001 -1.903433e-002 -1.220157e-001 2.697656e-002 -6.973586e-003 -8.723497e-003 2.403415e-002 3.940022e-002 6.109648e-003 -2.962358e-003 -2.499896e-004 -2.066494e-002 -3.184732e-002 -1.837501e-003 3.853183e-003 1.624150e-002
<VARIANCE> 25
 3.793071e+001 3.607404e+001 5.326218e+001 6.465326e+001 5.730226e+001 4.103997e+001 4.325406e+001 4.761135e+001 4.194240e+001 4.600345e+001 3.689870e+001 2.539258e+001 1.053987e+000 1.395733e+000 2.553564e+000 2.968879e+000 2.733808e+000 2.231755e+000 2.493374e+000 2.856669e+000 2.663057e+000 3.089370e+000 2.388601e+000 1.979413e+000 1.442259e+000
<GCONST> 1.013238e+002
<STATE> 3
<MEAN> 25
 7.620421e-001 2.750273e-001 7.820901e-001 -1.064756e+000 -1.621955e+000 -1.305230e+000 -8.981283e-001 -5.363291e-001 1.530530e-001 3.832743e-001 -2.880267e-002 -1.133526e-001 1.586902e-002 -1.834027e-003 -1.097224e-002 3.409477e-002 4.261279e-002 1.060125e-002 -1.738183e-003 1.473544e-003 -1.949384e-002 -3.104500e-002 -1.452661e-003 4.373118e-003 -1.860798e-003
<VARIANCE> 25
 3.659140e+001 3.624490e+001 5.128357e+001 6.538741e+001 5.572221e+001 4.059985e+001 4.322768e+001 4.755465e+001 4.123914e+001 4.614813e+001 3.718328e+001 2.542786e+001 9.762201e-001 1.390228e+000 2.440880e+000 2.934278e+000 2.704397e+000 2.231410e+000 2.457380e+000 2.851389e+000 2.643148e+000 3.056010e+000 2.417624e+000 1.977782e+000 1.265128e+000
<GCONST> 1.009178e+002
<STATE> 4
<MEAN> 25
 6.693541e-001 1.151110e-001 6.807636e-001 -5.744858e-001 -1.334316e+000 -1.220949e+000 -8.643528e-001 -4.461839e-001 5.115289e-002 1.909324e-001 -1.804361e-001 -2.156624e-001 3.553744e-003 2.821082e-003 -1.444625e-002 3.720951e-002 3.543233e-002 7.812439e-003 1.587353e-003 1.457892e-003 -5.878951e-003 -2.358095e-002 -6.700585e-003 8.064204e-003 -1.570136e-002
<VARIANCE> 25
 3.836317e+001 3.534657e+001 4.854477e+001 6.020410e+001 5.447253e+001 3.899051e+001 4.584376e+001 4.639979e+001 3.999218e+001 4.731509e+001 3.751353e+001 2.552695e+001 8.906284e-001 1.379974e+000 2.198525e+000 2.706085e+000 2.604266e+000 2.253814e+000 2.372004e+000 2.736392e+000 2.506979e+000 2.924325e+000 2.350033e+000 1.912208e+000 9.578699e-001
<GCONST> 9.995441e+001
<TRANSP> 5
 0.000000e+000 1.000000e+000 0.000000e+000 0.000000e+000 0.000000e+000
 0.000000e+000 7.562706e-001 2.437294e-001 0.000000e+000 0.000000e+000
 0.000000e+000 0.000000e+000 7.562706e-001 2.437294e-001 0.000000e+000
 0.000000e+000 0.000000e+000 0.000000e+000 8.929415e-001 1.070585e-001
 0.000000e+000 0.000000e+000 0.000000e+000 0.000000e+000 0.000000e+000
<ENDHMM>
~h "c"
<BEGINHMM>
<NUMSTATES> 5
<STATE> 2
<MEAN> 25
 1.292055e-008 1.831648e-008 -6.299361e-008 6.397928e-009 6.513714e-008 4.146926e-008 -2.503356e-008 -3.737221e-008 4.785829e-009 -8.260601e-008 4.838081e-008 -2.966501e-008 7.700191e-003 5.403126e-003 9.986212e-003 -4.435305e-003 5.198286e-003 1.178548e-003 5.735684e-003 -2.200497e-003 -9.225003e-004 -6.409926e-004 -2.520854e-003 -2.406914e-003 2.725629e-002
<VARIANCE> 25
 4.587285e+001 1.030148e+002 6.019880e+001 7.829473e+001 5.465159e+001 4.961901e+001 6.176896e+001 4.825900e+001 4.880714e+001 4.872197e+001 3.755544e+001 3.288158e+001 1.069084e+000 2.243620e+000 1.931021e+000 2.910384e+000 2.554792e+000 2.477852e+000 2.995093e+000 2.747025e+000 2.618064e+000 2.724945e+000 2.375594e+000 2.010036e+000 1.498881e+000
<GCONST> 1.041510e+002
<STATE> 3
<MEAN> 25
 1.292055e-008 1.831648e-008 -6.299361e-008 6.397928e-009 6.513714e-008 4.146926e-008 -2.503356e-008 -3.737221e-008 4.785829e-009 -8.260601e-008 4.838081e-008 -2.966501e-008 7.700191e-003 5.403126e-003 9.986212e-003 -4.435305e-003 5.198286e-003 1.178548e-003 5.735684e-003 -2.200497e-003 -9.225003e-004 -6.409926e-004 -2.520854e-003 -2.406914e-003 2.725629e-002
<VARIANCE> 25
 4.587285e+001 1.030148e+002 6.019880e+001 7.829473e+001 5.465159e+001 4.961901e+001 6.176896e+001 4.825900e+001 4.880714e+001 4.872197e+001 3.755544e+001 3.288158e+001 1.069084e+000 2.243620e+000 1.931021e+000 2.910384e+000 2.554792e+000 2.477852e+000 2.995093e+000 2.747025e+000 2.618064e+000 2.724945e+000 2.375594e+000 2.010036e+000 1.498881e+000
<GCONST> 1.041510e+002
<STATE> 4
<MEAN> 25
 1.292055e-008 1.831648e-008 -6.299361e-008 6.397928e-009 6.513714e-008 4.146926e-008 -2.503356e-008 -3.737221e-008 4.785829e-009 -8.260601e-008 4.838081e-008 -2.966501e-008 7.700191e-003 5.403126e-003 9.986212e-003 -4.435305e-003 5.198286e-003 1.178548e-003 5.735684e-003 -2.200497e-003 -9.225003e-004 -6.409926e-004 -2.520854e-003 -2.406914e-003 2.725629e-002
<VARIANCE> 25
 4.587285e+001 1.030148e+002 6.019880e+001 7.829473e+001 5.465159e+001 4.961901e+001 6.176896e+001 4.825900e+001 4.880714e+001 4.872197e+001 3.755544e+001 3.288158e+001 1.069084e+000 2.243620e+000 1.931021e+000 2.910384e+000 2.554792e+000 2.477852e+000 2.995093e+000 2.747025e+000 2.618064e+000 2.724945e+000 2.375594e+000 2.010036e+000 1.498881e+000
<GCONST> 1.041510e+002
<TRANSP> 5
 0.000000e+000 1.000000e+000 0.000000e+000 0.000000e+000 0.000000e+000
 0.000000e+000 6.000000e-001 4.000000e-001 0.000000e+000 0.000000e+000
 0.000000e+000 0.000000e+000 6.000000e-001 4.000000e-001 0.000000e+000
 0.000000e+000 0.000000e+000 0.000000e+000 7.000000e-001 3.000000e-001
 0.000000e+000 0.000000e+000 0.000000e+000 0.000000e+000 0.000000e+000
<ENDHMM>
~h "d"
<BEGINHMM>
<NUMSTATES> 5
<STATE> 2
<MEAN> 25
 9.644898e-001 -1.419683e-001 8.464447e-001 -9.275398e-001 4.201385e-001 -5.288532e-001 -3.402720e-001 -6.646406e-001 -4.256170e-001 2.750061e-001 -1.435492e-001 -1.644951e-001 5.714885e-002 -3.940805e-002 4.695278e-002 -6.145952e-002 -5.067463e-003 -2.362182e-002 3.224881e-002 -2.852150e-002 -2.020115e-002 -1.425473e-003 -2.441631e-002 1.182773e-002 1.442593e-001
<VARIANCE> 25
 3.058703e+001 3.978366e+001 5.448141e+001 8.048022e+001 4.797929e+001 3.611492e+001 4.969353e+001 3.631868e+001 3.604174e+001 4.275020e+001 3.543816e+001 2.271102e+001 1.077930e+000 1.726038e+000 2.244577e+000 3.122930e+000 2.516861e+000 2.070798e+000 2.877140e+000 2.498984e+000 2.591149e+000 3.039834e+000 2.230956e+000 1.797944e+000 2.285540e+000
<GCONST> 1.008946e+002
<STATE> 3
<MEAN> 25
 1.141630e+000 -3.146257e-001 9.798708e-001 -1.186511e+000 3.738338e-001 -6.244960e-001 -2.022763e-001 -7.624784e-001 -4.803642e-001 2.749367e-001 -2.340544e-001 -1.085961e-001 4.215780e-002 -4.389883e-002 2.587212e-002 -6.610105e-002 -1.041710e-002 -2.418369e-002 3.377405e-002 -2.212141e-002 -1.125226e-002 -3.366381e-003 -2.280603e-002 1.277196e-002 1.191821e-001
<VARIANCE> 25
 2.723803e+001 4.035202e+001 5.433161e+001 8.111597e+001 4.915208e+001 3.597212e+001 5.105183e+001 3.602839e+001 3.616508e+001 4.375551e+001 3.593934e+001 2.285553e+001 9.701321e-001 1.757243e+000 2.294988e+000 3.162089e+000 2.593740e+000 2.080505e+000 2.948413e+000 2.530147e+000 2.623767e+000 3.111079e+000 2.254577e+000 1.809698e+000 1.993503e+000
<GCONST> 1.008190e+002
<STATE> 4
<MEAN> 25
 1.181459e+000 -4.650912e-001 7.892669e-001 -1.426968e+000 3.575774e-001 -6.677446e-001 4.704553e-002 -6.572658e-001 -4.289374e-001 2.111019e-001 -2.858159e-001 -1.239758e-001 2.260343e-002 -4.197738e-002 -5.442869e-003 -4.306613e-002 -1.211752e-002 -1.191835e-002 2.800843e-002 -1.320108e-003 -2.033403e-005 -1.283587e-002 -1.549694e-002 8.574614e-003 6.072932e-002
<VARIANCE> 25
 2.805686e+001 4.016186e+001 5.251058e+001 7.688982e+001 5.004756e+001 3.656183e+001 5.249126e+001 3.588907e+001 3.639446e+001 4.427299e+001 3.673117e+001 2.287532e+001 8.040296e-001 1.710885e+000 2.227153e+000 2.956274e+000 2.546548e+000 2.049983e+000 2.896832e+000 2.489035e+000 2.560812e+000 3.023358e+000 2.208093e+000 1.769675e+000 1.473552e+000
<GCONST> 1.000779e+002
<TRANSP> 5
 0.000000e+000 1.000000e+000 0.000000e+000 0.000000e+000 0.000000e+000
 0.000000e+000 7.564232e-001 2.435768e-001 0.000000e+000 0.000000e+000
 0.000000e+000 0.000000e+000 7.564231e-001 2.435770e-001 0.000000e+000
 0.000000e+000 0.000000e+000 0.000000e+000 8.893939e-001 1.106061e-001
 0.000000e+000 0.000000e+000 0.000000e+000 0.000000e+000 0.000000e+000
<ENDHMM>
~h "g"
<BEGINHMM>
<NUMSTATES> 5
<STATE> 2
<MEAN> 25
 8.363924e-001 5.083239e-001 1.970651e+000 -9.421850e-001 3.924009e-001 -6.748110e-001 -3.671579e-001 -4.677548e-001 -4.223606e-001 -4.118382e-001 -7.710652e-001 -5.593068e-001 1.380471e-002 -4.782779e-003 -7.944753e-003 1.621082e-002 -1.267778e-002 3.802383e-002 2.025622e-002 6.662440e-003 6.837711e-003 3.456046e-002 -3.163345e-004 -3.955817e-003 -3.043669e-002
<VARIANCE> 25
 3.036749e+001 5.567051e+001 6.528560e+001 8.046635e+001 5.165522e+001 4.059683e+001 6.946027e+001 4.931622e+001 4.541427e+001 5.274292e+001 3.939658e+001 3.024239e+001 1.014325e+000 1.911779e+000 1.901612e+000 3.624607e+000 2.517314e+000 2.395440e+000 3.005029e+000 2.698521e+000 2.749051e+000 3.245371e+000 2.365566e+000 1.918254e+000 1.765209e+000
<GCONST> 1.033495e+002
<STATE> 3
<MEAN> 25
 8.711506e-001 4.919564e-001 1.936011e+000 -8.841805e-001 3.369677e-001 -5.258025e-001 -2.570855e-001 -4.369592e-001 -3.960712e-001 -2.652278e-001 -7.611163e-001 -5.690128e-001 8.920928e-003 -1.177061e-002 -1.601333e-002 1.021893e-002 -1.915610e-002 3.784475e-002 3.029172e-002 1.129557e-002 9.486545e-003 3.597256e-002 3.096891e-003 1.032444e-003 -2.860157e-002
<VARIANCE> 25
 2.997317e+001 5.543023e+001 6.341963e+001 7.963751e+001 5.202050e+001 4.046604e+001 6.917453e+001 4.974546e+001 4.517797e+001 5.186556e+001 3.875885e+001 3.014833e+001 9.792439e-001 1.870674e+000 1.866142e+000 3.608815e+000 2.513214e+000 2.372082e+000 2.987330e+000 2.696217e+000 2.736936e+000 3.235684e+000 2.344318e+000 1.909486e+000 1.729912e+000
<GCONST> 1.031201e+002
<STATE> 4
<MEAN> 25
 5.716755e-001 6.908419e-001 2.000217e+000 -7.424138e-001 2.351003e-001 -2.599977e-001 -7.078008e-002 -3.993672e-001 -1.788207e-001 1.171271e-001 -6.504760e-001 -5.603243e-001 -5.667270e-004 -1.464020e-002 -2.088373e-002 7.029824e-003 -1.969570e-002 3.140065e-002 4.246823e-002 1.713959e-002 1.061445e-002 3.621537e-002 9.181372e-003 2.218665e-003 -2.309873e-002
<VARIANCE> 25
 3.109076e+001 5.017564e+001 5.668187e+001 7.500047e+001 5.215334e+001 3.873707e+001 6.665012e+001 4.926014e+001 4.303416e+001 4.758957e+001 3.735193e+001 2.821482e+001 8.766558e-001 1.645989e+000 1.705635e+000 3.308301e+000 2.380515e+000 2.233596e+000 2.782109e+000 2.521732e+000 2.583435e+000 2.988317e+000 2.215439e+000 1.796683e+000 1.485870e+000
<GCONST> 1.014841e+002
<TRANSP> 5
 0.000000e+000 1.000000e+000 0.000000e+000 0.000000e+000 0.000000e+000
 0.000000e+000 7.588851e-001 2.411150e-001 0.000000e+000 0.000000e+000
 0.000000e+000 0.000000e+000 7.588846e-001 2.411154e-001 0.000000e+000
 0.000000e+000 0.000000e+000 0.000000e+000 8.930687e-001 1.069313e-001
 0.000000e+000 0.000000e+000 0.000000e+000 0.000000e+000 0.000000e+000
<ENDHMM>
~h "h"
<BEGINHMM>
<NUMSTATES> 5
<STATE> 2
<MEAN> 25
 -2.342165e+000 -2.428729e+000 -5.825503e-001 2.114660e+000 4.547087e-001 1.926222e-001 5.777638e-001 1.717847e+000 1.490666e+000 -5.827067e-001 5.862364e-001 1.572704e+000 6.875280e-002 -3.154228e-002 6.344092e-003 -1.921942e-002 -2.963708e-002 3.578886e-002 -5.170566e-002 -2.682081e-002 -6.816819e-002 -1.449954e-001 -4.980741e-002 5.202379e-002 5.870318e-002
<VARIANCE> 25
 7.009814e+001 4.852211e+001 2.245316e+001 4.474761e+001 3.864793e+001 3.100860e+001 2.819597e+001 6.028887e+001 7.265836e+001 4.093361e+001 3.949327e+001 1.854003e+001 5.219908e-001 1.269172e+000 1.229049e+000 1.289707e+000 1.805085e+000 1.355126e+000 1.542205e+000 1.748579e+000 1.889748e+000 1.569430e+000 1.603133e+000 1.559616e+000 5.683163e-001
<GCONST> 9.348609e+001
<STATE> 3
<MEAN> 25
 -1.903621e+000 -2.629842e+000 -6.423290e-001 2.015856e+000 2.734359e-001 2.689254e-001 3.289551e-001 1.547959e+000 1.173959e+000 -1.184324e+000 3.481193e-001 1.848469e+000 9.003139e-002 -2.835988e-002 -8.942664e-003 -2.339679e-002 -4.264820e-002 3.123233e-002 -5.129680e-002 -2.902271e-002 -6.186057e-002 -1.183278e-001 -3.115965e-002 5.753940e-002 6.877397e-002
<VARIANCE> 25
 7.358293e+001 5.180484e+001 2.487008e+001 4.299619e+001 3.994300e+001 3.153349e+001 2.958931e+001 6.296350e+001 7.354379e+001 4.307930e+001 4.064838e+001 1.895784e+001 6.219431e-001 1.380157e+000 1.345940e+000 1.335546e+000 1.935163e+000 1.412445e+000 1.621276e+000 1.809967e+000 1.914729e+000 1.587665e+000 1.651252e+000 1.562574e+000 6.495758e-001
<GCONST> 9.468820e+001
<STATE> 4
<MEAN> 25
 8.307774e-001 -2.898020e+000 -1.028062e+000 1.459370e+000 -2.553669e-001 -2.951250e-001 -7.970377e-001 -6.213353e-001 -9.783013e-001 -2.975208e+000 -8.058355e-001 2.120560e+000 8.804329e-002 2.181202e-002 6.019551e-003 -2.251066e-002 -4.191756e-002 -6.084539e-004 -4.804158e-002 -6.208442e-002 -5.223807e-002 -5.846211e-002 -5.306607e-003 2.214484e-002 5.961143e-002
<VARIANCE> 25
 7.215617e+001 5.195396e+001 3.091108e+001 3.624493e+001 3.961438e+001 3.025666e+001 3.661201e+001 6.542266e+001 6.789016e+001 5.046435e+001 3.933731e+001 2.010931e+001 8.576341e-001 1.448088e+000 1.559300e+000 1.425721e+000 1.956052e+000 1.479896e+000 1.846124e+000 2.024571e+000 1.915543e+000 1.651522e+000 1.774043e+000 1.526286e+000 7.536476e-001
<GCONST> 9.614210e+001
<TRANSP> 5
 0.000000e+000 1.000000e+000 0.000000e+000 0.000000e+000 0.000000e+000
 0.000000e+000 7.641172e-001 2.358829e-001 0.000000e+000 0.000000e+000
 0.000000e+000 0.000000e+000 7.641174e-001 2.358827e-001 0.000000e+000
 0.000000e+000 0.000000e+000 0.000000e+000 9.046585e-001 9.534149e-002
 0.000000e+000 0.000000e+000 0.000000e+000 0.000000e+000 0.000000e+000
<ENDHMM>
~h "j"
<BEGINHMM>
<NUMSTATES> 5
<STATE> 2
<MEAN> 25
 -6.611601e-001 1.802245e+000 -8.103421e-002 1.302830e+000 -2.025918e+000 -1.012089e+000 -2.870899e+000 -6.950866e-001 -1.327996e+000 2.396469e+000 3.833756e-001 -1.630757e-001 4.648276e-003 1.494538e-002 1.718848e-002 -3.501898e-002 5.026882e-003 -1.422012e-002 -1.350125e-002 -5.202999e-003 1.289208e-002 6.079521e-003 -5.784421e-004 -8.092319e-003 1.055015e-002
<VARIANCE> 25
 3.738326e+001 3.020633e+001 4.961909e+001 4.108157e+001 3.969763e+001 7.061655e+001 3.874029e+001 2.604305e+001 3.248463e+001 4.703617e+001 3.887665e+001 3.006949e+001 1.700604e+000 1.372087e+000 1.519890e+000 2.243913e+000 3.150009e+000 3.835135e+000 2.449749e+000 2.407344e+000 2.711891e+000 2.907761e+000 2.518993e+000 1.757539e+000 1.678420e+000
<GCONST> 1.002579e+002
<STATE> 3
<MEAN> 25
 -6.192209e-001 1.858268e+000 -1.098549e-002 1.153516e+000 -2.009094e+000 -1.087828e+000 -2.943198e+000 -7.389165e-001 -1.293933e+000 2.379545e+000 3.705501e-001 -1.914173e-001 1.234542e-002 9.787278e-003 2.158820e-002 -3.998368e-002 7.511979e-003 -1.874440e-002 -1.276974e-002 -1.202823e-002 7.236612e-003 -8.550452e-003 -5.567083e-003 -5.180561e-003 2.050524e-002
<VARIANCE> 25
 3.657819e+001 2.979301e+001 4.917801e+001 4.248314e+001 3.960111e+001 7.153529e+001 3.878551e+001 2.620709e+001 3.345808e+001 4.746768e+001 3.920316e+001 3.101191e+001 1.681082e+000 1.461762e+000 1.572116e+000 2.275923e+000 3.207462e+000 3.834872e+000 2.460133e+000 2.408351e+000 2.761621e+000 2.970672e+000 2.537070e+000 1.820678e+000 1.752954e+000
<GCONST> 1.005906e+002
<STATE> 4
<MEAN> 25
 -3.621304e-001 1.802494e+000 3.401864e-001 8.369536e-001 -1.799053e+000 -1.292755e+000 -3.025642e+000 -8.795929e-001 -1.133554e+000 2.058185e+000 2.421724e-001 -4.157512e-001 1.855461e-002 -2.261238e-003 2.912635e-002 -4.560461e-002 1.805399e-002 -1.204768e-002 -4.504135e-003 -1.649271e-002 5.611541e-003 -2.454302e-002 -8.314647e-003 -8.553463e-004 3.355805e-002
<VARIANCE> 25
 3.487080e+001 2.952449e+001 4.541764e+001 4.318759e+001 4.036396e+001 7.069199e+001 3.950030e+001 2.634272e+001 3.601932e+001 4.725671e+001 4.045074e+001 3.153566e+001 1.621757e+000 1.592852e+000 1.659644e+000 2.321155e+000 3.254724e+000 3.715933e+000 2.506800e+000 2.406094e+000 2.883051e+000 3.037614e+000 2.635943e+000 1.916490e+000 1.804085e+000
<GCONST> 1.009270e+002
<TRANSP> 5
 0.000000e+000 1.000000e+000 0.000000e+000 0.000000e+000 0.000000e+000
 0.000000e+000 7.592337e-001 2.407663e-001 0.000000e+000 0.000000e+000
 0.000000e+000 0.000000e+000 7.592338e-001 2.407662e-001 0.000000e+000
 0.000000e+000 0.000000e+000 0.000000e+000 8.861811e-001 1.138190e-001
 0.000000e+000 0.000000e+000 0.000000e+000 0.000000e+000 0.000000e+000
<ENDHMM>
~h "k"
<BEGINHMM>
<NUMSTATES> 5
<STATE> 2
<MEAN> 25
 1.343721e+000 -3.024487e-002 -6.577473e-001 1.962171e-001 1.370381e+000 -1.082220e-001 -6.682683e-001 -5.173038e-001 -1.008979e-001 -2.521178e-001 -2.702372e-001 -2.576372e-001 -6.920189e-003 -6.192019e-003 5.379944e-003 -2.559753e-004 -7.773224e-003 2.914230e-003 3.361694e-002 2.378261e-003 -8.593287e-003 -8.111309e-003 -2.755626e-003 5.908466e-003 3.069010e-002
<VARIANCE> 25
 3.835579e+001 4.003938e+001 4.658032e+001 6.326405e+001 3.783077e+001 3.663168e+001 4.951883e+001 3.391669e+001 3.908995e+001 4.364391e+001 3.533082e+001 2.231586e+001 1.326556e+000 1.604599e+000 1.923787e+000 3.382910e+000 2.268653e+000 2.311725e+000 2.589381e+000 2.772229e+000 2.608023e+000 2.926416e+000 2.336595e+000 1.795402e+000 1.859650e+000
<GCONST> 1.003879e+002
<STATE> 3
<MEAN> 25
 1.283684e+000 -4.443896e-002 -6.205330e-001 1.966569e-001 1.331715e+000 -8.870575e-002 -5.160386e-001 -4.848584e-001 -1.132639e-001 -2.677283e-001 -2.710375e-001 -2.338910e-001 -9.692623e-003 -6.024594e-003 1.112355e-002 -6.482782e-003 -9.724755e-003 5.651889e-003 3.418982e-002 5.980309e-003 -4.134023e-003 -5.481136e-003 -5.116291e-003 3.122130e-003 2.881564e-002
<VARIANCE> 25
 3.794875e+001 4.035181e+001 4.710886e+001 6.324738e+001 3.838034e+001 3.635041e+001 4.953366e+001 3.379082e+001 3.869077e+001 4.378366e+001 3.547694e+001 2.211571e+001 1.315177e+000 1.603726e+000 1.955050e+000 3.365630e+000 2.290099e+000 2.312841e+000 2.634322e+000 2.770751e+000 2.610520e+000 2.953063e+000 2.327923e+000 1.801369e+000 1.788412e+000
<GCONST> 1.003863e+002
<STATE> 4
<MEAN> 25
 9.515249e-001 -8.346392e-002 -5.948874e-001 1.660831e-001 1.313657e+000 -3.542292e-002 -2.381746e-001 -2.478215e-001 2.017539e-002 -3.371890e-001 -2.900402e-001 -2.501972e-001 -2.129647e-002 -1.508807e-003 2.181715e-002 -8.884861e-003 -1.386527e-002 8.326534e-003 3.435065e-002 1.304699e-002 5.815451e-003 3.664601e-003 -1.818473e-003 1.762471e-003 1.580660e-002
<VARIANCE> 25
 3.953657e+001 3.831155e+001 4.341232e+001 5.854425e+001 3.768005e+001 3.485285e+001 4.846417e+001 3.330580e+001 3.704812e+001 4.334542e+001 3.510113e+001 2.140434e+001 1.204192e+000 1.493253e+000 1.822943e+000 3.058467e+000 2.163284e+000 2.192289e+000 2.565576e+000 2.691011e+000 2.464457e+000 2.820560e+000 2.228079e+000 1.741834e+000 1.436769e+000
<GCONST> 9.913168e+001
<TRANSP> 5
 0.000000e+000 1.000000e+000 0.000000e+000 0.000000e+000 0.000000e+000
 0.000000e+000 7.637163e-001 2.362836e-001 0.000000e+000 0.000000e+000
 0.000000e+000 0.000000e+000 7.637162e-001 2.362838e-001 0.000000e+000
 0.000000e+000 0.000000e+000 0.000000e+000 8.993518e-001 1.006482e-001
 0.000000e+000 0.000000e+000 0.000000e+000 0.000000e+000 0.000000e+000
<ENDHMM>
~h "l"
<BEGINHMM>
<NUMSTATES> 5
<STATE> 2
<MEAN> 25
 1.567642e+000 -4.523150e-001 -5.568418e-001 -5.666475e-001 7.217805e-001 -2.014608e-001 -8.971895e-001 -3.514280e-001 3.572907e-001 -8.247554e-001 -3.435390e-001 -1.861223e-001 -1.407083e-002 2.246870e-002 2.660509e-002 2.668660e-002 1.869515e-002 1.075277e-002 6.024953e-003 5.469224e-003 -3.207843e-004 -6.546970e-003 -7.155070e-004 -7.896192e-003 -1.151926e-002
<VARIANCE> 25
 3.583443e+001 4.525395e+001 4.334598e+001 7.543494e+001 4.694176e+001 4.172125e+001 4.814087e+001 4.372225e+001 3.528753e+001 4.171594e+001 3.963809e+001 2.431585e+001 8.890161e-001 1.461392e+000 1.550348e+000 3.070837e+000 2.345735e+000 2.312864e+000 2.430419e+000 2.563572e+000 2.357549e+000 2.485580e+000 2.133741e+000 1.764856e+000 1.247065e+000
<GCONST> 9.948544e+001
<STATE> 3
<MEAN> 25
 1.458963e+000 -3.401467e-001 -4.306127e-001 -4.395720e-001 7.944123e-001 -1.389595e-001 -8.617981e-001 -3.092881e-001 3.757773e-001 -8.206614e-001 -3.238574e-001 -2.113996e-001 -2.180395e-002 2.526039e-002 3.162122e-002 2.850464e-002 1.438371e-002 8.461993e-003 6.257636e-003 5.908862e-003 -9.300734e-005 5.253488e-004 2.889047e-003 -8.332767e-003 -1.454891e-002
<VARIANCE> 25
 3.446815e+001 4.511906e+001 4.369319e+001 7.564076e+001 4.561165e+001 4.048735e+001 4.818903e+001 4.298162e+001 3.432692e+001 4.085506e+001 3.883270e+001 2.416430e+001 8.755745e-001 1.451981e+000 1.527375e+000 3.069266e+000 2.285197e+000 2.278250e+000 2.438322e+000 2.548534e+000 2.369870e+000 2.472748e+000 2.103678e+000 1.774834e+000 1.235636e+000
<GCONST> 9.920549e+001
<STATE> 4
<MEAN> 25
 1.166797e+000 -2.143649e-001 -3.241772e-001 -2.336767e-001 8.863050e-001 -7.975750e-002 -7.660597e-001 -2.359806e-001 4.585981e-001 -6.860744e-001 -2.516579e-001 -2.123918e-001 -3.589562e-002 2.714127e-002 3.331229e-002 2.956043e-002 1.092869e-002 1.350313e-002 7.842715e-003 1.264216e-002 4.848490e-003 1.788581e-002 1.064328e-002 -6.103823e-003 -2.718413e-002
<VARIANCE> 25
 3.493087e+001 4.077951e+001 4.215044e+001 6.950872e+001 4.299728e+001 3.846248e+001 4.908495e+001 4.244189e+001 3.292015e+001 3.943649e+001 3.678003e+001 2.385166e+001 8.036082e-001 1.356523e+000 1.437909e+000 2.817555e+000 2.107213e+000 2.185803e+000 2.364252e+000 2.496361e+000 2.285460e+000 2.349962e+000 1.994871e+000 1.765554e+000 1.059016e+000
<GCONST> 9.797460e+001
<TRANSP> 5
 0.000000e+000 1.000000e+000 0.000000e+000 0.000000e+000 0.000000e+000
 0.000000e+000 7.577580e-001 2.422420e-001 0.000000e+000 0.000000e+000
 0.000000e+000 0.000000e+000 7.577579e-001 2.422421e-001 0.000000e+000
 0.000000e+000 0.000000e+000 0.000000e+000 8.914119e-001 1.085881e-001
 0.000000e+000 0.000000e+000 0.000000e+000 0.000000e+000 0.000000e+000
<ENDHMM>
~h "m"
<BEGINHMM>
<NUMSTATES> 5
<STATE> 2
<MEAN> 25
 7.705597e-001 -3.371579e-001 3.717386e-001 -2.073715e-001 6.278442e-001 8.077452e-002 -6.245697e-001 -4.981715e-001 8.437467e-002 -5.655902e-001 -5.168794e-001 -3.938868e-001 6.867396e-003 -2.560862e-003 5.131761e-003 -3.481267e-003 1.708215e-002 -7.796314e-003 -2.160824e-002 -6.539534e-003 1.176132e-002 -1.632323e-003 2.430487e-003 -7.771482e-003 1.766283e-002
<VARIANCE> 25
 4.002643e+001 4.530487e+001 5.136621e+001 7.199445e+001 5.290269e+001 3.882069e+001 5.035244e+001 3.988368e+001 3.919398e+001 4.323165e+001 3.497181e+001 2.392555e+001 8.956149e-001 1.470256e+000 1.789433e+000 2.593101e+000 2.320068e+000 2.029494e+000 2.453616e+000 2.458850e+000 2.209206e+000 2.498388e+000 1.944407e+000 1.691188e+000 1.175424e+000
<GCONST> 9.927934e+001
<STATE> 3
<MEAN> 25
 8.085058e-001 -3.389924e-001 3.853780e-001 -2.165798e-001 7.033248e-001 4.593179e-002 -7.153839e-001 -5.244686e-001 1.262084e-001 -5.793204e-001 -5.121074e-001 -4.296667e-001 8.167765e-003 -3.540399e-004 1.633749e-003 -4.865170e-003 1.367599e-002 -7.927775e-003 -2.102368e-002 -4.919162e-003 1.043847e-002 -3.952093e-003 3.226852e-003 -6.387444e-003 9.880549e-003
<VARIANCE> 25
 3.945987e+001 4.442261e+001 5.127974e+001 7.207433e+001 5.183632e+001 3.896910e+001 5.048632e+001 4.042953e+001 3.918023e+001 4.328188e+001 3.474891e+001 2.393559e+001 8.744398e-001 1.445530e+000 1.773973e+000 2.595280e+000 2.293416e+000 2.053590e+000 2.448637e+000 2.471454e+000 2.204184e+000 2.491745e+000 1.949741e+000 1.683006e+000 1.097734e+000
<GCONST> 9.911855e+001
<STATE> 4
<MEAN> 25
 1.016628e+000 -3.211862e-001 3.528798e-001 -2.895414e-001 8.211573e-001 -5.164565e-002 -8.845550e-001 -6.373677e-001 6.094577e-002 -7.510854e-001 -5.979417e-001 -5.352499e-001 5.099050e-003 6.945443e-003 1.514083e-003 -3.643777e-003 9.442419e-003 -5.024310e-003 -1.131224e-002 -3.572199e-003 7.079267e-003 -6.782612e-003 2.927324e-003 -4.567774e-003 1.575551e-003
<VARIANCE> 25
 4.095731e+001 4.164494e+001 5.028666e+001 6.723244e+001 4.975977e+001 3.834566e+001 5.203249e+001 4.057661e+001 3.810354e+001 4.358774e+001 3.556321e+001 2.398513e+001 8.358094e-001 1.376447e+000 1.679450e+000 2.439672e+000 2.176395e+000 2.057662e+000 2.376086e+000 2.433579e+000 2.132506e+000 2.405565e+000 1.912859e+000 1.641736e+000 9.845348e-001
<GCONST> 9.845566e+001
<TRANSP> 5
 0.000000e+000 1.000000e+000 0.000000e+000 0.000000e+000 0.000000e+000
 0.000000e+000 7.646003e-001 2.353997e-001 0.000000e+000 0.000000e+000
 0.000000e+000 0.000000e+000 7.646003e-001 2.353997e-001 0.000000e+000
 0.000000e+000 0.000000e+000 0.000000e+000 8.991418e-001 1.008582e-001
 0.000000e+000 0.000000e+000 0.000000e+000 0.000000e+000 0.000000e+000
<ENDHMM>
~h "n"
<BEGINHMM>
<NUMSTATES> 5
<STATE> 2
<MEAN> 25
 5.184848e-001 -6.995232e-002 5.139295e-001 1.569684e-001 4.317864e-001 -4.842825e-001 1.087517e-002 -5.873650e-002 -5.374802e-001 -6.777899e-001 -6.825797e-002 1.310201e-001 -3.528936e-003 6.932950e-004 8.971724e-003 -3.724025e-003 -2.525345e-003 2.123356e-002 4.411774e-005 3.350229e-004 1.141928e-002 1.681711e-002 1.274142e-002 -2.664304e-003 -1.598947e-002
<VARIANCE> 25
 3.764537e+001 4.863596e+001 4.341938e+001 6.671519e+001 4.414837e+001 3.943385e+001 4.777801e+001 3.750592e+001 4.155527e+001 4.536475e+001 3.660024e+001 2.479485e+001 1.056502e+000 1.656956e+000 1.628274e+000 2.884079e+000 2.197584e+000 2.124740e+000 2.465275e+000 2.417604e+000 2.278610e+000 2.506664e+000 2.203777e+000 1.691873e+000 1.440653e+000
<GCONST> 9.959292e+001
<STATE> 3
<MEAN> 25
 4.963349e-001 -5.570640e-002 5.433531e-001 1.374534e-001 4.188201e-001 -4.011813e-001 1.878092e-002 -5.971087e-002 -4.893535e-001 -6.022837e-001 -2.245893e-002 1.097604e-001 -5.426976e-003 4.409466e-004 5.378414e-003 -5.096098e-003 -4.064342e-003 1.925372e-002 1.785836e-003 -1.233420e-003 1.105470e-002 1.888146e-002 1.010646e-002 -4.782838e-003 -1.176583e-002
<VARIANCE> 25
 3.784099e+001 4.812207e+001 4.351732e+001 6.707381e+001 4.395561e+001 3.915841e+001 4.735237e+001 3.748560e+001 4.163426e+001 4.522414e+001 3.643467e+001 2.469882e+001 1.047820e+000 1.638850e+000 1.636915e+000 2.894119e+000 2.205033e+000 2.122556e+000 2.454260e+000 2.393577e+000 2.285236e+000 2.515825e+000 2.191079e+000 1.694133e+000 1.412594e+000
<GCONST> 9.952445e+001
<STATE> 4
<MEAN> 25
 3.580084e-001 1.399264e-001 6.362180e-001 9.716695e-002 3.415666e-001 -2.600326e-001 4.636763e-002 -8.430899e-002 -3.380784e-001 -3.576685e-001 7.108576e-002 3.321961e-002 -5.161469e-003 1.999080e-003 -1.620724e-003 -8.062621e-003 -2.582076e-003 1.292899e-002 3.877505e-003 -3.707564e-003 7.334007e-003 1.675246e-002 3.356745e-003 -7.381484e-003 -2.369800e-003
<VARIANCE> 25
 3.927877e+001 4.387919e+001 4.344555e+001 6.410538e+001 4.425047e+001 3.835277e+001 4.649306e+001 3.777529e+001 4.096139e+001 4.517318e+001 3.542503e+001 2.426525e+001 1.011265e+000 1.535283e+000 1.602664e+000 2.704682e+000 2.121839e+000 2.075022e+000 2.349663e+000 2.307536e+000 2.227599e+000 2.446407e+000 2.112305e+000 1.646183e+000 1.233017e+000
<GCONST> 9.874886e+001
<TRANSP> 5
 0.000000e+000 1.000000e+000 0.000000e+000 0.000000e+000 0.000000e+000
 0.000000e+000 7.609750e-001 2.390250e-001 0.000000e+000 0.000000e+000
 0.000000e+000 0.000000e+000 7.609743e-001 2.390257e-001 0.000000e+000
 0.000000e+000 0.000000e+000 0.000000e+000 8.953551e-001 1.046449e-001
 0.000000e+000 0.000000e+000 0.000000e+000 0.000000e+000 0.000000e+000
<ENDHMM>
~h "o"
<BEGINHMM>
<NUMSTATES> 5
<STATE> 2
<MEAN> 25
 1.292055e-008 1.831648e-008 -6.299361e-008 6.397928e-009 6.513714e-008 4.146926e-008 -2.503356e-008 -3.737221e-008 4.785829e-009 -8.260601e-008 4.838081e-008 -2.966501e-008 7.700191e-003 5.403126e-003 9.986212e-003 -4.435305e-003 5.198286e-003 1.178548e-003 5.735684e-003 -2.200497e-003 -9.225003e-004 -6.409926e-004 -2.520854e-003 -2.406914e-003 2.725629e-002
<VARIANCE> 25
 4.587285e+001 1.030148e+002 6.019880e+001 7.829473e+001 5.465159e+001 4.961901e+001 6.176896e+001 4.825900e+001 4.880714e+001 4.872197e+001 3.755544e+001 3.288158e+001 1.069084e+000 2.243620e+000 1.931021e+000 2.910384e+000 2.554792e+000 2.477852e+000 2.995093e+000 2.747025e+000 2.618064e+000 2.724945e+000 2.375594e+000 2.010036e+000 1.498881e+000
<GCONST> 1.041510e+002
<STATE> 3
<MEAN> 25
 1.292055e-008 1.831648e-008 -6.299361e-008 6.397928e-009 6.513714e-008 4.146926e-008 -2.503356e-008 -3.737221e-008 4.785829e-009 -8.260601e-008 4.838081e-008 -2.966501e-008 7.700191e-003 5.403126e-003 9.986212e-003 -4.435305e-003 5.198286e-003 1.178548e-003 5.735684e-003 -2.200497e-003 -9.225003e-004 -6.409926e-004 -2.520854e-003 -2.406914e-003 2.725629e-002
<VARIANCE> 25
 4.587285e+001 1.030148e+002 6.019880e+001 7.829473e+001 5.465159e+001 4.961901e+001 6.176896e+001 4.825900e+001 4.880714e+001 4.872197e+001 3.755544e+001 3.288158e+001 1.069084e+000 2.243620e+000 1.931021e+000 2.910384e+000 2.554792e+000 2.477852e+000 2.995093e+000 2.747025e+000 2.618064e+000 2.724945e+000 2.375594e+000 2.010036e+000 1.498881e+000
<GCONST> 1.041510e+002
<STATE> 4
<MEAN> 25
 1.292055e-008 1.831648e-008 -6.299361e-008 6.397928e-009 6.513714e-008 4.146926e-008 -2.503356e-008 -3.737221e-008 4.785829e-009 -8.260601e-008 4.838081e-008 -2.966501e-008 7.700191e-003 5.403126e-003 9.986212e-003 -4.435305e-003 5.198286e-003 1.178548e-003 5.735684e-003 -2.200497e-003 -9.225003e-004 -6.409926e-004 -2.520854e-003 -2.406914e-003 2.725629e-002
<VARIANCE> 25
 4.587285e+001 1.030148e+002 6.019880e+001 7.829473e+001 5.465159e+001 4.961901e+001 6.176896e+001 4.825900e+001 4.880714e+001 4.872197e+001 3.755544e+001 3.288158e+001 1.069084e+000 2.243620e+000 1.931021e+000 2.910384e+000 2.554792e+000 2.477852e+000 2.995093e+000 2.747025e+000 2.618064e+000 2.724945e+000 2.375594e+000 2.010036e+000 1.498881e+000
<GCONST> 1.041510e+002
<TRANSP> 5
 0.000000e+000 1.000000e+000 0.000000e+000 0.000000e+000 0.000000e+000
 0.000000e+000 6.000000e-001 4.000000e-001 0.000000e+000 0.000000e+000
 0.000000e+000 0.000000e+000 6.000000e-001 4.000000e-001 0.000000e+000
 0.000000e+000 0.000000e+000 0.000000e+000 7.000000e-001 3.000000e-001
 0.000000e+000 0.000000e+000 0.000000e+000 0.000000e+000 0.000000e+000
<ENDHMM>
~h "p"
<BEGINHMM>
<NUMSTATES> 5
<STATE> 2
<MEAN> 25
 -2.437606e+000 5.473257e-001 -1.201374e+000 8.487549e-001 -6.626760e-001 1.137318e+000 1.797485e-001 4.254682e-001 1.057573e+000 5.640485e-001 1.316385e+000 4.123627e-001 1.584748e-001 -2.459172e-002 2.257534e-002 -1.751430e-002 5.206858e-002 -8.255783e-002 1.292774e-002 -2.422334e-002 -5.746787e-002 -1.499616e-002 -6.835192e-002 -3.267054e-002 2.749346e-001
<VARIANCE> 25
 7.882915e+001 4.462906e+001 4.098514e+001 6.950525e+001 4.052602e+001 4.875386e+001 4.376073e+001 4.174541e+001 3.956174e+001 3.528970e+001 3.622089e+001 2.398862e+001 2.119871e+000 1.548297e+000 1.348955e+000 2.807138e+000 1.830620e+000 2.321367e+000 2.226988e+000 2.412076e+000 2.150098e+000 2.203686e+000 2.123895e+000 1.680314e+000 3.091685e+000
<GCONST> 1.007795e+002
<STATE> 3
<MEAN> 25
 -1.881228e+000 4.571908e-001 -1.161997e+000 7.957514e-001 -5.031723e-001 7.957215e-001 2.362343e-001 3.837799e-001 8.609682e-001 5.137679e-001 1.054255e+000 3.067743e-001 1.293711e-001 -1.599529e-002 8.651737e-003 -9.447291e-003 3.662120e-002 -8.138591e-002 1.555133e-002 -6.684188e-003 -4.857383e-002 -1.148482e-002 -6.252422e-002 -2.621023e-002 2.363092e-001
<VARIANCE> 25
 7.100453e+001 4.394284e+001 4.051146e+001 6.902869e+001 3.812463e+001 4.841936e+001 4.359209e+001 4.144148e+001 3.875854e+001 3.572317e+001 3.578553e+001 2.401294e+001 2.071819e+000 1.631811e+000 1.346564e+000 2.893573e+000 1.853654e+000 2.433968e+000 2.268939e+000 2.490677e+000 2.183229e+000 2.244380e+000 2.228185e+000 1.698099e+000 2.738564e+000
<GCONST> 1.006820e+002
<STATE> 4
<MEAN> 25
 -1.040676e+000 1.805916e-001 -1.216213e+000 5.850819e-001 -2.587523e-001 1.485442e-001 2.934466e-001 4.482860e-001 4.641207e-001 1.904871e-001 5.013956e-001 2.776170e-001 6.734955e-002 -3.309092e-003 -1.739319e-003 -3.968092e-003 6.946043e-003 -6.037757e-002 3.139747e-003 3.408866e-003 -4.308309e-002 -2.580906e-002 -4.799943e-002 -8.316124e-003 1.440824e-001
<VARIANCE> 25
 6.092374e+001 4.323479e+001 3.730273e+001 6.066565e+001 3.410058e+001 4.541625e+001 4.293886e+001 3.971459e+001 3.680469e+001 3.842173e+001 3.605843e+001 2.348126e+001 1.940552e+000 1.696984e+000 1.276876e+000 2.735219e+000 1.793882e+000 2.461112e+000 2.239872e+000 2.551305e+000 2.106068e+000 2.262506e+000 2.343427e+000 1.668408e+000 1.914963e+000
<GCONST> 9.957486e+001
<TRANSP> 5
 0.000000e+000 1.000000e+000 0.000000e+000 0.000000e+000 0.000000e+000
 0.000000e+000 7.666544e-001 2.333456e-001 0.000000e+000 0.000000e+000
 0.000000e+000 0.000000e+000 7.666546e-001 2.333454e-001 0.000000e+000
 0.000000e+000 0.000000e+000 0.000000e+000 9.026651e-001 9.733490e-002
 0.000000e+000 0.000000e+000 0.000000e+000 0.000000e+000 0.000000e+000
<ENDHMM>
~h "r"
<BEGINHMM>
<NUMSTATES> 5
<STATE> 2
<MEAN> 25
 1.753968e+000 -1.361021e+000 1.995575e-001 -1.406151e+000 -3.901505e-001 -5.650165e-001 1.365371e+000 2.103535e-001 -6.291898e-001 3.780228e-001 -5.142292e-001 -8.905073e-001 2.481512e-003 1.913169e-002 4.945170e-002 -4.323036e-003 -3.853660e-002 5.997009e-003 2.030554e-002 8.756069e-003 -1.774943e-003 3.393132e-002 2.679186e-003 -7.205727e-003 -3.165600e-002
<VARIANCE> 25
 3.273766e+001 5.013379e+001 4.507365e+001 7.937304e+001 5.714003e+001 3.249627e+001 5.560825e+001 4.662171e+001 4.252181e+001 4.698183e+001 3.797886e+001 2.599962e+001 9.104210e-001 1.639498e+000 1.615346e+000 3.364552e+000 2.534323e+000 1.898740e+000 2.892991e+000 2.689012e+000 2.702404e+000 2.837188e+000 2.292606e+000 1.750513e+000 1.169137e+000
<GCONST> 1.007133e+002
<STATE> 3
<MEAN> 25
 1.765869e+000 -1.281250e+000 3.764018e-001 -1.396400e+000 -5.319816e-001 -5.270577e-001 1.427017e+000 2.478970e-001 -6.366993e-001 5.148739e-001 -4.954843e-001 -9.233326e-001 -3.138269e-003 2.492984e-002 4.627670e-002 3.284428e-003 -2.795473e-002 8.122407e-003 1.273395e-002 4.818202e-003 1.864585e-003 3.000204e-002 -2.372970e-004 -2.594129e-003 -4.055928e-002
<VARIANCE> 25
 3.243891e+001 5.015023e+001 4.491718e+001 7.899894e+001 5.825418e+001 3.243124e+001 5.553468e+001 4.748316e+001 4.257234e+001 4.612232e+001 3.809755e+001 2.571886e+001 8.895773e-001 1.639229e+000 1.603796e+000 3.301692e+000 2.545649e+000 1.868247e+000 2.891667e+000 2.717566e+000 2.712056e+000 2.816896e+000 2.291759e+000 1.747521e+000 1.154361e+000
<GCONST> 1.006361e+002
<STATE> 4
<MEAN> 25
 1.556361e+000 -8.169957e-001 5.500000e-001 -1.136422e+000 -6.306197e-001 -2.939901e-001 1.270978e+000 2.942324e-001 -3.979741e-001 8.140604e-001 -3.455693e-001 -8.928882e-001 -7.835413e-003 2.676734e-002 3.043569e-002 1.395922e-002 -1.535657e-002 1.383091e-002 1.524140e-004 -1.003094e-004 4.048761e-003 2.445846e-002 2.065083e-003 -1.290574e-003 -4.750783e-002
<VARIANCE> 25
 3.565005e+001 4.606727e+001 4.278670e+001 7.553504e+001 6.014006e+001 3.176909e+001 5.431943e+001 4.657479e+001 4.157054e+001 4.334100e+001 3.714196e+001 2.446282e+001 8.231942e-001 1.525863e+000 1.523718e+000 2.975476e+000 2.457267e+000 1.790593e+000 2.684735e+000 2.586761e+000 2.605487e+000 2.626697e+000 2.181433e+000 1.676041e+000 1.029055e+000
<GCONST> 9.953865e+001
<TRANSP> 5
 0.000000e+000 1.000000e+000 0.000000e+000 0.000000e+000 0.000000e+000
 0.000000e+000 7.592539e-001 2.407461e-001 0.000000e+000 0.000000e+000
 0.000000e+000 0.000000e+000 7.592536e-001 2.407463e-001 0.000000e+000
 0.000000e+000 0.000000e+000 0.000000e+000 8.936090e-001 1.063910e-001
 0.000000e+000 0.000000e+000 0.000000e+000 0.000000e+000 0.000000e+000
<ENDHMM>
~h "s"
<BEGINHMM>
<NUMSTATES> 5
<STATE> 2
<MEAN> 25
 -1.746456e+000 5.903337e-001 -1.152481e+000 6.663842e-001 -5.770368e-001 -3.644269e-001 5.956452e-001 5.618373e-001 -3.411103e-001 2.309763e-002 3.875141e-001 5.350925e-001 4.437970e-002 -2.537321e-002 4.453775e-003 -2.985038e-002 1.948841e-002 -4.302820e-002 1.107605e-002 -2.344832e-002 -4.702770e-002 -2.803865e-002 -2.439545e-002 4.833119e-003 1.220362e-001
<VARIANCE> 25
 6.114455e+001 4.953523e+001 4.523006e+001 7.483913e+001 3.942531e+001 4.433367e+001 4.387831e+001 4.234306e+001 4.671267e+001 4.466491e+001 3.575230e+001 2.405271e+001 1.787142e+000 1.857968e+000 1.488124e+000 2.872303e+000 2.002773e+000 2.333230e+000 2.451979e+000 2.517876e+000 2.258826e+000 2.493331e+000 2.345155e+000 1.724972e+000 1.735239e+000
<GCONST> 1.011754e+002
<STATE> 3
<MEAN> 25
 -1.549052e+000 4.799555e-001 -1.125939e+000 5.339730e-001 -5.286109e-001 -5.352390e-001 6.111841e-001 4.650369e-001 -5.183140e-001 -7.872867e-002 2.952203e-001 5.596292e-001 5.232831e-002 -2.876903e-002 9.402191e-003 -3.395796e-002 1.365445e-002 -3.999687e-002 3.442633e-003 -2.424985e-002 -4.208963e-002 -2.302905e-002 -2.204765e-002 2.834326e-003 9.740760e-002
<VARIANCE> 25
 6.033423e+001 5.046942e+001 4.578323e+001 7.572754e+001 4.029103e+001 4.387445e+001 4.414577e+001 4.244770e+001 4.699136e+001 4.580924e+001 3.581085e+001 2.430182e+001 1.758805e+000 1.875812e+000 1.497458e+000 2.910955e+000 2.039962e+000 2.314081e+000 2.485171e+000 2.505177e+000 2.282104e+000 2.532092e+000 2.346032e+000 1.730496e+000 1.587340e+000
<GCONST> 1.012396e+002
<STATE> 4
<MEAN> 25
 -8.531073e-001 9.592436e-002 -9.163226e-001 1.325536e-001 -6.979697e-001 -7.727594e-001 4.073265e-001 1.871521e-001 -8.600695e-001 -3.351987e-001 1.135247e-001 7.182163e-001 5.180397e-002 -2.211323e-002 2.166892e-002 -3.299433e-002 -1.328976e-003 -2.328385e-002 -1.108780e-002 -2.786737e-002 -2.778814e-002 -1.208688e-002 -1.416550e-002 -8.270940e-004 4.688757e-002
<VARIANCE> 25
 5.828664e+001 4.835266e+001 4.453084e+001 6.763181e+001 4.353681e+001 4.082401e+001 4.304946e+001 4.094294e+001 4.684349e+001 4.891100e+001 3.583241e+001 2.452512e+001 1.595777e+000 1.726286e+000 1.424144e+000 2.590255e+000 2.013679e+000 2.167850e+000 2.364708e+000 2.373431e+000 2.197140e+000 2.517510e+000 2.262351e+000 1.694923e+000 1.204497e+000
<GCONST> 1.001317e+002
<TRANSP> 5
 0.000000e+000 1.000000e+000 0.000000e+000 0.000000e+000 0.000000e+000
 0.000000e+000 7.668452e-001 2.331548e-001 0.000000e+000 0.000000e+000
 0.000000e+000 0.000000e+000 7.668447e-001 2.331553e-001 0.000000e+000
 0.000000e+000 0.000000e+000 0.000000e+000 9.036921e-001 9.630788e-002
 0.000000e+000 0.000000e+000 0.000000e+000 0.000000e+000 0.000000e+000
<ENDHMM>
~h "t"
<BEGINHMM>
<NUMSTATES> 5
<STATE> 2
<MEAN> 25
 1.302858e+000 -4.040935e-001 -3.858048e-001 -3.108579e-001 1.906375e-001 -2.525480e-001 -2.187694e-001 -5.690972e-002 -3.202454e-001 -2.995994e-001 -3.012673e-001 -1.409100e-001 5.684773e-003 7.274134e-003 7.033092e-003 1.451198e-002 7.448330e-004 -5.087777e-003 3.259216e-003 -4.163512e-003 -1.230939e-002 -4.360484e-003 -2.222925e-004 -1.318444e-002 1.761934e-002
<VARIANCE> 25
 3.537978e+001 4.917830e+001 4.288661e+001 6.510863e+001 4.276151e+001 3.953183e+001 5.204449e+001 3.543299e+001 3.756704e+001 4.412415e+001 3.625285e+001 2.609656e+001 1.163414e+000 1.712913e+000 1.834501e+000 3.316370e+000 2.436353e+000 2.465383e+000 2.672912e+000 2.551515e+000 2.491621e+000 2.708677e+000 2.328125e+000 1.800645e+000 2.171149e+000
<GCONST> 1.008868e+002
<STATE> 3
<MEAN> 25
 1.320356e+000 -3.624901e-001 -3.601958e-001 -2.554748e-001 2.078849e-001 -2.621530e-001 -2.128102e-001 -6.309672e-002 -3.539456e-001 -3.140782e-001 -3.052379e-001 -1.864722e-001 2.675855e-003 1.150467e-002 1.085912e-002 1.160181e-002 2.922268e-003 -1.921648e-003 5.329770e-003 -4.089932e-003 -1.114775e-002 -1.573408e-004 1.092421e-003 -1.192392e-002 7.125493e-003
<VARIANCE> 25
 3.438150e+001 4.911815e+001 4.304965e+001 6.467091e+001 4.175203e+001 3.978506e+001 5.241539e+001 3.518496e+001 3.701644e+001 4.374014e+001 3.646780e+001 2.635816e+001 1.156728e+000 1.705363e+000 1.833137e+000 3.330605e+000 2.415223e+000 2.484063e+000 2.683429e+000 2.553674e+000 2.501625e+000 2.717518e+000 2.347460e+000 1.812451e+000 2.070492e+000
<GCONST> 1.008006e+002
<STATE> 4
<MEAN> 25
 1.201216e+000 -5.747917e-002 -2.623304e-001 -2.200633e-001 2.754978e-001 -2.806784e-001 -1.888557e-001 1.155426e-002 -2.807441e-001 -2.503699e-001 -2.865977e-001 -2.315706e-001 -5.123068e-003 1.548477e-002 9.473810e-003 8.695237e-003 9.268754e-003 2.887219e-003 6.075304e-003 -4.602349e-004 -1.665723e-003 5.056226e-003 3.417551e-003 -6.843171e-003 -3.764449e-003
<VARIANCE> 25
 3.588683e+001 4.561588e+001 4.213067e+001 6.247199e+001 4.014217e+001 4.052393e+001 5.266311e+001 3.555931e+001 3.618797e+001 4.418125e+001 3.657903e+001 2.592692e+001 1.102947e+000 1.627444e+000 1.790304e+000 3.127648e+000 2.280861e+000 2.448023e+000 2.637408e+000 2.509660e+000 2.422965e+000 2.660387e+000 2.279257e+000 1.774286e+000 1.758849e+000
<GCONST> 1.001271e+002
<TRANSP> 5
 0.000000e+000 1.000000e+000 0.000000e+000 0.000000e+000 0.000000e+000
 0.000000e+000 7.577152e-001 2.422847e-001 0.000000e+000 0.000000e+000
 0.000000e+000 0.000000e+000 7.577158e-001 2.422842e-001 0.000000e+000
 0.000000e+000 0.000000e+000 0.000000e+000 8.912423e-001 1.087577e-001
 0.000000e+000 0.000000e+000 0.000000e+000 0.000000e+000 0.000000e+000
<ENDHMM>
~h "w"
<BEGINHMM>
<NUMSTATES> 5
<STATE> 2
<MEAN> 25
 2.860405e+000 -5.842451e-001 -1.416352e+000 -4.062195e+000 7.101552e-001 -8.833760e-001 1.269132e-001 -1.553566e+000 -9.679965e-001 1.080564e+000 -1.158545e-001 -1.977208e-001 -1.673772e-002 -4.075820e-002 5.374080e-003 -6.627667e-003 1.545336e-002 1.622170e-002 2.490183e-002 1.630338e-002 1.953385e-002 4.564015e-003 1.737753e-002 1.257819e-004 2.084808e-002
<VARIANCE> 25
 3.172146e+001 5.169445e+001 4.712492e+001 8.193449e+001 4.680990e+001 4.230474e+001 6.468605e+001 3.597462e+001 4.127322e+001 4.984249e+001 4.642644e+001 2.792157e+001 5.753683e-001 1.954483e+000 1.683267e+000 2.578373e+000 2.372791e+000 2.244378e+000 2.719608e+000 1.988263e+000 2.399344e+000 2.963396e+000 3.024246e+000 1.990122e+000 1.532487e+000
<GCONST> 1.008765e+002
<STATE> 3
<MEAN> 25
 2.774056e+000 -7.727518e-001 -1.363432e+000 -4.065218e+000 7.648722e-001 -8.273700e-001 2.458257e-001 -1.486322e+000 -8.788662e-001 1.072188e+000 -2.695794e-002 -2.002576e-001 -2.112682e-002 -4.449631e-002 1.592978e-002 6.528157e-004 2.301342e-002 1.252564e-002 3.175592e-002 1.944066e-002 2.435031e-002 -2.086771e-003 1.798082e-002 -2.946796e-003 2.695808e-002
<VARIANCE> 25
 3.173448e+001 5.266720e+001 4.754583e+001 7.965089e+001 4.682275e+001 4.204224e+001 6.578564e+001 3.619567e+001 4.098544e+001 5.047060e+001 4.661549e+001 2.843085e+001 5.939758e-001 1.957925e+000 1.684639e+000 2.659201e+000 2.338593e+000 2.259247e+000 2.736681e+000 2.014960e+000 2.429721e+000 2.989948e+000 3.065755e+000 2.020232e+000 1.563676e+000
<GCONST> 1.010681e+002
<STATE> 4
<MEAN> 25
 2.239967e+000 -1.053367e+000 -1.073830e+000 -3.663755e+000 6.377777e-001 -7.509727e-001 4.415006e-001 -1.229877e+000 -5.022702e-001 8.272440e-001 3.293934e-001 -1.810897e-001 -2.018562e-002 -3.875663e-002 3.248496e-002 1.177658e-002 1.748995e-002 2.831027e-003 2.176208e-002 1.506572e-002 2.269390e-002 -2.104162e-002 1.521364e-002 -5.442172e-003 3.005515e-002
<VARIANCE> 25
 3.601551e+001 5.007736e+001 4.878986e+001 7.179146e+001 4.298642e+001 4.055679e+001 6.437156e+001 3.793291e+001 3.853174e+001 5.136614e+001 4.531454e+001 2.792091e+001 6.061695e-001 1.692072e+000 1.585423e+000 2.508507e+000 2.061923e+000 2.078790e+000 2.563301e+000 1.995333e+000 2.316426e+000 2.912909e+000 2.878291e+000 1.887808e+000 1.363445e+000
<GCONST> 1.000085e+002
<TRANSP> 5
 0.000000e+000 1.000000e+000 0.000000e+000 0.000000e+000 0.000000e+000
 0.000000e+000 7.663497e-001 2.336503e-001 0.000000e+000 0.000000e+000
 0.000000e+000 0.000000e+000 7.663496e-001 2.336504e-001 0.000000e+000
 0.000000e+000 0.000000e+000 0.000000e+000 9.022142e-001 9.778580e-002
 0.000000e+000 0.000000e+000 0.000000e+000 0.000000e+000 0.000000e+000
<ENDHMM>
~h "y"
<BEGINHMM>
<NUMSTATES> 5
<STATE> 2
<MEAN> 25
 3.430270e-001 -1.193232e+000 7.258306e-001 -1.521797e+000 -3.454736e-001 -3.615784e-001 5.861094e-001 -1.152729e+000 -9.514383e-001 -5.267386e-001 -9.831479e-001 5.789201e-001 2.696437e-002 -1.932216e-002 1.271589e-002 -3.432851e-002 4.550323e-003 -1.346654e-002 -6.845625e-003 -6.011455e-003 9.072640e-003 -2.946219e-002 -2.397918e-002 -1.531917e-002 1.436855e-002
<VARIANCE> 25
 4.298116e+001 5.697977e+001 6.354692e+001 8.817625e+001 6.727799e+001 4.222459e+001 5.354522e+001 4.545345e+001 4.969045e+001 5.073890e+001 3.650358e+001 2.516739e+001 9.737592e-001 1.829820e+000 2.086083e+000 2.299379e+000 2.762024e+000 1.886807e+000 2.929026e+000 2.509157e+000 2.094304e+000 2.892989e+000 2.017909e+000 1.812148e+000 1.156728e+000
<GCONST> 1.018207e+002
<STATE> 3
<MEAN> 25
 4.408160e-001 -1.268649e+000 7.625490e-001 -1.613184e+000 -2.788464e-001 -3.960106e-001 5.385566e-001 -1.155222e+000 -9.003921e-001 -6.513987e-001 -1.067114e+000 5.059666e-001 1.922233e-002 -1.256438e-002 7.536158e-003 -1.261292e-002 1.227246e-002 -4.710748e-003 -1.187841e-002 4.262070e-003 1.548787e-002 -2.801058e-002 -1.448681e-002 -1.725110e-002 -6.683402e-003
<VARIANCE> 25
 4.165966e+001 5.704402e+001 6.318608e+001 8.828934e+001 6.769466e+001 4.164568e+001 5.410997e+001 4.491354e+001 4.912188e+001 5.063319e+001 3.602251e+001 2.514441e+001 9.302058e-001 1.809182e+000 2.089822e+000 2.276192e+000 2.762515e+000 1.880166e+000 2.928575e+000 2.499741e+000 2.087866e+000 2.887944e+000 1.998109e+000 1.813065e+000 1.107801e+000
<GCONST> 1.016192e+002
<STATE> 4
<MEAN> 25
 5.457778e-001 -1.486762e+000 7.279345e-001 -1.346585e+000 -1.989698e-001 -3.931839e-001 2.717506e-001 -9.292758e-001 -8.330471e-001 -9.693960e-001 -1.076973e+000 4.085403e-001 4.776240e-003 8.943396e-004 1.237473e-003 1.815001e-002 3.015048e-002 7.390480e-003 -1.157221e-002 1.641298e-002 2.208518e-002 -1.660139e-002 8.747976e-004 -1.796802e-002 -2.784031e-002
<VARIANCE> 25
 4.129902e+001 5.262140e+001 5.861346e+001 7.628838e+001 6.735999e+001 3.925201e+001 5.246442e+001 4.127645e+001 4.744451e+001 5.063873e+001 3.567054e+001 2.476702e+001 8.543767e-001 1.675659e+000 1.955100e+000 2.034309e+000 2.597581e+000 1.813877e+000 2.755275e+000 2.333456e+000 1.989341e+000 2.721384e+000 1.917605e+000 1.713922e+000 9.203289e-001
<GCONST> 1.001111e+002
<TRANSP> 5
 0.000000e+000 1.000000e+000 0.000000e+000 0.000000e+000 0.000000e+000
 0.000000e+000 7.684346e-001 2.315653e-001 0.000000e+000 0.000000e+000
 0.000000e+000 0.000000e+000 7.684343e-001 2.315657e-001 0.000000e+000
 0.000000e+000 0.000000e+000 0.000000e+000 9.052966e-001 9.470343e-002
 0.000000e+000 0.000000e+000 0.000000e+000 0.000000e+000 0.000000e+000
<ENDHMM>
~h "aa"
<BEGINHMM>
<NUMSTATES> 5
<STATE> 2
<MEAN> 25
 8.005314e-001 -1.161828e+000 -2.132008e-001 -4.037541e-001 6.954289e-001 -2.802669e-001 2.045776e-001 -2.489538e-001 -5.862715e-001 -1.008732e+000 -6.536062e-001 1.129460e-001 1.481666e-002 5.795306e-003 1.558877e-002 1.227971e-002 5.177040e-003 -1.944296e-003 -9.139985e-003 -3.752857e-003 -2.636834e-003 -1.490106e-002 5.662520e-004 -4.052555e-003 -1.542506e-003
<VARIANCE> 25
 4.249570e+001 5.409399e+001 5.036427e+001 6.929437e+001 4.960853e+001 3.962687e+001 5.189606e+001 4.171975e+001 4.295020e+001 4.729494e+001 3.767492e+001 2.524626e+001 1.112616e+000 1.820625e+000 1.734114e+000 2.620437e+000 2.343162e+000 2.112062e+000 2.638673e+000 2.571466e+000 2.250714e+000 2.621321e+000 2.169751e+000 1.743634e+000 1.518801e+000
<GCONST> 1.008398e+002
<STATE> 3
<MEAN> 25
 8.484341e-001 -1.125006e+000 -1.419636e-001 -3.547190e-001 7.063427e-001 -2.785756e-001 1.694760e-001 -2.656143e-001 -5.868024e-001 -1.053987e+000 -6.419979e-001 9.330793e-002 9.943364e-003 9.520001e-003 1.665999e-002 1.344534e-002 1.355866e-003 2.272952e-004 -8.662563e-003 -3.393281e-003 1.264868e-003 -8.909387e-003 4.691500e-003 -4.923524e-003 -9.423638e-003
<VARIANCE> 25
 4.123393e+001 5.393490e+001 5.002864e+001 6.899607e+001 4.937119e+001 3.944739e+001 5.190358e+001 4.138241e+001 4.260553e+001 4.697760e+001 3.745804e+001 2.523226e+001 1.087155e+000 1.797618e+000 1.727207e+000 2.595934e+000 2.333731e+000 2.102475e+000 2.629784e+000 2.555456e+000 2.242810e+000 2.618547e+000 2.161118e+000 1.743069e+000 1.484967e+000
<GCONST> 1.006584e+002
<STATE> 4
<MEAN> 25
 8.325205e-001 -9.987183e-001 -7.388406e-002 -2.784707e-001 6.144823e-001 -2.613680e-001 3.675663e-002 -2.957903e-001 -5.407041e-001 -1.066261e+000 -5.760919e-001 8.388220e-002 -2.668265e-003 1.642995e-002 1.763243e-002 1.224802e-002 -9.314385e-004 4.402315e-003 -5.104675e-003 2.828825e-004 9.096879e-003 3.435159e-003 9.823692e-003 -6.701637e-003 -1.959787e-002
<VARIANCE> 25
 4.154642e+001 4.950007e+001 4.728184e+001 6.208774e+001 4.839855e+001 3.765407e+001 5.055970e+001 3.986851e+001 4.116763e+001 4.665491e+001 3.693677e+001 2.471618e+001 1.010547e+000 1.646181e+000 1.629098e+000 2.332029e+000 2.195769e+000 2.023585e+000 2.486937e+000 2.430357e+000 2.138665e+000 2.515745e+000 2.088846e+000 1.682850e+000 1.229442e+000
<GCONST> 9.933475e+001
<TRANSP> 5
 0.000000e+000 1.000000e+000 0.000000e+000 0.000000e+000 0.000000e+000
 0.000000e+000 7.656367e-001 2.343633e-001 0.000000e+000 0.000000e+000
 0.000000e+000 0.000000e+000 7.656364e-001 2.343636e-001 0.000000e+000
 0.000000e+000 0.000000e+000 0.000000e+000 9.018433e-001 9.815665e-002
 0.000000e+000 0.000000e+000 0.000000e+000 0.000000e+000 0.000000e+000
<ENDHMM>
~h "ao"
<BEGINHMM>
<NUMSTATES> 5
<STATE> 2
<MEAN> 25
 1.394859e+000 -7.888641e-001 1.068968e-001 -2.137184e+000 4.105229e-001 -1.039278e+000 9.936085e-001 -3.041244e-001 -2.794208e-001 1.029487e+000 -3.032493e-001 -1.029305e+000 4.610410e-002 -5.739583e-002 -2.196023e-003 -6.313406e-002 -8.894134e-002 -7.624401e-003 5.697280e-002 1.875195e-002 -1.271780e-002 4.555583e-002 -3.126552e-003 -9.458815e-003 4.261819e-002
<VARIANCE> 25
 3.823527e+001 4.656722e+001 4.942241e+001 8.729821e+001 5.951894e+001 3.687367e+001 5.904848e+001 4.612404e+001 4.605686e+001 5.150041e+001 3.889408e+001 2.715235e+001 1.001676e+000 1.603454e+000 1.665902e+000 3.876161e+000 2.562476e+000 2.138296e+000 2.908709e+000 2.607158e+000 2.893700e+000 3.105760e+000 2.295672e+000 1.806572e+000 1.083554e+000
<GCONST> 1.019031e+002
<STATE> 3
<MEAN> 25
 1.585493e+000 -1.007807e+000 9.012626e-002 -2.374955e+000 5.439644e-002 -1.071125e+000 1.214048e+000 -2.286011e-001 -3.455401e-001 1.210781e+000 -3.160893e-001 -1.067801e+000 4.821645e-002 -5.570493e-002 8.671849e-003 -5.463452e-002 -9.339648e-002 -9.471236e-003 5.256880e-002 2.162225e-002 -1.744835e-002 3.806692e-002 -7.983594e-003 -9.743548e-003 3.554267e-002
<VARIANCE> 25
 3.834767e+001 4.742017e+001 4.889939e+001 8.677604e+001 6.225988e+001 3.660408e+001 5.981314e+001 4.723476e+001 4.618127e+001 5.094389e+001 3.870504e+001 2.712521e+001 9.909895e-001 1.596547e+000 1.665093e+000 3.903723e+000 2.618757e+000 2.109467e+000 2.962424e+000 2.683656e+000 2.937370e+000 3.100261e+000 2.302589e+000 1.804233e+000 1.072389e+000
<GCONST> 1.020193e+002
<STATE> 4
<MEAN> 25
 1.414149e+000 -7.818892e-001 2.930268e-001 -2.404429e+000 -4.365259e-001 -9.113498e-001 1.287344e+000 -8.418551e-002 -1.833631e-001 1.527730e+000 -1.516814e-001 -1.051200e+000 4.622125e-002 -3.952580e-002 1.018414e-002 -2.908116e-002 -8.009186e-002 -6.888133e-003 3.160645e-002 1.833483e-002 -2.205542e-002 2.754828e-002 -8.785144e-003 -1.095762e-002 1.482061e-002
<VARIANCE> 25
 4.194645e+001 4.422374e+001 4.653145e+001 8.394785e+001 6.494138e+001 3.528112e+001 5.893787e+001 4.717992e+001 4.514128e+001 4.666690e+001 3.721685e+001 2.582361e+001 9.318548e-001 1.462717e+000 1.576091e+000 3.580740e+000 2.535491e+000 1.982208e+000 2.804376e+000 2.612320e+000 2.819878e+000 2.856970e+000 2.194773e+000 1.723130e+000 9.516527e-001
<GCONST> 1.009445e+002
<TRANSP> 5
 0.000000e+000 1.000000e+000 0.000000e+000 0.000000e+000 0.000000e+000
 0.000000e+000 7.618636e-001 2.381364e-001 0.000000e+000 0.000000e+000
 0.000000e+000 0.000000e+000 7.618636e-001 2.381364e-001 0.000000e+000
 0.000000e+000 0.000000e+000 0.000000e+000 8.971289e-001 1.028710e-001
 0.000000e+000 0.000000e+000 0.000000e+000 0.000000e+000 0.000000e+000
<ENDHMM>
~h "eh"
<BEGINHMM>
<NUMSTATES> 5
<STATE> 2
<MEAN> 25
 2.336478e-001 -2.480374e-001 -7.769273e-001 -3.763895e-001 -1.519104e+000 -9.570409e-001 1.111500e+000 4.132378e-001 -2.309058e-001 4.761079e-001 1.004341e-001 -3.907321e-001 3.378246e-002 1.281798e-003 -1.091122e-002 4.900207e-004 1.174445e-002 -4.356027e-002 9.720491e-003 -4.112206e-003 -3.494301e-002 -2.660690e-002 -4.218506e-002 3.278547e-003 1.049982e-001
<VARIANCE> 25
 5.721374e+001 5.047491e+001 3.970773e+001 6.764245e+001 5.166446e+001 4.442148e+001 4.835497e+001 4.154528e+001 4.337558e+001 4.383405e+001 3.971465e+001 2.628088e+001 1.800132e+000 1.892149e+000 1.464320e+000 3.092828e+000 2.280912e+000 2.530819e+000 2.588764e+000 2.748519e+000 2.530326e+000 2.561544e+000 2.508080e+000 1.704311e+000 1.818923e+000
<GCONST> 1.020270e+002
<STATE> 3
<MEAN> 25
 3.469037e-001 -2.627476e-001 -8.287442e-001 -3.767034e-001 -1.463666e+000 -1.105565e+000 1.123095e+000 3.923939e-001 -3.838097e-001 3.312518e-001 -5.685560e-002 -3.636526e-001 2.069492e-002 -1.480525e-003 -1.503427e-002 -2.710279e-004 2.122928e-002 -3.269187e-002 1.551176e-003 -6.594493e-003 -3.441450e-002 -3.489785e-002 -3.433895e-002 1.162230e-002 8.131526e-002
<VARIANCE> 25
 5.567218e+001 5.184755e+001 4.008131e+001 6.692715e+001 5.157333e+001 4.383157e+001 4.804089e+001 4.155949e+001 4.310848e+001 4.444931e+001 3.993250e+001 2.631879e+001 1.807358e+000 1.969629e+000 1.453039e+000 3.125288e+000 2.293163e+000 2.541896e+000 2.591290e+000 2.779167e+000 2.511323e+000 2.539505e+000 2.526992e+000 1.698423e+000 1.710776e+000
<GCONST> 1.020138e+002
<STATE> 4
<MEAN> 25
 6.304157e-001 -3.643887e-001 -8.933614e-001 -4.303680e-001 -1.336989e+000 -1.251894e+000 8.297064e-001 2.893234e-001 -6.298429e-001 -6.515906e-002 -2.402015e-001 -1.827771e-001 1.036530e-002 -9.211368e-003 -1.048851e-002 3.904852e-003 3.166687e-002 -1.250389e-002 -7.209139e-003 -1.006663e-002 -2.584252e-002 -4.012549e-002 -2.032400e-002 1.730818e-002 3.145714e-002
<VARIANCE> 25
 5.462842e+001 5.051447e+001 3.874206e+001 6.136818e+001 5.103702e+001 4.190203e+001 4.691828e+001 4.060487e+001 4.209987e+001 4.629866e+001 3.989003e+001 2.668303e+001 1.669652e+000 1.951886e+000 1.377042e+000 2.878729e+000 2.214138e+000 2.405436e+000 2.438469e+000 2.649995e+000 2.385658e+000 2.441039e+000 2.441433e+000 1.652426e+000 1.426880e+000
<GCONST> 1.010185e+002
<TRANSP> 5
 0.000000e+000 1.000000e+000 0.000000e+000 0.000000e+000 0.000000e+000
 0.000000e+000 7.637900e-001 2.362100e-001 0.000000e+000 0.000000e+000
 0.000000e+000 0.000000e+000 7.637907e-001 2.362093e-001 0.000000e+000
 0.000000e+000 0.000000e+000 0.000000e+000 8.989999e-001 1.010002e-001
 0.000000e+000 0.000000e+000 0.000000e+000 0.000000e+000 0.000000e+000
<ENDHMM>
~h "hh"
<BEGINHMM>
<NUMSTATES> 5
<STATE> 2
<MEAN> 25
 1.558439e-002 3.311372e-001 2.340502e-001 -5.413437e-001 -4.285333e-001 -4.683550e-001 -8.343875e-001 -4.481575e-001 -5.309807e-002 1.061162e+000 3.996058e-001 1.408636e-002 3.485801e-003 -1.119520e-002 4.181547e-002 -3.559655e-002 1.483819e-002 7.118384e-003 1.242372e-002 -4.842585e-003 -3.524553e-003 -1.113285e-002 -2.759673e-002 2.648468e-003 3.908360e-002
<VARIANCE> 25
 3.547817e+001 2.785069e+001 3.040302e+001 5.062761e+001 4.148887e+001 4.371810e+001 3.695611e+001 3.192442e+001 3.735832e+001 3.657594e+001 3.585958e+001 2.426905e+001 1.117616e+000 1.406734e+000 1.234922e+000 2.411806e+000 2.313453e+000 2.468827e+000 1.992954e+000 2.438755e+000 2.474667e+000 2.403082e+000 2.178570e+000 1.721207e+000 1.040007e+000
<GCONST> 9.675801e+001
<STATE> 3
<MEAN> 25
 3.251447e-002 2.881062e-001 3.911871e-001 -6.982904e-001 -3.913935e-001 -4.391737e-001 -7.783905e-001 -4.702605e-001 -8.022036e-002 1.023168e+000 2.876326e-001 2.644934e-002 5.428723e-003 -1.547840e-002 3.491352e-002 -3.797749e-002 1.378511e-002 6.999365e-003 1.353882e-002 -2.502291e-003 -3.313357e-003 -1.194726e-002 -2.645618e-002 1.796808e-003 4.256413e-002
<VARIANCE> 25
 3.534343e+001 2.832882e+001 3.009523e+001 5.119508e+001 4.251192e+001 4.344656e+001 3.672146e+001 3.267559e+001 3.767107e+001 3.624926e+001 3.600185e+001 2.438347e+001 1.118294e+000 1.442374e+000 1.243355e+000 2.386010e+000 2.304329e+000 2.433070e+000 2.002142e+000 2.459477e+000 2.478426e+000 2.379531e+000 2.175106e+000 1.730449e+000 1.041259e+000
<GCONST> 9.682808e+001
<STATE> 4
<MEAN> 25
 1.703255e-003 5.330166e-002 4.537671e-001 -9.333588e-001 -6.459666e-001 -4.178830e-001 -5.874169e-001 -3.807126e-001 -9.057792e-002 7.921426e-001 8.453241e-002 3.719330e-002 9.581985e-003 -1.528779e-002 1.702312e-002 -3.340696e-002 3.446810e-003 3.020400e-003 1.009576e-002 -2.738989e-004 -1.083797e-002 -1.356448e-002 -1.986178e-002 2.406363e-003 3.652199e-002
<VARIANCE> 25
 3.953178e+001 2.897769e+001 2.841372e+001 4.687397e+001 4.571845e+001 4.077077e+001 3.745432e+001 3.354818e+001 3.889993e+001 3.713546e+001 3.630961e+001 2.366864e+001 1.108349e+000 1.394218e+000 1.193712e+000 2.155816e+000 2.196963e+000 2.261482e+000 1.974148e+000 2.370853e+000 2.361548e+000 2.311249e+000 2.189384e+000 1.695270e+000 8.972399e-001
<GCONST> 9.631033e+001
<TRANSP> 5
 0.000000e+000 1.000000e+000 0.000000e+000 0.000000e+000 0.000000e+000
 0.000000e+000 7.750478e-001 2.249521e-001 0.000000e+000 0.000000e+000
 0.000000e+000 0.000000e+000 7.750475e-001 2.249525e-001 0.000000e+000
 0.000000e+000 0.000000e+000 0.000000e+000 9.112081e-001 8.879192e-002
 0.000000e+000 0.000000e+000 0.000000e+000 0.000000e+000 0.000000e+000
<ENDHMM>
~h "ih"
<BEGINHMM>
<NUMSTATES> 5
<STATE> 2
<MEAN> 25
 -6.403722e-001 1.020638e+000 1.793743e+000 -2.223397e-002 -7.175932e-001 1.596793e-001 -5.731573e-001 -4.134623e-001 3.427962e-001 4.576284e-001 -2.026373e-001 2.135609e-001 9.273836e-003 -9.815292e-003 -1.611115e-002 -7.205258e-003 1.833144e-002 9.500101e-003 1.275287e-002 -3.266908e-003 6.399171e-003 -1.850543e-003 -4.798763e-003 2.544590e-004 8.747672e-003
<VARIANCE> 25
 3.655590e+001 4.152992e+001 6.135007e+001 8.426870e+001 4.836169e+001 4.075308e+001 5.153511e+001 4.529089e+001 4.167079e+001 4.275732e+001 3.211316e+001 2.513560e+001 8.777204e-001 1.386923e+000 2.064188e+000 3.034372e+000 2.309922e+000 1.987157e+000 2.575097e+000 2.415379e+000 2.349931e+000 2.663615e+000 2.060170e+000 1.766066e+000 1.214720e+000
<GCONST> 1.000465e+002
<STATE> 3
<MEAN> 25
 -6.053154e-001 9.818860e-001 1.727118e+000 -4.544060e-002 -6.362634e-001 1.962990e-001 -5.184736e-001 -4.201477e-001 3.680884e-001 4.505655e-001 -2.155264e-001 2.105059e-001 9.988372e-003 -1.028237e-002 -2.076539e-002 -7.946342e-003 1.955456e-002 8.698105e-003 1.352562e-002 -1.477450e-003 5.185822e-003 -4.838094e-003 -3.809299e-003 -2.145924e-003 1.002622e-002
<VARIANCE> 25
 3.614250e+001 4.096912e+001 6.087828e+001 8.393286e+001 4.862110e+001 4.068201e+001 5.145848e+001 4.519000e+001 4.160627e+001 4.268467e+001 3.204099e+001 2.523298e+001 8.618447e-001 1.373913e+000 2.055605e+000 3.012067e+000 2.312534e+000 1.979445e+000 2.557856e+000 2.401784e+000 2.332884e+000 2.646380e+000 2.046296e+000 1.767202e+000 1.197565e+000
<GCONST> 9.991960e+001
<STATE> 4
<MEAN> 25
 -5.563042e-001 9.358579e-001 1.710676e+000 -1.377136e-002 -4.891567e-001 2.307752e-001 -3.896778e-001 -4.352594e-001 3.352417e-001 4.981322e-001 -2.367144e-001 8.373152e-002 7.309577e-003 -1.109712e-002 -2.389468e-002 -4.094785e-003 2.105214e-002 6.870068e-003 1.609657e-002 3.532754e-003 4.417819e-003 -6.031048e-003 -7.819269e-004 -3.476818e-003 6.980345e-003
<VARIANCE> 25
 3.468322e+001 3.794161e+001 5.966027e+001 7.700887e+001 5.086282e+001 3.981974e+001 5.179932e+001 4.431450e+001 3.975189e+001 4.260740e+001 3.168520e+001 2.516796e+001 8.073319e-001 1.290712e+000 1.953781e+000 2.771621e+000 2.248946e+000 1.949324e+000 2.441593e+000 2.300229e+000 2.222022e+000 2.523177e+000 1.976002e+000 1.712117e+000 1.051768e+000
<GCONST> 9.895730e+001
<TRANSP> 5
 0.000000e+000 1.000000e+000 0.000000e+000 0.000000e+000 0.000000e+000
 0.000000e+000 7.592554e-001 2.407446e-001 0.000000e+000 0.000000e+000
 0.000000e+000 0.000000e+000 7.592561e-001 2.407439e-001 0.000000e+000
 0.000000e+000 0.000000e+000 0.000000e+000 8.933387e-001 1.066613e-001
 0.000000e+000 0.000000e+000 0.000000e+000 0.000000e+000 0.000000e+000
<ENDHMM>
~h "ng"
<BEGINHMM>
<NUMSTATES> 5
<STATE> 2
<MEAN> 25
 1.348132e+000 -5.806479e-001 6.158687e-001 -5.849302e-001 -1.618023e-001 -4.589107e-001 7.072888e-001 -3.717862e-002 -2.479434e-001 2.924564e-001 -7.473314e-001 -8.241377e-001 -2.876672e-002 2.465542e-002 -2.477577e-002 8.638965e-002 2.582213e-002 1.336626e-002 -1.205340e-002 2.706429e-003 -2.937358e-003 -5.983293e-003 2.316753e-002 2.178095e-002 -8.364510e-002
<VARIANCE> 25
 3.647010e+001 4.958809e+001 4.932877e+001 7.808052e+001 5.878415e+001 3.872297e+001 5.376677e+001 4.646202e+001 4.679202e+001 4.328782e+001 3.908111e+001 2.885575e+001 7.907431e-001 1.536030e+000 1.619329e+000 2.868077e+000 2.431696e+000 1.874942e+000 2.664879e+000 2.608562e+000 2.556213e+000 2.573866e+000 2.211604e+000 1.633698e+000 1.210082e+000
<GCONST> 1.004439e+002
<STATE> 3
<MEAN> 25
 1.211425e+000 -4.742197e-001 5.183018e-001 -2.480173e-001 -4.248414e-002 -3.927423e-001 6.742329e-001 -1.581501e-002 -2.510009e-001 2.888873e-001 -6.378377e-001 -7.245187e-001 -3.101735e-002 2.660687e-002 -2.328176e-002 8.000633e-002 2.761667e-002 1.657095e-002 -1.845500e-002 1.784303e-003 -1.969495e-003 -2.191806e-003 3.152083e-002 2.644161e-002 -8.035270e-002
<VARIANCE> 25
 3.562955e+001 4.869992e+001 4.834549e+001 7.503390e+001 5.626090e+001 3.804521e+001 5.291146e+001 4.450421e+001 4.514731e+001 4.283070e+001 3.916521e+001 2.902042e+001 7.970971e-001 1.510749e+000 1.597391e+000 2.774181e+000 2.353806e+000 1.861078e+000 2.612741e+000 2.526980e+000 2.513521e+000 2.511554e+000 2.214566e+000 1.633864e+000 1.238354e+000
<GCONST> 1.000196e+002
<STATE> 4
<MEAN> 25
 9.958180e-001 -1.772926e-001 5.081034e-001 5.429068e-002 -5.636859e-002 -3.045937e-001 5.637853e-001 -1.829974e-002 -2.256810e-001 4.735886e-001 -4.279532e-001 -7.035910e-001 -3.902731e-002 2.711367e-002 -1.318131e-002 6.437785e-002 3.205754e-002 2.116109e-002 -1.438922e-002 1.022393e-002 6.143069e-003 2.795964e-003 3.531272e-002 2.882264e-002 -6.825858e-002
<VARIANCE> 25
 3.552953e+001 4.349953e+001 4.696237e+001 6.922520e+001 5.562319e+001 3.642804e+001 4.990977e+001 4.042494e+001 4.175356e+001 4.188793e+001 3.780506e+001 2.883883e+001 7.466334e-001 1.396142e+000 1.524240e+000 2.563062e+000 2.193569e+000 1.785498e+000 2.455276e+000 2.317648e+000 2.377013e+000 2.358761e+000 2.093218e+000 1.572501e+000 1.145582e+000
<GCONST> 9.862082e+001
<TRANSP> 5
 0.000000e+000 1.000000e+000 0.000000e+000 0.000000e+000 0.000000e+000
 0.000000e+000 7.576867e-001 2.423133e-001 0.000000e+000 0.000000e+000
 0.000000e+000 0.000000e+000 7.576871e-001 2.423130e-001 0.000000e+000
 0.000000e+000 0.000000e+000 0.000000e+000 8.914450e-001 1.085549e-001
 0.000000e+000 0.000000e+000 0.000000e+000 0.000000e+000 0.000000e+000
<ENDHMM>
~h "oh"
<BEGINHMM>
<NUMSTATES> 5
<STATE> 2
<MEAN> 25
 1.292055e-008 1.831648e-008 -6.299361e-008 6.397928e-009 6.513714e-008 4.146926e-008 -2.503356e-008 -3.737221e-008 4.785829e-009 -8.260601e-008 4.838081e-008 -2.966501e-008 7.700191e-003 5.403126e-003 9.986212e-003 -4.435305e-003 5.198286e-003 1.178548e-003 5.735684e-003 -2.200497e-003 -9.225003e-004 -6.409926e-004 -2.520854e-003 -2.406914e-003 2.725629e-002
<VARIANCE> 25
 4.587285e+001 1.030148e+002 6.019880e+001 7.829473e+001 5.465159e+001 4.961901e+001 6.176896e+001 4.825900e+001 4.880714e+001 4.872197e+001 3.755544e+001 3.288158e+001 1.069084e+000 2.243620e+000 1.931021e+000 2.910384e+000 2.554792e+000 2.477852e+000 2.995093e+000 2.747025e+000 2.618064e+000 2.724945e+000 2.375594e+000 2.010036e+000 1.498881e+000
<GCONST> 1.041510e+002
<STATE> 3
<MEAN> 25
 1.292055e-008 1.831648e-008 -6.299361e-008 6.397928e-009 6.513714e-008 4.146926e-008 -2.503356e-008 -3.737221e-008 4.785829e-009 -8.260601e-008 4.838081e-008 -2.966501e-008 7.700191e-003 5.403126e-003 9.986212e-003 -4.435305e-003 5.198286e-003 1.178548e-003 5.735684e-003 -2.200497e-003 -9.225003e-004 -6.409926e-004 -2.520854e-003 -2.406914e-003 2.725629e-002
<VARIANCE> 25
 4.587285e+001 1.030148e+002 6.019880e+001 7.829473e+001 5.465159e+001 4.961901e+001 6.176896e+001 4.825900e+001 4.880714e+001 4.872197e+001 3.755544e+001 3.288158e+001 1.069084e+000 2.243620e+000 1.931021e+000 2.910384e+000 2.554792e+000 2.477852e+000 2.995093e+000 2.747025e+000 2.618064e+000 2.724945e+000 2.375594e+000 2.010036e+000 1.498881e+000
<GCONST> 1.041510e+002
<STATE> 4
<MEAN> 25
 1.292055e-008 1.831648e-008 -6.299361e-008 6.397928e-009 6.513714e-008 4.146926e-008 -2.503356e-008 -3.737221e-008 4.785829e-009 -8.260601e-008 4.838081e-008 -2.966501e-008 7.700191e-003 5.403126e-003 9.986212e-003 -4.435305e-003 5.198286e-003 1.178548e-003 5.735684e-003 -2.200497e-003 -9.225003e-004 -6.409926e-004 -2.520854e-003 -2.406914e-003 2.725629e-002
<VARIANCE> 25
 4.587285e+001 1.030148e+002 6.019880e+001 7.829473e+001 5.465159e+001 4.961901e+001 6.176896e+001 4.825900e+001 4.880714e+001 4.872197e+001 3.755544e+001 3.288158e+001 1.069084e+000 2.243620e+000 1.931021e+000 2.910384e+000 2.554792e+000 2.477852e+000 2.995093e+000 2.747025e+000 2.618064e+000 2.724945e+000 2.375594e+000 2.010036e+000 1.498881e+000
<GCONST> 1.041510e+002
<TRANSP> 5
 0.000000e+000 1.000000e+000 0.000000e+000 0.000000e+000 0.000000e+000
 0.000000e+000 6.000000e-001 4.000000e-001 0.000000e+000 0.000000e+000
 0.000000e+000 0.000000e+000 6.000000e-001 4.000000e-001 0.000000e+000
 0.000000e+000 0.000000e+000 0.000000e+000 7.000000e-001 3.000000e-001
 0.000000e+000 0.000000e+000 0.000000e+000 0.000000e+000 0.000000e+000
<ENDHMM>
~h "uw"
<BEGINHMM>
<NUMSTATES> 5
<STATE> 2
<MEAN> 25
 1.178085e+000 8.550599e-001 -6.783176e-001 -1.006316e+000 3.160728e-001 -6.214467e-001 -1.041263e+000 -8.663862e-001 -2.628061e-001 6.941602e-001 5.408550e-001 -4.982866e-001 1.225159e-002 -4.256604e-003 3.755849e-003 -1.122609e-002 2.098500e-002 -1.943985e-003 3.089512e-003 -2.917620e-003 1.463023e-003 1.583792e-002 2.042757e-003 -3.963852e-003 2.371499e-002
<VARIANCE> 25
 4.226781e+001 3.299183e+001 4.098429e+001 7.396123e+001 4.090672e+001 4.447175e+001 4.804626e+001 3.576745e+001 3.766104e+001 3.900886e+001 3.400317e+001 2.578602e+001 1.209125e+000 1.364757e+000 1.560739e+000 3.314518e+000 2.278233e+000 2.624306e+000 2.380150e+000 2.471857e+000 2.570984e+000 2.580041e+000 2.232463e+000 1.829583e+000 1.587736e+000
<GCONST> 9.969428e+001
<STATE> 3
<MEAN> 25
 1.203666e+000 8.386194e-001 -6.614048e-001 -1.040216e+000 3.921324e-001 -6.196643e-001 -1.016410e+000 -8.650284e-001 -2.431307e-001 7.612885e-001 5.497854e-001 -5.062429e-001 8.336825e-003 -5.961113e-003 5.491555e-003 -7.730139e-003 2.071326e-002 7.340640e-004 6.092605e-003 6.199471e-004 4.316308e-003 1.643052e-002 7.818290e-004 -1.559610e-003 1.971641e-002
<VARIANCE> 25
 4.104677e+001 3.278914e+001 4.077383e+001 7.396184e+001 4.061094e+001 4.459756e+001 4.773419e+001 3.554861e+001 3.754321e+001 3.901933e+001 3.401183e+001 2.573242e+001 1.195176e+000 1.376212e+000 1.571124e+000 3.331560e+000 2.269791e+000 2.620096e+000 2.382541e+000 2.472462e+000 2.583924e+000 2.595599e+000 2.232848e+000 1.834695e+000 1.563346e+000
<GCONST> 9.963486e+001
<STATE> 4
<MEAN> 25
 1.037103e+000 8.532274e-001 -5.795929e-001 -1.107148e+000 4.296459e-001 -6.005765e-001 -9.190255e-001 -7.372018e-001 -5.884624e-002 8.448685e-001 5.739806e-001 -5.304770e-001 -2.188034e-003 -5.486845e-003 7.788166e-003 -1.860080e-004 1.402326e-002 6.446989e-003 9.873583e-003 6.089173e-003 7.532362e-003 1.063147e-002 -1.062467e-003 2.210260e-003 6.546729e-003
<VARIANCE> 25
 4.223739e+001 3.016295e+001 3.883231e+001 6.896730e+001 3.944106e+001 4.334592e+001 4.841559e+001 3.580272e+001 3.699360e+001 3.796444e+001 3.348850e+001 2.441240e+001 1.105202e+000 1.284762e+000 1.497425e+000 3.073282e+000 2.112975e+000 2.463134e+000 2.316041e+000 2.407634e+000 2.476917e+000 2.501984e+000 2.155071e+000 1.759255e+000 1.278356e+000
<GCONST> 9.849281e+001
<TRANSP> 5
 0.000000e+000 1.000000e+000 0.000000e+000 0.000000e+000 0.000000e+000
 0.000000e+000 7.626957e-001 2.373043e-001 0.000000e+000 0.000000e+000
 0.000000e+000 0.000000e+000 7.626968e-001 2.373032e-001 0.000000e+000
 0.000000e+000 0.000000e+000 0.000000e+000 8.973494e-001 1.026506e-001
 0.000000e+000 0.000000e+000 0.000000e+000 0.000000e+000 0.000000e+000
<ENDHMM>
~h "sil"
<BEGINHMM>
<NUMSTATES> 5
<STATE> 2
<MEAN> 25
 -7.610075e+000 3.314562e+000 -1.986565e+000 5.513563e+000 -2.104418e+000 4.857299e+000 -1.835131e-001 3.738944e+000 3.776036e+000 2.942727e+000 3.581754e+000 1.190735e+000 -7.231911e-002 1.509517e-002 -1.543637e-002 -4.458445e-002 7.792442e-002 1.087676e-001 -3.295254e-002 -7.748711e-002 4.560877e-002 1.457614e-001 1.111566e-001 -1.657743e-001 2.055835e-001
<VARIANCE> 25
 8.353201e+001 1.920884e+001 2.989915e+001 2.474676e+001 3.881407e+001 2.383122e+001 2.846399e+001 3.033522e+001 3.487410e+001 2.127302e+001 2.464788e+001 1.637743e+001 5.511379e-001 3.224360e-001 4.619707e-001 5.758523e-001 7.326996e-001 9.407814e-001 1.059528e+000 1.288924e+000 1.251201e+000 1.411471e+000 1.179831e+000 1.368359e+000 2.026715e+000
<GCONST> 8.477648e+001
<STATE> 3
<MEAN> 25
 -7.744912e+000 3.327812e+000 -1.989656e+000 5.415088e+000 -1.781101e+000 4.950340e+000 -7.717517e-002 3.742113e+000 3.893255e+000 2.984543e+000 3.646446e+000 1.095892e+000 -5.137023e-003 7.155280e-003 1.607327e-002 -1.946075e-002 8.187131e-002 9.252241e-003 4.537343e-002 1.620991e-002 2.035371e-002 -1.996971e-002 -1.459596e-002 5.709640e-003 4.004519e-001
<VARIANCE> 25
 7.397919e+001 1.864118e+001 2.946350e+001 2.442639e+001 3.725682e+001 2.232049e+001 2.934949e+001 3.105737e+001 3.701855e+001 2.183988e+001 2.431649e+001 1.472747e+001 1.020170e+000 3.870239e-001 5.800233e-001 6.486488e-001 8.107952e-001 9.496264e-001 1.087709e+000 1.298868e+000 1.325800e+000 1.403296e+000 1.226007e+000 1.175366e+000 3.538380e+000
<GCONST> 8.629652e+001
<STATE> 4
<MEAN> 25
 -5.884558e+000 2.426703e+000 -1.370868e+000 4.605239e+000 -6.456084e-001 4.033893e+000 7.456224e-001 3.088678e+000 3.085942e+000 2.602812e+000 2.849038e+000 1.051931e+000 1.346782e-001 -3.897854e-002 6.726840e-002 -1.514129e-002 9.479672e-002 -4.262116e-002 3.763371e-002 -2.969512e-002 -4.021546e-002 -1.492334e-002 -4.443594e-002 2.944983e-002 3.838731e-001
<VARIANCE> 25
 5.943836e+001 2.007102e+001 2.652954e+001 2.596810e+001 3.527898e+001 2.306025e+001 3.130017e+001 3.123550e+001 3.540057e+001 2.452772e+001 2.409872e+001 1.664149e+001 1.266375e+000 5.913749e-001 8.092616e-001 9.397404e-001 1.090468e+000 1.210962e+000 1.362587e+000 1.482055e+000 1.526742e+000 1.534294e+000 1.438927e+000 1.309165e+000 2.965139e+000
<GCONST> 8.890276e+001
<TRANSP> 5
 0.000000e+000 1.000000e+000 0.000000e+000 0.000000e+000 0.000000e+000
 0.000000e+000 7.651768e-001 2.348232e-001 0.000000e+000 0.000000e+000
 0.000000e+000 0.000000e+000 7.651765e-001 2.348235e-001 0.000000e+000
 0.000000e+000 0.000000e+000 0.000000e+000 9.004021e-001 9.959796e-002
 0.000000e+000 0.000000e+000 0.000000e+000 0.000000e+000 0.000000e+000
<ENDHMM>
