~o
<STREAMINFO> 1 25
<VECSIZE> 25<NULLD><MFCC_D_N_Z_0><DIAGC>
~h "b"
<BEGINHMM>
<NUMSTATES> 5
<STATE> 2
<MEAN> 25
 -4.640811e-001 -5.140741e-001 1.009246e+000 4.690487e-001 -1.172928e+000 8.052654e-002 -4.585001e-001 3.487999e-001 -6.284233e-001 1.783746e-001 -3.281180e-001 -5.138105e-001 -9.922594e-003 -2.218441e-002 2.331737e-003 1.886628e-002 -1.119506e-003 -3.336918e-003 -4.456111e-002 2.760203e-003 1.374797e-002 6.405810e-003 -6.752067e-003 -5.727598e-003 2.649203e-002
<VARIANCE> 25
 5.194244e+001 1.447227e+002 7.779189e+001 8.107500e+001 7.803535e+001 6.310853e+001 8.523930e+001 6.267132e+001 5.337732e+001 5.268508e+001 4.237781e+001 3.878582e+001 1.268568e+000 3.583774e+000 2.722544e+000 3.963656e+000 3.935688e+000 3.644446e+000 4.350926e+000 3.657087e+000 3.471947e+000 3.257844e+000 3.282582e+000 2.535602e+000 1.844940e+000
<GCONST> 1.105338e+002
<STATE> 3
<MEAN> 25
 -4.452372e-001 -6.259664e-001 1.025982e+000 5.459161e-001 -1.166990e+000 5.588625e-002 -6.491846e-001 3.448077e-001 -5.780077e-001 2.036012e-001 -3.725927e-001 -5.470906e-001 3.595243e-003 -1.824695e-002 2.459031e-003 1.657046e-002 3.004836e-003 1.650783e-003 -3.967251e-002 5.681169e-004 1.140657e-002 6.219190e-003 -8.523121e-003 -4.967752e-003 1.010901e-002
<VARIANCE> 25
 5.261296e+001 1.464469e+002 7.706356e+001 8.017107e+001 7.810291e+001 6.248771e+001 8.514851e+001 6.255896e+001 5.290203e+001 5.224834e+001 4.301412e+001 3.860366e+001 1.256667e+000 3.624892e+000 2.684457e+000 3.962370e+000 3.954770e+000 3.645266e+000 4.323207e+000 3.652238e+000 3.460380e+000 3.262181e+000 3.287118e+000 2.525401e+000 1.686028e+000
<GCONST> 1.104090e+002
<STATE> 4
<MEAN> 25
 -2.899241e-001 -1.155681e+000 1.086474e+000 7.097917e-001 -8.062168e-001 3.039677e-002 -7.050042e-001 1.422066e-001 -6.012193e-001 2.208635e-001 -4.550944e-001 -6.664989e-001 1.418518e-002 -1.555332e-002 -3.996099e-003 1.264734e-002 8.490012e-003 -9.823932e-004 -2.831531e-002 -1.398941e-003 6.658868e-003 1.816319e-003 -8.976363e-003 -2.282453e-003 1.088280e-002
<VARIANCE> 25
 5.049551e+001 1.455601e+002 7.326038e+001 7.587074e+001 7.744525e+001 5.879691e+001 8.542422e+001 5.870195e+001 5.285818e+001 5.220459e+001 4.295946e+001 3.858421e+001 1.206030e+000 3.633992e+000 2.658593e+000 3.897706e+000 3.947963e+000 3.662000e+000 4.235867e+000 3.619408e+000 3.449405e+000 3.208725e+000 3.138924e+000 2.509789e+000 1.517549e+000
<GCONST> 1.098543e+002
<TRANSP> 5
 0.000000e+000 1.000000e+000 0.000000e+000 0.000000e+000 0.000000e+000
 0.000000e+000 7.891213e-001 2.108787e-001 0.000000e+000 0.000000e+000
 0.000000e+000 0.000000e+000 7.891216e-001 2.108783e-001 0.000000e+000
 0.000000e+000 0.000000e+000 0.000000e+000 9.269750e-001 7.302495e-002
 0.000000e+000 0.000000e+000 0.000000e+000 0.000000e+000 0.000000e+000
<ENDHMM>
~h "c"
<BEGINHMM>
<NUMSTATES> 5
<STATE> 2
<MEAN> 25
 4.492237e-008 5.845701e-009 -1.328185e-007 -1.974899e-008 8.013701e-008 5.326083e-008 -2.952693e-008 -7.096470e-008 9.339078e-009 -1.337489e-007 6.334598e-008 -5.331350e-008 -9.746575e-004 8.824667e-003 5.857049e-003 -6.106692e-003 1.834674e-003 2.140600e-003 6.438790e-003 2.552634e-004 2.233275e-003 1.652292e-004 -2.947775e-004 1.625022e-004 1.768339e-002
<VARIANCE> 25
 5.093745e+001 1.386368e+002 7.180528e+001 8.644808e+001 6.100111e+001 5.655713e+001 7.255057e+001 5.467440e+001 5.467830e+001 5.295312e+001 4.155158e+001 3.905978e+001 1.136743e+000 2.774379e+000 2.153254e+000 3.157753e+000 2.791123e+000 2.802559e+000 3.391059e+000 2.977390e+000 2.833076e+000 2.917275e+000 2.609103e+000 2.223614e+000 1.691524e+000
<GCONST> 1.071680e+002
<STATE> 3
<MEAN> 25
 4.492237e-008 5.845701e-009 -1.328185e-007 -1.974899e-008 8.013701e-008 5.326083e-008 -2.952693e-008 -7.096470e-008 9.339078e-009 -1.337489e-007 6.334598e-008 -5.331350e-008 -9.746575e-004 8.824667e-003 5.857049e-003 -6.106692e-003 1.834674e-003 2.140600e-003 6.438790e-003 2.552634e-004 2.233275e-003 1.652292e-004 -2.947775e-004 1.625022e-004 1.768339e-002
<VARIANCE> 25
 5.093745e+001 1.386368e+002 7.180528e+001 8.644808e+001 6.100111e+001 5.655713e+001 7.255057e+001 5.467440e+001 5.467830e+001 5.295312e+001 4.155158e+001 3.905978e+001 1.136743e+000 2.774379e+000 2.153254e+000 3.157753e+000 2.791123e+000 2.802559e+000 3.391059e+000 2.977390e+000 2.833076e+000 2.917275e+000 2.609103e+000 2.223614e+000 1.691524e+000
<GCONST> 1.071680e+002
<STATE> 4
<MEAN> 25
 4.492237e-008 5.845701e-009 -1.328185e-007 -1.974899e-008 8.013701e-008 5.326083e-008 -2.952693e-008 -7.096470e-008 9.339078e-009 -1.337489e-007 6.334598e-008 -5.331350e-008 -9.746575e-004 8.824667e-003 5.857049e-003 -6.106692e-003 1.834674e-003 2.140600e-003 6.438790e-003 2.552634e-004 2.233275e-003 1.652292e-004 -2.947775e-004 1.625022e-004 1.768339e-002
<VARIANCE> 25
 5.093745e+001 1.386368e+002 7.180528e+001 8.644808e+001 6.100111e+001 5.655713e+001 7.255057e+001 5.467440e+001 5.467830e+001 5.295312e+001 4.155158e+001 3.905978e+001 1.136743e+000 2.774379e+000 2.153254e+000 3.157753e+000 2.791123e+000 2.802559e+000 3.391059e+000 2.977390e+000 2.833076e+000 2.917275e+000 2.609103e+000 2.223614e+000 1.691524e+000
<GCONST> 1.071680e+002
<TRANSP> 5
 0.000000e+000 1.000000e+000 0.000000e+000 0.000000e+000 0.000000e+000
 0.000000e+000 6.000000e-001 4.000000e-001 0.000000e+000 0.000000e+000
 0.000000e+000 0.000000e+000 6.000000e-001 4.000000e-001 0.000000e+000
 0.000000e+000 0.000000e+000 0.000000e+000 7.000000e-001 3.000000e-001
 0.000000e+000 0.000000e+000 0.000000e+000 0.000000e+000 0.000000e+000
<ENDHMM>
~h "d"
<BEGINHMM>
<NUMSTATES> 5
<STATE> 2
<MEAN> 25
 8.734459e-001 1.332821e+000 6.381562e-001 -5.143984e-001 1.155468e+000 -1.599956e+000 -6.057184e-001 -4.658691e-001 -1.372172e-001 -7.062298e-001 -5.660071e-002 -4.108445e-002 1.893626e-002 -2.660323e-002 2.258209e-003 2.490057e-002 1.222469e-002 -9.481146e-003 -1.090991e-003 1.035550e-002 -2.616051e-004 -7.608735e-003 9.921866e-003 3.582217e-003 2.699935e-002
<VARIANCE> 25
 3.485381e+001 1.692451e+002 8.047362e+001 1.082109e+002 6.422634e+001 6.758915e+001 8.325956e+001 5.086172e+001 5.239075e+001 5.493442e+001 4.680892e+001 4.379723e+001 7.904286e-001 3.725224e+000 2.762643e+000 3.789786e+000 3.026973e+000 3.243525e+000 4.082120e+000 3.176079e+000 3.365472e+000 3.174879e+000 2.980410e+000 2.438355e+000 1.837881e+000
<GCONST> 1.092547e+002
<STATE> 3
<MEAN> 25
 9.523906e-001 1.156280e+000 6.599755e-001 -3.460404e-001 1.217100e+000 -1.682817e+000 -6.451340e-001 -4.008176e-001 -1.258772e-001 -7.143395e-001 -2.519125e-002 -5.466874e-002 1.823355e-002 -4.153561e-002 -3.439465e-005 3.549802e-002 1.379635e-002 -1.543657e-002 -7.245787e-003 1.696720e-002 3.049227e-003 -6.659685e-003 7.585730e-003 -2.589590e-003 2.986838e-002
<VARIANCE> 25
 3.480750e+001 1.708461e+002 7.963820e+001 1.095401e+002 6.442761e+001 6.868564e+001 8.398714e+001 5.098572e+001 5.317319e+001 5.526857e+001 4.705798e+001 4.372495e+001 7.797638e-001 3.778663e+000 2.788411e+000 3.793853e+000 2.997733e+000 3.247770e+000 4.081857e+000 3.170279e+000 3.342356e+000 3.178234e+000 2.985714e+000 2.431063e+000 1.840574e+000
<GCONST> 1.093146e+002
<STATE> 4
<MEAN> 25
 6.564364e-001 8.989400e-001 7.410052e-001 3.497624e-001 1.082500e+000 -1.847780e+000 -7.836080e-001 1.754991e-001 -1.060112e-002 -6.260999e-001 -8.361072e-002 -2.267029e-001 1.219688e-002 -5.285801e-002 5.150403e-003 3.339631e-002 4.468896e-003 -1.862675e-002 -1.166114e-002 1.884342e-002 6.309377e-004 1.520025e-003 4.059115e-003 -9.273163e-003 2.846870e-002
<VARIANCE> 25
 3.512217e+001 1.847229e+002 7.683277e+001 1.098953e+002 6.565573e+001 7.164901e+001 8.617342e+001 5.136097e+001 5.694532e+001 5.527518e+001 4.708624e+001 4.486655e+001 7.255245e-001 3.928865e+000 2.715663e+000 3.754703e+000 2.949713e+000 3.245495e+000 4.026696e+000 3.109595e+000 3.339662e+000 3.080272e+000 2.922195e+000 2.461863e+000 1.681076e+000
<GCONST> 1.093068e+002
<TRANSP> 5
 0.000000e+000 1.000000e+000 0.000000e+000 0.000000e+000 0.000000e+000
 0.000000e+000 7.839428e-001 2.160572e-001 0.000000e+000 0.000000e+000
 0.000000e+000 0.000000e+000 7.839425e-001 2.160574e-001 0.000000e+000
 0.000000e+000 0.000000e+000 0.000000e+000 9.219741e-001 7.802597e-002
 0.000000e+000 0.000000e+000 0.000000e+000 0.000000e+000 0.000000e+000
<ENDHMM>
~h "g"
<BEGINHMM>
<NUMSTATES> 5
<STATE> 2
<MEAN> 25
 7.703449e-001 1.061329e-001 1.218022e+000 -8.887599e-001 9.099188e-001 -3.478763e-001 -1.094683e-001 -6.246457e-001 -7.911592e-001 -1.962389e-001 -1.409654e-002 -8.132479e-001 1.821213e-002 2.504506e-003 -3.308985e-002 -5.207572e-003 1.233536e-002 4.643525e-002 3.249040e-002 -7.140639e-004 1.175232e-002 2.066260e-002 -1.385453e-002 4.010183e-003 -2.849011e-002
<VARIANCE> 25
 3.887025e+001 1.280473e+002 9.346321e+001 1.024002e+002 7.394788e+001 6.024323e+001 8.424480e+001 6.438134e+001 5.752566e+001 6.468797e+001 4.805746e+001 4.511632e+001 1.156262e+000 3.361238e+000 2.457878e+000 4.154095e+000 2.972327e+000 3.166620e+000 3.770374e+000 3.323898e+000 3.365985e+000 3.717643e+000 2.938747e+000 2.471534e+000 2.249425e+000
<GCONST> 1.103013e+002
<STATE> 3
<MEAN> 25
 8.208002e-001 1.414568e-001 1.081750e+000 -9.147525e-001 9.542810e-001 -1.662957e-001 4.761215e-002 -6.148392e-001 -7.444872e-001 -1.105841e-001 -5.907384e-002 -7.875835e-001 1.289554e-002 -1.582529e-003 -3.810820e-002 -4.402053e-003 2.616544e-003 4.533501e-002 3.856866e-002 6.595611e-003 1.394477e-002 1.915099e-002 -1.027213e-002 9.204515e-003 -3.100680e-002
<VARIANCE> 25
 3.849328e+001 1.278498e+002 9.091891e+001 1.002649e+002 7.376143e+001 6.012614e+001 8.397695e+001 6.456218e+001 5.692016e+001 6.300581e+001 4.736016e+001 4.504741e+001 1.121606e+000 3.294371e+000 2.403162e+000 4.108395e+000 2.964989e+000 3.151865e+000 3.774994e+000 3.327077e+000 3.323765e+000 3.659392e+000 2.907511e+000 2.458716e+000 2.214153e+000
<GCONST> 1.100342e+002
<STATE> 4
<MEAN> 25
 5.151206e-001 3.312213e-001 9.188023e-001 -6.884590e-001 8.590876e-001 1.499118e-001 2.188802e-001 -4.940353e-001 -4.089615e-001 2.532516e-001 8.517327e-002 -6.983758e-001 1.712185e-003 -3.240754e-004 -2.864398e-002 -2.875536e-003 -3.694998e-003 3.156770e-002 3.772540e-002 1.367678e-002 1.082007e-002 1.958429e-002 -1.136692e-003 6.576979e-003 -2.547396e-002
<VARIANCE> 25
 3.772584e+001 1.353955e+002 8.234650e+001 9.605755e+001 7.194595e+001 5.829563e+001 7.934980e+001 6.305240e+001 5.458305e+001 5.678989e+001 4.580814e+001 4.331033e+001 9.529868e-001 3.215910e+000 2.227089e+000 3.769004e+000 2.857934e+000 3.107791e+000 3.615558e+000 3.188344e+000 3.154011e+000 3.296428e+000 2.745238e+000 2.362612e+000 1.887617e+000
<GCONST> 1.086752e+002
<TRANSP> 5
 0.000000e+000 1.000000e+000 0.000000e+000 0.000000e+000 0.000000e+000
 0.000000e+000 7.698618e-001 2.301382e-001 0.000000e+000 0.000000e+000
 0.000000e+000 0.000000e+000 7.698613e-001 2.301387e-001 0.000000e+000
 0.000000e+000 0.000000e+000 0.000000e+000 9.090720e-001 9.092800e-002
 0.000000e+000 0.000000e+000 0.000000e+000 0.000000e+000 0.000000e+000
<ENDHMM>
~h "h"
<BEGINHMM>
<NUMSTATES> 5
<STATE> 2
<MEAN> 25
 -3.017956e+000 -1.124424e+000 -2.530690e+000 2.641492e+000 3.348336e-001 2.666705e+000 3.603389e-001 4.230586e+000 3.210503e+000 -4.346172e-001 2.493542e+000 6.074801e-001 7.903598e-002 1.078903e-002 -5.630531e-002 -4.894088e-002 -4.605744e-002 7.656989e-002 1.776270e-002 -7.261813e-002 -7.829920e-002 -9.923816e-002 -9.133143e-002 7.271391e-002 1.795361e-002
<VARIANCE> 25
 1.178762e+002 9.645246e+001 3.576374e+001 6.007767e+001 2.884624e+001 4.281765e+001 4.971798e+001 9.020647e+001 1.004702e+002 5.150141e+001 4.912622e+001 6.069799e+001 7.538726e-001 1.768419e+000 1.633783e+000 2.020363e+000 2.058937e+000 2.506779e+000 3.184217e+000 2.807109e+000 3.241417e+000 2.515466e+000 2.652375e+000 2.377533e+000 6.197480e-001
<GCONST> 1.038122e+002
<STATE> 3
<MEAN> 25
 -2.468494e+000 -1.189397e+000 -2.888641e+000 2.400397e+000 1.287516e-002 2.879013e+000 4.142160e-001 3.849602e+000 2.838053e+000 -8.416162e-001 2.051501e+000 1.037621e+000 1.102117e-001 -3.959876e-002 -7.582213e-002 -6.454977e-002 -7.007783e-002 4.461523e-002 2.029765e-002 -7.461108e-002 -7.450842e-002 -6.765572e-002 -8.093961e-002 8.843135e-002 6.685022e-002
<VARIANCE> 25
 1.222100e+002 1.078264e+002 3.642818e+001 6.011371e+001 2.958703e+001 4.147327e+001 5.355009e+001 9.249533e+001 1.033626e+002 5.543627e+001 5.158759e+001 5.849361e+001 8.688163e-001 1.992071e+000 1.727939e+000 2.075319e+000 2.003401e+000 2.374866e+000 3.250252e+000 2.729384e+000 3.202161e+000 2.505791e+000 2.663218e+000 2.326253e+000 7.279032e-001
<GCONST> 1.045674e+002
<STATE> 4
<MEAN> 25
 1.497159e+000 -1.788388e+000 -3.202780e+000 1.110603e+000 -8.727812e-001 1.541704e+000 -5.831728e-001 3.552293e-001 -4.777467e-001 -2.794614e+000 -3.363172e-002 1.370402e+000 9.507887e-002 -1.815709e-002 -3.300399e-002 -6.166139e-002 -6.561688e-002 -1.333338e-002 8.823939e-003 -1.032155e-001 -5.794209e-002 -2.164131e-003 -4.140861e-002 4.015473e-002 7.945843e-002
<VARIANCE> 25
 1.019184e+002 1.107930e+002 4.003232e+001 5.181404e+001 3.214338e+001 4.321091e+001 6.362637e+001 9.229228e+001 9.199174e+001 6.624349e+001 5.060503e+001 5.118990e+001 1.079489e+000 2.095419e+000 1.918759e+000 2.211871e+000 1.927398e+000 2.164795e+000 3.321546e+000 2.750085e+000 2.955051e+000 2.520523e+000 2.619049e+000 2.117711e+000 8.633341e-001
<GCONST> 1.048815e+002
<TRANSP> 5
 0.000000e+000 1.000000e+000 0.000000e+000 0.000000e+000 0.000000e+000
 0.000000e+000 7.795982e-001 2.204018e-001 0.000000e+000 0.000000e+000
 0.000000e+000 0.000000e+000 7.795982e-001 2.204018e-001 0.000000e+000
 0.000000e+000 0.000000e+000 0.000000e+000 9.236076e-001 7.639237e-002
 0.000000e+000 0.000000e+000 0.000000e+000 0.000000e+000 0.000000e+000
<ENDHMM>
~h "j"
<BEGINHMM>
<NUMSTATES> 5
<STATE> 2
<MEAN> 25
 -9.021856e-001 1.688239e+000 -3.495404e+000 1.506629e+000 -3.883923e+000 5.138847e-001 -1.988932e+000 -2.389859e-001 -1.761764e+000 2.100521e+000 5.401642e-001 -4.534249e-001 -1.131621e-002 6.220753e-002 8.151992e-002 -2.856551e-002 4.577619e-002 -1.467435e-002 5.837059e-003 7.559454e-003 1.626134e-002 2.109382e-002 -2.647911e-003 -1.613142e-002 7.650113e-003
<VARIANCE> 25
 5.758278e+001 1.454055e+002 5.863373e+001 6.241668e+001 4.526611e+001 7.551057e+001 5.973822e+001 4.113457e+001 4.251942e+001 5.825140e+001 6.292165e+001 8.423731e+001 1.413104e+000 3.683448e+000 1.634623e+000 3.510214e+000 3.251742e+000 3.767540e+000 3.327924e+000 4.069616e+000 3.040437e+000 2.912733e+000 3.535171e+000 2.405267e+000 3.257355e+000
<GCONST> 1.095294e+002
<STATE> 3
<MEAN> 25
 -9.314534e-001 1.991370e+000 -3.113136e+000 1.379677e+000 -3.723285e+000 3.927368e-001 -2.013831e+000 -2.712014e-001 -1.745193e+000 2.129734e+000 4.750381e-001 -5.188538e-001 -1.252538e-004 6.478065e-002 1.010153e-001 -3.802621e-002 4.201919e-002 -3.450899e-002 -3.671090e-003 -9.662551e-003 1.916546e-003 -5.257842e-003 -1.829416e-002 -1.104718e-002 2.683310e-002
<VARIANCE> 25
 5.580482e+001 1.414401e+002 6.084253e+001 6.383617e+001 4.591232e+001 7.935989e+001 6.050830e+001 4.214401e+001 4.484362e+001 6.019026e+001 6.364044e+001 8.637807e+001 1.445355e+000 3.797976e+000 1.748009e+000 3.576385e+000 3.416335e+000 3.894130e+000 3.380927e+000 4.204500e+000 3.148852e+000 3.141767e+000 3.615937e+000 2.540782e+000 3.389217e+000
<GCONST> 1.102508e+002
<STATE> 4
<MEAN> 25
 -4.535668e-001 2.293527e+000 -1.903550e+000 9.905934e-001 -3.418356e+000 6.473332e-002 -1.821704e+000 -5.818805e-001 -1.795820e+000 1.536425e+000 1.455723e-003 -1.135863e+000 4.798081e-003 6.454728e-002 1.338029e-001 -4.556354e-002 4.270408e-002 -4.326989e-002 -1.005000e-002 -3.361903e-002 -3.059079e-003 -3.503728e-002 -4.179190e-002 -1.711101e-003 4.849693e-002
<VARIANCE> 25
 5.100610e+001 1.500513e+002 6.090502e+001 6.675196e+001 5.028908e+001 7.997016e+001 6.355360e+001 4.748900e+001 5.060770e+001 6.316040e+001 6.775633e+001 9.291761e+001 1.472792e+000 4.224239e+000 1.920552e+000 3.818092e+000 3.817599e+000 4.004559e+000 3.684366e+000 4.654417e+000 3.401458e+000 3.559540e+000 3.921104e+000 2.765259e+000 3.497874e+000
<GCONST> 1.118482e+002
<TRANSP> 5
 0.000000e+000 1.000000e+000 0.000000e+000 0.000000e+000 0.000000e+000
 0.000000e+000 7.622728e-001 2.377272e-001 0.000000e+000 0.000000e+000
 0.000000e+000 0.000000e+000 7.622727e-001 2.377273e-001 0.000000e+000
 0.000000e+000 0.000000e+000 0.000000e+000 8.912059e-001 1.087941e-001
 0.000000e+000 0.000000e+000 0.000000e+000 0.000000e+000 0.000000e+000
<ENDHMM>
~h "k"
<BEGINHMM>
<NUMSTATES> 5
<STATE> 2
<MEAN> 25
 1.430109e+000 -1.204913e+000 -7.613015e-001 1.959041e-001 5.638198e-001 1.003359e-001 5.529587e-001 -9.526948e-001 -3.436241e-001 -4.446279e-001 -8.828772e-001 -2.912854e-001 1.531327e-002 -9.078309e-003 1.487350e-003 1.795763e-003 5.511275e-003 -3.422618e-003 3.930601e-002 2.836361e-003 -4.883233e-004 -1.081847e-002 3.932374e-003 7.472753e-003 3.465736e-002
<VARIANCE> 25
 4.899286e+001 1.296717e+002 7.498285e+001 7.584235e+001 6.337806e+001 4.961055e+001 7.798621e+001 5.171527e+001 6.011353e+001 5.699723e+001 4.036671e+001 3.362558e+001 1.556078e+000 3.585959e+000 2.418618e+000 3.842325e+000 3.480399e+000 2.922907e+000 3.645000e+000 3.388432e+000 3.191532e+000 3.344464e+000 2.695431e+000 2.356236e+000 2.627140e+000
<GCONST> 1.090219e+002
<STATE> 3
<MEAN> 25
 1.452034e+000 -1.213923e+000 -7.402872e-001 2.106378e-001 5.718063e-001 8.416957e-002 7.253251e-001 -9.084581e-001 -3.153794e-001 -4.633421e-001 -8.491746e-001 -2.647336e-001 1.296961e-002 -3.672109e-003 6.266856e-003 -2.093695e-003 9.111702e-004 -5.132549e-003 3.711367e-002 6.625411e-003 3.213042e-003 -7.652383e-003 6.818816e-003 4.012478e-003 2.955855e-002
<VARIANCE> 25
 4.803958e+001 1.285543e+002 7.474717e+001 7.586135e+001 6.333856e+001 5.045380e+001 7.774168e+001 5.184801e+001 5.943236e+001 5.693505e+001 4.039598e+001 3.317144e+001 1.527816e+000 3.598811e+000 2.441610e+000 3.903023e+000 3.475241e+000 2.963269e+000 3.710639e+000 3.414827e+000 3.192083e+000 3.372769e+000 2.690298e+000 2.378484e+000 2.561502e+000
<GCONST> 1.090200e+002
<STATE> 4
<MEAN> 25
 1.129018e+000 -1.158916e+000 -8.624929e-001 1.934893e-001 3.899542e-001 2.397448e-001 1.191640e+000 -7.194423e-001 -2.108005e-001 -2.415868e-001 -7.016756e-001 -3.436030e-001 -3.536382e-003 1.373542e-002 1.213901e-002 -2.343968e-003 -5.153750e-003 -5.579859e-003 2.768118e-002 1.501748e-002 1.334425e-002 2.186656e-003 1.241441e-002 1.574878e-003 5.484710e-003
<VARIANCE> 25
 4.671150e+001 1.308437e+002 6.942841e+001 7.284342e+001 6.152998e+001 4.996288e+001 7.515619e+001 5.200777e+001 5.650928e+001 5.555629e+001 3.926199e+001 3.223932e+001 1.331707e+000 3.567307e+000 2.272598e+000 3.686264e+000 3.352525e+000 2.824443e+000 3.654677e+000 3.326999e+000 3.026966e+000 3.254544e+000 2.602257e+000 2.370127e+000 2.060833e+000
<GCONST> 1.079505e+002
<TRANSP> 5
 0.000000e+000 1.000000e+000 0.000000e+000 0.000000e+000 0.000000e+000
 0.000000e+000 7.794390e-001 2.205610e-001 0.000000e+000 0.000000e+000
 0.000000e+000 0.000000e+000 7.794388e-001 2.205612e-001 0.000000e+000
 0.000000e+000 0.000000e+000 0.000000e+000 9.187624e-001 8.123767e-002
 0.000000e+000 0.000000e+000 0.000000e+000 0.000000e+000 0.000000e+000
<ENDHMM>
~h "l"
<BEGINHMM>
<NUMSTATES> 5
<STATE> 2
<MEAN> 25
 5.641959e-001 4.535299e-001 3.779771e-001 7.156841e-002 -7.463603e-001 -4.717940e-001 -6.593143e-001 6.061240e-001 1.075346e+000 -6.592170e-001 -4.329518e-001 1.722034e-001 5.310246e-004 1.937053e-002 2.190570e-002 -1.326344e-002 3.315237e-002 -3.803711e-003 1.142841e-002 -9.195827e-004 5.427980e-003 2.929718e-003 1.238286e-002 -1.098093e-002 3.777413e-002
<VARIANCE> 25
 5.628783e+001 1.665242e+002 6.887552e+001 8.820890e+001 6.447359e+001 6.390202e+001 8.577754e+001 6.350395e+001 5.522520e+001 5.098320e+001 4.454763e+001 4.519730e+001 1.280766e+000 3.036792e+000 2.211490e+000 4.049284e+000 3.368902e+000 3.591475e+000 3.893495e+000 3.567003e+000 3.193698e+000 3.126206e+000 2.834048e+000 2.549200e+000 1.926196e+000
<GCONST> 1.098902e+002
<STATE> 3
<MEAN> 25
 5.051712e-001 5.638187e-001 4.599780e-001 5.679708e-002 -5.930505e-001 -4.665321e-001 -6.134804e-001 6.354140e-001 1.139278e+000 -6.107586e-001 -3.628716e-001 1.230768e-001 -4.391600e-003 1.489892e-002 1.728575e-002 -7.347646e-003 3.767520e-002 -4.671859e-003 1.105598e-002 -3.349293e-003 6.127276e-003 7.822214e-003 1.261120e-002 -1.613955e-002 3.524817e-002
<VARIANCE> 25
 5.382750e+001 1.664763e+002 6.964583e+001 8.852989e+001 6.314649e+001 6.361428e+001 8.589951e+001 6.284140e+001 5.402200e+001 5.065855e+001 4.403026e+001 4.538543e+001 1.250898e+000 3.010495e+000 2.174839e+000 4.016592e+000 3.304124e+000 3.584105e+000 3.914707e+000 3.547212e+000 3.198897e+000 3.148087e+000 2.815874e+000 2.561258e+000 1.895487e+000
<GCONST> 1.097018e+002
<STATE> 4
<MEAN> 25
 4.102876e-001 5.504837e-001 2.421710e-001 1.636273e-002 -3.593953e-001 -4.583113e-001 -4.451326e-001 5.255901e-001 1.184801e+000 -4.052456e-001 -3.402477e-001 7.971302e-003 -2.166431e-002 1.778319e-002 7.057469e-003 4.072156e-003 3.000769e-002 5.806103e-003 1.441874e-002 1.174101e-002 1.298399e-002 1.473655e-002 1.056341e-002 -1.440096e-002 -1.403245e-003
<VARIANCE> 25
 4.877674e+001 1.636283e+002 6.561903e+001 8.261248e+001 6.094427e+001 6.198075e+001 8.450858e+001 6.104028e+001 5.225808e+001 4.833215e+001 4.151898e+001 4.453167e+001 1.057195e+000 2.859230e+000 2.068467e+000 3.677920e+000 3.162799e+000 3.486103e+000 3.833288e+000 3.501199e+000 3.064394e+000 2.997895e+000 2.707266e+000 2.527396e+000 1.504761e+000
<GCONST> 1.083535e+002
<TRANSP> 5
 0.000000e+000 1.000000e+000 0.000000e+000 0.000000e+000 0.000000e+000
 0.000000e+000 7.822423e-001 2.177577e-001 0.000000e+000 0.000000e+000
 0.000000e+000 0.000000e+000 7.822425e-001 2.177575e-001 0.000000e+000
 0.000000e+000 0.000000e+000 0.000000e+000 9.197695e-001 8.023050e-002
 0.000000e+000 0.000000e+000 0.000000e+000 0.000000e+000 0.000000e+000
<ENDHMM>
~h "m"
<BEGINHMM>
<NUMSTATES> 5
<STATE> 2
<MEAN> 25
 5.846152e-001 1.786529e-001 4.509319e-001 6.674753e-002 -1.373305e-001 -2.955697e-001 -3.235161e-001 4.215898e-002 2.303026e-001 -1.108274e+000 -6.560935e-001 -1.789821e-001 -4.912391e-003 1.255699e-002 8.394087e-003 6.998464e-003 1.213998e-002 -7.785749e-003 -1.593038e-002 5.483023e-003 1.291652e-002 -5.701242e-003 5.535169e-003 -9.372452e-003 -2.004360e-003
<VARIANCE> 25
 5.015849e+001 1.496085e+002 7.200536e+001 9.553643e+001 6.205252e+001 5.686833e+001 7.834031e+001 5.452421e+001 5.182734e+001 5.546776e+001 4.006657e+001 3.827149e+001 1.072489e+000 2.713971e+000 2.251702e+000 3.190429e+000 2.750446e+000 2.826241e+000 3.367878e+000 2.943697e+000 2.664486e+000 2.834697e+000 2.602509e+000 2.162348e+000 1.399608e+000
<GCONST> 1.070045e+002
<STATE> 3
<MEAN> 25
 5.879571e-001 2.058089e-001 4.696538e-001 1.128337e-001 -5.758387e-002 -3.129166e-001 -3.945095e-001 4.268800e-002 2.754512e-001 -1.123746e+000 -6.249579e-001 -2.160408e-001 -1.044515e-003 6.552777e-003 3.977741e-003 8.863016e-003 1.358079e-002 -4.572227e-003 -1.720534e-002 2.120914e-003 1.076251e-002 -1.698514e-003 8.798596e-003 -8.888697e-003 -6.354508e-003
<VARIANCE> 25
 5.029293e+001 1.482613e+002 7.157378e+001 9.507072e+001 6.182022e+001 5.732187e+001 7.849563e+001 5.544318e+001 5.179435e+001 5.558943e+001 4.035400e+001 3.831888e+001 1.062823e+000 2.694670e+000 2.238314e+000 3.176848e+000 2.760281e+000 2.857351e+000 3.365823e+000 2.972303e+000 2.669566e+000 2.847669e+000 2.613167e+000 2.150667e+000 1.354898e+000
<GCONST> 1.069899e+002
<STATE> 4
<MEAN> 25
 7.979115e-001 2.538618e-002 2.626056e-001 5.176695e-002 8.882521e-002 -2.109403e-001 -3.642667e-001 -1.977696e-001 1.762663e-001 -1.090238e+000 -6.011342e-001 -2.794689e-001 2.656031e-003 -2.672405e-003 -3.242929e-003 1.021039e-002 1.466496e-002 -1.736622e-003 -1.127628e-002 -3.259039e-003 5.212653e-003 1.815867e-003 7.517018e-003 -6.905457e-003 -2.529839e-003
<VARIANCE> 25
 4.899210e+001 1.524332e+002 6.975268e+001 8.938551e+001 6.184152e+001 5.618055e+001 7.901379e+001 5.554956e+001 4.966666e+001 5.457023e+001 4.142267e+001 3.886297e+001 1.005725e+000 2.749920e+000 2.202661e+000 3.050671e+000 2.783367e+000 2.879778e+000 3.349583e+000 3.008280e+000 2.644996e+000 2.810377e+000 2.594291e+000 2.140110e+000 1.257515e+000
<GCONST> 1.066951e+002
<TRANSP> 5
 0.000000e+000 1.000000e+000 0.000000e+000 0.000000e+000 0.000000e+000
 0.000000e+000 7.836446e-001 2.163554e-001 0.000000e+000 0.000000e+000
 0.000000e+000 0.000000e+000 7.836441e-001 2.163559e-001 0.000000e+000
 0.000000e+000 0.000000e+000 0.000000e+000 9.216053e-001 7.839471e-002
 0.000000e+000 0.000000e+000 0.000000e+000 0.000000e+000 0.000000e+000
<ENDHMM>
~h "n"
<BEGINHMM>
<NUMSTATES> 5
<STATE> 2
<MEAN> 25
 4.071904e-001 -2.147905e-001 -2.844502e-003 3.396534e-002 2.365444e-001 1.288005e-001 5.071702e-001 -6.718603e-001 -4.807978e-001 -1.555459e-001 2.636899e-001 2.386715e-002 -1.645355e-002 6.013328e-003 8.693906e-003 -1.328063e-002 -3.722368e-003 1.387712e-002 1.326045e-002 1.758580e-003 9.547503e-003 4.149467e-003 3.098090e-003 5.113817e-003 -1.182484e-002
<VARIANCE> 25
 4.749442e+001 1.337459e+002 7.172261e+001 8.393010e+001 5.867746e+001 5.618448e+001 7.217935e+001 5.039499e+001 5.570129e+001 5.269779e+001 4.290797e+001 3.668206e+001 1.231008e+000 2.795253e+000 2.175354e+000 3.306462e+000 2.895779e+000 2.744033e+000 3.461719e+000 3.000999e+000 2.857754e+000 2.939764e+000 2.638313e+000 2.158624e+000 1.821043e+000
<GCONST> 1.071415e+002
<STATE> 3
<MEAN> 25
 3.431240e-001 -1.695854e-001 2.789364e-002 -2.194319e-002 2.276718e-001 1.822882e-001 5.665470e-001 -6.636327e-001 -4.423758e-001 -1.382076e-001 2.757456e-001 3.439746e-002 -1.523867e-002 5.030361e-003 8.148005e-003 -1.218357e-002 -1.529519e-003 1.284995e-002 1.274266e-002 2.909885e-003 9.684366e-003 4.150085e-003 1.660320e-003 2.983967e-003 -1.079855e-002
<VARIANCE> 25
 4.800005e+001 1.335604e+002 7.143614e+001 8.445126e+001 5.840946e+001 5.535055e+001 7.180474e+001 5.013590e+001 5.585233e+001 5.286929e+001 4.279421e+001 3.664692e+001 1.228668e+000 2.788443e+000 2.165756e+000 3.330911e+000 2.882148e+000 2.726907e+000 3.444339e+000 2.978994e+000 2.852576e+000 2.937689e+000 2.629251e+000 2.165896e+000 1.801694e+000
<GCONST> 1.070873e+002
<STATE> 4
<MEAN> 25
 2.109394e-001 6.898029e-002 1.660562e-002 -4.042346e-002 2.340155e-001 3.484800e-001 6.832107e-001 -6.007779e-001 -3.298257e-001 3.000673e-002 3.399050e-001 1.661214e-002 -1.021588e-002 7.545782e-003 4.782166e-003 -7.763956e-003 2.829165e-003 6.076229e-003 1.079942e-002 4.525509e-003 6.583174e-003 2.922632e-003 -9.410747e-004 -6.407000e-004 -8.479445e-003
<VARIANCE> 25
 4.645203e+001 1.384895e+002 7.117964e+001 8.239156e+001 5.788732e+001 5.350663e+001 7.094068e+001 4.987243e+001 5.429240e+001 5.216696e+001 4.152649e+001 3.657780e+001 1.119752e+000 2.796396e+000 2.092271e+000 3.216842e+000 2.801337e+000 2.669422e+000 3.354736e+000 2.935352e+000 2.787812e+000 2.848763e+000 2.558605e+000 2.143947e+000 1.549112e+000
<GCONST> 1.064362e+002
<TRANSP> 5
 0.000000e+000 1.000000e+000 0.000000e+000 0.000000e+000 0.000000e+000
 0.000000e+000 7.749509e-001 2.250491e-001 0.000000e+000 0.000000e+000
 0.000000e+000 0.000000e+000 7.749505e-001 2.250495e-001 0.000000e+000
 0.000000e+000 0.000000e+000 0.000000e+000 9.133898e-001 8.661016e-002
 0.000000e+000 0.000000e+000 0.000000e+000 0.000000e+000 0.000000e+000
<ENDHMM>
~h "p"
<BEGINHMM>
<NUMSTATES> 5
<STATE> 2
<MEAN> 25
 -8.785834e-001 -9.374416e-001 -6.545787e-001 6.144641e-002 1.757376e-001 4.529364e-001 6.358700e-002 1.834416e-001 1.617808e-001 2.880055e-001 2.082007e-001 3.416511e-001 3.125941e-002 -1.366117e-002 1.459671e-002 1.397394e-002 1.116486e-002 -1.045413e-002 -1.658390e-002 -4.940222e-004 -2.996112e-002 -1.729520e-002 -2.512479e-002 -1.078927e-002 4.103408e-002
<VARIANCE> 25
 6.095640e+001 1.128748e+002 7.026136e+001 9.229726e+001 4.987757e+001 6.064477e+001 5.981033e+001 6.059525e+001 4.950408e+001 4.723079e+001 3.864372e+001 3.657554e+001 1.597134e+000 2.758683e+000 1.914566e+000 2.965356e+000 2.402029e+000 2.830416e+000 2.925650e+000 2.972191e+000 2.790081e+000 2.836416e+000 2.500342e+000 2.314731e+000 2.004836e+000
<GCONST> 1.066004e+002
<STATE> 3
<MEAN> 25
 -7.161604e-001 -1.021692e+000 -5.884563e-001 1.213529e-001 2.026566e-001 4.011374e-001 9.164831e-003 2.164056e-001 7.240615e-002 2.216206e-001 1.131189e-001 3.092898e-001 3.471822e-002 -7.751344e-003 1.306884e-002 1.738895e-002 6.066959e-003 -9.654620e-003 -1.305065e-002 1.254185e-002 -2.153679e-002 -1.358890e-002 -2.002233e-002 -8.542347e-003 2.003534e-002
<VARIANCE> 25
 6.152287e+001 1.136578e+002 7.139588e+001 9.212211e+001 4.916243e+001 6.137761e+001 5.992188e+001 6.080455e+001 4.932215e+001 4.806139e+001 3.950003e+001 3.641782e+001 1.616683e+000 2.791656e+000 1.914766e+000 2.945231e+000 2.435521e+000 2.858827e+000 2.942726e+000 3.019363e+000 2.805583e+000 2.866647e+000 2.557465e+000 2.311208e+000 1.906375e+000
<GCONST> 1.067145e+002
<STATE> 4
<MEAN> 25
 -3.092611e-001 -1.449410e+000 -5.949724e-001 2.089653e-001 2.078037e-001 1.001818e-001 -4.094277e-002 3.807680e-001 1.744665e-002 -3.335791e-002 -1.520423e-001 3.298217e-001 2.993985e-002 -8.823057e-003 6.902704e-003 8.710583e-003 -8.728705e-003 -1.160495e-002 -1.023482e-002 1.169175e-002 -1.279730e-002 -1.725165e-002 -1.675650e-002 2.596918e-004 1.593855e-002
<VARIANCE> 25
 5.771891e+001 1.179838e+002 6.721061e+001 8.063187e+001 4.577918e+001 5.736819e+001 5.781118e+001 5.747126e+001 4.632986e+001 5.034529e+001 4.084287e+001 3.516532e+001 1.645482e+000 2.812365e+000 1.862452e+000 2.726456e+000 2.432773e+000 2.852990e+000 2.850741e+000 3.049826e+000 2.713081e+000 2.878027e+000 2.656821e+000 2.269045e+000 1.670185e+000
<GCONST> 1.059987e+002
<TRANSP> 5
 0.000000e+000 1.000000e+000 0.000000e+000 0.000000e+000 0.000000e+000
 0.000000e+000 7.786387e-001 2.213613e-001 0.000000e+000 0.000000e+000
 0.000000e+000 0.000000e+000 7.786387e-001 2.213612e-001 0.000000e+000
 0.000000e+000 0.000000e+000 0.000000e+000 9.191830e-001 8.081695e-002
 0.000000e+000 0.000000e+000 0.000000e+000 0.000000e+000 0.000000e+000
<ENDHMM>
~h "r"
<BEGINHMM>
<NUMSTATES> 5
<STATE> 2
<MEAN> 25
 2.271177e+000 -2.078442e+000 -6.031551e-001 -2.049005e+000 2.794595e-001 -1.563028e-001 1.703724e+000 -6.780525e-001 -1.035904e+000 5.679565e-001 -1.513412e-002 -1.152294e+000 -7.336657e-003 8.048611e-003 2.448077e-002 -1.120235e-002 -2.827887e-002 -7.886363e-003 2.928478e-003 3.707756e-003 3.414782e-003 3.054086e-002 4.654650e-003 -1.038880e-002 -1.533323e-002
<VARIANCE> 25
 4.410360e+001 1.506798e+002 7.458947e+001 9.193008e+001 8.120345e+001 5.208527e+001 9.176593e+001 6.197886e+001 5.548550e+001 5.226667e+001 5.010360e+001 4.199500e+001 1.153224e+000 3.037910e+000 2.306445e+000 3.865779e+000 3.359809e+000 3.086809e+000 4.495562e+000 3.429597e+000 3.302290e+000 3.285347e+000 3.025244e+000 2.479630e+000 1.664528e+000
<GCONST> 1.096265e+002
<STATE> 3
<MEAN> 25
 2.248103e+000 -2.071192e+000 -5.457588e-001 -2.056843e+000 1.942189e-001 -1.819688e-001 1.683026e+000 -6.489769e-001 -1.019882e+000 7.056247e-001 1.695805e-002 -1.199862e+000 -1.279767e-002 1.604718e-002 2.738356e-002 -4.833254e-003 -2.379255e-002 -9.397863e-003 -9.048770e-003 4.084783e-003 9.214214e-003 2.886965e-002 2.952261e-003 -5.785383e-003 -2.628322e-002
<VARIANCE> 25
 4.413710e+001 1.508015e+002 7.423958e+001 9.322398e+001 8.202604e+001 5.126301e+001 9.201395e+001 6.255761e+001 5.533222e+001 5.106687e+001 5.018036e+001 4.165382e+001 1.145440e+000 2.980724e+000 2.304411e+000 3.863594e+000 3.385186e+000 3.027240e+000 4.502643e+000 3.458941e+000 3.264062e+000 3.253579e+000 3.041310e+000 2.469326e+000 1.643001e+000
<GCONST> 1.095486e+002
<STATE> 4
<MEAN> 25
 1.877792e+000 -1.818608e+000 -6.621290e-001 -1.551282e+000 1.526223e-001 9.333724e-002 1.129774e+000 -4.777929e-001 -6.383854e-001 1.196941e+000 4.113553e-001 -1.147708e+000 -1.380255e-002 1.740484e-002 1.538747e-002 1.146444e-002 -1.203196e-002 -6.052103e-003 -2.124930e-002 5.870683e-003 1.311707e-002 2.366769e-002 1.769540e-003 -4.222498e-003 -3.485700e-002
<VARIANCE> 25
 4.633294e+001 1.565969e+002 7.279551e+001 9.246381e+001 8.392050e+001 4.898180e+001 8.886349e+001 5.937697e+001 5.389636e+001 4.814155e+001 4.803245e+001 4.021232e+001 1.036351e+000 2.820759e+000 2.271805e+000 3.607942e+000 3.363276e+000 2.992068e+000 4.202726e+000 3.335670e+000 3.143926e+000 3.017386e+000 2.895667e+000 2.402727e+000 1.432034e+000
<GCONST> 1.086450e+002
<TRANSP> 5
 0.000000e+000 1.000000e+000 0.000000e+000 0.000000e+000 0.000000e+000
 0.000000e+000 7.755998e-001 2.244002e-001 0.000000e+000 0.000000e+000
 0.000000e+000 0.000000e+000 7.756009e-001 2.243992e-001 0.000000e+000
 0.000000e+000 0.000000e+000 0.000000e+000 9.157056e-001 8.429445e-002
 0.000000e+000 0.000000e+000 0.000000e+000 0.000000e+000 0.000000e+000
<ENDHMM>
~h "s"
<BEGINHMM>
<NUMSTATES> 5
<STATE> 2
<MEAN> 25
 -1.241323e+000 -3.931839e-001 -5.002242e-001 -3.821512e-001 -6.427438e-001 4.616448e-001 3.499757e-001 5.654217e-001 -3.067877e-001 2.352055e-001 5.597249e-001 5.833830e-001 1.640896e-002 -2.466903e-002 7.002474e-003 -1.829333e-002 2.230399e-002 -1.271789e-002 1.595434e-002 -2.422038e-002 -2.313696e-002 -1.347685e-002 -4.290700e-003 1.493972e-002 6.116512e-002
<VARIANCE> 25
 6.380361e+001 1.247391e+002 7.093419e+001 8.694288e+001 5.053087e+001 5.669321e+001 6.221208e+001 5.433386e+001 6.166567e+001 5.306649e+001 4.041005e+001 3.707927e+001 1.433956e+000 2.544070e+000 1.956135e+000 2.898144e+000 2.535166e+000 2.628245e+000 3.148672e+000 2.867100e+000 2.781733e+000 3.036010e+000 2.598522e+000 2.317717e+000 1.641975e+000
<GCONST> 1.066985e+002
<STATE> 3
<MEAN> 25
 -1.153503e+000 -5.042434e-001 -4.677612e-001 -4.647083e-001 -5.522611e-001 4.130803e-001 3.953474e-001 4.404840e-001 -3.934803e-001 1.912659e-001 5.447844e-001 6.423093e-001 2.274321e-002 -2.436119e-002 6.959814e-003 -1.635700e-002 2.287693e-002 -1.300488e-002 1.260191e-002 -2.974672e-002 -2.063869e-002 -9.292085e-003 -4.613942e-003 1.088396e-002 5.850488e-002
<VARIANCE> 25
 6.420280e+001 1.242808e+002 7.223540e+001 8.712928e+001 5.077068e+001 5.692873e+001 6.214588e+001 5.448024e+001 6.192425e+001 5.348599e+001 4.034576e+001 3.737474e+001 1.461401e+000 2.540932e+000 1.993279e+000 2.935107e+000 2.555442e+000 2.658731e+000 3.189368e+000 2.860932e+000 2.831741e+000 3.099787e+000 2.584777e+000 2.326840e+000 1.626080e+000
<GCONST> 1.068571e+002
<STATE> 4
<MEAN> 25
 -6.819119e-001 -7.275454e-001 -2.333519e-001 -7.520896e-001 -5.723125e-001 2.530570e-001 2.704543e-001 6.282214e-003 -6.474870e-001 -9.185895e-002 3.682475e-001 7.717088e-001 2.181864e-002 -1.401517e-002 2.125198e-002 -1.524391e-002 8.259689e-003 -1.066655e-002 -1.887505e-005 -3.417290e-002 -1.366968e-002 -6.651532e-003 -8.454243e-003 1.300905e-003 4.468591e-002
<VARIANCE> 25
 6.032394e+001 1.287943e+002 7.285652e+001 7.936086e+001 5.360246e+001 5.325278e+001 5.991296e+001 5.141131e+001 5.813729e+001 5.474905e+001 4.011457e+001 3.705284e+001 1.441344e+000 2.497358e+000 2.010217e+000 2.800023e+000 2.578346e+000 2.639327e+000 3.095042e+000 2.797450e+000 2.796824e+000 3.098841e+000 2.539588e+000 2.306437e+000 1.428248e+000
<GCONST> 1.062949e+002
<TRANSP> 5
 0.000000e+000 1.000000e+000 0.000000e+000 0.000000e+000 0.000000e+000
 0.000000e+000 7.809372e-001 2.190628e-001 0.000000e+000 0.000000e+000
 0.000000e+000 0.000000e+000 7.809376e-001 2.190624e-001 0.000000e+000
 0.000000e+000 0.000000e+000 0.000000e+000 9.217079e-001 7.829206e-002
 0.000000e+000 0.000000e+000 0.000000e+000 0.000000e+000 0.000000e+000
<ENDHMM>
~h "t"
<BEGINHMM>
<NUMSTATES> 5
<STATE> 2
<MEAN> 25
 1.084503e+000 -2.946742e-001 -4.710811e-001 -4.299878e-002 -3.280440e-001 -3.549210e-001 3.731885e-001 -1.520245e-001 -9.480585e-001 -5.822445e-001 -2.771806e-001 -1.067643e-001 1.651094e-002 -5.397361e-003 5.285913e-003 -3.403828e-002 -6.324967e-003 -2.140734e-002 3.792841e-002 -2.589780e-002 -3.950944e-002 -1.606647e-002 -7.113456e-004 -1.031179e-002 6.346352e-002
<VARIANCE> 25
 4.985692e+001 1.597392e+002 6.634649e+001 7.819300e+001 6.898373e+001 5.543208e+001 9.176978e+001 5.232206e+001 6.003903e+001 5.316087e+001 4.737061e+001 4.657516e+001 1.442089e+000 3.902010e+000 2.469847e+000 3.801041e+000 3.373055e+000 3.599320e+000 4.330053e+000 3.535788e+000 3.441930e+000 3.287856e+000 2.900197e+000 2.430181e+000 3.354905e+000
<GCONST> 1.107583e+002
<STATE> 3
<MEAN> 25
 1.150707e+000 -3.066315e-001 -4.558620e-001 -1.826971e-001 -3.379458e-001 -4.121492e-001 5.253951e-001 -2.312679e-001 -1.090561e+000 -6.365469e-001 -2.802745e-001 -1.375943e-001 1.574013e-002 -4.005582e-003 1.109014e-002 -3.567110e-002 -7.018761e-004 -1.486974e-002 3.817387e-002 -2.293293e-002 -3.759133e-002 -1.056926e-002 -2.271986e-003 -1.102538e-002 4.847154e-002
<VARIANCE> 25
 4.798238e+001 1.585912e+002 6.685158e+001 7.723234e+001 6.879731e+001 5.514939e+001 9.371119e+001 5.236219e+001 5.917220e+001 5.268814e+001 4.764314e+001 4.751609e+001 1.422397e+000 3.916631e+000 2.479877e+000 3.810115e+000 3.396488e+000 3.632102e+000 4.411300e+000 3.583372e+000 3.473432e+000 3.276165e+000 2.923219e+000 2.461458e+000 3.189208e+000
<GCONST> 1.107441e+002
<STATE> 4
<MEAN> 25
 1.013038e+000 -1.413197e-001 -3.122077e-001 -3.215249e-001 -2.066527e-001 -3.700014e-001 7.594182e-001 -8.721161e-003 -1.053091e+000 -4.951862e-001 -1.322787e-001 -2.620638e-001 5.544631e-003 5.160229e-004 7.937535e-003 -2.521196e-002 5.768614e-003 -1.967853e-003 3.130817e-002 -1.079552e-002 -2.009290e-002 -1.664548e-004 -6.032326e-004 -6.404991e-003 2.304537e-002
<VARIANCE> 25
 4.499059e+001 1.564932e+002 6.379549e+001 7.570521e+001 6.703239e+001 5.390797e+001 9.195052e+001 5.304338e+001 5.760161e+001 5.164253e+001 4.585677e+001 4.766163e+001 1.232447e+000 3.880456e+000 2.414969e+000 3.631669e+000 3.279219e+000 3.527614e+000 4.363093e+000 3.561956e+000 3.371144e+000 3.110055e+000 2.754847e+000 2.425185e+000 2.581002e+000
<GCONST> 1.097867e+002
<TRANSP> 5
 0.000000e+000 1.000000e+000 0.000000e+000 0.000000e+000 0.000000e+000
 0.000000e+000 7.731761e-001 2.268239e-001 0.000000e+000 0.000000e+000
 0.000000e+000 0.000000e+000 7.731758e-001 2.268242e-001 0.000000e+000
 0.000000e+000 0.000000e+000 0.000000e+000 9.125112e-001 8.748880e-002
 0.000000e+000 0.000000e+000 0.000000e+000 0.000000e+000 0.000000e+000
<ENDHMM>
~h "w"
<BEGINHMM>
<NUMSTATES> 5
<STATE> 2
<MEAN> 25
 9.282209e-001 2.658569e+000 1.040924e+000 -3.586807e+000 8.440685e-001 -1.971038e+000 -1.712423e+000 -3.967199e-001 2.226731e-001 2.681159e-001 3.691160e-001 6.482680e-001 7.083864e-003 -4.865032e-002 -7.494857e-003 -6.009814e-003 9.033049e-003 1.405339e-002 2.374849e-002 1.061287e-002 -1.507231e-002 2.373537e-002 3.205369e-002 -6.113853e-003 3.568746e-002
<VARIANCE> 25
 4.487289e+001 1.380223e+002 7.562811e+001 9.321016e+001 5.069848e+001 5.737955e+001 8.388821e+001 4.261464e+001 4.511832e+001 5.896539e+001 4.722771e+001 4.166077e+001 7.098975e-001 2.976953e+000 2.489481e+000 3.707647e+000 2.484915e+000 2.946133e+000 3.080666e+000 2.307097e+000 2.757226e+000 3.118228e+000 3.287710e+000 2.082182e+000 1.660141e+000
<GCONST> 1.066715e+002
<STATE> 3
<MEAN> 25
 9.674366e-001 2.393658e+000 9.943936e-001 -3.628002e+000 8.749123e-001 -1.908610e+000 -1.556955e+000 -3.559989e-001 1.431568e-001 3.399331e-001 5.126101e-001 5.951439e-001 6.874546e-003 -5.948618e-002 -7.208671e-003 -8.646031e-003 1.865677e-002 1.299322e-002 3.955228e-002 1.110742e-002 -1.384928e-002 1.722097e-002 2.819234e-002 -1.325173e-002 4.985879e-002
<VARIANCE> 25
 4.492170e+001 1.393466e+002 7.496346e+001 9.046848e+001 5.212312e+001 5.728952e+001 8.576039e+001 4.316011e+001 4.659752e+001 6.044189e+001 4.769576e+001 4.385775e+001 7.383200e-001 2.999837e+000 2.506515e+000 3.785702e+000 2.501461e+000 2.993729e+000 3.156476e+000 2.353243e+000 2.867325e+000 3.217355e+000 3.379358e+000 2.162761e+000 1.694316e+000
<GCONST> 1.071203e+002
<STATE> 4
<MEAN> 25
 5.423937e-001 2.134040e+000 1.202954e+000 -3.127953e+000 7.300559e-001 -1.636621e+000 -1.450322e+000 -4.655073e-002 2.064327e-001 6.660838e-002 9.125038e-001 3.269449e-001 1.819981e-002 -7.255715e-002 -1.557813e-002 -7.303372e-003 1.241908e-002 8.884271e-003 4.490874e-002 7.301188e-003 -2.129135e-002 -2.263740e-003 2.175529e-002 -3.260355e-002 6.358927e-002
<VARIANCE> 25
 4.509647e+001 1.465206e+002 7.263704e+001 8.171409e+001 5.136648e+001 5.458970e+001 8.230444e+001 4.753061e+001 4.951676e+001 6.090185e+001 4.681276e+001 5.152921e+001 7.293976e-001 2.909412e+000 2.312660e+000 3.428084e+000 2.295722e+000 2.799276e+000 3.051740e+000 2.428191e+000 2.910776e+000 3.182641e+000 3.179496e+000 2.145628e+000 1.455526e+000
<GCONST> 1.066498e+002
<TRANSP> 5
 0.000000e+000 1.000000e+000 0.000000e+000 0.000000e+000 0.000000e+000
 0.000000e+000 7.827981e-001 2.172018e-001 0.000000e+000 0.000000e+000
 0.000000e+000 0.000000e+000 7.827982e-001 2.172018e-001 0.000000e+000
 0.000000e+000 0.000000e+000 0.000000e+000 9.212376e-001 7.876238e-002
 0.000000e+000 0.000000e+000 0.000000e+000 0.000000e+000 0.000000e+000
<ENDHMM>
~h "y"
<BEGINHMM>
<NUMSTATES> 5
<STATE> 2
<MEAN> 25
 -8.922996e-002 -9.481457e-001 1.228725e+000 -3.001739e-001 -1.786624e-001 -2.976388e-001 -5.125435e-001 -1.090384e+000 -2.825754e-001 -2.584696e-001 -6.426570e-001 4.422570e-001 6.559044e-003 -6.947215e-004 4.141399e-002 -3.102219e-002 -2.699301e-002 -3.027927e-002 -1.154399e-002 -6.891118e-003 1.010425e-002 -2.256461e-002 -1.953923e-002 -1.520693e-002 2.616446e-002
<VARIANCE> 25
 5.216307e+001 1.401504e+002 9.009733e+001 1.007011e+002 6.806539e+001 5.817155e+001 6.732335e+001 5.645202e+001 5.471792e+001 5.789531e+001 3.906718e+001 3.508205e+001 1.264060e+000 2.633284e+000 2.530391e+000 3.005588e+000 2.732324e+000 2.489624e+000 3.405643e+000 2.769405e+000 2.633564e+000 3.112506e+000 2.515402e+000 2.213882e+000 1.406902e+000
<GCONST> 1.073227e+002
<STATE> 3
<MEAN> 25
 -5.974424e-002 -9.735318e-001 1.397591e+000 -4.159519e-001 -2.579216e-001 -4.231170e-001 -5.640958e-001 -1.098647e+000 -2.453300e-001 -3.632040e-001 -7.188480e-001 3.768615e-001 3.045484e-003 -2.685957e-003 3.539066e-002 -3.268347e-002 -2.217129e-002 -2.971294e-002 -1.147333e-002 -2.732444e-006 1.311688e-002 -2.251348e-002 -1.478399e-002 -1.628444e-002 1.961005e-002
<VARIANCE> 25
 5.149715e+001 1.420557e+002 9.063222e+001 1.022097e+002 6.920100e+001 5.734614e+001 6.870447e+001 5.684344e+001 5.444869e+001 5.781308e+001 3.892245e+001 3.551906e+001 1.241800e+000 2.626265e+000 2.572076e+000 3.036944e+000 2.768230e+000 2.498955e+000 3.425005e+000 2.794840e+000 2.626195e+000 3.101475e+000 2.523653e+000 2.228400e+000 1.367708e+000
<GCONST> 1.073891e+002
<STATE> 4
<MEAN> 25
 -5.026065e-002 -1.299249e+000 1.615324e+000 -3.127749e-001 -3.053766e-001 -6.435604e-001 -6.791317e-001 -8.254417e-001 -2.121177e-001 -6.713737e-001 -8.369408e-001 2.621486e-001 5.350888e-004 -1.686028e-003 1.328177e-002 -1.230729e-002 -7.378383e-004 -1.628161e-002 -5.162785e-003 9.933248e-003 1.080295e-002 -1.709055e-002 -4.777918e-003 -1.536522e-002 4.760456e-003
<VARIANCE> 25
 5.063533e+001 1.534744e+002 9.055618e+001 9.423971e+001 7.156542e+001 5.426043e+001 6.883623e+001 5.416354e+001 5.353860e+001 5.701958e+001 3.943755e+001 3.714319e+001 1.157971e+000 2.629430e+000 2.541736e+000 2.928418e+000 2.806538e+000 2.468661e+000 3.382183e+000 2.711158e+000 2.511558e+000 2.947418e+000 2.525975e+000 2.179753e+000 1.152933e+000
<GCONST> 1.068806e+002
<TRANSP> 5
 0.000000e+000 1.000000e+000 0.000000e+000 0.000000e+000 0.000000e+000
 0.000000e+000 7.818453e-001 2.181547e-001 0.000000e+000 0.000000e+000
 0.000000e+000 0.000000e+000 7.818461e-001 2.181540e-001 0.000000e+000
 0.000000e+000 0.000000e+000 0.000000e+000 9.219553e-001 7.804471e-002
 0.000000e+000 0.000000e+000 0.000000e+000 0.000000e+000 0.000000e+000
<ENDHMM>
~h "aa"
<BEGINHMM>
<NUMSTATES> 5
<STATE> 2
<MEAN> 25
 6.418048e-001 -1.041653e+000 -6.176315e-002 9.532920e-002 3.188457e-001 -2.980255e-001 1.771218e-001 -3.045169e-001 -3.827519e-001 -5.705411e-001 -2.300912e-001 8.612105e-002 4.043151e-003 -2.785050e-003 5.749999e-003 -8.739165e-004 3.272984e-003 -6.021229e-003 1.991706e-003 -4.030776e-003 -7.223669e-004 -7.264388e-003 -2.182165e-003 -4.587264e-003 1.056611e-002
<VARIANCE> 25
 5.130922e+001 1.435840e+002 7.337762e+001 8.724206e+001 5.860828e+001 5.747564e+001 7.385313e+001 5.457014e+001 5.606221e+001 5.634538e+001 4.251751e+001 3.841830e+001 1.252657e+000 2.889119e+000 2.241453e+000 3.164364e+000 2.741645e+000 2.758936e+000 3.456333e+000 3.034128e+000 2.785555e+000 3.029813e+000 2.632165e+000 2.223863e+000 1.767424e+000
<GCONST> 1.075846e+002
<STATE> 3
<MEAN> 25
 6.607707e-001 -1.049746e+000 -3.757274e-002 8.691454e-002 3.290625e-001 -3.151117e-001 1.930656e-001 -3.225630e-001 -3.888967e-001 -6.010786e-001 -2.395783e-001 6.331751e-002 3.340593e-003 -2.459051e-003 3.942870e-003 -1.432585e-003 3.013046e-003 -4.511435e-003 2.776411e-003 -3.788202e-003 -3.588071e-004 -6.562493e-003 -1.994819e-003 -6.170241e-003 7.804518e-003
<VARIANCE> 25
 5.059747e+001 1.443306e+002 7.344773e+001 8.751915e+001 5.865064e+001 5.750130e+001 7.392471e+001 5.442044e+001 5.583212e+001 5.627851e+001 4.245623e+001 3.844021e+001 1.253618e+000 2.893108e+000 2.244724e+000 3.166801e+000 2.747390e+000 2.769978e+000 3.465479e+000 3.037922e+000 2.791701e+000 3.035575e+000 2.636715e+000 2.226808e+000 1.771661e+000
<GCONST> 1.075971e+002
<STATE> 4
<MEAN> 25
 6.592123e-001 -1.080950e+000 -1.314367e-001 8.473650e-002 2.507845e-001 -2.616465e-001 1.975055e-001 -3.163755e-001 -3.836418e-001 -5.939534e-001 -2.697820e-001 2.374635e-002 -8.779743e-004 3.840965e-003 2.665064e-003 -2.648977e-003 2.314890e-003 4.935462e-004 4.807557e-003 -4.817046e-004 2.325626e-003 -1.919140e-003 7.267962e-004 -6.801541e-003 -7.458501e-004
<VARIANCE> 25
 4.854567e+001 1.494401e+002 7.118036e+001 8.167316e+001 5.792416e+001 5.504887e+001 7.147916e+001 5.287038e+001 5.346896e+001 5.561582e+001 4.190049e+001 3.811316e+001 1.152253e+000 2.853142e+000 2.167667e+000 2.975590e+000 2.688785e+000 2.701795e+000 3.342848e+000 2.963730e+000 2.701559e+000 2.919326e+000 2.583573e+000 2.173414e+000 1.504037e+000
<GCONST> 1.067116e+002
<TRANSP> 5
 0.000000e+000 1.000000e+000 0.000000e+000 0.000000e+000 0.000000e+000
 0.000000e+000 7.814660e-001 2.185340e-001 0.000000e+000 0.000000e+000
 0.000000e+000 0.000000e+000 7.814657e-001 2.185343e-001 0.000000e+000
 0.000000e+000 0.000000e+000 0.000000e+000 9.209334e-001 7.906662e-002
 0.000000e+000 0.000000e+000 0.000000e+000 0.000000e+000 0.000000e+000
<ENDHMM>
~h "ao"
<BEGINHMM>
<NUMSTATES> 5
<STATE> 2
<MEAN> 25
 1.742746e+000 -1.091389e+000 -4.666406e-001 -2.626990e+000 1.105814e+000 -2.715501e-001 9.967600e-001 -8.468237e-001 -1.036794e+000 8.792784e-001 4.431177e-001 -9.530027e-001 3.704637e-002 -3.611915e-002 -8.241666e-003 -8.332728e-003 -5.067284e-002 7.783055e-003 5.411418e-002 2.290638e-002 -2.717058e-003 1.293147e-002 -5.810557e-003 -5.164189e-003 1.154792e-002
<VARIANCE> 25
 4.434125e+001 1.106782e+002 7.723720e+001 9.109351e+001 8.533169e+001 5.541228e+001 7.998606e+001 5.903024e+001 5.560205e+001 5.479858e+001 4.986738e+001 4.012983e+001 1.015025e+000 2.741800e+000 2.134257e+000 4.037769e+000 3.193953e+000 3.125961e+000 3.912636e+000 3.178318e+000 3.217528e+000 3.216329e+000 2.840519e+000 2.459215e+000 1.558865e+000
<GCONST> 1.085724e+002
<STATE> 3
<MEAN> 25
 1.886339e+000 -1.242318e+000 -5.156772e-001 -2.632262e+000 9.051199e-001 -2.456668e-001 1.196498e+000 -7.502836e-001 -1.057785e+000 9.486035e-001 4.331541e-001 -9.871837e-001 3.297676e-002 -3.024567e-002 -5.702254e-003 -3.225370e-004 -5.366757e-002 5.796528e-003 4.445570e-002 2.307976e-002 -2.950375e-003 1.146050e-002 -2.687909e-003 -7.190716e-003 4.832972e-003
<VARIANCE> 25
 4.458316e+001 1.116753e+002 7.455363e+001 9.003605e+001 8.579781e+001 5.449247e+001 8.071329e+001 5.969567e+001 5.470745e+001 5.328579e+001 4.986898e+001 4.007880e+001 1.002461e+000 2.671667e+000 2.107028e+000 3.956564e+000 3.217155e+000 3.087315e+000 3.969013e+000 3.228591e+000 3.173580e+000 3.148673e+000 2.823411e+000 2.447443e+000 1.516248e+000
<GCONST> 1.083830e+002
<STATE> 4
<MEAN> 25
 1.488457e+000 -1.002375e+000 -3.817089e-001 -2.372387e+000 4.615034e-001 6.947718e-003 1.030238e+000 -5.344301e-001 -7.905961e-001 1.357333e+000 9.252849e-001 -1.009483e+000 2.727883e-002 -2.662244e-002 -1.451108e-002 1.549335e-002 -3.658605e-002 2.316844e-003 1.412170e-002 1.580563e-002 -4.214151e-003 1.532470e-002 5.715964e-003 -1.252733e-002 -7.306925e-004
<VARIANCE> 25
 4.803206e+001 1.190699e+002 7.126739e+001 9.029897e+001 8.625050e+001 5.060911e+001 7.841310e+001 5.819890e+001 5.356614e+001 4.792238e+001 4.780920e+001 3.855938e+001 9.522197e-001 2.550089e+000 2.082128e+000 3.639951e+000 3.214498e+000 3.070195e+000 3.812517e+000 3.192412e+000 3.051644e+000 2.857407e+000 2.693223e+000 2.406548e+000 1.343173e+000
<GCONST> 1.075758e+002
<TRANSP> 5
 0.000000e+000 1.000000e+000 0.000000e+000 0.000000e+000 0.000000e+000
 0.000000e+000 7.745985e-001 2.254015e-001 0.000000e+000 0.000000e+000
 0.000000e+000 0.000000e+000 7.745984e-001 2.254016e-001 0.000000e+000
 0.000000e+000 0.000000e+000 0.000000e+000 9.139794e-001 8.602058e-002
 0.000000e+000 0.000000e+000 0.000000e+000 0.000000e+000 0.000000e+000
<ENDHMM>
~h "eh"
<BEGINHMM>
<NUMSTATES> 5
<STATE> 2
<MEAN> 25
 1.213959e+000 -1.440628e+000 -1.010103e+000 -1.402218e+000 -5.484930e-001 -4.307287e-001 6.929792e-001 -2.237987e-003 -1.043325e+000 3.126910e-001 2.894351e-001 -5.578752e-001 4.763236e-003 1.630350e-003 -2.409934e-003 1.613420e-002 -7.234196e-003 4.225224e-003 -9.935879e-003 3.193724e-003 -8.869728e-003 -9.618303e-003 -3.296755e-003 1.027399e-002 -1.149790e-002
<VARIANCE> 25
 5.251355e+001 1.129675e+002 6.027388e+001 8.082543e+001 6.688447e+001 5.591030e+001 7.200639e+001 5.619651e+001 5.294549e+001 5.052994e+001 4.766633e+001 4.194942e+001 1.358833e+000 2.663089e+000 1.926495e+000 3.180823e+000 2.877796e+000 2.853957e+000 3.411325e+000 3.258344e+000 2.880751e+000 2.808585e+000 2.825040e+000 2.292642e+000 1.795855e+000
<GCONST> 1.073086e+002
<STATE> 3
<MEAN> 25
 1.230648e+000 -1.435425e+000 -1.015380e+000 -1.338355e+000 -5.761957e-001 -4.127744e-001 6.417004e-001 -1.148920e-002 -1.085666e+000 2.640990e-001 2.659340e-001 -5.054134e-001 -8.536579e-004 5.429066e-003 -9.480266e-004 1.739108e-002 -4.705062e-003 5.464236e-003 -9.290615e-003 -3.652137e-003 -1.166603e-002 -1.028235e-002 -2.984121e-003 1.668389e-002 -1.273465e-002
<VARIANCE> 25
 5.271576e+001 1.131018e+002 6.035863e+001 8.001219e+001 6.593400e+001 5.546498e+001 7.152988e+001 5.617079e+001 5.313989e+001 5.055932e+001 4.775029e+001 4.204031e+001 1.397240e+000 2.671702e+000 1.932937e+000 3.156441e+000 2.878193e+000 2.838474e+000 3.403906e+000 3.267277e+000 2.873944e+000 2.795258e+000 2.840119e+000 2.277865e+000 1.835418e+000
<GCONST> 1.073192e+002
<STATE> 4
<MEAN> 25
 1.189804e+000 -1.410806e+000 -1.018279e+000 -1.095152e+000 -5.400960e-001 -3.472520e-001 2.995866e-001 -1.517983e-001 -1.077129e+000 2.422869e-001 3.214960e-001 -3.070401e-001 -8.307906e-003 1.404687e-002 6.625577e-003 1.576694e-002 2.925669e-004 7.310970e-003 -2.213877e-003 -1.167842e-002 -1.087016e-002 -1.128652e-002 -4.694306e-003 1.879608e-002 -1.685172e-002
<VARIANCE> 25
 5.329277e+001 1.159342e+002 5.954116e+001 7.533064e+001 6.446545e+001 5.333818e+001 6.939111e+001 5.392708e+001 5.250798e+001 5.097728e+001 4.664577e+001 4.190086e+001 1.349035e+000 2.620702e+000 1.897388e+000 3.015995e+000 2.808635e+000 2.807430e+000 3.253611e+000 3.139529e+000 2.808929e+000 2.688297e+000 2.758608e+000 2.209625e+000 1.608933e+000
<GCONST> 1.066256e+002
<TRANSP> 5
 0.000000e+000 1.000000e+000 0.000000e+000 0.000000e+000 0.000000e+000
 0.000000e+000 7.771560e-001 2.228440e-001 0.000000e+000 0.000000e+000
 0.000000e+000 0.000000e+000 7.771562e-001 2.228438e-001 0.000000e+000
 0.000000e+000 0.000000e+000 0.000000e+000 9.162714e-001 8.372865e-002
 0.000000e+000 0.000000e+000 0.000000e+000 0.000000e+000 0.000000e+000
<ENDHMM>
~h "hh"
<BEGINHMM>
<NUMSTATES> 5
<STATE> 2
<MEAN> 25
 4.634157e-002 -2.453755e-001 -1.067700e+000 -1.715825e-001 -1.173473e+000 -2.695459e-001 -3.326858e-001 6.451576e-001 -5.585951e-001 7.191098e-001 -3.930015e-001 -4.486171e-001 3.418803e-002 -6.606047e-003 4.275507e-002 -3.808842e-002 -1.485262e-002 -9.665607e-003 4.425855e-002 -1.305702e-003 1.012238e-002 -1.827438e-002 -2.674772e-002 -1.552681e-002 6.814685e-002
<VARIANCE> 25
 4.921806e+001 1.251120e+002 5.652140e+001 5.620173e+001 5.822031e+001 6.288664e+001 6.206224e+001 5.880957e+001 5.674555e+001 4.980844e+001 4.273257e+001 4.701315e+001 1.191386e+000 2.897552e+000 2.087620e+000 2.742771e+000 3.700778e+000 3.347084e+000 3.531163e+000 3.793748e+000 3.298193e+000 3.122238e+000 2.917550e+000 2.381268e+000 1.656234e+000
<GCONST> 1.075666e+002
<STATE> 3
<MEAN> 25
 1.918351e-001 -2.547620e-001 -9.079379e-001 -3.472647e-001 -1.273823e+000 -3.028487e-001 -1.233539e-001 6.379600e-001 -5.006175e-001 6.521369e-001 -5.005069e-001 -4.936042e-001 3.505232e-002 -9.987799e-003 3.736095e-002 -4.115539e-002 -1.832406e-002 -7.849802e-003 5.097217e-002 -3.670101e-003 1.641203e-002 -1.710802e-002 -2.580010e-002 -8.724913e-003 6.871879e-002
<VARIANCE> 25
 4.863908e+001 1.266922e+002 5.471100e+001 5.603212e+001 5.771472e+001 6.253603e+001 6.191272e+001 5.833143e+001 5.697334e+001 4.899606e+001 4.287302e+001 4.602395e+001 1.188960e+000 2.975053e+000 2.063205e+000 2.719872e+000 3.671837e+000 3.287670e+000 3.505166e+000 3.732000e+000 3.331356e+000 3.103220e+000 2.894591e+000 2.400778e+000 1.649673e+000
<GCONST> 1.074312e+002
<STATE> 4
<MEAN> 25
 4.520562e-001 -4.520754e-001 -7.887241e-001 -7.157287e-001 -1.575765e+000 -3.550787e-001 2.240781e-001 5.471637e-001 -2.574455e-001 3.569077e-001 -5.576037e-001 -4.256223e-001 2.804064e-002 -7.261886e-003 1.798101e-002 -3.341956e-002 -2.549032e-002 -4.478236e-003 4.358822e-002 -6.695960e-003 1.518551e-002 -1.409790e-002 -1.529299e-002 5.818059e-003 4.640299e-002
<VARIANCE> 25
 4.967397e+001 1.214855e+002 4.770588e+001 5.122726e+001 5.590376e+001 5.518063e+001 5.848377e+001 5.448206e+001 5.455043e+001 4.706709e+001 4.127343e+001 4.150214e+001 1.149682e+000 2.790469e+000 1.846143e+000 2.492715e+000 3.369245e+000 2.926969e+000 3.248236e+000 3.371089e+000 3.140615e+000 2.931065e+000 2.786294e+000 2.280036e+000 1.380869e+000
<GCONST> 1.056166e+002
<TRANSP> 5
 0.000000e+000 1.000000e+000 0.000000e+000 0.000000e+000 0.000000e+000
 0.000000e+000 7.899917e-001 2.100084e-001 0.000000e+000 0.000000e+000
 0.000000e+000 0.000000e+000 7.899920e-001 2.100081e-001 0.000000e+000
 0.000000e+000 0.000000e+000 0.000000e+000 9.260665e-001 7.393353e-002
 0.000000e+000 0.000000e+000 0.000000e+000 0.000000e+000 0.000000e+000
<ENDHMM>
~h "ih"
<BEGINHMM>
<NUMSTATES> 5
<STATE> 2
<MEAN> 25
 -1.214280e+000 1.210453e+000 1.651644e+000 8.778986e-001 -1.445118e-001 -2.181397e-001 -1.099437e+000 3.362496e-001 8.981241e-001 3.093331e-002 -2.508827e-001 2.021913e-001 2.721164e-003 -1.175953e-002 -1.479040e-002 2.012757e-002 1.531653e-002 9.631640e-003 -8.889678e-004 -3.566049e-003 6.035255e-003 1.013115e-002 -8.937531e-003 -1.490581e-003 -2.414407e-003
<VARIANCE> 25
 4.599805e+001 1.313042e+002 8.638801e+001 1.065386e+002 6.037678e+001 6.531253e+001 7.502211e+001 5.906653e+001 5.509294e+001 5.563089e+001 3.783256e+001 3.890858e+001 9.774237e-001 2.559810e+000 2.490080e+000 3.450744e+000 2.664161e+000 2.746223e+000 3.470001e+000 2.905765e+000 2.920283e+000 3.098424e+000 2.489596e+000 2.179640e+000 1.466771e+000
<GCONST> 1.074247e+002
<STATE> 3
<MEAN> 25
 -1.201945e+000 1.149426e+000 1.612371e+000 9.673949e-001 -8.382521e-002 -1.957914e-001 -1.102601e+000 3.164307e-001 9.182290e-001 8.064975e-002 -2.888264e-001 1.906443e-001 3.454375e-003 -1.027589e-002 -1.291771e-002 1.568438e-002 9.596242e-003 7.508434e-003 2.578472e-003 -4.885881e-003 4.430169e-003 8.184654e-003 -9.316846e-003 -2.183974e-003 1.219093e-003
<VARIANCE> 25
 4.593164e+001 1.305351e+002 8.619712e+001 1.058701e+002 6.095813e+001 6.570942e+001 7.495319e+001 5.893280e+001 5.511687e+001 5.565658e+001 3.791431e+001 3.906393e+001 9.710699e-001 2.550896e+000 2.486312e+000 3.441048e+000 2.662853e+000 2.740445e+000 3.432993e+000 2.875780e+000 2.898649e+000 3.094957e+000 2.476594e+000 2.184513e+000 1.474282e+000
<GCONST> 1.073839e+002
<STATE> 4
<MEAN> 25
 -1.051311e+000 8.290164e-001 1.812624e+000 1.112083e+000 4.885765e-002 -4.147958e-001 -1.041732e+000 2.931497e-001 7.656271e-001 1.505405e-001 -4.270141e-001 -1.764756e-002 1.645847e-003 -7.344510e-003 -4.848538e-003 7.267851e-003 2.714508e-003 4.348559e-003 1.144309e-002 -1.541345e-003 1.257796e-003 6.549486e-003 -8.021045e-003 -3.241615e-003 7.904222e-004
<VARIANCE> 25
 4.181461e+001 1.404385e+002 8.650472e+001 1.018091e+002 6.462912e+001 6.579962e+001 7.576885e+001 5.732808e+001 5.297844e+001 5.497894e+001 3.828150e+001 4.025761e+001 9.090216e-001 2.660529e+000 2.455194e+000 3.332839e+000 2.708341e+000 2.806486e+000 3.394521e+000 2.844396e+000 2.847095e+000 3.038640e+000 2.447932e+000 2.220198e+000 1.305294e+000
<GCONST> 1.071550e+002
<TRANSP> 5
 0.000000e+000 1.000000e+000 0.000000e+000 0.000000e+000 0.000000e+000
 0.000000e+000 7.767113e-001 2.232886e-001 0.000000e+000 0.000000e+000
 0.000000e+000 0.000000e+000 7.767131e-001 2.232869e-001 0.000000e+000
 0.000000e+000 0.000000e+000 0.000000e+000 9.150363e-001 8.496369e-002
 0.000000e+000 0.000000e+000 0.000000e+000 0.000000e+000 0.000000e+000
<ENDHMM>
~h "ng"
<BEGINHMM>
<NUMSTATES> 5
<STATE> 2
<MEAN> 25
 7.695476e-001 -8.528345e-001 6.317962e-001 -6.597867e-001 -1.749004e-001 -5.781963e-001 -3.291585e-002 -2.330351e-001 3.463998e-002 6.516487e-001 2.443780e-001 -1.216345e+000 -3.005833e-002 4.358171e-002 -4.817973e-002 5.161716e-002 1.009035e-002 1.704763e-002 1.522851e-002 -1.122055e-002 -1.221575e-002 7.659634e-003 1.790633e-002 3.060913e-002 -9.203389e-002
<VARIANCE> 25
 5.117028e+001 1.165860e+002 8.077083e+001 9.185233e+001 6.828377e+001 5.453568e+001 7.838123e+001 5.576131e+001 5.831328e+001 4.943361e+001 4.718072e+001 4.390659e+001 1.028641e+000 2.046405e+000 2.261051e+000 3.312120e+000 2.875796e+000 2.526469e+000 3.739822e+000 3.047321e+000 2.903003e+000 2.890713e+000 2.775128e+000 2.188489e+000 1.473410e+000
<GCONST> 1.072531e+002
<STATE> 3
<MEAN> 25
 6.277683e-001 -6.280541e-001 4.318897e-001 -4.432063e-001 -1.256647e-001 -4.852756e-001 5.344162e-002 -2.655271e-001 -6.592210e-003 6.906571e-001 3.254616e-001 -1.066632e+000 -3.004462e-002 4.838281e-002 -4.864523e-002 5.162538e-002 1.344061e-002 2.180806e-002 1.159450e-002 -9.995234e-003 -1.227224e-002 8.405233e-003 2.216342e-002 3.673259e-002 -9.191818e-002
<VARIANCE> 25
 4.940216e+001 1.148847e+002 7.927474e+001 8.857601e+001 6.543449e+001 5.393215e+001 7.708204e+001 5.314079e+001 5.656769e+001 4.910437e+001 4.643518e+001 4.402056e+001 1.018852e+000 2.010601e+000 2.239211e+000 3.214463e+000 2.820194e+000 2.482036e+000 3.669345e+000 2.950362e+000 2.871211e+000 2.827802e+000 2.770440e+000 2.170044e+000 1.506271e+000
<GCONST> 1.068027e+002
<STATE> 4
<MEAN> 25
 4.378084e-001 -1.642098e-001 3.906749e-001 -1.374324e-001 -2.009914e-001 -1.968518e-001 1.164787e-001 -1.426420e-001 -4.670341e-002 7.906842e-001 4.641923e-001 -9.430291e-001 -3.358515e-002 5.799669e-002 -3.356253e-002 3.960751e-002 1.669229e-002 2.693380e-002 1.523800e-002 1.682832e-003 1.095648e-003 5.434806e-003 2.032623e-002 4.052294e-002 -8.258200e-002
<VARIANCE> 25
 4.544745e+001 1.197375e+002 7.752605e+001 8.307914e+001 6.380315e+001 5.206320e+001 7.335510e+001 4.711685e+001 5.265250e+001 4.782192e+001 4.447932e+001 4.432060e+001 8.778261e-001 1.941999e+000 2.139307e+000 2.997030e+000 2.710934e+000 2.401613e+000 3.502659e+000 2.732720e+000 2.727141e+000 2.648454e+000 2.660377e+000 2.097293e+000 1.320396e+000
<GCONST> 1.054911e+002
<TRANSP> 5
 0.000000e+000 1.000000e+000 0.000000e+000 0.000000e+000 0.000000e+000
 0.000000e+000 7.710204e-001 2.289795e-001 0.000000e+000 0.000000e+000
 0.000000e+000 0.000000e+000 7.710202e-001 2.289797e-001 0.000000e+000
 0.000000e+000 0.000000e+000 0.000000e+000 9.092979e-001 9.070209e-002
 0.000000e+000 0.000000e+000 0.000000e+000 0.000000e+000 0.000000e+000
<ENDHMM>
~h "oh"
<BEGINHMM>
<NUMSTATES> 5
<STATE> 2
<MEAN> 25
 4.492237e-008 5.845701e-009 -1.328185e-007 -1.974899e-008 8.013701e-008 5.326083e-008 -2.952693e-008 -7.096470e-008 9.339078e-009 -1.337489e-007 6.334598e-008 -5.331350e-008 -9.746575e-004 8.824667e-003 5.857049e-003 -6.106692e-003 1.834674e-003 2.140600e-003 6.438790e-003 2.552634e-004 2.233275e-003 1.652292e-004 -2.947775e-004 1.625022e-004 1.768339e-002
<VARIANCE> 25
 5.093745e+001 1.386368e+002 7.180528e+001 8.644808e+001 6.100111e+001 5.655713e+001 7.255057e+001 5.467440e+001 5.467830e+001 5.295312e+001 4.155158e+001 3.905978e+001 1.136743e+000 2.774379e+000 2.153254e+000 3.157753e+000 2.791123e+000 2.802559e+000 3.391059e+000 2.977390e+000 2.833076e+000 2.917275e+000 2.609103e+000 2.223614e+000 1.691524e+000
<GCONST> 1.071680e+002
<STATE> 3
<MEAN> 25
 4.492237e-008 5.845701e-009 -1.328185e-007 -1.974899e-008 8.013701e-008 5.326083e-008 -2.952693e-008 -7.096470e-008 9.339078e-009 -1.337489e-007 6.334598e-008 -5.331350e-008 -9.746575e-004 8.824667e-003 5.857049e-003 -6.106692e-003 1.834674e-003 2.140600e-003 6.438790e-003 2.552634e-004 2.233275e-003 1.652292e-004 -2.947775e-004 1.625022e-004 1.768339e-002
<VARIANCE> 25
 5.093745e+001 1.386368e+002 7.180528e+001 8.644808e+001 6.100111e+001 5.655713e+001 7.255057e+001 5.467440e+001 5.467830e+001 5.295312e+001 4.155158e+001 3.905978e+001 1.136743e+000 2.774379e+000 2.153254e+000 3.157753e+000 2.791123e+000 2.802559e+000 3.391059e+000 2.977390e+000 2.833076e+000 2.917275e+000 2.609103e+000 2.223614e+000 1.691524e+000
<GCONST> 1.071680e+002
<STATE> 4
<MEAN> 25
 4.492237e-008 5.845701e-009 -1.328185e-007 -1.974899e-008 8.013701e-008 5.326083e-008 -2.952693e-008 -7.096470e-008 9.339078e-009 -1.337489e-007 6.334598e-008 -5.331350e-008 -9.746575e-004 8.824667e-003 5.857049e-003 -6.106692e-003 1.834674e-003 2.140600e-003 6.438790e-003 2.552634e-004 2.233275e-003 1.652292e-004 -2.947775e-004 1.625022e-004 1.768339e-002
<VARIANCE> 25
 5.093745e+001 1.386368e+002 7.180528e+001 8.644808e+001 6.100111e+001 5.655713e+001 7.255057e+001 5.467440e+001 5.467830e+001 5.295312e+001 4.155158e+001 3.905978e+001 1.136743e+000 2.774379e+000 2.153254e+000 3.157753e+000 2.791123e+000 2.802559e+000 3.391059e+000 2.977390e+000 2.833076e+000 2.917275e+000 2.609103e+000 2.223614e+000 1.691524e+000
<GCONST> 1.071680e+002
<TRANSP> 5
 0.000000e+000 1.000000e+000 0.000000e+000 0.000000e+000 0.000000e+000
 0.000000e+000 6.000000e-001 4.000000e-001 0.000000e+000 0.000000e+000
 0.000000e+000 0.000000e+000 6.000000e-001 4.000000e-001 0.000000e+000
 0.000000e+000 0.000000e+000 0.000000e+000 7.000000e-001 3.000000e-001
 0.000000e+000 0.000000e+000 0.000000e+000 0.000000e+000 0.000000e+000
<ENDHMM>
~h "sp"
<BEGINHMM>
<NUMSTATES> 5
<STATE> 2
<MEAN> 25
 4.492237e-008 5.845701e-009 -1.328185e-007 -1.974899e-008 8.013701e-008 5.326083e-008 -2.952693e-008 -7.096470e-008 9.339078e-009 -1.337489e-007 6.334598e-008 -5.331350e-008 -9.746575e-004 8.824667e-003 5.857049e-003 -6.106692e-003 1.834674e-003 2.140600e-003 6.438790e-003 2.552634e-004 2.233275e-003 1.652292e-004 -2.947775e-004 1.625022e-004 1.768339e-002
<VARIANCE> 25
 5.093745e+001 1.386368e+002 7.180528e+001 8.644808e+001 6.100111e+001 5.655713e+001 7.255057e+001 5.467440e+001 5.467830e+001 5.295312e+001 4.155158e+001 3.905978e+001 1.136743e+000 2.774379e+000 2.153254e+000 3.157753e+000 2.791123e+000 2.802559e+000 3.391059e+000 2.977390e+000 2.833076e+000 2.917275e+000 2.609103e+000 2.223614e+000 1.691524e+000
<GCONST> 1.071680e+002
<STATE> 3
<MEAN> 25
 4.492237e-008 5.845701e-009 -1.328185e-007 -1.974899e-008 8.013701e-008 5.326083e-008 -2.952693e-008 -7.096470e-008 9.339078e-009 -1.337489e-007 6.334598e-008 -5.331350e-008 -9.746575e-004 8.824667e-003 5.857049e-003 -6.106692e-003 1.834674e-003 2.140600e-003 6.438790e-003 2.552634e-004 2.233275e-003 1.652292e-004 -2.947775e-004 1.625022e-004 1.768339e-002
<VARIANCE> 25
 5.093745e+001 1.386368e+002 7.180528e+001 8.644808e+001 6.100111e+001 5.655713e+001 7.255057e+001 5.467440e+001 5.467830e+001 5.295312e+001 4.155158e+001 3.905978e+001 1.136743e+000 2.774379e+000 2.153254e+000 3.157753e+000 2.791123e+000 2.802559e+000 3.391059e+000 2.977390e+000 2.833076e+000 2.917275e+000 2.609103e+000 2.223614e+000 1.691524e+000
<GCONST> 1.071680e+002
<STATE> 4
<MEAN> 25
 4.492237e-008 5.845701e-009 -1.328185e-007 -1.974899e-008 8.013701e-008 5.326083e-008 -2.952693e-008 -7.096470e-008 9.339078e-009 -1.337489e-007 6.334598e-008 -5.331350e-008 -9.746575e-004 8.824667e-003 5.857049e-003 -6.106692e-003 1.834674e-003 2.140600e-003 6.438790e-003 2.552634e-004 2.233275e-003 1.652292e-004 -2.947775e-004 1.625022e-004 1.768339e-002
<VARIANCE> 25
 5.093745e+001 1.386368e+002 7.180528e+001 8.644808e+001 6.100111e+001 5.655713e+001 7.255057e+001 5.467440e+001 5.467830e+001 5.295312e+001 4.155158e+001 3.905978e+001 1.136743e+000 2.774379e+000 2.153254e+000 3.157753e+000 2.791123e+000 2.802559e+000 3.391059e+000 2.977390e+000 2.833076e+000 2.917275e+000 2.609103e+000 2.223614e+000 1.691524e+000
<GCONST> 1.071680e+002
<TRANSP> 5
 0.000000e+000 1.000000e+000 0.000000e+000 0.000000e+000 0.000000e+000
 0.000000e+000 6.000000e-001 4.000000e-001 0.000000e+000 0.000000e+000
 0.000000e+000 0.000000e+000 6.000000e-001 4.000000e-001 0.000000e+000
 0.000000e+000 0.000000e+000 0.000000e+000 7.000000e-001 3.000000e-001
 0.000000e+000 0.000000e+000 0.000000e+000 0.000000e+000 0.000000e+000
<ENDHMM>
~h "uw"
<BEGINHMM>
<NUMSTATES> 5
<STATE> 2
<MEAN> 25
 8.823559e-001 1.558065e-001 -8.224430e-001 -1.487937e+000 -1.014655e-003 -2.155844e-001 -1.898699e-001 -1.012839e+000 -4.001170e-001 4.368345e-001 1.498042e-001 -5.990268e-001 1.571688e-002 1.723092e-002 9.585340e-003 -2.397224e-002 1.369369e-002 -8.081741e-003 -6.224565e-003 -6.351887e-003 1.414844e-003 7.479483e-003 8.513501e-003 -1.157591e-002 1.190075e-002
<VARIANCE> 25
 5.470510e+001 1.490741e+002 7.682385e+001 8.482442e+001 6.973880e+001 6.503355e+001 8.024661e+001 5.417327e+001 5.796712e+001 4.939938e+001 4.326645e+001 4.828137e+001 1.434418e+000 3.615756e+000 2.498831e+000 3.866713e+000 3.706601e+000 3.816392e+000 4.003924e+000 3.531342e+000 3.632387e+000 3.279835e+000 3.046444e+000 2.702075e+000 2.390421e+000
<GCONST> 1.108064e+002
<STATE> 3
<MEAN> 25
 9.361706e-001 2.356655e-001 -7.727568e-001 -1.582889e+000 3.435708e-002 -2.455983e-001 -2.154181e-001 -1.028831e+000 -3.851232e-001 4.685934e-001 1.878313e-001 -6.467065e-001 1.607635e-002 1.520194e-002 1.312988e-002 -2.130779e-002 1.297711e-002 -7.501755e-003 -6.943038e-003 -2.872565e-003 2.997905e-003 8.458212e-003 8.206991e-003 -9.839202e-003 1.041890e-002
<VARIANCE> 25
 5.422438e+001 1.476062e+002 7.712904e+001 8.499794e+001 6.961366e+001 6.554549e+001 8.052116e+001 5.401647e+001 5.775681e+001 4.973470e+001 4.347126e+001 4.818734e+001 1.434578e+000 3.641356e+000 2.523638e+000 3.922966e+000 3.719937e+000 3.829692e+000 4.029590e+000 3.532935e+000 3.665862e+000 3.315530e+000 3.054050e+000 2.719736e+000 2.393488e+000
<GCONST> 1.108819e+002
<STATE> 4
<MEAN> 25
 7.198790e-001 4.037646e-001 -4.947143e-001 -1.657215e+000 -6.995679e-002 -2.068449e-001 -2.140853e-001 -8.123364e-001 -1.918130e-001 5.234538e-001 3.112288e-001 -6.839012e-001 8.166111e-003 7.986451e-003 1.457495e-002 -1.181397e-002 3.666993e-003 -3.530410e-003 -1.436648e-003 4.667810e-003 5.013248e-003 3.902049e-003 5.051146e-003 -6.448239e-003 4.692317e-003
<VARIANCE> 25
 5.273186e+001 1.456250e+002 7.357741e+001 7.982913e+001 6.679622e+001 6.149398e+001 7.912630e+001 5.350768e+001 5.592368e+001 4.713073e+001 4.180856e+001 4.556057e+001 1.294732e+000 3.523228e+000 2.418296e+000 3.756234e+000 3.536358e+000 3.581597e+000 3.912936e+000 3.427884e+000 3.508920e+000 3.168982e+000 2.914071e+000 2.621950e+000 1.996193e+000
<GCONST> 1.096646e+002
<TRANSP> 5
 0.000000e+000 1.000000e+000 0.000000e+000 0.000000e+000 0.000000e+000
 0.000000e+000 7.794172e-001 2.205828e-001 0.000000e+000 0.000000e+000
 0.000000e+000 0.000000e+000 7.794174e-001 2.205826e-001 0.000000e+000
 0.000000e+000 0.000000e+000 0.000000e+000 9.186362e-001 8.136383e-002
 0.000000e+000 0.000000e+000 0.000000e+000 0.000000e+000 0.000000e+000
<ENDHMM>
~h "sil"
<BEGINHMM>
<NUMSTATES> 5
<STATE> 2
<MEAN> 25
 -5.136114e+000 4.607546e+000 -2.549789e+000 4.394112e+000 -5.560915e-001 3.216681e+000 -1.227677e+000 3.215430e+000 2.981493e+000 2.860188e+000 1.693434e+000 1.480494e+000 -9.703233e-002 2.819576e-001 9.084561e-003 -1.914566e-001 -4.009048e-002 8.990449e-002 -5.936308e-002 -6.197777e-003 9.307358e-002 5.469011e-002 4.932974e-002 -6.566437e-003 3.095609e-001
<VARIANCE> 25
 4.469310e+001 6.210010e+001 3.284896e+001 5.406069e+001 4.855612e+001 3.280709e+001 4.126313e+001 4.173137e+001 4.746714e+001 3.097039e+001 2.440337e+001 2.069510e+001 7.476235e-001 1.359920e+000 9.394681e-001 1.575388e+000 1.695789e+000 1.613263e+000 1.633744e+000 1.649080e+000 1.663842e+000 1.703013e+000 1.714396e+000 1.484968e+000 3.572531e+000
<GCONST> 9.535518e+001
<STATE> 3
<MEAN> 25
 -5.829061e+000 5.979807e+000 -2.270577e+000 3.520641e+000 -1.069018e+000 3.546935e+000 -8.811189e-001 3.392332e+000 3.293735e+000 2.813853e+000 1.593338e+000 1.660368e+000 -1.562575e-001 2.661105e-001 6.473505e-002 -1.768998e-001 -9.957807e-002 6.240929e-002 9.615566e-002 4.950819e-002 5.134945e-002 -2.068602e-002 -2.439787e-002 4.232750e-002 3.636174e-001
<VARIANCE> 25
 3.686563e+001 5.642353e+001 3.147592e+001 5.600004e+001 4.258126e+001 2.798112e+001 3.958736e+001 4.200410e+001 4.769956e+001 3.228553e+001 2.456991e+001 1.941316e+001 7.342331e-001 1.309578e+000 9.400660e-001 1.614981e+000 1.629465e+000 1.464695e+000 1.586778e+000 1.618420e+000 1.581242e+000 1.613263e+000 1.699443e+000 1.364779e+000 3.966219e+000
<GCONST> 9.441483e+001
<STATE> 4
<MEAN> 25
 -5.101330e+000 6.502243e+000 -1.402303e+000 2.016423e+000 -6.376648e-001 2.944629e+000 1.334288e-001 2.905943e+000 2.834268e+000 1.965962e+000 1.229907e+000 1.885244e+000 -2.023795e-002 5.237972e-002 5.540642e-002 -2.930820e-002 1.593157e-002 1.411185e-002 5.058336e-002 2.767195e-002 2.130014e-003 -1.133523e-003 1.139944e-002 4.630134e-002 1.315785e-001
<VARIANCE> 25
 3.104184e+001 6.318715e+001 2.964928e+001 4.910558e+001 3.597696e+001 2.531297e+001 3.689045e+001 3.598094e+001 4.113838e+001 3.386594e+001 2.310169e+001 2.140380e+001 4.013401e-001 8.024057e-001 8.085399e-001 1.147362e+000 1.348432e+000 1.361899e+000 1.571194e+000 1.556803e+000 1.632825e+000 1.563887e+000 1.647073e+000 1.364912e+000 1.174236e+000
<GCONST> 9.046207e+001
<TRANSP> 5
 0.000000e+000 1.000000e+000 0.000000e+000 0.000000e+000 0.000000e+000
 0.000000e+000 7.799805e-001 2.200194e-001 0.000000e+000 0.000000e+000
 0.000000e+000 0.000000e+000 7.799811e-001 2.200189e-001 0.000000e+000
 0.000000e+000 0.000000e+000 0.000000e+000 9.189324e-001 8.106753e-002
 0.000000e+000 0.000000e+000 0.000000e+000 0.000000e+000 0.000000e+000
<ENDHMM>
