~o
<STREAMINFO> 1 25
<VECSIZE> 25<NULLD><MFCC_D_N_Z_0><DIAGC>
~h "b"
<BEGINHMM>
<NUMSTATES> 5
<STATE> 2
<MEAN> 25
 4.910041e-001 3.099489e+000 8.905265e+000 -4.535382e+000 -7.441987e+000 -3.924727e+000 -4.987592e-001 -5.243885e+000 -1.958432e+000 3.499389e+000 -2.084672e-001 -3.305249e-001 8.978493e-002 -9.608520e-001 5.971721e-001 -1.289609e+000 -8.463725e-001 -6.175823e-001 1.923683e-001 -5.457814e-001 -5.424948e-001 3.619604e-001 -1.397043e-001 -1.470580e-001 1.324095e+000
<VARIANCE> 25
 3.410448e+001 8.204644e+001 1.014545e+002 9.781168e+001 7.612524e+001 7.026749e+001 6.501250e+001 6.543747e+001 7.675622e+001 4.335760e+001 4.080261e+001 4.652959e+001 3.716664e+000 8.028487e+000 9.846457e+000 1.029917e+001 7.201526e+000 6.377692e+000 6.211924e+000 8.173996e+000 7.367910e+000 5.597897e+000 5.107681e+000 5.198939e+000 2.521613e+000
<GCONST> 1.193788e+002
<STATE> 3
<MEAN> 25
 2.713307e+000 2.042038e-001 5.761770e+000 -6.532156e+000 -9.389627e+000 -5.216354e+000 -9.294547e-001 -4.644302e+000 -3.002967e+000 3.016724e+000 -8.987094e-001 1.014800e-001 3.287301e-001 -3.847157e-001 -7.814497e-001 -2.622010e-001 1.790472e-001 -1.046105e-001 7.235852e-002 6.647754e-002 2.251374e-001 -2.805556e-001 -8.923337e-002 -2.877729e-002 3.709900e-001
<VARIANCE> 25
 2.364368e+001 6.756564e+001 9.025667e+001 6.566463e+001 9.355899e+001 5.489945e+001 6.842344e+001 6.059802e+001 5.901912e+001 5.154012e+001 4.090923e+001 5.176038e+001 1.308999e+000 2.785286e+000 4.786486e+000 5.519006e+000 6.109653e+000 3.606174e+000 4.951599e+000 5.424674e+000 4.581201e+000 4.683105e+000 4.151941e+000 3.223774e+000 1.398433e+000
<GCONST> 1.115088e+002
<STATE> 4
<MEAN> 25
 3.331035e+000 -5.360258e+000 1.025199e+000 -9.857271e-001 -2.195796e+000 -1.507102e+000 -1.040830e+000 -2.435108e+000 -1.978700e+000 3.910041e-001 -1.501727e+000 -2.487778e+000 -2.414929e-003 6.313502e-002 -1.809224e-001 4.404955e-002 2.544692e-001 -1.818091e-002 -7.298810e-002 7.234013e-002 1.513176e-001 -1.298185e-001 2.460551e-002 5.428064e-002 -6.180118e-002
<VARIANCE> 25
 4.764321e+001 2.110548e+002 8.554309e+001 1.165913e+002 1.367804e+002 1.036577e+002 1.388479e+002 9.572954e+001 8.190337e+001 6.537664e+001 5.438817e+001 6.828066e+001 1.613364e+000 5.306871e+000 3.709865e+000 6.399450e+000 7.452395e+000 5.329131e+000 6.645337e+000 6.895654e+000 5.270876e+000 4.762046e+000 4.466882e+000 3.970756e+000 1.698001e+000
<GCONST> 1.196794e+002
<TRANSP> 5
 0.000000e+000 1.000000e+000 0.000000e+000 0.000000e+000 0.000000e+000
 0.000000e+000 8.097029e-001 1.902971e-001 0.000000e+000 0.000000e+000
 0.000000e+000 0.000000e+000 6.839181e-001 3.160819e-001 0.000000e+000
 0.000000e+000 0.000000e+000 0.000000e+000 9.516035e-001 4.839651e-002
 0.000000e+000 0.000000e+000 0.000000e+000 0.000000e+000 0.000000e+000
<ENDHMM>
~h "c"
<BEGINHMM>
<NUMSTATES> 5
<STATE> 2
<MEAN> 25
 1.292055e-008 1.831648e-008 -6.299361e-008 6.397928e-009 6.513714e-008 4.146926e-008 -2.503356e-008 -3.737221e-008 4.785829e-009 -8.260601e-008 4.838081e-008 -2.966501e-008 7.700191e-003 5.403126e-003 9.986212e-003 -4.435305e-003 5.198286e-003 1.178548e-003 5.735684e-003 -2.200497e-003 -9.225003e-004 -6.409926e-004 -2.520854e-003 -2.406914e-003 2.725629e-002
<VARIANCE> 25
 4.587285e+001 1.030148e+002 6.019880e+001 7.829473e+001 5.465159e+001 4.961901e+001 6.176896e+001 4.825900e+001 4.880714e+001 4.872197e+001 3.755544e+001 3.288158e+001 1.069084e+000 2.243620e+000 1.931021e+000 2.910384e+000 2.554792e+000 2.477852e+000 2.995093e+000 2.747025e+000 2.618064e+000 2.724945e+000 2.375594e+000 2.010036e+000 1.498881e+000
<GCONST> 1.041510e+002
<STATE> 3
<MEAN> 25
 1.292055e-008 1.831648e-008 -6.299361e-008 6.397928e-009 6.513714e-008 4.146926e-008 -2.503356e-008 -3.737221e-008 4.785829e-009 -8.260601e-008 4.838081e-008 -2.966501e-008 7.700191e-003 5.403126e-003 9.986212e-003 -4.435305e-003 5.198286e-003 1.178548e-003 5.735684e-003 -2.200497e-003 -9.225003e-004 -6.409926e-004 -2.520854e-003 -2.406914e-003 2.725629e-002
<VARIANCE> 25
 4.587285e+001 1.030148e+002 6.019880e+001 7.829473e+001 5.465159e+001 4.961901e+001 6.176896e+001 4.825900e+001 4.880714e+001 4.872197e+001 3.755544e+001 3.288158e+001 1.069084e+000 2.243620e+000 1.931021e+000 2.910384e+000 2.554792e+000 2.477852e+000 2.995093e+000 2.747025e+000 2.618064e+000 2.724945e+000 2.375594e+000 2.010036e+000 1.498881e+000
<GCONST> 1.041510e+002
<STATE> 4
<MEAN> 25
 1.292055e-008 1.831648e-008 -6.299361e-008 6.397928e-009 6.513714e-008 4.146926e-008 -2.503356e-008 -3.737221e-008 4.785829e-009 -8.260601e-008 4.838081e-008 -2.966501e-008 7.700191e-003 5.403126e-003 9.986212e-003 -4.435305e-003 5.198286e-003 1.178548e-003 5.735684e-003 -2.200497e-003 -9.225003e-004 -6.409926e-004 -2.520854e-003 -2.406914e-003 2.725629e-002
<VARIANCE> 25
 4.587285e+001 1.030148e+002 6.019880e+001 7.829473e+001 5.465159e+001 4.961901e+001 6.176896e+001 4.825900e+001 4.880714e+001 4.872197e+001 3.755544e+001 3.288158e+001 1.069084e+000 2.243620e+000 1.931021e+000 2.910384e+000 2.554792e+000 2.477852e+000 2.995093e+000 2.747025e+000 2.618064e+000 2.724945e+000 2.375594e+000 2.010036e+000 1.498881e+000
<GCONST> 1.041510e+002
<TRANSP> 5
 0.000000e+000 1.000000e+000 0.000000e+000 0.000000e+000 0.000000e+000
 0.000000e+000 6.000000e-001 4.000000e-001 0.000000e+000 0.000000e+000
 0.000000e+000 0.000000e+000 6.000000e-001 4.000000e-001 0.000000e+000
 0.000000e+000 0.000000e+000 0.000000e+000 7.000000e-001 3.000000e-001
 0.000000e+000 0.000000e+000 0.000000e+000 0.000000e+000 0.000000e+000
<ENDHMM>
~h "d"
<BEGINHMM>
<NUMSTATES> 5
<STATE> 2
<MEAN> 25
 -2.746811e+000 -6.147745e-001 4.691410e+000 -1.711527e+000 2.815208e+000 -5.901606e-001 -2.760598e+000 -2.068217e+000 -7.310603e-002 1.795597e+000 5.296478e-001 1.910932e+000 -4.943112e-002 -9.299432e-001 5.827818e-001 -4.745329e-001 -1.613212e-001 -4.130496e-001 -1.256969e-001 -2.629701e-001 -1.440885e-001 1.647330e-001 -1.602824e-001 -1.171763e-001 1.075089e+000
<VARIANCE> 25
 6.315675e+001 2.005532e+002 1.307275e+002 1.090530e+002 9.283150e+001 7.101147e+001 9.015798e+001 5.215889e+001 4.978560e+001 4.765250e+001 4.242649e+001 3.487931e+001 3.423749e+000 8.157253e+000 7.008877e+000 9.274034e+000 6.013007e+000 7.140137e+000 7.967562e+000 5.095160e+000 5.870182e+000 5.710136e+000 4.850109e+000 3.746370e+000 5.822212e+000
<GCONST> 1.204203e+002
<STATE> 3
<MEAN> 25
 9.865753e-002 8.630860e-001 5.603956e+000 -2.916168e+000 -7.111449e-001 -2.334512e+000 -3.013720e+000 -2.655157e+000 -1.269910e+000 1.149644e+000 -5.950205e-001 5.316927e-001 1.509997e-001 -9.338657e-001 2.265806e-001 -5.470344e-001 4.538508e-003 -5.899640e-001 -1.824073e-001 -9.360049e-002 -8.776554e-002 -6.426996e-002 -4.739051e-002 -1.826946e-001 1.119232e+000
<VARIANCE> 25
 1.985057e+001 1.216964e+002 1.052409e+002 1.060722e+002 8.363362e+001 4.612069e+001 7.198739e+001 4.366476e+001 5.596248e+001 6.295623e+001 4.258938e+001 3.621841e+001 1.207119e+000 7.682296e+000 6.356942e+000 9.299293e+000 5.770241e+000 4.365537e+000 7.978449e+000 3.797444e+000 5.081697e+000 6.338653e+000 3.963234e+000 3.479121e+000 3.505609e+000
<GCONST> 1.151708e+002
<STATE> 4
<MEAN> 25
 6.501003e-001 -4.300755e+000 1.195300e+000 1.671677e+000 4.730499e-001 -1.664450e+000 -1.196543e+000 6.788047e-001 -8.671374e-001 3.767736e-002 -1.000208e-001 -1.521122e+000 1.906550e-002 -4.527055e-002 -8.337016e-002 -4.578981e-002 1.249451e-003 3.590754e-002 8.309595e-002 -8.429863e-003 6.317848e-003 -8.579087e-003 1.976008e-002 1.345701e-002 2.048281e-002
<VARIANCE> 25
 2.932025e+001 3.216669e+002 1.304609e+002 1.466384e+002 9.759193e+001 1.049166e+002 1.152956e+002 7.441703e+001 7.781002e+001 6.677973e+001 6.090803e+001 6.553148e+001 7.972742e-001 6.602672e+000 3.763487e+000 5.399599e+000 4.684433e+000 4.766723e+000 6.157568e+000 4.481014e+000 4.666039e+000 4.105699e+000 3.750027e+000 3.424311e+000 2.093005e+000
<GCONST> 1.174364e+002
<TRANSP> 5
 0.000000e+000 1.000000e+000 0.000000e+000 0.000000e+000 0.000000e+000
 0.000000e+000 7.777905e-001 2.222096e-001 0.000000e+000 0.000000e+000
 0.000000e+000 0.000000e+000 6.418514e-001 3.581486e-001 0.000000e+000
 0.000000e+000 0.000000e+000 0.000000e+000 9.817720e-001 1.822803e-002
 0.000000e+000 0.000000e+000 0.000000e+000 0.000000e+000 0.000000e+000
<ENDHMM>
~h "g"
<BEGINHMM>
<NUMSTATES> 5
<STATE> 2
<MEAN> 25
 8.333465e-002 1.120135e+000 6.215608e+000 -1.984468e+000 -8.606146e-001 -6.537121e-001 -3.390041e+000 -1.621940e+000 -1.898443e+000 -5.237573e-001 -1.129714e+000 -1.469826e+000 5.388258e-002 -2.125327e-001 -4.630129e-002 -4.031280e-001 1.438780e-001 -2.794735e-001 3.110681e-002 -2.123943e-001 -1.394056e-001 1.628121e-001 -4.561164e-002 -1.830374e-001 4.471773e-001
<VARIANCE> 25
 4.488560e+001 1.750332e+002 1.274908e+002 1.737376e+002 1.043817e+002 7.647311e+001 8.432004e+001 5.961725e+001 6.262531e+001 8.193636e+001 5.758186e+001 4.466624e+001 3.595436e+000 5.622329e+000 6.700208e+000 1.240417e+001 6.178416e+000 4.445997e+000 6.440801e+000 4.867335e+000 5.346707e+000 7.517432e+000 4.578201e+000 3.639105e+000 6.486063e+000
<GCONST> 1.213860e+002
<STATE> 3
<MEAN> 25
 1.776790e+000 1.500164e-002 3.949667e+000 -4.216944e+000 1.677965e+000 -1.879389e+000 -7.733319e-001 -2.182194e+000 -2.259298e+000 -3.315578e-001 -1.570630e+000 -1.930571e+000 3.412572e-001 1.129315e-001 -1.460599e-001 -9.652350e-001 1.121109e-002 -1.204200e-001 7.754610e-003 -2.317246e-001 -1.224969e-001 5.623151e-002 -2.856678e-001 -9.952343e-002 5.289747e-001
<VARIANCE> 25
 2.583055e+001 6.051895e+001 1.115591e+002 1.440221e+002 7.877853e+001 6.984574e+001 6.582240e+001 6.387191e+001 5.392084e+001 8.772895e+001 4.729256e+001 4.529013e+001 1.531612e+000 4.263128e+000 4.404828e+000 8.951925e+000 5.596926e+000 3.768324e+000 5.345608e+000 4.405999e+000 4.114475e+000 7.743180e+000 3.659982e+000 3.231399e+000 3.524298e+000
<GCONST> 1.150243e+002
<STATE> 4
<MEAN> 25
 2.688268e+000 6.494693e-001 4.050493e+000 -4.565960e+000 1.756942e+000 -1.666917e+000 -3.625510e-001 -2.277097e+000 -1.329153e+000 -5.782815e-001 -2.051607e+000 -1.734636e+000 1.876106e-001 8.738805e-002 1.030573e-002 -3.698295e-001 -2.183385e-001 -7.759656e-002 1.439407e-001 -3.486672e-002 7.772943e-003 1.617994e-001 -6.853029e-002 -3.073388e-002 6.855439e-002
<VARIANCE> 25
 2.336737e+001 7.642120e+001 9.724077e+001 1.348391e+002 6.970209e+001 5.983359e+001 7.378465e+001 7.424907e+001 4.789275e+001 6.244002e+001 3.460921e+001 3.981361e+001 7.177259e-001 3.009559e+000 2.887428e+000 5.261365e+000 3.644782e+000 3.094267e+000 3.651845e+000 3.319358e+000 3.480369e+000 5.310185e+000 2.553685e+000 2.378678e+000 1.503063e+000
<GCONST> 1.086288e+002
<TRANSP> 5
 0.000000e+000 1.000000e+000 0.000000e+000 0.000000e+000 0.000000e+000
 0.000000e+000 8.716727e-001 1.283273e-001 0.000000e+000 0.000000e+000
 0.000000e+000 0.000000e+000 6.977968e-001 3.022032e-001 0.000000e+000
 0.000000e+000 0.000000e+000 0.000000e+000 6.966298e-001 3.033702e-001
 0.000000e+000 0.000000e+000 0.000000e+000 0.000000e+000 0.000000e+000
<ENDHMM>
~h "h"
<BEGINHMM>
<NUMSTATES> 5
<STATE> 2
<MEAN> 25
 4.397122e-001 5.376108e-001 8.889763e-001 4.930990e+000 2.372625e-002 1.361255e+000 -1.190928e+000 2.538230e+000 -2.248539e-001 -8.777110e-002 1.161419e+000 -2.157159e+000 -3.419191e-002 -5.990903e-002 -4.048300e-002 1.132800e-003 9.397408e-002 1.328856e-001 5.539301e-002 1.028688e-001 8.034457e-002 4.311112e-002 1.555252e-001 4.127828e-002 -8.194727e-003
<VARIANCE> 25
 5.973608e+000 1.526560e+001 8.530102e+000 1.180186e+001 1.204314e+001 1.331808e+001 1.433440e+001 1.703827e+001 1.962774e+001 1.568984e+001 1.621118e+001 1.220991e+001 1.149224e-001 3.029048e-001 4.904413e-001 4.563146e-001 1.137952e+000 1.420046e+000 1.318980e+000 1.670315e+000 1.534912e+000 1.368433e+000 1.545673e+000 1.075108e+000 9.139518e-002
<GCONST> 7.193777e+001
<STATE> 3
<MEAN> 25
 -1.634821e+000 -1.559137e+000 -1.413860e+000 2.869546e+000 2.766824e+000 2.954100e+000 1.174992e+000 7.319163e-001 9.880826e-001 -2.174925e+000 1.959004e+000 1.196236e-001 -2.368842e-002 -4.018384e-001 -5.317160e-001 -1.097546e-001 4.481472e-001 2.651228e-001 3.914474e-001 -3.626237e-001 -2.235795e-002 -5.508506e-001 6.089101e-003 2.772053e-001 4.527165e-001
<VARIANCE> 25
 2.149128e+001 5.270180e+001 2.321964e+001 3.674333e+001 2.081307e+001 1.794764e+001 2.064920e+001 3.788604e+001 2.832995e+001 1.922175e+001 2.101850e+001 1.732941e+001 2.522674e-001 1.563111e+000 1.348826e+000 7.706492e-001 1.787804e+000 1.376944e+000 1.554992e+000 2.696012e+000 1.641890e+000 9.775196e-001 2.050870e+000 1.737521e+000 3.678627e-001
<GCONST> 8.669727e+001
<STATE> 4
<MEAN> 25
 -2.160700e-001 -2.017598e+000 -1.350956e+000 -7.572739e-002 6.092140e-001 9.998692e-002 2.087152e-002 -6.092054e-001 -1.732818e-001 -1.385164e+000 -7.125346e-001 3.168109e-001 5.916336e-004 -1.393944e-002 -2.328545e-002 -5.978875e-002 -2.856451e-002 -1.319730e-002 1.536336e-002 -8.248399e-003 2.154798e-002 1.861866e-002 -7.195773e-003 9.387164e-003 4.049347e-002
<VARIANCE> 25
 5.370323e+001 3.079626e+001 3.654486e+001 2.268896e+001 3.494896e+001 2.035367e+001 4.585567e+001 4.384896e+001 3.863116e+001 4.711444e+001 2.837336e+001 1.962595e+001 1.334941e+000 1.026315e+000 1.267489e+000 1.269811e+000 1.429699e+000 1.693211e+000 2.032265e+000 2.161119e+000 1.686973e+000 1.878223e+000 1.845339e+000 1.434345e+000 5.752644e-001
<GCONST> 9.280890e+001
<TRANSP> 5
 0.000000e+000 1.000000e+000 0.000000e+000 0.000000e+000 0.000000e+000
 0.000000e+000 9.357536e-001 6.424633e-002 0.000000e+000 0.000000e+000
 0.000000e+000 0.000000e+000 6.932252e-001 3.067748e-001 0.000000e+000
 0.000000e+000 0.000000e+000 0.000000e+000 9.912379e-001 8.762095e-003
 0.000000e+000 0.000000e+000 0.000000e+000 0.000000e+000 0.000000e+000
<ENDHMM>
~h "j"
<BEGINHMM>
<NUMSTATES> 5
<STATE> 2
<MEAN> 25
 3.740093e+000 -2.343669e+000 -1.466871e+000 4.681284e+000 -3.466392e+000 2.071776e+000 -3.395047e+000 -3.025332e+000 -4.247955e+000 1.836461e+000 -5.729690e+000 -1.872136e+000 -1.624556e-002 5.554864e-001 -1.123217e-001 4.161297e-003 -8.319995e-001 -5.877809e-001 -6.056149e-001 -3.084391e-001 -4.826583e-001 1.720789e-001 -3.254339e-001 -1.722017e-001 -2.299954e-001
<VARIANCE> 25
 6.307098e+001 5.735069e+001 4.339716e+001 3.670051e+001 3.434862e+001 3.457105e+001 5.376093e+001 3.159335e+001 2.992166e+001 3.336839e+001 7.733437e+001 3.929066e+001 3.139262e+000 1.209077e+000 1.220214e+000 2.989578e+000 3.202472e+000 3.653407e+000 3.645576e+000 2.578270e+000 2.916811e+000 3.112875e+000 5.502753e+000 2.534112e+000 1.497919e+000
<GCONST> 1.035294e+002
<STATE> 3
<MEAN> 25
 2.334503e+000 1.247361e+000 -1.770443e+000 4.175631e+000 -5.325384e+000 6.981001e-002 -4.960077e+000 -3.635884e+000 -3.855982e+000 1.909074e+000 -3.858351e+000 -2.434566e+000 3.181403e-002 1.129225e-001 -8.012956e-002 -5.849594e-001 -4.239923e-001 -7.621788e-001 -4.322772e-001 2.990469e-002 -1.007288e-001 1.686019e-002 1.303262e-001 -6.977282e-002 -2.688301e-001
<VARIANCE> 25
 6.046879e+001 4.218080e+001 6.323440e+001 4.790269e+001 3.081574e+001 6.624966e+001 6.706723e+001 2.444508e+001 2.582092e+001 5.303165e+001 5.365701e+001 6.662445e+001 3.892424e+000 2.589647e+000 2.504228e+000 3.786540e+000 3.227113e+000 5.540917e+000 4.445546e+000 2.896234e+000 2.133637e+000 3.447264e+000 4.151183e+000 3.008918e+000 2.088281e+000
<GCONST> 1.074902e+002
<STATE> 4
<MEAN> 25
 1.449791e+000 2.867015e+000 2.413195e+000 -6.204859e-001 -4.028954e+000 -6.580637e+000 -6.107171e+000 -6.119578e-001 -2.494643e+000 1.341315e+000 -1.326809e+000 -7.003732e+000 -9.068140e-002 -5.012253e-002 9.399201e-002 -1.890490e-001 9.185616e-002 -1.781696e-001 6.122691e-002 -8.264005e-002 5.246080e-002 -1.331455e-001 -5.812269e-002 1.460954e-001 1.131708e-001
<VARIANCE> 25
 5.324151e+001 7.008810e+001 4.442308e+001 7.196080e+001 4.767376e+001 8.916082e+001 6.226756e+001 5.651123e+001 5.229890e+001 6.273542e+001 8.259155e+001 7.337428e+001 2.497664e+000 4.486568e+000 3.137242e+000 5.957104e+000 5.482157e+000 6.842782e+000 4.400011e+000 6.835082e+000 4.048201e+000 4.070687e+000 4.618020e+000 2.956420e+000 5.356394e+000
<GCONST> 1.150345e+002
<TRANSP> 5
 0.000000e+000 1.000000e+000 0.000000e+000 0.000000e+000 0.000000e+000
 0.000000e+000 7.681315e-001 2.318685e-001 0.000000e+000 0.000000e+000
 0.000000e+000 0.000000e+000 7.425180e-001 2.574820e-001 0.000000e+000
 0.000000e+000 0.000000e+000 0.000000e+000 9.565300e-001 4.347000e-002
 0.000000e+000 0.000000e+000 0.000000e+000 0.000000e+000 0.000000e+000
<ENDHMM>
~h "k"
<BEGINHMM>
<NUMSTATES> 5
<STATE> 2
<MEAN> 25
 3.475203e+000 -3.772369e-001 -3.134857e+000 -1.038587e+000 2.224721e+000 1.139606e+000 -1.927426e+000 -2.379881e+000 -1.022390e+000 -1.633400e+000 -1.847722e+000 -1.532672e+000 -1.106224e-001 -2.814558e-001 -5.270991e-002 1.008464e-001 -8.341988e-002 -6.277572e-002 3.839006e-001 1.353331e-001 2.033067e-001 -2.465453e-001 -1.034497e-002 -2.611992e-002 2.395425e-001
<VARIANCE> 25
 2.945861e+001 6.307888e+001 4.866078e+001 7.788668e+001 4.707838e+001 4.473906e+001 5.507782e+001 3.955358e+001 5.227468e+001 4.279176e+001 3.785563e+001 2.972264e+001 3.068875e+000 3.741094e+000 2.851546e+000 5.278712e+000 3.837639e+000 4.573739e+000 4.962615e+000 3.735548e+000 4.957138e+000 4.492264e+000 3.302246e+000 3.131304e+000 4.043589e+000
<GCONST> 1.095657e+002
<STATE> 3
<MEAN> 25
 2.483706e+000 -1.143372e+000 -3.287704e+000 -1.484958e+000 1.309649e+000 1.047403e+000 4.992649e-001 -1.424399e+000 -2.579685e-001 -1.357423e+000 -1.611847e+000 -4.986114e-001 -1.109664e-001 -4.044533e-001 1.110149e-001 -6.934062e-002 -1.151969e-001 -1.208037e-001 5.302396e-001 5.514501e-002 1.990845e-001 -6.812661e-002 3.433107e-002 9.193878e-002 4.035911e-001
<VARIANCE> 25
 2.362094e+001 6.240620e+001 4.416057e+001 7.133173e+001 4.909457e+001 4.812412e+001 7.048146e+001 3.693527e+001 4.679095e+001 4.247851e+001 3.943949e+001 2.825914e+001 2.463493e+000 4.046022e+000 2.501145e+000 4.736904e+000 3.248269e+000 4.043239e+000 4.625742e+000 3.463545e+000 4.129403e+000 4.260603e+000 3.691436e+000 2.956306e+000 4.223912e+000
<GCONST> 1.083596e+002
<STATE> 4
<MEAN> 25
 1.330912e+000 -2.060137e+000 -2.951108e+000 3.887221e-001 1.530106e+000 2.226435e+000 2.640247e+000 -4.976785e-002 3.484408e-001 -1.943518e-001 -6.645650e-001 2.132043e-001 -1.080984e-001 -1.425175e-001 1.741721e-001 1.498471e-001 7.929271e-002 -4.697834e-002 -1.608582e-003 3.025854e-002 -7.386152e-002 -6.675989e-003 1.398676e-002 8.995298e-002 4.509119e-002
<VARIANCE> 25
 1.968030e+001 6.481700e+001 4.268698e+001 5.456602e+001 4.134238e+001 3.320545e+001 6.784511e+001 3.456277e+001 2.734140e+001 3.606467e+001 2.830333e+001 1.877857e+001 8.665556e-001 2.985669e+000 1.844218e+000 2.452988e+000 2.512472e+000 2.095680e+000 3.147830e+000 2.964361e+000 2.417808e+000 2.890640e+000 2.430141e+000 1.947191e+000 1.638671e+000
<GCONST> 9.935248e+001
<TRANSP> 5
 0.000000e+000 1.000000e+000 0.000000e+000 0.000000e+000 0.000000e+000
 0.000000e+000 7.391162e-001 2.608838e-001 0.000000e+000 0.000000e+000
 0.000000e+000 0.000000e+000 7.121302e-001 2.878698e-001 0.000000e+000
 0.000000e+000 0.000000e+000 0.000000e+000 8.433000e-001 1.566999e-001
 0.000000e+000 0.000000e+000 0.000000e+000 0.000000e+000 0.000000e+000
<ENDHMM>
~h "l"
<BEGINHMM>
<NUMSTATES> 5
<STATE> 2
<MEAN> 25
 4.212723e+000 2.963231e-001 -2.264652e+000 -2.745945e+000 -1.119868e+000 -2.134269e+000 -7.680142e-001 -3.986142e-001 1.135376e+000 -1.946801e+000 -8.607140e-001 1.399347e-001 1.234748e-001 2.027282e-002 -1.341135e-002 1.987137e-001 6.613676e-002 2.217294e-001 -1.346462e-003 2.211279e-001 -5.117567e-002 -2.145230e-001 -2.669459e-001 6.857014e-002 -7.475463e-002
<VARIANCE> 25
 3.472784e+001 7.004255e+001 3.851406e+001 6.947131e+001 5.227577e+001 6.336444e+001 6.208697e+001 8.450968e+001 5.683932e+001 5.433042e+001 4.514220e+001 3.352603e+001 9.393724e-001 2.101493e+000 1.862135e+000 2.977032e+000 3.338242e+000 3.491680e+000 3.592431e+000 4.409614e+000 3.040457e+000 3.008375e+000 3.309231e+000 2.770716e+000 1.135445e+000
<GCONST> 1.058313e+002
<STATE> 3
<MEAN> 25
 3.654850e+000 4.879733e-001 -1.903691e+000 -2.184312e+000 -3.675154e-001 -1.120448e+000 -3.290108e-001 3.637054e-001 8.757902e-001 -2.638342e+000 -1.105596e+000 4.564018e-001 -1.346142e-001 6.874019e-002 1.576699e-001 1.359961e-001 2.411116e-001 2.024570e-001 6.611663e-003 1.552919e-001 -1.067859e-001 -1.664218e-001 -4.478234e-002 9.292856e-003 -1.452496e-001
<VARIANCE> 25
 2.960026e+001 7.663950e+001 3.908915e+001 7.665177e+001 4.872727e+001 6.184496e+001 5.864639e+001 7.194218e+001 4.783791e+001 4.183477e+001 3.643264e+001 2.963237e+001 7.952552e-001 1.554418e+000 1.710880e+000 2.704639e+000 3.337508e+000 3.499497e+000 3.003177e+000 4.160557e+000 2.765379e+000 2.570696e+000 2.430266e+000 2.225294e+000 1.004822e+000
<GCONST> 1.030043e+002
<STATE> 4
<MEAN> 25
 1.698581e+000 1.988507e+000 -3.345968e-001 -1.571335e+000 -6.776135e-002 3.125821e-001 2.794971e-001 8.249560e-001 1.906079e+000 -2.426709e+000 -7.309657e-001 8.289313e-001 -1.764448e-001 4.871827e-002 2.034464e-001 1.394074e-001 2.016417e-001 2.078436e-001 -5.055814e-002 -1.098114e-002 -5.618165e-002 -4.891653e-003 4.010862e-002 -4.894355e-002 -1.047299e-001
<VARIANCE> 25
 2.588650e+001 8.110678e+001 3.567624e+001 7.458075e+001 4.116207e+001 5.211831e+001 5.160858e+001 5.664859e+001 4.671202e+001 2.954496e+001 3.575789e+001 3.078308e+001 5.309981e-001 1.086507e+000 1.349288e+000 2.001976e+000 2.471269e+000 3.858965e+000 2.863856e+000 3.616310e+000 2.356280e+000 1.923096e+000 1.878646e+000 2.146235e+000 5.738863e-001
<GCONST> 9.875443e+001
<TRANSP> 5
 0.000000e+000 1.000000e+000 0.000000e+000 0.000000e+000 0.000000e+000
 0.000000e+000 6.313697e-001 3.686303e-001 0.000000e+000 0.000000e+000
 0.000000e+000 0.000000e+000 5.902576e-001 4.097423e-001 0.000000e+000
 0.000000e+000 0.000000e+000 0.000000e+000 7.546487e-001 2.453513e-001
 0.000000e+000 0.000000e+000 0.000000e+000 0.000000e+000 0.000000e+000
<ENDHMM>
~h "m"
<BEGINHMM>
<NUMSTATES> 5
<STATE> 2
<MEAN> 25
 2.162356e+000 2.105749e+000 1.733181e-001 1.074132e+000 1.082481e+000 4.720890e-001 -8.232530e-001 -4.977051e-001 -5.567411e-001 -1.895882e+000 -1.380967e+000 -9.969538e-001 6.826336e-003 3.665945e-001 1.560514e-001 3.019734e-001 4.377560e-003 4.036395e-002 -8.557337e-002 -1.009065e-003 2.026374e-002 -5.790140e-002 -1.128595e-001 -6.286244e-002 -2.439352e-001
<VARIANCE> 25
 2.724800e+001 6.428464e+001 3.613573e+001 6.335016e+001 4.194373e+001 3.417049e+001 4.004479e+001 3.306042e+001 3.621688e+001 3.447103e+001 2.922095e+001 2.506972e+001 6.641235e-001 1.359058e+000 1.553961e+000 2.727018e+000 1.813091e+000 1.836290e+000 2.195659e+000 2.131005e+000 2.071831e+000 2.194651e+000 1.818695e+000 1.667142e+000 6.791272e-001
<GCONST> 9.565752e+001
<STATE> 3
<MEAN> 25
 1.645663e+000 2.712742e+000 8.134974e-001 1.790695e+000 1.198719e+000 5.342975e-001 -7.949792e-001 5.538731e-004 -3.207082e-002 -1.669094e+000 -1.097465e+000 -9.298944e-001 -6.352756e-002 1.337368e-001 7.308421e-002 7.701238e-002 -8.355775e-003 1.528986e-002 -3.472269e-002 7.031869e-002 7.992754e-002 7.302180e-003 3.247109e-002 3.563571e-002 -1.335135e-001
<VARIANCE> 25
 2.620564e+001 5.673814e+001 2.908253e+001 5.525504e+001 3.762071e+001 3.055949e+001 3.862646e+001 3.326484e+001 3.321676e+001 3.199409e+001 2.826215e+001 2.297540e+001 4.687126e-001 9.775016e-001 1.157989e+000 2.052666e+000 1.504694e+000 1.671495e+000 1.874999e+000 1.892466e+000 1.769163e+000 1.900813e+000 1.674827e+000 1.474723e+000 4.568069e-001
<GCONST> 9.189124e+001
<STATE> 4
<MEAN> 25
 1.161461e+000 3.565592e+000 1.232270e+000 1.216071e+000 1.232015e+000 3.859006e-001 -1.352866e+000 5.232643e-001 2.196356e-001 -1.843028e+000 -5.210789e-001 -7.125080e-001 -5.609429e-002 3.595658e-002 3.397921e-002 -3.658238e-003 -2.020517e-002 1.184534e-002 -1.076567e-003 3.337914e-002 1.142241e-002 5.813902e-002 6.947690e-002 4.537254e-002 -5.383959e-002
<VARIANCE> 25
 2.574519e+001 5.359246e+001 2.656559e+001 5.099501e+001 3.431001e+001 2.936343e+001 4.150230e+001 3.388375e+001 2.881428e+001 3.041107e+001 2.942572e+001 2.469794e+001 2.946284e-001 7.813248e-001 9.321715e-001 1.563234e+000 1.353866e+000 1.646642e+000 1.792882e+000 1.779816e+000 1.680333e+000 1.735289e+000 1.702912e+000 1.372561e+000 3.158201e-001
<GCONST> 8.955242e+001
<TRANSP> 5
 0.000000e+000 1.000000e+000 0.000000e+000 0.000000e+000 0.000000e+000
 0.000000e+000 6.745345e-001 3.254655e-001 0.000000e+000 0.000000e+000
 0.000000e+000 0.000000e+000 7.289014e-001 2.710986e-001 0.000000e+000
 0.000000e+000 0.000000e+000 0.000000e+000 9.217002e-001 7.829974e-002
 0.000000e+000 0.000000e+000 0.000000e+000 0.000000e+000 0.000000e+000
<ENDHMM>
~h "n"
<BEGINHMM>
<NUMSTATES> 5
<STATE> 2
<MEAN> 25
 2.125596e+000 1.643043e+000 6.224493e-001 1.214837e+000 1.127838e+000 -1.086231e+000 -5.085922e-001 -1.099255e+000 -1.858021e+000 -2.732126e+000 -3.567811e-001 7.573663e-001 -1.262978e-001 3.654637e-001 3.308075e-002 3.067545e-001 -2.973089e-002 2.975208e-001 7.640139e-002 8.349813e-002 1.013311e-001 1.829143e-001 7.891989e-002 3.291649e-002 -4.335305e-001
<VARIANCE> 25
 2.866457e+001 6.226323e+001 2.973580e+001 5.412351e+001 3.609315e+001 4.307406e+001 4.457639e+001 3.268858e+001 4.195447e+001 3.433606e+001 3.430092e+001 2.884155e+001 6.442261e-001 1.555763e+000 1.297165e+000 2.586292e+000 1.867015e+000 2.222676e+000 2.296745e+000 2.414090e+000 2.341465e+000 2.250155e+000 2.490072e+000 1.673652e+000 9.226544e-001
<GCONST> 9.697774e+001
<STATE> 3
<MEAN> 25
 1.531117e+000 2.462559e+000 8.165989e-001 1.836720e+000 1.221226e+000 -3.486497e-002 -1.955257e-001 -6.781737e-001 -1.162060e+000 -1.997969e+000 -1.413328e-001 7.056823e-001 -1.690229e-001 2.468380e-001 7.578203e-002 1.617647e-001 -4.999770e-003 2.447885e-001 2.436131e-002 1.117685e-001 1.735104e-001 2.009079e-001 9.831642e-002 -3.329260e-002 -2.970488e-001
<VARIANCE> 25
 3.062984e+001 5.649363e+001 2.667034e+001 4.983357e+001 3.394152e+001 3.655680e+001 4.061411e+001 3.126995e+001 4.017206e+001 3.328721e+001 2.985233e+001 2.622981e+001 5.523255e-001 1.443294e+000 1.168943e+000 2.485519e+000 1.727678e+000 2.018176e+000 2.134889e+000 2.129082e+000 2.143148e+000 2.208715e+000 2.280550e+000 1.586164e+000 7.858003e-001
<GCONST> 9.492940e+001
<STATE> 4
<MEAN> 25
 -1.590820e+000 3.844625e+000 1.414262e+000 1.813132e+000 2.052642e+000 2.012770e+000 1.103127e+000 1.041586e+000 1.703722e+000 3.509069e-001 1.295963e+000 7.990686e-001 -1.053089e-001 5.652916e-002 9.657141e-002 1.568488e-002 4.943086e-004 4.586412e-002 -4.370396e-003 5.270159e-002 9.141520e-002 8.580516e-002 3.878676e-002 -5.157468e-002 -4.015376e-002
<VARIANCE> 25
 2.569826e+001 4.769355e+001 1.965331e+001 3.704444e+001 2.376995e+001 2.658210e+001 3.248738e+001 2.553636e+001 3.322935e+001 3.216274e+001 2.248574e+001 2.244902e+001 3.832173e-001 9.371566e-001 1.011554e+000 1.513271e+000 1.463910e+000 1.663054e+000 1.743773e+000 1.698621e+000 1.845334e+000 1.932219e+000 1.692216e+000 1.438195e+000 4.041864e-001
<GCONST> 8.864871e+001
<TRANSP> 5
 0.000000e+000 1.000000e+000 0.000000e+000 0.000000e+000 0.000000e+000
 0.000000e+000 6.243324e-001 3.756676e-001 0.000000e+000 0.000000e+000
 0.000000e+000 0.000000e+000 6.270784e-001 3.729217e-001 0.000000e+000
 0.000000e+000 0.000000e+000 0.000000e+000 8.483473e-001 1.516527e-001
 0.000000e+000 0.000000e+000 0.000000e+000 0.000000e+000 0.000000e+000
<ENDHMM>
~h "o"
<BEGINHMM>
<NUMSTATES> 5
<STATE> 2
<MEAN> 25
 1.292055e-008 1.831648e-008 -6.299361e-008 6.397928e-009 6.513714e-008 4.146926e-008 -2.503356e-008 -3.737221e-008 4.785829e-009 -8.260601e-008 4.838081e-008 -2.966501e-008 7.700191e-003 5.403126e-003 9.986212e-003 -4.435305e-003 5.198286e-003 1.178548e-003 5.735684e-003 -2.200497e-003 -9.225003e-004 -6.409926e-004 -2.520854e-003 -2.406914e-003 2.725629e-002
<VARIANCE> 25
 4.587285e+001 1.030148e+002 6.019880e+001 7.829473e+001 5.465159e+001 4.961901e+001 6.176896e+001 4.825900e+001 4.880714e+001 4.872197e+001 3.755544e+001 3.288158e+001 1.069084e+000 2.243620e+000 1.931021e+000 2.910384e+000 2.554792e+000 2.477852e+000 2.995093e+000 2.747025e+000 2.618064e+000 2.724945e+000 2.375594e+000 2.010036e+000 1.498881e+000
<GCONST> 1.041510e+002
<STATE> 3
<MEAN> 25
 1.292055e-008 1.831648e-008 -6.299361e-008 6.397928e-009 6.513714e-008 4.146926e-008 -2.503356e-008 -3.737221e-008 4.785829e-009 -8.260601e-008 4.838081e-008 -2.966501e-008 7.700191e-003 5.403126e-003 9.986212e-003 -4.435305e-003 5.198286e-003 1.178548e-003 5.735684e-003 -2.200497e-003 -9.225003e-004 -6.409926e-004 -2.520854e-003 -2.406914e-003 2.725629e-002
<VARIANCE> 25
 4.587285e+001 1.030148e+002 6.019880e+001 7.829473e+001 5.465159e+001 4.961901e+001 6.176896e+001 4.825900e+001 4.880714e+001 4.872197e+001 3.755544e+001 3.288158e+001 1.069084e+000 2.243620e+000 1.931021e+000 2.910384e+000 2.554792e+000 2.477852e+000 2.995093e+000 2.747025e+000 2.618064e+000 2.724945e+000 2.375594e+000 2.010036e+000 1.498881e+000
<GCONST> 1.041510e+002
<STATE> 4
<MEAN> 25
 1.292055e-008 1.831648e-008 -6.299361e-008 6.397928e-009 6.513714e-008 4.146926e-008 -2.503356e-008 -3.737221e-008 4.785829e-009 -8.260601e-008 4.838081e-008 -2.966501e-008 7.700191e-003 5.403126e-003 9.986212e-003 -4.435305e-003 5.198286e-003 1.178548e-003 5.735684e-003 -2.200497e-003 -9.225003e-004 -6.409926e-004 -2.520854e-003 -2.406914e-003 2.725629e-002
<VARIANCE> 25
 4.587285e+001 1.030148e+002 6.019880e+001 7.829473e+001 5.465159e+001 4.961901e+001 6.176896e+001 4.825900e+001 4.880714e+001 4.872197e+001 3.755544e+001 3.288158e+001 1.069084e+000 2.243620e+000 1.931021e+000 2.910384e+000 2.554792e+000 2.477852e+000 2.995093e+000 2.747025e+000 2.618064e+000 2.724945e+000 2.375594e+000 2.010036e+000 1.498881e+000
<GCONST> 1.041510e+002
<TRANSP> 5
 0.000000e+000 1.000000e+000 0.000000e+000 0.000000e+000 0.000000e+000
 0.000000e+000 6.000000e-001 4.000000e-001 0.000000e+000 0.000000e+000
 0.000000e+000 0.000000e+000 6.000000e-001 4.000000e-001 0.000000e+000
 0.000000e+000 0.000000e+000 0.000000e+000 7.000000e-001 3.000000e-001
 0.000000e+000 0.000000e+000 0.000000e+000 0.000000e+000 0.000000e+000
<ENDHMM>
~h "p"
<BEGINHMM>
<NUMSTATES> 5
<STATE> 2
<MEAN> 25
 -2.327878e+000 9.499691e-001 -8.936055e-001 1.080834e+000 1.167942e+000 2.943420e+000 1.933934e+000 1.160438e+000 2.455364e+000 2.185222e+000 2.214421e+000 8.538653e-001 1.388005e-001 -3.010785e-001 5.076414e-002 -2.969180e-001 9.291323e-002 -1.362999e-001 1.816726e-001 -5.291744e-002 2.817719e-002 6.642226e-002 3.861800e-002 -1.460478e-001 6.712707e-001
<VARIANCE> 25
 3.031827e+001 4.225563e+001 2.503352e+001 3.636476e+001 2.544280e+001 2.622183e+001 3.562538e+001 3.228754e+001 2.712295e+001 2.588920e+001 2.050418e+001 1.758151e+001 2.547678e+000 2.033114e+000 1.456572e+000 2.692039e+000 1.885847e+000 2.503976e+000 2.541804e+000 2.440108e+000 2.568838e+000 2.570738e+000 1.986866e+000 1.756912e+000 5.445680e+000
<GCONST> 9.712957e+001
<STATE> 3
<MEAN> 25
 -1.814140e+000 -1.803108e-001 -5.090457e-001 1.622098e-001 1.715386e+000 2.426923e+000 2.858800e+000 3.051551e-001 2.153208e+000 2.029962e+000 1.992219e+000 5.053577e-001 1.647169e-001 -1.006154e-001 -7.495586e-003 -1.499555e-001 -6.416075e-003 -2.452512e-001 5.389442e-002 1.202220e-002 -4.178325e-002 -1.645162e-001 -4.418584e-002 -1.097702e-001 3.442393e-001
<VARIANCE> 25
 3.180860e+001 5.067871e+001 2.755955e+001 4.844101e+001 2.369278e+001 3.193562e+001 2.793021e+001 3.406831e+001 2.722297e+001 2.757457e+001 2.063843e+001 2.029834e+001 1.821797e+000 1.542398e+000 1.380050e+000 2.583071e+000 1.927745e+000 2.410309e+000 2.136448e+000 2.349536e+000 2.217299e+000 2.614392e+000 1.762613e+000 1.676169e+000 2.395050e+000
<GCONST> 9.584225e+001
<STATE> 4
<MEAN> 25
 -2.028958e+000 5.548877e-001 -1.374258e-001 1.593219e+000 1.801603e+000 1.830037e+000 3.017128e+000 1.381451e+000 2.390065e+000 2.072125e+000 2.086211e+000 3.362782e-001 2.112304e-001 -4.704387e-002 -6.957825e-002 -6.522661e-002 -9.524500e-002 -2.055619e-001 -8.663062e-002 1.198185e-002 -1.446104e-001 -1.620506e-001 -9.471913e-002 -1.117444e-002 1.835426e-001
<VARIANCE> 25
 3.305115e+001 3.077168e+001 2.186843e+001 2.880754e+001 2.013075e+001 3.568003e+001 2.908913e+001 2.620752e+001 2.622963e+001 3.202173e+001 2.523146e+001 1.895122e+001 1.726979e+000 1.402790e+000 1.259834e+000 1.679601e+000 1.789359e+000 2.101264e+000 2.038968e+000 2.048129e+000 1.993625e+000 2.338389e+000 2.221913e+000 1.646689e+000 1.005677e+000
<GCONST> 9.266412e+001
<TRANSP> 5
 0.000000e+000 1.000000e+000 0.000000e+000 0.000000e+000 0.000000e+000
 0.000000e+000 7.840059e-001 2.159940e-001 0.000000e+000 0.000000e+000
 0.000000e+000 0.000000e+000 7.004611e-001 2.995388e-001 0.000000e+000
 0.000000e+000 0.000000e+000 0.000000e+000 8.708534e-001 1.291467e-001
 0.000000e+000 0.000000e+000 0.000000e+000 0.000000e+000 0.000000e+000
<ENDHMM>
~h "r"
<BEGINHMM>
<NUMSTATES> 5
<STATE> 2
<MEAN> 25
 6.232553e+000 -8.636750e+000 -3.307343e+000 -3.158486e+000 -6.024408e+000 -1.704243e+000 5.468767e+000 4.773940e-001 -7.052414e-001 9.740193e-001 -2.397823e+000 -1.909528e+000 -1.180185e-001 -3.815048e-001 2.014065e-001 2.889966e-001 -2.226287e-001 6.872235e-002 2.740357e-001 -5.512102e-004 -1.984137e-001 1.838854e-001 -2.553576e-002 1.484479e-001 1.492162e-002
<VARIANCE> 25
 2.148472e+001 7.832551e+001 5.633618e+001 7.932037e+001 8.735399e+001 4.572464e+001 9.608086e+001 5.249082e+001 5.860064e+001 5.714353e+001 4.266935e+001 3.358833e+001 1.132418e+000 3.876420e+000 2.299872e+000 4.925554e+000 5.647797e+000 3.375990e+000 6.139915e+000 4.542816e+000 4.805057e+000 4.274643e+000 3.749121e+000 3.151163e+000 1.437018e+000
<GCONST> 1.100195e+002
<STATE> 3
<MEAN> 25
 5.312734e+000 -9.113168e+000 -1.196524e+000 -3.870065e+000 -5.845832e+000 -2.269214e+000 6.126087e+000 -7.043597e-001 -2.159150e+000 1.882539e+000 -2.665960e+000 -1.459470e+000 -1.924152e-001 1.343895e-002 1.776057e-001 2.556844e-002 3.169271e-001 5.548661e-002 1.129097e-001 -3.490337e-001 -1.575401e-001 9.494849e-002 9.683677e-002 6.611293e-002 1.432043e-002
<VARIANCE> 25
 2.094379e+001 7.229275e+001 6.996410e+001 7.951479e+001 9.602908e+001 4.156005e+001 9.736378e+001 5.613498e+001 5.343586e+001 5.081642e+001 4.917270e+001 3.264919e+001 1.162700e+000 3.122492e+000 2.146065e+000 4.234933e+000 4.427680e+000 2.822058e+000 5.687073e+000 3.960908e+000 4.439662e+000 3.806709e+000 4.002914e+000 2.806909e+000 1.306170e+000
<GCONST> 1.087292e+002
<STATE> 4
<MEAN> 25
 4.880365e+000 -1.100426e+001 -3.727774e+000 4.634620e-001 -1.542669e+000 -1.779646e+000 4.306261e+000 -1.555083e+000 -3.176119e+000 3.714673e+000 -1.725521e-001 -3.292552e+000 -1.910979e-001 5.281529e-001 1.716615e-001 1.659265e-001 2.931682e-001 6.372907e-002 -4.915619e-002 -1.638633e-001 -5.389891e-002 -1.277277e-001 1.229344e-002 -4.194662e-002 -3.365951e-001
<VARIANCE> 25
 1.927486e+001 1.061544e+002 9.186997e+001 1.059466e+002 1.376151e+002 4.939215e+001 1.306502e+002 5.369489e+001 5.191914e+001 4.583325e+001 6.530850e+001 3.605455e+001 6.447263e-001 2.167919e+000 2.010597e+000 3.495271e+000 3.648247e+000 2.744927e+000 4.373626e+000 3.462708e+000 2.594198e+000 3.206101e+000 3.523375e+000 2.276199e+000 7.701949e-001
<GCONST> 1.072184e+002
<TRANSP> 5
 0.000000e+000 1.000000e+000 0.000000e+000 0.000000e+000 0.000000e+000
 0.000000e+000 7.721725e-001 2.278275e-001 0.000000e+000 0.000000e+000
 0.000000e+000 0.000000e+000 7.577819e-001 2.422181e-001 0.000000e+000
 0.000000e+000 0.000000e+000 0.000000e+000 8.672445e-001 1.327555e-001
 0.000000e+000 0.000000e+000 0.000000e+000 0.000000e+000 0.000000e+000
<ENDHMM>
~h "s"
<BEGINHMM>
<NUMSTATES> 5
<STATE> 2
<MEAN> 25
 -6.072347e+000 1.662262e+000 -4.368353e-001 1.631055e+000 -5.032703e-001 1.215895e+000 3.682363e+000 9.124494e-002 -2.423676e-001 1.109656e+000 2.645037e+000 3.254732e-001 -5.755231e-001 8.992574e-003 1.521530e-001 -2.881218e-001 -4.801600e-002 -9.499905e-002 1.215204e-001 -1.354965e-001 -3.383394e-002 6.797698e-002 9.963542e-002 4.204806e-002 5.177318e-001
<VARIANCE> 25
 4.354496e+001 6.257116e+001 6.416985e+001 7.876972e+001 2.789406e+001 4.325740e+001 3.729358e+001 4.033968e+001 5.113344e+001 3.571723e+001 2.655262e+001 2.188441e+001 3.634909e+000 2.707633e+000 2.760799e+000 2.785329e+000 1.778103e+000 2.781118e+000 2.660620e+000 2.996953e+000 2.806441e+000 2.734900e+000 2.455768e+000 1.855584e+000 2.503401e+000
<GCONST> 1.031452e+002
<STATE> 3
<MEAN> 25
 -7.199345e+000 1.084870e+000 -2.529986e-002 -4.930602e-001 -7.374211e-001 -9.287116e-002 3.924202e+000 -7.138920e-001 -1.268779e+000 8.465542e-001 2.738314e+000 2.824940e-001 4.420516e-001 -2.507707e-001 9.750801e-002 -4.889069e-001 -4.293611e-002 -2.877005e-001 -3.566721e-001 -1.002779e-001 -2.106228e-001 -2.553897e-001 -3.448794e-001 8.780493e-002 3.510201e-001
<VARIANCE> 25
 6.042513e+001 8.504277e+001 8.610394e+001 1.086591e+002 3.289691e+001 4.955088e+001 4.901490e+001 4.978083e+001 5.325950e+001 3.756461e+001 3.195274e+001 2.458822e+001 4.745990e+000 2.494948e+000 2.376931e+000 3.116436e+000 2.374010e+000 2.654909e+000 3.560438e+000 3.046116e+000 2.564824e+000 3.590150e+000 3.366723e+000 2.003962e+000 1.197783e+000
<GCONST> 1.061076e+002
<STATE> 4
<MEAN> 25
 -3.580839e+000 -7.344252e-001 4.093627e-001 -2.570804e+000 -1.073048e+000 -1.572360e+000 2.081315e+000 -5.021955e-001 -2.634926e+000 5.965372e-002 9.277771e-001 6.725204e-001 9.232273e-001 -2.166615e-001 1.745632e-002 -3.770330e-001 -1.311597e-001 -2.260672e-001 -4.647042e-001 -9.442084e-002 -1.671645e-001 -1.894169e-001 -5.052350e-001 -1.591609e-001 1.956908e-001
<VARIANCE> 25
 8.610809e+001 1.084345e+002 7.979713e+001 8.561577e+001 5.727567e+001 4.545814e+001 5.075624e+001 4.234735e+001 4.396862e+001 5.097402e+001 3.835928e+001 3.083434e+001 3.882372e+000 2.301875e+000 2.571135e+000 3.326979e+000 3.348562e+000 2.554796e+000 3.449674e+000 3.104832e+000 2.748929e+000 3.274577e+000 3.280843e+000 2.475608e+000 8.217085e-001
<GCONST> 1.071960e+002
<TRANSP> 5
 0.000000e+000 1.000000e+000 0.000000e+000 0.000000e+000 0.000000e+000
 0.000000e+000 7.613335e-001 2.386665e-001 0.000000e+000 0.000000e+000
 0.000000e+000 0.000000e+000 7.210993e-001 2.789007e-001 0.000000e+000
 0.000000e+000 0.000000e+000 0.000000e+000 7.894515e-001 2.105484e-001
 0.000000e+000 0.000000e+000 0.000000e+000 0.000000e+000 0.000000e+000
<ENDHMM>
~h "t"
<BEGINHMM>
<NUMSTATES> 5
<STATE> 2
<MEAN> 25
 2.376672e+000 -2.127158e-001 -9.341183e-001 8.509492e-001 2.316646e-001 -7.642785e-001 -2.018981e-001 -4.962390e-001 -2.306271e+000 -1.078359e+000 -1.123005e+000 -5.403761e-001 -9.094217e-002 -9.517965e-001 -1.894632e-001 -4.661935e-001 2.718921e-002 -2.754771e-001 3.117366e-001 3.480682e-002 -1.313148e-001 -3.246673e-003 6.868710e-002 -8.536520e-002 8.008134e-001
<VARIANCE> 25
 3.302472e+001 1.107636e+002 4.061941e+001 6.245395e+001 4.513385e+001 4.961601e+001 6.249307e+001 4.362691e+001 5.085381e+001 4.853619e+001 3.719958e+001 4.203078e+001 2.836536e+000 8.539881e+000 3.159724e+000 6.542108e+000 5.240226e+000 4.655261e+000 5.594274e+000 4.782426e+000 4.799427e+000 4.832920e+000 2.920847e+000 3.257229e+000 8.805570e+000
<GCONST> 1.130501e+002
<STATE> 3
<MEAN> 25
 2.606248e+000 -2.819348e+000 -1.638068e+000 -5.058394e-001 -1.099601e-001 -1.467555e+000 1.090961e+000 -2.178337e-001 -2.330809e+000 -1.416001e+000 -9.079592e-001 -6.973726e-001 6.183763e-002 -5.965536e-001 -3.342411e-001 -4.490896e-001 3.746772e-002 4.020493e-002 1.900396e-001 -2.285189e-002 2.028905e-001 1.977002e-002 5.549175e-002 2.457642e-003 5.974413e-001
<VARIANCE> 25
 2.619931e+001 9.318176e+001 4.594222e+001 5.150393e+001 4.976100e+001 4.375400e+001 6.314861e+001 4.093802e+001 5.019101e+001 4.962471e+001 4.144397e+001 3.652505e+001 2.121445e+000 5.497513e+000 3.508184e+000 6.361342e+000 4.731186e+000 4.460859e+000 5.439154e+000 4.159338e+000 4.927594e+000 4.580818e+000 2.901034e+000 3.156034e+000 6.365099e+000
<GCONST> 1.111145e+002
<STATE> 4
<MEAN> 25
 2.211593e+000 -5.011346e+000 -2.075713e+000 -6.431079e-001 -2.113110e-001 -3.269486e-001 2.659473e+000 -1.442732e-001 -1.776245e+000 -1.048372e+000 8.678358e-001 8.614781e-002 3.772689e-002 -1.546809e-001 -8.559266e-002 -2.108416e-001 1.001079e-001 1.765851e-001 -2.790201e-001 -1.724792e-001 1.583960e-001 1.907363e-002 -4.872651e-002 2.327918e-001 4.461414e-002
<VARIANCE> 25
 2.626305e+001 1.268793e+002 4.261712e+001 6.752155e+001 5.856568e+001 5.249848e+001 8.564848e+001 4.530060e+001 5.123697e+001 5.591181e+001 4.887018e+001 4.498673e+001 1.200086e+000 5.837120e+000 2.813208e+000 5.946268e+000 3.079789e+000 4.033583e+000 4.720439e+000 4.162815e+000 4.215499e+000 3.933877e+000 2.796424e+000 2.816806e+000 3.223898e+000
<GCONST> 1.102776e+002
<TRANSP> 5
 0.000000e+000 1.000000e+000 0.000000e+000 0.000000e+000 0.000000e+000
 0.000000e+000 6.509725e-001 3.490275e-001 0.000000e+000 0.000000e+000
 0.000000e+000 0.000000e+000 6.087350e-001 3.912650e-001 0.000000e+000
 0.000000e+000 0.000000e+000 0.000000e+000 7.668255e-001 2.331745e-001
 0.000000e+000 0.000000e+000 0.000000e+000 0.000000e+000 0.000000e+000
<ENDHMM>
~h "w"
<BEGINHMM>
<NUMSTATES> 5
<STATE> 2
<MEAN> 25
 5.177835e+000 8.355115e+000 4.823326e-001 -8.691102e+000 3.379541e+000 -3.175691e+000 -4.532952e+000 -8.920627e-001 -4.383138e+000 4.703406e-001 -7.112983e-001 -5.759681e-001 8.308385e-003 1.657372e-001 -1.779576e-002 -5.731108e-001 -6.324191e-002 -1.712636e-001 2.627043e-001 3.364705e-001 -5.404853e-002 2.160900e-001 2.386037e-001 9.579930e-002 5.149730e-002
<VARIANCE> 25
 2.121150e+001 2.910951e+001 7.177605e+001 1.014363e+002 5.510218e+001 6.528216e+001 3.747197e+001 3.693859e+001 4.383767e+001 6.299679e+001 4.247924e+001 3.327373e+001 3.078742e-001 2.044267e+000 2.351626e+000 2.633060e+000 2.074051e+000 2.312612e+000 2.124366e+000 1.791420e+000 2.329253e+000 3.623964e+000 2.815399e+000 1.551467e+000 9.618914e-001
<GCONST> 9.969679e+001
<STATE> 3
<MEAN> 25
 5.508523e+000 5.618681e+000 -1.874400e-001 -1.085750e+001 3.346654e+000 -4.287060e+000 -1.853932e+000 4.315020e-001 -3.580834e+000 3.068724e+000 2.841853e-001 -6.112588e-001 -3.225662e-001 -8.207964e-001 9.495533e-003 -3.633334e-001 2.679695e-001 -9.134080e-002 9.153706e-001 -1.832199e-002 7.193570e-001 -2.711484e-001 -3.965289e-002 -4.229393e-001 7.343650e-001
<VARIANCE> 25
 2.416943e+001 7.077784e+001 4.906921e+001 6.948786e+001 4.665707e+001 6.760343e+001 5.364439e+001 3.733783e+001 5.580762e+001 1.164750e+002 5.885181e+001 3.911390e+001 5.358587e-001 3.609852e+000 2.663656e+000 4.390996e+000 2.470215e+000 2.430865e+000 3.206963e+000 2.743315e+000 4.237290e+000 6.828232e+000 7.066555e+000 3.846196e+000 1.941171e+000
<GCONST> 1.081227e+002
<STATE> 4
<MEAN> 25
 1.125816e+000 4.693034e+000 1.753139e+000 -9.527950e+000 2.777511e+000 -3.715283e+000 3.519122e+000 3.213620e+000 1.374385e+000 -3.939030e+000 -8.095385e-001 -2.414475e-001 -4.371060e-002 -5.697834e-001 -9.832049e-002 3.067195e-001 2.392501e-002 -6.129734e-002 4.618974e-001 -6.088381e-002 -6.243003e-002 -1.486214e-001 3.171422e-003 -3.437547e-002 2.985591e-001
<VARIANCE> 25
 2.817759e+001 1.629938e+002 3.969833e+001 3.569684e+001 3.453100e+001 4.686160e+001 6.827148e+001 3.854709e+001 3.571907e+001 5.763684e+001 4.731162e+001 4.886160e+001 3.480866e-001 1.579221e+000 1.244788e+000 1.575208e+000 1.562408e+000 1.691311e+000 2.371933e+000 1.989759e+000 2.169924e+000 4.694008e+000 3.662723e+000 2.638166e+000 6.016241e-001
<GCONST> 9.895514e+001
<TRANSP> 5
 0.000000e+000 1.000000e+000 0.000000e+000 0.000000e+000 0.000000e+000
 0.000000e+000 8.242401e-001 1.757599e-001 0.000000e+000 0.000000e+000
 0.000000e+000 0.000000e+000 8.373125e-001 1.626875e-001 0.000000e+000
 0.000000e+000 0.000000e+000 0.000000e+000 9.047574e-001 9.524262e-002
 0.000000e+000 0.000000e+000 0.000000e+000 0.000000e+000 0.000000e+000
<ENDHMM>
~h "y"
<BEGINHMM>
<NUMSTATES> 5
<STATE> 2
<MEAN> 25
 1.309316e+000 -5.198277e+000 5.300333e+000 -1.020443e+001 -3.850736e+000 -3.064491e+000 2.158642e+000 -5.133547e+000 -1.016009e+000 1.146244e+000 -2.046834e+000 1.172097e+000 -1.501613e-001 1.120712e-001 5.170161e-001 -4.537261e-001 -3.685271e-001 -9.211279e-002 -7.346379e-002 -1.359354e-001 2.791291e-002 2.558953e-001 -1.263742e-002 -3.108455e-002 1.008847e-001
<VARIANCE> 25
 4.172999e+001 9.666531e+001 9.417648e+001 9.194063e+001 1.015347e+002 3.931947e+001 7.729453e+001 4.718617e+001 7.504744e+001 7.177884e+001 3.615532e+001 3.857642e+001 1.759928e+000 3.665996e+000 5.305672e+000 4.075663e+000 6.405098e+000 2.197095e+000 5.732162e+000 3.531116e+000 2.866294e+000 5.093807e+000 2.139111e+000 2.909776e+000 8.993206e-001
<GCONST> 1.106353e+002
<STATE> 3
<MEAN> 25
 1.623348e+000 -3.589777e+000 6.122726e+000 -1.106383e+001 -5.019829e+000 -3.689364e+000 1.721389e+000 -5.192408e+000 -9.523431e-001 1.025094e+000 -2.476687e+000 2.904430e-001 3.568837e-002 -1.940058e-001 -2.284483e-001 1.607477e-001 2.925035e-001 4.435270e-002 1.585457e-001 1.290608e-001 3.481937e-002 -2.406338e-001 -4.107258e-002 -2.411764e-001 9.061727e-002
<VARIANCE> 25
 3.154086e+001 9.118208e+001 8.016243e+001 1.060565e+002 1.064646e+002 3.193076e+001 8.756612e+001 4.269833e+001 7.574194e+001 5.887823e+001 3.697902e+001 3.810253e+001 8.312066e-001 2.618984e+000 4.123931e+000 3.223470e+000 4.940414e+000 1.918584e+000 5.369197e+000 3.296200e+000 2.499225e+000 4.423135e+000 2.177521e+000 2.541654e+000 6.296962e-001
<GCONST> 1.071094e+002
<STATE> 4
<MEAN> 25
 3.960666e+000 -7.861107e+000 2.659873e+000 -4.929539e+000 -3.581466e+000 -2.996847e+000 -9.440891e-001 -4.828155e+000 -3.288772e+000 -8.110682e-001 -3.529323e+000 -1.633862e+000 1.814143e-001 -2.900488e-001 -6.732872e-001 3.342851e-001 6.305217e-001 7.885039e-002 -8.658054e-002 -1.113931e-002 2.322998e-002 -3.478319e-001 -1.575708e-002 -1.631620e-002 -1.164431e-001
<VARIANCE> 25
 4.303543e+001 1.325467e+002 1.102625e+002 1.368903e+002 1.334419e+002 3.948059e+001 1.068426e+002 4.697610e+001 5.692889e+001 6.748872e+001 3.871939e+001 4.224397e+001 5.595269e-001 1.799201e+000 2.509219e+000 2.570969e+000 3.749286e+000 1.822214e+000 3.987549e+000 2.668073e+000 1.760909e+000 2.971851e+000 2.186406e+000 2.235461e+000 4.621108e-001
<GCONST> 1.055888e+002
<TRANSP> 5
 0.000000e+000 1.000000e+000 0.000000e+000 0.000000e+000 0.000000e+000
 0.000000e+000 7.784060e-001 2.215940e-001 0.000000e+000 0.000000e+000
 0.000000e+000 0.000000e+000 7.843838e-001 2.156162e-001 0.000000e+000
 0.000000e+000 0.000000e+000 0.000000e+000 8.636439e-001 1.363561e-001
 0.000000e+000 0.000000e+000 0.000000e+000 0.000000e+000 0.000000e+000
<ENDHMM>
~h "aa"
<BEGINHMM>
<NUMSTATES> 5
<STATE> 2
<MEAN> 25
 3.773645e+000 -5.903129e+000 -3.179112e+000 -2.998100e+000 1.843157e+000 -7.927682e-001 2.064495e+000 -1.183411e+000 -1.635664e+000 -3.253201e+000 -1.666732e+000 -3.127456e-002 3.649572e-001 -3.076520e-001 -2.385667e-001 5.071241e-002 8.124049e-002 2.718705e-002 -8.406191e-002 -1.198938e-001 -3.885247e-001 -2.027327e-001 -1.361571e-001 -2.465180e-002 1.152527e-001
<VARIANCE> 25
 3.457423e+001 1.063233e+002 5.381174e+001 6.726205e+001 5.526750e+001 4.614177e+001 7.544888e+001 4.448317e+001 5.015325e+001 5.275343e+001 4.621499e+001 3.318299e+001 1.436243e+000 3.910258e+000 2.438869e+000 3.586056e+000 3.524423e+000 2.751057e+000 3.817299e+000 3.784151e+000 2.958890e+000 3.325181e+000 2.840336e+000 2.443709e+000 2.307430e+000
<GCONST> 1.074253e+002
<STATE> 3
<MEAN> 25
 4.611331e+000 -5.784883e+000 -3.393077e+000 -2.637869e+000 1.731572e+000 -8.229073e-001 1.472682e+000 -1.412788e+000 -2.580570e+000 -3.808306e+000 -2.010857e+000 -9.065945e-002 1.318031e-001 1.681906e-001 4.785897e-002 2.177825e-001 -8.833104e-002 6.160976e-003 -1.623382e-001 -9.008918e-002 -1.890968e-001 -5.479725e-002 -3.601261e-002 1.005095e-002 -1.920549e-001
<VARIANCE> 25
 3.217225e+001 1.036132e+002 5.160534e+001 6.579253e+001 5.444653e+001 4.833445e+001 7.256258e+001 4.564326e+001 5.123152e+001 5.452393e+001 4.647862e+001 3.300683e+001 1.108202e+000 2.958485e+000 2.255545e+000 3.362379e+000 3.013514e+000 2.465788e+000 3.207113e+000 3.444146e+000 2.672748e+000 2.881439e+000 2.575213e+000 2.150589e+000 1.856744e+000
<GCONST> 1.054332e+002
<STATE> 4
<MEAN> 25
 4.507277e+000 -4.785171e+000 -3.233642e+000 -5.939903e-001 7.721595e-001 -9.831107e-001 9.214923e-001 -1.835760e+000 -2.962830e+000 -3.734863e+000 -1.928813e+000 -1.811926e-001 -1.585123e-001 5.106072e-001 2.459830e-001 2.579253e-001 -1.327639e-001 1.998955e-002 -8.842310e-002 -6.056048e-002 4.844813e-003 1.085035e-001 6.247721e-002 1.040008e-002 -4.100390e-001
<VARIANCE> 25
 3.175530e+001 1.206062e+002 4.635759e+001 6.538016e+001 4.806479e+001 4.881540e+001 6.769866e+001 4.501886e+001 4.704238e+001 5.921756e+001 4.389413e+001 3.601601e+001 5.870830e-001 1.604254e+000 1.527242e+000 2.188241e+000 2.174022e+000 2.094001e+000 2.421905e+000 2.624393e+000 2.080588e+000 2.398755e+000 2.199930e+000 1.840724e+000 7.668874e-001
<GCONST> 1.005473e+002
<TRANSP> 5
 0.000000e+000 1.000000e+000 0.000000e+000 0.000000e+000 0.000000e+000
 0.000000e+000 6.297669e-001 3.702331e-001 0.000000e+000 0.000000e+000
 0.000000e+000 0.000000e+000 6.194069e-001 3.805931e-001 0.000000e+000
 0.000000e+000 0.000000e+000 0.000000e+000 7.882061e-001 2.117939e-001
 0.000000e+000 0.000000e+000 0.000000e+000 0.000000e+000 0.000000e+000
<ENDHMM>
~h "ao"
<BEGINHMM>
<NUMSTATES> 5
<STATE> 2
<MEAN> 25
 6.288868e+000 -3.334378e-001 -4.363118e+000 -1.085647e+001 1.602454e+000 -2.140901e+000 -1.218983e+000 -2.327575e+000 -2.219651e+000 4.640709e+000 -3.302571e-001 -4.064001e+000 4.580856e-001 -3.751799e-001 -2.817087e-001 -1.323980e+000 -6.514267e-001 -1.517472e-001 7.237590e-001 4.632421e-002 2.113286e-001 2.761488e-001 7.277761e-002 -4.202462e-001 5.159821e-001
<VARIANCE> 25
 1.754140e+001 3.096897e+001 5.664615e+001 8.109904e+001 7.312515e+001 4.559218e+001 6.511641e+001 6.532738e+001 5.524223e+001 7.568584e+001 3.186248e+001 3.048396e+001 1.185207e+000 1.425714e+000 2.150438e+000 6.652453e+000 4.401062e+000 3.309356e+000 5.208391e+000 2.527387e+000 4.888911e+000 4.876868e+000 2.976021e+000 2.143623e+000 9.677642e-001
<GCONST> 1.057945e+002
<STATE> 3
<MEAN> 25
 6.911337e+000 -2.498334e+000 -4.458475e+000 -1.263798e+001 -1.037499e+000 -2.410693e+000 1.460908e+000 -1.696633e+000 -6.637951e-001 4.683933e+000 1.684960e-001 -5.103661e+000 1.241569e-001 -5.010966e-001 -1.778335e-002 7.551022e-002 -6.244398e-001 -4.317676e-002 5.039789e-001 2.465305e-001 4.098979e-001 -1.288425e-001 1.404231e-001 -1.457016e-001 2.231310e-001
<VARIANCE> 25
 1.512939e+001 2.961794e+001 4.808617e+001 5.891301e+001 8.453684e+001 4.576418e+001 8.749387e+001 7.377007e+001 7.053275e+001 6.633595e+001 3.244413e+001 2.865037e+001 6.384290e-001 1.123255e+000 1.672814e+000 4.648767e+000 3.461807e+000 2.599232e+000 4.582364e+000 2.488452e+000 4.546353e+000 3.697138e+000 2.473842e+000 2.370775e+000 6.752651e-001
<GCONST> 1.028674e+002
<STATE> 4
<MEAN> 25
 8.201610e+000 -4.230919e+000 -4.417984e+000 -9.554838e+000 -4.934575e+000 -2.856203e+000 3.697970e-001 -1.467731e+000 1.302352e+000 4.640426e+000 7.044969e-001 -3.848508e+000 -5.001066e-002 -3.825417e-001 9.862208e-002 6.178344e-001 -3.367902e-001 -1.991373e-001 1.215045e-001 2.844016e-001 1.731258e-001 -2.211840e-001 -1.791984e-001 1.808222e-001 -2.787095e-002
<VARIANCE> 25
 2.525257e+001 3.776612e+001 4.008377e+001 6.715510e+001 8.796125e+001 3.747443e+001 9.365507e+001 6.168463e+001 6.316138e+001 4.734844e+001 3.475849e+001 2.753376e+001 3.902197e-001 1.266173e+000 1.578986e+000 3.347003e+000 3.231107e+000 2.147946e+000 2.958548e+000 2.361043e+000 3.394820e+000 3.121488e+000 2.184424e+000 2.034442e+000 4.741028e-001
<GCONST> 1.002813e+002
<TRANSP> 5
 0.000000e+000 1.000000e+000 0.000000e+000 0.000000e+000 0.000000e+000
 0.000000e+000 7.061945e-001 2.938055e-001 0.000000e+000 0.000000e+000
 0.000000e+000 0.000000e+000 7.381908e-001 2.618091e-001 0.000000e+000
 0.000000e+000 0.000000e+000 0.000000e+000 8.633949e-001 1.366050e-001
 0.000000e+000 0.000000e+000 0.000000e+000 0.000000e+000 0.000000e+000
<ENDHMM>
~h "eh"
<BEGINHMM>
<NUMSTATES> 5
<STATE> 2
<MEAN> 25
 3.747534e+000 -2.901147e+000 -1.047275e+000 -3.088104e+000 -2.140338e+000 -3.377457e+000 3.068915e+000 -1.058865e+000 -3.044810e+000 -1.548342e-001 -4.847770e-001 -1.420420e+000 2.801360e-001 2.795593e-001 -9.769182e-002 7.906956e-002 -6.530827e-002 -1.733917e-001 -2.420025e-001 -1.085804e-001 -2.577698e-001 -1.707635e-001 -2.666239e-002 7.562227e-002 -8.709005e-002
<VARIANCE> 25
 3.139351e+001 5.779844e+001 3.676111e+001 5.280195e+001 7.084352e+001 5.237078e+001 7.280733e+001 4.393910e+001 5.345627e+001 4.827623e+001 4.741360e+001 3.108327e+001 2.055104e+000 2.401723e+000 1.915221e+000 3.589112e+000 3.077024e+000 3.153195e+000 4.208115e+000 3.346907e+000 3.323779e+000 3.075220e+000 3.166128e+000 1.868884e+000 1.992804e+000
<GCONST> 1.056959e+002
<STATE> 3
<MEAN> 25
 4.237062e+000 -2.107198e+000 -1.398812e+000 -2.490889e+000 -2.477515e+000 -3.393857e+000 2.428469e+000 -1.444012e+000 -3.779365e+000 -6.191908e-001 -5.689192e-001 -1.007278e+000 -7.260296e-002 3.990582e-001 -5.909359e-002 2.828583e-001 5.316975e-002 1.367076e-001 -2.635311e-001 -1.344116e-001 -1.519607e-002 -8.219714e-002 7.197643e-002 5.332786e-002 -2.546939e-001
<VARIANCE> 25
 3.582922e+001 6.074232e+001 3.518715e+001 5.189025e+001 6.652150e+001 5.644573e+001 6.934894e+001 4.381345e+001 5.278909e+001 4.631657e+001 5.107485e+001 3.333209e+001 2.103586e+000 2.589439e+000 1.734983e+000 3.361063e+000 3.050709e+000 3.073954e+000 3.765512e+000 3.675908e+000 3.194197e+000 2.911626e+000 3.059494e+000 2.134169e+000 1.709234e+000
<GCONST> 1.056004e+002
<STATE> 4
<MEAN> 25
 5.291033e+000 -1.668624e+000 -3.264967e+000 -1.334425e+000 -2.042391e+000 -3.287004e+000 -6.740626e-001 -1.733595e+000 -3.394257e+000 -3.179526e+000 -1.595994e+000 -2.044875e-001 -4.191643e-001 3.040412e-001 3.244784e-002 2.216347e-001 2.219410e-001 2.806273e-001 -7.038974e-002 -3.801215e-002 2.554912e-001 3.766055e-002 2.088755e-001 3.097236e-003 -3.499919e-001
<VARIANCE> 25
 4.602901e+001 6.325581e+001 3.850311e+001 3.880539e+001 4.564678e+001 4.881238e+001 6.287587e+001 4.087685e+001 4.475164e+001 5.362210e+001 5.335924e+001 3.082704e+001 1.466819e+000 2.396651e+000 1.557316e+000 2.178520e+000 2.274168e+000 2.578005e+000 2.863279e+000 3.055658e+000 2.467152e+000 2.450948e+000 2.197017e+000 2.037161e+000 1.034442e+000
<GCONST> 1.017303e+002
<TRANSP> 5
 0.000000e+000 1.000000e+000 0.000000e+000 0.000000e+000 0.000000e+000
 0.000000e+000 5.969183e-001 4.030817e-001 0.000000e+000 0.000000e+000
 0.000000e+000 0.000000e+000 6.028922e-001 3.971078e-001 0.000000e+000
 0.000000e+000 0.000000e+000 0.000000e+000 8.000676e-001 1.999324e-001
 0.000000e+000 0.000000e+000 0.000000e+000 0.000000e+000 0.000000e+000
<ENDHMM>
~h "hh"
<BEGINHMM>
<NUMSTATES> 5
<STATE> 2
<MEAN> 25
 3.152031e+000 -2.637551e+000 -1.147454e+000 -2.050421e-001 -1.330754e-001 -1.378078e+000 -1.507842e+000 1.588725e+000 -8.874463e-001 -2.409371e-001 3.562977e-001 -4.255911e+000 3.904166e-002 2.000698e-002 2.523325e-001 1.724877e-001 -6.390375e-001 -1.454384e-001 5.058730e-001 2.135111e-001 -1.687229e-001 1.850202e-001 -5.366037e-002 -3.985063e-001 -5.174443e-002
<VARIANCE> 25
 3.293285e+001 7.870448e+001 4.817423e+001 4.303585e+001 6.989217e+001 1.025212e+002 6.490210e+001 1.121353e+002 5.674158e+001 4.955799e+001 7.356124e+001 8.416916e+001 8.194562e-001 2.251308e+000 2.093653e+000 2.100418e+000 7.037386e+000 7.155191e+000 4.692296e+000 4.818146e+000 5.328210e+000 3.792513e+000 3.950669e+000 3.265731e+000 5.877811e-001
<GCONST> 1.100490e+002
<STATE> 3
<MEAN> 25
 2.221948e+000 -2.581800e+000 -7.898001e-001 8.810019e-001 -1.584834e+000 8.180398e-001 1.736914e+000 -5.570979e-001 -1.454765e-001 1.259832e+000 -5.713987e-002 -3.197765e+000 -3.801412e-002 1.273742e-001 -9.916988e-002 -1.700243e-001 -1.921937e-001 4.173087e-001 2.367357e-001 -1.449023e-001 2.423334e-001 -2.233315e-002 -3.465172e-002 2.219139e-001 -1.500686e-001
<VARIANCE> 25
 2.771534e+001 1.191185e+002 3.406487e+001 4.316108e+001 5.676928e+001 8.320069e+001 4.270051e+001 6.334168e+001 5.231003e+001 3.552191e+001 4.987518e+001 6.987633e+001 7.302254e-001 2.176033e+000 1.485755e+000 2.010850e+000 3.302323e+000 4.854190e+000 3.177051e+000 3.696675e+000 4.777848e+000 3.109373e+000 2.520078e+000 3.172228e+000 5.032818e-001
<GCONST> 1.042748e+002
<STATE> 4
<MEAN> 25
 -2.265354e+000 1.679283e+000 1.691669e+000 -5.440858e-001 -2.589915e-001 3.927372e+000 3.262380e+000 -3.661977e-001 3.541596e+000 2.390352e+000 2.158172e-001 4.283302e-001 -5.886510e-002 1.657931e-001 3.457724e-002 -7.689674e-002 -6.589562e-002 3.136837e-002 -2.941032e-002 -1.199146e-001 1.987327e-003 7.483530e-002 -9.458038e-002 -4.578799e-002 -7.916587e-002
<VARIANCE> 25
 2.514292e+001 9.621110e+001 2.628144e+001 2.431200e+001 5.039847e+001 4.834758e+001 3.356396e+001 3.916316e+001 3.852231e+001 2.806487e+001 4.255174e+001 2.669185e+001 5.064738e-001 9.865721e-001 9.579224e-001 1.325076e+000 1.760293e+000 2.533917e+000 1.753599e+000 2.491495e+000 2.731102e+000 1.985379e+000 2.185262e+000 1.561352e+000 3.189822e-001
<GCONST> 9.348795e+001
<TRANSP> 5
 0.000000e+000 1.000000e+000 0.000000e+000 0.000000e+000 0.000000e+000
 0.000000e+000 7.041537e-001 2.958463e-001 0.000000e+000 0.000000e+000
 0.000000e+000 0.000000e+000 6.766553e-001 3.233447e-001 0.000000e+000
 0.000000e+000 0.000000e+000 0.000000e+000 9.358090e-001 6.419108e-002
 0.000000e+000 0.000000e+000 0.000000e+000 0.000000e+000 0.000000e+000
<ENDHMM>
~h "ih"
<BEGINHMM>
<NUMSTATES> 5
<STATE> 2
<MEAN> 25
 -8.562024e-001 3.676052e+000 5.597375e+000 -3.734788e+000 -7.797565e-001 -1.626464e+000 -2.806396e+000 -2.400344e+000 5.324833e-001 -1.623226e-001 -1.197035e+000 5.206731e-001 -1.170022e-001 7.126004e-002 4.014412e-001 -1.611998e-001 2.001179e-001 -1.765798e-001 -2.736202e-001 1.379072e-001 2.650603e-001 -1.509899e-001 -3.612887e-002 7.017840e-002 -1.764705e-002
<VARIANCE> 25
 1.676782e+001 7.466823e+001 6.749977e+001 1.230410e+002 5.725550e+001 4.627628e+001 5.185910e+001 5.262754e+001 4.085125e+001 4.144339e+001 3.062970e+001 2.944694e+001 8.336174e-001 1.309915e+000 2.450700e+000 4.403430e+000 2.522050e+000 2.405987e+000 3.216349e+000 2.832102e+000 2.435267e+000 2.786912e+000 2.305479e+000 1.907701e+000 1.008459e+000
<GCONST> 1.020205e+002
<STATE> 3
<MEAN> 25
 -1.409493e+000 3.613414e+000 5.726479e+000 -2.227939e+000 9.345831e-002 -1.538376e+000 -2.600445e+000 -1.214027e+000 1.575317e+000 -3.803606e-001 -5.406128e-001 6.762166e-001 -5.703647e-002 8.516756e-004 5.723625e-002 2.522784e-001 8.224128e-002 -3.392483e-002 8.824465e-003 2.164081e-001 1.452380e-001 -8.203322e-002 4.730583e-002 -1.671145e-002 -1.403230e-001
<VARIANCE> 25
 1.558032e+001 7.347491e+001 6.304571e+001 1.154250e+002 4.545206e+001 4.609028e+001 5.181084e+001 4.978197e+001 3.440024e+001 4.252421e+001 2.792202e+001 2.723195e+001 5.559379e-001 9.833066e-001 1.838261e+000 2.875996e+000 1.967283e+000 1.951309e+000 2.443328e+000 2.437148e+000 2.192233e+000 2.403846e+000 1.849313e+000 1.706754e+000 6.455315e-001
<GCONST> 9.787116e+001
<STATE> 4
<MEAN> 25
 -1.970318e+000 3.703075e+000 5.940367e+000 1.803775e+000 1.202035e+000 -2.062671e+000 -2.641158e+000 1.122393e+000 2.685220e+000 -1.165593e+000 -7.211860e-002 3.753768e-001 2.643661e-002 3.246666e-002 -2.327103e-001 7.115919e-002 1.160135e-002 9.230175e-002 1.450227e-001 5.507670e-002 2.265139e-002 6.995478e-002 8.008944e-002 2.996235e-002 -1.087943e-001
<VARIANCE> 25
 1.405967e+001 8.308730e+001 5.999526e+001 9.614306e+001 4.638343e+001 6.341588e+001 6.364271e+001 4.887091e+001 3.228085e+001 5.450047e+001 2.933574e+001 3.451118e+001 4.150063e-001 1.232010e+000 1.770404e+000 2.241471e+000 1.822823e+000 2.370327e+000 2.804279e+000 2.432410e+000 2.137632e+000 2.572813e+000 1.970177e+000 1.914390e+000 4.580475e-001
<GCONST> 9.843454e+001
<TRANSP> 5
 0.000000e+000 1.000000e+000 0.000000e+000 0.000000e+000 0.000000e+000
 0.000000e+000 7.328858e-001 2.671142e-001 0.000000e+000 0.000000e+000
 0.000000e+000 0.000000e+000 7.374102e-001 2.625898e-001 0.000000e+000
 0.000000e+000 0.000000e+000 0.000000e+000 9.039441e-001 9.605586e-002
 0.000000e+000 0.000000e+000 0.000000e+000 0.000000e+000 0.000000e+000
<ENDHMM>
~h "ng"
<BEGINHMM>
<NUMSTATES> 5
<STATE> 2
<MEAN> 25
 3.462665e+000 7.159619e-001 1.503843e-001 -1.891184e+000 2.577662e+000 -1.708171e+000 6.064509e-001 -3.334697e+000 -1.029569e+000 -2.284264e+000 -6.349252e-001 -3.113203e+000 -1.809575e-001 4.575561e-001 1.447240e-001 6.002899e-001 7.002547e-002 2.949560e-001 -1.170430e-001 1.931378e-001 1.379713e-001 -9.219185e-002 -1.837508e-001 -4.760755e-003 -5.667551e-001
<VARIANCE> 25
 1.080499e+001 6.411921e+001 3.590368e+001 5.781161e+001 6.125335e+001 4.140195e+001 4.574060e+001 4.009481e+001 6.196722e+001 3.825828e+001 6.476465e+001 4.668026e+001 3.997304e-001 1.135071e+000 1.144029e+000 2.425048e+000 2.348618e+000 1.860103e+000 2.411543e+000 2.327829e+000 2.272919e+000 2.176521e+000 2.746369e+000 1.960260e+000 6.994359e-001
<GCONST> 9.761781e+001
<STATE> 3
<MEAN> 25
 2.536113e+000 1.808166e+000 3.174741e-001 -1.083321e-001 2.881640e+000 -5.532813e-001 3.259569e-001 -2.252271e+000 -5.904236e-001 -2.411453e+000 -9.445355e-001 -2.114182e+000 -2.475347e-001 2.027927e-001 9.127297e-002 3.800080e-001 -6.389076e-003 3.061937e-001 -6.233796e-002 3.065892e-001 1.748674e-001 7.798561e-002 -3.172204e-002 1.344213e-001 -4.681484e-001
<VARIANCE> 25
 1.179560e+001 6.029999e+001 2.998227e+001 5.575579e+001 4.551601e+001 2.865456e+001 3.906304e+001 3.687438e+001 4.568015e+001 3.437434e+001 5.250015e+001 3.890323e+001 3.737391e-001 1.054381e+000 9.153101e-001 1.760750e+000 1.740186e+000 1.766628e+000 2.318033e+000 1.941960e+000 1.850933e+000 2.053777e+000 2.473919e+000 1.612978e+000 5.915837e-001
<GCONST> 9.373030e+001
<STATE> 4
<MEAN> 25
 -8.441209e-001 1.723379e+000 -2.134763e-001 2.133506e+000 2.112947e+000 1.674236e+000 1.161224e+000 1.075415e+000 1.285259e+000 1.051640e+000 1.437222e+000 4.367181e-001 -9.882425e-002 -7.861591e-003 -9.795151e-003 1.971584e-002 -2.833466e-002 5.598168e-002 -4.877304e-003 9.730332e-002 7.505244e-002 9.377442e-002 5.683466e-002 7.243491e-002 -8.507126e-002
<VARIANCE> 25
 1.397181e+001 3.700935e+001 2.286621e+001 3.572355e+001 2.728509e+001 1.620249e+001 2.508760e+001 2.401186e+001 2.622137e+001 2.849524e+001 2.467781e+001 2.265641e+001 2.000178e-001 5.550064e-001 6.928966e-001 1.149132e+000 1.194716e+000 1.166248e+000 1.423098e+000 1.432109e+000 1.606045e+000 1.506827e+000 1.458118e+000 1.229336e+000 2.662926e-001
<GCONST> 8.309763e+001
<TRANSP> 5
 0.000000e+000 1.000000e+000 0.000000e+000 0.000000e+000 0.000000e+000
 0.000000e+000 6.390355e-001 3.609645e-001 0.000000e+000 0.000000e+000
 0.000000e+000 0.000000e+000 6.641813e-001 3.358187e-001 0.000000e+000
 0.000000e+000 0.000000e+000 0.000000e+000 9.498748e-001 5.012516e-002
 0.000000e+000 0.000000e+000 0.000000e+000 0.000000e+000 0.000000e+000
<ENDHMM>
~h "oh"
<BEGINHMM>
<NUMSTATES> 5
<STATE> 2
<MEAN> 25
 -3.406245e+000 1.889706e+000 1.861923e+000 1.607331e+000 3.206042e+000 2.014615e+000 5.341352e+000 3.567358e+000 4.412510e+000 4.178202e+000 3.849006e+000 9.365796e-002 -3.910814e-002 -6.300520e-003 5.979650e-003 1.651760e-002 3.819801e-002 2.328754e-002 1.758686e-001 1.201455e-001 9.168617e-002 5.742027e-002 -2.906784e-002 -1.858749e-002 -2.779538e-002
<VARIANCE> 25
 6.922136e+000 1.855299e+001 9.103722e+000 2.699605e+001 1.030000e+001 1.422118e+001 2.139776e+001 3.124501e+001 2.373926e+001 2.685301e+001 1.169682e+001 8.078162e+000 1.762341e-001 6.775367e-001 4.087967e-001 6.953655e-001 1.064044e+000 1.034666e+000 1.457443e+000 1.202372e+000 2.048800e+000 1.575416e+000 1.101610e+000 8.778722e-001 1.041058e-001
<GCONST> 7.495466e+001
<STATE> 3
<MEAN> 25
 2.860864e-001 -2.416234e+000 -2.003177e+000 -3.803443e+000 1.827929e+000 1.739095e+000 6.208037e+000 -1.787269e+000 3.144385e+000 2.990251e+000 2.592938e+000 3.494756e-001 1.663524e-001 3.304600e-001 -5.999982e-002 2.687168e-001 -2.985639e-001 -3.397714e-001 1.190003e-002 -6.333905e-002 -2.472776e-001 2.779367e-002 -1.550373e-001 -8.159695e-002 -2.478088e-001
<VARIANCE> 25
 2.605297e+001 3.191293e+001 3.226345e+001 9.741066e+001 1.392178e+001 1.670475e+001 1.744927e+001 5.898217e+001 3.311526e+001 5.331619e+001 1.501574e+001 9.371195e+000 2.212206e-001 5.838835e-001 6.102552e-001 1.104606e+000 1.157072e+000 1.703838e+000 1.522059e+000 1.151579e+000 2.960448e+000 1.863999e+000 1.198207e+000 1.149052e+000 1.976156e-001
<GCONST> 8.473692e+001
<STATE> 4
<MEAN> 25
 7.396234e-003 -1.270331e+000 -1.031641e+000 3.720910e+000 1.257265e+000 1.867098e+000 4.031121e+000 8.930575e-001 6.562262e-001 -5.152182e-001 1.522849e+000 5.159204e-002 -8.529869e-002 -1.171425e-001 -3.100247e-002 3.698250e-002 5.869368e-002 -4.636089e-002 5.286023e-002 -4.214067e-002 5.876771e-002 -1.209926e-001 -2.250070e-002 -1.566547e-002 1.121349e-001
<VARIANCE> 25
 7.922263e+000 1.797239e+001 2.251285e+001 4.882580e+001 1.777523e+001 9.137158e+000 1.339236e+001 4.830257e+001 1.771737e+001 2.311900e+001 1.621548e+001 7.646985e+000 4.088204e-001 6.223974e-001 7.480305e-001 1.644716e+000 1.026786e+000 8.524772e-001 1.054944e+000 1.949922e+000 1.486130e+000 1.242353e+000 1.274673e+000 7.520523e-001 5.701745e-001
<GCONST> 7.974140e+001
<TRANSP> 5
 0.000000e+000 1.000000e+000 0.000000e+000 0.000000e+000 0.000000e+000
 0.000000e+000 9.657537e-001 3.424632e-002 0.000000e+000 0.000000e+000
 0.000000e+000 0.000000e+000 8.536868e-001 1.463132e-001 0.000000e+000
 0.000000e+000 0.000000e+000 0.000000e+000 9.585435e-001 4.145647e-002
 0.000000e+000 0.000000e+000 0.000000e+000 0.000000e+000 0.000000e+000
<ENDHMM>
~h "uw"
<BEGINHMM>
<NUMSTATES> 5
<STATE> 2
<MEAN> 25
 3.484633e+000 7.293400e-002 -2.875194e+000 -4.376116e+000 1.492762e+000 -1.315675e+000 -3.272283e+000 -3.293147e+000 -1.664611e+000 9.699424e-001 8.007018e-001 -2.121109e-001 3.613800e-001 1.085845e-001 -3.883502e-001 -6.568026e-001 1.790239e-002 8.753489e-002 -3.299905e-001 -3.572243e-001 -1.538431e-001 1.373323e-001 6.046325e-004 -1.159887e-001 6.894950e-002
<VARIANCE> 25
 4.648583e+001 8.066786e+001 6.933769e+001 8.897269e+001 5.611628e+001 7.956776e+001 6.431725e+001 4.661554e+001 5.155595e+001 4.906339e+001 4.326335e+001 4.235048e+001 2.748673e+000 4.538575e+000 3.714900e+000 7.156328e+000 4.372133e+000 5.822981e+000 4.329265e+000 4.750637e+000 4.995172e+000 4.252919e+000 3.497015e+000 3.016843e+000 3.696069e+000
<GCONST> 1.134469e+002
<STATE> 3
<MEAN> 25
 4.260849e+000 5.403395e-001 -3.835206e+000 -5.510374e+000 9.656476e-001 -1.496796e+000 -3.538378e+000 -3.809398e+000 -1.945647e+000 1.650281e+000 5.274369e-001 -1.232474e+000 1.375630e-001 3.957889e-003 -1.042298e-001 -6.872407e-002 -5.368753e-002 5.664987e-002 1.434178e-001 -2.727722e-002 -1.143028e-001 7.931477e-002 -1.137849e-001 -2.026689e-001 7.660776e-003
<VARIANCE> 25
 3.852470e+001 7.996814e+001 6.056745e+001 9.145823e+001 6.296798e+001 7.367381e+001 6.128622e+001 5.212353e+001 5.642277e+001 5.207180e+001 4.623236e+001 4.216671e+001 2.650079e+000 4.323789e+000 3.408902e+000 6.301473e+000 4.708648e+000 5.867749e+000 4.266459e+000 5.039210e+000 5.251757e+000 4.235784e+000 3.710115e+000 3.168959e+000 3.664092e+000
<GCONST> 1.134297e+002
<STATE> 4
<MEAN> 25
 3.847998e+000 1.683575e+000 -3.083048e+000 -4.688976e+000 1.848130e-001 -1.314600e+000 -2.263466e+000 -3.050746e+000 -2.892442e+000 9.767660e-001 1.043688e-001 -1.366056e+000 -1.604104e-001 1.211177e-001 1.958065e-001 4.036396e-001 -3.384589e-003 7.668164e-002 1.906404e-001 3.326265e-001 1.426266e-001 -1.171238e-001 -7.095674e-002 -1.854193e-002 -2.610936e-001
<VARIANCE> 25
 3.100389e+001 7.132104e+001 4.277559e+001 7.692439e+001 5.339764e+001 6.102093e+001 5.406377e+001 4.678880e+001 5.347150e+001 4.332726e+001 4.678011e+001 4.625872e+001 9.806052e-001 2.444432e+000 1.850474e+000 3.874859e+000 3.168364e+000 3.570996e+000 3.084703e+000 3.876303e+000 4.199133e+000 3.066077e+000 3.399840e+000 2.625166e+000 1.143394e+000
<GCONST> 1.057292e+002
<TRANSP> 5
 0.000000e+000 1.000000e+000 0.000000e+000 0.000000e+000 0.000000e+000
 0.000000e+000 7.163094e-001 2.836906e-001 0.000000e+000 0.000000e+000
 0.000000e+000 0.000000e+000 7.200503e-001 2.799498e-001 0.000000e+000
 0.000000e+000 0.000000e+000 0.000000e+000 7.566718e-001 2.433281e-001
 0.000000e+000 0.000000e+000 0.000000e+000 0.000000e+000 0.000000e+000
<ENDHMM>
~h "sil"
<BEGINHMM>
<NUMSTATES> 5
<STATE> 2
<MEAN> 25
 -1.253372e+001 5.460886e+000 -3.476087e+000 9.631424e+000 -2.271157e+000 6.417959e+000 -3.642948e+000 8.572772e+000 7.608752e+000 3.760280e+000 3.894209e+000 2.247504e+000 -7.170032e-002 6.206395e-002 -1.644748e-002 -8.083017e-002 1.139385e-002 1.096532e-001 -2.268040e-002 -4.919924e-003 1.210099e-001 1.366367e-001 7.227640e-002 -4.949888e-002 -2.572331e-002
<VARIANCE> 25
 5.275402e+001 1.659094e+001 2.814170e+001 3.068314e+001 2.780166e+001 2.295358e+001 2.279176e+001 3.889447e+001 4.431739e+001 2.041728e+001 2.117937e+001 1.546852e+001 1.769447e-001 4.278753e-001 3.968865e-001 6.978779e-001 7.088533e-001 9.092928e-001 1.040545e+000 1.225643e+000 1.179935e+000 1.425333e+000 1.225282e+000 1.259287e+000 4.725683e-001
<GCONST> 8.147117e+001
<STATE> 3
<MEAN> 25
 -7.388733e+000 5.002143e+000 -6.891933e+000 5.354352e+000 -4.907456e+000 5.566625e+000 -2.293624e+000 3.625098e+000 4.981824e-001 4.830591e+000 1.052397e+000 2.227209e+000 3.298882e-001 -7.362729e-002 2.599187e-001 -1.604267e-001 1.345014e-001 -1.096569e-001 2.599553e-001 -9.116407e-002 -2.126592e-001 -1.159487e-001 -8.470713e-002 2.417600e-002 1.444644e+000
<VARIANCE> 25
 3.900354e+001 1.972007e+001 3.422983e+001 2.327074e+001 3.535803e+001 1.880854e+001 2.329477e+001 2.794845e+001 5.039936e+001 2.263227e+001 1.862704e+001 1.108717e+001 3.189090e+000 9.537382e-001 1.362806e+000 1.122527e+000 1.288237e+000 1.144508e+000 1.364686e+000 1.444835e+000 1.578933e+000 1.175264e+000 1.228597e+000 8.803836e-001 1.114373e+001
<GCONST> 9.033295e+001
<STATE> 4
<MEAN> 25
 -1.700682e+000 1.812536e+000 -5.256457e-001 1.023124e+000 -6.478673e-002 1.368668e+000 7.321663e-001 8.635725e-001 8.602090e-001 9.283039e-001 7.632006e-001 1.144338e+000 -8.225202e-003 3.822264e-003 6.820870e-003 4.072057e-003 -2.569517e-003 2.876282e-003 5.932757e-003 5.649285e-003 -4.151962e-003 1.153865e-002 7.955451e-003 5.035929e-003 1.032884e-002
<VARIANCE> 25
 3.480481e+001 4.492923e+001 2.517246e+001 2.946623e+001 2.946040e+001 2.423260e+001 3.586786e+001 2.908936e+001 3.027719e+001 3.631028e+001 2.517727e+001 1.942632e+001 5.120456e-001 6.755829e-001 7.938426e-001 1.044412e+000 1.242048e+000 1.321575e+000 1.451077e+000 1.583516e+000 1.593706e+000 1.731701e+000 1.628551e+000 1.341154e+000 3.166738e-001
<GCONST> 8.735190e+001
<TRANSP> 5
 0.000000e+000 1.000000e+000 0.000000e+000 0.000000e+000 0.000000e+000
 0.000000e+000 8.893051e-001 1.106949e-001 0.000000e+000 0.000000e+000
 0.000000e+000 0.000000e+000 8.355219e-001 1.644781e-001 0.000000e+000
 0.000000e+000 0.000000e+000 0.000000e+000 9.837558e-001 1.624420e-002
 0.000000e+000 0.000000e+000 0.000000e+000 0.000000e+000 0.000000e+000
<ENDHMM>
