~o
<STREAMINFO> 1 25
<VECSIZE> 25<NULLD><MFCC_D_N_Z_0><DIAGC>
~h "b"
<BEGINHMM>
<NUMSTATES> 5
<STATE> 2
<MEAN> 25
 -1.595820e+000 1.540995e+000 1.059637e+001 -5.889621e+000 -4.873059e+000 -3.208438e+000 -2.643257e-001 -5.120472e+000 -1.231675e+000 2.982589e+000 -1.707674e-001 1.275689e-001 1.417637e-002 -1.170227e+000 7.278094e-001 -1.128460e+000 -6.249920e-001 -7.122883e-001 1.430665e-001 -5.508039e-001 -5.914444e-001 3.724157e-001 -2.396432e-001 -2.338146e-001 1.435808e+000
<VARIANCE> 25
 6.162203e+001 1.280947e+002 1.173159e+002 1.235858e+002 1.022068e+002 8.023778e+001 7.032701e+001 7.248550e+001 8.076511e+001 5.221964e+001 4.338450e+001 5.068726e+001 4.576279e+000 9.059133e+000 1.101862e+001 1.237679e+001 7.471942e+000 7.431749e+000 7.540877e+000 8.632335e+000 8.439052e+000 5.678242e+000 5.036494e+000 5.917890e+000 2.747330e+000
<GCONST> 1.232015e+002
<STATE> 3
<MEAN> 25
 2.049778e+000 -4.974822e-001 6.972096e+000 -6.241039e+000 -7.801711e+000 -5.075253e+000 -1.231633e+000 -4.847435e+000 -3.063240e+000 3.142868e+000 -1.372985e+000 8.620007e-002 4.302612e-001 -4.038546e-001 -6.638456e-001 -1.700791e-001 -2.998227e-002 -1.360831e-001 -5.341459e-002 8.357669e-003 8.854675e-002 -3.198825e-001 -8.406802e-002 -5.386901e-002 4.844460e-001
<VARIANCE> 25
 2.109260e+001 7.973771e+001 9.329498e+001 8.853975e+001 9.862865e+001 5.870547e+001 7.799619e+001 6.606443e+001 6.497119e+001 5.108431e+001 4.141419e+001 5.944954e+001 1.485789e+000 2.924672e+000 5.524420e+000 6.978804e+000 6.340905e+000 4.341827e+000 5.621954e+000 5.952569e+000 5.743917e+000 4.414867e+000 4.194225e+000 3.683510e+000 1.708802e+000
<GCONST> 1.139747e+002
<STATE> 4
<MEAN> 25
 3.045179e+000 -6.557815e+000 1.828329e+000 -1.203995e-001 -1.271657e+000 -1.186110e+000 -1.813834e+000 -2.947085e+000 -1.729615e+000 1.790965e+000 -1.601118e+000 -2.458376e+000 1.581733e-002 3.005784e-002 -1.547773e-001 2.782050e-002 1.886445e-001 -3.017258e-002 -5.254120e-002 8.069808e-002 1.543180e-001 -8.920596e-002 1.747911e-002 5.929308e-002 -3.371448e-002
<VARIANCE> 25
 4.086993e+001 2.304108e+002 9.425957e+001 1.223359e+002 1.540501e+002 1.008913e+002 1.670688e+002 7.733491e+001 8.768666e+001 7.097695e+001 4.769860e+001 5.576283e+001 1.529895e+000 5.686580e+000 3.826182e+000 6.732398e+000 7.942331e+000 5.486934e+000 7.995981e+000 6.079423e+000 5.161981e+000 4.856630e+000 4.327782e+000 3.805423e+000 1.717343e+000
<GCONST> 1.198245e+002
<TRANSP> 5
 0.000000e+000 1.000000e+000 0.000000e+000 0.000000e+000 0.000000e+000
 0.000000e+000 8.316530e-001 1.683470e-001 0.000000e+000 0.000000e+000
 0.000000e+000 0.000000e+000 6.793147e-001 3.206854e-001 0.000000e+000
 0.000000e+000 0.000000e+000 0.000000e+000 9.556305e-001 4.436954e-002
 0.000000e+000 0.000000e+000 0.000000e+000 0.000000e+000 0.000000e+000
<ENDHMM>
~h "c"
<BEGINHMM>
<NUMSTATES> 5
<STATE> 2
<MEAN> 25
 3.351895e-008 6.868748e-009 -8.012638e-008 -5.171843e-009 5.659957e-008 3.127444e-008 -1.897019e-008 -3.787276e-008 -2.190428e-009 -1.042481e-007 5.105589e-008 -4.266601e-008 9.338440e-003 5.151767e-003 1.071485e-002 -4.624357e-003 4.757588e-003 -1.562855e-004 6.065580e-003 -2.663599e-003 -1.184148e-003 -7.597569e-004 -2.750245e-003 -3.096818e-003 3.171694e-002
<VARIANCE> 25
 4.493839e+001 1.140073e+002 6.386908e+001 8.517533e+001 5.555016e+001 4.948111e+001 6.410268e+001 5.053800e+001 4.916899e+001 4.841446e+001 3.746964e+001 3.443018e+001 1.058399e+000 2.394540e+000 2.004006e+000 3.105449e+000 2.635025e+000 2.534516e+000 3.119964e+000 2.812881e+000 2.677968e+000 2.755787e+000 2.419358e+000 2.075167e+000 1.645589e+000
<GCONST> 1.049692e+002
<STATE> 3
<MEAN> 25
 3.351895e-008 6.868748e-009 -8.012638e-008 -5.171843e-009 5.659957e-008 3.127444e-008 -1.897019e-008 -3.787276e-008 -2.190428e-009 -1.042481e-007 5.105589e-008 -4.266601e-008 9.338440e-003 5.151767e-003 1.071485e-002 -4.624357e-003 4.757588e-003 -1.562855e-004 6.065580e-003 -2.663599e-003 -1.184148e-003 -7.597569e-004 -2.750245e-003 -3.096818e-003 3.171694e-002
<VARIANCE> 25
 4.493839e+001 1.140073e+002 6.386908e+001 8.517533e+001 5.555016e+001 4.948111e+001 6.410268e+001 5.053800e+001 4.916899e+001 4.841446e+001 3.746964e+001 3.443018e+001 1.058399e+000 2.394540e+000 2.004006e+000 3.105449e+000 2.635025e+000 2.534516e+000 3.119964e+000 2.812881e+000 2.677968e+000 2.755787e+000 2.419358e+000 2.075167e+000 1.645589e+000
<GCONST> 1.049692e+002
<STATE> 4
<MEAN> 25
 3.351895e-008 6.868748e-009 -8.012638e-008 -5.171843e-009 5.659957e-008 3.127444e-008 -1.897019e-008 -3.787276e-008 -2.190428e-009 -1.042481e-007 5.105589e-008 -4.266601e-008 9.338440e-003 5.151767e-003 1.071485e-002 -4.624357e-003 4.757588e-003 -1.562855e-004 6.065580e-003 -2.663599e-003 -1.184148e-003 -7.597569e-004 -2.750245e-003 -3.096818e-003 3.171694e-002
<VARIANCE> 25
 4.493839e+001 1.140073e+002 6.386908e+001 8.517533e+001 5.555016e+001 4.948111e+001 6.410268e+001 5.053800e+001 4.916899e+001 4.841446e+001 3.746964e+001 3.443018e+001 1.058399e+000 2.394540e+000 2.004006e+000 3.105449e+000 2.635025e+000 2.534516e+000 3.119964e+000 2.812881e+000 2.677968e+000 2.755787e+000 2.419358e+000 2.075167e+000 1.645589e+000
<GCONST> 1.049692e+002
<TRANSP> 5
 0.000000e+000 1.000000e+000 0.000000e+000 0.000000e+000 0.000000e+000
 0.000000e+000 6.000000e-001 4.000000e-001 0.000000e+000 0.000000e+000
 0.000000e+000 0.000000e+000 6.000000e-001 4.000000e-001 0.000000e+000
 0.000000e+000 0.000000e+000 0.000000e+000 7.000000e-001 3.000000e-001
 0.000000e+000 0.000000e+000 0.000000e+000 0.000000e+000 0.000000e+000
<ENDHMM>
~h "d"
<BEGINHMM>
<NUMSTATES> 5
<STATE> 2
<MEAN> 25
 -1.797487e+000 -1.954806e+000 4.593296e+000 -1.631221e+000 2.186874e+000 1.549219e-001 -1.314935e+000 -2.449114e+000 -5.380732e-001 2.236823e+000 -3.225483e-001 1.853375e+000 -1.089482e-001 -1.103206e+000 6.465698e-001 -2.929083e-001 -3.024977e-002 -3.692585e-001 -2.015749e-001 -3.120940e-001 -1.245964e-001 9.151499e-002 -1.855937e-001 -3.938084e-002 1.085850e+000
<VARIANCE> 25
 7.098280e+001 2.095931e+002 1.604666e+002 1.239720e+002 1.065242e+002 6.675249e+001 9.944074e+001 5.696709e+001 4.504294e+001 5.542054e+001 4.180174e+001 3.757032e+001 3.256349e+000 9.680083e+000 8.187327e+000 1.068418e+001 7.078201e+000 6.104246e+000 9.763475e+000 5.169956e+000 4.870296e+000 6.331773e+000 4.665322e+000 3.815584e+000 6.100628e+000
<GCONST> 1.218717e+002
<STATE> 3
<MEAN> 25
 4.559824e-001 -8.640245e-001 5.567994e+000 -1.863951e+000 -3.219073e-001 -2.408874e+000 -2.828040e+000 -2.895119e+000 -1.598182e+000 5.372816e-001 -7.902153e-001 5.872911e-001 9.995577e-002 -9.637748e-001 2.104924e-001 -3.712398e-001 2.028299e-001 -6.429406e-001 -2.684328e-001 -2.778361e-002 -1.186344e-002 -1.686137e-001 -9.562031e-002 -1.627964e-001 1.097724e+000
<VARIANCE> 25
 2.171239e+001 1.358956e+002 1.202174e+002 1.180250e+002 8.744109e+001 5.352355e+001 8.495581e+001 4.326208e+001 5.627713e+001 6.594543e+001 4.186284e+001 3.908925e+001 1.172325e+000 8.730909e+000 6.865878e+000 9.565221e+000 5.526574e+000 4.119732e+000 8.972301e+000 4.105056e+000 5.108323e+000 6.431201e+000 4.108168e+000 3.692478e+000 3.897124e+000
<GCONST> 1.165906e+002
<STATE> 4
<MEAN> 25
 7.365102e-001 -4.310127e+000 1.232991e+000 2.442090e+000 2.928978e-001 -2.352244e+000 -1.365151e+000 8.941440e-001 -5.082586e-001 -2.625189e-001 -4.353756e-001 -1.601856e+000 2.522523e-002 -3.010947e-002 -1.113031e-001 -5.204472e-002 -8.546897e-003 4.900985e-002 9.850892e-002 -1.158420e-002 6.668038e-003 -4.594732e-003 3.465141e-002 1.416648e-002 1.118424e-002
<VARIANCE> 25
 2.752319e+001 3.161196e+002 1.314491e+002 1.482086e+002 9.943220e+001 1.079957e+002 1.150263e+002 7.757628e+001 7.469172e+001 6.430460e+001 6.241476e+001 6.389590e+001 7.199945e-001 6.743079e+000 3.807402e+000 5.244633e+000 4.564894e+000 4.855258e+000 6.071871e+000 4.513417e+000 4.722616e+000 4.119493e+000 3.808426e+000 3.524947e+000 2.125956e+000
<GCONST> 1.173441e+002
<TRANSP> 5
 0.000000e+000 1.000000e+000 0.000000e+000 0.000000e+000 0.000000e+000
 0.000000e+000 7.471510e-001 2.528489e-001 0.000000e+000 0.000000e+000
 0.000000e+000 0.000000e+000 6.476619e-001 3.523381e-001 0.000000e+000
 0.000000e+000 0.000000e+000 0.000000e+000 9.790986e-001 2.090137e-002
 0.000000e+000 0.000000e+000 0.000000e+000 0.000000e+000 0.000000e+000
<ENDHMM>
~h "g"
<BEGINHMM>
<NUMSTATES> 5
<STATE> 2
<MEAN> 25
 9.217204e-001 3.386873e+000 5.550472e+000 -2.066476e+000 -1.526030e+000 -1.833884e+000 -3.749035e+000 -1.410291e+000 -1.624530e+000 -4.916530e-001 -1.419979e+000 -1.331722e+000 9.224699e-002 -3.230585e-001 -1.585341e-001 -4.542582e-001 1.851722e-001 -2.140051e-001 1.539268e-002 -1.853461e-001 -2.953769e-001 2.419006e-001 -2.639491e-004 -2.169300e-001 4.420052e-001
<VARIANCE> 25
 3.935986e+001 1.274417e+002 1.133780e+002 1.508161e+002 9.496067e+001 6.912444e+001 6.998402e+001 6.054601e+001 6.766737e+001 7.425751e+001 5.510027e+001 4.399846e+001 3.878875e+000 6.548529e+000 6.280138e+000 1.256541e+001 6.729315e+000 4.966369e+000 6.301199e+000 4.378817e+000 5.788232e+000 7.102046e+000 4.497055e+000 3.305009e+000 7.189231e+000
<GCONST> 1.204881e+002
<STATE> 3
<MEAN> 25
 1.899697e+000 -1.214751e+000 3.869252e+000 -4.183001e+000 2.409942e+000 -1.534206e+000 -9.523630e-001 -1.984756e+000 -3.611304e+000 6.601428e-001 -7.532154e-001 -2.482986e+000 3.657242e-001 -8.234540e-002 -2.932447e-001 -9.028677e-001 1.670849e-002 -4.351756e-002 7.732205e-002 -1.871388e-001 -1.210515e-001 9.104720e-002 -2.654258e-001 -1.148719e-001 5.520415e-001
<VARIANCE> 25
 2.788688e+001 8.332159e+001 1.051303e+002 1.313607e+002 8.080070e+001 6.645419e+001 7.431155e+001 5.560677e+001 7.343147e+001 9.792766e+001 5.059955e+001 5.218716e+001 1.728169e+000 4.492481e+000 4.433588e+000 9.442596e+000 5.859812e+000 4.103613e+000 6.084957e+000 4.507545e+000 4.479658e+000 8.058211e+000 3.792764e+000 3.085517e+000 3.887267e+000
<GCONST> 1.165846e+002
<STATE> 4
<MEAN> 25
 2.669555e+000 -1.613997e+000 3.457711e+000 -3.749291e+000 2.230101e+000 -5.642219e-001 9.801593e-002 -1.784553e+000 -2.066269e+000 3.645269e-001 -1.114162e+000 -2.162180e+000 1.898307e-001 7.234527e-003 -9.917618e-002 -4.269249e-001 -2.307296e-001 -8.619539e-003 1.865332e-001 -1.378642e-001 1.812348e-001 1.563924e-001 -1.402317e-001 5.088952e-002 1.170559e-001
<VARIANCE> 25
 2.625071e+001 1.040845e+002 1.019119e+002 1.303482e+002 7.190664e+001 6.375297e+001 8.001577e+001 6.420570e+001 5.772204e+001 7.627164e+001 3.861277e+001 4.469852e+001 8.025552e-001 3.137673e+000 2.781808e+000 5.172274e+000 4.067135e+000 3.207050e+000 3.462065e+000 3.804644e+000 3.818970e+000 5.463608e+000 2.620099e+000 2.188890e+000 1.616521e+000
<GCONST> 1.101736e+002
<TRANSP> 5
 0.000000e+000 1.000000e+000 0.000000e+000 0.000000e+000 0.000000e+000
 0.000000e+000 8.365639e-001 1.634361e-001 0.000000e+000 0.000000e+000
 0.000000e+000 0.000000e+000 6.630747e-001 3.369253e-001 0.000000e+000
 0.000000e+000 0.000000e+000 0.000000e+000 6.561801e-001 3.438199e-001
 0.000000e+000 0.000000e+000 0.000000e+000 0.000000e+000 0.000000e+000
<ENDHMM>
~h "h"
<BEGINHMM>
<NUMSTATES> 5
<STATE> 2
<MEAN> 25
 1.097763e+000 2.538936e+000 8.107502e-001 4.922114e+000 -1.428882e+000 1.221319e-001 -7.374312e-001 2.470205e+000 5.504350e-001 -1.024055e-002 1.835085e+000 6.870794e-002 -1.255084e-002 -2.626282e-003 -2.583563e-002 1.541806e-001 4.338950e-002 1.060865e-001 8.932979e-002 1.160554e-001 4.128800e-002 -1.179269e-001 -7.671835e-002 -7.639578e-003 -7.505537e-002
<VARIANCE> 25
 6.416275e+000 9.089714e+000 8.360885e+000 1.296638e+001 9.494722e+000 1.562260e+001 1.717236e+001 1.870231e+001 1.668980e+001 1.685775e+001 1.186643e+001 1.082695e+001 1.180480e-001 2.755194e-001 3.715156e-001 6.777688e-001 9.781792e-001 1.312541e+000 1.411118e+000 1.823630e+000 1.581179e+000 1.804980e+000 1.162827e+000 9.889472e-001 7.094061e-002
<GCONST> 7.089838e+001
<STATE> 3
<MEAN> 25
 -5.111349e-001 1.691370e+000 2.019453e-001 4.489854e+000 2.838679e-001 1.963096e+000 1.325774e+000 1.827314e+000 1.249779e+000 -1.261001e+000 6.794523e-001 4.143070e-001 5.480229e-002 -2.899445e-001 -2.213886e-001 -1.229270e-001 3.103235e-001 1.386944e-001 7.858916e-002 6.847896e-002 -1.389858e-001 -2.276919e-001 -4.467145e-002 2.053886e-001 2.083109e-001
<VARIANCE> 25
 2.371856e+001 3.872738e+001 1.982314e+001 3.605937e+001 1.505933e+001 1.551189e+001 1.902599e+001 3.014655e+001 2.438242e+001 1.903813e+001 1.347427e+001 1.628339e+001 2.185528e-001 1.318608e+000 1.137078e+000 9.390103e-001 1.646856e+000 1.235080e+000 1.498222e+000 2.367337e+000 1.263976e+000 1.215072e+000 1.531127e+000 1.218096e+000 3.427492e-001
<GCONST> 8.345750e+001
<STATE> 4
<MEAN> 25
 9.527190e-001 -2.681275e+000 -1.714951e+000 -9.205941e-001 9.317248e-001 7.503105e-001 -1.511434e-002 -1.378468e+000 -1.542984e-001 -1.710879e+000 -1.387226e+000 -2.460092e-002 7.900289e-004 -1.328925e-003 -5.915655e-003 -3.082384e-002 -2.718849e-002 -2.720800e-003 8.150657e-003 9.898216e-004 6.641170e-004 6.495667e-003 -1.570412e-003 -5.633438e-003 2.011279e-002
<VARIANCE> 25
 3.778117e+001 3.358958e+001 3.259570e+001 4.791713e+001 4.027950e+001 1.930033e+001 3.337288e+001 4.197097e+001 3.854624e+001 4.004741e+001 2.915967e+001 1.678339e+001 8.333627e-001 1.086620e+000 1.392543e+000 1.815375e+000 1.773805e+000 1.692341e+000 1.953864e+000 2.201297e+000 1.836479e+000 1.776960e+000 1.855735e+000 1.386043e+000 6.016016e-001
<GCONST> 9.288802e+001
<TRANSP> 5
 0.000000e+000 1.000000e+000 0.000000e+000 0.000000e+000 0.000000e+000
 0.000000e+000 9.429049e-001 5.709515e-002 0.000000e+000 0.000000e+000
 0.000000e+000 0.000000e+000 7.023022e-001 2.976979e-001 0.000000e+000
 0.000000e+000 0.000000e+000 0.000000e+000 9.906166e-001 9.383453e-003
 0.000000e+000 0.000000e+000 0.000000e+000 0.000000e+000 0.000000e+000
<ENDHMM>
~h "j"
<BEGINHMM>
<NUMSTATES> 5
<STATE> 2
<MEAN> 25
 6.066407e+000 -7.342901e+000 -3.039623e+000 3.618038e+000 -5.919746e+000 3.765569e+000 -5.033128e+000 -3.452723e+000 -3.662551e+000 4.599124e-001 -3.374295e+000 -2.103472e+000 -2.028197e-001 5.683326e-001 -2.661280e-001 4.152283e-001 -6.361176e-001 -3.624037e-001 4.421199e-002 -4.657185e-001 -1.370330e-001 4.098814e-001 -3.493373e-001 -5.516583e-002 -4.130994e-001
<VARIANCE> 25
 5.372024e+001 1.209797e+002 3.815586e+001 4.525609e+001 3.055240e+001 2.011432e+001 4.595175e+001 2.658808e+001 2.611807e+001 2.674557e+001 1.248470e+002 2.260033e+001 2.030677e+000 1.112886e+000 7.461957e-001 2.508450e+000 2.604312e+000 2.275445e+000 2.569254e+000 2.093068e+000 2.026022e+000 1.647534e+000 3.690946e+000 1.833972e+000 9.254014e-001
<GCONST> 9.814735e+001
<STATE> 3
<MEAN> 25
 2.521748e+000 -7.131090e-001 -3.174754e+000 5.761392e+000 -6.594031e+000 2.591988e+000 -3.896754e+000 -4.505797e+000 -3.436014e+000 2.327067e+000 -3.556610e+000 -1.669617e+000 -2.447425e-001 3.579844e-002 -2.128557e-001 -2.406209e-001 -3.232277e-001 -6.240923e-001 1.280876e-001 -2.506382e-003 2.452772e-002 3.515355e-001 2.031888e-001 1.269446e-001 -5.617697e-001
<VARIANCE> 25
 6.831170e+001 9.767507e+001 7.170464e+001 4.929331e+001 2.514859e+001 4.648176e+001 7.509340e+001 2.370049e+001 2.286756e+001 4.660623e+001 5.300073e+001 4.162396e+001 3.299099e+000 2.999998e+000 2.309947e+000 4.478625e+000 2.908846e+000 4.542323e+000 3.720914e+000 2.767046e+000 1.649361e+000 2.355253e+000 3.487024e+000 2.826430e+000 1.842632e+000
<GCONST> 1.059396e+002
<STATE> 4
<MEAN> 25
 5.515317e-001 1.946651e+000 1.173005e+000 2.278555e-001 -4.602289e+000 -4.854552e+000 -4.867504e+000 -5.167363e-001 -2.557727e+000 3.432118e+000 4.267300e-001 -8.074883e+000 -1.675587e-001 -2.769787e-002 2.726001e-001 -3.434891e-001 6.384328e-002 -3.468312e-001 9.341617e-002 -6.719978e-002 -3.747501e-002 -1.454315e-001 -3.621341e-002 9.917060e-002 2.100229e-001
<VARIANCE> 25
 5.930248e+001 1.132621e+002 4.980503e+001 9.804923e+001 4.804093e+001 1.028250e+002 7.746460e+001 6.911592e+001 6.241380e+001 7.097362e+001 8.442450e+001 9.823975e+001 2.385571e+000 6.044892e+000 2.724974e+000 7.275632e+000 5.370767e+000 7.934988e+000 4.994546e+000 8.427289e+000 3.925688e+000 4.569144e+000 4.462853e+000 3.681266e+000 7.114480e+000
<GCONST> 1.185587e+002
<TRANSP> 5
 0.000000e+000 1.000000e+000 0.000000e+000 0.000000e+000 0.000000e+000
 0.000000e+000 8.242064e-001 1.757936e-001 0.000000e+000 0.000000e+000
 0.000000e+000 0.000000e+000 7.359694e-001 2.640305e-001 0.000000e+000
 0.000000e+000 0.000000e+000 0.000000e+000 9.504222e-001 4.957782e-002
 0.000000e+000 0.000000e+000 0.000000e+000 0.000000e+000 0.000000e+000
<ENDHMM>
~h "k"
<BEGINHMM>
<NUMSTATES> 5
<STATE> 2
<MEAN> 25
 3.585111e+000 -1.783878e+000 -3.483014e+000 2.591595e-001 2.825979e+000 9.690146e-001 -7.855491e-001 -2.890926e+000 -9.188015e-001 -1.811560e+000 -2.796449e+000 -1.566300e+000 -4.172159e-003 -2.583645e-001 -6.011363e-002 1.665587e-001 -2.706945e-002 -1.429242e-001 4.237027e-001 1.903089e-002 6.497759e-002 -2.144127e-001 4.720006e-004 9.184601e-003 2.588636e-001
<VARIANCE> 25
 2.551404e+001 7.103307e+001 4.156324e+001 6.937899e+001 5.308195e+001 3.771967e+001 6.780756e+001 4.520927e+001 5.791014e+001 4.853490e+001 3.998009e+001 3.249548e+001 2.509784e+000 3.798624e+000 2.482186e+000 4.734090e+000 3.644368e+000 4.427276e+000 5.019588e+000 3.394624e+000 5.060316e+000 4.496370e+000 3.273346e+000 3.009253e+000 4.106079e+000
<GCONST> 1.093167e+002
<STATE> 3
<MEAN> 25
 2.645452e+000 -2.361865e+000 -3.421953e+000 1.534457e-001 1.562735e+000 2.811292e-001 2.206040e+000 -1.641934e+000 -9.757680e-001 -1.111553e+000 -2.419345e+000 -5.681255e-002 7.133955e-002 -4.192693e-001 6.144812e-002 -2.304468e-001 -1.982842e-001 -2.377038e-001 5.285637e-001 -3.097671e-002 3.148296e-002 -1.214630e-001 8.353449e-002 1.114890e-001 5.852281e-001
<VARIANCE> 25
 2.081138e+001 7.403326e+001 4.421113e+001 6.431664e+001 5.712659e+001 4.251019e+001 8.183427e+001 4.196765e+001 5.079780e+001 4.545933e+001 4.108854e+001 3.121251e+001 2.178738e+000 4.160315e+000 2.236893e+000 4.787467e+000 3.398233e+000 4.247903e+000 4.709630e+000 3.568427e+000 4.087461e+000 4.796725e+000 3.971071e+000 3.120125e+000 4.433527e+000
<GCONST> 1.091264e+002
<STATE> 4
<MEAN> 25
 3.408951e+000 -5.388622e+000 -4.716029e+000 8.901595e-001 6.835966e-001 9.789231e-001 4.596037e+000 -1.123215e+000 -1.292301e+000 -3.861337e-001 -1.419077e+000 3.063639e-001 2.580810e-002 -2.318752e-002 6.625939e-002 4.993875e-002 -4.477185e-004 -4.132203e-002 -7.918673e-002 -4.525496e-002 -9.876876e-002 -8.800877e-002 3.507080e-002 2.752038e-002 1.029248e-002
<VARIANCE> 25
 2.366362e+001 1.015888e+002 6.833930e+001 5.171136e+001 5.868320e+001 3.104524e+001 8.533825e+001 4.261127e+001 3.484247e+001 4.206278e+001 3.447416e+001 2.162639e+001 9.866301e-001 3.701215e+000 2.230318e+000 2.746443e+000 3.921920e+000 2.236370e+000 3.508573e+000 3.511072e+000 2.547761e+000 3.694752e+000 2.901235e+000 2.301693e+000 2.033800e+000
<GCONST> 1.041535e+002
<TRANSP> 5
 0.000000e+000 1.000000e+000 0.000000e+000 0.000000e+000 0.000000e+000
 0.000000e+000 7.516825e-001 2.483175e-001 0.000000e+000 0.000000e+000
 0.000000e+000 0.000000e+000 7.136820e-001 2.863180e-001 0.000000e+000
 0.000000e+000 0.000000e+000 0.000000e+000 8.459533e-001 1.540467e-001
 0.000000e+000 0.000000e+000 0.000000e+000 0.000000e+000 0.000000e+000
<ENDHMM>
~h "l"
<BEGINHMM>
<NUMSTATES> 5
<STATE> 2
<MEAN> 25
 2.901880e+000 6.239729e-001 -1.399692e+000 -1.383979e+000 -9.053759e-001 -7.443568e-001 3.455307e-001 -1.390601e+000 1.343631e+000 -1.000233e+000 -4.477567e-001 5.128035e-001 -2.801469e-002 1.095642e-001 9.881241e-002 1.920078e-001 1.023636e-001 3.004825e-001 2.370822e-001 1.810117e-001 -7.201140e-002 -1.826827e-001 -1.301029e-001 1.661543e-001 -1.194842e-001
<VARIANCE> 25
 2.685579e+001 8.312675e+001 4.914356e+001 6.915333e+001 6.194767e+001 6.403230e+001 5.428337e+001 8.356386e+001 5.772313e+001 5.020261e+001 3.697147e+001 3.206525e+001 9.103907e-001 2.557258e+000 2.218055e+000 3.672958e+000 3.750936e+000 3.732437e+000 3.378704e+000 4.205009e+000 2.665578e+000 2.966900e+000 2.519133e+000 2.731415e+000 1.302452e+000
<GCONST> 1.060404e+002
<STATE> 3
<MEAN> 25
 2.290508e+000 1.154182e+000 -6.857319e-001 -1.164546e+000 -3.293653e-001 -2.092752e-001 7.702856e-001 -2.203399e-001 8.935630e-001 -1.689454e+000 -4.595272e-001 6.786391e-001 -2.143445e-001 1.715575e-001 2.798822e-001 4.536473e-002 1.475544e-001 1.109836e-001 5.908440e-002 2.936790e-001 -1.024072e-001 -2.156183e-001 -8.804968e-003 2.990709e-002 -1.171473e-001
<VARIANCE> 25
 2.277347e+001 8.923950e+001 4.402660e+001 7.392200e+001 5.404816e+001 6.170796e+001 5.005800e+001 7.099716e+001 4.743908e+001 4.082963e+001 3.394729e+001 2.923894e+001 8.502998e-001 1.903157e+000 2.030835e+000 3.420854e+000 3.757809e+000 3.601952e+000 3.162737e+000 4.036212e+000 2.525397e+000 2.574722e+000 2.279912e+000 2.453865e+000 1.235328e+000
<GCONST> 1.037859e+002
<STATE> 4
<MEAN> 25
 4.797570e-001 3.132623e+000 5.281679e-001 -1.301763e+000 5.341294e-002 1.005371e+000 1.245658e+000 7.350968e-001 2.024237e+000 -1.813177e+000 -2.571117e-001 1.337651e+000 -1.909780e-001 6.954376e-002 2.165053e-001 9.819460e-002 1.328798e-001 1.509010e-001 -8.935936e-002 8.477817e-002 -5.657251e-002 -4.548895e-002 1.548336e-002 -3.073550e-002 -8.732687e-002
<VARIANCE> 25
 2.156382e+001 9.343025e+001 3.814868e+001 7.332826e+001 4.571371e+001 5.648842e+001 4.797474e+001 5.972470e+001 4.937881e+001 3.229902e+001 3.859706e+001 3.574866e+001 5.812166e-001 1.405512e+000 1.771482e+000 2.200436e+000 2.908272e+000 4.032221e+000 3.294116e+000 3.774752e+000 2.426071e+000 2.056728e+000 2.223137e+000 2.400285e+000 6.846032e-001
<GCONST> 1.009563e+002
<TRANSP> 5
 0.000000e+000 1.000000e+000 0.000000e+000 0.000000e+000 0.000000e+000
 0.000000e+000 6.072223e-001 3.927777e-001 0.000000e+000 0.000000e+000
 0.000000e+000 0.000000e+000 5.883123e-001 4.116877e-001 0.000000e+000
 0.000000e+000 0.000000e+000 0.000000e+000 7.638505e-001 2.361495e-001
 0.000000e+000 0.000000e+000 0.000000e+000 0.000000e+000 0.000000e+000
<ENDHMM>
~h "m"
<BEGINHMM>
<NUMSTATES> 5
<STATE> 2
<MEAN> 25
 2.509109e+000 2.447005e+000 -8.761989e-002 1.617070e-001 5.159406e-001 7.772614e-001 -3.972458e-001 -3.160209e-001 -5.320480e-001 -2.011651e+000 -1.427346e+000 -8.430877e-001 6.061119e-002 4.459567e-001 1.254420e-001 2.751445e-001 -4.373179e-002 6.496942e-002 -7.312549e-002 4.753322e-003 2.401596e-002 -1.086402e-001 -1.567069e-001 -2.235078e-002 -2.902673e-001
<VARIANCE> 25
 2.612171e+001 7.510360e+001 4.026958e+001 7.184161e+001 4.684406e+001 3.564139e+001 3.916557e+001 3.257996e+001 3.581254e+001 3.598269e+001 3.154428e+001 2.743805e+001 7.688221e-001 1.556876e+000 1.590588e+000 3.259037e+000 2.130709e+000 1.819345e+000 2.317258e+000 2.062404e+000 2.143089e+000 2.393673e+000 2.136390e+000 1.713974e+000 8.302363e-001
<GCONST> 9.748658e+001
<STATE> 3
<MEAN> 25
 2.112020e+000 3.312473e+000 5.691219e-001 1.010694e+000 6.602964e-001 7.572389e-001 -4.395285e-001 1.073487e-001 -1.609655e-001 -1.980748e+000 -1.330151e+000 -8.097946e-001 -5.751595e-002 1.915974e-001 8.360726e-002 1.012688e-001 2.529852e-004 9.689034e-003 -4.629785e-002 6.999587e-002 5.912080e-002 -9.576351e-003 2.861285e-003 3.048936e-002 -1.725560e-001
<VARIANCE> 25
 2.479766e+001 6.519728e+001 3.160617e+001 6.341917e+001 4.203669e+001 2.962729e+001 3.641693e+001 3.229656e+001 3.318245e+001 3.263710e+001 3.037584e+001 2.563637e+001 4.254374e-001 1.163914e+000 1.126079e+000 2.400497e+000 1.716802e+000 1.534907e+000 1.879277e+000 1.822393e+000 1.852876e+000 2.016521e+000 1.807765e+000 1.505132e+000 5.537814e-001
<GCONST> 9.300021e+001
<STATE> 4
<MEAN> 25
 1.327157e+000 4.303658e+000 1.139560e+000 9.963319e-001 1.235839e+000 8.515221e-001 -8.565357e-001 7.186976e-001 2.583547e-001 -2.245119e+000 -6.305101e-001 -4.415227e-001 -6.362779e-002 4.506906e-002 6.173025e-002 2.934395e-002 2.118129e-003 -1.333056e-002 -5.209891e-002 2.664633e-002 -2.867293e-003 5.076533e-002 7.387873e-002 3.233802e-002 -6.248934e-002
<VARIANCE> 25
 2.146201e+001 6.324432e+001 2.675077e+001 5.472868e+001 3.811108e+001 2.519460e+001 3.702404e+001 3.338218e+001 2.664314e+001 3.015345e+001 2.837375e+001 2.659728e+001 2.592860e-001 9.037415e-001 9.967912e-001 1.703235e+000 1.447397e+000 1.537490e+000 1.780674e+000 1.845281e+000 1.629919e+000 1.801343e+000 1.736775e+000 1.428234e+000 3.795603e-001
<GCONST> 8.983561e+001
<TRANSP> 5
 0.000000e+000 1.000000e+000 0.000000e+000 0.000000e+000 0.000000e+000
 0.000000e+000 6.556464e-001 3.443536e-001 0.000000e+000 0.000000e+000
 0.000000e+000 0.000000e+000 7.100676e-001 2.899323e-001 0.000000e+000
 0.000000e+000 0.000000e+000 0.000000e+000 9.129405e-001 8.705954e-002
 0.000000e+000 0.000000e+000 0.000000e+000 0.000000e+000 0.000000e+000
<ENDHMM>
~h "n"
<BEGINHMM>
<NUMSTATES> 5
<STATE> 2
<MEAN> 25
 2.629498e+000 1.073745e+000 3.573032e-001 1.180210e+000 1.737382e+000 -1.244963e-001 -6.711983e-002 -1.002231e+000 -1.922441e+000 -2.162194e+000 -4.220863e-001 2.411088e-001 -9.300679e-002 3.831501e-001 1.815398e-002 2.770279e-001 -2.406003e-002 2.919898e-001 1.796960e-002 1.031873e-001 6.241013e-002 1.347963e-001 1.293725e-002 5.578000e-002 -4.599572e-001
<VARIANCE> 25
 2.969280e+001 8.290955e+001 3.679767e+001 6.427465e+001 3.856809e+001 3.964851e+001 4.967868e+001 3.270547e+001 4.215362e+001 3.799500e+001 3.719129e+001 2.661358e+001 8.402835e-001 1.978814e+000 1.485660e+000 3.269740e+000 2.040107e+000 2.516866e+000 2.668909e+000 2.611434e+000 2.482032e+000 2.443468e+000 2.794310e+000 1.639369e+000 1.180832e+000
<GCONST> 9.968330e+001
<STATE> 3
<MEAN> 25
 2.150879e+000 2.075055e+000 5.808747e-001 1.554063e+000 1.697661e+000 7.235634e-001 -4.679450e-002 -6.774092e-001 -1.427557e+000 -1.722747e+000 -3.178151e-001 3.633850e-001 -1.816279e-001 2.681687e-001 9.445633e-002 1.252336e-001 -3.208486e-002 1.968990e-001 5.714502e-003 1.295083e-001 1.560008e-001 1.274441e-001 9.176217e-002 9.278290e-004 -3.258483e-001
<VARIANCE> 25
 2.874841e+001 7.528163e+001 3.282954e+001 6.667360e+001 3.560629e+001 3.497557e+001 4.751886e+001 3.261860e+001 4.082760e+001 3.767664e+001 3.441832e+001 2.569806e+001 7.479265e-001 1.810945e+000 1.423991e+000 3.356171e+000 1.928995e+000 2.200537e+000 2.384892e+000 2.364312e+000 2.252779e+000 2.431405e+000 2.520969e+000 1.644245e+000 1.042590e+000
<GCONST> 9.812173e+001
<STATE> 4
<MEAN> 25
 -1.289163e+000 5.172380e+000 1.264870e+000 1.491429e+000 1.941560e+000 1.884046e+000 1.030650e+000 1.203740e+000 1.470061e+000 1.680477e-001 1.231230e+000 5.165809e-001 -1.201298e-001 5.907709e-002 1.197172e-001 3.387038e-002 -6.252252e-002 -7.285465e-003 -8.414529e-003 8.081880e-002 1.057601e-001 5.842990e-002 4.072221e-002 -4.762393e-002 -7.955467e-002
<VARIANCE> 25
 2.444335e+001 6.789542e+001 2.253072e+001 4.969636e+001 2.366288e+001 2.541520e+001 3.774584e+001 2.573060e+001 3.329774e+001 3.438758e+001 2.515877e+001 2.384029e+001 3.566688e-001 1.072380e+000 1.089465e+000 1.830641e+000 1.566758e+000 1.689989e+000 1.794360e+000 1.714278e+000 1.799726e+000 1.969653e+000 1.836046e+000 1.450681e+000 4.753310e-001
<GCONST> 9.042770e+001
<TRANSP> 5
 0.000000e+000 1.000000e+000 0.000000e+000 0.000000e+000 0.000000e+000
 0.000000e+000 6.113673e-001 3.886327e-001 0.000000e+000 0.000000e+000
 0.000000e+000 0.000000e+000 6.146856e-001 3.853144e-001 0.000000e+000
 0.000000e+000 0.000000e+000 0.000000e+000 8.556932e-001 1.443068e-001
 0.000000e+000 0.000000e+000 0.000000e+000 0.000000e+000 0.000000e+000
<ENDHMM>
~h "p"
<BEGINHMM>
<NUMSTATES> 5
<STATE> 2
<MEAN> 25
 -1.541558e+000 -7.501029e-003 -1.397363e+000 -9.673979e-001 -4.129098e-001 1.769537e+000 9.641373e-001 -1.528279e-001 1.407156e+000 1.365865e+000 2.108550e+000 9.007003e-001 2.407860e-001 -5.543028e-001 2.642805e-002 -6.434591e-001 7.592812e-002 -2.895423e-001 2.982921e-001 -2.875437e-001 -6.948680e-002 -4.575368e-002 -3.889113e-002 -2.937075e-001 1.136140e+000
<VARIANCE> 25
 6.107826e+001 7.722385e+001 5.826512e+001 7.855955e+001 3.483406e+001 4.519857e+001 4.904419e+001 5.594747e+001 3.675997e+001 3.249784e+001 2.739330e+001 2.097578e+001 4.914138e+000 3.806522e+000 2.748020e+000 5.094827e+000 2.762892e+000 3.678631e+000 3.577637e+000 3.492756e+000 3.619748e+000 3.213875e+000 2.557217e+000 2.033649e+000 8.520509e+000
<GCONST> 1.082100e+002
<STATE> 3
<MEAN> 25
 -7.796627e-001 -1.737718e+000 -1.324740e+000 -2.802520e+000 8.924584e-001 8.417469e-001 2.548455e+000 -1.655697e+000 5.662273e-001 2.402615e-001 1.240696e+000 -1.139633e-003 3.495310e-001 -2.266675e-001 -1.344661e-001 -2.816800e-001 -1.821420e-002 -1.941873e-001 7.722239e-002 4.609551e-003 -1.295617e-001 -2.469563e-001 -1.508073e-001 -2.068292e-001 4.734141e-001
<VARIANCE> 25
 5.254831e+001 8.828458e+001 5.536118e+001 8.741791e+001 3.345665e+001 4.658129e+001 3.754481e+001 4.925120e+001 3.479454e+001 3.232452e+001 2.504281e+001 2.419840e+001 3.229243e+000 2.683168e+000 2.358718e+000 4.439980e+000 2.851689e+000 3.139791e+000 2.869838e+000 3.411313e+000 2.798182e+000 3.101301e+000 2.136697e+000 2.024874e+000 3.291022e+000
<GCONST> 1.049781e+002
<STATE> 4
<MEAN> 25
 -2.377674e+000 1.209128e+000 1.717259e-002 1.184200e+000 1.309267e+000 1.622577e+000 3.300105e+000 2.060877e+000 2.509848e+000 1.706354e+000 1.982409e+000 -2.058014e-001 1.135948e-001 -1.242448e-002 6.047523e-003 -3.746875e-002 -3.739933e-002 -3.175220e-002 -3.340111e-002 6.645121e-002 -5.603259e-002 -6.254847e-002 -6.994138e-002 4.058831e-003 9.387156e-002
<VARIANCE> 25
 2.883155e+001 4.035284e+001 2.120698e+001 3.763093e+001 2.047378e+001 2.725962e+001 2.529809e+001 2.683890e+001 2.670566e+001 2.849306e+001 2.517014e+001 1.740193e+001 1.490806e+000 1.106003e+000 1.094352e+000 1.670337e+000 1.644119e+000 1.802133e+000 1.787010e+000 1.925504e+000 1.760363e+000 2.121912e+000 2.005408e+000 1.624998e+000 9.268316e-001
<GCONST> 9.109850e+001
<TRANSP> 5
 0.000000e+000 1.000000e+000 0.000000e+000 0.000000e+000 0.000000e+000
 0.000000e+000 7.258933e-001 2.741068e-001 0.000000e+000 0.000000e+000
 0.000000e+000 0.000000e+000 6.170396e-001 3.829604e-001 0.000000e+000
 0.000000e+000 0.000000e+000 0.000000e+000 8.945294e-001 1.054706e-001
 0.000000e+000 0.000000e+000 0.000000e+000 0.000000e+000 0.000000e+000
<ENDHMM>
~h "r"
<BEGINHMM>
<NUMSTATES> 5
<STATE> 2
<MEAN> 25
 5.830968e+000 -9.409134e+000 -2.737851e+000 -3.720521e+000 -5.005926e+000 -2.009975e+000 6.095236e+000 5.690451e-001 -1.577587e+000 1.008732e+000 -2.028622e+000 -2.049104e+000 -1.234353e-001 -4.512560e-001 1.032855e-001 2.905331e-001 -1.369551e-001 1.341684e-001 3.611162e-001 -8.141281e-002 -2.201338e-001 2.388749e-001 -5.039450e-002 5.460433e-002 2.279987e-002
<VARIANCE> 25
 2.122282e+001 7.045346e+001 6.055912e+001 8.953285e+001 8.604694e+001 3.919515e+001 9.762317e+001 6.225436e+001 5.178563e+001 6.182993e+001 4.879042e+001 3.570385e+001 1.130671e+000 3.477342e+000 2.295843e+000 4.645143e+000 4.927370e+000 2.410692e+000 6.288771e+000 4.615800e+000 3.932822e+000 4.244840e+000 3.598487e+000 2.941558e+000 1.406723e+000
<GCONST> 1.093200e+002
<STATE> 3
<MEAN> 25
 4.991047e+000 -9.792226e+000 -1.337899e+000 -4.025157e+000 -4.647813e+000 -1.913766e+000 7.393001e+000 -9.689298e-001 -2.559631e+000 1.906223e+000 -2.501521e+000 -1.574877e+000 -1.939246e-001 7.230006e-002 7.255381e-002 1.167492e-001 3.745278e-001 6.752772e-002 1.146056e-001 -3.729422e-001 -9.970937e-002 2.046469e-002 1.240381e-001 2.978699e-002 -4.389826e-002
<VARIANCE> 25
 2.013731e+001 7.340481e+001 7.249704e+001 8.834122e+001 8.827143e+001 3.577927e+001 9.727819e+001 5.816722e+001 5.447543e+001 5.360783e+001 5.259966e+001 3.324043e+001 1.197827e+000 3.049145e+000 2.146377e+000 4.266612e+000 3.992288e+000 2.239301e+000 5.835186e+000 4.032438e+000 4.048249e+000 3.798098e+000 3.847226e+000 2.640843e+000 1.345503e+000
<GCONST> 1.083616e+002
<STATE> 4
<MEAN> 25
 4.556397e+000 -1.125462e+001 -3.964672e+000 5.108690e-001 -4.372329e-001 -1.476541e+000 4.942499e+000 -1.512796e+000 -3.103207e+000 3.340171e+000 1.161887e-001 -3.308167e+000 -1.881045e-001 5.660044e-001 1.502417e-001 2.135162e-001 3.263714e-001 4.720974e-002 -1.735108e-001 -1.200558e-001 4.965903e-003 -1.770747e-001 7.118960e-002 -2.942393e-002 -3.679824e-001
<VARIANCE> 25
 1.979229e+001 1.078714e+002 8.727688e+001 1.062685e+002 1.243868e+002 4.546596e+001 1.346269e+002 5.275384e+001 5.212131e+001 4.715355e+001 6.319848e+001 3.537511e+001 6.747577e-001 2.103015e+000 2.023919e+000 3.614667e+000 3.531909e+000 2.720925e+000 4.280921e+000 3.464022e+000 2.542692e+000 3.140519e+000 3.507879e+000 2.173382e+000 7.601624e-001
<GCONST> 1.069101e+002
<TRANSP> 5
 0.000000e+000 1.000000e+000 0.000000e+000 0.000000e+000 0.000000e+000
 0.000000e+000 7.584681e-001 2.415319e-001 0.000000e+000 0.000000e+000
 0.000000e+000 0.000000e+000 7.577102e-001 2.422898e-001 0.000000e+000
 0.000000e+000 0.000000e+000 0.000000e+000 8.584427e-001 1.415574e-001
 0.000000e+000 0.000000e+000 0.000000e+000 0.000000e+000 0.000000e+000
<ENDHMM>
~h "s"
<BEGINHMM>
<NUMSTATES> 5
<STATE> 2
<MEAN> 25
 -6.110705e+000 2.421705e+000 -1.469207e-001 7.026132e-001 -1.483686e+000 1.220687e+000 3.347162e+000 -2.530687e-001 -1.216380e+000 7.859142e-001 2.780828e+000 -5.656916e-002 -7.508005e-001 -2.851107e-002 3.458130e-001 -4.376962e-001 -5.370490e-002 -9.564157e-002 1.000778e-001 -1.723952e-001 -6.061040e-002 4.404804e-002 1.135953e-001 4.358400e-003 6.925709e-001
<VARIANCE> 25
 5.113292e+001 7.846989e+001 7.620041e+001 9.895150e+001 3.146568e+001 5.324269e+001 4.228007e+001 4.777302e+001 5.620883e+001 4.076579e+001 2.980040e+001 2.401894e+001 3.937363e+000 3.716242e+000 3.524431e+000 3.527163e+000 1.994331e+000 3.325752e+000 3.096147e+000 3.416307e+000 3.189063e+000 2.927570e+000 2.800014e+000 2.122122e+000 3.190686e+000
<GCONST> 1.071472e+002
<STATE> 3
<MEAN> 25
 -8.051685e+000 1.283937e+000 1.564914e+000 -2.099967e+000 -1.201884e+000 5.787625e-001 3.620998e+000 -1.141466e+000 -1.734593e+000 7.999265e-001 3.021502e+000 8.496114e-002 2.404780e-001 -2.776347e-001 2.578602e-001 -5.679186e-001 2.549899e-002 -2.704892e-001 -2.838992e-001 -1.683356e-001 -1.333297e-001 -1.385887e-001 -2.939709e-001 8.607399e-002 3.775543e-001
<VARIANCE> 25
 6.041936e+001 1.063753e+002 1.077638e+002 1.358937e+002 3.699851e+001 5.729021e+001 5.182051e+001 5.882183e+001 5.724577e+001 3.932157e+001 3.193352e+001 2.703996e+001 4.473825e+000 2.814475e+000 2.849120e+000 3.955905e+000 2.414462e+000 2.894900e+000 3.561500e+000 3.325833e+000 2.792094e+000 3.248286e+000 3.062044e+000 2.354786e+000 1.327089e+000
<GCONST> 1.083034e+002
<STATE> 4
<MEAN> 25
 -5.196623e+000 -4.260709e-001 2.038637e+000 -3.986920e+000 -8.337352e-001 -1.442167e-001 2.127303e+000 -9.922974e-001 -2.243795e+000 8.937188e-001 1.723507e+000 7.517022e-001 8.926191e-001 -1.476397e-001 6.699032e-002 -3.193819e-001 -1.070043e-001 -2.453915e-001 -4.895773e-001 -1.243238e-001 -6.173979e-002 -1.534415e-001 -5.030729e-001 -1.520611e-001 1.344078e-001
<VARIANCE> 25
 7.003005e+001 1.381014e+002 9.677846e+001 1.023163e+002 6.045979e+001 4.461588e+001 5.446951e+001 4.819918e+001 4.267456e+001 4.681835e+001 3.461737e+001 3.229994e+001 3.572084e+000 2.114633e+000 2.836636e+000 4.283106e+000 3.232307e+000 2.606760e+000 3.558978e+000 3.177028e+000 2.688680e+000 3.247188e+000 3.126897e+000 2.847790e+000 8.814529e-001
<GCONST> 1.080200e+002
<TRANSP> 5
 0.000000e+000 1.000000e+000 0.000000e+000 0.000000e+000 0.000000e+000
 0.000000e+000 7.214122e-001 2.785878e-001 0.000000e+000 0.000000e+000
 0.000000e+000 0.000000e+000 7.034835e-001 2.965165e-001 0.000000e+000
 0.000000e+000 0.000000e+000 0.000000e+000 7.727062e-001 2.272939e-001
 0.000000e+000 0.000000e+000 0.000000e+000 0.000000e+000 0.000000e+000
<ENDHMM>
~h "t"
<BEGINHMM>
<NUMSTATES> 5
<STATE> 2
<MEAN> 25
 2.629204e+000 -5.947776e-001 -1.487554e+000 1.439955e+000 -1.173764e-002 -7.734783e-001 6.252277e-002 1.221469e+000 -2.036841e+000 -1.833555e+000 -2.102943e+000 -1.827318e-001 -1.564529e-001 -7.041606e-001 -1.507732e-001 -3.886717e-001 -2.933886e-002 -1.602153e-001 3.751504e-001 1.984454e-001 -1.038159e-001 5.575820e-002 1.196235e-001 5.534954e-002 5.669990e-001
<VARIANCE> 25
 3.663739e+001 1.229691e+002 4.587480e+001 6.544411e+001 5.188448e+001 5.271702e+001 6.983500e+001 4.245315e+001 4.861515e+001 4.564675e+001 3.945560e+001 4.124398e+001 2.873792e+000 7.711909e+000 3.298715e+000 6.801902e+000 4.860945e+000 5.041311e+000 5.975591e+000 4.816862e+000 4.266882e+000 4.784839e+000 3.419132e+000 2.705339e+000 9.176712e+000
<GCONST> 1.136005e+002
<STATE> 3
<MEAN> 25
 2.570865e+000 -2.331960e+000 -2.085492e+000 -3.129206e-001 -7.309744e-001 -1.104658e+000 1.677422e+000 1.462988e+000 -2.089703e+000 -2.029811e+000 -1.467154e+000 2.560158e-001 -4.022141e-002 -7.316546e-001 1.719082e-002 -4.939219e-001 3.771922e-002 8.520463e-002 3.253714e-001 -2.124068e-001 4.808154e-002 9.188526e-002 1.050589e-001 -5.249368e-003 7.807582e-001
<VARIANCE> 25
 3.270155e+001 1.051213e+002 4.969534e+001 5.372661e+001 5.878513e+001 4.606029e+001 6.841290e+001 3.674371e+001 5.703389e+001 4.745503e+001 4.375739e+001 3.903917e+001 2.149180e+000 7.965117e+000 3.966057e+000 7.531368e+000 4.636616e+000 5.047365e+000 6.485009e+000 4.990165e+000 4.700623e+000 4.638017e+000 3.632244e+000 3.084244e+000 8.154492e+000
<GCONST> 1.135228e+002
<STATE> 4
<MEAN> 25
 2.000985e+000 -7.220175e+000 -1.708622e+000 -3.825799e-001 1.142986e-001 -5.323443e-001 4.566542e+000 2.084336e-001 -3.136755e+000 -1.066113e+000 9.655524e-001 1.039321e+000 1.928201e-002 -3.594624e-001 1.195777e-001 -6.801630e-002 1.250540e-001 1.711946e-001 -2.788751e-001 -3.556249e-001 3.817734e-002 9.461695e-002 -5.855442e-003 1.690040e-001 1.492807e-001
<VARIANCE> 25
 3.124046e+001 1.433994e+002 4.393292e+001 6.963309e+001 6.994389e+001 5.273470e+001 8.834755e+001 5.009080e+001 6.769550e+001 5.759269e+001 5.236159e+001 5.332199e+001 1.317287e+000 7.019057e+000 2.702091e+000 6.706954e+000 3.733622e+000 4.360733e+000 5.147934e+000 4.517363e+000 4.327785e+000 3.682714e+000 3.155796e+000 2.984650e+000 3.929699e+000
<GCONST> 1.126291e+002
<TRANSP> 5
 0.000000e+000 1.000000e+000 0.000000e+000 0.000000e+000 0.000000e+000
 0.000000e+000 6.954563e-001 3.045437e-001 0.000000e+000 0.000000e+000
 0.000000e+000 0.000000e+000 6.369037e-001 3.630963e-001 0.000000e+000
 0.000000e+000 0.000000e+000 0.000000e+000 7.794359e-001 2.205642e-001
 0.000000e+000 0.000000e+000 0.000000e+000 0.000000e+000 0.000000e+000
<ENDHMM>
~h "w"
<BEGINHMM>
<NUMSTATES> 5
<STATE> 2
<MEAN> 25
 5.434646e+000 8.469254e+000 4.590603e+000 -5.126711e+000 1.170401e+000 -4.785304e+000 -4.851201e+000 5.307258e-001 -4.663998e+000 -7.177537e-001 -2.590788e+000 -6.823241e-001 8.189029e-002 1.799828e-001 -2.704983e-001 -3.922351e-001 1.752269e-001 -1.126568e-001 2.346942e-001 4.573507e-001 1.689167e-002 3.442143e-001 1.729350e-001 -6.011895e-002 -3.188701e-003
<VARIANCE> 25
 2.697390e+001 2.986888e+001 3.665309e+001 8.102371e+001 2.827093e+001 4.253949e+001 3.528368e+001 2.843608e+001 4.334797e+001 7.528672e+001 5.431049e+001 3.200507e+001 2.460169e-001 1.406583e+000 1.700993e+000 2.672414e+000 1.446617e+000 2.300824e+000 2.020956e+000 1.663670e+000 2.002484e+000 4.442438e+000 2.791984e+000 1.505430e+000 6.760432e-001
<GCONST> 9.628739e+001
<STATE> 3
<MEAN> 25
 5.082745e+000 5.594354e+000 9.928907e-001 -1.029447e+001 3.891047e+000 -5.228465e+000 -1.687045e+000 1.512361e+000 -3.287924e+000 2.212941e+000 5.014978e-001 -7.800310e-001 -3.149166e-001 -9.399536e-001 -1.813421e-001 -4.712834e-001 3.915170e-001 9.869519e-002 9.598703e-001 -1.036658e-001 7.989413e-001 -2.284938e-001 4.845068e-002 -4.363651e-001 8.086563e-001
<VARIANCE> 25
 2.746287e+001 7.450374e+001 4.409034e+001 7.502328e+001 3.725336e+001 5.348999e+001 5.687812e+001 2.697482e+001 6.009398e+001 1.216680e+002 5.614170e+001 3.932984e+001 4.676105e-001 2.618985e+000 1.988470e+000 4.334535e+000 1.856681e+000 2.295116e+000 2.985121e+000 2.716362e+000 4.108757e+000 7.485149e+000 7.224021e+000 3.722146e+000 1.633766e+000
<GCONST> 1.063126e+002
<STATE> 4
<MEAN> 25
 1.438946e+000 3.938472e+000 2.210237e+000 -7.250765e+000 3.403399e+000 -2.423258e+000 -1.225537e+000 3.339762e+000 -2.116212e+000 -2.477081e+000 3.729364e+000 -2.872427e+000 2.103775e-002 -5.118088e-001 -1.365300e-001 9.360463e-002 -2.216819e-002 4.644300e-002 2.004718e-001 -9.785746e-002 -6.802218e-002 -1.244732e-002 1.287547e-001 -5.557309e-002 2.621793e-001
<VARIANCE> 25
 3.065007e+001 2.166119e+002 3.224004e+001 3.209597e+001 6.531638e+001 4.445875e+001 8.062253e+001 6.324555e+001 9.562202e+001 5.865647e+001 6.061148e+001 1.199431e+002 3.005506e-001 3.678540e+000 1.352006e+000 1.121341e+000 2.170748e+000 2.167127e+000 2.892881e+000 2.988656e+000 3.824055e+000 3.720556e+000 3.321122e+000 2.615154e+000 9.382105e-001
<GCONST> 1.046989e+002
<TRANSP> 5
 0.000000e+000 1.000000e+000 0.000000e+000 0.000000e+000 0.000000e+000
 0.000000e+000 8.254223e-001 1.745778e-001 0.000000e+000 0.000000e+000
 0.000000e+000 0.000000e+000 8.183857e-001 1.816143e-001 0.000000e+000
 0.000000e+000 0.000000e+000 0.000000e+000 9.483988e-001 5.160117e-002
 0.000000e+000 0.000000e+000 0.000000e+000 0.000000e+000 0.000000e+000
<ENDHMM>
~h "y"
<BEGINHMM>
<NUMSTATES> 5
<STATE> 2
<MEAN> 25
 -3.790925e-002 -4.422540e+000 5.899106e+000 -1.102250e+001 -1.407598e+000 -3.397069e+000 2.310806e+000 -6.270854e+000 1.315746e+000 1.323608e+000 -1.230470e+000 1.692837e+000 -1.505160e-001 -5.610397e-003 3.401142e-001 -4.364330e-001 -2.420176e-001 -1.270434e-001 -5.530090e-002 -7.399131e-002 1.451646e-001 9.380724e-002 -2.527629e-002 4.523002e-002 1.467324e-001
<VARIANCE> 25
 3.317063e+001 9.662456e+001 9.540910e+001 1.014684e+002 7.502993e+001 4.427470e+001 8.809192e+001 4.236458e+001 5.027218e+001 7.159576e+001 3.274234e+001 4.146841e+001 1.497012e+000 3.437473e+000 4.874258e+000 3.792235e+000 5.688518e+000 2.101997e+000 6.168066e+000 3.378818e+000 2.726829e+000 4.524679e+000 1.958394e+000 3.005885e+000 9.704419e-001
<GCONST> 1.092612e+002
<STATE> 3
<MEAN> 25
 2.935182e-001 -3.664840e+000 5.975720e+000 -1.157959e+001 -2.421719e+000 -3.872150e+000 2.431012e+000 -6.007434e+000 1.524008e+000 6.837777e-001 -1.590769e+000 8.153514e-001 3.692973e-002 -2.433243e-001 -3.074523e-001 1.692829e-001 1.937446e-001 9.489924e-002 3.077306e-001 1.951642e-001 2.204191e-002 -2.805573e-001 -5.726114e-005 -3.212330e-001 1.495299e-001
<VARIANCE> 25
 2.630561e+001 9.074602e+001 7.859950e+001 1.181290e+002 8.126025e+001 3.725929e+001 9.288338e+001 4.270839e+001 5.313237e+001 6.054008e+001 3.350716e+001 4.179107e+001 8.534819e-001 2.627601e+000 4.237181e+000 3.365123e+000 5.162097e+000 2.096860e+000 6.035538e+000 3.349385e+000 2.787735e+000 4.308703e+000 2.213880e+000 2.690935e+000 7.039642e-001
<GCONST> 1.072555e+002
<STATE> 4
<MEAN> 25
 3.295829e+000 -7.853230e+000 3.691845e+000 -4.913963e+000 -3.517796e+000 -2.570391e+000 -1.103820e+000 -5.828162e+000 -2.047844e+000 -2.629913e-002 -2.518056e+000 -2.046783e+000 1.642261e-001 -2.498680e-001 -5.888515e-001 2.942360e-001 4.711445e-001 7.824259e-002 1.459894e-002 3.168482e-002 -4.778549e-002 -2.094083e-001 5.724997e-002 -2.718144e-002 -4.891190e-002
<VARIANCE> 25
 3.793376e+001 1.424980e+002 1.080167e+002 1.588329e+002 1.379036e+002 4.312408e+001 1.184868e+002 4.363557e+001 5.057396e+001 6.241839e+001 3.773979e+001 4.625434e+001 5.413496e-001 1.928447e+000 2.748885e+000 2.826615e+000 3.885729e+000 1.807273e+000 4.535361e+000 3.054232e+000 1.829453e+000 2.850411e+000 2.303181e+000 2.463330e+000 5.048996e-001
<GCONST> 1.064305e+002
<TRANSP> 5
 0.000000e+000 1.000000e+000 0.000000e+000 0.000000e+000 0.000000e+000
 0.000000e+000 7.445291e-001 2.554709e-001 0.000000e+000 0.000000e+000
 0.000000e+000 0.000000e+000 7.508140e-001 2.491861e-001 0.000000e+000
 0.000000e+000 0.000000e+000 0.000000e+000 8.595023e-001 1.404976e-001
 0.000000e+000 0.000000e+000 0.000000e+000 0.000000e+000 0.000000e+000
<ENDHMM>
~h "aa"
<BEGINHMM>
<NUMSTATES> 5
<STATE> 2
<MEAN> 25
 3.000825e+000 -5.381149e+000 -2.761798e+000 -3.119757e+000 1.780911e+000 -3.317636e-001 3.107770e+000 -1.653729e+000 -9.239146e-001 -2.018903e+000 -8.060328e-001 -1.162681e-001 2.812407e-001 -2.596260e-001 -2.712235e-001 6.528996e-002 1.555311e-001 1.150291e-001 -2.842807e-002 -1.703912e-001 -3.019881e-001 -1.106095e-001 -8.835352e-002 6.883685e-003 9.666725e-002
<VARIANCE> 25
 2.974419e+001 1.163261e+002 4.891105e+001 7.303452e+001 5.720056e+001 4.260996e+001 7.159802e+001 4.371365e+001 4.835926e+001 4.960198e+001 4.615707e+001 3.360246e+001 1.130655e+000 3.549075e+000 2.392670e+000 3.802467e+000 3.387908e+000 2.408403e+000 3.839619e+000 3.523900e+000 2.723410e+000 3.192535e+000 2.968646e+000 2.279685e+000 2.149600e+000
<GCONST> 1.063954e+002
<STATE> 3
<MEAN> 25
 3.692292e+000 -5.490533e+000 -3.071200e+000 -2.720755e+000 1.914321e+000 -8.481580e-002 2.597638e+000 -1.902595e+000 -1.725838e+000 -2.346737e+000 -1.015998e+000 -1.636467e-001 1.528574e-001 1.324411e-001 -2.310639e-002 2.309740e-001 -3.409574e-002 6.114370e-002 -1.985798e-001 -6.192339e-002 -1.986333e-001 -5.991124e-002 -6.297961e-002 7.946750e-003 -1.659774e-001
<VARIANCE> 25
 3.043419e+001 1.140202e+002 4.929873e+001 7.165993e+001 5.617983e+001 4.485977e+001 7.231312e+001 4.449926e+001 4.913011e+001 5.132952e+001 4.711810e+001 3.304790e+001 9.576074e-001 2.987128e+000 2.169293e+000 3.485090e+000 2.832662e+000 2.241441e+000 3.351086e+000 3.213043e+000 2.499846e+000 2.905526e+000 2.699831e+000 2.032916e+000 1.828061e+000
<GCONST> 1.049481e+002
<STATE> 4
<MEAN> 25
 3.800797e+000 -4.569668e+000 -3.273804e+000 -1.038584e+000 9.319667e-001 2.149263e-002 1.838146e+000 -2.005614e+000 -2.280055e+000 -2.309892e+000 -1.390128e+000 5.524395e-002 -1.006670e-001 5.165252e-001 2.056021e-001 2.442820e-001 -1.184299e-001 -4.256064e-003 -1.422575e-001 4.776576e-003 -2.210285e-002 1.190329e-002 -1.342393e-003 5.387317e-004 -3.868903e-001
<VARIANCE> 25
 3.124469e+001 1.389756e+002 4.663000e+001 6.979230e+001 4.976305e+001 4.625016e+001 6.799547e+001 4.496378e+001 4.510729e+001 5.776050e+001 4.415870e+001 3.631655e+001 5.680547e-001 1.673298e+000 1.466060e+000 2.396697e+000 2.137993e+000 1.973178e+000 2.501103e+000 2.613474e+000 2.030845e+000 2.424793e+000 2.369713e+000 1.804890e+000 7.474701e-001
<GCONST> 1.007021e+002
<TRANSP> 5
 0.000000e+000 1.000000e+000 0.000000e+000 0.000000e+000 0.000000e+000
 0.000000e+000 6.045921e-001 3.954079e-001 0.000000e+000 0.000000e+000
 0.000000e+000 0.000000e+000 5.999079e-001 4.000921e-001 0.000000e+000
 0.000000e+000 0.000000e+000 0.000000e+000 7.932706e-001 2.067294e-001
 0.000000e+000 0.000000e+000 0.000000e+000 0.000000e+000 0.000000e+000
<ENDHMM>
~h "ao"
<BEGINHMM>
<NUMSTATES> 5
<STATE> 2
<MEAN> 25
 5.744402e+000 -7.296883e-001 -3.832490e+000 -1.049098e+001 1.859981e+000 -1.823746e+000 -8.697734e-001 -1.973877e+000 -3.280883e+000 3.825691e+000 -4.428030e-001 -4.059393e+000 4.109656e-001 -2.679203e-001 -1.364319e-001 -1.437068e+000 -6.851439e-001 -3.284680e-001 7.944287e-001 9.037538e-002 4.065655e-002 1.557293e-001 -3.783858e-002 -3.623115e-001 5.732802e-001
<VARIANCE> 25
 1.706228e+001 3.575146e+001 6.624371e+001 8.755003e+001 8.802721e+001 5.081956e+001 7.081149e+001 6.144307e+001 6.054696e+001 8.469417e+001 3.872669e+001 3.319927e+001 1.071969e+000 1.732055e+000 2.442595e+000 7.675865e+000 5.456935e+000 3.516335e+000 5.785825e+000 2.737686e+000 5.233239e+000 5.195047e+000 3.029406e+000 2.462220e+000 1.260426e+000
<GCONST> 1.083219e+002
<STATE> 3
<MEAN> 25
 6.344692e+000 -2.803666e+000 -3.382840e+000 -1.254418e+001 -1.088666e+000 -2.906120e+000 2.522513e+000 -8.525339e-001 -2.052711e+000 3.805028e+000 -1.377468e-001 -5.108623e+000 1.391443e-001 -4.183024e-001 -1.207012e-003 3.361290e-002 -5.025162e-001 -1.283446e-001 5.650560e-001 3.076714e-001 3.513295e-001 -6.876966e-002 1.308665e-001 -6.543401e-002 2.227938e-001
<VARIANCE> 25
 1.307418e+001 3.566404e+001 5.621198e+001 6.697559e+001 9.825759e+001 4.960448e+001 7.944542e+001 7.839828e+001 7.626686e+001 7.082562e+001 3.643139e+001 3.159785e+001 5.578447e-001 1.317749e+000 1.924294e+000 4.784194e+000 3.882416e+000 2.830795e+000 4.976944e+000 2.671567e+000 4.373440e+000 3.547966e+000 2.570872e+000 2.481724e+000 8.342131e-001
<GCONST> 1.045072e+002
<STATE> 4
<MEAN> 25
 8.031289e+000 -4.978438e+000 -4.326079e+000 -8.636189e+000 -4.266265e+000 -3.546309e+000 9.113771e-001 -7.479930e-001 6.190554e-001 4.522973e+000 9.253120e-001 -3.822428e+000 -5.665050e-002 -3.441358e-001 2.478555e-002 5.691274e-001 -1.831945e-001 -1.578387e-001 1.451340e-001 2.448773e-001 1.480840e-001 -1.184539e-001 -6.052402e-002 1.722798e-001 -5.721120e-002
<VARIANCE> 25
 2.402105e+001 5.069691e+001 4.859126e+001 8.802911e+001 9.910896e+001 4.112805e+001 8.586509e+001 6.733515e+001 6.421586e+001 5.013525e+001 3.888136e+001 2.971696e+001 3.974583e-001 1.412591e+000 1.692279e+000 3.159330e+000 3.530828e+000 2.365137e+000 3.333832e+000 2.467305e+000 3.402996e+000 3.095464e+000 2.319514e+000 2.150712e+000 5.115483e-001
<GCONST> 1.021377e+002
<TRANSP> 5
 0.000000e+000 1.000000e+000 0.000000e+000 0.000000e+000 0.000000e+000
 0.000000e+000 7.328370e-001 2.671630e-001 0.000000e+000 0.000000e+000
 0.000000e+000 0.000000e+000 7.573580e-001 2.426420e-001 0.000000e+000
 0.000000e+000 0.000000e+000 0.000000e+000 8.796300e-001 1.203700e-001
 0.000000e+000 0.000000e+000 0.000000e+000 0.000000e+000 0.000000e+000
<ENDHMM>
~h "eh"
<BEGINHMM>
<NUMSTATES> 5
<STATE> 2
<MEAN> 25
 3.852547e+000 -3.070346e+000 -1.408471e+000 -4.708326e+000 -1.267307e+000 -2.412235e+000 3.968433e+000 -1.415382e+000 -3.252217e+000 -1.120522e+000 -8.170331e-001 -1.622158e+000 1.708527e-001 2.109369e-001 -2.563318e-002 -9.995704e-002 -6.413898e-002 -1.827310e-002 -1.730780e-001 -5.165594e-002 -2.297680e-001 -1.620684e-001 3.345624e-002 9.154096e-002 -5.163785e-002
<VARIANCE> 25
 2.707126e+001 6.357918e+001 3.873281e+001 5.729422e+001 6.843301e+001 4.945714e+001 7.597441e+001 4.422404e+001 5.783772e+001 4.894191e+001 5.634637e+001 3.284579e+001 1.661773e+000 2.448784e+000 1.866812e+000 3.959002e+000 2.946098e+000 2.811203e+000 4.115961e+000 3.563636e+000 3.165705e+000 3.262073e+000 3.236876e+000 1.995953e+000 2.187284e+000
<GCONST> 1.060074e+002
<STATE> 3
<MEAN> 25
 4.172619e+000 -2.341373e+000 -1.440499e+000 -4.275960e+000 -1.649132e+000 -2.051298e+000 3.281192e+000 -1.793249e+000 -3.913585e+000 -1.400005e+000 -4.588371e-001 -1.126461e+000 -5.958942e-002 4.000931e-001 4.514074e-002 2.882714e-001 6.212392e-002 1.152816e-001 -3.516839e-001 -7.386231e-002 1.815119e-003 -4.945015e-002 1.105515e-001 1.058100e-001 -3.190251e-001
<VARIANCE> 25
 3.093549e+001 6.961182e+001 3.949350e+001 5.678732e+001 6.680166e+001 5.116784e+001 7.687675e+001 4.206533e+001 5.732422e+001 4.506163e+001 5.688125e+001 3.527568e+001 1.543300e+000 2.595153e+000 1.623212e+000 3.634652e+000 2.697547e+000 2.520015e+000 3.482445e+000 3.934379e+000 3.040995e+000 3.105169e+000 2.914626e+000 2.083855e+000 1.845484e+000
<GCONST> 1.053749e+002
<STATE> 4
<MEAN> 25
 5.754944e+000 -1.267355e+000 -2.972245e+000 -2.699660e+000 -9.974589e-001 -1.840827e+000 -1.243384e+000 -3.284304e+000 -3.350962e+000 -2.773911e+000 -1.182028e+000 8.708280e-002 -2.987305e-001 3.411596e-001 4.967203e-002 2.628581e-001 1.384248e-001 1.714634e-001 -1.685058e-001 1.218564e-002 2.286242e-001 5.319555e-003 1.733574e-001 4.897659e-002 -4.057572e-001
<VARIANCE> 25
 3.899023e+001 7.800675e+001 4.242389e+001 4.722714e+001 4.683206e+001 4.432472e+001 6.771230e+001 4.333254e+001 4.292034e+001 4.273355e+001 5.658240e+001 3.671140e+001 1.102757e+000 2.563895e+000 1.659353e+000 2.444409e+000 2.156783e+000 2.295716e+000 2.476795e+000 2.965179e+000 2.360630e+000 2.533519e+000 2.324909e+000 1.930865e+000 1.105027e+000
<GCONST> 1.017683e+002
<TRANSP> 5
 0.000000e+000 1.000000e+000 0.000000e+000 0.000000e+000 0.000000e+000
 0.000000e+000 6.249503e-001 3.750497e-001 0.000000e+000 0.000000e+000
 0.000000e+000 0.000000e+000 6.180068e-001 3.819932e-001 0.000000e+000
 0.000000e+000 0.000000e+000 0.000000e+000 8.026167e-001 1.973834e-001
 0.000000e+000 0.000000e+000 0.000000e+000 0.000000e+000 0.000000e+000
<ENDHMM>
~h "hh"
<BEGINHMM>
<NUMSTATES> 5
<STATE> 2
<MEAN> 25
 6.987277e+000 -3.829115e+000 -4.821589e+000 2.838699e-001 5.675662e-001 -4.738779e+000 -4.331820e+000 3.537661e+000 -1.502470e+000 -3.366642e+000 -6.173923e-001 -5.771586e+000 3.512403e-003 -1.193826e-001 -4.927544e-002 -9.465640e-002 5.556452e-002 2.791191e-001 -9.203116e-002 1.477185e-001 1.627245e-001 4.402645e-002 -3.548170e-001 -2.101642e-001 2.346113e-002
<VARIANCE> 25
 3.016291e+001 5.745770e+001 7.311974e+001 4.824830e+001 8.942432e+001 1.203501e+002 8.338936e+001 1.200356e+002 6.947894e+001 5.596136e+001 8.667331e+001 6.494434e+001 7.185943e-001 1.678046e+000 2.999175e+000 2.967873e+000 6.699375e+000 8.171737e+000 7.609156e+000 8.472133e+000 6.743707e+000 4.450468e+000 6.376620e+000 3.454117e+000 5.856289e-001
<GCONST> 1.134705e+002
<STATE> 3
<MEAN> 25
 3.923390e+000 -5.150414e+000 -1.483565e+000 9.364148e-001 -1.913901e+000 1.986806e-001 6.572753e-001 -1.414472e-001 -1.461609e+000 1.382756e+000 -7.214196e-001 -5.088338e+000 -8.506503e-002 -2.938273e-002 -1.924520e-001 -4.808719e-002 -3.508948e-001 5.567322e-001 3.407826e-001 -2.740174e-001 3.220811e-001 2.047639e-001 -6.835976e-002 2.225220e-001 -1.543316e-001
<VARIANCE> 25
 2.663192e+001 1.224091e+002 3.662790e+001 4.687466e+001 6.373106e+001 9.644618e+001 5.896257e+001 8.765326e+001 7.178442e+001 4.439494e+001 5.761801e+001 7.884287e+001 8.185071e-001 2.383815e+000 1.726227e+000 2.303726e+000 4.361867e+000 6.041811e+000 4.159014e+000 4.254783e+000 5.529114e+000 3.512488e+000 3.086899e+000 3.914445e+000 7.908461e-001
<GCONST> 1.086641e+002
<STATE> 4
<MEAN> 25
 -6.147930e-001 1.645360e+000 -4.126661e-001 -6.967677e-001 -1.717438e+000 3.315255e+000 3.845721e+000 -2.626000e-001 3.275033e+000 2.119948e+000 -9.007689e-001 8.337248e-001 -1.764935e-001 2.911973e-001 -1.155377e-002 -8.672471e-002 -5.928038e-002 1.145940e-001 4.554342e-002 -1.264784e-001 8.741412e-002 1.676212e-001 -3.700718e-002 -4.553981e-002 -2.216617e-001
<VARIANCE> 25
 2.351641e+001 1.649208e+002 3.033760e+001 2.533877e+001 3.954581e+001 4.934308e+001 3.885997e+001 4.859968e+001 4.330928e+001 3.215334e+001 3.048381e+001 2.845206e+001 4.506069e-001 1.425743e+000 1.079327e+000 1.413368e+000 2.196776e+000 2.556340e+000 1.954143e+000 2.752667e+000 2.650373e+000 1.903016e+000 2.066392e+000 1.550155e+000 4.641518e-001
<GCONST> 9.538165e+001
<TRANSP> 5
 0.000000e+000 1.000000e+000 0.000000e+000 0.000000e+000 0.000000e+000
 0.000000e+000 8.323056e-001 1.676944e-001 0.000000e+000 0.000000e+000
 0.000000e+000 0.000000e+000 7.216005e-001 2.783995e-001 0.000000e+000
 0.000000e+000 0.000000e+000 0.000000e+000 9.036362e-001 9.636384e-002
 0.000000e+000 0.000000e+000 0.000000e+000 0.000000e+000 0.000000e+000
<ENDHMM>
~h "ih"
<BEGINHMM>
<NUMSTATES> 5
<STATE> 2
<MEAN> 25
 -6.334537e-001 3.357485e+000 6.409433e+000 -3.182876e+000 -5.804766e-001 -2.187924e+000 -3.529024e+000 -2.113615e+000 7.854836e-001 -9.231699e-001 -1.465699e+000 3.147723e-001 -6.155749e-002 6.451477e-002 4.349726e-001 -3.919052e-002 1.655379e-001 -2.573568e-001 -3.469971e-001 1.969127e-001 2.465214e-001 -2.606481e-001 -2.892340e-002 5.749303e-002 -3.658603e-002
<VARIANCE> 25
 1.711199e+001 9.708001e+001 7.271229e+001 1.372905e+002 5.147840e+001 4.569511e+001 5.679755e+001 5.659606e+001 3.892577e+001 4.227274e+001 3.089558e+001 3.227105e+001 8.250984e-001 1.340415e+000 2.555917e+000 4.449345e+000 2.518321e+000 2.475965e+000 3.297418e+000 2.861566e+000 2.558995e+000 2.961890e+000 2.302465e+000 2.026716e+000 9.603251e-001
<GCONST> 1.028520e+002
<STATE> 3
<MEAN> 25
 -8.796847e-001 3.238497e+000 6.614540e+000 -1.692999e+000 -1.295952e-001 -2.465575e+000 -3.605967e+000 -1.026262e+000 1.403945e+000 -1.280145e+000 -9.684379e-001 3.926323e-001 -2.575776e-002 5.061323e-003 7.083995e-002 2.965412e-001 6.605341e-002 -5.702717e-002 -4.262749e-002 2.413054e-001 1.216579e-001 -1.083525e-001 3.952862e-002 -2.646324e-002 -1.610052e-001
<VARIANCE> 25
 1.622519e+001 9.445628e+001 6.938506e+001 1.325083e+002 4.332511e+001 4.501371e+001 5.583590e+001 5.426936e+001 3.579241e+001 4.435735e+001 2.712590e+001 2.978326e+001 5.911496e-001 1.010436e+000 1.983189e+000 2.984306e+000 2.003730e+000 2.054378e+000 2.545218e+000 2.485574e+000 2.256085e+000 2.603841e+000 1.857675e+000 1.746883e+000 6.710548e-001
<GCONST> 9.913582e+001
<STATE> 4
<MEAN> 25
 -1.590586e+000 3.289380e+000 6.580081e+000 2.467422e+000 1.045737e+000 -3.456771e+000 -3.666566e+000 1.386741e+000 2.390099e+000 -1.959916e+000 -7.022020e-001 5.353945e-002 1.880726e-002 7.679706e-002 -2.836868e-001 2.181976e-002 3.156726e-002 1.156859e-001 1.749412e-001 5.310640e-002 4.348017e-002 1.172246e-001 9.801479e-002 5.376553e-002 -1.446007e-001
<VARIANCE> 25
 1.303418e+001 1.010874e+002 6.600476e+001 1.128549e+002 4.768505e+001 6.334417e+001 6.538013e+001 5.403778e+001 3.515042e+001 5.744491e+001 2.910590e+001 3.747067e+001 4.322183e-001 1.354088e+000 1.939303e+000 2.517425e+000 1.904003e+000 2.630603e+000 2.946731e+000 2.618192e+000 2.324600e+000 2.794414e+000 2.037565e+000 2.029528e+000 4.927773e-001
<GCONST> 1.001216e+002
<TRANSP> 5
 0.000000e+000 1.000000e+000 0.000000e+000 0.000000e+000 0.000000e+000
 0.000000e+000 7.109791e-001 2.890209e-001 0.000000e+000 0.000000e+000
 0.000000e+000 0.000000e+000 7.157517e-001 2.842484e-001 0.000000e+000
 0.000000e+000 0.000000e+000 0.000000e+000 9.012535e-001 9.874655e-002
 0.000000e+000 0.000000e+000 0.000000e+000 0.000000e+000 0.000000e+000
<ENDHMM>
~h "ng"
<BEGINHMM>
<NUMSTATES> 5
<STATE> 2
<MEAN> 25
 3.427710e+000 3.873636e-001 -5.115649e-001 -1.146172e+000 3.632327e+000 -1.576584e+000 5.256548e-001 -2.942944e+000 -7.344163e-001 -2.720459e+000 -3.139471e-001 -2.639103e+000 -1.325663e-001 5.265344e-001 1.758047e-001 5.579055e-001 -1.036896e-001 1.820296e-001 -2.068430e-001 2.378713e-001 1.679714e-002 -3.348948e-002 -2.083705e-001 -4.039554e-004 -6.347303e-001
<VARIANCE> 25
 9.872173e+000 6.138371e+001 3.038772e+001 5.044631e+001 5.055494e+001 4.147063e+001 4.320277e+001 3.899961e+001 5.818239e+001 3.951319e+001 6.376905e+001 4.083016e+001 3.876126e-001 1.069236e+000 1.091781e+000 2.094273e+000 1.869924e+000 1.805721e+000 2.481576e+000 1.999650e+000 2.243926e+000 2.245414e+000 2.586247e+000 1.677029e+000 5.892707e-001
<GCONST> 9.569157e+001
<STATE> 3
<MEAN> 25
 2.643685e+000 1.554637e+000 -1.172493e-001 4.747286e-001 3.171101e+000 -7.925708e-001 2.228437e-001 -1.801464e+000 -7.205768e-001 -2.514929e+000 -5.629425e-001 -1.931232e+000 -2.016908e-001 2.422462e-001 1.232286e-001 3.724319e-001 -1.209524e-001 2.206309e-001 -4.694412e-002 2.868326e-001 1.255979e-001 1.704241e-001 -6.526937e-002 1.260661e-001 -5.010193e-001
<VARIANCE> 25
 1.093309e+001 5.465612e+001 2.512766e+001 4.823652e+001 3.964582e+001 2.914458e+001 3.644382e+001 3.732875e+001 4.670952e+001 3.677381e+001 5.260181e+001 3.930168e+001 3.838560e-001 1.059313e+000 1.005219e+000 1.729139e+000 1.524599e+000 1.737015e+000 2.402088e+000 1.887288e+000 1.877795e+000 2.019254e+000 2.519829e+000 1.566945e+000 5.875375e-001
<GCONST> 9.310308e+001
<STATE> 4
<MEAN> 25
 -3.801857e-001 1.769302e+000 1.574483e-001 2.255625e+000 1.617336e+000 1.131797e+000 6.807632e-001 1.278529e+000 8.758174e-001 6.035369e-001 1.125376e+000 4.014464e-001 -7.236860e-002 1.020431e-002 3.215223e-003 2.552399e-002 -3.536883e-002 3.578905e-002 -4.868075e-003 6.290978e-002 4.986339e-002 7.108413e-002 2.615195e-002 5.782292e-002 -8.105401e-002
<VARIANCE> 25
 1.188178e+001 3.379780e+001 2.233546e+001 4.152342e+001 2.605519e+001 1.633856e+001 2.843144e+001 2.364397e+001 2.587615e+001 2.876567e+001 2.333846e+001 2.080510e+001 2.151018e-001 5.486389e-001 7.568721e-001 1.296936e+000 1.205425e+000 1.190751e+000 1.481495e+000 1.478714e+000 1.668912e+000 1.545310e+000 1.513131e+000 1.244792e+000 2.836320e-001
<GCONST> 8.344751e+001
<TRANSP> 5
 0.000000e+000 1.000000e+000 0.000000e+000 0.000000e+000 0.000000e+000
 0.000000e+000 6.359028e-001 3.640973e-001 0.000000e+000 0.000000e+000
 0.000000e+000 0.000000e+000 6.737542e-001 3.262458e-001 0.000000e+000
 0.000000e+000 0.000000e+000 0.000000e+000 9.605181e-001 3.948188e-002
 0.000000e+000 0.000000e+000 0.000000e+000 0.000000e+000 0.000000e+000
<ENDHMM>
~h "oh"
<BEGINHMM>
<NUMSTATES> 5
<STATE> 2
<MEAN> 25
 -1.119070e+000 -3.983796e+000 -1.238052e-001 3.124754e+000 6.800876e-001 2.331053e+000 2.339727e+000 -4.133621e-001 -2.486564e+000 -2.754217e+000 -5.056440e-001 -1.961757e+000 1.707415e-001 1.201184e-001 1.477949e-002 -9.784091e-002 -3.160422e-001 -1.804470e-001 2.857312e-001 4.907095e-002 4.206319e-001 3.097168e-001 6.865056e-002 6.653939e-002 7.001226e-002
<VARIANCE> 25
 2.430746e+001 4.834603e+001 6.862945e+000 2.834420e+001 2.692659e+001 1.681511e+001 5.671930e+001 2.222517e+001 2.008506e+001 4.638043e+001 1.386598e+001 8.615725e+000 5.724109e-001 6.401801e-001 7.876412e-001 1.408299e+000 2.417052e+000 2.458916e+000 2.005952e+000 1.489825e+000 2.205997e+000 2.479740e+000 1.433854e+000 1.200377e+000 4.185337e-001
<GCONST> 8.650941e+001
<STATE> 3
<MEAN> 25
 1.218699e+000 -3.418414e+000 -2.935891e+000 -2.613468e+000 -1.490291e-001 4.725460e-001 1.600634e+000 -3.551459e+000 2.844493e+000 1.212405e+000 1.165940e+000 -6.211739e-001 9.929215e-002 1.578248e-002 -1.815693e-001 -2.827600e-001 -8.459682e-002 -1.429763e-001 1.061521e-001 -1.859764e-001 5.197434e-002 1.984618e-001 7.895658e-002 1.191237e-002 9.628619e-002
<VARIANCE> 25
 1.308462e+001 2.849869e+001 2.665223e+001 1.113708e+002 2.012858e+001 1.279104e+001 4.403490e+001 5.169283e+001 2.858282e+001 4.150659e+001 1.702865e+001 1.277781e+001 3.383971e-001 8.323973e-001 9.339597e-001 1.649657e+000 1.892516e+000 1.423901e+000 2.701646e+000 1.960532e+000 1.280237e+000 1.634120e+000 1.306657e+000 1.616544e+000 5.669140e-001
<GCONST> 8.834843e+001
<STATE> 4
<MEAN> 25
 -7.541624e-001 4.115860e-001 -5.699410e-001 1.066298e+000 5.024108e-001 7.478092e-002 1.486263e+000 1.345367e+000 9.314300e-001 -9.202380e-002 1.008626e+000 8.063114e-001 -6.058166e-003 -5.242357e-003 3.340658e-003 6.168542e-003 2.816141e-002 -5.118474e-007 2.305194e-002 3.103305e-003 2.732864e-002 -1.791480e-002 6.973870e-003 3.758693e-003 -1.732312e-002
<VARIANCE> 25
 4.629868e+001 2.008436e+001 2.444179e+001 2.732071e+001 2.278060e+001 2.158124e+001 3.845759e+001 3.396624e+001 3.575096e+001 4.899453e+001 2.341235e+001 1.748576e+001 1.392823e+000 8.744321e-001 8.510955e-001 1.021434e+000 1.164703e+000 1.543129e+000 1.475706e+000 1.687223e+000 1.784999e+000 2.169426e+000 1.556636e+000 1.473554e+000 5.889115e-001
<GCONST> 8.935175e+001
<TRANSP> 5
 0.000000e+000 1.000000e+000 0.000000e+000 0.000000e+000 0.000000e+000
 0.000000e+000 7.951959e-001 2.048042e-001 0.000000e+000 0.000000e+000
 0.000000e+000 0.000000e+000 9.576477e-001 4.235224e-002 0.000000e+000
 0.000000e+000 0.000000e+000 0.000000e+000 9.933629e-001 6.637127e-003
 0.000000e+000 0.000000e+000 0.000000e+000 0.000000e+000 0.000000e+000
<ENDHMM>
~h "uw"
<BEGINHMM>
<NUMSTATES> 5
<STATE> 2
<MEAN> 25
 1.085046e+000 -2.795476e+000 -4.938804e-001 -4.810793e+000 2.284750e+000 5.303460e-001 -2.413771e+000 -2.834121e+000 -2.246624e+000 1.823108e+000 1.381312e+000 5.608873e-001 2.172058e-001 -3.386343e-001 -1.752320e-001 -5.649431e-001 1.218631e-001 2.736086e-002 -2.499141e-001 -3.116301e-001 -1.484437e-001 2.723090e-001 1.837030e-002 -1.949380e-001 3.271898e-001
<VARIANCE> 25
 7.291850e+001 1.578443e+002 1.240062e+002 1.006466e+002 7.384343e+001 9.384443e+001 6.549179e+001 5.295262e+001 6.925355e+001 5.175336e+001 4.603177e+001 6.118850e+001 3.743505e+000 8.411864e+000 5.152251e+000 8.050299e+000 6.199780e+000 6.707203e+000 4.940039e+000 5.633166e+000 6.321389e+000 4.559708e+000 4.024047e+000 4.636253e+000 5.342585e+000
<GCONST> 1.200439e+002
<STATE> 3
<MEAN> 25
 2.915605e+000 -2.798104e+000 -2.404541e+000 -5.107385e+000 1.533578e+000 -9.875323e-001 -2.522580e+000 -3.389516e+000 -2.318561e+000 2.506698e+000 1.247298e+000 -1.215212e+000 2.812871e-001 -1.915060e-003 -1.793724e-001 1.731974e-002 -9.549644e-002 -9.144671e-002 1.618534e-001 -1.589147e-001 -6.803900e-002 4.857198e-002 -9.716810e-002 -2.977685e-001 1.779620e-001
<VARIANCE> 25
 5.435532e+001 1.494153e+002 8.959184e+001 1.104023e+002 8.447011e+001 8.496060e+001 6.696364e+001 6.672603e+001 7.188220e+001 5.359779e+001 4.987318e+001 6.172461e+001 3.627706e+000 5.309788e+000 4.363034e+000 8.009869e+000 7.208997e+000 7.243211e+000 4.765457e+000 5.976366e+000 6.290073e+000 4.807780e+000 4.118048e+000 4.589388e+000 5.137278e+000
<GCONST> 1.195221e+002
<STATE> 4
<MEAN> 25
 2.601654e+000 -7.564656e-001 -3.284908e+000 -4.035516e+000 1.215592e+000 -9.255912e-001 -1.765844e-001 -2.501787e+000 -3.197470e+000 1.537174e+000 1.022090e+000 -6.119635e-001 -9.329752e-002 1.729921e-001 1.303929e-001 2.464395e-001 3.014202e-003 4.937342e-002 1.773887e-001 1.020477e-001 1.137590e-001 -1.388456e-001 -1.021290e-001 2.988842e-002 -1.998070e-001
<VARIANCE> 25
 3.827367e+001 1.493950e+002 5.843645e+001 9.896904e+001 7.810567e+001 6.870627e+001 6.678890e+001 6.298710e+001 6.798859e+001 4.587923e+001 5.071192e+001 6.100986e+001 1.132193e+000 3.625434e+000 2.093777e+000 5.234046e+000 4.669399e+000 4.715782e+000 4.545718e+000 4.853566e+000 6.071801e+000 3.870156e+000 4.130767e+000 3.771015e+000 1.465579e+000
<GCONST> 1.125531e+002
<TRANSP> 5
 0.000000e+000 1.000000e+000 0.000000e+000 0.000000e+000 0.000000e+000
 0.000000e+000 7.584968e-001 2.415032e-001 0.000000e+000 0.000000e+000
 0.000000e+000 0.000000e+000 7.621242e-001 2.378758e-001 0.000000e+000
 0.000000e+000 0.000000e+000 0.000000e+000 8.133703e-001 1.866297e-001
 0.000000e+000 0.000000e+000 0.000000e+000 0.000000e+000 0.000000e+000
<ENDHMM>
~h "sil"
<BEGINHMM>
<NUMSTATES> 5
<STATE> 2
<MEAN> 25
 -1.308219e+001 5.814909e+000 -3.746352e+000 1.010826e+001 -2.472373e+000 6.660922e+000 -4.075418e+000 8.973196e+000 7.788864e+000 3.831103e+000 3.987597e+000 2.333586e+000 -6.697207e-002 6.865855e-002 -1.713667e-002 -9.091908e-002 -4.711687e-003 9.068767e-002 -4.654043e-002 -2.042781e-002 1.278202e-001 1.273006e-001 5.810782e-002 -5.580382e-002 -1.996611e-002
<VARIANCE> 25
 4.980576e+001 1.541199e+001 2.842082e+001 2.861402e+001 2.869391e+001 2.270183e+001 2.079794e+001 3.728269e+001 4.556926e+001 2.056103e+001 2.116985e+001 1.564578e+001 1.755323e-001 4.655125e-001 4.003026e-001 6.953236e-001 7.322333e-001 8.895820e-001 1.051381e+000 1.220773e+000 1.183815e+000 1.432014e+000 1.211300e+000 1.272974e+000 5.207821e-001
<GCONST> 8.141506e+001
<STATE> 3
<MEAN> 25
 -7.817708e+000 5.282986e+000 -7.115586e+000 5.604929e+000 -5.274682e+000 5.640397e+000 -2.997225e+000 3.861028e+000 8.832715e-001 4.612669e+000 1.135063e+000 2.043798e+000 4.135714e-001 -8.184880e-002 3.246634e-001 -2.093616e-001 1.161070e-001 -1.527415e-001 3.202499e-001 -1.279444e-001 -2.697723e-001 -1.339681e-001 -1.217561e-001 1.810021e-002 1.769701e+000
<VARIANCE> 25
 4.654531e+001 2.223418e+001 3.452926e+001 2.588921e+001 3.746860e+001 2.094454e+001 2.303365e+001 3.164446e+001 5.570586e+001 2.405568e+001 1.999330e+001 1.116392e+001 3.847912e+000 1.131628e+000 1.631532e+000 1.290224e+000 1.513818e+000 1.220949e+000 1.458133e+000 1.577123e+000 1.715824e+000 1.206591e+000 1.271394e+000 9.402251e-001 1.315283e+001
<GCONST> 9.269541e+001
<STATE> 4
<MEAN> 25
 -1.523523e+000 2.362556e+000 -9.815364e-001 1.022395e+000 -5.215040e-001 1.227661e+000 2.864353e-001 7.866543e-001 6.528666e-001 7.678811e-001 4.689482e-001 1.284949e+000 -5.393174e-003 3.485728e-003 1.152725e-002 1.854212e-003 -9.964298e-003 2.368127e-003 6.793586e-003 4.790245e-003 -3.270372e-003 1.199986e-002 6.476328e-003 2.723279e-003 1.029117e-002
<VARIANCE> 25
 3.347020e+001 4.994978e+001 2.623633e+001 3.063132e+001 2.816619e+001 2.403836e+001 3.494204e+001 2.854045e+001 2.900607e+001 3.668831e+001 2.297352e+001 1.981467e+001 4.689643e-001 5.953844e-001 7.651459e-001 9.850686e-001 1.151986e+000 1.328219e+000 1.433305e+000 1.568241e+000 1.574624e+000 1.653728e+000 1.545862e+000 1.298019e+000 3.074186e-001
<GCONST> 8.672196e+001
<TRANSP> 5
 0.000000e+000 1.000000e+000 0.000000e+000 0.000000e+000 0.000000e+000
 0.000000e+000 9.004803e-001 9.951973e-002 0.000000e+000 0.000000e+000
 0.000000e+000 0.000000e+000 8.272224e-001 1.727776e-001 0.000000e+000
 0.000000e+000 0.000000e+000 0.000000e+000 9.833447e-001 1.665526e-002
 0.000000e+000 0.000000e+000 0.000000e+000 0.000000e+000 0.000000e+000
<ENDHMM>
