~o
<STREAMINFO> 1 25
<VECSIZE> 25<NULLD><MFCC_D_N_Z_0><DIAGC>
~h "b"
<BEGINHMM>
<NUMSTATES> 5
<STATE> 2
<MEAN> 25
 -4.705826e-001 -6.049393e+000 5.997577e+000 -4.231784e+000 -2.560652e+000 1.693455e+000 3.270370e+000 -3.947898e+000 -2.614118e+000 1.409066e+000 -3.365836e-001 -9.688274e-001 -1.233320e-001 -8.999420e-001 3.443010e-001 -2.638063e-001 -1.273612e-001 -1.769641e-001 3.666506e-001 4.357429e-002 -3.404258e-002 1.716364e-001 -3.094375e-004 -2.560099e-001 6.803315e-001
<VARIANCE> 25
 6.571120e+001 2.500477e+002 1.452000e+002 1.493650e+002 1.693884e+002 1.297835e+002 1.813361e+002 1.342490e+002 7.918939e+001 6.770817e+001 7.958987e+001 7.296600e+001 2.917746e+000 1.022161e+001 8.232957e+000 9.858777e+000 9.939548e+000 8.317415e+000 1.149609e+001 9.154982e+000 8.301905e+000 5.359131e+000 7.005816e+000 5.352490e+000 3.258581e+000
<GCONST> 1.284543e+002
<STATE> 3
<MEAN> 25
 6.999295e-001 -9.011275e+000 7.920326e+000 -2.130783e+000 -3.541469e+000 -1.124787e+000 2.722354e+000 -2.972100e+000 -2.352140e+000 1.866823e+000 -1.469169e+000 -2.275421e+000 3.546350e-001 -1.475513e-001 -3.775312e-001 4.425627e-001 4.493578e-002 -2.300915e-002 -4.335516e-002 1.378119e-001 -1.320018e-001 -3.950669e-001 -8.905192e-002 -5.531350e-002 1.357661e-001
<VARIANCE> 25
 6.983042e+001 2.051807e+002 1.190792e+002 1.598676e+002 1.837849e+002 1.065122e+002 1.599304e+002 9.194004e+001 8.366058e+001 6.124220e+001 5.271644e+001 4.805988e+001 3.261535e+000 7.019795e+000 5.257790e+000 7.619563e+000 1.003093e+001 5.958111e+000 8.460788e+000 7.780913e+000 7.313647e+000 5.260410e+000 5.171807e+000 4.473349e+000 2.574451e+000
<GCONST> 1.240638e+002
<STATE> 4
<MEAN> 25
 3.171703e+000 -7.140627e+000 8.274971e-001 3.336427e+000 1.612155e-001 -1.439342e+000 -8.348657e-001 -1.411569e+000 -2.483337e+000 1.413339e+000 -7.903867e-001 -3.000325e+000 3.194604e-002 2.607735e-001 -1.702360e-001 -7.512286e-002 1.815372e-001 -7.742258e-003 -1.423733e-001 7.766495e-002 1.086489e-001 -1.117757e-001 1.142396e-002 1.216031e-001 -1.441559e-001
<VARIANCE> 25
 1.907005e+001 2.552381e+002 8.986008e+001 9.352081e+001 1.387988e+002 7.978082e+001 1.808989e+002 5.712810e+001 8.992792e+001 7.811919e+001 4.080780e+001 5.513285e+001 1.040890e+000 5.921028e+000 3.607436e+000 7.180261e+000 8.278665e+000 4.650954e+000 9.787109e+000 5.001525e+000 5.140782e+000 5.059850e+000 4.428952e+000 4.222200e+000 1.749523e+000
<GCONST> 1.179660e+002
<TRANSP> 5
 0.000000e+000 1.000000e+000 0.000000e+000 0.000000e+000 0.000000e+000
 0.000000e+000 9.262664e-001 7.373358e-002 0.000000e+000 0.000000e+000
 0.000000e+000 0.000000e+000 8.178963e-001 1.821037e-001 0.000000e+000
 0.000000e+000 0.000000e+000 0.000000e+000 9.377411e-001 6.225890e-002
 0.000000e+000 0.000000e+000 0.000000e+000 0.000000e+000 0.000000e+000
<ENDHMM>
~h "c"
<BEGINHMM>
<NUMSTATES> 5
<STATE> 2
<MEAN> 25
 4.492237e-008 5.845701e-009 -1.328185e-007 -1.974899e-008 8.013701e-008 5.326083e-008 -2.952693e-008 -7.096470e-008 9.339078e-009 -1.337489e-007 6.334598e-008 -5.331350e-008 -9.746575e-004 8.824667e-003 5.857049e-003 -6.106692e-003 1.834674e-003 2.140600e-003 6.438790e-003 2.552634e-004 2.233275e-003 1.652292e-004 -2.947775e-004 1.625022e-004 1.768339e-002
<VARIANCE> 25
 5.093745e+001 1.386368e+002 7.180528e+001 8.644808e+001 6.100111e+001 5.655713e+001 7.255057e+001 5.467440e+001 5.467830e+001 5.295312e+001 4.155158e+001 3.905978e+001 1.136743e+000 2.774379e+000 2.153254e+000 3.157753e+000 2.791123e+000 2.802559e+000 3.391059e+000 2.977390e+000 2.833076e+000 2.917275e+000 2.609103e+000 2.223614e+000 1.691524e+000
<GCONST> 1.071680e+002
<STATE> 3
<MEAN> 25
 4.492237e-008 5.845701e-009 -1.328185e-007 -1.974899e-008 8.013701e-008 5.326083e-008 -2.952693e-008 -7.096470e-008 9.339078e-009 -1.337489e-007 6.334598e-008 -5.331350e-008 -9.746575e-004 8.824667e-003 5.857049e-003 -6.106692e-003 1.834674e-003 2.140600e-003 6.438790e-003 2.552634e-004 2.233275e-003 1.652292e-004 -2.947775e-004 1.625022e-004 1.768339e-002
<VARIANCE> 25
 5.093745e+001 1.386368e+002 7.180528e+001 8.644808e+001 6.100111e+001 5.655713e+001 7.255057e+001 5.467440e+001 5.467830e+001 5.295312e+001 4.155158e+001 3.905978e+001 1.136743e+000 2.774379e+000 2.153254e+000 3.157753e+000 2.791123e+000 2.802559e+000 3.391059e+000 2.977390e+000 2.833076e+000 2.917275e+000 2.609103e+000 2.223614e+000 1.691524e+000
<GCONST> 1.071680e+002
<STATE> 4
<MEAN> 25
 4.492237e-008 5.845701e-009 -1.328185e-007 -1.974899e-008 8.013701e-008 5.326083e-008 -2.952693e-008 -7.096470e-008 9.339078e-009 -1.337489e-007 6.334598e-008 -5.331350e-008 -9.746575e-004 8.824667e-003 5.857049e-003 -6.106692e-003 1.834674e-003 2.140600e-003 6.438790e-003 2.552634e-004 2.233275e-003 1.652292e-004 -2.947775e-004 1.625022e-004 1.768339e-002
<VARIANCE> 25
 5.093745e+001 1.386368e+002 7.180528e+001 8.644808e+001 6.100111e+001 5.655713e+001 7.255057e+001 5.467440e+001 5.467830e+001 5.295312e+001 4.155158e+001 3.905978e+001 1.136743e+000 2.774379e+000 2.153254e+000 3.157753e+000 2.791123e+000 2.802559e+000 3.391059e+000 2.977390e+000 2.833076e+000 2.917275e+000 2.609103e+000 2.223614e+000 1.691524e+000
<GCONST> 1.071680e+002
<TRANSP> 5
 0.000000e+000 1.000000e+000 0.000000e+000 0.000000e+000 0.000000e+000
 0.000000e+000 6.000000e-001 4.000000e-001 0.000000e+000 0.000000e+000
 0.000000e+000 0.000000e+000 6.000000e-001 4.000000e-001 0.000000e+000
 0.000000e+000 0.000000e+000 0.000000e+000 7.000000e-001 3.000000e-001
 0.000000e+000 0.000000e+000 0.000000e+000 0.000000e+000 0.000000e+000
<ENDHMM>
~h "d"
<BEGINHMM>
<NUMSTATES> 5
<STATE> 2
<MEAN> 25
 8.536792e-001 5.243630e+000 2.657965e+000 -4.674832e+000 1.546034e+000 -1.822272e+000 -2.069026e+000 -3.328722e+000 -6.698243e-002 -6.921940e-001 -8.108234e-001 2.194159e-001 1.257147e-001 -5.237422e-001 6.219120e-002 4.002257e-001 1.346805e-001 -3.581088e-001 -3.493041e-001 6.597456e-003 -6.607654e-002 -4.577217e-001 -4.294633e-003 -1.938997e-001 3.343952e-001
<VARIANCE> 25
 1.867277e+001 1.119502e+002 1.623407e+002 1.333591e+002 9.322660e+001 7.186649e+001 8.790962e+001 4.653752e+001 6.097897e+001 5.172936e+001 2.988710e+001 3.915392e+001 6.695756e-001 7.724899e+000 4.007520e+000 7.718768e+000 4.461493e+000 4.212283e+000 5.702155e+000 3.704743e+000 5.316763e+000 4.763412e+000 2.598351e+000 2.929017e+000 3.165322e+000
<GCONST> 1.132954e+002
<STATE> 3
<MEAN> 25
 1.577776e+000 1.542461e+000 2.963899e+000 -1.821176e+000 3.249198e+000 -3.985009e+000 -4.061907e+000 -2.172537e+000 -1.050534e+000 -2.489079e+000 -2.506363e-001 -7.581949e-001 1.348054e-001 -1.187201e+000 -2.067589e-001 5.297167e-001 4.793177e-001 -3.609924e-001 -5.201721e-002 3.134834e-001 -1.916798e-001 -4.045767e-001 9.656709e-002 -2.387548e-001 7.670768e-001
<VARIANCE> 25
 1.720233e+001 1.502480e+002 1.288049e+002 1.492879e+002 9.261716e+001 7.742844e+001 9.981358e+001 4.337952e+001 5.045359e+001 5.027061e+001 4.357492e+001 4.104919e+001 5.780550e-001 1.095582e+001 6.882742e+000 6.329628e+000 4.807681e+000 4.854101e+000 8.469353e+000 3.683044e+000 4.460919e+000 5.055346e+000 3.561547e+000 2.800723e+000 4.907645e+000
<GCONST> 1.154642e+002
<STATE> 4
<MEAN> 25
 5.762135e-001 -4.261601e+000 3.324965e+000 5.896140e+000 7.608842e-001 -7.029897e+000 -2.809594e+000 3.481443e+000 -7.668940e-001 -1.094673e+000 -1.625570e+000 -2.241192e+000 3.626656e-002 -8.973042e-002 -1.831967e-001 -1.553344e-002 -4.798640e-002 6.890798e-002 1.600320e-001 -4.753012e-002 -2.718837e-003 5.990883e-002 4.501133e-002 4.053023e-002 1.870902e-002
<VARIANCE> 25
 1.760773e+001 3.201071e+002 1.029789e+002 1.675495e+002 8.418983e+001 1.077000e+002 1.075727e+002 7.841763e+001 8.295351e+001 7.203654e+001 7.083232e+001 6.575056e+001 4.614379e-001 6.790821e+000 3.278205e+000 5.215153e+000 3.644598e+000 4.729752e+000 5.476983e+000 4.450305e+000 4.716741e+000 3.911181e+000 3.937521e+000 3.489594e+000 2.153167e+000
<GCONST> 1.159579e+002
<TRANSP> 5
 0.000000e+000 1.000000e+000 0.000000e+000 0.000000e+000 0.000000e+000
 0.000000e+000 7.187603e-001 2.812397e-001 0.000000e+000 0.000000e+000
 0.000000e+000 0.000000e+000 7.171518e-001 2.828482e-001 0.000000e+000
 0.000000e+000 0.000000e+000 0.000000e+000 9.604998e-001 3.950018e-002
 0.000000e+000 0.000000e+000 0.000000e+000 0.000000e+000 0.000000e+000
<ENDHMM>
~h "g"
<BEGINHMM>
<NUMSTATES> 5
<STATE> 2
<MEAN> 25
 8.933356e-001 -9.955645e-001 6.521647e+000 2.619649e-001 1.009485e+000 -2.712780e+000 -3.586981e+000 -1.306910e+000 -1.817572e+000 1.935960e-001 -1.485503e+000 -3.155677e+000 5.263571e-002 -3.945745e-001 -1.638611e-001 -6.825055e-001 5.521981e-002 -1.541851e-002 1.324725e-001 -1.188031e-001 -4.751515e-001 1.976385e-001 1.121939e-001 -3.690562e-001 3.176200e-001
<VARIANCE> 25
 3.301870e+001 1.765840e+002 1.334929e+002 2.368385e+002 9.358642e+001 7.470674e+001 7.944745e+001 7.642399e+001 9.127856e+001 9.582573e+001 5.620040e+001 5.140842e+001 2.763491e+000 7.797048e+000 6.515449e+000 1.378172e+001 6.668141e+000 6.439196e+000 6.828740e+000 5.452884e+000 6.988924e+000 7.730196e+000 4.274777e+000 4.179999e+000 4.916035e+000
<GCONST> 1.229980e+002
<STATE> 3
<MEAN> 25
 2.656131e+000 -2.159523e+000 3.093924e+000 -5.602262e+000 2.335662e+000 -1.445519e+000 -1.643830e-001 -3.494012e+000 -4.573801e+000 1.077352e+000 -7.201636e-001 -4.202411e+000 3.873073e-001 3.156424e-002 1.372653e-002 -8.860397e-001 -1.503617e-001 -5.358962e-002 1.937429e-001 -1.131262e-001 -1.246687e-001 -1.194902e-001 -3.324167e-001 -1.323084e-001 3.805278e-001
<VARIANCE> 25
 2.884992e+001 1.113898e+002 1.073565e+002 1.649730e+002 1.001619e+002 5.971835e+001 9.572649e+001 7.270347e+001 8.138618e+001 1.182130e+002 6.185691e+001 5.544404e+001 1.487514e+000 5.473709e+000 3.818745e+000 1.054536e+001 6.052003e+000 6.041359e+000 6.269932e+000 5.011842e+000 5.665535e+000 8.184741e+000 4.441525e+000 3.767766e+000 4.105328e+000
<GCONST> 1.195659e+002
<STATE> 4
<MEAN> 25
 3.314893e+000 -4.235099e+000 -5.059152e-001 -3.573743e+000 1.770292e+000 1.369206e+000 2.435479e+000 -5.240530e+000 -1.284570e+000 2.198074e+000 -2.023597e+000 -3.084429e+000 3.707544e-002 2.074812e-001 1.392300e-001 -2.914804e-001 -1.580239e-001 -4.574802e-003 -7.885430e-002 1.062068e-001 2.009324e-001 -5.541750e-002 -6.271048e-002 2.539203e-001 -1.067950e-001
<VARIANCE> 25
 2.318032e+001 1.506322e+002 1.268344e+002 1.466812e+002 8.833566e+001 7.128283e+001 9.061047e+001 9.071640e+001 4.733435e+001 7.332859e+001 4.979316e+001 3.403553e+001 6.700953e-001 3.601695e+000 2.272642e+000 3.947713e+000 3.753384e+000 3.043210e+000 3.336459e+000 3.806250e+000 3.503412e+000 4.794317e+000 2.969817e+000 2.456739e+000 1.687966e+000
<GCONST> 1.106701e+002
<TRANSP> 5
 0.000000e+000 1.000000e+000 0.000000e+000 0.000000e+000 0.000000e+000
 0.000000e+000 8.448022e-001 1.551978e-001 0.000000e+000 0.000000e+000
 0.000000e+000 0.000000e+000 6.788296e-001 3.211704e-001 0.000000e+000
 0.000000e+000 0.000000e+000 0.000000e+000 6.930917e-001 3.069083e-001
 0.000000e+000 0.000000e+000 0.000000e+000 0.000000e+000 0.000000e+000
<ENDHMM>
~h "h"
<BEGINHMM>
<NUMSTATES> 5
<STATE> 2
<MEAN> 25
 -1.025523e+001 -2.105505e+000 1.455496e+000 5.487957e+000 -1.330847e+000 3.849878e+000 -1.997029e+000 1.531450e+001 7.518055e+000 2.326322e+000 1.022048e+001 -4.134507e+000 -7.252155e-002 -2.479144e-001 -9.694033e-002 2.843540e-001 3.103439e-001 8.576803e-001 2.300643e-001 -3.369754e-001 5.439290e-001 3.842369e-001 -2.338907e-001 4.344169e-001 -1.267374e-001
<VARIANCE> 25
 1.258356e+002 6.784126e+001 9.636733e+000 6.098696e+001 1.458470e+001 4.497468e+001 2.345947e+001 1.998678e+001 1.704889e+002 3.144668e+001 1.512432e+001 1.766317e+002 9.636062e-002 2.959266e-001 8.595365e-001 8.205640e-001 1.259541e+000 2.023354e+000 2.090152e+000 1.963391e+000 2.641546e+000 1.744089e+000 1.527147e+000 2.059622e+000 1.129923e-001
<GCONST> 8.942314e+001
<STATE> 3
<MEAN> 25
 -5.741976e+000 -6.160907e+000 8.774292e-002 6.845433e+000 8.074641e-004 9.354719e+000 1.181953e+000 7.596985e+000 1.035403e+001 2.593005e+000 4.676900e+000 -1.725479e+000 6.550311e-001 3.457078e-001 -3.093496e-001 8.795668e-001 -4.685231e-001 -1.814056e-001 -3.308600e-001 -1.932854e+000 4.090191e-001 -5.416269e-001 -1.305832e+000 1.003979e+000 9.369097e-002
<VARIANCE> 25
 1.298088e+002 9.699584e+001 7.857420e+000 3.843349e+001 1.286352e+001 2.138311e+001 2.421445e+001 9.973511e+001 7.766844e+001 2.978041e+001 2.896046e+001 7.249113e+001 6.554955e-001 9.351186e-001 1.161536e+000 2.657724e+000 1.740921e+000 3.511008e+000 3.973066e+000 4.405716e+000 3.933238e+000 4.054440e+000 2.442794e+000 5.378529e+000 2.928622e-001
<GCONST> 9.932751e+001
<STATE> 4
<MEAN> 25
 2.492585e+000 -5.700207e+000 -3.385053e+000 9.258758e+000 -1.226758e+000 7.029696e+000 3.421776e+000 -3.318382e+000 5.428085e+000 4.916572e+000 -2.449324e-002 -2.656871e+000 1.013781e+000 1.541361e+000 -1.126744e+000 -2.906181e-002 8.844124e-002 -1.570223e+000 -4.923851e-002 -1.310210e+000 -1.600671e+000 7.495578e-001 1.420309e-001 -2.860628e-001 -8.616146e-002
<VARIANCE> 25
 9.354898e+001 6.151707e+001 3.075676e+001 1.316685e+001 1.710048e+001 3.477979e+001 3.437307e+001 7.855553e+001 6.688153e+001 4.055897e+001 4.250512e+001 2.433665e+001 2.933162e+000 1.422065e+000 2.634468e+000 3.974538e+000 1.799923e+000 3.366197e+000 7.638854e+000 4.435498e+000 3.823135e+000 6.376423e+000 6.577562e+000 5.306209e+000 2.162808e+000
<GCONST> 1.063639e+002
<TRANSP> 5
 0.000000e+000 1.000000e+000 0.000000e+000 0.000000e+000 0.000000e+000
 0.000000e+000 8.993877e-001 1.006123e-001 0.000000e+000 0.000000e+000
 0.000000e+000 0.000000e+000 5.351514e-001 4.648486e-001 0.000000e+000
 0.000000e+000 0.000000e+000 0.000000e+000 5.971758e-001 4.028241e-001
 0.000000e+000 0.000000e+000 0.000000e+000 0.000000e+000 0.000000e+000
<ENDHMM>
~h "j"
<BEGINHMM>
<NUMSTATES> 5
<STATE> 2
<MEAN> 25
 8.744021e+000 -1.014051e+001 -5.733344e+000 4.822182e+000 -7.558046e+000 3.166376e+000 -4.666720e+000 -5.046831e+000 -3.212462e+000 1.780728e-001 -3.595395e+000 -3.448955e+000 -7.259203e-002 6.304927e-001 -3.912302e-001 7.299803e-001 -2.848653e-001 -3.216617e-001 1.675410e-001 -3.432353e-001 1.431672e-002 2.825977e-001 -3.695372e-001 -2.017303e-001 -6.294087e-001
<VARIANCE> 25
 1.618171e+001 9.625323e+001 1.542700e+001 5.351118e+001 1.666785e+001 2.108571e+001 6.533475e+001 1.971327e+001 2.524878e+001 2.751779e+001 1.315753e+002 2.388932e+001 1.207007e+000 1.478016e+000 7.822148e-001 3.530738e+000 1.699132e+000 2.319502e+000 3.596192e+000 1.953453e+000 1.754578e+000 1.840014e+000 4.907465e+000 1.732348e+000 6.788987e-001
<GCONST> 9.547394e+001
<STATE> 3
<MEAN> 25
 4.479972e+000 -1.522873e+000 -7.450062e+000 8.688001e+000 -6.908282e+000 3.524721e+000 -4.233434e+000 -5.672451e+000 -2.404613e+000 1.236732e+000 -3.962879e+000 -4.497535e+000 -8.871864e-001 1.855214e-001 9.599018e-002 -5.202310e-001 1.541739e-002 -1.522581e-001 -1.635341e-001 4.635721e-001 2.151764e-001 2.223121e-001 5.978737e-001 -2.509996e-001 -6.716431e-001
<VARIANCE> 25
 4.981422e+001 9.776942e+001 3.150780e+001 4.017800e+001 1.926410e+001 3.861586e+001 1.037578e+002 2.140649e+001 1.864245e+001 4.698286e+001 4.525611e+001 5.056428e+001 2.070764e+000 4.585873e+000 2.943076e+000 6.406433e+000 1.799276e+000 3.862921e+000 4.661691e+000 2.780959e+000 1.766727e+000 3.073545e+000 4.130338e+000 3.337012e+000 3.225524e+000
<GCONST> 1.055850e+002
<STATE> 4
<MEAN> 25
 7.751902e-002 2.432857e+000 1.798621e+000 -7.153181e-001 -4.241440e+000 -5.407888e+000 -6.084728e+000 3.209297e-001 -1.925481e+000 3.401751e+000 1.360112e+000 -9.021820e+000 -2.192224e-001 -9.174871e-002 4.054257e-001 -3.209767e-001 8.775930e-004 -3.395177e-001 6.427079e-002 -1.752157e-001 -7.128973e-002 -1.901028e-001 -8.776706e-002 4.097664e-002 3.576436e-001
<VARIANCE> 25
 6.131506e+001 1.196517e+002 4.239767e+001 1.004692e+002 5.136288e+001 1.085609e+002 6.934569e+001 7.356026e+001 6.832883e+001 7.389416e+001 8.601673e+001 9.760829e+001 2.328773e+000 6.585426e+000 2.689945e+000 7.643073e+000 5.759556e+000 8.394219e+000 5.136610e+000 9.404517e+000 4.298265e+000 4.908997e+000 4.438617e+000 3.559642e+000 8.105062e+000
<GCONST> 1.193417e+002
<TRANSP> 5
 0.000000e+000 1.000000e+000 0.000000e+000 0.000000e+000 0.000000e+000
 0.000000e+000 8.811041e-001 1.188959e-001 0.000000e+000 0.000000e+000
 0.000000e+000 0.000000e+000 7.697173e-001 2.302827e-001 0.000000e+000
 0.000000e+000 0.000000e+000 0.000000e+000 9.555194e-001 4.448066e-002
 0.000000e+000 0.000000e+000 0.000000e+000 0.000000e+000 0.000000e+000
<ENDHMM>
~h "k"
<BEGINHMM>
<NUMSTATES> 5
<STATE> 2
<MEAN> 25
 4.140298e+000 -4.317238e+000 -4.655782e+000 8.922611e-001 9.685047e-001 8.386045e-001 1.957061e+000 -3.832397e+000 -8.993146e-001 -1.333602e+000 -2.536385e+000 -8.599568e-001 2.889548e-001 -9.173362e-001 -3.737067e-001 -9.035479e-002 4.660878e-002 -3.329873e-002 4.043073e-001 -1.560285e-001 -1.133798e-001 -1.048428e-001 -1.355429e-001 -2.893838e-002 8.396094e-001
<VARIANCE> 25
 4.800887e+001 1.361868e+002 5.687626e+001 6.285955e+001 9.294821e+001 5.609144e+001 1.191713e+002 6.069725e+001 7.664893e+001 6.157113e+001 5.139602e+001 4.185907e+001 3.519140e+000 7.305903e+000 2.880349e+000 4.633175e+000 5.810557e+000 4.989772e+000 5.368758e+000 4.458392e+000 5.957134e+000 5.340629e+000 3.859245e+000 3.745201e+000 7.358093e+000
<GCONST> 1.170001e+002
<STATE> 3
<MEAN> 25
 4.437275e+000 -7.190210e+000 -6.655741e+000 3.935738e-001 1.992540e-001 7.497092e-001 3.767458e+000 -2.980284e+000 -1.779626e+000 -1.135632e+000 -3.028247e+000 5.992932e-001 1.069121e-001 -5.571173e-001 6.135628e-003 -3.395573e-001 -9.337296e-002 -1.273399e-001 3.419393e-001 -1.238995e-001 6.067939e-002 3.951030e-002 7.577665e-002 1.878193e-002 6.712418e-001
<VARIANCE> 25
 3.988443e+001 1.217747e+002 7.893949e+001 6.886686e+001 9.734989e+001 5.837912e+001 1.151245e+002 5.477537e+001 5.454767e+001 6.644220e+001 4.520247e+001 4.040763e+001 3.064005e+000 6.516600e+000 3.545246e+000 5.933169e+000 5.518531e+000 5.125992e+000 4.800882e+000 4.629869e+000 4.324751e+000 5.842127e+000 3.471409e+000 3.952471e+000 5.536399e+000
<GCONST> 1.161797e+002
<STATE> 4
<MEAN> 25
 5.130319e+000 -1.014279e+001 -6.425876e+000 -1.216051e+000 1.285776e-001 1.334558e+000 6.250302e+000 -3.631962e+000 -2.361511e+000 1.264046e+000 -2.048456e+000 -1.971465e-001 9.858680e-003 1.987644e-001 1.026565e-001 -1.452227e-002 1.935664e-001 1.922998e-002 -1.427614e-001 6.911089e-002 -9.019020e-002 -2.146577e-001 1.420075e-001 1.258662e-002 -1.463446e-001
<VARIANCE> 25
 2.915849e+001 1.064899e+002 6.923921e+001 4.751843e+001 9.169778e+001 3.189386e+001 6.959817e+001 5.391484e+001 4.125978e+001 7.851678e+001 4.268705e+001 3.681102e+001 1.043037e+000 2.992876e+000 1.798192e+000 3.372635e+000 4.298525e+000 2.362227e+000 3.364389e+000 3.784628e+000 3.100545e+000 4.096581e+000 3.167368e+000 2.466794e+000 2.463928e+000
<GCONST> 1.070426e+002
<TRANSP> 5
 0.000000e+000 1.000000e+000 0.000000e+000 0.000000e+000 0.000000e+000
 0.000000e+000 8.226361e-001 1.773639e-001 0.000000e+000 0.000000e+000
 0.000000e+000 0.000000e+000 8.082894e-001 1.917106e-001 0.000000e+000
 0.000000e+000 0.000000e+000 0.000000e+000 8.581281e-001 1.418719e-001
 0.000000e+000 0.000000e+000 0.000000e+000 0.000000e+000 0.000000e+000
<ENDHMM>
~h "l"
<BEGINHMM>
<NUMSTATES> 5
<STATE> 2
<MEAN> 25
 -1.884293e-001 -3.058638e-001 4.100365e+000 -3.368890e-001 1.706054e+000 -4.775532e+000 -3.091240e+000 -1.532596e+000 3.020758e+000 1.959223e-001 -3.549123e+000 2.178948e-002 7.467933e-003 -5.033739e-001 2.414376e-001 2.134700e-002 1.899976e-001 -6.736465e-002 -2.267475e-002 2.552936e-001 -2.421726e-003 -1.257517e-001 -2.844536e-001 1.347659e-001 3.842168e-001
<VARIANCE> 25
 8.721388e+001 2.357467e+002 1.172878e+002 1.323470e+002 1.115761e+002 1.104572e+002 1.245391e+002 1.118752e+002 9.655292e+001 7.296419e+001 5.618533e+001 5.930148e+001 3.139730e+000 6.700861e+000 5.717332e+000 1.008194e+001 7.636164e+000 9.329618e+000 1.004388e+001 8.701785e+000 6.147016e+000 6.665373e+000 5.713456e+000 4.418284e+000 2.879282e+000
<GCONST> 1.252970e+002
<STATE> 3
<MEAN> 25
 2.178584e+000 -4.730669e+000 4.299528e+000 2.329052e+000 3.216217e-001 -5.368681e+000 -4.039421e+000 1.008937e+000 1.155836e+000 -7.722385e-001 -3.566397e+000 -1.276302e+000 7.891947e-003 -2.066117e-001 3.201797e-002 -3.548118e-001 -1.709101e-001 3.521929e-001 3.342510e-002 1.104207e-001 3.266614e-002 -1.575542e-001 4.214703e-002 -1.926552e-002 2.291089e-001
<VARIANCE> 25
 3.989315e+001 2.282310e+002 1.372521e+002 1.508265e+002 1.054480e+002 1.211082e+002 1.306652e+002 1.038540e+002 8.530944e+001 8.201461e+001 5.625066e+001 7.121439e+001 1.535476e+000 4.161519e+000 4.442485e+000 7.836990e+000 7.147550e+000 9.491775e+000 9.085310e+000 7.571149e+000 3.705133e+000 5.352674e+000 4.671368e+000 4.467408e+000 2.540852e+000
<GCONST> 1.219317e+002
<STATE> 4
<MEAN> 25
 3.148674e+000 -1.196987e+000 1.725828e-001 -1.049115e+000 -2.758990e+000 -7.937822e-001 2.505194e-001 3.261980e-001 2.173815e+000 -1.464697e+000 -2.293146e+000 -3.931301e-001 -2.442378e-001 4.285195e-001 1.920329e-001 -1.205780e-001 -2.029420e-002 4.537785e-001 1.880334e-001 -7.451066e-002 -1.075711e-001 -9.544084e-003 1.116569e-001 -1.124607e-001 -2.949710e-001
<VARIANCE> 25
 2.241414e+001 2.050912e+002 7.269503e+001 1.143871e+002 7.390184e+001 9.085493e+001 9.030666e+001 8.463752e+001 6.604458e+001 4.775148e+001 4.850227e+001 6.238403e+001 6.526969e-001 2.058853e+000 2.007699e+000 4.003021e+000 3.938269e+000 4.675294e+000 5.024098e+000 4.137788e+000 3.350599e+000 2.934673e+000 3.442421e+000 3.215048e+000 1.239837e+000
<GCONST> 1.104625e+002
<TRANSP> 5
 0.000000e+000 1.000000e+000 0.000000e+000 0.000000e+000 0.000000e+000
 0.000000e+000 8.000336e-001 1.999664e-001 0.000000e+000 0.000000e+000
 0.000000e+000 0.000000e+000 7.271901e-001 2.728099e-001 0.000000e+000
 0.000000e+000 0.000000e+000 0.000000e+000 7.065731e-001 2.934269e-001
 0.000000e+000 0.000000e+000 0.000000e+000 0.000000e+000 0.000000e+000
<ENDHMM>
~h "m"
<BEGINHMM>
<NUMSTATES> 5
<STATE> 2
<MEAN> 25
 3.951910e+000 3.658825e+000 3.045883e-001 -1.136087e+000 -7.425449e-001 -1.317785e-001 3.170370e-001 1.924901e-001 -2.549092e-001 -3.940673e+000 -2.758448e+000 -9.006183e-001 3.107104e-002 4.646514e-001 1.306691e-001 3.436069e-001 -1.155307e-002 4.088952e-002 -1.540501e-001 -2.135629e-002 1.187560e-001 -1.199103e-001 -2.443286e-001 -7.743667e-002 -2.915430e-001
<VARIANCE> 25
 3.568354e+001 1.239328e+002 4.560693e+001 9.343723e+001 5.733668e+001 4.285100e+001 5.901958e+001 3.984320e+001 4.475312e+001 3.986292e+001 3.316679e+001 3.753033e+001 5.847391e-001 1.477414e+000 1.655457e+000 3.059896e+000 2.364586e+000 1.894687e+000 2.240556e+000 2.174848e+000 1.880354e+000 2.552134e+000 2.180866e+000 1.873201e+000 7.852583e-001
<GCONST> 1.001750e+002
<STATE> 3
<MEAN> 25
 3.889572e+000 4.690266e+000 7.700165e-001 -2.585478e-001 -2.859319e-001 -6.039276e-002 -8.320183e-002 -1.006963e-001 6.242305e-002 -4.036736e+000 -3.091475e+000 -1.031480e+000 -4.488900e-002 2.680178e-001 4.892290e-002 2.071701e-001 9.203703e-002 5.125123e-002 -7.511038e-002 -5.404630e-002 6.562392e-002 4.455514e-003 -2.553506e-002 -1.829734e-002 -2.012227e-001
<VARIANCE> 25
 3.691088e+001 1.116916e+002 3.987107e+001 8.657581e+001 5.802442e+001 4.098854e+001 6.280343e+001 3.878101e+001 4.442386e+001 3.880682e+001 3.278113e+001 3.856215e+001 4.790864e-001 1.484611e+000 1.391707e+000 2.955176e+000 2.131998e+000 1.871991e+000 2.067090e+000 1.906684e+000 1.801535e+000 2.317004e+000 2.072253e+000 1.653698e+000 7.246212e-001
<GCONST> 9.875183e+001
<STATE> 4
<MEAN> 25
 2.884875e+000 6.679002e+000 9.691629e-001 -4.767045e-001 7.435737e-001 4.244004e-001 1.695993e-001 -4.040857e-001 6.942184e-001 -3.697473e+000 -2.653282e+000 -6.203575e-001 -9.189189e-002 5.282457e-002 1.689515e-002 5.569430e-002 9.762372e-002 1.229051e-002 -6.269557e-002 -2.796812e-002 -3.719421e-002 9.867441e-002 1.216876e-001 4.069199e-002 -1.042117e-001
<VARIANCE> 25
 3.268287e+001 1.137196e+002 3.589814e+001 6.801904e+001 6.109744e+001 3.467231e+001 5.537454e+001 3.847099e+001 3.185537e+001 3.517690e+001 3.338316e+001 3.999433e+001 3.278061e-001 1.260566e+000 1.251819e+000 1.970539e+000 1.644429e+000 1.960920e+000 1.957286e+000 1.964438e+000 1.654357e+000 2.043922e+000 1.959186e+000 1.418505e+000 4.714597e-001
<GCONST> 9.553400e+001
<TRANSP> 5
 0.000000e+000 1.000000e+000 0.000000e+000 0.000000e+000 0.000000e+000
 0.000000e+000 6.096990e-001 3.903010e-001 0.000000e+000 0.000000e+000
 0.000000e+000 0.000000e+000 6.111608e-001 3.888392e-001 0.000000e+000
 0.000000e+000 0.000000e+000 0.000000e+000 8.556175e-001 1.443826e-001
 0.000000e+000 0.000000e+000 0.000000e+000 0.000000e+000 0.000000e+000
<ENDHMM>
~h "n"
<BEGINHMM>
<NUMSTATES> 5
<STATE> 2
<MEAN> 25
 2.818658e+000 1.317414e+000 3.942649e-001 7.378506e-001 1.462862e+000 9.679891e-001 1.068386e+000 -2.036969e+000 -2.018035e+000 -1.772242e+000 -1.867989e-001 7.319265e-002 -1.238614e-001 5.493957e-001 -3.853730e-002 1.592282e-002 1.889936e-001 2.564414e-001 -4.416727e-002 8.933776e-002 -1.376327e-001 1.647932e-001 3.222392e-002 1.546971e-001 -4.891348e-001
<VARIANCE> 25
 3.013965e+001 1.053749e+002 5.866398e+001 9.666486e+001 5.546400e+001 4.374586e+001 6.248035e+001 3.615592e+001 5.883350e+001 4.544065e+001 4.442595e+001 3.293346e+001 1.077513e+000 2.742720e+000 2.210766e+000 3.901221e+000 2.655423e+000 2.728940e+000 2.908275e+000 2.973046e+000 2.977240e+000 3.046551e+000 3.154850e+000 1.939741e+000 1.557000e+000
<GCONST> 1.051848e+002
<STATE> 3
<MEAN> 25
 2.248482e+000 2.900321e+000 5.282199e-001 4.311922e-001 1.792745e+000 1.578855e+000 8.419390e-001 -1.862876e+000 -2.001609e+000 -1.385040e+000 -1.477066e-001 5.409454e-001 -2.460145e-001 4.537731e-001 8.850273e-002 -2.996546e-002 9.465825e-002 1.621289e-001 -6.446774e-002 8.365769e-002 7.259238e-002 1.497878e-001 3.518897e-002 1.082651e-001 -4.327221e-001
<VARIANCE> 25
 3.207800e+001 9.696529e+001 5.837406e+001 9.710621e+001 5.130997e+001 4.271833e+001 5.683663e+001 3.399723e+001 5.498617e+001 4.271561e+001 4.436643e+001 3.210705e+001 1.131278e+000 2.468949e+000 1.975835e+000 3.901461e+000 2.410642e+000 2.476036e+000 2.624503e+000 2.818531e+000 2.688927e+000 2.853126e+000 2.942094e+000 1.921919e+000 1.483536e+000
<GCONST> 1.039359e+002
<STATE> 4
<MEAN> 25
 -6.623788e-001 9.035708e+000 5.391160e-001 -1.019284e+000 1.536406e+000 1.776380e+000 1.660973e-001 -5.602264e-001 6.456715e-001 -1.241611e+000 1.969615e-001 2.426940e+000 -1.594220e-001 1.126353e-001 1.852497e-001 -5.284723e-003 -1.025260e-001 -1.234701e-001 -5.155150e-002 7.021362e-002 1.578443e-001 4.305684e-002 -2.958250e-002 -6.162274e-002 -1.142942e-001
<VARIANCE> 25
 2.382245e+001 8.971218e+001 4.332418e+001 6.715791e+001 3.578249e+001 3.558381e+001 3.912777e+001 2.628590e+001 4.321768e+001 3.423626e+001 3.050375e+001 3.067625e+001 5.311067e-001 1.704351e+000 1.665404e+000 2.306244e+000 1.905675e+000 2.128197e+000 2.168972e+000 2.173070e+000 2.476077e+000 2.142357e+000 2.132623e+000 1.856343e+000 5.945415e-001
<GCONST> 9.653717e+001
<TRANSP> 5
 0.000000e+000 1.000000e+000 0.000000e+000 0.000000e+000 0.000000e+000
 0.000000e+000 5.461500e-001 4.538501e-001 0.000000e+000 0.000000e+000
 0.000000e+000 0.000000e+000 5.462527e-001 4.537473e-001 0.000000e+000
 0.000000e+000 0.000000e+000 0.000000e+000 8.298557e-001 1.701443e-001
 0.000000e+000 0.000000e+000 0.000000e+000 0.000000e+000 0.000000e+000
<ENDHMM>
~h "p"
<BEGINHMM>
<NUMSTATES> 5
<STATE> 2
<MEAN> 25
 -4.311937e-001 -2.145984e-001 -1.624930e+000 -2.550328e+000 -6.809391e-001 3.230102e+000 4.060642e-003 3.884652e-002 1.505802e+000 1.447734e+000 1.577142e+000 5.751975e-001 2.030645e-001 -6.165655e-001 3.995418e-001 -4.721791e-001 1.159143e-001 -8.752206e-002 2.361838e-001 -2.977276e-001 -1.351661e-001 6.594301e-002 8.883778e-002 -1.216365e-001 1.169798e+000
<VARIANCE> 25
 6.790992e+001 1.041702e+002 7.415408e+001 9.063462e+001 3.254026e+001 3.667746e+001 5.739230e+001 5.468607e+001 4.413609e+001 3.723861e+001 3.117869e+001 2.230983e+001 4.769951e+000 4.810279e+000 2.936140e+000 3.936924e+000 2.411443e+000 2.765324e+000 3.409302e+000 2.913756e+000 3.369279e+000 3.355187e+000 2.533020e+000 1.968711e+000 8.870211e+000
<GCONST> 1.086983e+002
<STATE> 3
<MEAN> 25
 -9.816089e-001 -3.004343e+000 7.609342e-001 -5.286556e+000 1.337734e-001 3.014930e+000 1.027115e+000 -2.414908e+000 1.006746e+000 5.687683e-001 1.017099e+000 3.338416e-001 2.054590e-001 -2.295377e-001 6.455141e-002 4.629384e-002 -2.453526e-002 -2.303598e-001 -1.321210e-002 -2.477659e-002 -2.806615e-001 -2.062676e-001 1.165770e-001 -7.518139e-002 4.334926e-001
<VARIANCE> 25
 9.253016e+001 1.164035e+002 9.925639e+001 1.023490e+002 3.484829e+001 3.818287e+001 4.698934e+001 5.839810e+001 4.111670e+001 3.440969e+001 2.945036e+001 2.249568e+001 3.402488e+000 4.034082e+000 3.125693e+000 3.082037e+000 2.547271e+000 2.736670e+000 2.318054e+000 2.761754e+000 2.840037e+000 3.018129e+000 2.145396e+000 2.288098e+000 4.404444e+000
<GCONST> 1.072240e+002
<STATE> 4
<MEAN> 25
 4.275473e-001 1.197761e+000 -1.315631e+000 -1.560975e+000 1.139028e+000 2.057399e+000 2.511065e+000 3.583232e-001 5.579701e-001 4.218466e-001 9.683059e-001 5.531279e-001 1.334223e-001 1.071088e-001 4.459253e-002 2.655398e-002 -1.565942e-001 -1.424427e-001 8.490111e-002 -1.894895e-002 -2.788394e-001 -1.766878e-001 8.611623e-002 -1.085681e-002 -7.219712e-003
<VARIANCE> 25
 4.186506e+001 1.161226e+002 4.145490e+001 6.331202e+001 2.873157e+001 2.838686e+001 3.991294e+001 3.670870e+001 3.532959e+001 3.883978e+001 2.717842e+001 2.135276e+001 2.027730e+000 2.054507e+000 1.909497e+000 1.963581e+000 2.399159e+000 2.441343e+000 2.068225e+000 2.644924e+000 2.600173e+000 2.553843e+000 2.217762e+000 2.201653e+000 1.789623e+000
<GCONST> 1.001666e+002
<TRANSP> 5
 0.000000e+000 1.000000e+000 0.000000e+000 0.000000e+000 0.000000e+000
 0.000000e+000 6.659442e-001 3.340558e-001 0.000000e+000 0.000000e+000
 0.000000e+000 0.000000e+000 5.809381e-001 4.190620e-001 0.000000e+000
 0.000000e+000 0.000000e+000 0.000000e+000 7.468826e-001 2.531174e-001
 0.000000e+000 0.000000e+000 0.000000e+000 0.000000e+000 0.000000e+000
<ENDHMM>
~h "r"
<BEGINHMM>
<NUMSTATES> 5
<STATE> 2
<MEAN> 25
 4.927240e+000 -1.088297e+001 -1.180238e+000 -3.258551e+000 -1.340027e+000 -1.067417e+000 3.761459e+000 -5.032045e-001 -3.522443e+000 9.307910e-001 3.225926e-001 -2.759695e+000 -7.144379e-002 -6.523572e-001 9.535293e-002 1.362958e-001 -2.147660e-001 -4.156738e-002 3.032532e-001 -4.951381e-002 -1.859974e-001 1.782472e-001 2.063576e-001 -1.345145e-001 3.112735e-001
<VARIANCE> 25
 5.094233e+001 1.265238e+002 9.173627e+001 1.013606e+002 1.255050e+002 6.239447e+001 1.726540e+002 8.504932e+001 6.181762e+001 6.357984e+001 8.189045e+001 5.205365e+001 1.908292e+000 5.533397e+000 3.684708e+000 5.599184e+000 6.759272e+000 4.865932e+000 9.232035e+000 5.646714e+000 5.160109e+000 4.936799e+000 4.644320e+000 4.125201e+000 2.256743e+000
<GCONST> 1.188852e+002
<STATE> 3
<MEAN> 25
 4.834122e+000 -1.128761e+001 3.219292e-001 -3.171763e+000 -2.402186e+000 -1.550626e+000 5.346940e+000 -1.588755e+000 -4.030941e+000 1.817524e+000 4.065133e-001 -3.935265e+000 -1.419058e-003 -1.937801e-001 -7.231308e-002 1.425885e-001 1.406120e-001 7.473096e-002 1.834065e-001 -2.457530e-001 -4.935863e-002 1.895827e-002 6.601448e-002 8.053004e-002 8.773524e-002
<VARIANCE> 25
 3.926174e+001 1.318744e+002 9.334802e+001 1.181829e+002 9.733112e+001 4.859747e+001 1.604344e+002 9.489844e+001 6.167733e+001 5.813753e+001 9.608610e+001 4.747501e+001 1.965950e+000 4.277665e+000 4.137919e+000 6.415858e+000 5.203573e+000 3.488986e+000 9.725288e+000 7.119103e+000 5.027754e+000 5.001958e+000 5.885317e+000 3.647033e+000 2.288143e+000
<GCONST> 1.181739e+002
<STATE> 4
<MEAN> 25
 4.967326e+000 -1.130019e+001 -5.672115e+000 1.251855e+000 5.429224e-001 -3.684944e-001 3.930586e+000 -1.704877e+000 -3.101825e+000 4.116687e+000 2.150743e+000 -3.049476e+000 -1.279080e-001 3.532412e-001 3.766099e-003 5.946181e-002 2.805886e-001 5.596621e-002 -1.078366e-001 -1.272878e-001 4.147280e-002 -5.007194e-002 -5.466474e-003 9.966914e-002 -2.465151e-001
<VARIANCE> 25
 2.390743e+001 1.715396e+002 8.550648e+001 1.069371e+002 1.295912e+002 5.418716e+001 1.415963e+002 4.984781e+001 6.292310e+001 4.921089e+001 5.585149e+001 3.947398e+001 7.685417e-001 2.816887e+000 3.122245e+000 4.083718e+000 4.712642e+000 3.092581e+000 5.823868e+000 3.381787e+000 3.159312e+000 3.193242e+000 3.581405e+000 2.875930e+000 8.653378e-001
<GCONST> 1.103184e+002
<TRANSP> 5
 0.000000e+000 1.000000e+000 0.000000e+000 0.000000e+000 0.000000e+000
 0.000000e+000 8.564005e-001 1.435995e-001 0.000000e+000 0.000000e+000
 0.000000e+000 0.000000e+000 8.591715e-001 1.408286e-001 0.000000e+000
 0.000000e+000 0.000000e+000 0.000000e+000 9.150985e-001 8.490150e-002
 0.000000e+000 0.000000e+000 0.000000e+000 0.000000e+000 0.000000e+000
<ENDHMM>
~h "s"
<BEGINHMM>
<NUMSTATES> 5
<STATE> 2
<MEAN> 25
 -3.955292e+000 1.170651e+000 1.091189e+000 -2.699064e+000 -8.940727e-001 2.016025e+000 3.473461e+000 -8.939109e-001 -5.741900e-001 5.619928e-001 2.089647e+000 1.480368e+000 -5.493898e-001 -1.320359e-001 3.078463e-001 -3.186704e-001 -1.747551e-001 -4.814310e-002 -7.139915e-002 -1.857449e-001 1.192650e-001 8.817583e-002 3.741857e-002 2.008250e-001 2.220372e-001
<VARIANCE> 25
 5.860754e+001 1.035361e+002 8.670313e+001 7.854298e+001 3.437509e+001 5.829743e+001 4.342672e+001 5.366816e+001 7.524760e+001 5.409141e+001 3.447783e+001 2.397086e+001 3.046946e+000 3.438952e+000 3.070377e+000 2.726804e+000 2.059009e+000 2.774641e+000 2.605628e+000 3.334726e+000 2.914676e+000 3.356668e+000 2.402841e+000 2.048232e+000 1.365839e+000
<GCONST> 1.064344e+002
<STATE> 3
<MEAN> 25
 -5.784209e+000 -2.516579e-001 2.533736e+000 -4.837139e+000 -1.448548e+000 1.575514e+000 3.158102e+000 -1.949605e+000 -3.568390e-001 6.271871e-001 2.355700e+000 1.622676e+000 1.157656e-001 -1.011762e-001 7.082087e-002 -3.804345e-001 -1.038383e-001 -2.289307e-001 -2.064300e-001 -1.001076e-001 -4.077353e-002 -3.154032e-002 -1.198485e-001 5.026896e-002 2.212593e-001
<VARIANCE> 25
 7.918885e+001 1.201029e+002 1.120759e+002 9.885371e+001 3.885956e+001 6.047972e+001 4.759264e+001 6.617271e+001 7.346567e+001 4.708385e+001 3.389673e+001 2.445182e+001 3.786657e+000 2.608220e+000 2.942535e+000 2.962034e+000 2.184423e+000 2.721222e+000 3.036058e+000 3.640174e+000 2.928894e+000 3.716470e+000 2.529247e+000 2.122073e+000 1.408950e+000
<GCONST> 1.081568e+002
<STATE> 4
<MEAN> 25
 -1.551883e+000 1.342162e+000 -1.521739e+000 -3.798820e+000 -1.622692e+000 1.369885e+000 2.536805e+000 -1.061576e+000 -8.213813e-001 8.585237e-001 1.863848e+000 2.734219e+000 2.592971e-001 -1.370896e-002 7.501439e-002 -6.869222e-003 5.661907e-002 -4.758507e-002 -1.550964e-001 -1.335033e-002 -4.682664e-002 -1.577354e-002 -9.119178e-002 -9.614061e-002 -1.542851e-002
<VARIANCE> 25
 5.209363e+001 1.316300e+002 7.534393e+001 5.797885e+001 3.798946e+001 3.859681e+001 3.691196e+001 3.828759e+001 4.450648e+001 4.787005e+001 3.193883e+001 3.260441e+001 2.178898e+000 1.536720e+000 2.115075e+000 2.562707e+000 1.858296e+000 2.395267e+000 2.599556e+000 2.839097e+000 2.735587e+000 2.967444e+000 2.670253e+000 2.159485e+000 8.143854e-001
<GCONST> 1.023500e+002
<TRANSP> 5
 0.000000e+000 1.000000e+000 0.000000e+000 0.000000e+000 0.000000e+000
 0.000000e+000 5.979939e-001 4.020062e-001 0.000000e+000 0.000000e+000
 0.000000e+000 0.000000e+000 6.243620e-001 3.756380e-001 0.000000e+000
 0.000000e+000 0.000000e+000 0.000000e+000 8.161668e-001 1.838333e-001
 0.000000e+000 0.000000e+000 0.000000e+000 0.000000e+000 0.000000e+000
<ENDHMM>
~h "t"
<BEGINHMM>
<NUMSTATES> 5
<STATE> 2
<MEAN> 25
 1.627544e+000 -1.567698e+000 4.873662e-001 2.707909e+000 -2.626710e+000 -1.552470e+000 -8.687428e-002 -3.180478e-001 -3.970612e+000 -7.762973e-001 -8.845380e-001 -1.175363e+000 2.082685e-001 -1.130362e+000 -1.196368e-001 -2.871171e-001 2.305394e-002 -2.556214e-001 2.799649e-001 7.912657e-002 -2.454628e-001 -6.872054e-002 7.587021e-002 -1.021171e-001 9.914718e-001
<VARIANCE> 25
 5.012873e+001 2.062818e+002 7.608609e+001 9.341234e+001 1.078321e+002 7.882758e+001 1.158288e+002 6.487091e+001 7.046023e+001 5.164535e+001 5.865862e+001 5.992083e+001 4.235440e+000 1.345213e+001 4.817608e+000 7.831713e+000 6.704204e+000 7.066136e+000 7.846717e+000 6.082427e+000 5.839774e+000 5.730010e+000 4.523268e+000 3.580997e+000 1.208682e+001
<GCONST> 1.225802e+002
<STATE> 3
<MEAN> 25
 3.732730e+000 -7.879712e+000 -1.196976e+000 8.990029e-001 -1.637397e+000 -2.799262e+000 1.778323e+000 -2.736447e-001 -4.339149e+000 1.052724e-002 7.654044e-001 -1.152902e+000 1.325442e-001 -5.837706e-001 8.048068e-002 -3.257346e-001 1.270598e-001 -1.178906e-001 8.060292e-002 -3.758606e-002 1.792552e-003 -1.008651e-001 1.419196e-002 -4.010335e-002 6.250089e-001
<VARIANCE> 25
 3.893414e+001 2.085018e+002 8.114525e+001 9.817142e+001 1.113138e+002 7.545885e+001 1.186429e+002 6.981316e+001 6.860188e+001 5.802203e+001 5.660465e+001 6.681150e+001 3.041505e+000 1.020500e+001 5.057479e+000 9.146181e+000 6.632325e+000 6.840824e+000 7.987832e+000 5.694262e+000 6.382298e+000 4.975840e+000 4.656561e+000 3.994668e+000 7.984170e+000
<GCONST> 1.218772e+002
<STATE> 4
<MEAN> 25
 2.812958e+000 -8.722141e+000 -1.647338e+000 -1.027842e+000 4.032665e-001 3.277632e-001 3.186165e+000 7.170627e-001 -3.394208e+000 -7.917604e-001 1.015294e+000 -2.345995e+000 1.243067e-002 2.285295e-001 3.548909e-002 -5.610485e-002 -3.919691e-002 2.135762e-001 -1.023810e-002 -1.827295e-001 1.085726e-001 -4.811094e-002 -9.778710e-002 2.008928e-001 -1.908500e-001
<VARIANCE> 25
 2.394536e+001 2.144851e+002 6.964619e+001 7.211666e+001 6.363695e+001 5.389642e+001 1.141957e+002 5.928939e+001 7.088326e+001 5.751382e+001 5.277650e+001 9.104540e+001 8.067787e-001 5.438212e+000 2.452675e+000 4.744050e+000 3.504618e+000 3.777017e+000 5.143568e+000 3.979927e+000 3.484950e+000 3.413575e+000 3.329010e+000 2.852002e+000 2.514317e+000
<GCONST> 1.119475e+002
<TRANSP> 5
 0.000000e+000 1.000000e+000 0.000000e+000 0.000000e+000 0.000000e+000
 0.000000e+000 8.776070e-001 1.223929e-001 0.000000e+000 0.000000e+000
 0.000000e+000 0.000000e+000 8.890384e-001 1.109615e-001 0.000000e+000
 0.000000e+000 0.000000e+000 0.000000e+000 8.798572e-001 1.201428e-001
 0.000000e+000 0.000000e+000 0.000000e+000 0.000000e+000 0.000000e+000
<ENDHMM>
~h "w"
<BEGINHMM>
<NUMSTATES> 5
<STATE> 2
<MEAN> 25
 5.578217e+000 9.463136e+000 6.793905e+000 -7.699793e+000 2.283070e+000 -5.397441e+000 -4.095538e+000 1.294278e+000 -3.045021e+000 -1.672614e+000 -4.881717e+000 -5.244981e-001 3.804074e-002 5.448039e-001 -7.377071e-002 -2.794718e-001 -5.816456e-002 -1.853568e-001 3.058514e-001 6.226239e-001 -8.877750e-002 4.515664e-001 1.727874e-001 -1.275008e-001 -2.326686e-001
<VARIANCE> 25
 2.906531e+001 3.254769e+001 3.967615e+001 4.115570e+001 1.884997e+001 4.323696e+001 3.711728e+001 2.256853e+001 4.140609e+001 1.027324e+002 8.543882e+001 2.354258e+001 3.275996e-001 1.712029e+000 2.280041e+000 2.939649e+000 2.030106e+000 3.089129e+000 2.082040e+000 1.746550e+000 1.897078e+000 5.668162e+000 3.239126e+000 1.695243e+000 6.079895e-001
<GCONST> 9.762518e+001
<STATE> 3
<MEAN> 25
 5.092975e+000 6.446432e+000 2.336553e+000 -1.042910e+001 4.324748e+000 -7.625363e+000 -1.102452e+000 2.478734e+000 -2.754176e+000 1.943241e+000 -4.660554e-001 -5.347346e-001 -3.271292e-001 -7.544221e-001 -1.509730e-001 -2.607824e-001 2.671517e-001 2.111409e-001 9.594143e-001 7.719477e-002 6.197501e-001 -3.657178e-001 4.266168e-002 -2.159484e-001 6.280677e-001
<VARIANCE> 25
 2.811130e+001 8.089937e+001 3.833329e+001 4.736793e+001 2.617550e+001 4.639773e+001 6.895300e+001 2.517185e+001 6.692220e+001 1.216725e+002 6.030500e+001 3.437497e+001 5.132501e-001 2.815058e+000 1.590755e+000 4.048914e+000 1.864112e+000 3.021639e+000 3.322140e+000 2.885202e+000 4.316965e+000 6.435621e+000 8.161376e+000 3.619633e+000 1.868526e+000
<GCONST> 1.059382e+002
<STATE> 4
<MEAN> 25
 -1.571027e-001 8.876662e+000 3.288678e+000 -7.850943e+000 2.626621e+000 -3.612886e+000 4.727531e-001 2.041090e+000 1.306762e+000 -3.997059e+000 7.369081e-001 2.704160e+000 -6.788212e-002 -1.962949e-001 -7.566410e-002 1.034612e-001 -3.929644e-003 4.326095e-002 8.522806e-002 -1.503538e-001 -1.398271e-001 1.954078e-002 2.147848e-001 1.624017e-001 3.231651e-002
<VARIANCE> 25
 2.902029e+001 1.436410e+002 1.915900e+001 3.137158e+001 2.244746e+001 4.050127e+001 6.483628e+001 2.971085e+001 4.196036e+001 3.007314e+001 2.613385e+001 3.989637e+001 1.879599e-001 7.841229e-001 9.879578e-001 1.133493e+000 1.190516e+000 1.712886e+000 1.635829e+000 2.389642e+000 2.164147e+000 2.635955e+000 1.888516e+000 1.983320e+000 3.440280e-001
<GCONST> 9.141581e+001
<TRANSP> 5
 0.000000e+000 1.000000e+000 0.000000e+000 0.000000e+000 0.000000e+000
 0.000000e+000 8.061425e-001 1.938574e-001 0.000000e+000 0.000000e+000
 0.000000e+000 0.000000e+000 8.039483e-001 1.960517e-001 0.000000e+000
 0.000000e+000 0.000000e+000 0.000000e+000 9.443687e-001 5.563137e-002
 0.000000e+000 0.000000e+000 0.000000e+000 0.000000e+000 0.000000e+000
<ENDHMM>
~h "y"
<BEGINHMM>
<NUMSTATES> 5
<STATE> 2
<MEAN> 25
 -7.325522e-001 -7.586060e+000 6.553220e+000 -6.857748e+000 8.016467e-001 -4.781128e-001 -4.919322e-001 -6.798674e+000 1.333864e+000 8.645664e-001 -8.107614e-002 1.152908e+000 -1.460707e-001 -8.525188e-002 5.751149e-001 6.940637e-002 2.055174e-001 -4.096567e-001 -5.103473e-001 -2.379036e-001 3.459594e-002 7.504726e-003 -9.363304e-002 2.960704e-002 1.574813e-001
<VARIANCE> 25
 9.342828e+001 1.364699e+002 1.536637e+002 1.712213e+002 7.923579e+001 7.451960e+001 7.034137e+001 4.924440e+001 4.841280e+001 6.182078e+001 3.843165e+001 4.787852e+001 2.832865e+000 4.170466e+000 5.653058e+000 4.976471e+000 6.240189e+000 3.015403e+000 4.460399e+000 3.466912e+000 2.610557e+000 3.463141e+000 2.704744e+000 3.024935e+000 1.552481e+000
<GCONST> 1.141561e+002
<STATE> 3
<MEAN> 25
 -1.748669e+000 -8.579771e+000 9.280196e+000 -6.476498e+000 2.300546e+000 -2.495005e+000 -1.465513e+000 -7.413505e+000 1.459471e+000 1.215181e+000 -8.067389e-001 7.774520e-002 1.522686e-001 2.520105e-002 3.004617e-001 6.209312e-001 -5.596740e-002 -3.266639e-001 -2.164822e-001 2.462725e-001 -1.340708e-001 -1.817457e-001 -2.150382e-001 -6.197009e-001 2.182992e-003
<VARIANCE> 25
 1.123570e+002 1.488291e+002 1.597788e+002 2.143462e+002 1.169542e+002 6.659760e+001 9.192976e+001 5.488500e+001 4.875258e+001 6.149988e+001 3.876252e+001 5.905876e+001 2.651772e+000 2.820678e+000 4.644331e+000 5.706841e+000 4.863285e+000 2.815046e+000 6.030208e+000 4.006392e+000 2.820400e+000 4.169972e+000 3.158312e+000 3.278970e+000 1.103085e+000
<GCONST> 1.153326e+002
<STATE> 4
<MEAN> 25
 2.256019e+000 -1.162955e+001 7.925457e+000 2.379146e+000 4.904006e-001 -4.595111e+000 -4.833446e+000 -4.255899e+000 -1.322455e+000 -9.450157e-001 -1.737536e+000 -5.080015e+000 2.344498e-001 -2.279171e-003 -3.592538e-001 1.641531e-001 -2.326123e-002 -1.099982e-001 1.299636e-001 1.324809e-001 -9.889737e-002 -1.349092e-001 1.473031e-001 -1.247993e-001 3.523628e-002
<VARIANCE> 25
 5.676172e+001 1.598261e+002 1.602933e+002 2.146862e+002 1.077270e+002 5.922232e+001 1.271778e+002 6.808260e+001 3.834486e+001 7.646023e+001 4.622888e+001 6.073917e+001 8.373406e-001 1.420247e+000 2.952142e+000 3.957222e+000 2.720276e+000 2.129019e+000 4.585572e+000 3.465088e+000 2.033887e+000 2.696503e+000 2.668791e+000 2.858402e+000 5.253891e-001
<GCONST> 1.095005e+002
<TRANSP> 5
 0.000000e+000 1.000000e+000 0.000000e+000 0.000000e+000 0.000000e+000
 0.000000e+000 6.166225e-001 3.833775e-001 0.000000e+000 0.000000e+000
 0.000000e+000 0.000000e+000 6.712982e-001 3.287017e-001 0.000000e+000
 0.000000e+000 0.000000e+000 0.000000e+000 8.272911e-001 1.727090e-001
 0.000000e+000 0.000000e+000 0.000000e+000 0.000000e+000 0.000000e+000
<ENDHMM>
~h "aa"
<BEGINHMM>
<NUMSTATES> 5
<STATE> 2
<MEAN> 25
 2.945132e+000 -4.259042e+000 -8.837293e-001 -1.912836e+000 2.809500e-001 2.052015e-001 2.396943e+000 -1.953089e+000 -1.800102e+000 -1.297331e+000 4.961999e-001 -5.468053e-001 2.327557e-001 -1.801845e-001 -8.796220e-002 6.408218e-002 -1.741445e-002 1.341770e-001 1.669664e-002 -9.933056e-002 -3.312140e-001 -8.801367e-002 -3.724305e-002 -3.333370e-002 6.765097e-002
<VARIANCE> 25
 3.744296e+001 1.464259e+002 6.544600e+001 9.458548e+001 6.058468e+001 5.542205e+001 8.785546e+001 4.327131e+001 5.669561e+001 5.649966e+001 5.185381e+001 3.751855e+001 1.479417e+000 4.447935e+000 2.713378e+000 4.106301e+000 3.320357e+000 2.779479e+000 4.203505e+000 3.249499e+000 2.907365e+000 3.337437e+000 3.303573e+000 2.599828e+000 2.367019e+000
<GCONST> 1.097105e+002
<STATE> 3
<MEAN> 25
 3.630059e+000 -4.893171e+000 -1.211769e+000 -1.601494e+000 2.112590e-001 5.331275e-001 2.346200e+000 -2.005767e+000 -2.446379e+000 -1.476362e+000 2.691933e-001 -6.359280e-001 1.586223e-001 6.053989e-002 -5.755981e-002 1.729775e-001 -3.023662e-002 7.510458e-002 -8.432931e-002 -1.726935e-002 -1.198297e-001 -9.494469e-002 -1.184489e-001 -3.256858e-003 -8.779629e-002
<VARIANCE> 25
 3.750606e+001 1.474413e+002 6.517593e+001 9.394664e+001 6.085465e+001 5.273626e+001 8.087283e+001 4.471563e+001 5.788638e+001 5.748240e+001 5.368681e+001 3.788574e+001 1.455839e+000 3.549649e+000 2.544157e+000 3.766243e+000 3.254878e+000 2.635035e+000 3.889526e+000 3.275625e+000 2.762144e+000 3.186893e+000 3.085568e+000 2.474258e+000 2.000692e+000
<GCONST> 1.087767e+002
<STATE> 4
<MEAN> 25
 3.434097e+000 -2.763784e+000 -1.888959e+000 -1.216743e+000 -2.874272e-002 5.218851e-001 2.207743e+000 -1.968251e+000 -1.733199e+000 -1.720279e+000 -1.658485e-001 -1.786027e-001 -6.429057e-002 4.289950e-001 1.008332e-001 1.595792e-001 2.557409e-003 -2.467396e-002 -1.377882e-001 -3.222321e-002 3.897847e-002 1.896581e-002 -1.087051e-001 3.254136e-002 -3.155190e-001
<VARIANCE> 25
 3.369128e+001 1.880519e+002 5.039092e+001 7.959075e+001 4.861868e+001 4.729262e+001 7.088975e+001 4.479753e+001 5.164716e+001 5.417807e+001 4.200781e+001 3.925848e+001 6.252185e-001 1.655094e+000 1.501817e+000 2.559636e+000 2.083364e+000 2.020671e+000 2.666039e+000 2.454694e+000 2.081325e+000 2.448905e+000 2.232504e+000 1.935664e+000 7.579391e-001
<GCONST> 1.016578e+002
<TRANSP> 5
 0.000000e+000 1.000000e+000 0.000000e+000 0.000000e+000 0.000000e+000
 0.000000e+000 5.435508e-001 4.564492e-001 0.000000e+000 0.000000e+000
 0.000000e+000 0.000000e+000 5.491881e-001 4.508119e-001 0.000000e+000
 0.000000e+000 0.000000e+000 0.000000e+000 7.587985e-001 2.412016e-001
 0.000000e+000 0.000000e+000 0.000000e+000 0.000000e+000 0.000000e+000
<ENDHMM>
~h "ao"
<BEGINHMM>
<NUMSTATES> 5
<STATE> 2
<MEAN> 25
 5.230366e+000 -1.376920e+000 -2.808229e+000 -9.998639e+000 5.141864e+000 4.241210e-001 -7.288473e-001 -2.591750e+000 -3.706643e+000 2.140792e+000 1.480022e-001 -2.912471e+000 2.235111e-001 -1.192950e-001 -7.046773e-002 -3.621351e-001 -3.357973e-001 -3.576848e-001 2.993683e-001 3.329483e-001 1.238967e-001 1.386982e-001 5.097104e-002 -2.819687e-001 3.251534e-001
<VARIANCE> 25
 2.604255e+001 5.683870e+001 8.853400e+001 7.761533e+001 1.360589e+002 9.917789e+001 8.216829e+001 9.612325e+001 6.910397e+001 7.209830e+001 5.648560e+001 5.150712e+001 1.005271e+000 1.841893e+000 2.019699e+000 5.761301e+000 4.034618e+000 4.853660e+000 4.590688e+000 2.730471e+000 4.817110e+000 4.681472e+000 3.295834e+000 2.690478e+000 1.489076e+000
<GCONST> 1.113254e+002
<STATE> 3
<MEAN> 25
 6.109577e+000 -1.846645e+000 -1.688568e+000 -1.091244e+001 2.548573e+000 -2.284744e+000 1.073064e+000 -6.028315e-001 -2.468454e+000 1.263685e+000 -2.469078e-001 -5.042954e+000 1.684047e-001 -2.757348e-001 -1.916947e-001 3.065854e-001 -2.757452e-001 -2.090731e-001 2.553064e-001 2.878092e-001 4.581253e-001 -4.587097e-002 1.801244e-001 -8.858132e-002 1.522355e-001
<VARIANCE> 25
 2.096368e+001 5.859834e+001 7.046622e+001 6.117704e+001 1.363451e+002 8.811015e+001 7.952478e+001 1.189659e+002 7.221130e+001 5.256680e+001 4.734883e+001 5.433789e+001 7.347623e-001 1.284467e+000 1.666201e+000 3.433119e+000 3.165742e+000 3.363738e+000 4.329280e+000 2.919643e+000 3.363737e+000 3.072203e+000 2.571614e+000 2.344326e+000 9.215026e-001
<GCONST> 1.067111e+002
<STATE> 4
<MEAN> 25
 6.669873e+000 -1.311606e+000 -3.424037e+000 -8.362732e+000 2.695370e+000 -5.320920e-001 -1.191928e+000 -1.674687e+000 1.125436e+000 1.397603e+000 1.112153e+000 -3.954498e+000 4.322115e-002 -3.095333e-001 -1.946875e-001 4.298090e-001 -1.555102e-001 -7.898398e-003 1.305158e-001 3.168173e-001 2.900976e-001 -2.333463e-001 -6.069493e-002 2.309459e-001 -9.916504e-002
<VARIANCE> 25
 2.662542e+001 5.740106e+001 5.136422e+001 5.903012e+001 1.642886e+002 9.215318e+001 9.496802e+001 1.056045e+002 6.404582e+001 2.787415e+001 4.636686e+001 5.193508e+001 3.954191e-001 1.163780e+000 1.308612e+000 1.913129e+000 2.494294e+000 2.187101e+000 3.031494e+000 2.208458e+000 2.466866e+000 2.030668e+000 2.246845e+000 1.861508e+000 4.859706e-001
<GCONST> 1.014682e+002
<TRANSP> 5
 0.000000e+000 1.000000e+000 0.000000e+000 0.000000e+000 0.000000e+000
 0.000000e+000 7.275254e-001 2.724746e-001 0.000000e+000 0.000000e+000
 0.000000e+000 0.000000e+000 6.964288e-001 3.035712e-001 0.000000e+000
 0.000000e+000 0.000000e+000 0.000000e+000 8.138659e-001 1.861341e-001
 0.000000e+000 0.000000e+000 0.000000e+000 0.000000e+000 0.000000e+000
<ENDHMM>
~h "eh"
<BEGINHMM>
<NUMSTATES> 5
<STATE> 2
<MEAN> 25
 2.974327e+000 -3.204167e+000 -1.640744e+000 -4.158451e+000 8.317786e-003 -8.232934e-001 3.597619e+000 -8.456808e-001 -3.027470e+000 -1.611447e+000 1.328709e+000 -1.008858e+000 1.560923e-001 1.974823e-001 3.735327e-002 2.944638e-002 -1.439336e-001 -1.542625e-001 -2.099650e-001 1.554080e-002 -8.413515e-002 -1.322455e-001 -1.546841e-002 4.548115e-002 -6.380243e-002
<VARIANCE> 25
 3.061044e+001 9.278944e+001 4.393402e+001 5.308263e+001 6.501003e+001 5.866817e+001 5.720216e+001 4.882652e+001 5.345934e+001 4.505358e+001 5.708844e+001 3.152259e+001 1.456386e+000 2.119124e+000 1.924489e+000 2.887086e+000 2.909626e+000 2.602511e+000 3.927940e+000 4.491670e+000 2.948099e+000 3.263178e+000 2.950394e+000 2.277097e+000 2.239728e+000
<GCONST> 1.058283e+002
<STATE> 3
<MEAN> 25
 3.219118e+000 -2.675009e+000 -1.456906e+000 -3.851800e+000 -7.634860e-001 -9.836004e-001 3.356489e+000 -9.020315e-001 -3.309955e+000 -1.802288e+000 7.483962e-001 -8.682448e-001 1.109485e-002 3.144722e-001 1.190146e-001 2.417834e-001 -1.377616e-001 -1.349410e-003 -2.254906e-001 -1.149617e-001 7.724269e-002 -4.716279e-002 -1.245199e-001 1.491785e-002 -1.050831e-001
<VARIANCE> 25
 2.893316e+001 9.161236e+001 4.294633e+001 5.205998e+001 6.921770e+001 5.658091e+001 5.483901e+001 4.604063e+001 5.723295e+001 4.591231e+001 5.431501e+001 3.105758e+001 1.544445e+000 2.280835e+000 1.929228e+000 2.743680e+000 2.791986e+000 2.592798e+000 3.639230e+000 4.173066e+000 2.863443e+000 3.349065e+000 3.322267e+000 2.137433e+000 3.141240e+000
<GCONST> 1.059443e+002
<STATE> 4
<MEAN> 25
 2.705053e+000 -1.246193e+000 -1.554500e+000 -2.474598e+000 4.068549e-002 -2.527359e-002 2.238671e+000 -1.729776e+000 -2.580893e+000 -1.462085e+000 7.838112e-001 -4.761189e-001 -1.945910e-001 4.489356e-001 8.896233e-002 2.431697e-001 -3.489763e-002 1.742772e-001 -2.532419e-001 5.389877e-004 2.103612e-001 5.044905e-002 -1.026245e-002 3.147549e-002 -4.110381e-001
<VARIANCE> 25
 2.873606e+001 8.761869e+001 3.623814e+001 5.144000e+001 6.449538e+001 4.628589e+001 4.644807e+001 3.823436e+001 4.897673e+001 4.592628e+001 5.711228e+001 3.543510e+001 1.082281e+000 1.635816e+000 1.516871e+000 2.338343e+000 2.236535e+000 1.987916e+000 2.454286e+000 2.624836e+000 2.442621e+000 2.618595e+000 3.173287e+000 1.922550e+000 1.102988e+000
<GCONST> 1.010775e+002
<TRANSP> 5
 0.000000e+000 1.000000e+000 0.000000e+000 0.000000e+000 0.000000e+000
 0.000000e+000 5.502914e-001 4.497086e-001 0.000000e+000 0.000000e+000
 0.000000e+000 0.000000e+000 5.614936e-001 4.385063e-001 0.000000e+000
 0.000000e+000 0.000000e+000 0.000000e+000 6.821691e-001 3.178309e-001
 0.000000e+000 0.000000e+000 0.000000e+000 0.000000e+000 0.000000e+000
<ENDHMM>
~h "hh"
<BEGINHMM>
<NUMSTATES> 5
<STATE> 2
<MEAN> 25
 2.959307e+000 2.818069e-001 1.569626e+000 -4.921827e+000 -1.881633e+000 -3.111525e+000 2.662098e-001 1.300965e+000 -4.612843e+000 -1.699523e+000 -9.005961e-001 -3.517649e-001 -8.783718e-003 2.951143e-001 1.533804e-001 2.273987e-001 -2.578640e-001 -8.161893e-002 4.883637e-001 7.166735e-001 2.163016e-001 -1.260214e-001 1.337532e-001 -3.851430e-001 -2.242244e-001
<VARIANCE> 25
 1.911418e+001 1.210891e+002 5.250307e+001 4.436467e+001 3.809011e+001 9.508218e+001 6.411336e+001 7.930951e+001 5.143552e+001 3.987989e+001 5.292857e+001 4.991080e+001 6.447015e-001 1.899424e+000 1.522825e+000 1.208466e+000 2.903365e+000 1.469730e+000 3.370909e+000 2.940507e+000 2.770283e+000 3.310176e+000 3.571634e+000 3.285795e+000 4.271004e-001
<GCONST> 1.020664e+002
<STATE> 3
<MEAN> 25
 2.917032e+000 6.643050e-001 1.387041e+000 -4.544347e+000 -2.209194e+000 -2.968972e+000 1.252777e+000 2.591869e+000 -3.672836e+000 -2.014302e+000 -6.276221e-001 -1.065416e+000 -9.457941e-002 1.139005e-001 -1.339007e-001 2.082753e-001 -1.521954e-001 1.140149e-001 3.448389e-001 5.053751e-001 5.256317e-001 -1.110632e-001 1.752890e-001 -3.213608e-001 -2.260433e-001
<VARIANCE> 25
 1.945106e+001 1.300004e+002 4.116708e+001 3.539996e+001 3.867917e+001 8.816023e+001 6.191061e+001 6.252067e+001 6.253297e+001 3.677164e+001 4.985184e+001 5.904128e+001 3.405084e-001 1.788254e+000 1.454920e+000 1.219128e+000 2.285259e+000 1.605104e+000 2.942507e+000 2.262020e+000 1.836165e+000 3.295600e+000 3.086287e+000 2.289115e+000 3.661346e-001
<GCONST> 9.921292e+001
<STATE> 4
<MEAN> 25
 -1.698026e-002 7.636340e+000 9.111998e-001 -3.735548e+000 -1.856564e+000 6.876639e-002 2.106318e+000 2.953096e+000 2.330863e+000 5.355856e-001 2.757868e-001 4.663358e-001 -7.878067e-002 -2.709836e-001 -5.192648e-002 1.377324e-001 -6.420966e-002 4.003940e-002 -6.221696e-003 -1.751244e-001 1.497638e-001 1.787726e-001 6.470029e-002 -9.679856e-002 2.840582e-002
<VARIANCE> 25
 2.524953e+001 1.424142e+002 1.818659e+001 2.108113e+001 2.689208e+001 4.410588e+001 4.834016e+001 3.139019e+001 3.442931e+001 3.516515e+001 2.869074e+001 3.201123e+001 4.588734e-001 1.821123e+000 1.127799e+000 1.250709e+000 1.808530e+000 1.788686e+000 2.187983e+000 2.604697e+000 2.067108e+000 2.435264e+000 2.478124e+000 1.919174e+000 6.413534e-001
<GCONST> 9.421851e+001
<TRANSP> 5
 0.000000e+000 1.000000e+000 0.000000e+000 0.000000e+000 0.000000e+000
 0.000000e+000 4.077483e-001 5.922517e-001 0.000000e+000 0.000000e+000
 0.000000e+000 0.000000e+000 4.347140e-001 5.652859e-001 0.000000e+000
 0.000000e+000 0.000000e+000 0.000000e+000 9.265028e-001 7.349726e-002
 0.000000e+000 0.000000e+000 0.000000e+000 0.000000e+000 0.000000e+000
<ENDHMM>
~h "ih"
<BEGINHMM>
<NUMSTATES> 5
<STATE> 2
<MEAN> 25
 -2.508745e-001 1.438246e+000 7.141264e+000 -6.683713e-001 1.946738e+000 -2.334543e+000 -3.861767e+000 -1.045247e+000 2.327445e+000 -2.574273e+000 -1.042513e+000 -3.301378e-001 -2.239110e-001 2.239688e-004 6.836272e-001 1.310710e-001 1.809731e-001 -3.122876e-001 -3.955864e-001 2.525761e-001 3.841549e-001 -3.182684e-001 -5.385091e-002 -5.155146e-003 4.122458e-002
<VARIANCE> 25
 3.179439e+001 1.824954e+002 1.135087e+002 1.725739e+002 5.900861e+001 7.808727e+001 7.541138e+001 6.651420e+001 4.467212e+001 6.188513e+001 3.358541e+001 3.771428e+001 1.236205e+000 2.082263e+000 4.322679e+000 5.005823e+000 2.649276e+000 3.378310e+000 4.149214e+000 3.725274e+000 3.198786e+000 3.703494e+000 2.541903e+000 2.363593e+000 1.727499e+000
<GCONST> 1.102818e+002
<STATE> 3
<MEAN> 25
 -7.361270e-001 1.394374e+000 8.278024e+000 6.287556e-001 2.290031e+000 -3.106256e+000 -4.577929e+000 -2.974357e-001 2.976659e+000 -3.112824e+000 -1.121851e+000 -5.099058e-001 -7.979025e-002 8.866839e-002 1.907108e-001 3.300529e-001 -2.757939e-002 -1.531543e-001 -1.065209e-001 2.035992e-001 1.416649e-001 -8.715045e-002 -4.870103e-002 -9.585863e-002 -1.322590e-001
<VARIANCE> 25
 3.180792e+001 1.820230e+002 1.139836e+002 1.797070e+002 5.578648e+001 7.899261e+001 7.706878e+001 6.713962e+001 4.408498e+001 6.752119e+001 3.214551e+001 3.694596e+001 9.738347e-001 1.762545e+000 3.537803e+000 3.617102e+000 2.132284e+000 2.739200e+000 3.457738e+000 3.190223e+000 2.852018e+000 3.295317e+000 2.204665e+000 2.139970e+000 1.435710e+000
<GCONST> 1.079674e+002
<STATE> 4
<MEAN> 25
 -1.813318e+000 3.283099e+000 7.833054e+000 4.278369e+000 1.972191e+000 -5.628216e+000 -4.779352e+000 2.691359e+000 3.993533e+000 -4.189715e+000 -2.133298e+000 -7.388355e-001 1.690446e-002 2.915484e-001 -3.027544e-001 -9.745742e-002 -4.780401e-002 9.966742e-002 1.248612e-001 -4.002180e-002 5.667671e-002 1.624985e-001 9.221676e-002 8.457167e-002 -2.261723e-001
<VARIANCE> 25
 1.607679e+001 1.797562e+002 9.012562e+001 1.339321e+002 5.270300e+001 7.477827e+001 7.769289e+001 6.050151e+001 3.930108e+001 6.569817e+001 3.371737e+001 4.688014e+001 5.026819e-001 2.031250e+000 2.473150e+000 2.941573e+000 2.021729e+000 3.073902e+000 3.626724e+000 2.909857e+000 2.774806e+000 3.398906e+000 2.121621e+000 2.373283e+000 5.591837e-001
<GCONST> 1.047388e+002
<TRANSP> 5
 0.000000e+000 1.000000e+000 0.000000e+000 0.000000e+000 0.000000e+000
 0.000000e+000 6.302348e-001 3.697651e-001 0.000000e+000 0.000000e+000
 0.000000e+000 0.000000e+000 6.212713e-001 3.787287e-001 0.000000e+000
 0.000000e+000 0.000000e+000 0.000000e+000 8.891326e-001 1.108674e-001
 0.000000e+000 0.000000e+000 0.000000e+000 0.000000e+000 0.000000e+000
<ENDHMM>
~h "ng"
<BEGINHMM>
<NUMSTATES> 5
<STATE> 2
<MEAN> 25
 2.383823e+000 -3.122650e+000 3.268547e+000 -2.574357e+000 1.179154e+000 -1.201471e+000 7.716556e-001 -2.722825e+000 -8.351952e-001 -1.085204e+000 1.869102e+000 -3.621694e+000 -1.046621e-001 6.075491e-001 7.210742e-002 3.524883e-001 3.327468e-002 1.549513e-001 -3.076446e-002 2.106457e-001 1.851813e-001 1.047918e-001 -2.740831e-001 -3.945677e-002 -6.180578e-001
<VARIANCE> 25
 3.312748e+001 9.497170e+001 6.856643e+001 8.145907e+001 7.569098e+001 8.960256e+001 6.168407e+001 4.738472e+001 7.030486e+001 4.181100e+001 6.565113e+001 6.017427e+001 7.162585e-001 1.263443e+000 1.557997e+000 3.808698e+000 3.011093e+000 2.582804e+000 3.939079e+000 2.539315e+000 2.833883e+000 3.120801e+000 3.672712e+000 2.653877e+000 8.298827e-001
<GCONST> 1.060038e+002
<STATE> 3
<MEAN> 25
 2.708479e+000 -2.865108e-001 1.887777e+000 -9.406736e-001 1.522939e+000 -1.195491e+000 1.345562e+000 -2.083770e+000 3.317004e-001 -1.029738e+000 9.937519e-001 -3.310019e+000 -7.359673e-002 5.582470e-001 -3.797211e-002 3.276778e-001 3.818764e-002 3.779337e-001 -1.588018e-001 3.328518e-001 1.323663e-001 2.434938e-002 -3.931508e-001 6.765229e-002 -6.384904e-001
<VARIANCE> 25
 3.068099e+001 8.074029e+001 5.613214e+001 8.119696e+001 6.006354e+001 5.990821e+001 5.688245e+001 4.115539e+001 6.348751e+001 3.967490e+001 6.355290e+001 5.282021e+001 5.409373e-001 1.405194e+000 1.281153e+000 3.183686e+000 2.436873e+000 2.427700e+000 3.623913e+000 2.267874e+000 2.397470e+000 2.625232e+000 3.130043e+000 2.654137e+000 8.562318e-001
<GCONST> 1.029004e+002
<STATE> 4
<MEAN> 25
 -8.453213e-001 3.446333e+000 -5.606900e-001 5.455948e-001 2.240264e+000 6.961529e-001 1.472119e+000 2.483447e-001 2.137222e+000 1.499823e+000 9.676526e-001 7.709869e-001 -1.136813e-001 7.667899e-002 -5.819227e-002 7.332838e-003 2.022460e-002 6.920134e-002 -5.217905e-002 1.179937e-001 3.061980e-002 2.539394e-002 1.598510e-003 1.796024e-001 -1.933898e-001
<VARIANCE> 25
 2.127872e+001 7.566221e+001 3.533639e+001 4.386990e+001 2.890873e+001 2.631915e+001 3.295027e+001 2.521972e+001 3.500470e+001 3.464331e+001 3.602663e+001 3.255683e+001 2.459632e-001 8.356012e-001 7.428043e-001 1.418279e+000 1.144551e+000 1.382743e+000 1.630045e+000 1.440412e+000 1.683022e+000 1.740662e+000 1.878188e+000 1.515853e+000 4.076194e-001
<GCONST> 8.920824e+001
<TRANSP> 5
 0.000000e+000 1.000000e+000 0.000000e+000 0.000000e+000 0.000000e+000
 0.000000e+000 6.473347e-001 3.526653e-001 0.000000e+000 0.000000e+000
 0.000000e+000 0.000000e+000 6.113754e-001 3.886246e-001 0.000000e+000
 0.000000e+000 0.000000e+000 0.000000e+000 9.345018e-001 6.549818e-002
 0.000000e+000 0.000000e+000 0.000000e+000 0.000000e+000 0.000000e+000
<ENDHMM>
~h "oh"
<BEGINHMM>
<NUMSTATES> 5
<STATE> 2
<MEAN> 25
 4.492237e-008 5.845701e-009 -1.328185e-007 -1.974899e-008 8.013701e-008 5.326083e-008 -2.952693e-008 -7.096470e-008 9.339078e-009 -1.337489e-007 6.334598e-008 -5.331350e-008 -9.746575e-004 8.824667e-003 5.857049e-003 -6.106692e-003 1.834674e-003 2.140600e-003 6.438790e-003 2.552634e-004 2.233275e-003 1.652292e-004 -2.947775e-004 1.625022e-004 1.768339e-002
<VARIANCE> 25
 5.093745e+001 1.386368e+002 7.180528e+001 8.644808e+001 6.100111e+001 5.655713e+001 7.255057e+001 5.467440e+001 5.467830e+001 5.295312e+001 4.155158e+001 3.905978e+001 1.136743e+000 2.774379e+000 2.153254e+000 3.157753e+000 2.791123e+000 2.802559e+000 3.391059e+000 2.977390e+000 2.833076e+000 2.917275e+000 2.609103e+000 2.223614e+000 1.691524e+000
<GCONST> 1.071680e+002
<STATE> 3
<MEAN> 25
 4.492237e-008 5.845701e-009 -1.328185e-007 -1.974899e-008 8.013701e-008 5.326083e-008 -2.952693e-008 -7.096470e-008 9.339078e-009 -1.337489e-007 6.334598e-008 -5.331350e-008 -9.746575e-004 8.824667e-003 5.857049e-003 -6.106692e-003 1.834674e-003 2.140600e-003 6.438790e-003 2.552634e-004 2.233275e-003 1.652292e-004 -2.947775e-004 1.625022e-004 1.768339e-002
<VARIANCE> 25
 5.093745e+001 1.386368e+002 7.180528e+001 8.644808e+001 6.100111e+001 5.655713e+001 7.255057e+001 5.467440e+001 5.467830e+001 5.295312e+001 4.155158e+001 3.905978e+001 1.136743e+000 2.774379e+000 2.153254e+000 3.157753e+000 2.791123e+000 2.802559e+000 3.391059e+000 2.977390e+000 2.833076e+000 2.917275e+000 2.609103e+000 2.223614e+000 1.691524e+000
<GCONST> 1.071680e+002
<STATE> 4
<MEAN> 25
 4.492237e-008 5.845701e-009 -1.328185e-007 -1.974899e-008 8.013701e-008 5.326083e-008 -2.952693e-008 -7.096470e-008 9.339078e-009 -1.337489e-007 6.334598e-008 -5.331350e-008 -9.746575e-004 8.824667e-003 5.857049e-003 -6.106692e-003 1.834674e-003 2.140600e-003 6.438790e-003 2.552634e-004 2.233275e-003 1.652292e-004 -2.947775e-004 1.625022e-004 1.768339e-002
<VARIANCE> 25
 5.093745e+001 1.386368e+002 7.180528e+001 8.644808e+001 6.100111e+001 5.655713e+001 7.255057e+001 5.467440e+001 5.467830e+001 5.295312e+001 4.155158e+001 3.905978e+001 1.136743e+000 2.774379e+000 2.153254e+000 3.157753e+000 2.791123e+000 2.802559e+000 3.391059e+000 2.977390e+000 2.833076e+000 2.917275e+000 2.609103e+000 2.223614e+000 1.691524e+000
<GCONST> 1.071680e+002
<TRANSP> 5
 0.000000e+000 1.000000e+000 0.000000e+000 0.000000e+000 0.000000e+000
 0.000000e+000 6.000000e-001 4.000000e-001 0.000000e+000 0.000000e+000
 0.000000e+000 0.000000e+000 6.000000e-001 4.000000e-001 0.000000e+000
 0.000000e+000 0.000000e+000 0.000000e+000 7.000000e-001 3.000000e-001
 0.000000e+000 0.000000e+000 0.000000e+000 0.000000e+000 0.000000e+000
<ENDHMM>
~h "uw"
<BEGINHMM>
<NUMSTATES> 5
<STATE> 2
<MEAN> 25
 1.431084e+000 -6.074774e+000 -5.601435e-001 -3.870351e+000 1.728802e+000 9.518704e-001 -2.204132e+000 -3.394366e+000 -2.525949e+000 1.565797e+000 1.095234e+000 3.651827e-001 1.637079e-001 -3.811043e-001 4.468381e-002 -2.664711e-001 6.574476e-002 2.105809e-001 -2.164363e-001 -1.077849e-001 -7.328860e-002 8.564071e-002 4.322958e-002 -2.185920e-001 2.537698e-001
<VARIANCE> 25
 7.798652e+001 2.226590e+002 1.547991e+002 1.036253e+002 9.387061e+001 1.086866e+002 8.339402e+001 6.239373e+001 7.788901e+001 5.395000e+001 5.247139e+001 6.767847e+001 3.902359e+000 9.616877e+000 6.274209e+000 7.794656e+000 7.634679e+000 6.823886e+000 6.099018e+000 6.064019e+000 7.341049e+000 5.464594e+000 4.730156e+000 5.190292e+000 5.407216e+000
<GCONST> 1.233567e+002
<STATE> 3
<MEAN> 25
 3.024704e+000 -6.199357e+000 -2.398269e+000 -3.684132e+000 8.437533e-001 3.527048e-001 -2.001431e+000 -2.941034e+000 -2.211462e+000 1.182873e+000 5.449072e-001 -1.936468e+000 1.400649e-001 3.873404e-002 -6.964604e-002 3.514992e-002 -4.245793e-002 -5.050004e-002 1.400162e-001 -6.123418e-002 -1.795219e-002 -2.729777e-002 -4.976363e-002 -2.500987e-001 1.339168e-001
<VARIANCE> 25
 6.971735e+001 1.890062e+002 1.518052e+002 1.079594e+002 1.141402e+002 1.171985e+002 9.501332e+001 8.241447e+001 8.029370e+001 5.597782e+001 6.554288e+001 5.924987e+001 3.278663e+000 6.722132e+000 5.047791e+000 7.659080e+000 8.255767e+000 8.476006e+000 6.742503e+000 7.025522e+000 7.146066e+000 5.269963e+000 5.326585e+000 4.727249e+000 4.769954e+000
<GCONST> 1.235505e+002
<STATE> 4
<MEAN> 25
 2.767918e+000 1.208039e+000 -2.786350e+000 -3.830966e+000 -8.656502e-001 9.423414e-001 1.392014e+000 -2.890890e+000 -1.573888e+000 -1.369475e-001 1.268461e-001 -1.561762e+000 -1.072708e-001 4.517168e-001 1.598489e-001 2.143959e-002 -8.596746e-004 6.909793e-002 -3.910699e-002 1.501145e-001 1.068566e-001 -1.371475e-001 -5.486616e-002 1.673690e-001 -2.795536e-001
<VARIANCE> 25
 2.846169e+001 1.617570e+002 8.109528e+001 8.924100e+001 8.689725e+001 6.786540e+001 8.958456e+001 5.422040e+001 5.710210e+001 4.270663e+001 4.912972e+001 4.594296e+001 9.860510e-001 3.682720e+000 3.176548e+000 4.751813e+000 5.020790e+000 4.125085e+000 5.361158e+000 3.878573e+000 4.930881e+000 3.838642e+000 3.508815e+000 3.634182e+000 1.364346e+000
<GCONST> 1.118263e+002
<TRANSP> 5
 0.000000e+000 1.000000e+000 0.000000e+000 0.000000e+000 0.000000e+000
 0.000000e+000 8.418564e-001 1.581436e-001 0.000000e+000 0.000000e+000
 0.000000e+000 0.000000e+000 8.841220e-001 1.158780e-001 0.000000e+000
 0.000000e+000 0.000000e+000 0.000000e+000 7.884048e-001 2.115951e-001
 0.000000e+000 0.000000e+000 0.000000e+000 0.000000e+000 0.000000e+000
<ENDHMM>
~h "sil"
<BEGINHMM>
<NUMSTATES> 5
<STATE> 2
<MEAN> 25
 3.599173e-001 -1.613189e+000 -1.592516e+000 6.710173e-001 -4.967158e-001 -8.835446e-002 -1.753792e+000 2.885212e-002 -2.107330e-001 -1.107675e+000 -6.935946e-001 7.093562e-001 1.644555e-002 4.781858e-002 -3.108237e-002 -6.799185e-002 -2.582234e-002 4.049923e-003 -3.272767e-002 -2.494727e-002 3.688096e-003 3.427733e-003 1.543725e-002 3.547488e-002 3.158937e-004
<VARIANCE> 25
 6.928162e+001 5.156693e+001 3.162087e+001 4.205208e+001 4.335449e+001 3.351575e+001 4.302613e+001 4.984126e+001 4.491201e+001 4.761084e+001 4.389193e+001 2.542934e+001 1.202298e+000 1.721709e+000 1.210894e+000 1.496437e+000 1.840531e+000 1.932129e+000 1.929959e+000 2.268969e+000 1.767136e+000 2.139115e+000 2.287185e+000 1.609999e+000 8.999034e-001
<GCONST> 9.755353e+001
<STATE> 3
<MEAN> 25
 -1.138974e+001 7.729644e+000 -2.723147e+000 1.038467e+001 -2.997752e+000 6.732940e+000 -4.762106e+000 8.188659e+000 7.718583e+000 4.634545e+000 3.140131e+000 2.245055e+000 -3.099782e-001 1.273410e-001 -3.618289e-002 -3.060375e-001 -2.380018e-001 3.493188e-002 2.674049e-001 -1.203928e-003 -6.387129e-002 -7.726849e-002 -3.951471e-002 1.125917e-001 8.890550e-001
<VARIANCE> 25
 5.631261e+001 2.082330e+001 2.942055e+001 5.491481e+001 3.456054e+001 2.901085e+001 2.308822e+001 5.073384e+001 7.082271e+001 3.096312e+001 2.373700e+001 1.453205e+001 1.203762e+000 9.855511e-001 8.477800e-001 1.331092e+000 1.459362e+000 1.127361e+000 1.491736e+000 1.681378e+000 1.550029e+000 1.572878e+000 1.510936e+000 1.172556e+000 7.536205e+000
<GCONST> 9.310607e+001
<STATE> 4
<MEAN> 25
 -2.811167e+000 3.434934e+000 -1.331441e+000 8.192495e-001 -6.669388e-001 1.658449e+000 4.479403e-001 1.388867e+000 1.076924e+000 1.574368e+000 7.479933e-001 1.384310e+000 -1.461055e-002 2.421814e-003 1.281504e-002 2.797574e-003 1.256081e-002 1.237363e-002 2.244410e-002 1.274688e-002 1.705822e-002 2.704602e-002 1.280573e-002 6.720981e-004 -1.866151e-003
<VARIANCE> 25
 3.971841e+001 4.702008e+001 3.226462e+001 3.526498e+001 3.530766e+001 2.636973e+001 4.006041e+001 3.308040e+001 3.405193e+001 3.749052e+001 2.276014e+001 2.049557e+001 4.573418e-001 5.883462e-001 7.984784e-001 1.016337e+000 1.183701e+000 1.369312e+000 1.564053e+000 1.569561e+000 1.573159e+000 1.696683e+000 1.478856e+000 1.266963e+000 2.508459e-001
<GCONST> 8.792518e+001
<TRANSP> 5
 0.000000e+000 1.000000e+000 0.000000e+000 0.000000e+000 0.000000e+000
 0.000000e+000 9.675711e-001 3.242891e-002 0.000000e+000 0.000000e+000
 0.000000e+000 0.000000e+000 8.277541e-001 1.722459e-001 0.000000e+000
 0.000000e+000 0.000000e+000 0.000000e+000 9.898168e-001 1.018323e-002
 0.000000e+000 0.000000e+000 0.000000e+000 0.000000e+000 0.000000e+000
<ENDHMM>
